0,1,2,3,4,5,6,7,8,9,10,11,12,13,14,15,16,17,18,19,20,21,22,23,24,25,26,27,28,29,30,31,32,33,34,35,36,37,38,39,40,41,42,43,44,45,46,47,48,49,50,51,52,53,54,55,56,57,58,59,60,61,62,63
0.0,0.0,0.0,0.0,-0.33755994,-0.12433161,-0.16528806,0.0,-0.0,0.0,0.16506559,-0.0,0.0,-0.0,-0.16658351,0.0,-0.15411836,-0.0,0.0,0.0,-0.0,-0.0,-0.17620285,-0.28945437,-0.0,-0.0,0.0,0.0,-0.1814072,0.0,0.0,-0.13277493,0.0,-0.0,-0.0,0.0,0.0,0.0,-0.0,-0.0,0.0,0.0,-0.0,0.0,-0.0,0.13659965,-0.2035218,-0.21200916,-0.29586315,-0.2185363,0.0,-0.23929836,0.0,0.0,-0.12743637,0.0,0.0,-0.1441827,-0.18203184,0.0,-0.0,0.0,-0.12433031,0.0
0.0,-0.0,-0.47081417,0.0,0.0,-1.0122571,-0.0,-0.0,0.0,-0.118803516,-1.6066588,-0.33326527,-2.0306027,-0.24314383,-0.3596284,-0.0,-0.19142935,-0.0,-0.1463192,-0.4286315,0.0015656091,-0.24962448,0.0,1.026109,-0.0,-0.0,-0.0,0.0,-0.22765532,-0.0,-0.030662796,-0.37376714,-0.0,0.0,-0.8855047,-0.14765163,0.0,-0.0,-0.77253515,-0.15197814,0.0,0.0,0.0,-0.0,-0.0,-0.0,-0.32264218,-0.0,0.0,-2.1121292,0.0,-0.28033856,0.0,-0.18537639,-0.0,-0.30662128,-0.645347,-0.11872577,-0.2890811,-0.13987264,-0.29565424,-0.3298059,-0.45831648,0.0
0.30315608,-0.20004752,0.70978916,0.4283244,0.0,-1.1715143,-0.0,-0.19821714,-0.0,0.0,0.20830408,-0.0,-0.0,-0.18533663,-0.0,0.0,-0.0,-0.0,-0.0,-0.17845894,-0.0,0.0,0.0,-0.0,-0.18738975,-0.1356326,-0.1560366,-0.0,-0.119878374,0.0,-0.0,-0.13831569,-0.14763318,-0.0,-0.23832127,-0.0,-0.62125134,-0.21087345,-0.50351936,-0.0,0.0,0.0,-0.0,-0.0,-0.15933943,-0.15554646,-0.15701656,-0.0,-0.15920755,-0.5071853,0.0,0.0,0.0,0.0,0.0,0.0,-0.3940357,-0.14750673,0.13841388,-0.0,-0.4053909,0.0,-0.16566673,0.0
0.0,-0.0,0.0,0.0,-0.16481769,-0.0,-0.0,-0.0,0.0,-0.0,-0.0,-0.0,-0.14403926,-0.13198408,0.12549944,-0.0,-0.23638994,0.0,0.0,0.0,0.0,0.0,-0.0,0.0,0.08174057,-0.0,0.0,0.0,0.0,-0.1326815,0.0,0.0,0.0,-0.16244534,-0.0,-0.0,0.0,-0.0,0.0,0.0,0.1553819,0.0,-0.12475395,-0.0,0.1426305,0.0,0.0,0.0,0.0,0.0,-0.17298757,-0.0,0.0,-0.0,-0.19859575,-0.14343506,0.14921184,-0.0,-0.0,-0.20480795,-0.0,0.0,-0.0,0.0
0.0,0.0,-0.0,0.0,0.0,-0.0,-0.0,-0.12971345,-1.3583766,-0.16473733,-0.0,0.0,0.0,0.0,0.0,0.0,-0.0,0.33383968,-0.0,0.0,-0.30765238,0.0,0.0,0.87389535,-0.0,-0.15690304,0.0,0.0,-0.14881873,0.0,-0.0,0.13647585,-0.26772258,-0.0,-0.0,0.0,-0.0,0.0,-0.21147051,-0.0,0.0,0.0,0.0,-0.0,-0.20357627,0.0,-0.21088813,-0.0,0.0,-0.0,0.0,0.0,0.0,0.0,-0.18487072,0.0,-0.0,-0.0,0.18337442,-0.13030086,0.0,0.0,0.0,0.0
0.0,-0.0,-0.12343655,0.0,0.13863795,0.0,-0.19165072,0.0,-0.0,-0.0,0.0,-0.0,-0.1546721,0.0,-0.16241907,0.1443252,-0.13041915,-0.0,-0.0,-0.20365225,0.0,-0.0,0.0,-0.0,0.0,-0.0,-0.0,0.0,0.0,0.0,0.0,0.0,-0.17755333,-0.0,0.0,-0.0,-0.0,-0.19652942,-0.0,0.0,-0.0,0.25312302,0.0,0.0,-0.0,0.0,0.15125135,0.0,-0.0,-0.0,-0.14324751,0.13082603,0.0,-0.0,0.0,-0.20466608,0.0,-0.0,-0.0,-0.12567878,0.0,0.1542866,-0.0,-0.13091181
0.0,0.0,-0.0,0.0,0.0,0.0,0.0,-0.15351497,-0.0,0.0,0.24316907,-0.0,0.1486176,-0.0,-0.12361583,-0.18903115,-0.0,-0.0,0.13048834,-0.0,-0.29982325,0.0,0.0,-0.0,0.12617576,-0.14550887,-0.0,0.0,-0.17787714,-0.13084953,-0.0,-0.0,-0.13732211,-0.0,-0.0,-0.1401885,-0.0,-0.0,-0.0,-0.0,0.39418986,0.0,0.13855983,-0.0,-0.0,-0.0,0.0,-0.0,0.13926494,-0.0,0.0,0.0,0.0,0.1918196,0.0,-0.0,0.1554947,0.17666055,0.0,-0.0,-0.0,0.13710268,-0.0,0.0
0.0,0.0,0.0,0.0,-0.0,-0.15748996,-0.0,-0.0,-0.0,0.0,-0.26231965,-0.0,-0.0,0.0,-0.0,0.0,0.0,-0.0,0.0,0.0,0.0,0.0,0.15563604,0.0,0.16785987,-0.13662718,-0.0,0.0,0.0,-0.14123057,-0.0,-0.18344577,0.13008532,0.0,-0.0,0.0,-0.14390755,-0.0,-0.0,0.0,-0.0,0.0,-0.0,0.14296044,-0.16277878,0.0,-0.1775778,-0.0,-0.0,-0.0,-0.0,-0.0,0.0,0.0,-0.14810413,-0.0,-0.0,0.18027093,0.1560637,0.0,-0.119639836,0.20248781,0.0,0.0
-0.17391202,0.0,-0.16276813,-0.0,-0.0,0.0,0.0,-0.0,-0.14856596,-0.0,0.0,-0.31110287,-0.0,-0.19917761,-0.0,-0.16774306,-0.0,-0.0,-0.0,0.18133564,-0.0,-0.0,-0.0,-0.0,0.0,-0.13752793,0.0,-0.0,-0.0,-0.0,-0.0,-0.1449098,-0.149737,0.0,0.0,0.0,0.13754575,-0.1291278,0.0,-0.0,-0.15102142,0.0,-0.13916388,-0.0,0.0,0.0,0.0,0.12524316,-0.0,-0.21267135,-0.0,0.1293987,0.0,0.0,-0.0,0.0,0.14500287,-0.16474678,-0.0,0.13124877,-0.0,-0.0,-0.16211747,0.13216147
0.0,0.0,0.0,2.3802814,0.0,0.0,-0.0,-0.12056627,-0.0,0.0,-0.24219596,-0.2869828,-0.0,-0.0,0.15010357,-0.12743714,-0.0,-0.0,-0.0,0.0,0.0,-0.0,0.0,0.0,-0.0,-0.16701426,0.0,0.0,0.0,-0.0,-0.0,-0.0,-0.12572569,-0.23243742,0.0,-0.15847056,-0.0,0.0,-0.0,-0.0,0.0,0.0,-0.1625611,0.0,0.0,0.0,-0.0,-0.12494199,0.0,0.0,0.0,0.0,0.0,-0.0,-0.0,0.0,-0.1713553,-0.20088984,0.0,-0.15727678,-0.0,0.0,-0.0,-0.0
-0.15151173,0.14895856,0.0,-0.27129108,0.0,-0.2834093,-0.0,0.0,-0.0,0.0,0.0,0.125216,0.13442068,-0.28462133,0.0,0.0,0.0,-0.18608023,0.16214877,-0.2571792,-0.1710603,0.0,0.12439328,-0.21579212,-0.0,-0.0,-0.20892772,-0.40336996,0.118341275,-0.0,-0.0,0.0,-0.17079265,-0.17937116,-0.24249141,-0.0,-0.20324051,0.0,-0.17652293,-0.21154115,-0.24704266,-0.2086528,-0.0,-0.14431015,0.0,0.0,0.13201167,-0.0,-0.30664703,-0.17556791,0.0,-0.142776,0.0,-0.0,-0.25770107,0.0,-0.0,-0.0,-0.13697468,-0.16818675,-0.12592083,0.0,0.15317068,-0.3037573
-0.1764941,-0.0,-0.11997079,0.122691266,0.0,-0.15593179,-0.15881135,0.0,-0.0,-0.0,0.12586108,0.16714251,-0.19050947,0.0,-0.0,0.0,0.0,-0.0,0.0,0.0,-0.17098373,0.12619913,0.0,-0.20611715,0.0,-0.1423157,0.0,-0.0,-0.0,0.1482696,-0.24600922,-0.0,-0.0,0.0,-0.122655444,-0.0,-0.0,0.0,0.0,0.15831578,-0.0,0.13910222,-0.0,-0.0,0.0,0.0,-0.18671274,0.0,0.0,0.0,-0.0,-0.0,0.12568928,0.289921,0.0,0.0,-0.0,0.0,0.0,-0.0,0.13054492,0.22604659,-0.12533353,-0.164997
0.0,0.0,0.0,-0.0,-0.0,-0.12841907,-0.11892934,0.0,0.0,0.13377476,-0.0,-0.0,-0.0,0.0,-0.19671944,-0.13229139,-0.0,-0.15406612,0.0,0.0,-0.0,-0.14592052,-0.0,-0.0,0.0,-0.0,0.0,0.1584293,-0.0,-0.0,0.0,-0.1775195,-0.0,0.13635285,-0.18072689,-0.0,-0.0,0.14619404,0.14381067,0.0,-0.21853533,-0.18911164,-0.14797936,-0.14650431,-0.13616027,0.0,0.0,-0.12829934,-0.0,0.0,0.0,-0.18675394,0.0,-0.25478226,0.12081331,0.1233071,-0.0,0.0,0.0,-0.1830539,-0.13106063,0.0,-0.0,-0.11798775
-0.0,-0.0,-0.0,0.0,0.19117658,0.0,-0.0,0.0,0.0,0.0,0.16959968,-0.0,0.0,-0.13288215,0.0,0.14324482,0.14086577,-0.18594229,0.15673779,-0.0,-0.14676481,0.23604153,-0.0,0.0,-0.1193833,-0.0,-0.0,0.0,0.0,-0.0,0.0,0.0,0.13421053,-0.0,0.0,-0.15409984,0.0,-0.0,0.0,-0.0,-0.0,0.0,0.0,-0.0,-0.0,-0.12753183,-0.0,0.0,0.0,-0.2618247,0.0,-0.0,0.15040731,0.0,0.0,-0.0,-0.0,-0.0,-0.12882206,0.12892777,-0.0,0.0,-0.0,0.0
0.0,-0.0,-0.17804183,0.0,0.0,-0.0,0.0,-0.13397409,0.0,0.0,0.12702379,-0.0,-0.16702533,-0.0,-0.0,-0.0,-0.0,0.2549572,-0.18267813,0.0,-0.0,0.0,-0.0,-0.118897215,0.7568034,-0.0,-0.18302733,0.0,0.0,-0.13404456,0.0,-0.0,-0.0,0.0,-0.0,-0.0,1.0171913,0.0,0.0,0.0,-0.027113866,0.0,-0.0,-0.11998024,-0.0,0.0,0.0,0.0,0.0,-0.0,-0.015151782,0.0,0.0,0.24650776,-0.0,-0.15900347,-0.0,0.11851623,0.0,-0.13884658,0.0,-0.0,0.1618763,-0.0
0.0,-0.25909352,-0.32660127,0.26769477,0.0,-0.23989375,0.0,0.0,-0.0,0.0,0.1887571,-0.25169542,0.0,-0.0,-0.13780509,-0.0,-0.0,-0.0,-0.0,-0.15594675,-0.27071056,-0.23190503,-0.12522103,-0.21287166,-0.0,-0.11808372,-0.13363154,0.0,-0.0,0.0,-0.0,-0.0,0.0,0.12429751,-0.18293162,-0.0,-0.0,-0.16158289,-0.17763594,0.0,0.0,0.0,-0.17303742,0.118231334,-0.0,-0.1593056,0.0,0.0,0.0,0.0,0.0,-0.0,-0.3171736,0.13936535,-0.0,0.0,-0.0,-0.25150532,-0.48260266,-0.0,-0.24894884,-0.19090746,-0.34371504,0.13246185
-0.13528802,-0.0,-0.0,0.37726513,-0.0,-0.14500596,0.0,-0.13624412,-0.0,0.0,-0.0,-0.26649797,0.0,0.16635679,0.0,-0.0,-0.4092498,-0.1604807,-0.1429947,-0.0,0.0,-0.2579617,-0.0,0.20011021,-0.0,-0.0,-0.0,0.0,-0.0,-0.0,-0.0,-0.15057151,-0.22397766,0.0,0.0,-0.0,0.14736703,0.0,0.0,0.0,-0.0,0.0,0.0,-0.16556877,0.0,0.22650169,-0.0,0.13008837,0.0,0.0,0.0,0.12001759,-0.17282589,0.0,-0.0,-0.0,-0.0,-0.36430588,-0.27976766,0.0,-0.0,-0.1601406,-0.29808137,-0.0
-0.0,-0.0,0.0,0.0,-0.23335826,0.0,-0.0,-0.0,-0.1519772,-0.0,0.0,-0.12985913,-0.0,0.0,-0.20107111,-0.0,-0.0,-0.16679807,0.0,-0.0,-0.0,-0.0,-0.0,0.15141527,0.18361033,-0.0,0.15934122,-0.13681102,0.0,-0.0,0.18460599,-0.17308821,0.0,-0.0,-0.13004132,-0.16170667,-0.0,-0.14155193,0.0,-0.0,-0.0,-0.0,-0.0,0.15008475,0.0,0.0,0.0,-0.15871367,0.0,0.0,-0.15742515,-0.123679005,0.21907309,0.0,0.0,-0.0,0.0,-0.0,-0.123132944,-0.0,0.14940879,0.0,-0.14976212,0.0
0.0,-0.23259386,0.0,0.0,0.0,0.0,-0.17380063,-0.0,-0.13846493,0.0,-0.0,-0.2138251,-0.0,-0.15203807,-0.0,0.13000815,0.0,-0.0,0.0,-0.0,0.14227128,0.200184,0.0,-0.0,0.0,-0.0,-0.15348992,0.0,-0.13222715,0.0,-0.22517912,0.0,0.0,0.0,0.0,0.0,0.0,-0.14743438,0.0,0.0,-0.0,0.17327803,0.20224957,-0.0,-0.0,0.0,0.0,-0.0,0.0,-0.0,-0.0,0.0,0.0,0.25812364,0.0,-0.23886317,-0.0,0.1742849,0.1490663,-0.22124237,-0.0,0.22720782,0.2084992,-0.0
-0.16510382,-0.0,-0.0,-0.0,-0.0,-0.0,-0.0,-0.0,-0.13084379,0.0,-0.16593078,-0.0,-0.11807454,0.0,-0.0,0.0,-0.0,-0.18820834,0.0,-0.17334872,0.0,0.0,-0.19748412,0.0,-0.23853084,0.0,-0.0,-0.0,-0.24574314,-0.12274814,-0.23110844,-0.0,0.0,0.0,0.0,-0.22950825,-0.12898059,-0.0,0.1833241,0.0,-0.18255451,-0.1444851,-0.0,-0.22800902,0.0,-0.13705988,-0.0,-0.0,0.0,-0.0,0.16363879,0.0,-0.0,-0.0,0.0,0.0,-0.0,-0.12650955,0.0,0.0,0.0,-0.0,0.0,0.15847829
-0.13997012,-0.0,-0.0,0.0,-0.0,0.0,-0.21233243,0.0,-0.0,0.0,0.21183439,-0.28858626,-0.0,-0.0,-0.20365818,-0.1386625,-0.0,-0.0,-0.0,0.0,-0.0,0.12851962,-0.19073187,-0.33277506,-0.0,-0.11821953,-0.17463864,-0.0,-0.2409579,0.0,-0.21912839,-0.14352445,-0.0,0.0,0.0,0.0,-0.0,-0.0,0.0,-0.0,0.0,-0.0,0.0,0.0,0.0,-0.0,-0.22176735,0.0,0.0,0.0,0.0,0.0,0.0,0.0,-0.0,-0.19276808,-0.0,0.15138051,0.15472434,0.0,0.0,-0.0,0.16268471,0.0
-0.0,-0.23856907,0.16667403,0.28920734,0.0,-0.0,0.17951359,0.0,-0.0,0.0,0.0,-0.0,-0.46573323,0.0,-0.15699938,-0.14168331,0.24144149,0.0,-0.0,-0.0,-0.12982985,-0.0,-0.0,0.26822585,-0.0,-0.0,-0.0,0.0,-0.23249626,-0.0,0.50162226,0.0,0.0,0.0,-0.0,-0.14083594,-0.0,-0.15701582,0.120723985,0.22263542,-0.17689459,-0.0,-0.0,-0.18145797,0.1658141,-0.0,0.0,0.16433467,0.12784596,-0.4544721,0.0,-0.0,-0.0,0.0,-0.21869306,-0.21409489,-0.13443051,-0.0,-0.0,0.14654045,-0.17591086,0.12071861,0.0,-0.0
0.0,-0.18453781,0.0,0.0,-0.2530657,-0.0,-0.0,0.0,-0.0,0.0,0.0,-0.23596422,-0.0,-0.0,-0.13683811,0.0,-0.0,-0.0,-0.0,0.0,-0.0,-0.0,0.0,-0.0,0.0,-0.1936666,-0.17899618,0.0,0.0,-0.0,-0.0,-0.15022981,0.0,-0.0,0.0,0.0,0.0,-0.0,-0.0,0.0,0.806899,0.0,-0.0,-0.0,0.0,-0.0,0.0,-0.27833357,-0.59265816,0.0,0.0,0.0,-0.0,0.0,0.0,0.0,-0.14935471,0.0,0.0,0.0,-0.0,-0.13296084,0.0,-0.15426719
0.0,-0.0,0.0,0.0,0.0,0.0,-0.0,0.12333648,-0.22056316,-0.0,0.14865641,-0.0,0.0,-0.15342636,0.0,-0.1682512,0.0,0.0,-0.12253009,-0.0,-0.0,-0.0,-0.12626202,0.0,-0.0,0.128709,-0.12257561,0.0,-0.0,0.0,0.0,-0.18560961,0.17820457,-0.19484252,-0.11252483,-0.0,0.0,-0.0,0.17092083,0.12293637,0.0,0.0,0.0,0.13006225,0.0,-0.19342884,0.0,-0.16947624,0.0,0.0,0.0,-0.17993051,0.0,-0.0,0.0,-0.13192654,-0.16893867,0.0,-0.0,-0.16329503,-0.0,0.25356886,0.17793466,0.0
0.0,-0.0,0.0,0.0,0.12687168,0.45300448,-0.1357304,-0.20643166,0.0,0.0,-0.22917593,-0.0,-0.45363754,-0.0,-0.21803196,-0.0,-0.22336347,-0.0,-0.0,-0.35933143,0.0,-0.0,0.0,0.0,-0.5085205,0.0,-0.16236839,0.0,-0.0,-0.0,0.0,0.0,-0.16273057,-0.0,-0.0,-0.23312937,-0.36815393,0.0,-0.36703217,-0.28406313,0.0,0.0,-0.22150344,-0.3325967,-0.34594625,-0.0,-0.24858119,-0.0,0.31479287,0.0,0.0,0.0,-0.0,-0.2469072,0.12432901,-0.18525678,0.0,-0.0,-0.0,-0.12408917,-0.0,-0.15082403,0.16178209,-0.0
-0.0,0.0,-0.0,0.0,0.0,0.0,0.0,0.0,0.0,-0.0,-0.0,-0.14813077,-0.0,0.0,0.0,-0.0,-0.0,-0.1404099,-0.122639865,-0.0,-0.0,-0.25261495,-0.0,-0.16929227,-0.0,0.0,-0.26603037,-0.1336135,-0.14468217,-0.17222002,0.1511761,-0.14925733,0.0,0.0,-0.0,-0.0,-0.14158647,-0.0,0.0,-0.19935955,0.0,0.0,0.0,0.0,0.13400991,-0.0,0.0,-0.0,-0.11907606,-0.0,-0.13487181,0.13069521,-0.12015657,-0.0,-0.0,-0.20010807,0.0,0.0,-0.15031375,0.0,-0.0,0.0,-0.20589061,-0.1670757
0.0,-0.0,-0.0,-0.0,0.0,-0.0,0.0,0.0,-0.0,0.0,0.1447828,0.0,-0.14610258,-0.16537346,-0.0,-0.0,-0.0,-0.0,0.0,0.0,0.0,-0.0,0.14391048,-0.31348193,-0.0,0.0,-0.16882977,0.0,-0.0,-0.0,-0.0,0.0,-0.0,-0.0,-0.0,0.0,0.13627169,-0.11910815,-0.0,0.18927817,-0.0,-0.0,-0.12855485,-0.0,0.0,0.0,0.0,-0.0,-0.0,0.22219637,0.0,0.12048465,0.0,0.33887652,0.11934532,-0.0,-0.0,0.0,0.12184102,0.0,0.0,0.0,-0.0,-0.0
-0.14379764,-0.20860979,-0.25216943,0.0,0.13130441,-0.0,-0.0,0.0,-0.0,-0.0,0.24116611,0.0,-0.21532331,-0.0,0.0,-0.0,-0.0,0.0,-0.0,-0.16964014,-0.0,0.17469159,0.0,-0.21752177,0.25934818,-0.0,-0.17879319,0.0,-0.23482022,-0.0,0.0,-0.17560999,0.0,-0.0,-0.0,0.0,0.0,-0.0,-0.0,-0.0,0.0,0.0,-0.18100052,0.0,0.0,0.14110725,-0.2095696,-0.0,0.0,-0.0,0.0,0.27220035,0.1609032,0.0,-0.14185734,0.0,0.0,0.14084238,0.0,-0.0,0.0,0.0,0.12878215,-0.17930098
-0.0,-0.0,-0.0,-0.0,-0.1806836,0.0,-0.19416213,-0.0,0.0,0.0,0.0,0.0,-0.0,-0.0,0.0,0.1633883,0.0,0.0,-0.0,-0.17775947,-0.0,0.0,-0.17385079,0.0,-0.0,0.0,0.0,0.0,0.0,-0.0,-0.0,-0.0,-0.0,-0.12041506,-0.0,-0.19115627,0.0,0.0,0.17443779,-0.0,-0.18303776,-0.0,0.0,-0.0,0.0,0.0,0.0,-0.0,-0.0,-0.0,0.0,-0.0,0.0,0.0,0.0,0.0,-0.0,0.0,0.0,0.0,-0.0,-0.0,-0.0,0.0
0.0,0.0,0.6799361,0.0,0.0,-0.58953923,0.16792859,-0.11880118,-0.25649205,-0.0,0.15672655,-0.28198072,-0.37002116,-0.120111704,0.0,-0.0,-0.22607486,-0.0,0.0,-0.19972624,0.0,0.0,-0.0,0.48834625,0.0,0.0,-0.20327291,-0.14228007,-0.0,-0.19775248,0.19536199,0.12755837,-0.0,0.0,0.0,-0.14143331,0.8752152,0.0,-0.0,-0.0,0.0,0.0,0.0,0.0,-0.14210296,0.0,-0.0,0.0,0.0,0.0,0.0,0.15455018,-0.0,-0.22420178,0.1430073,-0.12652595,-0.20235626,0.21256094,0.0,0.0,0.0,-0.12867159,-0.13874778,-0.0
-0.1896902,0.0,0.0,-0.0,-0.0,-0.0,-0.0,-0.14005163,-0.15794377,-0.0,0.0,-0.0,-0.29670858,0.0,0.0,-0.0,0.0,-0.23852465,-0.0,-0.0,-0.0,0.12292662,0.0,0.0,0.0,0.0,0.13985988,0.0,0.0,-0.0,-0.21327636,-0.12865214,-0.20610851,0.0,0.0,-0.0,-0.0,-0.0,-0.23513028,0.0,0.0,-0.0,0.0,-0.16055375,-0.0,0.0,-0.0,-0.23320648,0.0,0.0,0.0,-0.0,0.0,0.0,-0.0,0.0,0.0,-0.22332424,0.0,-0.0,0.0,-0.0,0.0,-0.0
-0.0,-0.13198991,0.0,0.0,0.0,0.23160249,0.0,-0.0,0.0,0.0,0.0,-0.0,0.0,-0.17139848,0.18262753,-0.14489543,0.13913086,-0.0,-0.12161651,0.0,-0.0,0.0,-0.19102001,-0.0,-0.0,-0.0,-0.0,-0.0,-0.16842006,-0.13197945,0.0,0.0,-0.0,-0.15826358,-0.0,0.1392877,0.0,-0.0,0.0,-0.0,-0.0,-0.0,-0.24726884,-0.23757406,-0.0,-0.0,-0.18429098,-0.22419354,-0.20903587,0.0,0.0,0.0,0.14545679,-0.0,-0.18463527,0.1388095,0.0,0.0,0.0,0.0,-0.0,0.19548249,0.16960496,0.0
0.0,-0.0,0.0,-0.46259984,-0.0,0.0,0.0,0.0,-0.0,-0.0,0.0,0.0,-0.33382574,0.0,-0.16498575,-0.15272638,-0.17532109,-0.0,-0.15835804,0.0,0.0,0.0,-0.0,-0.26554725,-0.2794623,-0.1741044,-0.0,-0.0,0.17929766,-0.0,-0.0,-0.0,-0.2721413,-0.0,0.0,-0.0,-0.4318094,0.0,-0.32728776,-0.13391896,0.0,-0.0,-0.12575144,0.0,-0.12728368,0.0,-0.0,0.0,-0.38673222,-0.3115972,-0.27815112,0.0,0.0,-0.0,0.12712899,-0.0,-0.0,0.0,0.14555347,0.0,-0.12420202,0.0,0.0,-0.12874776
-0.16225192,-0.0,0.0,-0.0,-0.3867401,-0.0,-0.0,-0.14987685,0.0,0.0,0.0,-0.3263155,-0.27989334,-0.12851192,0.0,0.0,-0.20193025,-0.1393938,-0.0,0.20977159,0.0,-0.2715112,-0.0,0.0,0.0,-0.17864394,-0.26254767,0.0,-0.1958545,-0.0,0.0,0.0,0.14826638,-0.0,0.0,-0.0,0.0,-0.0,0.0,-0.14835908,0.0,0.0,-0.0,0.0,-0.12985526,-0.0,-0.0,0.0,0.0,0.0,0.0,0.0,0.0,-0.23485312,-0.17187704,0.0,0.0,-0.0,0.0,-0.0,-0.0,-0.21936096,0.0,-0.19429237
0.0,0.12347896,-0.15433641,-0.13731316,0.0,-0.0,0.0,-0.18839936,-0.0,0.0,-0.0,-0.17447686,-0.0,-0.0,-0.17043714,0.15978806,0.0,0.0,-0.1439767,-0.0,0.0,-0.12404424,0.0,-0.15868458,-0.0,-0.18543698,0.15820524,-0.17959313,0.0,0.0,-0.0,-0.0,0.0,0.0,0.0,-0.0,-0.0,0.0,-0.0,0.0,-0.0,0.0,-0.0,-0.0,-0.0,-0.0,0.13208567,0.0,-0.122687675,0.0,-0.0,0.128313,0.12992918,0.0,-0.0,0.13106064,-0.12190683,-0.0,0.0,-0.12187658,0.0,0.0,0.0,-0.0
0.0,-0.0,-0.5273662,-0.9468811,-0.26693332,-1.4455246,-0.0,0.0,-0.30371347,-0.0,0.0,0.0,-0.97140396,-0.2010277,0.0,-0.16607784,0.0,-0.0,-0.0,0.0,-0.5042923,0.0,-0.18916416,0.22095674,-0.0,0.0,-0.2282704,-0.0,-0.12192504,-0.4266802,-0.0,-0.1681628,-0.0,-0.20772932,-0.25525388,-0.32281807,-0.20602216,-0.0,-0.76609564,0.0,-0.0,0.0,-0.3673922,-0.0,-0.2634959,0.0,-0.2890435,0.0,-0.3646426,-0.67250097,0.0,-0.0,-0.0,-0.0,-0.23694125,-0.15930875,-0.3120636,0.12643309,-0.0,-0.0,-0.2602701,0.0,-0.0,-0.24040188
0.0,-0.0,0.0,0.0,-0.6236295,-0.0,-0.0,0.0,0.0,0.0,0.0,-0.0,-0.0,0.0,-0.19729558,-0.0,0.0,-0.0,0.0,-0.26411772,0.0,0.0,0.0,0.0,0.0,-0.0,0.0,0.0,0.0,-0.0,0.0,-0.0,-0.14839144,-0.14746562,0.0,0.0,0.0,0.0,0.0,-0.16269544,0.0,0.0,0.0,0.0,0.0,-0.0,-0.0,-0.2330854,-0.26515123,0.0,0.0,-0.410497,0.0,0.0,-0.32357135,0.0,-0.19069031,0.0,0.0,-0.0,-0.17470421,-0.0,-0.14596589,-0.25399455
0.0,-0.36067548,0.108897366,0.0,-0.3622055,-0.51280296,-0.0,-0.0,0.0,0.0,0.4413578,-0.22728594,0.0,-0.3621923,-0.0,-0.0,-0.24945745,0.0,-0.27796412,0.13248855,0.0,-0.2990546,-0.1743836,0.1260518,0.9580964,0.12253016,0.0,0.0,-0.16836528,-0.12321093,0.3461298,0.0,-0.0,0.0,-0.0,0.0,0.6213166,-0.0,-0.60460526,-0.1776605,0.0,0.18726096,-0.28211254,0.0,0.15236776,-0.0,-0.2810024,-0.0,0.42857182,-0.86121863,0.0,0.0,0.0,0.0,-0.31034347,-0.32333273,0.0,-0.16719498,-0.27807,-0.0,-0.0,-0.0,-0.2159399,0.0
0.0,-0.15483905,0.9730705,-1.8410839,-0.0,-1.2797605,-0.12672828,0.0,0.0,-0.0,-0.2676442,-0.20712863,-0.9718961,0.0,0.0,0.0,-0.0,0.0,0.11970359,0.48739806,-0.14868377,-0.13263886,0.0,0.16555399,-0.0,0.0,-0.0,-0.1499251,-0.0,0.0,0.0,0.5117563,0.0,0.0,0.4527423,0.0,-0.46165022,0.15668312,0.25178733,-0.21699823,-0.1243862,0.20813777,0.3360418,0.0,0.0,-0.0,-0.0,-0.16794379,-0.6026484,-0.22364798,0.0,0.0,-0.12906604,0.0,0.14836255,0.0,-0.5992622,0.0,-0.22647683,-0.0,-0.53766334,-0.0,-0.0,-0.0
0.0,-0.19760403,0.0,0.0,-0.0,0.0,0.0,-0.0,0.0,0.0,0.0,-0.0,0.0,-0.24683955,0.0,-0.0,-0.20349824,0.0,0.0,-0.0,0.0,-0.0,-0.0,-0.0,-0.30611098,-0.0,-0.0,-0.19376679,-0.0,-0.22246595,0.0,0.16141139,-0.0,0.0,-0.0,-0.0,0.17062424,0.0,-0.34683138,-0.12114818,0.0,-0.20527259,-0.20207757,-0.0,-0.14831051,-0.0,-0.0,-0.0,-0.0,-0.0,0.0,0.0,-0.13107759,-0.0,0.0,-0.1719589,0.0,-0.20751414,-0.0,-0.2535308,0.0,-0.2641213,0.0,-0.16524173
0.0,0.0,-0.0,0.0,-0.2516244,-0.18715858,-0.0,-0.0,-0.0,-0.21814775,-0.0,-0.12751558,0.0,-0.0,0.0,0.0,0.0,-0.1324573,0.1649269,-0.15247807,-0.0,0.0,0.0,-0.15176459,0.0,0.0,-0.0,-0.0,-0.16946232,0.0,-0.118817605,0.13548546,0.0,-0.0,0.0,-0.0,0.0,0.14753887,0.20420413,-0.0,-0.117957264,0.0,-0.16598873,0.0,-0.0,-0.16424125,0.0,-0.0,0.0,0.13727364,-0.0,-0.21323805,-0.0,0.0,0.0,-0.0,-0.0,0.0,0.0,-0.0,-0.12659591,0.0,0.0,-0.0
-0.0,-0.0,-0.0,-0.12621574,0.0,0.12070213,0.19602439,-0.1534055,-0.0,-0.0,0.0,0.0,-0.5117045,-0.0,-0.0,0.0,-0.0,0.0,-0.21913607,0.0,0.0,0.0,-0.0,-0.25198263,0.0,0.19571903,0.0,0.0,-0.3165817,-0.0,-0.24579681,0.19809073,0.0,-0.14230193,-0.0,-0.0,-0.0,0.13923973,0.0,-0.1936727,-0.0,-0.16151232,0.0,-0.14186975,0.0,-0.0,-0.20128377,-0.16106378,-0.0,0.0,0.0,0.0,-0.25412723,-0.1435876,-0.15767388,-0.0,-0.0,-0.0,-0.0,0.0,-0.15477826,-0.16443472,0.0,-0.0
-0.0,-0.23664525,0.0,0.0,0.0,0.0,-0.0,-0.0,0.0,-0.25670913,0.0,-0.0,-0.0,0.0,0.0,-0.23371357,-0.17281733,-0.0,0.0,-0.0,0.0,-0.0,-0.17968677,-0.0,0.0,0.0,-0.19826394,-0.0,-0.13361965,0.0,-0.0,-0.0,-0.14050005,-0.0,-0.0,-0.15401848,-0.0,0.0,0.0,-0.0,0.0,0.0,-0.17336868,0.0,-0.17072593,0.13703401,-0.1379004,-0.0,-0.0,0.17282613,-0.16256887,0.20269947,-0.22718936,-0.18819624,-0.0,-0.0,-0.0,-0.20726086,-0.0,-0.0,-0.0,0.16076724,0.0,0.0
0.0,0.0,-0.0,-0.47818008,0.0,0.16411115,-0.0,-0.2606822,0.0,-0.0,-0.17179821,-0.19970056,-1.2033589,0.0,-0.38825262,-0.12061097,-0.31983584,-0.1590988,-0.0,-0.0,-0.0,0.0,0.0,0.0,0.0,-0.0,-0.3053488,0.0,-0.16321616,-0.22482191,0.0,-0.0,-0.0,-0.0,-0.17349045,0.0,0.0,0.0,-0.0,-0.0,-0.12299632,-0.13180657,-0.2029241,0.0,-0.16634065,-0.0,-0.0,-0.34766614,-0.14550148,-0.6179525,0.0,0.0,-0.22223596,0.0,-0.22281073,-0.22327666,-0.2396968,-0.0,-0.24304436,-0.19194451,-0.0,-0.28313294,-0.0,0.15452154
0.0,-0.0,0.37869683,0.0,0.0,-0.260272,-0.0,-0.0,-0.0,-0.22594163,0.20407286,-0.27740046,-0.0,-0.0,-0.0,-0.0,0.0,0.0,-0.0,0.0,0.0,-0.0,-0.0,0.0,3.6478858,-0.0,-0.1479656,0.0,-0.0,-0.0,-0.0,0.0,-0.0,0.0,0.0,0.0,0.9084315,0.2391259,-0.0,-0.0,0.0,0.0,-0.2573224,-0.20422736,-0.0,0.0,0.0,0.0,0.94646287,0.0,0.0,0.0,-0.0,-0.18224306,-0.0,-0.22399163,-0.0,-0.15370381,-0.0,-0.15157093,-0.11857339,-0.0,-0.29493603,-0.1903954
0.0,-0.2856969,-0.15356718,0.0,0.0,-0.16560306,-0.0,-0.0,-0.0,-0.2556325,0.0,-0.0,-0.0,0.0,-0.2113458,0.0,-0.0,-0.0,-0.15907119,-0.0,-0.0,-0.0,0.0,-0.35495433,0.13377498,0.0,-0.21833481,0.0,-0.18424012,-0.0,-0.25148383,0.0,-0.14755373,-0.0,-0.0,-0.0,-0.0,-0.0,-0.0,0.15737228,0.0,0.0,-0.0,-0.0,-0.18563141,-0.0,0.0,0.0,-0.12122503,-0.14416389,0.3415325,0.0,-0.0,0.21093614,0.0,-0.0,-0.0,-0.0,0.0,-0.21759023,-0.0,0.0,0.0,0.0
-0.12767212,0.0,-0.13500689,0.0,-0.13023497,-0.0,0.22043148,0.13557337,0.0,-0.0,0.49499086,-0.20638973,0.33102238,-0.14982891,0.2767114,0.0,-0.0,0.0,0.0,0.0,0.14896873,0.12821917,-0.16301958,0.0,-0.0,0.0,-0.1369063,0.16242063,-0.0,-0.0,-0.34281114,0.18750767,0.30408788,0.0,-0.0,0.122448124,-0.20698029,-0.0,-0.0,-0.16825305,-0.0,0.0,0.0,0.18650079,0.0,0.18347628,-0.18162367,0.0,0.0,0.0,0.0,-0.12202458,0.12351394,-0.19956526,0.0,0.0,0.0,0.244765,-0.0,0.13874187,0.0,-0.0,-0.17549896,0.0
0.41862825,0.0,0.6825071,-0.6469132,0.0,-0.5388424,-0.0,0.0,-0.0,0.0,-0.0,-0.2646672,-0.32209444,-0.0,-0.0,-0.0,0.0,-0.23488194,0.0,0.19330443,-0.0,-0.1524479,-0.13073426,0.0,0.0,-0.0,-0.0,0.0,-0.1646679,-0.0,-0.0,-0.0,0.16955023,-0.0,0.0,-0.0,0.20663582,0.0,-0.15875326,0.0,0.0,0.0,0.12632357,0.12628408,-0.0,0.0,0.0,-0.0,0.0,0.0,0.0,-0.0,0.0,-0.15806599,-0.15820344,0.23751593,-0.0,-0.13251491,-0.13769588,-0.0,-0.17913547,-0.21010676,-0.0,-0.0
-0.16625111,0.0,0.0,0.2140215,0.17452927,-0.12153445,-0.13553305,0.17541791,-0.1716368,-0.21790166,0.0,0.0,0.0,0.0,0.0,0.0,0.0,-0.14414239,-0.0,0.0,-0.0,-0.0,-0.126663,-0.14038365,0.0,0.0,0.0,-0.0,0.0,0.0,0.0,0.12343611,0.19384873,0.119290724,0.0,-0.0,0.0,0.17861836,-0.0,0.0,-0.0,0.0,0.0,-0.0,-0.0,-0.0,-0.0,0.0,-0.13721587,0.19863307,0.0,-0.123831555,0.19810726,0.0,0.13307449,-0.28025082,0.0,0.0,-0.0,0.0,0.12434637,0.0,-0.25611395,-0.16410065
-0.15187292,0.0,-0.0,-0.0,0.0,0.0,-0.0,0.0,0.13146406,-0.14884262,0.1203295,0.0,0.0,-0.0,-0.0,-0.1532599,0.12143014,-0.12778589,0.15101539,-0.0,0.0,-0.16112861,-0.16190274,-0.25445652,-0.19039895,-0.1422195,-0.0,0.0,-0.0,0.0,-0.0,-0.0,-0.13790074,0.0,-0.18458809,-0.0,-0.0,-0.1529561,-0.0,-0.0,0.0,0.27557066,0.0,0.0,-0.182376,-0.0,0.0,0.0,0.11957691,0.0,0.0,-0.0,0.0,0.0,0.0,0.0,-0.0,0.0,0.18011183,-0.0,-0.0,0.0,-0.0,-0.0
0.0,0.0,-0.0,0.0,0.24657603,0.0,-0.0,-0.0,-1.4947888,-0.0,-0.0,-0.19949795,-0.0,-0.13628893,0.0,-0.14729391,-0.0,-0.0,-0.22306031,0.0,0.0,-0.0,0.0,0.0,-0.0,-0.18077584,0.0,0.0,-0.0,0.0,-0.0,0.12489471,0.20909962,-0.21969719,-0.0,-0.12980117,-0.0,-0.0,-0.0,0.0,0.0,0.957396,-0.20858279,-0.0,0.0,0.0,0.0,-0.0,0.0,-0.0,0.0,0.0,0.0,-0.0,-0.13336304,-0.17219348,-0.0,-0.12033707,-0.0,0.18820445,-0.0,0.18310905,-0.4038932,0.14636122
0.13775317,0.0,0.17473574,0.12350857,0.0,0.0,0.0,0.0,-0.0,0.0,-0.14145155,-0.18917498,-0.15097581,-0.18894637,-0.0,-0.0,-0.0,-0.0,0.0,0.1824741,0.0,-0.0,-0.0,0.0,0.0,-0.17392436,0.12786683,0.12527761,-0.0,-0.0,-0.0,-0.1793692,-0.0,0.0,0.0,-0.14749894,-0.0,0.0,0.0,-0.0,0.0,-0.0,0.0,-0.12379919,-0.0,-0.0,0.0,0.0,-0.0,0.0,-0.0,-0.21022034,-0.13156605,-0.13199042,0.0,-0.14127348,-0.12872231,0.0,0.1499676,0.0,-0.1808011,0.0,-0.1356419,-0.0
0.0,0.13769516,-0.0,0.0,0.0,-0.16856939,-0.0,-0.0,-0.0,0.19728222,0.0,-0.0,-0.17465948,-0.0,-0.0,-0.0,-0.0,-0.0,-0.0,0.0,-0.0,-0.0,0.0,0.0,0.0,-0.0,-0.0,1.6412532,-0.1728982,-0.0,-0.0,-0.0,-0.0,0.12045816,0.0,-0.0,0.0,0.0,-0.33019987,-0.21935433,0.0,3.6562169,-0.30455473,-0.0,-0.0,-0.0,0.1252098,-0.20792873,3.3163486,0.0,0.0,-0.2534847,-0.0,0.0,-0.14918464,-0.0,-0.0,-0.14345136,-0.18791263,-0.11839904,-0.15663075,-0.0,0.0,0.0
0.13761707,-0.18258795,0.19412026,-0.0,0.0,-0.63404816,0.0,0.0,-0.0,-0.0,0.0,-0.0,-0.39213198,-0.0,0.0,0.0,0.12488235,0.1821218,-0.0,0.0,-0.0,0.0,-0.17176417,-0.0,-0.0,-0.0,0.0,-0.12542924,-0.0,-0.120320484,0.0,-0.0,0.0,-0.12854338,0.0,-0.0,0.19065382,-0.12018647,-0.2917088,-0.18112116,-0.0,-0.0,-0.58781016,0.1546656,-0.18476182,-0.0,0.13228011,-0.0,-0.0,-0.60920066,-0.0,-0.0,0.15134637,-0.0,-0.14743756,0.0,-0.14821574,0.12483272,-0.0,-0.13524154,-0.0,-0.0,0.0,-0.17421654
0.0,-0.0,-0.0,0.0,0.41147104,0.0,0.0,-0.0,1.5454636,0.0,-0.0,-0.37064457,-0.6718244,-0.16530395,0.0,0.0,-0.0,-0.0,-0.13359678,0.0,-1.0420371,-0.0,0.0,-0.0,1.101667,-0.23112248,-0.2188259,0.0,-0.0,0.0,-0.0,-0.0,0.0,0.0,-0.0,0.0,0.0,0.0,-0.0,-0.0,0.0,0.0,0.13691743,-0.0,0.0,-0.0,0.18695076,-0.18007453,0.0,-1.7950212,0.0,-0.15997858,-0.0,-0.0,0.0,-0.0,-0.20625174,0.0,0.0,0.0,0.0,-0.25801212,-0.16436046,0.0
0.0,0.0,-0.0,-0.13013688,0.1627466,0.0,-0.16145661,-0.0,-0.0,-0.0,-0.0,-0.0,-0.0,-0.2358571,-0.0,-0.0,-0.0,0.0,-0.0,-0.0,-0.0,-0.13170233,0.1463053,0.0,0.2330318,-0.0,0.12566696,0.0,-0.13257784,-0.14890845,-0.30826953,0.1512869,-0.0,0.0,-0.18190709,0.0,0.0,-0.0,-0.19548687,0.0,0.0,-0.15891868,0.0,-0.1418959,-0.1314999,-0.0,-0.0,-0.1378114,-0.0,-0.14993867,0.0,-0.0,0.22911279,-0.0,0.0,-0.0,-0.0,0.0,0.0,0.12638073,0.0,0.22574309,0.13720907,-0.15024725
0.0,-0.0,-0.17049597,0.0,0.0,-0.19019908,-0.2371064,0.0,0.0,-0.0,-0.11903337,-0.0,-0.0,-0.0,0.0,0.1564836,-0.20019956,0.0,-0.0,-0.0,0.0,-0.31819114,0.0,-0.15500005,0.1809638,-0.12211358,-0.0,-0.0,0.0,-0.15565741,-0.21040407,-0.19357616,0.122541614,-0.0,-0.0,0.0,-0.25600326,-0.0,0.0,-0.0,0.0,0.0,-0.0,-0.0,-0.15020229,0.0,-0.0,-0.0,0.11791824,-0.0,-0.1369299,-0.1193159,-0.0,-0.21980017,0.0,0.0,0.0,-0.23998597,-0.1551721,0.0,0.0,0.0,-0.15450476,-0.0
-0.20026511,0.11856853,-0.13906749,-0.24697429,0.0,-0.6725405,-0.0,0.0,-0.0,0.0,-0.42280042,-0.0,-0.8901784,-0.0,-0.24117275,0.0,-0.0,-0.0,0.24484982,-0.6031607,-0.49508426,0.14325684,0.0,0.39798933,-0.14217919,-0.0,-0.0,-0.2850954,-0.0,-0.12292844,-0.0,-0.1317282,-0.0,-0.19806182,0.19791554,0.0,0.1301177,0.0,-0.8284493,0.0,0.15399702,0.0,0.2691358,-0.0,0.0,0.0,0.0,-0.35505924,0.0,-0.4268824,0.0,-0.14035861,-0.0,-0.13638213,-0.14574169,0.0,-0.3929983,0.13400842,-0.0,-0.0,-0.5146922,0.22003278,0.0,-0.0
0.0,-0.0,-0.18678954,0.2347464,0.20937705,-0.0,-0.0,-0.16686544,0.0,-0.0,-0.0,-0.3144793,-0.0,-0.17086051,0.0,-0.0,-0.2840324,-0.0,0.0,-0.0,-0.17814982,-0.18824242,-0.0,0.0,-0.0,-0.17916603,0.0,-0.0,-0.16039756,0.1499171,-0.0,-0.22813942,0.0,-0.0,-0.13498561,0.0,0.0,-0.14189145,-0.31509244,-0.0,-0.13622297,0.0,0.0,-0.16450796,-0.19309975,-0.0,-0.0,0.2747905,-0.0,-0.0,-0.0,0.14524886,-0.2084795,-0.16743232,-0.16597229,-0.0,-0.0,0.0,-0.13495749,0.0,-0.121181644,-0.19633886,-0.26927245,0.0
0.0,-0.0,-0.21176857,0.0,-0.0,-0.0,0.0,-0.19868697,-0.0,-0.16429812,-0.0,0.0,0.0,-0.14285536,-0.0,0.0,-0.32925084,0.11908593,-0.0,-0.24221563,0.0,-0.0,0.0,0.0,-0.0,0.0,0.0,-0.0,-0.11858438,0.0,-0.0,0.12745173,0.0,-0.0,-0.0,0.12570128,-0.17301679,-0.1642892,0.0,0.12046055,-0.20752512,0.0,0.0,0.0,-0.0,0.0,0.0,-0.18921062,-0.0,0.19614837,-0.17772543,-0.0,-0.2063183,0.0,-0.0,-0.0,-0.0,-0.1266838,0.0,-0.15161838,-0.19230841,-0.0,-0.0,-0.0
0.0,-0.0,-0.20345972,0.12842353,-0.1573817,0.12024471,0.0,0.0,0.0,-0.0,-0.0,0.0,-0.0,-0.18252754,-0.12265084,-0.13816841,0.0,-0.14129587,-0.14293128,-0.0,0.0,-0.0,0.13172543,-0.14226128,-0.22089995,0.0,0.12630934,0.0,0.12450297,-0.0,-0.14395177,-0.0,-0.0,0.0,-0.14221147,-0.17455712,0.0,0.0,-0.16974333,-0.22660393,0.0,-0.0,0.0,0.0,0.0,-0.0,0.13851501,-0.0,-0.0,0.0,-0.14331242,-0.0,-0.12876405,0.0,0.0,0.15234593,-0.12043636,0.1724905,0.0,-0.0,-0.0,-0.0,0.0,0.0
-0.0,-0.0,-0.22420838,0.12116459,0.0,0.0,-0.14497188,-0.0,-0.0,0.0,-0.0,-0.0,0.16216537,0.0,-0.0,-0.1585562,-0.12467521,0.1380959,0.0,-0.0,-0.13209619,0.0,-0.13266867,0.0,-0.0,-0.19258517,0.13390526,0.1189438,-0.0,0.0,-0.20294313,-0.0,-0.0,-0.0,-0.0,-0.0,0.0,0.12633854,-0.0,0.13052367,0.0,0.15150021,0.0,-0.13438608,-0.125929,-0.1260832,0.0,0.0,-0.0,-0.13850862,0.0,0.0,0.25577885,0.0,0.0,0.0,0.0,-0.0,0.0,-0.17292337,0.0,-0.14134082,-0.0,0.0
-0.1281967,-0.0,0.0,-0.16134374,-0.0,-0.0,0.0,-0.0,-0.0,-0.13830067,0.0,0.0,-0.15054178,-0.14622727,0.19983713,-0.0,-0.15214726,0.0,-0.0,-0.15357701,0.0,0.0,-0.0,-0.0,0.0,-0.0,-0.0,0.1893131,-0.0,0.0,-0.0,-0.0,0.1712139,-0.0,0.0,-0.0,-0.21941862,0.0,-0.0,-0.0,-0.14327219,0.0,-0.0,-0.0,0.0,0.0,0.0,-0.0,0.16214404,0.13849053,0.0,0.0,0.0,-0.0,-0.0,-0.14413272,0.0,0.13732767,-0.24549843,0.12925726,-0.11998656,-0.0,-0.2630774,-0.33448315
0.0,0.0,-0.24656805,-0.0,-0.0,-0.17707236,0.0,-0.15800604,-0.15723181,0.0,0.15279514,-0.0,0.0,-0.0,0.0,0.13198608,0.0,-0.1473174,0.0,0.0,0.0,-0.0,0.0,-0.180543,0.13663179,0.2758027,0.0,0.13416712,0.0,-0.12745707,-0.13632433,0.16802488,-0.0,-0.0,-0.0,-0.0,0.0,0.0,-0.13847288,-0.22966745,-0.0,-0.0,0.0,0.0,0.0,-0.23375957,-0.0,-0.12495076,-0.0,0.0,-0.20515516,-0.20157342,0.0,-0.0,0.0,0.0,-0.0,0.15766391,0.0,0.0,0.0,0.24675669,-0.0,0.0
0.0,-0.0,-0.0,0.0,0.57494056,0.0,-0.0,-0.15616184,0.0,0.0,0.0,-0.0,0.0,-0.0,0.0,-0.0,0.0,-0.0,-0.19750497,0.0,-0.1793935,-0.0,-0.1294772,0.0,-0.25951064,-0.11960014,0.0,0.0,-0.0,-0.14803116,-0.88550854,-0.0,0.0,0.0,-0.0,-0.0,0.0,0.0,-0.15547535,-0.0,0.0,0.0,-0.2002655,-0.0,0.0,0.0,0.0,-0.0,0.0,-0.16126215,0.0,-0.0,0.0,-0.21387203,0.0,-0.0,-0.20670654,0.0,0.0,0.0,-0.0,0.16924837,0.0,-0.0
-0.0,-0.0,-0.43926406,0.18005599,-0.12419502,-0.14733778,0.0,-0.16741987,-0.0,0.33873174,0.0,0.1240066,0.0,-0.22791195,0.0,0.0,0.18506502,0.0,-0.118159376,-0.17858423,-0.18427077,0.15190567,-0.0,0.1392517,0.1291969,0.3195465,-0.0,0.0,0.16557704,-0.0,-0.0,-0.0,0.27892938,0.16848828,-0.0,0.15438393,-0.0,-0.0,0.11826066,-0.0,-0.0,-0.0,0.0,-0.0,-0.19144343,0.0,-0.14830676,0.0,0.0,0.0,0.0,-0.0,0.0,-0.0,-0.18839072,-0.16646682,0.0,-0.0,0.0,-0.124035805,0.12490985,-0.0,0.0,-0.0
-0.0,0.0,-0.1810548,0.22357804,-0.0,-0.13908,-0.12722458,-0.18505058,0.0,-0.16759165,0.2684175,0.0,0.0,-0.0,-0.0,0.15120168,0.0,0.12490088,0.0,-0.20160118,0.0,0.0,0.0,0.28386414,0.26115924,0.0,0.19823854,0.0,-0.0,-0.0,-0.12955159,0.0,-0.0,-0.15291555,0.0,-0.0,0.15660599,0.0,0.0,-0.0,-0.1445988,-0.0,0.0,0.0,-0.18015164,-0.0,-0.17053044,-0.0,0.0,-0.0,0.0,0.0,-0.0,0.0,-0.0,-0.0,-0.14259228,0.0,0.12010397,0.0,0.16836207,0.0,-0.0,0.0
-0.0,0.0,0.0,-0.15288904,-0.18880938,0.0,0.0,-0.0,-0.0,-0.0,0.0,-0.0,-0.17039466,-0.0,-0.13071826,-0.0,-0.0,-0.0,-0.0,0.0,-0.0,0.0,0.0,0.0,-0.21778895,0.17189445,-0.19321555,-0.22568451,-0.0,0.0,-0.0,-0.12575936,-0.17512193,0.0,0.15129106,0.0,0.0,-0.118499085,-0.16557775,0.1420248,-0.22821237,-0.0,-0.19591214,0.18710314,0.0,-0.0,0.0,0.0,0.0,-0.0,0.0,0.0,-0.1819217,0.0,0.0,-0.18516819,-0.0,-0.0,-0.0,-0.14606862,0.0,0.1487742,0.23064403,0.0
-0.0,-0.12492826,-0.0,-0.0,0.13961038,-0.0,-0.0,0.17564993,0.0,-0.0,-0.0,-0.0,-0.17261165,0.0,-0.0,0.0,0.0,-0.1642319,-0.0,-0.19792804,-0.16508967,-0.0,0.0,0.0,0.0,0.0,-0.20858255,-0.0,-0.0,0.0,-0.0,-0.0,-0.0,-0.0,0.0,-0.0,0.0,-0.0,0.0,0.19427837,-0.0,0.24663647,0.20933016,0.0,-0.0,0.0,-0.0,-0.0,-0.0,0.0,-0.0,-0.0,0.0,0.1517074,-0.13888907,-0.13411415,-0.0,-0.0,-0.0,-0.0,0.0,-0.0,0.0,-0.16033198
0.13129975,0.0,-0.12809573,0.12357099,-0.0,-0.0,0.121089116,0.0,-0.0,-0.0,0.15023576,0.0,-0.13590294,-0.0,0.12634753,0.1718234,-0.0,0.0,-0.0,0.0,-0.0,0.17087254,-0.0,-0.0,0.0,0.0,-0.16094284,-0.16673812,0.14184311,0.0,-0.0,0.0,0.0,0.0,0.14508347,-0.0,-0.0,0.17345117,-0.0,0.0,0.11900963,0.0,-0.12695928,-0.0,0.167397,0.0,0.0,-0.0,-0.19901037,0.0,0.0,-0.13688846,0.0,0.0,0.0,0.0,0.0,-0.18056853,0.0,-0.21556585,-0.0,-0.0,0.0,0.0
1.4725311,-0.0,-2.4369137,1.3116084,0.0,-0.14678799,-0.0,0.0,-0.0,-0.17852814,-0.0,-0.0,-0.0,0.0,0.0,0.0,0.12256464,-0.0,-0.0,-0.0,0.0,-0.14712377,-0.13118671,-0.0,2.6352556,-0.13600802,0.0,0.0,-0.14814667,0.0,-0.0,-0.0,0.18105076,0.0,-1.4263442,-0.0,0.0,0.0,-0.0,-0.0,0.0,2.2281952,0.0,0.0,-0.0,-0.0,-0.21552977,0.0,0.0,0.0,0.0,0.0,-0.0,-0.0,-0.0,-0.0,-0.15503387,-0.0,-0.16834168,-0.0,0.0,0.13362572,0.0,0.0
-0.19920196,-0.0,-0.2359204,0.0,0.0,-0.0,0.0,-0.0,0.0,0.0,-0.0,-0.0,-0.19616282,-0.0,-0.0,-0.0,0.0,0.0,-0.18362461,-0.1891728,-0.13481122,-0.0,-0.0,0.0,0.0,0.0,-0.0,0.0,0.0,-0.17631115,-0.2349427,-0.21811749,0.0,-0.25711063,-0.0,-0.0,-0.1296611,-0.0,-0.0,0.16636838,-0.16651356,0.0,-0.0,0.0,-0.0,0.0,-0.23609985,-0.27681938,-0.0,-0.0,-0.0,-0.0,-0.0,0.17831863,0.0,0.0,-0.26932275,0.0,-0.22452645,-0.22043519,0.0,0.0,-0.0,-0.18078688
-0.0,0.0,-0.0,-0.15538797,-0.0,0.13036613,-0.0,-0.19341594,-0.18431757,-0.24630323,-0.11916261,-0.0,-0.31505525,-0.0,0.0,-0.0,-0.0,-0.14309989,-0.16484167,0.17272238,0.29844055,0.0,-0.13770974,-0.14647095,0.29085383,-0.0,-0.18432896,-0.0,0.0,0.12977976,0.0,0.0,-0.0,0.0,0.0,-0.0,-0.26405275,-0.13389544,-0.0,-0.318626,0.12433747,-0.18413232,-0.24151094,-0.31561464,-0.12754208,-0.13978465,-0.14920682,0.0,-0.20074739,-0.72676903,0.12438224,0.0,-0.0,-0.0,-0.30111295,-0.0,0.29712608,-0.14268993,-0.0,0.16190389,0.36085707,-0.11980534,-0.0,-0.0
0.0,-0.20269051,0.0,1.0676998,0.0,-0.0,-0.0,-0.0,-0.0,0.0,-0.0,-0.31598848,0.0,-0.12023787,0.0,-0.0,-0.11926926,-0.0,-0.0,0.18285874,-0.0,0.0,-0.13001692,-0.0,0.0,0.16946237,-0.0,0.4438303,-0.30337015,-0.0,-0.0,0.14560671,-0.0,-0.0,0.79491204,0.0,0.0,-0.0,-0.0,0.0,0.0,0.0,0.0,-0.0,-0.0,-0.0,0.0,-0.15637952,0.0,1.2126853,0.0,0.0,-0.0,-0.0,0.13825022,-0.0,-0.24990208,-0.1984909,-0.18825857,0.0,0.17362416,-0.0,0.0,0.18007337
-0.19879895,-0.0,0.0,-0.0,0.0,-0.12212664,-0.23534848,0.0,-0.20713443,-0.0,-0.29317698,0.12074503,-0.1762232,0.13177042,-0.17292558,0.11808691,0.13515742,-0.0,0.0,-0.12089996,-0.0,-0.15698737,-0.0,0.0,0.32583985,-0.0,-0.0,-0.0,0.0,-0.0,-0.12589182,0.0,0.0,0.0,0.0,-0.21762872,-0.0,-0.0,-0.0,-0.16243346,-0.0,0.13531229,0.0,-0.0,-0.0,-0.0,-0.20792232,0.0,0.14687361,-0.1647797,-0.0,-0.21620917,0.0,0.13376467,-0.20706922,-0.14026906,0.0,0.0,-0.0,0.12746267,0.0,0.1691766,0.0,0.0
-0.0,0.0,-0.15859257,0.0,0.0,-0.21670869,0.0,-0.16991958,0.0,-0.0,0.0,0.0,0.0,-0.0,-0.0,-0.0,0.0,0.0,0.0,-0.19422935,-0.0,-0.12903944,0.0,-0.1596384,0.0,0.0,0.0,0.0,-0.12231817,-0.0,-0.0,0.0,0.0,0.0,-0.17617467,-0.0,0.12923804,-0.0,0.0,0.13553351,0.0,0.21870528,-0.0,0.22327636,-0.22481997,-0.15146339,0.0,-0.0,-0.0,0.0,0.0,0.0,0.15884392,-0.0,-0.0,0.0,-0.0,-0.0,-0.0,0.18023895,-0.0,-0.0,-0.0,-0.16617346
0.0,0.0,-0.0,-0.65147126,0.0,0.0,-0.0,-0.124083325,-0.0,0.0,-0.21409662,-0.0,-0.0,0.0,0.0,-0.15496477,-0.1479348,-0.0,-0.0,-0.19832271,0.0,-0.0,0.14669317,-0.0,0.0,-0.0,0.1425969,0.0,-0.0,-0.0,-0.0,-0.0,0.0,0.0,-1.063847,-0.14639221,0.0,-0.13678843,-0.0,0.0,0.0,0.0,-0.18052764,-0.0,-0.20522082,-0.0,-0.19620237,-0.15033779,0.0,0.0,0.0,-0.32143906,0.0,-0.25807187,-0.0,0.0,-0.0,0.0,0.0,-0.0,-0.0,-0.0,0.1506268,-0.0
-0.119558886,0.0,0.0,-0.0,0.0,-0.0,0.0,-0.18725532,-0.0,0.12786628,-0.0,-0.32575205,-0.50778425,0.0,-0.14942369,0.0,-0.24987167,-0.15909402,-0.14765899,0.27944544,-0.0,-0.3562184,0.1281307,0.0,0.0,0.0,0.0,-0.19845241,0.0,-0.0,-0.0,0.0,-0.29482615,-0.0,0.0,-0.0,-0.0,-0.14951074,-0.0,0.0,0.0,0.0,-0.17602354,-0.0,-0.0,0.0,0.0,0.11865915,0.0,-0.0,0.0,0.0,-0.0,0.0,-0.0,-0.0,0.0,-0.27163437,-0.4024646,0.15630655,-0.0,0.0,-0.24952242,-0.15420102
0.0,-0.17077239,0.0,0.0,0.0,-0.74300677,-0.0,-0.17408039,-0.0,0.0,-0.34400216,-0.39398643,-1.0760093,0.0,-0.1816288,-0.0,-0.0,-0.0,-0.16343929,0.0,-1.4263393,-0.29382724,0.0,0.0,-0.37954217,0.0,-0.0,0.0,-0.1308037,-0.0,0.3197797,0.0,-0.17576364,-0.0,0.0,-0.0,0.0,-0.401581,-0.0,0.0,0.0,0.0,-0.42969504,-0.0,-0.14065993,-0.0,0.0,-0.0,0.0,-0.4660917,0.0,0.0,-0.0,0.19113767,-0.18035094,-0.22041775,-0.0,-0.22557884,-0.44155493,-0.16693586,-0.0,0.12643789,-0.29871556,-0.16403876
-0.0,-0.19160165,-0.0,0.0,0.316933,0.0,-0.0,-0.13983205,-0.0,-0.21561278,0.0,-0.21179238,-0.0,-0.0,-0.0,0.0,-0.0,-0.0,-0.0,0.0,-0.1287909,0.1267797,-0.0,-0.20300342,-0.0,-0.0,-0.0,-0.0,-0.18437196,-0.0,-0.18773995,-0.0,-0.0,0.0,-0.0,-0.12548317,0.0,-0.0,0.123912595,0.20570843,0.0,-0.17107746,-0.0,-0.120135374,-0.2234543,-0.14044057,-0.14059412,-0.19856586,-0.14789574,-0.0,0.0,0.0,-0.0,-0.0,-0.0,-0.11775233,0.0,0.0,0.0,0.12262441,-0.0,-0.0,0.0,0.12510896
0.0,0.0,-0.12848116,0.0,-0.16196686,-0.38017544,0.0,0.0,0.0,-0.16950992,0.0,0.0,-0.47025052,0.0,-0.24561492,0.0,-0.0,-0.0,-0.12725025,-0.0,0.0,-0.25419506,-0.12891118,-0.0,0.39417034,0.0,-0.17181428,0.0,0.0,0.0,0.20968296,-0.19003202,-0.150222,-0.13856876,0.18968797,-0.0,0.0,0.21459599,-0.0,0.0,0.21822001,0.124549136,-0.0,0.0,-0.0,-0.0,0.0,-0.0,0.21438614,-0.27390653,-0.0,-0.0,-0.13945793,0.0,-0.0,0.0,-0.22500388,-0.20406584,0.0,0.14601153,-0.12546435,-0.0,-0.15265104,-0.0
0.0,-0.0,0.0,0.0,-0.11804961,0.0,-0.0,-0.0,-0.0,-0.0,0.31295538,0.0,-0.15947644,0.0,-0.0,-0.0,0.0,-0.0,-0.11907838,0.0,0.0,-0.16975436,-0.0,-0.2750168,-0.0,0.1509596,-0.0,-0.0,-0.123063065,-0.0,-0.0,0.0,0.0,-0.0,0.0,0.0,-0.0,0.0,-0.1410713,0.0,0.0,-0.0,-0.13685991,0.0,0.13988079,0.0,-0.0,-0.17789018,0.0,0.0,0.12636067,0.0,0.0,-0.0,0.0,0.0,-0.13036627,0.0,-0.0,-0.0,-0.15317874,0.0,-0.0,0.14276135
0.0,-0.0,0.47786513,0.0,0.0,-1.5934354,-0.0,-0.20011754,-0.0,-0.12034296,-0.13250974,-0.3195581,-1.3657268,-0.0,0.0,-0.0,0.0,-0.0,0.0,0.42321062,0.0,-0.15069872,-0.16366918,-0.0,-0.38803792,-0.16177064,-0.0,-0.0,-0.0,-0.0,-0.0,-0.14096874,-0.2793089,-0.0,0.17926069,-0.14164384,-0.32862753,0.4590932,-1.0411787,-0.0,0.0,-0.0,0.12674929,-0.17432109,-0.0,0.0,-0.0,0.0,0.0,-0.9551364,0.0,-0.16970634,0.0,-0.22965392,0.0,0.0,-0.0,-0.1692654,-0.1659677,-0.0,-0.22426622,-0.31053028,-0.0,0.0
0.0,-0.0,-0.1618089,0.0,0.0,0.0,0.0,-0.0,-0.15333377,0.17208123,0.0,0.0,0.1459363,-0.0,-0.0,0.0,0.0,-0.20273602,-0.0,-0.0,-0.14192888,0.0,-0.1652221,0.33066523,-0.0,0.0,-0.0,0.0,0.19040954,-0.17856407,0.13018839,-0.0,-0.0,0.0,0.13390683,0.1591462,0.23349395,-0.16663185,-0.1315994,-0.0,-0.1448414,-0.11844808,-0.0,0.0,-0.0,-0.0,0.0,-0.21044818,-0.16267587,0.0,0.0,-0.11900002,-0.0,-0.17908695,0.0,0.0,-0.0,0.17008543,0.0,0.17586993,0.19899626,-0.12474061,0.0,0.0
-0.0,0.0,0.0,0.16691044,-0.0,-0.22712386,0.1248672,-0.1387387,-0.0,-0.29116604,0.20014308,-0.0,-0.0,-0.14221077,-0.0,-0.0,-0.2068934,-0.0,0.21325032,-0.21599798,-0.0,-0.0,0.0,-0.0,-0.17267226,0.1255503,-0.0,0.14906688,-0.0,-0.0,0.17854509,0.0,0.16255589,0.0,0.0,0.0,0.18914753,0.0,0.0,0.0,-0.17948735,-0.0,-0.0,-0.23398823,-0.18426144,0.0,-0.0,-0.0,-0.15596339,-0.0,0.0,0.0,0.0,-0.24936636,0.0,-0.0,-0.0,-0.0,-0.13084899,-0.13519941,-0.20009255,-0.0,0.0,-0.0
0.0,0.0,0.0,-0.0,0.20507628,0.0,0.0,-0.16172382,-0.0,-0.0,-0.0,0.0,-0.0,0.0,-0.0,0.0,-0.14294645,-0.0,0.118185274,0.0,-0.13281287,0.0,0.0,0.0,0.0,0.0,-0.17042437,-0.0,0.0,0.0,0.12146154,0.18380347,-0.0,-0.0,0.0,-0.0,0.0,0.12012862,-0.0,0.0,-0.14337055,-0.0,-0.0,0.0,-0.0,-0.22894834,0.0,-0.123128735,0.0,0.0,-0.27383757,0.0,0.0,-0.14156577,0.0,-0.0,-0.15660533,0.0,-0.0,0.0,-0.0,-0.0,-0.18423155,0.0
-0.18131472,0.0,-0.0,0.0,-0.0,-0.1395182,-0.0,0.0,-0.0,-0.18905726,-0.0,-0.0,0.0,0.0,0.0,0.0,-0.0,0.12828454,0.0,0.0,-0.12394145,-0.0,0.0,-0.16853298,0.13821508,0.13927935,-0.0,-0.13537829,-0.19906127,-0.12072444,-0.12176564,-0.18541913,0.0,0.15822792,0.0,0.17443675,0.0,0.13665773,-0.0,-0.0,-0.14700125,-0.14890017,0.0,0.120982476,0.1315421,-0.0,-0.0,0.0,-0.15663785,0.13183445,0.0,0.0,0.0,-0.1355896,0.0,-0.0,-0.0,0.0,-0.0,0.0,-0.0,0.0,-0.0,0.0
-0.0,0.0,0.122429356,0.0,-0.14360791,0.17824312,-0.16575165,0.0,0.0,-0.0,0.14809299,-0.0,0.0,0.0,-0.0,-0.0,0.0,-0.0,0.0,-0.0,-0.0,0.0,-0.13652736,0.15798268,-0.13929781,-0.0,-0.0,-0.14390817,-0.0,-0.0,0.0,-0.0,-0.23840167,-0.0,-0.0,-0.1938346,-0.15407057,-0.0,-0.0,-0.16222483,0.0,0.0,-0.17396799,-0.0,-0.0,0.0,-0.0,0.0,-0.0,-0.0,-0.13784908,-0.0,-0.20444132,-0.26799154,-0.0,-0.0,-0.0,-0.25597838,0.0,0.0,0.0,0.0,0.0,-0.0
-0.0,-0.20686878,-0.21207425,-0.0,0.18039459,-0.14708762,-0.0,-0.0,0.0,0.0,-0.0,-0.0,-0.1362712,-0.21208818,0.0,-0.123285055,-0.0,0.0,-0.0,0.18821794,-0.17262016,-0.0,0.11783318,-0.29335433,0.0,-0.0,-0.0,-0.27649412,-0.0,-0.2316342,-0.15538937,-0.0,-0.0,-0.0,-0.1696286,0.0,0.30010226,0.13538852,-0.13056916,0.0,0.0,0.0,-0.0,-0.21141733,0.0,-0.0,0.0,-0.12430462,-0.24455751,-0.17546985,-0.17225166,0.0,0.0,0.0,0.0,0.0,-0.15130399,0.0,-0.0,0.0,-0.0,-0.0,-0.0,0.16233677
0.0,0.0,0.0,0.0,-1.3581022,0.12495602,-0.0,0.0,-0.0,0.0,0.14955787,-0.45963138,-0.2931927,-0.0,-0.14609945,-0.12331679,-0.23626809,-0.0,0.0,0.0,-0.0,-0.20804013,0.0,-0.0,0.0,0.0,0.0,0.0,0.0,0.0,-0.0,-0.12082062,0.0,-0.0,0.0,-0.0,0.0,-1.6000699,0.0,-0.0,0.0,0.0,0.0,0.13707362,-0.0,-0.0,0.0,0.16453151,1.1889193,0.0,0.0,-0.2923968,-0.0,-0.45377707,-0.15936267,-0.21022514,-0.0,0.1566101,0.0,-0.20313573,-0.0,-0.18047212,-0.2746172,-0.0
0.0,0.0,-0.1864297,0.40808702,0.0,-0.0,-0.14811625,-0.11864703,-0.0,-0.0,0.0,0.17701766,-0.0,0.14925767,-0.0,-0.15868683,-0.0,-0.0,-0.0,-0.18776157,-0.0,0.21235654,0.20169997,-0.0,-0.1925021,0.0,-0.14686769,0.0,-0.0,0.0,-0.0,-0.0,-0.0,-0.2671005,-0.0,0.0,-0.22454941,-0.23241618,-0.0,0.0,0.20627554,0.0,0.0,-0.0,-0.15186878,-0.2067732,-0.0,-0.22356354,0.0,0.20162416,0.20732754,-0.0,0.0,0.15553637,-0.0,-0.120192215,-0.1444709,-0.12806217,-0.1321526,-0.0,0.0,0.0,0.0,0.0
0.0,-0.0,-0.0,0.18325831,0.0,0.0,-0.16265535,0.0,-0.21697892,-0.1658282,-0.0,-0.30444124,-0.17960732,0.14439747,0.0,-0.1726806,-0.0,-0.0,-0.0,0.12573546,-0.0,0.0,-0.20409176,0.0,-0.16911528,-0.0,-0.0,-0.1375947,-0.27469835,-0.0,-0.0,-0.22925302,0.0,-0.14674288,-0.21642545,-0.0,-0.0,0.0,-0.0,0.0,0.0,-0.21653622,-0.19643871,-0.2748623,-0.0,0.0,-0.0,0.13332854,0.0,-0.0,0.0,-0.0,-0.0,-0.11879515,0.0,-0.0,0.0,-0.13120829,-0.15032832,0.0,-0.0,-0.28229064,-0.2478442,-0.0
0.0,0.0,0.17029464,-0.68653864,-0.0,-0.6858785,0.0,-0.0,-0.0,0.0,0.31151888,-0.21381918,-0.30969906,0.0,0.0,0.0,0.121279866,0.0,0.0,0.4733282,-0.0,-0.0,0.16712813,-0.14354339,-0.2309543,0.15824313,-0.0,0.0,-0.0,-0.1396043,0.0,0.0,-0.0,0.17341319,0.5545518,0.16027191,-0.0,0.0,-0.14944439,0.0,0.0,0.0,0.34312558,0.16194542,0.0,-0.21542469,-0.0,0.0,0.42692772,-0.46926722,-0.18760729,0.0,-0.0,-0.0,-0.0,-0.11967265,-0.0,0.0,0.0,0.0,0.0,-0.0,0.0,-0.0
-0.0,-0.0,-0.0,0.21115081,0.0,-0.0,0.0,-0.11846461,0.0,-0.16656452,0.0,-0.0,-0.16267914,0.0,0.14306927,-0.17044067,-0.0,0.13545968,-0.0,0.0,0.0,-0.0,0.0,0.12234666,-0.0,-0.0,-0.0,-0.0,0.0,-0.0,-0.12901577,-0.0,-0.0,-0.0,0.0,0.0,0.14421657,0.0,0.0,-0.16438876,-0.13007157,-0.0,0.0,-0.16570552,0.0,0.0,-0.0,0.15402381,-0.18074936,-0.15520652,0.0,-0.0,0.0,-0.222934,0.0,0.0,0.1207018,-0.11996025,0.0,-0.0,0.0,-0.12197646,-0.20655385,0.0
-0.0,-0.23029456,-0.0,0.0,0.0,0.0,0.0,0.0,0.0,0.0,0.0,0.0,0.0,0.0,-0.2202961,0.0,-0.0,0.0,-0.0,-0.20242551,-0.15439619,0.0,-0.0,-0.17821215,-0.0,-0.13209873,-0.20932135,0.0,-0.1915379,-0.0,-0.0,-0.16849242,0.0,-0.0,-0.15535665,0.0,-0.0,-0.0,-0.0,-0.120922536,-0.0,-0.0,-0.26663607,-0.0,-0.18133171,-0.14732583,0.0,0.0,0.0,0.1268095,-0.0,0.16832212,0.0,0.12020265,0.0,-0.0,0.0,0.21122038,0.1188025,-0.17677864,0.0,0.0,0.0,-0.13563558
1.4435565,0.0,0.644077,1.3387469,-0.475961,-0.12906186,0.0,0.0,-0.31807044,0.16350059,0.4063118,0.13410677,-0.48486564,-0.0,-0.0,-0.13968354,-0.0,-0.0,0.12545569,0.31805834,0.0,-0.24802625,0.0,-0.93660414,0.15383494,0.1500482,0.0,0.0,0.1352347,-0.0,-0.0,0.32038623,0.0,-0.0,0.13658893,-0.1227667,-0.0,0.0,-0.24409738,0.16194771,0.0,0.0,0.0,-0.1678916,0.0,-0.16174237,0.1481695,0.0,-0.19042814,-0.794892,0.20307289,-0.0,0.0,-0.0,-0.0,-0.0,0.0,-0.12968326,-0.0,0.15387549,-0.0,-0.14116105,-0.1462998,-0.0
-0.12707487,-0.0,0.0,0.21241918,0.0,-0.0,-0.0,-0.0,-0.0,-0.18982854,0.22053307,0.0,0.1476622,-0.0,-0.0,-0.0,0.0,-0.0,0.12438379,-0.16184327,0.0,-0.0,0.0,-0.12450226,0.0,-0.0,0.0,0.12057162,0.0,0.0,0.0,-0.20575179,-0.0,-0.15944101,-0.26023993,0.19333716,-0.0,-0.0,0.41574657,-0.13287213,0.0,-0.0,0.0,0.0,-0.0,-0.0,0.0,-0.12797906,-0.20833944,0.20338458,-0.0,0.0,-0.1743707,0.0,0.0,-0.21780294,0.0,-0.0,-0.23064376,0.18658051,-0.18605666,0.19357593,-0.29387265,0.15547432
0.20850165,-0.21394919,-0.0,0.0,-0.0,0.121499896,0.0,-0.0,0.14139046,0.0,0.12094673,-0.19615778,-0.2740266,-0.0,-0.12609252,-0.0,-0.0,0.0,-0.12668957,-0.0,0.1614636,-0.180313,-0.14265738,0.0,0.0,0.0,-0.0,-0.0,-0.0,0.0,0.0,-0.32560146,-0.0,0.0,0.14412001,0.14246093,0.0,0.13109693,-0.0,0.0,0.0,-0.0,0.0,0.16066185,-0.15373752,-0.0,-0.0,-0.20256436,0.0,-0.0,0.0,-0.0,0.0,-0.14022687,-0.0,-0.20557843,-0.0,-0.0,-0.0,-0.0,-0.0,-0.3557929,-0.19523542,0.0
-0.0,-0.14730726,-0.12287036,0.0,0.0,0.0,0.0,-0.0,0.0,-0.2197148,-0.0,0.0,-0.57004106,-0.15424418,0.0,-0.0,-0.0,0.0,-0.0,-0.0,0.45222226,0.0,0.0,0.0,0.0,0.0,-0.13484722,-0.0,0.39210817,-0.17292786,0.0,0.0,0.0,-0.0,-0.38337317,-0.0,-0.1795926,-0.0,-0.25982967,-0.0,0.0,0.0,-0.19781972,-0.0,0.0,0.26671043,0.0,-0.29207537,-0.21027431,-0.3830333,-0.15545408,-0.20328626,-0.0,-0.0,0.0,0.17989735,0.5675453,-0.0,0.0,0.0,0.40841353,0.14560205,0.0,-0.0
0.0,-0.2767669,0.0,0.0,-0.19496322,-0.45354775,0.0,0.0,-0.0,-0.2373365,0.2826807,0.12832814,-0.1509373,-0.0,0.15428327,-0.0,0.0,-0.21632345,-0.0,0.0,0.0,0.12547417,-0.0,0.0,-0.0,0.121994615,-0.0,-0.4286401,0.0,-0.0,-0.0,-0.0,0.0,-0.0,-0.35512844,0.0,-0.0,0.0,-0.29383478,0.0,0.0,-0.0,-0.65961957,0.0,-0.0,0.0,0.0,0.0,0.0,-0.19706467,0.0,0.0,0.0,0.0,0.124749914,-0.0,0.0,0.0,-0.0,0.0,0.0,-0.0,0.0,0.0
0.0,0.0,0.0,0.1693917,0.0,0.11943455,-0.0,0.0,-0.0,0.19807531,0.0,-0.1406081,-0.0,-0.12594007,0.0,-0.20965803,0.0,-0.0,-0.0,0.0,0.0,0.0,-0.0,0.20587252,-0.0,-0.0,0.15381347,-0.13395001,0.18778123,0.0,0.0,0.0,0.0,0.0,0.0,-0.12766545,-0.0,-0.19874196,-0.0,-0.0,0.0,0.0,-0.1370236,-0.2133495,0.14196007,0.0,0.0,0.0,0.0,-0.0,-0.13703796,-0.21628067,-0.17218745,-0.0,0.0,0.0,0.0,0.17603813,-0.0,-0.0,-0.0,0.15434544,-0.0,-0.0
-0.24750394,-0.3660552,-0.0,0.0,0.0,-0.39630762,-0.2173719,-0.269459,-0.0,0.0,-0.16286111,-0.19839285,-0.14689963,-0.0,-0.0,-0.13735232,-0.0,-0.0,-0.39812544,-0.4247968,-0.5094925,-0.0,-0.12633285,-0.19465797,-0.0,-0.12483373,-0.13469088,0.0,-0.22069785,-0.0,-0.64515823,-0.0,-0.1331128,0.0,0.0,-0.27593243,0.0,-0.0,-0.201677,-0.14187373,0.0,0.0,0.0,-0.33077797,-0.18915997,-4.1479325,0.0,-0.0,0.0,-1.2954949,0.0,0.0,0.0,-0.2852426,-0.0,-0.2023197,-0.2790368,-0.0,-0.39010045,-0.18821184,-0.22941732,-0.15694459,-0.27489215,-0.0
0.0,-0.24746032,-0.0,-0.0,-0.0,0.0,0.0,-0.0,-0.14190653,0.0,0.0,0.0,-0.13449162,-0.0,-0.0,-0.14681977,-0.0,0.0,0.0,0.0,-0.1551983,-0.0,-0.14457095,-0.0,-0.2146336,-0.19720072,-0.0,0.0,0.0,-0.0,0.0,0.0,0.0,-0.12648886,-0.0,-0.16814637,0.0,0.118975185,-0.0,-0.0,-0.0,-0.0,0.0,0.0,-0.0,-0.17973986,-0.18958698,-0.0,-0.0,-0.0,-0.0,-0.13605905,0.0,-0.26884285,-0.0,-0.0,-0.0,0.0,-0.0,-0.0,-0.0,-0.0,0.18350422,0.0
-0.0,-0.1570465,0.0,-0.0,0.13853434,-0.0,-0.0,0.0,-0.0,0.0,0.0,-0.0,0.0,-0.0,-0.1410767,-0.13222677,-0.0,0.0,-0.1442324,-0.0,-0.0,0.0,-0.0,-0.313319,0.13873002,0.0,-0.0,-0.19235353,-0.22366807,-0.11984016,-0.0,0.0,-0.0,0.0,-0.21193822,-0.0,-0.0,-0.0,0.0,0.20570543,0.0,0.12510622,-0.1475945,-0.16998956,0.0,-0.0,-0.13016164,0.0,0.0,0.0,-0.17645757,0.0,-0.0,0.13027501,-0.0,-0.19282965,-0.0,-0.14694719,-0.0,0.0,-0.1259689,0.23213795,0.0,-0.16343898
0.0,0.22000925,-0.0,-0.0,0.0,0.14500052,0.0,-0.0,-0.19535129,-0.0,-0.0,-0.0,-0.0,-0.27194104,-0.19960372,-0.12374577,-0.16294986,0.0,-0.0,-0.33749855,-0.24482046,0.1629462,-0.0,0.19573365,0.0,-0.0,0.0,0.0,0.0,-0.0,0.0,-0.1310642,-0.0,0.0,-0.40089536,-0.0,0.0,-0.0,0.16750547,-0.0,0.0,0.0,0.0,0.0,0.0,-0.0,0.0,-0.12445454,-0.0,0.0,0.0,0.16680054,-0.1953167,-0.13224314,-0.0,-0.0,-0.0,0.0,-0.0,-0.11849829,-0.1338329,0.0,-0.0,-0.12828854
-0.0,0.0,-0.13833307,-0.28067207,0.0,0.12165532,0.0,0.0,-0.0,-0.0,0.2823411,0.0,-0.16041066,0.0,-0.0,0.0,-0.0,0.0,0.23797067,-0.15897875,-0.2056089,-0.0,-0.13307658,-0.0,0.1246537,0.0,0.0,0.0,0.14470814,-0.0,0.0,0.0,-0.0,-0.19793022,0.0,-0.0,-0.0,0.0,-0.0,-0.0,-0.0,-0.0,0.0,0.0,-0.2197026,-0.14292309,0.12025811,-0.0,-0.13198124,0.3090995,-0.0,-0.0,-0.0,-0.1368541,-0.23375101,0.28528205,0.0,0.0,0.0,-0.18151245,-0.18234333,0.13174841,0.0,-0.23829055
-0.0,0.0,-0.19784951,0.23274279,-0.39971465,0.0,-0.21557988,0.0,0.0,0.0,-0.0,-0.0,-0.0,-0.1426651,-0.16455232,-0.0,0.17745367,0.0,0.0,0.0,-0.0,-0.12080568,0.0,0.21654356,-0.0,-0.23056515,-0.0,-0.23822726,-0.0,0.14954577,-0.19310339,0.0,-0.12365813,-0.0,0.13998957,0.0,0.0,-0.13618207,0.0,0.14389032,-0.13483033,0.0,-0.0,-0.0,0.0,-0.13178906,0.0,-0.0,0.0,-0.0,0.0,-0.0,0.0,0.0,0.0,-0.15719987,0.0,-0.0,0.0,-0.28801686,0.0,0.0,-0.0,0.18126227
0.0,-0.0,0.0,0.0,0.0,-0.54053116,-0.0,0.1471817,-1.1036174,0.0,0.0,-0.0,-0.13478817,-0.0,-0.16182636,-0.0,-0.0,-0.0,-0.12082915,0.0,-0.0,0.0,0.0,-0.0,0.0,0.0,0.0,0.0,-0.0,-0.0,-0.0,0.13535844,0.0,-0.0,0.0,-0.0,0.6111677,-0.0,0.0,0.0,0.0,0.0,-0.18888848,0.0,-0.0,0.33877054,0.0,-0.1336605,0.0,0.0,0.0,0.0,-0.0,-0.16247728,0.12115558,0.12400171,0.14709595,-0.14671843,0.17818668,0.0,0.0,0.0,0.13987,0.0
0.0,0.0,-0.0,0.3841672,-0.0,-0.0,-0.0,0.0,-0.0,-0.14786638,-0.0,-0.201744,0.0,-0.0,-0.0,-0.14564396,-0.0,0.0,-0.0,-0.0,-0.0,0.0,0.0,-0.0,-0.0,-0.2153894,-0.15931419,0.24803504,-0.18516962,0.0,-0.0,0.0,0.0,0.16900733,0.0,-0.18579727,0.37436795,-0.0,0.0,-0.12578815,0.0,0.0,-0.12129068,0.0,-0.12173286,-0.0,-0.0,-0.29807407,0.19260733,-0.18752305,0.27623734,-0.0,0.0,-0.0,-0.1677405,-0.0,0.0,0.0,0.15337476,0.0,-0.0,-0.0,0.0,0.0
0.0,-0.0,0.0,-0.10795991,0.0,0.0,-0.315665,-0.0,-0.0,0.0,-1.3378863,-0.45294097,-0.9012828,-0.0,-0.35544416,-0.119857475,-0.0,-0.0,-0.121666916,-0.1693126,0.6391658,-0.22454436,-0.30007395,-0.0,0.0,-0.4242269,-0.0,0.49764505,-0.0,0.0,-0.0,-0.27661276,-0.4722204,-0.3800237,0.0,-0.0,-1.7621751,1.6453978,-1.6140937,-0.0,0.0,0.0,-0.19796824,-0.1372264,-0.119813286,-0.0,-0.21784553,-0.81744796,0.0,-0.5447145,0.0,0.0,-0.0,-0.1396301,-0.26390812,-0.26481372,0.22044556,-0.21279609,-0.0,-0.43321723,-0.0,-0.27417293,-0.16123903,-0.19381301
-0.0,0.0,-0.14263035,0.14457312,-0.0,-0.13068107,-0.0,0.11961769,-0.15240653,-0.20561512,-0.119380765,0.0,0.0,-0.14095022,0.13798104,0.0,0.16873449,-0.12378226,-0.0,-0.17128575,0.0,0.0,0.13369186,-0.22819933,0.0,-0.0,-0.23462145,-0.123554215,0.0,-0.0,-0.0,-0.0,-0.0,0.0,-0.0,0.16650954,0.0,-0.0,-0.14750554,0.0,0.0,0.0,-0.22402187,0.0,0.0,0.0,-0.0,-0.0,-0.0,0.0,-0.0,-0.0,-0.0,-0.25740838,0.13022332,-0.0,0.0,0.0,0.14348122,0.0,0.0,-0.15071666,-0.0,0.0
0.0,-0.0,-0.36209643,0.0,-0.14176717,-0.0,-0.0,-0.19103639,-0.0,-0.0,-0.24426363,0.18814892,-0.179846,0.0,0.0,0.0,-0.0,-0.0,-0.14197636,-0.0,-0.0,0.0,0.0,-0.0,-0.14273776,-0.14434814,-0.24478206,0.0,-0.23335464,-0.0,0.0,-0.19311908,-0.0,-0.0,-0.10842299,-0.0,-0.2005841,-0.0,-0.0,-0.121332966,0.0,-0.0,-0.0,-0.19564398,-0.14576681,-0.36283103,-0.13263512,0.0,-0.3395381,-0.0,0.0,-0.17871372,0.0,0.0,-0.0,-0.0,-0.17241754,-0.0,0.0,-0.0,-0.24988885,0.16833852,-0.0,-0.0
-0.0,-0.2095533,0.0,0.14758998,0.0,-0.0,-0.14821029,-0.0,0.0,-0.0,-0.122554444,-0.0,0.0,0.11930705,-0.0,0.14062712,0.0,-0.15758601,0.0,-0.0,0.0,-0.12085514,0.13573438,-0.0,-0.0,0.0,-0.13646477,0.19630946,0.0,0.0,-0.0,-0.0,0.0,-0.0,0.0,-0.0,0.0,-0.0,0.124871045,-0.0,-0.21297303,0.0,0.0,-0.0,-0.18305819,0.0,0.156572,-0.0,0.0,0.0,-0.0,-0.0,0.13302481,0.0,0.13848346,0.0,0.0,-0.0,-0.0,0.0,0.0,0.0,-0.0,0.0
0.0,0.23012783,0.0,0.18497406,0.0,-0.0,-0.0,0.0,-0.0,-0.0,0.33165628,-0.11871432,0.0,0.14402471,-0.18616089,0.0,-0.1400972,0.14186566,-0.0,-0.0,0.20874046,0.0,0.0,0.20152687,-0.0,0.11811545,-0.0,0.0,-0.1754575,-0.19282019,-0.0,-0.124225885,0.0,0.0,0.0,-0.14321844,0.16921274,0.0,-0.20035869,0.0,0.1320934,0.0,-0.12149297,-0.0,-0.16249476,0.0,-0.0,-0.3393799,0.1672367,0.14091545,0.0,0.1588421,-0.0,-0.0,-0.0,0.118817754,-0.0,-0.0,-0.0,-0.0,0.0,-0.14955325,-0.0,0.12033096
0.0,-0.1272151,0.30983955,-0.0,-0.20980075,-0.6365265,0.17542206,-0.0,-0.0,-0.0,-0.0,-0.0,-0.8521333,0.0,0.0,0.0,0.0,-0.0,-0.0,0.0,0.0,-0.0,0.0,-0.21996811,-0.24492104,0.24336894,0.0,-0.0,-0.13935448,-0.0,0.14305928,0.122598216,-0.0,-0.0,-0.26486987,-0.0,-0.22417498,0.0,0.0,-0.22236009,-0.13392481,-0.0,0.0,-0.0,0.0,-0.0,0.0,-0.20224094,-0.0,-0.3674808,-0.1212682,-0.0,-0.0,-0.26730844,-0.0,-0.13969111,0.0,0.0,0.0,0.0,0.0,0.0,-0.0,-0.0
0.0,0.0,-0.0,-0.1760988,0.162169,0.0,0.0,-0.0,0.0,-0.17679943,-0.14631091,0.12541641,-0.1251146,-0.0,-0.15509354,0.13386108,0.15438451,-0.12888433,-0.0,-0.0,-0.1499692,0.0,0.0,-0.11809037,0.22631344,0.0,-0.24453765,-0.22223848,-0.21353182,0.0,-0.17866033,-0.19552152,-0.0,0.0,0.0,-0.0,0.0,0.12020087,-0.0,0.13265705,-0.18169484,-0.0,-0.0,-0.0,0.0,0.0,0.0,-0.0,-0.0,-0.0,0.0,0.0,0.0,0.27103052,-0.0,-0.0,0.0,0.14411335,-0.0,-0.17485994,0.13953088,0.13543548,0.0,-0.0
0.11773805,-0.16946754,0.0,-0.20419185,0.2958209,0.0,0.13007663,-0.0,-0.0,-0.18349235,0.0,-0.0,0.0,0.0,0.0,-0.0,0.0,-0.12720114,-0.0,-0.12957388,0.0,-0.0,-0.0,-0.24064808,0.23321098,-0.14444634,-0.0,0.0,-0.0,-0.0,0.0,0.0,0.0,0.1199929,-0.0,-0.13926867,-0.0,0.0,-0.0,0.0,-0.0,0.0,0.0,-0.0,-0.0,-0.0,0.1364058,0.0,-0.14982742,-0.1307319,0.0,-0.0,-0.0,0.12133873,0.0,0.0,0.0,0.0,0.0,0.0,0.0,0.12534106,0.0,0.0
0.0,0.0,0.0,0.0,-0.0,-0.19712913,-0.13572524,-0.119618446,-0.0,-0.0,0.30594805,0.0,0.0,-0.12098617,-0.0,0.0,-0.12970166,-0.0,0.0,0.0,0.0,-0.0,0.0,0.0,-0.0,-0.20666362,-0.0,0.0,0.11912133,-0.0,-0.0,0.0,-0.0,0.13263673,0.0,0.14436091,0.2923487,0.3040946,-0.42410848,-0.0,0.0,0.0,-0.0,0.0,0.0,0.2828906,-0.12943058,-0.16028671,0.3110466,-0.47275516,0.0,0.0,0.0,0.0,0.0,-0.0,0.18669501,-0.0,0.15146163,0.20482358,0.0,-0.0,0.0,-0.0
-0.0,-0.0,-0.2215341,0.24862061,-0.0,-0.118930794,-0.0,-0.16684434,-0.0,0.0,-0.0,-0.0,-0.15043059,-0.20046845,0.0,-0.0,-0.0,0.17626749,-0.0,-0.0,-0.0,0.17785153,-0.18819475,0.0,0.1720405,0.0,-0.0,-0.0,0.1432735,-0.0,0.0,-0.15246764,0.17074731,-0.1522641,0.0,-0.19460033,-0.0,0.0,-0.0,-0.0,-0.0,-0.0,-0.0,0.0,0.0,0.0,0.0,-0.1302137,-0.13689466,0.30047485,-0.0,0.0,-0.0,0.0,-0.0,-0.0,-0.0,0.15990035,0.14756556,-0.0,-0.0,0.24761051,-0.0,-0.0
0.0,-0.0,0.0,0.0,-0.12348553,-0.0,-0.0,-0.0,0.0,-0.0,0.0,0.0,0.14187948,0.0,0.16523962,0.0,-0.18469866,-0.0,-0.0,-0.17385627,0.0,0.0,-0.0,-0.0,-0.0,0.0,0.0,0.0,0.0,0.0,-0.0,-0.0,-0.0,-0.16777377,0.0,-0.0,-0.0,0.0,0.16877274,-0.0,-0.179029,-0.15658136,-0.0,0.0,0.0,0.0,-0.1337588,-0.0,-0.20728132,-0.0,0.0,-0.17877986,0.22860557,0.0,-0.0,-0.0,0.0,-0.12544227,0.0,-0.0,0.0,-0.18742076,-0.0,-0.16844624
-0.0,-0.18928069,-0.0,-0.0,0.1564419,-0.0,0.0,0.12436276,0.0,0.0,-0.0,0.14346536,-0.11833847,-0.1193962,-0.21016659,-0.0,-0.0,0.15174024,-0.0,-0.0,-0.0,-0.0,0.1273705,-0.0,-0.0,0.1783583,-0.0,0.0,0.0,-0.0,0.17202824,-0.0,-0.1753232,0.0,0.0,0.0,-0.0,0.12698174,0.24786748,-0.17638984,0.0,-0.14263642,0.0,0.0,-0.0,-0.134489,0.0,-0.13392086,-0.0,-0.0,0.23568128,-0.0,-0.19278836,-0.20403765,-0.19992897,-0.0,-0.16289616,-0.0,-0.0,0.0,0.15119986,0.13367115,0.13843384,0.0
0.0,-0.17381197,0.0,0.0,-0.61694336,0.0,-0.19778378,-0.0,0.0,-0.18093611,-0.0,-0.0,-0.0,-0.0,-0.14895406,-0.0,0.0,-0.0,0.0,0.0,-0.0,-0.22893651,-0.0,0.0,0.0,-0.0,-0.0,0.0,0.0,-0.0,0.0,0.13639091,-0.20421165,-0.0,0.9907452,0.0,0.0,-0.0,-0.18082464,-0.16371375,0.0,0.0,-0.1429801,-0.0,0.0,0.0,0.0,0.0,0.58647597,0.0,0.0,-0.28908327,0.0,-0.33635992,0.0,-0.1704659,-0.13571359,-0.0,-0.0,-0.0,-0.16083874,0.0,-0.0,-0.0
-0.93111515,-0.0,-0.35131583,0.0,0.0,-0.0,-0.20938802,-0.0,-0.0,0.0,0.0,-0.2744024,-0.24245036,0.0,0.0,0.0,-0.3297177,-0.0,0.0,0.0,-0.0,-0.14726983,-0.19221562,-0.0,0.0,0.0,-0.1232058,0.0,-0.30114624,-0.0,-0.0,0.0,0.13908271,-0.0,-0.09819967,-0.22560188,0.0,-0.0,-0.24838789,-0.33918968,0.0,-0.43091452,-0.0,-0.0,0.0,-0.0,-0.17602599,0.0,0.0,0.0,0.0,-0.18440627,0.0,-0.0,-0.2726183,-0.0,0.0,-0.0,0.0,0.0,0.0,-0.32179484,-0.0,-0.0
-0.0,-0.0,-0.0,0.1458847,0.0,-0.16897397,-0.0,0.0,-0.14469256,0.0,0.0,0.0,0.0,0.0,0.0,-0.1480529,-0.14652903,-0.1358612,-0.0,0.0,0.15659146,0.0,0.16147773,0.1279447,0.12549494,0.17463411,0.0,-0.0,0.0,0.0,0.0,0.19396845,0.0,0.0,0.0,-0.0,0.0,-0.16792315,0.17593488,0.0,0.0,-0.0,0.0,-0.15020664,0.13350283,0.0,0.0,0.0,-0.0,0.13333265,0.0,0.11835984,0.0,-0.0,0.0,0.11948309,-0.14809154,-0.12620062,0.0,0.1342392,-0.0,-0.15034889,0.15409692,0.0
0.0,0.0,0.0,-0.0,-0.15152928,0.14235885,0.0,-0.0,-0.0,-0.0,-0.12674305,0.0,0.0,0.0,0.14856835,0.0,0.0,-0.0,-0.0,-0.0,0.22197269,-0.0,0.0,0.0,0.14992234,-0.17606926,-0.0,0.217921,-0.160791,-0.12015979,-0.13512993,-0.1335206,-0.0,-0.16650315,-0.0,-0.0,-0.0,0.1808617,0.0,0.0,0.0,0.0,-0.15076527,0.0,0.16217102,-0.20698512,-0.0,0.0,-0.27878278,0.0,0.0,-0.15183845,-0.0,-0.0,-0.0,-0.0,0.0,-0.0,0.0,0.0,-0.14153713,0.0,-0.11961173,0.0
-0.0,-0.18827254,0.12520997,0.21783258,-0.2356402,-0.0,-0.0,-0.0,0.0,-0.0,-0.0,-0.0,0.0,0.0,-0.43516618,0.0,0.0,-0.0,0.12456011,-0.31783053,0.0,0.0,0.0,-0.0,0.0,-0.0,0.0,0.30893764,0.0,0.0,-0.0,0.0,0.0,-0.13208877,-0.0,-0.0,0.119327456,-0.0,0.0,-0.14360382,0.13234133,0.16786577,-0.16627312,0.0,-0.0,-0.0,0.0,0.0,0.23173608,-0.159776,-0.17713833,-0.277949,0.0,-0.17270073,0.1705995,-0.0,0.1380939,-0.0,-0.20895787,-0.0,0.1638119,0.0,-0.1353008,0.0
-0.24802834,-0.28333932,-0.2569955,0.0,-0.26087907,-0.37635046,0.0,-0.18339248,-0.0,-0.0,-0.0,0.14791152,-0.8369212,-0.0,-0.0,-0.0,-0.0,-0.0,0.0,-0.0,-0.1350919,-0.16410486,-0.0,-0.0,-0.0,-0.0,-0.40894166,0.0,-0.0,-0.28667653,0.0,-0.32703805,-0.0,-0.0,-0.63196576,-0.23386693,0.17862737,-0.26611972,-0.42198056,-0.21054663,-0.23618127,-0.22107697,-0.7099646,-0.1798718,-0.17246032,0.0,-0.21461457,-0.0,-0.0,-0.22068708,-0.21808495,0.31024736,0.0,-0.0,-0.0,0.0,-0.26447666,-0.0,-0.18767788,-0.0,-0.26199913,0.0,-0.0,-0.0
0.0,-0.0,-0.0,0.20148702,0.0,-0.0,-0.0,-0.0,-0.0,-0.0,0.0,-0.0,-0.0,-0.0,-0.0,-0.18648523,-0.0,-0.0,-0.20480858,-0.0,-0.1341319,0.19601884,-0.0,-0.13347521,-0.0,0.14669771,0.0,0.0,-0.0,0.0,-0.0,-0.0,0.0,0.0,-0.0,0.0,-0.0,-0.20730163,0.16542266,-0.0,-0.13804254,-0.15133493,0.136902,-0.0,0.0,0.0,-0.0,-0.0,0.0,-0.0,-0.0,-0.0,-0.0,-0.17610796,-0.0,0.0,-0.0,-0.124034025,0.0,-0.21993375,0.0,0.17820208,-0.0,-0.0
