0,1,2,3,4,5,6,7,8,9,10,11,12,13,14,15,16,17,18,19,20,21,22,23,24,25,26,27,28,29,30,31,32,33,34,35,36,37,38,39,40,41,42,43,44,45,46,47,48,49,50,51,52,53,54,55,56,57,58,59,60,61,62,63,64,65,66,67,68,69,70,71,72,73,74,75,76,77,78,79,80,81,82,83,84,85,86,87,88,89,90,91,92,93,94,95,96,97,98,99,100,101,102,103,104,105,106,107,108,109,110,111,112,113,114,115,116,117,118,119,120,121,122,123,124,125,126,127
0.007703182,0.15636718,0.25912222,-0.1609611,0.11742436,-0.059870537,0.13923945,-0.04816293,-0.22177799,0.06033562,0.104331926,-0.12967522,-0.26161864,0.039155312,0.110738404,0.06284432,0.10259861,-0.07253863,0.11947936,-0.1520014,0.016800461,-0.04209679,0.08186761,-0.1667434,-0.07999179,0.06296561,-0.094421245,0.06970342,-0.03409795,-0.03458607,-0.077959165,-0.030911537,-0.033235766,0.06968193,0.06348576,0.07950884,0.053732846,-0.10116164,-0.13748181,-0.052465796,0.08481849,-0.10557188,0.09854702,-0.09753353,-0.008162036,0.110293575,-0.27117196,0.06993268,-0.06678507,0.151355,0.13550383,0.090998955,-0.1369898,-0.077286705,-0.18722872,0.10598169,0.15275216,0.36604893,-0.08585738,-0.06772147,0.029384475,0.14897603,0.18645622,-0.014251856,0.1144826,0.027017128,0.083447516,0.11816946,-0.05747634,-0.20180483,-0.055331625,0.08286674,0.053671163,-0.057752937,-0.14014454,0.018436577,-0.15584092,0.17216672,0.13808468,-0.25412822,0.0704049,-0.19191188,-0.13186477,-0.07451393,-0.14624178,-0.18086542,0.067417204,-0.17242664,0.02901059,-0.15094696,0.05680006,0.0117019825,-0.08974412,-0.21717091,0.003521329,-0.16706774,-0.046241876,-0.028809842,-0.1982719,-0.15005209,-0.15778154,-0.08351464,0.044068128,-0.085805535,0.07525411,0.00011734186,-0.06502153,-0.041755613,-0.049706407,0.16600683,0.061190642,0.0546886,-0.19827142,0.11106827,0.13600348,-0.08349711,0.15308508,-0.18004896,0.18201421,-0.0020649433,-0.06275452,0.1698571,-0.14338191,-0.03444104,-0.18448576,-0.019923493,0.31917,-0.20406193
0.18107653,0.17651744,0.06600152,-0.2107424,-0.43654037,-0.44782716,-0.0043210397,-0.12102085,-0.31429002,-0.09327785,-0.23272048,-0.18396358,-0.07422137,-0.13964185,-0.579419,-0.23740928,-0.82515013,-0.13935149,-0.18654144,-0.06972646,-0.23973867,-0.11685613,0.019049006,-0.44216615,-0.79125774,-0.65059453,-0.078603484,-0.42913687,-0.050932754,-0.8794248,0.10250276,-0.100976884,-0.45705685,0.007001474,-0.15062197,-0.23513742,0.17336982,-0.7116535,-0.12356148,-0.26964727,-0.2709838,-0.07090249,-0.074326076,0.14463669,-1.0586032,-0.49403608,-0.23783816,0.12892991,-0.47374365,-0.20605838,-0.15652005,-0.05529149,-0.3062297,-0.15352495,-0.19560377,-0.4727423,-0.057816766,-0.0059607043,-0.29298785,-0.31830704,-0.09870841,-0.124048814,-0.37087962,-0.27560887,-0.42268854,-0.12578733,-0.14123993,-0.111625746,-0.36971426,-0.063048206,-0.043870956,0.070904605,-0.15865724,-0.732406,-0.13291004,-0.20686214,0.16286255,-0.5932709,-1.076062,-0.2735004,-0.13074344,-0.09117901,0.19676726,-0.3185309,-0.5421808,-0.0010372365,-0.19180244,-0.046608884,-0.23548779,-0.19369374,-0.1087279,0.047321893,-0.2139867,-0.12963454,-0.36523828,-0.043112844,-0.24371429,-0.9384391,-0.26895946,-0.2740172,-0.3699396,0.7860214,-0.088728264,-0.4527127,-0.09774146,-0.12733188,-0.06835507,-0.16361447,-0.25592119,-0.23800899,-0.12220694,0.3015352,-0.029274127,-0.3134592,-0.11711458,-0.25555182,-0.11347433,-0.24264245,-0.1035209,-0.21196866,-0.076064765,0.16777882,0.19121027,-0.1101301,-0.09089384,-0.15052909,0.13430698,-0.07775706
-0.12006408,0.24906851,0.26804397,-0.06261943,0.010063544,-0.026588088,0.044672996,-0.035779525,0.07503879,-0.06751817,0.2318908,0.12903379,-0.29096445,-0.10428082,-0.0524706,0.28785187,0.17378747,0.106782466,0.03347437,-0.06676353,0.16494642,0.06594491,-0.1044604,0.11242604,-0.20524585,-0.1346893,0.15694916,0.089580834,0.11217247,-0.11147226,-0.08379122,-0.051944517,0.23511097,-0.2315132,-0.051674213,0.2853781,0.28136942,-0.1735411,-0.14981423,0.07731941,-0.0848636,-0.2231836,-0.044218812,-0.0539654,-0.019265601,-0.04436107,-0.28512248,-0.11759662,0.08217451,-0.122558706,0.08607486,-0.10907664,0.23449874,0.02193193,0.37503707,-0.017425628,-0.17340471,-0.1187649,0.11544255,-0.01932339,-0.060191207,-0.0049749594,-0.10841243,0.09572534,0.08531071,-0.119089074,0.1454993,-0.17351855,-0.08763885,-0.011930154,-0.0852718,-0.23956452,-0.073220156,-0.21992822,-0.012650906,-0.15253612,-0.34343678,-0.008418121,0.15882605,0.27119595,-0.094585866,0.2509051,0.1953349,0.1217853,0.15643589,-0.05460918,-0.044335913,-0.014670224,-0.016128525,-0.2040899,0.14658077,0.118462496,-0.26320237,0.04598069,-0.0095651345,0.1879656,0.117374256,-0.15095256,0.06196816,0.18828787,0.009301506,0.62421966,-0.22711049,0.096986614,0.000646961,-0.0092706205,0.11287337,-0.044650134,0.012337047,0.19234174,-0.007215724,0.21144211,-0.08788702,0.16968404,-0.040510144,-0.087662555,-0.12652369,0.2714645,-0.0093910005,0.18400763,0.012262865,-0.034710284,0.40384382,-0.0575372,-0.118501134,-0.053771857,0.020318503,-0.030874787
-0.2819138,-0.18210675,-0.093824476,-0.16798513,-0.19678815,-0.034159098,-0.17093065,-0.15174282,-0.042466924,-0.013906298,-0.13569166,-0.13386641,-0.13010927,-0.0043189717,-0.19321954,-0.21091825,-0.31160492,-0.03983385,-0.29803026,-0.018528912,-0.14289172,-0.029690761,-0.02975105,-0.068299815,-0.06554876,-0.18464383,-0.172691,-0.067372896,-0.021647898,-0.06640137,-0.07638471,-0.33074403,-0.0045436113,-0.0267655,-0.048803285,-0.031278633,-0.08174379,-0.02587748,-0.121504426,-0.13250472,-0.17620234,-0.23722893,-0.09834273,-0.04933405,-0.12841475,-0.38784307,-0.40557602,-0.035225507,-0.17021158,-0.004756705,-0.24832262,-0.0026265695,-0.059283264,-0.33032903,-0.3091959,-0.14109464,-0.047749802,-0.006542498,-0.07949725,-0.162923,-0.022738134,-0.05440766,-0.21959333,-0.30053586,-0.22191538,-0.30520028,-0.028649207,-0.32773843,-0.30312824,-0.080110334,-0.26871103,-0.1122561,-0.037534922,-0.02384602,-0.19084273,-0.314996,-0.36470488,-0.41653693,-0.102555744,-0.15131044,-0.100668736,-0.11877421,-0.0013872989,-0.05045936,-0.115399,-0.065619566,-0.004310145,-0.25648075,-0.085421056,-0.1577483,-0.36908013,-0.61978376,-0.3057168,-0.10898061,-0.1576826,-0.005194275,-0.18306583,-0.15917423,-0.28895792,-0.04833276,-0.08431017,0.11439688,-0.06564942,-0.1853967,-0.17069884,-0.4336001,-0.09112788,-0.048668116,-0.039084785,-0.12301688,-0.19670801,-0.1457936,-0.2315098,-0.11997718,-0.05641182,-0.022402026,-0.03817966,-0.038171887,-0.28705108,-0.043285035,-0.4399543,-0.032709934,-0.21119565,-0.111073114,-0.21511589,-0.26479334,-0.049629908,-0.2439345
-0.13954386,0.19923806,0.13632001,-0.052442975,-0.047793433,-0.004925339,-0.13967913,-0.00548432,-0.029243143,-0.03397886,0.07702667,-0.15164228,-0.08605562,-0.14227428,0.04590416,0.002664042,0.027023472,-0.007697516,-0.015268709,-0.20292474,-0.009465366,-0.058353905,-0.12218962,-0.08605805,-0.16468969,-0.15884252,-0.025865754,-0.10736559,-0.020930875,-0.14187928,-0.19925125,-0.16233529,0.024017857,-0.11063655,-0.110536605,-0.15838237,0.12952365,-0.0769713,-0.1076345,-0.2505731,-0.23461528,-0.11750591,-0.2868721,-0.1024073,-0.2194713,0.096046604,0.11296768,-0.2787694,-0.16578081,0.042010907,0.122576565,-0.16725294,-0.08223392,-0.16176814,0.16936408,-0.049305324,-0.0863409,-0.022337278,-0.082352415,-0.122790635,-0.18564057,-0.26285014,0.037406772,0.04643868,0.16095977,-0.0024210436,-0.13617215,-0.1621612,-0.0049764127,-0.18735483,-0.010767596,-0.06751007,-0.093099415,-0.06977207,-0.023692701,-0.058196273,-0.31067464,-0.0008153686,0.15702967,-0.15346219,-0.20321037,-0.35815006,0.012410118,-0.107043505,-0.14189112,-0.18470097,-0.042535055,-0.16919348,0.09006805,0.059274293,-0.22947691,-0.015266453,-0.044708557,0.0041823704,-0.19974878,-0.19999425,-0.022529138,-0.113451056,-0.24995099,-0.00084283773,-0.10867513,0.17660539,-0.27402502,-0.023956891,-0.21891612,-0.15713404,-0.0432778,-0.1419342,-0.15557073,-0.33464634,-0.115393385,0.009280114,-0.18982333,-0.19398648,-0.15918879,0.03958441,-0.02732982,-0.099424295,-0.22970617,-0.16260654,-0.39985085,-0.058339063,-0.10495261,-0.009407896,0.12143502,0.036383796,-0.2772468,-0.20186844
-0.117688045,0.12533574,0.05102133,-0.20063056,-0.019435534,0.054140676,-0.1717827,-0.029381862,-0.12955038,-0.003044036,-0.02180536,-0.06479048,-0.0013529497,-0.036618687,-0.17680223,-0.13367347,0.08685533,-0.12753053,-0.23277251,-0.02273713,-0.112753704,-0.109524705,0.31596863,0.05289704,0.2017217,0.04227639,-0.11453563,-0.08297946,-0.21744427,0.20978713,0.39524785,-0.09977689,0.09447193,0.23256911,-0.2160683,-0.09188723,0.5460912,0.17132144,-0.14429042,-0.114518635,-0.07034803,-0.19233505,-0.011723286,-0.9988889,0.21881363,-0.0963621,-0.2016663,0.19428167,0.05144671,-0.10770866,-0.033078432,-0.096000224,-0.1605896,-0.20803055,-0.040040817,-0.008263167,-0.49950427,-0.03462873,-0.09277882,0.03926222,-0.050346985,-0.07730306,-0.0011910121,-0.0063021034,0.23830919,-0.008446054,-0.119775735,-0.0019122624,-0.16456681,-0.1102873,-0.023189243,0.11278627,-0.067895435,0.17071454,-0.0038684187,-0.2310883,0.74212056,-0.02274528,0.1821885,-0.07991001,-0.029925494,-0.023883568,-0.02301077,-0.018676765,-0.13778985,-0.16916004,-0.06309364,-0.020298358,-0.033451654,-0.23912373,-0.027568927,-0.3244838,-0.17343886,-0.11547831,-0.015603272,-0.108603105,-0.15558635,0.14826041,-0.2260235,-0.13678235,-0.00894917,0.21595834,-0.02148528,-0.02484763,-0.028588507,-0.033858042,-0.11052204,-0.055267837,-0.1754065,-0.10113498,-0.18165144,0.44772246,-0.16941585,-0.06720451,-0.14351915,-0.078834236,-0.09931448,-0.18792695,-0.0504973,-0.010978921,-0.21049891,0.24154016,0.2931352,-0.23703466,-0.010689757,-0.17143965,0.071886756,-0.10922233
-0.1332505,0.34424055,-0.09512499,0.035564303,-0.26220512,0.14294326,-0.085209824,-0.07092939,0.15328456,0.08076612,-0.0587746,0.0034101026,0.06822713,0.060158648,-0.16289894,0.17103134,0.17631282,-0.026386384,-0.024407515,-0.01379101,0.10801483,-0.21778198,-0.09955296,-0.21615212,0.07250724,-0.16568805,-0.1392705,0.10624568,-0.024538558,-0.03337236,-0.21136932,0.042586062,-0.16448042,0.10729102,0.06410684,0.01930998,-0.13255985,-0.13382214,-0.20132573,-0.04109387,0.05333985,-0.010817398,-0.26807284,-0.1417545,0.025806714,0.07526281,0.014079453,-0.049441896,-0.10958969,-0.073439166,-0.07094897,-0.015963435,-0.04965182,0.076587036,-0.073937766,0.010159206,-0.16485655,-0.09725696,0.02868462,-0.008397755,0.049975097,0.1822019,-0.003019637,-0.087430626,-0.04483529,-0.17422955,-0.25596017,0.016251456,0.022524394,-0.100099504,-0.122496426,-0.112373754,-0.031093922,-0.12208366,-0.10706772,-0.083461165,0.26444802,0.14016494,0.12700467,0.09673086,-0.082358815,-0.001083736,0.103286386,0.06743453,-0.044836853,-0.08323742,-0.25751814,-0.13803735,-0.01743105,0.09797131,0.008113404,0.14118682,-0.041360453,-0.15225045,0.060562972,-0.10657781,0.0071299113,-0.09664666,0.0017643273,0.08374392,-0.1508795,0.23165576,0.10727239,0.06436795,-0.0018241968,-0.13077582,-0.1008626,0.09507085,0.031876728,-0.048955843,0.046959322,-0.008558212,-0.17813583,0.003572442,0.16931422,0.11225985,0.001516528,0.024036089,-0.02776398,0.1501967,-0.27405056,0.045936175,0.04104946,0.0013474943,0.004905093,-0.085373856,0.08957181,-0.04203539
-0.09140037,-0.1392426,-0.18053186,-0.078792505,-0.16658989,-0.17122631,-0.16402411,-0.15055496,-0.19787948,-0.3587271,-0.05755221,-0.20067316,-0.24508688,-0.04834686,-0.11281304,-0.3361192,-0.42085537,-0.10921271,-0.26903284,-0.26090464,-0.21978836,-0.026321447,-0.10752229,-0.09182831,-0.021065535,-0.07855438,-0.1419024,-0.13837592,-0.11544205,-0.122181326,-0.15809277,-0.04304479,-0.08742642,-0.06695819,-0.074614435,-0.20602392,-0.0910234,-0.07910621,-0.24307898,-0.034568958,-0.19809908,-0.03155711,-0.040626887,-0.06384193,-0.035869792,-0.26215324,-0.11232055,-0.18967794,-0.1782593,-0.271092,-0.2582908,-0.08384233,-0.009351101,-0.2023634,-0.1291795,-0.108330294,-0.24623044,-0.2051196,-0.19899856,-0.0069043823,-0.23504019,-0.14677034,-0.18487154,-0.12262482,-0.15793844,-0.06514917,-0.16001932,-0.022016065,-0.32030508,-0.20129412,-0.094838955,-0.10534515,-0.0011988371,-0.13452986,-0.29136947,-0.0702936,-0.0121738985,-0.40412098,-0.29008457,-0.026441818,-0.034038607,-0.17444515,-0.095053345,-0.096470945,-0.0042484053,-0.019585185,-0.2894845,-0.024817167,-0.23173684,-0.0419319,-0.045919493,-0.21603984,-0.15303314,-0.21434341,-0.031188982,-0.14995,-0.20312995,-0.031603284,0.1596403,-0.1819407,-0.15587142,-0.008056856,-0.069664136,-0.28447983,-0.033196855,-0.016715793,-0.2740515,-0.14444208,-0.188855,0.041608077,-0.10204378,-0.16824722,-0.033814482,-0.067825936,-0.118997656,-0.30420098,-0.20096464,-0.14253706,-0.03573956,-0.042045772,-0.01579191,-0.12648185,-0.09826866,-0.13692282,-0.13669081,-0.090234056,-0.11662008,-0.048583336
0.06422377,0.039706316,-0.20917225,-0.084455624,-0.019290254,0.03596223,0.13768518,-0.18333817,-0.0077462434,-0.17089626,-0.16029929,0.19812287,0.11919798,0.18034068,0.019864483,-0.015660165,0.07727975,-0.12996642,-0.11211184,0.016728299,0.107116185,0.04932656,0.18235104,-0.020450955,0.067333184,-0.16929427,0.055819087,-0.17604822,0.06537116,0.04416165,-0.25604984,0.008846476,-0.15357146,0.14982614,0.10633448,0.009332125,-0.10971303,0.19426674,0.077616245,0.13929847,-0.095571995,0.17280707,-0.08225492,0.040403154,-0.14130701,0.13368608,0.10378226,0.11978894,-0.046897218,-0.064875394,-0.20286992,0.020597823,0.13471562,-0.16903247,0.042513233,0.0069889207,0.085929625,-0.05629171,-0.0058735437,0.05480357,-0.042775877,0.09126814,0.09892296,-0.19605044,0.014085627,-0.17650771,-0.0915165,-0.030399822,-0.19320135,0.05560121,0.041887376,-0.094063655,0.18955144,0.13721159,0.0652091,-0.22280456,0.06326147,-0.020559093,-0.10057125,-0.14102605,0.0640266,-0.12103743,-0.2175794,0.034844078,-0.17033622,-0.0786916,0.19208397,-0.1107687,0.16335458,0.12787285,0.14870206,-0.07494968,0.1753506,0.09268099,-0.08023454,-0.026520535,0.17955291,0.044527743,-0.15612969,0.06219846,-0.03445295,0.07618993,-0.17286544,0.18129395,0.06496608,-0.18154542,-0.16151625,-0.057468325,0.0572334,-0.032882404,0.09763359,0.1028234,0.1168189,-0.042902917,-0.19401534,0.17579556,0.11441978,0.1752693,-0.02886399,0.098263144,0.10407003,-0.0101656895,0.00479827,0.031484637,-0.14153904,-0.029150922,-0.15422894,0.15913184
-0.022655725,0.3964455,0.012539569,-0.024647199,0.07497687,-0.20644906,-0.15119582,-0.15497997,-0.2504272,-0.19447233,-0.14934081,-0.15423682,-0.0012963603,-0.17437193,-0.041696668,-0.03532138,0.113639355,-0.0976213,-0.27855653,-0.14908531,-0.1880718,-0.20197825,-0.11746421,-0.05803257,-0.18458849,-0.0209396,-0.20902552,-0.13053499,-0.18422353,-0.18272826,0.032328963,-0.12090916,0.08051157,0.12762034,-0.13581367,-0.13682868,0.025227178,-0.174057,0.11619396,-0.11075999,-0.16180456,-0.15294851,-0.017673481,-0.0025381546,-0.25710225,-0.04778895,-0.15258673,0.089979984,-0.008991006,-0.02705576,0.06566107,-0.18586089,0.04362032,-0.1081432,0.17727655,-0.10091222,-0.04308704,-0.058149375,0.03804255,-0.03677121,-0.008445293,-0.24108618,-0.0010039159,-0.013447044,-0.028636424,-0.07487877,-0.015824378,-0.17888276,-0.028023828,-0.08264552,-0.018829465,-0.19739145,-0.055225916,-0.14088392,-0.015394132,-0.08563432,-0.005359085,-0.061201997,-0.11596005,0.09205536,-0.033457592,-0.29788765,-0.09185359,0.06208474,0.15190539,-0.20976765,-0.13838546,-0.09537525,-0.041472908,-0.25498176,-0.25914794,0.4968183,0.12086134,-0.24122229,-0.18437879,-0.22978243,-0.12230424,-0.08500977,0.2611444,-0.028368706,0.101853676,0.75029004,-0.059129875,-0.23682816,-0.0132024875,-0.0342864,-0.04618703,-0.033100158,0.18936455,0.22672033,-0.26777148,-0.03462568,-0.012772655,0.016721379,0.07605329,-0.16485068,-0.23251687,-0.007723178,-0.0070898393,-0.021255132,-0.16381617,-0.066379815,0.11828727,-0.04798793,-0.02079077,0.039884176,0.005984973,-0.26102692
0.08958411,-0.26383656,-0.012123095,-0.121828176,-0.02035781,0.19691898,-0.14491615,0.16127886,0.13405737,-0.017103784,0.20348872,-0.003664078,-0.016410708,-0.004731092,-0.046596047,0.16990414,0.17716098,-0.163798,-0.12687737,0.18260771,-0.014554325,-0.005777757,-0.08676558,-0.2034646,0.06798618,-0.071013145,0.111523345,0.10651105,-0.048698127,-0.022446541,-0.0117373755,0.1173525,-0.10416035,0.20443104,0.096210256,0.058714617,-0.015004122,0.0671553,0.0975205,-0.19751956,0.026000833,0.0128270555,-0.12086656,0.0017300978,0.07326999,-0.10097201,-0.005713173,-0.004271612,0.11592162,-0.09613669,0.13275181,-0.093588345,-0.042511422,0.062046167,-0.10732288,0.2065835,-0.031059112,0.1952262,0.20009175,-0.073727906,-0.06405808,-0.009633461,0.13892905,-0.033990137,-0.05743108,-0.04732092,-0.09081465,-0.21661441,0.083798565,-0.054555446,-0.01030888,0.024606103,0.14373477,0.10861743,-0.056311205,-0.012198627,-0.023192108,0.11673285,0.23091054,-0.20783621,0.09230066,-0.020785606,0.18298018,0.012651212,0.15387195,0.12815274,-0.14604151,-0.09264574,0.04409925,-0.04176735,-0.029521616,0.23314835,0.1035012,0.017664073,0.19517305,-0.027370663,0.23267521,-0.10292253,0.16836143,-0.12983571,-0.15333028,-0.1711792,0.10445403,0.044241402,-0.017862339,0.15760367,-0.08272445,0.24100955,-0.036823917,-0.2546998,-0.09303278,-0.08285741,-0.015669212,-0.17857479,0.09281844,-0.010208979,-0.07520659,0.02675156,0.07346237,-0.07111046,-0.082022615,-0.06816373,0.059093006,-0.19049866,0.1368686,-0.13366666,-0.1810623,-0.043620214
0.13639128,-0.12443545,0.17754619,0.18967813,0.20049714,-0.082793206,0.046941403,0.011290818,-0.15260842,-0.22361386,-0.06372962,0.003529252,-0.15060887,-0.213355,0.14001034,0.1656869,0.05806925,0.08156453,-0.17252998,-0.07791192,-0.19371304,-0.009201678,-0.12870316,0.18493393,-0.19654176,-0.06906673,0.0829034,-0.24047232,-0.05909101,-0.049643584,0.074213825,-0.1669355,0.07700826,-0.051551003,0.10810815,0.054277815,-0.11178459,0.2054439,-0.0872619,0.011225134,0.06624977,0.01519095,-0.14535661,0.111484505,0.06980754,-0.07413485,-0.20405886,-0.023511989,-0.09617926,-0.029616471,-0.15343818,0.12939234,0.16469836,0.043151774,0.16788621,-0.07022696,0.0965012,0.04245584,0.12175623,-0.14710428,0.07659616,0.12027405,-0.12591551,-0.15647289,-0.089612335,0.1305059,-0.0736839,0.08669254,0.055115446,0.1367687,-0.17987509,0.04936997,0.09617729,-0.025266975,-0.18919134,-0.17287914,-0.07410391,-0.1796873,-0.18185674,0.012406299,-0.09388401,0.10838536,-0.19978611,-0.19754823,-0.10325028,-0.20372532,0.13082929,-0.19419426,0.045961536,0.01454038,-0.052214365,0.16589125,0.19343883,-0.05729218,-0.12591647,0.11842546,-0.10504047,0.0022843159,0.06568345,-0.18205135,0.15394256,0.13079162,0.027366495,0.11020079,-0.23018347,-0.12885381,-0.1482372,-0.1686979,-0.23957075,0.0210562,-0.14265813,-0.28553286,0.15760571,-0.19604854,-0.15831181,-0.23894769,-0.14569734,-0.19026214,-0.2450197,0.09880074,-0.1462274,-0.14024545,-0.28250536,-0.057407316,-0.06978848,0.033586152,-0.11903385,0.15292837
-0.11953083,0.29761198,-0.074565604,-0.18475017,0.02341096,0.08631358,0.045379,0.11080284,-0.20270324,0.032421436,0.009456807,-0.060962938,0.11939714,0.06911765,0.01718008,-0.031706776,-0.16850352,0.024688339,-0.09405008,-0.0012403296,-0.2810712,0.06359332,-0.22201413,0.055255633,-0.03917449,-0.21385072,-0.17009497,0.14644311,0.12289253,-0.22688115,0.13884671,0.029821487,0.16216598,-0.19539112,0.0787688,-0.23749477,0.42025527,-0.01931091,-0.18580487,-0.094042294,0.057327628,-0.20785289,-0.10622078,-0.08301947,-0.101494454,-0.18733819,0.09262817,-0.14749552,-0.1333238,-0.011711298,0.18218793,0.0066869855,-0.16893604,0.12188122,0.017663084,0.09586109,-0.09943799,0.12668873,-0.1120384,-0.18749948,0.079733364,-0.22251981,0.037919037,0.09305452,0.29764888,0.1107394,-0.09278162,-0.09899376,0.015638547,0.007084504,-0.13600375,0.07683016,0.07682029,0.12414605,-0.18509771,0.077843465,0.061005555,0.1205724,0.1262106,0.009126756,0.038695652,-0.09391651,0.16006687,0.099025205,0.12587366,0.10760934,-0.070858896,0.16376096,-0.09347181,-0.14636607,0.14884657,-0.053248547,0.06106606,0.16018443,0.068727024,-0.102887645,-0.019214235,-0.16997488,-0.13589077,-0.074523695,-0.035060033,0.086685315,-0.22087081,-0.119856596,-0.0720445,-0.061062414,-0.1713431,-0.00053684413,0.068482526,-0.12922095,0.08990802,0.3095504,0.055141944,-0.09228498,-0.038598806,0.010902051,-0.04605252,-0.070892036,-0.079007015,-0.11101213,-0.09438989,0.0374635,0.24170464,0.15456425,-0.085062705,-0.19051085,-0.08655892,0.0681401
0.20187664,0.21772757,0.15841901,-0.022729216,-0.24137382,0.122663364,-0.06847715,-0.013652478,-0.006541665,-0.06991064,0.19778576,-0.15443587,-0.22985087,-0.0068150084,-0.18224552,0.15535808,-0.07395416,-0.08281906,0.18851796,-0.019809723,-0.01058463,0.1322804,0.07264737,0.12330992,0.19376598,0.17895317,-0.20464781,0.19512081,-0.13971953,-0.056122467,-0.14613818,0.060961507,-0.07397453,-0.050707616,-0.069598824,-0.051297832,0.13658468,-0.007172539,-0.18354683,-0.01002204,-0.15615445,-0.00070991955,-0.024635592,0.23182988,-0.063192956,-0.0055461423,-0.027487189,0.19144681,0.17879839,-0.12306505,-0.1594042,-0.00914872,-0.257651,-0.10874854,0.27643636,-0.11974151,0.041094407,0.11912693,-0.1902444,0.15965484,-0.0052262116,-0.15039277,-0.011842771,-0.27727926,0.15418209,-0.07428913,-0.075869754,-0.001178903,0.14576867,-0.0075359703,-0.011816321,0.08302644,-0.0026069148,-0.21571524,-0.13888536,0.14305085,0.04885776,-0.07408105,0.07064369,0.08807008,-0.07803403,-0.13403937,0.18351805,-0.26184314,-0.18140724,-0.20276378,-0.027795736,-0.14079542,0.118810944,-0.12529592,-0.0674803,0.42034355,-0.028285377,0.08257041,-0.12480894,-0.0684961,-0.098901756,-0.035180192,-0.16992301,-0.024550142,-0.11593301,0.30918017,-0.0080266325,-0.005668968,-0.12540226,0.08957192,-0.16865952,-0.14872515,-0.16202179,-0.28987956,0.081882164,0.4163586,-0.0668531,-0.22431497,0.029125737,0.09618796,0.08706129,-0.16549045,-0.19454168,-0.08742451,0.15711106,-0.1926009,0.48303664,-0.12005552,-0.04632964,-0.21106623,0.0850471,0.15497698
-0.17049146,0.24995449,0.015963385,-0.13500385,0.05614644,-0.23972864,-0.00036702256,-0.0198413,-0.05640551,-0.028518146,-0.10231075,0.07911315,-0.06707937,-0.09467256,0.056805763,-0.03752576,-0.18857786,-0.15877867,-0.2512619,-0.014405377,-0.065337524,-0.034678943,-0.088957116,0.21975261,-0.06971892,-0.17047417,-0.02526486,-0.21189354,-0.1784791,0.07715403,-0.16933095,-0.19162402,0.29674962,0.22095874,-0.011200889,-0.0583698,0.1954324,-0.09023608,0.15348794,-0.1571534,0.14223222,-0.0178897,-0.10620514,-0.034611966,0.10494843,-0.01565724,-0.10916899,-0.13299951,0.12294254,-0.22826011,-0.017089957,-0.027211808,-0.22802088,-0.020249147,0.1608172,-0.026836311,-0.2174761,-0.06585232,0.14410622,-0.260983,-0.08752883,0.08370089,-0.18378083,-0.10117603,-0.00936306,-0.3644823,-0.17335449,-0.30153733,-0.14387093,0.09895722,-0.040512152,-0.2705385,-0.2154644,-0.0009876897,-0.013178269,-0.06713416,-0.23940422,-0.022290774,-0.13074185,0.13290228,0.11158384,-0.10850561,-0.006971827,-0.19491081,0.024032742,-0.21481636,0.1218377,-0.087239385,0.18779916,-0.18014942,-0.20082746,0.3621144,-0.011770724,-0.18632858,-0.03430757,-0.0921484,0.024690937,-0.029721973,-0.1285721,-0.09468113,-0.12897159,0.12877335,-0.016655415,-0.018859632,-0.02464123,-0.24812433,-0.21079709,-0.019848071,-0.12866677,0.17603487,-0.23167846,0.2749565,-0.0006472705,-0.11315729,0.14999662,0.035915054,0.003751965,-0.14705314,-0.02581856,-0.048884705,-0.20410763,0.103458256,0.17165561,-0.1908908,0.14014429,-0.2236448,-0.0009697892,-0.004788724
-0.11219295,0.15287036,0.13518357,-0.046841204,0.16501744,0.10254656,0.18664066,0.09005193,0.0684172,0.1398257,-0.009644536,0.0126039805,-0.13731787,-0.05602403,-0.0055034608,0.08872834,-0.14617008,-0.023844734,-0.017113164,-0.10492714,-0.08782873,-0.19360575,0.22773813,0.17042904,0.12941152,0.043877333,-0.13147444,0.15485509,0.05430552,0.049289066,0.028895145,-0.09624788,-0.060432583,-0.12578106,-0.031145709,-0.036672898,0.11387848,-0.1392935,0.15458119,-0.17746651,-0.16822729,-0.082725525,-0.15408261,-0.0034770027,-0.15233016,0.1437994,-0.024062037,-0.009065688,-0.08863665,0.03291008,0.14703518,-0.008815588,0.13455433,0.091918394,-0.03533277,0.16606899,0.048966456,0.10629555,0.04719597,-0.019453466,-0.17678717,-0.18691088,0.04312988,-0.053784415,0.042903453,-0.00089854124,-0.051159278,0.060818613,0.014950163,-0.0792047,0.19047078,0.06286274,0.11813497,-0.12810266,-0.09422737,0.0962764,-0.19461,-0.014736071,-0.06260964,0.12875378,-0.15605456,0.06472865,0.07143698,-0.178369,0.11687257,-0.059841365,0.13810763,-0.05113411,-0.15985636,0.15697572,0.14705221,-0.15196969,-0.18568394,-0.007798501,0.11457334,0.058250275,-0.13770792,-0.007149428,0.0049574813,-0.1274828,-0.083540104,-0.020993039,-0.015616166,-0.09730936,-0.048055395,0.01248342,0.13332963,0.1560199,0.1445123,0.06493792,-0.1571207,0.14028275,-0.109329276,-0.19025095,-0.18605624,-0.1178078,-0.11312827,0.061624136,-0.16569728,-0.044234168,0.09460673,-0.006023705,-0.05934541,0.06291047,-0.19099142,-0.023611575,-0.011715114,-0.16321084
