0,1,2,3,4,5,6,7,8,9,10,11,12,13,14,15,16,17,18,19,20,21,22,23,24,25,26,27,28,29,30,31,32,33,34,35,36,37,38,39,40,41,42,43,44,45,46,47,48,49,50,51,52,53,54,55,56,57,58,59,60,61,62,63
0.026013713,0.095526434,-0.048238855,-0.07899088,-0.33755994,-0.12433161,-0.16528806,0.091712356,0.028804626,0.026054919,0.16506559,0.1074234,0.020665094,-0.009636617,-0.16658351,0.11250388,-0.15411836,-0.09724839,0.057648685,0.032772396,-0.029140472,-0.072669476,-0.17620285,-0.13142924,-0.0069625606,-0.059288703,0.03506423,-0.17280264,-0.1814072,0.11329349,0.044415146,-0.13277493,0.034577947,0.092225514,-0.0880283,0.09395451,-0.068231344,-0.110298805,-0.048883352,-0.11656181,0.010269694,-0.11308862,-0.073588796,0.002931032,-0.056936212,0.13659965,-0.2035218,-0.21200916,-0.1895393,-0.2185363,-0.061477616,-0.23929836,-0.012912607,0.11091017,-0.12743637,0.069609866,0.0431352,-0.1441827,-0.18203184,0.10847601,-0.1044529,0.008136349,-0.12433031,0.088991135
-0.09601276,-0.105001196,-0.22949271,-1.679993,0.046896577,-1.0018069,-0.05968428,-0.05487646,-0.06423926,-0.13859855,-0.9978913,-0.25635305,-1.8537863,-0.24314383,-0.3596284,-0.06585277,-0.15974182,-0.014643476,-0.1463192,-0.44958907,-0.33615893,-0.24962448,-0.09841991,0.6136499,-0.006202837,-0.06096052,-0.06222596,-0.08431744,-0.22765477,-0.044149037,0.5083741,-0.37376714,-0.11751638,-0.027584165,-0.36653244,-0.14765163,-0.5459902,0.0013069732,-0.77253515,-0.15197814,-0.089830905,-0.123192094,-0.099182956,-0.095005564,-0.1118447,-0.027946496,-0.2955341,0.16005737,-0.04708886,-1.9232967,-0.0643006,-0.28033856,-0.18789177,-0.18537639,-0.06970792,-0.30662128,-0.27786896,-0.11872577,-0.2890811,-0.13987264,-0.23592824,-0.3298059,-0.45831648,0.016856184
0.11710026,-0.20004752,0.55286795,0.29149237,-0.16480792,-1.1715143,-0.11142111,-0.19821714,-0.048084065,0.011923753,0.17101337,0.027179202,-0.027717743,-0.18533663,-0.053959794,0.014008707,0.06834599,0.0047406335,-0.04757454,-0.124869265,0.08076661,0.037837308,-0.04742084,0.053824943,-0.1519781,-0.1356326,-0.1560366,-0.04597456,-0.119878374,0.0025522949,-0.039097432,-0.13831569,-0.14763318,-0.04779605,-0.25493288,-0.04914672,-0.32885695,-0.3246854,-0.50351936,-0.07438216,-0.011103437,0.045244977,-0.10008579,-0.058900986,-0.15933943,-0.16162346,-0.15701656,-0.054759648,-0.16187978,-0.4755801,-0.026015209,0.09431692,-0.036502264,0.043813407,0.042345364,0.0012787003,-0.3940357,-0.14750673,0.13841388,-0.07816716,-0.3740497,0.053186636,-0.16566673,0.09755243
-0.112289146,-0.021772461,0.077872984,-0.11031135,-0.16481769,-0.04192944,-0.044337556,-0.00057124556,-0.05775995,-0.050513986,-0.001585329,-0.018453956,-0.14403926,-0.13198408,0.12549944,-0.09188085,-0.23638994,0.11200707,0.11393894,0.09700876,0.017764434,0.06985927,-0.0189244,0.10667276,0.119241394,-0.058803197,0.09114704,0.045962237,0.10637502,-0.1326815,-0.08355338,0.032917663,0.080686815,-0.16244534,-0.016297568,-0.06848934,0.024117852,-0.06070014,0.03222155,0.078616805,0.1553819,0.0017329901,-0.12475395,-0.005882308,0.1426305,0.08078472,-0.029397748,0.024396999,-0.07401189,0.08889446,-0.17298757,-0.103690706,0.038839724,-0.036617994,-0.19859575,-0.14343506,0.14921184,-0.09319991,-0.022361606,-0.20480795,-0.021119326,0.0064195343,-0.033921055,0.005430788
0.10964422,0.07930315,0.07933725,-0.010961871,-0.007661801,-0.07279444,0.063996404,-0.12971345,-0.16307399,-0.16473733,0.013699948,0.10901355,0.029228073,0.09844072,0.027324997,0.09577268,0.038416717,0.16896357,-0.11254466,-0.10169297,-0.15581472,0.115150616,0.08345069,0.18270816,0.10973569,-0.15690304,0.068815455,0.035583556,-0.14881873,0.015382288,-0.027511964,0.13647585,-0.26772258,-0.06017032,-0.05025191,0.10106003,0.056639537,-0.036055617,-0.21147051,-0.06201438,-0.20015015,-0.043576404,0.06516832,-0.03816097,-0.20357627,-0.016460987,-0.21088813,-0.10250395,-0.0355804,0.12092285,0.04730588,0.057543572,-0.04549628,0.0056515387,-0.18487072,0.062407512,-0.07546308,-0.052905917,0.18337442,-0.13030086,0.12152348,0.0051995977,0.07620904,0.08736172
0.027376313,-0.031167857,-0.12343655,0.029059894,0.13863795,0.04011534,-0.19165072,0.11628627,-0.06205344,-0.05287187,0.10564062,-0.06085509,-0.1546721,0.021570623,-0.16241907,0.1443252,-0.13041915,-0.01983881,-0.026077569,-0.20365225,0.06756696,-0.07730751,0.051028416,-0.084354416,0.020474808,-0.0041553006,-0.04747567,0.04537427,0.040274255,0.11167589,0.07414051,0.013970987,-0.17755333,-0.005497543,0.0694163,-0.105014466,-0.007656911,-0.19652942,-0.052546218,0.026262874,-0.016149394,0.25312302,0.02090125,0.011019921,-0.102729544,0.114348486,0.15125135,0.112160355,-0.001181725,-0.061727222,-0.14324751,0.13082603,0.07407547,-0.08628144,0.11476372,-0.20466608,0.10691602,-0.0049410346,-0.10500621,-0.12567878,0.116488114,0.1542866,-0.013840863,-0.13091181
-0.016211236,0.020215174,0.17122532,-0.14844841,0.022711923,0.005205946,0.12072538,-0.15351497,0.14370245,0.099521264,0.25143486,-0.051495686,0.1486176,-0.05330451,-0.12361583,-0.18903115,0.038365938,0.06886805,0.13048834,0.05945066,-0.153899,0.10305881,0.07393302,-0.086043134,0.1592415,-0.14550887,-0.037163984,-0.032043573,-0.17787714,-0.13116878,0.06399662,-0.008021689,-0.13732211,0.047604702,-0.029239073,-0.1401885,-0.042525806,-0.058824845,-0.09348983,-0.042871144,0.14726523,-0.09735959,0.13855983,-0.006678964,-0.09231958,0.1735792,0.036940783,-0.006734254,0.11423694,0.13841332,-0.000479877,0.10351121,0.025084063,0.1918196,0.05755275,-0.004437566,0.1554947,0.17666055,0.05926369,-0.051579643,-0.07912479,0.13710268,-0.04615662,0.02541876
0.007667509,0.053292926,0.036590446,0.06293041,-0.08485671,-0.15748996,-0.026152046,-0.021949489,-0.053232074,0.054604452,-0.26231965,-0.03845588,-0.07691003,0.08951749,-0.11010535,0.033657633,0.06840736,-0.086276844,0.004469629,0.009158091,0.0359622,0.020754784,0.15563604,0.047274396,0.16785987,-0.13662718,-0.09736404,0.009650695,0.015753835,-0.14123057,-0.039768167,-0.18344577,0.13008532,0.097049475,-0.091049604,0.04597153,-0.14390755,-0.017151846,-0.046405993,0.057304088,-0.077006,0.043427426,-0.05925857,0.14296044,-0.16277878,0.06817193,-0.1775778,-0.04827891,-0.06683213,-0.112377346,-0.10802186,-0.041657425,0.029937902,0.053094476,-0.14810413,-0.004355512,-0.0056881197,0.18027093,0.1560637,0.11544395,-0.119639836,0.20248781,0.10341099,0.091109484
-0.17391202,0.082965806,-0.16276813,-0.10785385,-0.108892694,0.095205195,0.041804597,-0.051380202,-0.14856596,-0.06911146,0.013244862,-0.31110287,-0.06535117,-0.19917761,-0.014268609,-0.16774306,-0.08267998,-0.080273874,-0.10631813,0.18133564,-0.05345177,-0.05402415,-0.030830458,-0.08014997,0.029715842,-0.13752793,0.059273355,-0.08825541,-0.005749747,-0.07031849,-0.063969895,-0.1449098,-0.149737,0.11099204,0.040340263,0.07691661,0.13754575,-0.1291278,0.04909752,-0.044486,-0.15102142,0.007227945,-0.13916388,-0.059793714,0.11547368,0.074909724,0.023265155,0.12524316,-0.015307117,-0.21267135,-0.06413035,0.1293987,0.0957683,0.0007117641,-0.09893873,0.080760375,0.14500287,-0.16474678,-0.08597437,0.13124877,-0.070672,-0.1018006,-0.16211747,0.13216147
-0.08710771,0.081652455,-0.047622804,0.15225789,0.00095698197,0.022817794,0.047953516,-0.12056627,0.08965612,0.046302732,-0.21414758,-0.22336307,-0.02726347,-0.09170858,0.15010357,-0.12743714,-0.10989564,0.081684455,-0.04271484,0.12648362,-0.09995355,-0.09737102,-0.012742541,0.044380683,0.18656482,-0.16701426,0.040384274,-0.09492038,0.03532235,0.0034182828,-0.21713074,-0.043855328,-0.12572569,-0.12930709,-0.14184693,-0.15847056,0.1960556,0.06954176,-0.012371635,-0.03537531,-0.041200373,-0.047111746,-0.1625611,0.101329416,0.03534962,0.08426108,-0.0030604731,-0.12494199,-0.1277565,-0.15814608,0.04062653,0.07320624,-0.051610265,-0.004354626,-0.028250737,0.009573848,-0.1713553,-0.20088984,0.03180684,-0.15727678,-0.04801279,0.044696867,-0.0066307685,-0.10853491
-0.15151173,0.14895856,-0.064543866,-0.27129108,0.05656063,-0.2834093,-0.023162719,0.09119896,-0.052543547,0.050040334,0.022198457,0.125216,0.13442068,-0.28462133,0.11517542,0.07317514,0.008063707,-0.12549219,0.16214877,-0.2571792,-0.17108299,0.0708485,0.12439328,-0.19541419,-0.0494578,-0.019796267,-0.20892772,-0.29491496,0.118341275,0.04508926,-0.035257015,0.034619357,-0.17079265,-0.17937116,-0.2107546,-0.008003885,-0.20324051,-0.03841281,-0.17652293,-0.21154115,-0.21527681,-0.1451211,-0.09232768,-0.14431015,0.016160637,-0.06399589,0.13201167,-0.08849591,-0.1795839,-0.17556791,-0.113067865,-0.142776,0.10183079,-0.09053098,-0.25770107,0.013006534,-0.01447141,-0.06569458,-0.13697468,-0.16818675,-0.12592083,0.027695047,0.15317068,-0.3037573
-0.1764941,-0.06998397,-0.11997079,0.122691266,0.0027291907,-0.15593179,-0.15881135,0.03952912,-0.031671036,-0.07371695,0.12586108,0.16714251,-0.19050947,0.11015465,-0.11381945,0.005345106,0.029416893,-0.038548682,0.09619618,0.06637659,-0.17098373,0.12619913,0.016778708,-0.20611715,0.082457624,-0.1423157,0.050649494,-0.08273252,-0.07698876,0.1482696,-0.24600922,-0.0057030204,-0.027088517,0.11425676,-0.122655444,-0.039925646,-0.0131292995,0.08058213,0.11267783,0.15831578,-0.07988951,0.13910222,-0.018671298,-0.015473559,0.04473594,0.07789784,-0.18671274,0.021602914,0.094734214,0.06973739,-0.04180407,-0.0023964688,0.12568928,0.289921,0.00043169034,0.08911116,-0.002068435,0.054608803,0.032216117,-0.014126597,0.13054492,0.22604659,-0.12533353,-0.164997
0.022193473,0.07911954,0.077076524,-0.047325365,-0.01669991,-0.12841907,-0.11892934,0.040807948,0.044772454,0.13377476,-0.115991384,-0.07236869,-0.05419069,0.07678404,-0.19671944,-0.13229139,-0.077643886,-0.15406612,0.0062642964,0.012972526,-0.05631751,-0.14592052,-0.042933892,-0.0011815976,0.010917797,-0.027366336,0.03497753,0.1584293,-0.029346881,-0.057709675,0.08252625,-0.1775195,-0.017972017,0.13635285,-0.18072689,-0.0676279,-0.10396051,0.14619404,0.14381067,0.042893134,-0.21853533,-0.18911164,-0.14797936,-0.14650431,-0.13616027,0.04798735,0.013894446,-0.12829934,-0.017315267,0.017814778,0.03709759,-0.18675394,0.10539477,-0.25478226,0.12081331,0.1233071,-0.05552503,0.042707358,0.07670877,-0.1830539,-0.13106063,0.023701327,-0.085131295,-0.11798775
-0.034208056,-0.070005886,-0.05148141,0.005240443,0.19117658,0.00024633246,-0.01341167,0.056624252,0.05435263,0.103959255,0.16959968,-0.04568435,0.11061816,-0.13288215,0.057689313,0.14324482,0.14086577,-0.18594229,0.15673779,-0.045512002,-0.14676481,0.23604153,-0.055243425,0.03484055,-0.1193833,-0.018212121,-0.09682321,0.0031190063,0.073017225,-0.1013946,0.0036516914,0.10192088,0.13421053,-0.04101518,0.09374255,-0.15409984,0.024668405,-0.10254956,0.034876417,-0.041346487,-0.038482986,0.04732926,0.04118729,-0.0642013,-0.0063442755,-0.12753183,-0.09607794,0.058942296,0.08192872,-0.2618247,0.101139024,-0.018712904,0.15040731,0.017927935,0.072591454,-0.050289523,-0.008246562,-0.057105616,-0.12882206,0.12892777,-0.007765455,0.029057235,-0.07306866,0.077816255
0.02207179,-0.024201319,-0.20206295,-0.05973192,0.078183755,-0.10590666,0.015214759,-0.13397409,0.07066925,0.032018393,0.12702379,-0.10456092,-0.16702533,-0.027866138,-0.075763464,-0.022357922,-0.06527238,0.12433111,-0.18267813,-0.011032988,-0.041388396,0.11622145,-0.016599655,-0.16326374,0.20379318,-0.010463902,-0.18302733,0.114857025,0.08978908,-0.13404456,0.04342746,-0.04643182,-0.11352295,-0.080766104,-0.108830206,-0.05371777,0.1461517,-0.05091965,0.072825596,0.113499716,-0.16138473,-0.099798724,-0.024114039,-0.11998024,-0.044473425,0.1110006,0.007042866,0.014580914,-0.10356999,-0.028202144,-0.16277483,0.008020037,0.11024072,0.24650776,-0.04205432,-0.15900347,-0.04288506,0.11851623,0.08858263,-0.13884658,0.09878713,-0.03536889,0.1618763,-0.003050969
0.056029793,-0.25909352,-0.29483557,0.26769477,0.028548343,-0.23989375,0.0029002626,0.0019511803,-0.023874378,0.037436053,0.1887571,-0.25169542,0.011222582,-0.058054145,-0.13780509,-0.018077908,-0.10188153,0.07167114,-0.04112274,-0.15594675,-0.27071056,-0.23190503,-0.12522103,-0.19249372,0.044525404,-0.11808372,-0.13363154,-0.04632169,-0.030122733,0.008680044,0.06301848,-0.0031374842,0.0051981485,0.12429751,-0.18293162,-0.024649963,-0.012403337,-0.16158289,-0.17763594,0.0019382858,-0.0034640136,0.028684482,-0.17303742,0.118231334,-0.05487965,-0.1593056,0.028577944,0.111213006,-0.06643336,0.116905175,-0.16581616,-0.026757173,-0.25365284,0.13936535,-0.00096534315,0.023303486,-0.10814717,-0.25150532,-0.48260266,-0.016682288,-0.24894884,-0.19090746,-0.34371504,0.13246185
-0.13528802,-0.01334518,0.09871755,0.37726513,-0.035985805,-0.14500596,0.020780962,-0.13624412,-0.07796407,0.097145125,-0.06151756,-0.26649797,0.040806986,0.16635679,0.019406907,-0.046448484,-0.4092498,-0.19179572,-0.1429947,-0.095343016,0.033105314,-0.2579617,-0.091354094,0.20011021,-0.04167783,-0.021307684,-0.060503915,0.06764836,-0.059457257,-0.09081865,-0.06569447,-0.15057151,-0.22397766,0.10488462,0.08469398,-0.022273516,0.14736703,0.10753857,0.054780193,0.08525615,-0.005504813,0.078512564,0.058562584,-0.16556877,0.08881569,0.22650169,-0.021021219,0.13008837,0.03131708,0.07513241,0.11303151,0.12001759,-0.17282589,0.07326228,-0.10218395,-0.04430999,-0.004299059,-0.36430588,-0.27976766,0.07275615,-0.08526002,-0.1601406,-0.29808137,-0.06938597
-0.03693819,-0.046131898,0.022641318,0.10083975,-0.23335826,0.0019720942,-0.09507347,-0.026231961,-0.1519772,-0.011422707,0.0021835617,-0.12985913,-0.043254502,0.056158908,-0.20107111,-0.010342926,-0.055293966,-0.16679807,0.1132328,-0.008548136,-0.020943735,-0.054606307,-0.088488236,0.15141527,0.18361033,-0.0023232084,0.15934122,-0.13681102,0.0020147408,-0.09461057,0.18460599,-0.17308821,0.05286205,-0.11239613,-0.13004132,-0.16170667,-0.094510004,-0.14155193,0.09280461,-0.0745383,-0.112474754,-0.039478004,-0.018845588,0.15008475,0.039397147,0.090410836,0.103880785,-0.15871367,0.084401235,0.057128936,-0.15742515,-0.123679005,0.21907309,0.08594673,0.013502059,-0.07769469,0.052839734,-0.014592352,-0.123132944,-0.09810217,0.14940879,0.017689483,-0.14976212,0.11683832
0.025612043,-0.23259386,0.029294843,0.06594537,0.0348766,0.0582594,-0.17380063,-0.011174234,-0.13846493,0.019375553,-0.039446518,-0.2138251,-0.051705033,-0.15203807,-0.06343963,0.13000815,0.031298768,-0.050656814,0.100697264,-0.11073192,0.14227128,0.200184,0.014293253,-0.08512264,0.05654033,-0.11067992,-0.15348992,0.08632226,-0.13222715,0.046816137,-0.22517912,0.10199886,0.06372571,0.00617472,0.0063872687,0.058548413,0.05191144,-0.14743438,0.029871665,0.06487765,-0.10616976,0.17327803,0.20224957,-0.033903856,-0.0038295214,0.036252916,0.08463794,-0.082696036,0.01543088,-0.09501459,-0.06741655,0.066358864,0.076449364,0.25812364,0.09906748,-0.23886317,-0.014621139,0.1742849,0.1490663,-0.22124237,-0.046006143,0.22720782,0.2084992,-0.020926658
-0.16510382,-0.031935863,-0.058302153,-0.10951211,-0.006394721,-0.015158642,-0.0059660105,-0.1127758,-0.13084379,0.051775347,-0.16593078,-0.01409773,-0.11807454,0.0012900175,-0.09715004,0.0065610865,-0.011275854,-0.18820834,0.035778265,-0.17334872,0.100729205,0.026878728,-0.19748412,0.014929391,-0.23853084,0.047042053,-0.10340072,-0.05875504,-0.24574314,-0.12274814,-0.23110844,-0.0944503,0.071269505,0.061082218,0.036901888,-0.22950825,-0.12898059,-0.029979998,0.1833241,0.06526988,-0.18255451,-0.1444851,-0.044129737,-0.22800902,0.085121326,-0.13705988,-0.06666589,-0.07634831,0.11665244,-0.007674427,0.16363879,0.027249753,-0.07142364,-0.09700789,0.0067526577,0.06716631,-0.058393013,-0.12650955,0.06146346,0.088708006,0.07870757,-0.11706993,0.064651705,0.15847829
-0.13997012,-0.0507946,-0.0036527077,0.019405155,-0.037075575,0.038338132,-0.21233243,0.10522207,0.036197953,0.0033940775,0.21183439,-0.28858626,-0.040716104,-0.07960269,-0.20365818,-0.1386625,-0.10137681,0.06023451,-0.0005821624,0.11654951,-0.03522545,0.12851962,-0.19073187,-0.3123972,0.10606831,-0.11821953,-0.17463864,-0.017781457,-0.2409579,0.07770307,-0.18736254,-0.14352445,-0.047955893,0.05094819,0.034426592,0.086990714,-0.055369098,-0.11771971,0.1015837,-0.022229519,0.06857446,-0.0980702,0.06579258,0.08100805,0.08003638,-0.08120449,-0.22176735,0.007228366,0.049470954,0.02241776,-0.15236506,0.08557314,0.08072296,0.09234891,-0.032271434,-0.19276808,-0.006790164,0.15138051,0.15472434,0.00012820799,0.10941156,-0.111451745,0.16268471,0.02661889
-0.048137236,-0.23856907,0.16667403,0.28920734,0.09938946,-0.111220814,0.17951359,0.10459884,-0.006052535,0.05206994,0.05067142,-0.041757036,-0.46573323,0.0015442913,-0.15699938,-0.14168331,0.24144149,0.069009215,-0.01582155,-0.030844362,-0.12982985,-0.023333473,-0.07581097,0.26822585,-0.023375055,-0.025981724,-0.11278149,0.08443666,-0.23249626,-0.023579331,0.50162226,0.10624787,0.063184984,0.09568048,-0.10159281,-0.14083594,-0.113453515,-0.15701582,0.120723985,0.22263542,-0.17689459,-0.022019284,-0.061878763,-0.18145797,0.1658141,-0.053588375,0.102961846,0.16433467,0.12784596,-0.4544721,0.0055010896,-0.025954584,-0.04011631,0.006264845,-0.21869306,-0.21409489,-0.13443051,-0.04616507,-0.024640623,0.14654045,-0.17591086,0.12071861,0.014448401,-0.019129805
-0.17302184,-0.18453781,0.04473137,-0.20279507,-0.22387406,-0.042265482,-0.06570487,0.012428733,-0.10375805,-0.060516063,-0.13969764,-0.1483875,-0.043539457,-0.07811029,-0.13683811,0.09656658,0.05946653,0.09490654,-0.089716874,-0.007477551,0.030486206,-0.07177465,-0.037913874,0.0788627,0.106964104,-0.1936666,-0.17899618,-0.015183806,0.10564778,0.009584592,-0.24912995,-0.15022981,0.07972883,-0.021079019,0.101034254,0.08078322,0.058976013,0.028225983,-0.064821735,0.1034636,0.13356519,0.030602207,-0.05293825,-0.06564509,0.06810166,0.048954517,-0.07202316,-0.24658854,-0.19866125,-0.09747079,0.13207895,0.034484506,0.062231187,0.07091247,0.008564797,0.10662507,-0.14935471,0.038731143,0.06040149,0.012454558,-0.050132245,-0.13296084,0.016863316,-0.15426719
0.06612686,-0.096131094,0.05952962,-0.0988665,-0.05276382,0.104770705,-0.08144655,0.12333648,-0.13872334,-0.026984368,0.19947314,-0.06045185,0.08740464,-0.15342636,0.0114732925,-0.1682512,0.14781968,0.15831296,-0.12253009,0.094887234,-0.005120106,-0.112707935,-0.12626202,-0.06886728,-0.033089276,0.128709,-0.12257561,0.037300564,-0.08218683,0.052125737,-0.020037387,-0.18560961,0.17820457,-0.19484252,-0.14428668,-0.05227565,-0.105724044,0.12063052,0.17092083,0.12293637,-0.08093439,-0.09153372,0.11715171,0.13006225,0.06633993,-0.17088178,0.0317858,-0.16947624,0.025490815,0.11379585,0.0524574,-0.17993051,0.11558786,-0.054276843,0.00993413,-0.13192654,-0.16893867,0.02292758,-0.11033424,-0.16329503,-0.076914616,0.25356886,0.17793466,0.06149196
-0.09869596,-0.017008495,-0.035211317,-0.12944478,0.1365554,0.5656066,-0.1357304,-0.20643166,-0.06551139,-0.093928315,-0.22630233,-0.05720703,-0.5323235,-0.04355558,-0.21803196,-0.06084158,-0.22336347,0.06131889,-0.10067835,-0.35933143,-0.024336308,-0.014758186,0.10012262,-0.04948466,-0.24461026,0.089133516,-0.16236839,-0.032560755,-0.043938454,0.15479301,0.02458606,0.07963542,-0.16273057,-0.088098176,0.08577772,-0.23312937,-0.18959537,-0.035141308,-0.36703217,-0.28406313,-0.08686011,-0.07481517,-0.22150344,-0.3325967,-0.34594625,0.08891042,-0.2033553,-0.058600493,0.28778332,-0.6253667,0.02463254,0.034348536,-0.14870088,-0.2469072,0.12432901,-0.18525678,0.007675935,-0.022736112,-0.0059468905,-0.12408917,-0.06604653,-0.15082403,0.16178209,-0.11345742
-0.062645584,0.04535177,-0.034178995,0.04343979,0.09697292,0.016115826,0.080933824,0.048037976,0.08487485,-0.0629103,-0.05812511,-0.14813077,-0.04068689,0.057891905,0.028005728,-0.053685717,-0.014622935,-0.1404099,-0.122639865,-0.06525348,-0.031194283,-0.25261495,-0.10601405,-0.16929227,-0.026448654,0.050995246,-0.26603037,-0.1336135,-0.14468217,-0.17222002,0.1511761,-0.14925733,0.007878013,0.055333123,-0.0893764,-0.019447923,-0.14158647,-0.011980604,0.017631318,-0.19935955,0.036715005,7.151962e-05,0.098415956,0.048092827,0.13400991,-0.047264323,0.029113278,-0.07615657,-0.11907606,-0.05230452,-0.13487181,0.13069521,-0.12015657,-0.07772855,-0.0013170468,-0.20010807,0.058436725,0.013217533,-0.15031375,0.04447357,-0.102831155,0.0773229,-0.20589061,-0.1670757
0.11397498,-0.041004404,0.081336945,0.12706037,0.04672523,-0.06468248,0.081333324,0.07276184,0.058190193,0.02851311,0.1447828,-0.080978505,-0.14610258,-0.16537346,-0.09159524,-0.09705892,-0.11299301,-0.077096894,0.019028747,0.022996863,0.07584904,-0.0126144625,0.14391048,-0.22959234,0.11018415,0.018087214,-0.16882977,0.013649102,-0.07169994,-0.086346194,-0.057701983,0.057589434,-0.040010326,0.033323642,-0.1030058,0.009645785,0.13627169,-0.11910815,-0.023356328,0.18927817,-0.10408744,-0.09644735,-0.12855485,-0.10173218,0.0015993828,0.09170321,0.044943266,-0.032293487,-0.106775746,0.22219637,-0.021774223,0.12048465,0.052684285,0.33887652,0.11934532,-0.055769794,-0.026402026,0.099632844,0.12184102,0.02699416,0.020914618,0.03476881,-0.03384537,-0.05932788
-0.14384803,-0.20860979,-0.23257282,0.0439761,0.13130441,-0.10708463,-0.108786,0.06944079,0.10524479,-0.004331971,0.24116611,0.08570538,-0.21532331,-0.08149019,0.059498463,-0.03767151,-0.014553816,-0.07018634,-0.018362915,-0.16964014,-0.103601106,0.17469159,-0.0013201179,-0.19827735,0.26249123,-0.03380468,-0.17879319,-0.014278887,-0.23482022,-0.10991944,-0.051513765,-0.17560999,0.10883334,-0.0071396288,-0.029596172,0.0046870587,-0.19756146,-0.019723127,-0.04511869,-0.03539398,0.11766701,0.11154169,-0.18100052,0.08416222,0.038229253,0.14110725,-0.2095696,-0.08024331,0.041283105,-0.02900918,-0.12274748,0.27220035,0.1609032,0.033636533,-0.14185734,0.089049615,0.06836699,0.14084238,0.11370859,-0.0051071774,0.09374898,0.10102383,0.12878215,-0.17930098
-0.09144654,-0.010352235,-0.10710411,-0.041090176,-0.1806836,0.10117949,-0.19416213,-0.08563603,0.06288011,0.07453028,0.08881571,0.028365357,-0.018955689,-0.11410956,0.057794813,0.1633883,0.0017438503,0.11686124,-0.095006324,-0.17775947,-0.08803073,0.08416236,-0.17385079,0.07613126,-0.08744475,0.00065114,0.019944089,0.089108646,0.003972814,-0.043320112,-0.081506565,-0.02308268,-0.10471105,-0.12041506,-0.0079723075,-0.19115627,0.05703988,0.06367408,0.17443779,-0.05022553,-0.18303776,-0.03132607,0.0748961,-0.042218417,0.09343896,0.044849694,0.03913355,-0.037068617,-0.11524182,-0.03316224,0.11447615,-0.086951196,0.09559568,0.06970039,0.021991653,0.07811789,-0.03731324,0.102514096,0.002063894,0.0017187666,-0.0041829427,-0.07907658,-0.0470674,0.030095628
-0.037017748,0.089310676,0.4485071,0.0024922674,0.08894413,-0.58953923,0.16792859,-0.11880118,-0.1492026,-0.08210169,0.12890093,-0.28198072,-0.37002116,-0.120111704,0.096001856,-0.024303513,-0.22607486,0.06542424,0.116847,-0.19972624,0.000391379,0.03164749,-0.043226227,0.37067133,-0.054337204,0.078269735,-0.20327291,-0.16431788,-0.016267885,-0.19775248,0.21605624,0.12755837,-0.032032445,0.026700107,0.09207143,-0.14143331,0.437248,-0.12418883,-0.06638149,-0.046367873,-0.017666979,0.051094737,0.013863702,0.043001022,-0.14210296,-0.08703317,-0.116354026,0.03678441,-0.084214926,-0.061495695,-0.09142213,0.15455018,0.0762992,-0.22420178,0.1430073,-0.12652595,-0.20235626,0.21256094,0.057923682,0.00724949,0.09169823,-0.12867159,-0.13874778,-0.056936122
-0.16328575,0.029552853,-0.22199765,-0.0634377,-0.109097354,-0.0530751,-0.0083793355,-0.14005163,-0.18859267,-0.11645821,-0.09142059,-0.033924982,-0.29670858,0.07420912,0.0928667,-0.043052785,0.029263249,-0.14636758,-0.06771883,-0.0031719413,-0.08164717,0.12292662,0.09885728,-0.010678794,-0.05804693,0.079297975,0.13985988,-0.1524637,0.08415214,-0.07897802,-0.23167594,-0.12865214,-0.20610851,0.1243882,-0.11104851,-0.030001217,0.039517116,-0.1680665,-0.23513028,0.042154334,-0.16031355,-0.057366077,0.00011002985,-0.16055375,-0.08294685,-0.0056157927,-0.052661993,-0.23320648,-0.094292745,-0.06818088,-0.058885425,-0.00773996,-0.089211725,0.022698687,-0.06293344,0.07368713,0.109099075,-0.22332424,0.019836228,-0.115966424,0.06945533,-0.11138976,0.06734941,-0.07387842
-0.027562542,-0.13198991,0.03178504,0.04703326,0.03318106,0.23160249,0.031365033,-0.008764759,0.03277095,0.03092819,0.111418664,-0.057697978,0.11232886,-0.17139848,0.18262753,-0.14489543,0.13913086,-0.07916404,-0.12161651,0.089835644,-0.013039418,0.11579117,-0.19102001,-0.09472657,-0.02114079,-0.019466843,-0.103499725,-0.011810676,-0.16842006,-0.13197945,0.10454649,0.05079875,-0.10987354,-0.15826358,-0.04943891,0.1392877,0.0464391,-0.002582098,0.039906215,-0.076350495,-0.11001868,-0.0077392953,-0.24726884,-0.23757406,-0.114338815,-0.11123508,-0.18429098,-0.22419354,-0.20903587,0.0016977024,0.10994356,0.052150413,0.14545679,-0.050998814,-0.18463527,0.1388095,0.07662513,0.064691596,0.022878088,0.0244221,-0.094991826,0.19548249,0.16960496,0.040109385
-0.061117224,-0.031704083,-0.30112845,-0.43237284,-0.012730779,0.038800288,0.09538685,0.08386412,-0.084148325,-0.03485197,-0.10771608,0.088966504,-0.33382574,0.08100185,-0.16498575,-0.15272638,-0.17532109,0.09152033,-0.15835804,0.021435622,-0.0808428,0.099919915,-0.01336339,-0.13951212,-0.1424754,-0.1741044,-0.009072137,-0.07497914,0.17929766,-0.03623386,-0.097320214,-0.008052516,-0.2721413,0.04559366,0.061444364,-0.018679941,-0.3473461,-0.040122535,-0.32728776,-0.13391896,-0.08566091,-0.094601326,-0.12575144,0.098863415,-0.12728368,-0.13858783,-0.09388114,0.10104947,-0.2662649,-0.3115972,-0.2329107,0.0015876916,0.13063896,-0.052511744,0.12712899,-0.044942614,-0.046134003,0.034173828,0.14555347,0.011064252,-0.12420202,0.015401107,0.009634592,-0.12874776
-0.14277814,-0.03948929,0.12376066,-0.08018095,-0.17380701,0.0543841,-0.07510494,-0.14987685,0.08954115,0.10092051,-0.12622304,-0.27133653,-0.27989334,-0.12851192,0.07513691,0.066194534,-0.20193025,-0.1392732,-0.0033668545,0.20977159,-0.12271777,-0.2715112,-0.04754214,-0.14888558,-0.13225375,-0.17864394,-0.26254767,0.039661594,-0.1958545,0.095853746,0.041407075,0.03674206,0.14826638,0.14823592,-0.013034464,-0.015239104,-0.03220236,0.10228948,0.0750523,-0.14835908,-0.078342214,0.0033985912,-0.031205209,0.11159647,-0.12985526,-0.07791083,0.013006719,0.12428313,-0.18280901,-0.21613643,-0.10283364,0.015754124,0.05239824,-0.23485312,-0.17187704,0.0713243,0.038252894,-0.10122433,0.07947386,-0.10832005,0.017181806,-0.21936096,0.015243836,-0.19429237
0.097256765,0.12347896,-0.15433641,-0.13731316,0.023324693,-0.09454605,0.011647955,-0.18839936,-0.10735807,0.11688674,-0.021816049,-0.17447686,-0.11718491,-0.09226046,-0.17043714,0.15978806,0.030462982,0.08078529,-0.1439767,-0.05850275,0.0007249713,-0.12404424,0.02402687,-0.15868458,-0.09318033,-0.18543698,0.15820524,-0.17959313,0.074663356,0.09275618,-0.035633963,-0.081734024,0.048681572,0.024477266,0.02140563,-0.05109572,-0.11217869,0.10095787,-0.005531709,0.08298649,-0.06303265,0.09420212,-0.0516314,-0.009892325,-0.09112079,-0.015120534,0.13208567,0.04795449,-0.122687675,0.09832394,-0.07235761,0.128313,0.12992918,0.050811507,-0.08149213,0.13106064,-0.12190683,-0.07785871,0.035781693,-0.12187658,0.05980919,0.030327033,0.09110828,-0.008557165
-0.11268703,-0.027301628,-0.8346703,-0.9151156,-0.26693332,-1.4455246,-0.07688287,0.031703264,-0.17788939,-0.090853795,0.010115455,0.054704875,-0.97140396,-0.2010277,0.048085738,-0.16607784,0.066434234,-0.08400716,-0.042732686,-0.0365239,-0.5551312,0.06578948,-0.18916416,0.32193112,-0.047903065,0.036698118,-0.2282704,0.058300722,-0.12192504,-0.4266802,-0.049159527,-0.1681628,-0.035183605,-0.20772932,-0.29929465,-0.32281807,-0.124853276,-0.24428959,-0.76609564,0.029677622,-0.051010743,-0.10772806,-0.3673922,-0.037560053,-0.2634959,-0.08265798,-0.2890435,0.020748073,-0.39621988,-0.67250097,-0.090428,-0.11764616,0.06720912,-0.102037154,-0.23694125,-0.15930875,-0.3120636,0.12643309,-0.007277384,-0.025510352,-0.2602701,0.031999175,-0.06565384,-0.24040188
0.064108774,-0.10568478,-0.2394187,-0.27543187,-0.12812497,0.038824245,-0.08743696,0.014604401,-0.050731525,0.039730627,-0.070392095,0.17383707,-0.04306808,0.020390538,-0.19729558,-0.05711309,0.028208198,-0.09910804,0.015457313,-0.26415104,-0.0047139605,0.011530249,0.09009954,-0.13352364,-0.18401945,-0.09001557,0.11168872,0.028873922,0.11729126,-0.11670866,-0.45715192,-0.09614048,-0.14839144,-0.13577397,0.018408,0.030168012,0.0037864454,-0.04536981,0.053005815,-0.16269544,-0.019968696,-0.14844114,0.027874935,0.004665569,0.0087960325,-0.08854332,-0.0561846,-0.20133111,-0.22884555,-0.09394088,-0.03283209,-0.410497,-0.14776962,0.055625547,-0.32357135,0.054247405,-0.19069031,0.081534036,0.08800813,-0.102568544,-0.16076116,-0.015422059,-0.14596589,-0.25399455
0.082097195,-0.36067548,0.13041268,-0.08113234,-0.21792771,-0.51280296,-0.02286635,-0.007345602,0.227804,0.008109331,0.317062,-0.22728594,-0.09390405,-0.3621923,-0.10497247,-0.11362156,-0.24945745,-0.08323969,-0.27796412,0.13248855,-0.02731558,-0.2990546,-0.1743836,-0.28471103,0.18975034,0.12253016,0.0057967883,0.0126996925,-0.16836528,-0.12321093,0.1884335,0.04215715,-0.033701412,-0.061313655,0.036527228,0.056182113,0.22985464,-0.017125659,-0.60460526,-0.1776605,-0.003615192,-0.20003247,-0.28211254,0.102592885,0.15236776,0.0077271475,-0.2670633,0.029711952,0.2186459,-1.0135046,-0.25192556,0.02084967,0.031457495,0.084528655,-0.31034347,-0.32333273,0.07914311,-0.16719498,-0.27807,-0.011479632,0.08007309,-0.11600879,-0.2159399,0.04048596
0.007947942,-0.15483905,0.992542,-1.8410839,-0.08968355,-1.2773803,-0.12672828,0.07917322,0.01954189,-0.0071397545,-0.26686457,-0.20712863,-0.97357684,0.09417127,0.041930065,0.042649444,-0.07239907,-0.100697964,0.11970359,0.48739806,-0.15257429,-0.13263886,0.09064688,0.20260586,-0.0399254,0.07111771,-0.1123487,-0.1499251,-0.10567747,0.061924983,0.094653346,0.5117563,0.04838382,0.073695734,0.4527423,0.06749929,-0.48811665,0.15668312,0.25178733,-0.21699823,-0.12439326,0.20709735,0.3360418,0.085842974,0.0029054065,-0.023795953,-0.09484883,-0.16794379,-0.6026484,-0.22545224,-0.16734077,0.0010167263,-0.12906604,0.036252506,0.14836255,0.08457624,-0.6035655,0.03617862,-0.22647683,-0.023531768,-0.53766334,-0.028145026,-0.039728716,-0.029833566
0.0077129765,-0.19760403,0.08164777,0.06456905,-0.06520255,0.044489574,0.07875879,-0.06542101,0.029555395,0.061503477,0.033481907,-0.07885209,0.08065955,-0.24683955,0.10150867,-0.05113736,-0.20349824,0.045097146,0.10627154,-0.017449973,0.03849913,-0.0055070077,-0.01559189,-0.007087024,-0.30611098,-0.08142283,-0.0032696503,-0.19376679,-0.07200022,-0.22246595,0.011195045,0.16141139,-0.0408574,0.05536187,-0.104326665,-0.07082633,0.17062424,0.043342885,-0.34683138,-0.12114818,0.013864837,-0.20527259,-0.20207757,-0.009391926,-0.14831051,-0.06599502,-0.04141711,-0.04929766,-0.007788946,-0.082270995,0.0345351,0.038544916,-0.13107759,-0.050609652,0.026523175,-0.1719589,0.048909094,-0.20751414,-0.11755807,-0.2535308,0.08410041,-0.2641213,0.11545687,-0.16524173
0.0024096966,0.07560022,-0.038261563,0.08740563,-0.2516244,-0.18715858,-0.10448988,-0.11694789,-0.04949336,-0.21814775,-0.07567684,-0.12751558,0.062846765,-0.043652162,0.07624017,0.00091075356,0.1170757,-0.1324573,0.1649269,-0.15247807,-0.108768456,0.015225709,0.09934698,-0.15176459,0.079119176,0.030939743,-0.109442465,-0.07746099,-0.16946232,0.0957154,-0.118817605,0.13548546,0.035397224,-0.013474981,0.015682466,-0.11040977,0.08670313,0.14753887,0.20420413,-0.10441482,-0.117957264,0.032351606,-0.16598873,0.015925203,-0.007643461,-0.16424125,0.018763801,-0.032785296,0.07238199,0.13727364,-0.08387472,-0.21323805,-0.063786015,0.06251752,0.08612664,-0.01121186,-0.007547278,0.055985995,0.09474754,-0.0023014212,-0.12659591,0.10081688,0.09851216,-0.10151328
-0.1108872,-0.012304568,-0.06308362,-0.12621574,0.087143905,0.12070213,0.19602439,-0.1534055,-0.09031331,-0.062556624,0.034113873,0.047879662,-0.5117045,-0.064090595,-0.04996264,0.10471232,-0.025000269,0.06906378,-0.21913607,0.025934154,0.09187972,0.05510493,-0.10864666,-0.25198263,0.02152707,0.19571903,0.05217398,0.041620493,-0.3165817,-0.0041934685,-0.24579681,0.19809073,0.00020386996,-0.14230193,-0.036142718,-0.022744687,-0.0976697,0.13923973,0.011149527,-0.1936727,-0.068729274,-0.16151232,0.07018189,-0.14186975,0.098129526,-0.033890665,-0.20128377,-0.16106378,-0.086470254,0.011401104,0.09479805,0.10015285,-0.25412723,-0.1435876,-0.15767388,-0.016170727,-0.05458941,-0.048941277,-0.036026154,0.07449063,-0.15477826,-0.16443472,0.07296066,-0.02730747
-0.05292079,-0.23664525,0.05213311,0.091313206,0.012227575,0.0038260368,-0.0066367574,-0.009660326,0.00080215954,-0.25670913,0.01400629,-0.11736425,-0.04500086,0.08439429,0.004593476,-0.23371357,-0.17281733,-0.031495273,0.05898574,-0.104698434,0.09576175,-0.06115961,-0.17968677,-0.10979877,0.047074918,0.0977754,-0.19826394,-0.09828528,-0.13361965,0.105438456,-0.016038043,-0.019944746,-0.14050005,-0.04867705,-0.0900715,-0.15401848,-0.040443312,0.017072225,4.919534e-05,-0.07863988,0.033990994,0.087902844,-0.17336868,0.03790263,-0.17072593,0.13703401,-0.1379004,-0.044307005,-0.1106684,0.17282613,-0.16256887,0.20269947,-0.22718936,-0.18819624,-0.021853639,-0.02147257,-0.08474524,-0.20726086,-0.0164658,-0.07163495,-0.0025725209,0.16076724,0.07117204,0.00885015
-0.10979792,0.037109684,-0.05663786,-0.47818008,0.1370932,0.16411115,-0.0134509215,-0.2606822,-0.10761655,-0.11660176,-0.17179821,-0.19970056,-1.2033589,0.052719194,-0.38825262,-0.12061097,-0.31983584,-0.19497335,-0.08805619,-0.11769337,-0.037039258,0.013595821,0.03396197,-0.034698464,0.050375782,-0.07207551,-0.3053488,-0.08921762,-0.16321616,-0.22482191,0.09278749,-0.00833583,-0.11093325,-0.095061034,-0.15029986,0.019958926,-0.022784365,0.040138658,-0.01963063,-0.099173985,-0.12327583,-0.13180657,-0.2029241,0.028307702,-0.16634065,-0.102369495,-0.053708628,-0.34766614,-0.14550148,-0.6179525,-0.08059945,0.10594612,-0.25145367,0.037881,-0.22281073,-0.22327666,-0.2396968,-0.10313905,-0.24304436,-0.19194451,-0.0024572047,-0.28313294,-0.03752625,0.15452154
0.05872515,-0.069025114,0.12705007,-0.049662057,-0.06901578,-0.22997019,-0.0046809167,-0.053636834,0.09034504,-0.22594163,0.13793476,-0.27740046,-0.002075941,-0.055745944,-0.007440401,-0.073698916,0.025113987,0.019755714,-0.0034391053,-0.015065381,0.04935872,-0.067842335,-0.11072765,-0.15022816,0.14308183,-0.05913015,-0.1479656,-0.042082008,-0.035570808,-0.0072791767,0.049719278,0.029382017,-0.06365811,0.02117016,0.063565984,0.011842323,0.16849963,0.20169535,-0.07910869,-0.09127601,-0.09502291,0.057215054,-0.2573224,-0.20422736,-0.06023577,-0.047693357,0.08790903,0.105102025,0.14545454,0.024289895,0.020543538,0.10307332,-0.0034025712,-0.18224306,-0.044426143,-0.22399163,-0.016808828,-0.15370381,-0.10473968,-0.15157093,-0.11857339,-0.11513333,-0.29493603,-0.1903954
-0.1853617,-0.2856969,-0.11699844,0.011421402,0.10297417,-0.16560306,-0.07826947,-0.030326577,0.011375009,-0.2556325,-0.024224982,-0.10699431,-0.033963304,0.050868176,-0.2113458,0.013670841,0.08704701,-0.03379546,-0.15907119,-0.0016264606,-0.028080694,-0.00427387,-0.020239754,-0.26744953,0.13226521,0.008793486,-0.21833481,-0.17706786,-0.18424012,-0.042471427,-0.17678674,0.01212612,-0.14755373,-0.081059106,-0.070903264,-0.08237617,-0.13418469,-0.10332766,-0.08469446,0.15737228,-0.07754231,0.09008653,-0.08094887,-0.04291395,-0.18563141,0.106391355,0.02584092,0.05276023,-0.12122503,-0.11244579,0.12589912,0.11542908,-0.008287933,0.21093614,0.039021708,-0.05630744,-0.086591326,-0.06886768,0.049860895,-0.21759023,-0.108043596,0.02871872,0.061675146,0.044905853
-0.12767212,0.03215081,-0.13500689,0.11026617,-0.13023497,-0.05278956,0.22043148,0.13557337,0.09392106,-0.09807003,0.49499086,-0.20638973,0.33102238,-0.14982891,0.2767114,0.002083525,-0.09165373,0.09378125,0.11231676,0.040951896,0.14896873,0.12821917,-0.16301958,0.0044901976,-0.004082933,0.07013908,-0.1369063,0.16242063,-0.08945927,-0.017190948,-0.34281114,0.18750767,0.30408788,0.004554607,-0.112178214,0.122448124,-0.20698029,-0.04799266,-0.02218605,-0.16825305,-0.08407566,0.08943536,0.007180221,0.18650079,0.09902792,0.18347628,-0.18162367,0.0980762,0.06104895,0.05715375,0.010480736,-0.12202458,0.12351394,-0.19956526,0.03269646,0.095464446,0.0627641,0.244765,-0.018029762,0.13874187,0.07103198,-0.0076765227,-0.17549896,0.0036348773
0.15625045,0.11270561,0.42080325,-0.23301736,0.0038849604,-0.5388424,-0.10514507,0.060353633,-0.12850796,-0.10109063,-0.023103036,-0.19780192,-0.32209444,-0.10898155,-0.09797928,-0.006381071,0.011572633,-0.14274986,0.09498378,0.19330443,-0.22090037,-0.1524479,-0.13073426,-0.14179538,0.099408075,-0.10602752,-0.10921484,0.045539375,-0.1646679,0.022242278,0.099456735,-0.05435914,0.16955023,-0.032783672,-0.3798039,-0.03519308,-0.26013654,0.07366349,-0.15875326,0.01565761,-0.088453226,0.015044926,0.12632357,0.12628408,-0.080481894,0.13885735,-0.07637295,-0.10735321,-0.03216652,-0.34902585,0.094311126,-0.035226416,0.06808195,-0.15806599,-0.15820344,0.23751593,-0.051885985,-0.13251491,-0.13769588,-0.07544314,-0.17913547,-0.21010676,-0.009149571,-0.08658398
-0.16625111,0.013102732,0.038840685,0.2140215,0.17452927,-0.12153445,-0.13553305,0.17541791,-0.1716368,-0.21790166,0.08217864,0.006575412,0.07493685,0.07120162,0.10878148,0.03006005,0.012261056,-0.14414239,-0.062268555,0.02726631,-0.10275001,-0.08881722,-0.126663,-0.14038365,0.006801163,0.04374312,0.037494875,-0.026866732,0.07125834,0.10975668,0.0069596437,0.12343611,0.19384873,0.119290724,0.07608875,-0.07857334,0.017889895,0.17861836,-0.024232632,0.03677896,-0.031247523,0.0074345064,0.025767026,-0.080994405,-0.026049241,-0.06997021,-0.062487278,0.023253776,-0.13721587,0.19863307,0.057206213,-0.123831555,0.19810726,0.0615535,0.13307449,-0.28025082,0.11708612,0.014968543,-0.066356696,0.09123606,0.12434637,0.106527455,-0.25611395,-0.16410065
-0.15187292,0.011914424,-0.104633115,-0.030666761,0.073272794,0.0899837,-0.0755368,0.073795505,0.13146406,-0.14884262,0.1203295,0.057699457,0.08742171,-0.08261499,-0.05756234,-0.1532599,0.12143014,-0.12778589,0.15101539,-0.07173735,0.0872076,-0.16112861,-0.16190274,-0.25445652,-0.19039895,-0.1422195,-0.102458216,0.01303406,-0.040962067,0.006330373,-0.082557686,-0.10857127,-0.13790074,0.08157331,-0.18458809,-0.028738108,-0.013171116,-0.1529561,-0.110047705,-0.05650813,0.06581509,0.27557066,0.055435847,0.077926576,-0.182376,-0.00066577556,0.093164586,0.023431463,0.11957691,0.02838017,0.0054291296,-0.09088141,0.027819997,0.0057459325,0.10836832,0.016413178,-0.11268988,0.108954296,0.18011183,-0.107495084,-0.020108847,0.02949645,-0.008630204,-0.077429265
0.053448625,0.050241973,0.26630846,0.10157697,0.2669264,0.09044561,0.06841587,-0.06449871,-0.13809468,-0.051286023,0.088467754,-0.13410239,-0.044243727,-0.13628893,0.051970318,-0.14729391,0.040791772,-0.10219211,-0.22306031,0.15062,-0.06795473,-0.05039057,-0.0050584227,0.041860376,0.062794305,-0.18077584,0.08681099,-0.04061684,-0.04415122,0.017253697,-0.29493067,0.12489471,0.20909962,-0.18793358,-0.03932588,-0.12980117,0.21974164,-0.043008704,-0.07691544,0.0652854,-0.020292467,0.29222998,-0.20858279,-0.01458565,0.061867632,0.11009852,0.10187012,-0.07081175,-0.020764576,-0.020956695,-0.0021988228,0.073171146,0.14269085,-0.014872436,-0.13336304,-0.17219348,-0.015016388,-0.12033707,-0.023277842,0.18820445,0.025844036,0.18310905,-0.4038932,0.14636122
0.13775317,0.03357665,0.17473574,0.12350857,0.042802397,0.10622034,0.052525938,0.054178484,-0.031492405,0.051702544,-0.14145155,-0.18917498,-0.15097581,-0.18894637,-0.09707986,-0.06368213,-0.08373523,-0.036437415,0.049776565,0.1824741,0.0035896897,-0.08644785,-0.048931897,0.08950016,0.024294702,-0.17392436,0.12786683,0.12527761,-0.076883145,-0.03791716,-0.031147823,-0.1793692,-0.10283527,0.042882375,0.039084498,-0.14749894,-0.09766903,0.025460042,0.03311595,-0.08495542,0.10099153,-0.061246157,0.10081933,-0.12379919,-0.062382475,-0.012988099,0.111131415,0.019052725,-0.052670293,0.073907636,-0.066037774,-0.21022034,-0.13156605,-0.13199042,0.0035071585,-0.14127348,-0.12872231,0.056064915,0.1499676,0.01401167,-0.1808011,0.004668573,-0.1356419,-0.01919969
-0.12310331,0.13769516,-0.10855301,0.07545463,0.0095197875,-0.15269242,-0.0087649375,-0.056951582,-0.11651273,0.19727132,0.11052851,-0.082606286,-0.17465948,-0.016675703,-0.046729453,-0.11515938,-0.061398957,-0.050581947,-0.0672903,0.12479873,-0.08319738,-0.014958163,-0.009346694,0.066127,-0.24149528,-0.019107804,-0.009090285,0.18487227,-0.1728982,-0.069391295,-0.023008725,-0.10449468,-0.0197592,0.20360968,-0.017218374,-0.09702671,0.17952988,-0.039944887,-0.33019987,-0.21935433,0.012689955,0.18089236,-0.30455473,-0.0048179906,-0.06437602,-0.0060340357,0.18362477,-0.20792873,-0.1215138,0.078788444,0.09900824,-0.2534847,0.11020716,0.0065018293,-0.14918464,-0.0017894901,-0.014997982,-0.14345136,-0.18791263,-0.11839904,-0.1248899,-0.05519658,0.012986986,0.03255618
0.13761707,-0.18258795,0.19412026,-0.07463281,0.017986465,-0.63404816,0.043827668,0.053715814,-0.086115345,-0.057377834,0.009266913,-0.025082687,-0.39213198,-0.09674043,0.0791043,0.110485055,0.12488235,0.1821218,-0.016049957,0.10750807,-0.037936244,0.004325974,-0.17176417,-0.039714705,-0.06869455,-0.09300741,0.032641955,-0.12542924,-0.021317659,-0.120320484,0.0018867779,-0.044501945,0.020337531,-0.12854338,0.0161086,-0.0046255514,0.19065382,-0.12018647,-0.2917088,-0.18112116,-0.0548062,-0.059268244,-0.58781016,0.1546656,-0.18476182,-0.09787777,0.13228011,-0.07556403,-0.09689705,-0.60920066,-0.099987365,-0.04220498,0.15134637,-0.023739303,-0.14743756,0.0034906801,-0.14821574,0.12483272,-0.046462648,-0.13524154,-0.09361187,-0.086748056,0.065116026,-0.17421654
0.10547678,-0.03607844,-0.062437877,-0.13842246,0.26899445,-0.023235418,0.017963335,-0.030452352,0.13075049,0.09358519,0.042235523,-0.37064457,-0.5131124,-0.16530395,0.0016350936,0.07592655,-0.04871358,-0.10369347,-0.13359678,0.17785546,-0.16739939,-0.09003788,-0.11284717,-0.1541431,0.11374443,-0.23112248,-0.2188259,0.04300471,-0.01386253,-0.0064727897,-0.02870379,-0.1071103,0.027618878,-0.10373123,-0.103542,0.057640452,-0.22851521,0.06749864,-0.020306835,-0.023924487,0.16734181,0.06124727,0.13628718,-0.11566296,0.05285454,-0.13559549,0.15405491,-0.15752825,0.11330767,-0.23822579,-0.004648156,-0.15997858,-0.027654875,-0.02113821,0.061741985,0.012694927,-0.1493753,0.019577699,0.025334097,0.010495945,0.11476269,-0.25801212,-0.16436046,0.105758235
0.0028236425,0.018106414,0.05366661,-0.19200331,0.1627466,0.06051843,-0.16145661,-0.02600181,0.118331365,-0.05134687,-0.09545871,-0.107671164,-0.05833186,-0.2358571,-0.012172488,-0.07328738,0.047537982,-0.061834883,-0.038643785,-0.10196509,-0.0009208231,-0.13170233,0.1463053,-0.099634625,0.23500903,-0.06282227,0.12566696,-0.09147614,-0.13257784,-0.14890845,-0.3511123,0.1512869,-0.11347958,0.102372706,-0.18190709,0.091206,-0.10541838,-0.01802895,-0.19548687,0.08852917,-0.048718408,-0.19968222,0.04905982,-0.1418959,-0.1314999,-0.09347446,-0.0069028987,-0.1378114,-0.06195673,-0.14993867,0.019075714,-0.022135504,0.18224245,-0.00010672104,0.11596957,-0.0139281545,-0.081985794,0.05607199,0.08024352,0.12638073,0.016185371,0.22574309,0.13720907,-0.15024725
0.046599824,-0.02263946,-0.17049597,0.093356915,0.06134834,-0.19019908,-0.2371064,0.10903539,0.009895304,-0.017294746,-0.11903337,-0.07609898,-0.10792174,-0.016581109,0.06778407,0.1564836,-0.20019956,0.032514688,-0.09113973,-0.07289714,0.06667027,-0.31819114,0.10573793,-0.15500005,0.1809638,-0.12211358,-0.10799712,-0.003571585,0.07428346,-0.15565741,-0.21040407,-0.19357616,0.122541614,-0.06938573,-0.11161176,0.040793493,-0.25600326,-0.086985834,0.025364675,-0.03904333,0.049238265,0.07446405,-0.01594046,-0.10447425,-0.15020229,0.07268844,-0.1152937,-0.047587167,0.11791824,-0.0943818,-0.1369299,-0.1193159,-0.08879532,-0.21980017,0.05519031,0.06653656,0.08051602,-0.23998597,-0.1551721,0.07468121,0.11525996,0.0053848987,-0.15450476,-0.04846372
-0.20026511,0.11856853,-0.13906749,-0.24697429,0.006564342,-0.6725405,-0.11665322,0.11589496,-0.05314018,0.047625627,-0.42280042,-0.055814177,-0.8901784,-0.0045322566,-0.24117275,0.04026105,-0.080890544,-0.09458269,0.24484982,-0.6031607,-0.49508426,0.14325684,0.03644511,0.39798933,-0.14217919,-0.06880239,-0.009914508,-0.2850954,-0.009713046,-0.12292844,-0.026362156,-0.1317282,-0.020959835,-0.19806182,0.19791554,0.07200652,0.1301177,0.032979783,-0.8284493,0.040095802,0.15399702,0.01656201,0.2691358,-0.07332632,0.06957909,0.040945973,0.001399936,-0.35505924,0.05784494,-0.4268824,0.0819092,-0.14035861,-0.027851207,-0.13638213,-0.14574169,0.099258915,-0.3929983,0.13400842,-0.008784289,-0.016611138,-0.5146922,0.22003278,0.00859855,-0.10852002
0.01970572,-0.052660476,-0.18678954,0.2347464,0.20937705,-0.005143155,-0.07417032,-0.16686544,0.013701297,-0.083224,-0.013331799,-0.3144793,-0.05843956,-0.17086051,0.058166377,-0.025009533,-0.2840324,-0.0064320765,0.060532253,-0.093738005,-0.17814982,-0.18824242,-0.03864022,0.0036515186,-0.08285744,-0.17916603,0.046561316,-0.10260396,-0.16039756,0.1499171,-0.049286794,-0.22813942,0.033036757,-0.09261393,-0.13498561,0.055382922,0.03802082,-0.14189145,-0.31509244,-0.095215894,-0.13622297,0.03273908,0.026744854,-0.16450796,-0.19309975,-0.07443303,-0.029961957,0.2747905,-0.039249428,-0.059391197,-0.030088814,0.14524886,-0.2084795,-0.16743232,-0.16597229,-0.042418182,-0.08530478,0.09560206,-0.13495749,0.06986985,-0.121181644,-0.19633886,-0.26927245,0.030708127
0.00032215787,-0.06630067,-0.21176857,0.064539224,-0.0021050267,-0.056579467,0.009106046,-0.19868697,-0.058087617,-0.16429812,-0.0854809,0.08225619,0.071351185,-0.14285536,-0.026527049,0.04607806,-0.32925084,0.11908593,-0.103985384,-0.24221563,0.023764737,-0.05270883,0.027136913,0.0043735993,-0.049480997,0.03439685,0.059472162,-0.06682659,-0.11858438,0.04049478,-0.020628285,0.12745173,0.08833076,-0.11754087,-0.029960502,0.12570128,-0.17301679,-0.1642892,0.063283704,0.12046055,-0.20752512,0.10747682,0.02624964,0.083306015,-0.047013648,0.037810896,0.018640138,-0.18921062,-0.022297056,0.19614837,-0.17772543,-0.042426806,-0.2063183,0.047592055,-0.0013671503,-0.10105117,-0.05781169,-0.1266838,0.084989406,-0.15161838,-0.19230841,-0.010826429,-0.0075277337,-0.09351423
0.11349865,-0.088714354,-0.20345972,0.12842353,-0.1573817,0.12024471,0.08961874,0.010003955,0.0371178,-0.005455276,-0.006516915,0.0827425,-0.09240617,-0.18252754,-0.12265084,-0.13816841,0.052437633,-0.14129587,-0.14293128,-0.018153353,0.0021951818,-0.030384842,0.13172543,-0.14226128,-0.22089995,0.052109543,0.12630934,0.07572255,0.12450297,-0.056305367,-0.14395177,-0.059531055,-0.02642632,0.10031685,-0.14221147,-0.17455712,0.051677592,0.094095156,-0.16974333,-0.22660393,0.07386083,-0.05579476,0.020020792,0.023794169,0.055288885,-0.05889691,0.13851501,-0.033317734,-0.100177705,0.10405323,-0.14331242,-0.026249107,-0.12876405,0.02724957,0.08477076,0.15234593,-0.12043636,0.1724905,0.100526564,-0.032342345,-0.06387506,-0.114080295,0.08213046,0.09631619
-0.069893256,-0.0277417,-0.22420838,0.12116459,0.01407553,0.068469934,-0.14497188,-0.11084648,-0.008032348,0.010784905,-0.09003004,-0.032579206,0.16216537,0.04768317,-0.10902785,-0.1585562,-0.12467521,0.1380959,0.04516006,-0.019957053,-0.13209619,0.023941267,-0.13266867,0.012033126,-0.0601468,-0.19258517,0.13390526,0.1189438,-0.060548477,0.0967882,-0.20294313,-0.09623026,-0.03224135,-0.028635718,-0.08611826,-0.07082022,0.0025681553,0.12633854,-0.10290543,0.13052367,0.010806795,0.15150021,0.095404334,-0.13438608,-0.125929,-0.1260832,0.09317342,0.065213904,-0.071619414,-0.13850862,0.07234385,0.07596917,0.25577885,0.08447859,0.08834602,0.009066643,0.08844878,-0.05930106,0.1016568,-0.17292337,0.011517581,-0.14134082,-0.05019767,0.021102829
-0.1281967,-0.06619921,0.090157576,-0.16134374,-0.0709212,-0.067360185,0.102733865,-0.03751391,-0.00031137915,-0.13830067,0.04443886,0.09700338,-0.15054178,-0.14622727,0.19983713,-0.017080504,-0.15214726,0.033261575,-0.0373041,-0.15357701,0.03643318,0.023209684,-0.029462703,-0.04474104,0.09617382,-0.11430397,-0.08980516,0.1893131,-0.08153116,0.01975313,-0.10360973,-0.055522796,0.1712139,-0.06503115,0.009284066,-0.025007002,-0.21941862,0.04072595,-0.09236643,-0.052681465,-0.14327219,0.034536,-0.10540407,-0.074609816,0.0521183,0.052284617,0.030137802,-0.019026244,0.16214404,0.13849053,0.075254984,0.11434509,0.102412045,-0.08790456,-0.039362036,-0.14413272,0.042310048,0.13732767,-0.24549843,0.12925726,-0.11998656,-0.07290161,-0.2630774,-0.33448315
0.00297967,0.091546625,-0.24656805,-0.0922724,-0.041261453,-0.17707236,0.04934647,-0.15800604,-0.15723181,0.019567203,0.15279514,-0.103467345,0.07386949,-0.114179395,0.04498006,0.13198608,0.016151428,-0.1473174,0.092225626,0.059283834,0.05925919,-0.060993552,0.04610983,-0.180543,0.13663179,0.2758027,0.061731257,0.13416712,0.11243616,-0.12745707,-0.13632433,0.16802488,-0.014152079,-0.0948401,-0.02400488,-0.047000684,0.021069095,0.08679293,-0.13847288,-0.22966745,-0.046614286,-0.03633366,0.08512927,0.0146718165,0.040553667,-0.23375957,-0.07331928,-0.12495076,-0.06034596,0.056700222,-0.20515516,-0.20157342,0.041041993,-0.023186082,0.07849824,0.10665215,-0.0066402983,0.15766391,0.03987172,0.05559236,0.03521885,0.24675669,-0.042258326,0.05461768
0.078647286,-0.09372228,-0.069184594,0.092524685,0.1282953,0.027124925,-0.014765777,-0.15616184,0.100530304,-0.03666944,0.013807451,0.1098161,0.09418958,-0.08789464,0.096803926,-0.037547935,0.012027414,0.10460221,-0.19750497,-0.013608805,-0.1793935,-0.07043801,-0.1294772,-0.07496726,-0.14362766,-0.11960014,0.10439772,0.026354646,-0.06465519,-0.1751697,-0.30924305,-0.09968284,0.024354285,-0.058851805,0.026859282,-0.08018979,-0.16322571,0.09295617,-0.15547535,-0.0928375,-0.14089671,0.096742034,-0.2002655,-0.032887913,0.10466065,-0.11036123,-0.058724165,0.08430043,0.08271469,-0.16126215,-0.07654265,-0.049251124,0.056986365,-0.21387203,0.07032927,-0.04061644,-0.20670654,0.01922705,0.1009447,0.0032974114,-0.058602467,0.16924837,0.039272804,-0.065332
-0.022788374,-0.015445774,-0.43926406,0.18005599,-0.12419502,-0.14733778,0.09234423,-0.16741987,-0.038917564,0.33873174,0.007532976,0.1240066,0.07888753,-0.22791195,0.08154018,0.0476537,0.18506502,0.010415912,-0.118159376,-0.17858423,-0.18427077,0.15190567,-0.11707094,0.1392517,0.1291969,0.3195465,-0.028590469,0.06949222,0.16557704,-0.01257931,-0.043737255,-0.081217535,0.27892938,0.16848828,-0.11690719,0.15438393,-0.10014616,-0.08259576,0.11826066,-0.07971033,-0.10371142,-0.009534342,0.02819189,-0.049214978,-0.19144343,0.021688018,-0.14830676,0.07667657,0.017159091,0.018856922,0.08054711,-0.045743678,0.08271793,-0.110709265,-0.18839072,-0.16646682,0.093187295,-0.10449229,0.010338631,-0.124035805,0.12490985,-0.031733632,0.067665145,-0.10603019
-0.037073895,0.033419795,-0.1810548,0.22357804,-0.08681042,-0.13908,-0.12722458,-0.18505058,0.01631823,-0.16759165,0.25636858,0.059234202,0.09348953,-0.11766217,-0.05338014,0.15120168,0.066835776,0.15353362,0.039523322,-0.20160118,0.051842187,0.050822128,0.05285272,0.3148832,0.29292187,0.009414136,0.19823854,0.027557207,-0.024879273,-0.021575138,-0.118241936,0.033663377,-0.06402559,-0.15291555,-0.020023186,-0.014172042,0.17056847,0.0049715806,0.04647221,-0.061147757,-0.1445988,-0.03345649,0.0069075217,0.0409516,-0.18015164,-0.047209322,-0.17053044,-0.088063575,0.096235685,-0.06385075,-0.11306767,0.07309435,-0.0077644223,0.017721925,-0.08200099,-0.068947144,-0.14259228,0.07224822,0.12010397,0.009916016,0.16836207,0.0012339781,-0.0915956,0.07213517
-0.065480635,0.07947668,0.098408595,-0.15288904,-0.18880938,0.082580455,0.02922636,-0.058163293,-0.03147348,-0.035561558,0.063112594,-0.10619294,-0.17039466,-0.020579174,-0.13071826,-0.010877124,-0.00097041467,-0.05177045,-0.08449237,0.0328309,-0.07069935,0.011303805,0.030768516,0.05180961,-0.21778895,0.17189445,-0.19321555,-0.22568451,-0.02143467,0.060323298,-0.018926615,-0.12575936,-0.17512193,0.09700476,0.15129106,0.04961675,0.07770989,-0.118499085,-0.16557775,0.1420248,-0.22821237,-0.026860818,-0.19591214,0.18710314,0.07932837,-0.117024876,0.066074714,0.035671458,0.10473612,-0.09395429,0.021723842,0.019471532,-0.1819217,0.06662157,0.0012720828,-0.18516819,-0.057240486,-0.096396804,-0.054935955,-0.14606862,0.078132845,0.1487742,0.23064403,0.08866558
-0.100946724,-0.12492826,-0.042690065,-0.105159216,0.13961038,-0.015655044,-0.06802201,0.17564993,0.083577126,-0.008412528,-0.02558513,-0.07161519,-0.17261165,0.07330508,-0.07184131,0.097416654,0.058378927,-0.1642319,-0.11088508,-0.19792804,-0.16508967,-0.056709774,0.041686982,0.01133781,0.11754131,0.048348207,-0.20858255,-0.11079088,-0.060856443,0.012600045,-0.092486694,-0.0013879193,-0.073144235,-0.050593186,0.007390589,-0.008291671,0.06527096,-0.018265352,0.052885756,0.19427837,-0.02357491,0.24663647,0.20933016,0.1145245,-0.022765633,0.04045739,-0.110105395,-0.09519551,-0.010764236,0.001072256,-0.0028015482,-0.0472594,0.07997816,0.1517074,-0.13888907,-0.13411415,-0.058463052,-0.06468198,-0.07122524,-0.053223815,0.07149065,-0.02940802,0.11147919,-0.16033198
0.13129975,0.020107191,-0.12809573,0.12357099,-0.09638356,-0.016542874,0.121089116,0.02483368,-0.06379562,-0.02395141,0.15023576,0.06439621,-0.13590294,-0.075986326,0.12634753,0.1718234,-0.0024392204,0.11193566,-0.043520898,0.035460066,-0.083546475,0.17087254,-0.07660931,-0.11119713,0.051411074,0.056884587,-0.16094284,-0.16673812,0.14184311,0.049637035,-0.1059549,0.106430605,0.08333052,0.011546463,0.14508347,-0.027039317,-0.10352161,0.17345117,-0.047918856,0.101191595,0.11900963,0.0027786642,-0.12695928,-0.08915833,0.167397,0.042699046,0.10285853,-0.05262447,-0.19901037,0.043546945,0.107439056,-0.13688846,0.109732114,0.049729705,0.053570144,0.027702054,0.032253675,-0.18056853,0.086126626,-0.21556585,-0.045574624,-0.07664955,0.04479392,0.09089362
0.11252333,-0.007128438,-0.20123896,0.13588992,-0.13056098,-0.14678799,-0.09959395,0.027378462,-0.08712317,-0.17852814,-0.08855738,-0.068611816,-0.11294258,0.036277954,0.07011157,0.066612914,0.1543266,-0.0074874978,-0.009276193,0.1244841,0.07902402,-0.14712377,-0.13118671,0.02926047,0.17146167,-0.13600802,0.06340351,-0.07397852,-0.14814667,0.0072771856,-0.010382444,-0.0931216,0.18105076,-0.048261914,-0.17623514,-0.080599226,-0.16158052,-0.037258103,-0.04350891,-0.065915234,0.012681779,0.18208529,0.013748428,0.06183047,-0.10062594,0.009109183,-0.21584946,0.09901104,-0.05312793,-0.02968377,0.093323,0.10684073,-0.16375653,-0.11125638,-0.04601967,-0.07915043,-0.15503387,-0.0760489,-0.16834168,-0.050809894,0.122414626,0.13362572,0.05668337,0.06263578
-0.19920196,-0.016418925,-0.2359204,0.027120462,0.03073213,-0.05983837,0.03775641,-0.09778859,0.027729725,0.020969437,-0.03285976,-0.08790829,-0.19616282,-0.0882918,-0.117550604,-0.044851366,0.03804696,0.011150494,-0.18362461,-0.1891728,-0.13481122,-0.0056242337,-0.039056703,0.039731823,0.11136897,0.09417393,-0.03193549,0.03756501,0.07374299,-0.17631115,-0.2349427,-0.21811749,0.000661956,-0.25711063,-0.070340075,-0.009170614,-0.1296611,-0.07369731,-0.07995854,0.16636838,-0.16651356,0.06316844,-0.09327266,0.11162945,-0.048522696,0.018643223,-0.23609985,-0.27681938,-0.033442475,-0.023681572,-0.021299802,-0.027979659,-0.0054811332,0.17831863,0.037924692,0.040429898,-0.26932275,0.006455091,-0.22452645,-0.22043519,0.019766951,0.019396603,-0.036921866,-0.18078688
-0.051695332,0.094062775,-0.043547183,-0.15538797,-0.05062601,0.13036613,-0.013825444,-0.19341594,-0.18431757,-0.24630323,-0.11916261,-0.020989902,-0.31505525,-0.11181114,0.051860802,-0.071627595,-0.040772248,-0.14309989,-0.16484167,0.17272238,0.29844055,0.014449189,-0.13770974,-0.14647095,0.29085383,-0.09100405,-0.18432896,-0.110093676,0.103287205,0.12977976,0.02085578,0.016430857,-0.01993486,0.0061019873,0.042514235,-0.09153026,-0.26405275,-0.13389544,-0.06317774,-0.318626,0.12433747,-0.18413232,-0.24151094,-0.31561464,-0.12754208,-0.13978465,-0.14920682,0.029476298,-0.20074739,-0.72676903,0.12438224,0.006573022,-0.022365475,-0.003754583,-0.30111295,-0.07605824,0.29712608,-0.14268993,-0.10186638,0.16190389,0.36085707,-0.11980534,-0.104158245,-0.001911978
0.027971089,-0.20269051,-0.13910055,-0.20598069,-0.06341252,-0.0779087,-0.02910392,-0.08728208,0.20353921,-0.09059394,-0.098034985,-0.31598848,-0.010487979,-0.12023787,0.00749515,-0.05185525,-0.11926926,-0.20409882,-0.07564332,0.18285874,-0.17086023,0.01814049,-0.13001692,-0.19448915,-0.013082293,0.16946237,-0.097029574,0.12325677,-0.30337015,0.043481845,-0.05686119,0.14560671,-0.040688396,-0.095373295,0.12753668,0.060392514,-0.016837323,-0.05498104,-0.094109945,0.07822199,-0.017384693,0.057188142,0.04275347,-0.105425745,-0.06283328,-0.11101025,0.15798807,-0.15637952,-0.006019173,0.12006449,-0.041636493,0.042433575,0.009301095,-0.075596176,0.13825022,-0.064729646,-0.259353,-0.1984909,-0.18825857,0.03598484,0.17362416,-0.03484284,0.06916394,0.18007337
-0.19879895,-0.07147858,0.029974043,-0.05602862,0.101369224,-0.12212664,-0.23534848,0.013597101,-0.20713443,-0.019269342,-0.29317698,0.12074503,-0.1762232,0.13177042,-0.17292558,0.11808691,0.13515742,-0.09755194,0.068307556,-0.12089996,-0.093720175,-0.15698737,-0.09493012,0.037669864,0.32583985,-0.06422887,-0.035120886,-0.01673197,0.03606786,-0.014200818,-0.12589182,0.051260486,0.096219376,0.021432633,0.10077304,-0.21762872,-0.08928357,-0.016408684,-0.01395465,-0.16243346,-0.0096790185,0.13531229,0.10772357,-0.07521948,-0.05056486,-0.10719795,-0.20792232,0.101947546,0.14687361,-0.1647797,-0.011424065,-0.21620917,0.060782216,0.13376467,-0.20706922,-0.14026906,0.056653738,0.01643046,-0.04426881,0.12746267,0.038558938,0.1691766,0.007139585,0.084042154
-0.0379042,0.077143356,-0.15859257,0.10840005,0.10795035,-0.21670869,0.086276434,-0.16991958,0.011485102,-0.06139662,0.09722373,0.11539168,0.0065608234,-0.037401017,-0.07211302,-0.018673768,0.034637373,0.06630045,0.050913896,-0.19422935,-0.108930394,-0.12903944,0.09550663,-0.1596384,0.058938317,0.0348736,0.013045948,0.10502166,-0.12231817,-0.049532406,-0.028916154,0.07099833,0.014967875,0.031083914,-0.17617467,-0.087739706,0.12923804,-0.008737717,0.05747545,0.13553351,0.0014024251,0.21870528,-0.028888846,0.22327636,-0.22481997,-0.15146339,0.023895202,-0.03113061,-0.047906756,0.015565819,0.016499257,0.01772049,0.15884392,-0.02391172,-0.10480935,0.11661056,-0.046527576,-0.0621469,-0.10060064,0.18023895,-0.103266425,-0.05141832,-0.10450563,-0.16617346
0.07314648,0.09228237,-0.1545227,-0.27161545,-0.09417413,0.015366164,-0.034079395,-0.124083325,0.117829196,-0.056054167,-0.24576332,0.0799804,-0.02288062,0.026086569,0.041225325,-0.15496477,-0.1479348,0.08214658,-0.10226246,-0.19832271,-0.02912912,-0.018336296,0.14669317,-0.080844805,-0.029713778,-0.071726546,0.1425969,0.03624859,-0.11764765,-0.11026328,-0.2560456,-0.056471456,0.06571693,-0.060260102,-0.26903665,-0.14639221,-0.0027799022,-0.15720421,-0.09438119,0.03544243,0.035468094,-0.007798262,-0.18052764,-0.0766437,-0.20522082,-0.042843997,-0.19626002,-0.15033779,-0.29910326,0.027401853,-0.08546978,-0.32143906,0.015248501,-0.25807187,-0.006834526,0.009964047,-0.059968725,0.068679996,0.06535872,-0.018742865,-0.08899282,-0.014344818,0.1506268,-0.075018086
-0.119558886,0.032358278,0.041253075,-0.028877318,0.04543451,-0.032429922,0.11726771,-0.18725532,-0.045152802,0.12786628,-0.057258386,-0.32575205,-0.50778425,0.04732322,-0.14942369,0.09423422,-0.24987167,-0.15909402,-0.14765899,0.27944544,-0.04124196,-0.3562184,0.1281307,0.06785986,0.0758584,0.10386397,0.083599225,-0.19845241,0.080328494,-0.09667051,-0.024834024,0.023479547,-0.29482615,-0.05023867,0.026716582,-0.045159347,-0.09127089,-0.14951074,-0.04125599,0.08971051,0.06199247,0.08686429,-0.17602354,-0.04676732,-0.1041994,0.020802766,0.07140274,0.11865915,0.0519821,-0.06008225,0.10869225,0.08798016,-0.08795461,0.06844947,-0.017470866,-0.017870532,0.108352855,-0.27163437,-0.4024646,0.15630655,-0.090497755,0.10472326,-0.24952242,-0.15420102
0.13658546,-0.17077239,0.088172674,-0.07331821,0.14298962,-0.8721437,0.04801767,-0.17408039,-0.09989927,0.18293557,0.16997485,-0.39398643,-0.80561477,0.060643986,-0.1816288,-0.04865845,-0.116047174,0.04467922,-0.16343929,0.08279866,-0.42534178,-0.29382724,0.07580902,0.09817179,-0.23098929,0.06910904,-0.013463561,-0.09931516,-0.1308037,0.044997748,0.45827642,0.07025435,-0.17576364,-0.0597346,0.08685913,-0.03261813,0.002331292,-0.2699986,-0.114734195,0.0359658,-0.14162904,0.03752934,-0.42969504,-0.06731429,-0.14065993,0.013695962,0.047632564,-0.06542245,0.27689222,-0.4268761,-0.08238033,0.10787355,-0.30433366,0.19113767,-0.18035094,-0.22041775,-0.07881434,-0.22557884,-0.44155493,-0.16693586,0.0669243,0.12643789,-0.29871556,-0.16403876
-0.08311012,-0.19160165,-0.052863374,0.08890478,0.316933,0.018612769,-0.10608084,-0.13983205,0.14350323,-0.21561278,0.013377219,-0.21179238,-0.007508392,-0.08506726,-0.06105486,0.07363601,-0.06843565,-0.049122706,-0.04485942,0.071715,-0.1287909,0.1267797,-0.08567608,-0.18262549,0.07715135,-0.012128681,-0.106075495,-0.11150599,-0.18437196,-0.117692225,-0.1559741,-0.052247763,-0.100225635,0.06688364,-0.059982657,-0.12548317,0.10071489,-0.111813426,0.123912595,0.20570843,0.10332777,-0.17107746,-0.04579034,-0.120135374,-0.2234543,-0.14044057,-0.14059412,-0.19856586,-0.14789574,-0.026083922,0.09446569,0.058877315,-0.019627066,-0.11603251,-0.08144367,-0.11775233,0.08192032,0.095607,0.051841278,0.12262441,-0.023435876,-0.09309288,0.06307993,0.12510896
0.012671997,0.04421006,-0.12848116,0.0013408792,-0.16196686,-0.38017544,0.03910846,0.037718188,0.03114077,-0.16950992,0.06468668,0.017720476,-0.47025052,0.03260116,-0.24561492,0.043554667,-0.03858478,-0.06093929,-0.12725025,-0.06451059,0.00054407463,-0.25419506,-0.12891118,-0.11086401,0.39417034,0.088643424,-0.17181428,0.015391337,0.033795025,0.011146002,0.20968296,-0.19003202,-0.150222,-0.13856876,0.18968797,-0.05150624,0.07476237,0.21459599,-0.043943822,0.027819958,0.21822001,0.124549136,-0.09817977,0.035099205,-0.007779926,-0.081447534,0.074623235,-0.1046901,0.21438614,-0.27390653,-0.06343423,-0.04524758,-0.13945793,0.04652916,-0.05926345,0.023989389,-0.22500388,-0.20406584,0.0898522,0.14601153,-0.12546435,-0.086239666,-0.15265104,-0.09012002
-0.08319363,-0.010965697,0.006493643,0.12540594,-0.11804961,0.046053622,-0.0077469526,-0.07230575,-0.08291781,-0.071423724,0.2681579,-0.027189797,-0.15947644,0.016284771,-0.029214084,-0.050329056,0.010445557,-0.03456551,-0.11907838,-0.100672424,0.016852558,-0.16975436,-0.0054070638,-0.15629798,0.09856007,0.1509596,-0.085455455,-0.08231316,-0.123063065,0.00406468,0.16584855,0.08539456,0.006464466,0.005328373,0.03139456,0.08114771,0.07156226,-0.12624347,-0.1410713,0.039035503,0.09886531,-0.11529684,-0.13685991,0.039080545,0.13988079,-0.15269218,-0.0653741,-0.17789018,-0.06119255,0.0912883,0.13827036,0.072218396,0.027191732,-0.08120985,0.008173516,0.001808108,-0.13036627,0.102747954,-0.01300892,-0.08616716,-0.15317874,0.009511169,-0.06091096,0.14276135
0.053469796,-0.0109149525,0.19248773,-0.22181086,0.13346688,-1.5934354,-0.024768133,-0.20011754,0.036524046,-0.12034296,-0.1768369,-0.2878015,-1.3657268,-0.0021684065,0.04674093,-0.040405978,0.08289261,-0.12043656,0.038282506,0.42316154,-0.046055466,-0.15069872,-0.16366918,0.04016034,-0.25314486,-0.16177064,-0.014627068,-0.11632878,-0.03248295,0.02774363,-0.10397574,-0.14096874,-0.2793089,-0.015102455,0.21297131,-0.14164384,-0.29361066,0.21732393,-1.0411787,-0.046786916,-0.12669782,-0.09988435,0.12674929,-0.17432109,-0.06046253,0.0708933,-0.025761334,-0.0013673134,0.043926723,-0.9551364,0.02029506,-0.16970634,-0.20290813,-0.22965392,0.012632709,0.048264854,-0.11574637,-0.1692654,-0.1659677,-0.015263121,-0.22426622,-0.31053028,-0.045807615,0.009942674
0.065906465,-0.015397282,-0.1618089,0.02643247,0.017534776,0.075744465,0.008935258,-0.072021864,-0.15333377,0.17208123,0.083400875,0.06246903,0.1459363,-0.04475835,-0.10519655,0.030815614,0.04942419,-0.20273602,-0.08675562,-0.0070434413,-0.14192888,0.01692116,-0.1652221,0.33066523,-0.020146664,0.07871036,-0.0879924,0.084068105,0.19040954,-0.17856407,0.13018839,-0.050890636,-0.00061432715,0.031885143,0.13390683,0.1591462,0.23349395,-0.16663185,-0.1315994,-0.08779437,-0.1448414,-0.11844808,-0.04635121,0.1004339,-0.08242714,-0.041825563,0.0373264,-0.21044818,-0.16267587,0.036294032,0.08597186,-0.11900002,-0.07250945,-0.17908695,0.018426552,0.07791596,-0.056568697,0.17008543,0.11379374,0.17586993,0.19899626,-0.12474061,0.024445824,0.099332586
-0.03954686,0.048153482,0.026214693,0.16691044,-0.055981945,-0.22712386,0.1248672,-0.1387387,0.08366614,-0.29116604,0.15606919,-0.02883755,-0.103159964,-0.14221077,-0.051316697,-0.046651244,-0.2068934,0.05261008,0.21325032,-0.21599798,-0.08711868,-0.08442082,0.09419144,0.15629409,-0.14090951,0.1255503,-0.0011528217,0.14906688,-0.0014617188,-0.01858064,0.28537136,0.034554962,0.16255589,0.048702452,0.0701639,0.11307367,0.27683657,0.11571555,0.046151266,0.023990976,-0.17948735,-0.06519365,-0.09198147,-0.23398823,-0.18426144,0.0004047301,-0.030601794,-0.030402878,-0.15596339,-0.012445743,-0.10149116,0.015542855,0.08583165,-0.24936636,0.08184718,-0.1018354,-0.111679226,-0.09242945,-0.13084899,-0.13519941,-0.20009255,-0.090601854,0.03276171,-0.07368277
0.05463475,0.018710056,0.11047398,-0.006299088,0.20507628,0.10538857,0.074386686,-0.16172382,-0.06312346,-0.08561196,-0.084292784,0.056043487,-0.08389802,0.0042671114,-0.010970324,0.02157484,-0.14294645,-0.09000235,0.118185274,0.07253941,-0.13281287,0.07975029,0.09383036,0.027308157,0.023045043,0.05272752,-0.17042437,-0.062912345,0.063028544,0.031276338,0.12146154,0.18380347,-0.07583198,-0.09208697,0.07760108,-0.10651245,0.031017248,0.12012862,-0.03755905,0.081683315,-0.14337055,-0.053022332,-0.067882635,0.10647033,-0.049066946,-0.22894834,0.0797935,-0.123128735,0.0054213656,0.100362994,-0.27383757,0.059613395,0.039957788,-0.14156577,0.068490155,-0.03716846,-0.15660533,0.035086714,-0.06772525,0.116994575,-0.016334068,-0.06447992,-0.18423155,0.004642305
-0.18131472,0.052515067,-0.090755075,0.04920223,-0.030194854,-0.1395182,-0.09612495,0.051305477,-0.087608255,-0.18905726,-0.015815165,-0.02512667,0.07491758,0.016795931,0.053808365,0.063044086,0.049412113,0.14193332,0.091588356,0.021942953,-0.12394145,-0.07002291,0.0027116388,-0.16322981,0.14327468,0.13927935,-0.018985147,-0.13537829,-0.19906127,-0.12072444,-0.14475246,-0.18541913,0.037386637,0.15822792,0.07271837,0.17443675,-0.06464679,0.13665773,-0.05546843,-0.08780361,-0.14700593,-0.14964567,0.07627567,0.120982476,0.1315421,-0.010227645,-0.061630566,0.010025013,-0.15663785,0.13183445,-0.114830054,0.018967582,0.039875243,-0.1355896,0.050609067,-0.014234603,-0.11203386,0.115880385,-0.08588853,0.021389648,-0.089041844,0.09517997,-0.020634692,0.050172064
-0.10654278,0.10241297,0.122429356,0.033746164,-0.14360791,0.17824312,-0.16575165,0.0021584702,0.02051791,-0.09292077,0.14809299,-0.039793707,0.055273965,0.037427604,-0.04926847,-0.07881178,0.09399715,-0.10132313,0.10999466,-0.01039559,-0.0046751807,0.012023026,-0.13652736,0.15798268,-0.13929781,-0.117195964,-0.105639234,-0.14390817,-0.09480824,-0.08923886,0.026555838,-0.06520124,-0.23840167,-0.013789841,-0.04015443,-0.1938346,-0.15407057,-0.011657638,-0.041716352,-0.16222483,0.103076056,0.084963344,-0.17396799,-0.06853039,-0.06041857,0.057820205,-0.07969893,0.109959014,-0.04476095,-0.04835893,-0.13784908,-0.039222106,-0.20444132,-0.26799154,-0.001110267,-0.018235866,-0.06172982,-0.25597838,0.10911626,0.11268948,0.003213501,0.053417612,0.11323045,-0.07513957
-0.10517189,-0.20686878,-0.21207425,-0.093722254,0.18039459,-0.14708762,-0.10889931,-0.10042348,0.054861642,0.005849719,-0.0016161893,-0.098675065,-0.1362712,-0.21208818,0.11458029,-0.123285055,-0.029717963,0.044774666,-0.029529782,0.18821794,-0.17262016,-0.035366908,0.11783318,-0.29335433,0.0009017904,-0.030752523,-0.064116664,-0.27649412,-0.07792856,-0.2316342,-0.15538937,-0.045534857,-0.07165382,-0.031774286,-0.1696286,0.03536686,0.30010226,0.13538852,-0.13056916,0.09276551,0.059669226,0.09129059,-0.009904505,-0.21141733,0.09249455,-0.021727186,0.058083978,-0.12430462,-0.24455751,-0.17546985,-0.17225166,0.03167844,0.037576847,0.11701643,0.07561509,0.006945258,-0.15130399,0.05511095,-0.06762298,0.011652041,-0.09424603,-0.029427513,-0.048286233,0.16233677
0.14123869,0.0027385238,0.08429518,0.029777542,-0.15952492,0.1671054,-0.009767845,0.045520995,0.014625744,-0.028876588,0.31144375,-0.39738494,-0.2931927,-0.06689574,-0.14609945,-0.12331679,-0.2045065,-0.0029623064,0.061878074,-0.05088887,0.15998341,-0.20804013,-0.08055908,0.01880277,-0.020548211,0.0463123,0.0702647,0.14956598,0.10785871,-0.0031796442,-0.017507313,-0.12082062,0.084497444,0.13557102,-0.095646255,-0.05098479,-0.093424946,-0.14138114,0.068701275,-0.05901268,0.055134274,-0.029251724,0.02874895,0.13707362,-0.049855523,-0.061287258,-0.012788514,0.16453151,0.12989606,-0.07345321,0.041191306,-0.2923968,-0.037599653,-0.45377707,-0.15936267,-0.21022514,-0.08393396,0.1566101,0.047416694,-0.20313573,-0.084493406,-0.18047212,-0.2746172,-0.10054285
-0.0754534,0.007546461,-0.15401612,0.32824406,0.0791555,-0.005941727,-0.116352245,-0.11864703,0.08355432,-0.016428387,0.08424759,0.2089101,-0.017913347,0.14925767,-0.01454265,-0.15868683,-0.08761781,-0.046895053,-0.06878612,-0.14333116,-0.0048345197,0.21235654,0.20169997,0.040763244,-0.16059396,0.02311495,-0.14686769,-0.037998922,-0.07730917,0.018264085,-0.08661047,-0.009443317,-0.048329744,-0.16402374,-0.011704147,0.03739967,-0.18673553,-0.19175088,-0.10302074,0.025843818,0.15840197,-0.18983442,0.013024156,-0.10498045,-0.15186878,-0.20749702,-0.031087665,-0.22356354,-0.08859008,0.20162416,0.14318176,-0.006518359,0.10399742,0.15553637,-0.054456998,-0.120192215,-0.1444709,-0.12806217,-0.1321526,-0.0061767604,0.027007263,0.016610293,0.10955702,0.07969719
-0.037822448,-0.1039326,-0.02735086,0.17846012,0.009087848,0.063517645,-0.16265535,0.10423883,-0.14769955,-0.1658282,-0.009188004,-0.30444124,-0.17960732,0.14439747,0.009000294,-0.1726806,-0.110916644,-0.007829961,-0.05684859,0.12573546,-0.07892453,0.0036951073,-0.20409176,0.011019547,-0.118845135,-0.087404765,-0.0021698615,-0.1375947,-0.27469835,-0.07308639,-0.048551973,-0.22925302,0.012045686,-0.14674288,-0.21642545,-0.037757106,-0.026718723,0.014476114,-0.041869786,0.053768083,-0.074490555,-0.21653622,-0.19643871,-0.2748623,-0.045366704,0.07038525,-0.11737629,0.13332854,-0.0015790765,-0.036672466,0.005631463,-0.09970563,-0.10781294,-0.11879515,0.034689624,-0.11170476,0.09572114,-0.13120829,-0.15032832,0.08873055,-0.07419301,-0.28229064,-0.2478442,-0.1133213
0.058977053,0.0063806945,0.17029464,-0.68653864,-0.11706922,-0.6858785,0.09121631,-0.06369101,-0.021151096,0.021012627,0.31151888,-0.21381918,-0.30969906,0.01541274,0.083418086,0.04475844,0.121279866,0.023537364,0.08053334,0.4733282,-0.101971075,-0.059881438,0.16712813,-0.14354339,-0.18365243,0.15824313,-0.09939772,0.06714807,-0.05558002,-0.1396043,0.020347802,0.058086403,-0.06384726,0.17341319,0.5545518,0.16027191,0.010315366,0.07007833,-0.14944439,0.083904445,-0.07938131,-0.0038757,0.34312558,0.16194542,0.001180917,-0.21542469,-0.058284353,0.0024803567,0.42692772,-0.46926722,-0.18760729,0.018805651,0.012848151,-0.109647825,-0.11243986,-0.11967265,-0.023074292,0.045026794,0.02102336,0.105806954,0.079520784,-0.035879917,0.017308688,-0.049800582
-0.054162532,-0.024849193,-0.087168306,0.21115081,0.0822051,-0.069568135,0.114889786,-0.11846461,0.10137826,-0.16656452,0.023750901,-0.04436204,-0.16267914,0.11165197,0.14306927,-0.17044067,-0.041818015,0.13545968,-0.045722395,0.014390857,0.08833746,-0.1036966,0.07198487,0.12234666,-0.0050325072,-0.08824724,-0.0067634284,-0.06419479,0.08717476,-0.11300689,-0.12901577,-0.05505877,-0.03659518,-0.044173762,0.106685475,0.028144151,0.14421657,0.06584086,0.03453232,-0.16438876,-0.13007157,-0.05808622,0.05402116,-0.16570552,0.038458705,0.0019654476,-0.08278972,0.15402381,-0.18074936,-0.15520652,0.047179572,-0.01668718,0.006956358,-0.222934,0.10621104,0.0384495,0.1207018,-0.11996025,0.0006393636,-0.06932583,0.018093284,-0.12197646,-0.20655385,0.04974342
-0.094509006,-0.23029456,-0.024442526,0.0489839,0.0687452,0.065776184,0.0025820434,0.08224665,0.08809457,0.1039279,0.035881054,0.005700032,0.06096323,0.097288996,-0.2202961,0.07537156,-0.018745637,0.092767864,-0.079803176,-0.20242551,-0.15439619,0.029491859,-0.086629935,-0.17821215,-0.06483835,-0.13209873,-0.20932135,0.049179178,-0.1915379,-0.04962552,-0.10974149,-0.16849242,0.07824188,-0.008172431,-0.15535665,0.051233508,-0.027986037,-0.09528278,-0.10081469,-0.120922536,-0.03239516,-0.035120305,-0.26663607,-0.08721322,-0.18133171,-0.14732583,0.109037295,0.009762942,0.0037563452,0.1268095,-0.09938548,0.16832212,0.09966133,0.12020265,0.035805527,-0.018370531,0.07250006,0.21122038,0.1188025,-0.17677864,0.084448785,0.11616694,0.07925333,-0.13563558
-0.17760652,0.07199771,0.5539323,-0.3905287,-0.2787071,-0.122443445,0.12046693,0.07894459,-0.13000281,0.16350059,0.4273087,0.13410677,-0.52067167,-0.045302346,-0.05941934,-0.13968354,0.069742166,0.13960707,0.12545569,0.28665623,-0.03845685,-0.24802625,0.049178645,-0.14594956,0.18559769,0.1500482,0.03434017,-0.11758877,0.1352347,-0.09386932,0.2375741,0.32038623,0.0036707094,-0.09588736,0.119728446,-0.1227667,0.12091813,-0.1942348,-0.24409738,0.16194771,-0.15649056,-0.14533584,0.047480054,-0.1678916,0.00974308,-0.19697872,0.1481695,0.042560194,-0.34984708,-0.83022827,0.15749173,-0.005137305,-0.03814163,-0.112018846,-0.03652166,-0.10345819,0.087291226,-0.12968326,-0.06410925,0.15387549,-0.005746767,-0.14116105,-0.1462998,-0.05109423
-0.12707487,-0.05851333,0.102631375,0.21241918,0.008772616,-0.069189936,-0.050044812,-0.037627455,-0.1012935,-0.18982854,0.22053307,0.023581292,0.1476622,-0.10760627,-0.05333702,-0.040708758,0.035267387,-0.019219683,0.12438379,-0.16184327,0.06884667,-0.046455752,0.06791298,-0.12450226,0.056264948,-0.054982778,0.055039883,0.12057162,0.06926185,0.08359648,0.047418166,-0.20575179,-0.10610534,-0.15944101,-0.26023993,0.19333716,-0.0074416045,-0.009178188,0.41574657,-0.13287213,0.05131347,-0.109826945,0.024091922,0.029117836,-0.049051758,-0.11477443,0.098017685,-0.12797906,-0.20833944,0.20338458,-0.038677998,0.032050394,-0.1743707,0.021987537,0.05489047,-0.21780294,0.033375822,-0.09249653,-0.23064376,0.18658051,-0.18605666,0.19357593,-0.29387265,0.15547432
0.20850165,-0.21394919,-0.09613042,0.04303752,0.047734194,0.121499896,0.06964572,-0.0053792,0.20308246,0.07640519,0.12094673,-0.19615778,-0.2740266,-0.11719553,-0.12609252,-0.06540874,-0.10036584,0.09568329,-0.12668957,-0.029736832,0.1614636,-0.180313,-0.14265738,-0.0496222,0.045136973,0.07563142,-0.11291468,-0.051840812,-0.016740464,0.02163446,0.009809163,-0.32560146,-0.02899752,0.0020041359,0.17583999,0.14246093,0.06555602,0.13109693,-0.101902,0.10737468,0.06721809,-0.0057743294,0.11712006,0.16066185,-0.15373752,-0.044698566,0.058780503,-0.1708731,0.016576715,-0.03467451,-0.11038616,-0.03393059,0.017357128,-0.14022687,-0.013922407,-0.20557843,-0.029336032,-0.0764881,-0.064747915,-0.046234537,0.002882836,-0.3557929,-0.19523542,0.06235352
-0.079139054,-0.14730726,-0.12287036,0.03583359,0.15105344,0.023282386,0.02201303,-0.098929316,-0.1305151,-0.2197148,0.05271019,0.024465904,-0.36887527,-0.15424418,0.017048208,-0.013092079,-0.09782356,0.05886924,-0.10009775,0.010168312,0.5623159,0.113991894,0.03405693,-0.25432634,-0.1339585,0.048279136,-0.13484722,-0.048177853,0.4067011,-0.17292786,-0.30734304,0.042735893,0.07631327,-0.02303641,-0.35583067,-0.014442797,-0.42590225,-0.010275268,-0.25982967,-0.08021718,0.013498737,0.024144337,-0.19789827,-0.011602403,0.0101027815,0.2255797,-0.05327391,-0.29207537,-0.21321504,-0.18230209,-0.15545408,-0.20328626,-0.0044851103,-0.10662965,0.008244669,0.2669006,0.67036504,-0.08542914,0.048668772,0.05986407,0.5133096,0.14560205,0.04673019,-0.050833106
0.041685097,-0.2767669,0.052546643,0.09891047,-0.19496322,-0.45354775,0.09229256,0.0025262288,-0.051411953,-0.2373365,0.23920223,0.12832814,-0.1509373,-0.10669716,0.15428327,-0.015715798,0.023011358,-0.15571505,-0.02806721,0.07272425,-0.08311332,0.12547417,-0.05158381,0.21559443,0.18336788,0.121994615,-0.016064985,-0.24396846,0.014464175,-0.017953431,0.08487716,-0.10486629,0.023771364,-0.06163181,-0.39825907,0.10574524,-0.012866483,0.06637443,-0.29383478,0.10532542,0.057025198,0.036742747,-0.65961957,0.026477732,-0.10941361,-0.006708631,0.026604258,0.083760254,-0.056443196,-0.19706467,-0.032927983,0.08961257,-0.08983208,0.048462495,0.124749914,-0.076911315,0.0017306944,0.059474733,-0.09386846,0.0880964,0.005904684,-0.01726116,0.053312242,0.051808685
0.025161294,0.007934675,0.0326159,0.1693917,0.082272775,0.11943455,-0.11722178,0.012256709,0.059481665,0.19807531,0.010299347,-0.1406081,-0.040977046,-0.12594007,0.027194044,-0.20965803,0.115304,-0.099472284,-0.034474127,0.09777122,0.032035753,0.007223767,-0.116226405,0.20587252,-0.042880394,-0.04108622,0.15381347,-0.13395001,0.18778123,0.103652954,0.08115753,0.008832394,0.072750494,0.053761214,0.081800394,-0.12766545,0.06849002,-0.19874196,-0.078861475,-0.110735595,0.027288616,-0.09507218,-0.1370236,-0.2133495,0.14196007,0.0151639525,0.07876073,0.03580202,0.0961986,-0.0037341982,-0.13703796,-0.21628067,-0.14045207,-0.09508445,0.10218431,0.03168312,0.031159855,0.17603813,-0.052559167,-0.08496895,-0.06072926,0.15434544,-0.043984823,-0.03658165
-0.21704763,-0.3660552,-0.040059805,-0.064278476,-0.056713596,-0.42182812,-0.2173719,-0.269459,-0.18714415,-0.11196957,-0.19125304,-0.12324017,-0.19806682,-0.08378242,-0.061015427,-0.13735232,-0.08016713,-0.09488824,-0.39812544,-0.36279133,-0.47804776,-0.10315565,-0.12633285,-0.31590253,-0.15012266,-0.12483373,-0.13469088,-0.088033825,-0.20760907,-0.08713046,-0.19628087,-0.07477394,-0.1331128,-0.11981041,0.1911777,-0.27593243,-0.040414136,-0.032699753,-0.201677,-0.14187373,-0.12445092,-0.08366816,-0.11556087,-0.33077797,-0.18915997,-0.37998465,-0.05267909,-0.29983807,-0.06331741,-1.1952828,-0.16080543,0.0026750152,-0.19273907,-0.2852426,-0.098648526,-0.17348781,-0.29220283,-0.049946092,-0.39010045,-0.18821184,-0.17447406,-0.15694459,-0.27489215,-0.039442334
0.033841256,-0.24746032,-0.09307601,-0.064967394,-0.020011239,0.09809758,0.007002468,-0.0003194572,-0.14190653,0.07653794,0.09125216,0.076174974,-0.13449162,-0.032055587,-0.05082157,-0.14681977,-0.0019039885,0.101964466,0.026287341,0.08845546,-0.1551983,-0.006504482,-0.14457095,-0.013733258,-0.2146336,-0.19720072,-0.0056152926,0.043970875,0.09102643,-0.046358883,0.025493626,0.05476464,0.11660837,-0.12648886,-0.10851016,-0.16814637,0.078867726,0.118975185,-0.07381683,-0.09861957,-0.072336026,-0.054260343,0.0930665,0.109724276,-0.099039875,-0.17973986,-0.18958698,-0.08106915,-0.0507283,-0.058668528,-0.114761166,-0.13605905,0.08601131,-0.26884285,-0.042451028,-0.04912103,-0.054291107,0.05076485,-0.113056734,-0.032549944,-0.0012305572,-0.04770995,0.18350422,0.09488662
-0.07837197,-0.1570465,0.027554184,-0.042652953,0.13853434,-0.044884153,-0.059968457,0.07325057,-0.06443235,0.031715684,0.1001498,-0.015613282,0.009391181,-0.06988759,-0.1410767,-0.13222677,-0.10569125,0.091565065,-0.1442324,-0.08301209,-0.01984936,0.06604204,-0.06264122,-0.313319,0.13873002,0.012710587,-0.054635473,-0.19235353,-0.22366807,-0.11984016,-0.06280823,0.07230485,-0.09274061,0.035340562,-0.21193822,-0.10812402,-0.072604455,-0.048992053,0.041197713,0.20570543,0.04140939,0.12510622,-0.1475945,-0.16998956,0.02234289,-0.06027312,-0.13016164,0.100429535,0.030127423,0.083645165,-0.17645757,0.061885085,-0.01541218,0.13027501,-0.09878677,-0.19282965,-0.08336063,-0.14694719,-0.0064517413,0.06494491,-0.1259689,0.23213795,0.10207441,-0.16343898
0.013479645,0.22000925,-0.059433162,-0.019006394,0.05293757,0.14500052,0.032768045,-0.015770407,-0.19535129,-0.08062556,-0.113775045,-0.036780324,-0.033675205,-0.27194104,-0.19960372,-0.12374577,-0.16294986,0.017537016,-0.07039542,-0.33749855,-0.24482046,0.1629462,-0.10158468,0.19573365,0.015361582,-0.07282855,0.08263413,0.080265865,0.01161472,-0.051237747,0.016221626,-0.1310642,-0.03311683,0.013079755,-0.40089536,-0.019718831,0.075977236,-0.09841778,0.16750547,-0.11089011,0.06599011,0.10050983,0.06230533,0.009792212,0.07217937,-0.034005027,0.018671004,-0.12445454,-0.07187492,0.053045653,0.07659403,0.16680054,-0.1953167,-0.13224314,-0.085153796,-0.07102911,-0.076597415,0.096271485,-0.110578604,-0.11849829,-0.1338329,0.061452243,-0.045286085,-0.12828854
-0.011254906,0.10028532,-0.13833307,-0.28067207,0.11108219,0.12165532,0.09276366,0.02306184,-0.08427637,-0.043998722,0.2823411,0.08983447,-0.16041066,0.0074229827,-0.02927336,0.10400416,-0.058583453,0.027488267,0.23797067,-0.15897875,-0.2056089,-0.058234952,-0.13307658,-0.012677143,0.1246537,0.01707041,0.008276825,0.035419255,0.14470814,-0.012492115,0.072630405,0.023772346,-0.11543133,-0.19793022,0.084618196,-0.066174954,-0.056208804,0.011278922,-0.10128393,-0.07155397,-0.0038499446,-0.0017282035,0.036753133,0.05633864,-0.2197026,-0.14292309,0.12025811,-0.07069671,-0.13198124,0.3090995,-0.11479558,-0.11318574,-0.058148827,-0.1368541,-0.23375101,0.28528205,0.016853292,0.047421146,0.08175275,-0.18151245,-0.18234333,0.13174841,0.103515595,-0.23829055
-0.08263669,0.043276176,-0.17975782,0.23274279,-0.39971465,0.0010282195,-0.21557988,0.018962003,0.061920177,0.031495713,-0.032499295,0.056560412,-0.017882835,-0.1426651,-0.16455232,-0.10646223,0.17745367,0.03976408,0.030266736,0.04064294,-0.087755345,-0.12080568,0.005796432,0.25360933,0.10970575,-0.23056515,-0.0611203,-0.23822726,-0.07085368,0.14954577,-0.21542303,0.02083354,-0.12365813,-0.0729157,0.13998957,0.060736984,-0.013239127,-0.13618207,0.04767161,0.14389032,-0.13483487,0.04788786,-0.08935979,-0.009432295,0.096145995,-0.13178906,0.0071632885,-0.03163132,0.052006762,-0.056364197,-0.067395754,-0.080833524,0.1169369,0.013069225,0.020108877,-0.15719987,0.0321105,-0.07529322,0.02846908,-0.28801686,0.10324425,0.033234,-0.11552286,0.18126227
-0.09133639,-0.0026206912,-0.23194192,0.0832107,-0.16070616,-0.14405888,0.023078606,0.1471817,-0.16451481,-0.038758397,-0.115790054,-0.10312994,-0.13478817,-0.054258928,-0.16182636,-0.030006915,0.06060901,-0.027834188,-0.12082915,-0.029820831,-0.17189857,0.0838195,-0.014345065,0.063325174,-0.19239385,0.054163527,0.10223762,0.109392405,-0.050062746,0.07756002,-0.005897966,0.13535844,0.04621482,-0.098922946,-0.037111573,-0.061938796,0.17348053,0.02574119,0.1083212,7.099981e-05,0.023340324,0.05576643,-0.18888848,0.03719309,-0.07442421,0.18838616,0.15356071,-0.1336605,0.054461654,-0.117397584,-0.13487808,0.06881829,-0.08092116,-0.16247728,0.12115558,0.12400171,0.14709595,-0.14671843,0.17818668,0.013873013,0.1257475,0.058374956,0.13987,0.071665734
-0.17692497,0.06481907,0.069625795,0.22956492,-0.0903889,-0.036393765,-0.04324399,0.036750022,0.01985626,-0.14786638,-0.0075218924,-0.201744,0.116748065,-0.069811605,-0.021988217,-0.14564396,0.037071656,-0.011922779,-0.04729419,0.085775495,-0.09516599,0.04666627,-0.00567601,0.19619854,-0.01830347,-0.2153894,-0.15931419,0.11857993,-0.18516962,0.062089335,-0.04183022,0.065697126,0.04329812,0.16900733,0.05309482,-0.18579727,0.3139077,-0.07305548,0.07189645,-0.12578815,0.0921421,-0.0036040698,-0.12129068,0.11023273,-0.12173286,-0.101659335,-0.06462552,-0.29807407,0.19260733,-0.18752305,0.16009246,-0.106464066,-0.10075028,-0.052045904,-0.1677405,-0.026077652,0.10901556,0.06678117,0.15337476,0.027386688,-0.09257579,-0.024480497,0.050471406,0.08709681
-0.052101642,-0.09301236,-0.05031749,-1.0713203,0.061279822,0.5457648,-0.28393608,-0.06211896,-0.121411815,0.027963484,-0.882145,-0.45294097,-1.1856614,-0.09140858,-0.35544416,-0.119857475,-0.08164205,-0.17431176,-0.121666916,-0.18943863,0.26201582,-0.22454436,-0.30007395,0.2410821,-0.022050282,-0.4242269,-0.053533472,-0.20407186,0.024886087,0.0046453644,0.4296018,-0.27661276,-0.4722204,-0.2357127,-0.526226,-0.090861395,-0.7410079,0.20267363,-1.6140937,-0.10049388,-0.16515124,-0.101606324,-0.19796824,-0.1372264,-0.119813286,-0.12389174,-0.15728445,-0.27829075,0.040520336,-0.6772064,-0.11618918,0.08907312,-0.13779996,-0.1396301,-0.26390812,-0.16566558,0.2557813,-0.21279609,-0.08766374,-0.43321723,0.13700157,-0.27417293,-0.16123903,-0.19381301
-0.06551105,0.054795995,-0.14263035,0.14457312,-0.077343136,-0.13068107,-0.02255392,0.11961769,-0.15240653,-0.20561512,-0.119380765,0.114987575,0.09609469,-0.14095022,0.13798104,0.111586094,0.16873449,-0.12378226,-0.039942592,-0.17128575,0.054709442,0.055211294,0.13369186,-0.22819933,0.031142952,-0.0015383044,-0.23462145,-0.123554215,0.02371303,-0.011378576,-0.0346645,-0.059717644,-0.051470447,0.031728793,-0.07720927,0.16650954,0.10545825,-0.104952574,-0.14750554,0.03194999,0.051766243,0.07837356,-0.22402187,0.055350628,0.007458804,0.048372567,-0.054758977,-0.061384216,-0.085179575,0.04950009,-0.08990403,-0.071409054,-0.03868897,-0.25740838,0.13022332,-0.015726022,0.09964434,0.0010716217,0.14348122,0.042312533,0.05511714,-0.15071666,-0.08602874,0.07520829
-0.17350323,-0.021845998,-0.25218663,-0.16641061,-0.22910215,-0.018056415,0.026863912,-0.19103639,-0.030315662,-0.1045665,-0.21633488,0.2598475,-0.179846,0.10307139,0.048419766,0.0043970165,-0.09221034,-0.14173113,-0.14197636,-0.067035764,0.1774494,0.01500214,-0.072513856,-0.07379511,-0.21598656,-0.14434814,-0.24478206,-0.20481464,-0.23335464,0.053938843,-0.15919423,-0.19311908,-0.020752132,0.03339367,-0.2717505,-0.07157279,-0.20999467,-0.08703396,-0.11140654,-0.121332966,-0.02447298,-0.020377481,-0.022858609,-0.19564398,-0.14576681,-0.15284447,-0.13263512,0.03320446,-0.15590945,0.106045015,-0.03054617,-0.17871372,-0.040626753,0.07243203,-0.020388119,-0.104758754,-0.17241754,-0.057189785,0.0012986315,-0.03147782,-0.21814409,0.16833852,-0.11227257,-0.11122656
-0.09671747,-0.2095533,0.016358212,0.14758998,0.03959182,-0.037083346,-0.14821029,-0.023773398,0.08951904,-0.025695419,-0.122554444,-0.10597848,0.08166286,0.11930705,-0.012160258,0.14062712,0.0040217275,-0.15758601,0.11568791,-0.089724526,0.11145459,-0.12085514,0.13573438,-0.002651911,-0.06000759,0.10320472,-0.13646477,0.19630946,0.085712425,0.07468124,-0.057928875,-0.040405042,0.04639692,-0.079080164,0.01943689,-0.03434301,0.06443883,-0.008920835,0.124871045,-0.01904701,-0.21297303,0.09955894,0.08879715,-0.055560276,-0.18305819,0.008366147,0.156572,-0.10040976,0.10104664,0.013733017,-0.10178528,-0.041576356,0.13302481,0.060740795,0.13848346,0.028897343,0.07117001,-0.08613217,-0.10465511,0.00092349196,0.03482957,0.100296274,-0.012024884,0.023642078
-0.010220274,0.23012783,-0.044820145,0.18497406,0.020609407,-0.034571424,-0.012980729,0.055909578,-0.08170991,-0.0569802,0.28754738,-0.11871432,0.105666,0.14402471,-0.18616089,0.032330167,-0.1400972,0.14255507,-0.048741166,-0.059036836,0.20874046,0.10198146,0.09975515,0.2989378,-0.055311583,0.11811545,-0.01035972,0.014028556,-0.1754575,-0.19282019,0.05709401,-0.124225885,0.048503567,0.0154316425,-0.13385981,-0.14321844,0.2509102,-0.15049478,-0.20035869,0.062266544,0.13209037,-0.05084791,-0.12149297,-0.056671582,-0.16249476,-0.09821429,-0.021699464,-0.3393799,0.16479842,0.14091545,0.0707719,0.1588421,0.05709963,-0.08695954,-0.090991355,0.118817754,-0.107799694,-0.07293892,-0.0020066884,-0.07584005,0.1163995,-0.14955325,-0.110968865,0.12033096
0.08605046,-0.1272151,0.30983955,-0.0848367,-0.20980075,-0.6365265,0.17542206,-0.10439065,-0.019524015,-0.083234325,-0.032953132,-0.08907619,-0.8521333,0.05131425,0.036031906,0.07380743,0.09806847,-0.05986353,-0.04947861,0.11383631,0.014606118,-0.115904935,0.0058324486,-0.21996811,-0.24492104,0.24336894,0.109026596,-0.08235193,-0.13935448,-0.07387838,0.14305928,0.122598216,-0.082492836,-0.051029123,-0.26486987,-0.032024242,-0.22417498,0.06868999,0.056238275,-0.22236009,-0.13392481,-0.06970717,0.09868778,-0.07621736,0.013601169,-0.049695805,0.045801036,-0.20224094,-0.019054584,-0.3674808,-0.1212682,-0.099676564,-0.0032664328,-0.26730844,-0.013005236,-0.13969111,0.08409468,0.004853942,0.041029852,0.11487383,0.11307363,0.027479896,-0.08263774,-0.1050425
0.10534786,0.040479768,-0.023599105,-0.1760988,0.162169,0.025102502,0.09223892,-0.052392337,0.10061811,-0.17679943,-0.14631091,0.12541641,-0.1251146,-0.03376512,-0.15509354,0.13386108,0.15438451,-0.12888433,-0.017802104,-0.045108505,-0.1499692,0.056583233,0.11763294,-0.11809037,0.22631344,0.11156424,-0.24453765,-0.22223848,-0.21353182,0.019043844,-0.17866033,-0.19552152,-0.06795715,0.046870437,0.042749465,-0.09767872,0.07908657,0.12020087,-0.07641854,0.13265705,-0.18169484,-0.0709078,-0.06276904,-0.08298959,0.011028221,0.06397723,0.10128614,-0.09109479,-0.10278232,-0.049053606,0.07417442,0.05117519,0.04135322,0.27103052,-0.04078368,-0.11514132,0.102888815,0.14411335,-0.034445073,-0.17485994,0.13953088,0.13543548,0.042150106,-0.075216874
0.11773805,-0.16946754,0.108800255,-0.20419185,0.2958209,0.0008993794,0.13007663,-0.07073848,-0.010948158,-0.18349235,0.047284734,-0.029866451,0.10865761,0.0828214,0.018088257,-0.08708829,0.022023024,-0.12720114,-0.10636572,-0.12957388,0.039259423,-0.020264784,-0.058189288,-0.24064808,0.23321098,-0.14444634,-0.034851618,0.050062574,-0.048405796,-0.11538358,0.0089383675,0.07964949,0.07609106,0.1199929,-0.028618589,-0.13926867,-0.088399805,0.11768152,-0.055387694,0.103043675,-0.03603014,0.07507945,0.07314212,-0.036430687,-0.04962878,-0.03560518,0.1364058,0.05572818,-0.14982742,-0.1307319,0.04960419,-0.010545002,-0.060822874,0.12133873,0.10863664,0.08943392,0.0047559505,0.010114909,0.045211397,0.06256434,0.034374163,0.12534106,0.108742006,0.0963522
0.13422514,0.11255853,-0.27584496,0.10004483,-0.011819255,-0.19712913,-0.13572524,-0.119618446,-0.025939835,-0.023956845,0.26187477,0.05521913,0.007731586,-0.12098617,-0.0035832822,0.0950685,-0.12970166,0.07859307,0.049388897,-0.02675172,-0.107523605,-0.027970564,0.088827804,0.21511419,0.011829438,-0.20666362,-0.10368251,-0.09680141,0.11912133,-0.07592648,0.0779046,0.0718559,-0.06934964,0.13263673,-0.08294281,0.14436091,0.38006505,0.12630828,-0.42410848,-0.034854054,0.013207021,-0.04344667,-0.026881814,0.021460667,0.006346807,0.12121349,-0.12943058,-0.16028671,0.3370096,-0.47275516,0.09247599,0.09038381,-0.050059248,0.008754339,0.05803108,-0.044512596,0.18669501,-0.014600855,0.15146163,0.20482358,0.101882406,-0.0068929265,0.11369241,-0.08956846
-0.08597508,-0.058088183,-0.2215341,0.24862061,-0.019156178,-0.118930794,-0.01577639,-0.16684434,-0.040338304,0.012717808,-0.029845892,-0.10221936,-0.15043059,-0.20046845,0.11550343,-0.10259311,-0.09810159,0.17626749,-0.009781145,-0.0051080678,-0.001541469,0.17785153,-0.18819475,0.047589198,0.1720405,0.07108683,-0.042540442,-0.026240157,0.1432735,-0.037728976,0.056769565,-0.15246764,0.17074731,-0.1522641,0.062682144,-0.19460033,-0.109086215,0.035518743,-0.03225313,-0.052613843,-0.0019468892,-0.02398351,-0.0195757,0.08069225,0.069074936,0.049783573,0.04268103,-0.1302137,-0.13689466,0.30047485,-0.08455949,0.015686851,-0.081215434,0.04641371,-0.059153978,-0.059544247,-0.08344078,0.15990035,0.14756556,-0.046824627,-0.10490547,0.24761051,-0.009332563,-0.11070216
0.015649498,-0.023139529,-0.09081609,0.019287026,-0.12348553,-0.004552646,-0.010125697,-0.028460097,0.16187312,-0.0765628,0.09258528,0.005315691,0.14187948,0.023976535,0.16523962,0.05495751,-0.18469866,0.04976742,-0.11762529,-0.17385627,0.040874477,0.100114904,-0.04109335,0.08962657,-0.070135936,0.095061764,0.111879215,0.038169995,0.07942434,0.017478667,-0.06087338,-0.026097566,-0.033268288,-0.16777377,-0.03945459,-0.08137411,0.11188291,0.038894713,0.16877274,-0.089887954,-0.179029,-0.15658136,-0.037922204,0.005090715,0.11062537,0.0004944205,-0.1337588,-0.038440507,-0.20728132,-0.036137294,-0.075511344,-0.17877986,0.22860557,0.07116828,-0.0042893738,-0.08645613,0.051268004,-0.12544227,0.101772904,-0.06134221,0.107519254,-0.18742076,-0.07510647,-0.16844624
-0.06452418,-0.18928069,-0.11575117,-0.067040116,0.1564419,-0.09456026,0.05743689,0.12436276,0.07929048,0.02770503,-0.00015053511,0.14346536,-0.11833847,-0.1193962,-0.21016659,-0.02538383,-0.0408372,0.15174024,-0.04919994,-0.020852117,-0.06205413,-0.097631864,0.1273705,-0.09096966,-0.024431255,0.1783583,-0.11632118,0.06582085,0.032429833,-0.039042983,0.17202824,-0.048819356,-0.1753232,0.09788863,0.11287867,0.0798605,-0.06478488,0.12698174,0.24786748,-0.17638984,0.009225954,-0.14263642,0.08807963,0.016833084,-0.061903924,-0.134489,0.049534015,-0.13392086,-0.0603794,-0.014801118,0.23568128,-0.054133423,-0.19278836,-0.20403765,-0.19992897,-0.006474773,-0.16289616,-0.04723794,-0.08642985,0.044147115,0.15119986,0.13367115,0.13843384,0.07305845
0.017763084,-0.17381197,-0.08164721,0.101698935,-0.14995573,0.17297868,-0.19778378,-0.10309578,-0.20598544,-0.18093611,-0.14037074,-0.04410526,-0.06612387,-0.07447745,-0.14895406,-0.09853836,0.063956864,-0.055063553,0.021366166,0.017803928,-0.0062914705,-0.22893651,-0.07560459,-0.13164039,-0.081424154,-0.025229977,-0.01662909,0.014732042,0.021925671,-0.08515821,-0.26174653,0.13639091,-0.20421165,0.06280151,0.14726914,0.0072984793,0.06634986,-0.023999767,-0.18082464,-0.16371375,-0.04649335,0.026384149,-0.1429801,-0.11605579,0.10345119,0.14969352,0.09204895,0.024306685,0.055028073,-0.13598637,-0.050427865,-0.28908327,0.0471497,-0.33635992,0.05162322,-0.1704659,-0.13571359,-0.0065354547,-0.09381178,-0.08476096,-0.11535607,0.11352747,-0.061434772,-0.055816237
-0.16500415,-0.099699356,-0.25649676,-0.24754336,-0.0648201,0.037823156,-0.20938802,-0.05244705,0.021124987,-0.040871862,0.10260794,-0.18631467,-0.24245036,0.013888115,0.07650031,0.013071671,-0.3297177,0.05308415,0.0056642937,-0.0692039,0.088467754,-0.14726983,-0.19221562,-0.04938981,-0.13922012,0.07792561,-0.1232058,-0.107194476,-0.30114624,-0.0034217685,-0.09560135,0.01778753,0.13908271,-0.07192118,-0.20059791,-0.22560188,-0.051829882,-0.12600718,-0.24838789,-0.33918968,0.035960454,-0.21326223,-0.024720674,-0.024311999,0.087123774,0.16180669,-0.16237949,-0.0137000065,-0.11259419,0.07102705,0.08278005,-0.18440627,0.017719656,-0.0180605,-0.2726183,-0.07291365,0.06344836,-0.09079195,0.012573075,0.016309114,0.15924835,-0.32179484,-0.0085591655,-0.044221316
-0.06311111,-0.115939975,-0.016893804,0.1458847,0.033609416,-0.16897397,-0.04764457,0.0077081383,-0.14469256,0.09914718,0.012603123,0.091637574,0.09327619,0.010983548,0.035057057,-0.1480529,-0.14652903,-0.1358612,-0.07692678,0.09456766,0.15659146,0.09104482,0.16147773,0.1279447,0.12549494,0.17463411,0.10915221,-0.10931971,0.0072135753,0.08069026,0.0534219,0.19396845,0.009603174,0.06471395,0.04367592,-0.049861252,0.020390853,-0.16792315,0.17593488,0.064928524,0.021365132,-0.09642471,0.018176222,-0.15020664,0.13350283,0.010266269,0.09940702,0.07524487,-0.038836196,0.13333265,0.03458629,0.11835984,0.038630363,-0.03252467,0.06110747,0.11948309,-0.14809154,-0.12620062,0.0077152867,0.1342392,-0.03070412,-0.15034889,0.15409692,0.039478276
0.049157947,0.026419612,0.08198169,-0.061475802,-0.15152928,0.14235885,0.05950461,-0.11625446,-0.05045352,-0.025702346,-0.12674305,0.021294296,0.11602322,0.032546688,0.14856835,0.025852038,0.011746148,-0.10910129,-0.05094455,-0.08358348,0.22197269,-0.015199107,0.067876205,0.0713306,0.14992234,-0.17606926,-0.116343416,0.15438527,-0.160791,-0.12015979,-0.13512993,-0.1335206,-0.04793732,-0.16650315,-0.09178759,-0.105450206,0.07657038,0.1808617,0.018227132,0.08410681,-0.0694346,-0.015709406,-0.15076527,0.07958262,0.16217102,-0.23807001,-0.08866559,0.057909615,-0.2791376,0.093850404,-0.18361437,-0.15183845,0.039218087,-0.016839596,-0.11599216,-0.115122646,0.07983735,-0.09552979,0.050311927,0.009708823,-0.14153713,0.0021769914,-0.11961173,0.020779653
-0.01753997,-0.18827254,0.12520997,0.21783258,-0.2356402,-0.07090956,-0.056711864,-0.044389233,0.062048882,-0.07804811,-0.09204381,-0.10925898,0.1089656,0.025803223,-0.43516618,0.07350205,0.0400267,-0.039689258,0.12456011,-0.31783053,0.08184026,0.023674637,0.106328115,-0.042935986,0.0017300219,-0.05550207,0.06424489,0.30893764,0.06399887,0.11740738,-0.06638619,0.018388674,0.03245511,-0.13208877,-0.03787197,-0.112901405,0.119327456,-0.099506855,0.014364459,-0.14360382,0.13234133,0.16786577,-0.16627312,0.049240604,-0.019619726,-0.02071099,0.10187148,0.025436014,0.23173608,-0.159776,-0.17713833,-0.277949,0.11202581,-0.17270073,0.1705995,-0.010555349,0.1380939,-0.11766229,-0.20895787,-0.10845909,0.1638119,0.0013475153,-0.1353008,0.007937922
-0.21626249,-0.28333932,-0.23130845,-0.064248405,-0.26087907,-0.37635046,0.007407193,-0.18339248,-0.04898113,-0.059998434,0.028062249,0.22410874,-0.8369212,-0.006727886,-0.10736367,-0.015604516,-0.07074956,0.006136841,0.058551323,-0.046164226,-0.1350919,-0.16410486,-0.050675254,-0.10322191,-0.099373825,-0.00588722,-0.40894166,0.07095314,-0.09810462,-0.15965205,-0.03955733,-0.32703805,-0.0603708,-0.06672137,-0.5452223,-0.23386693,0.25323132,-0.17082231,-0.42198056,-0.21054663,-0.21361282,-0.18930405,-0.7099646,-0.1798718,-0.17246032,0.061089125,-0.21461457,-0.08455226,0.30282733,-0.22068708,-0.16226606,0.31024736,-0.050268006,-0.107988894,-0.06613615,0.019556282,-0.26447666,-0.049956836,-0.18767788,-0.04873693,-0.26199913,0.033050265,-0.048419885,-0.08096978
0.059950892,-0.11102241,-0.09040276,0.20148702,0.09144442,-0.07152289,-0.089974694,-0.015493454,-0.06737242,-0.024993772,0.08938422,-0.0074264877,-0.058700338,-0.072366945,-0.100208,-0.18648523,-0.11626554,-0.06306646,-0.20480858,-0.05317561,-0.1341319,0.19601884,-0.04708403,-0.13347521,-0.060683597,0.14669771,0.050944105,0.059261143,-0.064987436,0.07306165,-0.07354539,-0.07433373,0.03312733,0.0026879944,-0.058792427,0.01576767,-0.10587786,-0.20730163,0.16542266,-0.012217134,-0.13804254,-0.15133493,0.136902,-0.040046923,0.0007638031,0.04481671,-0.011636401,-0.08622427,0.019287884,-1.75402e-05,-0.06971591,-0.10363363,-0.04392753,-0.17610796,-0.012351407,0.10312834,-0.04473537,-0.124034025,0.032682136,-0.21993375,0.008508495,0.17820208,-0.013827088,-0.060746968
