0,1,2,3,4,5,6,7,8,9,10,11,12,13,14,15,16,17,18,19,20,21,22,23,24,25,26,27,28,29,30,31,32,33,34,35,36,37,38,39,40,41,42,43,44,45,46,47,48,49,50,51,52,53,54,55,56,57,58,59,60,61,62,63,64,65,66,67,68,69,70,71,72,73,74,75,76,77,78,79,80,81,82,83,84,85,86,87,88,89,90,91,92,93,94,95,96,97,98,99,100,101,102,103,104,105,106,107,108,109,110,111,112,113,114,115,116,117,118,119,120,121,122,123,124,125,126,127,128,129,130,131,132,133,134,135,136,137,138,139,140,141,142,143,144,145,146,147,148,149,150,151,152,153,154,155,156,157,158,159,160,161,162,163,164,165,166,167,168,169,170,171,172,173,174,175,176,177,178,179,180,181,182,183,184,185,186,187,188,189,190,191,192,193,194,195,196,197,198,199
0.0,-0.66030216,-1.7363642,-0.3645735,0.0,-0.0,0.0,-0.87520933,0.0,0.77535266,-0.0,-0.0,-0.0,0.0,-0.05136931,-0.0,-0.0,-0.16353308,-0.34239766,0.0,0.4687737,0.0,-0.6691451,-0.0,-0.587413,0.0,-0.0,0.0,-0.0,-0.0,-0.6435665,-0.45442456,-0.69613814,0.0,-0.0,-0.58193564,0.0,0.0,-0.0,0.0,-0.0,0.0,-0.38025463,0.35994807,-0.0,-0.29004326,-0.7216565,0.0,-0.0,-0.0,0.0,-0.0,-1.138618,0.0,0.0,-0.0,-1.3941579,-0.36318436,0.0,-0.0,0.7300371,-0.0,-0.0,0.0,-0.7557322,0.0,0.0,-0.47442883,-0.6651582,-0.76225287,0.0,-0.6719955,-1.3818883,-0.0,-0.52733314,0.0,-0.0,0.0,-0.0,-0.08834884,-1.2015127,0.0,-0.57814384,-1.0844806,-0.0,0.0,-1.09963,0.0,-0.0,0.0,-0.0,-1.4184452,-1.4514496,0.0,-0.7091615,-0.3189629,0.0,0.0,-0.0,-0.0,-0.0,0.0,-0.0,0.0,1.2187545,-0.43518478,-0.5187015,-0.0,0.0,-0.0,0.0,-0.0,0.0,-0.8478339,0.0,-0.2898087,0.0,-0.0,-0.42346722,0.0,-0.4902161,-1.4020973,0.0,0.49087408,-0.0,0.0,-0.0,0.0,-0.0,-0.0,-0.0,0.640815,0.0,0.85437477,-0.0,-0.0,-0.0,0.0,-0.0,-0.0,-0.0,0.0,1.1826668,0.0,-0.0,0.0,0.0,0.0,-0.0,0.4533699,-0.505812,-0.0,-0.49581456,-0.42691505,-0.71988606,0.0,-0.5433728,-0.4099327,-0.6365705,0.8819513,0.0,-0.0,-0.3437853,-0.13351291,0.0,-0.0,0.0,-0.5744281,0.0,-0.3454784,-0.5808996,-0.0,0.0,-0.0,-0.21363641,-0.0,-1.2159169,-1.1535689,0.0,-0.0,0.0,-0.0,-0.746016,0.0,-0.44254985,-0.46397483,0.0,0.0,0.0,-0.40301138,-0.0,0.0,-0.23850986,0.0,0.0,0.0,0.0,0.0,-0.0,-0.5845416
0.0,0.0,0.0,-0.9600107,-0.0,0.0,-1.1967797,-0.55784094,-0.0,-1.0011973,0.0,-0.64909893,0.0,-0.86743927,-0.6158982,0.0,0.0,-0.7593597,-0.0,-1.3343085,-1.3520429,-0.0,-0.22255786,-0.0,-0.0,-0.0,0.0,-0.888871,-0.59040785,-1.0474666,0.0,0.0,-0.0,-0.0,0.0,-0.16306607,-0.2577439,-0.9770693,-1.2721022,0.0,-0.30146587,-1.1615927,-1.0168573,0.0,0.0,-0.86431307,-0.7491879,-0.86978465,-0.33148056,0.0,0.0,0.0,0.9033143,-0.0,-1.2956601,0.0,-0.0,0.35750252,0.93777263,-0.8028524,-0.0,-0.0,0.0,-0.0,-0.7272607,-0.0,-0.0,0.0,-0.0,-0.0,-0.0,0.0,-0.0,0.0,-0.0,0.0,0.77723765,-0.0,0.0,-0.0,0.0,-0.0,-0.6724238,-0.0,0.0,-0.0,0.0,-0.0,0.9365906,0.0,0.88349223,1.4310571,-0.0,-0.0,-0.0,0.0,-0.0,0.70010835,0.0,-0.8853198,-0.81657696,0.0,1.3633698,0.0,-0.84858507,-0.0,0.71557736,0.0,-0.0,-0.66405535,-0.1741593,-0.0,-0.0,0.0,-0.41655838,0.0,0.0,0.38888532,0.0,-0.0,0.5470262,-0.0,-0.0,0.37298703,0.0,-0.32828665,0.0,1.429781,1.3388782,0.0,0.0,0.0,-0.0,-0.14786409,0.0,0.6880121,0.0,-0.62110144,0.0,0.4842916,-1.4086744,-0.6314085,-0.5175693,-0.0,0.17291294,0.90992177,-0.5340731,-1.4597387,0.0,0.9682605,-0.7083909,0.0,0.0,-0.9473945,-0.63590086,0.0,-0.5609979,0.0,-0.0,-1.7477454,0.0,-1.6052629,-0.0,-0.6579402,-0.6069159,0.0,-0.0,0.0,-0.9858562,-1.114259,-0.80987537,-0.813211,-0.0,-0.8375904,-0.0,-0.36082202,0.0,-0.31581542,-0.095182285,-0.6920158,0.0,-0.0,-0.5946138,-0.0,0.79231226,-0.99463975,-0.76584363,0.0,-0.7954563,-0.61969227,0.0,-0.0,-1.0148973,-1.0841993,-0.0,0.0,-0.6668876,-0.0,-0.6386322,-0.42264867
0.6314776,0.14037015,-0.0,0.0,0.0,-0.0,-0.6518792,-0.7433262,-0.85278094,-0.0,-0.87512344,0.0,1.4320775,0.0,1.3923744,0.4620208,0.0,-0.0,-0.0,-0.0,1.1100315,0.7409901,0.5357032,0.0,-0.0,-0.0,0.0,-0.0,0.9848976,0.5222506,0.0,-1.2488579,-0.0,0.0,0.0,0.25135854,-0.15333869,-0.0,0.0,0.0,-0.0,-0.0,-0.0,0.0,-0.0,-0.47742462,1.2261276,0.0,0.29577368,0.0,0.98079085,0.6636054,1.3894162,0.0,0.0,-0.0,0.0,0.8016305,0.07293239,0.0,0.9826415,1.1668297,0.0,0.0,0.21078108,0.0,0.0,0.6345208,0.37987524,0.0,0.0,0.0,0.0,1.2658868,-0.452269,0.92862326,0.0,-0.0,0.0,0.0,0.14871523,-0.0,0.22468574,0.0,-0.0,0.5731434,-0.0,-0.0,0.0,0.99924093,0.0,0.030215705,-0.0,0.75536686,-0.0,-0.0,0.0,0.0,0.0,0.14214344,-0.0,-0.0,-0.0,0.0,0.0,-0.0,0.9580008,-0.0,-0.0,-0.45286277,-0.0,0.0,-0.4727423,0.31486207,-0.0,0.0,-0.0,0.85160774,-0.0,0.0,0.0,-0.0,-0.0,0.9857946,-0.9260862,-0.0,-0.0,-0.3773055,0.0,1.4860644,0.0,0.9822601,0.0,0.0,-0.0,-0.0,-0.0,-0.63684994,-0.7265664,0.0,0.0,-0.386425,-0.0,0.0,0.0,0.0,-0.38817865,-0.0,-0.0,-0.0,0.61748123,2.0801234,1.1519165,0.0,0.31142893,0.0,-0.50007415,0.0,-0.0,0.7663201,0.80990773,0.0,0.0,0.0,0.98172677,0.0,0.0,0.18558216,0.8511058,-0.0,0.0,1.5509317,0.7449411,0.37448835,-0.0,0.0,0.0,-0.0,0.0,0.0,0.7389972,0.0,0.0,0.26012975,0.0,0.44982916,-0.0,-0.0,0.0,0.6724393,0.987255,-0.0,-0.0,0.0,-0.0,-0.0,1.0181191,0.0,0.47374487,-0.0
3.0225914,0.0,-0.61222637,-0.0,-0.0,-0.8513807,-0.7035788,-0.0,-0.5175041,0.0,0.0,-0.0,0.0,-0.0,0.9679902,0.0,0.0,-1.2721761,-0.39611638,-0.0,0.42549798,-0.0,-0.0,0.0,0.6495727,-0.0,-1.1455067,-0.0,0.0,-0.7220791,0.0,0.0,-0.0,-1.0558299,0.0,-0.0,-0.0,-0.0,-1.082118,0.0,0.0,-0.0,-0.0,-0.8405858,0.0,-1.4702607,0.0,-0.30368212,0.0,0.0,1.3567525,0.0,0.0,-0.0,-0.5688558,0.0,2.8325055,0.65229434,-0.0,0.0,-0.5984826,-0.0,0.0,0.22509311,-0.0,-0.0,-2.2636218,0.0,-0.0,-0.26060975,-0.0,0.0,0.9229387,0.0,-0.0,2.2005875,0.0,-0.0,0.0,0.48276523,0.0,0.0,-0.0,-0.0,0.0,-0.0,0.786743,-0.0,1.259804,0.0,0.0,0.8765254,-0.0,-0.0,-0.0,0.0,1.287468,0.80858225,0.0,0.2700105,0.0,0.0,-0.79690516,-0.0,-0.0,0.71922344,0.0,-0.601141,-0.0,0.0,0.57899714,-0.0,-0.0,0.058229856,0.0,-2.6349037,-1.5694411,-0.43727505,1.2986964,-0.0,-0.0,-0.0,0.45514488,0.0,0.0,-0.122700915,-0.40570787,-0.0,0.0,0.0,-0.61233944,0.0,-0.0,1.175816,-0.5840443,1.2340664,-0.0,0.9924195,0.3945901,0.0,0.0,0.4927813,-0.0,-1.7605746,-0.72630703,-0.0,-0.0,-0.0,0.0,0.49347,1.8013817,-0.9162557,0.0,-0.0,-0.0,0.0,-0.0,0.0,-0.60442644,0.0,-0.83720183,-0.0,0.12454396,-1.0434084,0.16119057,0.0,-1.2155334,-0.80706316,-0.0,-0.64037126,-0.0,-0.0,0.3140685,-0.61777574,-0.0,-0.623633,0.0,-0.0,-0.0,0.27577785,-0.07572633,0.0,-1.2099767,-0.0,-0.50828576,-0.0,-1.0945776,0.63636756,0.28810713,0.0,0.0,0.99897057,-0.0,-1.6721135,-0.0,-0.0,1.7302088,-0.29562086,0.0,0.0
-0.0,0.0,4.222907,-0.0,0.0,-0.0,-0.0,0.0,0.0,5.81742,0.6913285,0.0,-0.0,-0.0,1.3910185,0.0,0.0,-2.4368606,-0.0,-0.0,0.3945823,-2.8875177,-0.0,-0.0,-0.0,-0.0,0.0,-0.0,0.0,0.0,-0.0,-0.0,0.0,0.0,-0.0,-0.0,0.0,-0.0,0.7177667,-0.0,1.0667057,0.0,-0.0,-0.0,-0.0,-0.0,0.0,-0.08349677,0.64750373,0.0,-0.0,0.0,-0.0,-0.4680039,-0.0,-0.0,-0.0,-2.1120942,0.0,5.464963,0.0,0.0,0.0,0.0,-0.0,-0.6027846,-0.0,-0.0,-0.95124805,-0.5965481,0.0,0.0,0.0,0.0,0.0,-0.5974561,-0.0,-0.0,0.0,0.0,-0.0,-0.0,0.0,0.0,0.0,-0.0,0.054101177,-0.0,2.1434476,-0.0,-1.0416977,0.0,0.0,-0.0,-0.0,-0.0,0.0,0.0,0.0,-1.2833791,0.0,-0.26981965,-0.0,-0.0,0.0,0.35967687,-0.0,-0.0,-0.2400016,-0.0,-0.0,0.0,0.0,-0.5340032,-0.0,-0.0,-0.0,-0.0,0.0,-0.0,0.0,-0.0,-0.0,0.0,0.0,-0.0,-0.0,0.0,-0.0,0.0,0.0,-1.180541,-0.0,0.0,-0.92369604,-0.0,0.0,-0.0,-0.0,0.0,0.9585528,0.0,0.40117228,-0.0,-0.0,0.0,-0.34169114,0.0,0.0,-0.34662426,-0.0,0.0,0.7624804,-0.0,-1.4421418,-0.0,-0.0,-0.0,-0.0,0.0,-0.0,0.0,-0.0,0.33547676,-0.0,0.0,-0.0,0.4979574,-0.0,0.0,0.0,0.0,0.7877496,0.0,0.0,0.0,0.0,-1.7290676,-0.53341305,0.0,-0.0,-0.0,-1.1964128,-0.0,-0.0,-0.0,0.0,-0.0,1.3554275,-0.0,0.0,0.0,-0.0,-0.0,-0.0,-1.783876,-0.7967454,0.0,2.5243592,0.0
-0.0,0.0,0.0,-0.0,-0.0,0.0,-0.0,-0.0,-0.0,0.0,0.0,0.0,0.0,-0.0,-0.0,0.0,0.0,-0.0,-0.0,-1.3623848,0.0,-0.0,-0.34998563,-0.25712505,-0.31697115,-0.0,-1.1652808,-0.0,-0.9693524,0.0,0.45523328,0.0,-0.0,0.65149593,0.2027343,-0.0,-0.0,-0.0,0.0,0.10711986,0.0,0.38630658,-0.8660922,0.0,0.0,0.73940104,0.0,-0.0,0.0,0.0,-0.0,0.0,0.0,-0.0,-0.0,1.8995862,-0.0,-0.0,-0.0,0.0,0.0,0.0,0.0,0.59137076,-0.0,-0.0,-0.0,0.0,-0.0,-0.44466528,-0.0,0.0,0.8887838,0.0,-0.0,-0.878681,0.0,-0.0,0.0,-0.0,-0.0,-0.79136693,-0.0,-0.0,0.0,-0.0,0.0,-0.0,1.3166454,-0.0,0.0,0.0,-0.0,-0.0,-0.0,-0.0,-0.0,-0.57604635,0.0,0.0,-0.463395,-0.0,0.0,-0.0,0.0,-0.0,-0.0,0.7952884,-1.3761027,0.0,-0.0,0.0,-0.0,0.68077594,-0.0,0.7865451,-0.0,0.0,0.0,-0.0,-0.0,-0.0,-0.0,0.0,0.0,0.7111698,0.0,-0.0,0.7401241,0.0,0.0,0.11032049,-0.0,0.0,0.0,0.0,0.0,-0.0,0.0,0.0,0.0,-0.0,0.34327924,-0.0,0.0,-0.84915364,-0.0,-0.0,0.0,0.0,-0.0,-0.16486001,-0.9564994,-0.0,-0.7592605,-0.0,-0.49279377,-0.0,-0.0,0.0,-0.8023903,0.0,-1.224844,0.23430556,-0.0,0.0,-0.0,-0.0,-0.0,-0.9347932,0.0,0.0,-0.43155596,0.0,-0.0,-0.992696,0.0,-0.0,-0.67879283,0.0,0.89579725,-0.0,-0.7503318,-0.0,-0.0,-0.0,-0.7392998,-0.0,-0.0,0.0,0.0,-0.0,-0.0,-0.0,-0.0,-0.0,-0.0,-0.18321283,0.0,0.0
-0.0,0.0,0.0,-0.71950895,-0.0,-1.4802505,-1.3350551,-0.22868453,0.5401819,0.0,0.0,-0.3607201,0.0,-0.7080446,-0.0,0.0,0.3841447,-0.5346526,-0.6356942,-0.0,-1.4683695,-0.0,-0.43035927,0.5219657,-0.0,-0.05379416,-1.0061383,-0.0,0.0,0.0,0.43642142,-0.6545039,-0.0,-0.7016327,0.0,-0.25497934,-0.0,-0.0,-0.5877589,-0.7749448,0.0,-0.0,-0.849136,-0.53331923,0.0,-0.18224351,-0.6178643,-0.5652302,0.0,-0.7205878,0.57533425,0.0,0.74401766,-0.40025875,-0.0,0.0,1.3317249,0.6897341,0.43017244,-1.0208004,0.0,-0.41727647,0.0,-0.0,-0.0,0.88781744,-0.0,0.0,-0.0,-0.0,-0.0,0.0,-0.0,0.0,0.3793631,-0.0,0.0,-0.0,0.0,-0.0,-0.0,-1.2357848,-0.44086117,-0.0,0.0,-0.0,0.0,-0.0,1.3867866,-0.0,0.0,2.0020795,-0.0,-0.0,0.47100782,0.8351217,-0.0,0.38403767,0.0,0.0,-0.5587781,-0.0,0.0,-0.0,0.0,-0.0,0.6980285,0.7577827,0.4364124,-0.8519728,-0.0,0.0,-0.0,0.0,-0.4896928,-0.0,-0.0,0.0,0.0,-0.0,-0.0,-0.0,-0.86768603,0.0,0.0,-0.9099134,0.0,1.2529285,0.0,0.0,0.0,0.0,-0.0,0.0,0.0,0.31262302,0.0,0.41820323,0.0,0.0,0.0,-0.84473735,-0.0,-0.8280484,0.0,-0.0,-0.2519605,-1.072472,0.0,0.0,-0.0,0.51862186,0.057080556,-0.97848403,-0.43175393,-0.94572246,-0.65415365,-0.0,-0.0,-1.1585635,-0.0,-1.68051,-0.0,-0.9934663,-0.0,0.0,-0.0,-0.10152161,-0.9953172,-0.0,-1.4281063,-0.94490165,-0.0,-1.0688645,-0.0,-0.6802687,0.0,-0.0,-0.0,0.0,1.4431627,-1.0745394,-0.9268459,-0.0,-0.0,-0.59050775,-1.2208731,-0.0,-0.0,-0.3215888,0.0,-0.0,-0.39662305,-1.5784917,-0.0,-0.0,-0.0,-0.0,0.0,0.0
0.34132782,0.0,-0.7317127,-0.2153906,-0.0,-0.44514737,-0.39537635,-0.71478003,-1.417596,-0.32533768,-1.169435,-0.02128753,0.44986174,0.0,0.5885853,1.0193114,-0.0,0.0,-0.0,-0.54557097,-0.6844777,-0.59475136,-0.0,-0.0,0.0,-0.3788308,0.0,0.0,-0.7514398,-0.066327855,0.11768055,-0.37831137,-0.0,0.25031385,-0.0,-0.23556031,-0.45671713,-0.0,-0.7867529,-0.34270707,0.0,0.0,-0.52093476,-0.29670897,0.0,-0.95168585,0.0,0.0,-0.6374859,-0.5731842,0.37816414,0.0,-0.8559919,-0.6801163,-0.0,-0.27799407,0.55555105,0.31335324,-0.3912932,-0.0,0.0,0.0,0.42247415,0.0,0.0,-0.0,-0.0,0.1752753,-0.0,-0.0,0.0,0.39553332,-0.0,0.0,0.0,0.0,0.0,0.08569353,0.0,-0.0,0.6807418,-0.5563291,-0.0,0.18964483,-0.20410883,0.0,-0.0,0.9445533,-0.89669144,0.0,0.51811135,0.0,-0.0,-0.28853554,-0.34586492,0.0,0.0,0.0,-0.0,-0.0,-0.66247416,0.0,0.0,0.0,-0.0,0.503984,0.94734186,0.6764561,0.0,-0.0,0.0,-0.29077646,0.0,0.3293291,-0.22570318,0.806561,-0.32356822,-0.0,0.17843,-0.0,0.17960846,0.16990142,-0.2522394,0.4628853,-0.7160544,0.0,0.19013035,0.0,-0.0,0.47896326,0.0,-0.7842703,0.13081193,0.5851492,-0.0,0.0,-0.0,-0.0,-0.0,-0.0,0.0,-0.4766666,-0.0,-0.72888196,0.0,-0.4707146,-0.6913409,0.0,0.21210563,0.2975896,0.0,0.0,-0.530684,-0.0,-0.0,-0.2843812,-0.63541627,-0.3763018,-1.5397143,-0.38828525,-1.0836145,-0.0,0.0,0.0,0.74926096,0.9133372,-0.0,0.0,-0.7998315,-0.0,-0.71672463,0.0,-0.0,-0.16246745,0.0,-0.24629697,0.0,0.0,-0.7849859,0.6382449,0.22431642,-0.82934827,-0.95811224,0.45575643,-0.0,-0.4664993,-0.8505974,0.8306791,-1.2877946,0.08259513,0.6275915,0.0,0.0,0.0,0.0,-0.37719512,0.0,0.3044797,-0.05841047,-0.0
-0.0,0.0,0.0,-0.53895557,1.234358,-0.9546051,-0.0,0.31966084,-0.0,-0.24879554,-0.70408666,-0.6310711,0.0,-0.0,-0.0,0.0,0.0,0.7214064,-0.0,-0.0,-1.4915141,-0.0,-0.0,-0.17594308,-0.0,-0.0,-0.908583,-0.2562176,-1.1217178,0.0,0.0,0.0,-0.0,-0.0,-2.002424,-0.8209012,-0.0,-0.0,0.0,-0.5735427,0.2208967,-0.0,-0.0,0.0,0.0,-0.0,0.0,1.2846237,1.7888086,-1.2063632,-0.0,0.0,-0.59406096,-0.76938146,-0.0,0.0,-0.0,0.8755705,-0.0,-0.35119823,0.0,0.0,0.0,-0.0,-0.0,-1.1862988,-0.0,0.0,-0.0,-0.0,-0.28430215,0.0,-0.0,0.0,-0.0,-0.0,-0.51360667,0.61255336,0.0,-0.0,0.34352344,-0.0,-0.0,-0.0,0.0,-0.0,0.0,1.0092274,0.0,-0.47406465,0.0,0.0,-0.0,-0.0,-0.0,0.9277148,0.3694139,2.2061875,0.8094137,0.0,0.0,-0.0,0.0,-0.0,0.0,-0.0,-0.0,0.0,-0.0,0.0,-0.0,0.0,-0.0,-0.4490219,-0.0,-0.0,-0.0,0.0,-0.07626201,-0.0,0.22455719,0.18978179,-0.0,-1.4459338,0.50033945,-0.0,0.0,0.0,0.0,0.0,0.0,-0.4571629,-0.0,0.3752389,0.0,0.0,-1.5304765,-0.0,0.0,-0.7293127,0.0,-0.4101474,-0.0,-0.0,0.0,-0.0,0.2707904,1.3105472,0.0,0.0,-0.0,0.0,-0.7110583,-0.048184507,-0.0,-0.34921283,0.9402662,-0.0,-0.0,-0.45129874,-1.5957987,-0.0,1.098172,-0.0,0.387285,0.0,-0.0,-0.0,-0.0,-0.0,-0.0,-0.0,-0.0,0.0,-0.0,-0.57900333,0.0,0.29679218,-0.0,-0.0,0.98596865,0.0,-0.0,-0.8265616,-0.0,-0.8866916,-0.0,0.8028696,-0.319469,-1.060197,0.6657575,1.6503726,-0.0641437,-0.0,-0.0,-0.0,-0.0,1.3815787,0.0,-1.1834459
-0.0,-0.0,-0.0,0.28556478,0.32762998,0.7887281,0.24897265,0.44664958,1.5394505,0.0,1.4313971,-0.0,0.4089186,0.7954693,0.6877516,-0.0,0.5026995,0.33706206,0.0,0.55238706,0.6627959,0.9738928,0.46754003,-0.0,0.30885932,0.78550184,0.58270025,0.0,-0.0,0.55440915,-0.0,0.60149395,0.31329662,-0.0,0.28532392,0.34952128,0.0,0.3723881,1.0762634,-0.0,0.0,-0.0,0.6403882,1.1002657,0.8578217,0.6552352,0.96387565,1.0962721,0.5942156,0.91192544,0.0,0.4165243,0.0,0.2876951,0.29593787,0.2977123,-1.4476429,-1.7999988,0.35894984,0.39593357,0.28816527,-0.0,-0.0,-0.0,-0.0,-0.0,0.27854657,-0.0,0.0,0.24210039,-0.0,0.36755693,0.25103286,-0.37251213,0.0,0.46516263,-0.0,-0.0,-0.0,0.45936972,-0.7750929,0.2941941,0.0,0.49409518,0.3643353,0.26147705,0.56026804,-0.2927954,0.40529275,-0.0,0.0,0.0,0.32629997,0.6421739,0.7584308,0.0,0.62604636,-0.0,0.26539767,-0.0,0.0,0.0,0.3106265,0.525212,-0.0,0.0,-0.6633734,-1.1224362,-0.5833296,0.0,-0.0,-0.0,-0.0,0.0,0.0,0.26659188,0.0,0.0,0.0,0.0,0.36577207,-0.0,-0.0,0.2819528,0.0,0.0,0.0,-0.4123075,0.25220025,-0.33131096,-0.0,0.0,-0.0,-0.0,0.0,0.0,0.0,0.35317138,-1.1175973,-0.0,-0.0,0.30875897,-0.0,-0.0,-0.0,0.5474729,-0.0,0.0,0.0,0.549032,-0.0,-0.0,0.0,0.6404118,0.49551246,0.0,-0.0,-0.0,0.87037534,-0.30085838,0.0,-0.0,0.2963728,0.71265525,0.474617,-0.0,0.53158766,-0.0,0.0,0.0,-0.0,0.7380037,0.6473255,-0.6625877,-0.0,-0.0,-0.0,-0.0,-0.0,0.44645518,-0.5329695,0.66914284,0.69543785,0.25002983,-0.0,0.0,0.0,-0.300656,0.4785886,0.5340839,-0.38977578,0.0,0.35963744,0.5444483,1.0423833,0.0,0.47504953,-0.0,0.7960226,0.0
-0.0,1.1404759,2.6705961,1.6543921,-0.0,-0.68374884,-1.5532961,-0.0,-0.0,1.1145092,0.0,1.1528267,0.0,-0.0,1.5803661,0.0,0.0,-0.0,0.6203834,-0.0,0.0,0.72408926,0.27899355,0.0,0.362493,1.3521504,0.0,-0.0,0.25340623,0.0,0.0,0.46696424,-0.0,-0.0,0.32150495,0.9919087,-0.65777427,-1.2290205,0.0,-0.0,0.0,-0.0,-0.0,1.0992981,0.0,1.4545994,1.1697878,1.4541026,0.0,0.6919301,-0.0,0.78656805,0.9324238,-0.0,-0.0,0.0,1.1942587,0.19564062,-0.0,0.0,0.0,0.6532879,-0.1808401,-0.0,0.91377974,-0.0,-0.0,0.0,0.8485182,0.2555156,-0.3186317,0.77094185,1.7604003,0.0,-0.0,-0.0,0.0,-0.88355356,0.0,-0.0,-0.0,-0.0,-0.0,-0.0,0.0,-0.0,0.0,-0.4529106,0.0,-0.0,0.0,0.0,-0.0,0.47755164,-0.0,-0.0,-0.0,-0.0,-0.31846082,0.47877142,0.0,-0.0,0.0,-0.0,0.0,0.5406078,-0.0,0.0,0.37436524,0.0,-0.0,0.0,-0.0,0.0,-0.9919708,-0.0,-0.0,0.0,1.0133864,-0.0,-0.0,-0.0,-0.0,-0.9721185,0.0,-0.0,0.96298426,-0.0,0.0,0.0,0.16104709,0.0,0.7445301,0.0,0.0,0.0,0.0,0.2385614,0.0,-0.9088166,0.0,-0.0,-0.0,-0.0,1.1728799,-0.5994061,-0.0,-0.0,0.0,-1.6227219,-0.4905713,1.005677,0.60120124,1.3131406,-0.0,-0.0,-0.0,-0.0,0.17312278,1.080704,-1.3340334,0.0,-0.0,0.124420054,1.1967645,0.0,-0.0,-0.0,0.663866,-0.0,0.0,0.5491721,-0.0,0.0,-0.0,0.0,1.3286209,-0.0,0.44982067,0.0,-0.0,0.18474601,0.2709738,0.80346674,-0.0,0.51902485,-1.1489031,-1.5836838,-0.02292309,1.5844402,0.0,-0.8314273,-0.0,-0.0,-0.0,-0.0,-0.0,-0.0,0.0,1.0805761
-0.0,-0.0,-1.4359334,-0.0,0.022253599,-0.0,-0.0,0.0,-0.8404377,-0.0,-0.0,0.0,0.0,-0.54760385,-2.2923028,-1.920257,0.0,-0.0,0.4238093,-0.0,-1.5677453,-2.9527214,-0.17079234,-0.684138,0.3177658,-0.035472002,-0.29801157,0.122246,-1.0492541,-1.420388,0.0,0.20042093,-0.37764034,0.0,-1.0393829,-0.0,-0.0,-0.0,-0.0,-0.0,-2.5891058,-4.785046,-0.0,0.6251613,-0.0,-1.3858666,-0.54467213,-5.9687324,0.0,1.0947161,-0.0,0.0,0.0,-1.3174146,0.69471455,-0.0,-0.0,0.16836527,-0.0,0.24845724,0.0,0.0,0.0,-0.0,-0.0,-1.7844714,-0.0,-0.50572103,-0.15739638,-2.7455091,-0.56151235,0.0,0.0,0.0,-0.0,0.3751357,-0.24117191,-0.0,-2.8167193,0.0,-0.0,1.0184277,0.0,-0.21551123,-0.86676645,0.8383035,0.0,-0.0,0.6069784,-0.0,0.0,0.71723855,-0.0,-0.0,-0.0,-0.6969917,-0.0,-0.32762462,0.0,0.30794632,0.0,-0.6957429,0.3419508,-0.0,0.0,-1.7163138,-0.0,0.7359509,-1.3125836,1.494227,-0.43521917,0.0,-0.543103,1.3843884,-0.0,0.5737548,0.7363695,2.5877912,-0.0,-0.0,0.0,1.0471442,-0.0,0.18452479,-0.3846432,0.95121795,-0.0,0.0,0.91013587,0.0,0.0,-0.19917072,-0.0,0.0,0.07654675,-0.0,0.7669953,0.4079208,-0.0,0.10163565,0.0,3.7580402,-0.0,1.9043409,-0.0,1.3217137,-0.0,-0.088709526,0.0,-0.74426913,-0.0,-0.0,-1.9801023,0.0,0.0,-0.0,-0.0,-0.0,-0.8163441,0.0,-0.0,0.0,-1.3824065,0.0,-0.95046926,-1.7410214,-0.0,-0.0,1.430694,0.07342332,-1.1200113,-0.69320923,1.0066458,0.0,-1.1624243,0.13310993,-0.85494393,0.1975382,-2.07077,0.0,-0.19094023,-0.9408324,0.0,0.04554493,-0.43131295,-0.976753,-0.0,0.0,-0.0,-0.0,0.0,0.084151104,-0.0,-0.72493434,-1.3970191,-2.5266242,-0.5227539,-0.6659262,0.0,0.5323951
-1.7817763,-0.28983364,-0.0,0.0,0.0,-0.0,0.0,-0.671245,-0.8687406,-0.0,-0.0,0.0,-0.0,-0.87347186,-1.3316323,-0.0,0.0,0.0,0.76763064,0.0,-0.0,0.0,0.0,-0.53994274,0.0,-0.0,-0.0,0.0,-0.0,-0.0,-0.6110119,-0.0,0.0,0.0,-0.0,0.0,-0.66891664,0.0,-0.0,-0.0,-1.5145004,0.0,0.0,-1.0306013,-0.0,0.0,-0.57096255,0.0,-0.0,-0.4007115,-1.0849874,0.0,-0.0,0.0,-0.0,-0.0,-0.0,0.0,0.0,-0.0,0.0,0.0,-0.0,-0.6209895,0.0,0.0,1.5616925,-0.0,0.6163192,0.0,0.0,-1.2300115,0.0,-0.0,0.0,-0.0,-0.5350914,0.0,-0.0,-0.9990921,-0.0,-0.0,0.0,0.0,-0.0,0.0,-0.0,-0.0,-0.0,-0.0,-0.0,0.0,0.5953102,0.0,-1.0936687,0.0,0.0,0.0,-0.0,-0.0,0.413286,-0.0,-0.0,1.0711129,0.0,0.0,-0.0,-0.0,0.0,-0.0,0.0,0.0,0.0,-0.0,-0.0,-0.0,-0.0,0.76595485,-0.0,-0.11416155,0.0,0.0,0.0,0.47127554,-0.0,0.0,-0.34575236,0.7595803,-0.0,0.34469828,-0.0,-0.23668885,-0.28816164,0.0,-0.0,-0.0,0.0,-0.0,-0.0,0.5461768,-0.0,0.0,0.0,-0.0,-0.6572112,1.2871635,0.0,0.0,0.5667405,-0.0,-0.5384429,-0.0,-0.0,0.0,0.0,0.6692545,-0.0,-0.0,0.0,-0.0,-0.0,0.0,0.74274707,0.0,-0.56569403,1.1319617,1.6525441,0.0,3.130841,0.0,0.0,0.0,0.0,0.0,0.0,0.0,-0.0,-0.96789306,0.0,-0.44316274,-0.89819634,-0.0,0.79253393,0.0,1.3062556,0.0,0.0,-0.7248634,-0.0,-0.0,-0.8755492,-2.0568979,0.0,0.43547112,0.0,0.0,-1.4019282,0.0,-0.08605268,-0.0
-0.29707828,0.0,0.0,-0.0,-0.0,-0.94924045,0.6428349,-1.7799864,-1.1079365,-1.2315706,0.0,0.47795087,0.0,-0.0,-0.0,0.21640117,2.1749966,-2.4294941,-0.0,-0.65517884,0.0,-0.0,-0.0,4.547704,-2.5335526,0.0,0.0,-0.0,-0.35656986,0.0,2.10999,1.3203173,1.2479805,-0.0,0.0,-0.753933,-0.74574715,0.6296048,-1.9752742,-1.1117364,0.0,-0.0,-0.0,0.0,-0.0,-2.3278978,0.0,-0.0,0.0,-1.1564698,-0.0,0.0,0.0,-0.0,-2.8296936,0.0,0.4849416,-2.0784523,0.9218742,-6.081995,0.0,-0.0,0.0,-0.0,0.71027505,-0.6087898,-0.5908821,-1.9583039,-0.8301439,0.1023489,-0.0,0.0,-0.0,0.44227478,-0.0,0.0,0.0,-0.0,0.0,-1.2268465,-0.6715343,0.6739773,-0.0,-0.0,0.0,-0.0,0.0,-0.9468534,-1.2209278,0.0,0.94115406,-0.0,-0.0,-0.0,-0.0,-1.7757894,2.6058562,-0.6486208,-1.3146733,-0.40033877,0.0,0.0,1.7969214,0.0,-0.0,0.10537456,0.5092719,0.0,-0.0,0.0,0.5165352,-0.0,-0.31986853,0.83955187,-0.23151277,-0.5740168,0.0,1.9087452,0.0,-0.0,0.045495044,0.0,-0.48081502,0.62897676,-1.6100324,-1.6728147,-0.83194125,-0.0,0.61958253,0.0,0.8234722,0.0,-2.3055725,0.28890663,0.0,1.7730207,2.1270707,0.0,-1.0789495,0.0,-0.89848244,-0.0,0.52641505,0.0,0.0,0.06316102,-0.0,0.6557751,0.0,0.0,-0.8292182,0.3161648,-0.16644451,-0.0,-0.0,-1.2909632,-0.8195528,-1.4694914,1.5420079,-0.020264044,-0.55784446,-0.0,-0.0,-0.0,-0.0,0.0,-1.2985197,-2.9492416,-1.5342647,-0.0,-1.2107189,-0.0,-3.5202894,0.5572152,-0.33591673,0.0,0.0,-0.0,0.0,0.0,1.2014873,0.30598128,1.2795516,-0.0,-0.0,-0.0,-0.0,-0.88649553,-1.8952955,0.0,0.0,-0.46093038,-0.0,0.0,-0.0,-1.7461791,3.2331405,-2.7232707,0.5854734,0.0
-0.83043295,-0.0,-0.0,-0.18975757,0.0,0.9666358,0.0,0.0,0.0,-0.0,-0.0,-0.19600993,-0.0,0.0,0.0,-0.0,-0.0,-0.28138462,-1.1166457,0.0,-0.0,-0.26063186,0.0,-0.0,0.0,-1.5306777,0.43512425,0.48168615,-0.0,-0.0,0.47015896,-0.0,0.0,0.0,-0.0,0.0,0.0,0.0,-0.0,0.0,-0.0,0.0,0.0,-0.0,-0.0,-0.60923266,-0.0,-0.4257672,-0.0,-0.0,0.37119174,-0.0,-0.0,-0.72390383,0.0,-0.0,0.0,0.0,0.0,-0.0,-0.0,-0.0,-0.0,0.0,0.0,0.0,0.0,-0.48936707,0.0,-0.54656804,0.0,-0.0,-0.8022637,1.5293878,-0.37487802,0.0,-0.0,0.0,-0.0,0.0,0.0,0.0,0.0,0.0,-0.0,0.0,-0.9064529,0.0,-0.0,0.0,-0.0,-0.0,-0.83439475,0.0,0.0,-0.6523333,0.0,0.0,-0.0,-0.0,-0.0,0.0,-0.0,0.0,-0.0,0.0,0.0,-0.0,0.0,-0.0,0.0,-0.0,0.0,-0.0,0.0,0.0,0.0,-0.0,-0.0,0.0,0.0,0.0,0.0,1.3611314,-0.0,0.0,-0.0,0.0,-0.0,-0.0,0.2684185,-0.0,0.0,-0.0,-0.0,-0.0,-0.0,0.0,-0.0,-0.0,-0.0,0.0,0.0,0.0,-0.0,-0.39244002,0.0,0.88523877,-0.0,-0.0,0.0,-0.0,-0.0,0.0,-0.5280365,0.0,0.0,0.0,-0.6190812,-0.0,0.0,-0.0,-0.48012754,-0.09100291,-0.39517352,-0.0,0.0,-0.29236776,-0.8385944,-0.3449532,-0.0,-0.0,0.0,0.31260285,0.0,-0.6079211,-0.92580146,0.0,0.0,-0.0,0.32562265,-0.0,-0.2803288,0.0,-0.40931666,-0.4953747,0.0,1.5394593,-0.0,-0.93036383,0.5336974,0.70694065,-0.33565208,-0.4577053,0.0,-0.9873375,0.0,0.0,-0.0,-0.6451383
-0.0,-0.0,-0.0,-0.0,-0.0,0.0,-0.0,-0.0,-0.0,-0.0,0.0,-0.0,-0.0,-0.0,-0.0,-0.0,0.0,-0.0,0.0,0.0,0.0,0.0,-0.0,0.0,0.0,-0.0,-0.0,-0.0,0.0,-0.0,-0.0,-0.0,0.0,-0.0,-0.0,-0.0,-0.0,0.0,0.0,-0.0,-0.0,-0.0,0.0,-0.0,0.0,-0.0,0.0,0.0,-0.0,0.0,0.0,-0.0,0.0,-0.0,-0.0,0.0,-0.0,0.0,-0.0,0.0,-0.0,-0.0,-0.0,-0.0,-0.0,-0.0,-0.0,-0.0,0.0,0.0,-0.0,0.0,-0.0,0.0,0.0,-0.0,-0.0,-0.0,0.0,-0.0,-0.0,-0.0,0.0,0.0,0.0,-0.0,-0.0,0.0,0.0,-0.0,0.0,-0.0,0.0,-0.0,0.0,-0.0,-0.0,-0.0,-0.0,0.0,-0.0,0.0,0.0,-0.0,-0.0,-0.0,-0.0,0.0,-0.0,-0.0,-0.0,0.0,0.0,-0.0,0.0,0.0,0.0,-0.0,-0.0,0.0,0.0,-0.0,0.0,0.0,0.0,0.0,-0.0,0.0,0.0,0.0,-0.0,-0.0,-0.0,0.0,0.0,0.0,0.0,-0.0,0.0,0.0,-0.0,0.0,0.0,0.0,0.0,-0.0,-0.0,0.0,0.0,0.0,-0.0,-0.0,-0.0,0.0,-0.0,0.0,0.0,0.0,-0.0,-0.0,-0.0,0.0,-0.0,-0.0,-0.0,-0.0,-0.0,-0.0,0.0,0.0,0.0,0.0,0.0,0.0,-0.0,-0.0,-0.0,-0.0,0.0,-0.0,-0.0,0.0,0.0,-0.0,-0.0,0.0,0.0,0.0,0.0,-0.0,-0.0,-0.0,0.0,0.0,0.0,-0.0,-0.0,0.0,0.0,0.0
0.61216587,0.0,-0.6577004,-0.0,-0.0,0.0,0.0,0.0,-0.6998478,-0.0,-0.10030974,-0.0,-0.0,-0.0,-0.42053047,0.22112952,0.0,-1.0835122,-0.0,-0.0,-0.0,0.0,0.0,-0.7277202,-0.0,0.0,-0.0,-0.0,0.0,-0.0,0.37306598,0.122919776,-1.171452,0.4002596,-1.0476956,0.7161364,-0.3384087,0.034547273,-0.0,0.0,-0.0,0.42338073,0.07528974,-0.87175363,-0.0,-0.43310735,-0.0,-0.0,0.0,-0.0,0.6670662,0.0,-0.0,-0.0,-0.0,0.0,0.0,0.0,-0.52627873,-0.0,0.0,-0.0,0.66002625,-0.0,0.0,0.0,0.0,-0.0,-0.0,-0.0,-0.103121616,0.0,0.0,-0.0,-0.0,0.6837276,-0.0,-0.5494793,-0.0,-0.0,0.0,0.60181636,-0.27634147,0.031051602,-0.25093108,-0.0,-0.0,-0.9132987,-0.0,0.0,-0.0,0.53609854,0.8077178,-0.0,-0.0,0.0,-0.0,-0.9019825,0.0,0.0,0.0,-0.0,1.4412428,-0.0,-0.0,-0.0,-0.17791381,-0.0,-0.32532334,-0.0,-0.47754326,0.0,-0.688641,0.0,0.0,0.51686984,0.76130664,0.753019,0.0,-0.0,0.0,0.6293687,-0.23881412,0.7383061,0.0,0.5234332,-0.0,-0.38058186,-0.0,-0.0,-0.4324686,0.5063604,0.0,-0.69534975,-0.0,-0.0,0.0,0.87428397,-0.79392105,-0.0,-0.9120888,0.0,-0.0,1.0742984,0.0,0.398235,0.37876788,-1.233484,0.0,-0.0,0.38900542,0.0,0.0,0.0,-0.0,0.0,-0.17862241,0.0,-0.52719736,-0.0,0.0,0.3430333,-0.0,-0.18856475,-0.12835456,-1.2232482,0.0,-0.5158768,0.0,-0.0,-0.11309014,0.0,0.16053362,-1.1085701,-0.0,-0.09630876,-0.36708394,0.5173554,0.0,-0.0,0.0,0.0,-0.60968715,-0.0,-1.1329485,0.24114726,-0.0,0.0,-0.0,-0.0,-0.51390636,0.0,0.96828836,-0.61737305,-0.0,-0.0,-0.0,-0.5585795,0.49394423,-0.0
0.0,-1.187869,-0.20968534,0.0,0.19667035,-0.0,-0.0,0.0,-0.0,-0.44816425,-0.0,-0.091907196,-0.0,-0.0,0.0,-1.1261435,-0.0,-0.48385623,2.597838,-0.0,-0.0,-0.0,1.063491,0.8305317,0.0,-1.5868119,0.0,-0.0,-0.0,0.0,0.0,-0.0,2.3442264,0.0,0.0,-0.0,0.0,0.0,0.0,-0.5467296,0.0,0.0,-0.0,-1.7485296,-0.0,-0.0,0.0,-0.0,0.0,-0.5530778,0.0,0.0,-0.0,-0.0,-0.0,-0.0,-0.0,-0.0,-0.0,-0.0,0.0,-0.0,-0.0,-0.0,-2.5558834,-1.1934252,0.0,0.0,-0.0,-0.0,0.0,0.0,-0.0,0.34749967,-0.0,-0.0,-0.0,-0.0,0.0,0.0,-0.0,-0.0,-0.0,0.2661556,0.0,-0.0,0.0,0.0,0.0,0.0,0.0,0.0,-0.0,-0.0,-0.0,0.0,0.0,0.9411434,0.0,0.0,0.0,0.0,0.0,-0.0,-0.0,-0.47581723,0.0,0.0,0.19220905,-0.0,-0.0,-0.0,-0.0,0.0,0.0,0.0,0.0,-1.8352909,0.0,-0.0,0.0,-0.0,-0.0,0.027907722,-0.0,-0.94159496,-0.6718141,0.3114929,0.0,0.0,-0.0,-0.6512492,0.0,0.0,-0.3671838,0.54203236,-0.0,-0.0,-0.41566005,0.0,-0.0,-0.019022416,-0.0,-0.0,0.0,0.0,-0.44500074,0.4731822,0.0,0.0,0.6999465,0.0,0.26538998,0.0,-0.8643385,-0.0,-0.90323824,-0.0,-0.0,-0.18220128,0.9164074,-0.0,-0.0,-0.12757075,-1.995294,0.0,-0.0,0.0,0.0,0.0,-0.0,-0.053149343,0.0,1.1948906,0.0,-0.0,0.0,0.915134,-0.0,0.0,-0.0,-0.0,0.0,-0.0,0.0,1.6473118,0.0,0.0,0.0,0.0,0.0,0.0,-0.0,-0.0,-0.0,0.0,-0.0,0.7534984,-1.1829972,0.0
0.0,-0.0,-0.0,0.0,-0.0,0.0,0.0,-0.0,0.0,0.0,-0.0,0.0,-0.0,-0.45072863,0.0,0.25409782,0.0,-0.0,-0.0,0.0,0.0,0.0,0.0,0.0,0.0,-0.0,-0.0,0.0,0.0,-0.49742416,0.0,-0.0,-0.0,0.260601,-0.34504455,0.27017552,0.0,0.0,-0.0,-0.0,-0.0,0.0,0.0,-0.0,0.0,-0.0,0.0,0.24200733,-0.0,-0.0,-0.0,-0.0,-0.0,0.0,0.0,-0.0,0.0,-0.0,-0.0,-0.0,0.0,0.0,-0.0,-0.44448686,0.0,0.0,0.0,0.0,0.0,0.0,0.0,0.0,0.0,-0.0,-0.0,-0.0,-0.0,-0.0,-0.0,0.0,-0.2766908,0.0,-0.0,-0.0,-0.29107985,0.0,-0.26288956,0.0,-0.0,-0.0,-0.2499261,-0.0,-0.0,-0.0,0.2564008,-0.24967586,0.0,0.0,-0.0,-0.0,0.0,-0.0,-0.0,-0.0,-0.0,-0.0,0.0,0.0,0.0,0.0,0.0,0.0,0.0,-0.0,-0.0,-0.0,-0.0,0.0,0.0,0.0,-0.0,-0.0,-0.0,-0.0,0.0,-0.0,0.0,-0.0,0.0,0.0,0.0,0.0,0.0,-0.0,-0.0,0.0,-0.0,0.3329849,-0.36742732,0.0,-0.27893177,-0.0,0.0,0.0,0.0,0.332368,0.28516126,-0.0,-0.0,0.0,0.0,-0.0,-0.0,-0.29142484,0.0,0.0,0.0,-0.0,-0.0,0.0,-0.0,0.0,-0.0,-0.3987669,-0.0,0.0,-0.0,0.0,-0.0,0.0,0.0,0.0,0.0,0.0,-0.30331424,-0.0,-0.0,0.0,-0.0,0.0,0.0,-0.0,0.0,0.26590148,-0.0,0.25406083,0.0,0.0,-0.0,-0.0,-0.37851006,0.0,0.0,-0.0,-0.0,-0.0,0.0,0.0,-0.31098697,-0.0
0.0,1.0306064,-0.0,0.0,0.0,-0.0,0.0,0.2822539,0.0,-0.0,-0.0,-0.0,-0.0,0.54344606,-0.7180438,-0.0,-0.0,0.24754919,0.0,0.0,-0.0,0.0,0.0,0.71727186,0.0,0.37738645,-0.0,0.0,-0.0,-0.099772826,0.6505143,0.14757468,0.0,0.0,-0.0,0.0,0.8635489,0.0,-0.0,0.0,1.0219156,0.0,0.0,0.39351562,-0.0,0.0,-0.0,0.83878016,-0.0,-0.0,0.0,0.9568107,-0.0,0.0,0.0,-0.0,1.5008287,-0.19095896,-0.6740667,-0.0,-0.0,0.45330623,-0.0,0.0,0.0,0.0,0.0,-0.0,0.0,0.36168006,-1.177855,1.685633,0.0,-0.0,0.0,0.0,1.0634509,-0.75234133,-0.0,0.0,0.0,0.0,0.0,0.0,-0.0,0.0,-0.0,0.0,-0.0,0.0,-0.0,-0.0,0.0,0.0,0.0,0.0,0.0,0.0,0.47609413,-0.0,-0.0,0.0,-0.0,0.0,-0.0,0.0,0.0,-0.0,0.0,-0.0,0.0,-0.0,0.0,-0.0,0.0,0.0,-0.55879503,-0.0,0.9352811,0.0,0.0,0.0,0.0,-0.047059964,-0.29245275,0.0,0.39211452,0.0,0.9395096,-0.0,0.15563564,0.4901948,0.0,-0.0,-0.0,-0.0,-0.0,0.0,-0.0,-0.0,-0.0,0.0,0.0,0.0,-0.0,0.0,0.0,1.2636169,-0.0,-0.0,0.38786313,-0.0,-0.0,0.0,0.0,0.0,0.0,0.0,0.0,-0.0,0.0,0.8649045,0.0,0.5366333,0.0,-0.0,0.0,0.0,0.0,0.0,-0.30729344,-0.0,0.0,0.5621672,0.0,-0.0,0.3122106,0.86039513,0.0,-0.0,0.0,0.0,0.0,0.0,0.0,0.41110682,0.7413902,0.0,0.0,1.1508614,-0.0,0.0,0.0,0.53751075,0.0,0.0,1.6352158,0.0,-0.0,-0.0
0.52549064,0.0,0.59777683,0.48786524,-0.2798517,0.0,-0.0,0.12271682,0.85862875,0.0,0.44036233,-0.0,0.14406359,0.45296606,0.5249304,0.0,0.43486536,-0.0,0.27227,-0.24066433,0.0,0.61734426,-0.0,-0.4738093,-0.0,0.46734694,0.13827622,0.0,0.0,0.0,-0.25300956,0.107579194,-0.0,0.5445022,0.0,0.0,-0.0,-0.0,0.0,0.0,0.0,0.88306653,-0.0,0.75488025,0.0,0.39612755,0.4986069,0.68987584,0.0,0.0,0.0,0.32453033,0.0,-0.0,-0.0,0.0,-0.28312036,-0.6215475,0.41492945,0.0,0.0,-0.0,0.0,-0.0,-0.0,-0.17162523,0.0,0.0,-0.0,-0.63413566,-0.0,0.50214916,-0.0,0.0,-0.21206947,0.0,0.0,-0.43454784,0.0,-0.0,-0.6011675,0.20438483,-0.0,0.18753286,-0.3332395,0.2382637,0.0,-0.8568739,0.0,0.0,0.0,-0.23186581,-0.0,0.46380457,-0.0,-0.0,0.0,0.14059214,0.0,-0.78777325,0.24086443,0.0,0.47104746,0.0,-0.0,0.49492958,-0.9134498,-0.9276338,-0.0,0.0,-0.0,0.5566454,-1.0767757,0.0,-0.0,0.37679702,0.079846084,0.0,0.0,-0.0,-0.0,0.4514193,-0.0,0.0,0.0,0.2736096,0.0,-0.691102,0.0,0.0,-0.8679474,0.0,-0.0,-0.22870685,0.0,-0.1084927,-0.0,0.76881874,-0.88755107,0.0,-0.0,0.804291,-0.0,0.27275088,0.0,0.7641109,-0.0,-1.0341873,-0.22626214,0.14116856,0.0,0.0,0.87268907,0.5631367,-0.0,0.33359045,-0.0,-0.0,0.86195564,0.0,0.0,-0.0,-0.0,-0.0,-0.0,0.0,0.0,-0.0,0.37868625,-0.251842,0.4212744,0.5168118,0.0,0.0,-0.0,0.5085629,-0.6384337,-0.42774957,-0.0,-0.5360663,0.0,0.12984364,0.21805689,0.7086156,-0.2903807,-0.0,0.3196584,-0.39340857,-0.16898733,0.0,0.0,-0.0,-0.0,1.0060154,-0.0,0.24757531,-0.0,0.0,0.0,0.0
-1.6740078,1.526005,0.9301699,0.0,-0.1447008,2.385198,0.9329035,0.0,1.8372217,-0.0,1.8914486,-0.9222279,-0.0,0.45439133,0.0,0.21848227,-0.343959,0.0,0.0,1.6355407,0.72337234,0.0,0.4146907,-0.5182117,0.0,-1.6737444,1.6468961,0.0,0.73368794,0.26500127,-0.0,0.3830171,0.0,0.0,-0.19767226,-0.3746,-0.4383102,0.0,2.358613,0.0,-1.2442479,0.0,1.644008,-0.39816678,0.4157221,0.7056208,2.6889503,1.8325373,-0.0,2.8202958,-1.0837667,-0.0,0.8089254,-0.4555876,-0.68001217,-0.0,-2.7539961,0.34938934,0.35887605,-0.35127312,-0.0,-0.0,-0.0,0.36050117,0.0,0.0,0.0,-0.0,-0.5892913,0.0,0.0,-0.0,-0.72112423,-0.5926434,0.0,-0.72864306,0.048929304,0.0,-0.4232287,0.0,-1.1880496,0.59352845,0.0,0.0,-0.0,0.0,-2.0775678,1.6764845,-0.0,0.0,-1.9813805,-0.0,0.0,0.0,-0.87581414,0.79130113,1.9984615,1.4518917,-0.0,0.35426727,1.132523,-0.0,-0.0,-0.0,-0.4749744,-0.32618293,-0.29474035,-1.0934862,-0.7251789,-0.0,-2.1518722,-0.0,0.0,0.32384014,3.1566103,0.0,0.0,-1.0180098,0.0,0.0,-0.23914894,-1.5895008,0.0,-0.0,-0.0,0.0,-0.80043626,-0.8487905,-0.0,-0.0,-0.0,0.5149459,0.0,-1.6459028,-0.0,-0.0,0.1712749,-0.0,-0.38746002,1.67611,-0.0,0.0,0.0,0.19327918,-0.0,0.5480194,-0.4952281,-0.4575009,0.57765526,-0.0,-0.6366135,0.7845427,1.7344959,0.0,0.0,1.2053176,0.0,1.4295028,1.7377367,-0.6504419,1.3333055,-0.0,0.0,1.1757174,0.0,0.39841494,0.36218637,0.23976889,0.0,0.9872263,0.9038583,-0.0,0.0,1.5604429,0.0,2.0886297,0.82116145,0.0,0.15484236,-0.0,0.0,1.5409709,0.5096405,0.60292214,0.0,0.0,0.0,0.0,2.064089,-0.0,-0.0,0.0,0.0,1.1835206,0.43310207,0.0,1.6976745,0.18940593,-0.0,1.9899292
-0.0,-0.0,-0.0,0.18927635,-0.13826618,0.0,0.0,0.0,0.32024172,0.0,0.34971085,-0.0,-0.0,0.0,-0.0,-0.0,-0.0,0.5069398,0.0,0.0,-0.0,0.0,-0.0,0.0,0.0,-0.0,0.0,0.0,-0.0,-0.0,-0.0,0.0,-0.0,0.0,0.0,-0.6104494,0.0,0.0,0.0,0.0,0.0,-0.0,0.0,0.0,0.0,0.0,-0.0,0.44329664,-0.0,0.0,-0.0,0.0,0.0,0.84738004,0.0,0.0,-0.10899162,-0.0,-0.0,0.0,-0.0,-0.0,0.0,-0.0,0.0,0.0,0.0,0.34324875,-0.0,-0.0,0.3328612,0.0,0.0,0.0,0.0,0.0,0.0,0.0,0.0,0.0,0.0,-0.5796964,0.2573842,-0.15994377,0.0,-0.73834836,-0.0,0.0,0.0,0.0,0.0,-0.5407505,-0.0,-0.0,-0.35079804,0.0,-0.0,-0.0,-0.0,-0.0,-0.0,-0.0,-0.0,0.0,0.0,0.404406,-0.0,-0.0,-0.4581703,0.0,0.0,0.0,0.4062136,-0.6035616,-0.0,-0.0,-0.0,-0.0,0.0,0.0,-0.0,0.0,0.09745593,0.0,-0.0,-0.0,0.0,-0.0,-0.0,-1.1744287,0.0,-0.6101698,-0.0,-0.0,0.0,0.0,-0.0,-0.0,0.7125173,0.0,-0.0,0.4348218,0.0,0.0,-0.0,0.0,-0.0,1.3436555,-0.6586321,-0.5656091,-0.0,0.0,-0.0,0.8571636,-0.2914197,0.0,0.0,0.0,0.0,0.0,0.0,-0.0,-0.0,0.2073131,-0.0,-0.0,0.0,-0.0,0.0,-0.0,-0.0,0.0,-0.2152305,0.0,0.30531463,-0.0,0.0,-0.8844151,-0.0,-0.0,-0.0,0.0,0.9797962,0.0,0.0,-0.7459468,0.0,0.45831028,0.0,0.0,0.0,-0.0,0.0,0.0,-0.72205395,0.0,-0.0,0.0,-0.0,0.0
0.0,0.0,-0.028549049,0.0,0.0,0.0,0.0,0.0,-0.0,0.0,1.1417654,0.9727968,0.0,-0.0,0.0,0.36563522,-0.0,0.45995906,0.0,0.0,0.0,-0.0,0.0,0.0,0.0,1.6619699,0.5902505,0.0,-0.0,-0.0,0.0,0.0,-0.0,-0.0,0.0,0.0,0.8860285,0.0,-0.0,1.7023228,-0.0,-0.81023455,0.0,0.9573417,0.0,0.0,-0.0,0.0,-0.36031988,0.0,0.0,-0.0,0.0,0.0,0.0,0.0,0.0,-0.0,-0.0,0.0,-0.0,-0.0,0.0,-0.0,0.14866078,-0.0,0.0,-0.0,0.0,-0.57739,-0.0,-0.0,-0.0,-0.0,-1.5119606,2.5845907,0.17117381,-0.77263254,-0.0,-0.0,0.0,1.2512989,-0.0,-0.0,-0.0,0.0,-0.0,-0.85530716,-0.0,0.0,-0.0,-0.0,0.0,0.0,0.0,-0.0,-0.0,-0.4545453,0.0,-0.6485055,0.65316254,0.0,0.0,-0.0,-0.0,-0.0,-0.44184855,-0.25861534,0.0,0.50397193,0.0,-0.0,-0.0,0.0,0.0,0.0,0.0,1.0185385,1.5324615,-0.0,0.5231701,0.0,-0.0,-0.0,-0.0,1.7385389,0.0,-0.0,0.0,-0.0,-0.0,0.51755345,1.4436401,-0.23915204,-0.0,0.0,-0.0,0.0,0.0,0.0,-0.0,-0.0,0.0,0.0,-0.0,-0.0,0.24179338,-0.8391493,-0.24349283,0.0,0.0,-0.0,0.0,0.0,0.14132102,0.80582297,0.0,0.0,-0.0,-0.0,0.5993287,-0.0,0.0,-0.0,0.0,0.0,-0.6516037,-0.0,0.8769473,-0.0,-0.6448566,-0.0,0.0,-0.0,-1.2076907,0.8835652,0.95000273,-0.44081077,0.0,0.0,-0.35995916,0.7898061,0.0,-0.0,-0.0,0.0,0.39741442,-0.4592038,-0.0,3.369387,0.0,0.0,0.0,1.1618586,0.0,-0.0,-0.0,0.0,0.0,0.0
0.0,-2.0860353,-0.0,0.0,0.0,-0.0,0.2865573,0.0,0.0,0.8179025,-1.9654721,-0.0,-0.0,0.0,-1.1112994,-0.8679304,-0.0,-2.0709615,0.0,1.1815354,-0.0,0.78133476,2.0421455,-0.0,0.0,-2.11591,-0.8868868,1.4065595,-0.0,-0.0,-0.0,-0.0,0.0,0.0,-0.18036751,0.0,0.0,1.7986462,-0.0,0.0,0.6338204,0.0,0.0,-0.6445523,-1.17421,-0.68451256,1.0811716,-1.391417,-0.0,-0.20652522,0.0,-1.7443622,-0.10682551,0.0,0.0,-0.0,0.0,0.43667558,0.0,-0.0,-0.0,-0.6220825,-0.0,0.0,-1.8660027,-2.4266217,0.0,-2.2643857,-0.7500688,0.0,0.0,-0.0,0.0,-0.0,0.0,0.0,-2.3870468,1.510639,-0.0,0.0,0.41451928,-0.0,0.0,0.2556124,1.2684063,0.0,-1.9274642,0.0,-0.0,-1.487341,0.75645643,0.309696,0.0,-0.75193304,-2.2180772,0.2337202,0.9478305,0.45271266,-0.0,-1.2669709,0.0,-0.9765452,-0.0,-0.0,-0.0,0.0,0.0,-0.0,0.0,-0.0,0.0,-0.0,0.0,-0.0,0.0,0.0,1.3131943,-0.0,-0.0,0.0,0.0,0.0,2.2927039,1.1314065,-0.0,0.0,-1.0190281,0.81359494,-0.0,-0.0,3.2065525,-0.0,-1.1625814,-1.0242423,-0.0,-0.0,-0.0,-2.5712876,-0.0,-0.0,-0.0,-1.516473,0.0,1.6948063,-0.870468,0.0,0.0,0.87456095,-0.0,-0.0,1.4380788,-2.2496605,-0.0,0.0,0.501527,0.0,0.14449191,1.5237607,0.0,-0.0,-1.7504902,-0.0,1.0390189,-0.61669856,0.0,-1.7672877,0.0,-2.2531734,-0.69207424,0.0,-0.0,1.5614462,0.0,2.825584,0.0,0.4564179,-3.193179,0.36517882,0.0,-0.0,0.0,2.2353926,0.0,0.0,1.9724344,0.0,0.0,1.9355549,0.44935733,-0.0,2.579431,0.46490285,0.0,1.4974195,-2.589809,0.0,1.0850363,0.0,-0.0,-2.9526184
-0.20181158,0.0,-0.0,0.0,0.0,0.5694344,-0.05142123,0.0,0.9743352,0.49393305,2.2148495,0.0,0.0,0.0,0.54071605,0.0,-0.17324287,0.0,0.23713762,0.77561736,0.49426666,0.0,-0.0,-0.0,-0.17184325,-0.0,0.23584779,0.49087426,-0.0,-0.35859737,0.45722395,-1.3432977,-0.0,0.74617255,-0.0,0.51311326,0.0,0.0,1.3531164,-0.0,-0.0,0.66415954,0.37727973,0.6715796,-0.0,0.5536643,-0.0,0.30955687,-0.0,1.7258058,0.42102572,-0.035005942,0.1431319,0.0,0.0,0.1980644,-0.9216211,-0.19192703,0.0,-0.0,0.9026406,0.0,-0.0,0.0,0.0,0.0,-0.0,-0.4328902,-0.0,0.0,-0.24200103,-0.0,0.0,0.0,0.0,0.29623538,0.0,0.0,-0.0,-0.5066986,-0.6089513,-0.96176916,-0.0,-0.7593419,0.0,-0.4917885,-0.54876834,0.13511238,0.6174095,0.0,-0.42377245,0.0,0.0,0.3333734,0.0,-0.9303202,-0.07413625,0.0,-0.0,-0.11915569,0.0,0.0,0.23721153,0.0,0.0,0.0,0.014255589,-0.46159235,-0.09551464,-0.0,-0.28659374,0.0,0.0,-0.6133994,-0.5646006,-0.0,-0.053296704,0.04033536,-0.0,-0.0,0.2167287,-0.6987328,0.0,0.3348142,0.040716387,-0.0,0.5286595,0.0,-0.0,-0.0,0.0,0.7561333,0.0,0.0,-0.0,0.5014739,0.6383257,-0.0,-0.0,-0.0,0.9485096,-0.0,-0.0,-0.0,-0.0,0.0,-0.16325788,0.025296114,-0.0,0.018280445,0.0,0.0,-0.0,0.0,-0.810382,-0.0,0.49495095,0.0,0.69147104,0.42491376,-0.064743355,-0.0,-0.69516814,-0.32632995,-0.20660035,0.2457669,-0.09456827,0.0,0.2617375,0.20923904,-0.0,-0.22211492,0.26379606,-0.0,-0.22372036,-0.0,-0.0,0.027783748,0.0,-0.38376296,0.0,0.0,-0.025924573,-0.0,0.0,0.47113365,-0.19310321,0.0,-0.0,-0.0,-0.0,0.0,-0.0,-0.0,0.0,0.0,-0.2507792,0.5708689,-0.0,-0.0
0.0,-0.0,-0.0,0.85711855,0.0,-0.0,1.4367548,0.5160983,0.23190796,1.0783587,-0.0,0.7013804,-0.0,0.49293667,-0.22491506,-1.0224935,-0.0,0.0,0.38387972,2.133058,1.3563293,0.0,0.0,-0.0,0.0,0.8896545,-0.0,0.0,1.3831692,1.1886456,-0.0,0.3344096,0.0,0.0,-0.0,0.0,0.0,1.8954757,0.92197627,1.22783,-0.0,0.0,1.7397392,-0.0,-0.0,0.0,0.69681096,-1.0609097,0.3071182,-0.0,-0.43991682,0.37465614,-1.5490022,0.0,0.0,-0.0,-0.66676,-0.08312172,0.0,-0.0,-0.0,-0.0,-0.0,0.0,0.0,0.0,0.0,-0.7868873,-0.47393823,0.7493874,0.0,-0.76254857,0.0,-0.0,0.0,0.0,-0.0,-0.6341152,0.80574924,0.0,0.0,0.8744309,0.0,-1.4178488,-0.0,-0.6610769,-0.0,-0.62759584,-0.0,-0.32446048,-0.0,-1.9657856,0.0,0.0,0.18668792,0.0,-0.0,0.0,0.5208994,1.1661152,0.23524375,-0.069242634,0.60814023,0.0,-0.0,0.21644327,-0.17195639,-0.0,0.0,-0.0,0.0,-0.0,0.0,-0.0,0.7522449,-0.43467247,0.0,0.52552915,-0.0,0.0,0.0,0.18271759,0.7635834,-0.0,-0.0,0.65711355,-0.0,0.0,-0.0,-0.0,-0.0,-0.0,0.0,-0.0,-0.0,-0.0,-0.0,0.0,-0.0,-0.0,-0.0,0.55571145,0.79517215,1.0920366,-0.0,0.0,0.695583,0.0,-0.40007263,-0.0,-0.35414103,-0.0,-0.0,1.0711101,0.0,0.50336796,0.54051393,0.21301831,0.0,1.0655346,0.0,1.9089835,0.0,1.0143777,-0.4674223,-0.0,0.0,0.0,0.0,1.0059563,-0.0,-0.0,0.0,0.94435585,0.0,1.4621352,-0.0,0.0,0.45661318,-0.0,0.0,1.2661163,0.37155974,-0.8319149,0.0,0.8073762,0.9457436,-0.10634811,0.43020964,-0.0,-0.0,0.0,0.0,0.0,0.0,0.0,0.6765694,0.0,1.1387657,-0.0
-0.0,0.0,0.9502831,0.0,0.0,-0.0,0.0,0.0,1.0518807,-0.5997404,1.4691011,-0.9573965,0.0,0.0,0.77797717,1.36822,0.0,3.184397,-0.7549904,-0.0,0.8062502,-0.0,-0.30075222,-0.0,-0.0,0.0,0.0,0.0,-0.0,-0.0,0.0,0.0,-2.439016,-0.0,-1.0008448,0.0,-0.0,-0.0,-0.0,-0.0,-0.8581923,-0.0,-0.0,0.46653494,-0.0,1.7743378,0.0,0.72470605,-0.0,-0.5794342,0.5994358,0.0,0.0,-1.0076512,-0.0,-0.09508082,0.0,0.0,-0.0,-1.1475475,0.0,-2.2716608,-0.7739868,-0.0,0.0,1.5041784,-1.160719,0.0,-0.0,-0.0,-0.25716493,-0.0,-0.26692778,-0.0,0.3970077,0.0,-0.0,-0.0,-0.0,0.0,0.58732253,-1.2780055,-0.12238511,-0.3859394,-0.0,-1.0612637,-0.0,-0.0,-0.0,0.0,0.22228085,-0.33665195,0.0,0.0,-0.71565294,0.23701943,-0.0,0.0,0.0,-0.0,0.0,-0.0,1.0270054,0.0,-0.0,0.0,-0.0,0.0,-0.5861232,0.0,-0.0,0.68634963,1.2438049,0.0,-0.0,-0.0,-0.19131806,0.0,-0.0,-0.0,0.39380512,0.0,0.70361257,-0.0,-0.0,0.0,1.1387006,-0.0,0.0,0.35664332,-0.0,1.9865814,0.54135907,0.0,-0.0,-0.0,0.0,0.0,-0.0,-0.0,-0.0,-0.52463865,-0.0,0.0,0.0,-0.0,-0.47199222,0.0,-0.0,0.78821164,-0.0,0.0,0.0,0.0,-0.777402,-0.0,-0.051112603,-0.0,0.14909238,-0.0,-0.0,0.0,0.0,0.0,0.0,-0.40017238,-1.0776739,0.0,-0.397546,-0.0,-0.27099934,-0.0,0.0,-0.0,-0.0,0.9631861,0.70094675,0.0,0.0,-0.0,0.0,-0.6543175,-1.3498718,-2.1753137,-1.7908682,-0.053828705,-0.0,-0.0,-0.0,-0.0,-0.0,0.27347508,-0.0,0.02205787,0.43628868,1.3015326,0.0,-0.0,0.0,0.0
-0.14313129,0.0,0.43614468,-0.6626918,0.43428704,0.39832067,-0.36365658,-0.4047,1.8860602,0.0,1.7640148,-0.7542999,-0.0,0.38382727,0.72488934,0.3878449,-0.0,-0.41418895,-0.0,-0.0,-0.3976066,-0.0,-0.0,0.12608472,0.0,0.0,-0.0,0.0,-0.0,-0.3999295,-0.0,-0.59794694,-0.0,0.33696058,0.32884905,-0.87134403,0.5263575,-0.30527475,1.4934436,-0.58513755,-0.0,0.0,-0.47934735,0.0,0.0,-0.0,-0.13898665,-0.075069435,-0.9513266,0.7347006,0.6856535,0.0,1.2867253,0.0,-0.0,-0.0,0.0,0.0,1.3326793,0.0,0.61059314,-0.4808879,0.0,0.39842623,0.0,0.0,-0.0,-0.0,-0.0,-0.0,-0.7507681,0.39624676,0.30066404,0.8890254,-0.0,0.3834147,-0.496803,0.0,-0.0,0.0,-0.9803587,0.0,-0.3198759,-0.083165154,0.5960999,-0.0,0.5743923,0.75506455,-0.0,0.3393823,-0.0,0.4683012,-0.47526774,0.14103366,-0.29527345,-0.50700593,0.0,-0.6912565,-0.8044514,-0.19865964,-0.37651238,0.3471531,0.0,-0.0,-0.60746926,-0.0,-0.52659994,-0.24700288,-0.0,-0.37042812,0.0,0.0,-0.0,0.0,-0.30917293,-0.0,0.0,0.5275001,0.36594096,-0.3800376,-0.0,-0.24507453,-0.0,0.5440422,-0.0,0.0,0.24306983,-0.0,0.4140981,0.38673106,0.0,0.39892054,0.0,-0.0,0.0,-0.63350976,1.1053302,0.0,-0.43981782,0.0,0.15364143,-0.31743053,-0.36124784,-0.91324574,-0.0,0.0,-0.28466308,-0.0,0.120240815,0.60268587,-0.37643865,-0.0,0.16791824,0.0,-0.0,-0.30093285,-0.55449814,-0.5076721,1.2069731,-0.55470747,0.0,-0.71747506,-0.39371604,0.5050484,0.36026815,0.0,-1.0447267,-0.19875729,-0.0,0.20327984,-0.5397299,0.0,0.13339618,0.0,0.0,0.0,0.0,-0.0,-0.0,0.0,-0.0,-0.697546,-0.0,-0.0,0.0,-0.5010447,-0.0,0.4373129,0.6297173,0.30306765,0.43269217,-0.3274443,-0.67451835,-0.6077304,0.0,-1.1392262,0.0,-0.5189789,0.0,-0.0
0.0,-0.0,-0.0,0.0,0.0,-0.0,0.0,0.0,-0.0,0.0,-0.0,0.0,0.0,0.0,0.0,-0.0,0.0,-0.0,-0.0,-0.0,-0.0,0.0,-0.0,-0.0,0.0,-0.0,-0.0,-0.0,-0.0,0.0,-0.0,0.0,-0.0,-0.0,-0.0,0.0,0.0,0.0,-0.0,0.0,0.0,-0.0,0.0,0.0,-0.0,-0.0,0.0,-0.0,0.0,-0.0,0.0,-0.0,0.0,-0.0,0.0,0.0,-0.0,0.0,-0.30399185,0.0,0.0,-0.0,-0.0,0.0,0.0,0.0,0.0,-0.20227814,-0.0,-0.0,0.0,0.0,0.0,-0.0,-0.0,-0.0,0.0,-0.0,0.0,0.0,0.0,0.0,-0.0,-0.0,-0.0,-0.0,0.0,0.0,-0.0,0.0,0.0,-0.0,0.0,-0.21167888,-0.0,0.0,0.0,-0.5806224,0.0,-0.0,0.0,-0.0,0.0,-0.0,0.0,-0.0,0.0,0.0,-0.0,0.0,-0.0,-0.0,0.0,0.0,0.0,0.0,0.056962464,0.0,0.0,-0.0,-0.0,-0.0,0.0,0.15128978,-0.0,-0.0,-0.0,0.0,0.0,0.0,0.0,0.0,0.0,0.0,-0.0,0.6022948,0.0,-0.0,-0.0,0.0,0.0,-0.0,0.0,-0.0,0.0,0.0,0.0,-0.0,0.0,-0.0,0.0,-0.0,-0.0,0.0,0.0,-0.0,0.0,0.0,-0.0,-0.0,0.0,0.0,-0.0,0.0,0.0,-0.0,0.0,-0.36737382,-0.0,0.0,0.0,0.0,-0.0,-0.0,-0.0,-0.0,-0.0,-0.0,-0.0,0.0,-0.0,0.0,0.0,-0.0,-0.0,-0.0,0.0,0.0,-0.0,-0.0,0.0,-0.0,0.0,-0.20996924,-0.0,0.0,-0.0,0.0,0.0,-0.0
-1.6979682,0.22219571,-0.5270361,0.32614982,0.6965976,-0.45602542,-1.1711056,0.0,0.5797801,-0.0,0.21357761,0.0,-0.0,0.0,-2.5510046,-0.0,0.0,-0.57568014,-0.0,-0.17832449,-0.0,2.1961117,-0.0,1.4749944,-0.0,-0.0,-0.0,-0.0,-0.37783933,-0.2510503,-0.0,2.6207416,0.0,1.1010801,-1.7216821,-0.0,0.0,-0.0,1.947047,-0.0,-0.0,0.5245877,-0.0,-0.0,0.0,-0.953891,0.0,-0.38297307,0.0,0.0,-0.0,-0.6115718,0.5363056,0.27984968,-0.0,-0.0,-1.6348283,0.4778373,0.0,-0.0,-0.2305378,1.3844197,-0.0,-1.4381919,-0.0,-2.9218414,-0.0,-1.6890931,0.9600505,-0.0,0.0,0.28302532,0.35731447,0.48164484,0.0,-0.0,-0.0,-0.4636785,0.0,0.0,-0.0,0.75273466,0.44351178,0.0,0.0,-0.0,-0.6478856,-0.0,0.9868677,-0.0,0.0,0.0,0.0,-2.0403943,-0.2984923,0.13839146,2.8041217,0.94097966,-0.0,0.0,0.0,-0.0,1.756091,-0.0,0.3436529,0.0,-1.4282968,-2.850433,-1.2441705,-0.07012682,-0.0,0.0,-0.41119638,-0.0,-0.16877922,0.829103,-0.0,-0.8619784,0.0,-0.0,1.566525,0.33893025,-0.0,1.4061853,0.0,-0.0,0.98739284,0.0,0.0,0.0,0.0,-1.313724,-0.0,0.0,0.0,-1.152812,0.8330414,0.8754127,-2.6752908,0.0,-2.7791243,0.0,-0.0,-0.0,0.12606673,1.3958101,-0.0,0.5675145,0.0,-0.0,-0.926008,0.6249889,-1.2498544,-0.0,0.0,-0.0,-0.87852234,-0.0,0.0,-0.6808708,-2.4524028,0.0,0.63839865,0.0,-2.2939599,-0.0,-0.0,-1.3355452,-0.0,1.0610715,0.0,1.328753,-0.8606542,0.0,0.0,1.0354956,1.0006441,-0.5738558,-0.0,0.0,-0.8430262,1.2173381,1.911967,-0.0,1.5608566,-0.0,0.0,-0.5797619,-0.5084797,-0.0,0.0,-0.0,-0.0,0.21031186,-0.0,0.25137088,-0.0,0.0,-3.6623554,0.3984836
0.0,0.79714215,0.0,0.1394554,0.0,0.0,0.89372474,-0.0,-0.0,0.0,-0.561538,-0.0,0.0,1.5498755,1.2260967,0.7491009,0.8896966,-0.56226456,0.0,0.9003522,0.992913,-1.6001555,0.6228157,0.0,0.0,0.0,-0.0,0.0,0.7576457,1.6309707,0.96877146,-1.0065621,-0.92695695,-0.0,1.4617461,0.0,0.42707476,0.0,0.17540835,0.9811368,0.0,0.6516322,1.9224755,1.8334632,-0.0,0.3773507,0.16453388,0.6770065,-0.0,-0.0,0.0,0.3468445,0.0,-0.37737268,0.0,0.0,0.47148123,0.4807066,-0.9256806,0.0,-0.0,-0.0,0.0,0.0,0.0,-0.0,0.0,0.0,0.0,0.0,-0.0,-0.21246561,-0.4450457,-0.0,-0.0,0.0,0.12063725,-0.0,-0.0,-0.25940216,0.0,0.0,-0.0,-0.0,1.4088176,0.0,-0.45818505,0.5307795,-0.9783807,0.0,-0.6001627,-0.0,0.44592986,0.0,0.0,0.0,-0.0,-0.0,0.0,-0.0,-0.0,-0.63747925,-0.21727943,-0.94955206,-0.0,-0.60756695,0.0,0.44256246,0.6139283,0.0,0.0,-0.0,-0.0,-1.8192749,0.0,-1.0834229,0.0,0.0,-0.691399,0.0,-0.0,0.0,0.0,-0.0,-0.0,-0.19813593,0.0,-0.0,-0.69989234,-0.0,-0.0,2.1236446,0.0,-0.0,-0.0,0.0,-0.32844794,0.0,0.6113425,-0.0,0.81590104,-0.0,0.5320233,0.0,0.0,-0.0,0.88566273,-0.0,-0.4631948,0.0,0.35555622,0.29305023,1.5076227,0.0,-0.0,0.0,0.53080195,0.0,0.23598285,0.0,-0.5419991,1.3011546,0.0,0.6385807,0.0,1.8058711,0.0,0.0,0.0,-0.0,-0.0,-0.0,0.5686962,0.89584124,-0.0,-0.0,-0.0,0.65536827,0.2184818,3.1873448,0.770564,0.0,-0.28918687,0.0,-1.0597811,-0.8248029,0.4616,1.2795764,0.2475296,0.0,-0.0,0.9085708,0.0,1.0702488,0.0,-0.0,0.0,-0.0,0.0,1.4876013
-0.0,-0.0,-0.0,0.0,0.0,0.9928452,-0.2761595,-0.6054402,0.0,-0.0,-0.0,-0.0,0.1276317,0.70957077,0.0,0.50694895,-0.38365054,0.0,0.0,0.0,-0.0,0.0,0.0,-0.0,0.0,-0.0,-0.0,0.0,-0.0,-0.0,-0.0,-0.37577605,0.0,0.0,-0.0,-0.57004124,0.0,0.0,-0.0,-0.0,-0.0,0.0,0.0,-0.0,-0.0,0.0,-0.0,0.0,-0.34881485,-0.0,-0.0,0.0,-0.0,0.0,1.5153068,-0.0,-0.0,0.0,0.0,-0.0,0.0,-0.0,-0.0,0.0,-0.6964829,-0.9797816,0.0,-0.0,0.0,0.0,0.0,0.0,0.0,1.3715041,-0.34904146,-0.0,-0.0,0.0,-0.0,-0.7697113,0.0,-0.0,0.0,0.0,1.4918824,0.0,-0.0,0.0,-0.0,-0.0,-0.0,-0.0,-0.6957329,0.0,-1.3438193,-0.0,0.0,0.0,-0.0,-0.0,-0.36059782,1.8825161,-0.0,0.0,-0.0,0.0,-0.0,-0.0,-0.077510454,-0.31826463,-0.4025024,1.2134964,0.0,-0.0,-0.0,2.0294566,-0.68621945,1.1205431,-0.0,1.6660401,-0.9979419,0.0,0.0,0.52616274,-0.0,0.0,-0.0,0.0,-0.0,-0.0,-0.0,-0.0,0.0,0.0,0.83830726,-0.0,0.0,-0.0,-0.0,0.0,1.4102933,-0.4978372,0.0,-0.0,-0.0,0.0,0.0,0.0,-0.0,-0.22446,-0.0,-0.0,-0.41879535,0.0,-0.5169917,-0.0,-1.3704209,-1.1973774,-3.514289,-0.0,0.0,0.0,0.0,0.8609218,0.0,-0.0,0.16528873,0.0,-0.0,0.0,-0.0,1.3872534,0.6815447,0.0,0.08165848,0.26934105,-0.0,0.0,0.0,-0.0,-0.4742968,-0.0,0.0,0.0,0.0,-1.2541108,0.0,0.8216693,-0.5127478,-0.0,-0.0,0.0,0.0,-0.0,0.5455998,-0.29879358,0.0,-0.19515775,-0.0,-0.0
0.026883176,-0.0,0.84781337,-0.0,-0.0,-0.14813934,-0.0,-0.0,-0.0,1.0146128,-0.0,0.13735798,-0.0,-0.41418,-0.0,-0.0,-0.0,-0.0,0.37280336,0.0,0.7175995,-0.0,-0.0,0.15610103,-0.2093042,0.0,-0.0,-0.7765374,0.50670034,0.24162193,0.0,-0.14188719,0.6812892,-0.7806687,-0.0,-0.0,-0.41398105,0.09975204,-0.0,0.0,0.0,-0.80080825,0.35140103,-0.0,-0.0,-0.0,0.8584388,0.46948287,0.0,0.0,0.0,-0.0,-0.18295062,0.0,-0.54395896,0.0,-1.2331617,0.4648409,0.0,-0.0,0.0,-0.0,0.0,-0.31538308,-0.0,-0.0,0.0,0.0,0.39339882,0.0,0.0,0.0,-0.24372494,-0.94006693,-0.058329847,0.0,0.0,0.0,-0.0,0.31771117,0.22784866,0.0,-0.0,0.0,-0.44468802,-0.0,0.0,0.0,0.0,0.0,-0.65241915,-0.0,-0.0,-0.8083522,0.14244589,0.5077739,-0.0,0.32193273,0.0,-0.0,0.0,-0.7770284,0.0,-0.0,0.0,-0.0,0.0,0.0,-0.0,0.30610564,0.2409041,-0.0,0.0,-0.0,0.33242193,-0.5401534,0.18409632,-0.8530027,0.0,0.16671538,-0.0,-0.0,-0.0,0.0,-0.0,-0.0,-0.0,0.115168266,-0.4556535,0.14619498,0.0,0.0,0.0,-0.33906153,-0.5186126,0.0,-0.0,-0.0,0.07191262,-0.4173733,-0.0,0.36404836,0.0,-0.0,0.0,0.44994673,0.0,-0.0,-0.0,-0.0,0.0,0.22272828,0.40421408,-0.18400444,-0.0,0.0,-0.0,-0.0,-0.0,-0.0,-0.0,-0.0,0.14549124,-0.15950197,-0.21956642,0.0,0.0,-0.0,-0.0,-0.0,-0.0,-0.0,-0.64920557,0.40222913,-0.10604873,0.5689995,-0.0,-0.6499184,0.76326025,0.0,-1.1857188,-0.0,0.0,-0.757576,-0.0,0.0,0.3058432,-0.14693795,0.62095886,0.0,0.0,-0.0,-0.20188293,-0.4604765,-0.5670325,-0.0,-0.0,0.44317472,0.14696902,0.0
0.0,-0.22978981,-0.0,-0.6376287,0.0,-0.0,0.0,0.6483277,-1.8527429,-0.0,-1.4828671,-0.0,-0.0,-1.4262285,-0.1783977,-0.0,-0.0,0.0,0.0,0.0,-0.0,0.0,0.0,-0.0,0.0,0.0,-0.0,0.0,-0.09141855,-0.0,-0.40295658,-0.0,0.0,0.0,-0.4530448,0.0,0.0,0.0,-2.5231636,-0.5967088,-0.36471084,0.0,0.0,-0.8259769,-0.28129986,-1.0694616,-0.0,0.0,-0.0,-1.326054,0.0,-0.0,-0.21854526,0.0,0.0,-0.0,0.0,0.3008505,-0.3524646,-0.0,-0.927776,-0.0,0.84571517,-0.660697,0.0,0.46709082,0.0,-0.0,0.0,0.3078533,0.0,-0.0,0.0,-0.0,0.0,0.0,-0.0,0.0,-0.0,0.0,0.90371853,0.0,0.0,0.0,-0.93596053,0.0,0.16942388,0.0,-2.5252347,0.0,-0.0,0.5281133,0.0,0.0,0.23106152,0.0,-0.92717403,-0.7429345,0.3474054,-0.0,-0.0,-0.18013836,-0.0,0.0,0.5225213,0.0,0.7990309,1.0763038,0.0,0.89278424,0.52790606,-0.0,0.0,-0.0,0.0,0.1596269,0.0,0.25015932,-0.0,0.0,0.0,0.0,0.0,-0.0,0.49639055,0.0,-0.0,0.0,-0.0,-0.0,-0.0,-0.0,0.0,-0.0,-0.1336409,-0.7187638,-0.6004976,0.18981026,0.70442885,-0.0,-0.21323775,0.15360448,0.45898366,0.0,-0.49123225,0.0,0.0,-0.19297121,0.46610028,-0.0,0.7243576,-0.0,-0.77693427,-1.1906272,0.99597836,0.0,0.0,0.92091215,-0.9008286,-0.0,0.0,-0.0,0.0,-1.2289202,0.0,-0.0,0.118319124,0.0,0.0,0.0,-0.0,-0.0,0.0,-0.68681103,0.0,-0.0,-0.0,0.0,0.0,-0.0,0.0,-0.0,0.0,-0.37917084,0.0,0.6585982,0.8212615,0.0,-1.046957,-0.0,-0.17843243,-0.26916295,0.0,0.0,0.0,0.0,-0.77095294,0.0,0.22067097,-0.0
-0.0,0.78205603,0.9623776,0.0,0.0,-0.0,-0.5910845,0.4335682,0.0,0.0,-0.0,0.7010363,0.0,0.6441622,-0.0,-0.0,-0.0,0.61401093,0.0,0.0,0.0,0.0,0.9724154,0.0,0.0,1.1166122,0.0,0.0,0.0,0.0,0.0,-0.10255747,-0.9132377,0.14128704,-0.4580728,0.53503644,0.0,-0.53755003,0.7412583,1.5705012,-0.59423935,-1.0341703,0.3267051,0.0,0.0,0.16935283,0.0,0.19176084,-0.0,0.02085758,0.72848797,0.0,0.0,-0.61527,0.0,0.0,0.7208535,0.36187747,0.0,0.0,-0.0,-0.0,-0.0,0.0,-0.0,-0.66773665,-0.54396665,0.0,0.0,0.0,-0.70831025,-0.0,-0.0,-0.93093336,0.0,1.8776858,0.0,0.0,0.0,-0.0,0.0,-0.0,0.0,0.2625104,-0.13646181,0.0,0.0,-0.0,0.1523469,-0.0,-0.0,0.9470619,-0.0,0.73086506,-0.05603121,1.2140855,0.0,0.0,-0.0,-0.0,-0.58081156,0.0,0.0,0.0,-0.0,-0.0,0.0,-0.0,-0.0,0.0,-0.36754143,0.0,-0.0,-0.1379444,1.2278057,-0.0,0.0,0.0,-0.0,0.0,-0.0,0.0,-0.23413254,0.0,-0.0,1.9181584,-0.0,0.39039797,-0.0,-0.0,-0.0,0.19313659,-0.0,-0.8772465,-0.0,-0.0,-0.0,0.0,0.0,1.0275075,-0.0,-0.0,0.0,0.92926466,0.0,-0.0,-0.0,-0.5692012,-0.0,0.0,0.0,1.4377714,1.0502765,0.0,0.0,0.0,0.0,-0.59979796,0.0,0.0,-0.0,0.0,-0.0,0.0,-0.0,-0.0,-0.0,0.435235,0.0,0.0,0.0,0.0,0.0,-0.39997482,-0.0,1.3110007,0.0,0.0,0.0,-0.0,0.3851395,-0.0,0.0,1.0513917,0.0,0.0,0.0,-0.0,0.5259358,1.3507433,0.0,-0.0,-0.0,0.8735638,-0.37692788,1.2591916,0.32023248,0.0,-0.0,0.0
-0.0,-0.4959325,-0.0,-0.2382767,0.0,-0.34674007,0.0,0.0,0.0,-0.0,-0.0,0.0,0.0,0.0,0.0,-0.8343151,-0.0,-1.2061377,-0.0,-0.0,-0.0,-0.0,0.0,0.33976954,0.6050685,0.0,0.67183864,-0.0,0.0,0.0,0.0,0.91936463,0.0,0.0,-0.0,0.0,-0.8279135,-0.0,0.0,0.0,-1.0049517,-0.0,-0.0,0.0,-0.0,0.0,0.0,-0.0,-0.0,0.0,-0.0,0.0,-0.0,-0.0,-0.0,-0.0,-0.4571627,0.0,-0.28954583,0.027073104,-0.1806923,0.0,0.0,-0.0,0.0,0.0,-0.0,-0.45785066,-0.0,-0.0,0.0,-0.0,0.0,0.0,-0.0,-0.0,-1.0766463,0.0,0.0,0.0,-0.0,-0.0,-0.0,-0.0,0.0,0.0,-0.0,-0.25375664,0.0,0.0,-0.6135859,0.41223374,-0.0,0.0,0.0,0.0,0.0,0.0,0.0,0.0,-0.0,0.0,0.6691268,-0.0,0.4048706,-0.0,-0.0,0.0,-0.24721642,1.1947352,0.0,0.0,-0.0,-0.0,1.6919188,0.025105825,-0.0,-0.0,-1.26903,-0.0,-0.71839195,0.0,0.0,-0.0,0.74210376,0.75275505,0.17991331,0.0,-0.12019957,-1.4145464,-0.0,-0.0,0.67241144,0.0,-0.0,0.45857581,-0.0,0.0,0.0,0.0,-0.0,-0.4196015,-0.0,1.1766437,0.0,-0.0,0.0,-0.0,-0.0,-0.0,-0.0,-1.0918092,0.0,0.0,-0.0,0.0,0.0,0.0,0.0,0.0,-0.500874,0.0661189,0.0,0.39110184,0.0,-0.21018046,0.0,-1.3203028,-0.09101661,-0.0,0.0,-0.0,0.0,-0.29806075,0.0,-0.67019904,-0.6672015,1.5212039,0.0,0.0,-0.0,0.0,0.0,-0.0,0.0,-0.0,-0.5108194,-0.0,-0.3114073,-1.2594793,-1.7831144,0.28570494,-0.0,-0.34305513,0.0,0.0510969,0.0,-0.0,0.0,0.0
0.98700434,-0.0,-15.288005,-0.9021855,3.2961545,-0.46891153,-0.0,-6.97844,-4.62912,10.399023,-9.929984,0.0,-1.1252781,-0.12388231,4.3482637,4.9390006,-0.0,-6.0795403,0.085278325,-0.0,-0.8084613,0.0,5.4776645,0.07098843,0.0,0.0,-0.92912084,-0.0,0.09934153,-0.0,0.0,-7.3164473,-0.0,-0.0,-6.495124,-8.635183,-3.8891633,-0.0,-0.7936243,0.0,-2.0904171,-0.0,-0.0,1.5081934,-0.0,-0.0,-3.5816371,-3.0641942,7.3650618,0.0,1.0937179,-0.0,-4.77415,-0.0,-0.0,0.9829828,-0.0,-1.6265782,-1.2442609,11.420052,0.0,0.0,-0.19869672,0.16224068,-0.0,0.0,8.63483,1.7958661,-0.0,-0.0,-0.71099925,-0.46765068,0.0,2.0479252,-0.0,0.2524269,-1.1109437,-0.0,0.0,-0.33347207,1.135381,0.7327752,-1.6251911,-0.66311264,0.0,-1.3026538,-0.0,-0.0,-1.086163,0.0,0.0,0.34733865,0.0,4.2090096,-0.0,-0.92672354,-2.6279092,-2.2517316,12.089055,0.0,0.0,0.0,4.5186667,1.1281528,0.0,-4.3390975,0.07044192,6.097488,-2.410032,0.0,-5.189753,-0.0,4.694306,-0.06327697,0.0,-0.32026464,-0.0,6.579121,-0.7915243,-0.0,-5.5000978,-0.15468876,-0.0,0.0,2.6032288,0.0,1.4405072,0.36929289,0.0,-0.0,0.0,7.620588,0.0,0.29060945,-4.431062,0.0,2.2180345,0.0,1.131017,-0.9052021,1.2919931,-2.0471263,0.7888345,-0.0,0.0,0.34007564,1.0077409,0.0,0.0,-0.0,0.0,-2.136401,-7.6639843,0.6201239,0.29706466,-0.3973206,-0.9637847,-3.1718554,-5.7582293,0.0,-2.083757,0.0,1.0650383,0.30603236,3.6295383,4.508838,3.6213572,-3.4793916,-0.0,-0.0,-0.89294374,-0.0,8.030594,0.0,-1.1338791,0.0,-1.8917154,-0.32765466,-0.0,-1.6319985,1.660965,-3.2857206,-2.689519,-3.0192528,-2.4332883,-7.971076,-0.0,0.0,-0.67065096,0.0,-0.6763666,-0.0,-0.0,1.7796319,-3.9447901,-2.885659,-3.6898904,-1.5655563,3.0462177,0.0
-0.1360724,0.0,-0.0,-0.29639918,0.0,-0.0,0.0,0.099532396,-0.4335611,0.0,-0.0,-0.0,-0.0,0.32153496,0.0,-0.46049687,-0.56695193,-0.35574692,0.0,0.0,-0.0,-0.16359708,0.0,-0.8724517,-0.0,0.20300326,0.572093,-0.0,0.0,-0.0,0.89385724,-0.4207013,0.0,0.280405,0.0,-0.0,0.0,-0.0,-0.0,-0.0,-0.15351194,0.0,0.8476122,-0.0,0.0,0.5520093,0.16239978,-0.79243875,-0.0,0.34884048,-0.0,0.0,-0.0,-0.93411654,0.0,0.0,0.3175317,0.0,-0.5450953,-0.0,-0.205431,-0.0,-0.0,-0.0,0.18121466,0.19224961,-0.99241006,-0.5024958,0.0,0.0,0.06933806,-0.0,0.2517612,-0.0,0.0,-0.0,0.5748308,0.0,-0.0,0.74045026,0.13313387,-0.0,0.0,-0.1544969,-0.0,0.0,0.0,0.0,0.33294204,-0.0,-0.0,0.0,-0.0,1.0732068,0.0,0.0,0.22051123,-1.5188459,-0.0,-0.0,-0.0,-0.0,-0.0,-0.0,0.0,0.0,0.0,0.62824917,-0.0,0.0,0.181125,-0.0,0.0,0.0,0.0,0.0,-0.0,-0.0,-0.0,-0.0,-0.594459,-0.0,0.0,0.35152712,0.0,0.45747793,0.69109577,0.0,-0.0,-0.0,0.88485444,0.91967046,0.0,0.23987003,0.47970852,0.6372658,0.0,0.0,0.0,0.0,-0.0,-0.32484126,-0.0,-0.042317238,0.0,-0.32754362,-0.0,-0.0,-0.0,-0.028591089,0.0,0.0,-0.0,-0.13370575,-0.27711943,-0.4249835,0.0,0.030647594,-0.93318367,0.40821984,-0.57051224,0.29828814,-0.51179844,-0.0,-0.0,-0.39167443,-0.90003645,0.0,0.0,-0.1724759,-0.0,0.0,0.54354984,-0.0,-0.0,-0.22537132,0.0,-0.112392895,-0.0,0.62511295,0.12954772,-0.0,0.0,-0.0,-0.0,0.63308954,-0.27856207,0.7959161,-0.0,-0.0,-0.0,0.0,-0.0,0.06278766,-0.0,-0.77624094,0.73553467,-1.3788706,0.20753609,0.0
-0.9709987,-0.19008489,3.1980073,0.49565053,0.0,0.0,-0.0,-0.0,-0.0,1.3734723,-1.4093058,0.81779057,0.0,-0.0,-0.0,-0.0,-0.8661734,-0.0,1.4685421,0.6686362,0.0,-0.88640034,-0.0,-0.0,-0.0,0.0,0.0,0.0,0.58028394,-0.25103676,-0.0,-0.0,0.0,-0.0,-1.5198945,1.2728177,-0.0,-0.0,-0.0,-0.0,-0.0,-0.0,0.0,0.0,-0.2826451,1.834477,-0.0,0.3981603,-0.0,-0.09911442,-0.7419556,-0.0,-0.0,0.0,0.0,-0.0,0.0,1.3076873,-0.15734398,2.3199859,-0.26126242,-0.0,0.0,0.0,-0.0,-0.0,0.0,-0.0,0.54929394,0.0,-0.0,-0.8980527,-0.23363982,-0.9881608,0.1532011,0.0,0.0,0.0,-0.0,-0.0,-0.0,-0.0,0.0,-0.0,-1.0477195,0.0,-0.4279113,-1.1804696,-0.0,0.0,-0.0,0.0,0.0,0.0,-0.0,-0.0,-1.1689849,-0.0,-0.0,-0.0,1.2440028,0.0,-0.23770685,0.018507475,-0.0,-0.0,0.2851673,0.9457674,1.0274667,-0.0,0.19884665,0.46673068,-0.0,0.0,0.19773854,-1.0499552,-0.0,-0.0,0.0,0.0,-0.0,1.4974426,-0.0,-0.10671975,0.0,0.0,-0.0,-0.0,0.20023474,0.0,0.0,0.0,0.0,-1.044006,-0.0,0.0,-1.2011459,0.35452217,0.9173762,0.0,0.0,0.0,-0.0,0.0,-0.0,-0.66863716,-0.0,-0.0,-0.0,-0.16411242,-0.0,-0.0,0.80442905,0.20403884,-0.0,1.8299601,1.0264474,0.28035542,0.0,0.65337026,-0.0,-0.0,0.0,-0.0,-0.0,-0.0,-0.0,-0.0,-0.0,-0.0,0.9119181,0.0,-0.0,0.0,-0.0,0.0,0.0,-0.13768966,0.52574694,-0.7712949,-0.0,0.96791273,-0.0,-0.5532866,0.0,0.0,-0.0,-1.3467109,-0.0,0.0,-0.9576595,-0.95880693,0.0,0.0,-0.65250665,0.38754448,-1.4331393,-0.0,-0.0,-0.0
-0.0,-0.675756,-0.48872733,1.9486854,1.2632113,0.0,-0.35199973,0.8566747,-3.161254,-0.36800942,-2.5549524,1.3736027,-2.4553792,0.43492845,-3.410135,-4.031928,0.0,-4.226863,7.478003,0.8754376,1.0476834,2.3243842,-0.0,-0.31026644,-4.2009945,-2.0223498,0.0,-2.220897,1.6233374,0.1818965,1.1773328,-0.0,2.0213718,0.0,5.4164686,5.350103,-0.0,-0.0,0.5418749,0.0,0.0,-0.0,2.5245733,-4.462638,1.007275,0.0,1.6677136,0.08959674,2.7043023,-1.9721968,0.0,0.0,-0.6350778,0.8530829,1.4529887,0.0,0.7841436,-0.0,-0.0,-0.45628268,0.0,1.0963782,2.9977446,-0.2375767,-2.5919082,-0.0,-1.8895797,-2.4057584,1.9721937,3.9942234,-0.0,2.4629836,-0.0,-0.8572146,-0.8130544,-1.8951077,0.5455914,-0.9512302,-0.8128403,-1.3444307,0.99937123,0.0,1.3555444,0.5672469,0.13643537,1.2021858,0.0,0.0,-0.0,-2.8659658,0.0,-0.0,0.5110891,-0.0,-0.0,-0.0,2.0749145,0.20257491,0.0,0.0,0.68134326,-0.88310546,-0.720044,-1.8459094,-0.0,0.0,0.8890556,0.0,-0.4589333,-1.5752207,-0.2807793,0.0,-4.0410223,0.20266259,0.0,-3.7588856,-3.296904,-1.0848618,0.0,-0.04918161,-1.2801386,-2.598266,0.5334164,0.0,1.4611797,-1.8983253,-1.606212,-0.0,0.0,1.0883349,-0.0,-1.6934242,-1.521152,0.4415317,1.7466565,-1.1528959,1.9408553,0.0,1.1476034,-2.05296,-2.4739482,2.235194,0.0,-0.19482642,0.0,-0.0,-2.478227,2.1579056,0.0,-0.63028795,-0.0,-2.557558,1.7184819,0.26997286,2.603783,0.5539038,-0.0,-0.0,-1.9171554,-0.5133253,0.46192706,1.2459738,1.4644067,-0.5837245,-3.6261415,-2.2539263,-2.222894,-2.4078526,5.8193994,5.2712164,1.2788072,-0.0,-2.582525,0.0,1.1282041,-0.0,0.0,-2.389894,2.3841166,0.0,0.5076084,-0.0,1.4151348,1.8319598,3.9421382,10.007365,-0.0,-0.41633406,0.99760425,-1.8812181,0.0,-0.0,2.962759,-1.1596816,-0.0,0.4930206,0.377173,3.0115256,0.0,-1.6601449
-0.0,0.0,0.0,0.30422708,-0.0,-0.4763965,-0.0,-0.0,0.6410038,0.0,2.0949357,0.0,0.0,-0.0,-1.0896122,0.0,0.0,-0.0,-0.0,-0.5812216,-0.9577554,-0.0,-0.0,0.0,-0.0,0.8876693,-0.2582429,-0.0,0.0,0.0,0.0,0.0,-0.0,0.78418165,0.0,0.64319205,-0.0,-1.2865397,0.0,-0.0,0.63904166,-0.0,-0.0,0.39613807,0.6311626,-0.0,0.0,-0.0,0.0,0.0,-0.0,0.0,0.0,-0.0,-0.0,0.0,-0.9131994,-0.26961553,0.3845234,0.0,0.0,0.0,0.0,-0.0,-0.0,-0.0,-0.0,0.0,-0.0,-0.0,-0.0,0.0,-0.0,-0.449584,-1.0332654,-0.0,0.0,-0.18903123,0.0,-0.0,-0.0,-0.0,-0.0,-0.0,0.0,-0.0,0.0,-0.49269894,0.43056336,-0.0,0.0,0.0,-0.0,-0.0,0.62401223,-0.7344786,-0.0,-0.4026842,-0.5685182,0.0,0.0,-0.0,0.91104037,-0.0,0.0,-0.0,-0.0,0.0,-0.61505234,0.0,-0.0,0.0,-0.0,0.3699224,-0.37999994,-0.0,-0.0,0.7166317,0.0,-0.0,-0.0,-0.0,-0.0,0.0,0.0,0.37366953,0.0,-0.0,0.0,0.0,0.0,0.0,-0.0,-0.3707017,0.50463665,0.0,0.35286462,-0.0,0.22510436,0.41189158,-0.27267748,-0.0,-0.0,0.5864206,-0.3812179,-0.0,-0.0,-0.0,0.0,0.75989497,-0.0,-0.79609174,0.0,-0.0,-0.0,-0.0,-0.0,0.2044204,0.49822822,0.0,-0.7778452,-1.3422538,-1.3493702,-0.0,-0.0,-0.10658456,-0.0,0.6775483,-0.0,-0.0,0.0,0.0,-0.0,0.32682437,-0.0,0.8081565,0.0,-0.46918407,-0.0,0.0,-0.0,0.3765407,0.88273185,0.5814555,-0.0,-0.0,-0.0,-0.9362389,-1.6248777,0.13831005,-0.7581612,-0.0,-0.0,0.5316257,0.99146825,-0.0,-0.8506704,-0.0,0.0,-0.55104846
-0.0,-0.0,-0.0,0.0,0.0,-0.0,-0.0,-0.0,-0.0,-0.0,-0.0,0.0,0.0,0.0,-0.0,-0.26297295,-0.0,-0.44886076,-0.4285377,0.0,0.0,-0.0,-0.0,0.0,0.27046925,-0.0,0.0,0.0,-0.0,0.28421617,0.0,-0.0,0.0,0.0,0.0,0.0,0.0,0.45125565,0.0,-0.0,-0.27680424,-0.0,0.0,0.0,0.0,-0.0,0.0,0.0,-0.0,0.0,-0.0,-0.0,-0.3695774,0.0,0.0,-0.0,-0.48029026,-0.0,-0.0,0.0,-0.38270324,0.0,0.0,0.0,-0.0,-0.0,-0.0,-0.43444583,0.0,0.0,0.0,-0.0,-0.0,-0.24842654,0.2744947,-0.37214613,-0.3051931,0.0,0.0,0.0,-0.25921485,-0.0,0.0,0.0,0.0,0.0,-0.27552697,0.26540148,-0.27144408,-0.0,0.0,-0.0,0.0,-0.25727537,0.0,-0.0,0.0,-0.0,-0.0,-0.0,-0.0,0.0,-0.0,0.0,0.0,0.0,0.0,0.0,-0.0,-0.2964564,-0.0,-0.0,-0.0,-0.2879755,-0.0,-0.0,-0.0,0.0,-0.3285626,0.0,-0.0,0.0,-0.0,-0.4427457,-0.0,-0.0,-0.0,-0.0,0.0,0.0,-0.0,0.0,-0.0,-0.0,0.0,-0.0,0.0,0.0,0.30725065,-0.0,0.0,-0.31024912,0.0,0.0,-0.33970734,-0.0,-0.0,0.0,-0.2699577,0.0,-0.0,-0.0,0.0,-0.0,0.0,-0.0,-0.0,0.27579978,-0.32806912,-0.0,-0.5342521,0.0,0.0,0.0,-0.0,-0.40806848,-0.0,-0.5796506,-0.4120167,0.0,-0.0,-0.0,-0.0,-0.26428586,0.41902205,-0.0,-0.33785567,0.0,-0.0,0.0,-0.0,-0.0,-0.0,0.0,-0.0,0.0,-0.31560877,0.24584436,-0.30224553,-0.4503647,-0.41332936,-0.0,0.0,-0.30796126,0.0,0.0,0.0,0.0,-0.0,-0.26236805
0.46121615,0.26276436,0.0,0.2790383,-0.0,-0.7254719,-0.0,-1.0058532,1.845153,0.0,0.0,0.0,-1.5539668,-0.0,-0.0,0.0,1.5089475,0.23114625,-0.0,-0.0,0.0,-0.0,-0.0,0.0,-0.0,-0.0,0.85642356,-0.6323786,0.0,0.0,0.6638007,0.0,-0.0,-0.0,0.0,-0.0,-0.0,-0.0,0.0,-0.7448087,0.0,-0.7611915,-0.77435535,0.0,0.0,0.4190632,-0.0,-0.0,0.0,0.0,0.5844768,0.5781305,0.0,-0.0,0.0,0.0,-0.0,-0.0,-0.0,0.0,0.0,0.0,0.0,-0.0,-0.33351284,-0.0,-0.0,1.1777744,-1.4431236,0.025757687,-0.82913023,-0.0,-0.0,0.0,-0.0,0.0,1.2313403,-0.0,0.0,-0.0,1.2573105,-0.5504359,-0.9880505,-0.0,0.0,-0.0,0.0,-1.1867992,0.0,0.0,1.910196,0.0,-0.0,-1.3097134,0.6247296,0.33087772,-0.0,1.2233894,0.0,0.0,-1.3279182,0.0,0.0,0.0,0.0,-0.0,0.0,0.0,0.35290083,0.0,-0.0,-0.0,-0.0,0.0,0.0,-0.0,-0.0,0.93785334,0.0,-0.0,-0.0,-0.0,-0.927556,0.0,0.0,-0.0,0.0,-0.0,0.0,0.0,0.0,0.0,-0.0,1.1120166,0.0,0.0,-0.0,0.0,0.0,0.0,0.0,-0.0,-0.0,-0.0,0.6990488,-1.04025,-0.0,0.52129495,-0.7598151,0.0,-0.0,0.0,0.0,-0.0,-0.0,0.0,-0.8644264,-1.7085543,0.34736103,0.0,0.6514344,-0.0,-0.77875453,0.051757608,-0.0,0.0,-0.0,-0.0,-0.0,-0.0,0.0,-1.4827554,-0.0,0.65928674,1.1959785,0.0,0.0,-0.0,-0.0,0.0,-0.0,0.0,-0.28728527,-0.0,-0.0,-0.5415827,-0.0,-0.0,-0.0,0.0,0.0,-0.0,-0.0,-0.0,-0.0,-0.0,-0.0,-0.6160042,0.46775192,0.0
0.0,0.0,0.0,0.0,-0.0,0.0,-0.0,0.0,-0.0,-0.0,0.0,-0.0,0.0,0.0,0.0,-0.0,0.0,0.0,0.0,0.0,-0.0,-0.0,-0.0,0.0,0.0,-0.0,-0.0,0.0,-0.0,-0.0,0.0,-0.0,0.0,0.0,-0.0,-0.0,-0.0,0.0,0.0,0.0,0.0,0.0,-0.0,-0.0,0.0,-0.0,-0.0,0.0,-0.0,0.0,0.0,-0.0,-0.0,0.0,0.0,0.0,-0.0,0.0,-0.0,0.0,-0.0,-0.0,0.0,0.0,0.0,-0.0,-0.0,-0.0,0.0,0.0,0.0,0.0,-0.0,0.0,-0.0,-0.0,0.0,0.0,0.0,-0.0,0.0,-0.0,-0.0,0.0,0.0,-0.0,0.0,0.0,0.0,-0.0,0.0,-0.0,-0.0,-0.0,-0.0,0.0,0.0,-0.0,-0.0,0.0,0.0,0.0,-0.0,-0.0,0.0,0.0,0.0,-0.0,-0.0,-0.0,0.0,-0.0,-0.0,-0.0,0.0,0.0,-0.6122047,-0.0,0.0,0.0,-0.0,-0.0,-0.0,0.0,0.0,-0.0,-0.0,-0.0,0.0,-0.0,0.0,-0.358627,-0.0,-0.0,-0.0,0.0,-0.0,-0.0,-0.0,0.0,0.0,0.0,0.0,-0.0,0.0,0.0,-0.0,-0.0,-0.0,-0.0,0.0,0.0,-0.0,-0.0,0.0,0.0,-0.0,-0.0,-0.0,-0.0,-0.0,-0.0,0.0,0.0,0.0,0.0,0.0,-0.0,0.0,0.0,-0.0,-0.0,-0.0,0.0,0.0,0.0,-0.0,0.0,0.0,-0.0,-0.0,-0.0,0.0,0.0,0.0,-0.0,-0.0,0.0,0.0,-0.0,0.0,0.0,-0.0,-0.0,0.0,-0.0,-0.0,-0.0,-0.0,0.0
0.0,-0.0,-1.0471252,-0.0,-0.49700466,0.0,0.0,-0.0,-0.8942105,-0.0,-0.5140017,0.0,-0.27807587,-0.3558574,-0.2912508,-0.61731154,-0.25831258,-0.86982983,-0.0,-0.26830763,-0.0,-0.37961927,-0.43930238,-0.3107457,-0.0,-0.25011253,-0.0,-0.0,-0.0,0.0,-0.0,0.0,-0.0,-0.0,-0.0,-0.0,-0.0,0.4526481,-0.0,0.0,-0.0,0.0,-0.0,-0.79313725,-0.35625768,-0.3579489,-0.0,-0.97758317,0.0,-0.0,0.0,-0.0,-0.5880708,-0.0,-0.0,-0.0,-0.25710708,-0.0,-0.9603195,-0.0,-0.48975864,0.0,0.0,-0.27672508,-0.2951808,0.0,0.0,-0.8922616,-0.0,-0.27606314,-0.0,-0.37083566,-0.24290201,0.25616643,0.24432662,-0.31630966,-0.0,-0.0,-0.0,0.0,-0.0,0.0,-0.0,-0.4130868,-0.0,-0.0,-0.0,0.0,-0.0,0.0,0.25952607,0.0,0.0,-1.2523131,-0.4045175,-0.33074796,-0.0,-0.876923,0.0,0.0,0.0,-0.0,0.39203116,-0.0,0.5251575,0.0,-0.0,0.0,-0.5668507,0.0,-0.28959545,-0.0,0.0,0.0,0.46294585,0.4627433,0.0,-0.0,0.0,0.27360344,-0.0,0.25888693,0.38600114,0.83511233,0.0,0.0,0.0,0.0,0.0,0.0,0.0,0.0,-0.267372,0.0,-0.0,0.0,0.6800637,-0.0,-0.0,-0.0,-0.5983316,0.0,-0.0,0.35092542,0.0,0.5117817,0.0,-0.491241,0.0,-0.27944785,0.0,-0.0,-1.2095981,-0.0,-0.35616148,-0.0,-0.0,-0.3407846,-1.0010431,-0.0,-0.48791128,-0.0,-0.52329445,-0.42477283,-0.7706046,-0.47313502,0.0,-1.3116952,-0.0,-0.0,-0.0,-0.629283,-0.0,-0.25023898,0.0,-0.44925976,-0.0,-0.0,-0.0,0.0,-0.0,-0.30636582,-0.0,-0.33029777,-0.0,-0.0,-0.0,0.0,-0.0,0.0,-0.0,0.0,0.0,-1.558768,-0.0,0.0,0.27631006,-1.2213684,0.0,-0.0
0.9469879,-0.0,0.22237968,0.0,0.0,-0.0,-0.0,0.11033308,1.3461375,-0.0,0.6983141,0.0,0.0,0.0,0.31546822,-0.0,-0.0,0.0,0.0,0.0,0.0,0.8128068,-0.0,0.0,0.0,-0.0,0.0,0.123315506,-0.0,0.0,0.0,-0.0,0.0,0.52379435,0.0,0.0,0.45206165,-0.38520023,0.112975605,-0.0,0.06560832,-0.0,0.0,0.35099068,0.30012545,0.31548113,0.5251893,1.0018647,-0.0,0.0,-0.0,-0.0,-0.0,0.0,0.0,-0.0,-0.06499978,-0.0,0.14563563,0.0,0.23592953,0.0,0.0,0.0,-0.0,-0.0,-0.0,0.0,-0.37470883,0.0,0.0,0.17574285,-0.0,-0.50876695,0.0,-0.0,0.0,-0.15625572,0.0,0.0,-0.2908412,-0.0,0.0,0.0,0.06575302,0.0,-0.46061453,-0.0,0.0,-0.0,0.0,-0.0,-0.05643099,0.0,0.0,-0.0,0.0,0.0,-0.0,-0.0,0.21460292,0.0,-0.0,0.0,0.0,-0.0,0.0,0.0,0.0,0.0,0.31274408,-0.0,0.24115476,-0.0,-0.0,-0.0,-0.0,-0.25174904,-0.2907488,0.0,0.0,0.0,0.5541333,-0.42303735,0.1203552,-0.0,-0.0,-0.56254965,0.0,0.0,-0.0,0.2551173,-0.0,-0.0,-0.0,0.4758438,-0.22860567,0.0,0.0,-0.28429043,0.0,0.19085039,0.23153663,0.0,-0.0,-0.0,-0.0,0.0,-0.0,0.0,0.95045286,-0.0,0.43915853,-0.0,0.0,0.17276339,-0.0,-0.0,1.0306234,-0.0,0.5049649,0.0,1.042584,0.0,-0.0,-0.0,-0.0,0.0,-0.0,0.0,-0.0,0.4132982,-0.0,0.0,0.0,0.5075334,0.0,0.0,-0.0,0.0,-0.0,0.48585728,-0.0,0.0,-0.0,0.0,0.0,-0.5681256,-0.15010469,0.0,0.0,-0.0,-0.07817321,0.4328134,0.0,0.0,0.0,0.0,-0.0,0.0
-0.0,0.0,0.0,0.0,-0.29806572,0.0,0.0,0.0,-0.27058855,-0.0,-0.27395588,-0.0,0.0,-0.36411062,-0.0,-0.0,0.0,0.0,0.0,0.0,0.0,0.0,0.0,-0.0,-0.0,-0.0,0.0,0.0,0.0,-0.0,0.24444902,-0.28663006,0.0,-0.3076008,0.0,0.0,0.0,0.24918348,0.0,-0.0,0.0,0.24850652,0.0,0.0,0.0,-0.5063178,0.0,0.0,-0.0,-0.26770562,-0.0,0.0,0.0,0.0,0.0,0.0,0.0,0.0,-0.49713162,-0.0,-0.0,-0.0,-0.0,-0.0,-0.0,-0.0,-0.0,0.0,0.0,0.0,-0.0,0.0,-0.0,-0.8401042,0.0,-0.0,0.0,0.0,-0.0,-0.0,0.0,-0.0,0.0,0.0,-0.0,0.0,-0.3822286,0.0,-0.0,-0.0,-0.55020756,-0.0,-0.0,0.0,0.0,0.0,0.0,-0.0,-0.0,-0.0,-0.0,-0.0,-0.0,0.0,-0.0,0.0,-0.0,-0.0,0.0,-0.0,0.0,0.0,-0.24794577,0.30301127,-0.0,0.24321881,0.0,-0.0,0.31858206,0.0,0.0,-0.0,0.24296337,-0.0,0.0,-0.0,0.0,-0.0,-0.0,-0.0,-0.0,-0.0,-0.2809822,0.0,-0.0,-0.0,0.0,-0.0,0.0,-0.0,-0.0,-0.33808756,0.0,0.0,-0.0,0.5162294,-0.0,-0.0,-0.0,-0.32079664,-0.0,0.0,0.0,0.0,-0.47180358,0.0,0.41266674,0.0,0.0,-0.0,0.0,-0.0,-0.4314462,-0.40486732,-0.24768436,-0.0,-0.0,0.0,0.0,0.0,0.0,0.0,0.0,-0.30815244,-0.0,-0.0,0.0,0.0,0.0,-0.0,-0.0,0.0,-0.38154897,0.0,-0.0,0.0,-0.38150105,-0.0,0.0,-0.0,0.0,0.0,0.0,0.4084938,0.0,0.0,0.0,0.0,-0.0,-0.2794834
0.0,-0.0,-0.0,0.0,0.0,0.0,-0.31466228,-0.38488513,-0.0,-0.0,-0.0,-0.0,0.0,-0.0,0.0,0.0,0.0,-0.5020433,-0.27226073,0.0,-0.0,-0.0,0.0,0.0,0.29713354,-0.35695073,-0.44626862,0.0,0.0,-0.0,-0.0,0.0,0.0,-0.2769928,-0.0,0.0,-0.24278954,-0.0,-0.2747706,-0.0,-0.2879563,-0.0,-0.0,-0.29447943,0.0,-0.0,0.26618627,-0.0,-0.0,-0.0,0.0,0.0,-0.37981644,0.0,0.0,0.0,-0.0,-0.0,-0.0,0.0,-0.25889355,-0.0,0.0,-0.0,0.0,-0.0,0.0,-0.408917,0.0,0.0,-0.0,0.0,0.0,0.0,-0.0,-0.0,-0.32574016,0.26372406,-0.0,-0.0,-0.0,0.0,0.0,-0.0,0.0,0.0,-0.0,0.0,-0.30491927,0.0,-0.3854271,0.0,0.0,-0.28983498,-0.0,0.0,-0.0,-0.0,-0.0,-0.0,0.0,-0.0,-0.37120938,0.0,0.0,0.0,0.36308807,0.3995858,-0.0,-0.50623655,-0.0,-0.0,-0.0,0.0,0.0,-0.29208645,-0.0,-0.2818101,-0.38151336,0.0,-0.0,0.0,0.0,0.0,-0.0,-0.34442145,-0.2503934,-0.0,-0.30353472,-0.0,0.0,0.0,0.0,0.0,-0.0,-0.0,0.0,0.0,0.0,-0.0,0.25121525,-0.43360487,-0.0,0.0,-0.28428158,-0.0,-0.0,0.2820495,-0.0,-0.25613877,0.0,0.35084078,-0.0,0.0,-0.0,-0.2471101,-0.0,-0.0,-0.0,0.0,-0.5063435,-0.0,0.0,-0.0,0.0,-0.36524293,0.0,-0.7050968,-0.38706815,0.0,-0.0,-0.0,0.0,-0.51559657,0.33639508,-0.3073638,-0.62998885,0.3934123,0.0,0.26125377,0.33789688,0.0,-0.0,0.0,0.0,0.0,-0.28795597,0.31177968,-0.27449277,-0.5820735,-0.51927716,0.31060833,0.0,-0.2575372,0.0,-0.0,-0.0,0.0,-0.0,-0.0
0.0,-0.0,-0.8078818,-0.0,0.0,0.3569284,0.0,0.0,1.0974952,0.0,1.8568071,0.0,0.0,1.0664653,1.1510164,0.0,0.0,0.0,-0.5334859,0.06420346,0.0,-0.0,-0.0,0.16743857,-0.6639292,-0.0,0.07597941,0.46901426,0.28871247,-0.0,0.0,-0.0,-0.0,-0.0,0.6691695,0.0,-0.0,-0.12518434,2.2748814,0.0,0.5910514,-0.0,-0.0,1.1571786,-0.0,0.36803037,-0.0,-0.0,0.0,2.3516037,0.3465486,-0.0,0.0,0.0,-0.0,0.4970912,-0.18324015,-0.8514775,0.681822,0.0,1.1320932,0.53960925,0.0,0.26020816,0.0,0.0,-0.0,-0.0,-0.0,-0.73511654,-0.33226264,0.17983744,0.33822358,-0.0,-0.30839944,1.434112,0.0,0.0,-0.47080338,-0.0,-1.0649697,0.0,-0.0,-0.0,-0.0,0.0,-0.0,-0.0,0.94076174,0.0,-0.0,0.0,0.0,0.7411237,0.0,-1.1105386,0.12792039,-0.4166718,-0.0,-0.0,-0.7622095,0.0,-0.0,0.0,-0.0,-0.0,-1.2081593,-0.86198694,-0.0,0.0,0.0,0.48754692,0.0,-0.0,0.1236568,0.0,-0.0,0.0,0.0,-0.0,0.3829485,0.0,0.0,0.118280485,0.0,0.0,-0.0,0.0,-0.0,-0.0,0.4999721,0.48639807,0.0,0.31424096,0.5314005,-0.0,0.641603,0.0,0.0,0.0,1.1241297,0.0,-0.0,0.0,0.0,0.13257936,0.0,-0.0,0.13007778,-0.0,0.0,-0.0,-0.7898115,0.0,-0.39826274,0.0,0.63466203,0.3954023,0.5972103,0.0,-0.0,0.0,-0.4098629,0.5939287,1.2328361,0.035782214,0.049619537,0.17666666,-0.0,-0.18148656,-0.28435633,0.0,-0.0,0.0,-0.39097983,0.0,0.0,0.26904052,-0.0,-0.0,0.0,0.0,-1.1464219,-0.18024993,-0.6464337,-0.0,-0.0,-0.0,0.9238706,0.0,-0.0,-0.0,-0.0,0.0,0.0,-0.39190197,0.0,-1.5545639,0.0,-0.0
0.8510094,0.0,-0.0,-0.0,-0.0,0.0,0.91296947,0.36564797,0.0,0.0,0.0,-0.0,-0.0,-0.0,0.0,-0.10097351,0.80257136,-0.7702904,-0.0,-0.3664145,-0.0,1.4288887,0.0,-0.50391084,-0.0,0.0,0.0,-0.0,-0.31703466,-0.0,-0.0,0.0,-0.0,0.32152763,-1.0195854,0.72030884,-0.0,0.009866679,-0.0,0.0,-0.0,1.1001469,-0.0,-0.0,0.18228522,0.0,-0.0,-0.0,-0.0,-0.0,0.0,0.0,-0.0,-0.0,0.36946133,0.0,0.24645947,0.28612387,0.0,-0.0,0.0,-0.0,-0.0,-0.0,0.0,0.0,0.0,-0.0,-0.0,-0.0,-0.0,0.0,0.0,-0.6020504,-0.2902669,0.0,-0.0,-0.7817875,-0.0,-0.38525343,-0.4935888,0.43696663,-0.0,-0.0,-0.45492032,-0.0,-0.0,0.0,-0.7045067,-0.7778818,-0.7140491,0.6751552,-0.0,-0.0,0.123820305,-0.20334871,-0.0,-0.7706412,-0.12586793,-0.5951151,0.5191091,-0.0,-0.0,0.0,0.0,0.0,-0.64335066,-0.7228099,0.0,0.0,0.0,0.22197804,-0.98493177,-0.0,-0.0,0.0,0.6339508,-0.0,-0.3571958,0.0,-0.0,-0.0,0.0,-0.052081075,1.0701759,0.0,0.0,-0.26261264,-0.0,-0.08858551,-0.7931963,-0.0,0.0,0.0,0.0,0.0,-0.5323432,0.7221506,-0.0,-0.19385071,-0.34714347,0.8199687,-0.0,-0.0,-0.1619358,0.4317344,0.45037544,-0.0,-0.0,-0.0,0.53518987,0.0,-0.0,0.0,0.6604155,0.0,0.64312714,0.5805284,0.0,-0.26397583,-0.6040222,-0.0,-0.0,-0.42768568,0.27936056,-1.4838169,0.28354856,-0.0,0.0,-0.0,-0.0,0.63317627,0.0,-1.0728799,0.0,0.0,-0.0,0.0,0.0,-0.49676746,0.0,0.0,-0.48278704,-0.0,-1.290988,0.6484696,-0.0,-0.3440395,-0.0,-0.9846537,-0.0,0.7060396,-0.0,0.0,-0.0,-0.0,-0.0,-0.0,-0.0,-0.0
0.0,-0.0,0.98677284,0.131979,0.0,0.0,0.47996065,0.3395814,0.75189227,0.13317992,1.1849735,-0.0,0.0,0.42377064,-0.0,0.654037,0.0,0.69017124,0.86373734,-0.46740797,0.0,-0.0,-0.0,-0.0,-0.0,2.2002351,0.0,-0.3670377,-0.0,0.0,0.0,-0.0,-0.0,0.43482348,0.0,-0.0,-0.0,0.0,-0.8867766,0.0,0.0,0.29095533,-0.0,1.4163877,-0.54502475,1.1958332,1.0796878,-0.0,0.0,0.56423837,0.0,-0.0,-0.0,-0.0,0.0,0.0,-0.69789314,-1.1222422,-0.0,-0.0,-0.0,-0.0,0.0,-0.0,-0.0,-0.0,0.0,0.0,-0.0,-0.0,-0.0,0.0,-0.0,0.0,0.0,0.0,-0.0,-0.21281788,0.0,-0.0,-0.5213722,0.0,-0.0,-0.0,0.0,-0.0,0.0,-1.7919972,-0.46910337,0.0,0.0,-0.26323813,-0.0,-0.0,-0.0,0.6910914,-0.0,-0.0,0.0,-0.9518506,0.0,1.0593055,1.8166106,0.56159604,0.0,0.71512467,-0.24336706,0.0,-0.09155104,0.0,-0.6974788,-0.0,-0.0,-0.0,0.7383848,0.28344315,0.0,0.0,1.1007022,-0.0,1.3427209,1.2144547,-0.28129408,0.0,-0.1823304,2.4275963,1.5282274,-0.10840112,-0.0,-0.0,0.0,0.84645176,-0.0,-1.1551815,0.0,0.9041213,0.0,-0.0,0.0,1.1078103,0.0,-0.0,-0.0,0.609402,0.7565298,-0.09048002,0.0,-2.0244267,0.0,-0.0,0.0,0.017265068,0.9430205,0.690709,0.4243193,0.6568574,0.05868181,-0.7281456,0.6000146,0.0,-0.0,-0.0,-0.0,-0.0,2.824189,0.0,0.0,0.3905404,0.93332726,-0.0,0.48241434,-0.0,0.0,0.0,-0.0,1.5003997,0.0,-0.0,0.0,-0.0,0.52625483,-0.0,-0.0,-0.0,-0.0,-0.0,0.0,0.0,0.0,1.2234055,0.0,0.0,0.6637221,1.5344249,-0.0,1.2471251,-0.0,-0.0,0.0,1.0280684
0.0,-0.36206076,-0.0,-1.5465744,0.0,-0.0,0.0,0.0,-1.7080396,-0.0,-0.0,-2.7493715,-0.0,-0.56398183,-1.3495712,0.34821394,-0.0,-0.45589107,0.0,0.0,-0.0,0.0,0.0,-0.0,0.0,-2.2505522,-0.0,0.0,-0.0,-0.0,-0.0,-0.0,0.6597793,-0.061561782,-0.6915498,-1.1719539,0.43745434,1.7080017,0.35091898,0.0,-0.0,0.0,0.0,-1.3336774,-0.0,-0.74511594,1.020072,-0.60117877,-0.0,-0.0,0.0,-0.0,-0.0,0.7138423,0.0,-0.0,0.0,0.0,0.0,-0.0,-0.0,-0.0,-0.0,0.0,-1.6508466,0.0,0.0,-0.0,0.0,0.0,0.0,-0.0,0.0,-0.0,0.0,-1.9837465,-0.62886053,0.0,-0.0,0.0,0.0,-0.0,0.72982055,-0.48528716,-0.0,0.0,-1.4986682,0.0,-0.0,-0.17686401,-0.0,-0.0,-3.8079083,-0.71537685,0.0,0.0,0.0,0.2870657,1.1918664,-0.0,-0.0,0.0,-0.79841375,-0.0,-0.0,0.0,0.0,-0.0,0.0,-0.0,0.0,-0.0,0.0,-0.0,0.0,1.0281284,0.0,-0.0,-0.0,0.0,0.0,0.0,0.0,0.7572529,-0.0,-1.5291073,-0.0,0.0,-0.0,-0.0,-0.0,-0.0,0.0,-1.792172,-0.9650951,-0.0,-0.0,-0.0,-0.0,-0.5474634,-0.0,0.0,0.0,0.0,2.6603699,0.0,0.0,0.0,-0.0,-0.73621696,0.0,-0.0,-0.0,-0.46919468,0.4235957,0.0,0.0,0.0,0.0,0.21855254,0.8691657,-0.0,0.0,-0.41475263,-0.9486835,-0.0,-0.8056463,0.0,0.0,0.0,-0.0,1.1173128,-0.467507,-0.0,0.0,-0.0,-0.0,0.0,0.6488663,-0.0,0.0,-0.0,0.0,-1.4815687,0.0,-0.6780287,1.0934151,0.0,1.0272875,-1.7988694,2.4505012,0.0,0.0,-0.99678665,0.0,0.0,0.0,0.0,-0.0,-0.0
-0.0,-1.6921476,-0.97487694,-0.73028624,0.0,-0.0,1.6001244,0.13755137,-0.4756495,-0.0,-0.0,-1.1072016,-0.0,0.0,-1.6177981,-0.82647157,0.0,-0.1532507,-0.46573833,0.0,-0.0,-0.5633113,-0.09452326,-0.0,-0.9164606,-2.1903303,-0.0,0.0,-0.4532191,-0.4808507,-0.0,-0.36024213,-0.6897969,0.0,-0.15140396,0.0,0.1845144,1.5604105,-0.0,-0.0,-0.0,0.0,-0.47504887,-1.3397708,-0.0,-1.7412242,0.0,-3.2507923,-0.0,-0.5243373,-0.0,-0.557081,-0.0,0.0,-0.0,-0.0,-0.0,0.0,0.0,-0.0,0.0,0.0,-0.0,0.0,-0.4304189,0.0,-0.0,-0.8236122,-0.13619159,-0.9356051,0.0,-0.59937364,-0.9935996,1.7563542,0.0,-1.2269791,-0.6372721,0.0,-0.0,0.0,-0.0,-0.0,0.0,0.0,-0.0,0.97864586,0.4398222,-0.0,-0.0,-0.0,-0.0,0.0,0.0,-0.52550346,-0.45313466,0.0,0.0,0.12244532,-0.0,-0.0,-0.0,0.47132897,-0.0,1.0992392,0.7527407,0.0,-0.0,-0.0,-1.1868863,0.48289546,0.0,0.0,0.0,0.5737953,1.499108,1.0025073,0.7796937,1.0046203,-2.6889842,1.243395,0.0,0.0,1.3817284,0.3489115,-0.0,0.7486798,-0.22039427,-0.21273126,-0.0,-0.82571256,-0.0,0.6765213,0.0,0.0,-0.0,-1.085475,0.0,0.0,-1.0294737,0.0,-0.0,0.0,0.0,1.5090603,-0.0,0.25119802,0.0,0.0,0.0,-0.0,1.3110026,-1.149606,-0.7253171,0.0,0.0,-0.0,0.7622373,-0.0,0.0,-0.0,1.4940932,0.0,0.0,0.0,-0.7638418,-0.3642614,-0.0,0.0,-0.47035608,0.619172,0.0,-2.63433,-0.14776735,1.1463245,-1.0297835,0.0,0.37899143,0.0,-0.9238619,-0.0,-0.0,-0.0,0.0,0.0,-0.39752474,0.0,0.8981798,0.9490379,0.978354,-0.99569154,-0.0,0.7759686,-1.2847316,-0.0,0.0,0.0,0.0,0.0,-0.0,-0.0
-0.7593669,-0.0,0.22542627,1.2997842,0.0,-0.0,0.8463058,1.0017298,1.9682329,-0.0,0.45073658,0.0,-0.0,0.0,0.5997044,-0.9169253,-0.0,0.0,0.0,0.0,1.0393616,0.0,0.0,-0.0,0.0,1.7106209,-0.81530184,0.0,-0.0,-0.0,-0.0,1.0390682,0.6240903,1.2203988,1.2456839,0.0,0.0,1.6659766,1.285851,1.0807886,1.9937407,0.9252049,0.0,-0.0,-0.0,0.9126156,3.3518567,2.4383616,-0.0,0.41341916,-0.0,-0.0,-0.0,0.6099437,0.26765963,-1.4175956,-0.4862953,-2.7203674,0.0,-0.0,0.5899161,1.482092,-0.0,0.0,1.6183907,0.0,-0.0,0.46236014,0.0,0.2616875,0.5737101,-0.0,0.0,0.19187026,0.0,-0.0,0.8939206,-0.40800145,-1.1713666,0.0,-0.7759987,1.1186113,0.0,0.52520144,1.1248574,0.0,-0.0,-0.7182883,-0.7071052,-0.0,-0.04832994,-1.0218401,0.0,0.69371986,0.0,2.0282974,0.849935,1.2067744,-0.0,-0.0,-0.0,-0.0,0.03753583,-0.0,0.0,1.3466495,-1.9234337,-2.379673,0.0,-0.0,-2.4152186,0.0,-1.0110126,-0.0,-0.0,-0.0,-0.0,-0.0,-0.0,0.0,0.0,0.37901902,0.0,-0.0,-0.0,0.0,-0.0,-1.4315544,-0.0,-0.0,-0.49094853,-0.06744721,0.0,-0.0,-0.0,-0.27572098,0.0,-0.0,-0.58016276,1.533696,-0.0,2.6723633,0.0,0.2878309,-0.0,2.2498386,0.0,0.0,-0.0,0.579636,-0.0,1.0548071,1.4153104,1.7536848,1.1142502,1.0889744,0.0,-0.0,2.0993133,0.28611287,-0.0,0.0,0.6070687,0.0,1.4654986,-0.65694684,0.0,-2.2806778,2.5178328,0.0,0.6020661,0.0,0.7188313,-0.4670039,-0.5730981,0.6485245,-1.5273262,0.0,-1.0271921,-0.6317641,-0.0,1.1507418,1.6918899,2.5605505,0.0,-0.370608,0.36127186,0.0,1.8203301,-0.0,-0.0,0.0,0.0,0.0,-0.31760284,0.49886703,0.0,0.0,-0.0,1.6059185
-0.0,0.7511157,1.5638374,-0.0,0.123352475,0.0,-0.9719838,-0.0,-0.0,0.60515374,0.0,0.52873135,0.0,-0.0,0.520361,0.61546636,0.0,-0.0,-0.0,-0.0,-0.59121823,-0.0,-0.0,0.0,0.53996897,0.5351683,0.0,-0.0,0.0,0.0,0.0,0.0,-0.0,-0.0,0.35236198,0.9174439,-0.36637583,-0.0,0.0,-0.0,0.0,-0.0,-0.0,0.53880996,0.0,-0.0,0.74205613,0.4923545,0.0,0.0,-0.0,0.0,0.7603277,-0.0,-0.0,0.0,-0.0,-0.0,-0.0,0.0,0.0,0.40921777,0.0,-0.0,1.1014001,0.8059862,-0.0,0.0,1.1271341,0.5651748,-0.0,0.5741417,0.8201506,-0.7236393,0.5433572,0.5263484,0.0,-0.0,0.0,0.17526273,1.0296903,-0.0,-0.0,-0.0,0.0,-0.0,0.6720452,-0.0,0.0,-0.0,0.0,0.0,-0.0,-0.0,-0.0,-0.0,-0.0,-0.0,0.0,0.43544087,0.0,-0.0,0.0,-0.0,0.0,-0.0,-0.0,0.0,-0.0,0.0,-0.0,0.0,-0.0,0.0,-0.0,-0.0,-0.0,0.0,0.0,-0.0,-0.0,-0.0,-0.0,-0.67755586,0.0,-0.0,0.0,-0.0,0.0,0.0,0.0,0.0,-0.0,0.3725399,0.0,0.0,0.0,0.36055198,0.0,-0.81216604,0.0,-0.0,-0.0,-0.8241324,0.0,-0.0,-0.0,-0.0,0.0,0.0,-0.25985983,0.5601795,0.0,-0.0,-0.0,-0.0,-0.0,-0.0,-0.0,0.0,-1.1029217,0.0,-0.0,-0.0,0.69323105,0.0,-0.0,-0.0,0.49453995,-0.0,0.0,0.27835083,-0.0,-0.258941,-0.0,-0.36690098,1.164611,0.6644712,-0.0,0.08531821,-0.0,-0.8774556,-0.0,0.8018089,-0.0,0.53264284,-1.0620248,-1.3692013,-0.112849794,0.51477545,-0.7729774,-1.0428896,-0.0,-0.0,-0.0,-0.0,0.56007904,-0.0,-0.6333789,0.0
0.0,0.0,-0.0,-0.0,0.88861334,0.0,-0.0,-0.0,-0.0,0.0,0.0,0.0,1.1621695,-0.0,-0.0,0.0,5.7097116,0.24731605,-0.0,-0.0,0.55187094,-0.0,-0.0,0.0,0.84548736,0.0,0.0,-0.0,0.0,0.0,-1.1702191,0.35637382,-0.0,-0.0,0.0,0.25583082,-0.0,-0.0,0.0,0.0,0.0,-0.0,-0.0,0.0,0.0,1.6114236,-0.0,0.776392,0.0,0.0,0.0,0.64500535,0.0,-0.0,0.0,0.0,0.0,-0.0,-0.0,0.0,-0.0,0.0,0.0,-0.37634024,0.5004046,1.1567588,-0.0,0.0,-0.0,-0.0,-0.0,-0.0,-0.0,-0.9695845,-0.0,0.0,0.6301352,-0.0,1.457276,-0.0,-0.0,0.6456602,-0.0,-0.0,0.0,-0.0,0.9954429,-0.0,0.0,0.0,0.0,0.0,-0.0,-0.0,0.33359173,-0.0,-0.0,-0.0,0.0,0.58682716,0.0,0.0,0.0,0.0,0.0,-0.0,0.0,0.0,-0.0,0.0,-0.0,-0.0,-0.0,0.0,-0.58574533,-0.0,0.0,0.0,0.0,-0.0,-0.0,-0.0,-0.37896833,0.0,-1.5755061,-0.0,0.0,0.24555273,0.0,0.0,0.0,0.0,-0.0,-0.0,-2.5082867,0.0,-0.0,-0.9948034,-0.7055155,-0.33068234,-0.25161463,0.6512077,-0.0,0.0,0.0,-1.7222878,-0.0,-0.0,1.1486454,0.0,0.0,1.5764011,0.7799161,-0.0,2.0443525,0.0,-0.0,-0.0,1.9072847,0.0,0.97374105,-0.0,0.19749048,-0.0,-0.0,0.68060035,0.87891304,-0.0,0.0,-1.3398942,0.0,-0.0,1.0568396,-0.7556681,-0.0,1.5590178,0.0574287,-0.0,0.91371506,0.0,-0.9759316,0.38320398,0.7358415,-0.0,0.6825811,0.5159944,-0.0,-0.71995807,0.5609271,0.0,0.0,-0.0,-0.0,0.5389222,-0.0,0.8472188,-0.0,-0.0,0.42868185,0.9361402
0.0,0.99240184,-0.28794813,0.4609992,0.0,0.14265409,-0.0,-0.47058132,2.1525319,0.87859195,2.0877135,0.5012772,-0.0,0.84519684,0.0,1.0217351,-0.0,0.0,1.0911226,0.41966933,-0.0,-0.0,0.0,-1.9762516,0.010639481,0.5078224,-0.0,-0.0,0.54591304,0.4334454,-1.2845473,1.057621,-0.13595647,0.78208727,0.34800294,1.3749973,-1.1181345,-0.3190005,3.275354,0.0,-0.5796928,-0.22678426,0.0,1.3702977,-0.0,1.3296237,0.37374535,1.0295036,0.0,1.7239703,0.0,0.5661105,-0.8613033,0.90115786,0.0,-0.0,-1.7522172,-1.2827202,0.4313834,0.0,-0.0,0.37815377,-0.0,-0.0,0.0,-0.0,-0.0,-0.13905479,-0.0,0.0,-0.0,-0.0,-0.0,-1.3519078,0.2427287,0.0,-0.0,-0.0,0.0,0.0,-1.9753836,0.31267422,-0.0,-0.0,0.0,0.7915036,0.0,-0.86780566,0.60802144,0.0,-0.51623315,-0.39136437,-0.0971422,-0.2696344,0.10864224,-0.0,0.429932,-0.4914078,0.0,0.0,0.0,-0.038052402,0.0,-0.394939,-0.12580504,-1.3400526,0.0,-1.2814323,-0.42957214,-0.0,-0.0,-0.0,0.0,0.770699,-0.5220045,0.0,0.16088156,0.0,1.2803786,0.0,-0.0,-0.6447392,0.0,0.29609576,-0.0,0.0,-0.600936,0.32067436,-0.494256,0.0,1.3366311,0.0,-0.4003719,0.2375011,0.0,0.0,-0.11270728,0.0,-0.1992973,0.0,0.0,-0.0,0.0,0.39470133,1.0446827,0.0,0.0,-0.0,1.2626309,-0.0,0.15617207,2.0031893,-0.0,-0.0,0.0,-0.0,-0.8921197,-0.31316963,1.3180922,0.57031053,-0.0,0.7452429,-0.0,0.14741312,-0.6255376,0.46463528,-0.3470437,0.0,1.2502521,-0.8416199,0.20697638,-0.0,0.1701436,-0.78158945,-0.0,0.0,-0.0,-0.0,0.77625924,-0.0,-2.124114,-0.0,0.47609437,0.0,1.5766832,1.3085992,-0.68472934,-0.65235925,0.7790413,1.1392803,-0.463757,-1.1569211,-0.0,-0.0,-0.0,-0.735872,-0.0,-1.6075565,0.0,1.1196132
0.0,-0.0,-0.0,0.0,0.0,-0.0,1.0611714,0.2276585,-0.92928404,0.51500833,-0.0,0.2967522,-0.0,0.0,-0.29420614,-0.5677659,-0.0,-0.32776412,0.0,1.0370414,-0.0,-0.5998429,-0.23088911,-0.0,0.0,-0.7047279,-0.0,0.22670378,-0.0,1.5625669,0.44813612,-0.0,0.0,0.0,-0.0,0.0,0.0,0.0,-0.0,0.9436841,-0.0,0.0,0.0,-0.0,-0.2259672,0.0,-0.0,0.0,0.6038823,-0.0,0.0,-0.33354214,-0.8576372,0.0,0.0,-0.0,0.0,0.0,0.0,-0.0,-0.0,-0.0,-0.0,0.0,-1.0594678,-0.8137137,0.0,-0.0,0.0,0.0,0.0,-0.86201006,-1.4171352,1.1283538,0.0,0.0,-0.0,0.0,-0.0,0.0,0.112325616,0.0,0.0,-1.478928,-0.0,0.0,-0.8572582,0.0,-0.0,0.0,-0.0,-0.0,0.0,0.0,0.0,0.0,0.0,0.0,-0.0,-0.19159313,-0.0,0.0,-0.0,0.0,0.9771602,0.0,0.0,-0.0,0.0,-0.0,0.0,0.09182848,0.0,-0.0,0.27858958,0.0,0.0,-0.0,-0.0,0.0,-1.0253236,0.0,0.0,-0.0,-0.0,0.0,-0.0,0.0,-0.0,-0.0,0.5351346,-0.0,0.0,-0.24456955,-0.0,-0.0,-0.0,0.0,0.35389802,-0.0,-0.0,0.0,0.0,0.96243525,-0.0,0.0,0.0,0.0,-0.0,-0.0,0.25437546,-0.69014305,-0.0,0.0,0.0,0.0,0.7654237,0.2586125,0.0,1.013592,0.0,-0.0,0.0,-0.21498534,-0.50759417,-0.0,0.0,0.0,0.0,0.0,1.3357645,-0.0,-0.30444247,0.7065772,0.0,0.72638035,-0.0,0.0,0.0,-0.0,0.0,0.0,0.0,-1.0214506,0.4957118,0.22612979,1.5378783,0.0,0.5908058,-0.0,-0.0,0.0,0.0,-0.2455333,0.0,0.0,0.0,0.0,-0.0,-0.0
-0.0,0.0,0.0,0.43599886,-0.0,0.34356502,-0.0,-0.0,-0.0,0.0,0.0,-0.0,0.0,-0.0,0.52518827,0.0,0.0,-0.0,-0.0,0.3671435,0.7886222,1.1484427,-0.0,-0.0,-0.0,0.0,0.39552957,-0.0,0.842954,0.13389948,0.0,0.0,-0.0,0.6059877,0.40457475,0.0,-0.6691883,-0.0,0.0,0.0,0.0,0.36618605,-0.0,0.2928393,0.0,0.24642369,0.52442044,-0.0,0.0,0.88877684,-0.0,-0.36672783,0.0,1.5803841,-0.0,0.0,0.27760682,-0.0,-0.0,-0.0,0.0,0.6857849,0.9045939,-0.0,-0.32607493,-0.0,-0.8078506,0.30980098,0.7214117,1.60608,-0.0,0.0,0.46151218,-0.09998321,-0.0,0.0,-0.703053,-0.0,0.0,-0.0,0.5245962,0.0,-0.0,-0.0,0.0,-0.0,0.8701588,-0.7545601,0.0,0.0,0.0,-1.0553601,-0.0,-0.0,-0.0,-0.0,0.0,-0.46197733,0.0,0.98502237,0.37486798,0.0,-0.0,0.0,-0.0,-0.0,0.0,0.0,-0.09175261,0.1358211,-0.0,-0.0,-0.0,0.0,-0.0,-2.262069,-0.62711155,0.0,0.0,-0.0,-0.0,0.0,-0.0,0.0,0.0,-0.0,0.0,-0.0,-0.8466177,-1.1642418,0.0,-1.0924727,-0.0,0.5042801,-0.28944004,0.0,0.9171879,0.76695997,0.0,-1.0887731,-0.0,0.42754263,-0.0,-0.0,0.0,-0.0,0.7582272,-0.0,0.0,0.0,-0.0,-2.3878431,0.40077534,0.7855192,0.6681934,0.0,-0.0,-0.95124435,-1.5200162,0.7889617,-0.8215825,-0.0,-0.0,-0.0,-0.0,0.0,0.0,-0.0,0.0,0.914276,0.825809,-0.0,-0.0,-1.1884519,-0.0,-1.9180282,0.0,-0.19872174,1.2255365,0.15083271,0.7440698,0.0,1.279481,-0.0,0.4187206,0.5777929,-0.5892367,-0.72212255,-0.95212775,-1.3376993,0.0,-0.0,-0.0,-0.42687157,-0.6482014,-0.0,1.6144935,0.0,-0.33837372,0.0
-1.561381,0.30669844,0.5974705,0.0,0.0,0.0,0.08997957,0.9615232,0.6189911,-0.0,-0.0,0.0,0.0,-0.0,-0.0,0.0,-0.5665583,0.5243999,-0.0,-0.0,0.13856488,-1.6060828,-0.0,0.0,-0.0,0.930126,0.3261452,0.47746423,-0.0,0.35968718,0.0,-0.0,1.4449499,0.0,0.0,-0.0,0.0,0.0,0.0,0.3010789,-0.0,0.18418476,0.2803647,0.96901953,-0.0,0.0,1.7313908,0.3807993,-0.0,0.55126685,-0.0,-0.0,0.0,0.0,-0.39342964,0.38746274,0.053328346,-0.0,-0.0,-0.0,-0.0,0.0,-0.0,0.5290041,-0.0,0.0,-0.2167822,-0.0,0.0,-0.0,0.26410082,-0.0,-0.0,-0.86313325,-0.07624597,-0.0,0.0,-0.4875991,0.2159402,0.0,0.0,-0.0,0.0,-0.5528021,0.8095633,-0.53389525,0.0,0.0,1.0636486,0.0,-0.54105395,-0.81543905,-0.0,0.45179603,-0.0,0.0,-0.0,-0.0,0.0,0.53463286,-0.6837529,0.047329042,-0.7204887,-0.0,0.0,-0.0,0.0,0.0,-0.0,0.7715308,-0.0,0.0,-0.0,-0.5709988,-0.0,-0.0,0.2635899,-0.027601385,-0.0,-0.0,0.3423161,0.0,-0.0,-0.4290231,-0.60113174,-0.0,0.4847411,0.0,0.0,0.2149767,-0.0,-0.0,0.9409891,0.0,0.0,-0.0,-0.5377361,0.0,0.65331566,0.0,1.185618,-0.0,-0.0,0.75019807,0.40431646,-0.41761783,0.25465137,0.22248797,0.0,-0.17777999,-0.14750093,0.0,0.6659314,0.41967794,-0.0,0.0,0.12343344,0.21541119,0.5839652,0.5715281,-0.0,0.0,-0.0,0.83790445,-0.0,-0.0,-0.40301925,-1.1421237,-0.0,-0.0,-0.0,-0.0,-0.0,0.5479353,-0.0,1.0558444,0.5331154,0.8949036,-0.0,0.2517217,0.0,0.0,0.8151932,-0.090807855,0.0,-0.0,0.3321364,0.7024439,0.5626646,1.0120121,0.6642703,-0.0,-0.32433882,0.6553061,-0.0,0.0,0.0,-0.35081404,-0.0,0.43430832
0.0,-0.0,0.64019424,0.5905332,0.20278428,-0.0,-0.0,0.0,0.0,0.0,0.0,1.3522061,-1.8008623,-0.5147463,-0.66087085,-0.0,-1.7071012,1.4531449,-0.0,-0.0,0.0,-1.7538805,-0.73023516,-0.0,0.0,0.85621715,1.7982123,-0.0,-0.0,-0.6213965,-0.24481903,0.0,-0.8498366,-1.1858636,-0.0,0.0,-0.0,0.0,-0.0,0.0,0.0,-0.6111151,0.0,0.0,-0.0,0.1775917,0.0,0.39247152,0.0,-0.0,-1.0523454,-0.0,0.21038084,-0.0,0.0,0.0,0.31193927,0.0,-0.8751582,0.0,0.0,-0.0,-0.0,0.0,-0.540646,-0.35983875,-1.7918698,2.4662335,0.0,-0.0,0.0,0.0,-1.2724156,-1.9538903,-0.0,-2.904476,0.0,-0.0,0.0,1.1950942,-0.58172876,-1.235087,-1.1409299,0.0,0.5289128,0.3935971,-1.4461199,0.0,-0.0,0.0,0.0,-0.7783876,1.5257596,-0.64826345,-0.0,0.0,0.0,-0.77908844,0.0,-0.0,-1.4424638,-0.0,-0.5429093,-0.0,-0.0,-0.0,0.29911342,1.6892476,0.0,0.12497238,0.0,-0.0,0.0,-1.5228454,0.11769988,0.0,-2.545498,0.0,0.0,-0.42424113,-2.9096115,-0.0,-0.0,-0.0,1.3077811,0.63817084,-0.0,1.3534858,0.0,0.334498,0.56244785,-0.0,-1.1655077,0.0,-0.0,0.43318993,0.0,0.12401725,2.603994,0.6429626,0.0,-0.0,-0.0,2.004409,-2.5055246,-0.03992686,-0.0,3.609835,-0.13058315,-0.0,0.0,-0.0,0.0,0.0,-0.27009436,-0.0,1.2039853,0.29867294,0.0,-0.0,-0.48350522,0.0,-0.78030926,1.6433886,0.0,-0.37734362,-1.2962872,2.5946882,-0.0,1.7267839,-1.3245958,-0.9387267,-0.0,-0.0,-1.7962152,-0.0,-0.65653515,-0.0,-0.34245867,-0.4455506,-0.0,-0.0,-2.7526786,-0.7143039,0.94188964,-0.0,-1.0559369,-0.8981788,-0.9228524,3.224244,0.0,-0.0,0.8706577,0.0,-0.0,0.0,-0.0,-0.0,0.0,2.148028
-0.0,-0.0,0.77560633,1.0408885,0.0,0.0,0.0,0.0,1.3987522,0.0,0.0,-0.0,0.0,-0.82353485,-1.1014905,-0.0,0.53176486,-0.0,-0.0,0.31182742,0.0,-0.0,-0.0,0.0,0.60620993,-2.888131,-0.41864437,0.0,-0.0,-0.0,-0.6921046,-0.0,0.0,-0.5974178,-0.72850066,-0.8150917,-0.0,0.0,0.6126669,-1.5861647,0.0,0.0,-0.14220516,-1.4245185,0.0,-0.98514575,0.075749874,0.0,-0.0,0.0,-0.0,-0.0,-0.0,0.0,0.0,-0.59506947,0.0,0.0,0.86999816,-1.3176689,0.64135426,-0.0,0.0,-0.6956058,-1.8665068,-0.0,-0.0,1.5506023,-0.1754558,1.353433,0.0,-0.0,-0.0,0.0,0.0,-0.0,0.0,0.6676299,-0.0,-0.36353204,-0.0,0.0,-0.0,0.0,-0.16163093,-0.0,-0.0,0.53453374,-0.0,-0.0,-0.0,0.6141767,-0.0,-0.0,0.0,0.0,0.0,0.5119572,0.0,0.90246207,0.20028155,-0.0,-0.0,-0.0,0.0,0.0,-0.24917619,-0.4042548,0.0,-0.0,0.3164727,-0.0,0.0,-0.31573164,-0.0,-1.0247025,-1.6638267,-0.0,-0.45413888,0.0,0.0,-0.0,-0.0,0.0,0.0,-0.010252616,-0.0,-0.3205217,-0.44668555,-0.0,-0.9428174,-0.0,-0.0,-0.0,0.23800392,-1.4583153,0.0,-0.0,-0.0,-0.0,-1.1502798,0.52402216,0.0,-0.5860885,-0.0,0.43342546,-0.37474972,0.0,0.0,-0.0,-0.0,-0.0,-0.0,0.81057125,1.0163517,0.0,0.2073218,0.0,1.4128941,0.0,0.7617367,-0.0,1.420457,-0.15663154,-0.0,0.88147324,-0.0,-0.0,-0.0,0.0,0.0,-0.0,-0.0,0.0,0.0,-0.0,0.0,0.0,0.6031661,-0.0,-1.2686119,-0.0,1.9897654,0.0,0.0,-0.0,0.5004891,0.0,0.6534702,-1.8676256,0.0,0.0,0.0,-0.0,0.0,-0.0,0.0,2.6509748,0.0,1.0638752
-0.0,-0.0,-1.9632016,-1.2435362,0.0,-0.124276035,-0.1387031,1.030817,-1.7141563,0.8822763,-0.665045,0.3172056,-0.0,-0.39038357,0.0,-0.0,-2.9476576,0.0,0.0,-1.0194541,-0.0,0.0,-1.100636,-0.0,0.0,-1.1765144,-0.0,0.0,-0.0,-0.0,-0.51417977,-0.471051,0.0,0.0,-0.0,0.0,0.48616967,0.0,-0.5005593,-0.0,-0.0,0.13875327,0.0,-1.1196562,-0.0,0.0,-0.0,-0.5647438,-0.0,-0.0,0.5365968,-1.1168057,-0.0,0.0,-0.0,-0.8910568,-0.0,0.0,0.0,-0.0,-0.38717616,0.8186887,-0.0,-0.9216355,0.0,0.0,-0.0,-1.7629304,0.0,0.0,0.0,0.0,-0.35479534,-0.0,0.0,-0.96808034,-0.18420509,0.0,-1.1374663,-1.6463063,-0.0,-0.23770842,0.0,0.0,0.2887013,0.0,-0.0,1.0017722,-1.9851987,-0.0,-0.0,0.0,0.0,-2.6652665,-0.7682027,1.1892208,-0.7577819,0.0,-0.0,-0.0,0.0,-0.24049151,-0.4337623,-0.38735175,0.39293483,0.0,-0.0,0.3966383,0.0,-0.0,0.0,0.0,0.0,-0.7786721,-0.0,-0.0,-0.0,-0.0,-0.0,0.0,0.0,0.0,0.0,0.0,-0.0,0.0,-0.0,0.70643437,-0.1356316,-0.0,-0.499249,-1.4223295,0.0,0.0,-0.0,-1.1859009,-2.1994371,-0.0,2.477661,0.0,-0.0,0.0,0.9096107,-0.0,0.4953465,0.73651636,2.6226158,0.0,0.0,-0.38635063,0.77034074,-0.0,-0.0,-1.1040715,0.0,-0.6469526,1.0280216,2.3367124,-0.9722703,-0.0,-0.82778597,0.16633958,0.0,0.0,0.0,-0.0,-0.0,0.0,-0.0,-0.34228688,0.0,0.0,-1.7568198,0.3604487,0.0,0.0,-0.0,0.0,0.0,-0.0,-0.0,-0.0,-0.52509904,0.0,0.0,0.0,0.0,0.0,0.0,-0.0,0.38237554,0.0,-0.5134472,-0.51768905,0.0,0.5195945,-1.5601045,0.0,-0.0,0.68040645
0.62624294,0.0,0.6289825,-0.0,-0.0,-0.0,0.2217732,0.64827245,0.0,0.0,0.0,-0.0,0.5866558,0.0,0.49876514,0.2572225,-0.0,0.0,0.82592326,0.0,0.0,0.0,0.0,-0.35709593,0.60500497,0.0,-0.0,-0.13611442,0.0,0.0,0.23563743,0.0,-0.0,-0.0,-0.0,0.0,-0.0,-0.0,-0.0,-0.0,0.0,0.55384326,0.3297127,0.0,0.0,-0.0,0.5155859,-0.57140195,0.5411465,0.0,0.0,0.0,0.44624287,0.42054936,-0.0,-0.0,0.16820201,0.72330004,0.0,0.0,0.0,-0.0,0.5232315,0.0,0.331469,-0.0,-0.0,0.612406,-0.0,0.0,0.52102405,0.0,0.0,0.07997956,0.0,0.0,-0.0,0.0,0.0,-0.0,0.33098418,0.0,-0.0,-0.0,-0.32239127,0.21197543,-0.0,-0.0,0.609993,-0.0,0.105808936,0.50583977,0.26532617,0.0,-0.36571056,0.40036923,0.0,0.85829055,-0.0,-0.0,0.0,0.0,0.0,0.89560235,-0.057806257,0.0,-0.0,-0.15001835,0.0,0.0,0.0,-0.0,0.0,-0.0,0.21553501,0.0,0.0,-0.0,0.0,0.18056457,-0.0,-0.0,0.6689723,-0.0,0.0,0.0,0.0,-0.5656249,-0.0,-0.42158076,-0.99067026,0.0,-0.0,0.43749118,-0.0,-0.11469513,-0.0,0.5930515,-0.55438983,-0.5131828,0.0,0.6054625,0.38765964,-0.0,-0.0,0.30307648,0.67974126,-0.88858587,-0.0,0.0,0.0,0.09464699,-0.0,-0.0,0.0,0.52408016,-0.0,0.2891606,0.0,0.0,0.0,-0.0,0.0,0.0,0.16623962,0.0,-0.0,0.0,0.0,0.0,0.8296935,0.0,0.1482484,-0.0,0.0,-0.47919342,-0.5637315,0.0,0.8064455,0.0,-0.0,-0.0,-0.055321023,0.3152356,-1.1420723,0.0,-0.0,0.33746526,-0.0,-0.0,0.19948708,0.6423668,0.65256447,0.0,-0.26434934,0.69554514,-0.0,0.0,0.0,0.59310865
0.0,-0.53181857,-0.0,0.0,1.197621,0.9998169,0.0,0.51139206,-1.4419236,-0.58072144,-1.4461778,-0.0,-1.6481957,-1.2442292,0.0,-3.3857858,-0.0,-3.2079878,1.2136906,-0.3271678,5.1726317,0.0,-4.1519046,1.0666113,0.0,0.2817015,-0.0,0.0,0.86733556,-0.97068095,1.096103,4.435636,1.3323566,0.0,1.9577582,0.0,0.20281427,0.0,-2.463884,1.3356556,-0.0,2.038414,0.50445145,-1.5652473,-3.4230182,0.0,1.0028534,6.7144394,1.8886484,-3.793468,0.0,-0.17677172,-0.0733671,0.34366673,-1.830827,-0.36469728,0.0,-3.180264,-1.5291295,-1.9497931,1.2632688,-0.0,-0.0,0.0,0.0,-5.3220534,0.34710786,-5.6889086,0.0,-2.5379884,0.18811458,-0.61447877,-0.8515702,0.9463716,0.0,0.0,0.0,0.0,-0.7330232,-0.92965263,0.4898521,2.9030242,0.9206506,-0.19511972,1.499851,0.0,-0.8083264,0.0,-2.477493,0.0,-0.0,-0.0,0.0,-3.024496,0.0,0.0,1.0559194,4.678112,1.3818345,-2.5372896,-0.0,0.0,-1.2353579,0.0,-0.0,1.4363029,1.2189976,-6.219953,-0.5904521,5.939584,0.0,-0.0,-0.9099157,0.0,0.0,0.0,0.0,-0.0,-0.0,0.27914158,3.6903088,-0.44699916,-0.0,-0.0,-0.0,0.0,-0.55917245,-0.5036039,0.0,-0.0,-0.0,-6.3304095,-0.0,-0.08413104,-0.0,1.192504,-0.0,0.0,0.0,1.2730734,-0.17352378,7.43432,0.0,0.0,0.0,-0.0,-1.604006,3.1521716,-0.0,0.0,0.0,-0.0,0.9384418,-0.0,0.0,0.80253977,0.700579,0.0,-0.5002458,1.8223891,0.6360197,-0.0,0.0,-1.3563966,0.293239,-0.7004714,0.0,0.0,0.0,-2.1908379,0.0,-0.0,-2.5401342,2.072861,-0.0,1.0161251,-2.0465088,-0.5077425,4.0312743,-1.6847347,0.0,0.707372,0.74273276,1.5808184,0.84312034,0.0,1.614647,-0.0,-0.71265805,-0.13994709,1.1111151,0.0,0.0,-0.5838306,-4.724019,2.4677238,2.1067514,0.0,-5.155765,-1.8490677
0.59097666,-0.0,0.0,-0.4134971,-0.24226876,-0.0,-0.0,-0.0,-0.0,-0.0,-0.0,0.0,0.0,0.0,-0.0,-0.0,0.34264684,-0.54751563,0.7120493,0.0,0.0,-0.0,-0.0,0.0,0.0,-0.0,0.0,-0.14769429,-0.0,0.0,0.0,-0.0,-0.4714306,0.0,-0.48314458,0.55131614,0.0,-0.0,0.0,-0.0,0.0,0.26912656,0.0,0.22915705,0.0,-0.0,0.0,0.097606696,-0.0,0.0,-0.0,-0.0,-0.0,-0.22874977,0.048028875,0.04621962,-0.0,-0.0,-0.0,0.0,-0.0,0.0,0.0,0.0,-0.0,-0.0,0.16897774,0.0,0.0,0.0,-0.19897377,-0.0,-0.0,-0.73418653,0.0,-0.0,0.0,0.0,0.0,0.0,-0.6648241,-0.0,0.0,0.0,0.0,0.14017142,0.0,-0.0,-0.56505406,-0.0,-0.74187404,-0.0,0.0,0.0,0.0,-0.09617681,0.0,0.0,-0.0,-0.0,-0.0,0.0,0.0,0.0,0.0,-0.0,0.20581037,-0.06702256,-0.0,-0.0,-0.0,-0.0,-0.0,-0.0,0.0,-0.0,-0.0,0.0,-0.0,0.0,0.0,0.0,-0.0,0.0,0.32853848,-0.0,-0.0,-0.4191595,0.0,0.0,-0.41785264,0.0,-0.0,-0.0,-0.0,-0.0,-0.4086138,0.0,-0.941969,0.5078363,0.0,0.047236398,0.0,0.0,-0.0,0.37174574,-0.0,0.0,-0.0,0.0,0.4417399,-0.0,0.0,-0.0,0.46291918,-0.0,-0.0,-0.19367704,-0.0,-0.08543755,-0.041036557,0.0,0.0,0.0,-0.0,-0.0,-0.0,0.0,-0.0,0.0,-0.2166184,-0.0,-0.0,-1.2305696,0.0,0.3465829,0.0,0.5372862,-0.0,0.0,-0.0,-0.0,-0.65088314,0.0,-0.0,0.3516419,0.19134307,-0.2024329,0.0,0.0,0.0,-0.0,0.8338501,0.19959311,0.0,0.0,0.0,0.0,-0.0,0.0
1.7605045,0.0,0.0,-0.0,-0.0,0.0,0.48433813,0.6885388,0.5861873,-1.2108257,0.0,0.0,-2.0155013,-0.0,-0.0,0.0,0.0,-0.55954504,-0.0,-0.7073129,0.0,-0.0,-0.0,0.0,-0.0,-0.18947123,0.0,-0.0,0.0,0.0,1.3410834,0.0,-0.0,-1.0978324,-0.8854672,-0.0,0.42041028,-0.0,0.0,0.7596752,0.0,0.4118699,-0.0,0.0,-0.7836543,-0.5757863,-1.8604089,-1.2321515,0.0,0.0,-0.0,0.0,0.0,-0.6882613,-0.0,0.0,-0.0,0.20512138,-0.55300975,-1.6951619,-1.2045748,0.0,-0.38834623,-0.0,-0.0,-0.5894037,-0.0,0.0,-0.0,-0.0,-1.1557441,0.74366057,-0.0,-2.0925925,-0.92843467,-0.0,0.0,-0.0,0.0,-0.0,-0.24481894,0.0,-0.0,-0.0,-2.265471,-0.0,0.0,-0.0,0.0,-0.0,0.0,1.6452807,-0.0,-0.0,-0.0,-0.0,-0.0,-0.0,0.0,-1.3855107,-0.0,-0.0,-0.0,0.0,0.0,-0.0,-0.0,0.0,-0.0,-0.8115255,-0.26946515,0.0,-0.0,0.0,-0.0,-1.4760108,-0.0,-0.9972866,0.0,-0.0,-0.0,-0.0,-0.0,-1.3981322,0.0,-0.0,-0.17254801,-0.0,0.0,0.0,-1.8535455,0.0,-0.0,0.15921713,0.0,0.0,0.0,0.0,0.0,-0.7540024,0.0,-0.0,-0.0,-0.0,-1.6218016,-0.0,-0.2066998,-0.0,-0.7048156,-0.4755332,0.3876838,0.0,0.0,-0.40078276,-0.0,-0.0,0.67005837,-0.0,-0.0,-1.6315542,-0.0,0.0,-0.0,-0.0,-0.0,0.0,-0.4737985,-0.0,-0.0,-0.0,0.0,0.0,-0.0,0.0,-0.0,-0.80252135,-0.5154163,-0.0,-0.0,-0.4598558,1.1945357,0.0,-1.7344635,-0.0,-0.9429322,-0.556266,-0.0,-0.0,0.5710591,-0.57173395,0.0,1.6079854,0.9826239,-0.0,-0.40860236,-0.0,-0.0,-0.0,0.0,0.9772638
0.0,-0.0,-1.5321915,0.7468747,0.0,2.0435174,1.603611,0.5226065,-0.81517076,0.85003644,0.0,0.51469964,0.0,-0.0,0.7339243,0.0,-0.25876105,0.0,0.0,0.9730449,0.7509787,1.4547266,0.0,0.0,0.0,0.0,0.9002395,0.0,0.32314548,1.381071,-1.5149021,-0.53761655,-0.0,-0.0,0.6880207,0.0,1.3263972,1.3345268,0.0,0.0,0.0,1.5541451,0.56360805,0.0,0.0,-0.5245822,0.61437917,-0.06508852,-0.0,-0.0,0.0,0.76995736,0.36815554,1.1385837,0.0,0.0,1.2513907,-1.0867196,-0.0,2.0086353,-0.0,0.5320704,0.0,0.0,1.8832453,1.1806878,0.0,-0.0,0.37103724,0.0,-0.0,1.0466427,-0.0,-0.0,-0.0,0.0,-0.08282361,-1.0970547,-0.0,0.8102788,-0.67948097,0.4636392,-0.0,-0.0,-0.0,1.5739379,0.5678183,0.0,-0.91822726,0.0,-0.0,-0.6749729,0.0,0.0,-1.2621263,-1.216431,0.71768034,-0.0,0.0,-0.0,0.7056398,-0.9094415,-0.50738865,-1.6112709,1.3759412,-0.7204438,-1.8767332,-1.6952199,-0.0,1.0040992,0.0,0.46737698,-0.72508126,-1.293721,1.7190057,0.0,-0.34373176,-0.77833635,-0.0,1.9402275,-0.2558197,0.0,0.26614,-0.5289434,-0.0,0.0,0.0,-2.9017086,-0.30160776,-0.25035495,-0.54350656,0.8869679,0.0,-0.0,-0.0,-1.6420925,-0.0,0.99159527,1.3369384,-1.0541747,-0.0,3.1500561,0.36062413,0.27939147,-0.0,-0.0,0.0,1.1073624,-0.0,-0.6245906,-0.055734362,-0.0,-2.0621524,1.8844365,1.5815103,1.1132567,0.22999819,0.0,-0.49228486,1.4077303,-0.9081691,1.8045834,0.0,-0.0,1.3385488,0.631822,0.0,0.0,1.2529833,0.5121971,2.0450726,1.4353997,0.33096355,1.1377894,-0.0,0.6161247,0.83774906,0.0,1.290731,1.378242,-1.896626,0.0,0.68290454,0.0,-3.44612,0.95086795,0.9249363,0.9681512,1.2042233,0.95720464,1.8971843,1.911834,1.1615335,1.7409523,-1.8166554,-0.0,2.9992912,-2.3895648,2.1569593,-0.0
0.0,1.3896005,-0.0,0.0,0.0,-0.0,0.84606767,0.32963654,-0.49770764,-0.64012,-1.100544,-0.77218276,1.9198074,0.0,0.0,-0.0,0.0,0.8782499,0.7581866,0.9959912,1.1626116,0.6518709,0.49641168,0.65369105,0.0,-0.4676126,-0.34003523,0.0,1.6005108,1.1407515,-0.0,0.9939635,0.0,1.2057099,-0.0,0.0,0.35327357,0.0,0.8019571,0.0,-0.0,0.51761127,0.0,-0.46947068,-0.0,0.0,-0.0,-0.8115425,0.94973415,-0.0,-0.0,-0.0,0.33368915,0.0,-0.0,-0.0,0.831114,0.0,0.0,1.1690892,0.0,0.0,-0.0,0.0,0.44152057,0.0,-0.0,-0.0,0.0,0.0,1.0614899,-0.0,0.0,-0.0,0.0,0.0,-0.0,0.0,-0.0,0.0,-0.0,1.2737879,0.0,0.0,-0.0,1.0619199,-0.521253,0.0,-0.0,-1.1014287,-1.8568343,0.0,0.0,0.0,-0.4596499,0.0,1.2303518,0.0,1.072457,-0.0,0.31268114,0.0,-0.0,-0.589027,0.7651291,0.0,0.0,-0.0,0.60703415,-0.6227781,0.0,0.0,0.0,0.5728201,0.0,-0.0,0.0,-0.94872785,-1.4295325,1.2532235,0.0,0.0,0.5640137,-0.0,-0.0,0.0,-0.0,-0.6476656,-0.0,-0.0,-0.5127767,-0.0,0.0,-0.0,-0.0,-1.419097,-0.9717914,0.3721325,-0.0,-0.80272126,-0.0,0.0,0.6669708,0.0,-0.0,0.0,0.46776676,0.0,-0.0,-1.6099173,0.524231,0.15254556,0.6536826,0.0,0.0,1.0989985,1.3247879,0.52799404,-0.30312082,-0.0,-0.55988586,0.0,0.0,0.0,0.0,-0.0,0.0,0.0,1.4488862,-0.20082504,1.6272316,0.67223567,0.0,-0.0,0.0,-0.3525283,-0.7797108,0.2791829,1.3571472,-0.0,0.9526759,1.7033024,0.51585656,0.0,-0.36954668,0.0,0.83040476,0.0,1.5088513,-1.0732098,0.7757511,0.4976335,0.0,0.0,0.0,0.12535158,0.0,0.82995504,0.9162336,-0.0
0.0,-0.95357984,-1.8695059,-1.3501542,-0.0,-0.30411023,0.8941125,0.22711869,-0.0,-0.0,0.888775,0.0,0.0,-0.11373673,-0.0,-0.77892363,0.0,-1.6680995,-0.41877982,-0.0,-0.0,0.0,-0.254332,-0.5343402,-0.0,0.0,1.127071,-0.0,-0.6018527,-0.579158,-0.8169833,-0.39466736,-0.0,0.0,-0.50648415,-0.0,-0.2733854,0.85474956,0.4280744,-0.0,0.0,-0.0,-0.0,-0.20447102,-0.0,-1.6804489,0.0,-1.7073636,0.54728776,-0.42511514,-0.0,0.0,-1.7449374,-0.0,-0.0,0.0,-0.55787295,-0.9999839,-0.0,-0.0,0.780213,0.33294418,-0.0,-0.36107653,-0.0,-0.0,-0.0,-0.33095706,-0.0,-0.0,0.5986634,0.0,-0.0,0.5325541,-0.0,0.21541595,0.0,0.0,0.0,0.0,-0.0,-0.28379613,-0.0,0.0,-0.5410042,-0.0,0.25348264,-0.0,0.38808057,0.0,0.9732771,-0.38516843,-0.0,-0.0,-0.7885204,-0.481435,-0.6185105,-0.6382798,-0.0,-0.0,-0.0,0.0,1.2969738,1.271547,-0.0,0.32455933,-0.6436736,-0.5739697,-1.4510593,1.6688622,-0.531538,0.0,0.0,0.95137256,1.7831635,1.0850284,0.8572314,1.4320849,0.0,-0.0,0.0,-0.0,-0.0,1.1562328,-0.0,0.87266004,-0.0,-0.14802986,0.21683945,-0.52781487,0.0,0.44112837,0.36286446,0.55907905,-0.52160454,-0.10842185,0.5641485,0.9709449,-1.2631667,-0.0,-0.6608163,0.0,0.0,1.2558075,0.0,1.0733428,0.4534762,-0.7548921,-0.34923223,1.5002908,-0.0,-0.9222561,-2.0235991,-1.0409843,-0.0,0.0,-0.0,-0.0,-0.0,0.0,0.9290116,0.0,-0.6222239,0.24776392,0.40880415,-0.73948044,-0.0,-0.87614596,-0.36868834,-0.0,0.7976258,0.0,0.13944836,0.0,0.0,-0.09727513,1.0358325,-0.48911938,-0.6368762,-0.7590054,-0.5349676,-0.771547,0.1969905,-0.0,-0.7390593,0.12457768,0.29317766,-0.46993744,0.5352434,0.8725576,-0.20430748,0.0,-0.0,-0.38359255,-0.0,-0.5019207,-0.0,-1.487358,-0.0,-0.6147716
1.2739161,0.26501298,0.0,0.93433523,-0.0,0.0,-0.0,-0.0,1.5021714,0.08299342,1.95143,1.6556436,0.0,0.87692684,-0.0,0.19678037,0.0,-0.71466947,0.13367847,-0.0,0.0,-0.0,-0.0,0.0,-0.0,-0.8347863,0.2929066,-0.0,0.0,0.0,0.0,0.0,-0.0,-0.0,0.47453088,0.4465296,-0.0,-0.0,1.7734374,0.0,0.0,-0.0,-0.0,1.0901524,0.0,0.7796073,-0.0,-0.12859792,0.3126697,1.545628,0.4716989,0.0,-1.3032895,-0.0,0.28910756,0.0,-0.0,-0.8519829,-1.1489477,0.0,0.0,-0.0,0.0,0.34615833,-0.0,-0.0,0.0,0.6189183,0.38636893,-0.0,-0.0,2.9820719,1.0255947,0.0,-0.0,0.0,1.2449116,-0.0,0.0,-0.0,-0.63346124,0.0,-0.0,-0.0,0.0,-0.0,1.2123617,-0.0,0.0,0.0,0.0,-0.0,-0.0,-0.0,0.60661244,-0.0,-0.0,-0.56635296,0.0,-0.20795253,-0.48551986,0.0,-0.22620422,-1.6586114,-0.0,-0.0,0.35525733,0.0,-0.0,-0.873485,-0.0,-0.0,-0.0,0.0,-1.5894084,0.0,-0.71858895,0.0,0.0,-0.0,-0.0,-0.0,-0.3823477,-0.21648143,0.0,-0.0,-0.69431007,-0.0,0.0,0.0,-0.15648325,0.0,-0.0,0.79203504,0.0,0.20558055,0.8722803,0.0,-0.3661434,-0.08686221,0.0,-0.0,-0.0,-0.5244729,0.0,-0.0,-0.0,-0.0,-0.5225595,1.1222813,0.0,0.0,-0.9352982,-0.0,-0.49807015,-1.4904405,-0.0,0.0,0.5207238,-0.34464383,-1.4428334,0.29363707,-0.0,-0.0,-0.0,-0.33681262,-0.0,-0.537966,-0.03664692,-0.0,-1.8189642,-0.0,-0.1989983,-0.62180424,-0.0,-1.142112,0.0,-0.0,-0.0,0.14705855,0.0,-0.22041138,-0.7337716,-0.0,-0.0,0.20158319,-0.8911733,-0.84228617,0.6031317,1.1593225,-1.9039109,-0.46020824,-0.0,-0.79428357,-0.0,-0.0,0.6413193,-1.863945,0.0,1.1639577
