0,1,2,3,4,5,6,7,8,9,10,11,12,13,14,15,16,17,18,19,20,21,22,23,24,25,26,27,28,29,30,31,32,33,34,35,36,37,38,39,40,41,42,43,44,45,46,47,48,49,50,51,52,53,54,55,56,57,58,59,60,61,62,63,64,65,66,67,68,69,70,71,72,73,74,75,76,77,78,79,80,81,82,83,84,85,86,87,88,89,90,91,92,93,94,95,96,97,98,99,100,101,102,103,104,105,106,107,108,109,110,111,112,113,114,115,116,117,118,119,120,121,122,123,124,125,126,127,128,129,130,131,132,133,134,135,136,137,138,139,140,141,142,143,144,145,146,147,148,149,150,151,152,153,154,155,156,157,158,159,160,161,162,163,164,165,166,167,168,169,170,171,172,173,174,175,176,177,178,179,180,181,182,183,184,185,186,187,188,189,190,191,192,193,194,195,196,197,198,199
0.0,0.0,-0.67753905,0.0,0.0,0.0,0.0,0.8907891,-0.0,0.0,0.0,-0.0,0.1322144,-0.0,1.1970377,-0.8609309,0.46160787,-0.0,0.0,0.02590976,-0.0,-0.0,0.0,0.056424085,0.0,0.0,0.0,-0.0,0.10135621,-0.0,0.0,0.0,-1.3237796,-0.0,0.0,-0.1991474,-0.0,-0.43454888,-0.0,0.0,-0.0,-0.0,0.0,0.0,0.0,0.0,-0.0,0.0,0.87126106,-0.0,0.0,0.77537626,-0.0,0.0,0.0,0.0,0.0,-0.0,-0.0,0.0,-0.0,-0.0,0.0,-0.0,0.0,-0.0,0.0,-0.0,-0.98952615,-0.0,-0.0,0.29394773,-0.0,-0.0,-0.0,0.0,0.0,-0.0,-0.0,0.0,0.0,0.7943537,-0.0,-0.0,0.7765906,0.0,0.27463835,0.0,-0.0,0.0,-0.0,-0.0,0.0,0.0,0.468161,0.43083635,-0.0,-1.2509838,0.39436653,-0.0,-0.0,0.0,0.4849081,-0.44962046,-0.0,-0.0,0.0,1.9080992,0.0,-0.0,0.0,-0.0,0.0,0.41799793,0.0,0.0,0.0,1.1973974,0.0,-0.0,-1.541019,0.0,-0.52116275,-0.0,-0.18523099,0.0,-0.24947044,0.0,-0.0,-0.0,0.0,0.0,0.0,0.0,-0.5891298,-0.2673118,-0.0,0.0,-0.0,0.9784888,-0.0,0.77489483,0.0,0.0,1.3856233,-0.4041209,0.0,-2.2771041,-0.0,0.0,-0.8519152,-0.0,-0.12143555,0.0,0.57074225,0.0,0.0,0.0,-0.0,-0.0,-0.2988816,-0.0,0.0,0.19685529,0.0,0.0,0.0,-0.0,0.0,-0.0,-0.0,-0.0,0.0,-0.0,-0.0,0.0,-0.0,-0.0,0.0,0.0,0.0,-0.0,-0.0,-0.0,-0.0,0.0,-0.41466314,-0.0,0.29520446,1.3945621,0.6219831,-0.057003524,0.0,-0.28955755,0.0,-0.0,-1.3001527,0.0,0.0,0.0
0.0,-0.0,-0.16942224,0.19857685,0.0,0.0,-0.027028788,-0.7029908,0.0,-0.0,0.0,0.0,-0.0,0.0,-0.0,-0.0,1.5288973,0.0,-0.0,0.0,-0.17007996,0.6979424,0.0,-0.0,-0.0,-0.0,-1.5824667,0.7127704,0.0,0.0,-0.0,-0.0,-0.0,0.0,-0.0,-0.0,0.0,1.2537844,0.0,0.50441337,-0.0,0.0,-0.0,0.0,-0.0,-0.0,0.0,3.1806962,-0.0,-0.0,0.4033751,0.0,0.0,0.0,0.0,-0.0,-0.0,0.0,0.0,-0.0,0.0,0.0,0.0,0.0,-0.0,-0.0,2.3652086,-0.0,0.0,0.0,-0.0,0.64221525,1.1923243,-0.0,-0.0,-0.1710216,-0.0,-0.0,-0.0,-0.0,1.4046458,-0.9378543,1.7516772,-0.0,0.63724726,0.0,1.3519133,0.25900167,-0.92800146,0.4930552,-0.0,0.31110027,-0.0,0.0,1.1289521,0.0,-0.0,0.0,-0.7965332,-0.65720063,-0.7415535,-0.0,-0.0,0.0,0.0,0.0,-0.0,0.17969789,0.11472566,-0.9413593,0.0,0.46212393,-0.6959196,-0.0,-1.3628545,-0.0,-0.7514556,-0.9379418,-0.0,0.0,-0.0,0.6167103,0.0,-0.0,0.0,-0.0,0.0,-0.08624561,-0.0,-0.0,-0.0,-0.193603,0.0,-0.6310255,-0.0,-0.0,0.70467484,-0.0,-0.16236632,-0.0,-0.0,0.0,-0.0,-0.29425225,0.47060248,-1.2872021,-0.0,-1.2545723,0.0,-0.0,0.0,0.7995783,0.0,0.0,0.7407086,0.0,-1.185408,-1.2037337,-0.8970212,-0.0,0.0,0.0,-0.0,0.35564995,-3.0547223,1.534645,2.236265,-2.5417702,0.0,0.0,0.0,0.0,0.0,-0.0,0.0,2.1916444,1.5879414,0.0,0.0,-0.0,-0.0,2.6085892,-0.0,0.0,1.1526283,0.0,0.0,-0.0,0.0,-0.0,-0.0,-1.399593,1.0253954,0.0,0.0,0.0,0.0,3.6169715,0.0,-0.0
0.0,1.3653804,-2.5253587,0.0,0.0,-0.0,-0.28012055,-0.0,-0.2975842,-0.0,0.7463998,0.0,-0.0,-0.0,2.623043,-0.21512438,0.0,2.5735362,-0.0,0.48080036,0.0,-0.9520425,0.0,-0.729237,-0.0,0.0,-0.0,0.46933717,0.82212883,0.0,0.0,-0.0,-0.0,0.58380246,2.853105,-0.0,-1.4999094,-1.5064522,0.83006,0.0,0.0,-1.9115372,0.69959754,-0.0,-0.0,-0.0,-0.0,0.88560766,5.5011096,1.7100859,-0.3239075,0.0,-4.116087,-1.4011052,0.0,-0.0,-0.0,0.0,-0.85287154,-0.0,0.93799514,0.0,0.0,0.0,1.0656188,-0.0,-0.0,0.0,-3.4595215,0.0,-0.0,-0.0,0.32797956,0.3438391,-0.2644682,0.0,0.0,0.0,-0.20141557,0.0,-0.0,-0.22487251,-0.15840344,0.6017271,-0.0,-0.0,-0.0,-0.0,-1.6282982,0.0,0.0,0.17617117,1.06222,1.2910485,-0.0,-1.3751701,-0.0,0.0,-0.0,0.700991,0.0,0.49151012,0.0,0.0,0.0,0.0,-1.3886707,-0.74773026,-1.6724639,0.6862845,-0.0,0.0,0.0,-0.0,0.11397179,-0.0,-0.0,1.6222104,-0.2637777,0.0,-0.54146683,-0.0,-0.0,1.4469377,1.2790718,0.16823062,-0.0,-0.0,0.0,0.11277395,0.0,1.8033853,0.0,-0.0,-0.0,0.5543296,0.0,0.0,-0.1002652,0.0,1.4929198,0.0,-0.0,0.33986202,-0.0,0.16344585,0.0,-0.18724446,0.29191247,-0.0,-1.7112874,0.802,-3.3354928,-0.0,0.0,-0.0,1.5641536,-3.2037444,-1.3460044,-0.0,-0.61078507,0.0,-0.0,0.0,-0.0,-0.0,-0.0,-0.0,-0.0,-0.0,-0.0,-0.46106318,1.2334323,1.17622,-2.0551805,0.0,-0.0,-1.4857125,-0.0,0.0,-0.0,-0.0,-1.1327255,0.0,0.48636165,-4.86762,0.0,-0.75891334,-0.6691466,0.0,-0.0,0.0,-0.0,0.33939537,-0.0,-0.0,-0.0,-0.0,-0.0,0.0
-0.6407781,-0.0,0.034785457,0.0,-0.0,-0.0,-1.3954638,-1.0162226,0.39316612,-0.0,0.3688757,0.0,0.0,0.0,0.0,0.61751574,0.0,1.2451893,0.90177274,0.04174621,0.1680376,0.0,0.0,0.0,0.0,-0.0,-0.0,0.0,0.0,-0.0,-1.3183124,0.0,0.0,0.77873355,-0.0,-0.7219909,0.0,-1.4635429,1.3356485,-0.0,-0.7588798,-1.0199472,0.0,-0.0,-0.0,-1.4089118,-0.0,0.0,0.5094455,-0.0,-0.0,0.0,-0.0,-2.4853878,-0.0,-0.0,-0.35911423,0.0,0.0,-0.0,0.57937354,0.0,1.9950392,0.0,-0.0,0.0,-0.0,-0.0,0.54154146,0.0,0.0,0.0,0.0,0.60750705,1.171914,1.5001076,0.0,0.0,-0.0,0.0,-0.0,0.7714609,0.0,1.2166117,0.0,-0.0,-0.0,0.93667996,-0.0,-0.0,0.0,0.36257708,0.0,-0.0,0.56222457,0.0,0.0,0.0,-0.0,-0.0,0.0,-0.839539,-0.0,-0.50290316,1.2843885,-0.0,-0.0,-0.64833516,0.0,1.268627,-0.0,0.0,0.0,-0.44222677,0.40456814,-0.0,-0.0,2.02848,-0.0,0.0,0.8970872,0.0,0.53059465,0.0,-0.118321404,-0.0,-0.0,-0.0,-0.0,1.1998793,0.3212917,1.382038,0.0,0.2014265,-0.67073727,0.29387063,-0.18178296,-0.0,-1.6000166,0.0,-0.0,0.0,-0.4339707,-0.0,0.3486187,0.5987202,-0.0,0.7739211,0.0,0.8041315,-0.5994454,0.4027257,-0.0,-0.0,-1.4105077,-0.0,-0.17497617,-0.0,0.0,0.08412241,-0.0,0.0,0.0,0.5603886,-0.0,-0.0,-1.4714777,0.8212139,0.2686908,0.0,0.0,0.0,0.0,0.0,0.5155234,0.0,0.0,0.0,0.0,0.0,-0.0,0.79151934,0.0,0.0,0.0,0.0,-0.39481488,0.0,0.0,-0.0,-0.0,0.0,-0.0,-0.0,0.0,0.9751499,0.2220912,0.0,0.3317593,-0.0
0.0,0.0,0.0,1.1920359,0.0,0.9285202,0.0,-0.73584366,0.0,-1.3147974,0.0,-0.0,-0.0,0.0,-0.45743603,-0.0,-0.0,0.0,0.0,-0.22582029,-0.0,0.0,-0.3975616,-0.36988387,0.0,0.0,0.01867469,0.0,0.0,-0.0,-0.0,0.0,0.0,-0.0,0.0,0.0,0.0,0.48287156,-0.0,0.0,-0.0,0.21497351,-0.39286992,-0.0,0.4474909,2.2111506,-0.0,0.0,1.7486789,-0.0,0.37086225,-0.0,-0.0,0.0,0.0,-0.0,-0.11444129,0.63589865,0.0,-0.5709802,-0.0,-0.0,-0.0,-1.1863166,0.0,-0.5246837,0.0,-0.0,-0.6738221,0.0,0.0,-0.8200495,-0.9723835,-0.0,0.0,0.0,-0.5847301,-0.0,-0.0,-0.0,0.0,0.0,0.0,-0.0,-0.0,0.0,-0.0,0.0,0.0,0.0,-0.0,-0.0,0.0,-0.1671088,0.0,0.29310516,-0.0,0.0,-0.0,-0.0,-0.0,-0.0,0.0,0.0,-0.0,-0.0,0.028299654,0.37632757,0.0,-0.0,0.0,-0.0,0.0,0.0,-0.0,0.0,0.0,-0.0,0.0,0.0,0.0,-0.0,0.0,0.6503485,-0.0,0.0,-0.0,-0.0,-0.0,-0.0,-0.22684725,-0.0,0.0,-0.099148616,-0.0,-0.0,-0.0,0.0,0.27672952,0.17236683,-0.0,0.0,0.0,0.0,0.0,0.0,-0.26936924,0.0,-0.0,-0.0,0.0,-0.0,0.0,0.0,0.0,0.0,0.0,0.0,-0.21190684,-0.0,0.0,-0.0,0.0,-0.0,-0.6216548,-0.0,0.57942665,1.1427822,0.0,0.0,-0.0,-0.73886865,-1.167226,-0.0,0.40303546,0.4278227,-0.0,0.0,0.46611574,-0.0,0.0,0.0,0.784871,-0.54116124,0.0,0.0,-0.0,-0.0,-0.16474669,-0.0,-0.0,0.0,-0.8028322,0.0,0.0,-0.554458,-1.0909219,0.0,-0.0,-0.0
1.1781949,1.5654782,0.4942631,-0.0,0.0,-0.112680405,-0.94158167,-1.2535403,0.69978416,0.0,0.95655245,1.8480792,-0.0,0.6335021,-0.0,-0.0,0.0,-0.5383871,-0.0,-0.0,0.45808893,0.0,2.1766703,-0.0,0.0,-0.0,-0.0,0.0,0.0,0.96637493,-0.0,-0.0,-0.49285167,0.49417558,-0.0,0.0,-2.2023187,-0.0,1.3023027,-0.0,0.0,-1.7751911,-0.0,-0.0,0.39102274,0.0,-0.42968073,0.0,0.0,-1.4290459,0.8237999,0.0,-0.0,-0.0,-0.0,0.0,1.1703829,0.9626828,0.0,-0.0,0.0,0.0,-0.8278448,-0.19155292,-0.0,-0.0,-0.0,0.24021794,0.59189963,0.0,-0.0,0.0,-0.0,0.0,0.0,-0.0,-0.0,1.1246408,-0.0,-0.0,-0.0,-1.0076334,0.0,-0.0,0.0,-0.0,-0.21873206,0.0,0.0,-0.0,-0.0,0.0,0.72394997,-0.0,-0.0,0.5731691,0.0,-0.0,0.0,-1.3370414,-0.0,-0.0,-0.0,0.052483846,0.0,0.0,-0.772735,-0.79655063,0.0,-0.3625789,0.0,0.0,-0.0,-2.436492,-0.0,-0.0,-0.0,-0.0,-0.0,-0.0,-0.52481955,-0.0,-1.0511233,-0.0,-0.29390097,0.0,-0.0,-0.5756992,-0.0,-0.0,-0.0,0.0,-0.0,-0.0,0.0,-1.4996815,0.0,0.0,0.0,-0.0,-0.44048136,1.2181553,-0.0,-0.0,-0.0,1.0824213,-1.4454057,-0.51335263,0.0,0.0,-0.0,0.9171393,-0.0,-0.0,-0.0,-0.0,-0.0,-0.32579204,0.0,0.45154443,-0.0,1.4986596,-0.0,2.139256,-0.0,-0.0,-0.0,-0.54655015,0.6231405,0.54636544,0.0,0.76222897,0.6990254,-0.0,-0.0,-0.0,1.6141596,1.7532656,-0.0,0.94446295,-0.0,-0.0,-1.4357045,1.4590003,-0.0,-0.0,-0.34220162,0.0,-0.0,-0.0,0.0,0.0,0.32037076,-0.0,-1.0200169,-0.0,0.0,0.69966453,0.0,1.1431322
-0.0,-0.46231264,-0.0,-0.0,-0.0,-1.3281691,0.0702492,2.2198143,-1.7631581,0.0,-0.7241294,-0.0,0.0,-0.0,-0.0,0.0,0.0,-0.8328506,-0.0,-0.92220604,-0.58034015,-0.41796577,-0.0,-0.0,-0.76800036,0.0,0.0,-0.0,-0.0,0.0,0.2273191,-0.25392362,-0.791567,0.6069022,-0.0,-0.0,0.4889169,-0.0,-0.6440802,0.0,0.32077238,1.0753762,-0.0,0.0,0.0,0.0,-1.3227835,-0.0,0.0,0.0,-0.37973106,-0.0,0.0,-0.0,0.0,0.0,0.0,-1.2569864,-2.0457983,0.0,-1.79086,-0.0,0.0,-0.0,-0.0,-0.0,0.0,0.0,0.5936991,-0.0,-0.0,0.6055623,-0.0,0.0,-0.0,-1.1975263,0.0,-0.0,-0.504481,-0.0,1.0584624,-1.3821425,-0.0,-0.0,-2.4527197,-1.1953133,0.0,-0.0,0.0,0.0,0.62453836,-0.0,-0.0,-0.0,-0.0,-0.73334163,-0.6559543,-1.2098461,0.0,0.0,0.9342736,0.0,-0.1385363,-0.0,-0.0,0.0,0.664826,-0.73102903,-0.0,0.50709265,-0.5028845,-0.0,-0.0,-0.47855985,0.0,0.1722542,0.0,0.0,0.0,-0.0,0.0,-0.0,-0.0,-0.78500384,0.0,-0.42073518,0.7138476,0.0,-0.37325233,0.0,0.0,0.98794943,-0.0,-0.26970315,0.0,0.0,-1.1389478,0.0,0.0,-0.0,0.0,-0.0,-0.0,0.0,-0.0,-0.0,0.43549582,-0.41525984,0.0,0.0,0.56379086,0.597884,-0.0,-0.0,-0.6112617,0.5640108,0.28642958,1.3047761,-1.177477,0.0,0.0,-0.0,-0.0,-1.5617115,-0.0,0.0,0.0,-0.0,0.0,-0.0,-0.0,-0.10468561,-0.15907425,-0.0,-0.0,-1.1189247,0.0,-0.0,-0.0,-0.0,0.0,-0.9977544,-0.63059425,-0.0,-0.0,-0.0,0.0,-0.0,-0.6608076,0.0,0.0,-0.0,-0.0,-0.0,-0.0,0.77155983,-0.4381241,-0.0,0.0,1.3518181
0.0,-1.256327,0.93896437,0.0,-0.0,-0.7830448,0.010750149,4.372874,-1.7489952,1.828608,-0.78622514,0.0,0.0,-0.0,0.4086449,0.0,0.8642408,-0.0,0.0,-0.8253527,-0.095058285,-1.5683059,-2.7538054,0.4813297,-4.0669975,0.0,0.0,-0.0,-0.0,1.309836,0.0,-0.2967025,-0.8549743,-0.0,-2.155799,0.33823642,0.8061291,0.0,-0.5933888,0.0,0.0,3.1519158,0.0,0.0,-4.589022,-0.54162973,0.0,-0.0,0.0,0.0,0.0,-0.9713652,0.0,0.0,-1.6163597,-0.80610263,0.0,-3.4964545,-3.1169982,-0.87860924,-3.2820241,0.0,1.6666703,-1.7181147,-1.3050123,0.0,-0.0,0.18119149,-0.0,-0.0,-0.0,-0.0,-0.0,-0.7416484,-0.0,-1.8732102,-0.0,-0.0,0.8419405,0.0,0.5651987,-0.70197916,0.2971706,-0.30329674,-0.0,0.0,-0.4258421,-0.6681473,-0.7850081,0.0,0.0,-0.0,0.0,0.0,0.0,0.05003719,0.3907338,-5.866938,0.0,0.34839165,0.0,0.0,-0.7452619,0.0,0.0,-0.51004255,0.26405632,-0.0,-0.0,1.3197689,-0.0,0.0,-0.0,0.0,0.0,0.0,0.0,0.0,0.0,0.0,0.0,0.0,-0.0,-1.009828,0.0,-0.0,1.0366076,0.0,-0.8578137,0.0,-0.20291665,0.0,0.6574986,0.0,0.0,-0.0,-2.1527867,0.9152355,-0.0,0.0,0.0,-0.0,0.0,-0.0,0.27116477,0.64783996,-0.0,-1.7325206,0.0,0.0,0.0,0.0,0.0,0.0,-3.2497401,-1.0833238,0.10573992,1.8576798,-0.0,1.5217679,0.0,0.0,-1.6466353,-0.6460989,0.0,2.6997888,0.0,0.0,-0.0,-0.73170006,0.0,-0.0,-1.7109692,0.0,-2.0317311,-0.09157289,1.3256131,-0.2028028,0.0,1.2944713,0.0,-1.0517471,0.43123245,-0.17727827,0.0,0.0,0.0,-0.0,-0.89206713,0.0,0.0,-0.0,1.0906259,0.0,-0.9263868,3.070482,-0.0,-0.0,-1.1473944,1.3790969
-0.0,0.0,0.0,0.0,-0.0,-0.0,0.0,0.3403004,0.0,-0.0,-0.40981725,-0.0,-0.0,0.0,-0.0,-0.0,-0.0,0.0,0.0,0.0,1.3576522,0.0,0.018886883,0.28748962,0.9641072,0.0,0.0,-1.5162735,0.0,-0.0,0.0,-2.0807748,-0.0,-0.0,-0.0,0.0,1.1200492,-1.6893125,-0.058219247,-0.0,0.0,0.0,0.0,-1.6575277,0.0,-0.2789555,0.0,-0.14198945,-1.1665468,-2.902521,-0.0,-0.0,2.8102095,0.0,-0.0,-0.62812775,-0.89156824,1.4243189,-0.3416017,-0.0,-0.287357,-0.0,0.9033345,0.38369146,0.0,0.45812187,0.0,0.84468174,0.0,0.64000875,0.0,0.0,0.0,-0.0,0.0,0.68099326,0.0,-0.0,-0.0,-0.0,1.282377,0.0,0.0,-0.0,0.0,0.0,-0.0,0.0,0.0,-0.0,1.3315347,-0.0,-0.0,-0.0,1.3138146,0.80114573,0.0,0.0,-0.413934,-0.6780297,-0.0,-0.0,-0.44518802,0.0,-0.0,1.2484823,1.5787537,-0.7539439,0.6433322,0.2511231,0.0,0.36835217,0.0,0.0,0.70328474,0.0,0.0,0.0,-0.0,0.0,0.6722455,-0.74246275,-0.62613714,-0.7272009,-0.0,-1.9434785,0.0,-0.0,-1.0907689,-0.0,-0.0,-3.2052822,-0.0,0.0,-0.0,-0.19774014,-0.064460546,0.16840029,0.4977651,-0.0,0.913433,0.5375312,0.0,-0.6291744,-0.52778625,-0.2811286,-0.0,0.52800626,-0.0,0.0,-0.0,-0.0,1.4326193,-0.0,0.0,0.0,-1.4790033,0.0,0.0,-0.0,-0.0,-0.0,0.0,0.49668056,-0.0,-2.8822956,0.3903581,0.0,0.0,-0.0,0.0,-0.0,0.01380022,-0.0,0.0,-0.0,-0.0,-0.22211456,0.9396447,-0.0,0.0,-0.0,1.4845556,0.0,-0.0,0.0,-0.0,-0.0,-0.0,-0.0,-0.0,0.0,0.0,0.48232183,0.0,-0.0,1.9643921,0.7538534,-0.0,-0.0
0.0,-0.0,-0.73399925,0.0,0.0,-0.0,1.2357221,-0.691969,-1.4379814,-0.0,-0.0,0.11961912,-0.0,-0.19537564,0.0,-0.1402333,-0.0,2.3525434,0.0,0.0,-0.0,0.0,-0.6181231,0.6222226,0.0,-0.0,-0.0,0.56401956,0.75555336,1.0179576,-0.0,0.0,0.0,-0.0,0.0,0.0,1.2830298,-0.0,1.2330158,-0.0,-0.0,1.4130647,0.0,0.6055002,-0.0,3.7287931,-0.0,0.0,2.1477191,1.3254992,0.0,-0.0,-1.36943,0.0,-0.0,-0.0,0.0,0.0,0.0,-0.0,0.70504606,-0.0,-0.0,0.0,0.3018147,0.0,0.0,-0.0,0.0,0.6041625,0.0,-0.0,0.0,0.5043241,0.0,0.0,-0.91413337,0.0,-0.0,0.0,0.0,-0.0,0.39947268,0.0,-0.0,0.0,0.26238754,0.0,-0.0,-0.0,-0.36227956,-0.8908786,0.0,0.0,0.0,0.06992665,-0.3018971,0.0,1.4570131,0.91315496,-0.08939666,-0.0,0.0,0.0,-0.0,-0.0,0.0,-0.0,0.0,-0.101588674,0.6101115,-0.0,0.0,-0.0,-0.0,0.0,0.0,-0.0,0.20211114,0.0,-0.0,0.06574378,0.0,-0.0,-0.0,0.0,-0.0,-0.0,-0.0,0.4367893,-0.0,-0.44926178,0.0,-0.0,-0.0,-0.0,-0.0,0.0,0.29187685,0.0,1.5056362,0.0,0.0,0.0,-1.14047,-1.9858505,0.0,0.40083855,-0.0,-0.0,0.0,-1.0788114,-0.0,1.1159356,0.14486773,0.0,0.7380604,0.7821196,0.0,0.50258636,0.9491211,0.7504377,0.0,0.0,0.27708656,-0.0,0.0,1.2725896,-0.0,0.0,0.78538626,0.0,0.0,0.8692167,0.0,-0.0,0.1950459,-3.9303892,0.0,0.0,0.0,-0.0,1.7521287,0.0,0.0,1.1923187,0.5326074,1.4201279,0.7023022,-0.0,-0.0,0.80469817,0.0,0.0,0.0,1.0744475,-0.5991613,0.6261208,0.51530796,0.7726273
0.0,-0.69021094,0.0,0.91732866,0.0,0.2368642,-0.0,0.2627103,0.0,0.0,-1.2297908,0.0,-0.0,-0.0,-0.0,-0.0,-0.0,-0.0,0.0,-0.0,-0.9029674,-0.0,-0.0,0.0,0.2939955,0.0,-0.21998446,-0.0,-0.0,-0.0,-0.6063077,0.14232337,-0.0,-0.46252936,-1.4855942,0.0,-0.0,-1.7927384,-1.0068367,0.0,0.6710453,1.4443114,-0.0,-1.382782,0.0,0.0,-1.0229652,-0.0,-3.1749148,0.0,0.0,-0.0,0.71667194,-0.0,0.0,-0.73250663,-2.200111,-0.0,0.0,-0.2892711,-1.9765456,-0.0,0.0,-0.0,0.0,0.7802188,0.0,0.0,2.3986638,-0.0,0.02882096,-0.0,-0.0,-0.0,0.37298125,0.0,0.0,0.6781633,0.0,0.37154594,1.4029316,-0.37494695,0.0,-0.0,-0.0,0.7131309,0.0,0.0,-0.6439358,0.0,2.091701,-0.0,-0.0,0.0,0.0,0.0,-0.0,-0.0,0.0,-0.16181898,0.0,-0.98452413,-0.3907687,-0.0,0.0,0.91953015,0.9376063,0.84918135,-0.0,0.0,0.0,-0.0,-0.0,-0.94273925,-0.0,0.0,0.7706822,0.0,0.0,-0.0,0.67450124,-0.0,0.29601634,-0.0,0.79435164,0.0,0.0,0.3673835,-0.31105053,-0.0,-0.0,-0.65598166,-0.0,0.0,-1.7004389,0.0,-0.84514475,0.0,-0.26373237,-0.0,-0.0,-0.1379155,0.0,0.0,-0.71021795,-0.053516522,0.0,-0.0,-0.0,0.0,1.0006151,-0.0,0.9041914,0.0,-0.8802306,0.9265887,0.0,0.0,0.0,0.0,0.0,-0.0,-0.0,0.0,0.46420673,-1.3594187,0.0,-0.0,-1.1593524,-0.0,0.0,0.46725982,-0.0,-0.0,-0.0,-0.0,-0.0,-0.0,0.9257457,-0.0,-0.5842146,0.0,1.0250247,-0.0,-0.0,-0.0,0.0,0.0,-0.15728664,0.0,-0.0,-0.0,0.0,1.019976,-0.0,0.9989638,1.2170109,0.0,0.0,0.0
0.0,0.0,0.06675544,0.0,-1.3925377,0.0,0.32631642,1.200376,-0.5453507,-0.46741214,0.0,-0.0,0.0,-0.0,-0.62195367,-0.0,-0.0,1.0820562,0.0,0.0,0.0,-0.0,0.0,0.0,0.0,1.1724325,0.368742,0.0,0.0,-0.0,0.0,0.0,-0.0,-0.80550086,0.2923538,0.0,0.0,0.0,0.8002149,0.0,-0.0,0.0,0.0,0.0,0.0,2.332975,-0.0,0.67892265,-0.0,0.042578433,0.0,-0.0,-0.0,0.0,0.0,0.0,0.0,-0.0,-1.1863263,0.0,-0.32378206,-0.0,-0.99669147,-0.0,0.0,0.0,0.0,-2.0098317,0.0,0.0,0.0,-0.0,-0.0,-0.75438213,-0.0,0.0,-0.0,-1.4379038,0.0,-0.0,0.0,-0.0,-0.0,-0.0,-0.0,0.0,-0.0,-0.9720209,1.1287642,0.0,-0.0,-0.0,0.0,-1.2339933,-0.0,0.5188697,-0.0,0.5735561,-0.0,0.0,0.43542776,0.0,0.0,0.0,-0.0,0.49189153,0.0,0.52340263,0.0,0.03945971,0.0,-0.0,-0.0,0.0,1.299485,0.0,0.0,-1.2855613,0.0,-0.0,1.5483766,-0.0,-0.0,-0.501576,-0.0,0.0,0.0,-0.0,-0.0,0.0,0.0,-0.5097165,0.0,0.0,0.83648795,0.0,1.124126,1.1931403,0.6408653,0.0,1.1076204,-0.0,0.0,0.0,-0.0,-1.0829291,-0.9648923,0.7820497,-0.0,-0.0,0.0,-0.0,-0.0,0.0,-0.0,0.0,0.0,0.0,-0.42847615,-0.0,-0.088580355,0.6797858,0.0,-0.0,0.0,0.0,0.0,0.0,0.0,-0.0,0.15920272,0.9201271,-1.4844286,0.0,-0.0,0.0,0.0,-0.0,0.0,-0.0,0.0,-0.0,0.0,0.4765274,-0.5684398,1.3046838,-0.0,0.0,1.0679933,0.0,-0.0,-0.0,0.0,0.0,0.0,1.305346,0.7364702,0.0,0.0,-0.0
0.0,-0.0,0.6558337,0.0,-0.0,0.0,-0.0,-0.0,-0.0,0.0,0.0,0.0,0.0,-0.0,0.0,0.0,0.0,0.8343176,-0.0,0.49434936,-0.23971672,0.0,0.0,-0.0,0.8349883,-0.0,-0.0,-0.0,0.0,0.0,0.0,0.0,0.3194475,0.0,0.0,-3.5272079,0.0,-0.0,-1.2083747,-0.4369092,0.57569766,1.3899724,-0.0,-0.0,1.0860314,-0.0,-0.4838968,1.5865941,-0.0,0.96158975,-0.0,0.0,0.09187997,0.39368546,0.0,-1.0247332,-0.0,0.0,0.63754594,0.0,0.0,0.0,2.2678075,0.0,-0.0,0.0,-0.0,-0.0,-0.0,0.10719229,-0.4921215,0.0,0.0,0.09830498,-0.0,-0.0,-0.0,-0.0,2.6118972,0.0,-0.0,-0.17557995,-0.0,-0.0,-0.0,-0.0,-0.0,0.5160893,0.4794831,-0.0,0.49095818,-0.0,-0.0,-0.0,-0.0,0.0,-0.0,0.51383036,0.0,0.6749555,-0.0,0.28056967,0.0,0.0,0.0,-0.0,-0.5025986,-0.0,-0.0,0.0,-0.0,0.0,-0.0,0.4616712,0.0,-0.0,-0.0,0.0,0.0,-0.0,0.0,-0.0,0.0,-0.6231284,1.1166217,-0.0,-0.0,0.0,-0.92713064,-0.0,0.0,-0.0,0.0,-0.0,-1.5139322,0.0,0.0,0.0,-0.0,0.0,0.0,0.0,-0.0,-0.0,0.0,-1.2277627,-0.0,0.0,0.0,1.0418386,0.0,-0.0,0.0,0.0,0.0,0.0,-0.0,0.0,0.32707432,-0.0,-0.0,0.0,0.0,-0.0,-0.0,-0.0,-0.0,0.49572533,-0.0,-0.0,0.0,-0.09272625,-0.0,0.0,0.0,0.0,0.8004019,-0.0,0.43274748,0.0,-0.0,-0.0,1.8704474,0.0,-0.0,-0.0,0.58924156,-0.0,-0.0,-0.0,0.9342296,0.0,-0.0,-0.0,0.0,2.9538743,0.29913455,-0.0,0.0,-0.0
0.0,0.0,-0.0,-0.0,-0.0,-0.0,0.20088214,0.12395806,-0.0,0.0,0.33769053,-1.0916584,0.0,-1.7451081,0.0,0.0,0.0,-0.89199764,0.0,-0.17799854,0.5703362,0.28607464,-0.26134416,-0.7589675,-0.0,-0.0,0.2550639,0.4773799,-0.0,-0.6088512,0.0,0.0,-0.0,0.0,0.0,-0.0,-0.0,0.46514437,0.0,0.0,0.0,-0.0,-0.6804047,0.6599562,0.6713666,-1.5324917,0.0,-2.7880352,-0.6625818,0.0,-0.0,0.0,-0.9128816,0.0,-0.2043373,-0.0,0.21315448,-1.3219671,-0.0,0.6549601,-0.0,-2.1626568,-0.7497642,0.35945308,0.7529748,0.0,-0.0,-0.29096147,-0.9335884,-1.5614146,-0.0,0.0,-0.0,0.40508217,-0.0,0.76037496,-0.49315554,-0.0,0.0,0.0,-1.0156324,-0.0,-0.0,0.0,-0.0,0.0,0.0,0.98732543,-0.0,0.0,-1.3855927,0.99527794,-0.0,0.0,-0.0,-0.52787226,-0.0,-1.4126832,0.0,0.0,0.0,0.0,-0.2554086,-0.0,0.22160266,0.0,-0.0,0.118000664,-0.0,0.0,-0.0,-0.0,0.33005857,0.38601705,0.38093275,-0.0,-0.0,-0.44241115,0.0,0.0,1.0652839,-0.3813325,1.1666427,0.94741595,-1.363319,1.0005274,0.0,0.0,-0.4027522,0.0,0.0,0.87085855,0.23301315,-1.0407033,0.0,-0.0,0.0,0.0,-0.0,0.0,0.0,-0.4072093,-0.0,-0.0,-0.0,0.58836424,-0.0,-0.3334589,0.30143395,0.0,-0.0,0.0,-1.3537515,-0.0,-1.2123069,-0.0,-0.0,0.0,-0.0,0.42605144,-0.0,-1.7618742,-0.0,-0.0,0.0,-0.20612885,-0.0,-0.0,-0.0,0.0,-0.58393127,-0.0,-0.0,0.0,-0.0,0.0,0.0,-0.6696587,-0.56270903,0.0,0.0,0.13056566,-1.2786784,-0.31251934,-0.63637197,-0.0,-0.64858985,-0.25516143,0.0,0.0,0.0,-0.0,-0.0,0.12369561,-0.0,-1.907226,-0.0,-0.0,-1.4695771,0.0
0.0,1.6132334,-0.0,1.0681705,-1.3870449,0.0,0.0,-1.5183455,0.0,-1.8109727,0.9334906,-0.0,-0.0,0.0,-1.1063949,-1.8453687,-0.0,-1.1264085,-1.5577673,0.37184757,-0.0,0.3771367,-1.2650898,-0.0,0.0,0.0,-0.19838883,-0.0,0.0,1.4740732,0.0,-0.6240306,-0.0,-0.0,-1.9478804,1.8217384,0.0,-0.0,-0.0,0.5276025,0.8966719,0.4350663,0.0,-0.4324513,-1.1592326,1.1612463,-0.0,1.0787385,-0.0,-0.0,0.0,0.46559918,-0.5174149,0.0,0.0,0.0,0.0,-0.0,-0.0,-0.0,-0.0,-0.0,-0.42125428,0.0,-0.8818455,0.0,0.0,0.0,0.0,-0.0,0.93731934,-0.0,-0.0,-0.0,0.0,1.4893179,0.0,0.0,-0.0,0.0,0.0,-0.0,-0.0,0.3900508,-0.0,0.0,-0.0,0.0,0.0,0.0,-0.0,-0.0,-0.0,0.0,-0.0,0.621811,-0.0,-2.348443,0.20248608,-0.0,-0.0,1.2004197,0.0,-0.82564545,-0.06965557,-0.0,0.0,0.0,-0.23907533,-0.0,0.0,-0.0,0.0,0.0,0.0,-0.5592381,0.0,1.3062468,0.0,-0.0,-0.45689014,0.0,0.0,-0.0,-0.0,0.0,0.60264647,-0.0,-0.060296178,-0.40224046,0.0,0.24799159,0.0,0.0,-0.0,-0.0,-0.0,0.0,-0.56181437,0.0,-0.9334758,-0.4559217,0.0,1.4406327,-0.0,-0.28757682,0.86501884,-1.0767885,-0.0,-0.0,0.0,0.8271093,-0.0,-0.072480015,-0.0,1.0283064,0.0,0.0,0.0,0.5000003,0.0,-0.0,0.0,-0.0,-1.0336974,0.037564274,0.0,0.0,0.0,-0.0,-0.0,-0.9574575,-2.7222269,0.57226336,-0.0,1.8922485,-0.65324056,0.121515594,0.0,2.0881102,0.0,-0.0,-0.56948847,1.0813494,0.28931376,0.0,0.81906706,-0.0,-0.0,0.0,-0.0,0.0,0.0,-0.1513513,0.0,-0.0,0.0,-0.0,0.22755933,0.24659836
-0.07621082,0.8799899,-2.1486073,-1.6566677,0.0,-0.25613594,0.0,-1.5114264,0.0,-0.0,0.0,-0.24793333,0.0,-0.0,1.3281431,0.94464993,0.7102753,1.1689819,-1.66977,-2.2653475,-1.057403,-0.0,-1.9895786,-0.9469208,0.5480085,-0.0,0.40781224,0.0,0.0,-0.37775764,-0.0,0.0,-0.0,0.6015255,-2.4295626,-4.2158136,1.2792004,2.2260685,-0.0,-0.0,-1.1173003,0.0,0.0,-0.0,0.0,-0.0,-0.0,0.0,2.333777,2.1021295,0.23836029,-0.0,-1.2066483,0.0,0.0,-1.0037066,0.0,-1.7810452,0.0,-0.07600434,-0.0,0.70048344,1.1701026,0.96513647,1.6300428,0.62983817,-0.0,0.735752,0.29278627,-1.328657,-0.0,0.0,0.0,-0.5546182,0.0,0.0,-0.29852998,0.0,-0.0,0.0,-0.0,-0.0,-0.0,-0.0,-0.0,0.0,-0.0,1.6941743,-0.98179495,0.0,-2.2945151,0.0,0.07634354,0.0,0.8636447,0.0,-0.0,-0.69269276,-0.0,0.42362696,0.0,0.94022715,-0.54456604,0.0,0.2157012,1.6104517,0.0,3.264904,0.0,-0.0,0.0,0.0,0.1804329,-0.0,-0.0,0.3210442,0.19750474,-0.0,-0.45867902,-0.20888832,0.0,0.4652539,0.0,0.0,-0.41989136,-1.3407089,0.6959454,0.14251952,-0.90802675,1.475185,0.0,0.23879083,0.0,0.0,-1.0115174,0.19960372,-0.0,-0.0,-2.0425537,-0.9932406,1.385051,-0.0,0.0,1.2105626,-0.78464264,0.0,1.8892891,-2.5094507,0.9005712,-0.0,-0.8085538,0.29086888,-1.411386,0.0,-1.7825584,-2.1004715,0.0,1.1285373,-0.33396456,-0.0,0.107922375,-0.2630796,-1.922103,-0.0,1.5123543,0.54548526,0.0,0.6916633,-1.5354812,0.0,-0.1174275,0.0,0.0,-1.166287,0.0,-1.4343574,0.8908961,-1.3441744,-0.9670435,0.0,0.0,-0.0,-0.0,-0.80849075,0.071981296,-2.4060607,0.0,-0.0,0.6154085,0.0,-0.0,-2.0762255,0.0,-0.7803092,2.034745,0.0,-1.3338691,2.7233958,0.7325374,-0.0
1.1455365,0.0,-0.40713036,0.0,-0.0,0.0,0.0,-0.84358543,0.8308387,-0.0,0.0,-0.0,1.6602566,-0.0,0.5235035,0.0,-0.0,-1.0897508,0.0,-2.3876288,0.0,-1.1212748,0.0,0.43912336,0.0,0.5857276,-1.7074733,0.0,-0.0,0.0,0.0,-1.0444803,-2.3942382,-0.0,-0.48398918,0.0,-0.0,0.0,0.0,0.2861546,0.377883,0.0,0.0,0.0,0.0,0.4204397,-0.0,-0.6498847,-0.0,0.66172236,1.6822952,-0.0,-0.0,0.0,0.0,-0.29098767,0.2023374,-0.0,-0.0,0.0,-0.0,0.51413345,0.47167167,0.0,0.30384836,0.0,0.0,-0.0,0.016906228,0.0,-0.0,-0.0,-0.0,0.0,-0.0,0.0,-0.0,0.52212524,-0.0,0.0,0.0,2.8379335,-0.33931053,0.0,0.680223,0.0,-0.0,0.0,0.10374371,0.37234882,-0.0,-0.0,0.0,0.0,-0.0,-0.0,-0.0,-0.0,1.0642018,1.0295457,1.656966,0.1147044,-0.6625873,-0.0,-0.0,0.0,0.0,0.0,0.6751431,0.67996097,0.0,-0.0,-0.28823254,1.2473973,0.0,0.17159349,0.0,0.0,0.0,0.0,0.9243063,0.28561687,-0.0,1.3460249,-0.0,0.0,-0.0,-0.0,0.7794924,2.9172971,0.0,1.6794198,0.0,0.0,-0.0,-0.0,-0.0,0.0,-0.92684394,0.0,-0.28474787,-2.835978,-0.47424755,0.0,-0.0,0.06509513,0.0,-1.3428181,-0.0,-0.0,0.0,1.7701886,-0.0,0.0,0.0,0.93550813,-0.8936984,0.25236434,-0.0,-0.0,0.0,-0.0,0.0,-0.0,0.0,1.6271029,0.9613621,-0.0,0.7683774,-0.0,-0.0,-0.0,0.0,0.0,0.20487598,1.8631493,-0.0,-0.0,1.020659,0.0,0.63537776,1.8957467,-0.76076543,-0.0,0.37478808,0.0,-0.5192781,0.0,0.0,-0.41228184,0.0,0.0,0.0,0.0,0.0,0.0,-0.0,0.5980046,-0.0,0.8428807
0.0,1.2345614,-2.1784933,0.0,0.0,0.21425013,0.0,-1.5139076,0.38870686,-0.0,-1.7841642,0.0,-0.0,-0.20766895,0.0,0.4992305,1.1349086,0.0,0.0,-0.083638564,0.031538088,0.0,0.0,0.0,0.6261806,-0.31788826,1.2027928,0.0,0.0,-0.0,0.7573602,0.0,0.5882111,1.4794933,0.0,0.0,0.0,1.4204353,1.0386013,-0.0,-0.0,-1.0577809,0.9120642,-0.0,-0.0,1.877954,-0.0,0.0,-0.0,1.0086886,-0.0,-0.0,-0.0,0.0,0.4922332,-0.0,0.0,0.0,-0.9067527,-1.3661686,-0.0,0.0,-0.0,0.0,0.0,0.0,-0.0,-0.0,0.0,-0.7009416,0.0,-0.0,0.0,1.0973543,0.0,-0.0,-0.0,0.0,0.4976245,0.0,-1.1796948,-0.0,0.0,0.54682386,-0.0,0.0,-0.0,-0.0,0.0,-0.0,-0.0,0.0,0.0,0.0,-1.261487,-0.35303918,-0.0,-0.5594904,-0.0,-0.0,0.0,1.2710992,0.30048472,-0.89877087,-0.0,0.20085868,0.4434777,1.1173204,0.0,-0.0,0.0,0.9555105,0.0,0.0,1.1665268,0.0,0.3746396,-0.0,-0.1961423,0.0,-0.0,0.11203558,0.0,0.0,-0.0,0.0,1.9556243,-0.0,-0.0,1.0252151,-0.13584024,-0.0,0.4932799,-0.0,-0.9903829,0.7163214,0.0,-0.0,-0.39756244,0.73706967,1.5712489,0.76901424,0.0,0.5275928,0.0,-0.014047177,2.041455,-0.34857833,-0.0,1.6254877,-1.1483516,0.40224347,-0.0,0.0,-0.6865579,0.0018808703,1.2375107,-0.0,-1.8328428,-0.06635547,0.0,0.0,-1.4485118,0.0,-0.6333912,0.3972617,0.6553521,0.0,-0.0,0.0,0.0,-1.1264893,0.0,1.3191348,0.0,-0.1757314,1.0092816,-2.550592,0.0,0.0,0.19042495,-0.0,0.6633251,0.12101134,-1.151942,0.0,-0.3160886,-0.0,0.0,-0.6963083,-0.0,-1.7421135,1.2020092,-1.4538952,0.7179403,-0.80397254,-0.80362266,0.0,-0.0,-0.0
-0.0,0.0,-0.0,0.0,-0.0,0.0,-0.0,-0.0,-1.2716792,0.0,0.0,-0.0,0.0,0.5560522,0.0,0.0,0.0,0.7921753,-0.0,-0.0,0.0,-0.0,-0.0,-0.0,-0.3975617,-0.92558116,-0.2978953,-0.0,-0.0,-1.5375264,0.0,-1.2270876,-0.0,-0.0,-0.0,-1.2645434,-0.0,0.0,-0.0,-0.0,0.0,0.29401982,-0.0,-1.4501464,0.87118906,0.0,-1.2158331,1.556282,0.0,1.6563743,0.3787975,0.0,0.0,-0.8254535,0.0,0.0,-0.0,-1.6747198,-0.77669185,0.0,0.0,0.0,0.0,-0.0,0.0,1.9823482,-0.28227478,0.0,-0.0,0.52502656,-0.6163927,0.0,-0.0,0.0,-1.0138383,-1.7737072,-0.0,-0.0,0.46527675,0.5796664,0.0,-0.0,-0.0,-0.0,0.0,-0.0,0.0,-0.0,0.57726043,-0.48932916,-0.07810005,-0.35381436,-0.0,-0.45395762,-0.0,-0.0,-0.0,-0.0,0.0,1.6867799,-0.4693143,0.0,-0.048167225,0.0,-0.0,1.2063334,-0.0,0.49657625,-0.0,-0.19860204,-0.75058204,-0.0,-0.0,-0.2975246,0.0,0.0,0.0,0.0,0.0,-0.0,0.0,-1.3942531,-0.0,0.0,0.0,-0.0,0.6855118,0.3137698,0.0,0.0,0.7790078,1.1060935,0.0,0.0,0.0,0.6298709,-0.0,-0.0,-0.0,-0.0,0.99604,-1.3909059,-0.0,-0.5255812,0.0,-0.0,1.1374615,-0.0,0.0,0.29422212,-0.0,0.0,0.0,0.0,-0.6609969,0.0,-0.0,0.0,-1.0049044,0.03628936,0.0,-0.0,0.0,-0.0,-0.0,0.0,-1.2128571,0.30081218,-0.0,-0.0,-0.0,-0.0,0.4555067,0.0,-0.74524987,0.0,0.0,-0.53260195,-0.0,-0.0,0.0,-0.0,0.26380762,-0.0,-0.0,-0.0,0.0,-0.27570552,0.22169101,0.0,0.0,-0.0,-0.0,-0.0,1.1727743,0.9372993,-0.0,0.04138476,-0.87967753,1.5931584
0.0,-0.0,0.44137362,1.1841458,0.0,-0.0,0.0,1.4771353,0.0,-0.0,-0.0,-0.0,-0.0,-1.4911791,-0.0,-0.0,-0.0,1.4216026,0.0,0.0,-0.0,0.0,0.0,-0.58587056,0.0,-0.7778122,-0.0,0.45156786,0.0,0.0,-0.0,-0.0,0.0,-0.0,0.0,0.16631241,0.0,-0.0,0.0,0.0,-1.6600153,0.0,0.0,0.0,-0.0,-0.0,-0.0,-0.50237805,-0.0,-0.0,0.0,-0.0,-0.0,0.0,0.0,-0.0,0.0,0.0,0.0,-0.0,-0.0,-0.0,-0.0,0.0,0.0,-0.0,0.0,-0.0,-1.2932621,0.0,0.0,-0.1981484,0.0,-0.0,0.0,0.0,0.0,0.0,-0.0,-0.0,0.0,0.0,0.0,0.0,-0.0,-0.4820803,0.50895435,0.0,-0.0,0.0,-0.0,-0.43394455,0.0,0.0,0.0,-0.0,-1.6480404,0.0,-0.0,1.8652582,-0.0,0.4102637,0.0,-0.0,0.54019773,-0.0,0.0,1.3610139,0.0,-0.0,0.0,-0.0,0.0,-0.3716942,-0.0,0.0,0.0,-0.0,-0.0,0.92278993,-0.0,-0.0,0.0,-0.0,-0.0,0.1646687,-0.0,-0.0,-0.0,-0.1807122,-0.0,-0.0,-0.5114613,-0.0,-0.0,-0.0,-0.0,0.0,-0.0,-0.0,-0.0,0.0,0.0,0.43152153,0.0,0.0,0.0,0.0,-0.0,-0.0,-0.45610154,-0.4494101,1.0185481,0.0,1.474574,0.0,0.0,0.0,0.0,1.5788999,0.0,0.6836935,0.0,0.0,0.0,-0.0,0.0,0.7436242,0.0,0.0,-0.0,0.0,0.0,-0.0,0.0,-0.0,-1.7583452,0.0,0.0,-0.0,0.0,0.0,0.0,0.0,0.0,-0.23320897,0.35999426,-0.0,0.0,-0.0,-0.11892038,0.0,0.0,-0.5246369,0.0,-1.1380297,-1.7818513,0.0,-0.0,-0.0
-0.0,0.0,-0.67604965,-0.0,0.0,0.0,-0.702356,-2.4586947,1.1762567,-1.0694575,-0.0,0.0,-0.0,1.7178751,-0.0,0.0,-1.0003408,-0.39150614,-0.0,-0.0,-0.8849769,-0.0,2.0839248,0.5480421,0.0,1.2337039,0.0,0.0,-0.7951564,0.575997,-0.0,-0.0,-0.0,0.5677689,-0.0,0.0,-2.7269797,-0.736805,-0.0,-0.0,0.0,-1.3936378,-0.0,0.0,0.8359111,-2.4057806,-0.0,-0.0,-0.7075897,-1.1268517,-0.0,0.0,-0.0,-0.0,-0.0,0.0,-0.69775546,-0.0,0.0,-0.73823327,0.0,0.0,-0.0,0.0,-0.0,-0.0,-0.0,0.0,-0.0,0.0,0.0,0.0,-0.0,1.1435331,0.0,-0.0,0.6526284,0.0,-1.8154598,-1.0458989,-0.0,0.0,-0.0,0.6849476,0.0,-0.0,-0.43162042,0.0,-0.20412251,-0.0,-0.0,0.19069688,-0.0,-0.0,0.27981308,-0.0,0.0,0.37513882,0.0,-1.1671597,0.9191806,-0.32394296,-0.0,0.0,0.0,2.2255156,-1.78941,-1.9870334,0.0,-0.0,0.0,0.0,-0.0,-3.578776,0.0,-0.0,0.7378664,0.696734,-0.0,-0.0,2.1329048,0.27991098,-0.0,-0.075821094,0.98431855,0.0,0.0,0.0,0.0,0.0,-0.0,0.0,-0.0,0.9245238,0.0,-0.93052214,0.0,0.0,0.0,-0.0,-0.0,1.9053794,-0.0,-0.0,-0.0,-0.0,-0.0,-0.0,0.0,-0.0,-0.0,1.0181636,-0.0,-0.0,-0.0,0.43858907,-0.0,-1.357031,-0.0,0.0,-0.0,0.0,-0.0,0.5371973,-0.0,0.0,-0.0,-0.0,-0.0,-0.0,0.0,0.0,0.0,0.0,1.9164177,0.0,0.0,0.0,-0.0,-0.0,-0.0,-0.0,-1.0243441,0.021867685,-0.0,-0.0,-0.21298489,-0.70297045,0.4752714,0.0,0.0,-0.09664865,-0.0,-0.0,-0.0,-1.3068893,0.0,0.0,0.0,0.0
-0.0,-0.0,0.69074446,0.23862404,-0.0,-0.60544306,-0.8554103,0.0,-1.1933285,-0.0,-0.13075098,1.2323803,0.0,-0.22738826,-0.10629491,0.0,0.0,-0.0,0.0,0.7703867,0.60931504,0.0,-0.58973885,0.0,-0.84368503,-0.0,0.5439697,-0.95571816,-0.48292983,0.8596681,-1.3401477,0.48501423,-0.0,0.0,-0.0,0.79380333,-0.0,-1.9247115,-0.0,-0.0,0.0,-1.5053126,0.8845974,-0.88347965,-0.0,0.0,0.0,-0.8926023,0.0,0.0,-0.0,0.0,0.0,0.0,-0.0,0.0,-0.0,0.37864867,-1.1342275,0.0,-0.5548015,0.0,0.0,-0.0,-0.0,-0.0,-0.0,0.0,-0.0,-0.0,-0.0,0.0,0.9043341,0.0,-0.0,-0.0,0.31516984,-1.0269938,0.0,-0.0,-0.0,-0.0,-0.0,-0.0,0.0,-0.0,0.0,-0.9458951,0.0,-0.0,0.0,-0.4874697,1.5866376,0.20189828,-0.0,0.0,-0.0,-0.0,0.0,0.70858026,0.0,0.0,-0.0,-1.3424824,0.0,0.0,-0.0,0.49315748,-0.0,0.0,-0.0,0.0,-0.0,0.0,0.25173527,-0.0,-0.0,-0.51699543,-0.0,-0.0,0.0,-0.0,-1.7689465,0.0,0.0,-0.0,-0.23923482,0.0,0.0,0.0,0.0,0.8152676,-0.0,-0.65422344,0.0,-1.4000742,-0.39460176,0.0,0.01838524,0.2704853,-0.88063014,-0.0,-0.8342004,0.2528613,0.6690597,-0.0,-0.0,0.39579877,0.0,-0.351421,-2.5427945,-0.0,0.17702481,1.1775346,-0.0,-0.0,0.34500542,0.75824124,-0.41064125,0.0,-0.0,0.88768184,-0.0,-0.0,-0.14757691,-0.5351658,-0.0,-0.0,1.2523338,0.0,0.0,0.17128123,-1.0332719,0.409325,-1.7452574,0.4022165,1.2570902,-0.0,0.4739265,0.0,-0.5831286,-0.0,-0.0,-0.0,2.5168865,0.0,0.0,-1.1646882,-0.0,-0.5761644,0.0,-0.35380936,1.0444748,-1.0342784,-0.52310294,2.5073154,-0.0,-0.2618104,0.0,0.0
-0.0,-0.0,0.0,0.0,0.0,1.4854919,0.8761595,0.65067744,0.6780056,-0.0,-0.0,-0.0,-0.0,0.0,-0.0,-0.0,-0.0,1.0549427,0.0,0.015343861,0.35048604,0.0,0.0,0.0,1.4715269,-0.0,-1.560935,0.0,0.0,-0.0,0.23692639,-0.0,0.0,-0.0,-0.0,-0.0,0.0,-0.0,-0.0,-0.0,-3.6297407,0.0,-1.2650615,-0.0,0.0,0.98996985,-0.0,0.0,-0.0,2.1933732,-0.0,-0.0,-0.5281617,-0.0,0.0,-0.85696274,0.0,0.0,0.0,0.0,1.053953,-0.0,-1.1714939,0.0,-0.0,-0.0,0.0,-0.0,-2.7734091,0.0,0.41805682,0.0,-1.013242,-0.0,1.1692023,-0.0,0.0,-0.7033416,-0.0,-0.19723056,0.0,-0.0,0.0,0.0,-0.0,1.0819361,0.6940415,0.0,0.0,-0.4158034,-0.0,0.0,0.0,-0.0,0.0,-0.0,-0.0,0.0,-0.0,2.0800958,-0.0,1.2700768,-0.0,-0.03940949,-0.0,-0.0,0.0,1.3143529,0.0,-0.0,0.0,-0.0,0.0,-0.2308624,-0.0,0.6215513,0.0,-0.0,-0.0,0.94484997,-0.0,-0.0,0.2433626,-0.0,-0.0,0.0,-0.0,-0.31644642,-0.0,-0.0,0.60257006,1.001376,0.0,-0.0,-0.0,0.0,0.43691468,0.0,0.7778422,0.72022134,1.645655,0.0,0.0,0.0,-1.169592,-1.1356379,-1.3695925,0.33076516,-0.0,-0.0,-0.0,-0.0,0.0,-0.0,0.0,-0.0,0.0,-0.0,0.0,-0.0,2.0660102,-0.0,0.0,0.0,-0.5633503,-0.53524023,0.0,0.8848009,-0.8103143,0.0,0.0,0.0,0.0,-1.4280398,0.0,-0.0,-0.0,0.0,-0.0,-0.0,-0.41263232,0.0,0.47369495,0.0,-1.3638937,-0.06891021,-0.0,0.0,0.0,-0.0,-0.0,0.0,-0.99519825,-0.0,-0.58204275,-1.6927311,-0.0,0.6149534,-1.0662739,-0.0
0.76539034,0.0,-1.1101102,0.0,0.0,0.07353923,0.0,-1.316223,0.0,-1.617715,0.0,-0.0,-0.0,0.0,0.0,0.0,-0.7288939,-1.7573124,-0.0,-0.0,-0.0,-0.6150391,-2.182867,2.7055295,-1.6040256,0.0,-0.0,1.2153986,0.0,0.0,1.5838815,0.31881934,-0.0,-0.0,-0.9164808,0.0,-0.54513437,0.36854312,-0.0,0.0,1.0602423,2.691606,0.0,-1.5029448,-0.44527236,2.7998226,-0.0,1.4401186,-0.0,0.42859548,0.6844155,-0.0,-0.0,0.0,0.0,-1.4836324,0.0,0.25843197,0.0,-0.0,-0.0,-0.0,-0.0,0.0,0.0,0.0,0.0,-0.9439955,0.0,1.0334343,0.0,-0.7003594,0.0,1.4990778,0.0,-0.25469685,0.0,1.2496208,-0.22074579,0.0,0.0,0.0,-0.0,0.0,-0.0,0.25186363,-1.7606183,0.0,-1.522006,0.0,-0.0,-0.0,0.0,-0.38024023,-1.4870251,-0.690657,0.0,0.0,0.0,0.48353976,-0.0,-0.41290534,0.0,0.0,-0.0,0.17732939,0.0,0.25513473,0.0,-0.0,0.0,-0.0,0.0,-0.38844,0.0,0.0,0.0,-0.0,0.0,0.0,-0.0,0.0,0.0,-0.0,-0.0,-0.0,-0.0,0.61649895,0.17060013,1.05858,-0.0,-0.15645902,-0.42420572,0.0,-0.0,-0.3050957,-0.0,0.0,0.012372307,0.7969168,-0.44546887,1.2918347,0.0,0.0,0.0,0.0,-0.6093075,0.14622529,-0.0,-0.0,0.7349845,-0.0,0.0,0.0,-0.24995399,0.0,0.0,0.0,-0.5162939,-0.16724604,0.519846,-0.0,-0.15422134,-0.61521196,1.0050077,1.481442,0.0,-2.9843533,0.0,0.92328584,0.19123566,-1.3605045,-3.0412328,-0.0,-0.0,-0.0,0.0,1.5659697,-0.12093544,-0.34556353,1.2153394,0.2747482,0.0,-0.7126996,-0.0,0.0,0.47297156,-0.0,-0.8397218,0.5953506,-0.0,0.0,0.0,0.0,0.0,-0.0,0.0,0.0,0.0,1.6516056
-0.0,-0.615318,0.0,0.0,-1.257076,0.76160073,0.0,-0.0,0.0,-0.0,-1.1994619,0.0,-0.0,0.0,0.0,-1.491547,0.0,1.1970804,-0.0,1.3063568,-0.0,-1.4886262,1.3975633,-1.3227906,0.0,0.0,-0.0,0.0,0.0,-0.0,-0.0,-0.0,0.0,-0.93901294,0.0,2.5054576,-0.38135523,-0.35687098,1.2378807,-0.0,-0.9933768,0.0,0.0,-1.2797649,1.3409203,0.3637561,-0.0,0.0,0.19412845,0.17440379,-0.0,-1.1263733,-0.0,-0.0,0.0,-0.69152874,-0.0,0.15259166,0.73299295,-0.19409396,-0.62130535,0.0,-0.0,-1.0371814,0.0,-0.0,-0.0,-0.4942208,-0.0,0.6052135,0.0,0.7359054,0.0,-0.0,-2.7533379,-0.0,0.0,-0.0,-0.0,-0.097860575,-1.2616045,0.0,0.0,-1.171175,0.0,1.5144501,-0.0,-0.8743385,0.0,0.0,-0.0,-1.01558,0.0,-0.0,-0.21034135,0.8866937,-0.0,0.0,0.534079,0.091728486,-0.0,-0.0,0.40333676,0.6548519,0.0,1.606622,0.0,-0.9499023,0.0,-0.0,0.0,0.0,-0.02631329,-0.09249165,0.0,-0.0,-0.0,0.4628783,-0.0,0.0,-0.23623295,0.89662004,0.0,-0.0,-0.0,0.0,-0.0,-0.0,-0.0,-0.0,-0.0,0.0,-0.0,-0.09434112,-0.34658012,-0.11929155,0.0,-0.0,0.0,0.0,-0.5624585,0.48855028,-0.0,-0.0,0.0,0.6311613,0.0,-0.42162895,-0.0,2.3459446,-0.0,-0.0,0.50626624,-0.0,0.0,-0.0,-0.0,-0.0,0.0,0.8979704,0.10186846,0.0,1.3261812,0.0,0.0,-0.0,-0.0,2.0212402,1.0430264,-0.0,0.0,-0.05522997,0.0,-0.0,-0.0,0.0,-0.98810995,0.0,0.0,-0.15298006,-0.0,0.0,-0.44397566,-0.35542408,-0.0,0.0,0.44540268,-1.2721084,0.95669425,0.0,-0.0,1.4545848,0.0,0.0,0.0,-0.0,-0.0,-0.07437983,-0.0,-0.0
-0.70077926,0.0,1.1040534,0.0,-1.0797268,0.0,0.0,-0.0,-1.0223788,-0.0,0.0,-0.0,-0.0,0.0,-0.0,-0.0,-0.0,0.0,0.0,0.0,-0.0,0.0,0.0,-0.19933935,-0.24607852,-0.0,0.0,-0.0,0.0,-0.0,0.0,0.9012252,-0.0,-0.0,0.0,0.9883772,0.0,-0.0,0.7007937,0.9741037,-0.0,0.0,0.0,0.0,-0.0,1.2658508,-1.5857002,-0.24173886,-0.0,0.0,0.0,-0.0,0.0,-0.0,0.0,0.0,0.0,-0.5582774,-0.0,0.0,0.0,0.0,0.0,0.0,-0.0,-1.6852407,-0.0,-0.0,0.0,0.0,-0.0,-0.0,-0.0,-0.67988807,-0.0,-0.0,-0.0,-0.3524512,0.0,-0.0,0.0,0.0,-0.0,-0.0,-0.0,0.0,0.0,-0.37010878,0.0,0.0,-0.45179692,-0.0,0.4642729,0.120442875,0.0,0.0,0.03498317,-0.0,0.0,0.0,-0.0,-0.0,-0.0,-0.9084905,-0.0,0.0,0.0,-0.25376645,0.0,-0.0,0.0,0.0,0.0,-0.0,0.046088733,0.0,-0.11838006,-0.0,0.0,0.0,0.5385758,-0.0,0.0,0.035038818,0.0,0.0,-0.6684501,-0.2998845,-0.0,0.0,0.42339438,-0.0,0.0,-0.63700026,-0.0,-0.0,0.9461294,-0.0,-0.0,1.0475196,-0.0,-0.0,0.0,0.0,0.0,-0.0,0.0,-0.0,0.0,0.0,0.0,0.0,0.0,-0.0,0.0,0.0,0.0,0.0,-0.0,-0.0,0.0,0.0,-0.0,0.0,0.0,-0.0,0.0,0.0,0.0,0.0,0.0,-0.0,-1.1128289,-0.0,-0.0,0.7288095,-0.34913623,0.8220229,0.0,0.0,0.0,-0.84961677,-0.007821709,1.154221,-0.0,0.090724155,-0.0,0.0,0.0,0.45530608,-0.0,0.0,0.0,0.9489359,0.0,-0.0,0.0,-0.47466022,0.0,-0.48448795
0.0,0.6260624,-0.0,0.0,-0.0,-0.7234035,0.0,-0.0,-0.70059854,-0.0,-0.0,0.0,0.0,-0.0,0.0,-0.85386777,0.0,-0.0,-0.0,-0.0,-0.7405805,0.53223747,-0.7267671,-0.0,-0.0,1.3729792,-0.090605564,0.0,-0.18111831,0.0,-0.0,0.84650135,-0.0,-0.0,-0.0,-0.0,0.0,2.004031,0.53608656,0.0,1.6085345,0.0,0.0,1.7483314,-0.0,1.9949845,-0.203377,0.6606432,0.56547755,1.0157759,0.0,0.63151765,0.589395,0.13850845,-0.0,-0.0,0.0,-1.15301,-0.9035031,-1.4095498,-0.0,0.0,-1.1608572,0.0,-0.8460254,-1.179206,0.6510473,-0.0,-0.0,-0.0,-0.0,-0.0,0.0,0.83694935,0.0,0.0,0.0,-1.0809468,0.0,-0.39162773,-0.0,-1.0804439,-0.0,0.67140067,-0.0,-0.0,-0.0,-0.0,-0.0,-1.4066232,-0.30633843,-1.253949,0.0,0.0,1.3918973,-0.0,-0.0,0.9905947,-0.0,0.0,0.0,0.54144824,-0.23367894,0.0,0.0,0.42698303,-0.8407606,0.0,-1.0416068,0.5177837,-0.87926793,0.0,0.0,-0.0,-0.0,0.94618684,-0.0,-0.5930225,-0.0,1.0584137,0.41038373,0.0,0.40638146,-0.30276725,0.0,1.0016179,-0.0,-0.8808488,-0.0,0.0,0.0,0.37225518,0.0,-0.0,-0.0,0.0,0.0,-0.0,-0.0,0.0,0.4826946,1.5680354,-0.0,-0.0,-0.0,0.09597066,-0.0,-0.34040275,0.0,-0.4168726,0.0,0.5069239,0.0,0.0,0.0,-0.69644785,-0.0,-0.0,-1.3764024,0.14678958,0.67041916,-0.0,-0.90811294,0.0,-1.0217922,-0.0,-0.0,0.0,-0.0,0.0,-0.0,-0.50930065,-0.22338521,0.0,-0.3094717,0.0,0.8817843,-0.0,0.0,0.0,-0.0,0.0,-0.0,-0.0,-0.0,0.0,0.0,1.3778876,0.840519,0.0,0.0,-0.6316478,0.52752316,-0.025285916,1.7611011,-0.0,-1.0111974,2.6614852,0.0,2.3687668
0.0,-0.0,-0.0,-0.0,0.0,-1.4829429,-0.11633075,0.049175285,-1.3606901,0.0,0.0,0.0,0.0,-0.0,0.29547393,0.0,0.7036259,1.7157916,-0.0,-0.0,0.2888774,-2.7303655,-0.0,0.6412944,-0.6839583,-0.0,-0.0,-0.0,-0.0,-0.0,-0.0,0.0,0.0,0.51584095,0.0,-0.0,0.0,0.9664711,0.32390827,0.0,1.266897,-1.3965899,-0.0,1.2402617,-1.0158476,-0.20134385,-1.0658815,-1.4631667,0.0,0.0,1.0299379,-1.672958,-2.9996862,-0.5836121,-1.0055432,-0.0,-0.0,-0.0,-0.82401544,-0.7545179,-0.0,0.0,0.0,-0.0,1.5109257,2.1511345,-0.5041439,1.0622798,-3.7737255,-3.7137167,-0.55204505,-0.0,-0.0,0.0,-1.1748931,0.0,-0.0,0.0,0.0,-0.0,-0.0,0.29439384,-0.0,0.0,-1.1389809,-0.0,-1.2224184,0.9406576,0.0,-0.6179949,-1.1618994,0.0,0.0,-0.0,-2.270907,-0.0,-0.6661448,-3.0882647,0.0,-1.2139722,0.0,0.0,0.0,-0.0,-0.46157792,1.0570467,-0.03140639,-0.0,-0.8253691,1.8779647,-0.9112299,0.0,0.36925468,-0.0,0.0,-0.0,-0.0,0.0,0.0,-0.0,0.0,1.2016115,0.0,0.0,0.0,0.0,0.3052655,-0.5198342,-0.0,0.0,0.0,-1.2613993,-0.0,-0.0,0.0,-0.0,0.0,0.66129863,-0.7734954,0.23624288,1.5004616,-0.0,-0.0,0.17583916,-0.11740385,0.0,1.8198557,0.0,0.0,0.0,0.5625905,-1.3206806,-0.0,-0.0,-1.1940713,-1.0697882,-0.0,-0.0,-0.0,-0.38315052,-0.0,0.0,-0.0,0.8239178,0.27606973,0.3209036,-0.90776247,0.0,-0.9598212,-1.4018592,-0.0,-0.0,0.5602859,0.0,-1.0815928,-0.55172294,-0.31990507,-2.853669,-0.0,0.0,-0.0,-0.0,-0.0,0.0,-1.4236902,-0.0,0.44861025,-0.0,-0.85038286,-0.6287262,0.0,0.0,-0.0,-0.0,-2.1848946,0.98109424,-3.2386177,-0.0,2.2460206,-1.0631548
-1.4880761,-0.0,-0.0,-0.0,-0.0,-0.0,0.0,0.0,0.0,-0.0,-0.0,0.18953545,-0.0,-0.0,-0.0,-0.0,0.0,0.0,0.0,0.0,0.0,-0.0,0.014437957,0.0,0.0,-0.0,0.0,-0.0,-0.0,-0.0,-0.0,-0.0,-0.0,0.0,-0.0,-0.0,0.0,0.0,0.0,-0.0,-0.0,-1.1640902,0.0,0.0,0.0,-3.0558336,-0.0,0.3179318,0.0,-0.0,-0.0,0.0,0.0,-0.0,-0.0,1.3899108,-0.0,-0.0,0.0,-0.5520123,-0.0,0.0,-0.0,0.0,-0.0,-0.0,-0.0,0.0,-0.0,-0.51372784,0.0,0.3675457,0.0,0.0,0.0,-0.0,0.32664222,-0.0,-0.0,-0.0,-0.0,-0.0,0.0,0.0,0.0,-0.0,-0.0,-0.0,-0.2279978,-0.0,0.0,1.2406273,0.0,-0.0,0.0,-0.39183655,0.0,-0.0,-0.0,-0.0968968,0.0,-0.0,-0.0,0.0,0.0,-0.58872396,-0.0,0.0,-0.0,0.0,-0.35129607,0.0,-0.0,-0.0,-0.0,-0.0,-0.0,-0.0,-0.0,-0.0,-0.0,-0.0,0.0,-0.11608248,-0.0,0.0,0.0,0.0,-0.0,-0.0,0.0,0.16564558,-0.0,-0.0,0.0,-0.0,0.10971989,-0.0,0.27517858,-0.0,-0.0,-1.0551318,-0.0,-0.82466376,-0.0,-0.0,-0.0,-0.0,0.0,-1.5433416,-1.1007603,0.0,-0.0,-0.0,-0.0,0.5055258,-0.0,-0.0,0.0,0.0,-0.0,0.0,0.6397212,-0.0,-0.0,0.0,-0.0,-0.7716642,-0.0,0.0,0.0,0.0,-0.0,0.0,-0.0,0.0,-0.0,0.0,-0.0,-0.0,-0.0,-0.0,-0.9978232,0.0,0.0,0.0,0.0,0.0,-0.32446355,0.0,-0.0,0.0,-0.0,0.0,-0.6809058,0.0,0.0,-0.6153185,-0.0,0.0
0.0,0.0,-0.0,0.0,0.0,0.0,0.0,-0.0,0.0,-2.2928355,0.0,-0.0,-0.0,0.0307655,0.0,0.0,-0.0,0.0,0.0,-0.2912057,-0.0,0.53709275,-1.4231684,1.6997371,-1.9044502,0.0,0.0,-0.0,0.0,0.0,-0.4374211,-0.0,-0.0,-0.0,-0.0,-1.0232766,0.020602122,-0.0,-1.6820246,-0.54919505,-1.4043627,0.0,0.0,0.0,-0.0,1.9126179,-0.0,-1.279652,-0.0,-0.0,0.0,-0.0,-0.0,0.0,0.0,0.0,0.0,-1.4090934,0.0,0.0,-0.20720086,-0.0,0.0,1.7349769,0.0,0.0,0.0,-0.0,0.52738875,0.0,-0.0,-0.0,0.0,-0.0,-0.0,-0.9995351,-0.0,0.06737985,0.5384243,0.0,0.0,0.0,-0.0,-0.0,-0.0,0.0,-0.924665,0.5214847,0.0,0.0,-0.0,-0.5690713,-0.0,0.0,-0.0,-0.0,-0.0,-1.2713084,-0.0,-0.0,-0.0,0.0,0.0,0.0,-0.58555436,-1.3654737,0.0,-0.0,0.77054614,-0.0,0.8186729,-0.0,-1.1808425,-1.022189,0.0,0.0,-0.033685546,-0.0,0.0,0.0,-0.0,0.0,0.0,0.3681361,-0.0,0.0,0.0,0.6952748,-0.0,-0.0,0.0,-0.7243635,0.0,0.0,0.47421387,0.0,-0.0,0.0,0.30728528,0.0,1.1261837,-0.0,0.0,0.06035171,0.0,-0.2972504,0.0,0.3402648,-0.0,-0.14324886,0.0,-0.0,-0.6295967,0.0,0.0,0.0,0.0,0.0,0.0,-0.0,-0.71891314,-0.0,-2.7579324,0.6931936,0.0,0.7503406,0.0,0.27215138,0.0,0.0,-0.0,-0.0,-0.71373105,-0.0,0.0,0.0,0.0,-1.4983513,0.0,1.2372316,0.0,-0.0,0.3043225,0.5410166,0.011471151,0.007638094,-0.4470984,-0.0,-0.0,-0.9754819,0.31909642,0.0,0.0,-0.26905158,-0.13563816,-0.0,0.0,-0.0,0.24587874,-0.45419917
0.0,0.0,-0.0,-0.38167632,-1.4858372,0.0,0.47765863,0.0,0.0,-0.0,0.0,0.0,0.0,0.0,-0.0,-0.0,-1.2010463,-2.632197,0.0,-0.5726336,-0.26744828,-0.49383578,0.0,1.7187893,-2.7570987,0.0,0.0,0.0,0.0,0.0,-0.019681342,-0.5917103,-1.3819683,-0.50977933,0.0,0.0,0.44753805,0.4701591,-1.3771443,0.0,-0.0,2.2354949,0.0,0.0,-1.1145922,-0.0,-0.0,1.4953748,-0.0,-0.24842596,0.36493126,-0.9437726,-1.1573452,0.21312174,-0.5143579,-1.0090106,0.0,-0.0,-1.2806522,-0.0,-0.0,-0.0,-0.0,0.0,1.856867,0.0,-0.4133701,-0.0,0.0,1.4540924,0.0,-1.7443461,-0.37764603,-0.0,0.0,0.0,-0.6147416,0.0,-0.0,0.0,0.0,0.8969795,-0.0,-1.0992006,-0.4945929,-1.1256452,-1.7706069,0.0,-0.0,0.0,-0.0,-0.0,-0.27129203,0.0,-1.6757447,-0.0,-2.7559383,-1.451197,-0.0,-0.6807667,0.68504447,-0.0,1.6122379,-0.0,0.0,-0.8187892,0.30623415,2.1361303,0.0,-0.0,-1.3300654,-0.0,-0.0,0.0,0.0,0.0,0.0,-0.0,0.0,-0.0,-0.0,-0.14096314,-1.1179127,1.593761,-0.08320551,0.0,0.0,-0.0,1.2640567,0.0,0.0,0.0,-0.5873175,0.0,-1.5221635,0.0,-0.0,-0.0,-0.46867892,0.0,-1.0219079,-1.1122888,0.0,1.4057118,-0.8014469,0.0,0.0,-0.0,1.4170994,1.0443331,1.0108283,-1.3264527,-0.0,0.0,-0.5581961,-0.15830372,0.75764525,1.1747365,0.0,-0.0,-0.0,-0.0,0.0,-0.0,1.3726001,0.76582503,-0.97572917,0.0,0.0,-0.0,-0.0,-0.0,-2.935632,0.82009023,-1.7258143,0.0,-0.78133065,0.8869968,0.09002472,0.0,0.99195606,-0.0,-1.3316109,-1.104169,0.0,0.0,0.15926047,0.48242286,-0.7499088,0.227107,0.0,-0.0,-0.76129913,0.5936943,-1.7611654,-1.6988667,-0.21357621,0.0,-0.7314003,1.2286202
-0.0,0.0,1.390052,1.4409168,-0.0,0.0,0.5731515,2.2712088,-0.7125344,0.0,0.0,-0.0,0.0,-2.31843,0.0,0.0,-0.0,-0.0,-0.0,-0.5890146,0.0,1.1375494,0.0,0.0,-0.0,0.0,0.0,0.17781691,-0.0,0.0,0.0,0.0,-0.9697546,-1.0698766,-0.0,-0.0,1.1459349,0.39313346,-1.8988827,0.74068975,0.0,-0.0,-0.0,0.0,-1.5676365,0.9305412,0.0,-0.0,-0.0,0.0,0.0,0.6284523,-0.674281,-0.0,0.0,0.0,0.0,-1.5203698,-1.8327471,0.0,0.4268741,0.7419904,0.0,-0.0,0.0,-1.1874666,0.0,0.0,-0.0,-0.0,-0.0,-0.0,0.0,-0.44563383,-0.0,0.0,0.0,-0.0,0.0,0.0,0.02933073,-0.0,-0.0,-0.0,-0.0,-0.0,0.0,-0.0,-0.0,0.0,-1.5563086,-0.0,-0.0,0.0,-0.0,-1.2719725,0.8674767,-0.0,0.0,0.0,-0.0,1.4537994,0.0,-0.3109232,-0.0,-1.2746751,0.9639866,0.0,-0.0,0.0,-0.0,-0.0,-0.0,1.244701,0.0,0.0,0.0,0.0,0.0,-0.0,-0.0,0.0,-0.0,-0.20509264,0.0,0.23286816,0.0,0.67411053,0.0,0.0,0.2775307,-0.0,0.0,-0.3311461,-0.0,0.0,-0.0,-1.0721115,0.56678903,-0.0,0.0,-1.047574,0.0,0.0,0.0,-0.9171408,-0.0,-0.0,-0.0,-0.0,0.0,0.0,1.6576514,0.0,-0.0,0.0,0.0,0.0,-1.5005524,0.0,0.0,-0.0,0.0,-0.0,0.0,0.0,0.0,-0.0,0.0,-0.0,-0.0,-0.0,-0.0,-0.0,0.0,-0.0,0.0,-0.0,0.10840021,0.0,0.0,0.0,-1.4775091,-0.0,1.4873563,-0.0,-0.0,-0.0,-0.2603955,0.0,0.0,-0.0,-0.0,0.0,-0.8682942,0.0,-0.0,-2.0089033,0.0,-2.1254542
-0.0,0.375239,0.0,-0.0,-0.0,-0.11325597,-0.0,-0.0,-0.7331576,2.3663816,0.0,1.4831516,0.0,-0.88195956,-0.0,0.0,0.0,1.0157672,-0.0,-0.0,0.0,1.1825066,0.12602285,-0.0,-0.0,-0.0,0.0,-0.0,-0.0,0.0,0.0,-0.0,-0.0,-1.1269164,-0.0,-0.0,-0.0,-0.0,0.0,-0.0,0.0,-0.0,-0.0,0.46728918,0.0,0.0,-1.8511887,0.50622314,0.0,0.0,-0.0,1.0738652,0.0,-0.0,-0.0,0.0,-0.0,-0.0,0.1374146,0.0,-1.3304698,0.0,0.0,-0.0,-0.0,-0.0,-0.0,0.0,-0.0,-0.0,-0.0,0.0,-0.0,-1.2606671,-0.0,-0.0,0.84287465,-0.0,0.0,-0.0,-0.0,0.0,-0.0,-0.0,0.0,-0.0,0.0,-1.0979444,-0.09966703,-0.0,0.0,0.0,-0.0,-0.0,-0.0,0.0,-0.0,-0.0,0.0,0.0,-0.0,0.2416125,-0.0,-0.0,0.0,-0.5874818,0.48971954,0.0,-0.0,0.0,-0.45529523,0.0,-0.0,-0.0,0.0,-0.0,-0.0,-0.741324,-0.0,-0.0,0.0,0.0,0.75412726,-1.3499107,0.0,-0.0,0.0,0.23748791,0.0,0.0,0.0,-0.0,-0.0,-0.4285574,0.0,0.0,-0.5219812,0.0,0.0,-0.0,0.9032918,-0.0,-0.0,-0.0,0.0,-0.0,-0.0,-0.0,0.0,-1.5108974,-0.0,0.0,0.6225154,-0.0,0.8653561,-0.0,-0.704899,-0.47287053,-0.0,0.0,-0.0,-0.0,-0.26617375,-0.0,-0.0,0.0,-0.0,-0.0,-0.0,-0.0,-0.0,0.0,-0.0,0.0,-0.0,-0.9976311,0.0,-0.0,-0.0,0.0,-0.0,-2.1161673,-0.0,-0.0,-0.0,-0.0,0.0,0.0,-0.0,1.0220933,0.0,-0.0,-0.0,-0.0,-0.0,1.1476802,-0.0,-0.0,0.0,0.0
0.8029988,0.0,0.0,0.0,-0.0,-0.79001534,0.3578284,0.47792652,-0.11608472,0.0,0.0,0.0,0.0,-0.0,0.60963494,0.0,0.0,-1.3876941,-0.0,-0.0,-0.13134098,0.019125564,-0.0,0.0,-0.0,1.2470813,0.85456085,0.7835998,0.6522027,-0.30332726,0.6538809,0.4842042,-1.259948,0.0,-0.0,-0.7355788,1.9398154,2.3084145,-0.0,0.0,0.0,0.0,-0.0,2.147601,-0.57845956,0.0,0.0,0.11338095,0.0,-0.2615553,-0.0,0.16571052,0.0,0.0,0.0,0.1989823,-0.0,-0.0,-0.0,0.0,0.0,0.0,0.0,-0.0,-0.0,-0.0,-0.23433994,0.0,0.6666779,-0.0,-0.0,-0.0,-0.0,0.0,-0.0,0.0,0.0,-0.0,1.1073314,0.0,-0.0,-0.9970553,-0.0,-0.0,-0.0,-0.0,0.0,-0.0,0.0,0.0,0.0,0.0,-0.0,-0.0,0.0,0.0,-0.0,-1.2903285,0.0,0.0,-0.2393263,0.0,-0.0,0.0,0.0,0.39996278,-0.0,-1.415315,-0.0,1.0036399,-0.0,0.0,0.46167508,0.0,-0.8160194,-0.0,-0.0,1.7224691,0.0,0.07780734,-0.0,0.0,0.32718828,-0.0,0.0,-0.0,0.0,0.0,-0.0,-1.0675802,0.16710731,0.0,0.64621615,-0.0,0.0,-0.23556389,0.0,0.0,-0.23837782,0.13098182,0.0,-0.0,1.2999631,-0.0,0.0,-0.5551674,-0.0,-0.0,0.0,0.0,-0.0,0.0,-0.0,-0.0,-0.58598316,0.0,-0.0,-0.4110154,-0.0,0.0,0.0,0.0,-0.97392595,1.1478597,-0.0,0.0,-0.0,-1.0525718,-0.0,-0.0,-0.0,-0.0,-0.0,-0.0,-0.0,-0.595295,0.0,-0.0,0.33648378,0.0,0.34648007,-0.27742982,-0.31092316,0.17162344,-0.7963874,-0.0,0.0,1.4556587,-0.24847122,-0.8032678,0.0,-0.0,-0.0,0.5318682,-0.0,-0.0,0.38445926,-0.0,0.0,0.0
-0.0,0.5082179,-0.0,-1.4138976,-0.4686505,0.60886866,0.7611613,0.0,0.0,-0.0,-0.0,0.0,-0.61939216,0.0,-0.0,-0.0,-0.0,0.0,0.0,-0.07954602,-0.46555686,0.0,0.0,0.0,-1.4983523,-1.4708562,0.38838458,0.0,0.0,-0.0,-0.0,-0.0,0.0,-0.71408147,0.0,0.0,0.0,2.3116693,-0.0,-0.0,-0.0,0.8783945,0.0,0.0,0.0,-0.0,-0.0,0.0,-0.0,-0.70131904,0.0,-0.0,-0.0,-1.505174,-0.0,-0.0,0.0,-0.0,0.0,-0.61464375,0.20597877,0.0,-0.0,0.0,-0.19159608,-2.1497989,-0.0,-1.9315312,0.73637116,0.28860897,0.0,-0.0,0.0,-0.0,-1.2629225,0.0,-0.0,0.0,-0.540479,-1.962126,-0.0,-0.50259733,0.0,-1.0632824,0.0,0.0,-0.0,-0.6126946,-0.5080182,-0.0,0.14927606,0.5067021,0.0,-1.7171117,-0.0,0.0,-0.93687606,-0.0,-0.0,-2.8472865,-0.0,-0.0,0.10425026,-0.39392844,0.0,-0.0,0.0,-0.2174814,0.0,-0.9303206,0.0,0.0,0.0,-0.0,0.54593813,-0.0,0.0,-0.0,-0.0,0.0,-0.0,0.0,-0.0,-0.19031037,0.25718832,-0.0,-0.0,-0.0,-0.0,-0.5457259,0.2674123,-1.5475609,-0.0,0.0,-0.0,-0.0,-0.0,0.23707257,0.6440367,-0.0,-0.41735289,-0.25760633,0.0,-0.079616465,-1.8417463,0.0,0.22117542,1.2464526,-0.0,0.07499368,0.0,0.4138723,0.53761333,0.99303204,2.18399,-0.0,0.919757,-0.0,-0.7339188,-0.012930797,-0.0,0.0,0.0,-1.3840526,-0.0,-0.0,-0.0,-1.6231219,0.0,0.0,0.0,0.0,-0.014701715,-0.0,0.0,-0.70951533,-0.0,1.6655296,-0.0,-2.7455332,0.8734887,-1.0019277,-1.0722028,-0.0,-0.0,0.6512185,0.38059586,0.3684592,-0.0,-0.0,-0.0,1.1072358,0.0,0.0,-0.86803275,-1.0364951,0.0,-0.14192685,-0.0,-1.5308037
0.0,-1.403261,0.0,-0.0,0.0,0.0,-0.0,-0.10234262,-1.0197783,0.0,0.0,-0.0,0.0,-0.248557,0.51112074,-1.3636175,0.0,-0.0,-0.0,-0.0,0.0,-0.0,0.0,1.4478987,-0.0,-1.4750721,-0.0,-0.6619264,-0.72835547,0.0,0.0,-1.2990654,0.29157475,-0.0,0.0,-0.6312513,-0.22462517,0.0,-0.0,-0.0,-0.517358,0.0,-0.0,0.2348403,-0.0,-1.4211991,0.0,-0.0,-0.95102733,1.191826,-0.060585707,-0.0,0.0,-0.0,0.0,0.0,0.5907834,0.0,-0.4698953,0.0,0.0,-0.0,0.0,-0.8798404,0.0,0.4515725,0.0,-0.0,1.3722316,0.594664,-0.0,-0.0,-0.0,0.0,-0.0,0.0,-0.0,-0.0,0.0,0.45100135,0.0,-1.1653557,-0.0,-0.0,-0.0,-0.0,-0.45132497,0.0,0.5596973,-1.222904,0.6487836,0.6509141,-0.37766796,1.2028605,-0.0,-0.0,0.35719502,0.6311512,0.0,0.8648176,0.0,0.0,-0.22597645,-0.0,-0.0,-0.0,0.0,-0.10525523,-0.0,-0.20564911,-0.0,-0.0,-0.0,-1.3139787,1.1675414,0.0,0.0,0.0,0.0,-0.0,0.0,-1.2355982,-0.0,-0.24147987,0.78582746,0.18578382,-0.2749152,0.0,0.0,0.0,0.0,1.0458429,0.0,0.0,0.0,-0.59149224,0.5644628,0.0,-0.0,-0.0,0.0,0.90107524,-0.0,0.0,0.25848216,0.0,-0.0,-0.0,-0.0,-0.0,0.0,0.0,0.837691,-0.0,-0.68841714,-0.6082805,0.0,0.0,-0.83622056,-0.8508498,0.0,-0.0,0.0,-1.6499379,-0.0,-1.7280123,-1.3507973,-1.1574352,-0.48733827,0.85839516,-0.0,-0.0,-0.0,0.0,0.0,-1.2326404,-0.0,-0.46030787,-0.0,0.0,0.0,-1.4805237,-0.0,1.3765427,-0.0,-0.0,0.0,0.0,-0.8091286,-0.0,0.0,-0.17330635,-0.0,-0.0,0.9241197,0.11468501,-0.0,0.3987283,0.0,0.27295497
-0.0,0.0,-0.0,-0.0,-0.0,0.0,-0.92639107,0.0,-0.0,0.0,0.0,-0.0,-0.0,-0.0,-0.0,0.0,-0.0,-0.0,-0.0,0.24153163,0.0,-0.0,-0.0,-0.0,-0.0,0.0,0.0,-0.0,-0.0,-1.1172678,1.440568,-0.0,-0.0,-1.975254,-0.0,-0.0,0.6163934,0.0,0.0,0.3482666,0.0,-0.0,-0.0,0.0,-1.0875186,0.0,0.0,-0.0,0.0,0.0,0.0,-0.0,0.0,0.5612845,0.0,0.0,0.0,-0.0,-0.0,0.0,-0.0,-0.0,0.0,-0.69187427,-0.0,-0.8999707,-0.15565394,-1.205998,-0.77272636,-0.0,-0.0,0.0,0.67224866,0.0,-0.0,0.0,0.0,-0.0,0.0,-0.0,0.0,-0.65034646,-0.0,-0.0,0.0,-0.0,0.84055924,0.0,0.0,1.1293658,1.7381992,-0.0,-0.0,-0.0,-0.45042685,-1.0808241,-0.0,-0.0,0.0,0.8717964,0.66567427,0.0,-0.0,0.5452884,-0.0,0.0,0.84356165,0.0,-0.0,0.0,-0.0,-0.0,-0.0,-0.8505908,0.84984756,0.0,0.0,0.0,0.0,-0.0,0.0,0.2141754,0.390079,0.0,0.0,0.0,0.0,-0.44128612,0.08281425,-1.4594022,0.0,1.2405977,-0.0,0.6720009,0.0,0.0,-0.0,0.46096689,0.0,0.9953685,-2.1201215,-0.0,0.0,-1.345813,-0.0,-0.0,-0.82649463,0.4865647,-1.350959,0.0,0.99077797,0.0,-0.0,0.9307957,-0.0,0.0,0.0,-2.2806387,-0.0,0.0,0.0,-0.0,-0.6603332,-1.2821978,-0.76851875,0.0,-0.41220272,-2.0583098,-1.2612724,0.15308046,-0.0,1.0283083,-0.0,0.0,1.1878095,0.0,0.0,-0.09409184,-0.0,-0.0,1.3502017,-0.0,-1.3129616,-0.0,-0.26722136,-0.2076432,0.6937194,0.0,-0.0,0.0,0.0,-0.0,-0.0,-0.36896616,-1.9999095,-0.0,1.7026192,-1.2920685,0.0,-0.24428919
-1.1697093,1.4531132,0.0,0.7738051,0.64483476,0.0,-0.0,0.0,-0.0,0.0,0.0,1.5153873,0.0,-0.0,-0.0,0.0,0.3245205,0.54440457,-0.0,-0.0,0.39390504,-0.0,-0.28210756,-0.0,0.2007732,0.51730585,0.7845469,-1.5034945,-0.0,0.0,-1.9782829,0.5921072,-0.11828922,0.0,0.6716149,-0.0,-0.71981806,-0.7545997,0.4457357,-0.0,-0.5292379,-0.75281984,-0.0,0.0,0.35777095,0.0,0.0,-0.56340533,0.0,0.0,-1.1071854,1.5324227,0.21288532,-0.0,-0.0,2.0060782,-0.0,-0.0,0.27725592,0.0,0.0,0.0,0.0,-0.0,-0.0,1.2215592,-0.0,0.9293585,-0.0,0.86617285,-0.75744975,0.0,-0.0,0.0,-0.0,0.11279098,1.0940758,-1.5347618,0.0,-0.0,-0.0,0.0,-0.0,1.6651945,0.0,-0.0,2.2001717,-0.0,1.5337771,-0.0,0.97235566,0.0,-0.0,-0.0,1.1739922,0.61806256,0.0,-0.0,0.0,0.80650353,-0.0,0.22002916,-0.47533935,-0.0,0.0,-0.5321625,0.6342693,-0.5522257,-0.0,0.0,-0.0,0.0,-0.0,0.18955182,0.0,-0.0,-0.0,0.0,-0.0,-0.0,0.0,-0.0,-0.0,-0.56453,0.0,-0.0,0.0,-0.5106659,0.0,0.0,-1.4306498,1.441408,1.9682581,0.0,0.0,0.0,0.0,0.0,0.47053754,-0.0,0.0,-0.0,-0.0,-0.0,2.8635533,-0.0,-0.0,-0.44049117,0.0,-2.1693914,-1.5697083,1.4236885,-0.0,-0.0,0.27393115,-0.0,-0.0,-0.0,-0.0,0.0,0.20409001,0.0,-0.0,-0.0,-0.0,0.3910731,-0.0,0.30272573,-0.0,0.21675132,-0.0,0.0,-0.0,-0.86250776,-0.0,0.0,0.7957916,-1.7921852,-1.2491113,-0.0,-0.0,-1.4797149,0.2728888,-0.0,0.39548802,-0.0,-0.4213058,-1.3775958,0.9065955,0.9075987,-0.59082615,-0.0,0.8561026,-0.744755,0.8446265,-0.0,-0.0,-0.33233193,-0.7294408,1.0312742
0.0,0.56560785,0.52790564,0.0,-1.630251,-0.0,0.0,1.0731868,-1.4903103,-0.35795462,-1.7373078,0.84178704,-0.0,0.0,0.0,-0.0,-0.0,1.0513296,0.0,0.0,0.51606274,0.0,-0.79079163,-1.1946712,0.0,0.0,0.8010648,0.0,0.0,-0.0,-0.0,-0.0,0.0,-1.0423048,-0.0,0.0,0.0,-0.5921613,-1.6776136,-0.0,-0.0,0.34155327,0.0,-0.3326488,-0.0,2.3621602,0.7295302,-0.49569872,-0.0,-0.85137194,-0.88862175,-0.113047324,-0.0,0.0,-0.0,-0.0,-0.36050817,-0.6754016,-1.2858021,-0.0,-1.3014911,0.0,-1.03408,-1.75839,-0.8403908,0.0,0.0,-0.0,0.0,1.1688011,0.0,-0.0,0.0,-1.023509,0.0,-2.0009491,-0.0,-0.5026747,-0.0,0.0,-0.0,-0.0,0.0,0.0,-0.0,0.0,-0.92128485,-0.90832853,-0.0,-0.0,-0.0,-0.57695746,0.0,-2.0101366,0.0,0.92936796,0.0,0.0,-0.0,-0.0,0.0,-0.0,0.0,0.105402865,0.0,-0.0,0.6091189,0.5889654,0.0,-0.0,0.59506977,0.0,0.0,0.0,-0.0,0.090420075,-0.0,-0.6112787,-0.0,0.0,-0.0,0.31754312,-0.9848624,-0.5466162,-0.0,0.0,-0.0,-0.0,-0.0,-0.0,-0.35505244,-0.0,0.0,-0.28113645,-0.0,0.5476843,-1.1959736,0.0,1.0498675,1.4030727,0.44204208,0.0,0.0,0.0,-0.27311143,0.0,0.0,0.0,-0.0,-0.0,0.0,-0.0,1.5129005,0.0,0.0,-0.0,0.0,-0.0,-1.4589735,-0.0,-0.0,1.739201,0.88991517,-0.4866954,-0.45392329,-0.0,-0.0,0.23947756,0.8274434,0.0,0.0,0.0,0.0,-0.0,0.0,-0.15696056,-0.0,0.0,0.0,-0.0,-0.0,-0.0,0.27819642,-1.0617015,0.47747234,0.0,-0.0,-0.0,0.0,-0.0,-0.0,0.0,0.0,-0.35898417,0.0,0.0,-0.33238938,0.0,-0.0,-0.0
1.3444715,0.0,-0.5229231,0.0,0.0,0.0,0.3349505,-0.0,0.0,-0.0,-0.27139258,2.0885487,-0.0,0.0,0.0,-1.004398,-0.0,0.0,0.0,0.0,-0.0,0.0,0.0,0.0,-0.3253785,-1.2010998,0.0,-0.0,0.0,0.0,-0.0,0.0,1.3681451,0.59332305,-0.0,0.0,-0.5391717,0.58217037,0.4511771,0.0,0.29437888,0.0,0.54155934,-1.8259572,0.0,1.0129257,-0.0,0.0,-0.0,-0.0,0.0,-0.0,-0.0,0.0,0.0,0.0,0.0,-0.45302063,-0.9913251,-0.0,-0.9563726,0.6065364,-0.0,0.0,0.0,0.0,0.0,-2.2390063,0.3776912,0.0,-0.0,-0.0,0.64904,-0.10647279,0.0,-0.602626,0.0,-0.0,-0.0,0.0,1.0842458,-0.20287375,0.9718165,1.0671412,-0.0,0.522041,-0.27643743,0.0,-0.0,0.0,-0.0,-0.0,0.36709908,0.0,0.16407172,-0.0,0.011491103,0.5152572,-0.0,-1.0085422,-0.0,0.0,0.0,-0.39051616,-0.0,0.80810827,0.48196864,-0.22278696,0.0,0.543566,0.0,-0.0,0.0,-0.90807277,2.0390162,0.0,0.0,-0.0,0.0,0.0,0.9155849,0.6974335,-0.67215496,-0.0,0.7177854,0.0,0.0,-0.0,0.36273578,-0.9629052,-0.0,-0.0,-0.08358276,0.0,-0.0,-0.0,-0.6039296,-0.0,-0.0,0.0,1.1595151,-0.0,0.0,0.0,0.0,0.0,0.0,-0.0,-0.331954,-0.0,0.0,1.0020828,0.28838226,0.0,0.0,0.0,0.0,0.513894,-1.2892815,-0.0,-0.46395472,1.2788144,0.0,-0.38355598,0.0,-0.0,0.0,-1.940984,0.0,-0.0,-0.0,-0.0,0.0,-0.0,0.0,-0.0,-0.0,0.0,0.0,0.0,1.6860783,0.0,-0.0,-0.04401643,0.0,0.0,-0.0,-0.0,0.6926352,0.0,-0.0,0.0,0.350634,0.0,0.0,-0.0,0.0,0.0,-0.0,-0.0
0.0,0.0,1.0749592,0.0,0.0,0.0,0.0,-0.0,0.0,-2.212543,0.0,-0.6097672,-0.0,1.0326765,0.8647339,0.0,-0.0,0.45079106,-0.0,0.0,-0.0,0.74725145,1.0712254,-1.711076,0.0,0.3186823,0.0,0.0,0.6591188,0.0,-0.0,-0.0,0.19330503,-0.0,-0.0,0.0,-2.0549293,1.0366577,-0.0,0.0,-2.0280757,0.17463239,0.0,-0.0,1.3572084,0.47812775,-0.0,-2.166121,-0.0,0.86169076,0.0,-0.0,1.4681371,0.62816525,0.0,0.0,0.0,0.7377455,0.0,-0.0,0.0,-0.0,-0.0,0.0,0.44477546,-0.8823816,0.0,-0.0,0.0,0.89644146,0.0,-0.0,0.0,-0.0,0.0,0.0,-1.3249404,0.0,0.17899735,0.0,-0.57283413,0.0,-1.2361568,-1.5390286,1.4346147,1.2229248,0.9627681,0.0,-0.0,0.0,-0.0,-0.0,0.0,0.0,-0.75653625,0.25074542,0.0,0.0,-0.0,-0.0,-0.5595132,1.2295477,0.0,0.0,-0.0,0.55444694,0.0,0.73997104,0.0,-1.7042072,0.6316118,-0.0,0.0,1.4853987,-0.7447769,0.23492584,0.0,-0.0,0.0,0.0,0.12553559,-0.31589314,-0.0,-0.0,-0.0,0.0,-0.0,-0.19394939,-0.0,1.2313427,0.9347124,-0.0,-0.48902854,0.0,-0.0,0.8700543,-0.0,-1.2184678,-0.65729964,0.534705,-0.0,-0.0,-0.4638439,0.08496806,-0.8232691,0.0,0.0,0.0,-0.0,-0.0,0.0,-0.0,0.9984822,0.0,0.0,0.0,0.0,-0.99737746,0.0,-0.69734234,0.0,-0.12385628,0.0,0.7642168,0.5384795,-0.0,0.568198,0.0,0.0,-0.0,-0.0,2.0990622,0.6605323,-0.7720341,0.22753423,-0.43187147,-1.8238226,0.0,0.0,0.0,0.0,0.0,0.0,-0.0,0.92707145,0.0,-0.15750973,0.0,-0.0,0.31929103,-0.0,0.0,0.0,2.4394991,0.0,-0.0,0.0,-1.0856448,1.6677094,-0.0
0.0,0.22461636,0.0,1.0889466,0.0,-0.0,0.0,0.0,0.0,-0.0,0.0,0.8522706,-0.0,2.055838,-0.0,-0.46719417,-0.0,0.0,-0.0,1.3288586,-0.0,0.8694684,0.0,-0.0,1.4609965,0.0,-0.0,0.0,0.0,1.2912346,-0.0,-0.0,0.2886136,-0.0,0.0,0.89379,-1.3188926,-0.43693897,-0.0,0.0,-0.0,-1.4340332,0.0,0.0,1.0397576,2.7512894,-0.6332959,0.0,1.3010218,-0.0,-0.0,0.9115216,-0.0,0.0,-0.0,-0.0,-0.0,1.9048291,-0.27149108,-0.0,0.0,-0.0,-0.0,0.0,0.43411255,-0.0,0.0,-0.0,0.0,0.7269483,0.0,0.6477866,0.0,-0.42615655,0.0,1.0951964,0.0,-1.0056883,-0.4851899,0.0,0.0,1.0410755,0.0,-0.0,-0.0,1.2798904,1.0012388,0.0,-0.0,0.0,-0.0,-0.0,0.0,0.87477696,1.0445496,1.1038318,0.86190915,0.0,0.47727388,0.5740289,-0.0,0.063608155,-0.2968023,-0.16081098,-0.0,-0.66329557,0.75162596,0.6650338,1.4283593,-1.1966168,0.24757218,-0.0,0.0,0.7065191,0.0,0.0,-0.0,-0.0,0.0,0.0,-0.0,0.73078144,0.0,-0.0,-0.0,0.9873832,-1.5578396,-0.0,-0.0,-0.0,-0.5097449,0.3963833,0.31614298,-0.0,-0.0,-0.0,0.0,0.0,1.1287863,0.0,-0.0,-0.0,0.0,0.0,0.0,0.0,-1.2833443,-0.66456616,-0.0,0.038533054,-0.3162239,0.6172446,0.0,-0.0,1.1117431,1.6201495,-0.93992877,0.0,0.0,-0.09056248,0.0,-0.0,-0.0,1.0968735,0.8506609,-0.6970039,1.3022994,0.7684141,1.2091954,-0.0,-0.0,1.5174083,0.74863106,-0.0,1.8806769,0.7533958,-0.3899261,-0.9777585,0.0,-0.0,0.0,0.22650565,0.58018124,0.0,0.15931688,-0.59095854,-0.0,-0.6351398,0.34164608,1.3157381,-0.35535672,0.0,0.0,0.0,0.9668945,0.0,0.0,0.0,-0.0,0.0
-0.42911425,0.0,0.0,-0.0,0.0,0.0,0.65502614,0.77752775,0.0,-0.0,-0.0,-0.0,-0.0,0.0,0.0,0.0,-0.0,0.0,0.0,0.0,-0.0,0.0,0.0,0.0,3.4083557,0.0,-0.0,0.39526612,0.0,0.0,0.0,-0.0,0.0,-0.0,1.1313716,0.0,-0.0,-0.0,0.0,0.0,-0.0,-0.0,0.0,0.0,0.0,1.0871309,0.0,0.0,0.64746827,-0.0,-1.1837116,-0.0,-0.0,-0.0,0.0,0.0,0.0,0.64819056,0.0,-0.0,0.0,-0.0,-0.0,0.0,0.0,-0.0,0.0,-0.0,-0.6983865,-0.46593627,0.0,-0.0,0.0,-0.0,0.0,0.0,0.0,-0.44715208,-0.0,0.0,0.0,-0.8486911,0.0,0.0,-0.0,0.0,0.0,0.0,-0.0,-0.39166296,-0.0,-0.23222613,-0.0,0.0,0.0,0.20014073,-0.0,-0.26760966,-0.0,0.6254707,-0.0,0.0,0.0,-0.5631986,-0.0,-0.39408025,0.9903284,0.27988043,0.0,-0.0,0.0,-0.0,0.0,0.0,0.0,0.0,0.0,-0.26675135,0.0,0.0,-0.0,0.0,0.0,-1.3785999,-0.0,0.0,0.0,-0.0,0.0,-0.70558727,-0.0,-0.0,0.0,0.1577442,-0.0,0.54290926,-0.0,0.0,0.24872477,0.0,0.946902,1.1583773,0.0,0.0,0.0,-0.72312534,0.0,0.0,-0.598234,-0.0,0.23605034,-0.5343741,0.0,0.0,0.0,0.0,0.0,1.0152036,0.0,0.49529824,0.0,-0.0,0.0,-0.0,-0.0,-0.859031,1.2682298,0.0,0.0,0.0,0.0,-0.63787097,-0.12010543,-0.0,0.0,-0.0,-0.0,0.24959673,0.0,0.0,0.66345924,0.0,0.0,0.0,0.0,0.0,-0.0,-0.0,0.0,0.0,-0.0,0.0,-0.82661706,0.0,0.0,-0.0,0.0,-0.0,-0.0,0.0
0.0,0.7164398,-0.0,0.0,0.0,0.0,0.0,-0.0,0.0,-0.25156733,0.0,-0.0,0.0,0.0,-0.07149218,-0.65435493,-0.0,0.0,1.3510394,1.1254318,-0.46768603,0.0,-1.7679628,0.0,0.0,0.0,0.0,0.0,-0.0,0.23946355,0.0,0.0,1.5196575,-0.0,-0.0,0.0,0.7258103,-0.84073335,0.14164878,0.0,-0.0,0.31648842,0.0,-1.7278754,0.983256,1.1427538,-0.0,0.0,-0.0,0.8517154,-0.6279206,-0.0,0.009220699,0.0,0.0,-0.0,0.0,0.0,0.0,0.0,0.9176692,-0.0,-2.2389128,0.0,0.0,0.0,0.0,-0.0,-0.0,2.4876916,-0.0,-0.0,-0.0,0.4987471,-0.0,0.0,0.35841653,0.0,0.3744871,0.0,0.0,1.1592202,1.1293718,0.7043521,-0.0,0.0,-1.9603171,0.0,-0.0,0.0,-0.0,-0.0,0.0,0.0,0.0,-0.0,0.3051431,-0.23086812,-0.0,-0.0,0.0,0.0,-0.20125552,-0.18520923,-0.0,-0.0,0.0,1.0199513,0.0,-0.0,0.6181259,-0.0,0.0,-0.47342077,0.9584579,-0.70211846,0.0,-0.0,0.0,0.0,0.08467574,0.841317,-1.987778,0.0,-0.0,-0.19601618,-0.0,0.32477093,-0.0,1.5856638,0.0,0.39966652,0.0,0.0,-0.0,-0.0,-0.0,-0.0,-0.0,1.1288253,-0.0,-0.19044557,0.0,0.9997192,-0.4328846,-1.3334924,0.0,0.0,-0.0,-0.0,-0.72309417,-0.0,1.2468358,0.0,0.0,0.0,1.6469234,1.1848052,0.31003374,0.19069597,0.0,-0.0,-1.4866159,-0.0,-0.53114825,-0.0,0.0,0.4784366,0.0,0.0,-0.0,-0.6003456,-0.64152586,1.919027,0.0,0.0,0.0,-1.4437121,-0.0,0.0,0.0,-0.0,1.5824028,0.51960224,0.48920843,0.52511275,-0.0,-0.0,0.92372066,-0.0,-0.0,0.0,0.0,-1.88792,0.0,0.66416925,0.12712497,-0.0,0.17604955,-0.83736837
1.1374774,1.0610197,-1.2140223,-0.0,-0.0,-0.0,-0.35459808,0.0,-0.0,2.5540895,0.2132006,0.33838326,-0.0,0.5878634,0.0,0.0,0.0,1.878472,-1.5550773,0.0,-0.2999212,0.5812597,0.0,0.0,-0.45704612,0.0,0.0,0.84970856,0.0,0.0,0.0,1.0221369,-0.0,0.0,-0.0,0.0,2.204599,0.6600359,-1.1588311,0.0,1.0105869,-0.0,-0.0,1.1802001,0.33772248,1.0234984,0.63632464,0.10277014,0.0,-0.57375336,-0.0,1.4245211,-0.65873474,-0.0,-0.0,0.0,-0.0,0.24819566,-1.3196746,0.0,-0.0,-0.0,1.1780049,-0.0,0.0,0.731533,0.0,-0.8143346,0.5629802,-0.98421127,-0.0,1.346473,1.46604,-0.0,-0.0,0.0,0.89376974,-0.0,1.4348652,0.0,-0.0,0.0,-0.0,0.5738748,0.0,0.2075961,0.0,0.0,-0.0,0.0,0.0,0.89659333,-0.0,0.96139544,1.426244,0.0,3.180719,-0.0,0.0,0.0,-0.8118849,0.18592137,0.41486397,-0.48558566,-0.0,-1.0929306,-0.0,-0.32290587,-0.0,0.0,-0.0,-0.094384395,-0.9864585,-0.12088652,0.0,-0.35177645,0.0,0.0,-0.29961023,0.0,-0.09035791,-0.123040535,1.5136524,-0.15406746,2.0458674,0.0,0.0,0.68498135,0.0,0.0,1.2330613,-0.0,0.86701876,0.0,0.0,0.0,-0.19004843,-0.0,0.0,-1.9810599,0.0,1.0690694,-0.0,-0.0,0.0,0.8020944,-0.8153871,-0.8446047,2.3246386,-1.7829816,-0.0,0.5166534,-0.6987762,0.0,-0.0,-1.0186576,-0.0,-0.0,-0.98238075,0.5605112,0.0,-0.0,-2.1578927,0.080869034,0.0,0.3907747,0.0,1.6191257,-0.024514055,-0.40805724,-0.0,-0.0,0.0,0.0,-0.0,0.0,0.9310584,-0.0,-0.6721861,-1.3521932,-0.0,-0.02340026,-0.0,0.75487155,-0.0,0.0,0.25350773,0.03310274,-0.32307786,0.0,0.0,-0.0,-0.0,-0.87031823,-0.0,0.96054024,0.0,2.06595,2.9723034,0.0
0.0,-0.0,-1.7579362,0.0,0.0,0.0,-0.0,-0.9272483,1.4123188,0.0,1.4796333,0.0,0.0,0.0,0.0,0.0,0.0,-1.5686194,-0.0,-0.0,1.4535552,0.52445376,-0.0,-0.0,0.66527706,-1.6042204,0.0,0.40914178,0.0,0.0,-0.0,1.053961,0.0,1.4718786,-1.0272896,-0.0,0.006625663,-1.0312,1.5196545,0.0,0.03271099,-0.0,0.0,0.0,-0.10255975,-0.36491522,0.0,0.0,-0.0,-2.0685816,-0.0,0.0,-1.5441653,0.0,-0.0,0.83039385,-0.0,2.8434443,-0.0,1.1152277,0.0,0.0,-0.0,0.0,2.0160685,0.9195246,-0.0,-1.2558581,2.709853,-0.0,-0.0,0.0,-0.0,-1.2058924,0.0,0.9233449,0.0,0.0,0.9224104,0.0,-0.0,0.6909579,-0.0,0.95093894,-0.0,-0.0,-0.0,-0.0,-0.38997835,-0.0,0.0,0.0,0.0,0.0,-0.0,0.0,0.0,-2.6142902,0.0,0.0007850616,0.0,-1.0580285,-0.0,-0.0,1.2986894,-0.0,0.0,-0.0,0.0,-1.4160885,-0.0,0.0,0.0,-0.16751681,0.0,-0.0,-0.0,-0.336253,-1.4138589,0.0,0.0,0.8800135,0.0,0.0,0.46181914,-1.9839072,-0.0,-0.0,0.0,0.0,0.0,-0.15783817,0.0,-0.0,0.19262479,-0.45267272,0.0,0.0,-0.91758114,-0.67038864,-2.0398135,-0.39065465,-0.0,-0.55385274,-1.2541714,0.0,-0.0,0.17966966,0.0,-0.0,-0.0,-1.0077815,-2.3856347,0.0,0.0,1.688078,-0.0,-0.0,0.02801295,-0.092207596,-1.1434429,0.0,-0.7747423,0.0,0.0,-0.0,-0.0,-1.3286074,-0.0,-0.0,-0.0,0.514705,1.2952658,0.0,-2.1019692,0.0,0.0,2.8253746,0.0,1.485327,-0.0,0.9854369,0.10595543,3.6780586,-0.0,-0.05418213,0.0,-0.0,-1.0161688,-0.0,0.0,0.0,-0.0,0.0,0.0,0.0,-0.24849577,0.0,0.0,0.17066497
-0.0,0.78408533,-0.15856384,0.0,0.0,-0.0,-0.59255797,0.6726469,-0.0,-1.3661258,-0.0,0.0,0.0,0.0,0.0,-2.166338,0.0,1.5372965,-0.0,0.7335867,0.0,-0.0,0.0,0.780122,1.3812964,-0.0,-0.0,0.0,0.9063839,0.0,0.0,2.2427664,0.0,0.0,-0.0,0.0,-1.5812486,-0.8181239,0.0,-0.0,0.0,0.29514062,-0.0,0.349906,1.4258099,1.8116528,-0.0,0.0,-1.3526012,0.6774196,-0.92080444,0.0,-0.0,0.0,1.3809105,-0.0,-0.0,0.56783247,-0.0,-0.9885524,0.0,0.0,-1.7925295,0.0,-0.0,-0.0,-0.0,-0.0,-0.0,-2.9361348,0.0,0.0,0.0,0.0,-0.0,0.29025033,0.0,0.0,-0.0,0.0,-0.3965494,-0.0,0.0,0.80840486,0.0,-0.0,-0.0,-0.47589165,-0.9294916,-0.0,0.0,-0.7676532,-0.0,1.489934,-0.0,0.0,0.0,0.9327841,-0.0,0.0,0.0,0.0,-0.0,-0.860797,0.0,1.38573,-0.0,-0.48813608,0.0,-0.0,-0.5470803,0.0,0.0,-0.0,-0.45358506,-0.7719964,-0.0,1.4636368,-0.0,0.0,-0.037572656,0.0,-0.0,-0.38174215,0.9676779,0.0,-0.0,0.41452402,0.5403901,0.0,-1.0744843,0.2765631,1.2344321,-0.0,-0.0,0.0,0.0,-0.0,-0.9746055,-0.5982008,0.0,0.0,-0.0,-0.0,1.0610287,-0.043361418,-1.2821981,0.10085628,0.0,-0.90564626,-0.0,0.37729076,-0.0,-0.0,0.0,-0.0,1.5087122,1.2129452,-0.0,-0.4646194,-0.0,0.0,2.3546426,0.0,-0.0,0.4881224,-0.0,0.0,-0.0,0.64851195,0.0,0.0,0.0,0.0,0.0,0.10144577,0.0,-0.0,-0.0,0.0,-0.0,2.0471914,0.4001507,-0.35156992,0.0,-0.0,0.0,0.0,0.15605305,0.0,0.0,0.0,-0.0,-0.0,2.1834304,0.0,0.046640355,-0.0,0.0,0.06830978
-0.67310035,-0.073447764,1.2842792,0.0,0.0,0.0,0.54724914,0.0,0.0,-0.0,-0.0,-1.25424,-0.0,0.0,-0.0,0.49753052,-0.0,1.4142994,0.0,0.0,-0.0,0.0,0.0,-0.0,1.1509683,0.8682891,-0.0,-0.34109154,1.1852276,0.79923934,-0.0,-1.600756,0.0,-0.58465016,0.0,0.0,0.47365454,1.598068,-0.0,0.20657966,3.2298307,0.38409972,0.0,0.19465081,-0.0,2.6537917,-0.0,-1.3567082,1.5790654,-0.0,-0.84243035,-0.39202395,1.3847511,1.6806943,-0.0,-1.5408945,0.0,0.0,0.0,-0.0,0.7500761,-0.5831759,-0.0,0.0,0.08654044,-0.42231527,0.0,0.96766406,0.0,0.0,0.4702802,-1.148119,-1.17404,0.59452575,0.0,-0.1160497,-0.7978539,0.0,-0.0,-0.0,-0.0,-0.0,-1.1924044,-2.2834215,-0.0,0.0,0.2836887,-0.7326867,0.039750542,-0.0,-0.0,-0.9748585,0.0,-0.0,-1.8344048,0.4800554,0.0,1.9757307,-0.0,-0.0,0.25777695,-0.0,0.4909172,0.0,-0.57543576,0.38863564,0.0,1.6422368,0.0,-0.0,0.0,-0.0,0.0,0.0,-0.0,0.0,0.0,0.03355111,-0.0,0.0,0.0,-0.0,0.0,-1.1105818,-0.0,0.0,-0.0,-1.4052827,-0.0,-0.0,-1.2011125,-1.0287683,0.0,-0.0,-0.0,-0.0,-0.69350505,0.0,0.5552837,-0.0,0.51950246,0.91652393,0.0,0.0,-1.5292515,0.0,0.22545345,-0.52185625,-0.0,2.59163,0.0,-0.9924433,1.506759,2.5043344,0.0,0.0,0.0,-0.0,0.0,-0.061102487,0.0,0.0,0.0,1.732182,1.1955552,-0.37018588,1.1462888,1.556027,0.0,-0.46012297,0.0,0.9196352,-0.77751166,1.1212515,-0.0,-0.0,-0.0,-0.5187925,2.7308843,-0.0,-0.0,0.0,0.0,-1.9182421,0.0,0.0,-0.0,0.44846755,1.6687796,-0.0,-0.0,1.093976,0.0,1.5698187,-0.44565174,-0.0,0.58749366,0.0,2.166201,2.2468789
0.0,-0.45583928,-1.92504,0.0,0.0,0.30795115,0.0,0.17518204,0.0,-0.0,-0.57056016,-0.0,-0.0,0.0,0.0,-0.0,-0.0,0.96714747,0.0,0.0,-0.0,0.0,0.0,0.0,0.0,0.0,-0.0,-0.43466306,0.0,-0.0,-0.0,0.0,0.0,0.9396131,0.0,0.0,0.36862752,0.0,-0.0,-0.60038126,-0.0,0.0,0.0,1.0251877,0.27222532,-0.0,-0.0,-1.4075565,-0.0,-0.0,0.79656273,-0.0,-0.0,0.0,0.0,-0.0,0.0,0.0,0.0,-0.0,-0.0,-0.0,-0.0,0.0,0.0,0.0,0.0,-0.0,-2.003869,0.0,0.0,-0.0,0.0,1.3458992,0.0,0.0,-0.6633905,1.6736693,-0.0,0.0,0.34768894,-0.0,0.0,0.0,-0.0,0.0,-0.0,0.0,0.0,0.0,-0.0,-0.0,0.0,0.0,0.0,-0.0,-0.0,0.0,-0.0,-0.0,0.0,-0.0,0.0,0.0,-0.0,0.48965737,0.0,0.049902942,0.0,-0.0,0.0,-0.0,0.0,-0.08864667,0.4517083,0.0,0.0,-0.0,0.0,0.0,-0.0,0.0,0.0,0.3042995,-0.0,0.0,0.17239872,-0.0,-0.0,-0.0,-0.0,-0.54417795,0.0,-0.0,-0.0,-0.0,-0.0,0.0,-0.16526355,-0.9811147,0.6942921,0.0,0.0,0.0,-0.95268744,-0.5808635,0.0,0.0,-0.0,0.0,0.0,-1.3858962,-0.0,0.0,-0.69737744,0.0,0.0,-0.829313,0.0,-0.0,0.0,-0.0,0.0,0.0,0.0,-0.0,0.0,0.94469273,0.0,0.0,-0.0,-0.0,0.0,-0.11221791,0.0,0.0,-0.0,-3.3536167,0.0,0.0,0.0,-0.0,0.0,0.0,0.0,0.0,-0.2997762,0.22222966,-0.56963974,-0.0,-0.0,0.0,0.0,0.0,0.0,0.0,-0.34037286,0.0,-0.0,-0.0
0.0,-0.0,-0.5922875,-0.0,0.0,0.08343023,0.0,-1.465543,0.0,-3.8944871,-0.0,0.0,-0.66316235,0.531526,0.2718905,0.0,-0.0,-3.01928,1.4926575,-0.0,-0.0,2.099779,0.37434787,1.8633943,-2.7595196,0.5017145,1.9797981,-0.43536243,0.0,0.0,-1.3294276,0.62350494,0.0,1.3653414,-0.34126228,-0.3208161,0.0,0.88534015,0.29686105,-0.5423709,0.0,-0.148728,0.0,-0.0,-1.2476199,-0.86355394,-0.7427116,-1.8435223,0.0,2.6536248,0.35296476,-0.0,0.0,-0.0,2.0274062,-0.0,0.0,1.386959,0.0,-3.2784975,0.0,0.0,-1.4090245,-0.4909738,1.3217155,0.0,-0.0,-0.0,0.7653975,0.46486974,-0.0,-0.0,0.0,0.06327105,0.0,-0.0,0.7186876,0.0,-0.0,-0.0,-0.33899134,-0.0,2.2912896,-0.0,0.0,0.0,-0.91280466,-0.0,-0.06741126,-0.0,0.0,-0.07373928,0.0,0.0,0.0,0.0,-1.4221073,-2.3061762,0.0,0.41483527,0.0,-0.39277494,-0.10617157,0.0,-0.0,0.736607,-0.65876627,1.3090007,0.0,1.3193752,0.0,0.0,1.3943757,-0.1497955,1.5991861,0.6752703,0.0,-1.2735413,-1.6019186,0.7898018,0.0,0.14201581,0.0,-0.8316733,-0.24620754,0.0,1.6315981,0.0,-0.4513087,1.2906241,-0.9988818,0.0,1.724474,0.60748416,0.0,-0.0,-0.0,0.0,0.0,-0.25532275,1.0513111,-1.4175155,0.0,0.0,-0.0,-0.0,0.4747759,-1.4514642,-0.0,-0.8376283,-0.5368905,-0.0,-1.5782079,-0.0,0.0,-0.0,0.0,1.5553635,0.43987992,-0.0,-0.0,0.26704943,0.0,1.7972937,0.0,1.0286583,0.0,0.0,-0.0,0.0,-0.0,0.0,0.5968816,-0.9128286,0.0,1.3761033,0.0864774,0.42562336,0.0,1.1611351,0.0,-0.0,2.524065,1.574633,0.0,-0.31024635,0.0,0.0,0.0,-1.1800606,-0.0,-0.53803366,0.0,-0.0,0.0,0.29827827,-1.4606427,0.0,0.0,-0.0
