0,1,2,3,4,5,6,7,8,9,10,11,12,13,14,15,16,17,18,19,20,21,22,23,24,25,26,27,28,29,30,31,32,33,34,35,36,37,38,39,40,41,42,43,44,45,46,47,48,49,50,51,52,53,54,55,56,57,58,59,60,61,62,63,64,65,66,67,68,69,70,71,72,73,74,75,76,77,78,79,80,81,82,83,84,85,86,87,88,89,90,91,92,93,94,95,96,97,98,99,100,101,102,103,104,105,106,107,108,109,110,111,112,113,114,115,116,117,118,119,120,121,122,123,124,125,126,127,128,129,130,131,132,133,134,135,136,137,138,139,140,141,142,143,144,145,146,147,148,149,150,151,152,153,154,155,156,157,158,159,160,161,162,163,164,165,166,167,168,169,170,171,172,173,174,175,176,177,178,179,180,181,182,183,184,185,186,187,188,189,190,191,192,193,194,195,196,197,198,199,200,201,202,203,204,205,206,207,208,209,210,211,212,213,214,215,216,217,218,219,220,221,222,223,224,225,226,227,228,229,230,231,232,233,234,235,236,237,238,239,240,241,242,243,244,245,246,247,248,249,250,251,252,253,254,255,256,257,258,259,260,261,262,263,264,265,266,267,268,269,270,271,272,273,274,275,276,277,278,279,280,281,282,283,284,285,286,287,288,289,290,291,292,293,294,295,296,297,298,299,300,301,302,303,304,305,306,307,308,309,310,311,312,313,314,315,316,317,318,319,320,321,322,323,324,325,326,327,328,329,330,331,332,333,334,335,336,337,338,339,340,341,342,343,344,345,346,347,348,349,350,351,352,353,354,355,356,357,358,359,360,361,362,363,364,365,366,367,368,369,370,371,372,373,374,375,376,377,378,379,380,381,382,383,384,385,386,387,388,389,390,391,392,393,394,395,396,397,398,399
0.09467358,0.0,0.0,0.07322752,-0.0,-0.0,0.0,-0.106247105,-0.0,-0.0,0.09433672,0.0,0.0,0.0,0.11162787,0.0,-0.0,0.0,-0.0,0.0,-0.0,0.0,-0.09682678,-0.0,0.07085747,0.077765055,0.054747216,0.0,0.0,0.0,-0.053684756,0.17022134,0.0,0.0,-0.0,-0.07725698,0.097890064,0.0,-0.0,0.15869439,-0.0,0.0,-0.0,-0.0,-0.073639736,-0.10273152,0.10266058,-0.0,0.0,0.0,-0.10725236,0.0,0.0,0.12108538,-0.0,0.075904466,0.13132057,-0.0,-0.0,0.0,0.12809147,-0.09708648,-0.17605884,0.113207005,-0.17178532,-0.0,-0.0722157,0.08998258,-0.0,0.0,0.0,0.07842183,0.0,0.0,-0.07778429,0.0,-0.08941056,0.0,0.0,0.0906396,-0.0,0.0,0.0,0.0,0.0,-0.1091186,0.10778266,-0.087688416,0.07788863,0.07449147,0.0,0.0,0.0,-0.0,-0.09567115,0.08104528,-0.0,-0.0784603,-0.0,0.0,0.068892404,-0.10592471,-0.0,0.0,0.12538762,0.0,-0.0,0.0906802,-0.0,-0.0,0.0,0.0,-0.0,0.0,-0.0,-0.0,0.17326942,0.0,0.08571344,-0.0,-0.082291454,0.08974285,-0.0,0.082117945,-0.0,-0.0,-0.0,0.0,0.120312646,0.07677134,0.0,-0.0,-0.11444185,-0.0,0.08805084,-0.0,-0.0,0.15565382,0.0,0.0,0.0,-0.0,-0.0,0.0,0.0,0.09503933,0.12730756,-0.0,0.0,0.0,0.0,-0.0,-0.12355521,-0.12622018,-0.0,0.0,0.0,-0.0,0.0,0.1207288,0.0,-0.06131867,-0.0,0.0,-0.0,0.0,0.0,0.0,-0.0,0.08296269,0.0712067,0.07631368,0.096630335,-0.0,-0.0,0.0,-0.111506715,0.0,0.0,-0.0,-0.0720191,0.14833999,0.0,0.0,0.0,0.0,-0.0,-0.093150586,-0.10128498,0.070002586,0.0,-0.0,-0.0,0.12454571,-0.0,-0.0,-0.0,0.08046288,-0.10518292,0.0,0.13573386,-0.21836208,0.08644646,-0.0,-0.0,-0.0,-0.0,0.0,-0.0,-0.091844566,0.0,-0.08653141,0.0,-0.114520356,0.16574804,0.0,-0.08189723,-0.0,0.0,-0.0,-0.12791237,0.08671449,-0.07622658,0.0,0.07336357,0.11243653,0.0,-0.0,0.0,-0.101933874,-0.10436595,0.1012943,-0.0,-0.0,0.0,-0.08293265,-0.0,0.0,0.0,0.0,0.0,-0.0,0.0,-0.0,-0.092922606,0.10004405,0.0,0.08261222,-0.08363223,-0.0,-0.121910125,-0.0,0.12070511,-0.0,-0.0,0.0,0.0,-0.1538282,0.0,-0.0,-0.0,-0.097533315,-0.1085803,-0.0,-0.107161865,-0.0,0.09357073,0.0,0.0699224,0.0,-0.08017944,-0.0,-0.0,-0.0,-0.0,-0.0,-0.07147081,0.0,0.0,-0.0,0.0,-0.0,0.0,0.0,-0.0,-0.0,0.13330437,0.0,-0.08270241,-0.09022864,-0.0,-0.0,-0.0,-0.0,-0.14487042,0.0,-0.0,-0.13518567,0.0,-0.0,0.0,0.06728949,0.0,0.0,0.0,0.19577275,0.0,-0.0,0.100065164,0.10140436,0.5026869,0.0,0.36422005,0.0,0.076753855,-0.0,-0.09162253,-0.067845985,0.0,0.082613744,0.0,0.078260094,-0.0,0.0,0.16439372,-0.0,-0.0,0.0,0.0,0.0,0.0,0.0,0.0,-0.0,0.10971667,0.072326675,-0.0,0.0,0.0,-0.0962104,0.10087247,0.0,-0.088338025,0.0,-0.0,0.0,-0.08724807,-0.0,-0.1107674,-0.0,-0.13762069,0.0,0.0,0.085686974,-0.0,0.27680996,0.14353287,-0.0,0.09122639,0.0,-0.1280962,0.0,0.0803699,0.10440274,-0.13443302,0.0,-0.0,0.07057199,0.0,-0.0,0.09515164,-0.0,0.07830715,0.22127235,0.20195182,0.0,-0.0,0.0,-0.108388536,-0.0850918,-0.0,-0.0,-0.05029041,-0.07170965,-0.074889734,-0.0,0.10851752,-0.0,-0.100359164,-0.15396915,0.0,0.0,-0.0,-0.0,0.07840658,0.0,0.0,0.119571574,-0.0,-0.0
0.0,0.0,0.0,0.0,-0.0,-0.0,0.10967964,-0.08544945,-0.0,-0.0,-0.0,0.0,0.0,0.0,-0.0,0.0,0.09539699,0.0,-0.07837023,0.0,0.0,2.118125,-0.0917253,-0.0,0.0,0.0,-0.0,0.0,-0.13222602,0.0,-0.14094311,0.0,-0.0,-0.0,-0.0,-0.0,-0.0,0.0,-0.0,-0.07946129,-0.0,0.20410267,0.105403766,-0.0,-0.0,0.0,-0.0,-0.0,0.0,0.0,0.0,0.0,0.0,0.0,0.13506447,0.0,0.071020514,-0.0,-0.0,0.0,0.0,0.0,-0.12979275,0.07146746,-0.0,0.19183172,0.0,0.0,-0.0,1.6854237,0.0,-0.0,0.0,0.1685974,-0.0,0.0,-0.0,0.0,0.0,-0.10161182,-0.0,-0.0,0.17521691,0.0,-0.055012003,-0.0,-0.0,0.0,-0.09045955,0.0,-0.11449092,0.097351566,-0.0,-0.0,0.0,-0.0,-0.0,0.0,-0.0,0.0,-0.0,0.0,-0.0,0.091115825,-0.06268768,0.0963887,-0.0,0.09819323,0.23295583,-0.07692133,-0.0,0.18803489,-0.0,0.0,-0.0,0.10257938,0.0,0.0,-0.0,-0.0,-0.0845214,0.119265296,-0.10577589,-0.0,-0.0,-0.0,-0.0,0.0,-0.0,0.0,0.0,0.0,0.0,-0.0,0.14054398,-0.0,-0.0,0.0,0.0,0.0,-0.0,0.0,-0.0,0.0,-0.16108568,-0.0,0.123691104,0.10816132,-0.08426985,-0.086785585,0.1272414,-0.0,-0.1553174,0.0,0.5531929,0.0,0.0,0.10036788,0.16076858,0.118067026,0.0,0.0,-0.0,0.0,-0.0,0.0,-0.09411578,0.0,-0.0,-0.0,0.0,0.07851759,-0.0,-0.14755724,0.0,0.0,0.0,-0.0,0.0,-0.0,0.0,-0.058994964,0.0,0.0,0.0,-0.18495433,0.09292577,-0.0,-0.073305264,0.0,0.18344624,-0.12550507,0.11494245,0.0,-0.0,-0.0,-0.08757662,0.0,0.0,0.0,-0.0,-0.0,0.10969582,-0.07169307,-0.0,-0.23996781,-0.17051473,0.0,-0.0,0.0,0.0,-0.080126956,0.0,0.0,0.0,0.0,-0.08938785,-0.0,0.0,-0.0,0.054022904,0.0,-0.0,-0.0,-0.0,-0.0,0.0,0.31307644,0.0,-0.0,-0.0,0.0,0.44662774,-0.114099585,0.0,0.0,0.098854214,0.0,0.0,0.0,0.0,-1.3122991,0.10715871,-0.0,0.0,-0.08803813,0.0,-0.0,0.0,0.06289045,-0.0,-0.078696534,0.0,-0.0,0.07827833,0.0,-0.0,-0.098113626,0.0,-0.14290327,-0.0,0.0,0.096761815,-0.0,0.08977453,0.1479914,0.0,0.0,-0.0,0.0,-0.13726616,-0.0,0.1085055,-0.0,-0.0,-0.0,-0.071392655,0.0,0.0,0.0,0.0,-0.0,-0.0,0.0,-0.0,0.0,-0.06311572,-0.092089176,-0.0,0.0,-0.0,-0.0,-0.061289433,-0.0,-0.0,0.0,0.0,-0.0,0.0,-0.0,0.089054175,0.0,0.123579465,0.0,0.0,-0.075718194,0.0,-0.0,0.07084934,0.0,-0.0,0.0,-0.0,0.0,0.0,-0.07083404,0.0,-0.0,-0.113368355,-0.0,0.0,-0.0,-0.09119359,0.0,0.0,-0.0,-0.0,0.0,-0.0,0.0,0.0,0.0,0.0,-0.0,0.09931354,0.115107335,-0.0,0.0,0.13993537,0.0,0.0,0.0,-0.0,0.0,-0.0,-0.0,-0.0,-0.0,-0.08184968,-0.22084874,0.0,-0.0,0.0,0.10000551,-0.0,0.0,-0.0,0.0,-0.0,0.15783708,-0.18021975,0.0,-0.0,-0.0,0.0,0.0,-0.0,0.07883385,0.3983811,-0.0,0.0,0.19708905,0.08730865,0.0,0.0,-0.0,-0.0,0.21842484,-0.0,-0.0,-0.0,-0.0,-0.122857995,-0.096717425,-0.0,0.0,-0.0,-0.0745869,-0.0,0.07139533,0.0,-0.1368909,-0.0,-0.0,-0.0,-0.0,0.08120591,0.14849819,-0.3644268,0.0
-0.0,0.0,0.0,0.0,-0.0,-0.0,-0.0,-0.0,-0.0,-0.0,0.117164,0.16551928,0.0,0.0,0.12846631,-0.08900012,-0.0,0.0,0.12260905,0.0,-0.0,0.0,0.0,-0.0,0.0,-0.0,-0.1530777,0.0,0.0,0.0,-0.0,0.0,0.0,0.08940557,-0.0,0.26068518,-0.11880993,0.0,-0.0,0.0,-0.0,0.0,0.10899567,0.28118744,0.08446039,-0.10939643,-0.0768746,-0.0,-0.13186991,0.0,0.0,-0.14357449,0.0,0.0,-0.0,-0.0,-0.0,-0.0,-0.0,0.6919581,-0.0,0.0,-0.0,0.0,-0.0,-0.0,0.0,-0.06872241,-0.0,0.0,0.0,0.105015025,0.0,0.19893032,-0.0,0.0,-0.08653408,0.14345154,0.0,0.0,-0.0,-0.0,0.20387028,-0.0,0.266401,-0.0,-0.0,0.0,0.09429042,-0.0,0.0,0.0,0.0,-0.0,0.0,0.09257591,-0.0,0.0,-0.0,-0.13071908,-0.0,-0.0,-0.0,0.15849802,-0.0,0.0,-0.0,0.0,-0.0,-0.0,0.15708049,0.0,0.0,0.0,-0.0,-0.0,0.0,0.0,-0.1089238,-0.0,0.0,-0.0,0.08308363,-0.0,-0.0,0.117750496,-0.13491939,0.0,0.09675949,0.0,0.0,-0.0,-0.116718106,0.23896909,0.15130818,-0.0,-0.0,0.0,0.0,0.19409809,0.6497172,-0.20871136,-0.10928745,0.0,0.0,0.0,-0.0,-0.0,-0.07320042,0.0,0.0,-0.0,0.0,0.0,-0.0,0.0,0.0,0.0,0.0,-0.0,0.12706324,0.0,-0.0,0.113587126,-0.0,0.07015515,-0.0,-0.0,-0.0,-0.0,0.0,0.14246736,0.0,-0.0,-0.0,0.0,-0.0,0.0,0.0,-0.0,0.0,-0.0,0.0,0.12953499,0.11737521,-0.0,0.15445076,-0.098489,0.10886402,0.0,0.25679463,-0.0,-0.0,0.0,-0.0,-0.08827114,-0.0,0.0,-0.12663041,0.0,-0.0,0.072495945,0.08813571,-0.0,-0.0,-0.0,-0.1686153,0.1594178,-0.0,0.0,0.0,0.0,0.0,0.072531395,0.1351811,0.075983286,0.0,-0.0,0.08003254,-0.0,0.0,-0.12093701,-0.0,0.08563102,-0.0,-0.13116033,0.0,-0.0,0.0,-0.0,-0.0,-0.0,-0.0,-0.0,0.228245,0.10009334,-0.0,0.0,0.0,0.0,0.0,-0.0,-0.0,-0.0,-0.14211877,-0.0,-0.0,0.106100485,0.0,-0.0,0.0,0.1302429,0.0,-0.0,0.2579391,0.0,0.0,0.0,0.0,-0.12972638,-0.0,-0.0,0.0,-0.0,-0.0,-0.0,0.12545456,0.19225875,-0.13442984,-0.0,-0.0,-0.0,0.12162244,-0.0,-0.0,-0.0,0.100275345,0.0,-0.071950585,-0.091852665,0.0,0.0,0.0,0.0,0.0,-0.09094994,0.1112623,-0.092948616,-0.10392072,0.0,-0.09509217,-0.0,-0.0,-0.0,0.06657803,0.07316395,0.0,0.0,-0.0,-0.0,0.0,-0.097438656,0.0,0.0,0.0,0.0,0.12608163,-0.08087695,0.12681693,-0.12547934,-0.0,0.20204903,-0.0,0.0,-0.10484967,-0.0,0.14958918,0.22720921,0.0,0.0,0.0,0.12206329,0.0,0.19600137,0.11659103,-0.0,-0.0,0.0,0.0,0.0,0.0,-0.16574687,0.0,-0.0,-0.0,0.0,-0.0,0.0,0.0,0.16313727,-0.0,0.0,-0.0,0.0,-0.0,-0.114448786,0.13632175,-0.0,-0.100309946,-0.25307792,0.09646038,-0.0,0.0,-0.10157094,-0.0,0.0,-0.0,-0.0,-0.0,0.11277519,0.0,0.0,0.0,0.1470751,-0.0,0.0,-0.0,0.12867746,0.0,-0.0,-0.103597075,-0.0,-0.0,0.0,0.0,0.0,-0.0,0.0,-0.0,-0.1132003,0.08655148,0.100792155,0.19438246,0.11769881,0.0,-0.0,0.0,-0.13174792,-0.16536936,-0.07748083,0.0,0.0,-0.0,-0.0,-0.0,-0.09889206,0.08638053,0.0,-0.0,-0.09857685
-0.0,-0.0,0.0,-0.5279852,-0.0,0.47270584,0.09449201,-0.0,1.6204863,-0.0,-0.0,0.0,0.12044746,-0.0,0.0,0.0,-0.08587433,0.0,-0.0,0.30512318,0.10532578,0.0,-0.14663309,0.0,0.08993242,0.10352463,0.07330791,0.0,0.0,-0.09440981,0.61263824,-0.0,0.14804937,0.0,0.0,0.0,0.0,0.20598665,0.0,0.17533635,-3.1394794,0.0,-0.0,-0.0,0.094849624,0.0,0.0,-0.10079591,0.0,-0.09348692,-0.0,-0.17315552,0.1387332,0.14544682,-0.0,0.11220705,0.111368336,0.0,0.0,0.0,0.0,-0.070716776,-0.0,-0.0,-0.0,-0.0,0.0,-0.07876628,-0.0,2.1026106,-0.0,-0.091653675,0.0,0.28249627,0.0869639,0.0,-0.13412434,0.0,-0.07637792,0.0,-0.20775211,0.119665146,-0.05224237,0.0,-0.15460347,-0.08199835,-0.20135047,0.0950394,0.0867785,-0.092192985,-0.049967855,0.0,0.0,0.0,-0.0,0.0789103,-0.107358165,0.10129443,-0.0,0.0,0.079709984,0.07343734,-0.0,0.0,-0.09331886,-0.0,-0.0,0.10456505,-0.0,0.088114835,0.0,0.0,0.0,0.32286632,-0.0,-0.0,0.0,0.0,0.0,0.0,0.07471473,-0.0,-0.11109945,-0.112905145,0.0,-0.0,0.07938799,0.0,0.0,-0.096880235,0.0,-4.7195177,0.1252567,0.0,-0.15828547,0.0,-0.0,0.0,-0.16871808,0.16749197,-0.0,0.0,0.11430701,-0.0,0.0,0.0,-0.0,-0.0,-0.0,0.0,-0.0,-0.0,-0.0,-0.0,0.89017797,0.14317104,-0.0,0.1919736,0.0,0.0,0.0,0.0,-0.0,0.0,-0.0,-0.0,-0.10733149,0.13538621,-0.0,0.07479832,0.114698075,-0.0,-0.08461606,0.07931265,-0.0,0.0,-0.11139675,0.0,0.0,0.077819206,0.08014944,0.0,0.0,-0.0529795,0.0,0.0,-0.0,-0.079382986,-0.07456904,0.0,0.19043618,-0.0,0.0,0.0,0.08897531,0.0,0.10118524,0.0,0.0,0.0,0.12424033,-0.0,-0.0,0.09189785,-0.0,-0.0,0.0,0.0,-0.0,-0.0,-0.1033221,-0.09037424,0.0,0.0,0.0,0.0,0.0,-0.11475418,0.0,0.2192366,0.0,-0.0,-0.0,0.108833514,-0.08492967,0.12163075,0.16202962,-0.0,-0.112933256,0.0,0.0,0.0,-0.0,-0.12708297,0.0,0.097725935,-0.093848825,-0.0,0.0,-0.0,0.0,-0.0,-0.0712584,-0.0,0.0,0.0,-0.0,-0.0,-0.0,0.10011262,0.092374004,0.07596125,-0.11885353,-0.0,2.8299544,0.0,0.0,0.0,0.0,-0.0,-0.0,0.0,-0.0,-0.06718855,-0.07831855,-0.0,-0.0,0.0,0.065210335,-0.0,-0.069997035,-0.08221292,0.0,-0.0,0.0,-0.0,0.08654032,0.08267358,0.14427753,0.08055691,-0.0,-0.0,-0.0,-0.09850769,0.0911166,0.124188796,0.0,-0.10695242,0.12680146,0.0,-0.0,-0.07109744,-0.0,-0.0,0.0,0.0,0.08653056,-0.0,-0.09885182,-0.0,0.117842235,0.0,0.0,0.119514525,1.0959408,0.0,0.1672123,-0.0,0.10350781,0.094466716,0.0,0.0,0.0,-1.637513,0.084334075,-0.07182326,-0.17652391,0.0,-0.11802763,-0.0,0.0,-0.1550582,-0.0,0.0,0.09298993,-0.39691263,0.0,-2.8540502,0.0,-0.14580308,0.1607988,-0.0,0.0,-0.0,0.0,0.10597963,-0.07050428,-0.76694506,0.12847264,0.09800654,0.08822269,0.0,-0.08527746,0.0,-0.06951877,0.0,-0.094654985,-0.27235037,0.0,0.15679155,-0.13925558,0.09927435,0.0,-0.10801553,-0.0,0.0,0.08841281,-0.0,0.19924253,0.1268681,0.0,0.09988538,0.0,0.15542379,0.075610936,0.0,0.0,-0.0,0.24370117,-0.0,0.0,-0.07605299,0.07832993,0.0,0.0,0.0,-0.0,0.5681446,0.0,-0.10920012,-0.0,0.09815231,-0.0,-0.11469184,-0.0,-0.095927045,-0.08508223,0.0,-0.1310859,-0.33743253,0.08646703,-0.23175229,0.08522717,0.0,-0.0,-0.09707101,0.07754824,0.19222596,-0.0,-0.079215735
-0.08786951,0.0,0.0,0.0,-0.0,-0.36397725,0.10529897,-0.0,-0.0,-0.109672666,-0.0,0.0,0.0,0.0,0.13605852,0.0,-0.0,0.0,0.08064613,0.0,-0.07369128,0.0,0.0,0.0,-0.10621634,-0.0,-0.0,-0.07670601,0.0,0.0,-0.10597144,0.0,0.0,0.08794563,0.17514694,-0.0,0.08512424,0.0,-0.06981171,0.0,-0.0,0.0,-0.09560976,0.180402,-0.0,-0.0715209,-0.0,-0.0,0.093991004,-0.16026886,0.0,0.0,0.0,0.0,0.055986322,0.17054234,0.0,-0.0,0.0,0.0,0.1060617,0.0,0.11973687,0.0,0.20352897,-0.0,0.16424832,0.0,-0.0,0.0,-0.0,-0.0,-0.24372923,0.116680905,0.08540781,0.26304796,-0.0,0.0,0.0,0.08879564,-0.0,0.0,0.0,0.07900841,0.0,-0.0,-0.0,0.08200289,-0.11648066,-0.0,0.0,-0.07605333,0.0,-0.0,0.0,-0.09963684,-0.0,0.0,-0.0,0.0,-0.0,-0.0,-0.0,0.0,-0.0,0.0,-0.0,-0.098761596,0.059850067,-0.0,0.20693368,0.1462516,0.0,0.0,-0.0,-0.0,-0.17318657,-0.07452119,0.10131419,0.0,0.0,-0.077753566,-0.106461644,-0.097891726,-0.16484554,0.11303297,-0.13527197,0.0,-0.0,0.0,0.0,-0.0,0.09423,0.0,-0.0,-0.0,0.11243243,-0.19092073,0.0,0.0,0.6115834,0.0,-0.0,-0.0,0.12542066,0.0,-0.0,-0.0,-0.0,0.0,0.11304488,-0.0,0.0,-0.1147946,-0.0,0.0,0.0,0.14047657,0.40786833,-0.11017973,0.0,0.0,-0.0,0.0,-0.0,0.08441992,-0.28185672,0.0,-0.0,-0.0,0.0,0.12271634,0.0,-0.13194536,-0.0,0.0,-0.0,-0.17882489,0.0,0.108330436,0.0,0.0,0.0,0.0,0.0,-0.0,0.11607383,0.0,-0.0,0.1381535,0.0,-0.07117342,-0.0,0.0,-0.0,-0.0,0.10030945,0.0,0.0,0.0,-0.0,0.0,-0.0,-0.0,-0.0,-0.0,-0.0,-0.0,0.07807311,0.0,0.0,0.0764461,0.0,-0.0,0.0,0.0,0.0,-0.0,0.11038829,-0.0,0.0,0.0,-0.0,-0.08123976,-0.11031763,-0.09398595,0.0,-0.0,0.0,-0.110138014,0.07196043,-0.086773336,-0.0,-0.0,0.2973237,0.0,-0.0,-0.0,0.0,0.0,0.0,-0.0,-0.0,-0.0,-0.0,-0.0,0.12523484,0.111592256,-0.0,0.11851744,0.0,-0.081287906,0.0,-0.0,-0.0,0.0,0.0,0.0,0.0,-0.13771,-0.0,-0.10349218,-0.07463913,0.14234933,-0.0,-0.0,0.0,0.0,-0.0,-0.0,-0.0,-0.0,-0.09610581,-0.0,0.13515402,-0.27139127,0.0,0.25712326,0.0,0.0,0.0,-0.11320027,0.07965488,0.0,0.0,-0.09116444,0.0,-0.0,-0.09589616,0.0,-0.0,-0.10916363,-0.14111122,0.20363767,-0.0,-0.0,-0.07682463,-0.05828437,-0.09422688,-0.10723175,0.0,0.0,0.0,0.15619595,-0.36308333,0.105780974,0.0,0.089538574,-0.0,0.0,-0.0,0.21884163,-0.0,0.0,0.0,-0.07786022,-0.109996565,0.15518549,-0.09263357,0.0,0.0,-0.0,0.0,0.0,0.0,-0.0,-0.0,0.0,0.0,0.0,0.0,0.0,0.08917118,-0.0,0.13681713,-0.09535016,-0.0,0.0,0.0,-0.07310888,-0.1057007,0.0,0.088137284,0.0,0.14005826,-0.0,-0.0,-0.0,-0.079986736,-0.0,0.082048744,-0.0,0.0,0.0,-0.0,0.0,0.1162321,-0.0,0.16463344,0.0,0.0,0.0,-0.16328928,0.0,-0.0,0.0,-0.37588996,-0.0,0.0,-0.0,0.0,-0.0,0.07516357,-0.065889135,0.0,0.0,-0.0,0.0,-0.0,-0.0,-0.0,0.1411905,0.0,0.0,-0.0,0.13206334,0.0,-0.0,0.07593261,-0.0,0.0,-0.14315972,-0.30335194,-0.0,-0.08154551,0.0,0.0,0.0,-0.0,0.11066157
-0.0,0.0,0.0,0.0,-0.0,-0.0,0.0,-0.0,-0.0,-0.0,-0.0,0.0,0.08982929,0.0,0.14887825,0.0,-0.0,0.0,-0.0,0.17812881,0.0947895,0.0,0.0,0.0,-0.13293749,0.10251065,-0.0,0.13639581,0.0,-0.12335793,-0.24390994,0.0,0.0,0.16648912,-0.0,-0.0,-0.0,0.0,-0.22151838,0.0,-0.0,0.2042817,0.0,-0.0,0.0956331,0.0,-0.14642698,-0.0,0.07653037,-0.23471954,0.07756429,0.0,0.20574449,0.11504798,-0.0,0.0,0.1375553,-0.0,0.0,0.0,-0.0,0.0,-0.0,0.0,-0.0,-0.0,0.14029779,0.091749795,-0.0,0.0,-0.0,-0.0,-0.084725626,0.10280789,0.124616995,0.2628625,-0.0,0.118276834,0.0,0.0,-0.08275361,0.0,0.0,-0.0,0.0,-0.0,-0.0,0.0,-0.0,-0.0,0.0,0.104507506,0.0,-0.0,0.16233811,0.0,-0.09639307,0.0,-0.0,0.0,-0.0,-0.10189887,0.16031337,0.11454327,-0.0,0.0,-0.0,0.0,0.0709414,-0.099723406,0.0,0.20428397,0.14640652,0.0,-0.0,-0.0,0.0,0.0,-0.10422092,0.0,-0.0,0.0,0.0,-0.0,-0.22876422,-0.0,-0.11563786,0.0,0.10251654,-0.10784129,0.0,-0.0,-0.116313726,0.0,-0.0,-0.0,-0.07466219,-0.22073548,0.0,0.0,-0.0,0.0,-0.0,-0.0,0.0,0.0,0.0,-0.0,-0.0867202,0.0,0.0,0.081006475,0.0,0.0,-0.0,0.21430627,-0.11571959,0.0,0.0,-0.0,0.0,0.0,-0.0,0.13604848,0.1127017,0.20566773,-0.0,0.07039703,-0.0,-0.0,0.0,0.105930604,0.0,-0.09524208,-0.0,0.0,0.08047823,0.0,0.0,0.10683307,-0.08458751,0.09645329,0.13264206,0.0,0.0,-0.0,0.11248479,0.0,-0.0,0.18216817,0.0,-0.0,-0.0,0.0,-0.0,-0.07947308,-0.0,0.07884509,-0.090558894,0.0,-0.14428195,-0.19952063,-0.0,-0.0,-0.0,-0.0,-0.0,-0.0,-0.12181184,-0.0,0.0,-0.061025333,0.0,-0.11020886,0.0,-0.10812169,0.111541785,0.0,-0.09997424,-0.0,0.0,0.0,-0.0,0.07895208,0.0,-0.0,0.0,-0.0,0.0,-0.0,-0.071513504,0.1128959,-0.0,-0.0,0.0,0.11656435,-0.0,-0.11026155,0.0,0.0,0.0,-0.0,-0.07466763,-0.0,-0.0,-0.0,0.0,0.09623143,0.09796574,-0.0,0.0,0.11115529,0.0,-0.0,-0.0,0.0,0.0,0.0,0.060729895,-0.16910058,-0.0,-0.11280005,-0.0,-0.06900256,-0.10833237,-0.0,0.11758271,0.0,-0.0,-0.0,-0.0,-0.0,-0.13097109,-0.20436393,0.15716642,-0.0,-0.0,0.0,0.10342869,0.0,0.0982994,-0.0,0.12259621,0.0,0.14386034,0.0,0.13398631,-0.0,0.0,0.0,-0.0,0.0939837,-0.0,-0.0,0.07320703,-0.0,0.0700303,0.0,0.0,-0.0,0.19204712,0.0,0.18664382,0.0,0.0,0.15514702,0.17940018,-0.117818795,-0.0,0.0,-0.0,0.0,-0.0,0.0,-0.08394916,-0.10033276,-0.050049856,-0.0,-0.09305581,0.0,-0.07498451,-0.0,0.10385109,0.0,0.07497475,-0.0,-0.0,0.08257786,0.0,0.0,0.2651691,0.0,0.14414471,-0.0,-0.0,-0.0,-0.122021765,0.0,0.0,0.0,-0.0,0.18208967,-0.0,0.0,-0.0,-0.08697667,-0.0,-0.14320463,-0.08287697,-0.0,0.0,0.11878628,0.0,0.0,-0.0,0.2580275,-0.0,-0.0,-0.0,0.22369936,0.0,0.0,0.0,-0.0,-0.11310471,0.0,-0.0,-0.0,0.0,0.1354188,-0.071655326,0.2983569,0.0,0.13497297,0.0,-0.20446232,-0.0,0.0,-0.09466994,-0.08668102,-0.0,0.13886455,0.0,0.0,-0.0,0.15483421,0.0,0.07278961,-0.1093114,-0.0,0.0,-0.220923,-0.0,-0.0,-0.17266183,0.0,0.0,0.0,-0.0,-0.0
0.12752344,0.0,0.0,0.0,-0.0,-0.0,0.14582635,-0.0,-0.0,-0.11553799,-0.0,0.0,0.0,0.0,-0.0,0.08526684,-0.0813833,0.0,0.108556904,0.0,-0.089097045,0.0,0.0,0.0,0.0,0.096755415,-0.06706877,0.09088094,0.0,-0.14841653,-0.0,0.0,0.0,-0.0,-0.0,-0.0,-0.0,0.0,-0.0,0.0,-0.0,0.0,-0.10660851,-0.0,-0.0,0.0,-0.0,-0.0,-0.092888735,0.0,0.1390755,-0.15255615,0.0,0.10790528,-0.0,0.09149197,0.11607647,-0.0,0.0,0.0,-0.0,0.073122635,-0.0,0.0,-0.0,-0.0,0.0,0.0,-0.0,0.0,-0.0,-0.0,-0.2603456,0.10675871,-0.0,0.0,-0.10132015,0.0,0.0,0.0,-0.0,0.08009069,0.0,-0.0,0.28787664,0.13746999,-0.0,0.0,-0.07231606,0.13255611,-0.10569688,0.0,0.0,-0.0,0.12210417,0.11991526,-0.08867902,0.0,-0.0,0.0,-0.0,-0.0,-0.0,0.0,-0.0,0.18957189,-0.0,0.0,-0.0,-0.0,0.0,0.12857224,0.109784186,0.18951304,-0.0,0.07708301,0.0,0.09060299,-0.102207445,0.0,0.0,-0.09225503,0.0,0.08638213,-0.2401952,-0.0,-0.12252052,0.0,-0.0,0.0,0.0,-0.0,0.0,0.0,0.06395831,-0.0,-0.0,-0.2038693,0.0,0.13548423,-0.0,0.0,-0.09209639,-0.0,0.0,0.0,-0.0,-0.0,-0.0,0.0,-0.087157175,-0.0,0.0,0.097088076,-0.0,0.0,0.0,0.0,0.0,0.07415804,0.0,0.0,0.10441244,0.115097225,-0.0,0.0,-0.0,0.0,-0.0,-0.0,0.0,0.14354216,0.15534493,0.074037656,-0.0,0.0,-0.0,-0.2311278,0.15746422,-0.0,0.0,0.0,0.0,-0.07470782,0.0,-0.0,-0.0,0.0,-0.0,-0.0,0.0,-0.0,0.1815387,0.0,0.08946187,0.10566095,-0.0,0.0,0.0,0.0,-0.14198248,0.0,0.109346285,-0.38032055,-0.0,-0.0,-0.0,-0.0,-0.0,-0.0,0.060715113,0.0,0.0,-0.10853527,0.0,-0.10847622,0.12597963,-0.0,-0.07881684,-0.0,0.0,0.0,-0.0,-0.0,0.0,-0.0,0.0,0.08510471,0.0,0.1028197,-0.081604436,-0.0,-0.0,-0.14213175,0.0,0.06994947,-0.0,0.0,-0.063358285,-0.12803762,-0.16704655,-0.0,0.084031984,-0.0,-0.0,-0.0984555,0.11321519,0.0,-0.0,-0.085134156,0.0,0.0,0.09012025,-0.0,-0.0,0.59433955,0.0,0.0,0.0,-0.0,-0.075146705,0.08099726,0.0,-0.0,-0.0,-0.08772012,0.0,0.0,-0.0,-0.0,-0.0,-0.0,-0.0,-0.0,0.0,-0.0,0.1020615,0.0,0.07769428,0.08933165,-0.0755033,0.0,-0.09585066,0.0,0.0,0.0,0.11494224,-0.08978169,0.0,0.0,-0.07634659,-0.0,-0.0,0.26484394,-0.11476918,-0.0,0.0,0.0,0.0,-0.0913072,0.0,0.0,0.0,0.0,0.0,0.0,0.0,-0.0,-0.0,0.0,0.1049189,0.0,-0.0,0.0,-0.08004737,-0.0,0.0,-0.0,-0.12223915,0.0,0.0,-0.0,0.087000675,0.0,0.073645435,-0.0,0.14507243,0.0,0.0,0.0,0.0,0.0,-0.12326442,-0.0,0.13783762,0.13005805,-0.0,0.0,0.0,0.0,0.0,0.0,-0.0,0.0,-0.0,0.08425377,-0.0,0.07013464,-0.09959997,-0.26157016,-0.085393004,0.0,0.0,0.0,-0.0,0.17832382,-0.0,-0.0,0.15579844,0.0,-0.07082949,0.0,0.0,0.0,-0.0,0.0,-0.0,-0.0,0.0,-0.0,0.0,0.2062391,0.0,-0.07149985,0.0,-0.18793926,0.07937551,0.0,-0.085413404,0.10406451,0.07721372,-0.0,0.0,0.17861295,-0.0,0.0,-0.07761493,-0.0,-0.07949305,-0.0,0.0,-0.18727715,-0.0,-0.0,-0.10447219,0.0,0.14005627,0.0,0.29954168,-0.0
-0.0,-0.0,-0.12114895,-0.0,-0.0,-0.0,0.10065227,0.0,0.0,-0.11949486,-0.0,0.0,0.0,0.1255615,-0.0,0.0,-0.08505646,0.0,0.0,0.08256645,0.095445134,-0.25859183,-0.08263767,-0.22329457,0.0,-0.0,0.0,0.0,0.06059476,0.07617981,-0.0,0.0,0.0,0.0,0.12790002,-0.1763601,0.0,0.0972647,-0.07733972,0.0,0.0,0.0,-0.0,-0.0,-0.10932901,-0.092839755,0.0,-0.0,0.0,-0.0,0.0,0.0,-0.0,0.0,-0.0,0.0,-0.0,0.0,0.0,-0.0,0.0,0.07197029,-0.0,0.0,-0.0,0.14885579,-0.08479632,0.0,-0.0,-0.0,-0.0,0.0,-0.14252502,0.093693756,0.10745294,0.0,0.084674604,-0.0,0.0,0.0,-0.0,-0.0,-0.102940746,-0.08432646,0.0,-0.0,0.0,0.0,0.0,-0.071571715,0.0,0.0,-0.0,0.0,-0.10546855,0.11282856,-0.11429124,0.07372126,0.101256356,-0.09020825,-0.0,0.0,0.11055278,0.0,-0.073363006,0.0,0.0,-0.0,-0.0,-0.0,-0.0,0.0,0.0,-0.0,0.0,-0.08517743,-0.09835884,0.11250489,0.10169404,0.20781575,0.08727955,0.0,-0.0,-0.0,-0.0,0.0,0.0,0.0,-0.0,0.0,0.0,-0.12955755,0.08883278,0.0,-0.07727534,0.0,0.071313776,0.0706236,0.0,0.07707537,-0.0,-0.0,-0.08317334,0.0,0.103506945,-0.10064747,0.0,-0.0,0.0,0.0986423,0.09686714,-0.110425726,0.0,0.0,0.0,-0.05300598,-0.0,-0.08929877,0.0,-0.07430947,0.0,0.0,0.0,0.0995106,-0.0,-0.0,0.0,-0.0,-0.0,-0.0,0.0,0.091713704,0.097360365,-0.0,-0.14292094,0.1553973,0.09318129,-0.1571904,0.0,0.0,-0.110442564,0.08207855,0.0,0.0,-0.086020984,0.0,-0.0,-0.0,-0.0,-0.0,-0.0,0.0,0.11997128,0.0,-0.0,0.0,0.0,0.0,-0.07617918,0.0,0.0,-0.0,0.0,-0.0,-0.27649513,-0.0,-0.0,0.0,0.0,0.0,-0.0946537,-0.11099582,0.0,-0.0,-0.0,-0.0,-0.10283715,0.0,-0.10642717,0.0,0.0,-0.0,0.10969832,0.0,0.0,-0.11897253,0.06588746,-0.0,0.0,0.0,-0.09963025,0.07457968,-0.0,-0.0,0.0,0.0,0.0,-0.09832393,0.105276234,-0.0,-0.0,-0.5355907,0.11404609,0.22205296,0.0,0.101053916,0.0,-0.0,-0.10074181,0.19976936,-0.11117166,-0.0,-0.0,-0.0,-0.2957864,0.0,0.2363929,0.09885213,0.12794147,-0.0,0.111671455,0.0,-0.09618749,-0.0,0.0,0.0,-0.0,-0.0,-0.0,-0.0,-0.0,0.07306899,0.0,-0.0,-0.0,-0.0,0.0,0.0,0.0,-0.0,0.0,-0.0,0.0,-0.0,-0.0,0.082606725,0.0,0.0,0.12093932,0.0,-0.08316159,-0.0,-0.0,0.0,0.075921305,0.0,0.0,-0.0,0.0,0.0,0.0,-0.0,0.0,0.0,0.52031296,0.0,0.0,0.11387091,0.0,-0.0,0.0,0.11482391,0.0,0.0,-0.0,-0.0,-0.0,0.09737175,0.0,-0.0,-0.14363156,-0.0,-0.0,0.0,0.0,-0.096758485,-0.0,-0.0,0.0,0.0,0.0,-0.0,0.07102598,-0.0,0.0,-0.0,0.0,-0.21454889,-0.0,0.11156863,0.07256269,0.0,-0.087061845,0.0,-0.07771289,-0.083283395,0.0,0.0,-0.08195896,0.0,-0.07340057,0.0,0.1113414,0.0,-0.0,0.0,0.0750699,0.0,-0.0,0.0,0.0,-0.0,0.0,0.0,-0.0,0.0,0.0,-0.107315674,0.0,0.0,0.0,-0.09853839,0.0,0.0,-0.0,0.0,0.11079592,0.0,0.10121863,0.09041167,-0.08940771,0.0,0.0,0.0,-0.0,0.0,0.09830457,0.106433876,-0.0,-0.0,0.0,-0.0,0.0,-0.0,-0.0,-0.0,0.11234946,0.103720225,0.0,0.0
0.072086744,-0.13253735,0.0,0.0,-0.0,-0.0,-0.08890043,-0.0,-0.0,-0.0,-0.0,0.0,0.15598482,-0.0,0.0,-0.07773027,-0.0,0.07778935,-0.0,0.0,0.0,0.0,-0.07731733,-0.0,-0.0,-0.0,0.0,-0.0,-0.0,0.0,-0.0,0.0,0.0,0.10714254,0.0,0.19694424,-0.0,-0.0,0.0,0.0,-0.0,0.12124,-0.097570896,-0.0,0.0,0.0,-0.0,-0.0,0.0,0.0,-0.0,0.0,0.0,0.0,-0.0,-0.08851361,0.0,-0.0,0.0,0.0,0.0,-0.10552871,-0.0,-0.07533784,-0.10832629,0.0,-0.092308685,-0.11308356,-0.0,1.7944561,0.0,-0.0,0.0,-0.0,0.0,-0.10221842,0.11348393,0.101061955,-0.0,-0.0,-0.0,0.0,0.0,0.0,-0.15005487,-0.0,0.0,-0.11078085,0.0,-0.0,0.0,-0.112810925,0.0,-0.0,0.0,-0.115556836,-0.0,-0.08372473,-0.0,-0.11097256,-0.09723963,-0.0,0.0,-0.0,0.0,-0.0,-0.0,0.0,-0.0,-0.0,0.0,0.0,0.0,-0.17890301,-0.0,0.07941853,-0.1154327,-0.0,0.0,0.18241525,0.0,0.0,-0.0,-0.0,-0.0,0.07885601,-0.10047503,0.15720145,0.0,0.0,0.0,-0.0,-0.0,-0.0,0.0,0.0,-0.10269119,-0.07979565,-0.0,0.0,-0.0,0.0,0.0,0.0,-0.15958968,-0.0,0.0,0.08781015,0.10682667,0.086099125,-0.097303554,0.09434042,-0.09694529,-0.07022081,-0.0,0.0,-0.12625718,0.0,0.0,-0.109925844,0.0,0.0,-0.0,0.11580648,-0.0,-0.0,0.0,-0.09537136,-0.0,0.0,-0.09890736,0.11024952,-0.0,-0.0,-0.0,0.0,0.094060235,0.0,0.0,-0.11153447,-0.0,0.0,0.09684095,-0.08337933,0.0,0.0,-0.06531992,-0.0,0.08181707,-0.0,0.0,-0.0,0.0,0.108251706,-0.0,-0.08239809,-0.0807468,0.0,0.0,0.0,-0.09353323,-0.0,0.1077973,-0.0,-0.11802067,-0.0,0.07055773,0.0,-0.0,-0.10550429,-0.08969096,0.07635503,0.0,-0.0,0.0,0.0,-0.0,-0.0,0.0,0.21048261,0.0,-0.10794872,0.0,0.11488102,0.0,-0.095955335,0.0,-0.0,-0.12694725,0.08852031,-0.0,0.0,-0.0,-0.14980055,0.0,-0.102067456,0.098660685,-0.0,-0.057151053,0.25611892,0.0,-0.0,0.10246428,-0.05336946,0.0,-0.0,0.09415359,-0.11518334,-0.0,-0.0,0.09270448,0.07070413,-0.0,-0.0,0.25719687,0.0,0.0,0.0,0.17792241,-0.14354143,-0.06687473,-0.0,-0.0,-0.14544043,-0.08226742,0.0,-0.0,-0.0,-0.0,-0.0,-0.0,-0.0,0.0,0.062674366,0.069927394,-0.0,-0.1154332,0.0,0.0,0.0,-0.0,0.0,0.0,0.085386254,-0.09134187,-0.07882206,0.0,0.07274824,0.09362873,0.0,-0.0,0.0,-0.2497774,0.0,-0.107959524,0.0,0.09740504,-0.0,0.0,0.0,0.0,-0.089801304,0.20304635,0.11991821,0.0,-0.09697225,0.0,-0.0,-0.0,0.0,-0.13790436,0.0,0.0,0.0,-0.0,-0.0,0.0,-0.07581283,0.0,-0.07200308,0.0,-0.0,-0.09338469,0.0,-0.113862865,-0.25497332,-0.0,0.0,-0.14818034,0.0,-0.10957753,0.0,-0.0,-0.0,0.0,0.0,0.051549174,0.0,-0.0,-0.086430974,-0.0,0.0,0.085551925,0.0,0.07310977,0.0,-0.1307758,-0.0,0.0,-0.0,-0.08424281,-0.0,0.0,0.0,-0.0,0.0,0.10234935,-0.14778847,-0.0,0.0,-0.110226326,0.0,-0.106551945,0.0,0.0,0.0,0.0,0.0,0.0,0.11330741,-0.12322465,-0.0,0.09159633,0.0,-0.066124715,0.0,-0.078097984,0.14941038,-0.13986057,-0.078586504,-0.0,0.08773949,-0.08016932,-0.0,-0.0,-0.0,0.0,0.090241104,-0.09573726,-0.14727947,0.0,-0.09665009,-0.0,-0.0,-0.08005949,0.09587424,-0.108503275,0.0,-0.0,0.12024766
-0.0,-0.18388483,-0.14143899,0.0,-0.0,0.2719727,-0.0,-0.0,-0.0,-0.0,-0.0,0.0,0.0,0.0,0.11275136,0.0,0.12537003,0.09848922,0.12096554,0.0,0.0,0.0,0.08129691,-0.0,-0.09566813,0.0,-0.10537506,0.0,0.0,0.0,-0.0,0.0,0.18239717,-0.0,-0.0,-0.0,-0.0,0.0,-0.11721,0.0,-0.0,0.0,0.0,0.2056788,-0.08877905,-0.142954,-0.0,-0.0,-0.07860456,0.0,0.0,0.0,0.0,-0.053602032,-0.0,0.0,0.0,-0.0,0.23203844,0.0,-0.0,0.16405337,0.14692712,0.07949954,-0.0,0.22131664,0.0,0.15338062,-0.0,0.0,-0.19312412,-0.0,0.0,0.0898555,-0.0,0.13575962,-0.08881563,-0.06251816,0.0,0.0,-0.11931399,-0.0,0.15451086,-0.0,0.0,-0.0,-0.0,0.14413765,-0.0,0.07834942,-0.21852593,0.0,0.0,-0.0,0.15985574,0.0,-0.14996268,0.0,-0.0,0.0,-0.0,-0.0,-0.0,0.0,-0.0,0.0,-0.0,0.09824909,-0.0,-0.0,0.156361,0.18925975,-0.24944074,0.0,-0.0,-0.0,0.0,0.14923364,-0.0,-0.0,0.0,0.11888411,0.0,-0.23425065,-0.0,0.13953373,-0.0,0.0,0.11464898,0.0,0.0,-0.0,0.0,-0.0,-0.0,-0.0,0.074191004,0.0,0.0,0.1545527,-0.0,0.0,-0.0,0.0,0.0,-0.07821851,0.12257813,0.102637775,-0.0989269,0.0,0.0,-0.0,0.0,0.0,-0.0,0.0,0.0,0.1334825,0.0,-0.10145392,0.13809918,-0.23364888,0.10025816,0.09464019,-0.0,0.0,-0.0,0.096019104,-0.0,-0.0,0.12443793,0.15957594,0.12759964,-0.0,-0.0,0.0,-0.10070634,-0.16648684,0.17936872,-0.0,-0.08844,-0.18275562,0.07819486,0.14801054,0.12754896,-0.0,-0.0,0.0,-0.10332885,0.0,0.0,0.10332944,0.1453117,0.0,-0.0,-0.10526268,-0.0,0.14930558,0.0,0.0,0.1609319,0.0,-0.0,-0.4003568,-0.0,-0.0,-0.0,-0.0,-0.1278537,0.07014474,0.0,0.0,0.30984572,-0.0,0.0,0.0,0.10247655,-0.16137505,0.106251,0.07617818,0.0,0.0,0.0,-0.0,0.09765465,-0.083706886,0.0,-0.0,0.0,-0.0,-0.0,-0.0,-0.0,-0.0,0.0,0.15325399,0.07604656,0.0,0.0,0.0,0.0,-0.0,-0.0,-0.0,0.08542682,0.10875006,0.0,0.0,-0.10329645,-0.0,0.0,0.08460715,0.0,0.20636049,0.20239203,0.0,0.0,-0.15233651,0.09236073,-0.10247757,-0.090925924,-0.098512,0.0,0.18567416,0.094045356,0.11693761,0.0,0.0,-0.0,0.0,-0.0,-0.115981646,-0.0,-0.0,0.0,-0.0,0.09476238,0.2812776,0.0,-0.08670595,0.0,0.07436481,0.12359411,0.0,0.0,0.0,0.0,-0.0,0.078906894,0.0,-0.0,-0.0,-0.0,-0.3072852,-0.0,-0.10580696,-0.120813265,-0.07171238,-0.07216104,0.097188465,0.18070924,0.0,0.0,0.10715574,0.0,0.0,-0.053778086,-0.0,-0.0,0.07273361,-0.0,0.0,0.10293052,0.0,-0.13394079,-0.0,0.107070886,-0.0,0.0,0.0,-0.067461364,0.07771244,0.0,0.0,-0.08032513,-0.0,-0.0,-0.23072751,-0.1543246,-0.120892115,0.24442564,-0.16619241,0.0,-0.24335153,-0.0,0.0,-0.0,0.0,0.0,0.0,0.14542024,0.0,-0.0,0.0,0.17101732,-0.0,0.10376556,-0.0,0.0,-0.34924307,0.073318645,0.1439308,0.30033594,0.0,0.2151577,0.15508564,0.07245445,-0.0,-0.0,-0.0,0.10871971,0.0,0.0,-0.0,-0.075675145,0.0,-0.0,0.15524049,0.0,0.092907764,-0.09301826,0.32343593,0.1249412,0.0,0.18857853,0.0,-0.0,0.1621397,-0.09585427,-0.0,-0.071663156,0.1425376,0.0,0.0,0.0,0.102377,0.0,-0.0,-0.13218048,-0.12855385,0.0,-0.13453366,-0.0,-0.0,-0.0,-0.086192854,0.11278906,-0.12466261,-0.0,-0.08596429
-0.0,0.0,0.0,0.0,-0.0,-0.0,0.0,0.16314189,-0.0,-0.09470148,0.14461426,0.0,0.0,0.0,0.0,0.0,0.120582305,0.053493038,-0.0,0.0,0.15627769,0.0,0.0699137,-0.0,0.0,0.09226114,-0.0,0.0,0.0,-0.092729166,-0.0,0.0,0.0,0.07618054,-0.0,-0.0,-0.0,0.0,-0.0,0.0,-0.0,0.0,-0.0595818,-0.0,-0.0,-0.10221387,-0.14680162,-0.0,0.0,0.0,0.0,-0.11794324,0.0,0.12672198,0.28868917,0.17658952,0.0,-0.18932848,-0.0,0.0,-0.0,0.070564866,-0.0,0.111896634,-0.0,-0.0,0.0,0.0,-0.29119793,0.0,-0.184657,-0.0,-0.22601515,-0.0,-0.0,0.0,-0.0,0.0,0.0,-0.115143,-0.08806511,0.1939217,0.0,-0.0,0.0,-0.0,-0.0,0.0,-0.0,0.08036221,0.0,0.11124928,0.0,-0.0,0.0,-0.08595601,-0.0,0.18911609,-0.0,-0.13534915,-0.115437925,-0.08618257,-0.0,0.0,-0.0,0.0,-0.0,0.0,-0.0,-0.0,0.0,0.0,0.0,0.0,-0.0,-0.0,0.0,0.14338367,-0.0,-0.0,0.11803986,0.14617616,0.0,-0.0,-0.17907602,-0.0,-0.0,0.0,0.103303626,0.0,0.0,-0.0,0.0,-0.0,-0.0,-0.0,-0.0,0.0,0.0,0.0,-0.0,0.0,-0.0,0.0,0.0,0.0,0.12532382,-0.096834786,0.09794245,0.119745314,0.19670452,-0.0,-0.19593559,-0.08920857,-0.0,0.0,-0.1273026,0.0,0.0,-0.0,0.0,0.0,0.11213644,0.0,0.15903433,0.0,-0.0,0.0991289,-0.0,-0.0,0.0,0.0,0.0,-0.17882054,-0.0,0.12991989,-0.0,-0.08853034,0.0,-0.0,0.0,0.0,0.0,0.0,0.0,-0.0,-0.0,0.0,-0.07385098,-0.0,0.0,-0.0,-0.0,0.0,-0.0,-0.0,-0.0,0.17173982,0.0,0.0,0.155706,0.0,0.0,-0.0,-0.0,-0.07488819,-0.0,-0.0,-0.1114851,0.0,0.0,0.119668595,0.0,-0.12908818,0.0,0.0,-0.07969668,-0.0,0.0,-0.0,0.0,0.0,-0.0,0.0,0.0,-0.0954038,0.0,0.28394553,0.0,-0.0,0.0,0.0,-0.0,-0.14552377,0.233811,-0.0,-0.10729289,-0.09862144,0.0,0.0,0.0,-0.0,-0.10959993,-0.14519887,-0.0,-0.11450308,0.0,-0.07958389,-0.09981841,0.06920818,0.0,0.0,-0.09247101,-0.0,-0.0,0.0,0.0,0.0,0.0,-0.17234425,-0.0,-0.0,-0.12489297,0.18768561,-0.0,-0.0,0.0,0.0,-0.0,0.0,-0.124723986,-0.0,-0.0,-0.0,-0.0,-0.0,0.08884271,0.21425527,0.13160338,0.0,0.0,0.0,-0.095653854,0.0,0.0,0.0,0.0,-0.0,0.0,0.0,-0.0,-0.0,-0.0,-0.0,-0.0,-0.0,-0.071852446,-0.10527566,0.0,-0.0,0.0,0.0,0.0,0.17826574,-0.25808004,0.0,0.0,-0.0,0.14498365,-0.10047893,-0.0,0.15976636,-0.0,0.0,0.0,-0.0,0.13584018,0.13452771,0.0,0.0,-0.1071754,0.07546865,0.08511479,0.0,-0.07766155,-0.0,0.10275156,0.0,-0.16754827,0.0,0.0,0.0,0.0,-0.0,-0.0,0.0840401,-0.0,0.0,0.0,0.0,0.0,0.0,-0.0,0.0,-0.0,0.08547389,-0.0,-0.0,-0.107859135,-0.31600556,0.0,0.08288575,0.0,0.0,-0.0,0.0,0.12857676,-0.0,0.114962235,0.0,0.0,0.0,0.0,0.15908733,-0.0,0.0,-0.0,-0.0,0.16504773,0.12429399,0.11535331,-0.0,0.07021323,0.0,0.0,0.0,-0.0,0.0,-0.11287473,-0.0,-0.0,-0.0,0.0,0.0,0.09086772,-0.0,0.12136217,-0.122574985,-0.0,-0.0,0.0,0.0,-0.0,-0.0,-0.0,0.0,0.0,0.0,-0.0,-0.08510897
-0.09981612,-0.0,-0.0,-0.78153855,0.0,0.14752197,-0.0,-0.0,0.46836224,0.09509539,-0.09237756,2.8562942,-0.0,0.16435222,-0.0,-0.0,-0.10262369,0.0,-0.0,0.0,0.0,-0.0,0.070125766,-0.0,-0.07610685,-0.0,0.23883106,-0.0,0.0,0.09153158,-0.0,0.0,0.0,-0.07381908,-0.10734124,-0.08405339,-0.0,0.2094582,0.13400169,-0.0,-1.5783321,0.0,-0.0,-0.0,0.0,-0.0,0.07407627,-0.07639519,0.0,0.0,0.0,-0.0,-0.0,-0.07457299,0.0,0.07004898,0.09835813,0.0,0.0,-0.0,-0.10333989,-0.10628041,-0.0,-0.104744285,0.0,0.0,0.0,0.0,-0.8303557,0.45676184,0.0,0.09071671,0.0,0.0,-0.0,-0.0,-0.0,0.11162848,-0.059356123,0.0,0.0,0.0,0.0,0.0,0.0,-0.07156943,0.0,0.0872161,-0.07240237,0.0,0.120511666,0.07993772,0.0,1.0412546,-0.0,-0.0,0.07730914,-0.055412818,-0.0,-0.0,0.10107615,-0.0,0.09403343,-0.092639856,-0.100056484,0.07021678,0.0,0.0,-0.13312037,-0.105704695,-0.091026366,0.0,0.0,-0.12905534,0.66781807,-0.10526884,0.0,-0.0,-0.08702147,-0.0,-0.082269676,-0.0,0.11018415,0.0,0.0,-0.08133487,-0.0,0.0,0.09650261,0.0,0.0,-0.0,0.0,-0.0,0.0,0.0,-0.0,0.0,-0.09663335,0.0,-0.0,0.0,0.0,0.0,-0.0,-0.0,0.0,0.109989546,-0.0,0.10981346,0.0,-0.0,0.0,0.0822298,-0.0,0.0,-0.0,0.0948691,0.0,-0.078662425,-0.0,-0.08998685,-0.0,0.0,-0.08086052,-0.0,0.0,-0.0,-0.0,-0.0,-0.112915464,-0.0,-0.09930399,0.09768794,-0.0,0.0,0.11247229,0.08239808,-0.09392991,0.0,-0.0,-0.0,-0.0,-0.0807166,-0.0,0.13566418,-0.0,-0.0,0.09992344,-0.083816804,0.0,-0.07297534,-0.078121945,0.0,-0.0,0.08936172,-0.0699771,0.0,-0.0,0.0,-0.0,0.09225679,0.0,0.122753374,-0.106784835,-0.0,-0.0,-0.0,-0.0,0.07519043,-0.0,0.0,0.6985985,0.0,0.0,0.0,-0.0,-0.0,0.0,0.0,-0.097716235,0.0,0.0,0.0,0.104021005,0.0,-0.0,0.0,0.0,0.0,0.0,0.0,-0.0,-0.0,0.0,-0.08419863,-0.0,-0.081587955,0.0,-0.0,-0.0,-0.96502906,-0.08888155,-0.0,-0.0,0.0,0.10006776,-0.07694098,0.0,-0.0,-0.0,-0.0,0.0,-0.0,0.0,0.06118771,0.0,0.0,0.0,-0.103881046,-0.0,0.0,0.0,-0.0,0.0,0.0,0.0,0.10016661,-0.0,0.0,-0.0,-0.0,-0.0,-0.07935161,-0.10409329,0.0,0.087000035,0.0,-0.0,0.10877425,0.0,0.0,-0.10229073,-0.08184758,-0.0,-0.0,-0.07409094,0.11516484,-0.086871125,0.0,-0.0,0.0,-0.0,-0.0,-0.0,0.0,0.09255817,-0.0,-0.08106241,0.0,0.0,-0.0,0.0,0.0,4.8460774,-0.08480324,0.0,0.1067831,0.0,0.0,-0.0721065,0.0,-0.0,-0.0,-0.099161856,-0.0,-0.0,0.0,0.0,0.0,0.0,-0.0,-0.0,0.0,0.0,-0.3666018,0.0,-0.0,0.0,0.0,0.0,-0.21915759,0.09435762,-0.0,0.10993197,-0.0,-0.0,0.20532757,0.0,-0.0,0.10984071,-0.13229378,0.07222284,-1.2993525,-0.0982154,-0.0,0.0,0.09848822,-0.09921717,-0.283489,-0.0,-0.0,0.0,-0.0,-0.0,-0.0,-0.0,-0.0,-0.08674057,0.07220389,-0.0,0.11483238,0.0,-0.08382788,-0.104606226,0.8718296,-0.110423006,0.1054058,0.22275299,0.0,0.0,0.13015212,0.09133545,0.0,-0.07156328,0.0,0.0,-0.20361522,0.0,-0.11429891,0.08154275,-0.080760114,-0.09072694,0.0,-0.0,0.08546031,0.09088523,-0.0,0.0,-0.112478346,0.15212229,-0.08006925,0.0,0.9410114,0.0,0.0,-0.07818199,0.10627628,0.0,-0.08874278
0.115504384,0.0,0.0,0.0,-0.0,-0.0,0.092966184,-0.0,-0.0,-0.19987516,-0.0,0.22184964,0.0,0.0,0.09021761,0.0,-0.0,0.0,0.12616685,0.0,-0.0,0.0,0.07351355,-0.0,-0.1056738,0.14592558,-0.0,0.0,0.0,-0.07992613,-0.0,0.0,0.0,0.0,0.2657629,-0.0,-0.0,0.15634544,-0.0,0.0,-0.0,0.23365006,0.0,-0.0,0.11486074,0.0,-0.0,0.080610804,0.09057717,0.0,0.0,-0.15280421,0.0,0.0,-0.0,0.0,-0.0,-0.0,-0.0,0.0,-0.0,0.0,0.10882342,0.0,-0.0,-0.0,0.0,0.08528187,-0.40414527,0.0,0.0,-0.0,-0.18920729,0.17515329,-0.0,0.0,-0.08964968,0.14633606,0.0,0.0,-0.08657886,0.13050345,0.20269158,-0.0,0.0,-0.0,-0.0,0.1476387,-0.0,-0.0,-0.19063175,0.0,0.0,-0.0,0.0,0.08114658,-0.11438081,0.17303869,-0.0,-0.15182059,-0.12097967,-0.0,-0.0,0.0,-0.0,0.0,-0.0,0.0,-0.0,0.10662322,0.17241319,0.0,-0.14575109,0.0,-0.0,0.120641604,-0.23182,0.0,-0.0,-0.0,0.1280053,-0.0,0.099554956,-0.0,-0.0,-0.0,-0.0,0.20824045,-0.0,0.0,0.0,-0.0,0.068866245,-0.0,0.05481992,-0.0,-0.08529322,0.0,0.0,0.0,-0.0,0.0,-0.0,0.0,0.0,-0.09139709,-0.0,0.10642127,-0.10240458,0.0,0.0,0.1258964,-0.1435889,0.07145476,-0.0,-0.05563465,-0.1447415,0.0,0.20758002,-0.17059505,0.0,0.0,0.06610413,0.0,-0.0,0.0,-0.0,0.0,-0.0,-0.0,-0.07519815,0.09270544,0.0,-0.14586207,-0.0,0.13188957,-0.0,0.0,0.0,-0.0,0.0,-0.1967255,0.0,0.15452807,0.0,-0.0,-0.0,0.0,-0.0,0.18547608,0.0,0.10798288,-0.0,0.0,-0.0,-0.0,0.11209868,0.14652634,-0.090394676,-0.13609822,0.0,0.061986934,-0.0,-0.0,-0.0,-0.0,-0.0,-0.0,-0.0,0.0,-0.13884914,0.08141492,0.0,-0.0,0.16350803,0.0,-0.0,-0.0,0.10345176,-0.0,0.0,-0.11870296,-0.0,-0.0,0.084105395,-0.0,0.1003522,0.057193328,0.0977348,-0.0,-0.0,0.0,-0.0,0.0,0.2812872,-0.0,-0.0,-0.0,0.0,0.0,0.0,-0.0,0.08879321,-0.0,-0.0,-0.0,0.072864264,0.0,-0.08422223,-0.0685977,0.0,0.120416544,0.0,-0.0,-0.0,0.0,0.0,-0.110249154,0.0,-0.109732784,-0.10961633,0.0,-0.0,-0.0,-0.0,0.15109032,-0.082408965,0.08795217,-0.0,0.0,-0.0,-0.11749771,-0.0,-0.0,-0.0,-0.0,0.0,0.23958787,0.0999777,0.0,0.0,0.07806769,0.112175815,0.0,0.0,0.0,0.0,0.07660253,0.0,0.0,-0.0,-0.0,-0.0,-0.0,0.10584202,-0.0,0.0,0.0,0.0,0.10426452,0.19207992,-0.13422273,0.0,0.0,0.0,-0.06807242,0.15536614,-0.1143815,-0.0,0.0,-0.0,0.0,-0.0,0.0,0.0,-0.09509963,0.0,-0.0,0.0,0.0,0.0,-0.0,0.0,0.12922546,-0.11448683,-0.25187624,-0.0,0.0,0.0,-0.12838593,0.19887145,0.0,0.0,-0.0,-0.0,0.12354792,-0.0,0.0,0.0,0.07565797,0.1528174,0.11759343,-0.20546538,0.32172948,-0.0,-0.07828916,-0.0,-0.07813561,0.0,-0.0,0.06544003,-0.0,0.14062358,0.0,0.28984722,0.0,-0.0,-0.0,0.13694333,0.0,0.0,0.09071002,-0.16859135,0.07583388,-0.13020584,-0.14221947,-0.0,0.102870256,0.0,-0.0,-0.102547914,-0.0,-0.0,0.0,0.16825897,0.25969693,-0.0,0.0,-0.0,-0.07307095,-0.0,0.0,0.0,0.08104756,-0.0,-0.0,0.14769009,-0.0,-0.0,-0.0,0.0,0.0,0.1696484,-0.0,-0.122751504,-0.09253244,-0.077496916,0.0,-0.0,-0.074286155
-0.0,-0.1603224,-0.071598485,0.0,-0.0,-0.0,0.14243591,0.15944181,-0.0,-0.0,-0.0,0.0,0.0,0.0,0.12821549,0.0,-0.0,0.074531555,0.10163978,0.18420655,0.11969272,0.0,0.07400667,-0.0,0.0,-0.0,-0.0979727,0.0,-0.16484073,0.0,-0.0,0.0,0.0,0.12668347,-0.0,-0.0,-0.0,0.0,-0.11630073,-0.09567804,-0.0,0.24506786,0.0,-0.0,-0.0,0.0,-0.0,-0.0,0.090227306,0.0,0.0,0.0,0.0,0.0,0.27574348,0.18892655,0.1331278,-0.14834563,-0.0,0.0,-0.0,0.12454117,-0.0,0.0,-0.0,-0.0,0.0,0.0,-0.0,0.0,-0.19149834,-0.0,0.0,0.08609536,-0.0,0.0,-0.10532285,0.0,0.14424853,0.08111853,-0.16875546,0.13642049,0.0,0.12202244,0.0,0.11956105,-0.0,0.0,-0.0,-0.0,-0.17246233,0.0,0.0,-0.0,0.0,0.121967345,-0.0,0.0,-0.0,0.0,-0.0,-0.10661938,-0.0,0.11951901,-0.0,0.0,-0.0,0.10300006,-0.0,-0.0,0.0,0.0,-0.1280518,0.0,-0.0,-0.0,0.0,0.0,-0.0,-0.0,-0.0,0.08765347,0.0,-0.0,-0.17718764,0.12042485,-0.0,0.0,-0.0,0.0,0.0,-0.0,-0.12125343,0.056480028,-0.0,-0.0,-0.08450848,0.0,-0.28233293,0.0,-0.0,0.0,-0.084924415,0.0,0.0,-0.07159217,0.15471019,-0.10645369,-0.0,-0.07940713,0.0,0.13835044,-0.12682723,0.0,-0.0,0.0,-0.09169501,0.0,0.17702667,-0.0,0.0,0.0,-0.0,0.09738254,-0.064783394,0.0,-0.0,-0.0,-0.0,-0.0,0.0,-0.0,0.1347075,-0.14792258,-0.0,0.0,-0.08110231,0.0,0.0,-0.0,-0.08182776,0.0,0.07926336,0.0,0.0,-0.0,-0.0,0.0,-0.0,0.0,0.0,-0.09367915,-0.0,0.0,-0.0,-0.0,-0.0,0.059983216,0.0,-0.10509,0.12379678,0.0,0.07110468,-0.39784256,-0.20972998,-0.0,-0.0,-0.0,0.066379294,-0.10178467,0.0,0.0,0.0,-0.0,0.0,0.0,0.0,-0.0,0.07388978,0.057597715,0.0,0.0,-0.14593098,0.0,-0.0,-0.0,0.18972757,-0.0,0.083568625,0.102602996,-0.08789529,0.113403074,-0.0,-0.1295546,0.0,0.0,-0.11523527,0.0,0.0,0.0,0.0,-0.0,-0.0,-0.0,-0.10426779,-0.0,-0.0,-0.085329615,-0.0,-0.0,0.0,0.0,0.0,-0.0,-0.0,-0.20176147,0.0,0.0,0.0,0.0,-0.0,0.0,-0.0,-0.0,0.0,-0.0,-0.0,0.0,-0.17770492,0.0,-0.13784096,-0.0,-0.0,-0.0,0.13554983,-0.0,0.0,0.0,0.1352755,0.0,-0.0838537,0.1014082,0.0,0.0,0.0,-0.07701147,0.0,-0.0,0.0,0.08322432,-0.082644284,0.10844679,-0.0,-0.0,-0.0,-0.11045807,0.0,0.0,-0.12756127,0.108938314,0.10095904,-0.13753964,0.0,0.0,0.0,0.0,0.0,-0.11483314,-0.0,0.0,-0.16891001,0.19080006,-0.0,0.0,-0.13225228,-0.14004794,0.0,-0.0,-0.12755828,0.24604243,0.0,-0.0,0.0,0.19051188,0.105966225,-0.0,-0.0,0.0,-0.18043001,0.0,0.0,-0.17162107,0.089269295,-0.08587692,-0.0,0.0,-0.13452768,0.12124683,0.0,0.14517255,0.10970529,0.0,-0.0,0.0,-0.0,-0.0,0.10570273,-0.0,0.0,-0.0,0.0,-0.0,0.0,0.0,-0.0,0.0,-0.0,-0.123659596,0.10193138,0.10893069,0.13473342,0.11901991,0.0,0.0,-0.0,0.0,-0.0,-0.0,0.0,0.14001338,-0.086031124,0.31628254,-0.0,0.12475897,0.1938866,0.0,-0.0,0.15668897,-0.076808035,-0.0,-0.0,0.0,0.0,0.0,0.10224381,0.1210006,0.0,-0.0,-0.0,-0.0,0.0,-0.07525292,0.1437309,-0.0,-0.0,0.0,0.12357349,0.0,-0.0,-0.08798776
0.0,-0.0,0.0,-0.56750417,0.0,0.0,-0.0,-0.0,0.0,0.08644495,-0.08234723,1.1379521,-0.09133609,0.0,-0.09192864,0.0,-0.0,0.0,-0.09531089,0.09836183,0.07135076,0.7481156,0.0,-0.0,0.0,-0.07598837,0.16925701,0.08425031,-0.16280982,0.0,-0.0,0.051097747,0.0,0.0,0.0,0.0,0.0986053,0.2284625,0.0,0.090294205,-0.0,-0.08420211,-0.11413098,-0.0,0.08132971,0.0,-0.10690249,-0.0,-0.0,0.0,-0.0,-0.0,-0.1001425,0.0,0.15869734,0.0,-0.0,0.0,0.0,0.0,-0.0,-0.0,-0.0,-0.0,0.0,0.0,-0.0,0.075123064,0.0,0.09024066,0.0,-0.0,-0.0,-0.0,-0.099715635,-0.0,0.10136027,0.0,-0.0,-0.0,0.0,-0.108308725,0.08914219,0.0,0.0,0.0,0.0,0.0,-0.09057332,0.0,0.0,0.08278736,0.0,0.3971499,-0.0,-0.10623752,-0.07271789,-0.06504212,-1.3146464,-0.0,-0.079374984,0.0,0.107864454,0.074859224,0.0,0.0,0.0,0.109313376,-0.0,-0.0,-0.111540794,0.15381059,0.0,-0.23286821,0.10384211,0.0,-0.103963725,0.095226504,0.0,0.0,0.0,0.07493263,-0.0,-0.0,0.0,0.0,-0.0,0.1449383,-0.0,-0.0,0.0,-0.0,0.0,-0.117342904,0.0,-0.0,0.0,-0.073319376,0.0,0.0,-0.0,-0.0,0.0,0.0,0.0,-0.0,-0.0,0.07545441,0.0,-0.11436139,-0.0,-0.0,-0.0,-0.10967422,1.2493594,-0.13166834,0.0,-0.0,0.10082407,-0.0,-0.0,0.08263596,-0.0,0.0,-0.08772981,0.0,0.0,0.0,0.0,0.0,0.0,0.0,-0.0,0.08510166,-0.0,0.0,0.0951133,-0.11285781,0.0,0.0,-0.11304393,-0.0,-0.10530779,-0.100779705,-0.0,-0.081120126,-0.0,0.0,0.0,-0.0,0.0,0.0,-0.084184356,0.0,-0.0,-0.0,-0.0,0.0,0.0,0.0,-0.08902922,0.0,0.0,-0.0,0.0,0.0,0.0,-0.0,-0.0,-0.0,-0.1090858,0.0,0.0,0.0,-0.0,-0.0,0.0,-0.0,0.0,0.0,0.09921607,0.0,0.0,-0.0,-0.0,-0.0,-0.0,0.0,0.10972688,-0.08456597,0.0,-0.0,-0.0,-0.0,0.0,-0.0,0.0,-0.0,0.0,-0.0,-0.0,-0.0,0.0,0.12819786,-0.07353625,0.084907,0.079046495,-0.0,-0.0,-0.05750241,0.0,-0.0,-0.0,-0.0,0.92680794,-0.0,-0.3259628,-0.110287204,0.0,0.07874698,-0.0,-0.0,0.0,-0.0,-0.0,0.08146631,0.0,-0.1087394,-0.0,0.2172619,-0.0,-0.10270189,0.0,-0.0,-0.0,0.0,0.0,-0.07148915,0.07901163,0.0,-0.0,0.0,-0.11371233,-0.081948236,0.07067364,0.08050873,0.090378635,0.07171743,0.0,0.08902872,0.087807484,0.0,-0.0,-0.20466012,0.0,0.0,-0.0,0.073204234,-0.0,-0.0887721,0.0,-0.0,0.0,-0.115317196,0.0,0.0,-0.080349535,0.11062045,0.0,-0.07456584,-0.0,0.12280061,-0.0,-0.0,-0.10472909,0.0,0.0,0.0,0.0,0.0,-0.0,-0.0,0.0,0.0,-0.07661265,0.0,0.069979884,-0.0,-0.15183085,0.0,0.0,-0.0,-0.0,0.0,0.0,0.07605774,0.080069765,0.0,0.0,0.0,-0.0,-0.09046882,0.0,0.0,-0.10711846,-0.0,0.10892808,0.0,0.0,-0.0,0.0,0.11406202,0.0,-0.0,-0.0,-0.0,-0.0,-0.0,-0.0,0.0,-0.0,-0.0,0.0,-0.0,0.0,0.0,0.098398104,0.08376617,0.0,0.0,-0.08905803,-0.0956385,-0.0,-0.0,0.0748586,0.0,-0.073630646,0.05862367,0.0,0.0,-0.113590926,0.0,-0.0,-0.115374304,-0.0,0.0,0.08032691,0.09050568,-0.0,-0.108341604,0.0,0.0,0.0,0.9802339,0.0,-0.09231523,-0.0,-0.08053921,0.0,-0.0
0.1533902,-0.17339034,0.0,0.0,-0.0,-0.0,0.14328916,-0.05195343,-0.0,-0.10563187,-0.0,0.19740002,0.12954581,0.0,0.1470358,0.0,0.0971773,0.07766188,-0.07048549,0.17058368,0.14369193,0.0,0.0,-0.0,0.0,-0.0,-0.0,0.09265186,0.0,0.0,-0.0,0.2843863,0.20068003,-0.0,-0.0,0.19271299,-0.0,0.0,-0.0,-0.1457656,-0.0,0.0,0.0,-0.0,0.101988226,0.0,-0.0,0.07444487,-0.07464871,0.0,0.12713999,-0.22139315,0.19166549,-0.06828765,-0.0,0.0,0.14226256,-0.15343724,-0.0,0.0,0.12817532,0.0,-0.0,0.0,-0.0,-0.0,0.109714024,0.114491515,-0.0,0.0,0.0,0.16461772,-0.21968491,0.08552985,0.1300233,0.0,-0.09276909,0.0,0.18048407,0.0,-0.0,0.0,0.0,-0.0,0.0,0.17523523,-0.0,0.0,-0.0,0.09248462,-0.1806794,0.0,0.0,-0.0,0.0,0.0,-0.0,0.16440366,-0.0,0.0,-0.12342177,-0.0,-0.0,0.0,-0.0,0.18553321,-0.0,0.0,0.12854221,0.08812179,0.0,0.0,-0.21434388,0.0,-0.0,-0.0,0.0,0.0,-0.103345506,-0.0,0.12864807,-0.0,0.07636984,-0.0,-0.0,-0.0,-0.12364491,0.13632305,-0.0,0.0,0.0,-0.0,0.0,-0.0,-0.0,-0.0,-0.0875251,0.0,-0.22139905,0.20781922,-0.0,-0.3350483,0.09747017,0.18841745,0.0,0.0,0.13790496,0.085927196,-0.09658754,-0.051779266,0.0,0.096005924,-0.13666625,0.0,-0.0,0.0,0.0,0.0,0.1799654,-0.0,0.0,0.0,-0.0,0.0,0.12462735,0.0,-0.0,-0.0,-0.0,-0.0,0.0,0.07284502,0.0,-0.0,-0.0,0.11808515,-0.07913182,0.0,0.0,0.07722368,0.0,0.0,-0.08419086,0.0,0.0,-0.0,0.14229311,-0.124278,-0.0,0.09164949,0.0,0.086179055,-0.0,0.0,-0.0,-0.0,0.089995295,0.19004126,-0.08160721,0.0,0.16569693,0.0,0.07057918,-0.36164582,-0.0,-0.0,-0.0,-0.0,-0.0,-0.13504568,0.0,0.0,0.3467514,-0.10710942,0.0,0.0,-0.0,-0.13988687,0.09901044,-0.0,0.0,0.0,-0.0,0.088289894,0.0,0.09266413,0.0,0.06225962,-0.10134322,-0.07354094,-0.09850825,-0.0,-0.0,-0.0,0.0,-0.0,-0.0,-0.13210212,0.0,0.0,0.0,-0.0,-0.0,-0.0,-0.0,-0.0,0.09593226,0.10562067,-0.0,-0.0,0.0,0.09826652,0.0,-0.0,-0.0,0.0,0.0,0.0,0.0,-0.10863816,-0.07823903,-0.0,-0.1278258,0.1796124,-0.1339982,-0.0,0.07307153,-0.074313685,-0.0,0.0,-0.0,-0.0,-0.0,-0.1827543,0.09347202,0.09370382,-0.1127937,0.0,0.1497247,0.0,0.09721984,0.0,0.13075918,0.0,0.0,0.0,0.09499179,0.10556993,0.0,0.0,-0.0,-0.10922941,-0.0,-0.15542734,-0.0,-0.0,-0.10303586,0.0,-0.11153329,-0.0,0.0,0.0,0.0,0.13377766,0.0,0.16096811,0.122326046,-0.11498164,-0.0,0.0,-0.0,0.0,-0.0,0.0,-0.091000125,-0.0,0.19959964,-0.0,-0.10317998,0.0,0.0,-0.0,0.0,0.0,0.0,-0.0,0.12079003,0.0,0.0,0.0,0.0,0.0,0.0,-0.0,0.20212469,0.09701399,-0.14816974,0.1409564,0.0,0.0,-0.0,0.0,-0.0,0.0,-0.0,0.075697444,-0.0,-0.14326628,-0.1048307,-0.46686772,0.0,0.103691235,0.0,-0.10626848,-0.0,0.11947428,-0.0,-0.12653458,0.0,0.07394419,0.16636315,0.0,-0.1925225,-0.0,-0.0,0.0,-0.0,-0.0,0.0,-0.0,0.0,0.26301572,0.090645514,0.0,0.0,0.0,0.09279644,0.0,-0.0,-0.0,0.085109435,0.14952895,0.0,0.07483616,0.13437514,-0.0,0.0,-0.092089586,-0.14043336,-0.113481455,0.0,0.0,-0.0,-0.0,-0.14993088,-0.082740426,0.0,-0.111511394,-0.0,-0.0
0.10485526,0.0,0.0,0.0,-0.0,-0.0,0.0,-0.0,-0.0,-0.0,-0.0,-0.8384748,0.13431439,-0.0,0.13451838,0.097956315,-0.0,0.0,0.0879492,0.0,0.09953845,0.0,0.0,-0.0,-0.0,0.11471229,0.0,0.0,-0.13225012,0.0,-0.0,0.0,0.0,0.083128065,0.0,-0.0,0.0,-0.0,0.0,0.077693954,-0.0,0.0,-0.0,-0.0,0.0,-0.0,0.101179786,-0.0,0.0,0.0,-0.0,0.0,0.121735856,-0.075061776,-0.0,0.0,-0.0,-0.0,0.0,0.0,0.0,-0.0,-0.0,-0.0,-0.0,0.2367654,-0.0,0.10586407,-0.0,0.0,-0.25642112,-0.0,-0.28058195,0.094942704,-0.0,0.0,-0.0,0.0,-0.0,-0.0,-0.0,0.0,-0.080819465,0.09624622,0.0,-0.09803842,0.0,0.115082435,-0.0,0.0,0.0,-0.09461784,-0.39346004,-0.0,0.0,-0.0,-0.0,-0.0700949,-0.0,-0.0,-0.096537456,0.11517843,0.0,-0.0,0.0,-0.0,-0.0,-0.0,-0.0,-0.10109762,0.0,0.0,0.054935,-0.21471894,-0.0,0.10391285,-0.0,-0.0,0.0,0.0,0.08961853,-0.0,0.116518386,0.0,-0.1938476,-0.0,-0.0,0.0,0.07113022,-0.0,0.0,-0.0,-0.07589769,0.15912993,0.09376729,0.0,0.08704501,0.09193144,0.0,0.0,-0.0,0.0,0.10556441,0.082501195,-0.0,0.0,0.079835355,-0.0,-0.07478608,0.0,-0.075990334,-0.08902231,-0.09693315,-0.0,-0.0,0.1626679,0.0,0.0,0.0,-0.0,0.09186125,0.11411405,-0.106820956,0.0,-0.0,-0.0,0.0,-0.0,-0.0,0.10431096,-0.08472146,0.08126021,-0.0,-0.0,-0.05576091,0.09668829,-0.0,0.0,0.0,0.0,-0.08104015,0.099181466,0.0,0.0,0.0,-0.20002161,-0.070231125,-0.07849483,0.0863053,-0.0,0.0,-0.0,0.0,0.0,0.15143755,-0.0998931,-0.0,0.0,0.08390632,0.0,0.0,-0.0,-0.0,-0.0,-0.0,-0.0,-0.0,-0.13399847,-0.0,0.0,-0.0,0.0,0.0,-0.0,-0.095687196,0.0,-0.07695864,-0.0,0.0,0.0,0.0,-0.0,-0.09811689,-0.0,0.0,0.073050745,0.0,-0.0,0.0,0.0,0.0,-0.113711864,0.23774916,-0.13320927,0.20295584,-0.0,-0.0,0.0,-0.0,0.144636,0.0,-0.0,-0.115179144,-0.0,-0.094007656,0.0860023,0.0,0.0,0.0,-0.0,0.0770236,0.0,0.095280565,-0.0,-0.0,0.0,0.0,0.0,0.0,-0.17724696,0.054028798,-0.0,0.0,-0.0,0.084090866,0.0970521,0.0,-0.26225564,0.11006522,-0.0,-0.0,-0.0,-0.12531447,-0.0,0.12573841,-0.0,-0.0,0.0,0.07693249,-0.11485112,-0.0,0.09865502,-0.10493067,-0.07335986,-0.11109973,0.0,0.0,-0.0,0.0,0.0,-0.0,0.0,-0.0,-0.14581726,-0.0,0.105912305,0.10114499,-0.0,-0.0,0.09630454,0.0,-0.0,0.46409613,-0.08040123,0.0,0.07687559,0.0,-0.0,-0.0,-0.0,-0.07220625,0.0,0.12942609,0.0,-0.0,-0.0,-0.0,0.07423315,0.08769084,-0.0,0.0,0.095674336,-0.0,0.0,-0.0,-0.0,0.09878124,0.0,0.0,0.0,0.0,0.0,-0.07879623,-0.2329644,0.074041955,0.103976764,-0.10251581,0.0,0.14552027,-0.09839093,0.0,0.0,0.11467881,0.0,0.0,-0.0,-0.0,-0.10913877,0.0,-0.0,0.0,0.0,0.0,-0.097667396,-0.0,0.0,-0.0,-0.0,-0.0,0.1345013,0.0,-0.07891062,0.05706387,0.08867564,0.0,0.0,0.1635989,0.0,0.0,0.10025679,0.0,-0.0,-0.0,0.0,-0.0,0.0,0.0,0.0,0.0,0.0,0.09540153,0.0,-0.0,-0.0,0.0,0.09463725,-0.0,0.0,-0.0,-0.17977692,0.12054327,0.0,-0.0,-0.0,-0.113955386,-0.076067366,0.0,0.0,-0.0,-0.0
-0.0,0.0,0.0,0.0,-0.0,-0.0,0.0,-0.0,-0.0,-0.0,-0.0,0.0,0.13764556,-0.0,0.15211327,0.0,0.09370459,0.0,0.07151277,0.0,-0.08206126,0.0,-0.0,-0.1950772,0.0,-0.0,0.0,0.114655934,-0.0,0.0,-0.091008544,0.0,0.0,0.0,0.0,-0.0,0.087721184,-0.0,0.0,0.10208215,-0.0,0.17575787,-0.0,-0.0,0.0,0.0,0.0,-0.0,0.0,0.0,0.0,-0.13886826,0.18110786,0.10497889,0.23110926,-0.08334626,0.0824273,-0.19229749,0.14892992,0.0,-0.080465086,0.0,-0.0,0.07883162,-0.0,0.22174266,-0.0,0.07475609,-0.0,0.0,0.0,0.0,0.0,0.0,-0.07235959,0.10865434,0.0,-0.06227596,0.1461632,-0.0,-0.0,0.09542814,0.0,-0.0,-0.24967273,0.0,0.0,-0.072009906,-0.0,0.11512231,0.0,0.0,0.0,-0.0,0.092763826,-0.0,0.10422115,-0.08194754,-0.0,-0.10948987,-0.105842166,-0.10845,0.0,-0.07412647,0.082008034,0.42400637,-0.0,-0.07340805,-0.0,-0.0,0.0,0.0,0.0,-0.24966139,-0.0,0.0,0.08053922,-0.0,-0.0,0.0,-0.0,0.08994398,-0.08013958,-0.0,-0.0,-0.0,-0.0,0.0,0.0,-0.0,0.0,-0.0,-0.0,-0.0,0.0,0.0,-0.0,-0.09701057,-0.22783463,0.0,-0.0,0.053673547,0.07031656,0.109691255,-0.0,0.0,0.0,-0.0,-0.07390353,-0.084361166,0.13379212,-0.11348991,0.0,0.0,-0.0,0.0,-0.09816044,0.0,0.0,-0.0,0.0,0.13291676,-0.0,0.0,-0.0,-0.0,-0.14534788,0.0,-0.0,0.1027423,-0.0,0.09824659,0.07905587,-0.0,-0.25038296,0.0,-0.0,0.0,0.0,0.080268905,-0.12578695,-0.06953504,-0.10297047,0.0,0.112216,0.0,-0.08585535,-0.077366024,-0.088030554,-0.0,0.0,0.081775345,0.12754615,0.0,0.17350864,0.0,-0.0,-0.056954786,0.0,0.0,0.0,-0.0,0.11555218,-0.38764712,-0.13313222,-0.0,-0.108146735,0.0,-0.0,0.0,-0.0,0.09737421,0.0,-0.0,0.0,0.0,0.0,-0.0,0.0,0.0,0.0,0.0,0.07199877,-0.0,0.0,-0.0,0.18228361,-0.0,0.0,-0.07757598,-0.0,0.0,-0.0,0.05991859,0.16596268,-0.0,0.11115261,0.07261228,-0.0,-0.0,0.0,-0.0,-0.0,-0.0,0.0,0.0,0.0,0.0,-0.10682181,-0.11166014,0.0,0.0,-0.0,-0.0,-0.0,-0.29288104,0.0,0.0,0.0,-0.1223634,-0.0,-0.10098765,0.0,-0.0,0.0,0.0,0.0,-0.26225564,0.0,0.39380214,-0.0,-0.0,0.0,-0.0,-0.0,-0.0,-0.0,0.0,0.0,-0.0,0.106815286,-0.08272271,-0.0,-0.0,-0.0,-0.08478011,0.07588449,-0.0,-0.0,-0.111577876,-0.0,0.10812873,-0.14358936,0.0,0.0,0.0,-0.078212224,-0.24127162,-0.10029133,0.0,0.13894065,-0.0,0.0,0.0,0.0,-0.0,0.13847212,-0.0,0.0,0.07454677,0.0,0.0,0.0,0.0,0.0,0.074782565,0.0,0.0,0.0,-0.0,0.0,-0.0,-0.0,0.14304133,-0.0,-0.0,0.0,0.0,0.0,0.0,-0.16299272,-0.08296005,0.0,-0.0,0.099491395,0.0,0.076901264,-0.7015867,-0.0,0.07015303,0.13207866,0.0,0.11413341,0.0,0.0,-0.07255401,-0.082000114,-0.115627676,-0.0,-0.39753234,-0.0,0.11352584,0.0,-0.09540922,-0.0,0.0,-0.0,-0.0,-0.0,0.0,0.0,-0.0,0.0,-0.0,0.1122781,0.0,0.0,0.0,0.0,0.1285983,0.0,-0.0,0.0,0.0,-0.0,0.0,-0.0,0.0,0.0,0.0,-0.0,0.0,0.10174886,0.0,0.09303839,-0.0,0.07805309,0.087755665,-0.0,-0.0,0.11242644,0.0,-0.0,-0.0,0.10917177,0.0,-0.077825546,-0.102648854,-0.0,-0.0
0.0,-0.14702223,0.0,-0.0,0.0,-0.0,-0.1119747,-0.07966261,0.10423329,-0.11093811,-0.0,0.0,-0.0,0.17193787,-0.0,-0.1085003,-0.09650262,0.0,0.09147867,-0.08737441,-0.07068814,0.0,-0.0,-0.0,-0.094791174,-0.0,0.0,-0.07404247,0.05722986,-0.0,-0.0,0.34820637,0.0,-0.0,-0.101148896,-0.11572623,0.0,-0.0,-0.08150948,0.0755677,-0.115067914,0.0,0.09961868,-0.0,0.09280806,-0.0,-0.0,-0.0,0.0,0.0,0.082667954,0.0,0.0,0.13214381,0.0,-0.0,0.08978527,0.0,0.0,-0.0,-0.0,-0.0,-0.052877195,0.075493954,0.109238245,0.0,-0.0,0.0,-0.0,-0.0,-0.0,-0.0,-0.0,0.0,0.0,-0.11082721,0.11011518,-0.079050764,-0.07268058,-0.08513438,-0.15032727,-0.0,-0.0,-0.084207065,0.0,0.0,-0.2280762,0.0,0.0,0.0,0.0,-0.09721005,0.0,0.0813975,0.0,0.0,0.0,0.114863664,-0.0,0.1005168,-0.09229408,-0.0,-0.0,-0.0,-0.111672774,0.0,0.0,-0.0,-0.0,-0.0,-0.09897113,0.08399611,0.180778,-0.0,0.0,-0.08448565,0.0,-0.08856813,-0.07792802,-0.0,-0.104822665,0.07491044,-0.0,-0.0,-0.0,-0.0,0.11011127,0.11959901,0.09602059,-0.0,0.7974561,0.0,0.0,-0.08895341,0.0,0.20700313,-0.0,0.11050088,0.0,-0.09395283,-0.0,-0.14838012,0.0,-0.0,0.11454585,-0.07458949,0.0,-0.0,-0.11059479,0.0,-0.0,-0.0,0.0,0.0,0.84697026,-0.13819662,0.085478,-0.0,-0.10805428,-0.0,-0.0,0.1132754,0.0,0.0,0.0,0.085543595,0.0,-0.0,-0.0,-0.0,-0.11039241,0.10044505,0.076455496,0.07649759,0.07676673,0.0,0.10820804,-0.0,0.091643415,-0.0,0.0,0.072108544,-0.087950684,-0.09913821,-0.08826948,-0.088608846,0.08576804,-0.10257499,0.0,0.0,-0.0,0.0,-0.082900055,0.11357466,-0.05813603,0.08673286,-0.0,-0.0,-0.0,0.0,0.077583335,-0.0,0.0964177,-0.07650441,-0.09042584,0.0,0.07759588,-0.0,0.07978543,-0.110304765,0.0,0.0,0.0,-0.08976802,0.0,0.0,-0.07216755,-0.0,0.0,0.0,-0.0,0.0,-0.0,-0.0,-0.11183339,0.1128171,0.0,-0.0,0.0,0.0,0.0,0.11256232,-0.0,-0.0,0.0,-0.0,-0.0,-0.10640336,0.0,-0.0,-0.0,-0.0,0.0,0.13973954,-0.112758756,0.0,-0.088301174,-0.0,0.0,0.0,0.0,0.07275554,0.07170188,0.22715025,0.0,-0.0,0.20169923,-0.11358335,0.0,0.0,-0.0,-0.0,0.0,-0.0,-0.087260865,-0.10684392,0.0,-0.121388316,0.11139714,0.0,-0.0,-0.0,0.0,0.0,-0.0,-0.09945593,-0.0,-0.07963674,0.0,-0.0,0.10503874,0.107712395,0.0,0.0,-0.10154188,0.11401618,0.0,0.0,-0.0,-0.0,0.0,0.0,-0.27989933,-0.0,-0.0,-0.10614114,0.0,-0.0,0.0,0.08992424,0.109427154,-0.0,0.0,0.0,0.0,-0.0,-0.0,0.0,-0.0849237,0.10091346,0.0,0.0,0.0807119,0.3480577,-0.0,-0.0,0.0,0.0,0.07521575,0.0,0.10069979,-0.0,-0.099003494,0.0,-0.0,-0.25140423,0.07628555,-0.0,0.0567446,0.0,-0.10010268,-0.0,0.0,0.0,0.093848296,0.0,-0.0,0.0,-0.0,0.0,0.0,0.0,0.0,-0.5798145,-0.07649263,0.0,-0.11478723,0.0,0.0,-0.19724816,0.09744681,0.0,0.0,-0.0,-0.0,-0.10896908,0.0,0.0,-0.0,0.08832846,-0.12175885,0.0,0.08519267,-0.0,-0.0,-0.6201983,0.079458684,0.090220325,0.0,0.0,0.07318317,0.11300272,0.08835726,-0.07694508,-0.0,0.07333684,-0.0,0.0,-0.07701567,-0.0,0.0,0.087227404,0.0,0.0,0.10955522,0.0,0.10942116,0.0,0.0,-0.08978295,-0.10005023,-0.094374865,0.10136262,-0.0,-0.0,-0.0,-0.0,0.08802333,-0.0,0.0
0.0,0.0,0.0,0.0,0.36593276,-0.0,0.0,0.11769256,-0.0,-0.09134167,-0.068841346,0.0,0.0,0.31299677,0.1410551,0.0,-0.0,0.0,-0.0,0.0,-0.0,0.0,-0.0,-0.19406946,0.08470544,0.0,0.0,0.0,-0.1887428,-0.09700991,-0.0,0.0,0.28396899,-0.076115444,0.0,-0.0,-0.08405032,-0.0,-0.11644108,0.0,-0.0,0.0,-0.0,-0.0,0.09737594,-0.0,-0.0,-0.0,0.0,0.0,0.077758186,0.0,0.0,0.13933355,-0.0,0.08874486,0.0,-0.0,0.17029436,0.0,0.0,-0.0,-0.0,-0.0,-0.0,0.0,-0.10400722,-0.09389297,-0.0,0.0,0.0,0.09987415,0.0,0.0801875,0.10059252,0.0,-0.103371084,0.0,0.15331845,0.0,-0.083238855,0.0,-0.054259483,0.07042565,0.0,-0.0,0.0,0.0,0.0,0.0,-0.11542919,0.0,0.0,-0.0,-0.0,-0.0,-0.0,0.0,-0.0,-0.0,-0.0,-0.085391745,0.0,0.14431235,0.0,-0.0,-0.0,0.0,0.12793313,-0.0,0.16399482,0.0,0.0,0.0,-0.0,0.072113864,-0.0939972,-0.0,-0.0,0.4568081,0.0,0.08641603,-0.090613276,-0.1047184,-0.0,-0.0,-0.12034898,0.14344767,0.10873573,0.100884385,0.0,-0.0,-0.070011765,-0.0,0.0,0.0,-0.0,-0.0,-0.06733511,0.1628763,-0.0,0.0,-0.0,0.0,-0.0,-0.075565584,0.0,-0.0,0.0,0.0,0.0,-0.0,0.0,0.0,-0.0,0.0,-0.09721235,0.0,0.0,-0.089380145,0.10146853,0.112974025,0.091447905,0.0,-0.0,-0.0,-0.16066803,0.10854062,-0.0,0.0,-0.0,-0.0,-0.0,-0.0,-0.05564135,-0.08828723,-0.0,0.0,0.0,0.0,-0.110192336,0.12550615,0.0,-0.07452367,0.0,0.0,-0.0,0.0,0.0,0.0,0.0,-0.0,0.14578699,0.12070499,-0.0,0.0,-0.0,0.14210525,-0.08156505,-0.07597427,-0.0,-0.0,0.0,-0.0,-0.13805923,-0.0,-0.096547976,0.0,-0.0,0.08903454,-0.0,-0.0,0.0,0.081578396,0.08711042,0.0,-0.0,-0.0,-0.09758858,0.07261931,0.07116109,0.0,0.0,-0.072001114,-0.09911309,0.0,0.100333594,0.23351152,-0.094712585,0.0,0.0,-0.09705235,-0.0,-0.0,0.19355027,-0.0,-0.085845284,-0.0,-0.0,-0.0,-0.13078257,-0.0,-0.09589113,-0.0,0.08911422,0.0,0.0,0.0,0.0,-0.0,0.0,0.0,-0.0,-0.0,-0.0,0.0,0.0,0.0,0.0,-0.1050534,-0.0,0.0,0.107095085,-0.07684411,-0.0,0.13671012,-0.073521614,-0.26225564,-0.10648468,-0.0,-0.11349078,-0.0,0.0,-0.0,-0.0,0.14768219,-0.0,0.0,0.07378172,-0.0,-0.107564,-0.0,0.075908385,0.0,-0.0,0.0,0.09677602,-0.0,-0.0,-0.116292715,-0.0,0.074150145,-0.13832192,0.0,0.09904935,-0.073152214,-0.083368994,-0.0,0.0,0.1134459,0.0,-0.09079709,0.0,0.0,-0.40452537,0.12225239,0.0,0.09157888,0.0,-0.0,0.0,0.0,0.0,0.28284323,0.10027463,0.08169681,-0.09246485,-0.0,0.0,-0.0,0.0,-0.0,-0.0,0.0,0.0,-0.0,0.08057091,0.0,0.0,0.0,-0.12317554,0.0,0.0,-0.0,-0.0,-0.0,0.088910095,0.0,-0.0,-0.0,0.12329624,-0.07577987,0.0,0.0,0.06757371,-0.10797483,-0.08832141,-0.12351346,0.09066325,-0.0,0.0,-0.0,0.0,-0.088162765,-0.0,0.0,0.09866297,-0.12125428,0.17383185,0.16200557,0.0,0.0,0.0,0.069923036,0.09670227,0.0,0.17529474,-0.10458848,0.28273785,0.0,-0.06991888,-0.0,-0.0,0.16959481,-0.0,0.0,-0.0,0.0,-0.08699379,-0.0,-0.11271625,-0.0755762,-0.0,0.0,-0.0,-0.0,0.12308918,0.07499431,-0.0,-0.0,0.0,0.0,-0.0,-0.0,-0.0,0.0,0.0,-0.0,-0.0,-0.0
0.089001685,0.0,-0.116844535,-0.0,-0.0,2.3158054,-0.099897265,-0.07593312,2.2954426,-0.092934854,-0.0,2.933787,0.0,0.19173649,-0.0744068,0.0,0.07869838,0.0,0.10699433,0.27356344,0.07823909,2.4276903,-0.13871905,0.0,0.0,-0.0,-0.0,0.0,-0.10515,0.0,0.7163397,-0.057925653,-0.074964404,-0.107350335,0.0,-0.0819351,0.0,0.0,0.0,0.1126614,-8.438658,0.0,-0.0,-0.0,-0.10406912,0.0,-0.093009755,-0.0,0.0,0.06059723,-0.0,-0.092986666,0.0,0.10921513,-0.0,-0.08331762,-0.0,-0.0,0.0,0.0,0.0,0.0,-0.069611415,0.10563247,-0.0,-0.0,-0.0,-0.10682225,-0.0,0.75424874,-0.0,0.0,0.0539696,0.4944833,-0.0,0.0,0.07794725,0.0,0.0,0.0,-0.17426936,0.0,0.0,0.08613015,0.0,-0.0,0.0,-0.0,0.076116584,-0.10282045,0.0,0.11430827,0.0,1.9575748,-0.0,0.0,-0.0,-0.114374645,-1.3466797,-0.0,0.0,0.0,-0.0,-0.0,-0.0,-0.0,-0.0,-0.0,0.60601914,0.0,0.0,0.0,0.0,0.0,-0.0,0.08662937,0.0,0.0,0.0,-0.0,0.0,-0.0,-0.10846017,0.11242858,-0.20020545,-0.0,-0.14080192,0.12621884,-0.10765334,-0.0,0.0,0.0,0.0,-0.0,0.07199193,0.0,-0.0,0.0,-0.11227474,0.0,-0.0,0.0,0.0,-0.0,-0.0,0.0,0.089320056,-0.0,0.0,0.0,-0.0,-0.0,-0.0,-0.0,1.3648211,0.58634514,-0.11773441,0.192971,0.0,0.0,0.0,0.0,-0.0,0.107400775,0.107850894,-0.0,0.0985268,-0.0,-0.0,-0.08539379,-0.09570556,0.0,0.0,-0.14088304,-0.0,-0.0,-0.0,0.0,0.0,0.074264415,-0.07910008,0.0,0.0,0.1274485,0.07731273,0.0,0.14636104,0.112772115,0.08707092,0.0,0.0,-0.08706842,0.27408513,0.0,-0.0,0.080736175,0.10265321,0.0,0.09837917,0.0,0.0,-0.0,-0.0,-0.0,0.0,-0.0,-0.10474524,0.0,-0.10820981,0.093667306,-0.0,0.0,0.0,-0.0,-0.085558906,0.105972834,0.11144995,-0.0,0.0,0.0,-0.0,-0.113929905,-0.082991414,-0.10968859,0.0,-0.0,0.0,-0.18637913,0.0,0.09606724,-0.0,0.111719675,0.0,0.0,0.0,0.0,-0.07551761,0.0,0.09981812,-0.0,0.0,-2.169042,-0.0,-0.1149163,0.0,-0.0,-0.094493404,0.0,0.0,-0.0,0.0,0.10774009,0.0,-0.0,1.203816,0.0,0.0,0.0,0.25728792,-0.0,-0.0,0.0,0.074355565,0.0,0.0,0.0,0.11424806,-0.0,-0.0,-0.0,0.0,0.0,0.0,-0.16071796,-0.096392065,0.1364993,-0.09453786,0.0,0.0,0.0,-0.11496166,-0.0,-0.088389836,0.0,-0.0,0.0,-0.0,-0.0,0.10490955,-0.0,-0.0,0.0,-0.0,-0.064459786,0.0,-0.0,0.0,-0.0,-0.0,0.0,0.12562834,0.0,-0.0,0.0,1.6487678,0.18977967,0.0,0.09892345,0.0,-0.073667906,0.0,0.14111084,0.0,0.0,-0.0,0.0,-0.2654251,0.0,0.0,0.17101443,-0.30736664,-0.08806861,0.08425971,-0.0,-0.0,-0.9930946,0.118110195,-0.0,-0.0,-0.13397528,0.0,0.0,0.0,0.0,-0.0,-0.089929745,0.08644253,0.0,-0.16803718,-0.0,0.0,0.0,0.0,0.0,-0.0,0.10972419,-0.10857542,0.0,0.0,-0.063381895,0.0,-0.09371645,0.3190298,0.0,-0.0,0.14379506,0.0,0.19616604,0.12512656,0.08130626,0.0,-0.109579116,0.0,0.19436753,-0.0,2.830903,0.0,-0.09797664,0.10963205,-0.0,-0.0,-0.0576463,0.08920267,0.0,0.0,0.0,-0.0,0.0,-0.09461293,0.072921045,-0.0,-0.1114328,0.20495754,0.0,0.075722896,-0.08928716,0.11249609,0.0,-0.0,-0.24063663,0.0,0.0,0.0,0.0,-0.0,0.0,-0.07804567,-0.0,-0.0,-0.0
0.0,-0.0,0.0,-0.0,-0.0,-0.0,-0.0,0.10593341,2.0043988,-0.0,-0.0,0.0,0.14203507,0.37400225,-0.09797882,0.0,-0.0,-0.12332617,0.10576111,0.0,-0.08935819,0.6685249,0.0,0.0,0.0,0.0,-0.31833476,0.0,0.0,0.0,0.71029514,-0.0,0.25932682,0.08389415,0.0,-0.24446543,0.0,0.0,0.0,0.17881426,-3.723496,0.0,-0.1080198,-0.0,0.0,-0.11409844,-0.11122998,-0.0,0.1081158,0.0,-0.0,-0.21322592,-0.07810852,0.0,-0.0,0.0,-0.08222982,-0.10142183,0.0,0.0,0.0,0.104332276,-0.10495471,-0.0,-0.0,-0.0,-0.0,0.0996098,-0.8268263,-0.0,-0.0,0.10759931,0.0,0.13188763,-0.0851911,0.19052503,-0.0,0.0,0.18633017,-0.11392411,-0.22399117,-0.0,0.13022104,0.0,0.0,0.1033973,0.0,0.07571557,-0.0,0.08711158,0.0,-0.101807475,0.0,0.0,-0.0,-0.0,-0.0,-0.0,-0.0,0.0,0.0,0.0,-0.0,-0.0,-0.09080671,-0.0,-0.0,0.085473366,-0.0,0.0883617,0.0,0.0,0.0,0.0,-0.49443492,-0.0,-0.103115626,0.0,-0.0,0.0,0.0,0.16048102,-0.0,0.07783166,0.0,-0.0,0.06216885,0.0,0.09569378,0.0715993,0.0,-5.839746,0.0,-0.0,0.0,0.0,-0.0,0.0,0.0,0.0,-0.0,-0.109565265,-0.0,-0.0,0.0,-0.0,-0.0,-0.0,-0.0,0.0,-0.0,-0.0,-0.16972867,-0.0,0.7692718,0.0,-0.0,0.11882525,0.0,0.0,0.10283744,0.0,-0.0,0.0,-0.0,-0.0,-0.074450605,-0.0,-0.0,-0.11040453,0.0,-0.0,0.119096324,0.0,-0.0,0.0,-0.0,0.0,0.0,0.0,-0.0,0.08024893,0.1051669,0.0,0.0,0.0,-0.0,-0.0,-0.0,-0.0886778,0.0,-0.106935054,0.0,0.0,0.0,0.08637856,-0.10020382,0.21709901,0.0,0.0,0.106090255,0.0,0.0,-0.0,-0.21491829,-0.0,0.0,-0.090676114,-0.0,-0.0,0.0,0.07926133,0.0,0.0,0.0,0.0,-0.0,-0.0,0.086697936,0.0,0.0,-0.08250627,0.0,-0.0,0.0,-0.0,0.0,-0.0,0.08038186,0.0,0.0,-0.09290196,-0.0,0.0,0.0,-0.0,-0.075088985,-0.0,0.0,-0.0,0.09109758,-1.6609497,-0.0,-0.0,0.0,0.11216945,-0.0,-0.11427471,-0.0,0.07976379,0.0,0.10551694,-0.0,-0.0,3.1927307,-0.3017299,0.0,-0.10433625,0.0,-0.08390339,-0.0,-0.0,-0.07288439,0.20027006,0.0,0.14599966,0.0,-0.41700292,-0.13006844,-0.0,0.08653782,-0.0,0.0,-0.0,-0.0,-0.0,0.0,0.0,0.0,0.0,0.0,0.102028996,-0.0,0.0,-0.0,0.0,-0.0,-0.0,0.0,0.0,0.11001554,-0.110923536,-0.0,-0.0,0.10786719,0.0,0.0,-0.0,-0.09748064,-0.0,0.12502052,0.060239438,0.0,0.0,0.0,0.09692088,0.0,-0.0,-0.0,0.0,0.0,0.2589716,0.0,0.0,-0.0,0.0,0.0,0.0,-0.07153534,-0.0,0.0,-0.07589225,-0.0,0.17671785,0.100316815,-0.3674069,0.09813528,-3.3182921,0.0,0.0,0.0,0.0,0.12103377,-0.0,0.10672437,0.0,-0.0,0.0,-0.07830699,0.11187906,0.0,0.0,0.0,0.0,0.10314962,0.11201235,0.0,-0.09194626,0.08334731,0.2014425,-0.076159075,0.0,0.0,-0.110521056,-0.0,0.0,0.0,-0.0,0.0,0.24680096,0.0,-0.0,0.0,0.0,-0.0,2.7655005,0.0,-0.0,-0.0,-0.0,0.0,-0.0,0.0,0.0,0.0,-0.30872717,-0.0,0.0,0.08748838,0.073637076,-0.09521743,-0.0,-0.0,0.0,-0.0,-0.112648346,0.09041932,0.12960583,-0.11012656,-0.3445362,0.0,-0.26282147,-0.0,4.1714463,-0.0,0.0,-0.07553965,-0.0,-0.0,-0.10611566
0.077805296,-0.0,0.0,0.22679065,-0.0,-0.0,0.0,-0.0,-0.0,0.0,-0.0,13.741407,0.0,-0.0,0.090661004,-0.07298231,0.085292555,0.0,0.0746386,0.0,-0.0,1.7894367,0.0,0.0,0.07727231,-0.0,-0.0,0.0,0.07811329,0.09866025,-0.0,-0.0,0.0,0.0,0.11107913,0.0,0.0,0.17509928,-0.0,0.0,0.0,0.0,0.0,-0.0,0.0,0.0,-0.08665563,-0.0,0.0,0.0,-0.0,0.0,-0.0,-0.07746713,-0.0,-0.0,0.103212364,0.0,0.30746812,-0.0,0.0,0.09521081,-0.0,-0.0,-0.0,-0.0,-0.0,-0.09800607,-0.0,0.0,-0.0,0.0,-0.0,0.1428987,-0.11006787,0.0,-0.0,0.08095111,0.1555413,0.0,-0.082275055,-0.0,0.0,0.07304468,-0.12607819,-0.05694483,-0.11851154,0.0,0.09703138,-0.07154481,0.0,0.11419491,0.0,-1.837448,0.0,0.0,0.0,-0.0,1.793674,0.0,0.0,-0.10158203,0.0,-0.09218537,0.106509104,-0.0,-1.9031514,0.09404389,-0.0,-0.09130068,0.0,0.0,0.0,-0.19890441,0.0,-0.0,0.09973783,0.0,-0.0,0.0,-0.0,0.18153532,0.10714003,0.0,0.0,0.0,-0.0,0.11866826,-0.106644765,-0.0,0.0,5.0109725,0.0,0.0,0.0,0.0,0.11342492,0.0,-0.06056192,0.09846514,0.0,0.0,0.0,-0.0,0.0,-0.09700629,-0.08686434,-0.0,-0.08302225,0.0,-0.072540164,-0.0,-0.0,-0.0,-0.0,0.0,0.052591663,-0.083095044,0.0,0.11078703,0.0,-0.06212254,-0.0,0.0,-0.08919793,-0.059026137,0.0,0.0,-0.0,-0.1051879,0.098951675,0.1340639,0.0,-0.0,-0.0,0.0,-0.0,-0.0,0.0,0.0,-0.0,-0.0,-0.095516875,0.0,0.09766735,0.10524714,0.09692811,0.11383828,0.091486745,0.0,-0.06366864,0.10597966,0.0,0.0,0.0,-0.0,0.0,0.124006264,0.0,0.0,0.0,-0.0,0.10693148,0.122151345,-0.0,-0.0,0.0,0.07613083,-0.0,-0.0,-0.1125665,-0.100061856,-0.06453068,-0.0,0.14433138,0.0,0.0,-0.0,-0.110987924,0.0,0.0,-0.0,-0.10091332,0.07043431,-0.11230256,-0.0,-0.16968642,-0.0,0.0,-0.0,-0.0,0.08160483,-0.0,-0.0,0.0,-0.0,-0.09955418,-0.0,-0.0,-0.0,-0.0,-0.0,0.0,-0.0,-0.109007984,0.0,0.080642514,-0.09453574,-0.0,-0.0,-0.11275925,0.0,-0.08900498,-0.0,-1.2906963,0.0,0.0,0.0,0.0,0.0,0.15301654,-0.0,-0.098576345,-0.0,-0.09373617,-0.0,0.0,0.0,-0.0,-0.0,0.077898376,-0.11430288,0.0,-0.0,0.0,0.12226002,-0.0,0.0,-0.0,0.0,-0.10006194,0.0,-0.084819935,0.10160189,-0.0,0.0,0.0,-0.0,-0.0,-0.0,-0.07143852,0.09313154,-0.0,-0.0,-0.0,0.0,0.0,-0.0,0.0,-0.0,0.0,0.07521502,0.0,-0.08779203,2.5856168,0.13796605,-0.10288819,0.0,-0.0,0.09599054,0.26819426,0.28375286,0.0,0.8746336,-0.0,0.0,0.0,0.0,0.0,-0.0,0.0,-0.0930683,0.0,0.14598589,0.0,-0.0,-0.0,0.0,0.0,0.0,0.0,0.1439422,-0.0,-0.0,-0.078062706,-0.09027685,0.122632,-0.0,0.0,-0.0,-0.08892081,0.14977647,0.07926615,0.0,0.069908395,0.0,0.07406258,0.0,0.0,-0.23184021,-0.10729309,-0.096346736,0.0,0.079443246,-0.0,0.0,0.0,0.0,0.109667026,-0.07828089,0.0,0.0,0.0,-0.0,0.09549885,0.0,0.0,-0.0,0.0,-0.0,0.0,-0.0,0.10031384,0.13040037,0.0,-0.0,-0.10196306,0.0,0.07583185,-0.07877278,-0.0,-0.0,-0.0,0.0,0.12422971,0.0,0.0,0.0,0.0,0.08534223,-0.06087991,-0.21575314,-0.0,-1.9616513,0.100274675,-0.0,-0.07491633,-0.0,-0.0,-0.09699558
0.0,-0.0,-0.12845872,-0.0,-0.0,-0.0,0.0,-0.0,1.8497963,-0.08185465,0.1153123,3.6305938,0.0,-0.0,0.07047019,0.0,-0.0,0.0,0.112964995,0.0,-0.0,0.0,-0.09229038,0.0,0.0,-0.0,0.087584324,0.0,0.0,0.0,0.6367377,-0.0,0.0,-0.0,0.0,-0.250535,0.0,0.0,-0.27330783,0.1323836,0.0,0.0,0.09086742,-0.0,0.0,-0.13837339,-0.079744086,0.08657237,0.0,0.0,-0.10275698,0.0,-0.07683988,0.0,-0.0,-0.0,0.0,0.0,0.0,-0.93648237,0.0,0.0784711,-0.0,-0.0,-0.0,-0.0,-0.0,-0.0,-0.0,-0.0,-0.0,0.1159358,0.0,0.15665884,0.0,0.15135664,0.081639685,0.0,0.0,0.0,-0.22753361,0.07996523,0.12805887,0.08652859,0.0,-0.0,0.0,0.0,0.09119884,-0.07419154,0.08703842,0.0,0.0,3.4318724,0.0,-0.09583465,-0.0,0.11935831,-0.0,-0.099681325,-0.10794043,0.0,0.1890873,-0.0,-0.10304596,-0.0,-0.0,0.0,-0.0,0.107475914,0.0,0.20027222,0.0,0.0,-0.32717666,-0.0,0.104680665,-0.063321024,-0.0,0.0,-0.0,0.13781929,-0.0,0.0,-0.2021442,0.094453245,-0.0,0.0,-0.0,-0.09181339,0.0,-4.4699564,0.0,0.0,0.0,0.0,-0.09392615,0.055327334,0.06309516,0.0,-0.0,0.0,0.0,-0.0,0.0,0.07363836,0.0,-0.0,0.0,0.0,-0.0,-0.0,0.051872496,-0.0,0.3413857,0.0,-0.0,0.2073773,0.0,0.0,0.0,0.0,-0.0,0.15711737,-0.0,-0.0,0.0,0.13593107,-0.0,-0.0,0.0,0.0,-0.064503044,0.0,-0.0,0.0,0.0,0.0,0.15207087,0.0,-0.11872797,0.1508969,0.0,0.0,0.0,-0.13423987,0.11022044,0.0,-0.0,-0.07551757,0.0,-0.0,0.16654369,0.0,0.0,0.0,-0.07095515,0.0,-0.12989473,0.088242225,-0.0,-0.0,-0.0,-0.0,-0.0,-0.0,0.0,0.0,0.0,0.0,0.0,-0.10667599,0.0,-0.0,0.0,-0.07884678,-0.0,-0.0,0.0,0.0,0.0,-0.0,-0.0,0.0,-0.11219138,0.0,-0.056918893,-0.0,0.0,-0.10462783,-0.0,-0.0,-0.0,-0.11137303,0.0,0.105928354,0.112825744,-0.0,0.0,-0.0,0.0,-0.0,-0.0758902,-0.0,-0.10009428,0.0,0.09786589,0.073280044,-0.0,-0.0,0.0,-0.0,-0.0,-0.0,0.8635319,0.0,0.0,0.0,0.0,-0.21768703,-0.0,-0.0,-0.09693821,-0.08005804,0.10101681,-0.0,-0.0,-0.24035181,-0.0,-0.0,-0.09936112,-0.0,0.0,-0.0,0.0,-0.0,0.0,0.0,0.15297079,0.0,-0.0,0.0,-0.0,0.0,0.10331225,0.0,-0.0,-0.0,0.0,0.0,-0.0,-0.079027645,-0.0,0.10045067,-0.09108466,0.0,-0.112396464,-0.0,-0.0,-0.1267363,0.0,0.0,0.15425012,0.13156885,0.0,0.13116306,0.0,-0.0,0.088681735,0.0,0.0,0.0,0.0,-1.5521593,-0.0,0.0,-0.18333681,0.0,0.0,-0.0,0.0,-0.0,-0.0,0.16616249,0.1349662,-0.0,0.11718697,-3.063494,0.0,0.060202003,0.0,0.0,-0.0,-0.0,0.10391537,-0.10044136,-0.0,-0.50042856,-0.0,0.1522261,0.0,0.0,0.0,0.0,-0.0,0.0,0.0,-0.19494605,-0.09127256,0.18203656,0.0,-0.0,0.30215353,0.0,-0.0,0.053135227,0.0,-0.1531799,0.22270326,0.18314025,0.0,-0.0,0.0,0.0,-0.0,0.0,-0.067924775,-0.0,-0.0,-0.0,0.12652887,-0.0,-0.0,0.0,0.0,0.0,-0.0,0.0,-0.120320976,0.0,-0.0,0.12622797,-0.0,-0.1060333,-0.0,-0.10916041,0.0,0.13154861,0.0,-0.41869223,0.0,-0.08008515,-0.0,3.6521041,-0.0,0.0,-0.0,-0.0,-0.0,-0.0
0.07738732,-0.0,0.0,-0.34070283,-0.0,1.3070973,0.0,-0.0,-0.0,-0.18502179,-0.0,16.071224,0.13774702,-0.0,-0.0,-0.09892343,0.08414769,0.0,-0.0,0.12564135,-0.0,0.0,0.0,0.0,0.0,-0.099449396,-0.0,0.0,0.10263761,-0.09934029,0.4613976,0.0,0.0,-0.0,-0.0,-0.1980609,0.11574462,-0.0,-0.0,0.18411689,1.7291625,0.0,0.07946097,-0.0,0.10202315,0.10500432,-0.0,-0.07091436,0.0,0.0,0.07517417,0.0,-0.0,0.0,-0.084073365,-0.0,0.0,-0.0,0.0,-0.0,0.092712276,0.0,0.092935964,-0.10278544,-0.0,0.09512312,0.10893979,0.0,-0.31416148,0.0,-0.0,0.12485663,0.053780746,0.0,-0.0,0.0,-0.115614526,0.0,0.0,0.0,0.10116089,-0.0,0.0,0.08608834,-0.0,-0.058995582,0.0,-0.08940911,-0.07332279,-0.13454863,0.0,-0.09355466,0.0,-0.0,0.09844323,-0.0,-0.0,0.0,1.4745561,-0.10324172,-0.09024557,0.0,-0.0,-0.0,-0.0,0.11753827,0.0,0.0,-0.1314993,0.0,0.0,0.0,0.0,-0.0920973,-1.8322114,-0.09273784,0.0,-0.072449505,0.0,0.35943398,0.075003184,0.0,0.0,0.0,0.0,-0.09680396,-0.0964937,0.0,0.09890521,0.0,0.0,5.2621174,0.0,0.121375464,0.0,-0.0,0.0,0.09440001,0.0,0.088493176,0.0,-0.06485051,0.11375447,-0.0,0.0,-0.0,0.11355702,0.09081698,0.0,0.0,-0.0,-0.0,-0.0,-0.0,0.6282509,0.0,-0.098815165,-0.06996577,0.15287456,0.0,0.0,0.0,-0.0,-0.07589515,-0.09003799,-0.0,0.0,-0.0,-0.0,-0.0,-0.0,-0.0,0.0,-0.0,-0.0,0.0,0.100742854,-0.0,0.0,0.0,-0.0828159,0.0,0.0,-0.0,-0.0,0.0,0.0,-0.0,-0.090202846,-0.0,-0.0,-0.0,0.0,0.0,-0.0,-0.0,0.10434552,0.19955018,0.0,0.09855018,0.07048912,-0.0,0.0,-0.0,0.0,-0.0,-0.089234434,0.062477555,-0.0,-0.12311514,0.0,0.08525031,0.0,0.0,0.0,-0.09002056,0.103998534,0.080484666,0.0,0.05987475,0.05380566,-0.0,0.0,0.107782565,0.0,0.11673626,-0.0,-0.078937165,-0.113934025,-0.0,-0.083538085,-0.0,0.0,0.09587049,0.0,-0.0,-0.0,0.0,-0.0,-0.25996336,-0.098103136,-0.0,0.07390494,-0.0,0.100312985,-0.0,0.08912241,-0.0,0.0,-0.0,0.0,0.0,-0.07708097,-0.0,-0.0,0.0,-0.40950403,0.0,0.0,0.0,-0.0,0.10101882,-0.0,0.06964902,-0.0,0.0,-0.105931714,0.0,0.0,-0.1455088,0.0,-0.09652919,0.0,-0.0,-0.0,-0.0,0.08503709,0.0,0.0,0.0,-0.0,0.09808553,0.0,0.0,0.0,-0.06929115,0.0,-0.0,0.0,-0.11187631,-0.0,0.0,-0.0,0.0,0.11393226,0.0,0.0,-0.18058376,-0.073532544,-0.0937118,0.0,0.0,0.28634948,-0.0,8.458946,0.0,0.0,0.0,-0.0,0.0,0.07180874,0.34120142,0.0,0.0,-0.0,0.0,-0.11280444,0.0,0.0,-0.0,0.0,0.0,0.0,0.0,0.08433428,-0.0,0.105351664,0.0,0.0,0.0,0.0,-0.0,0.0,-0.0,-0.0,-0.0,-0.0,0.075282976,0.0,0.078280255,-0.0,0.0,0.083848506,1.07044,-0.0,0.0,0.0,0.0,0.0,0.0,0.081777975,-0.0,0.5143896,-0.10707784,-0.0,0.0,-0.0,-0.0,0.10145866,-0.0,-0.07139044,0.0,0.0,-0.0,-0.0,2.6751032,-0.10889997,-0.081045926,0.0,-0.12156971,-0.077651344,0.0,0.0,0.0,0.0,-0.0,-0.0,0.0,0.0,0.0,-0.0,0.0,0.0,0.0,0.12454001,-0.083601914,0.0,0.0,0.09468204,0.0,0.0,-0.12845151,0.0,0.0,-0.0,-0.098142,0.0,-0.0,0.0,-0.12099107
-0.0,-0.0,-0.0,-0.0,-0.0,-0.0,-0.11022795,-0.0,0.0,-0.18109015,-0.0,-0.0,-0.0,-0.0,0.10922515,0.0,-0.0,0.082187384,0.0,0.0,0.0,0.0,-0.13151827,0.0,0.0,0.0,-0.0,-0.07070038,0.0,0.079423554,-0.0,0.6623842,0.25317514,-0.0,0.0,-0.23037815,-0.11026294,0.10819272,-0.0,0.0,0.20678113,0.0,0.0,-0.0,0.0,0.0,-0.0,-0.113638,-0.090033926,0.10797412,-0.098247595,0.0,0.0,0.0,-0.0,0.0,0.0,-0.122747235,0.0,-0.0,0.11636849,0.096176185,-0.0,0.08916005,-0.0,-0.05640173,-0.0,0.0,-0.0,0.0,-0.0,-0.07727825,0.09004277,0.12400467,0.0,0.12365506,-0.0,-0.0,0.0,0.0,0.0,0.0,0.0,-0.07920772,-0.0,0.10445993,-0.0,0.10801123,-0.0,-0.0,-0.0,-0.09221092,0.0,0.0,-0.0,0.0,0.0,-0.0,0.80187935,0.0,0.0,0.09778456,-0.0,-0.07951141,0.09706855,-0.0,-0.49720895,-0.07439112,-0.0,-0.0,0.0,0.0,0.16661827,-0.28150514,0.0,0.10387658,0.0,0.08844213,0.0,0.0,-0.09318953,0.0,-0.0,0.0,-0.0,0.09183047,-0.074314244,0.0,-0.088795125,-0.0,0.0,-0.19295332,-0.09187354,0.0,0.0,0.1997669,-0.109758146,-0.11318498,0.050234783,0.13158332,-0.0,-0.0,-0.0,0.19178466,0.0,0.0,0.0,-0.0,0.11057947,0.14167935,-0.0,-0.0,-0.0,-0.0,0.0,0.0,-0.0,0.0,0.0,0.0,0.0,-0.07488783,-0.0,0.0,0.093884885,0.0,0.0,0.11011495,-0.0,-0.11356298,0.08655021,0.0,0.09896,-0.0,-0.0,0.0,-0.0,0.0,-0.09463688,-0.0,0.0,-0.0,0.110434376,0.071472436,0.0,-0.10369346,0.0,-0.10079544,-0.0,-0.11185692,-0.05470259,-0.0,0.0,0.0,0.105728276,-0.0,-0.09012471,0.1365352,0.0,-0.08719943,0.0,-0.0,-0.0,-0.0,-0.25198534,-0.15393744,-0.12363173,0.0,0.0,-0.0,0.060439926,-0.0,0.0,-0.0,0.0,-0.1141813,-0.0,-0.0,0.0,0.11191448,0.0,0.07424809,0.101133086,-0.0,-0.0,0.11452768,-0.0,-0.0,0.062257126,0.07892633,0.10593232,0.0,-0.0,-0.0,0.0,0.0,0.07397155,0.0,0.11478845,-0.0,-0.10171705,-0.0,0.0,-0.0,0.0,0.08280874,0.0,0.09055693,-0.082652085,0.0,0.0,-0.07445329,-0.0,-0.21404646,-0.29254392,-0.10598626,-0.0,0.0,0.13319832,0.07284846,-0.0,0.079613335,0.0,-0.0,0.08574424,-0.0,0.07138785,0.078205794,-0.14502017,-0.23107734,-0.0,-0.0,0.0,-0.0,-0.0,-0.0,0.0,0.0,0.112126924,0.0,0.0,0.0,0.0,0.0,0.0,0.0,-0.093463466,-0.10979118,-0.09220396,0.0,-0.0,0.08706816,-0.2935642,-0.0,0.10440465,0.07945167,-0.08704192,-0.0,-0.0,-0.0,0.0,0.0,0.18638723,0.108300574,0.0,0.13372953,0.0,0.11249003,0.0,-0.0,0.26439294,0.0,0.0,0.0,-0.0,-0.0,0.0,-0.060469825,-0.12394174,-0.0,0.0,-0.0,-0.07481085,0.0,-0.07318044,-0.0,-0.0,-0.0,-0.15288405,0.0,-0.06190243,0.1302167,0.08779745,-0.21605372,-0.0796348,0.0,0.10331519,-0.0,0.10330291,-0.0,0.0,0.0,0.07697607,0.0,-0.08109444,0.0,0.09546802,0.090647735,0.0,-0.2546602,0.0,0.080459945,0.08744523,0.0,-0.100844264,0.0,-0.0,0.0,-0.09083487,0.12317638,0.0,-0.0,0.0,0.08665226,-0.071952134,0.0,0.0,-0.0,0.0,-0.0,-0.06760392,0.09068717,0.0,0.0,0.0,0.0,-0.0,-0.07917749,0.084958605,0.091692396,0.08294632,-0.08271872,-0.0,0.0,0.107680164,0.07283505,0.0,0.08011582,-0.14292502,-0.0,0.07119481,-0.0,-0.109661706,-0.0894692,-0.0,0.0,0.0995683,-0.0,-0.0,0.0
-0.0,-0.0,-0.0,-0.0,-0.0,0.5064166,0.113319024,0.051245447,0.0,0.0,0.0,0.265027,0.09679362,0.17220213,0.0,0.0,-0.0,0.08651399,0.10508753,-0.0,0.10326206,0.0,0.10077254,-0.1775145,-0.08087588,0.0,0.0,-0.10648488,0.0,-0.07612532,-0.0,0.0,0.0,0.11076135,0.0,-0.0,0.096524164,-0.0,-0.25473726,-0.09123276,0.0,0.0,0.0,-0.0,-0.07789549,0.0,-0.0,-0.0,0.0,-0.0,0.0,0.0,-0.0,-0.076497406,-0.050822567,-0.112722926,0.099308036,0.0,0.0,-0.19488329,0.08347015,-0.0,-0.0,0.0,-0.0,0.0,0.0,0.0,-0.0,-0.0,0.0,0.070140205,-0.0,0.14080158,0.0,0.0,0.096786775,0.0,0.0,-0.0993552,-0.086756945,-0.0,-0.08032426,-0.0,-0.098823495,0.0,0.0,0.0,0.0,-0.0,-0.15887564,0.07559005,-0.0,0.0,0.0,0.0,-0.101536445,0.0,0.08759474,0.0,-0.09184189,0.10772931,-0.0,0.0,-0.08855278,0.0,0.0,0.0,-0.0,-0.0,0.14516376,-0.05577978,0.08799463,0.0,0.0,-0.0,-0.0,-0.0,0.08589517,0.16025412,0.07254393,-0.0,0.0,0.0,-0.0,-0.08550066,0.0,-0.0,-0.0,-0.0,0.0,0.081488825,-0.09443067,0.0,-0.0,0.0,-0.103701875,0.07961882,0.0,0.0890645,0.0,0.0,-0.0,0.0,0.0,0.08917364,-0.0,0.10666091,0.0,0.0,-0.08643393,-0.0,0.0,0.0,0.6580686,0.0,-0.0,-0.0,0.0,0.09819393,0.18690243,0.0,-0.12148165,0.0,-0.08378184,-0.0,0.0,0.0,-0.0,0.07452447,-0.0,-0.0,-0.0,0.14306788,-0.0,0.0,-0.11121397,0.0,0.0,0.0,0.0916596,0.13926797,-0.0,-0.093460016,-0.0,0.0,-0.08990196,0.0,0.09026998,0.0,-0.096109875,0.0,0.0,0.14171976,0.09262798,-0.0,-0.0,0.0,-0.08662213,0.112675786,-0.09587354,-0.067846134,0.100905664,-0.0,-0.0,-0.0,0.0748503,0.07845812,-0.0,-0.0,0.0,0.0,0.0,0.0,-0.0,0.0,-0.0,-0.08298353,-0.0,0.0,-0.078123316,0.103255026,0.0,-0.0,-0.0,0.0863216,0.14771996,0.0,0.0,0.0,0.0,0.0,-0.0,-0.0,0.0,0.0,0.0,-0.10898565,0.0,-0.0,-0.0,-0.4782523,0.0,-0.0,0.0,-0.07457381,-0.0,-0.0,0.08377891,0.0,0.07349279,-0.0,-0.0,-0.0,0.0,0.0,0.0,0.085579425,0.0,-0.100916356,0.0,-0.10411953,-0.074854106,-0.0,0.0,0.0,0.098614804,-0.12170377,0.0,0.23669937,0.0,-0.108962886,-0.10359762,-0.0,-0.0,0.14363426,0.0,-0.052355405,-0.07716913,-0.0,0.0,-0.0,-0.0,0.11221417,-0.0,0.0,-0.0,-0.106693335,-0.0,-0.0,-0.0,0.08993588,-0.0,0.0,0.07744446,-0.09452149,-0.09619725,-0.15292287,0.0,-0.071985096,-0.08261532,0.2146014,0.0,0.0,-0.0,0.0,0.0,0.1041295,-0.0,0.0,0.051915277,0.0,0.12343967,0.0,0.0,0.070238896,-0.06990657,0.07875156,0.0,-0.0,-0.14554653,-0.09086733,-0.0,-0.0,0.0770821,0.0,0.12020773,-0.0,0.0,0.11191674,0.10214751,0.0,0.13889055,-0.0,0.14651951,-0.0,0.0,0.0,0.0,-0.0,0.094900064,0.17985696,-0.08441214,0.0,0.0,0.10043564,0.08904234,-0.0,-0.096508466,-0.09915351,0.08269685,0.0,0.0,0.07937649,-0.084780775,0.09578011,-0.0,0.07039901,-0.0,0.11777466,0.09217367,0.0,0.076407924,0.0,-0.0,0.0,-0.13006315,0.0,0.0,0.113320105,0.0,-0.0,-0.0,0.0,-0.0,0.0,0.1102634,0.0,0.0,-0.0,-0.06998983,0.11547727,0.0,0.0,-0.0,0.08544775,0.123022534,-0.0,-0.0,0.093292035,0.16125613,-0.0,0.0,-0.0,-0.0,-0.0,-0.1035362,0.08882665,0.0,-0.09372629
-0.0,-0.0,0.0,-0.0,-0.0,-0.0,-0.08323369,-0.11256219,0.0,-0.1115149,-0.0,0.14460357,0.13228619,0.12012707,-0.0,-0.1130643,-0.09299895,-0.07014834,0.0,0.0,0.0,-0.4756672,-0.0,-0.0,-0.0,-0.0,0.0,0.082623474,0.0,-0.0,-0.0,0.0,0.0,0.0,0.0,-0.0,0.0,-0.0,-0.0,-0.07696375,0.0,0.0,-0.0,-0.0,0.0,0.0,0.0,-0.08677185,-0.097710535,-0.0,0.091688134,-0.1419148,-0.073869124,-0.07084219,-0.0,0.0,0.0,0.0,0.0,-0.0,0.11847499,-0.11254342,-0.0,0.12274216,-0.0,0.0,0.0,-0.095677145,-0.0,-0.0,-0.15545575,-0.0,-0.0,0.0,-0.0,0.0,-0.0,-0.0,-0.08401315,0.0,-0.0,-0.0,-0.0,-0.08404363,-0.10087761,-0.09821054,0.0,0.0,-0.08152829,0.0,0.0,0.07957549,-0.0,0.0,-0.08892129,-0.0,0.08260479,0.0,0.09677632,0.0,0.087922014,-0.0,-0.0,-0.0,-0.0,0.24331063,0.0,0.096288554,-0.14250009,-0.08504514,0.14719886,0.12764919,0.19677365,-0.0,0.0,0.072310425,-0.0,0.0,0.0,-0.0,0.0,-0.0,-0.0,0.0,0.0,0.0,0.0,0.0,-0.0,0.0,0.0,0.0,-0.0,0.10778165,-0.10199133,0.0,0.0,0.085663624,0.100545585,-0.0,0.13547124,-0.0,0.09102807,0.0,-0.09696953,0.0,-0.0,-0.11074863,-0.0,0.0,-0.10754545,-0.0,0.0,-0.0,0.0,0.0,-0.15238535,0.089452915,0.0,-0.0,-0.057135385,0.116836116,0.0,-0.09437894,-0.0,-0.0,0.079213224,0.08956773,-0.0,-0.0,-0.0,-0.0,-0.0,-0.0,0.0,0.0,-0.0,-0.19662702,0.073081225,-0.08789573,-0.08015028,0.14659488,0.07649789,-0.07685896,0.0,0.0,0.098379545,0.07819415,0.08158539,-0.0,-0.0,0.0,0.0,0.0,-0.0,-0.10171898,0.08840739,0.0,-0.0,0.08774224,0.090606205,-0.0,-0.0,-0.0,-0.0,-0.0,-0.0,0.0,0.0,0.0,-0.0,0.09194747,0.0,-0.08733189,-0.0,0.07495139,0.0,-0.0837083,0.0867847,0.16668276,0.0,0.0,-0.0,0.0,-0.11886368,0.080547675,0.0,-0.089279704,0.0,-0.09140602,-0.07243131,0.08216194,-0.0,-0.11393659,0.0,-0.0,0.0,-0.0,0.0,-0.0,0.0,-0.0,0.0,-0.0,-0.11158629,-0.0,0.0,-0.0,-0.0,0.0,0.0,0.0,-0.0,-0.0,0.0,0.0,0.0,-0.08153044,0.0,0.0,0.0,0.0,0.0,-0.0,-0.07358721,0.0,0.077020384,-0.11910063,-0.0,-0.0,0.12677634,-0.0,-0.0,-0.0,-0.0,0.14563563,0.11282068,0.0,-0.0,0.0,0.0,0.0,0.0,-0.0,0.0,0.0,-0.08765318,0.0,-0.0,-0.11118748,-0.0,0.0,-0.06953332,0.0,-0.11559796,0.0,0.0,-0.0,-0.11673241,-0.109993435,0.0,-0.0,0.0,-0.077861294,0.0,0.0,0.0,0.082611956,-0.0,0.10874178,0.0,0.0,0.116708405,0.0,0.0,-0.0,-0.11050842,-0.11310177,0.0,-0.0,0.0,-0.0,-0.09124836,0.0,0.0,0.0,0.1271808,-0.0,0.0,0.09366859,0.0,-0.0,0.092630975,-0.0,-0.0,0.1069847,-0.0978013,0.0,-0.0,-0.0,-0.08216178,0.0,0.0,-0.5296164,0.0,0.0,-0.098373145,-0.0,0.0,0.0,0.0,0.0,-0.05664407,-0.09693325,-0.0,0.0,0.0,-0.14860244,-0.0,-0.0,-0.16329454,-0.0,0.0,-0.11032224,0.0,0.0,0.07904211,-0.080130376,0.2413221,0.14886667,0.0,-0.0,0.0,0.0,-0.0,0.0,-0.07701771,0.0,0.082389764,-0.07869716,-0.0,0.12661262,-0.10674415,0.0,-0.0,0.0,0.0,0.0975299,0.085129686,-0.0,-0.06249892,-0.12770486,0.2736016,-0.0,0.0,-0.0,-0.0,0.098519914,0.0,0.088779114
-0.0,-0.12808217,-0.10908214,-0.13332064,-0.0,-0.0,-0.08841587,-0.092432685,0.0,-0.08935965,0.09938759,0.22589907,0.11573765,0.0,0.0,0.0,-0.0,0.0,-0.0,0.0,-0.07176712,0.0,-0.086328976,-0.0,-0.0,0.08380856,0.0,0.0862597,0.0,0.072529785,-0.0,0.0,0.0,0.10763042,0.0,-0.0,0.070315234,-0.0,0.09861302,0.17137747,0.0,0.1368416,-0.0,-0.0,0.0,-0.110275686,-0.0,-0.084695995,0.0,-0.0,0.08658885,-0.17435686,-0.0,0.089405544,-0.0,0.0,0.0,0.0,0.0,-0.23980416,0.0,0.0,-0.0,0.0,-0.0,-0.088372834,0.0,-0.11022845,-0.0,-0.0,0.06883006,0.0,-0.0,0.12680724,0.07289789,0.0,-0.0,-0.0,0.0,-0.10768232,-0.13329381,0.0,0.073641315,-0.0,0.0,0.0,-0.13241993,0.09396278,0.095048346,-0.0,0.0,0.0,0.0,0.0,0.097047605,-0.0,0.0,0.0,-0.0,0.0,-0.0,0.07443721,0.11183541,0.08303692,0.09205008,0.25345862,0.0,0.0,-0.14560524,-0.0,-0.0,0.0,0.20176706,-0.0,0.0,0.08209608,-0.080302715,0.114850484,0.104288094,-0.0,-0.10511183,-0.0,-0.0,0.0,0.0,-0.07066653,0.0,0.0,0.13218608,-0.08522194,0.0,-0.112875395,0.0,0.0,-0.0,0.0,-0.11507703,0.0,0.0,-0.0,0.15067649,-0.0,-0.0,-0.0,-0.087785624,-0.0,-0.0,0.09862902,-0.0,0.0,0.07154537,-0.089415595,0.0,0.0,0.0,-0.110086255,-0.0,-0.0,0.0,0.09437219,0.09160865,0.0,0.07561451,0.13686219,-0.0,0.0,-0.07141896,0.0,-0.0,-0.09044031,-0.0,-0.07392233,-0.0,-0.0,-0.14459936,0.0,-0.09263917,-0.0,0.0,0.09863632,-0.0,-0.0,0.114279784,-0.10961701,-0.0,0.0,0.0,0.0,-0.09257655,-0.0,-0.0,-0.0702286,0.18071346,0.0,-0.0,0.07839305,0.096084885,0.0,0.09576734,0.0,-0.0,-0.0,-0.10344649,0.0,0.0,-0.0,-0.07890031,-0.099115476,0.0,0.0,-0.11215715,0.07763573,0.0,-0.0,0.07160321,-0.0,0.08250133,0.08916416,-0.0,0.22086525,-0.094300665,0.074832164,0.11148935,-0.083620906,0.0,0.09477725,-0.10850387,-0.0,0.0,0.0,-0.0,0.075652175,-0.0,-0.0,0.0,-0.0,-0.11490346,-0.0,0.108161785,-0.0,-0.0,-0.0,-0.11174016,0.0,-0.10743887,0.0,0.0,0.07086792,-0.09530717,0.0,0.0,0.0,-0.09050003,-0.0,-0.3015023,0.0,0.0,0.10864078,0.10061053,0.09126764,-0.0,-0.09621918,-0.11060548,-0.0,-0.0,-0.0,-0.11492617,-0.0,0.109143294,0.15586863,0.11423512,-0.0,0.0,-0.0,0.08420685,-0.0,0.0,0.0,-0.0,0.0,0.0,0.0,0.0,-0.0,-0.08485781,0.0,0.0,-0.0,0.07326547,-0.0,0.092678614,-0.0,-0.25417727,0.0,0.0,0.0,0.0716063,-0.12211224,-0.1291922,0.0,0.0,-0.0,0.0,0.11146403,0.0,0.0,0.0,0.0,-0.084558904,0.0,0.0,0.28071353,-0.0,0.0,-0.10162381,-0.0714276,0.0,0.0,-0.12492643,0.22696066,0.06781602,-0.08436058,0.0,0.0,-0.0,0.0,0.0,-0.0,-0.0,-0.08493412,0.0,-0.0,0.0,0.0,-0.0,0.0,0.113206044,0.0,0.10402947,0.09681924,-0.09895779,0.0,-0.0,0.0,-0.07882203,0.097396754,0.07856051,0.08191111,0.0,-0.16140868,0.0,-0.07143633,0.0,0.07167055,-0.0,0.0,0.08608649,0.0,-0.0,0.0,-0.14644629,-0.080057785,-0.11156304,0.08015581,0.09397777,0.0,0.0,0.0,0.0,0.0,0.0,-0.081356436,0.0,0.0,-0.0,-0.081119135,-0.0,0.0,0.0,-0.10914315,-0.0,0.07100032,-0.10938911,0.0,-0.0,-0.0,0.09905404,0.0,-0.12361768,0.0,0.0,0.071483664,0.15021966,-0.0,-0.0,-0.0,0.10212032,0.07575341,0.0,0.0
-0.0,-0.0,-0.08863335,-0.0,-0.0,-0.0,-0.0,0.0,0.0,-0.15045145,-0.0,0.0,-0.0,0.0,0.084092684,0.0,-0.0,-0.07738555,0.0,-0.0,-0.0,0.0,0.08626186,-0.0,0.0,0.107435904,0.0,-0.09716956,0.0,-0.0,0.40738457,0.31647703,0.0,0.1292437,0.0,-0.0,-0.0,-0.0,-0.0,0.0,0.0,0.0,-0.0,-0.5033591,-0.07387674,-0.103671305,-0.0,-0.0,0.0,-0.0,-0.07947749,0.0,-0.0,0.0,-0.0,0.0,-0.0,0.0,0.0,-0.0,0.0,-0.0,-0.0,0.0,-0.09222739,0.0,0.08960856,0.0,0.35099092,-0.0,-0.05419171,0.0,-0.0,0.0,-0.0,0.0,-0.098756574,0.0,0.0,0.0,0.0,0.0,-0.0,-0.09866113,0.0,0.0,0.0,0.08625706,-0.0985085,-0.088449806,0.0,0.0,-0.0,0.0,-0.07549211,-0.0,0.0,0.0,0.09575085,0.09828534,-0.0,-0.07976726,-0.0,-0.09144184,0.0,0.0,0.0,-0.0,-0.0,0.107265465,0.13194235,0.0,0.0,-0.0,0.0,-0.0,0.0,0.0,-0.0,-0.0,0.11151355,0.0,-0.10253062,-0.10602773,-0.0,0.10253901,0.0,0.0,0.11218631,-0.0,0.0,-0.11130511,-0.094204634,0.10517436,0.0,0.0,0.0,-0.0,0.0,0.0,-0.0,-0.0,-0.09310914,0.0,0.0,0.0,-0.0,-0.111657284,0.09811496,0.0,0.0,-0.0,0.0,-0.0,0.0,0.0,-0.0,-0.0,0.10873595,-0.08724216,0.0,0.12537028,0.075359,0.0,-0.0,-0.0,0.08053472,-0.0,-0.0,0.0,-0.0,-0.0,-0.07557303,-0.082785144,0.0,0.0,-0.0,-0.23319998,0.07900055,-0.0,0.09892916,0.10587799,0.0,-0.0,-0.08501275,0.0,-0.0,-0.0,-0.07375387,0.0,-0.0,0.0,-0.05161719,0.15861079,-0.0,-0.0,-0.0,0.12808228,0.0,0.105183505,0.0,-0.0,-0.089213714,-0.0,-0.0,-0.0,-0.08692771,0.0,-0.09849849,-0.09834026,-0.0,0.07479862,0.0,0.0,-0.0,-0.074313745,0.0,-0.0,-0.11446923,0.18712525,0.0,0.0,0.10968704,0.0,0.0,0.0,0.0,-0.0,0.0,0.0,-0.0,-0.0,-0.36721778,-0.0,0.0,-0.0,-0.0,0.0,-0.06971284,-0.0,0.0823647,-0.0,-0.08593284,0.18974626,0.0,0.0,-0.098671496,-0.0835097,-0.0,0.0,-0.0,0.0,-0.0,-0.0,0.0,0.0,0.0,0.0,0.0,-0.0,0.0,0.0,0.07854176,-0.0,0.0,0.12816192,-0.0,-0.0,0.0,0.18368359,0.123309195,-0.0,-0.0,-0.0,0.0,0.144922,0.076956324,0.0,0.0,0.0,0.0,0.0,0.0,-0.10262824,-0.11214489,-0.0,0.09367891,-0.10612416,-0.0,0.07093073,-0.08570119,0.0,-0.0,0.0,-0.0,0.0,0.09881934,-0.0,-0.0,0.0,0.0,0.20734906,0.0,-0.0,0.0,0.1373555,0.0,0.0,0.0,0.0,0.0,0.12206077,0.12739788,0.0,0.0,-0.0,-0.071848005,-0.08146757,0.0,-0.0,0.0,-0.0,0.0,-0.06966824,-0.07076856,0.0,-0.0,-0.0,0.0,-0.113058865,-0.06024579,-0.0,-0.0,-0.0,0.0,-0.0,0.0,0.0,-0.0,-0.0,-0.101787135,0.0,-0.07039884,-0.42566448,0.08519566,-0.0,-0.0,-0.07469006,-0.0,0.0,-0.080094606,-0.0,0.0,0.0,-0.0,0.0,-0.11062177,0.0,-0.0,0.1281486,0.0,0.0,0.0,-0.0,-0.11248185,-0.25887403,-0.12699935,0.0,0.0,0.0,0.0,-0.08122861,0.0,0.0,-0.0,-0.17423202,-0.0,0.0,0.0,-0.0,0.10412686,0.07483636,0.0,-0.0,-0.0,-0.0,0.09608978,0.07721204,0.0,0.0768481,0.0,-0.0,0.0,-0.0,-0.10891498,-0.07294325,-0.0,0.0,0.0,0.0
0.0,0.0,0.0,-0.0,-0.0,-0.0,-0.0,-0.0,-0.0,-0.14664535,0.07321883,0.0,0.16959924,0.0,0.0,-0.083816424,-0.0,0.0,-0.0,0.0,-0.0,0.0,-0.0,0.0,-0.0,0.0,0.0,0.0,0.0,0.0,-0.0,0.0,0.0,-0.096926264,-0.0,0.0,0.0,0.3618365,0.0,0.0,-0.0,0.0,-0.0,0.19576675,-0.0,-0.0,-0.0,-0.0,-0.0,0.0,-0.07858617,0.0,0.154452,0.120020546,-0.4061729,0.0,0.095828734,-0.0,-0.0,0.0,-0.0871724,0.09516201,-0.16419458,0.082808666,0.05188561,-0.0,-0.0,-0.0,-0.0,0.0,-0.0,0.10803025,-0.08412631,0.112086035,-0.075529784,0.0,-0.11436503,0.102137625,0.0,-0.0,-0.16627961,0.0,0.115150504,0.0,0.0,-0.0,0.0,0.0,-0.0,-0.10663823,-0.12658568,0.0,0.0,-0.0,0.0,0.07541775,0.08897272,0.0,-0.0,-0.0,0.0,0.11547334,-0.0,0.07140483,0.0,0.0,-0.0,0.0,-0.0,-0.0,0.0,0.0,0.0,0.0,-0.0,0.11314645,-0.0,0.0,0.0,-0.0,0.0,-0.108883336,-0.0,0.0,-0.0,-0.075334676,-0.0,-0.094817266,-0.0,-0.0,0.0,-0.0,-0.0,0.067199,0.0,0.0,-0.0,0.0,0.0,0.0,-0.0,0.0,0.10337726,0.0,0.0,-0.10544697,-0.0,-0.0,0.0,0.0,0.0,-0.0,0.0,-0.0,-0.0,0.19167098,0.07042027,0.079124406,0.4039775,-0.08480565,-0.0,-0.109061986,0.0,0.0,-0.0,0.0,0.0,0.10309724,-0.0,-0.095940545,0.071487986,0.07026823,-0.0,-0.058578007,-0.19496424,-0.0952776,-0.09718434,-0.1605613,0.0,-0.07754734,0.0,0.0,0.0,-0.0,0.0,0.0,-0.0,0.0,0.0,0.085274465,-0.0697344,-0.0,-0.0,0.0,-0.0,0.09814189,-0.0,0.11536629,-0.11550325,0.0,0.0,-0.0,-0.10722682,-0.0,-0.0,-0.2046681,-0.1361627,-0.0,-0.0,0.0,-0.09862861,0.0,0.0,-0.0,0.0,0.0,-0.11447734,0.09913724,0.0,-0.0,0.0,-0.0,0.0,-0.07823405,-0.0,0.0,0.0,-0.0,-0.10557518,0.0,0.0,-0.0,-0.0,-0.0,0.24220903,0.0,-0.0,-0.0,0.0,0.0,0.0,-1.8487372,-0.0,-0.0,-0.09517014,-0.102709465,-0.075976804,-0.087203726,0.07406894,-0.0,-0.0,0.0,-0.0,0.1890128,-0.0,0.0,0.0,-0.0,0.0,-0.12593733,-0.0,-0.0,-0.07292425,-0.15218213,0.09245173,0.0,-0.0,-0.19198929,-0.097926386,0.0,-0.0,0.07828954,-0.0,-0.0,-0.07760153,-0.0,0.0,-0.0,0.0,-0.0,0.07837922,-0.0,0.0,0.0,0.0,-0.0,0.11548174,-0.0,-0.0,0.0,-0.0,-0.0,-0.0,-0.0,-0.0,0.11485643,-0.08730662,0.050203227,-0.0,0.0,0.0,0.0,0.0,0.0,0.0,0.0,-0.076850146,-0.0,-0.0,-0.08196017,0.0,0.0,-0.0,0.0,0.13145137,-0.0,0.0,0.0,0.0,-0.0,-0.23965813,-0.0,-0.09909789,-0.076274544,0.07210759,-0.0,-0.06495129,0.0,-0.12649855,0.0,0.0,0.08873391,-0.12486482,-0.3064569,-0.0,0.09022073,-0.13407955,0.0,-0.07959963,-0.11277163,-0.0,0.0,0.0,0.0,-0.1141911,0.0,-0.10385229,-0.08954514,-0.0,-0.0,-0.0,0.07090548,0.0,0.0737474,-0.0,0.0,0.14947368,-0.0,0.10603501,0.0,0.0,0.0,-0.11702857,0.0,-0.0,0.0,-0.06844185,-0.0,0.0,-0.0,-0.09007614,0.21323496,0.087665595,0.09630236,0.0,0.0,-0.0,0.23480539,-0.15105624,-0.0,-0.0,-0.0,0.0,-0.0,0.0,-0.0,0.0,-0.090623066,-0.0,-0.0,0.0,0.08192843,-0.0,-0.0,-0.0,0.0,0.09371049,-0.078387484,1.3427516,0.105962954
-0.09279354,0.1010138,0.0,-0.2104226,0.0,-0.0,-0.0,0.08621999,-0.072596475,0.0,0.0,0.0,-0.112665266,0.08305634,-0.0,0.08904096,0.09318253,0.0,-0.0,-0.0,0.0,2.0670335,-0.10979475,-0.105899066,-0.11266874,-0.0,-0.08999811,-0.0,0.0,0.0,0.1817057,0.0,0.13276806,0.0,-0.06346654,-0.076589294,0.0,0.0,0.0,0.0,-0.1412069,-0.0,0.10465989,-0.097564965,0.0,0.085673995,0.0,0.0,0.0,0.0,0.0,-0.0,-0.0,-0.0,0.0,0.0,-0.0,0.073658325,-0.0,-0.0,-0.0,0.0,-0.0,-0.09243555,-0.07610387,0.077376164,0.0,0.11405114,0.0,0.0,0.08007628,0.0,0.0,-0.0,-0.0,-0.10397456,-0.0,0.0,-0.10900264,-0.0,-0.0,0.08767822,-0.10909159,0.08394381,-0.0,0.102781944,-0.0,-0.0,0.0,0.0,0.12176249,0.08913217,0.0,0.0,0.0,-0.08388916,-0.0,-0.0,0.0,0.08893419,-0.0,0.0,0.078117505,-0.10760631,-0.0,-0.0626211,0.0,-0.07348174,-0.0,0.0,-0.0,-0.0,0.0,-0.0,-0.0,0.10198734,0.0,-0.0,-0.0,-0.0,0.0,-0.0,-0.0,0.10233631,0.07799453,0.0,0.10351033,0.0,-0.0,0.0750475,-0.0,0.10586897,-0.0,-0.07535478,0.08340373,0.0,0.0,-0.07803859,-0.08372505,0.09286586,-0.23709103,0.0,-0.0,-0.09595742,-0.1044423,-0.09783822,-0.0,-0.08471416,0.111581855,0.09055673,0.0,-0.0,0.084273376,0.0,0.0,0.0,0.0,-0.11157808,-0.0,-0.087282084,-0.1065698,-0.0,0.07988451,0.092638455,0.0,0.0,0.0,0.0,0.0,0.0,-0.0,0.11061483,0.0,0.09359702,-0.102826886,0.10821847,-0.0,0.08707976,0.0,-0.0,-0.10886719,0.0,0.08102789,0.107190005,0.0,-0.07695484,-0.0,-0.0,0.09257273,0.0,-0.111956105,-0.0,-0.08216373,0.0,-0.112075076,0.08541859,-0.11116508,-0.0,0.0,0.112118326,0.0,0.0,0.07690405,0.0,0.0853881,0.0,-0.0,0.0,0.0,-0.0,0.100031786,0.0,-0.0,0.09804449,0.11225059,-0.07282951,-0.0,0.08145081,0.0,-0.0,-0.08380303,-0.0,-0.0,0.0,-0.0,0.07196113,0.075434215,-0.14300825,0.0,0.0,0.0,0.11148495,-0.0,-0.0,0.0,-0.0,-0.0,0.08632239,0.0,0.0,-0.09928359,-0.17766272,-0.08903865,0.09214874,0.08121771,-0.07951897,-0.0,-0.0,-0.0,-0.0,0.0,0.102904566,-0.1126403,0.0,0.0,0.0,-0.0,0.0,0.0,0.0,0.0,-0.08133738,-0.0,0.0,0.0,-0.0,0.10903417,0.0,0.0,0.16407596,-0.0,0.0,0.0,-0.0,0.0,-0.0,0.0,0.12438146,0.0,0.0,0.095868774,0.0,0.0,0.0,-0.0,0.0,0.0,-0.0,0.10168078,-0.0,-0.0,-0.0,0.12528332,-0.0,-0.0,0.09828035,0.0,0.0,0.07389554,-0.080434814,-0.0,0.0,-0.0,0.0,0.0,0.090013854,-0.11542149,-0.0,0.0,-0.0,-0.0,0.19362724,0.10755909,-2.1900365,0.08566294,-0.0,0.0,0.10768811,0.0,-0.084350765,-0.08774961,0.0,-0.09465878,0.10381367,0.0,-0.17499687,0.0,-0.1430943,0.10616546,0.0,0.09627123,-0.09805167,-0.086322114,-0.11615199,-0.07649819,-0.10862832,0.07922856,-0.08700442,0.0,0.0,0.0,-0.0,-0.10761231,-0.0,-0.11032232,-0.0,0.0,-0.1009475,0.11096793,0.0,0.0,-0.0,0.20627005,-0.0,0.0,0.07537853,0.0935298,0.0,-0.08353907,-0.0,-0.0,0.0,-0.0,-0.0,0.092712514,0.0,-0.0,0.0,0.0,-0.0,-0.10904372,0.0,0.08716679,-0.0,-0.0,-0.0,-0.0,0.0,0.09918667,-0.0,0.10699239,-0.0,0.0,-0.10638172,0.0,0.0,0.0,-0.0,-0.0,0.0,0.0,0.0,0.0,-0.0,0.083919026,0.07463824,-0.0,0.0,0.0,0.0
0.0,-0.085225075,0.0,-0.0,-0.0,0.16749905,0.0,0.08675159,-0.0,0.0,0.0,0.0,-0.0,-0.0,0.0,-0.0,0.0,0.0,-0.0,-0.07812951,-0.0,-0.0,0.0,0.0,-0.0,0.0,-0.15886262,-0.0,0.0,-0.0,-0.0,-0.36668807,0.16611049,0.08617171,0.0,-0.0,-0.11376654,0.08813703,-0.10992275,0.11519257,-0.0,-0.113163956,0.09174322,-0.0,-0.0,0.0,-0.0,0.0,0.0,-0.10810345,-0.0,0.06514325,0.0,-0.07484023,-0.11250223,-0.0,-0.07642375,0.0,-0.0,-2.8522832,0.0947027,0.0,-0.0,0.08842352,0.09945745,-0.0,0.0,0.0,-0.5508337,0.0,-0.0,-0.0,-0.0,-0.0,-0.11036537,-0.08512867,0.0,0.0,0.09925763,0.0,0.086692445,0.0,0.072376244,-0.0,0.09927549,0.0,0.0,-0.11538348,0.0,-0.11191426,-0.0,0.074079834,0.0,0.0,0.0,0.08876922,-0.0,-0.0,0.0,0.0,0.105093755,0.0,0.072288714,0.096953325,-0.106528044,0.16773836,0.0,-0.0,0.09311735,0.10484987,0.0,0.0,0.0,-0.0,-0.10843746,-0.0,-0.0,0.0,-0.0,-0.052022167,0.0898483,0.0,0.0,0.0,0.0,-0.0,0.0,0.10311689,-0.0,0.10076543,0.0,0.2310145,0.08049812,-0.06926507,0.0,0.0,-0.0,-0.0,-0.10658248,-0.08384974,-0.0,-0.055961326,0.0,0.0,0.0,-0.07328051,-0.0,-0.0,-0.0,0.0,-0.0,0.0,0.07938295,-0.09244633,0.40467846,0.0,-0.0,-0.07407719,0.0,-0.093476415,0.09577424,0.0,-0.0,0.0,-0.089161515,0.06680617,-0.0,0.0,0.0,0.0,-0.0,0.0,0.109078445,-0.0,-0.0,-0.10318042,0.0,-0.0,0.100440755,-0.08016155,0.0,0.0713642,0.0,-0.0,0.0,-0.0,-0.10659154,-0.0,0.0,-0.08815144,0.092145994,-0.0,-0.061464153,-0.11108909,-0.0,0.11306683,-0.0,0.0,0.112355895,-0.0,-0.08534199,-0.0,-0.0,-0.05877833,-0.0,-0.14445001,0.0,0.0,0.088429935,-0.0,-0.0,-0.0,-0.0,-0.0,0.108476095,-0.0,-0.0,0.0,0.0,0.11960537,-0.0,0.0,0.087605454,-0.0,-0.10025032,0.12737553,-0.12543054,-0.0,0.0,-0.0,0.081593685,-0.0,-0.0,0.0,0.0,-0.0,-0.07590571,0.0,0.0,0.0,0.0,-0.26503477,-0.0,0.0801751,-0.07695881,-0.07001199,0.09728072,0.0,-0.0,-0.0,-0.0,0.0,0.0,0.084159605,1.3766721,0.0,0.0,0.086782,0.09023723,-0.0,-0.091964096,-0.0,-0.09551517,0.0,-0.09808817,0.0,-0.07708827,-0.09350573,-0.09868629,0.0,0.0,0.0,-0.0,0.0,0.0,0.0,0.0,-0.107100464,0.07400551,-0.09485774,-0.0,-0.0,-0.0,-0.0,-0.10071069,-0.07144113,-0.0,-0.06999226,0.09691689,0.0,-0.0,-0.07387923,0.095831014,0.10110351,0.087670036,-0.099957205,0.11005638,-0.0,-0.0,0.11183163,-0.07631132,-0.09992934,-0.067794405,0.0,0.0,-0.0,0.0,0.0,-0.0,-0.11477949,0.0,-0.0,-0.083132714,-5.698123,0.0,-0.101617254,-0.089811005,0.0,0.0,-0.0,-0.20097372,0.1076458,-0.090291314,-0.10196228,-0.090011135,0.0,0.111951135,-0.28844118,0.0,-0.0,0.0,0.0,0.0,0.0,0.0,0.09046238,-0.0,0.0,-0.086573996,-0.10428437,0.0,0.06346166,-0.08269791,0.0,0.10317879,0.0,0.07774543,0.0,-0.0,0.0,-0.0,-0.08342729,0.0,-0.114252135,-0.0,-0.10360293,-0.103576005,0.0,-0.0962662,-0.07334001,-0.0,0.0,-0.0,0.0,0.09498999,6.4571023,0.11146494,-0.0,-0.0,-0.09163987,0.09399637,0.0,0.0,-0.0,-0.0,-0.0,0.0,0.0,-0.07448387,-0.0,0.0,-0.085283235,-0.0949895,-0.0,0.0,-0.10583814,0.0,0.085114114,0.0,-0.0,0.0,0.0,-0.0,-0.0,-0.0,0.0,-0.08493473,0.078250505,0.5868642,-0.094065
-0.0,-0.13538715,0.0,0.0,0.17523958,-0.0,-0.0,-0.0,-0.0,-0.07927938,-0.0,0.0,0.15394138,0.0,-0.0,-0.11837514,-0.09204741,0.0,-0.0,0.15797982,0.0,0.0,-0.110185124,-0.22912034,0.0,0.0,-0.0,-0.0,-0.0,0.0,-0.0,0.0,0.20235148,-0.075070746,0.19557473,0.20781311,-0.0,-0.0,0.0,0.0,-0.0,0.0,-0.0,0.1082044,-0.0,0.0,-0.106839,-0.0,0.0874256,0.0,0.0,0.0,0.0,0.0,-0.0,0.0,-0.0,-0.0,0.0,0.0,0.10365155,0.08555323,-0.1666055,0.111545235,-0.0,0.11523238,0.0,-0.0,-0.0,0.0,0.0,-0.0,0.0,0.1321676,-0.0,0.0,-0.0,-0.052135848,-0.0,-0.0,-0.09790268,0.0,0.104715474,0.0,0.0,-0.0,-0.0,0.0,-0.07917966,0.07044583,0.0,-0.085766315,-0.2707963,-0.0,0.0,0.08846163,-0.0,0.0,-0.0,-0.0,-0.0,0.0,-0.0,-0.0,-0.108964115,-0.0,-0.0,0.0,-0.07734204,0.073134325,0.0,0.1311092,0.0,-0.16036274,-0.0,0.0,0.102109976,0.0,0.0,-0.0,-0.0,0.10970611,-0.0,0.113314085,-0.0,0.08415537,-0.11969638,0.0,-0.08658077,0.0,0.0,-0.0,-0.11410047,-0.0,0.0,-0.0,-0.0,-0.070478596,0.0,0.0,-0.0,0.0,-0.103925005,0.0,0.0,-0.0,0.13287711,-0.0,0.0,0.0,0.113815494,-0.0,0.0,-0.11799097,-0.0,0.15816362,0.0,0.12507692,0.0,-0.0,0.0,0.0,-0.109843336,0.0,0.10141374,0.0,0.106839314,-0.0,-0.0,-0.0,0.0,0.0,0.0,-0.0,-0.0,0.09786274,-0.0,0.0,0.0,0.0,-0.12289826,0.0,0.0,-0.112598434,0.0,0.0,0.11459195,0.10964578,-0.0730417,-0.073233716,0.0,-0.0,0.118922,0.0,0.0,0.0,-0.10250579,0.0,0.10623772,0.0,-0.0,-0.0,-0.11224957,-0.0,-0.1002951,-0.0,0.073981896,0.08503901,-0.0,0.0,-0.0,0.072582446,0.0,0.109246515,-0.11083513,-0.09632709,-0.0,0.0,0.09298153,-0.0,0.0,-0.0782698,-0.0,0.0,-0.098124854,-0.0,0.0,-0.0,-0.10491453,-0.0,-0.10717942,-0.105256826,-0.0,-0.0,0.0,-0.072772816,0.11394244,-0.08587351,0.11377744,-0.0,0.0,-0.0,0.08412265,-0.0,0.0,0.1073929,-0.0,0.08597199,-0.0,-0.0,0.0,0.0,0.0,0.21952724,-0.0,-0.27256402,0.0,0.0,0.19212963,-0.0,-0.0,0.09619009,-0.0,-0.0,0.0,0.0,0.11113977,-0.0,-0.0,-0.0,0.07943551,-0.0,0.0,0.05590992,-0.0,-0.0,-0.08561766,0.0,0.0,-0.088005394,0.0,0.093937054,-0.072342865,0.1150266,-0.0,-0.0,0.0,-0.0,0.07077668,0.0,-0.10179488,0.0,-0.0,0.0,-0.0,-0.074311316,0.0,-0.10394793,0.0,-0.113509975,0.0,-0.14669724,0.0,0.0,0.0,0.09382493,0.0,-0.0,-0.113747165,0.0,-0.16497836,0.0,-0.07701667,0.0,0.0,0.072702125,0.0,-0.105210185,-0.1388828,-0.0,0.0,-0.0,-0.0,0.1469706,0.083224535,-0.0,0.11217109,0.0,0.0,0.0,0.0,0.0,-0.110562004,-0.0,0.0,-0.08419265,-0.093590215,0.0,-0.060718447,0.0,0.097496256,-0.06931499,-0.0,0.0,-0.0,0.08344639,-0.09369583,-0.13887599,0.0,-0.32146406,0.0,0.0,0.0,-0.07896757,-0.0,0.12833428,0.0,-0.0,0.0,0.091707334,0.0,-0.087296315,-0.090664715,0.0,-0.10583605,0.0,-0.0,-0.09187802,0.05018218,0.11240274,0.0,0.23735479,0.0,0.0,0.10642113,0.0,0.08939079,0.0,-0.11856222,-0.07637821,0.07641537,-0.0,-0.108683385,0.0,0.097599514,-0.0,-0.0,-0.0,-0.10030662,-0.110147364,0.0,0.0,-0.0,-0.26001108,0.09256271,0.13436277,0.0,0.0,-0.0,-0.0
-0.0,-0.0,0.09552707,-0.0,-0.0,0.0,0.0,-0.0,-0.0,0.086746946,-0.11397146,0.0,0.09831862,-0.0,-0.0,-0.0,-0.0,0.081232205,0.0,0.08820145,0.0,0.99289316,-0.07379014,0.0,0.0,0.0920229,0.0,0.07029431,0.105082266,0.08347281,0.3263665,-0.0,0.0,0.0,0.0,0.0,0.09996214,-0.092114605,0.0,0.0,-0.0,-0.0,-0.0,-0.0,0.0,-0.0,0.0,-0.0,-0.109093405,0.08788863,-0.07546306,-0.0,-0.113429636,0.0,-0.0,0.09480319,-0.105279624,0.0,0.0,-2.9087303,0.12576887,0.0,0.09444597,0.07893108,-0.0,-0.0,-0.0,0.0,-0.0,1.0573184,-0.10855354,-0.09062555,-0.0,0.10698522,0.10299761,0.0,0.0,0.0,-0.06444489,-0.0,0.0,-0.0,-0.10300297,-0.0,0.0,0.0,0.0,-0.09026797,0.0,0.0,-0.20812966,0.0,0.0,0.0,-0.10752164,-0.0,-0.07118691,0.15594752,0.0,0.0,-0.0,-0.0,0.0,-0.0,0.0,-0.0,0.0,-0.09759235,0.06564365,-0.0,0.0,0.0,-0.06630696,-0.0,0.0,-0.0,0.11511559,-0.10263748,0.101688825,-0.0,0.0,0.0946987,-0.0,-0.07846912,-0.1230825,0.0,0.0,0.0,0.10648587,-0.0,0.0,-0.0,-0.0,-0.0,-0.10956434,0.0,-0.0,-0.0,-0.15332684,-0.0,-0.0,-0.0,0.0,0.0,0.0,0.0,-0.0,-0.0,0.10838529,0.0,0.0,-0.11517556,0.1044051,0.09770411,0.0,0.0,0.11242078,-0.08531438,0.0,-0.0,-0.13443762,0.0,-0.0,0.0,0.0,0.063022725,-0.08757181,-0.0,0.8252259,0.114645205,0.08717867,0.0,0.104050405,-0.0,0.0,-0.09745215,0.0,-0.0,0.0,0.105613045,0.0,-0.0,0.100524195,-0.0,-0.0,0.0,0.0,-0.10770666,0.0,-0.089140624,-0.0599875,-0.0,0.0,-0.10309219,-0.0,0.091156535,-0.111738116,0.10961871,0.07908232,0.0,-0.09290665,-0.11672428,0.0,0.0,-0.0,-0.2742046,0.0,0.095409505,-0.0,-0.102011256,0.079430036,-0.0,0.0,0.0,0.0,0.075592645,-0.06995985,0.0,0.0,0.0,-0.0,0.0,0.0,0.10014903,-0.0,-0.0,-0.14311086,0.078677006,0.0,0.10678979,-0.10597151,0.07435363,-0.0,-0.0,0.0,-0.0,-0.0,0.11257354,0.0,0.20345348,-0.07133819,-0.5893036,-0.096677825,-0.0,0.08010378,-0.10726229,-0.0,-0.09678793,-0.0,0.18015943,0.10782128,-0.0,-0.09226024,-0.0,1.37928,0.0,0.0,0.0,0.0,0.0,0.0815625,-0.0,0.0,-0.0,-0.0,-0.1076991,-0.0,0.0,0.08147321,-0.14243482,0.0659188,0.06396853,-0.0,-0.09899566,0.11858297,-0.0,-0.0,-0.08108652,0.0,0.0,0.10125337,-0.0,-0.0,0.0,-0.0757754,0.0,-0.10162817,0.11184885,-0.0,0.0,-0.0,0.10394642,-0.0,0.0,-0.078229666,0.10692542,0.0,-0.09026674,0.0,0.08161356,-0.10953836,-0.09700119,0.0,0.0,0.0,-0.0,0.0,0.0,0.0,-0.0,0.0,0.12666886,0.094330564,-0.0,-0.0,0.111609034,-0.08008308,-0.10383998,0.0,0.096832424,-0.0,0.10096414,0.10531842,0.0,-0.110782124,0.12639728,-0.0,0.09389764,0.0,0.092702255,-0.0,0.0,0.0,0.0,0.0,-0.0,0.09348023,0.0,0.14982183,0.0,-0.0,0.11498139,-0.077296406,0.0,-0.07002703,-0.08145137,-0.0,0.11040897,-0.0,0.0,0.0,0.0,0.0,-0.07038968,-0.0,0.0,0.0,0.0,-0.0,0.0,0.0,0.0,0.114897646,-0.0,0.078824095,0.0,0.0,0.0,-0.07829022,0.0,-0.0,-0.08741229,-0.0,0.11780562,0.0,-0.0,0.08933175,0.0,0.07474967,0.0,0.0,0.0,0.0,0.0,-0.11374204,-0.0,-0.0,0.0,0.0,0.0,0.07084588,0.077004164,0.084459305,1.1768745,0.0,-0.0,0.079662286,-0.0,0.0,0.09199281
