0,1,2,3,4,5,6,7,8,9,10,11,12,13,14,15,16,17,18,19,20,21,22,23,24,25,26,27,28,29,30,31,32,33,34,35,36,37,38,39,40,41,42,43,44,45,46,47,48,49,50,51,52,53,54,55,56,57,58,59,60,61,62,63,64,65,66,67,68,69,70,71,72,73,74,75,76,77,78,79,80,81,82,83,84,85,86,87,88,89,90,91,92,93,94,95,96,97,98,99,100,101,102,103,104,105,106,107,108,109,110,111,112,113,114,115,116,117,118,119,120,121,122,123,124,125,126,127,128,129,130,131,132,133,134,135,136,137,138,139,140,141,142,143,144,145,146,147,148,149,150,151,152,153,154,155,156,157,158,159,160,161,162,163,164,165,166,167,168,169,170,171,172,173,174,175,176,177,178,179,180,181,182,183,184,185,186,187,188,189,190,191,192,193,194,195,196,197,198,199,200,201,202,203,204,205,206,207,208,209,210,211,212,213,214,215,216,217,218,219,220,221,222,223,224,225,226,227,228,229,230,231,232,233,234,235,236,237,238,239,240,241,242,243,244,245,246,247,248,249,250,251,252,253,254,255,256,257,258,259,260,261,262,263,264,265,266,267,268,269,270,271,272,273,274,275,276,277,278,279,280,281,282,283,284,285,286,287,288,289,290,291,292,293,294,295,296,297,298,299,300,301,302,303,304,305,306,307,308,309,310,311,312,313,314,315,316,317,318,319,320,321,322,323,324,325,326,327,328,329,330,331,332,333,334,335,336,337,338,339,340,341,342,343,344,345,346,347,348,349,350,351,352,353,354,355,356,357,358,359,360,361,362,363,364,365,366,367,368,369,370,371,372,373,374,375,376,377,378,379,380,381,382,383,384,385,386,387,388,389,390,391,392,393,394,395,396,397,398,399
0.09467358,0.035851825,-0.02376736,0.048149146,-0.010747902,-0.060801245,0.012922577,-0.12215502,-0.120222986,0.046520535,0.09433672,0.05241375,0.024610005,-0.059675045,0.11162787,-0.03627278,0.008793786,-0.04578179,0.03164078,-0.029484589,-0.044354387,-0.003783397,-0.09682678,-0.009184734,0.070784256,0.077765055,-0.061209302,0.01217974,-0.0122586675,-0.043052714,-0.01884464,-0.02761147,-0.08825945,0.036009867,-0.014020288,-0.032758586,0.097890064,-0.041659735,-0.06257131,0.12764677,0.05962056,-0.04112112,0.0044842064,0.0009696934,-0.084971935,-0.10273152,0.10299626,0.0020041224,-0.039836116,0.09334447,-0.10611055,-0.06364983,0.051834557,0.08933752,0.018995235,0.075904466,0.13132057,0.005085456,0.06584629,0.09346279,0.12259426,-0.09700831,-0.11104463,0.07343922,-0.081144676,0.030630685,-0.07223008,0.08998258,-0.10182854,-0.05169398,-0.01249167,0.07842188,-0.008903993,0.005904129,-0.077794015,-0.10588976,-0.08941056,-0.058384374,0.051400673,0.0906396,-0.052667953,0.03328553,0.066179134,0.0026129335,-0.038857102,-0.10348078,-0.066126645,-0.087688416,0.07788863,0.07449147,-0.03714522,0.032945715,-0.07996347,0.04901038,-0.11413335,0.08104528,-0.05484777,-0.20353037,-0.03604856,-0.05919898,0.07306632,-0.10592471,0.040963717,0.01913264,0.104145356,0.016666152,0.03604303,0.0906802,0.026129404,-0.04381662,0.017385624,-0.033180363,-0.027153298,0.042242043,0.070566304,0.0010956228,0.11497299,-0.050527,0.08571344,-0.018843066,-0.082291454,0.08974285,-0.02815722,0.10043187,-0.049043506,0.060025334,0.04882814,0.021421663,0.120312646,0.07677134,0.10076546,-0.062960245,-0.10102852,0.057248645,0.08805084,0.020417888,0.028804667,0.07892459,0.032880265,0.05553571,-0.0764676,0.004547704,-0.016045928,0.062348418,-0.03073641,0.09503933,0.12730756,0.032859094,0.022904076,-0.05848832,-0.053976014,-0.05942908,-0.0843313,-0.12162255,0.060687456,-0.027342787,-0.06020763,0.026019577,0.021975555,0.11104452,-0.068984926,-0.09308097,0.057412542,0.0069223987,-0.026949957,0.033392783,-0.00971931,0.03091497,-0.06822133,0.08344687,0.0712067,0.07631368,0.096630335,-0.04588054,-0.01648874,-0.08479954,-0.111506715,0.10893399,0.035399336,-0.06635147,-0.0720191,0.13444908,0.026543967,0.0026027905,-0.025010534,0.01562003,-0.032441184,-0.093150586,-0.10128498,0.070002586,0.056064412,-0.0660801,0.05456879,-0.07941809,-0.04444123,0.04453916,0.06789369,0.031000433,-0.10518292,-0.023160115,0.13573386,-0.08613457,0.08644646,-0.06949994,0.11487027,0.028750312,-0.05341449,-0.00068170094,0.018177144,-0.091844566,-0.04136038,-0.08653141,-0.008952778,-0.114520356,0.1290102,-0.06616323,-0.08189723,-0.05906317,-0.019414537,0.0066347294,-0.10459372,0.08496424,-0.07622658,0.049527563,0.07336357,0.112436526,-0.06418085,0.037389483,0.027623216,-0.101933874,-0.10436595,0.1012943,0.052339192,0.016899638,-0.014675813,-0.08293265,-0.015647173,0.015175544,-0.012494989,0.066678144,-0.027563348,0.025559269,0.05045969,-0.06845926,-0.10394794,0.10004405,0.0040426496,0.08261222,-0.08363223,0.059764393,-0.075366706,0.031454246,0.08220242,0.023536302,0.031206809,-0.0038221106,-0.026706927,-0.14452696,0.059987355,-0.00039160796,-0.01469861,-0.097533315,-0.1085803,0.01886707,-0.107161865,0.0321507,0.09357073,0.058972113,0.070752814,-0.051873095,-0.09967242,-0.0324042,-0.046850007,0.02622912,-0.049107514,0.021569066,-0.07147081,-0.05092674,0.007288228,-0.017342553,0.03171333,-0.026846526,0.040978216,0.03902728,-0.058749527,-0.010703802,0.120954365,0.06972969,-0.08270241,-0.090870194,0.067503296,0.051656302,0.040945463,-0.011170469,-0.117730394,0.03168967,-0.0006121248,-0.12396481,0.01304053,0.021799268,0.028071545,-0.11614204,-0.02103132,-0.065129206,0.032179467,0.19577275,-0.0674919,0.062193953,0.100065164,0.10140436,0.073962346,-0.0659409,0.22554533,0.03155122,0.07675829,-0.0009743526,-0.13185295,-0.07378813,-0.051041484,-0.10281298,0.027395442,0.078260094,-0.030208128,0.06714233,0.16439372,-0.03206462,0.065114,-0.02399051,0.028770156,0.01184008,0.007923832,0.012849633,0.0308191,-0.038182072,0.10971667,0.072326675,-0.032516155,-0.02633691,0.025265045,-0.09621041,0.10087247,-0.04577493,-0.088338025,-0.035769437,-0.060428366,0.062016584,-0.085535385,-0.05246687,-0.1107674,-0.04489747,-0.089674614,0.06301328,0.02022565,0.08568583,-0.015484969,0.11143287,0.14353287,0.0030609502,0.09122639,0.0069617196,-0.081227876,0.004359521,0.09501898,0.10440274,-0.13443302,0.041297518,-0.033099674,0.09293955,-0.02402023,-0.040157903,0.08497923,0.021246295,0.07830715,0.0929877,0.085389055,0.074365675,-0.019954354,-0.050972432,-0.108388536,-0.0850918,0.0687607,-0.055654075,-0.10995921,-0.07170965,-0.074889734,-0.036550947,0.10851752,0.038475644,-0.100359164,-0.15396915,0.040145356,-0.011377673,-0.0791997,0.06946665,0.078406714,0.041926704,-0.01067663,0.119571574,0.06154374,-0.046688672
0.01330077,0.016263494,-0.041170254,-0.0677502,-0.059296582,-0.113718964,0.10967964,-0.12100073,0.05842926,-0.013463482,-0.01038355,0.005113992,0.027923603,-0.012501076,-0.037677024,0.04156,0.09542472,-0.05811367,-0.07837023,-0.07887768,0.007721171,-0.18101978,-0.0917253,-0.014501251,0.01133328,0.028529935,-0.06144194,0.019053763,-0.08611584,0.004741746,-0.16585758,-0.07197093,0.011488416,-0.0629004,-0.01228884,-0.0011703785,0.021794882,-0.015300692,0.01169978,-0.08140727,0.002647039,0.073956,0.10539838,0.124188095,0.030676685,0.02815545,-0.021164747,0.0040219077,-0.032630853,-0.04335988,-0.02508922,0.00020320568,0.00061082933,0.015384264,0.09516569,0.060184013,0.071020514,0.056161366,0.032142617,0.088812456,-0.056001112,0.037116878,-0.083625354,0.09042538,-0.05043075,0.10904614,-0.007660474,0.042415954,0.015119166,-0.12738632,-0.06306122,0.017631764,-0.05187837,0.1685974,0.026168855,-0.011687535,-0.052429467,0.019337753,0.03189609,-0.10161182,0.011393676,-0.0096856505,0.10239899,0.053324528,-0.09730707,-0.0052630454,-0.045530137,0.052374177,-0.09045955,0.0017398571,-0.093102925,0.097351566,-0.06502232,0.077116266,0.056052905,-0.03614642,-0.006775412,-0.000509304,-0.11401547,-0.06532791,0.037896223,-0.01661136,-0.07356651,0.091115825,-0.08534224,-0.048395745,0.09345627,0.09819323,0.15901321,-0.07692133,0.055338103,0.08624015,-0.05994432,-0.11366079,0.011375897,0.10257938,0.017449789,-0.05932045,-0.0550989,-0.11244237,-0.0845214,0.119265296,-0.106250785,0.05553653,-0.011124603,-0.04775897,0.006442851,0.04984384,-0.05970436,0.04699675,0.06038498,-0.06677908,0.012255891,0.054582216,0.14054398,-0.00877159,-0.06501201,-0.025953665,0.08476653,-0.07050748,0.033114094,0.063037224,-0.02159971,0.10087138,-0.10325337,-0.0373407,0.123691104,0.10816132,-0.08426985,-0.07130621,0.096110545,-0.019796604,-0.11421191,0.029625848,0.061165735,-0.041508857,-0.045436922,0.07648946,0.09703066,0.118058436,0.023351455,0.017783217,-0.030672133,0.06735516,-0.044023268,0.050994672,0.1075878,0.047846146,-0.07111205,-0.052482136,0.056753732,0.07851759,-0.012583059,-0.11011895,0.04149062,-0.06564872,0.04173451,-0.017570153,0.014224871,0.020269684,0.04942316,-0.07315935,0.051205523,0.043249022,0.0481311,-0.08763374,0.08298103,-0.06619768,-0.073305264,0.023188254,0.09127514,-0.12550507,0.08279435,-0.04414227,-0.015341356,-0.018234886,-0.087548375,-0.114425234,0.045808446,0.013829614,-0.048087362,-0.0053775134,0.10969582,0.065183274,-0.019377619,-0.12505557,-0.07860665,-0.034131516,0.027175955,0.041637167,0.007399234,-0.080126956,-0.05282462,0.06552886,0.013145184,-0.05713832,-0.08938785,0.024659015,0.018219523,-0.056552205,0.08134741,-0.021516308,-0.06570993,-0.024863794,-0.029030489,0.03430587,-0.1092733,0.07336498,0.07807218,-0.025057629,-0.06543025,0.040837534,0.09137317,-0.072628036,-0.05719846,0.018288054,0.09886106,0.029658256,-0.04823468,0.07259216,-0.0562375,0.06195221,0.10715871,-0.0800575,-0.009802237,-0.08803813,0.062078096,-0.024448011,0.016315006,0.08223013,0.056958683,-0.0833097,-0.014283674,-0.010134486,0.061494343,-0.094568044,-0.030489877,-0.09810353,0.014039141,-0.14290327,-0.010992341,0.012348063,0.096761815,-0.00900279,0.08977453,0.11058406,0.027418517,-0.019187057,-0.05367987,-0.06567246,-0.10957148,-0.013974838,0.077699445,0.041253127,-0.050938793,0.02924534,-0.071392655,0.015322392,0.051045917,0.0124846175,-0.015915424,-0.04988139,-0.007958911,-0.013524711,-0.04999631,0.011325337,-0.0755693,-0.092089176,-0.06712716,0.033644993,0.0038885623,0.049107965,-0.10653956,-0.080610216,-0.020965125,0.026927331,0.052065767,-0.02371674,0.06676542,0.02099331,0.08904639,0.020056553,0.020288832,-0.03207793,-0.08023274,-0.075718194,-0.03482182,0.010130143,0.07084934,0.030700393,0.038536258,0.03275391,0.044045445,-0.04999025,-0.027653277,-0.07132282,0.03936536,-0.018288964,-0.1133683,0.036120392,-0.042919602,-0.021593336,-0.09119359,0.033528708,-0.014652537,-0.06785631,-0.029837431,-0.032812092,0.030115537,-0.034947608,0.007699985,-0.07549454,-0.048781645,0.008484756,0.09931354,0.115107335,-0.004833084,-0.0034873304,0.11334094,-0.008145615,0.031236762,-0.0066226795,-0.05902657,-0.14424217,-0.059706137,-0.0068905726,0.008655486,0.027080001,-0.08184968,-0.13799493,-0.060668945,-0.015885446,0.059417993,0.10000436,-0.016920082,-0.046877604,-0.062381122,0.038046762,-0.03266506,0.15783708,-0.092448846,-0.006479308,-0.038369086,-0.041376892,0.032708287,0.027117137,-0.075437896,0.079092495,0.09868127,0.061646856,0.050842103,0.14196767,0.08730865,-0.030452866,-0.038215913,-0.055028975,0.0017311797,-0.013460495,0.046005543,0.042393215,0.014624499,-0.047402397,-0.15054783,-0.096717425,-0.034718923,0.05269129,-0.026642652,-0.0745869,-0.049364217,0.07139533,0.017234176,-0.1368909,0.09992809,0.010086349,0.045093045,-0.014460789,0.08120591,0.14849819,-0.08056486,0.011516492
-0.02498793,-0.034407325,-0.07222311,-0.14332947,-0.06456477,-0.14558032,-0.032956395,-0.028896058,-0.18608645,-0.05396915,0.117890954,0.13724902,0.0587642,-0.021250784,0.12846631,-0.08899998,0.006484156,-0.036743157,0.12260905,-0.0127136735,-0.062828705,-0.07349807,-0.017888026,0.08771379,0.06084723,-0.048374582,-0.19634423,-0.012125418,0.057909876,0.060703207,-0.0571413,0.047438662,0.023471719,0.08940557,0.06100477,0.12617886,-0.11880993,-0.044998117,-0.03309895,-0.050342727,-0.036068004,-0.039267424,0.10052876,0.16437924,0.08427448,-0.10939097,-0.07685287,0.06365091,-0.13186991,-0.043896083,-0.02281553,-0.093406595,0.009739017,0.04822866,-0.048366718,-0.015716601,-0.03906713,-0.04150235,-0.09696966,0.11487496,-0.005267042,-0.020703021,0.055858757,0.030856643,-0.03913847,-0.04251344,0.036355674,-0.07149824,0.09374678,0.061811257,-0.008652848,0.070029914,-0.035512485,0.19893032,-0.017549222,0.00026267124,-0.08653408,0.11801832,-0.05086105,-0.003103343,-0.04734045,-0.022866411,0.09800344,-0.00971646,0.14541939,0.029425515,0.052331783,-0.0015457049,0.09429042,-0.016315788,-0.01924276,0.062332034,0.027378853,0.010312161,0.06805049,0.09257591,0.0058364947,-0.02780142,0.047446247,-0.09217608,-0.020480722,-0.042305484,-0.043287866,0.15849802,-0.067575395,0.045472175,-0.07185802,0.05930503,0.008075835,-0.052557226,0.0964793,0.06375057,0.03444989,-0.07564981,0.045889966,0.06475446,0.06697742,0.053622644,-0.1089238,-0.12723684,0.030383745,-0.017472973,0.08204276,-0.055301413,0.05245398,0.11775677,-0.1105999,0.056565877,0.09675949,0.025559567,0.06437644,0.08921581,-0.09293866,0.12510546,0.1703556,-0.11741249,0.012926197,-0.06251285,-0.0428733,0.13445853,0.07935953,0.10973712,-0.10926329,0.0077925776,0.031229056,0.026089001,-0.04644025,0.018800445,-0.07320042,0.002526579,0.0068649696,-0.012905205,0.03512125,0.04366308,0.029372929,-0.13574797,-0.031404406,-0.008831861,-0.008971661,0.02859171,0.07106394,-0.03549111,-0.017603846,0.11700245,-0.01852205,0.09987226,-0.0061837966,-0.03704356,0.01169624,0.026381185,0.04713767,0.14246736,0.03560933,-0.040271666,0.11520407,-0.021238873,-0.057839356,0.019103963,0.046073187,-0.04218701,0.02373438,0.097227685,-0.020572716,0.1131506,0.082703434,0.12076555,0.13108316,-0.098489,0.10886402,0.044615854,0.111761145,-0.034783807,0.065698035,-0.066739865,-0.023136685,-0.08827114,0.069558084,0.028466983,-0.12662768,0.059607487,-0.02475473,0.07426652,0.08813571,-0.019639326,0.04363791,0.025840657,-0.092606716,0.12013221,-0.0392723,0.020652559,-0.06381367,-0.016430575,0.046814647,0.10566184,0.111305386,0.075983286,0.032620884,0.013942188,0.08003254,0.050564773,0.010612636,-0.08292725,-0.043466724,0.08563102,-0.023648983,-0.13116033,-0.04072038,-0.060612615,0.065975316,0.016670763,-0.01463376,-0.0034811087,0.0054033687,-0.023439048,0.11487676,0.10009334,0.03752255,0.05422997,-0.067812525,-0.012787577,-0.11561688,0.041263603,-0.06789537,-0.06742902,-0.11470989,0.023075227,-0.020450598,0.106100485,0.043661423,0.065694965,0.07556216,0.12710762,-0.013435758,-0.05659284,0.07460809,-0.01782164,0.021162208,-0.06316213,0.06440064,-0.12972638,-0.049056187,-0.0069339746,0.060057234,0.008371572,-0.057608396,0.009663392,0.12545456,0.0838686,-0.08304746,0.08212749,0.014292367,0.044132,0.08608558,0.010158243,-0.042320617,0.018595142,0.100275345,-0.021990068,-0.071950585,-0.091852665,-0.04747186,0.062446635,-0.07054261,0.05282364,0.05301902,-0.09555746,0.11116401,-0.07297857,-0.10392072,0.053403422,-0.09509217,-0.03243137,0.014073415,0.01623342,0.07525453,0.07316395,-0.055358134,0.16975239,-0.0669805,-0.008340009,0.029396111,-0.10440543,0.056235682,-0.057260167,-0.01249619,0.025073536,0.08316363,-0.08087695,0.07512215,-0.12547934,0.013013364,0.12439992,-0.04859114,-0.050225403,-0.10484967,-0.05664469,0.14295642,0.14096057,0.06423891,0.006917312,0.017276224,0.122379266,0.028063944,0.13653263,0.11655316,-0.05880456,-0.032810096,-0.043277107,-0.046948798,0.032581877,-0.08144837,-0.16623642,-0.04408625,0.0060534007,0.027801344,0.032921266,0.06487156,-0.053619493,-0.022281181,0.16313727,-0.02139452,0.047834598,-0.056196313,0.15178439,-0.06370694,-0.114448786,0.1366164,-0.038839903,-0.100309946,-0.07405543,0.081059426,-0.02478714,0.037548307,-0.083078995,0.055232868,-0.006903433,0.012008012,0.021624418,-0.026133643,0.11277519,-0.00091971416,0.02466619,-0.053065315,0.1470751,0.025384966,-0.028612293,0.1038727,0.10465872,0.00497219,-0.0042455443,-0.07912757,-0.066049285,-0.03083788,0.036655072,0.031488746,-0.06956411,0.050136615,-0.007152713,-0.008606217,-0.11194129,0.08655148,0.100792155,0.123224534,0.12148727,0.004324133,-0.009061986,0.043088485,-0.13233478,-0.16536936,-0.07749002,-0.13498935,-0.0656392,-0.021461746,-0.09926073,0.039126992,-0.09688906,0.08638053,-0.07518481,0.050346926,-0.09857685
-0.0268106,0.0849545,-0.07068413,-0.118851416,-0.049831025,0.09387611,0.09449201,-0.0569555,-0.06823859,-0.03978377,0.036306478,-0.02473938,0.0928778,0.04288706,0.026965357,0.054333445,-0.08587272,-0.060164995,-0.024566973,0.13422997,0.10532578,0.04121534,-0.14663309,-0.019048385,0.08993242,0.10352463,0.08224367,0.04435053,0.11998044,-0.09440981,0.47383383,0.06613812,0.065564044,0.034382425,0.010144755,-0.033882666,0.050992623,0.113485165,0.02291526,0.14108281,-0.09122506,-0.015957259,-0.026262783,-0.26121816,0.094832934,-0.053887017,0.041357063,-0.10079591,0.035261683,0.060693223,-0.04207903,-0.122864164,0.07973982,0.11369897,0.034239437,0.11220705,0.111368336,-0.0428072,-0.06768811,-0.05794681,0.05009419,-0.070716776,0.06311377,-0.017959416,-0.06965304,0.056848787,0.00067730993,-0.07876628,0.042214558,0.11482724,0.02428066,-0.103131495,-0.023516344,0.28249627,0.0869639,-0.015904188,-0.13412434,0.012126181,-0.13102561,-0.0298554,-0.20775211,0.119665146,-0.08333159,0.006449014,-0.07056579,-0.11437764,-0.089883596,0.0950394,0.0867785,-0.092192985,-0.055912886,0.015693609,0.05351206,-0.00033362012,-0.06527673,0.0789103,-0.10734514,-0.017549148,0.029252494,0.08616378,0.079709984,0.07343734,-0.02636873,0.00769848,-0.089144155,0.03239604,0.0046818648,0.10456505,-0.10996735,0.088114835,-0.0050203847,-0.08447129,0.12518449,0.11430327,-0.013806498,-0.06657165,0.021341987,-0.018706955,0.063146,0.022988377,0.07471473,-0.058877256,-0.11141458,-0.11290954,0.047883265,0.0039027317,0.07869468,0.045406442,0.025004005,-0.096880235,0.069498554,-0.09442098,0.14517836,0.009562351,-0.0993511,0.061145723,0.008707076,-0.009519048,-0.108645104,0.121772684,-0.034366094,-0.034355476,0.11430701,-0.036719456,-0.019512862,0.032684468,-0.06207767,0.033507757,-0.021016411,0.018437343,-0.1079237,-0.035063118,-0.049598288,-0.020118468,0.083976425,0.053189173,-0.009554656,0.19120339,0.028126098,-0.067136295,0.066402115,-0.032138072,0.0120873675,0.05162538,-0.061775185,0.046303734,-0.08656151,0.13538621,-0.006514363,0.10375204,0.114698075,-0.012486474,-0.09833119,0.08714781,-0.014963732,-0.09111401,-0.11139675,-0.05317668,-0.027458467,0.077819206,0.08014944,0.013672392,-0.017734967,-0.07502328,0.04995615,-0.02623365,-0.01200705,-0.079382986,-0.07456904,0.01408857,0.09747803,-0.004016938,-0.078494765,-0.021460818,0.11057279,-0.0034677403,0.10118524,0.02131399,-0.0010753135,0.0012532094,0.12424033,-0.0025688717,-0.057472773,0.077684246,0.021280803,0.06364735,-0.034165554,-0.03706988,-0.05427767,-0.014657835,-0.13080762,-0.09037424,-0.08454251,0.028370507,0.06875553,0.021712594,0.0047356533,-0.083326444,-0.0042780982,0.08642474,-0.0565295,0.055339314,-0.023050487,0.108833514,-0.08492967,0.12163075,0.07194972,0.0140682515,-0.09587987,0.06001518,0.037599824,0.021092035,-0.050542552,-0.099222906,-0.043609742,0.097725935,-0.093846306,-0.037240736,0.056440257,-0.050536435,0.011586628,-0.020120434,-0.0712584,-0.001166504,-0.031006478,0.035092898,-0.059384197,-0.05994864,-0.044788525,0.08558152,0.092374004,0.074898876,-0.12653999,-0.043788888,-0.01592692,-0.07535433,-0.078357965,0.029065672,0.05446667,-0.03908843,0.03876198,0.02862773,-0.022413673,-0.09540574,-0.07831855,-0.020889338,-0.04647643,0.0038694611,0.12478278,0.025373898,-0.096578054,-0.071301565,0.014647092,0.0073434724,0.030956527,0.044787057,0.08654032,-0.11618874,0.14427753,0.08055691,-0.026542276,-0.04974034,-0.042245403,-0.096289635,0.092499964,0.111151785,0.066079006,-0.07879943,0.12680146,0.014817531,0.05526752,-0.07109744,0.009027749,-0.021058857,0.023900816,0.03517041,0.08653056,-0.0650256,-0.09885182,-0.020916231,0.09325788,0.049494736,0.03860084,0.089313544,-0.053320784,0.0060242526,0.114776224,0.0675257,0.10350781,0.094466716,-0.031154435,0.027625814,0.008854558,-0.090334706,0.084334075,-0.07155254,-0.17652391,-0.052205205,-0.11802763,0.058082927,-0.011802255,-0.1550582,-0.025453,0.068588145,0.09298993,0.03672005,0.053215493,-0.084596395,0.09754064,-0.114285626,-0.11936473,0.0128915105,0.0055222707,0.11098478,0.0123830475,0.10597963,-0.0727362,-0.13728,0.10705436,0.09800654,0.08822269,0.031620122,-0.0939587,-0.17705116,-0.07192215,0.027561776,-0.094654985,-0.27235037,-0.02683495,0.27663124,-0.13926572,0.09927435,0.025311267,-0.10801553,-0.1170749,-0.05048112,0.08841281,-0.036506142,0.19924253,0.1268681,0.049504142,0.09988538,0.028198488,0.15542379,0.075610936,0.02232721,-0.06334559,0.042433254,0.08592154,0.04752794,-0.020798368,-0.22139703,0.07832993,-0.030163784,0.05620788,-0.0013221469,-0.03721296,0.10191252,0.028934438,-0.10920012,0.032767065,0.09815231,-0.059640378,-0.104977414,-0.0070335865,-0.095927045,-0.085059516,0.009559153,-0.1310859,-0.33743253,-0.0694414,-0.23175229,0.018956734,-0.048431512,-0.010477933,-0.077194296,0.07754829,0.111251615,0.06480883,-0.079215735
-0.08787031,-0.042083345,-0.037577882,0.032567162,0.06921779,-0.12751833,0.10529897,-0.037065532,-0.25737852,-0.109672666,0.019934392,-0.0802262,-0.047518905,0.0460482,0.13605852,-0.037954297,0.047307797,-0.006964335,0.08064613,0.02967314,-0.07369128,0.008389757,-0.010440959,-0.061986092,-0.1062196,-0.030191038,-0.04572481,-0.076705866,0.05656063,0.01943584,-0.10430045,0.06553297,0.014855197,0.08794563,0.08085727,0.077090725,0.08512424,-0.051182814,-0.11475538,0.0049429694,-0.12717465,-0.034952246,-0.09581991,0.17825052,-0.012145765,-0.0715209,0.047601067,-0.057350993,0.093991004,-0.10173115,0.037692595,-0.041539133,0.03755702,0.017914435,0.12567367,0.17054234,0.0028020605,-0.023725366,0.05911441,-0.06633104,0.103122726,-0.02926454,0.09119727,-0.055351604,0.09988149,-0.07819667,0.16424832,-0.020952415,0.057771146,-0.034630317,-0.054174952,-0.009478781,-0.091781735,0.116680905,0.08540772,0.104586065,-0.014627311,0.062981844,-0.030598793,0.08879375,-0.056629986,0.0032529086,-0.05269584,0.11299291,0.075770184,0.022076098,0.038116433,0.08200289,-0.11648066,-0.05643519,0.008366311,-0.07605333,-0.065384574,-0.066905625,-0.02204344,-0.09963684,0.0688153,0.043668915,0.084528156,-0.0071921176,0.029164081,-0.010423817,0.058182828,0.035674583,-0.062451333,-0.11161438,0.050937526,-0.09876694,-0.07112141,0.027199524,0.14088666,0.09362813,-0.023371257,-0.08282497,0.04829711,-0.039813258,-0.105084494,-0.075272575,0.10131419,0.07847833,0.037190773,-0.077753566,-0.106511116,-0.07365751,-0.07073491,0.11303262,-0.12213319,-0.0887994,-0.030460346,-0.028049089,0.062265083,-0.08235867,0.09469422,-0.04350435,-0.005604926,-0.036173716,0.11243243,-0.0888154,0.026457945,0.020150492,0.071039185,0.055910755,-0.051153205,0.03142358,0.08960309,-0.06258082,-0.00082539197,-0.05925298,0.05634234,0.059801247,0.082799435,0.06380508,0.032977264,-0.11473943,0.10165343,0.06518089,-0.009363163,0.13776723,0.07696041,-0.11024445,0.061178375,0.018330196,-0.024020292,-0.027184775,-0.0030244384,0.08771637,-0.08461947,0.026169192,-0.048338365,-0.068046466,-0.053395778,0.12271634,0.01654853,-0.11676801,0.047175582,-0.011918522,0.03325653,-0.071298,0.06462886,0.108330436,-0.04145253,0.030323824,-0.034262627,0.0311235,-0.024587981,0.115522936,0.094498366,-0.040895324,0.008321892,0.1381535,-0.03724233,-0.07117342,-0.03431219,-0.037628025,0.06906347,0.047705807,0.10030945,-0.016793057,0.052158166,0.040990423,-0.028062845,0.0691851,-0.018205497,-0.06122865,0.02355709,0.051537216,-0.014665943,-0.06142269,0.08802777,0.04461478,0.044532895,0.07624901,-0.021956967,0.034449536,-0.08664858,0.018526403,0.0679312,0.04632717,0.11038829,0.0697161,0.08480477,0.054960284,-0.00693078,-0.08123976,-0.11031763,-0.09398595,-0.10837021,0.05868038,-0.024969686,-0.110138014,0.07196043,-0.086773336,-0.02880687,-0.03332553,0.10267427,0.021263575,0.008758473,-0.004693992,-0.05644927,0.11327856,-0.030696092,-0.07410048,-0.030410774,-0.076260604,0.068084575,0.055295266,0.12523484,0.111592256,-0.046385154,0.09700147,0.028315632,-0.08276426,-0.057527732,0.006969377,-0.022348244,-0.00829386,-0.065257214,-0.043265674,0.026869614,-0.13771,0.04487405,-0.10349218,-0.07463913,0.11202543,-0.037738416,-0.038254067,0.04713934,-0.055486523,-0.012182177,-0.0031961203,-0.035098024,0.03842158,-0.112191916,0.049029052,0.13515402,-0.110906936,0.06114807,0.11798908,0.0067373095,0.04765504,-0.01274622,-0.11320027,0.07910264,0.11348299,-0.052613534,-0.09144077,-0.011414599,0.057236016,-0.09589616,-0.050667986,-0.004649982,-0.10916363,0.07861353,0.08429319,0.053056177,-0.006995152,-0.07682463,0.07090448,-0.09422688,-0.10723175,-0.064299,-0.050508056,-0.059067186,0.1244493,-0.09706091,0.105267026,0.016431093,0.089538574,-0.03935422,-0.053865973,-0.09540008,0.11695369,0.0019691116,-0.012266258,-0.03405967,-0.077642106,-0.111247554,0.12869431,-0.09263357,0.012732746,-0.053275887,0.01906714,-0.059282072,0.05083982,-0.006040678,0.02399172,0.023847137,-0.070004016,0.11317584,-0.005080149,-0.07682102,-0.11116567,0.089176245,0.10252043,0.13516712,-0.09535016,-0.027999997,0.10098585,-0.03351868,-0.07310888,-0.1057007,-0.055728104,0.10985858,0.09954174,0.11211233,0.056482684,-0.049011543,0.058716748,-0.079986736,-0.034203794,0.0785001,-0.058188885,0.006949287,0.028085891,-0.024036514,-0.04016068,0.1163951,0.111859895,0.16463344,0.033714533,0.016967772,0.0052199787,-0.11977924,0.041843086,0.04359757,0.01738147,-0.073519245,0.0063591297,-0.11575653,-0.0683924,0.004649995,0.005409543,0.07516357,-0.07957404,0.054360513,-0.059498727,-0.035540894,0.037144277,-0.036037266,-0.009713991,-0.01612872,0.1411905,-0.043955784,0.041794457,-0.014945115,0.13206334,0.06860824,0.033544328,0.07593261,-0.009442931,-0.07062612,-0.14315972,-0.09292399,0.06726013,-0.08154551,0.027238477,0.048677623,0.01979268,0.122959815,0.11066157
0.0564646,0.039546125,0.0736998,0.049817637,-0.11259796,-0.06426469,0.009939686,0.033373836,-0.25543267,-0.06769321,-0.0018951787,-0.09003272,0.09303392,-0.013335729,0.14887825,0.043818787,0.0315631,0.011435773,0.040683422,0.084920935,0.0947895,0.00016414981,0.0016971203,-0.035373654,-0.13315004,0.10251065,-0.025049653,0.13641159,0.10901015,-0.12335793,-0.19360295,-0.00110863,0.034640316,0.16648912,0.062237415,0.093995266,-0.02455739,0.010874219,-0.120693624,-0.0633147,-0.06394065,0.13692792,0.06717343,0.14245465,0.08571123,0.017120572,-0.14621922,-0.054359246,0.07653037,-0.08784349,0.08304929,0.080618665,0.15789226,0.083306134,0.019729447,0.010543956,0.1375553,0.10255584,-0.037131973,-0.03477511,0.03634183,0.05971275,-0.015369611,0.050169233,0.1307786,-0.04795581,0.14029683,0.09095421,0.020681128,-0.01593956,-0.019431282,0.038963307,0.10274012,0.10280789,0.12461115,0.11019075,0.015094329,0.10379807,-0.014202414,0.058942623,-0.08275361,0.029971195,-0.08031768,0.056362927,-0.028224172,-0.055777878,0.13630544,-0.019864418,-0.034121886,0.002573275,0.0018908832,0.104507506,0.04497119,0.05037964,0.092167296,-0.004696615,-0.09639676,0.04932296,0.004041742,-0.007635494,0.008894259,-0.10189887,-0.10656282,0.11454327,-0.05329133,0.0118399095,0.03407536,0.014893156,-0.12494065,-0.099723406,0.007427231,0.09676834,0.11131348,-0.0329994,-0.043885283,0.058131315,0.11002745,0.0009851499,-0.10422092,-0.042212702,-0.011481744,0.00094749,0.051227473,0.11273163,-0.13671601,0.01774934,-0.08792525,0.061789885,0.10251654,-0.10784129,-0.06258284,-0.042036135,-0.089246005,0.013196305,0.0043998854,-0.03244934,-0.07466219,-0.10791952,0.025966885,-0.055324074,-0.06548776,0.021956192,0.028115101,0.0661614,-0.098726146,-0.030581329,0.040242996,-0.0029196292,-0.0867202,-0.100944065,-0.06161478,0.081006475,0.039176118,0.004268169,0.048757724,0.07250447,-0.08565238,0.059828654,0.019555144,-0.036724925,0.041928623,-0.026665295,0.016836982,0.10591603,0.081866995,0.14178549,-0.046290196,0.07039703,-0.055419605,0.07831119,0.05957421,0.105930604,0.030766647,-0.077666566,0.062403146,-0.0063036135,0.08047823,0.021063214,0.049849242,0.10683256,-0.08458751,0.20329098,0.12922047,0.04818006,-0.082678296,-0.05036269,0.081128776,0.04192939,0.0459131,0.18216817,-0.019062467,0.025519505,0.035313625,-0.014218438,-0.027232055,-0.07947308,-0.02490744,-0.03977475,-0.0905558,0.066786356,-0.14428195,-0.101970986,-0.027491475,-0.024699828,0.07554866,0.016785901,-0.03529921,0.039418347,-0.09103766,-0.051420234,0.050815914,-0.07120376,-0.056043226,-0.09325184,-0.062355507,-0.10812169,0.111541785,0.07799656,-0.09997424,0.03940679,0.109796904,0.06319443,0.019103572,0.07895208,0.05343885,-0.019053865,0.011988311,-0.13170065,-0.0041229846,-0.011436928,-0.071513504,0.1128959,0.002488928,-0.04257987,-0.074228294,0.11656435,0.023076832,-0.11026155,0.024614073,-0.114640236,0.047327466,0.10229208,-0.07542397,0.030548623,-0.0072022825,-0.041273654,0.04951892,0.09623143,0.09796574,0.043006085,0.0400598,0.10421414,0.01793195,-0.055258486,0.020038893,-0.049440384,-0.028589822,0.058060773,-0.11096632,-0.16910058,-0.009803943,-0.11280005,-0.04026009,-0.094032444,-0.10833237,-0.039760154,0.11758271,0.05985996,-0.04043513,0.017249696,-0.06261033,-0.030947082,-0.1489752,-0.078717306,0.15716642,0.022062968,-0.019121192,-0.0568211,0.10342869,0.0063943937,0.0982994,-0.015837772,0.10548762,-0.0407828,0.09709139,-0.053064473,0.13227299,0.027949274,0.044099376,-0.0043503917,0.06057235,0.0939837,0.025363987,-0.020278728,0.09814533,0.023712805,0.0700303,-0.0366637,0.06627749,-0.04132664,0.18894437,-0.06398705,0.074362434,0.030384287,-0.060247824,0.14298803,0.13459742,-0.117818795,0.06533582,-0.00032693334,-0.017468615,-0.008909123,-0.03623285,-0.026495112,-0.08394895,-0.08874777,-0.082133576,-0.07372217,-0.09303793,-0.032212667,0.10002652,-0.041752003,0.110997364,0.0055997088,0.07493415,0.17273262,0.06353598,0.07926215,0.06252286,0.032906633,0.086529456,-0.053968154,0.14462045,0.07715123,0.0013574073,-0.034588594,-0.107762694,0.034438338,-0.052705172,-0.022390313,-0.026135094,0.11532484,-0.02969676,-0.002495488,-0.044636432,-0.08697667,0.049217507,-0.14320485,-0.08287697,-0.049834996,0.006212351,0.11878628,-0.124527626,-0.03153972,0.045275338,0.07560021,-2.6920317e-05,0.031217765,-0.011716024,0.22369936,0.04475192,-0.008723401,0.07773895,-0.007542513,-0.11317686,-0.12346422,-0.014372246,0.0045726616,-0.088740095,0.11859459,-0.080721766,0.11598473,0.007508366,0.07324159,0.066860475,-0.10772061,0.022205897,-0.014538655,-0.094670095,-0.08503854,-0.030821308,0.13886455,0.049430434,-0.01324642,-0.002512358,0.15483421,0.017644422,0.0722189,-0.1093114,-0.006166337,-0.005525934,-0.220923,0.0059071025,0.012832534,-0.17266178,0.056969162,0.046304833,-0.03648044,0.011725743,-0.0048191855
0.12752265,0.0639441,-0.018303389,-0.009296942,-0.13741477,-0.060801096,0.14582635,0.028429253,-0.18395717,-0.11553799,0.0039819865,-0.07179169,0.0084265,-0.07674979,-0.024531968,0.08526695,-0.08184857,0.005180327,0.108556904,0.06039378,-0.089097045,-0.0026485,0.01875379,-0.0073012095,0.052619446,0.096755415,-0.12282375,0.09088108,0.10999462,-0.14841653,0.0017415568,0.0076567205,-0.03030154,-0.04025607,0.05894941,-0.004299368,-0.060551345,-0.04143309,-0.078701876,-0.043669164,-0.02462366,-0.015360247,-0.106818564,0.03370156,-0.06594263,0.064914964,-0.036510143,-0.06837388,-0.092888735,0.03643914,0.13916704,-0.094827645,-0.037725717,0.07644492,0.0062679844,0.09149197,0.11607647,-0.027280463,0.006374393,0.046304993,0.043874208,0.07312331,-0.07804239,-0.06562574,0.05310859,-0.092657626,0.023304442,-0.050585933,-0.095011175,0.055556037,0.07236435,0.0013339119,-0.118309826,0.10675871,-0.050929923,-0.009788064,-0.10132015,0.066195965,-0.057192348,-0.007315971,-0.03607394,0.08009069,-0.008539656,0.082802124,0.14991644,0.106115885,-0.001727795,-0.06644542,-0.07231606,0.13255611,-0.09950124,-0.009004031,-0.05421419,0.07647153,0.11925972,0.11991526,-0.08867752,0.075471416,-0.06331315,-0.035393275,-0.057978213,0.027434789,-0.045109548,0.0061106393,0.036660112,0.07721131,-0.06511837,0.050316058,0.04482313,-0.03171933,0.04245356,0.083206825,0.09823506,0.08143972,0.10520738,0.07708301,0.04619997,0.09018911,-0.102207445,0.04856967,0.06137625,-0.09225503,-0.061736256,0.11061634,-0.1481808,0.024441298,-0.11480176,-0.010096472,-0.06458415,-0.06829313,0.10968286,-0.011133555,5.8857033e-05,0.01517992,0.09231547,0.06188552,-0.030228805,-0.101763785,0.03352208,0.09573321,-0.07851117,-0.018362278,-0.092096135,0.028598957,0.008669928,-0.01280582,-0.021294996,0.01548063,-0.020396791,0.028048651,-0.1124516,-0.013793296,-0.03663988,0.09714324,-0.035700917,-0.020908942,-0.006568791,-0.021028822,0.042394258,0.07409496,-0.002098297,0.08403349,0.12423275,0.0967649,-0.0015262846,-0.004720229,-0.018802933,0.047636043,0.06437916,0.079928406,-0.001263611,0.14354216,0.15505783,0.08900983,0.07884173,-0.028676346,-0.0030275418,-0.12715547,0.10653082,-0.05588659,0.020793136,0.0034485688,-0.003214445,-0.07659114,-0.0103516495,0.03135845,-0.06527588,0.01791398,0.02744184,-0.054919984,-0.04663564,-0.04523332,0.14885595,-0.036585033,-0.09694002,0.10566095,0.016480416,-0.029612636,0.053791303,-0.02946206,-0.14198248,-0.010135884,0.109346285,-0.0922249,0.106211446,-0.065903224,0.012462135,-0.015282528,-0.056990456,-0.06787548,0.12721066,0.017130265,-0.08645704,-0.10810965,-0.03396736,-0.10847622,0.12597963,0.014709086,-0.07881684,0.109175496,0.06949957,0.015268024,0.028928615,-0.042963076,0.06978384,-0.028466381,0.01976956,-0.08358611,-0.02575759,0.1028197,-0.081604436,-0.021269586,-0.045762274,-0.10311963,-0.06953368,0.06994947,0.06412923,0.02615508,-0.08735865,-0.111115575,-0.12058478,-0.063019805,0.0840191,-0.02711117,0.048388056,-0.0984555,0.11321519,0.048308387,-0.055486955,-0.10475902,-0.037531156,-0.052140314,0.08601363,0.12168543,0.047834393,0.103974916,0.00932861,-0.007456042,-0.13637759,-0.023389336,-0.081207484,0.08099726,0.04473502,0.005807741,-0.048265886,-0.08942403,0.010897582,0.006021472,0.039813135,0.020264216,0.0066354126,0.026611127,-0.037522294,0.05516908,0.03306225,-0.068943396,0.1020615,-0.06543813,0.07769428,0.08933165,-0.0755033,0.020552007,-0.0964029,-0.057721037,0.017201025,-0.027300453,0.11492577,-0.0864388,0.058326412,-0.057787515,-0.07634732,0.044009373,0.0103501445,0.08453043,-0.11289539,0.029464407,0.0023281889,0.029831579,0.027981425,-0.0913072,0.016716503,-0.06341951,0.020069405,-0.076532856,0.0964041,0.011632685,0.050745532,0.013530494,-0.030948175,-0.027357534,0.080719545,0.052678756,0.063166775,0.010817032,-0.08004737,0.051259495,-0.058286346,-0.012037464,-0.12223915,-0.0025766275,-0.027133396,0.0367572,0.08678426,-0.094768345,0.073644854,0.07778359,0.12406268,0.12014318,0.04363989,0.0714289,0.019492615,0.06342141,-0.12325935,0.057493478,0.13618761,0.13005805,0.047491714,-0.05478266,0.059349634,-0.043206144,0.037521645,-0.042188864,-0.06004216,-0.0025475482,0.023282023,0.08425377,0.023732102,0.07013464,-0.09959997,-0.13982944,-0.08894165,0.044974647,-0.024449218,-0.022485692,-0.043463167,0.1234042,0.023421343,-0.063816324,0.15579844,0.00846321,-0.08831263,-0.03584256,0.006634315,0.026708469,-0.03324064,-0.12715207,0.103034444,-0.021393413,0.0002593028,0.015489134,-0.03702108,0.14289685,0.035589397,-0.08490084,0.06614212,-0.13271454,0.07937551,-0.020822378,-0.085413404,0.10408942,0.07721372,-0.030260602,-0.08125343,0.17884776,-0.042857442,0.020126589,-0.07832737,-0.023754487,-0.07949305,0.04033456,-0.01647795,-0.18727715,-0.01622375,0.037181243,-0.10447219,-0.06797386,0.14005627,0.037823003,-0.073616125,0.043835964
-0.02944681,-0.05310961,-0.13304189,-0.017500656,-0.1115533,-0.025854554,0.10065227,0.030375237,-0.026464775,-0.11949486,0.04785841,0.0053061466,0.0213255,0.072023384,-0.052096777,-0.046956513,-0.08505646,-0.019453771,0.036100794,0.08256645,0.095445134,0.0946762,-0.08263767,-0.1046767,0.013886144,-0.06868237,0.006697933,0.04863731,0.1122661,0.07617981,0.061276607,-0.030317813,0.040644456,0.045645945,0.12788527,-0.089487575,0.0029394303,0.09880852,0.0991446,0.040369857,0.047097348,-0.06812245,0.039925657,-0.011600137,-0.10932803,-0.092839755,0.0068267956,-0.06897667,-0.0138364285,-0.045510262,0.05397927,-0.019911483,0.064302005,0.05139067,0.0043981075,0.05801045,-0.06581403,-0.038426764,-0.032755304,0.01578983,0.009015483,0.07197029,0.048055258,-0.06685499,-0.0635985,0.08606563,-0.08479632,0.03224825,-0.012503199,-0.014991227,-0.04610902,0.030367397,-0.11138699,0.093693756,0.10745294,-0.017242096,0.084674604,-0.008505048,0.054457474,0.012379564,-0.026622308,-0.042704687,-0.101044096,-0.08432646,-0.063212484,-0.0060060844,0.019960964,0.0050290003,0.06617712,-0.071571715,0.036493912,0.029155381,0.060461245,-0.11437975,-0.10546855,0.11282856,-0.11429124,-0.13962731,0.15847774,-0.09020825,-0.04101696,0.05578489,0.11055278,0.017052226,-0.073363006,-0.0066509247,0.1505491,-0.046376552,-0.039289087,-0.025812276,-0.033274405,-0.06245825,-0.030461216,-0.04571595,-0.047294807,-0.08517743,-0.09835884,0.11250489,0.10169404,0.14823331,0.08727955,0.038643446,0.040142424,-0.044616245,-0.028624058,0.025793063,0.02915049,-0.042909645,-0.049294006,0.023007356,-0.06327455,-0.08819691,0.107236974,-0.027819946,-0.07727534,-0.025539737,0.071313776,0.0706236,-0.038963027,0.07707537,-0.06439723,0.045729928,-0.08317334,-0.064395614,0.10479962,-0.10064747,0.02841541,0.030137427,0.006074302,0.081165195,0.09686714,-0.110425726,0.0019004006,0.0263968,0.03658416,-0.09583838,-0.023577688,-0.08929877,0.06337807,-0.08256471,0.023616191,-0.08121465,0.06633953,0.075707056,0.06895917,0.029623821,0.066476874,-0.035708055,-0.02296681,-0.0669333,0.025707074,0.091713704,0.097360365,-0.019582808,-0.13261333,0.096114345,0.09318129,0.043025844,0.009569412,0.046956457,-0.110442564,0.08207855,0.054511853,0.03787618,-0.086020984,0.053329416,-0.06785971,-0.02123858,-0.02209116,-0.061017424,-0.045571692,0.0010421099,0.07414851,0.011427782,-0.03315661,0.002761297,0.040266864,0.035902977,-0.07617918,0.061367456,0.006717071,-0.06856987,0.0071335733,-0.021921456,-0.10595462,-0.046896838,0.0067408904,-0.043191835,0.05072736,0.05184192,-0.0946537,-0.11099582,0.05294207,-0.00705304,-0.0066380766,-0.052607536,-0.10283715,0.02608452,-0.10642717,-0.059675857,-0.028047048,-0.040764943,0.10969832,0.00868886,0.018996274,-0.11897253,0.07909579,-0.0717489,0.03955368,0.05723136,-0.09963025,0.07457968,0.032304086,0.062371343,-0.12999938,0.019765846,0.012357451,-0.09832393,0.07369412,0.003529554,-0.0075894594,-0.11153808,0.11404609,0.11256083,0.013583608,0.101053916,0.046937175,-0.003910996,-0.10074181,0.09412528,-0.11117166,-0.016039588,0.015328695,-0.002544582,-0.097379275,-0.020765334,0.07229874,0.108382426,0.10313953,-0.06750329,0.111671455,0.013371281,-0.09618749,0.01649954,0.054079093,-0.06883214,-0.044591628,0.008354709,-0.0059271627,-0.022386521,0.059661187,0.08375264,0.053324,0.0375567,-0.011382611,-0.08329442,0.03427624,0.055859502,0.059269868,-0.024931401,0.0634524,-0.059340995,0.02413126,-0.03778165,-0.045840576,0.082606725,0.009204753,0.035034582,0.12093932,0.03548012,-0.083166175,-0.026476637,0.07914326,-0.099891946,0.075921305,-0.06615567,-0.0151453465,0.068085775,0.05194693,-0.019270517,-0.06552353,0.013600453,-0.08488804,0.02964849,0.09516094,0.0641115,-0.054610025,0.11387091,0.01682984,-0.04630966,-0.073127925,-0.0027810922,-0.04697995,-0.092810735,-0.0127654625,0.03425137,-0.040923882,0.09737175,0.06850779,0.02357348,-0.10091404,0.013345975,-0.059340846,-0.0144602135,0.029346516,0.10149372,-0.05278474,-0.06231824,-0.0053923056,0.027218781,-0.10237095,0.115335464,0.07102598,-0.024869733,0.058811996,-0.024365582,-0.06736599,-0.15364385,-0.054881882,0.11156863,0.07256269,0.06716881,-0.087061845,0.023651011,-0.0745385,-0.083283395,0.024191283,0.028280012,-0.08195896,0.028755702,-0.07340057,0.0021143332,0.114077695,0.051951207,-0.09666444,-0.09916161,0.0750699,0.013006529,-0.009537868,0.001002603,0.08146757,-0.051895477,0.0118104,0.06071327,-0.018819205,-0.040044058,0.0449655,-0.107315674,-0.07550862,-0.04940554,-0.002142417,-0.09853794,0.062102966,-0.10904895,0.03605012,0.027921014,0.11079592,0.039742626,0.10121863,0.09041167,-0.08940771,0.06356557,0.0530333,0.050744586,-0.0022491291,0.011294626,0.09830457,0.106433876,-0.0015338357,-0.057135094,-0.023011155,-0.025911618,0.026031189,0.04680978,-0.00057692826,0.04016587,0.1123495,0.103720225,-0.058885142,0.04429223
0.072086744,-0.06995227,-0.03739384,-0.053787865,-0.043210447,-0.035224274,-0.08890043,0.06741295,-0.12297706,0.031723846,-0.010022223,0.09486846,0.12322008,-0.023037143,0.035818093,-0.07773024,0.057913117,0.07775926,-0.019328961,0.053141218,0.048347436,0.031338237,-0.07731733,0.007817581,-0.059254397,-0.06754094,-0.05996397,0.023693332,0.020271279,0.02663118,0.02325684,0.04252999,0.06033244,0.10714254,-0.086444035,0.08531508,-0.013598839,0.018690504,-0.09949079,0.025217202,-0.092685774,0.08707417,-0.09757096,0.027156075,0.0024585947,0.050144117,-0.030988283,0.031196259,-0.05173678,0.061795037,-0.049351722,-3.7019818e-05,-0.050099876,-0.05651263,-0.035201155,-0.08851361,0.067641504,0.11556291,-0.010634293,-0.059870895,0.028748535,-0.10552871,0.043167662,-0.09716386,-0.09491302,-0.041445777,-0.092308685,-0.11308356,0.01665654,0.08360718,-0.06716621,-0.031339936,0.043281518,-0.05695045,0.0051488876,-0.08632404,0.11348393,0.07477031,-0.05708397,-0.03164368,-0.0036594144,0.03906175,0.048680864,0.021527,-0.09948688,-0.012484513,0.07277545,-0.11078085,0.05869124,-0.051831618,-0.029963687,-0.112810925,0.047406413,-0.018453807,0.009489871,-0.115556836,-0.04259628,-0.08934472,-0.10797067,-0.11097256,-0.09723963,-0.009194903,0.021552585,-0.004110242,0.008797862,4.2252243e-05,-0.038541194,0.06013382,0.016482672,-0.031849675,-0.034087516,-0.032829463,0.03426949,-0.104739375,-0.08082385,0.07941853,-0.1154327,-0.05151704,0.01833009,-0.08315369,0.06866873,0.06768927,-0.046295688,-0.045906805,0.049775474,0.078854814,-0.09209167,0.11256448,0.040913194,0.046159126,-0.09328139,-0.040592827,0.061059725,-0.08613616,-0.0011349246,-0.057905633,-0.10269119,-0.07979565,0.039279573,-0.05673334,-0.088387065,0.011581697,0.04133851,0.015429117,-0.07918939,-0.068332046,0.0063822414,0.08781015,0.10682667,0.08511822,-0.11514147,0.09434042,-0.096789226,-0.07022081,-0.08081132,-0.041687552,-0.12524065,0.057165608,-0.045740947,-0.10992751,-0.017226154,-0.046187103,-0.054054234,0.120990925,-0.06544243,0.052108586,0.010613076,-0.09537136,0.039231397,0.051299095,-0.09890736,0.11024952,-0.053576767,-0.028525338,-0.0050237887,0.068057515,0.094060235,0.0057414174,-0.072678916,-0.11153447,-0.03318139,-0.0559065,0.09679768,-0.08526265,0.035295524,-0.046043813,-0.08428344,-0.042064413,0.08181707,-0.043720264,-0.06325489,0.03683125,0.068232134,0.10452775,0.0041130707,-0.08239809,-0.0807468,-0.03655413,0.015734136,-0.0639601,-0.09353323,-0.02109959,0.1077973,0.071398325,-0.10925296,-0.024796683,0.08110801,-0.020212092,0.035831444,-0.10550429,-0.07356379,0.07635503,-0.07129252,-0.03235153,0.067039825,-0.0070938617,-0.057958722,0.014729343,-0.03771461,0.097193114,0.054474734,-0.10794872,0.00067780167,0.11488102,0.027192818,-0.095955335,-0.13886733,-0.11501558,-0.09495767,0.08852031,-0.024159975,0.015200876,0.015901811,-0.11154419,-0.0031033906,-0.102067456,0.098660685,-0.043251373,-0.07526037,0.11346434,0.029663924,0.038164087,0.10246428,-0.09874924,-0.04565622,-0.038782522,0.09415359,-0.11518334,-0.038803026,0.0060976446,0.09270448,0.06999496,0.037317738,-0.05116433,0.10089194,0.025956057,0.019364692,-0.036530636,0.07975838,-0.14354143,-0.07164849,-0.033515006,-0.011408145,-0.12922625,-0.08226742,0.04265819,-0.06550097,0.083522946,-0.044240702,-0.09767972,0.019618936,-0.0436394,-0.05536625,0.08047243,0.069927394,0.035750218,-0.1154332,-0.045035295,0.0063568335,0.0481951,-0.062579766,0.009865233,0.03802658,0.085386254,-0.09130258,-0.07882206,0.027222905,0.07274824,0.09362873,0.0036381718,0.012727015,0.016205864,-0.07636763,-0.04353459,-0.107959524,0.018468551,0.09740504,-0.0038181783,0.027495539,0.041309603,0.045150265,-0.13759789,0.09042422,0.0882423,0.059985466,-0.09697225,0.039267145,-0.052352816,-0.0034268051,0.0022067765,-0.111555316,-0.10056305,0.0189831,-0.101744995,-0.046285503,0.04599303,0.0007476567,-0.07581283,-0.05245284,-0.087126546,0.09414,0.009567918,-0.09338469,0.0018590093,-0.113862865,-0.07265889,-0.043696206,0.047031242,-0.08282307,-0.025407393,-0.12544867,-0.033640645,-0.023183396,0.019832913,0.042802025,0.008577213,0.07447646,-0.010335177,-0.051590547,-0.086430974,-0.056657635,-0.019340634,0.085551925,-0.10943307,0.07325447,0.023746453,-0.1307758,0.046926744,0.02742491,-0.059521183,-0.08424281,-0.06438311,0.03686028,0.0180342,0.068149954,0.04642207,0.10234935,-0.10359647,-0.05022157,0.0017861914,-0.08200205,0.01156456,-0.0935777,0.06734607,0.0026798546,0.007088264,-0.05175907,-0.01518286,-0.0032658456,0.111104615,-0.10278043,-0.04498539,0.09159633,0.068760484,-0.09998628,-0.0187255,-0.078097984,0.092352696,-0.13986057,-0.078586504,-0.040640615,0.08773949,-0.08016932,-0.03558433,-0.038715325,-0.020766132,0.0443384,0.090241104,-0.09573726,-0.14727947,0.037614085,-0.09665009,-0.09919681,0.097212724,-0.08005949,0.09588957,-0.108503275,0.02404987,-0.09768992,0.12024766
-0.03485653,-0.09561783,-0.13064821,-0.043834846,-0.09335088,0.032020845,-0.024323957,-0.03254842,-0.16869709,-0.024345433,0.041732833,-0.013631844,0.0068540755,-0.066319436,0.11275136,-0.005541847,0.10992713,0.1149304,0.12096554,0.02483804,0.060837686,0.012132064,0.08129691,0.058755204,-0.095880404,0.047990926,-0.17209505,-0.019465413,0.097712405,0.038315237,-0.03601995,0.07378281,0.08996188,-0.032902844,-0.008982364,-0.036438305,0.04368902,-0.029359447,-0.13797621,0.011721857,-0.033773694,0.0004691076,0.0026362522,0.20210695,-0.090497665,-0.14294893,0.04487579,-0.032407414,-0.07860456,0.09467167,-0.005469829,0.037947483,-0.030414037,-0.08533185,-0.014596605,0.006757757,0.050980482,-0.02077197,0.09494234,0.061123155,-0.0061154603,0.16410013,0.0993293,0.08937494,0.024867447,0.09125703,-0.04104142,0.1525851,0.07682258,0.05845869,-0.1059742,-0.06048619,-0.00890814,0.0898555,0.053162944,0.11231386,-0.08881563,-0.081561156,0.06231696,0.019516297,-0.11931399,-0.024898177,0.07459762,-0.004170266,0.06408051,0.04663751,0.010713534,0.14413765,-0.03820924,0.07834942,-0.17013128,0.010467945,0.0490048,-0.037668727,0.08968493,0.06423239,-0.14987983,0.045338266,-0.039970107,-0.04938141,-0.05750445,-0.06714522,-0.0496249,0.034844648,-0.052165166,-0.108345814,0.02916158,0.097896226,0.052526973,0.03205896,0.09594987,0.107669,-0.11818882,0.088559866,0.075125754,-0.02322817,-0.020870512,0.12771064,-0.004166939,-0.024911443,0.008211764,0.11888411,0.020300763,-0.10487918,-0.004533664,0.13960847,-0.060545534,0.00015862571,0.11464898,-0.018848449,-0.083555184,0.061628897,-0.019806499,0.025045523,-9.763612e-05,0.03827838,0.074191004,-0.050071493,-0.037319586,0.07284276,-0.0028934295,-0.016184188,0.00885778,0.06830429,-0.02996178,-0.07821851,0.12257813,0.102637775,-0.0989269,-0.0028754412,0.043878708,-0.014336246,-0.024827925,0.051918622,0.04192975,-0.058623876,-0.06428957,0.09302638,0.049724452,-0.099201396,0.08390847,-0.11044622,0.11749587,0.084886,0.0064470842,0.020901356,0.11848907,0.096019104,0.039287146,-0.028210886,0.09425945,0.15957594,0.119587906,-0.0172007,-0.019633194,-0.005605576,-0.10070634,-0.16550675,0.07983525,-0.002238931,-0.08844,-0.075407274,0.077299416,0.12118094,0.077314876,-0.035036486,-0.06832315,-0.051427588,-0.10332885,0.004186327,0.04100372,0.10332944,0.09141353,0.054430425,0.00166997,-0.10526268,-0.06550633,0.08311867,0.0015393035,-0.0634285,0.1609319,-0.06739027,-0.060597982,-0.08314417,0.08382975,0.018685851,0.05038462,0.03861383,-0.09922445,0.07014474,0.012520706,0.029919008,0.11305331,-0.002311965,-0.049369615,-0.06347362,0.10247655,-0.12985642,0.106251,-0.08387328,0.06318737,-0.0328404,0.079197414,-0.03946031,0.09765465,-0.083706886,-0.03326797,-0.041398466,0.07190264,-0.061727475,-0.02364315,-0.029732825,-0.101446845,-0.05379627,0.059223108,0.15325399,0.076048605,0.06095803,-0.06476818,-0.09038694,-0.045556083,0.023820318,-0.032616027,-0.0155050345,0.10652297,0.10875006,0.047349393,0.06570113,-0.10329645,0.029806696,-0.032114696,0.0783747,-0.012878932,0.13753022,0.11851899,-0.06264583,0.10784215,-0.15230896,-0.07088133,-0.10247757,-0.08857295,-0.098512,0.015135237,0.12527752,0.094045356,0.10094207,0.024594108,0.06751364,0.06672392,0.076897405,-0.055080984,-0.09650709,-0.048277926,0.0531958,0.023301434,-0.06979641,0.09476238,0.15530337,0.011295815,-0.08670595,-0.05596285,0.07436481,0.10648552,0.015307762,0.042293,-0.05435127,-0.039506942,0.025950514,0.078906894,0.042229973,-0.045240305,0.029059922,-0.017043525,-0.08632457,-0.031212028,-0.10580696,-0.120813265,0.101058036,-0.07216104,0.097188465,0.18068804,-0.11902472,0.0025848066,0.07699479,0.036417574,0.0413162,-0.09877864,-0.05676061,-0.060573157,0.07273361,-0.0248159,0.023640594,-0.16856124,-0.047636017,-0.13394067,-0.0007302086,0.07498738,0.054518677,-0.01116655,-0.12485132,0.11413909,0.07808093,0.059896372,-0.071353264,-0.08036573,0.0077105872,-0.019403096,-0.12869816,-0.080931395,-0.08780245,0.0994571,-0.13674952,0.064507276,-0.076330446,0.060096566,0.002782081,-0.062399708,0.0509015,-0.06807952,0.04884791,0.14542024,-0.029444955,-0.058175277,-0.0496495,0.074988686,0.0047703334,0.10544991,-0.060178537,0.04981914,-0.11014208,0.09573393,0.1439308,0.18166913,-0.007090329,0.084235184,0.12036591,0.08187954,-0.018488042,-0.042940203,-0.017258963,0.08696217,-0.023617843,0.07128412,-0.01409334,-0.075747296,0.005259738,-0.030353984,0.13484386,0.025188351,0.0905608,-0.104011014,0.1496656,0.1249412,-0.006481518,0.106839664,-0.09590097,-0.00574714,0.12874743,-0.095854424,-0.0064450945,-0.071663156,0.1425376,0.05426806,-0.052979615,0.018148324,0.102377,0.012481118,-0.06286971,-0.13218048,-0.12856385,-0.04503847,-0.13453366,-0.016395636,-0.06178716,-0.040884443,-0.084261596,0.11278906,-0.11935184,0.0527573,-0.085964374
0.043518987,0.014566582,-0.013158722,-0.042375434,-0.0039412677,-0.09913434,0.04770229,0.12346982,-0.14125977,-0.09470148,0.12714095,-0.041713107,-0.06945967,0.02015716,0.011985732,0.009125656,0.105139375,0.06993426,0.061540358,0.033614445,0.15627769,-0.16726746,0.0699137,-0.00058188353,-0.05843156,0.09226114,-0.13654192,-0.034731243,0.074684665,-0.092729166,-0.05288003,-0.023166921,-0.005786379,0.07618054,0.054736376,-0.029755924,0.010518569,0.016135387,-0.08018171,0.05270686,0.039036833,0.03228687,-0.07010621,0.09428819,-0.06427211,-0.1022086,-0.14659387,0.008144341,0.04408079,0.028887311,0.04842288,-0.0715745,-0.031169271,0.09499022,0.15910445,0.17658952,0.05338692,-0.11259713,-0.07592955,0.048272926,-0.05624292,0.07061202,-0.013595733,0.121772215,0.10276941,0.0065568974,-0.05924538,0.027942806,-0.10588159,0.06783248,-0.106958345,0.069551386,-0.12901267,-0.024179641,0.06545493,0.02502704,0.0662356,0.0066687874,-0.0091288565,-0.11527781,-0.08806511,0.1939217,-0.0722054,-0.037322,0.06430091,-0.06854607,0.040831264,0.02961746,0.014616532,0.08036221,-0.04777865,0.11124928,0.11334765,0.04450199,0.009202457,-0.08595601,0.055191852,0.12466661,0.055364974,-0.07294782,-0.082406394,-0.08618257,-0.04317624,0.0061517037,-0.06901194,-0.076046295,-0.083296664,-0.042189315,-0.035094198,0.006108034,0.036443055,0.06458204,-0.0068136165,-0.060926035,0.15056704,0.016490052,0.09745401,0.113822594,0.02383274,0.027895667,0.11803986,0.14617616,-0.06475274,0.06668954,-0.09589519,-0.008333096,0.065579735,0.040778644,0.103303626,-0.018850237,-0.03875653,-0.058746215,-0.06977554,0.06687396,0.06432603,-0.077825464,0.061961047,-0.067311466,0.019453371,-0.044383306,0.04559697,0.051347878,-0.0628266,-0.065723784,-0.020174704,0.022574017,0.12532382,-0.096834786,0.09794245,0.09807357,0.074450046,-0.016349962,-0.15255211,-0.086032465,-0.036141768,-0.021967383,-0.1119064,0.020367699,-0.02319441,0.024208827,0.0369546,-0.06911537,0.12937416,-0.042549394,0.15090849,0.053990446,-0.010902704,0.0991289,-0.12453304,0.0125676235,-0.034643047,0.06496391,0.062017713,-0.13431893,-0.044132322,0.09516954,-0.043998897,-0.08772103,-0.032608744,0.055690207,0.056980982,0.011628611,-0.019258024,-0.01639506,0.06383564,0.054325894,-0.0011177716,0.010446534,-0.07385098,-0.016426798,0.0612293,0.04752591,0.057546988,-0.054128997,-0.0671229,-0.020491127,0.01422355,0.10526883,0.06933161,-0.014833214,0.155706,-0.0015637993,0.029349718,0.10092633,-0.044107642,0.07085224,-0.057931818,0.05477874,-0.08251929,0.014219961,-0.0327119,0.10949018,0.06291944,-0.112131186,-0.013806328,0.06146192,-0.07969668,-0.004474937,0.053416334,0.05292702,0.05399067,-0.040284563,0.04424042,0.026158055,0.048320282,-0.0954038,0.04929585,0.10139234,-0.036208957,-0.065057054,0.04104475,0.0089232735,0.053934302,-0.097144164,0.08291147,-0.017504858,-0.10729085,-0.09862144,-0.07506505,0.019972423,-0.028305514,-0.101649195,-0.11035627,-0.10433126,-0.051474266,-0.11450308,0.021634772,-0.07958389,-0.09981841,0.076733805,0.029104743,-0.06554909,-0.11144635,-0.025651202,-0.089392945,-0.06777744,-0.066780336,-0.047775835,0.033266377,-0.17234425,-0.025338449,-0.06351063,-0.12489297,0.124327816,-0.0020585991,0.035799995,0.024452502,-0.08465683,-0.0015368345,0.09755383,-0.095918134,-0.0085373,-0.049881857,-0.062062807,-0.03712435,-0.028150555,0.08884271,0.08785588,0.13160338,0.00044505298,-0.022983665,0.051573798,-0.11276244,0.04267127,-0.07075967,0.0047694813,0.023138927,0.06722977,-0.0019097421,-0.05879909,-0.035493933,0.025744244,0.013519808,0.056479357,0.06787937,-0.03576675,-0.071852446,0.06999754,0.042377736,-0.032570064,0.026539423,-0.0029719854,-0.057008963,0.14810602,-0.10602904,-0.00887121,0.02930128,-0.008778283,0.09222927,-0.10047893,0.0791641,0.083984986,-0.007416419,-0.10671619,0.017797887,-0.0016270077,0.103757195,0.070248015,0.052506752,-0.061384298,0.07448429,0.07583714,0.09225992,-0.053787995,-0.07770216,0.13504267,0.07904136,-0.07032708,-0.093392424,0.01965072,0.025968144,-0.044227622,0.008418572,0.027705954,-0.04546611,0.0840401,0.034591384,-0.026326112,-0.034723483,-0.035347324,0.000117087184,0.057212234,0.0015794156,0.03216999,-0.10204147,0.08547389,0.02900879,-0.028486032,-0.107859135,-0.07565083,-0.025815299,0.08288575,0.04118589,-0.03341667,-0.04284601,0.04851949,0.1380015,0.07659505,0.114962235,0.06344564,-0.046857,0.041956265,0.0023997927,0.15908733,0.0065194704,-0.07291787,-0.0011861633,0.053435702,0.0907073,0.119687684,0.10436059,-0.04870294,0.07021323,0.01052094,0.057004035,-0.006608273,-0.008936946,-0.0074364287,-0.11287489,-0.012987054,0.035498105,-0.004892335,0.028640348,-0.029426364,0.09086772,-0.001715122,0.101052,-0.12314569,-0.02621351,0.040682353,-0.06627463,0.0103048,0.045677394,-0.052382447,0.052335534,-0.022670928,0.020506771,0.0111883385,0.058341444,-0.085109055
-0.09981612,0.029084302,0.043065965,-0.09384413,0.057802893,0.07296519,-0.022119313,-0.04382216,0.085158475,0.09509539,-0.09237756,0.080776624,-0.034388643,0.11299925,-0.051687434,0.04243941,-0.10262369,-0.013256215,-0.030144125,-0.0035956427,0.062640615,0.09627359,0.070125766,-0.015057676,-0.07610685,-0.012786798,0.118324175,0.028665729,-0.029625427,0.09153158,-0.059028745,-0.08753523,-0.03177227,-0.07381908,-0.111539766,-0.07205114,-0.028906122,0.08146057,0.096412994,-0.06205181,-0.02883482,-0.05824883,-0.042638473,-0.050281685,-0.041033275,-0.051787548,0.07407627,-0.07639519,-0.06773315,-0.045942083,0.056296475,-0.031972073,-0.033785433,-0.10620779,-0.032850325,0.07004898,0.09835813,0.026821144,0.06804811,-0.02585607,-0.10333989,-0.10628041,-0.033712294,-0.104744285,0.021640174,-0.05408061,0.05541397,0.0430151,-0.093778096,0.007054482,0.09774462,0.09071671,-0.04155886,0.032224413,-0.0037367567,0.036378272,-0.013123512,0.11056612,-0.09367308,0.004672967,-0.004982984,0.051797695,-0.011682406,0.030108385,0.070781164,-0.07156943,0.050728925,0.0872161,-0.07240237,0.047676794,0.07961755,0.07993772,-0.07602918,0.078600176,-0.06908338,-0.043760255,0.07730914,-0.0844291,-0.04495603,-0.016259104,0.10107615,-0.028562933,0.082117625,-0.092639856,-0.100056484,-0.10296002,0.08512267,0.042661138,-0.13273673,-0.105704695,-0.090956196,-0.040319175,-0.020839816,0.111807056,0.109152116,-0.10526884,0.051884674,-0.0077408776,-0.08702147,-0.07680721,-0.082269676,-0.06126382,0.10928399,0.015383251,0.05451251,-0.08133487,-0.05216328,-0.032736935,0.09650261,0.06047026,-0.10273986,0.014654271,0.0126494095,0.05052165,-0.0002924502,-0.040308975,-0.05850914,0.03880266,-0.092526585,0.022240497,0.053630717,0.009623505,0.017908134,0.03485378,-0.04842008,-0.0022020563,0.050788727,0.109989546,-0.014251463,0.10981346,-0.046758793,-0.03868989,0.04632441,0.0822298,-0.07596932,0.036240157,0.049647946,0.094869174,-0.059731297,-0.078662425,-0.06646684,-0.08998685,-0.004744932,0.025263987,-0.08086052,-0.07550035,0.053972296,-0.017935224,-0.0072923526,-0.022484772,-0.112915464,-0.02897834,-0.09930399,0.098808385,0.06431805,-0.040144823,0.11247229,0.093867116,-0.10639443,0.043087445,-0.054421097,-0.028817646,-0.046464115,-0.10846334,-0.01873225,0.11298258,0.0100584105,-0.018598668,0.09992344,-0.083816804,-0.074596405,-0.07297534,-0.10716845,-0.04514329,0.01803606,0.08936172,-0.0699771,0.034853943,-0.024467722,0.06946034,-0.011792511,0.09225679,0.06262014,0.08514785,-0.08144682,-0.057302333,-0.012987964,-0.052091926,0.052378528,0.07519043,0.032901086,0.05548679,0.08182884,0.015768327,0.030006342,0.025822587,-0.019621722,0.008530326,0.065001376,-0.048729807,-0.097716235,0.036583655,0.023391329,0.0033359677,0.104021005,0.039135136,-0.01832514,-0.04922717,0.01818382,0.0669196,0.042131983,0.04376819,0.023142122,0.02840437,0.029567635,-0.08419863,-0.0060903654,-0.081587955,0.039749466,0.05896274,-0.02720046,0.063784786,-0.08888155,-0.08541222,-0.016397215,0.022214241,0.10006776,-0.07694098,0.006064959,-0.05686081,-0.023997009,-0.066780865,0.07908686,0.018583514,-0.058288764,0.10277305,0.081863515,0.053965233,0.066347115,-0.103881046,-0.050472975,0.02478414,0.02460856,0.05698737,0.042690866,-0.05567597,0.051639043,0.10684513,-0.020248681,-0.052451484,-0.0035507455,-0.049897395,-0.023480296,-0.07137239,-0.10409329,0.029434927,0.087000035,-0.07484443,-0.031030811,0.10877425,0.05732719,0.032610215,-0.10229073,-0.08184758,-0.021953672,-0.049664535,-0.07409094,0.11516484,-0.086871125,0.041320987,-0.033740677,-0.0002352299,-0.04685796,0.0021466315,-0.033978224,-0.010465734,0.09255817,-0.028745607,-0.08106241,-0.0131268725,0.045787033,-0.06442309,-0.046827808,0.06890445,0.079584114,-0.08480324,0.0032313466,0.1067831,0.034077443,0.063375525,-0.09181182,-0.08781831,-0.021572575,-0.062491078,-0.099161856,0.021754988,-0.02765014,0.00365936,0.069252826,-0.02307524,-0.004670596,0.015809588,-0.017376505,-0.068591945,0.060646646,-0.108295955,0.06864781,-0.048992064,0.111209504,-0.012101524,-0.07346888,-0.09007386,0.09435762,0.090988435,0.10993197,-0.030434422,-0.058778714,0.074038066,0.038795374,0.04460623,0.10984071,-0.0972364,0.07222284,-0.0919667,-0.09682707,-0.0029872134,0.019636638,0.09848822,-0.09921717,-0.14560606,-0.027345873,-0.06975457,0.008301578,-0.003996448,-0.028845679,-0.05565108,-0.050583467,0.014905359,-0.08674057,0.07220389,-0.054655887,0.11483238,-0.04252074,-0.08382788,-0.104606226,-0.113903545,-0.1104125,0.1054058,0.08721415,-0.035601698,0.05774341,0.09619395,0.09133545,0.046265014,-0.07156328,-0.059001707,0.060973026,-0.09605941,-0.021977462,-0.11429891,0.08154275,-0.080760114,-0.09072694,0.0656035,-0.057210803,0.08546031,0.09088523,-0.062430058,0.0045677978,-0.112478346,0.09432138,-0.08006925,-0.02199383,-0.043770842,0.007608004,-0.0067096413,-0.07818199,0.10627628,0.041190542,-0.08874278
0.11545549,0.11391058,-0.10276052,-0.019025391,-0.015820092,-0.1232168,0.092966184,0.05858673,-0.0071560075,-0.19987516,-0.021939982,0.11098018,0.055395085,-0.09114271,0.09021761,-0.019360008,0.062163167,0.005176309,0.12616685,0.017828312,-0.048322093,-0.113882974,0.07351355,0.09266152,-0.10588607,0.14592558,0.041621163,-0.008485333,0.049217843,-0.07992613,-0.07196222,0.067947686,0.05451267,0.02063499,0.109310284,-0.04456154,0.04136286,-0.13563673,-0.052840482,-0.040457003,-0.04569682,0.14263639,0.020600373,0.14578626,0.113142125,-0.0343756,0.046570648,0.080610804,0.09057717,-0.038284477,-0.0423877,-0.095918365,-0.029644292,-0.008728608,0.06140534,0.03686562,-0.05714968,-0.05030923,-0.039318956,0.13983476,0.06111792,-0.033851527,0.08513064,-0.0281893,0.0393795,-0.09169887,0.010527477,0.08448628,-0.10716088,-0.060035467,0.06888223,-0.015110982,-0.10407168,0.17515329,-0.020283887,0.0017135699,-0.08964968,0.12729473,0.039151285,0.0058549,-0.08657886,0.13050345,0.13492393,0.032656483,0.05334313,0.02597321,0.08078172,0.1476387,-0.063267134,0.013763843,-0.16662401,-0.010337675,0.002186916,-0.110846184,-0.07986805,0.08114658,-0.11437351,0.108360566,0.012580246,-0.08939687,-0.087948136,0.0499456,-0.12678295,0.03322962,0.05361998,-0.10627031,-0.11963757,-0.028086739,-0.102109954,0.10662322,0.11224851,0.06369487,-0.09148778,-0.07670344,0.066325024,0.120641604,-0.09837307,-0.08085017,0.03695959,0.068786025,0.1280053,-0.018149411,0.096184544,0.11185823,-0.023413982,-0.04049077,-0.028839437,0.14296256,-6.6043845e-05,-0.047342233,0.025731357,0.07714552,0.09447051,-0.027401797,0.08288489,-0.09880605,-0.08529322,0.012456097,0.029351113,0.039476316,-0.027645783,-0.022926137,0.0044721104,0.019681087,-0.057606496,-0.09139709,-0.014833061,0.10642127,-0.10240458,-0.03805666,0.056788314,0.1258964,-0.100205444,0.07463087,-0.009083967,-0.12088993,-0.117828526,-0.0059339306,0.11001254,-0.16834375,0.06575548,-0.00836913,0.083341844,-0.05484263,-0.026931757,-0.07625846,0.10106743,0.036360484,0.03500105,0.0043240436,-0.10537666,0.09270544,-0.052564148,-0.09950221,0.038437266,0.097042985,0.025480894,-0.026311813,-0.06301098,-0.0130393375,0.023514744,-0.08937676,0.059134662,0.12481658,-0.0015814656,-0.032261547,-0.008854467,0.050354872,-0.05228842,0.18547608,0.018846298,0.10798288,0.042717896,0.06287792,0.07099267,0.03337843,0.11210381,0.07994412,-0.090391584,-0.13609824,0.024890764,0.077216394,-0.06516362,0.06566439,0.100856,-0.04793825,0.020768045,-0.053352583,-0.04290703,0.025159385,-0.07340294,0.071236506,0.024773251,0.04475912,0.12586175,-0.046458278,-0.06614562,-0.018601792,0.10345176,-0.13578925,-0.04658456,-0.07917862,-0.059773777,-0.03944493,0.084105395,0.028183801,-0.063125566,-0.120941445,0.10963039,0.04632253,-0.023231454,0.041990273,-0.03202794,0.08431387,0.13934453,-0.058013283,-0.008526282,-0.012837815,-0.03912229,0.025879318,0.039045647,-0.040624022,0.08803687,-0.060846955,-0.0113931,-0.063716345,0.072864264,0.056108654,-0.08422223,-0.07470943,-0.04206295,0.11418407,-0.053103153,-0.014596814,-0.024757767,0.09678655,-0.063429825,-0.110221565,-0.020719562,-0.109732784,-0.10134677,0.010788582,-0.06262913,-0.07932968,-0.002818737,0.13509507,-0.082408965,0.07256962,0.04882426,0.11010913,-0.053245433,-0.098680586,-0.076229095,0.012997463,-0.06415164,-0.0555148,0.06799167,0.11160288,0.0999777,-0.03522464,-0.058892235,0.07806769,0.095067225,0.058432855,0.032869715,0.058402576,0.0184709,0.1007519,-0.06539964,0.023310363,0.023366667,0.013897819,0.064472236,-0.06770737,0.13078031,0.020594904,-0.039097562,-0.02397513,0.04898157,0.10426452,0.19205871,-0.20916891,0.08499291,-0.03741883,0.023736263,-0.08023171,0.110367686,-0.1143815,-0.071876064,0.052536264,-0.0004972981,0.0014989794,0.050354876,-0.037465338,0.03360922,-0.0892623,0.02361283,-0.049378622,-0.057997543,-0.11406817,0.06979352,-0.006271436,0.045318864,0.07227085,-0.114527434,0.12260547,-0.031237977,0.007907167,-0.015829667,-0.095448874,0.08859501,0.02915676,-0.029963212,0.06328532,-0.00017253497,0.12354792,0.022780418,-0.064313844,-0.08456095,0.07565797,0.1528174,0.08670574,-0.090131365,0.11423098,-0.034041543,-0.07828916,-0.017174128,-0.07813594,-0.0059879953,-0.023223488,0.08785522,-0.061441936,0.09868544,-0.05008039,0.1545277,-0.03328892,-0.0009186212,0.0036433863,0.13694333,0.049730793,0.0054968055,0.083860405,-0.112857856,0.07583388,-0.13027833,-0.08870994,0.123372376,0.08247365,-0.0866133,-0.02816786,-0.11354089,-0.04688636,-0.0007860535,-0.012835746,0.08652013,0.08915215,0.039151255,-0.005014358,0.042829607,-0.07142847,0.04078015,0.038403958,0.058379475,0.087217174,-0.06125145,-0.018415408,0.12737729,0.06624303,-0.039382864,-0.024851363,-0.072175734,0.008591208,0.08719725,-0.014664824,-0.12275144,-0.09058727,-0.07749668,0.016025592,-0.059765432,-0.07428624
-0.041954875,-0.07188673,-0.07296099,-0.06008584,0.026140822,-0.02020621,0.14243591,0.119769745,-0.13653448,0.023925707,-0.05455946,0.06531087,-0.035696097,-0.043165963,0.12821549,0.020862002,-0.06836065,0.090972774,0.10163978,0.091564536,0.11969272,-0.16358389,0.07400667,0.1685279,0.00013431704,-0.0027429557,-0.18219182,-0.033098936,-0.09492898,0.01709194,-0.11565323,0.0407891,0.0030606673,0.12668347,0.05207786,-0.02707918,-0.005304231,-0.055685963,-0.13325284,-0.07317929,-0.1282275,0.1540542,-0.057938684,0.081465915,-0.0054459963,0.060376845,0.009164858,-0.068319485,0.090227306,0.09066053,-0.004400868,0.020359932,0.018353127,-0.0050601675,0.16206752,0.18892655,0.1331278,-0.072028115,-0.05322224,-0.06525846,0.035005007,0.124588326,-0.04376048,-0.0017782315,0.014154192,-0.06444089,-0.008018862,0.03239452,0.04532161,0.06844186,-0.112423226,0.057771716,0.0490932,0.08609536,0.0036422487,-0.046432484,-0.10532285,0.013700796,0.07047747,0.08098372,-0.16875546,0.13642049,-0.028780831,0.14345501,0.112001315,0.092010245,-0.045053784,0.022097081,-0.025876904,-0.06465,-0.12889479,0.06942938,-0.05748358,0.08348027,-0.009972962,0.121967345,0.022574136,0.041830003,0.0029871434,0.090115525,-0.039548118,-0.10661938,0.04218546,0.11951901,0.0112648085,0.06675351,-0.12247149,0.10264719,-0.034375254,0.012536901,-0.001583425,0.066638656,-0.06016563,-0.06660106,-0.046259876,-0.05177601,0.068936676,0.060474943,-0.048383705,-0.016730327,-0.04252492,0.08765347,0.03917593,0.06888813,-0.094082244,0.12049956,-0.00081079913,-0.06818851,-0.0629469,-0.06328778,0.12944956,0.10260694,-0.09564917,-0.079450585,-0.017862746,-0.08260389,-0.08450848,-0.052204486,-0.13017853,0.016953874,-0.009232866,-0.02313061,-0.0848895,0.054366764,0.014290408,-0.07159217,0.15471019,-0.10645369,0.038509287,-0.101079285,-0.041535523,0.13835044,-0.08344318,0.013976777,0.16771582,-0.026072282,-0.07915023,0.052215688,0.07945389,-0.046927907,-0.02711782,-0.016408855,-0.06519633,0.08762835,-0.07290916,-0.018855723,0.0022493573,-0.02438972,-0.07959556,-0.0097312415,-0.021518022,-0.04219497,0.12669575,-0.1037005,0.04071725,-0.025736675,-0.08110231,-0.032422204,0.06168371,-0.052819937,-0.08182776,0.026908878,0.07836792,-0.058421057,0.03002131,0.05313345,0.036169905,-0.060265087,-0.033232853,0.015188358,0.036107335,-0.09367915,-0.061576214,-0.097810484,-0.02807371,-0.009079123,0.0196359,-0.03654345,0.045258764,-0.10509005,0.12379678,-0.009317256,0.07110468,-0.10446155,-0.085687,0.087204866,-0.03198921,-0.032400765,0.09522777,-0.10178467,-0.020988397,0.05611797,-0.04655697,0.058038127,-0.015960598,-0.061294146,0.026997318,-0.06352989,0.07388978,-0.10036312,-0.057156384,0.082891785,-0.092494644,0.034194563,-0.027962685,0.03902626,0.08511507,-0.10361187,0.11991078,0.102602996,-0.08789529,0.113403074,-0.09016377,-0.08152147,-0.04696374,0.02190212,-0.11523323,0.060435127,0.0030486435,0.059483998,0.017031724,0.111116864,0.004431285,-0.013242319,-0.0831718,0.057960995,-0.0055113235,-0.085329615,-0.024268568,0.05029931,0.04851773,-0.017921854,0.02449792,0.0008999943,-0.0261844,-0.08952865,0.0965292,0.03012106,-0.00577054,0.03613619,-0.028000362,0.0674755,-0.025654973,0.01944488,0.031208634,0.048670247,-0.00217332,0.059775304,-0.12131863,0.11506196,-0.109142825,-0.046335623,0.057473674,0.047089025,0.13554983,0.059471525,0.015031196,-0.035185583,0.1352755,-0.06595586,-0.0838537,0.1014082,0.008116221,0.054926313,0.06637104,-0.08474413,-0.019207401,0.015441894,0.0030868172,0.08299541,-0.08264454,0.10844679,0.039281752,-0.01368554,-0.05364258,-0.11045807,0.060750805,0.14380649,-0.12756127,0.108938314,0.100937754,-0.22315016,-0.0014474845,-0.05226432,-0.08342771,0.017799158,0.031355377,-0.11483314,0.05671337,-0.03296826,0.11392526,0.11963882,0.005640201,0.041965608,-0.13225216,-0.13421136,-0.07835865,0.025842309,-0.12755731,0.0975736,0.15412556,-0.015655098,-0.015760895,0.13355905,0.10592562,-0.0026459643,-0.050464526,-0.017066905,-0.10711982,-0.06516129,0.0139291,-0.10908179,0.089764684,0.07813646,0.02735249,0.013568069,-0.11529957,-0.11010352,0.016421592,0.14517255,0.10970529,0.027644519,-0.05585501,-0.039497398,-0.013446874,-0.06262897,0.10738707,-0.016159054,0.010853302,-0.025003409,-0.04133381,-0.0138829285,-0.026594924,0.018124802,0.0031051778,-0.08183675,0.067257136,0.082097396,0.10193138,0.10893069,0.10565216,0.1121751,-0.0067499387,0.01364084,0.040589977,-0.04165021,-0.025330624,-0.05436388,-0.04363146,0.13610668,-0.09702395,0.1430976,-0.038023245,0.12577192,0.112147756,-0.13235188,-0.014340584,0.13444664,-0.07680819,-0.0455133,-0.03108035,0.0043404107,0.024997404,0.011820015,0.10224381,0.1210006,-0.010196006,-0.016074631,0.050719015,0.040798668,0.06302494,-0.07525292,0.093913235,-0.034813166,0.03269993,-0.01965866,0.12357349,-0.03959728,0.07299872,-0.08798784
0.01519645,-0.06582156,-0.04458702,-0.08235561,-0.1132995,-0.012843611,-0.008715235,-0.0132239675,-0.034905773,0.08644495,-0.08234723,0.04847727,-0.09133609,-0.06960158,-0.09192864,0.01896704,0.0075671077,-0.005628258,-0.09531089,0.09836183,0.07135076,0.049706973,0.05672749,-0.05370027,0.027797423,-0.07598837,0.09613165,0.08425031,-0.11215036,-0.022379294,-0.08874819,-0.0928168,-0.032126717,0.03628494,0.042701863,0.07327589,0.0986053,0.1096729,-0.067261666,0.090294205,0.04620447,-0.08420211,-0.11413098,0.018106736,0.08132971,0.023181014,-0.10690249,-0.031706795,-0.024914071,-0.007331319,-0.0035354793,0.029531632,-0.1001425,0.034865953,-0.10426813,0.064179294,-0.015906855,-0.03924579,-0.02882506,-0.012564518,-0.06351428,-0.06744751,0.02231396,-0.0072658956,0.020568408,-0.0219663,-0.031056829,0.075123064,-0.024151683,-0.13084026,-0.0640177,-0.03578958,0.024400301,-0.04709798,-0.099715635,0.044617765,0.10136027,-0.06900144,-0.09314442,-0.0024036095,-0.03000928,-0.108308725,0.09674493,0.013811149,0.055204533,0.06605496,-0.040524554,0.04814086,-0.09057332,0.054367073,0.0530406,0.08278736,0.04306785,0.09026817,-0.058733705,-0.10623752,-0.07271789,-0.09276504,-0.08436755,0.042279847,-0.079374984,0.03599579,0.08511404,0.074859224,-0.02341035,0.0019677654,0.018675648,0.109313376,0.008029833,0.030200459,-0.11149721,0.105715804,0.05859665,0.082472436,0.10827804,-0.032903075,-0.103963725,0.09522615,0.06510169,-0.13321427,0.04848314,0.07493263,0.014365755,-0.0043773204,0.017767213,0.0013804659,-0.05532093,0.113860436,-0.050033633,-0.034328878,0.0901152,0.05971419,0.041679613,-0.10928962,-0.06425798,0.03251537,0.01343859,-0.073319376,0.05100151,0.02648481,0.03514871,0.09972759,0.0047150254,0.017931722,0.06903953,-0.047424637,-0.020562196,0.07545441,0.02294647,-0.11436139,-0.06435105,0.024085946,-0.061089,-0.10967422,-0.07721932,-0.07103771,-0.005500443,-0.056724023,0.10090274,-0.060826704,-0.05761352,0.08263596,-0.023730688,0.02882845,-0.08772981,0.0045340657,-0.06124439,0.065414645,0.093466304,0.031987064,0.038745843,0.053921912,-0.04860363,0.085864685,-0.046571158,0.010839216,0.0951133,-0.10066103,-0.0365284,0.02744592,-0.11304393,-0.06626473,-0.10530779,-0.100779705,0.01797656,-0.09252493,-0.043628134,0.026681162,0.011238955,-0.012630999,0.051651917,0.042571507,-0.11213522,-0.02130878,0.008037955,0.034762435,-0.024968281,-0.0534695,0.020577066,-0.05502848,-0.08902922,0.03852544,0.008492574,-0.08417766,0.060693286,0.031010412,0.02073697,-0.052991733,0.030786894,-0.064446904,-0.10908453,0.060961924,0.0071262717,0.0310724,-0.048048064,-0.011754125,0.03168828,-0.029085591,-0.008349501,-0.08468554,0.09921607,0.014762051,0.0013467893,-0.028634481,-0.0341125,-0.024765307,0.008597013,-0.017364077,0.102357425,-0.08456597,0.0005239025,-0.008557446,-0.023072727,-0.023688447,0.014901079,-0.042840883,0.0041745007,-0.026743144,0.013053425,0.03749468,-0.00025725365,0.064606674,0.011652149,0.070177,-0.07353625,0.084907,0.079046495,-0.033490837,-0.041286066,-0.08445208,0.05725143,-0.022303946,-0.022267096,0.04952299,0.0874948,-0.01107844,-0.082621515,-0.110287204,0.0013721958,0.07874698,-0.017509185,-0.056327756,0.030084036,-0.054863658,-0.047341406,0.08146631,0.059525557,-0.07855858,-0.03999707,0.10487076,0.04618501,-0.07742106,0.0094547495,-0.031142183,-0.06971381,0.026479058,0.038425036,-0.108502835,0.07901163,0.026526548,-0.04141891,0.068792365,-0.11371233,-0.081948236,0.07067364,0.08050873,0.090378635,0.07171743,0.045709826,0.08902872,0.087807484,0.04144708,0.089441694,-0.07302172,0.0500777,-0.028559841,-0.0066517293,0.09184473,-0.0064307153,-0.0887721,0.03099385,0.05063864,-0.047377534,-0.115317196,-0.0341214,0.014664076,-0.080349535,0.11062045,0.0049374998,-0.07456584,0.008590192,-0.112562075,-0.01584614,0.013918288,-0.10472909,-0.06778516,0.059967835,0.02158869,-0.052821357,0.0050864955,0.006295459,0.05454091,0.010486491,0.0030185431,-0.07661265,0.043850902,0.069979884,-0.023187215,-0.10538278,0.02886144,0.008673125,0.0134347305,-0.01760231,0.048485063,0.04209373,0.07605774,0.07455801,-0.05481272,-0.06641312,0.043314047,-0.025808416,-0.10021929,0.05712492,0.081915565,-0.10611689,-0.05432226,0.10892808,0.047943227,0.04200282,0.021306371,0.0335088,0.11406202,-0.043328546,-0.019149177,-0.0655039,-0.06335753,-0.038445145,-0.022773793,-0.060735893,0.03697218,-0.025950603,-0.0065871775,0.06536915,-0.0005216971,0.008955069,-0.110712714,0.098402224,0.08376617,-0.10901921,-0.04684925,-0.08905803,-0.10377918,-0.018494599,-0.039040104,0.0748586,-0.009790629,-0.073630646,0.08027027,-0.062293686,0.045804255,-0.113590926,0.028499193,-0.06591019,-0.115374304,-0.0001667738,0.0046406984,0.08032691,0.09050568,-0.030522497,-0.108341604,0.021963216,-0.0014255377,0.057333477,0.10782903,0.013158597,-0.092315316,0.0008399412,-0.08053921,0.019395448,-0.061652977
0.15334131,-0.08437273,0.048409328,-0.00071300374,0.012318853,-0.13951565,0.14328916,-0.09162208,-0.1518069,-0.10563187,0.049095765,0.108730525,0.1327462,-0.08249453,0.1470358,0.044611506,0.08173437,0.09410315,-0.07048549,0.07794163,0.14369193,-0.040922128,0.051761907,0.081323214,-0.03444673,-0.040428445,0.0084179165,0.0926669,0.0041253106,-0.016237864,-0.0829482,0.111945815,0.10767082,-0.046154283,-0.03511501,0.12698181,0.029202884,-0.008520066,-0.022057043,-0.12326919,-0.059191316,-0.046719737,-0.03469147,0.11347006,0.10026961,0.02147956,-0.02408312,0.07444487,-0.07464871,0.07624756,0.13262585,-0.16670118,0.14470115,-0.1000203,-0.040205248,0.030013746,0.14226256,-0.07535479,-0.0976935,0.047182396,0.100756176,-0.05733666,0.045147084,0.014223996,0.09146341,-0.10273197,0.10971283,0.11369593,-0.11482616,0.055411413,-0.051643196,0.13305168,-0.12793107,0.08552985,0.13001713,0.010139851,-0.09276909,-0.058491692,0.106599376,-0.019818097,-0.03968123,0.02200039,0.05503576,-0.022580259,0.059808824,0.1476848,0.0018364143,-0.033194277,-0.0006710034,0.09248462,-0.15150669,-0.015915997,0.04043857,-0.053955205,0.04614118,0.033256862,-0.0066862125,0.09984742,0.14508408,0.10475964,-0.09039024,0.030067064,0.015766509,0.033178404,0.08369934,-0.09873932,-0.1047515,-0.035793133,-0.08088481,0.08812179,-0.055073276,-0.009233713,-0.13191703,0.11395067,0.06598058,-0.06643469,-0.008028515,-0.063166335,-0.103345506,-0.110982135,0.12864807,-0.007813699,0.07397947,0.036148272,-0.06256667,0.022202436,-0.08479701,0.07111921,-0.0062071085,-0.0021551177,0.09638057,0.013127592,-0.061830252,0.015659697,-0.049448635,-0.074017994,-0.0875251,0.05873304,-0.07296934,0.1261093,0.060265787,0.13469513,0.097505085,0.114784814,-0.026342764,-0.040920552,0.13790496,0.085927196,-0.09658754,-0.07345154,0.052283723,0.096005924,-0.093282685,-0.03953914,-0.026237356,-0.093147755,-0.042054124,-0.03210699,0.08239464,-0.059440214,-0.047953743,-0.027349824,-0.018751377,0.05276789,0.116501585,-0.0495812,-0.023951035,-0.0074074315,0.074600965,0.103549525,0.055243127,0.07284502,0.007725849,0.009829985,-0.041854046,0.08329541,-0.07913182,7.0923794e-05,-0.021007407,0.07722343,0.05153718,0.054481294,-0.0850863,0.06257989,0.06316939,0.14398909,0.11535289,-0.124278,-0.018152138,0.09164949,-0.066113636,0.086179055,0.043000698,0.03590695,-0.0048434497,-0.020714808,0.09000043,0.12347748,-0.081604116,-0.0101445615,0.16569693,0.018846072,0.07057918,-0.08981125,-0.03570434,0.031892292,-0.04812713,0.04725636,-0.009514689,-0.13504568,-0.039088327,-0.046366636,0.10456672,-0.0901524,0.021705259,0.009864378,-0.0010858495,-0.108368315,0.09901044,-0.1460258,-0.035825,-0.035358947,-0.065233156,0.088289894,0.06394894,0.09266413,-0.069276646,-0.12080461,-0.08049331,-0.07354094,-0.09850825,-0.051789314,-0.081256956,0.053131502,-0.051175274,-0.06079953,0.004974561,-0.13210212,0.05043503,-0.039935835,0.041432336,-0.020188294,-0.020018741,0.06712501,-0.013999529,-0.013198276,0.09593226,0.10562067,-0.037770957,0.017617472,0.022150146,0.09203407,0.002899435,0.008155972,0.06328684,-0.017934673,0.051708378,-0.02869399,-0.01314688,-0.10863816,-0.07548298,-0.06561005,-0.1278258,0.124426894,-0.1339982,-0.018529715,0.07307153,-0.09691604,0.02711435,0.061701708,0.00068472326,-0.008409254,-0.063242175,-0.14561816,0.09347202,0.07155829,-0.1127937,-0.010315089,0.1497247,0.051918603,0.09721984,0.033808738,0.1136506,0.04713572,-0.06259184,-0.028417617,0.09407278,0.12971933,-0.03656552,-0.04290884,-0.028230906,-0.10922941,0.06673707,0.08721893,0.008775388,0.025189556,-0.10303586,0.023195677,-0.11153329,-0.024061607,0.0044062417,-0.0062697455,0.052117903,0.10361667,-0.034848794,0.14880912,0.07732546,-0.11498164,-0.05027179,-0.062407874,0.06494725,-0.0022645565,-0.06682564,0.07338485,-0.09099991,0.06988166,0.16751666,0.039378997,-0.10317582,-0.06354872,0.018744214,0.068875276,-0.04475712,-0.0048303395,-0.025563313,0.05173287,0.09707977,-0.0994318,0.028878698,-0.05038448,-0.054143354,0.030768692,0.0017669058,-0.010049974,0.15032035,0.09701399,-0.12899274,-0.101216815,-0.082767576,-0.003136157,-0.056622908,-0.021780685,-0.059539016,0.117412016,-0.046540093,0.075697444,-0.03299765,-0.1432665,-0.1048307,-0.22505604,0.027510328,0.103691235,0.011978222,-0.08672674,-0.046059832,0.084754325,-0.046872623,0.07906647,0.0647032,0.07394419,0.12994227,0.06681265,-0.13678898,-0.036594708,-0.058593385,0.03147288,0.076009035,-0.03806524,-0.06210752,-0.02962792,-0.03366372,0.08975945,0.090645514,-0.0084834825,-0.085491106,0.027944686,0.09279644,0.036077064,-0.052898373,-0.029121656,0.085109435,0.14952895,-0.055149715,0.081005774,0.13437514,-0.01725948,0.01281471,-0.09266029,-0.14043336,-0.113491505,-0.04560592,0.023245975,0.056184664,0.09368,-0.14993083,-0.08079534,-0.034822535,-0.10620065,0.14317547,0.03895182
0.10485526,0.048733655,0.011409442,-0.0022976436,0.035164945,-0.099483006,0.0674888,0.043177463,-0.13578627,-0.046680123,-0.048755907,-0.1284087,0.10178267,-0.10547307,0.13451838,0.09796684,0.007337883,0.019685693,0.0879492,-0.067289285,0.09953845,-0.060608704,0.066344745,0.10658749,-0.021270618,0.11471229,-0.12283439,-0.0026770465,-0.07274746,-0.06897219,0.003286907,0.038847554,-0.06369928,0.083128065,0.06866008,-0.0985565,0.059755024,-0.062756196,-0.01287682,0.07347795,0.07956806,0.022550821,-0.027117059,0.093251176,-0.05509824,-0.04926651,0.101179786,-0.044576667,0.00975538,-0.06819568,-0.06686212,0.016462537,0.07477106,-0.10679519,-0.01632768,0.047273003,-0.057256967,0.030936368,-0.11093483,0.042998664,-0.04237687,-0.06364508,0.025214039,-0.027756283,0.014509462,0.08751153,-0.039425127,0.10586407,-0.10396822,-0.06329316,-0.11651236,-0.034974165,-0.11315932,0.094942704,-0.029099263,-0.03772358,-0.04057516,0.049099658,-0.049047314,-0.019899622,0.03810136,0.016399872,-0.11323423,0.09624622,-0.050915882,-0.09803842,0.05357531,0.115082435,-0.004553765,0.05242186,-0.06118681,-0.09461784,-0.09572521,0.06593535,0.006504622,-0.048983976,0.015274607,-0.07849559,0.011821762,0.038391657,-0.096537456,0.11517843,-0.037152544,-0.033281203,-0.06050336,-0.036021285,-0.052323017,-0.040125925,-0.028782412,-0.10109762,0.053159,-0.05580994,0.12470894,-0.081333354,-0.010231565,0.10391285,-0.015109383,0.03632272,0.050064243,0.040188592,0.08961853,-0.052340887,0.11453036,0.00768815,-0.11051398,0.03410603,0.06958642,-0.088954315,0.07113022,-0.06510796,-0.06296904,0.09993381,-0.07587441,0.11203467,0.09376729,0.0066500944,0.08704501,0.09193144,-0.06390682,0.05626426,0.011771837,-0.039622627,0.10556441,0.08645714,-0.013283968,0.058271535,0.079835355,-0.05212269,-0.07478608,0.010374828,-0.10747492,-0.08902231,-0.09390092,-0.029593822,-0.07657918,0.075295515,-0.0063281124,-0.023018617,-0.039526694,-0.060729966,0.101194195,0.082443304,-0.08958325,-0.025365645,-0.0630084,0.01968254,-0.056885943,-0.0028384626,-0.03262146,0.10431096,-0.08472146,0.08126021,-0.049418114,0.017860912,-0.028965542,0.09657695,-0.026586846,0.0402982,0.05468025,-0.011905208,-0.08104015,0.09863124,-0.062033895,0.03139762,0.049973376,-0.11271435,-0.09718674,-0.07849483,0.0863053,-0.06094359,-0.08216431,-0.062081993,-0.005380856,0.005855987,0.08858367,-0.0998931,-0.069655046,0.053535484,0.08390632,0.01256994,0.026273629,0.030429564,-0.04422088,0.032143258,0.05978162,0.06442477,-0.03168863,-0.107785575,-0.021380909,0.03285485,0.029745223,0.064525925,0.106609926,-0.051671512,-0.091888934,0.018206917,-0.07695864,0.04421156,0.06467284,0.07660381,0.027916275,-0.039637268,-0.09811689,-0.0660297,0.007926519,0.073050745,0.06707069,0.058072586,0.0048185717,0.04666426,0.018781833,-0.113711864,0.09518719,-0.08627216,0.07674614,-0.045493424,0.039664052,0.040507145,0.059004195,0.08156019,-0.024964752,0.10907436,-0.115179144,-0.05598027,-0.08067969,0.0860023,0.03640345,0.06800515,0.066342644,0.026090674,0.0770236,0.053689994,0.091757804,-0.09765776,-0.023876347,-0.06479095,0.028585665,-0.053801637,0.048263527,-0.17724696,0.09387899,-0.06268028,0.04920569,-0.0316414,0.084090866,0.07828436,0.067283385,-0.06477078,0.11006522,0.04126551,-0.015507437,-0.06473632,-0.08979066,-0.057675175,0.12573841,-0.025863484,-0.05947628,-0.0057317046,0.07693249,-0.11485112,-0.031876326,0.09865502,-0.10493067,-0.07335986,-0.1035028,0.020553581,0.024392845,-0.0044105547,0.011815341,0.066109344,-0.068861656,0.058205575,0.031519882,0.07502682,-0.057033423,0.105912305,0.10114499,0.06290734,-0.05399632,0.09630454,0.013660942,-0.12817353,0.112976946,-0.11056218,0.0069834515,0.07687559,-0.07937788,-0.059102662,-0.03733392,-0.0011823992,-0.111128464,-0.10048484,0.10658708,0.0114164725,-0.022303058,0.055549785,-0.01842543,0.07423315,0.0876949,-0.03185998,0.048969198,0.095674336,-0.0045888275,0.045276083,-0.022097135,0.020940047,0.09878124,-0.048908494,0.105925344,0.024529755,-0.005297882,-0.033538956,-0.07879623,-0.08597992,0.074041955,0.103976764,-0.08326063,0.04943228,0.098373875,-0.09839093,0.058599267,-0.07917732,0.11467881,-0.07204321,0.014509372,-0.03160736,-0.027804509,-0.10913877,0.010727294,-0.0010412133,0.0070036277,0.010653175,0.016844254,-0.097667396,-0.06893371,-0.055302713,-0.056778997,-0.027478842,-0.02023105,0.1345013,-0.06543115,-0.07891062,0.07078918,0.08867564,0.038118355,-0.07069139,0.09747449,-0.022047296,0.033560693,0.07451361,0.055825558,-0.010445622,-0.0033280551,0.043446615,0.05536273,-0.04503919,0.055098377,0.027802773,0.037785098,0.061936937,0.09540153,0.019095382,-0.013133295,-0.06360002,0.044027515,0.09463725,-0.026105383,0.06603554,-0.02029349,-0.17977692,-0.06524645,0.02186829,0.009563541,0.018609699,-0.113955386,-0.07916897,0.03191199,0.062281497,0.064589284,0.06636651
-0.06274439,0.025614254,-0.026433777,0.019163778,0.004501708,-0.037607793,0.012344655,0.014308423,0.003294544,0.03947259,0.059296362,-0.058444824,0.10511384,-0.0010676235,0.15211327,-0.04453085,0.09370459,-0.03133332,0.07151277,-0.12800832,-0.08206126,-0.0714861,-0.032745786,0.067544244,0.051768754,-0.054779194,0.042770665,0.11465594,-0.05857206,0.023676213,-0.13816175,-0.031890366,-0.03014967,0.03427624,-0.07000109,0.029628241,0.087721184,-0.090262294,-0.0648501,0.09786615,-0.066624045,0.099256866,0.0020446256,0.05035836,0.051132344,0.0681196,0.009903379,0.01501333,-0.051217392,-0.010862562,0.02159188,-0.08920829,0.13414353,0.07324397,0.08136814,-0.08334626,0.0824273,-0.108322725,0.07707245,0.022365354,-0.08054686,0.007274933,-0.03782451,0.08258064,0.060099296,0.09163653,-0.068667054,0.07475609,-0.009038053,0.03891308,-0.0060627623,0.03368806,0.030990519,0.034550894,-0.07235959,0.079208635,0.01862093,-0.08120641,0.09652647,-0.03503386,-0.06462061,0.09542814,-0.025036246,-0.035783015,-0.076584175,0.0018857121,-0.016329266,-0.072009906,-0.060875874,0.11512231,-0.008873084,-0.0001342686,-0.012048416,0.02970723,0.092763826,-0.033786595,0.104227014,-0.09044298,0.06507478,-0.10948998,-0.105842166,-0.10845,0.04825399,-0.07412647,0.08190339,0.093362235,0.04125152,-0.07340805,0.042228736,-0.03769017,0.054939374,-0.09635473,0.028810687,-0.11150212,0.00664801,0.0032351762,0.08053922,-0.07558025,-0.068856254,-0.08358397,-0.0043416843,0.08994398,-0.0821276,-0.049702346,0.040186502,0.06094997,-0.034666114,-0.0013499558,0.05041231,-0.0660849,0.112826996,-0.028922737,0.06119455,0.025557257,-0.019421823,-0.041865863,-0.018204242,-0.09701057,-0.077043645,-0.07726989,-0.029380538,0.08968594,0.07031656,0.113648064,-0.016047247,0.01862713,0.03921885,0.06603675,-0.07390353,-0.09659122,0.10230746,-0.11348991,-0.025198402,0.015151872,-0.034564085,0.06193202,-0.07944638,0.031641748,-0.027543925,0.048278414,-0.06011006,0.10124607,0.03699603,-0.055265848,0.06679992,0.014324986,-0.09530325,0.0365758,0.042402335,0.1027423,-0.0002065152,0.09824659,0.07905587,-0.041687652,-0.07312087,0.044747315,-0.0027615726,-0.057085734,-0.072740674,0.08026863,-0.12578695,-0.070085265,-0.10558147,0.023034446,0.1122322,0.094603024,-0.112810954,-0.077366024,-0.088030554,-0.045455605,0.03760401,0.081775345,0.10853699,-0.0004530742,0.11064056,-0.052299105,-0.017952584,-0.09214621,0.021218019,-0.0069121215,0.029353615,-0.06296909,0.11555218,-0.09983142,-0.086442195,-0.06064202,-0.09759607,0.0754892,0.050101645,0.036981594,0.05554908,0.09737421,0.02948378,-0.06719273,-0.0054783258,-0.06797397,0.025228731,0.06965431,0.037276916,0.06371591,-0.058495525,0.004250847,0.07199877,-0.053355344,0.03283644,-0.043020956,0.080589555,0.060365535,0.00073295546,-0.07757598,-0.05429944,0.002923265,-0.10076515,0.10858289,-0.0370428,-0.040237047,0.11115465,0.07261228,0.036669023,-0.033901744,-0.0581242,0.083506085,-0.037957348,-0.03239783,-0.045984253,0.0007628873,0.0011406748,0.053181164,-0.10682181,-0.09435874,0.042257093,-0.022314474,0.02796948,-0.049410395,0.005800508,-0.08565346,0.035719104,-0.06635957,0.059117578,-0.1223634,-0.020368569,-0.10098765,0.04193622,-0.034384176,0.008820713,-0.028685559,0.057131343,-0.067152366,0.028126547,0.11450317,0.031841926,-0.009504192,0.0047426624,-0.03948968,-0.059762307,0.06905011,-0.038160913,-0.059727576,0.059080277,-0.033657663,0.106815286,-0.08272271,-0.0111278,-0.024576806,-0.0500487,-0.08478011,0.074965484,-0.054494005,-0.038898975,-0.111577876,-0.06932022,0.10812873,-0.091171995,0.10740406,0.036723785,0.010817818,-0.078212224,-0.11282685,-0.10029133,-0.028333515,0.13891944,0.004237784,0.06416438,-0.035467334,-0.06531601,-0.06418177,0.093089215,-0.042852513,0.008624673,0.07454677,0.040410176,0.029395193,0.005595073,-0.07712054,0.03792083,0.08062065,0.050218303,0.012053676,-0.044333003,0.036199752,-0.016434079,0.046081696,-0.06451307,0.08603179,-0.03832979,0.10731638,0.01626442,-0.07950365,0.1099054,0.075760245,-0.13953798,-0.08959486,0.024981119,0.005378747,0.099491395,0.058448263,0.0961056,-0.12537482,-0.083964705,0.07015303,0.13207866,-0.03391558,0.11413341,0.024554601,0.04418517,-0.07255401,-0.082000114,-0.115627676,-0.025050491,-0.20476052,-0.06478331,0.11352584,-0.0031990905,-0.09540922,-0.07392193,0.021130918,-0.008253446,-0.025357403,-0.026601255,0.03919673,0.018884834,-0.057478834,-0.04601702,-0.025645485,0.1122781,-0.03051578,0.048744697,0.033537798,-0.0013278436,0.10171454,0.018448839,-0.019155255,0.052777372,0.0039300737,0.06686474,0.070616595,-0.0024843365,0.021902941,-0.010271416,0.028772555,-0.020798542,0.03717112,0.10174886,0.042421825,0.09303839,-0.009905063,0.07805309,0.087755665,-0.0012710863,-0.024936268,0.044783376,-0.021238878,-0.036507085,-0.07963142,0.10917177,-0.042839326,-0.077825546,-0.102648854,-0.09452588,-0.040492505
0.0007508099,-0.09077688,0.005050559,-0.056653854,0.0050639436,0.05125378,-0.1119747,-0.07966261,0.117306665,-0.11093811,-0.053092554,0.06615185,-0.061033323,0.114267595,-0.063474454,-0.10849875,-0.09650262,-0.008001961,0.09147867,-0.08737441,-0.07068814,0.030591361,-0.041359402,0.09253984,-0.094791174,-0.018779188,-0.0011321061,-0.07404244,0.08800226,-0.018790051,0.032206587,0.09355546,0.0027725885,-0.06354181,-0.10115423,-0.101581074,0.027073957,0.017829545,-0.10321165,0.0755677,-0.070920095,0.062621914,0.09961868,-0.03921961,0.09280806,-0.030770943,-0.0037917122,0.018747665,0.06537127,-0.060007982,0.082667954,0.033336688,0.0067717284,0.10048362,0.05904705,-0.019381806,0.08978527,0.10583071,0.028917365,0.019383095,-0.06133694,-0.006541483,-0.087564036,0.075493954,0.109238245,-0.053048402,-0.061075717,0.020130612,-0.015805207,0.028888129,-0.0557745,-0.006213069,0.07201833,0.03370229,0.03482046,-0.11082721,0.11011518,-0.079050764,-0.102825545,-0.08513438,-0.15032727,-0.027323656,0.012193583,-0.084207065,0.01868058,0.024107166,-0.13223188,-0.027606457,0.06001032,0.043857984,-0.043738127,-0.09721005,0.06689929,0.08609835,0.02005697,0.05595287,-0.04026565,0.0853459,-0.03639523,0.1005168,-0.09229408,-0.020175174,-0.069163695,-0.0065563917,-0.111672774,0.034541838,0.06249129,-0.0049979687,0.010741921,0.041790403,-0.09888358,0.08399611,0.07367971,0.07711629,0.0171163,-0.08448565,0.01023794,-0.08856813,-0.07792802,-0.0010620286,-0.104822665,0.07491044,-0.015958257,-0.040476434,-0.05873467,-0.018146418,0.11011214,0.08866749,0.09602059,-0.06349225,0.07126505,-0.041236095,0.06575359,-0.0842736,0.06975419,0.11240261,-0.018752761,0.11050088,-0.017085604,-0.09395283,0.040703457,-0.09893955,0.057052635,-0.0026533902,0.11528493,-0.07458949,0.025161512,0.059956633,-0.11059479,-0.012740329,-0.028368048,-0.05939183,0.012287013,0.043845095,0.09342051,-0.088621475,0.10671268,-0.023815192,-0.10800056,-0.010783732,-0.0056422576,0.1132754,0.005596943,0.0364775,0.011357851,0.090877034,-0.023686148,-0.009061098,-0.001861155,-0.034830377,-0.11039241,0.10044505,0.076455496,0.07778578,0.08714511,-0.03242542,0.10820804,-0.041123897,0.09160256,-0.02564694,0.03624756,0.072108544,-0.087950684,-0.09913821,-0.08826948,-0.09594308,0.08576804,-0.10257499,0.03444334,0.041272677,-0.005393848,0.00032871595,-0.11432016,0.11357466,-0.08823996,0.08673286,-0.03863675,-0.064371035,-0.028627202,0.010070287,0.077583335,-0.009452738,0.0964177,-0.09044036,-0.09042584,0.027443044,0.07759588,-0.043743305,0.07978543,-0.110304765,0.048005126,0.055105574,-0.0025788397,-0.08976802,0.028346993,0.005393356,-0.07216755,-0.00814952,0.01130756,-0.09199058,-0.010436162,0.0037938356,-0.056041867,-0.043850213,-0.11183339,0.1128171,-0.052287262,-0.041896813,-0.040248975,0.00086937845,0.018795647,0.11256232,0.03269642,0.0032057688,0.001275517,-0.06625038,-0.039143182,-0.10640336,0.064244546,0.055552162,-0.020558074,0.056659035,0.021751978,0.08119758,-0.112758756,0.026677333,-0.088301174,-0.011824042,0.010572426,-0.063558646,0.046326555,0.07275554,0.102466874,0.10245646,-0.01840458,-0.019011222,0.1117525,-0.11358335,-0.06209726,0.06169603,-0.015755929,-0.009285964,0.042659886,-0.010228574,-0.087260865,-0.10684392,0.04507362,-0.09150435,0.11139714,-0.051564053,0.028217874,-0.037510723,0.019056775,0.024738647,-0.020584702,-0.09945593,-0.010143079,-0.08382276,0.031116642,-0.05346898,0.10503874,0.107712395,0.066381015,0.06667101,-0.10154188,0.11401618,0.056552343,0.041076027,-0.06267069,-0.06873986,0.051561825,0.0497436,-0.10487654,-0.05809567,-0.062700786,-0.10614114,0.013421051,0.0019390434,0.020119168,0.08992424,0.109427154,0.0032232106,0.048550107,0.029817112,-0.11028539,-0.05071196,-0.06791133,0.022356309,-0.0849237,0.10091346,0.04797191,-0.01737386,0.08071191,0.009916641,-0.016288705,0.030204646,0.05305638,0.00240843,0.07521575,0.023994394,0.10915712,0.017768286,-0.099003494,0.019472651,-0.01464247,-0.09373815,0.07628555,-0.042517975,0.11018818,0.018239386,-0.07106618,0.07036375,0.0020531192,-0.061245684,0.093848296,0.0058967546,0.012505181,-0.0015359074,0.018758543,0.011437539,0.06266432,-0.04267502,0.017018102,-0.12466855,-0.07465726,0.0023630112,-0.11478723,0.052571155,0.062031753,-0.119456634,0.09744681,0.06601814,0.094905995,-0.008589914,0.003462829,-0.10896908,0.027457349,-0.02134979,-0.013065636,0.08832846,-0.095868364,0.056857727,0.08519267,-0.028648533,-0.02115915,0.11407625,0.0794728,0.090220325,-0.06724256,-0.01977218,0.07318317,0.1130017,0.08835726,-0.07694508,-0.049918532,0.100950085,-0.024997413,0.029476024,-0.07701567,-0.068062335,0.046927713,0.087227404,0.054262288,0.053648062,0.10955522,0.0018399358,0.10942116,0.054152273,0.007953407,-0.08978295,-0.09370018,-0.094374865,0.099492006,-0.035192333,-0.06621468,0.00089353643,-0.00026168674,0.08802333,-0.04115989,0.011389546
0.029278941,-0.036051203,-0.03801009,0.06868042,0.07106506,0.018045317,0.0009887136,0.07822671,0.0119433,-0.09134167,-0.08584087,-0.05347277,0.013768603,0.11198983,0.1410551,-0.02658946,-0.053961024,0.012619011,0.061410293,0.031923752,-0.05405947,-0.13550527,-0.02873119,0.040652193,0.08470544,0.022553377,0.06701363,-0.069791384,-0.12941037,-0.09700991,-0.0064373356,-0.08707532,0.13084048,-0.076115444,-0.025998477,-0.049229573,-0.08405032,-0.012359963,-0.13766555,-0.049009077,0.09931785,0.019005194,0.058424003,0.2031023,0.09737594,-0.025203593,-0.0063034147,0.009483166,0.057306834,-0.048158,0.077758186,0.016096033,0.0011862669,0.10759743,-0.07404864,0.08874486,0.041178383,-0.05055412,0.09026394,0.020894147,-0.060577277,-0.008762643,-0.041731372,-0.00900566,-0.028877787,0.014339529,-0.10400722,-0.09389297,-0.06843799,-0.10318556,-0.04418015,0.09987415,-0.06374967,0.0801875,0.10059252,0.06750894,-0.103371084,0.022296287,0.10302994,0.036198832,-0.083238855,0.062297367,-0.07876846,0.07042565,0.069598295,-0.038778715,0.0663517,-0.031655066,0.026199527,0.01323285,-0.08533047,0.0076209432,-0.053874344,0.09304293,-0.069408655,-0.048564196,0.0048024505,-0.039538167,0.04926784,0.004285328,-0.048561685,-0.085391745,-0.020760484,0.14431235,0.036452167,0.0051816627,0.0135631,0.055704903,0.09366263,-0.06512496,0.09192784,0.02528768,0.026877366,-0.013099119,0.09480202,0.072113864,-0.0939972,0.02861733,-0.011178516,0.08053571,0.05038751,0.08641603,-0.0926013,-0.1047184,-0.045272186,0.058684576,-0.08147463,0.09355866,0.10873573,0.100884385,0.020999022,0.09318099,-0.06998848,-0.04940279,0.05275207,0.06622093,-0.05872632,-0.033824652,0.07961785,0.07808188,-0.09915224,-0.08110173,-0.06744787,-0.0071454495,-0.009052165,-0.075565584,0.042025153,-0.010335594,0.023016416,-0.007994832,-0.069893174,-0.06559925,0.025741672,0.05796827,0.055118628,-0.01295204,-0.070299454,-0.06875937,-0.061470114,-0.089403555,0.110638715,0.081303276,0.10868562,-0.049847938,0.003575027,0.036013883,-0.11067198,0.10854062,0.06360897,0.008247639,-0.05941661,-0.054629423,-0.04118362,0.015306331,-0.014548564,-0.08858064,-0.050684206,0.050010256,-0.0570687,-0.01889453,-0.110192336,0.124955975,0.061485402,-0.10423509,-0.0607774,0.08977424,0.05705834,0.05476486,0.012345992,0.010015409,0.027243368,0.006640352,0.12590902,0.08274686,-0.081137896,-0.06275666,0.007546298,0.10691386,-0.08156505,-0.07597427,-0.005658506,-0.0020261928,0.020113073,-0.024722658,-0.091369495,0.05003561,-0.08599731,0.05137298,-0.029275931,0.08903454,0.051817037,-0.01829037,0.069704324,0.081578396,0.090908684,-0.009338193,-0.026083775,-0.06692311,-0.09758858,-0.07970298,0.10245351,0.05550892,0.053059287,-0.072001114,-0.09911309,0.0024099709,0.061322387,0.09360102,-0.08289748,0.007878214,0.03451263,-0.09705235,0.031401616,-0.004204129,0.08223375,-0.05855288,-0.08584324,-0.04964965,0.058462255,-0.10158546,-0.08030055,-0.0700368,-0.09589113,0.046785332,0.10244218,0.020450197,0.03467302,0.044009827,0.03598184,0.007152617,0.02296067,-0.0038444102,0.050405156,0.0024391562,-0.102295004,0.052748792,-0.011532918,-0.061535157,-0.007694602,-0.1050534,0.03220088,0.051015623,0.107095085,-0.0907364,-0.03960488,0.11794256,-0.073521614,-0.005698208,-0.10648468,-0.06984271,-0.084187634,0.021885164,-0.020736456,-0.05523968,-0.027254002,0.10518228,-0.008918412,0.018362405,0.07378172,-0.059428982,-0.107564,-0.05754047,0.075908385,0.029836603,0.062456377,0.024919696,0.09585702,-0.03864699,-0.02865102,-0.116292715,0.0014038384,0.074150145,-0.0723484,-0.058732823,0.09904935,-0.073152214,-0.083368994,0.10587524,0.04991063,0.1134459,-0.048002597,-0.2110725,-0.030226253,0.06304329,-0.102904126,0.12225239,0.050141893,0.09157888,0.017720215,-0.062247418,-0.013415196,-0.12041111,-0.016308866,0.09120516,0.10027463,0.08753489,-0.09246485,-0.035973907,0.006496575,-0.0403224,-0.04855216,-0.04881424,0.036179982,-0.07880016,0.049211446,-0.040469255,0.08057091,0.028624434,0.08294084,0.049977902,-0.082377665,-0.06633092,0.049530156,-0.027804017,-0.047332816,-0.0503952,0.10802362,-0.023540286,-0.038783766,0.007111202,0.12329624,-0.10666973,0.00024592876,0.033824276,0.07341198,-0.10797483,-0.08832141,-0.12351346,0.09066325,-0.056331027,0.03139133,-0.045673814,0.0052536,-0.088162765,-0.033632882,-0.013022484,0.09866297,0.09984913,0.17383185,0.16200557,0.020226937,0.01902511,0.056917645,0.069923036,0.09670227,0.012640749,0.109268434,-0.10458848,0.09042438,-0.047927916,-0.0907012,-0.025531245,-0.04240696,0.16263324,0.06551356,0.041327737,-0.02641382,0.056322403,-0.08699379,-0.06612894,-0.11271625,-0.0755762,-0.023795508,0.00094316155,-0.06278479,-0.036606126,0.12308918,0.07499431,-0.065671586,-0.060862668,-0.08156103,-0.063315,-0.098720565,-0.038048312,-0.032474227,-0.013306024,-0.022254504,-0.023410268,0.069632776,-0.030822797
