0
-0.839397
-0.19498754
-2.355629
-5.0568233
-0.68394655
-1.4029703
0.08381897
-0.013160421
-0.6163697
-0.25160262
-0.018672932
-2.6461093
-1.956133
-0.0019801513
-0.07417282
-1.2533271
-0.0074026245
-0.39439777
-0.10596684
-0.023079012
-0.66285354
-0.1599416
-0.81179965
1.3392094
-1.0790032
-0.16155413
-0.45454034
-4.4053016
-0.021186275
1.8046776
1.611976
0.73833394
0.2823954
0.6091556
-0.017992925
-2.5331078
-0.9119934
-0.3883088
-4.3810654
-0.22975607
-0.043302834
-0.37045935
0.39716014
0.67621356
0.93143004
-0.00031618652
-1.0404458
1.3256378
-1.1575774
2.381601
-1.639345
-0.4524568
-4.0156765
-0.005504722
-0.39087006
2.514059
-0.09310534
-0.086849205
0.10810294
-0.13435812
0.110034436
-0.6047755
-2.9043963
-0.677187
-5.7416334
-0.9296187
-5.9649887
-5.7635374
-0.31498834
-1.1488942
-7.2740235
-4.6596017
0.38939917
0.26764217
-4.969357
-0.015996791
-0.23371524
-0.045150343
-7.009484
-6.101196
-1.3164233
-4.43955
-2.9891067
0.44434974
0.3513982
-0.26817968
-4.763502
0.12876204
-0.0002738957
-0.07593916
-2.9458597
-4.6320157
-5.4938493
-2.0997152
-0.12864591
1.2734929
-1.6374261
-6.300606
0.47224736
-6.155789
-0.0070758937
-2.300785
-0.53141636
0.5797438
-4.717937
-4.107239
-0.35862133
-0.42277318
-0.0055707227
-4.219029
-0.2679336
0.5166828
-0.6213438
-1.3186874
-0.34780604
-5.193082
-0.33953473
-0.8179132
-1.5496075
1.0938342
-1.3574374
-0.25252232
-0.055598624
-0.003312909
1.7370456
-3.2375066
-0.5506988
0.6650046
