0,1,2,3,4,5,6,7,8,9,10,11,12,13,14,15,16,17,18,19,20,21,22,23,24,25,26,27,28,29,30,31,32,33,34,35,36,37,38,39,40,41,42,43,44,45,46,47,48,49,50,51,52,53,54,55,56,57,58,59,60,61,62,63
-0.0,-0.33769968,-0.0,-0.22807424,0.0,-0.17254266,0.0,0.0,-0.21531342,-0.0,-0.0,-0.38382706,0.18324985,-0.2547605,-0.5742815,0.18668558,-0.32755014,0.0,0.0,0.18040499,-0.0,-0.16435614,-0.34527972,-0.23744538,0.57024246,-0.0,-0.19308263,-0.1934765,-0.18592398,-0.0,0.0,-0.0,-0.0,-0.5199926,-0.17854384,0.0,-0.0,-0.16637355,0.0,0.0,-0.82434464,-0.18707626,0.0,0.19132516,-0.69497824,-0.0,-0.0,-0.0,0.0,-0.17677385,-0.0,-0.0,-0.0,-0.7039577,-0.0,-0.202988,-0.17721266,-0.21246126,-0.0,-0.17305695,0.0,-0.0,-0.0,-0.16272812
0.0,0.0,-0.16642979,-0.0,-0.0,-0.17392989,0.0,0.0,0.0,0.19525234,0.0,-0.72481465,0.304917,-0.0,0.0,0.0,0.0,0.27834854,0.0,-0.0,-0.0,0.0,0.0,-0.0,-0.0,-0.0,-0.20348947,-0.0,0.0,0.1902212,0.17667772,0.0,-0.0,-0.0,0.16427429,-0.0,1.2366912,-0.0,-0.2260824,0.0,0.16636711,-0.19419023,-0.18271697,0.0,0.0,-0.0,-0.17047726,0.0,0.0,-0.19131976,-0.1602587,-0.0,-0.0,-0.38366473,0.0,-0.0,-0.0,-0.0,-0.0,-0.22037743,0.0,0.0,-0.0,0.18307634
0.0,0.0,0.4001385,0.0,-0.0,-0.0,0.20832674,-0.19108114,-0.20331876,-0.0,0.0,-0.23274699,-0.1713824,0.33802414,-0.21067086,-0.0,-0.15346746,0.298652,-0.0,0.0,0.0,-0.0,-0.38035518,-0.0,0.0,0.0,-0.0,-0.25881836,-0.1694114,-0.17245468,0.2146343,-0.0,0.0,-0.0,0.16060485,0.24282189,0.25827056,-0.0,-0.0,-0.21773665,-0.0,0.4885904,0.0,-0.0,0.15831394,0.0,0.0,-0.0,0.2560168,0.0,-0.23402122,-0.0,0.0,-0.4585777,0.1901534,-0.0,0.24973719,-0.0,0.0,-0.0,0.0,0.0,0.0,-0.0
-0.0,0.0,0.21318147,-0.0,0.35298917,-0.16169727,0.0,-0.16878372,-0.16486377,0.0,-0.0,-0.0,0.0,0.291996,-0.0,-0.0,-0.0,0.0,-0.20278102,0.1661911,-0.1824756,-0.18466616,-0.2842357,-0.25415328,-0.0,0.0,-0.0,0.0,-0.16944416,-0.17698137,-0.2486866,-0.0,-0.0,-0.0,0.25470662,-0.17078936,0.0,0.0,-0.19668916,-0.0,-0.0,0.44807255,0.0,-0.16860206,-0.0,-0.0,-0.0,-0.0,-0.0,0.33612198,-0.0,0.0,0.0,-0.53143543,-0.0,-0.0,0.4339655,0.18254523,-0.0,-0.0,0.0,0.0,-0.0,-0.18613686
-0.0,0.44725552,-0.0,-0.0,-0.18934302,-0.15949897,-0.0,-0.0,-0.3119171,0.0,-0.20106556,-0.0,0.0,-0.29196882,-0.0,-0.0,-0.15896232,-0.25933665,0.0,-0.0,-0.25389758,0.17442118,-0.21632981,-0.0,-0.0,0.0,-0.0,-0.0,0.0,-0.0,-0.0,-0.20243664,0.0,-0.19597903,-0.226783,-0.0,0.0,0.0,-0.0,0.0,-0.20816118,-0.18984838,-0.0,0.0,0.0,-0.0,0.0,-0.2764319,0.17570809,-0.0,-0.0,0.0,0.0,-0.0,0.0,-0.0,-0.0,0.15593262,-0.0,-0.0,-0.35284463,0.0,0.0,0.0
0.0,0.48077348,-0.3213424,0.0,-0.0,0.0,0.0,0.0,0.0,0.0,0.0,-0.0,0.0,0.0,0.28124928,-1.0736899,-0.16816244,-0.0,-0.0,-0.0,0.0,0.0,-0.31627858,-0.17556638,0.0,-0.0,-0.18726607,1.5174336,-0.0,0.2139725,-0.20622212,0.0,0.0,0.17613891,-0.2065807,-0.19701207,-0.1636791,0.17341043,0.0,-0.0,-0.23195112,0.0,0.0,0.20363015,-0.25686038,-0.17541942,-0.0,0.0,-0.3924519,0.0,0.3163721,0.0,0.0,-1.3912778,0.0,0.0,-0.0,-0.0,-0.16617188,-0.0,-0.0,-0.0,0.0,-0.0
-0.09302655,-0.0,0.0,0.0,0.0,0.0,-0.0,0.19135477,-0.18623017,-0.2807421,-0.0,0.3508276,-0.18898994,-0.026408888,0.19026513,-0.3904298,-0.58621615,-0.0934087,-0.0,-0.0,0.0,0.0,-0.30515158,-0.16129711,0.10185341,0.0,-0.17305115,-0.0,-0.0,0.14192286,-0.0,-0.1869197,-0.17015801,-0.23874344,0.0,0.0,0.14437066,-0.0,-0.0,0.42798623,0.0,-0.2912385,-0.0,0.0,0.5159225,-0.3011793,-0.0,-0.0,-0.0,0.27336454,-0.0,-0.0,0.0,-0.048381157,0.0,-0.0,-0.0,-0.15377365,0.0,0.34233028,-0.29477885,-0.0,-0.0,-0.22101535
0.0,-0.16857626,0.0,-0.0,0.19595008,0.0,0.0,-0.0,-0.0,-0.0,0.0,0.0,-0.0,-0.2876553,-0.0,-0.0,0.0,-0.1956098,-0.15772924,-0.0,0.0,0.0,0.0,0.0,0.16754057,-0.0,0.0,0.0,-0.0,0.0,-0.25101438,-0.0,0.0,-0.0,-0.0,0.0,0.0,-0.0,0.0,0.0,0.0,0.16616781,0.0,-0.303191,-0.0,-0.0,-0.0,-0.0,-0.0,-0.0,-0.0,0.0,0.0,-0.0,0.0,-0.0,0.0,-0.0,-0.0,0.21966822,0.3000499,-0.0,0.0,-0.0
-0.0,-0.25350964,0.17027879,-0.0,-0.18407474,-0.0,0.18695207,-0.0,-0.22309527,-0.20077041,0.0,-0.20762256,-0.0,-0.0,-0.17473935,0.43388742,-0.2531151,-0.5315382,0.0,-0.0,-0.0,-0.1611186,-0.38696873,0.0,0.20878538,-0.0,-0.0,-0.0,-0.0,0.0,0.0,0.0,-0.23315436,-0.33663422,0.0,-0.0,0.0,-0.0,-0.0,-0.24551332,-0.3465939,0.0,-0.0,-0.0,-0.0,0.0,-0.0,0.0,0.2926262,-0.0,-0.0,-0.0,0.21575311,-1.7901217,0.0,-0.0,-0.0,-0.0,-0.0,-0.0,0.0,-0.20079279,0.0,-0.19388199
-0.0,-0.0,-0.0,-0.27902594,-0.0,-0.15644142,-0.28401947,-0.0,-0.0,-0.0,-0.0,-0.0,0.26465604,-0.19751911,0.16000275,0.0,-0.0,-0.0,-0.0,-0.0,0.16110155,-0.0,0.0,0.0,-0.0,-0.17352906,0.0,0.0,-0.0,-0.0,0.0,-0.0,0.20689137,0.0,0.0,-0.17306651,0.0,-0.0,0.0,-0.0,-0.0,-0.0,0.0,0.1537191,-0.0,0.0,-0.0,-0.0,-0.0,0.0,-0.0,-0.0,-0.23510373,-0.0,-0.0,-0.0,-0.21061088,-0.0,0.0,-0.0,-0.0,-0.0,-0.0,0.2125702
-0.0,0.30575317,0.34712818,-0.0,0.26472512,0.0,0.0,0.0,0.0,-0.0,-0.1982997,-0.46421298,0.7486389,0.22209223,0.26633114,-0.0,-0.0,0.0,0.0,0.0,-0.0,-0.0,-0.0,0.9406169,0.35118014,-0.0,-0.16768466,0.956151,-0.0,-0.4419598,0.4027516,0.0,0.0,0.41626975,-0.19702677,0.0,0.55132824,-0.0,0.0,0.0,-0.8448185,0.0,-0.0,-0.0,0.18728796,-0.30410457,-0.0,0.0,0.0,-0.0,0.30276465,-0.0,0.0,-1.6913294,0.0,-0.17215449,0.19680779,0.2390385,-0.0,-0.16628131,-0.0,-0.0,-0.0,-0.27980217
-0.0,-0.0,0.14491086,-0.0,0.0,0.0,0.21839981,-0.0,-0.0,-0.0,0.0,0.0,-0.22440195,0.41857722,-0.0,-0.0967912,-0.0,-0.0,0.0,0.0,-0.0,0.0,-0.23503451,-0.0,0.86411715,-0.1626103,-0.15712506,-0.0,-0.0,0.06388424,0.0,0.0,-0.28132927,0.14873286,0.20377277,0.0,-0.0,-0.18840939,-0.1852871,0.0,-0.0,0.4584991,0.06417045,0.29351312,0.0,0.0,0.0,-0.19368888,0.3704105,-0.0,-0.0,0.0,0.18061392,-0.7282858,-0.07157499,-0.15405564,0.4680771,-0.18026222,-0.0,-0.0,-0.0,-0.0,0.64487594,-0.0
0.0,0.3622222,0.0,0.0,0.0,0.0,-0.0,0.0,0.0,0.0,-0.0,0.28011203,-0.0,-0.20170014,0.0,-0.26425454,0.0,0.0,0.0,0.0,-0.17645529,-0.15358493,0.20434934,0.0,0.45914575,0.0,0.0,-0.0,0.0,0.21495616,0.0,0.0,0.0,0.1908382,-0.0,-0.0,-0.0,0.0,-0.0,-0.0,-0.0,0.29176468,-0.0,0.0,0.2918081,0.0,0.0,0.0,0.0,0.0,0.0,-0.17439505,0.0,0.2748821,0.0,0.0,0.0,-0.0,0.0,0.495101,-0.16925834,-0.0,0.0,-0.2122583
0.06455736,-0.0,-0.06510089,0.0,0.20434178,-0.0,-0.0,0.0,-0.19857939,-0.0,-0.18379189,0.0,-0.17072707,-0.15214369,0.12305606,-0.116935514,-0.3666853,0.22823553,-0.26704,-0.28682047,-0.38960245,-0.23607709,0.15575837,-0.0,-0.6998153,-0.0,0.0,-0.0,-0.19068785,-0.0,-0.15162419,-0.0,-0.31476218,-0.0,0.46005476,-0.24650903,0.14519037,-0.0,-0.0,-0.0,0.0,-0.16969031,0.0,-0.17186461,0.0,-0.0,-0.0,-0.19171323,-0.41271722,-0.0,0.0,-0.0,-0.0,-0.24029422,0.20826837,0.0,0.0,-0.21943548,-0.0,-0.53521675,-0.28345072,0.0,-0.0,0.16416137
-0.17445683,-0.0,0.51341474,0.0,-0.0,0.0,-0.0,-0.0,-0.0,0.0,0.0,0.0,-0.0,0.0,0.0,0.0,0.0,-0.0,0.0,0.27917644,0.0,0.0,-0.0,0.9089937,0.55409926,0.15255627,-0.0,-0.0,-0.0,-0.0,-0.18401098,0.0,0.54879177,0.37922108,0.2507661,0.0,0.0,0.0,0.0,-0.28040248,-0.0,-0.0,-0.0,0.0,0.27259204,-0.0,-0.0,-0.15226081,-0.15265667,0.0,-0.0,0.0,0.0,0.54331833,0.23942064,0.0,-0.0,-0.0,-0.0,0.24680738,0.3051999,0.0,0.25867406,-0.0
0.0,-0.0,0.0,0.0,-0.0,-0.0,-0.0,0.0,-0.23617046,0.1721342,-0.0,0.0,-0.0,-0.0,-0.0,-0.0,-0.0,-0.0,-0.0,-0.0,0.0,-0.0,0.0,-0.0,0.0,-0.0,-0.0,0.0,-0.0,-0.0,-0.1891627,0.0,-0.0,0.0,0.0,0.16041951,0.0,0.0,0.0,-0.2158675,-0.22135766,0.0,0.0,0.23787722,-0.1857957,-0.0,-0.0,-0.0,-0.17491397,0.0,-0.28328732,-0.0,0.0,-0.0,0.19777353,0.0,-0.0,0.0,0.0,-0.0,-0.239821,-0.0,-0.0,-0.0
0.0,0.2363937,0.0,0.0,-0.0,-0.0,-0.26305753,-0.0,0.15483633,0.0,0.0,0.0,-0.0,-0.4363602,-0.2523578,0.0,0.24670902,0.35018596,-0.0,0.0,-0.0,-0.0,-0.0,0.0,0.0,0.0,0.0,-0.2593412,0.15325482,-0.0,-0.15215172,0.0,0.0,0.29891565,0.15992902,-0.0,0.15610449,-0.0,-0.0,-0.26488557,-0.0,-0.0,-0.0,0.21287213,-0.0,-0.0,-0.0,-0.0,-0.0,-0.0,-0.0,0.0,-0.17519496,0.4314279,0.0,0.0,-0.3236688,0.0,0.0,-0.35127476,-0.18328768,-0.3136239,-0.0,0.2725609
0.0,0.0,-0.0,0.0,0.2535075,-0.0,0.16953419,-0.0,-0.0,-0.0,-0.2295939,-0.5333837,0.0,-0.0,-0.0,-0.24821492,-0.32801762,-0.0,0.0,-0.0,-0.599731,-0.20192169,-0.15327841,0.0,0.43473238,-0.28884634,0.0,0.8222672,0.0,-0.0,0.0,-0.0,0.0,0.0,-0.0,-0.0,0.5937573,0.0,-0.0,0.0,-0.0,-0.0,0.0,-0.0,-0.0,-0.0,-0.15451229,-0.0,-0.0,0.0,0.1655649,-0.19507845,-0.0,-1.2243245,0.0,0.16760428,-0.18206991,0.0,0.0,-0.27897224,-0.2735458,-0.0,-0.0,0.0
-0.17342862,0.0,0.0,-0.0,-0.0,-0.0,-0.0,-0.0,-0.0,-0.0,-0.0,0.16318984,0.0,-0.0,0.0,-0.0,0.0,0.0,-0.16928193,-0.0,0.0,0.1562836,-0.0,0.0,-0.0,0.0,0.0,-0.0,-0.0,-0.0,-0.0,0.0,0.15624604,-0.22301666,-0.0,0.0,-0.16495544,0.0,-0.17779495,-0.16502,0.0,-0.17759034,-0.0,0.0,-0.0,0.0,-0.0,-0.0,0.1546788,0.0,0.1667208,-0.0,-0.23003633,0.0,0.0,0.0,-0.0,0.0,0.0,-0.20624608,-0.239093,0.0,0.0,-0.2006217
0.0,0.6318033,0.0,0.0,-0.0,0.0,0.0,-0.0,0.0,0.44929013,0.0,-0.27655107,-0.46434698,0.0,0.0,-0.17830737,0.0,-0.0,0.0,-0.41029137,-0.0,0.0,-0.2856133,-0.0,0.0,0.0,-0.2074216,0.7369219,-0.17734395,0.2307378,-0.0,-0.0,0.0,0.48612884,-0.0,0.0,0.23399398,-0.0,0.0,0.0,-0.0,-0.16489682,0.9211539,0.0,-0.0,-0.0,-0.20162855,0.0,-0.6613335,0.0,0.30819017,0.0,-0.0,-0.23297423,-0.0,0.0,0.22314036,0.0,0.0,-0.0,-0.0,0.0,0.0,-0.4462999
0.0,0.0,0.18724653,-0.0,-0.2080866,-0.0,-0.0,0.0,-0.19030425,-0.0,0.16499966,0.20262656,0.0,0.17508774,-0.0,-0.0,0.0,0.0,0.0,0.0,0.0,-0.0,0.0,0.2501553,0.0,-0.0,-0.0,-0.16192354,-0.0,-0.0,0.0,-0.16434939,0.0,0.0,0.0,0.15793914,0.0,-0.0,-0.0,0.0,0.0,0.17180291,-0.0,0.0,-0.0,0.0,0.0,-0.0,-0.0,0.0,-0.18934299,0.0,-0.0,-0.0,0.0,-0.0,-0.0,-0.0,0.0,0.0,0.0,-0.17305972,0.0,-0.2696997
0.0,-0.3150448,0.22623748,-0.0,0.19614825,-0.0,-0.0,0.0,0.0,0.15225807,0.0,0.0,-0.17705566,-0.29448012,0.34642068,0.0,0.26136577,0.5924419,-0.17751269,-0.15787251,-0.19520114,-0.0,0.2387018,-0.22485253,0.0,0.0,-0.15971012,-0.21367048,0.0,0.22419868,-0.23182188,0.0,-0.0,0.0,0.2367462,-0.0,0.1997251,-0.0,-0.21382952,0.2915912,-0.20210755,-0.2668535,0.0,-0.18493287,-0.22567464,-0.0,-0.4061839,0.0,-0.20059988,-0.0,0.0,-0.0,-0.0,-0.256629,-0.0,0.0,-0.3861679,-0.0,0.0,-0.0,-0.25744835,-0.19021672,-0.32047004,0.4993753
0.0,0.0,0.0,-0.0,-0.0,0.0,-0.0,0.0,0.0,-0.18408804,0.0,-0.0,0.0,0.0,-0.29739138,-0.21392219,0.16313823,-0.0,0.17110173,0.0,0.0,0.0,0.0,-0.0,-0.0,0.0,-0.0,-0.0,-0.0,-0.0,-0.22375238,-0.0,-0.19435686,0.17963311,0.0,0.0,0.0,0.0,0.0,0.0,-0.17074344,0.0,-0.0,0.0,-0.0,0.18140933,-0.16212085,0.0,-0.16711096,-0.0,-0.0,0.0,-0.0,0.0,0.0,-0.0,-0.20980385,-0.0,-0.0,0.0,-0.0,0.0,0.0,-0.0
0.35682136,0.82398444,0.0,0.0,0.0,0.0,-0.0,-0.0,0.0,-0.0,-0.0,0.37202367,-0.3449899,0.84524286,-0.40887952,0.50851953,-0.24191995,-1.3287389,0.0,-0.0,-0.2668724,-0.15513971,-0.0,-0.29529196,-0.22683947,-0.0,-0.0,-0.25420752,0.0,0.022996707,-0.0,-0.18429476,0.0,-0.0,-17.126816,0.0,-0.42316493,-0.18934125,-0.0,-0.495469,0.19779007,0.0,1.3687882,-0.34511954,1.3903917,-0.0,-0.0,-0.0,0.21966997,-0.0,-0.0,-0.0,0.52164346,0.5411333,0.17296931,-0.16210294,0.0,-0.0,-0.0,0.0,-0.0,0.0,-0.17698367,-0.16984934
-0.0,-0.2490458,-0.0,-0.17084704,0.0,-0.0,0.0,0.0,-0.0,-0.0,0.0,0.20241018,0.0,-0.23355441,-0.20722623,-0.25217307,-0.5657906,0.0,0.0,0.0,-0.0,0.0,-0.1666568,-0.0,-0.0,-0.0,0.0,0.0,-0.0,-0.3689256,-0.0,0.0,0.0,-0.0,0.21982415,-0.0,0.0,-0.0,-0.0,0.28342882,-0.0,0.16344976,0.0,-0.26913714,-0.0,-0.33382913,-0.0,-0.0,0.25112742,0.23466673,-0.16117065,-0.18475069,0.0,-0.23358108,0.0,-0.0,0.2003245,-0.0,-0.0,0.32147214,-0.21152775,-0.19225107,-0.0,0.0
-0.0,0.38139525,0.0,-0.0,-0.0,-0.0,-0.0,-0.16782753,-0.0,0.0,-0.0,-0.18235229,0.0,-0.0,0.0,0.36974052,0.2872518,-0.31050736,0.0,0.0,0.0,-0.1648131,0.0,-0.16860326,0.0,-0.0,0.0,0.0,-0.0,0.0,-0.0,-0.0,-0.15323588,-0.0,0.2829269,-0.17072187,-0.0,0.0,0.0,-0.0,-0.0,-0.23377083,-0.0,0.3551916,-0.0,-0.21673107,0.0,0.36220562,0.0,-0.0,0.18302245,-0.0,-0.0,0.0,0.0,0.0,-0.0,-0.0,-0.0,0.0,-0.0,-0.0,0.0,-0.0
0.0,0.0,-0.0,0.0,0.0,-0.0,-0.0,-0.0,-0.0,-0.0,0.0,0.0,-0.0,-0.0,-0.0,0.0,-0.0,-0.0,-0.0,-0.0,0.0,-0.17910375,-0.0,-0.0,0.0,0.0,0.0,0.0,-0.21674001,-0.0,0.2820035,0.0,0.0,0.0,-0.0,0.0,0.0,-0.0,-0.19947022,-0.0,-0.0,0.0,0.0,-0.0,-0.21263433,-0.20110543,-0.0,0.0,0.18162988,-0.0,0.0,-0.0,-0.0,-0.0,-0.0,0.0,0.0,0.0,-0.0,-0.0,0.21920736,-0.0,-0.0,0.15474483
-0.0,-0.1725005,0.33086663,0.0,0.18420182,0.16299607,0.0,-0.0,-0.0,-0.0,-0.0,-0.0,-0.30282423,0.17565654,-0.17656325,-0.26456898,-0.0,0.18247409,-0.0,0.2753031,-0.0,-0.21106328,-0.0,-0.22723569,0.0,0.0,-0.18030393,0.0,0.0,-0.18754555,0.18527266,0.0,-0.2436886,-0.0,0.19522347,0.22253565,0.29127002,0.0,-0.1678537,-0.0,-0.16592586,0.46136433,0.16296276,0.0,-0.0,-0.0,-0.0,-0.18996942,0.0,0.0,0.0,0.0,0.21375495,-0.0,-0.0,-0.20015211,0.45188868,-0.0,-0.0,-0.26715028,-0.0,-0.0,-0.0,0.0
-0.0,0.23762755,0.15910149,-0.0,-0.6988296,-0.20557058,0.0,0.0,0.0,-0.2108198,-0.0,0.0,-0.16844046,0.17724577,-0.0,-0.0,0.03588601,-0.0,-0.0,0.0,-0.0,-0.0,-0.0,-0.0,0.04677248,-0.0,-0.0,0.6150867,-0.0,-0.0,0.0,0.0,0.0,0.37102798,-0.0,0.22212829,-0.3262014,-0.0,-0.0,-0.0,-0.25927258,0.0,0.15800472,0.34314385,0.0,-0.25616267,0.0,-0.0,-0.18493283,-0.0,-0.0,-0.0,0.0,-0.0,0.0,-0.0,0.36131352,-0.1801369,-0.0,-0.26750275,-0.2131269,-0.0,-0.0,-0.26406798
-0.38652313,0.4111488,0.3511738,0.0,-0.0,-0.16927148,-0.2553708,-0.0,0.0,0.089276575,0.0,1.3627086,0.0,0.4788793,-0.43633452,-0.36794567,0.065983206,2.380558,0.0,0.0,-0.14896065,0.0,-0.0,-0.19581746,0.0,-0.0,0.0,0.0,0.0,-0.0,-0.12953678,0.0,0.39806217,-1.2272456,-0.6373638,-0.0,-0.0,-0.0,-0.0,-0.6196572,0.0,-0.40397513,0.35847694,0.009628926,0.09213734,-0.16269593,-0.17333615,0.3389586,1.0940009,-0.0,-0.18682708,-0.0,-0.0,0.97849846,-0.18414822,0.0,-0.0,0.18391557,0.0,0.0,-0.0,-0.0,-0.0,0.0
-0.67611116,-0.0,0.0,-0.27861765,-0.0,-0.0,-0.0,0.0,0.0,-0.0,-0.0,-0.0,-0.0,0.7485841,-0.3202553,-0.5313221,-0.0,-1.1425635,-0.0,0.11191799,-0.0,-0.0,-0.0,0.0,0.0,-0.0,-0.15238492,-0.0,0.0,0.24826111,-0.0,-0.0,-0.0,0.011630117,-0.0,-0.0,0.50535834,0.0,-0.0,-0.16324687,0.15454012,-0.0,-0.0,-0.2725241,1.494985,-0.0,0.0,-0.0,0.42729145,0.40020886,-0.0,-0.0,0.0,-1.0132253,-0.19162163,-0.0,-0.0,-0.0,0.0,0.0,-0.0,-0.0,-0.32847846,-0.26076034
0.22146547,-1.6017687,0.0,-0.17732537,-0.0,0.0,0.2326064,-0.18670942,0.0,0.0,0.0,-0.5573407,-0.23853289,-0.0,0.0,0.0,-0.7219901,-0.0,-0.0,0.023851462,0.0,-0.0,-0.6294,0.0,0.0,0.0,0.0,-0.17729048,-0.0,-0.0,0.18276343,-0.0,0.21146554,0.9803175,0.0,0.0,-0.93854415,-0.0,-0.0,0.0,0.28644294,-0.0,-0.0,-0.17527562,-0.4890267,-0.25827107,0.0,-0.15905215,-0.0,-0.0,-0.0,0.0,0.283648,0.9758195,-0.0,0.0,0.0,-0.0,-0.0,0.0,-0.0,0.0,-0.3141003,-0.19071114
-0.0,-0.0,0.0,0.0,-0.48293638,-0.0,-0.50544053,0.0,0.16115506,0.18082455,0.0,-0.0,-0.36855704,0.5356536,-0.45615345,-0.10136853,-0.9022875,0.017202806,-0.17298374,-1.0176568,-0.028379424,0.0,0.20401661,-0.0,0.7422163,-0.20295702,-0.18731274,-0.0,0.0,-0.40971285,0.07256473,-0.0,0.0,0.6677746,-0.0059564887,-0.0,0.028177876,-0.0,0.0,0.0,0.0,-0.0,0.51351094,-0.0,0.26239422,0.27366436,-0.0,0.0,-0.0,-0.0,-0.0,0.0,-0.3014261,0.1667637,0.09053331,0.0,-0.0,0.0,-0.0,-0.0,0.0,0.0,-0.0,0.0
-0.0,0.42420006,0.0,-0.0,-0.0,0.15925817,-0.3099232,0.0,0.0,-0.0,-0.22563274,-0.0,-0.27044585,0.69756025,0.0,-0.32675487,-0.0,-1.268533,-0.0,-0.20064457,-0.27956513,-0.0,-0.0,0.16868581,3.7063684,-0.0,0.0,0.22436856,0.0,-0.0,-0.0,-0.0,-0.16672021,0.0,-1.5036432,-0.0,0.46984977,-0.0,-0.0,-0.0,0.0,-0.0,-0.0,-0.33004242,0.730938,-0.0,-0.21084596,-0.0,0.7835363,-0.0,-0.0,-0.15869565,0.0,-0.65385777,-0.0,-0.1654209,-0.0,-0.3502012,0.0,-0.0,-0.0,0.0,-0.35236415,0.0
-0.0,0.0,-0.24274896,-0.0,0.0,-0.0,-0.0,-0.1562097,0.0,0.18944353,-0.0,0.2967801,0.0,-0.12385413,0.1812338,-1.4695317,0.27136505,0.4407093,-0.23080544,-0.25002903,-0.0,-0.0,0.17532201,-0.17838062,-0.4736177,-0.17190923,0.0,-0.0,0.0,0.28981572,-0.21231484,0.0,0.0,-0.0,0.0,-0.18404481,-0.0,-0.0,-0.0,0.18847525,0.32848787,-0.19031395,0.0,-0.0,0.0,-0.0,-0.0,0.0,-0.14733753,-0.0,-0.0,-0.0,-0.23988509,0.0,0.0,-0.0,0.0,0.0,-0.17650624,-0.15937166,0.18864222,-0.15909746,-0.0,-0.22926201
-0.0,-0.0,0.0,-0.16229413,0.039349347,-0.0,0.0,-0.0,-0.0,-0.0,0.0,0.0,-0.29455757,0.0,0.090246,0.0,-0.0,0.23248814,-0.0,-0.51741576,-0.18341483,0.0,-0.24477468,-0.23984002,0.27452803,-0.22390375,0.0,-0.0,0.0,0.29360795,0.0,-0.0,-0.0,-0.0,0.1652386,-0.0,0.10565279,-0.0,-0.0,0.13356365,-0.0,0.34929445,0.35416132,-0.0,-0.0,-0.0,-0.0,0.0,0.0,0.25091705,-0.0,0.0,-0.0,-0.515013,0.0,-0.0,0.0,-0.0,-0.0,-0.0,-0.25427026,-0.19144286,0.0,0.0
0.0,-0.0,-0.15782085,-0.0,-0.0,-0.0,0.0,-0.0,0.0,0.0,0.0,-0.2929446,-0.0,-0.22761671,0.15996462,-0.17190291,0.2182376,0.18827948,0.0,-0.0,0.0,-0.0,0.0,-0.17565481,0.0,-0.0,0.0,1.2473892,0.0,0.0,0.16079512,-0.15411597,-0.22609673,0.0,0.15225185,-0.0,0.515476,-0.0,-0.1786252,0.16903476,0.0,-0.0,-0.0,0.0,0.0,-0.0,-0.17403379,-0.0,-0.40806717,-0.0,0.0,0.0,0.0,-1.2945669,0.16260281,0.0,0.0,0.0,0.0,-0.0,-0.19806495,0.0,-0.19726756,-0.23472817
-0.5906493,0.0,-0.24858893,-0.0,-0.0,0.0,-0.5757242,-0.0,0.0,-0.005520116,-0.0,0.24760577,-0.1673964,0.2700936,-0.4855408,-0.63759255,-0.19766419,-0.84335184,-0.2433342,-0.11700598,-0.0,-0.27356568,-0.0,-0.26326916,0.0,-0.0,-0.0,-0.41466784,0.0,0.083101876,-0.0,0.0,-0.2046744,-0.0,-0.0,-0.0,-0.0,-0.0,0.0,-0.727672,-0.18016817,-0.2535888,0.0,-1.0758463,-2.656961,-0.22067985,0.0,-0.40572584,0.31897613,-0.41173148,-0.0,0.0,-0.35413492,-0.0,-0.33957464,0.0,0.0,0.0,-0.0,-0.0,-0.6371501,0.0,-0.0,0.24525906
-0.0,0.0,0.0,-0.0,0.17998834,-0.0,0.26563907,0.0,-0.18009104,0.0,-0.0,-0.0,-0.0,0.0,-0.23866041,-0.0,-0.2540259,0.2736776,-0.15700203,0.19463153,-0.0,0.0,-0.24875471,-0.19867288,0.21387649,-0.0,-0.0,0.0,-0.0,-0.0,0.0,0.0,-0.0,-0.22072883,0.23229656,0.0,0.0,-0.0,-0.0,-0.0,-0.0,0.2844524,-0.0,-0.15344965,0.0,-0.0,0.1599243,-0.25141567,-0.0,0.15245576,-0.15700983,-0.0,0.0,-0.0,-0.0,0.0,0.3310628,-0.15544505,0.0,-0.6606248,-0.0,-0.16308762,0.0,-0.0
0.0,-0.0,0.2346782,-0.0,0.3815939,0.0,-0.0,-0.21558698,0.0,0.0,0.0,0.0,-0.22255743,-0.0,0.26440898,-0.0,-0.0,0.19663319,-0.0,0.0,-0.0,0.0,-0.19025305,-0.0,0.0,0.0,0.0,0.85251707,-0.0,-0.0,0.0,-0.0,0.0,0.19387409,-0.0,0.0,-0.24870113,0.0,-0.0,-0.35275444,0.0,-0.0,0.0,0.46690232,-0.0,-0.17993149,-0.0,-0.2845012,0.0,-0.0,-0.0,-0.0,0.2064808,0.15834042,0.0,0.0,-0.0,0.0,-0.0,0.19432211,0.0,0.0,0.23682193,-0.19085293
0.0,0.0,-0.20328508,-0.18133585,-0.0,-0.0,-0.0,0.0,0.0,0.0,-0.0,-0.0,-0.0,0.0,-0.1953994,0.0,0.0,-0.21543181,0.0,0.0,0.0,-0.17517431,-0.0,-0.0,0.0,0.0,0.0,-0.0,0.0,0.0,0.0,-0.0,-0.0,0.0,-0.0,-0.0,-0.0,0.0,0.17032434,0.0,-0.0,-0.20334907,0.0,0.0,-0.1775075,0.0,-0.0,0.0,-0.0,0.0,0.0,-0.16743834,-0.0,0.0,0.0,0.0,-0.0,0.0,-0.16555943,0.0,-0.31281254,0.15705444,-0.0,0.0
-0.0,0.0,-0.0,0.0,0.0,0.0,0.0,-0.0,0.0,0.0,0.0,0.0,0.1612499,-0.0,0.0,-0.0,-0.17150201,0.0,0.1523992,0.0,-0.0,-0.0,0.0,-0.0,0.0,0.0,-0.0,-0.0,0.0,-0.0,0.0,0.0,0.0,-0.0,0.18388084,0.19210254,0.0,-0.0,-0.17217919,0.0,-0.0,0.0,0.0,0.2047105,-0.0,0.0,0.0,-0.0,-0.0,0.0,-0.16828056,0.0,0.0,0.0,-0.15828383,-0.20537676,0.0,-0.21400826,-0.17520066,-0.0,0.0,0.0,0.0,0.0
0.0,0.6557151,0.0,0.0,0.0,-0.19785473,-0.52796173,0.0,-0.24506375,0.020248365,-0.0,0.03423928,-0.2109274,0.93770665,-0.55033773,0.0,-0.41751128,0.016451916,0.0,-0.0,-0.2799257,0.0,0.30191648,-0.0,0.6406961,-0.0,-0.0,-0.41480085,-0.0,-0.31615487,0.2214894,-0.0,0.0,-0.0,0.47409254,-0.39565605,0.17955607,-0.0,0.0,-0.28798017,-0.16197205,-0.6516661,-0.0,0.0,0.6479181,0.1617064,-0.0,-0.0,0.041722365,-0.29623365,-0.0,0.0,-0.32648402,0.0,-0.25190842,0.0,-0.4559992,-0.0,-0.0,0.0,-0.0,-0.0,0.16703895,0.25637037
-0.47186604,-0.0,0.5770548,0.0,-2.2193456,-0.0,-0.40643016,-0.0,0.0,1.5616765,-0.0,-0.9639317,-0.0,-0.91557485,0.0,0.44560698,-0.0,-2.3607442,-0.0,-0.7338009,-0.0,-0.16544403,-0.16337243,0.0,1.2090117,-0.0,0.0,0.0,-0.0,0.24933317,-0.0,0.0,0.0,0.0,-1.6374334,-0.26271477,-0.0,0.0,-0.16020536,0.0,0.29664183,-0.4631709,-0.0,0.31544235,0.5941374,-0.0,-0.0,0.0,-0.7692572,0.47892818,-0.0,-0.0,-0.4567283,-1.4276959,0.18872522,-0.0,-2.6275203,0.0,-0.0,-0.0,0.22474429,-0.0,-0.20993946,0.291178
-0.0,-0.0,0.0,0.0,0.0,-0.0,0.0,0.0,0.0,-0.051941905,-0.46167842,0.0,-0.0,0.31044245,0.0,0.30144203,-0.0,0.0,0.0,-0.0,-0.0,-0.22217844,-0.0,0.0,-0.0,-0.3103361,0.0,0.0,0.0,0.020355694,-0.0,0.0,-0.0,-1.9908744,0.2987066,0.0,-0.29324606,-0.0,-0.0,-0.23538238,0.0,-0.1551236,-0.0,-0.5328202,0.0,-0.39790097,0.0,0.0,0.0,-0.0,0.0,-0.24894297,-0.2545945,0.6057222,-0.0,0.0,0.0,-0.22010095,0.0,0.0,0.16429725,-0.21014506,-0.21232963,-0.0
0.21140122,0.0,0.0,-0.0,0.0,-0.0,0.0,-0.0,-0.0,-0.0,-0.0,0.0,0.0,0.0,0.24759223,-0.31337503,0.0,0.53950006,-0.0,0.0,0.0,-0.0,0.0,-0.0,-0.26878163,0.0,-0.0,0.0,0.0,0.3480005,-0.159858,-0.0,-0.0,0.0,0.0,-0.24909492,0.0,0.0,0.0,-0.0,-0.0,-0.3049746,-0.0,0.2491209,0.18374893,-0.0,-0.18630777,0.0,-0.31473467,0.15631261,-0.28053635,0.0,-0.0,-0.0,-0.0,0.0,-0.18352552,0.16994104,-0.0,-0.26476365,0.2835814,0.0,0.0,-0.18369842
-0.0,-0.0,-0.15245448,0.0,0.3380786,0.163687,0.16434819,0.0,-0.15506847,-0.0,-0.0,-0.0,0.0,-0.0,0.22320928,-0.27268544,0.0,0.1683791,-0.0,-0.0,-0.0,-0.0,0.0,-0.0,0.0,0.0,-0.16979729,-0.0,-0.16538215,-0.18040578,0.0,-0.0,-0.23101395,0.0,0.0,-0.0,-0.17409325,0.17378128,-0.0,0.1935128,-0.0,-0.0,-0.0,-0.20157142,-0.0,0.0,-0.0,-0.15855145,-0.0,0.0,0.353079,-0.0,0.0,-0.21713263,0.0,-0.0,0.17219505,-0.0,0.0,0.0,-0.0,-0.0,0.0,0.20260116
-0.0,-0.0,0.57987005,-0.0,-3.8503053,0.0,-0.0,-0.0,-0.0,-0.39316255,-0.22014336,1.3080857,0.0,0.8236445,0.0,0.006952558,-0.9553257,-1.0534543,-0.0,0.6921733,-0.2357591,0.0,-0.18003851,-0.2281071,3.0461597,-0.19750227,0.0,-0.19581138,-0.0,0.14457454,-0.0,-0.0,-0.0,-0.06852889,-2.552359,-0.0,0.65014017,-0.17086609,-0.0,0.28141436,-0.36444506,-0.74172795,0.7762601,-0.24429214,1.3282591,-0.0,0.0,-0.0,0.5669678,-0.49622092,-0.28529054,0.1670189,0.0,0.044588823,-0.0,0.0,-2.8924093,-0.0,0.0,0.19646482,0.0,-0.0,-0.0,-0.25286075
0.0,0.0,-0.0,-0.0,0.36480016,0.0,-0.22345336,0.0,0.0,0.17925364,-0.16687854,-0.0,-0.0,-0.0,0.17381668,0.0,0.19258785,0.22614191,-0.0,-0.0,0.0,0.0,-0.0,-0.16110066,0.0,0.0,-0.0,-0.21441586,0.0,0.195395,-0.0,-0.0,0.0,0.015663706,0.29974133,0.0,0.0,0.23723643,-0.0,0.0,-0.1556979,0.28377357,-0.03337835,-0.8407149,0.09823509,-0.26596457,-0.0,0.0,-0.33245566,0.0,-0.29004115,-0.0,-0.33082953,-0.41172844,-0.0,-0.18772094,-0.0,-0.0,-0.0,-0.0,-0.0,-0.0,0.0,0.0
-0.0,0.04539547,-0.35588178,-0.0,-1.1239083,0.0,-0.0,-0.0,-0.2781718,-0.0,0.0,0.0,0.16053379,-0.0,-0.0,0.0,-1.0394521,0.18456404,-0.0,-1.4162341,-0.0,-0.0,-0.20070158,0.0,1.6261629,-0.0,0.0,-0.0,0.0,-0.20460443,-1.5792556,-0.22096656,-0.2628032,1.2321342,-1.8859266,-0.3609805,-0.0,-0.27592763,-0.0,-0.30727035,-0.3026208,-0.34914798,-0.0,-0.0,0.9432499,-0.0,-0.0,-0.15212399,-0.0,-0.08216389,-0.0,-0.16486877,0.0,0.0,-0.7145056,-0.0,-0.0,-0.21963131,0.0,-0.0,-0.0,-0.4826323,0.3098874,-0.19190988
-0.0,-0.0,0.09364879,0.24127553,0.1458864,0.0,-0.37781104,0.0,0.0,-0.31229448,-0.32306233,-0.0,-0.0,-0.0,-0.0,0.40256494,-0.0,0.13463637,-0.23144548,1.0115854,0.22683182,-0.0,0.0,0.30269077,0.82183844,-0.0,0.0,0.0,0.0,0.0,-0.0,-0.0,-0.1842048,0.3655694,0.1962027,-0.59463495,0.28479105,-0.3321409,0.0,-0.5038214,-0.15258533,0.18600759,-0.0,-0.5489111,-0.18229976,0.0,-0.0,0.17028603,-0.0,-0.0,-0.0,-0.23778236,-0.0,-0.41269067,-0.18549207,-0.0,0.0,-0.0,-0.0,-0.26380932,0.0,-0.22076762,0.0,-0.2172654
0.0,0.20628175,0.0,-0.0,-0.16340604,0.0,-0.0,0.0,0.0,-0.0,-0.21470588,-0.19431765,-0.0,0.0,0.0,0.0,0.0,-0.27461508,-0.0,0.0,0.0,0.15549435,0.0,0.0,0.0,0.0,0.0,-0.17706066,-0.0,-0.0,0.0,0.0,-0.0,0.0,-0.26139757,-0.0,0.0,-0.0,-0.0,-0.224894,-0.25678974,0.0,0.0,-0.17046739,0.0,-0.0,0.0,-0.2004555,0.0,0.0,-0.18170998,0.0,0.0,-0.0,0.0,0.0,0.0,-0.0,0.0,-0.0,-0.17283483,0.18856284,0.0,-0.21473993
0.0,0.0,0.23402268,-0.0,0.0,-0.0,0.0,-0.0,-0.23388425,0.0,-0.0,-0.29147243,-0.0,0.26827562,-0.18234925,-0.29740393,-0.3433635,0.36304858,-0.0,0.0,-0.2221789,0.0,-0.0,-0.16608566,-0.0,-0.1558332,0.0,-0.0,-0.0,-0.15257768,-0.0,0.0,0.0,-0.0,0.28370625,-0.0,0.2937487,-0.0,0.0,0.0,-0.19764352,0.46329936,0.0,-0.21069188,-0.0,-0.0,-0.0,0.0,0.30055088,0.0,-0.18900496,-0.0,0.0,-0.5762042,-0.0,0.0,0.38809946,-0.26896074,0.0,-0.19884585,-0.0,-0.0,0.0,0.0
0.14761424,0.90937406,0.48757428,-0.0,-0.0,-0.0,-0.0,0.0,0.0,0.0,-0.20454091,-0.0,-0.3559395,0.54049516,-0.22494473,0.0,0.20688161,0.0,0.0,-0.0,-0.0,0.0,-0.0,-0.19589227,-0.0,-0.0,-0.2515038,-0.32524896,-0.16353028,0.32484823,-0.0,-0.0,-0.0,0.0,0.5493994,-0.0,-0.0,-0.0,-0.18030113,-0.46499506,0.0,0.0,0.5716578,-0.14785181,-0.0,0.0,-0.0,-0.0,0.66883844,-0.0,0.0,-0.0,-0.0,-0.8438818,-0.0,-0.0,-0.0,-0.0,0.0,0.0,-0.0,0.0,0.5875875,-0.0
0.2685967,-0.0,0.0390602,-0.0,0.0,-0.15960754,-0.18478456,-0.21790053,0.0,-0.0,-0.0,0.38887787,-0.0,-0.0,-0.0,-0.20965207,0.19405594,0.46719122,-0.35369775,-0.0,-0.0,0.0,-0.0,-0.20568551,-0.0,0.0,-0.0,-0.27193108,-0.0,0.32009766,-0.0,-0.0,0.0,0.0,0.53267324,-0.0,-0.0,-0.0,0.0,-0.0,-0.0,0.0,-0.0,-0.31346595,-0.0,-0.35418618,-0.0,0.16037212,0.0,0.0955913,-0.0,-0.0,-0.5343828,-0.13654862,-0.2222729,-0.23434538,0.0,0.0,-0.0,-0.0,-0.0,-0.0,-0.0,0.21275821
0.52837676,-1.1557888,0.0,-0.20150527,-0.1311539,0.0,-0.0,0.0,-0.0,-0.0,0.0,0.0,-0.0,-0.0,-0.22843048,1.3196152,-0.0,0.0,0.0,-0.0,-0.014942191,0.0,0.26095694,0.0,-0.0,-0.0,0.0,0.36784023,0.0,0.24136396,-2.345255,-0.19817522,0.0,-0.0,0.52110004,-0.0,-0.0,-0.0,-0.0,0.1722058,-0.1805847,-0.0,-0.0,-0.0,0.01614206,-0.0,0.0,0.0,0.0,-0.5026082,-0.0,-0.1629014,-1.5404531,0.55869097,-0.2677656,-0.0,-0.0,-0.0,-0.16511096,0.0,-0.0,0.0,-0.0,0.0
0.0,0.0,-0.18829516,0.0,0.0,-0.0,-0.0,-0.0,-0.0,-0.048849937,-0.3868109,0.4030739,-0.2894667,0.0,-0.0,-0.6544441,-0.0,-2.0914276,0.0,-0.0,-0.0,-0.0,-0.0,-0.0,0.051082335,-0.0,-0.0,-0.0,0.0,-0.0,-0.0,0.0,-0.18631014,0.09420888,-0.0,-0.0,0.050099596,0.0,-0.20667166,0.0,-0.0,-0.0,0.0,-0.66985196,-1.152405,0.0,-0.0,0.0,0.0,-0.08652091,-0.0,-0.19799884,0.35756305,-5.2473364,-0.0,-0.0,0.2448337,-0.20218979,-0.0,-0.89386123,-0.15570045,-0.17056115,-0.0,-0.19358853
0.0,-0.0,0.18678613,-0.0,0.1812807,0.0,-0.1562738,-0.0,-0.0,-0.15759352,0.0,0.0,-0.0,-0.0,-0.0,-0.18951727,0.0,0.17378591,0.0,0.0,-0.0,0.0,-0.0,-0.0,0.0,0.0,0.0,0.0,-0.0,0.0,-0.0,-0.0,0.0,0.0,-0.16204149,0.0,-0.0,-0.0,0.0,0.0,-0.15781976,0.0,-0.0,-0.17266662,0.0,-0.0,-0.0,0.0,-0.0,-0.0,0.0,0.0,-0.15927292,-0.195995,-0.0,-0.19765885,0.15812393,0.18049072,0.2034886,0.0,-0.0,0.0,0.0,0.0
-0.40930647,-0.0,0.0,-0.16216983,-0.0,0.0,-0.0,0.0,-0.0,-0.0,-0.0,-0.9328615,-0.0,-1.8351059,-0.0,0.7357896,-0.0,-0.0005757006,-0.0,-0.23950633,-0.43418443,-0.18931769,-0.23706184,-0.23976906,0.14300287,-0.0,0.0,-0.28180146,0.0,-0.0,-0.0,-0.24096365,0.0,0.0,0.15978655,0.04105524,-0.26592666,-0.0,0.0,0.0,-0.6182987,-0.0,-0.0,-0.23908117,-0.48193747,-0.17805915,-0.0,-0.26918578,-0.52027684,-0.0,-0.0,-0.0,0.054404102,-2.044721,-0.0,-0.0,-0.0,-0.0,0.0,-0.37146813,-0.0,-0.0,-0.0,-0.0
0.0,-0.24942455,0.4675913,0.0,0.0,0.0,0.0,-0.16122442,0.0,0.0,0.0,-0.27868542,-0.18006654,-0.0,-0.0,-0.0,0.0,0.17091443,-0.0,-0.0,0.0,0.17245744,0.0,0.0,0.0,-0.0,-0.0,0.815622,0.0,0.0,-0.0,-0.0,0.0,-0.0,-0.0,-0.0,0.0,-0.0,-0.0,-0.0,-0.64036435,0.0,0.0,0.0,-0.0,0.0,0.0,-0.22679877,-0.0,0.16166519,-0.0,-0.16682069,-0.15768455,-0.38867477,0.0,-0.0,-0.0,0.0,-0.0,0.0,-0.36215848,-0.0,0.16471033,0.25658745
0.0,0.5056594,0.28917852,-0.17407809,0.0,-0.0,-0.0,0.25908768,-0.0,0.14628167,-0.0,0.024072919,-0.3427677,0.9613647,-0.0,0.5166399,-0.0,0.00861828,0.0,-0.0,-0.0,-0.0,-0.0,-0.0,2.4361503,0.0,-0.18775976,-0.306961,0.0,-0.0,0.19813392,-0.0,-0.0,-0.23861703,0.31861353,-0.0,0.028743504,0.15936074,-0.0,0.0,-0.0,-0.0,-0.0,-0.48072344,0.73361,0.16099694,-0.17992528,-0.3207419,0.0,-0.0,-0.0,-0.0,-0.1714572,0.0,-0.0,-0.0,0.0,0.0,0.0,0.0,0.0,0.0,-0.0,0.17528716
-0.16686556,-0.0,0.0,-0.0,-0.0,0.16771458,0.0,-0.0,0.0,0.0,0.0,-0.0,0.0,0.155139,-0.0,-0.0,-0.0,-0.2673395,0.0,0.17190465,-0.0,-0.15351997,0.0,-0.0,-0.0,-0.0,-0.0,-0.0,0.0,0.0,0.21756674,-0.0,0.0,0.0,-0.0,0.0,0.0,0.0,-0.0,-0.15861864,0.0,0.0,0.16313483,0.0,0.0,-0.0,-0.0,0.0,-0.0,0.0,-0.0,-0.0,0.24667573,-0.17104352,-0.0,0.0,-0.0,-0.21139032,-0.0,-0.2513819,0.0,-0.0,-0.0,-0.0
-0.0,0.0,0.24673837,-0.0,0.0,-0.0,0.23045622,-0.0,0.0,0.18580312,0.0,-0.21197979,0.0,0.0,-0.0,0.0,-0.2091227,0.41722012,-0.0,0.26193407,-0.27626014,-0.0,-0.21097118,0.0,0.0,0.0,-0.0,-0.0,-0.0,-0.3086465,0.0,0.0,0.0,0.0,0.18073323,0.18509784,0.0,-0.0,-0.0,0.19284035,-0.0,0.36091858,0.23539548,0.0,-0.0,0.0,-0.0,0.0,0.0,0.0,0.0,0.0,0.23921435,-0.61018735,0.0,0.0,0.27162468,0.0,-0.15557836,0.0,-0.15650316,-0.0,-0.0,-0.1530906
0.0,0.18257518,-0.0,0.0,0.0,0.1554326,0.0,0.0,0.18778977,-0.0,0.0,-0.0,0.16042782,0.0,0.0,0.0,0.0,0.1911495,-0.0,0.0,-0.0,0.0,-0.0,0.1663254,0.15311846,-0.0,-0.0,0.0,0.0,-0.0,0.20630744,-0.0,0.0,0.0,0.0,0.0,0.0,0.0,0.0,0.0,0.0,0.0,-0.0,-0.0,0.0,0.0,-0.0,0.0,0.16864948,0.0,-0.0,-0.0,0.0,0.0,0.16609149,-0.0,0.22929282,-0.0,-0.0,0.0,-0.0,0.0,-0.0,-0.0
0.30925408,0.0,0.42345542,-0.0,0.4180672,0.0,-0.0,0.0,-0.0,-0.17617309,0.20554706,0.0,-0.21557707,0.2057462,0.0,-0.0,-0.16397548,0.0,-0.0,0.19236767,-0.1679882,-0.0,-0.1674324,0.0,0.0,-0.0,-0.0,-0.15575545,-0.19798984,0.0,-0.0,-0.0,-0.0,-0.0,0.3934318,0.0,0.33305535,0.0,-0.20027442,0.0,-0.15614812,0.4247037,0.0,-0.0,-0.22114825,-0.20162378,-0.0,0.0,0.26058498,-0.0,0.0,-0.0,0.0,-0.64505106,-0.15568818,-0.0,0.3224711,0.0,-0.0,-0.24730495,0.0,-0.0,0.0,-0.19773619
0.0,0.0,-0.2592288,0.0,0.0,0.0,-0.0,0.0,0.0,-0.0,0.0,-0.0,-0.0,0.0,0.3337263,-0.0,0.0,0.0,-0.0,0.0,-0.0,-0.18229012,-0.0,-0.0,0.0,-0.0,0.0,-0.0,0.0,0.0,0.0,0.22630787,-0.0,0.0,0.17596535,-0.0,-0.0,0.0,0.0,-0.0,-0.0,-0.0,-0.0,-0.0,-0.0,-0.0,-0.19583844,-0.0,0.0,-0.0,-0.0,-0.0,-0.0,-0.0,0.0,-0.20450348,-0.0,0.0,-0.0,0.0,0.0,0.0,0.0,-0.0
0.41625348,0.0,0.34391174,-0.0,0.1815755,-0.0,-0.0,-0.16844046,-0.22571127,0.0,-0.0,-0.0,-0.0,0.0,-0.0,0.0,-0.0,0.33623162,0.0,-0.0,-0.0,0.0,-0.18081877,-0.0,0.0,-0.0,-0.0,-0.0,-0.0,-0.0,-0.0,0.0,-0.18458278,-0.0,0.0,-0.0,0.24238989,0.0,-0.0,-0.0,-0.21432912,0.41490388,-0.0,0.1921944,-0.5075147,-0.0,0.0,-0.0,0.25595304,0.0,-0.20630865,-0.0,0.0,-0.0,-0.0,0.0,0.3748634,-0.0,-0.0,-0.0,-0.0,0.0,-0.0,-0.0
0.1995458,0.0,0.24126704,0.0,0.323814,-0.0,-0.0,0.0,-0.16583969,-0.0,0.0,0.0,0.0,-0.0,-0.19699001,0.0,-0.0,0.19160049,-0.0,0.0,-0.17975673,0.0,0.0,0.0,0.26106277,0.15758355,0.15233591,-0.0,0.152862,-0.22817709,-0.0,-0.0,-0.0,-0.0,0.22498377,-0.0,0.21581022,0.15945332,-0.0,-0.0,-0.15383413,0.2835899,-0.0,0.22594546,-0.6876734,-0.0,0.0,-0.0,0.18255194,0.17445223,-0.0,0.0,0.0,-0.0,0.0,0.0,0.36747047,0.0,0.0,-0.0,-0.16522405,0.18152794,0.0,0.0
-0.0,-0.0,0.0,-0.0,-0.0,0.0,-0.1554495,0.0,0.0,0.0,-0.0,-0.0,-0.0,-0.22977883,0.0,-0.0,0.21780121,-0.0,0.0,-0.0,0.15656264,0.0,0.0,-0.0,0.0,0.0,0.16390869,-0.15649396,0.0,-0.17328058,0.0,0.0,-0.0,0.0,0.0,0.0,-0.0,-0.17924255,0.0,-0.0,0.0,-0.0,0.0,-0.0,-0.0,0.0,-0.0,-0.0,0.17817375,-0.0,-0.0,0.0,-0.0,0.44587657,0.21459126,0.0,-0.0,-0.1829866,-0.0,-0.16889818,-0.0,0.0,0.0,-0.5859028
-0.19443576,0.46297842,0.5277884,-0.0,0.40569982,-0.0,-0.3513901,0.23469035,-0.20009446,-0.215312,-0.24780492,0.0,-0.0,0.35061884,0.30415976,-0.0,0.18681253,0.508529,0.15959544,-0.35367987,-0.21591626,0.0,0.31742397,-0.0,-0.0,-0.0,-0.0,0.0,-0.0,-0.0,0.0,-0.15752028,-0.19321418,-0.69286406,0.41900066,-0.0,0.4291559,-0.2440078,0.0,0.0,-0.16012259,-0.0,0.16446473,0.0,0.22861508,-0.2931209,0.0,-0.2656918,-0.39739773,0.2335424,0.0,-0.0,-0.56755966,-0.47857547,-0.1666491,0.0,-0.0,-0.0,-0.0,-0.0,-0.0,-0.0,-0.17013316,0.2404255
0.0,-0.0,-0.0,-0.0,0.16135518,-0.0,0.11630631,0.0,0.0,-0.0,-0.0,-0.0,-0.25797796,-0.0,0.13102265,0.0,-0.0,-0.0,-0.0,0.0,-0.18406774,-0.0,-0.19222534,-0.0,0.0,-0.20051518,-0.0,-0.0,-0.0,-0.057214025,-0.0,0.18327907,-0.0,0.0,0.012222807,-0.3878644,-0.0,0.0,-0.0,0.19122286,0.0,0.36581588,0.44245693,0.390532,0.3509652,-0.0,0.0,-0.0,-0.30699232,0.0,0.12327607,-0.16911961,0.0,-0.44785035,-0.24892615,0.0,0.29946017,0.0,-0.0,-0.0,-0.15503491,-0.0,0.0,0.0
-0.0,-0.0,-0.0,0.0,0.20918559,0.0,0.0,-0.17669459,-0.18177646,-0.0,-0.0,-0.27105033,-0.0,-0.17948642,0.0,0.0,-0.18766497,0.0,-0.0,-0.0,-0.0,-0.0,0.0,-0.0,0.23188108,0.17309847,0.0,-0.0,-0.1526214,-0.3641779,-0.0,0.0,0.0,0.0,-0.0,-0.20779185,-0.0,-0.0,0.0,0.0,-0.24711625,0.30918068,0.0,-0.15683907,-0.24211825,0.0,-0.0,-0.0,0.17125186,0.0,-0.0,-0.0,0.0,-0.0,0.0,-0.0,0.19206466,0.0,-0.0,-0.0,0.0,-0.0,-0.0,-0.0
-0.75123715,0.66281646,0.0,-0.23279881,0.0,-0.20347236,-0.0,-0.16850774,-0.0,-0.0,-0.0,0.0,-0.0,-0.0,-0.019973809,0.32264522,-0.0,0.0,0.0,-0.0,-0.0,0.0,0.44579947,-0.0,-0.12386814,-0.0,0.0,-0.0,-0.0,0.07288138,-0.0,-0.0,-0.0,-0.0,-0.0,-0.40755624,0.23673384,-0.0,-0.0,0.0,-0.0,-0.0,0.9314197,0.48106942,0.0,-0.0,-0.0,-0.0,0.0,-0.0,-0.0,-0.0,-0.22053024,0.0,-0.0,-0.0,0.0,0.0,-0.0,-0.0,-0.0,-0.0,0.15721108,-0.0
-0.80709887,-0.48460007,0.0,-0.0,0.0,-0.15963165,-0.20769489,0.0,-0.0,0.28100508,-0.0,-0.0,-0.18254447,-0.33290645,0.0,-0.28518283,0.0,-0.95840085,-0.0,-0.0,0.0,0.0,-0.41307905,0.0,8.042838,0.0,-0.19257697,-0.0,-0.0,-0.0,-0.20666414,0.0,0.26386586,0.32573462,0.0,-0.0,-0.7970014,-0.0,0.16251513,-0.0,-0.0,-0.0,-0.085530505,-0.62038994,0.2716276,-0.261805,-0.0,-0.19155195,-0.055541623,-0.0,-0.24652475,0.0,-0.0,0.0045583025,0.0,0.0,-0.35537967,0.0,0.0,-0.21849884,0.34310955,0.17635806,-0.23404653,0.0
0.18463917,0.0,0.3894179,0.0,0.4449537,-0.0,-0.0,0.0,-0.0,-0.0,0.0,-0.2625589,-0.20895316,0.19881867,-0.0,-0.3055021,-0.16211998,0.1739155,0.0,-0.0,0.0,0.0,-0.19500437,-0.0,0.0,-0.0,-0.0,-0.0,0.0,-0.24833366,-0.26634777,-0.0,-0.0,-0.0,0.3226789,-0.24164702,0.18773413,-0.184749,0.0,0.0,0.0,0.4134032,0.16543773,0.17759025,-0.39128846,0.0,-0.0,-0.0,-0.1552318,0.0,0.19117703,-0.18056712,0.0,-0.3928351,0.0,-0.0,0.38466683,0.0,-0.0,-0.35891894,-0.22579046,-0.0,-0.23057571,0.16655368
0.25425276,0.28285724,0.0,-0.0,-0.25383186,-0.17052855,-0.0,-0.0,0.0,-0.0,-0.0,0.0,0.0,0.0,-0.0,-0.0,0.0,-0.0,0.0,0.0,-0.0,-0.0,-0.0,0.0,0.23639224,0.0,0.0,-0.0,-0.0,0.15614471,0.0,-0.0,0.0,0.16448267,0.0,-0.0,0.0,-0.0,-0.17361741,-0.23506716,-0.0,-0.16872083,-0.0,0.2001119,-0.18686946,-0.0,-0.0,-0.19765341,0.22296412,-0.1757282,-0.0,-0.0,-0.0,-0.0,0.0,0.17011072,-0.25983727,0.0,-0.0,0.0,-0.22211406,-0.0,0.0,-0.19562839
-0.0,0.0,0.0,-0.0,0.0,-0.0,-0.0,0.0,0.0,-0.0,-0.18755326,-0.0,0.0,-0.0,0.0,-0.17101327,0.156293,-0.0,0.0,-0.0,0.19931976,-0.0,-0.0,-0.16199651,-0.0,-0.0,-0.0,-0.0,0.0,-0.0,0.0,0.0,0.0,-0.16193493,-0.0,-0.0,0.0,0.0,0.0,0.0,0.0,0.0,0.16154629,-0.0,-0.1714993,-0.0,-0.0,0.0,0.0,0.15303878,0.0,0.0,0.0,-0.23977204,-0.20381926,0.0,0.0,0.0,0.0,-0.0,-0.0,0.0,0.0,-0.0
0.0,-0.0,-0.0,0.0,0.0,-0.0,-0.0,0.0,0.0,-0.20705314,-0.0,0.0,-0.19257098,-0.24604222,0.18669422,-0.0,-0.0,0.25150043,-0.0,-0.0,0.21847253,-0.0,-0.15915553,0.45323396,0.0,-0.0,-0.0,-0.0,-0.0,0.0,-0.16011232,0.0,-0.524536,-0.15523726,-0.0,-0.0,-0.0,0.2120788,-0.16933376,-0.2621,-0.0,-0.24020852,0.0,0.18504919,-0.0,-0.16070694,0.0,0.24057364,-0.24972329,0.20550579,0.0,-0.0,0.0,-0.28625932,0.0,0.0,-0.0,0.15429927,0.0,0.0,-0.0,0.0,0.31851858,0.27606785
0.3506007,0.0,0.0,-0.20591375,0.46676016,0.0,0.0,-0.0,-0.1895002,-0.0,-0.0,-0.15421161,0.0,0.26589593,0.0,-0.0,-0.28890312,0.31945816,-0.0,0.0,-0.22640744,-0.15937527,0.0,-0.0,-0.0,0.1786882,0.0,-0.0,-0.0,-0.20423234,-0.0,0.16600436,-0.24718027,-0.0,0.3876493,0.0,0.25589645,0.0,-0.15691695,0.0,-0.23505235,0.3120142,0.0,0.0,-0.2617818,0.0,-0.17182192,-0.0,0.37583628,0.0,-0.0,0.0,0.20893437,-0.0,-0.18928224,-0.0,0.3377386,0.0,0.0,-0.0,-0.16504866,0.0,-0.0,-0.0
0.36604124,-0.0,0.0,-0.15227969,0.26688075,0.0,-0.0,-0.0,-0.15880714,-0.0,0.0,-0.0,-0.16800764,0.26067334,-0.0,0.15381087,-0.0,0.3060881,-0.0,0.17871635,-0.0,0.15584463,-0.0,-0.26494902,0.22748803,-0.17131984,0.0,-0.0,0.16910322,-0.0,-0.0,-0.0,0.0,0.0,0.27181256,0.0,0.28137088,-0.0,-0.1984054,0.0,-0.0,0.48291513,0.17228921,0.16907297,-0.34472093,-0.25507367,0.0,-0.20284025,0.0,0.2738963,0.0,-0.179902,0.0,-0.16868223,0.16244696,0.0,0.38866153,-0.22818293,-0.0,-0.22249152,0.0,0.0,0.0,-0.0
0.28151673,0.23230407,-0.24313521,0.0,0.28881052,0.0,0.0,0.0,0.0,-0.0,-0.0,-0.0,-0.32468536,-0.0,0.19717115,0.0,0.23748773,0.33987197,0.2066802,-0.0,0.0,0.0,-0.0,-0.0,0.0,0.0,0.0,-0.20632699,0.0,0.18387091,-0.18872632,0.0,-0.0,0.22514577,0.0,-0.0,-0.0,-0.0,0.0,-0.0,-0.0,0.0,-0.0,-0.0,0.17259581,-0.0,-0.0,0.0,-0.2910108,0.0,0.24817339,-0.0,0.0,-0.26224723,0.0,0.0,-0.0,-0.0,0.0,-0.15323162,-0.30441144,0.0,-0.0,0.0
0.1610943,0.0,0.24676539,-0.0,0.3421223,-0.0,-0.21476685,-0.0,-0.0,-0.0,-0.0,-0.0,-0.2688213,0.3287508,-0.0,0.36948535,-0.0,0.15538254,-0.21245754,0.0,0.0,0.16600889,-0.0,0.0,-0.0,0.0,-0.0,0.0,-0.19520865,-0.0,-0.0,0.15336904,0.0,0.18783027,0.24004318,0.0,0.0,0.0,0.0,-0.0,-0.0,0.37642393,0.0,-0.17170066,-0.1990271,0.0,-0.0,-0.0,0.35097978,0.0,-0.0,0.0,0.15753396,-0.2344972,-0.17400508,-0.20169339,0.37729737,-0.0,-0.0,0.0,-0.0,0.0,-0.0,-0.0
0.19448648,-0.16353142,0.33342108,-0.0,0.436094,0.15896405,-0.0,0.0,0.0,-0.0,0.0,-0.15829721,-0.0,0.18314832,-0.21306394,-0.30910408,-0.24412721,0.17672779,0.0,-0.25952512,0.0,0.0,0.2067734,0.0,0.20558849,0.0,-0.0,0.0,0.0,-0.2357249,-0.19560097,0.17940393,0.0,0.0,0.0,-0.23262729,-0.0,-0.0,-0.0,0.2184399,0.0,0.28868422,-0.0,-0.40578353,-0.0,-0.0,0.0,0.0,-0.0,0.17976111,0.21641411,0.0,0.0,-0.0,-0.0,-0.20344917,0.0,0.0,-0.18222556,-0.18936978,0.0,0.0,-0.1915717,0.186871
-0.0,-0.15842912,1.988147,-0.0,-0.18785512,0.0,-0.36422518,0.0,-0.2116746,0.0050469204,-0.0,0.07979654,-0.1759489,-0.0,-0.33171588,0.86322284,-0.0,-0.22581105,0.0,0.29932305,-0.31377006,-0.0,0.23502041,-0.26779526,0.0,-0.2394053,0.0,-0.0,-0.0,0.0,-0.15812042,0.0,0.0,0.0,0.5836248,-0.0,-0.0,0.0,0.0,0.0,-0.0,-0.0,-0.14732173,-0.0,-0.003981119,0.0,-0.0,-0.26857024,-0.0,0.08096616,0.0,-0.19566308,-0.2219534,-0.3400489,0.19441183,0.0,-0.0,0.0,-0.0,-0.23042695,0.0,0.0,-0.419102,0.0
-0.4443765,-0.8748724,1.7543759,0.0,0.19313747,-0.0,-0.20533825,0.0,0.0,0.44501925,-0.0,0.2609929,-0.0,-0.64708394,-0.19337186,0.0,-0.8100505,-0.0,0.0,-0.6400702,-0.0,0.0,-0.29488483,-0.292549,7.0598736,-0.0,-0.0,0.0,-0.0,-0.0,-0.15416738,0.0,0.0,0.42688745,0.44444472,-0.0,-0.99628365,-0.0,-0.0,-0.2323539,0.0,-0.28503397,-0.39219952,-0.687199,0.18932027,-0.27257195,-0.0,0.0,-0.0,-0.0,-0.32342422,0.0,-0.0,0.22649851,0.0,-0.0,-0.5681799,-0.0,0.0,0.2637979,0.16084962,-0.0,-0.37437958,-0.0
-0.19462979,-0.0,0.0,-0.0,0.0,0.0,-0.0,-0.17439714,-0.0,0.0,-0.0,0.0,0.0,-0.0,-0.0,0.17639458,-0.0,0.16937533,0.0,-0.0,-0.21258906,-0.0,-0.0,0.0,0.0,0.0,-0.0,0.0,-0.17981921,-0.0,-0.0,0.1756066,0.0,0.0,0.0,0.21563892,0.0,0.0,0.0,-0.0,-0.16153286,0.19945209,0.0,0.15341905,-0.0,-0.0,-0.0,-0.20728637,-0.0,0.0,-0.0,-0.0,-0.0,-0.16109191,0.0,-0.0,-0.0,-0.15904848,-0.0,0.0,0.0,-0.0,-0.0,0.0
0.30003363,-0.0,0.26274547,0.0,0.44216606,0.0,0.0,-0.22185393,-0.0,0.0,0.0,-0.17946857,-0.0,0.38001496,0.0,-0.0,-0.0,0.29071817,0.0,0.0,-0.23645012,0.0,0.0,0.0,0.25699028,0.0,-0.0,-0.0,-0.1676608,0.0,-0.0,-0.0,-0.21780062,-0.0,0.33776572,0.0,0.19426027,0.0,-0.0,0.0,-0.0,0.43163103,-0.0,0.28174877,-0.0,-0.0,0.0,-0.0,0.3472586,0.18378171,0.0,0.0,-0.0,-0.32805535,0.0,-0.0,0.21558186,-0.0,-0.0,-0.0,-0.18674596,0.0,-0.15548168,0.0
-0.36275434,-0.1412833,0.0,-0.25399086,-0.2449329,-0.0,-0.0,0.0,0.0,-0.088185914,0.16760363,-0.0,-0.0,-0.34925753,-0.0,0.0,-0.2658497,-0.61917025,0.0,0.0,-0.0,-0.0,-0.28776738,0.0,0.0,-0.0,0.0,-0.24665317,0.0,0.0,0.0,-0.16585357,0.3146705,0.0,-0.39164844,-0.0,-0.0,-0.0,-0.0,-0.0,0.0,-0.0,-0.0,0.19882245,0.3585432,-0.1903287,0.0,0.0,-0.0,-0.1477807,-0.3649104,0.0,-0.0,0.52339005,0.0,0.0,-0.0,-0.0,0.0,-0.0,0.0,0.0,-0.0,0.0
0.0,0.026046112,0.0,-0.16957994,0.0,-0.15482508,-0.26837033,-0.0,-0.0,0.15314801,0.0,0.0,-0.32158914,-0.0,-0.0,0.0,0.1746303,0.0052706003,-0.0,-0.0,-0.34045961,0.0,0.29848465,-0.0,-0.0,-0.0,-0.0,-0.32408884,-0.0,0.26861787,0.16105053,0.0,-0.1839078,0.0,0.0,0.0,-0.0,-0.0,-0.0,0.0,0.0,-0.66401666,0.20796624,0.21484664,0.047592,-0.32749662,-0.0,-0.0,-0.0,-0.0,0.0,-0.16716182,0.0,0.0,-0.0,-0.19050214,-0.98468447,0.0,-0.0,-0.0,-0.40762052,-0.0,0.72963864,0.0
0.0,0.2329632,0.2047038,0.0,0.0,-0.0,-0.25028792,0.0,-0.0,-0.25421938,0.0,0.28798684,-0.0,-0.0,0.0,-0.15878788,-0.1571999,0.43248713,-0.0,-0.0,-0.27668256,-0.0,-0.2806124,-0.19053444,-0.0,0.0,-0.0,-0.0,0.0,-0.0,0.0,-0.17671704,-0.0,0.0,0.26115268,0.0,0.0,0.0,0.0,0.1917931,-0.58611375,-0.26894385,-0.0,-0.0,-0.0,0.0,0.0,-0.0,0.19666503,0.18110017,-0.0,-0.0,-0.30957204,-0.74447495,0.19974783,-0.0,-0.0,-0.0,-0.0,-0.37536326,-0.2958649,-0.23534384,-0.21507633,-0.0
0.18049908,-0.0,0.39485687,-0.0,0.39911458,0.0,0.18262948,-0.20098022,-0.16775984,0.16809769,-0.0,-0.25374842,-0.2627603,0.0,-0.0,-0.37055948,-0.0,0.19249892,0.0,0.0,-0.22421709,-0.17164165,-0.30016747,-0.0,-0.0,0.0,0.0,-0.0,-0.0,-0.30755267,0.0,-0.0,-0.0,0.0,0.43619058,0.0,0.25797436,0.0,-0.0,0.0,-0.0,0.3810147,-0.0,0.46854985,-0.15326613,-0.21538514,0.0,0.0,0.2571892,0.22131102,0.0,-0.0,-0.0,-0.0,0.0,0.0,0.24794336,0.0,0.0,-0.0,-0.0,-0.0,0.15762757,-0.0
0.25659707,0.18064904,0.0,-0.0,0.0,0.0,0.0,0.0,0.0,0.0,0.0,-0.0,-0.17967145,0.45250407,0.0,-0.2553109,-0.2265243,0.0,0.0,0.0,-0.0,-0.0,-0.0,0.56697935,0.0,-0.0,-0.0,-0.0,-0.0,-0.16387764,-0.2442816,-0.0,-0.0,0.0,-0.0,-0.0,0.0,-0.0,-0.0,0.0,-0.24593315,0.21761476,0.34469542,0.5481846,-0.33507204,-0.18331061,0.0,-0.0,0.0,0.0,0.0,0.0,0.19690758,-0.0,0.0,-0.0,0.0,0.0,-0.0,0.0,-0.21295655,-0.0,0.0,-0.0
0.0,-0.0,0.2778551,-0.0,0.42914316,0.0,0.20668063,0.0,-0.0,-0.0,0.0,0.0,-0.19396494,0.3624715,-0.0,-0.0,-0.21329752,0.18050829,-0.0,0.0,-0.0,-0.0,-0.2314132,0.0,0.2855397,-0.1605051,-0.0,-0.33884928,-0.0,-0.0,-0.0,0.17665994,-0.1579604,-0.0,0.35641038,-0.0,-0.0,0.0,-0.0,-0.2252884,-0.0,0.22966596,0.1907754,-0.0,-0.25512302,0.0,-0.0,0.0,0.21085763,0.28852838,0.0,0.21224636,0.15240306,-0.37620232,0.0,-0.0,0.38144365,-0.0,-0.0,-0.0,-0.1583449,-0.0,-0.0,-0.19342926
-0.16603197,0.0,-0.0,0.0,-0.0,0.0,0.22616993,0.0,0.0,-0.0,0.0,-0.15935825,0.0,-0.0,0.0,-0.19409077,0.0,0.0,-0.0,0.19984244,-0.28960368,0.1619701,0.0,0.1634707,-0.0,-0.0,-0.0,0.0,-0.16138972,-0.1571531,0.0,-0.17923485,-0.0,0.0,0.0,-0.0,-0.0,0.0,-0.0,-0.0,-0.0,0.0,-0.18653323,-0.0,0.0,-0.0,0.0,0.0,-0.0,-0.0,0.17720108,0.0,0.0,-0.0,-0.0,0.0,0.269991,0.0,0.0,0.0,-0.0,-0.0,0.0,0.1553145
0.19448249,-0.2871059,0.2879982,-0.0,0.0,0.0,-0.0,0.0,-0.0,0.0,0.0,0.699863,0.0,-0.2598201,0.0,0.0,-0.37997556,-0.22242132,0.0,-0.0,-0.0,-0.0,0.0,-0.0,-0.22649881,-0.19231798,0.0,0.0,0.0,-0.0,-0.0,-0.0,0.0,-0.0,0.0,0.0,0.0,0.0,-0.0,-0.21942247,-0.46926045,-0.32021677,-0.0,0.0,0.4837718,0.18915051,0.0,-0.3705325,-0.37540188,-0.15653463,-0.0,-0.0,-0.0,0.21873671,-0.0,-0.0,-0.0,-0.0,0.0,0.5127253,0.0,-0.0,0.0,-0.0
0.7673244,-0.0,2.1989396,0.20021425,-0.0,-0.0,-0.16969644,-0.0,0.23812719,0.20718962,-0.0,-1.1081861,0.0,-0.0,-0.0,-0.38294336,0.0,-1.1435838,0.0,-0.3233047,0.21347536,0.0,-0.0,0.16439816,8.924273,-0.0,-0.0,-0.0,0.0,-0.0,-0.4007013,-0.0,-0.0,0.0,-1.2224773,-0.0,-0.0,-0.33098337,-0.0,0.3728528,0.19703257,-0.32927337,0.4099389,0.10544655,-1.1845496,-0.0,-0.0,0.0,-0.8194021,-0.0,-0.0,-0.23928548,-0.0,-1.1831188,0.21214072,-0.0,-0.0,-0.3157412,-0.24570492,0.0,0.36223575,0.0,-0.26996833,-0.2904143
-0.0,0.0,0.16422679,-0.0,0.0,-0.16883472,0.15825592,-0.0,0.24207865,-0.20975499,0.0,0.0,-0.0,-0.17018333,0.24766444,-0.41097346,-0.0,0.1707983,-0.0,-0.23423137,-0.0,-0.0,0.0,0.18007764,0.0,-0.0,-0.0,0.0,0.0,0.0,-0.0,0.0,-0.0,-0.16818456,-0.0,-0.0,-0.0,-0.0,0.0,0.0,0.0,0.0,0.0,-0.21671745,-0.0,0.0,0.0,0.0,0.17187548,-0.0,0.0,-0.0,-0.0,-0.0,0.22961184,-0.0,0.0,-0.0,-0.0,0.0,-0.19811285,-0.0,-0.0,0.0
0.34595767,0.0,-0.0,0.0,0.30327886,0.0,-0.0,0.0,-0.0,0.0,0.0,-0.0,-0.18544568,0.0,-0.0,0.17978512,-0.27207538,0.291825,-0.0,0.0,-0.0,-0.0,-0.268052,-0.15876862,0.44843066,0.0,0.0,-0.0,-0.16035852,-0.0,0.0,0.17401883,0.0,-0.0,0.36941522,0.19061442,-0.0,0.0,-0.0,-0.0,0.0,0.46020317,0.0,-0.0,-0.30399075,-0.0,-0.21169363,-0.0,0.0,0.2979874,-0.0,0.0,0.28831032,-0.24976628,-0.0,-0.0,0.30595502,0.0,0.0,-0.0,-0.0,-0.0,0.0,-0.2184473
0.07071402,0.5083425,0.6830699,-0.0,-0.5625534,0.0,-0.0,-0.0,-0.21966937,0.056210116,-0.0,-0.610219,-0.0,-0.0,-0.012944341,0.29373997,-0.0,-0.26190445,-0.0,0.0,0.0,0.0,-0.0,-0.0,0.3678795,-0.22865807,-0.0,-0.16347577,-0.0,0.1198598,-0.17515962,0.0,-0.0,0.0,-1.247552,-0.0,1.3629075,-0.17584936,-0.0,-0.20710306,0.0,-0.7881639,-0.0,0.45477277,-0.59849083,-0.0,-0.0,-0.0,-0.42976227,1.0939627,-0.33475336,-0.0,0.0,3.5029397,0.15239124,-0.0,-1.0029225,-0.0,-0.0,-0.0,-0.23912157,-0.0,-0.332068,-0.0
0.24954037,0.0,0.44294506,0.16429411,0.3405987,-0.0,0.0,-0.0,0.0,-0.0,0.0,-0.0,0.0,-0.0,-0.0,-0.0,-0.21982718,0.18776666,-0.0,0.0,-0.17118336,-0.0,0.0,-0.21935798,-0.0,0.0,0.0,-0.1915016,-0.0,0.0,0.0,-0.0,-0.0,-0.0,0.27488413,-0.0,0.17526613,-0.0,-0.0,0.0,0.0,0.42778558,-0.0,0.0,-0.32051182,-0.0,0.0,-0.17294477,0.0,0.0,-0.15354961,-0.0,0.0,-0.25038165,0.0,-0.0,0.21364859,-0.0,-0.0,-0.23124291,0.1767378,-0.1549482,0.0,0.0
-0.0,0.1689534,0.10209512,0.0,0.0,0.0,-0.29815054,-0.0,-0.22562782,-0.14100298,-0.0,0.6305875,-0.17797849,0.5748973,-0.42423442,0.34457818,0.3702578,-0.0,0.0,0.038203537,-0.24334532,-0.0,0.16138752,-0.2482442,0.0,-0.0,-0.16730592,-0.0,-0.16827129,-0.0,-0.0,0.0,0.0,0.0,-0.0,-0.17859136,-0.0,-0.0,-0.0,0.0,-0.18591696,-0.0,0.5911128,-0.0,-0.0,0.30513394,-0.0,-0.24658419,0.28099686,0.08670004,0.0,-0.0,0.0,-0.12942882,-0.0,-0.0,0.0,0.0,-0.1643347,-0.2132786,-0.0,-0.0,-0.0,-0.47108978
0.0,-0.0,0.5049962,-0.22568296,0.76331425,-0.21788244,0.0,0.0,0.16927166,-0.0,-0.0,-0.0,-0.0,-0.0,0.0,0.22496814,0.3494539,0.23569386,-0.0,-0.4656356,0.32418668,0.16535954,0.6628351,-0.43237793,-0.0,0.0,-0.0,-0.0,-0.19369565,-0.0,0.0,-0.23052727,-0.0,0.0,0.32090956,0.0,0.45728615,-0.0,-0.0,0.2846279,-0.0,-0.0,0.20452479,-0.29422724,0.5867276,-0.23324643,0.0,0.29175338,-0.0,0.0,0.15637995,0.0,-0.0,0.0,-0.0,-0.0,-0.0,-0.0,0.0,-0.0,0.4303753,-0.0,-0.23910852,0.0
-0.0,0.15782566,0.24038072,0.0,-0.0,0.0,0.0,-0.0,-0.1750958,0.0,0.0,0.0,0.0,-0.17560078,-0.0,0.0,-0.0,0.0,0.15925978,0.0,-0.0,0.0,-0.20229614,-0.19553804,0.0,0.0,0.0,-0.0,0.0,-0.0,0.0,-0.0,-0.0,0.0,0.0,0.0,0.0,0.0,0.0,0.0,-0.0,-0.0,0.19748454,0.20962988,0.0,0.15374579,0.21163878,-0.0,0.0,0.0,0.0,-0.0,-0.0,0.0,-0.0,-0.17220226,0.0,-0.0,0.0,0.0,-0.0,-0.0,-0.0,0.0
-0.21193786,-0.94179565,0.0,-0.17063838,-0.0,-0.17441803,-0.24068502,-0.0,-0.0,-0.0,0.0,0.03676848,-0.0,-0.70435643,-0.0,0.0,-0.7847295,-0.0,-0.0,-0.3105759,-0.26756194,0.0,-0.4792007,-0.24747314,0.0,-0.19831273,-0.0,-0.0,-0.0,0.0,0.0,-0.0,-0.0,0.36701384,0.0,-0.0,-0.676064,-0.18965228,-0.0,-0.15633929,0.17092136,0.0,-0.8107851,-0.5870621,0.009428455,-0.0,0.15403463,-0.0,-0.0,-0.0,-0.0,-0.0,-0.0,0.0,-0.0,-0.0,0.0,0.0,0.0,-0.0,-0.0,-0.0,-0.26008144,0.0
0.27082986,-0.0,0.17570403,0.0,0.35173175,-0.20259333,0.0,-0.0,-0.0,-0.0,0.1775123,-0.0,-0.0,0.325364,0.0,-0.0,-0.29207486,0.34295714,-0.0,-0.0,-0.0,0.0,-0.0,-0.21831352,0.21108276,-0.0,-0.0,-0.0,0.0,0.0,-0.17397484,0.0,-0.0,0.0,0.45162734,0.0,0.0,0.0,0.0,0.0,-0.0,0.26197976,0.16706508,0.0,0.0,-0.0,-0.0,-0.0,0.45421064,0.0,-0.0,-0.0,0.0,-0.6493599,0.0,-0.0,0.33974934,-0.0,0.0,-0.18384978,-0.2160351,0.0,-0.0,-0.1595345
0.0,-0.0,0.19506858,0.0,0.54894775,-0.16086465,0.0,-0.0,0.0,0.0,-0.0,-0.0,-0.18802567,0.25751573,-0.0,0.0,-0.0,0.38553667,-0.0,-0.0,0.0,-0.19362907,-0.19370762,-0.23199293,0.0,0.0,0.0,-0.0,-0.0,-0.15507571,-0.43145943,-0.1574395,-0.1712734,0.0,0.0,-0.2534332,0.1919076,0.0,-0.0,0.0,-0.0,0.0,0.0,-0.0,-0.44207343,-0.0,-0.0,-0.18151714,0.1640216,0.0,-0.0,0.0,-0.0,-0.15744025,0.0,0.0,0.3179809,0.0,0.0,-0.24757901,0.38601118,-0.0,-0.23645313,-0.0
-0.0,0.39175457,-0.0,0.0,-0.0,0.0,0.0,-0.0,-0.0,0.0,-0.0,-0.0,0.15517841,-0.0,-0.18392234,0.0,-0.0,-0.52629143,0.16860113,-0.0,0.23382269,0.0,-0.0,0.0,-0.0,0.0,-0.18855649,-0.0,-0.0,-0.0,-0.0,0.0,-0.0,0.19590831,-0.0,-0.23108932,-0.15656565,0.0,-0.1712631,0.0,-0.22323674,-0.0,0.23167554,0.16059689,-0.26260132,0.0,0.0,0.0,0.0,0.0,-0.0,-0.0,-0.0,-0.0,0.2144686,0.0,-0.23370478,0.0,-0.0,-0.0,-0.0,-0.0,0.0,-0.0
0.1235639,-0.09015576,0.0,0.0,-0.24617839,0.0,-0.0,-0.0,-0.3067265,0.04291907,-0.0,-0.0,0.5754168,0.36882702,-0.52749,-0.0,-0.0,0.20910157,-0.0,0.35354,-0.0,-0.0,-0.0,0.16427056,-0.0,-0.0,-0.0,0.28204882,-0.18434493,-0.32562238,-0.011594059,0.0,0.0,0.0,0.4152837,-0.0,0.15292703,-0.0,-0.0,-0.0,-0.30062404,-0.0,-0.0,0.0,-0.13451868,-0.16007891,-0.0,-0.28698966,0.4152344,0.14479412,-0.53474337,0.0,0.0,-0.0,-0.22103027,0.0,-0.0,0.0,-0.0,-0.0,0.1591843,-0.0,-0.15517004,-0.37109724
-0.16408849,0.0,0.0,-0.26001406,0.0,-0.16878468,-0.1581437,0.0,0.0,-0.0,0.0,0.19889322,-0.0,0.32597917,-0.23923305,0.15257019,0.42308578,0.0,0.0,0.25108972,-0.0,-0.0,0.3703604,0.0,0.0,-0.0,-0.0,-0.0,0.0,0.0,0.0,0.0,0.0,0.0,0.0,0.0,-0.0,-0.0,0.0,-0.0,-0.1774021,-0.403337,-0.0,-0.0,-0.0,0.0,-0.17867905,0.0,0.15851271,0.0,0.0,0.0,-0.0,0.0,-0.15313382,0.0,0.0,0.0,-0.0,0.0,-0.0,0.0,-0.0,0.0
0.19496599,0.0,0.24725819,-0.19119984,0.4610318,-0.0,-0.15982112,0.0,-0.0,-0.0,-0.16369721,-0.22137044,0.0,0.30172458,0.0,-0.0,-0.0,0.3810125,0.0,-0.0,0.0,-0.0,-0.24075522,-0.20072517,0.0,-0.0,0.0,0.0,0.0,-0.18882383,-0.0,-0.0,-0.3377602,0.0,0.33506858,-0.0,0.0,-0.0,-0.22026503,0.0,0.0,0.24251282,0.3378115,-0.22998802,0.0,-0.16612369,-0.0,-0.0,0.0,0.29408374,0.15600303,0.0,0.18884502,-0.50748175,-0.0,-0.17317292,0.32070684,0.17275484,-0.0,-0.0,-0.0,-0.0,-0.0,0.0
0.33449718,-0.0,0.63709587,0.0,0.2228072,-0.0,0.0,-0.167953,-0.0,-0.0,-0.0,-0.0,-0.0,-0.0,0.0,0.27587768,-0.3208547,-0.22795263,-0.0,-0.0,-0.0,0.0,-0.39899427,-0.0,0.47798294,0.0,-0.0,-0.0,0.0,0.0,-0.0,0.0,-0.0,0.0,0.38112956,0.0,0.27916262,0.0,-0.0,0.25956464,0.0,0.0,0.30646443,-0.0,-0.0,-0.0,-0.0,0.0,0.34179413,0.2968066,-0.0,0.20578419,-0.17655136,-0.310715,-0.0,-0.0,0.22260256,0.0,-0.0,0.3201631,-0.0,-0.0,0.0,-0.0
-0.0,-0.108089685,0.0,0.2088766,-0.25242034,-0.17036203,-0.0,0.17412634,0.0,-0.0,-0.19526619,-0.0,-0.16518086,-0.0,0.0,0.15205827,0.0,-1.4350036,-0.0,-0.0,-0.19941998,-0.19995154,-0.0,0.0,9.142324,-0.0,-0.0,-0.0,-0.0,-0.36223498,0.0,0.0,0.0,0.0,0.0,-0.0,-0.41617253,-0.0,-0.16478208,0.0,-0.0,-0.0,-0.0,-0.1635465,-0.0,-0.35893038,-0.0,0.0,-0.0,-0.0,-0.0,-0.0,-0.0,-1.0965668,-0.0,-0.0,-0.0,-0.18244581,0.0,-0.16773938,0.17804205,0.0,-0.21880592,-0.0
0.0,-0.18316853,-0.0,0.0,0.25746077,-0.0,0.0,0.0,-0.0,-0.15235457,-0.32908657,0.0,-0.0,-0.25766653,0.0,-0.0,-0.17047746,0.0,-0.0,0.0,-0.0,-0.0,0.0,-0.0,-0.34881577,-0.3528149,0.0,0.0,-0.19380951,-0.0,-0.0,-0.25240824,0.0,0.0,0.0,-0.0,-0.0,-0.0,-0.28722817,-0.0,-0.37649322,-0.29237065,-0.0,-0.0,-0.44292685,-0.17799437,-0.0,-0.2773882,-0.40789765,0.0,0.0,-0.24797112,-0.0,-0.36900344,-0.0,-0.0,0.0,-0.29206407,-0.0,-0.0,-0.0,0.0,0.0,-0.5024802
-0.0,0.37243953,-0.2137081,-0.0,-0.0,0.15986519,0.0,0.0,0.0,0.0,-0.0,-0.0,-0.26636386,0.0,0.0,-0.0,0.2592469,-0.0,0.0,-0.0,-0.0,-0.0,-0.0,0.0,-0.0,-0.0,-0.0,-0.0,0.0,-0.0,-0.0,0.0,0.0,0.0,0.0,0.25543275,0.0,-0.0,-0.0,0.0,0.0,0.2540263,0.28749323,0.5055786,0.0,0.0,0.18506822,-0.0,-0.0,0.0,0.18717028,-0.0,0.20837413,-0.16796748,0.0,-0.0,0.34099576,-0.0,0.0,0.0,-0.0,-0.0,0.22326404,-0.34352088
0.0,0.26478052,0.52172756,-0.0,0.8016064,-0.0,0.23726761,-0.1759821,0.0,0.0,0.0,-0.0,-0.19600503,0.7388843,0.043852676,0.0,-0.0,-0.6299481,-0.0,0.120818526,0.0,-0.0,-0.26286846,-0.19199102,-0.0,-0.0,-0.0,-0.0,0.0,-0.1863202,-0.023932688,-0.0,0.0,0.0,0.7079802,-0.0,-0.0,-0.0,0.0,0.0,-0.15478313,-0.0,-0.0,-0.3485657,-13.5088,-0.0,0.0,0.0,0.8241267,-0.0,-0.0,0.0,0.0,-0.2509609,1.7429619,-0.0,0.24284182,-0.23025739,-0.0,0.21869168,-0.0,-0.15765104,0.0,0.22244433
0.0,-0.0,0.3292574,-0.0,0.4635784,-0.0,-0.19074799,-0.0,-0.19946499,-0.0,0.0,-0.23835236,-0.18145163,0.31937286,-0.0,-0.0,-0.0,0.44316894,-0.0,-0.0,0.0,-0.18760486,-0.0,-0.0,0.0,0.0,0.0,-0.0,-0.0,0.0,-0.30986726,0.0,-0.0,0.23387252,0.23610342,-0.21401224,-0.0,-0.0,0.0,0.0,0.16086727,0.22667718,0.0,-0.0,-0.0,-0.22209878,0.0,-0.19712782,0.0,0.20247884,-0.0,0.0,0.0,-0.5478443,-0.0,0.0,0.35533556,0.0,-0.0,0.0,-0.15508468,-0.0,-0.18116277,0.16165602
-0.0,0.1824318,0.20782116,0.0,0.22723565,-0.0,-0.0,0.0,0.0,0.0,-0.18941467,-0.20346013,-0.0,0.0,0.22751914,-0.21061645,0.15652995,0.0,0.0,-0.0,-0.0,-0.162372,0.6342714,-0.0,-0.0,0.15901463,-0.0,-0.0,-0.0,-0.0,0.0,0.0,-0.0,-0.0,0.25377318,0.0,0.0,0.0,-0.0,-0.0,0.0,-0.25561813,0.0,0.0,0.0,-0.31187025,0.0,0.2507541,-0.0,-0.0,-0.22313991,-0.44258082,-0.23932362,0.28763756,0.16297726,0.0,0.0,-0.16997156,-0.0,0.15912475,0.0,0.0,0.0,0.33494732
0.0,0.2030593,0.0,-0.0,-0.0,-0.1593231,-0.0,-0.0,0.0,-0.1801329,-0.0,0.0,-0.0,0.0,0.0,0.0,-0.0,0.0,0.0,-0.0,-0.0,-0.19798191,-0.0,-0.21156223,0.26368028,0.0,0.0,-0.2384971,-0.16346996,-0.0,0.18260215,-0.0,-0.15752868,0.0,0.0,0.19202456,-0.0,-0.0,0.0,-0.0,0.0,-0.0,0.0,-0.0,-0.0,-0.0,0.0,0.0,0.0,-0.15794894,-0.0,-0.0,0.0,-0.20056325,0.2002963,0.0,0.0,-0.3839124,0.0,0.0,-0.17975253,0.0,0.0,-0.0
0.22206391,-0.17295392,0.35215753,0.0,0.0,-0.16613676,-0.1925684,0.0,0.0,0.17681941,0.160654,-0.1805426,-0.22244516,0.240206,-0.22552122,-0.0,-0.0,0.3527023,-0.0,0.0,-0.0,-0.0,-0.0,-0.0,0.16356125,-0.0,0.0,-0.0,-0.0,-0.0,-0.2533684,0.0,-0.1923018,-0.0,0.27806705,0.0,0.0,-0.0,-0.0,0.0,0.17513105,0.35970038,0.0,-0.0,0.16286777,-0.0,-0.20967604,0.0,0.0,-0.0,0.0,-0.16374476,-0.0,0.0,-0.0,-0.0,0.1582714,0.0,-0.0,-0.21074954,-0.0,-0.19905363,-0.0,0.0
0.032999616,0.83937746,0.0,-0.0,0.0,0.0,-0.476984,-0.20159689,-0.44977677,-0.0,-0.0,-0.09893188,0.16924487,1.0528537,-0.66967463,-0.213777,-0.0,0.50435764,-0.0,-0.0,0.060300946,-0.0,0.28421986,0.0,0.29962698,-0.0,-0.1524114,-0.0,-0.17309657,-0.58492655,-0.0,0.0,-0.21875355,0.23114316,0.38597342,-0.44308558,-0.0,0.0,0.0,0.072836064,-0.23275416,-0.8780795,-0.0,-0.0,0.0,-0.16711843,-0.31801853,-0.48294383,0.0,-0.28511074,-0.5035752,0.15998282,0.0615124,0.4074144,-0.0,-0.0,0.0,0.22855453,-0.0,-0.0,-0.15613598,-0.0,0.3708875,0.0
0.23521504,-0.5811663,-0.34364057,0.0,0.5085439,-0.19695707,0.16972485,0.0,-0.19621956,0.16774711,0.0,0.0,-0.3891984,0.16000302,0.0,-0.0,-0.29744098,0.0,-0.0,0.0,-0.0,-0.0,-0.0,-0.0,-0.0,0.0,-0.29207742,-0.29774338,-0.0,-0.19655645,-0.32590896,0.0,-0.0,-0.35741413,0.0,-0.15929016,-0.24998556,-0.0,-0.0,-0.21437368,-0.55175143,0.5052901,0.0,0.32850066,-0.18538035,-0.0,-0.19446974,-0.0,0.1962089,-0.0,-0.0,0.15461914,0.0,-0.0,-0.0,-0.15294117,0.15529226,0.22315791,-0.0,-0.0,-0.0,-0.0,-0.6536118,-0.38531706
-0.0,0.0,0.0,0.0,0.0,-0.17612313,0.0,-0.0,-0.0,0.16361281,-0.0,0.0,-0.0,-0.17608489,-0.19319557,-0.16416074,0.0,-0.0,0.0,-0.0,-0.0,-0.1537836,-0.0,0.0,0.0,-0.0,0.0,0.0,0.0,0.0,0.25635025,-0.0,0.0,-0.15442133,-0.0,0.17780736,-0.0,-0.0,-0.0,0.0,-0.26633936,0.15956797,0.0,-0.0,-0.0,-0.0,-0.0,-0.0,-0.0,-0.0,-0.0,0.0,-0.0,0.0,0.0,-0.0,0.0,-0.0,-0.0,-0.0,-0.0,-0.0,-0.0,0.0
-0.0,0.0,0.2474267,-0.0,0.40575936,-0.17160216,-0.0,0.0,-0.21409155,-0.037697054,0.0,0.4472891,-0.0,0.0,-0.0,-0.51755214,-0.0,-1.3220491,-0.0,-0.0,-0.0,-0.1551839,-0.0,-0.26917422,0.0,-0.0,0.0,-0.40858403,-0.0,-0.2515749,-0.0,-0.0,-0.0,0.112219304,-0.0,-0.0,-0.0,-0.0,-0.0,0.0,-0.30082476,-0.0,0.0,-0.20732641,-1.0664128,-0.26032117,-0.0,-0.0,0.0,-0.0,-0.0,-0.0,0.014973366,-2.4412973,-0.0,0.0,0.0,-0.16635206,-0.16678785,-0.0,0.0,0.0,-0.0,-0.29285908
0.059327096,0.121576324,0.057836536,-0.18960683,0.0,0.0,-0.0,0.16308908,-0.0,-0.040111445,0.0,-0.0,1.0698133,1.1489505,-0.7938705,0.3253469,-0.0,0.77296275,-0.0,-0.20226268,-0.0,-0.0,-0.0,0.66836613,1.4288155,0.0,0.0,-0.0,0.0,-0.4123533,-0.0,0.0,-0.0,-0.0740561,0.30331713,0.0,-0.0,0.17947549,0.0,-0.44352913,-0.14926733,-0.0,0.44114769,-0.0,0.0,-0.25034055,-0.22980823,-0.0,0.5566473,-0.046717137,-0.3459266,-0.0,0.37417784,-0.021042807,-0.0,-0.0,-1.4213153,0.0,0.0,-1.155521,0.0,0.0,0.91766244,-0.54298455
-0.0,-0.0,0.0,0.0,-0.18521878,-0.0,-0.19038637,-0.0,0.0,-0.43130484,-0.5240923,-0.0,-0.0,-0.0,0.39464638,-0.48692778,0.0,2.1372516,-0.0,-0.40021688,0.0,-0.0,-0.36943552,0.32113078,9.705531,-0.4705453,-0.26022407,-0.36252075,-0.0,0.0,-0.61359173,-0.55389345,-0.0,0.0,1.1832306,-0.40927246,1.1104487,-0.18162365,-0.0,-0.0,-0.23349386,0.0,-0.0,0.14482956,-0.0,-0.0,-0.0,0.1839849,-0.2353113,1.0607113,-0.24982052,-0.35312393,-0.28391272,0.041687712,-0.0,0.0,-0.0,-0.51936036,0.0,-0.1812717,-0.0,0.0,-0.0,-0.0
0.0,0.0,0.28893864,-0.24223725,0.3802765,-0.0,-0.0,-0.1730892,0.0,0.27418974,-0.0,-0.5871747,-0.2590194,0.0,-0.0,-0.3309063,0.0,-0.0,0.0,-0.0,-0.0,-0.16021778,-0.0,-0.0,0.0,0.0,-0.0,1.0238125,-0.0,-0.15924777,-0.0,-0.0,-0.0,0.0,-0.0,0.0,-0.0,-0.0,-0.0,0.25575042,0.18780881,0.35441878,0.7804666,-0.0,-1.1313417,0.0,-0.0,-0.0,-0.0,0.0,-0.0,0.0,-0.0,-0.16683637,-0.0,-0.0,-0.0,-0.0,-0.0,-0.0,-0.0,-0.0,0.2155729,-0.0
-0.1610426,-0.0,-0.0,-0.0,0.0,-0.0,0.0,-0.17256525,-0.0,-0.0,-0.0,-0.20276771,-0.0,-0.0,0.0,-0.0,-0.0,-0.0,-0.0,-0.0,-0.29293746,0.0,0.0,0.0,-0.21488468,-0.0,-0.0,0.0,-0.18719049,0.0,0.0,-0.0,-0.20338815,0.23673743,-0.0,0.0,-0.2857876,0.0,-0.0,-0.0,-0.31758562,-0.0,-0.0,0.0,-0.0,-0.17760684,-0.0,-0.0,-0.19799812,-0.0,-0.0,0.0,0.0,-0.7848959,0.15493846,-0.0,0.23882763,0.0,-0.0,-0.17700198,-0.25720686,0.0,0.16189478,-0.20823492
-0.0,-0.44526178,1.3464615,-0.0,0.37548134,0.0,0.15713081,-0.0,-0.0,-0.0,0.0,-0.0,-0.0,-0.0,0.17941059,0.18459706,-0.71904993,0.31344202,-0.0,0.0770828,-0.0,-0.0,-0.40151098,0.0,0.0,0.0,-0.0,-0.23332654,0.0,-0.28743425,-0.0,-0.0,0.0,0.0,0.8056034,-0.0,-0.20196404,-0.17634486,-0.0,0.0,0.28674865,0.25593412,-0.0,-0.0,0.124223344,-0.24747911,-0.0,-0.37169135,-0.19610699,-0.0,-0.18503812,0.0,0.25967452,0.84169304,-0.0,-0.0,0.29679596,-0.2492359,0.0,-0.0,0.0,-0.19106431,-0.20293818,-0.0
