0,1,2,3,4,5,6,7,8,9,10,11,12,13,14,15,16,17,18,19,20,21,22,23,24,25,26,27,28,29,30,31,32,33,34,35,36,37,38,39,40,41,42,43,44,45,46,47,48,49,50,51,52,53,54,55,56,57,58,59,60,61,62,63
0.073627636,-0.3380191,-0.07822261,-0.22807424,0.08003739,-0.17254266,0.08437779,-0.15473382,-0.21531342,0.075816534,-0.09550207,-0.3577492,0.18860365,-0.25932673,-0.5600304,0.20384732,-0.3280496,-0.060059194,0.022958132,0.1821487,-0.047398806,-0.16435614,-0.34193394,-0.23744538,0.5718663,-0.029780168,-0.19308263,-0.1934765,-0.18592398,-0.030907663,0.08069067,-0.11389139,-0.136241,-0.51507413,-0.17385617,0.02418615,0.07679109,-0.16637355,0.051314022,0.009100905,-0.82434464,-0.18707626,-0.14455514,0.1899385,-0.6699978,-0.058342643,-0.07610053,-0.08205783,-0.085720286,-0.17692338,-0.064063765,-0.008279361,-0.08693294,-0.7039577,-0.057413235,-0.202988,-0.17721266,-0.21246126,-0.04810965,-0.17305695,0.047972374,-0.046010286,0.05906535,-0.16272812
0.10157377,0.08993817,-0.16642979,-0.02237917,-0.0477346,-0.17392989,0.0853417,0.104828276,0.13259941,0.19525234,0.11806919,-0.72481465,0.304917,-0.13168135,0.04263662,0.040523216,0.058957163,0.27834854,0.10043732,-0.08239035,-0.054814965,0.02083792,0.08419441,-0.058459856,-0.08014387,-0.041484557,-0.20348947,-0.1246573,0.105843976,0.1902212,0.17667772,0.051960874,-0.11917805,-0.06184531,0.16427429,-0.10783926,1.2366912,-0.061498392,-0.2260824,0.09686893,0.16636711,-0.19419023,-0.18271697,0.009781553,0.019709762,-0.012238923,-0.17047726,0.011273544,0.113043174,-0.19131976,-0.1602587,-0.120177425,-0.102691576,-0.38366473,0.07511626,-0.01520132,-0.09706265,-0.04327441,-0.02626217,-0.22037743,0.07112795,0.060714144,-0.10015918,0.18307634
0.014870528,0.11045619,0.4001385,0.02012758,-0.118146,-0.05261591,0.20832674,-0.19108114,-0.20331876,-0.07007851,0.11826752,-0.23274699,-0.1713824,0.33802414,-0.21067086,-0.07686663,-0.15346746,0.298652,-0.077152334,0.14542659,0.09028279,-0.0895786,-0.38035518,-0.14884903,0.11192091,0.08077565,-0.007959372,-0.25881836,-0.1694114,-0.17245468,0.2146343,-0.07518342,0.10377496,-0.13464819,0.16060485,0.24282189,0.25827056,-0.06712529,-0.12706989,-0.21773665,-0.08307583,0.4885904,0.013519767,-0.104880065,0.15831394,0.0078028077,0.11118352,-0.011749105,0.2560168,0.082694754,-0.23402122,-0.09548172,0.062216055,-0.4585777,0.1901534,-0.14142731,0.24973719,-0.0025592977,0.12651859,-0.05350961,0.043116264,0.0065946304,0.046259888,-0.08278737
-0.01273387,0.07279431,0.21318147,-0.13442664,0.35298917,-0.16169727,0.14609262,-0.16878372,-0.16486377,0.014669443,-0.017556744,-0.04054745,0.05249285,0.291996,-0.012874179,-0.10448245,-0.13753475,0.12560157,-0.20278102,0.1661911,-0.1824756,-0.18466616,-0.2842357,-0.25415328,-0.029270016,0.09557798,-0.1320561,0.014120459,-0.16944416,-0.17698137,-0.2486866,-0.10264754,-0.018091006,-0.09117096,0.25470662,-0.17078936,0.07780111,0.1109407,-0.19668916,-0.012633193,-0.14295557,0.44807255,0.08207846,-0.16860206,-0.12999862,-0.08025854,-0.022152126,-0.027312318,-0.09310031,0.33612198,-0.07134104,0.045044668,0.05478834,-0.53143543,-0.042545445,-0.08821158,0.4339655,0.18254523,-0.11743794,-0.07183306,0.08179325,0.14136626,-0.12200488,-0.18613686
-0.114432134,0.44725552,-0.088482335,-0.08036772,-0.18934302,-0.15949897,-0.067534395,-0.0031460524,-0.3119171,0.02622587,-0.20106556,-0.07653874,0.11038664,-0.29196882,-0.029767318,-0.1382197,-0.15896232,-0.25933665,0.04613159,-0.12696236,-0.25389758,0.17442118,-0.21632981,-0.024424143,-0.037833862,0.004088449,-0.13231397,-0.09261287,0.061584845,-0.11457581,-0.03799949,-0.20243664,0.105023466,-0.19597903,-0.226783,-0.029777741,0.04437274,0.08376618,-0.14028463,0.08670302,-0.20816118,-0.18984838,-0.088142365,0.114224985,0.15196317,-0.08271528,0.05143024,-0.2764319,0.17570809,-0.12774077,-0.077444576,0.097363636,0.06766408,-0.09416298,0.14391126,-0.13526331,-0.06259787,0.15593262,-0.032892942,-0.08185802,-0.35284463,0.05080728,0.058360152,0.10921753
-0.099619776,0.48076513,-0.33611465,0.08277157,0.13937107,0.018543646,0.031082423,0.02354298,0.005784584,-0.006450211,0.14214535,-0.09145651,0.06988956,-0.075809866,0.28124928,-1.0756032,-0.16818373,0.09947434,-0.12320044,-0.1155012,0.11891678,0.025803344,-0.31628883,-0.17556638,0.0133836735,-0.11045843,-0.18726607,1.5174336,-0.025804214,0.21397169,-0.20622173,0.07505393,0.0036933324,0.16754901,-0.20656234,-0.19701207,-0.1637046,0.17341043,0.036004297,-0.020120334,-0.23195112,0.009266036,-0.02067809,0.19032364,-0.25686038,-0.17541942,-0.0803788,0.08452048,-0.37839055,0.101739086,0.3163721,0.023709858,0.056693923,-1.3912778,0.004347873,0.14455064,-0.13890529,-0.05523015,-0.16617188,-0.11095427,-0.009930248,-0.079843454,0.039650083,-0.08127096
-0.27548185,0.10662291,0.08321758,0.030677022,0.074947886,0.06487555,-0.0077347164,0.18652384,-0.18623017,-0.2600441,-0.04166577,0.45944753,-0.18898994,0.17127801,0.1853024,-0.45168224,-0.39917895,-0.27776802,-0.075756684,0.11481128,0.09346177,0.13470796,-0.30171132,-0.16129711,0.28347918,0.047897894,-0.17305115,-0.059474397,-0.12278062,-0.06675373,-0.14872898,-0.1869197,-0.17015801,-0.4289038,-0.056445662,0.1066061,0.3105519,-0.12825863,-0.033338685,0.42312276,0.10313501,-0.2912385,0.119540446,-0.04346304,0.6493546,-0.30115965,-0.0081354575,-0.05994834,-0.0034568873,0.41646746,-0.14341995,-0.021085896,0.115442716,-0.24257001,0.043370835,-0.13388191,-0.043572914,-0.15377365,0.13696244,0.34233028,-0.29477885,-0.008539027,-0.11793228,-0.22101535
0.07324062,-0.16857626,0.031939063,-0.067792304,0.19595008,0.10796042,0.055677578,-0.09414428,-0.070168786,-0.1195075,0.07919606,0.08757427,-0.13018107,-0.2876553,-0.116211146,-0.08499068,0.00011846272,-0.1956098,-0.15772924,-0.11951273,0.08498067,0.076893784,0.003335236,0.14225473,0.16754057,-0.0954103,0.0823783,0.07226241,-0.020376194,0.061924417,-0.25101438,-0.0585749,0.060238298,-0.055409145,-0.13229333,0.15198849,0.05356138,-0.009160667,0.076977,0.12018153,0.14745818,0.16616781,0.048422243,-0.303191,-0.11968514,-0.027715378,-0.1273797,-0.13587491,-0.10553921,-0.09612103,-0.08210223,0.021028193,0.056296434,-0.033169158,0.06980863,-0.09925927,0.08819918,-0.032510035,-0.100731686,0.21966822,0.3000499,-0.06480866,0.11380798,-0.07599019
0.15401469,-0.2574711,0.16479948,-0.14303507,-0.18355033,-0.029567614,0.18695207,-0.08907729,-0.22309527,-0.19777675,0.08964221,-0.20762256,0.04988089,0.0044039055,-0.17473935,0.4524469,-0.25726676,-0.5343223,0.041758683,0.09415289,-0.077389695,-0.1611186,-0.3898541,0.026147334,0.21170989,-0.08153043,-0.1372563,-0.031000616,-0.094427615,-0.07519321,0.020187626,0.018579498,-0.23315436,-0.33511385,-0.08545803,-0.013820965,-0.0713244,-0.12545125,-0.1431124,-0.24551332,-0.3465939,0.07410127,-0.0414326,-0.0053945947,-0.13713837,0.035910547,-0.08919377,0.012270112,0.28993747,0.04038238,-0.13177627,-0.056321822,0.21575311,-1.7901217,0.07605308,-0.056539897,-0.14678316,-0.052892674,-0.044223838,-0.054306928,0.07883233,-0.20079279,-0.093262345,-0.19388199
-0.05966581,-0.11385263,-0.06993085,-0.27902594,-0.054195583,-0.15644142,-0.28401947,-0.14804867,-0.15194325,-0.022078335,-0.07342203,-0.059138734,0.26465604,-0.19751911,0.16000275,0.08290318,-0.058327515,-0.05077801,-0.10331939,-0.07543623,0.16110155,-0.040384505,0.07220607,0.10627444,-0.061736517,-0.17352906,0.12628722,0.114471115,-0.15041459,-0.04302985,0.115578905,-0.0046900418,0.20689137,0.10336167,0.14565778,-0.17306651,0.01007004,-0.120191604,0.10082092,-0.003168267,-0.042080764,-0.07373614,0.112670444,0.1537191,-0.10138507,0.12184457,-0.11475819,-0.040652137,-0.006976477,0.08346571,-0.14582258,-0.00028062318,-0.23510373,-0.09100166,-0.121269554,-0.14486824,-0.21061088,-0.102884136,0.0087178685,-0.010888836,-0.009438255,-0.0022675626,-0.08028374,0.2125702
0.06902782,0.30673143,0.34935144,-0.12532975,0.26432648,0.08349909,0.13345425,0.048528098,0.12149343,0.14329666,-0.1982997,-0.43773797,0.7523335,0.22066098,0.26633114,0.11938757,-0.05417863,-0.029362807,0.012880982,-0.13704993,-0.119986266,-0.024711177,-0.1068368,0.9406169,0.35748547,-0.072168835,-0.16768466,0.956151,-0.048490863,-0.4415633,0.40482783,0.09082592,0.08465564,0.42401874,-0.18800265,0.08547581,0.55683,-0.08065554,0.08706977,0.06941949,-0.8448185,0.12745473,-0.10075125,-0.118370675,0.2224978,-0.30382457,0.13732894,0.021593325,0.040822532,-0.035512015,0.30276465,-0.015313141,0.017617013,-1.680407,0.020664468,-0.17215449,0.19680779,0.2390385,-0.11164199,-0.16628131,-0.02174172,-0.13003577,0.074458934,-0.27980217
-0.13549876,-0.05672232,0.28790534,-0.07672355,0.016532313,0.06022957,0.21839981,-0.043774717,-0.097613186,0.07915522,0.12464567,-0.03882997,-0.22440195,0.19559082,-0.045141377,-0.16329278,-0.11211396,0.14273848,0.004213802,0.12746572,-0.06898369,0.04988756,-0.23984173,-0.05341039,0.2729032,-0.1626103,-0.15712506,0.05323229,-0.07706743,-0.0070242854,-0.038430974,0.059622128,-0.28132927,0.2964974,0.4389753,0.1312712,0.10219319,-0.18840939,-0.1852871,-0.044555712,-0.024149809,0.43664598,0.08569512,0.40048525,-0.055902157,0.07049141,0.041860808,-0.19368888,0.20076548,0.12014537,-0.011492409,0.038748685,0.1965292,-0.7337479,-0.2339756,-0.15405564,0.38788384,-0.18026222,-0.087907955,-0.041328955,-0.11391332,-0.0029962587,0.64487594,-0.031397663
0.06501886,0.3622222,0.040362984,0.048073564,0.01592803,0.09273206,-0.066331014,0.03675209,0.10839976,0.10926674,-0.049868286,0.28011203,-0.047616813,-0.20170014,0.036181968,-0.26425454,0.038047243,0.06611034,0.021284074,0.021783894,-0.17645529,-0.15358493,0.20434934,0.02921793,0.45914575,0.13650116,0.12329328,-0.1289516,0.13090427,0.21495616,0.095874555,0.012887406,0.046611156,0.1908382,-0.14021316,-0.0034168148,-0.13414007,0.09652889,-0.071217924,-0.1229964,-0.10214589,0.29176468,-0.019979754,0.08000526,0.2918081,0.062277,0.06323478,0.06487527,0.08720343,0.042065337,0.04104208,-0.17439505,0.10503406,0.2748821,0.040635142,0.04570256,0.094479695,-0.093925916,0.09825518,0.495101,-0.16925834,-0.10148649,0.051953092,-0.2122583
0.20994514,0.017264877,0.09329951,0.024130024,0.33963692,-0.071246736,-0.044078376,0.09138438,-0.19857939,0.011813308,-0.18379189,-0.13365828,-0.16997527,-0.27686197,0.16888534,-0.013186043,-0.20660993,0.2785576,-0.26704,-0.35853726,-0.38960245,-0.23607709,0.15670525,-0.08360728,-0.53623885,-0.009222134,0.02916124,-0.046419885,-0.19068785,0.11291028,-0.31133044,-0.06616412,-0.31476218,0.062973164,0.4155627,-0.24650903,0.27321145,-0.030972622,-0.025591869,0.076820485,0.07291069,-0.20177153,-0.04253317,-0.22381131,0.026380524,-0.145594,-0.12621793,-0.19171323,-0.5278653,0.0072720125,0.007431999,-0.010091519,-0.08039653,-0.51787233,0.20826837,0.024768135,-0.06375538,-0.21943548,-0.08443784,-0.53521675,-0.28345072,0.020056093,0.056822293,0.16416137
-0.17445683,-0.029326268,0.51341474,0.041227303,-0.11850467,0.030595535,-0.05513595,-0.032817185,-0.0030645393,0.10873139,0.012314557,0.032336894,-0.030311367,0.0032057376,0.0908062,0.026245525,0.10251153,-0.13257982,0.12055359,0.27917644,0.11865352,0.11995988,-0.0309146,0.9089937,0.55409926,0.15255627,-0.15050738,-0.111864135,-0.06929701,-0.022479843,-0.18401098,0.025925132,0.54879177,0.37922108,0.2507661,0.091260105,0.01437739,0.0015140763,0.032554474,-0.28040248,-0.13401774,-0.09781382,-0.108596765,0.03555358,0.27259204,-0.080725774,-0.12072541,-0.15226081,-0.15265667,0.09509492,-0.13307792,0.12989208,0.071269214,0.54331833,0.23942064,0.1407531,-0.0064669196,-0.14935538,-0.06885264,0.24680738,0.3051999,0.11039373,0.25867406,-0.13766824
0.064467065,-0.067823865,0.074613094,0.10659822,-0.106986634,-0.100471765,-0.11627403,0.09899399,-0.23617046,0.1721342,-0.13047592,0.111410685,-0.10574884,-0.0016500168,-0.12672871,-0.15180425,-0.03962078,-0.103995964,-0.09369883,-0.0101930415,0.010840543,-0.07359437,0.050488092,-0.05743936,0.11986663,-0.13630942,-0.065701574,0.0461376,-0.008484344,-0.02928519,-0.1891627,0.043459345,-0.12865193,0.063679606,0.05523151,0.16041951,0.007414654,0.057878174,0.048525695,-0.2158675,-0.22135766,0.031528883,0.13587312,0.23787722,-0.1857957,-0.0030809767,-0.055398047,-0.04891809,-0.17491397,0.024907492,-0.28328732,-0.08048167,0.11161341,-0.11322731,0.19777353,0.106988624,-0.08626687,0.08136557,0.059469312,-0.07051377,-0.239821,-0.13548772,-0.018606234,-0.14558165
0.1488249,0.2363937,0.047824204,0.078453675,-0.0666445,-0.07448722,-0.26305753,-0.14939001,0.15483633,0.14477775,0.12420481,0.0063395267,-0.14197677,-0.4363602,-0.2523578,0.07036955,0.24670902,0.35018596,-0.1441037,0.116926864,-0.114085294,-0.09868196,-0.04302588,0.123262085,0.040894095,0.13035414,0.02879358,-0.2593412,0.15325482,-0.10904139,-0.15215172,0.022754028,0.03407645,0.29891565,0.15992902,-0.109085865,0.15610449,-0.026037347,-0.09532784,-0.26488557,-0.09374149,-0.13420214,-0.09691524,0.21287213,-0.014213443,-0.017984483,-0.05514644,-0.13996963,-0.10112953,-0.06722214,-0.039775014,0.06949681,-0.17519496,0.4314279,0.008953262,0.13979228,-0.3236688,0.08860691,0.10119558,-0.35127476,-0.18328768,-0.3136239,-0.090317495,0.2725609
0.09719751,0.11408455,-0.08652461,0.04464945,0.2535075,-0.11930508,0.16953419,-0.06636062,-0.065884344,-0.013005991,-0.2295939,-0.5333837,0.051489644,-0.06444493,-0.055332366,-0.24821492,-0.32801762,-0.026109787,0.05922517,-0.12114974,-0.599731,-0.20192169,-0.15327841,0.035932675,0.43473238,-0.28884634,0.002263933,0.8222672,0.12303554,-0.123558775,0.11638457,-0.075542994,0.090884134,0.057291415,-0.040214136,-0.10145406,0.5937573,0.06583194,-0.0258652,0.032125305,-0.0021048998,-0.099011816,0.0858467,-0.067766026,-0.050496653,-0.09631254,-0.15451229,-0.06967534,-0.1297115,0.0778947,0.1655649,-0.19507845,-0.008850266,-1.2243245,0.0419814,0.16760428,-0.18206991,0.15100437,0.07737667,-0.27897224,-0.2735458,-0.10272369,-0.07517303,0.06803002
-0.17342862,0.02711558,0.026940178,-0.10910074,-0.05210593,-0.08467727,-0.03241211,-0.09343467,-0.09092235,-0.0043182606,-0.029505402,0.16318984,0.023354415,-0.1510275,0.011756079,-0.028267266,0.09168938,0.026157267,-0.16928193,-0.065536864,0.15089472,0.1562836,-0.08119888,0.09718037,-0.07949286,0.043597553,0.053265948,-0.034995317,-0.075321436,-0.083077066,-0.12563682,0.08642602,0.15624604,-0.22301666,-0.021498898,0.12222145,-0.16495544,0.060716126,-0.17779495,-0.16502,0.016357187,-0.17759034,-0.0850003,0.038997225,-0.011435925,0.021444054,-0.087854035,-0.039093282,0.1546788,0.031140456,0.1667208,-0.09403952,-0.23003633,0.029629977,0.07189641,0.11793427,-0.1300484,0.005487376,0.12613758,-0.20624608,-0.239093,0.068072945,0.014000721,-0.2006217
0.058896888,0.63176936,-0.13013771,0.03955029,0.0886196,0.101164564,0.0062974533,-0.14433311,0.03211877,0.44926143,0.021644859,-0.2764973,-0.46434698,-0.120084435,0.14428422,-0.17830737,0.03815268,-0.14946365,0.097421125,-0.41028634,-0.004038494,0.045631543,-0.28565466,-0.010799299,0.15089943,0.012968164,-0.2074216,0.7369219,-0.17734395,0.23073764,-0.065965466,-0.10560114,0.046602752,0.48606077,-0.1048227,0.07063423,0.23389243,-0.034898803,0.14205344,0.10038079,-0.024057455,-0.16489682,0.92110187,-0.04583573,0.020673858,-0.085278675,-0.20162855,0.105985984,-0.6612994,-0.076780245,0.30819017,0.11707036,-0.012300768,-0.23285417,-0.1284683,0.07943426,0.22314036,0.068583235,0.054393303,-0.0034322399,-0.07748315,0.11681384,0.041893024,-0.4462999
0.014704369,0.065216444,0.18724653,-0.015043755,-0.2080866,-0.15096499,-0.0484477,0.060197294,-0.19030425,-0.06894618,0.16499966,0.20262656,0.072711006,0.17508774,-0.14807662,-0.018100789,0.066994496,0.122726396,0.11822475,0.03383074,0.047660347,-0.12222974,0.052849088,0.2501553,0.056347284,-0.09600976,-0.033504363,-0.16192354,-0.13561398,-0.031338748,0.14480719,-0.16434939,0.1457119,0.13747367,0.14352874,0.15793914,0.0538853,-0.08231752,-0.066092476,0.040564027,0.07327975,0.17180291,-0.076864935,0.11464531,-0.09904264,0.073823474,0.11892556,-0.13821083,-0.1362602,0.001521334,-0.18934299,0.008000958,-0.068310775,-0.14649269,0.047377065,-0.14924772,-0.11882367,-0.10068014,0.007815049,0.11851179,0.12226671,-0.17305972,0.050547127,-0.2696997
-0.029024728,-0.3108746,0.2308112,-0.06985135,0.19133551,-0.033236086,-0.07770459,-0.022688303,0.1148688,0.15617703,0.08844604,0.0285965,-0.17705566,-0.29062438,0.34186506,0.10613471,0.26136577,0.58803105,-0.17751269,-0.15787251,-0.19520114,-0.15060063,0.24298286,-0.22485253,0.08796069,0.032426417,-0.15971012,-0.21367048,0.05111326,0.22419868,-0.23182188,0.05778181,-0.04932141,-0.057666186,0.23212355,-0.04768756,0.20452109,-0.044517115,-0.21382952,0.2872609,-0.20210755,-0.2668535,0.09666185,-0.18493287,-0.2302291,-0.09461161,-0.4061839,0.034363907,-0.20059988,0.037770733,0.14595048,-0.1278439,-0.015412013,-0.256629,-0.1454946,0.02450358,-0.3861679,-0.14509007,0.062872835,-0.06295306,-0.25744835,-0.19021672,-0.32047004,0.4993753
0.054881103,0.06305213,0.09644693,-0.14933632,-0.14206472,0.07114506,-0.03303833,0.008816823,0.0831902,-0.18408804,0.07758509,-0.08182199,0.05501186,0.12772007,-0.29739138,-0.21392219,0.16313823,-0.06127821,0.17110173,0.053548496,0.1390156,0.1346576,0.042818338,-0.02065606,-0.06559972,0.086750336,-0.0015964175,-0.1303858,-0.096418835,-0.14171948,-0.22375238,-0.07646827,-0.19435686,0.17963311,0.11889983,0.13542227,0.024189198,0.06125094,0.078652926,0.076114826,-0.17074344,0.07951976,-0.0170734,0.062257912,-0.0546753,0.18140933,-0.16212085,0.12533751,-0.16711096,-0.13571042,-0.06765967,0.039695203,-0.14017962,0.09361476,0.06916014,-0.08007556,-0.20980385,-0.010926581,-0.1459721,0.085518286,-0.065362714,0.10999069,0.07084179,-0.011264261
0.4030607,0.45254675,-0.05401226,0.04474357,-0.07251651,0.0130840475,-0.062114228,-0.12003085,0.02301501,0.17359494,-0.100247055,0.27072078,-0.34476352,0.22615944,-0.3136153,0.2092844,0.50285584,-0.9111493,0.04051357,0.08731655,-0.22836873,-0.15513971,0.024314865,-0.29529196,0.25506064,-0.05831359,-0.013142685,-0.1906777,0.037649486,0.13554166,-0.1092326,-0.18429476,0.13693066,0.30682936,-0.76004624,-0.044878054,-0.16879906,-0.18934125,-0.07489317,-0.39942458,0.19746356,-0.04909343,0.79642195,-0.21678339,0.775767,0.12514141,-0.14018635,-0.058945246,0.29742154,-0.10994248,0.105925135,-0.05516445,-0.23116583,0.3428312,0.20210029,-0.16210294,0.054524563,-0.08025652,-0.07830634,0.039147068,-0.07105384,0.07553263,-0.17719749,-0.16984934
-0.0038779252,-0.2500558,0.094460525,-0.17084704,-0.08223363,-0.064035974,0.053969547,-0.06663077,-0.115017176,-0.06296632,0.052166563,0.19130708,0.11108326,-0.21982236,-0.21901026,-0.24580231,-0.5709195,0.08366499,0.08005979,-0.07211324,-0.0667727,0.00070691406,-0.16589434,-0.13704237,-0.15281424,-0.03590976,0.04649893,-0.09639205,-0.0020979103,-0.37346917,0.0056129643,0.053018462,0.051240157,-0.13021258,0.22028269,-0.091614656,-0.11382998,-0.10421645,-0.002631523,0.27834114,-0.075618505,0.16344976,-0.12644719,-0.2854716,-0.12378981,-0.33382913,0.143438,-0.03594597,0.25817242,0.23516594,-0.16117065,-0.18475069,0.041652426,-0.23897718,0.011844887,-0.003953919,0.2003245,-0.13468799,-0.07043163,0.32147214,-0.21152775,-0.19225107,-0.099040575,0.03273285
-0.090487026,0.38139525,0.12021711,-0.00886865,-0.011164961,-0.076397695,-0.10303648,-0.16782753,-0.043142304,0.08243655,-0.14050372,-0.18235229,0.028878292,-0.028657524,0.097558245,0.36974052,0.2872518,-0.31050736,0.080820754,0.007261014,0.045871895,-0.1648131,0.118642926,-0.16860326,0.08746174,-0.0662866,0.09601817,0.019548198,-0.056163877,0.11014625,-0.026914375,-0.14098163,-0.15323588,-0.050895732,0.2829269,-0.17072187,-0.123507895,0.0009018648,0.06284681,-0.14234819,-0.116502956,-0.23377083,-0.047293693,0.3551916,-0.039208967,-0.21673107,0.025082976,0.36220562,0.1492374,-0.14256117,0.18302245,-0.12380822,-0.015335151,0.059070952,0.029003195,0.13127306,-0.09116978,-0.13349943,-0.020078765,0.12045642,-0.09833403,-0.08771311,0.066132694,-0.0044059297
0.11675457,0.113257505,-0.052127406,0.086513795,0.0008840202,-0.02106689,-0.055988338,-0.13135669,-0.035934016,-0.12529276,0.044059124,0.075944304,-0.10815978,-0.077139534,-0.007565034,0.074376516,-0.032882355,-0.0013462511,-0.13861549,-0.11935758,0.0145495655,-0.17910375,-0.021446025,-0.040943254,0.0848906,0.12694481,0.03980189,0.13992302,-0.21674001,-0.12011437,0.2820035,0.0039011522,0.095613435,0.039729852,-0.098358355,0.022347119,0.039059725,-0.017978135,-0.19947022,-0.061600644,-0.029821657,0.01844068,0.120170586,-0.035628594,-0.21263433,-0.20110543,-0.020072863,0.095960565,0.18162988,-0.10257346,0.07615591,-0.07272234,-0.086168036,-0.018443229,-0.04432398,0.09778545,0.009842711,0.08738909,-0.040961087,-0.03862236,0.21920736,-0.108682506,-0.046422742,0.15474483
-0.092336066,-0.1725005,0.33086663,0.008755418,0.18420182,0.16299607,0.06980916,-0.10408711,-0.071183056,-0.1380708,-0.07340468,-0.025006203,-0.30282423,0.17565654,-0.17656325,-0.26456898,-0.082841665,0.18247409,-0.025155123,0.2753031,-0.009376207,-0.21106328,-0.13274874,-0.22723569,0.120522894,0.103283904,-0.18030393,0.09093614,0.034447696,-0.18754555,0.18527266,0.08236377,-0.2436886,-0.14375822,0.19522347,0.22253565,0.29127002,0.11073815,-0.1678537,-0.07839634,-0.16592586,0.46136433,0.16296276,0.014730218,-0.04886923,-0.034578342,-0.15194686,-0.18996942,0.1123251,0.032464415,0.02606412,0.11594705,0.21375495,-0.03828675,-0.009764954,-0.20015211,0.45188868,-0.090583324,-0.011326792,-0.26715028,-0.053191174,-0.07465932,-0.022920055,0.03641047
0.078808665,0.310945,0.18221608,-0.12541646,-0.39021534,-0.20557058,0.04133078,0.07987617,0.02068002,-0.16201577,-0.10302775,-0.030798351,-0.16844046,0.19814931,0.07314235,-0.17397475,0.2108695,-0.0018531271,-0.14037763,-0.06471245,-0.10398246,-0.14244534,0.11641407,-0.12317294,-0.08755605,-0.12870498,-0.08469308,0.6150867,-0.10460553,0.006458612,0.09060278,0.14935642,0.023163185,0.3731038,-0.18959656,0.22212829,-0.2298339,-0.06971126,-0.07409769,-0.06153632,-0.25927258,-0.011285838,0.18260914,0.079960495,0.011325769,-0.25615415,0.04024606,-0.03706281,-0.18551889,0.006650966,0.1460781,-0.057521712,0.14118446,0.02389277,0.105416305,-0.061278723,0.25805137,-0.1801369,-0.057944197,-0.26750275,-0.2131269,-0.102470025,0.09108123,-0.26406798
0.27934405,0.27254725,0.7263784,0.010559765,-0.06531402,-0.16927148,-0.18146236,-0.11506009,0.061117128,0.31552452,0.05595051,0.22937497,0.10205616,0.25511566,-0.40456906,-0.32698205,0.3796848,0.7906017,0.009648641,0.10809192,-0.16853766,0.1063398,-0.055907942,-0.19581746,-0.033104684,-0.042918067,0.121465,-0.080306634,0.020549374,-0.08052584,0.020116331,0.128508,0.39806217,-0.21626225,0.8031772,-0.08068736,0.132311,-0.06970981,-0.053077567,-0.6196572,0.09867654,-0.2694302,0.19199397,0.17361306,0.08838661,-0.16223028,-0.17333615,0.3389586,0.43872282,0.10393739,-0.15506396,-0.020642688,0.020718602,0.7235127,-0.18310569,0.10265283,0.00030401608,0.18391557,0.09880206,0.06870719,-0.046815753,-0.01780152,-0.089582175,0.013659547
-0.2030674,-0.101016685,-0.06512034,-0.27861765,0.07838776,-0.036144868,0.017153692,0.12798779,0.076186165,-0.0650141,-0.01852293,-0.05413751,-0.049262412,0.3832865,-0.3202553,-0.25791422,-0.068083614,0.46206746,-0.0207935,0.26312232,-0.080308445,-0.047750503,-0.029308641,0.062158234,0.10536106,-0.06664113,-0.15238492,-0.13702784,0.06281034,0.24239609,0.059658755,-0.05112008,-0.09612418,-0.262249,0.4520276,0.108100586,0.38621747,0.037385233,-0.086350895,-0.16324687,0.15454012,0.13158275,0.12545758,-0.2056985,0.46628848,-0.027072476,0.028852003,-0.09875983,0.28753212,0.38353625,-0.08297876,-0.0825497,0.053883065,0.104472205,-0.19158776,-0.12520611,0.26930925,-0.00048157957,0.12301073,0.12207569,-0.06566619,-0.01815908,-0.3228046,-0.26076034
-0.35242856,-0.38591513,-0.14394595,-0.17732537,-0.044981144,0.071011454,0.2326064,-0.18670942,0.11256467,-0.03382063,0.06445588,0.204111,-0.23853289,-0.086297445,0.099355884,-0.05350359,-0.2929524,0.008032378,-0.011990222,0.34093362,0.04212244,-0.10933904,-0.6227567,0.022699626,-0.13279305,0.025327168,0.04889478,-0.17729048,-0.023945818,0.065291815,0.20983426,-0.1260936,0.21146554,-0.43240255,0.09493387,0.052563023,-0.33129647,-0.054461125,-0.04674941,0.06781013,0.28644294,-0.062992685,0.014598543,-0.051447622,0.5325143,-0.25827107,0.08895142,-0.15905215,0.0635272,0.09183666,-0.1490025,0.05928809,0.283648,1.0183853,-0.016742542,0.014991915,0.08689003,-0.11620621,-0.14555092,0.06834619,-0.06551848,0.10971898,-0.30747065,-0.19071114
0.17268725,0.19675608,0.25151518,0.0014750984,-0.098897055,-0.035003718,-0.40332344,0.024541482,0.16115506,-0.1335199,0.0915445,0.13347659,-0.36855704,0.37840062,-0.35456532,0.0847707,0.42947385,0.5680908,-0.17298374,0.05561119,0.026543053,0.033300437,0.20829688,-0.0258281,0.092018016,-0.20295702,-0.18731274,-0.025409203,0.018723562,-0.24192521,0.1979965,-0.12201676,0.04929623,0.07631214,0.3970838,0.08002041,0.22415806,-0.1431754,0.0002860482,-0.0013367862,-0.081149496,-0.14897852,0.37158337,-0.02616102,0.22402988,0.2746226,-0.13157307,0.124528,0.43525746,0.07941782,0.08203994,0.0047796816,-0.1995433,0.17224808,0.24153624,0.03759925,-0.13357349,0.08631281,-0.017265752,-0.0396047,0.030104943,0.015210256,-0.070605054,0.07082808
0.08724235,-0.25756407,0.11584467,-0.1242711,0.06064064,0.15925817,-0.20615773,0.03691861,0.13256952,0.06445075,-0.22563274,-0.18495119,-0.27044585,0.2736438,0.0719423,0.039886203,-0.007232223,0.25785127,-0.07758342,0.094748825,-0.27956513,-0.061933514,0.026264885,0.16868581,0.32045323,-0.052864566,0.06375238,0.22436856,0.022527525,-0.11112434,-0.09595835,-0.07706183,-0.16672021,0.13191724,0.3880974,-0.14848122,0.19176021,-0.14807807,-0.12880908,-0.067507975,0.09312922,-0.06414666,0.035798106,-0.2698448,0.08785116,0.022994911,-0.21084596,-0.12588044,0.2795294,0.024292285,-0.009897634,-0.15869565,-0.14988394,-0.040764526,0.14622088,-0.1654209,-0.0011488557,-0.3502012,0.11329218,-0.017295115,-0.012548411,0.12359344,-0.34623033,0.10022222
-0.0055549806,0.08502947,-0.20166135,-0.14011972,0.0049832594,-0.03747967,-0.09583057,-0.1562097,0.1138474,0.22614065,-0.06685077,0.25337332,0.060963847,-0.1563472,0.1812338,-1.4695317,0.3123928,0.41943464,-0.23080544,-0.2888073,-0.09465288,-0.011568973,0.18114373,-0.17838062,-0.43355566,-0.17190923,0.030198565,-0.11115936,0.04971215,0.31459823,-0.24641024,0.050166298,0.0009968416,-0.0069992132,0.025942061,-0.18404481,-0.0130554,-0.08230607,-0.050062336,0.18847525,0.32848787,-0.22376253,0.114293166,-0.092148855,-0.02404651,-0.09605851,-0.0038414795,0.015485053,-0.1887317,0.12711641,-0.035042603,-0.123178646,-0.23988509,-0.059609275,0.12396472,-0.053101566,-0.061001275,0.05906209,-0.17650624,-0.15937166,0.18864222,-0.15909746,0.048374586,-0.22926201
-0.028136201,0.048214186,0.16138008,-0.16229413,0.20408277,-0.12878907,0.09176892,-0.034394693,-0.024590446,0.061855294,0.09465816,-0.029412609,-0.29455757,-0.05799058,0.21467406,-0.1382699,-0.14204429,0.3859477,-0.07250323,-0.18867663,-0.18341483,0.04573643,-0.24477468,-0.23984002,-0.24119577,-0.22390375,0.053781446,-0.09230417,0.013547414,0.21421447,-0.09195093,-0.1362383,-0.0015702429,0.10879267,0.38480306,-0.093988754,-0.018975694,-0.020870887,-0.08462733,0.19432719,-0.1431016,0.23912683,0.2917154,0.083169095,0.020692026,-0.04446799,-0.12728718,0.018058935,0.04638919,0.16482975,0.1440123,0.10286433,0.06513715,-0.515013,0.00097432616,-0.10297775,0.10979846,-0.005660169,-0.00594901,-0.030784748,-0.25427026,-0.19144286,-0.15093006,0.05373992
0.019121863,-0.016730413,-0.15782085,-0.010198432,-0.05370073,-0.108259365,0.07079756,-0.034641936,0.08339026,0.07589435,0.119123116,-0.2929446,-0.03199117,-0.22761671,0.15996462,-0.17190291,0.2182376,0.18827948,0.03750025,-0.010406668,0.09029261,-0.004621008,0.08083478,-0.17565481,0.026707342,-0.029253237,0.019048361,1.2473892,0.09024597,0.0809026,0.16079512,-0.15411597,-0.22609673,0.06575215,0.15225185,-0.05900486,0.515476,-0.09212374,-0.1786252,0.16903476,0.078231476,-0.026622104,-0.04701279,0.01675288,0.14545143,-0.0860925,-0.17403379,-0.012274437,-0.40806717,-0.0562022,0.012994013,0.036648896,0.00940759,-1.2945669,0.16260281,0.06718646,0.1253905,0.005852768,0.13983904,-0.14088072,-0.19806495,0.15099514,-0.19726756,-0.23472817
0.42274728,0.08554166,-0.21870524,-0.07288058,-0.11998872,0.10595815,-0.504198,-0.0831412,0.024296429,0.14253996,-0.056121252,-0.37783527,-0.1673964,0.1423338,-0.23405476,0.5328574,0.48155645,0.21940087,-0.2433342,-0.28228328,-0.14376022,-0.27356568,0.074189186,-0.26326916,-0.11907685,-0.035595175,-0.13772973,-0.3511393,0.0937742,0.16013241,-0.03441018,0.05665768,-0.2046744,0.078446805,0.18037145,-0.17626438,0.19150372,-0.015017122,0.082569085,-0.63213384,-0.21180418,-0.26219124,0.020493545,-0.41038838,-0.7304959,-0.22050117,0.020485383,-0.40572584,-0.4323876,0.23201442,-0.05830221,0.075155176,-0.67098796,0.04706202,-0.16944663,0.13854611,-0.18861304,0.08135766,-0.13468003,-0.013825396,-0.6371501,0.09460304,-0.07643306,0.24525906
-0.005881199,0.096373394,0.06760747,-0.13347822,0.17998834,-0.052395232,0.26563907,0.026948899,-0.18009104,0.06923778,-0.08776951,-0.05226089,-0.056478396,0.14809033,-0.23866041,-0.057518426,-0.2540259,0.2736776,-0.15700203,0.19463153,-0.0001550072,0.031089414,-0.24875471,-0.19867288,0.21387649,-0.12909578,-0.07468875,0.047854714,-0.04248583,-0.08073706,0.07674096,0.13198695,-0.14033845,-0.22072883,0.23229656,0.0484278,0.079057224,-0.064499766,-0.14446437,-0.045267627,-0.0039450983,0.2844524,-0.014859666,-0.15344965,0.12255846,-0.121082425,0.1599243,-0.25141567,-0.033171397,0.15245576,-0.15700983,-0.115575306,0.087235704,-0.13461824,-0.0776133,0.065279126,0.3310628,-0.15544505,0.019785156,-0.6606248,-0.06430708,-0.16308762,0.08341661,-0.06468917
0.1335665,-0.037879467,0.2346782,-0.14282122,0.3815939,0.022153681,-0.047497116,-0.21558698,0.085696355,0.10968831,0.0011214183,0.123325236,-0.22255743,-0.13253456,0.26440898,-0.07397732,-0.12171599,0.19663319,-0.05591877,0.08065402,-0.14362884,0.09068162,-0.19025305,-0.14304559,0.10862333,0.11409387,0.023390155,0.85251707,-0.00869076,-0.095903955,0.0155619765,-0.13240355,0.11476058,0.19387409,-0.065517,0.1341869,-0.24870113,0.11730261,-0.10436234,-0.35275444,0.12450739,-0.043331575,0.15038288,0.46690232,-0.03373893,-0.17993149,-0.11007823,-0.2845012,0.031005716,-0.009704441,-0.13714643,-0.016626822,0.2064808,0.15834042,0.10848367,0.010482296,-0.089998245,0.08531499,-0.1136487,0.19432211,0.060798384,0.11689862,0.23682193,-0.19085293
0.078151666,0.13015592,-0.20328508,-0.18133585,-0.061444066,-0.057215482,-0.1465313,0.12596555,0.021008097,0.10679781,-0.032584906,-0.1433281,-0.065480314,0.03598696,-0.1953994,0.12213844,0.0575531,-0.21543181,0.05675672,0.049267717,0.0049717277,-0.17517431,-0.15168925,-0.005234101,0.0751903,0.05395913,0.12850547,-0.06939496,0.057423696,0.049356144,0.07843749,-0.0068358188,-0.020907588,0.01435239,-0.12132271,-0.104200706,-0.12130845,0.027024433,0.17032434,0.064841665,-0.0752189,-0.20334907,0.07548565,0.07939873,-0.1775075,0.09438118,-0.067316145,0.11879696,-0.0053622667,0.035757557,0.14651754,-0.16743834,-0.1260876,0.0515572,0.14881013,0.0038166493,-0.10804293,0.054596603,-0.16555943,0.089859225,-0.31281254,0.15705444,-0.11761641,0.002793356
-0.09314049,0.047305025,-0.11171113,0.079330005,0.016059276,0.1405942,0.13905726,-0.025575086,0.010706666,0.1488004,0.02970418,0.050036367,0.1612499,-0.07141673,0.09494416,-0.09503184,-0.17150201,0.05527168,0.1523992,0.08765628,-0.057017118,-0.14693205,0.14711957,-0.06462528,0.027605927,0.13293542,-0.071128726,-0.042911485,0.11653696,-0.033596575,0.12032776,0.08448628,0.13713428,-0.09517942,0.18388084,0.19210254,0.1013382,-0.08127733,-0.17217919,0.09946896,-0.08758032,0.03979245,0.10307448,0.2047105,-0.031104881,0.06543296,0.043414578,-0.08465676,-0.0016713748,0.1317775,-0.16828056,0.13757698,0.050027937,0.024296314,-0.15828383,-0.20537676,0.07868096,-0.21400826,-0.17520066,-0.14078037,0.078604236,0.08282539,0.1372481,0.09457193
0.09215179,0.26496515,-0.042071536,0.04149944,-0.30802357,-0.19785473,-0.42558655,0.15175806,-0.24506375,0.2415783,-0.050941993,0.34572506,-0.2109274,0.25792608,-0.31854573,-0.092064776,0.36608553,0.70124686,0.010621775,0.06347911,-0.1698824,0.14738183,0.3042064,-0.120153226,0.16715121,-0.078735344,-0.06328331,-0.35127223,-0.028637692,-0.19663267,0.16913852,-0.120434366,0.051663257,0.31429356,0.7234874,-0.15753311,0.4111532,-0.049650267,0.05024138,-0.1919346,-0.1628468,-0.25623348,-0.09173977,0.17124599,0.42166018,0.16304323,-0.12566717,-0.11691231,0.66484797,0.25968233,0.003997098,0.10263985,-0.32326618,-0.061454352,-0.18738471,0.08743064,-0.24884404,-0.12457531,-0.05215171,0.09708626,-0.11083178,-0.06387877,0.16857912,0.25637037
-0.2294844,-0.07857422,-0.12818015,0.14268376,0.13882564,-0.14599808,-0.30272695,-0.057036698,0.08509509,-0.20189165,-0.01874639,0.21970354,-0.13808225,-0.23607188,0.042712945,-0.4449321,0.035439983,0.2622864,-0.03143554,-0.21175742,-0.09829747,-0.16544403,-0.1569952,0.079784155,0.06536062,-0.051907632,0.064729765,-0.029524833,-0.059220523,0.002871305,-0.044814385,0.031449135,0.1502011,-0.08849289,0.21265538,-0.1909583,-0.17603926,0.029690828,-0.16020536,0.008703976,0.29664183,-0.16206835,-0.22839577,-0.13771819,0.32552502,0.03307175,-0.03498035,0.08657854,-0.16877675,0.18808061,-0.07643401,-0.14172822,-0.4309335,0.29208186,0.18872522,-0.10708036,-0.18493897,0.06701252,-0.08174939,-0.000295457,0.22474429,-0.05778494,-0.2036503,0.291178
-0.1319347,-0.036717728,-0.11648893,0.08636084,0.021698609,-0.073819235,0.08365041,0.11810802,0.12479267,-0.19379912,-0.46167842,-0.07429069,-0.09907253,0.38656792,0.061582904,0.16655917,0.1315453,0.050851658,0.013054641,0.058521617,-0.144835,-0.22217844,0.11908479,0.026519714,-0.014835724,-0.3103361,0.09065379,0.13425031,0.07732717,0.07567056,-0.14420182,0.0547739,-0.14552605,-0.18457352,0.32638922,0.026285846,-0.29286775,-0.00198875,-0.111071624,-0.23538238,0.0482266,-0.1551236,-0.11851814,-0.53611624,0.08138817,-0.39790097,0.09875355,0.12224088,0.041705042,-0.11990723,0.06947451,-0.24894297,-0.17894635,0.39729673,-0.11736186,0.07886208,0.007681807,-0.22010095,0.02055386,0.08003857,0.16429725,-0.21014506,-0.20572127,-0.030883957
0.21140122,0.10449619,0.06740517,-0.0019647628,0.114372835,-0.07634084,0.15052289,-0.06756857,-0.02957405,-0.014996492,-0.07866713,0.036325846,0.037624303,0.08149519,0.24759223,-0.31337503,0.03427712,0.53950006,-0.006292478,0.07702305,0.013335474,-0.09420424,0.108197905,-0.1380323,-0.26878163,0.029614713,-0.050833818,0.07606847,0.0122805545,0.3480005,-0.159858,-0.1192004,-0.11805678,0.097845264,0.10962651,-0.24909492,0.049131956,0.016802711,0.14589067,-0.13787098,-0.013581444,-0.3049746,-0.03563066,0.2491209,0.18374893,-0.031147823,-0.18630777,0.1307203,-0.31473467,0.15631261,-0.28053635,0.054896858,-0.08348721,-0.0145363165,-0.09759813,0.057935096,-0.18352552,0.16994104,-0.07258561,-0.26476365,0.2835814,0.02639991,0.052641757,-0.18369842
-0.061210748,-0.045883343,-0.15245448,0.13950408,0.3380786,0.163687,0.16434819,0.100969546,-0.15506847,-0.059799485,-0.01141781,-0.08340841,0.074233815,-0.11415173,0.22320928,-0.27268544,0.12395181,0.1683791,-0.11224647,-0.08361221,-0.088984184,-0.046131406,0.06824507,-0.12628745,0.07900269,0.05772248,-0.16979729,-0.111555524,-0.16538215,-0.18040578,0.044467684,-0.12412849,-0.23101395,0.05709913,0.08988336,-0.018185696,-0.17409325,0.17378128,-0.012980773,0.1935128,-0.05465607,-0.04721528,-0.1342589,-0.20157142,-6.894957e-06,0.013732907,-0.14222065,-0.15855145,-0.10401744,0.09222457,0.353079,-0.06326262,0.046581674,-0.21713263,0.11616398,-0.031998422,0.17219505,-0.08494895,0.0389206,0.07905851,-0.10993431,-0.022678614,0.0037610386,0.20260116
-0.021578329,-0.06969453,0.6295653,-0.116386026,-0.55167454,0.091608204,-0.116331235,-0.02897486,-0.021809237,-0.23341572,-0.22014336,0.38352737,0.11446347,0.34247315,0.011981729,0.373094,0.055044226,-1.1048717,-0.13372372,0.51621926,-0.2445462,0.016887594,-0.17688963,-0.2281071,0.2763353,-0.19750227,0.12392169,-0.19581138,-0.09013739,0.23286363,0.062458623,-0.026836893,-0.09002563,0.5115387,-0.23894803,0.028010802,0.37238905,-0.17086609,-0.015074894,0.28141436,-0.36444506,-0.4176052,0.34105483,-0.18181819,0.41726786,0.021395065,0.07162385,-0.037761144,-0.16897209,0.2058971,-0.25353223,0.1670189,0.09518475,0.30697986,-0.05623843,0.040922556,-0.4170213,-0.07130547,0.09159343,0.19646482,0.038171396,-0.07330565,-0.02272042,-0.25286075
-0.11071791,0.07194049,-0.04685266,-0.07947276,0.38170755,0.056277893,-0.22345336,-0.010762724,0.10745283,0.32577118,-0.16687854,-0.0045666927,-0.11762411,0.037124828,0.2567165,0.071134016,0.21904176,0.38652608,-0.08995719,-0.05633432,0.11839039,0.05184272,0.11944832,-0.16110066,-0.1439385,0.055167437,-0.124947146,-0.18265027,0.0086059915,0.07637811,-0.13638225,-0.11944012,0.020234898,-0.41518798,0.42936838,0.073595,0.09165919,0.23723643,-0.06214318,0.07717404,-0.1556979,0.3218521,-0.18476745,-0.34303874,0.22023362,-0.26596457,-0.027681524,0.09434289,-0.33546695,0.09543911,-0.21537161,-0.0054274173,-0.35347024,-0.40875396,-0.10338884,-0.18772094,-0.13035834,-0.09074087,-0.08876904,-0.13235465,-0.01025122,-0.0052245003,0.010592983,0.015927635
0.030908395,0.19597794,-0.17496154,-0.007871366,0.08225743,0.12155204,-0.01561845,-0.035608396,-0.2781718,-0.19103241,0.09285422,0.044572406,0.1629514,-0.0063091526,-0.07988275,0.038857576,-0.23623908,0.17315005,-0.02161148,0.33799323,0.10021803,-0.06694588,-0.2015113,0.0765753,0.3682589,-0.012879165,0.10155326,0.09651657,0.07693769,-0.17523055,-0.0049207914,-0.22096656,-0.2628032,0.3583266,0.08268617,-0.3320152,0.14488177,-0.27592763,-0.11713483,-0.18841003,-0.3343132,0.19437435,0.106630966,0.060760345,0.36204675,0.039724045,-0.095544495,-0.15212399,0.19000441,0.011458779,0.18159914,-0.16486877,-0.037093367,0.12650406,-0.2382394,-0.1004321,-0.009680548,-0.21963131,0.06513159,-0.08653583,-0.06175948,-0.4826323,0.3085599,-0.19190988
-0.024907026,-0.17614652,0.3223474,0.24127553,0.3801769,0.078094006,-0.3070167,0.1385612,0.07467007,-0.23969327,-0.32306233,-0.16571857,-0.06073086,0.06331677,0.090923324,0.36717048,0.12002255,0.31257483,-0.23144548,0.91207516,0.22683182,-0.06390578,0.051457945,0.30269077,0.22560982,-0.023458004,0.14174312,-0.066380605,0.013193147,-0.06682133,0.13325289,-0.15163918,-0.1842048,0.26705602,0.5116542,-0.59463495,0.22435044,-0.3321409,0.10312439,-0.5038214,-0.15258533,0.3137618,0.08815918,-0.47269407,-0.16875485,0.14158648,-0.11299967,0.17028603,0.19403407,-0.017110629,0.03871789,-0.23778236,-0.14057551,-0.41269067,-0.18549207,-0.04604685,0.003995003,-0.108880885,-0.10197321,-0.26380932,0.13853559,-0.22076762,0.038197942,-0.2172654
0.12910421,0.20628175,0.037400078,-0.03733966,-0.16340604,0.14801939,-0.08473357,0.105262175,0.115035266,-0.044465683,-0.21470588,-0.19431765,-0.015197835,0.119288824,0.0662314,0.042402055,0.09640069,-0.27461508,-0.055728726,0.029764432,0.062120847,0.15549435,0.047996696,0.09057129,0.059107654,0.10474891,0.023192232,-0.17706066,-0.05090404,-0.12194818,0.065625235,0.0675998,-0.049002476,0.12527509,-0.26139757,-0.0222822,0.08924316,-0.11423238,-0.12456866,-0.224894,-0.25678974,0.040811766,0.011617396,-0.17046739,0.12932107,-0.05050829,0.06918932,-0.2004555,0.06832649,0.07983185,-0.18170998,0.06663762,0.14591001,-0.009735368,0.08799478,0.13481224,0.115199625,-0.012101069,0.10271388,-0.13041082,-0.17283483,0.18856284,0.022884786,-0.21473993
0.07247025,0.14666206,0.23402268,-0.0144640105,0.09974014,-0.102262706,0.045925368,-0.08847106,-0.23388425,0.14818108,-0.11413656,-0.29147243,-0.039561972,0.26827562,-0.18234925,-0.29740393,-0.3433635,0.36304858,-0.13593052,0.13653149,-0.2221789,0.05312102,-0.09232978,-0.16608566,-0.004284728,-0.1558332,0.13117401,-0.088529125,-0.10724086,-0.15257768,-0.14846484,0.13620177,0.064254366,-0.1333936,0.28370625,-0.056264065,0.2937487,-0.074182555,0.05518833,0.046082262,-0.19764352,0.46329936,0.10127904,-0.21069188,-0.05283147,-0.046776928,-0.12772545,0.008709119,0.30055088,0.059998963,-0.18900496,-0.03645638,0.022442097,-0.5762042,-0.039411236,0.13132659,0.38809946,-0.26896074,0.005745195,-0.19884585,-0.13198847,-0.08984565,0.047126237,0.062499885
0.26411915,0.6474303,0.68225396,-0.11145693,-0.06773219,-0.070412844,-0.027708974,-0.09496441,0.0025332444,0.21361795,-0.20454091,-0.028577125,-0.3559395,0.30002597,-0.15049896,0.11897978,0.15766114,0.20613621,0.018666187,-0.18230397,-0.09618909,0.017922645,-0.07211898,-0.19589227,0.08664957,-0.01688748,-0.2515038,-0.29348418,-0.16353028,0.29724365,-0.08793835,-0.10071292,-0.036918968,0.15391001,0.7063732,-0.060541216,0.12364314,-0.09019729,-0.18030113,-0.43315798,0.13183777,0.025751807,0.2907336,0.15283734,0.10019121,-0.07952458,-0.056120902,-0.020192843,0.44794542,0.229165,0.045887105,-0.008363472,-0.06384709,-0.35983154,-0.14463031,-0.03491862,0.08068769,-0.11452148,0.009220255,0.04177449,-0.008984147,0.118167855,0.5849372,-0.042325046
0.36407503,-0.101673506,0.19788125,-0.14440835,0.009838794,-0.15960754,-0.18478456,-0.21790053,0.06394916,0.16033266,-0.05160445,0.17214224,-0.11428212,0.0059638773,-0.09194175,-0.26566243,0.1801482,0.65022475,-0.35369775,0.12905626,-0.04910625,0.029234564,-0.10284873,-0.20568551,0.04987552,0.08735408,-0.06246252,-0.24016611,-0.09115866,0.25139314,-0.12973593,-0.06503741,0.10179053,0.19660102,0.6441471,-0.14911678,0.119936086,-0.01831086,0.05204253,0.066303566,-0.11538854,-0.08757432,0.0797848,-0.20508634,0.014224659,-0.35417944,-0.044172376,0.16037212,-0.093929164,0.23201136,-0.13472572,-0.14411573,-0.5343828,-0.21867792,-0.2222729,-0.23434538,0.008529729,0.03598974,-0.10214791,-0.083569236,-0.1164972,-0.14352702,-0.021987718,0.21275821
0.1645856,-0.21692994,0.3937936,-0.20150527,0.009086072,0.05123664,0.04576654,0.030373171,-0.1060174,0.15071402,0.0021064605,0.12703705,-0.11688152,0.0423804,-0.15282722,0.31642878,0.12645039,0.14863628,0.13808347,0.12691231,0.16065632,0.13428731,0.26730958,0.07587082,0.13296811,-0.081728436,0.124019384,0.3996059,0.043837816,-0.1745657,-0.0076817907,-0.19817522,0.076958165,-0.08288065,0.28149801,0.038812358,-0.08116758,-0.06181815,-0.09851988,0.21063344,-0.1805847,0.07841318,0.074080706,-0.08662431,-0.10568091,-0.094758414,0.0026132935,0.12596416,0.052710418,0.19712073,-0.0827176,-0.1629014,0.17314652,0.13568993,-0.007735712,-0.1155256,-0.012959595,-0.029786319,-0.16511096,0.07513324,-0.11492699,0.051201805,-0.112895004,0.07246164
-0.12850967,-0.13061947,-0.09628556,0.040138606,-0.116537645,-0.032337338,0.13512473,-0.1376866,-0.13272575,0.20040584,-0.3868109,-0.30560577,-0.2894667,-0.12249347,0.062251903,-0.56818044,0.26411307,-0.16453825,0.1250922,0.12886865,-0.13118283,-0.11117571,-0.15790108,-0.0686858,-0.28201625,-0.028089058,-0.06487257,-0.1437738,0.13346334,0.037790187,0.037749883,0.08704365,-0.18631014,0.2007021,0.034955695,0.0003003258,0.13213745,0.055119127,-0.20667166,0.035136346,0.10087373,0.09380125,0.07127675,-0.11635162,-0.3965033,0.1345797,0.13577552,0.07431067,-0.14604157,0.3381706,0.047123928,-0.19799884,0.24848314,-3.5218241,-0.19490704,-0.11974956,0.18391837,-0.20218979,-0.09282442,-0.89386123,-0.15570045,-0.17056115,-0.13552886,-0.19358853
0.04977125,-0.07957913,0.18678613,-0.050895397,0.1812807,0.030662715,-0.1562738,-0.05746103,-0.004409186,-0.15759352,0.1293593,0.08895673,-0.06401726,-0.09049735,-0.14467198,-0.18951727,0.022987176,0.17378591,0.12230316,0.07516868,-0.14949802,0.025695547,-0.11530919,-0.025469579,0.12308626,0.059175994,0.020158833,0.07389672,-0.10329135,0.1280805,-0.08719139,-0.0840923,0.010325522,0.013998663,-0.16204149,0.1437452,-0.122277506,-0.07889447,0.14572956,0.14789739,-0.15781976,0.051423363,-0.07956604,-0.17266662,0.1217382,-0.05166946,-0.070065595,0.039318547,-0.10923195,-0.13603507,0.13954826,0.013583239,-0.15927292,-0.195995,-0.12434631,-0.19765885,0.15812393,0.18049072,0.2034886,0.14022408,-0.038604915,0.0028245947,0.079653926,0.067502625
-0.31378242,-0.18330134,-0.23454025,-0.16216983,-0.09743618,0.117020264,-0.14155404,-0.056748144,-0.083901994,0.030968416,-0.084572084,-0.39246428,0.0062907073,-0.33994126,-0.036355015,-0.0073161945,-0.04922658,-0.15494034,-0.110230304,0.083637655,-0.3245701,-0.18931769,-0.23438844,-0.23976906,-0.2651732,-0.112421304,0.060232878,-0.21827249,0.06845509,0.11085773,0.079426914,-0.24096365,0.02417329,0.117851,0.017725058,0.17170191,-0.20484957,-0.036903016,0.0014382099,0.047563042,-0.6499508,-0.06773277,-0.097794585,-0.1558503,-0.36946082,-0.17783807,0.052970994,-0.26918578,0.06668611,0.11263999,0.09047095,-0.107256696,0.1745942,-2.9882529,-0.100386165,-0.07221892,0.05865706,-0.028401889,0.060009018,-0.37146813,-0.11995864,-0.099407546,-0.07201761,-0.07463648
0.04301329,-0.24942455,0.4675913,0.074753374,0.08855984,0.047479276,0.030990636,-0.16122442,0.14328013,0.10566113,0.061083402,-0.27868542,-0.18006654,-0.071851045,-0.14767641,-0.14302567,0.012407397,0.17091443,-0.0031793108,-0.07313819,0.05322255,0.17245744,0.0015181844,0.10188078,0.10191212,-0.037193514,-0.13234244,0.815622,0.03827154,0.12740193,-0.09429003,-0.13158575,0.11232972,-0.037541125,-0.12924519,-0.067471005,0.08581394,-0.08742106,-0.1270299,-0.113826826,-0.64036435,1.670143e-05,0.09303571,0.08891483,-0.116319664,0.054866306,0.078778744,-0.22679877,-0.1349246,0.16166519,-0.06604794,-0.16682069,-0.15768455,-0.38867477,0.13294329,-0.031639934,-0.12819804,0.11825753,-0.05227524,0.0006466755,-0.36215848,-0.100013755,0.16471033,0.25658745
0.0064125205,0.20195572,0.6585969,-0.17407809,-0.17420721,-0.11061142,-0.12636755,0.23598458,-0.14635432,0.31045198,-0.10293766,0.22227432,-0.3427677,0.33642536,-0.11789863,0.31194574,0.44902515,0.62534744,0.005901821,0.11497422,-0.11733733,-0.011722501,0.04802725,-0.10571532,2.042321,0.107111014,-0.18775976,-0.2434342,0.1157635,-0.1366425,0.19778731,-0.030588157,-0.030664349,-0.1814924,0.49154475,0.0048034857,0.29773635,0.15936074,-0.11142288,-0.1273078,-0.04698932,0.07825489,0.15389046,-0.2802912,0.36324632,0.16205321,-0.17801307,-0.3207419,0.10256836,0.17087428,-0.0764904,-0.003077797,-0.1918885,-0.21335378,-0.031753235,-0.06240381,-0.024445573,0.037131302,0.08615964,0.032772966,0.0647698,0.024783067,-0.103406884,0.17528716
-0.16686556,-0.1031125,0.043436155,-0.110718444,-0.09322206,0.16771458,0.08185238,-0.06252486,0.14568278,0.046285678,0.09811847,-0.08459843,0.07518718,0.155139,-0.03749632,-0.11372741,-0.09315532,-0.2673395,0.04503827,0.17190465,-0.009531755,-0.15351997,0.098548256,-0.13233975,-0.04367082,-0.005824347,-0.10529381,-0.1244861,0.095518775,0.07215083,0.21756674,-0.09880594,0.08250151,0.054220147,-0.10203599,0.044265926,0.0049251528,0.038491614,-0.14086218,-0.15861864,0.07366249,0.15045846,0.16313483,0.15108296,0.12182428,-0.0047072745,-0.008142593,0.11249326,-0.08833468,0.0115763545,-0.053961627,-0.07713685,0.24667573,-0.17104352,-0.023400823,0.0012424286,-0.08543893,-0.21139032,-0.14145161,-0.2513819,0.026351323,-0.14377145,-0.11603182,-0.008816768
-0.02022982,0.06939345,0.24673837,-0.09428347,0.033069015,-0.054215275,0.23045622,-0.085552424,0.029323403,0.18580312,0.0554938,-0.21197979,0.06267977,0.07423972,-0.008374137,0.14861232,-0.2091227,0.41722012,-0.08736466,0.26193407,-0.27626014,-0.010164932,-0.21097118,0.03079142,0.060932666,0.03123817,-0.12014427,-0.09644238,-0.10662316,-0.3086465,0.15121368,0.020159654,0.0039156624,0.083259806,0.18073323,0.18509784,0.013744415,-0.09318657,-0.018067373,0.19284035,-0.0016306655,0.36091858,0.23539548,0.011652051,-0.15151702,0.08629274,-0.08851412,0.018096559,0.08519535,0.08760069,0.06824903,0.10695458,0.23921435,-0.61018735,0.045590818,0.07208267,0.27162468,0.023909349,-0.15557836,0.019249562,-0.15650316,-0.00014639291,-0.14283817,-0.1530906
0.07850861,0.18257518,-0.029071338,0.09570932,0.07099785,0.1554326,0.06997602,0.06469293,0.18778977,-0.12354175,0.10279414,-0.14404018,0.16042782,0.11975537,0.12966779,0.0731872,0.13130672,0.1911495,-0.07113701,0.14710829,-0.016239507,0.13958977,-0.09515414,0.1663254,0.15311846,-0.11928035,-0.02765956,0.019114915,0.10037865,-0.013237999,0.20630744,-0.038503293,0.061942913,0.019233458,0.128971,0.0019443572,0.094489224,0.021414459,0.058541134,0.118050076,0.08052813,0.08414405,-0.096206605,-0.0024142498,0.09364213,0.01913397,-0.09561653,0.056769233,0.16864948,0.15090518,-0.048358597,-0.020649219,0.102790914,0.06076285,0.16609149,-0.10228813,0.22929282,-0.005877763,-0.14256601,0.070710994,-0.099891424,0.10527812,-0.070486926,-0.010070959
0.30925408,0.1171133,0.42345542,-0.09899427,0.4180672,0.012159869,-0.043006293,0.095706254,-0.110946335,-0.17617309,0.20554706,0.017024415,-0.21557707,0.2057462,0.016956348,-0.10359648,-0.16397548,0.112752266,-0.07915083,0.19236767,-0.1679882,-0.14815986,-0.1674324,0.0141734695,0.046934783,-0.0066819703,-0.04586543,-0.15575545,-0.19798984,0.0068911165,-0.082829945,-0.047129463,-0.13190474,-0.096941344,0.3934318,0.026514165,0.33305535,0.05872629,-0.20027442,0.06280788,-0.15614812,0.4247037,0.10722821,-0.027615724,-0.22114825,-0.20162378,-0.0150154475,0.0069492017,0.26058498,-0.033556942,0.041538786,-0.107100576,0.011996655,-0.64505106,-0.15568818,-0.11436148,0.3224711,0.09837729,-0.12082833,-0.24730495,0.050582036,-0.0454494,0.0823435,-0.19773619
0.06874196,0.07279567,-0.2592288,0.1214499,0.0931849,0.12188117,-0.06582579,0.041954055,0.015718326,-0.06843137,0.11821933,-0.023873,-0.13711497,0.05259628,0.3337263,-0.06111473,0.0039156345,0.09693752,-0.13758354,0.06553124,-0.12125742,-0.18229012,-0.043993328,-0.08577464,0.119835235,-0.02457294,0.09961043,-0.13666104,0.1470426,0.12675714,0.07075557,0.22630787,-0.06919107,0.077335015,0.17596535,-0.061707918,-0.03390103,0.015467239,0.05041138,-0.056920957,-0.07093232,-0.011062259,-0.045358423,-0.018802859,-0.046405174,-0.06479055,-0.19583844,-0.09012711,0.13948268,-0.03243855,-0.13003059,-0.055072825,-0.090863325,-0.058410842,0.07112066,-0.20450348,-0.10641982,0.020306386,-0.04751621,0.07638918,0.13475482,0.006670269,0.14626901,-0.103424154
0.41625348,0.05772744,0.34391174,-0.03335208,0.1815755,-0.01319997,-0.06447661,-0.16844046,-0.22571127,0.12512581,-0.067029916,-0.13193825,-0.08322758,0.138107,-0.12518513,0.14808345,-0.12965427,0.33623162,0.021290323,-0.063453846,-0.0042557945,0.059568606,-0.18081877,-0.044946864,0.09098171,-0.12102551,-0.030166758,-0.14066482,-0.012407804,-0.061973047,-0.031126091,0.011133038,-0.18458278,-0.08677208,0.13321796,-0.14986554,0.24238989,0.066925645,-0.11699406,-0.13845001,-0.21432912,0.41490388,-0.045803733,0.1921944,-0.5075147,-0.041144975,0.036041334,-0.06068011,0.25595304,0.13972832,-0.20630865,-0.017864527,0.032397397,-0.012487618,-0.0809068,0.122002974,0.3748634,-0.056389373,-0.023574336,-0.14557473,-0.12927735,0.020492308,-0.064041376,-0.10538228
0.1995458,0.0924398,0.24126704,0.08077262,0.323814,-0.135679,-0.086205475,0.13854682,-0.16583969,-0.11127228,0.0093379,0.016229732,0.018608602,-0.05822359,-0.19699001,0.024840495,-0.06983639,0.19160049,-0.12552693,0.005746085,-0.17975673,0.010212419,0.043685462,0.032146767,0.26106277,0.15758355,0.15233591,-0.013546266,0.152862,-0.22817709,-0.092078686,-0.05865226,-0.0232602,-0.073839314,0.22498377,-0.13837163,0.21581022,0.15945332,-0.12111258,-0.10736143,-0.15383413,0.2835899,-0.019665621,0.22594546,-0.6876734,-0.11906693,0.021205816,-0.08729246,0.18255194,0.17445223,-0.15029977,0.12977101,0.09664234,-0.12203559,0.055919975,0.029246919,0.36747047,0.041926373,0.055398203,-0.1510087,-0.16522405,0.18152794,0.0216884,0.014433318
-0.06340632,-0.031868055,0.084333636,-0.1015363,-0.041007284,0.00522545,-0.1554495,0.10344936,0.10186867,0.012049274,-0.053439293,-0.13538697,-0.113685325,-0.22977883,0.052294202,-0.029797899,0.21780121,-0.022725886,0.0002915733,-0.012187921,0.15656264,0.14789136,0.0898908,-0.06545306,0.007217677,0.14059058,0.16390869,-0.15649396,0.025121167,-0.17328058,0.14585222,0.031738766,-0.011095033,0.063920766,0.012443877,0.045608982,-0.036185667,-0.17924255,0.1497187,-0.12507997,0.09753612,-0.06568532,0.106837995,-0.03795108,-0.0041624093,0.078314595,-0.08063763,-0.0034485979,0.17817375,-0.040493086,-0.13494977,0.1519593,-0.039998703,0.44587657,0.21459126,0.11775835,-0.06412979,-0.1829866,-0.1092551,-0.16889818,-0.123096354,0.12181827,0.052048538,-0.5859028
-0.17738846,0.47083515,0.5422413,-0.07009477,0.38833094,-0.14354442,-0.3513901,0.21566701,-0.20009446,-0.19819939,-0.24780492,0.004147543,-0.052751593,0.36440772,0.2864461,-0.14459422,0.1813609,0.49106807,0.15959544,-0.34942317,-0.21591626,0.056666814,0.33471522,-0.08981222,0.1442169,-0.13589047,-0.114628054,0.071660355,-0.063494526,-0.08503506,0.028763382,-0.15752028,-0.19321418,-0.6984541,0.40162778,-0.021801839,0.44252568,-0.2440078,0.08270231,-0.030218225,-0.16012259,-0.05679411,0.16977353,0.021128498,0.2321327,-0.2931209,0.049946062,-0.2656918,-0.3755813,0.25091803,0.08335807,-0.058230106,-0.56755966,-0.4841506,-0.1666491,0.031337902,-0.06831428,-0.0108266175,-0.016171273,-0.09373301,-0.12882571,-0.04719118,-0.17013316,0.2404255
0.0844747,-0.14543948,0.10188549,-0.01505041,0.3805005,-0.05123517,0.19218469,0.10924377,0.039323654,-0.049605463,-0.024781875,-0.12235963,-0.25797796,-0.004913636,0.19319679,-0.006321174,-0.1040294,0.1757794,-0.02295212,0.083297454,-0.18406774,-0.0062729376,-0.19222534,-0.06430793,0.11047001,-0.20051518,-0.0055653187,-0.012689936,-0.038939264,-0.18598554,0.021389168,0.18327907,-0.06428457,0.21332556,0.5066418,-0.15596975,-0.09560112,0.08990731,-0.044549655,0.25474495,0.093503125,0.44169387,0.50243664,0.52978694,0.15976404,-0.13309972,0.0020772829,-0.021246796,-0.13517961,0.13467146,0.15693253,-0.16911961,0.04517887,-0.44785035,-0.16461647,0.098816775,0.38617614,0.11897443,-0.026851397,-0.14537781,-0.15503491,-0.15040936,0.0005237625,0.11883543
-0.054752238,-0.109760664,-0.06229787,0.06675125,0.20918559,0.12758522,0.07100185,-0.17669459,-0.18177646,-0.15004118,-0.08201346,-0.27105033,-0.12823884,-0.17948642,0.008304701,0.059505675,-0.18766497,0.05878072,-0.124988034,-0.14896551,-0.14458126,-0.063714124,0.045633163,-0.05509787,0.23188108,0.17309847,0.020327397,-0.13878049,-0.1526214,-0.3641779,-0.001307695,0.055337448,0.08091621,0.14063926,-0.112750515,-0.20779185,-0.057342824,-0.021987457,0.006536007,0.12088065,-0.24711625,0.30918068,0.04162986,-0.15683907,-0.24211825,0.040958915,-0.11358459,-0.13351484,0.17125186,0.070535004,-0.071236975,-0.00013970758,0.10078638,-0.1288055,0.026131297,-0.10126903,0.19206466,0.12940641,-0.084336795,-0.14311346,0.1011762,-0.1474609,-0.14123672,-0.005451966
-0.28332978,0.25104865,-0.005774031,-0.23279881,0.09157293,-0.20347236,-0.042117227,-0.16850774,-0.017034989,0.045530144,-0.019934468,0.04567436,-0.008093662,-0.015479844,0.20651564,0.20009078,-0.016689736,0.04355743,0.08532102,0.054237317,-0.06653426,0.07426428,0.4450479,-0.14618418,-0.15914452,-0.032511864,0.07865573,-0.1267886,-0.08597729,0.2887034,-0.22619498,-0.03163741,-0.035590637,-0.01849638,-0.11363567,-0.1656132,0.39568284,-0.09852064,-0.04548379,-0.007323776,-0.0944255,0.00058761495,0.25912973,0.46471393,0.09562004,0.09432405,-0.064496815,-0.028208528,-0.1004268,0.12894782,0.021388361,-0.024877563,-0.2665164,0.015195206,-0.04190441,-0.06559599,-0.016571667,0.13913168,-0.14309578,-0.12414391,-0.152076,-0.06500156,0.15529673,-0.09284593
-0.62045383,-0.5355982,-0.04872838,-0.0803324,0.013887813,-0.15963165,-0.20769489,0.06935942,-0.08414971,-0.23576143,-0.04638633,0.000768819,-0.18254447,-0.4191752,0.019439865,-0.2025458,-0.13325952,0.49215484,-0.08819776,0.051802,0.021912152,0.054857414,-0.40643972,0.085477956,-0.30000687,0.070863366,-0.19257697,-0.15030536,-0.123284526,-0.06323125,-0.1837015,0.13675128,0.26386586,-0.39202303,-0.0020219267,-0.013867799,-0.25514004,-0.13880345,0.16251513,-0.1340718,-0.13000362,-0.117395446,-0.20339072,-0.38867024,0.26898813,-0.261805,-0.09789014,-0.19155195,-0.22539325,-0.011299196,-0.24652475,0.06512935,-0.12310483,0.91624945,0.018975824,0.14777268,-0.35537967,0.05734864,0.03298345,-0.21849884,0.34310955,0.17635806,-0.22742073,0.05711605
0.18463917,0.0783089,0.3894179,0.09621157,0.4449537,-0.12097174,-0.12142155,0.047150716,-0.10165974,-0.061913967,0.11305838,-0.2625589,-0.20895316,0.19881867,-0.123800956,-0.3055021,-0.16211998,0.1739155,0.0703763,-0.020266768,0.063258536,0.055027615,-0.19500437,-0.10658764,0.057409555,-0.11069773,-0.0928284,-0.040171083,0.02136402,-0.24833366,-0.26634777,-0.0069710095,-0.057326347,-0.09660675,0.3226789,-0.24164702,0.18773413,-0.184749,0.120461755,0.048161454,0.013336261,0.4134032,0.16543773,0.17759025,-0.39128846,0.10546333,-0.018577876,-0.06379134,-0.1552318,0.092242055,0.19117703,-0.18056712,0.042175252,-0.3928351,0.013691187,-0.021845954,0.38466683,0.09061799,-0.00016633236,-0.35891894,-0.22579046,-0.09083747,-0.23057571,0.16655368
0.25425276,0.28285724,0.14870015,-0.11563657,-0.25383186,-0.17052855,-0.02075324,-0.11671491,0.018874457,-0.053000573,-0.008703192,0.067549944,0.0643429,0.01562529,-0.13824825,-0.0854492,0.054493226,-0.013774006,0.15044454,0.1109535,-0.06980527,-0.050722167,-0.0083521595,0.14524022,0.23639224,0.037438683,0.0644722,-0.1251529,-0.13700005,0.15614471,0.06914454,-0.12274267,0.045756333,0.16448267,0.10216697,-0.09302366,0.052814532,-0.08603956,-0.17361741,-0.23506716,-0.000102058955,-0.16872083,-0.009599487,0.2001119,-0.18686946,-0.02073093,-0.065332964,-0.19765341,0.22296412,-0.1757282,-0.042688582,-0.036152836,-0.064132884,-0.10048116,0.13421524,0.17011072,-0.25983727,0.07242814,-0.13523751,0.01784797,-0.22211406,-0.106815875,0.04885041,-0.19562839
-0.13299282,0.027335234,0.04057578,-0.061296012,0.06391957,-0.06283176,-0.06548471,0.019194435,0.0127012385,-0.107482865,-0.18755326,-0.00014584186,0.08967471,-0.036707483,0.05776987,-0.17101327,0.156293,-0.12635173,0.0034596175,-0.0014113839,0.19931976,-0.14910227,-0.0880976,-0.16199651,-0.13497247,-0.06356584,-0.10331089,-0.047480483,0.14310822,-0.0015931844,0.00016151564,0.024370164,0.03927275,-0.16193493,-0.14731662,-0.034585875,0.00018913293,0.14232382,0.010295732,0.027421126,0.03672437,0.08993767,0.16154629,-0.07575819,-0.1714993,-0.10051584,-0.06675038,0.13316013,0.07282543,0.15303878,0.036796317,0.07439062,0.04177698,-0.23977204,-0.20381926,0.079532996,0.13157007,0.021973046,0.13258882,-0.021925334,-0.003059856,0.04258826,0.029313127,-0.12978289
0.067608625,-0.10144416,-0.15121135,0.07145872,0.027422903,-0.13354655,-0.11191766,0.06302361,0.055595323,-0.20705314,-0.13664085,0.059435584,-0.19257098,-0.24604222,0.18669422,-0.07178463,-0.08878554,0.25150043,-0.14072889,-0.008331426,0.21847253,-0.14935148,-0.15915553,0.45323396,0.14052321,-0.019439334,-0.14475815,-0.019891549,-0.11973292,0.029225847,-0.16011232,0.007152099,-0.524536,-0.15523726,-0.025311973,-0.12235177,-0.020021148,0.2120788,-0.16933376,-0.2621,-0.050822347,-0.24020852,0.0620934,0.18504919,-0.022273533,-0.16070694,0.13071115,0.24057364,-0.24972329,0.20550579,0.014424365,-0.07200393,0.017355768,-0.28625932,0.04834494,0.046396226,-0.03774706,0.15429927,0.07216052,0.027879104,-0.046066638,0.05030812,0.31851858,0.27606785
0.3506007,0.024658952,0.029725725,-0.20591375,0.46676016,0.0733542,0.06640597,-0.08503299,-0.1895002,-0.13852014,-0.020327229,-0.15421161,0.023097012,0.26589593,0.035318147,-0.10471609,-0.28890312,0.31945816,-0.07682435,0.088298,-0.22640744,-0.15937527,0.00026558727,-0.11063518,-0.0019367031,0.1786882,0.000455329,-0.015209751,-0.021325424,-0.20423234,-0.12517235,0.16600436,-0.24718027,-0.102379486,0.3876493,0.083749145,0.25589645,0.060696173,-0.15691695,0.049348265,-0.23505235,0.3120142,0.052089136,0.007866766,-0.2617818,0.06877358,-0.17182192,-0.11729053,0.37583628,0.13188648,-0.023039462,0.110125646,0.20893437,-0.099071,-0.18928224,-0.14411213,0.3377386,0.09126525,0.06407054,-0.13276882,-0.16504866,0.08694955,-0.05321899,-0.019470723
0.36604124,-0.014785169,0.1412486,-0.15227969,0.26688075,1.2144446e-05,-0.03424409,-0.022593305,-0.15880714,-0.03454084,0.13860323,-0.07280136,-0.16800764,0.26067334,-0.057530563,0.15381087,-0.09903503,0.3060881,-0.04421135,0.17871635,-0.013477105,0.15584463,-0.047235113,-0.26494902,0.22748803,-0.17131984,0.037048116,-0.03320412,0.16910322,-0.050248947,-0.10257359,-0.058595985,0.10170752,0.000378484,0.27181256,0.1330314,0.28137088,-0.0077794753,-0.1984054,0.09891417,-0.117828906,0.48291513,0.17228921,0.16907297,-0.34472093,-0.25507367,0.1057744,-0.20284025,0.093362175,0.2738963,0.025150606,-0.179902,0.0558061,-0.16868223,0.16244696,0.02592963,0.38866153,-0.22818293,-0.026337031,-0.22249152,0.073325396,0.069185995,0.061407007,-0.06396307
0.28151673,0.23230407,-0.24313521,0.044269014,0.28881052,0.043144047,0.086861484,0.0049216626,0.1227298,-0.11860578,-0.1213589,-0.13885558,-0.32468536,-0.09498871,0.19717115,0.019142209,0.23748773,0.33987197,0.2066802,-0.0581337,0.011345147,0.11861245,-0.09920229,-0.066056356,0.11797206,0.043390572,0.08397924,-0.20632699,0.06095023,0.18387091,-0.18872632,0.03661016,-0.08693863,0.22514577,0.049178928,-0.11326785,-0.042255286,-0.045817334,0.12814912,-0.0031541549,-0.07816547,0.09400156,-0.07957499,-0.057580158,0.17259581,-0.11005079,-0.078450404,0.032306537,-0.2910108,0.01030298,0.24817339,-0.036361307,0.043246005,-0.26224723,0.06039106,0.13550861,-0.0061433814,-0.12192318,0.13868879,-0.15323162,-0.30441144,0.016177567,-0.08977607,0.028404959
0.1610943,0.06691483,0.24676539,-0.102225296,0.3421223,-0.025351584,-0.21476685,-0.11938543,-0.08178709,-0.030816084,-0.028223973,-0.14009231,-0.2688213,0.3287508,-0.037060678,0.36948535,-0.082794204,0.15538254,-0.21245754,0.031247264,0.08528747,0.16600889,-0.02915575,0.08337721,-0.027740993,0.113837376,-0.032045573,0.011362135,-0.19520865,-0.032838196,-0.12138736,0.15336904,0.04109601,0.18783027,0.24004318,0.085824996,0.1305828,0.08990885,0.07886276,-0.009766286,-0.039895654,0.37642393,0.13572855,-0.17170066,-0.1990271,0.063182004,-0.016693434,-0.07264384,0.35097978,0.06902018,-0.1445871,0.1493744,0.15753396,-0.2344972,-0.17400508,-0.20169339,0.37729737,-0.044960473,-0.046248786,0.05267376,-0.022531573,0.08768807,-0.10279579,-0.14444315
0.19448648,-0.16353142,0.33342108,-0.056598183,0.436094,0.15896405,-0.02897632,0.07090072,0.035670508,-0.14684898,0.0340464,-0.15829721,-0.07018815,0.18314832,-0.21306394,-0.30910408,-0.24412721,0.17672779,0.088014215,-0.25952512,0.079944775,0.09071586,0.2067734,0.014416018,0.20558849,0.078079835,-0.08144931,0.013786925,0.14363472,-0.2357249,-0.19560097,0.17940393,0.07646788,0.07067909,0.029745802,-0.23262729,-0.004933841,-0.0547234,-0.05139387,0.2184399,0.14706622,0.28868422,-0.038641162,-0.40578353,-0.06575833,-0.0014001009,0.04254439,0.0882783,-0.033235308,0.17976111,0.21641411,0.115409695,0.009182379,-0.08341998,-0.0006663799,-0.20344917,0.07331957,0.107008085,-0.18222556,-0.18936978,0.09723298,0.014625248,-0.1915717,0.186871
0.0964622,0.18245916,0.45448953,-0.015409725,-0.18785512,0.058877245,-0.36422518,0.067699686,-0.2116746,-0.34895876,-0.12586856,0.23293264,-0.1759489,-0.09618762,-0.33171588,0.17539215,-0.013796532,0.38650393,0.10912292,0.29840097,-0.31377006,-0.11732337,0.23864593,-0.26779526,0.14275634,-0.2394053,0.050123487,-0.10577487,-0.13010353,0.13922708,-0.15812042,0.07640678,0.055891544,0.073493026,0.57973194,-0.15074076,0.15339696,0.016785584,0.13745615,0.005216338,-0.07701401,-0.10700681,0.16664514,0.09560155,0.25553444,0.067264,-0.05693786,-0.26857024,-0.053207334,0.40272114,0.037655197,-0.19566308,-0.2219534,0.1896811,0.19441183,0.017253784,-0.057854857,0.02329494,-0.07493798,-0.23042695,0.044321127,0.030204698,-0.41250572,0.09557879
-0.5002167,-0.6188333,0.27693117,0.086590536,0.19313747,-0.052049838,-0.20533825,0.037016872,0.1150636,-0.25704166,-0.05780403,0.2647965,-0.007408664,-0.43987823,-0.19337186,0.070420384,-0.3897524,-0.17806926,0.005549647,-0.2401665,-0.13767907,0.066712625,-0.2882481,-0.292549,-0.24113362,-0.10156,-0.0927598,0.03417277,-0.13300683,-0.11014975,-0.15416738,0.022036217,0.12529513,-0.5005692,0.1727348,-0.05212471,-0.36478245,-0.056327954,-0.14674939,-0.2323539,0.025264977,-0.28503397,-0.21428797,-0.3121658,0.2970034,-0.27257195,-0.09063325,0.040645752,0.028779253,-0.0071529853,-0.32342422,0.035521757,-0.015309657,0.785394,0.12570418,-0.111899294,-0.5681799,-0.12239312,0.11497233,0.2637979,0.16084962,-0.08152681,-0.3677563,-0.046894174
-0.19462979,-0.0010367397,0.102601685,-0.032596078,0.0578603,0.080869004,-0.10110946,-0.17439714,-0.021837095,0.14090165,-0.09968449,0.0833567,0.11707049,-0.10225799,-0.117693186,0.17639458,-0.032373622,0.16937533,0.05193756,-0.09275113,-0.21258906,-0.14889322,-0.13531967,0.06321201,0.102023356,0.043546505,-0.0607389,0.083608866,-0.17981921,-0.01603205,-0.0068546575,0.1756066,0.03848232,0.14158921,0.0059592794,0.21563892,0.020068865,0.06300743,0.09397069,-0.025035253,-0.16153286,0.19945209,0.022244612,0.15341905,-0.07217672,-0.042400934,-0.14915095,-0.20728637,-0.020839717,0.084963106,-0.118419595,-0.018613758,-0.005111693,-0.16109191,0.06845059,-0.0014753466,-0.08323423,-0.15904848,-0.03358474,0.10682068,0.11908292,-0.14157343,-0.066739105,0.12764038
0.30003363,-0.08406321,0.26274547,0.121126495,0.44216606,0.0020056367,0.07536316,-0.22185393,-0.0836993,0.08615366,0.1296542,-0.17946857,-0.076542795,0.38001496,0.0025920146,-0.085186705,-0.04153848,0.29071817,0.102507085,0.060384914,-0.23645012,0.022397494,0.01604386,0.05148247,0.25699028,0.051932115,-0.15042624,-0.046291698,-0.1676608,0.062452447,-0.12509196,-0.016012233,-0.21780062,-0.13213494,0.33776572,0.06472366,0.19426027,0.14472887,-0.0059500323,0.078369424,-0.1297403,0.43163103,-0.083339944,0.28174877,-0.039410748,-0.12371505,0.09522011,-0.010715146,0.3472586,0.18378171,0.010656026,0.14675786,-0.07731142,-0.32805535,0.0074800467,-0.07601311,0.21558186,-0.10388953,-0.011028939,-0.14642777,-0.18674596,0.09046983,-0.15548168,0.003301991
-0.29005224,-0.17267655,0.09739906,-0.25399086,-0.2449329,-0.12849313,-0.066017985,0.08382383,0.093262,-0.21276744,0.16760363,-0.11598938,-0.057017162,-0.3793237,-0.06095153,0.033930246,-0.28590825,-0.19522859,0.025150865,-0.035519704,-0.11052046,-0.049408585,-0.28114322,0.122704424,0.068946525,-0.04692226,0.043629095,-0.24665317,0.045814577,-0.037014723,0.01088136,-0.16585357,0.3146705,-0.13860475,-0.37280306,-0.07042669,0.08193079,-0.13491513,-0.13530374,-0.044453517,0.0971274,-0.059574388,0.08720942,0.19552733,0.35680485,-0.1903287,0.13416193,0.044420507,-0.060903527,0.17757827,-0.3649104,0.12912321,-0.07501981,0.67297804,0.10579526,0.1190878,-0.0303441,-0.11293179,0.14505208,-0.009551845,0.03999507,0.14723365,-0.13470504,0.014252151
0.2728473,-0.013969146,0.43709615,-0.16957994,0.142959,-0.15482508,-0.17352735,-0.06468465,-0.10950187,0.42054343,0.024689745,0.08337489,-0.31160194,-0.058952924,-0.1381607,-0.06138061,0.2615879,0.42245582,-0.048806116,-0.19975954,-0.2201107,0.09963768,0.308738,-0.07176984,-0.14932825,-0.1147114,-0.08750724,-0.26056007,-0.11671265,0.48174542,-0.16472222,0.048158716,-0.1839078,0.33308008,0.112308316,-0.001097957,0.14052367,-0.0935748,-0.024642292,-0.11726502,0.10962514,-0.29912058,-0.16635004,0.4670583,0.14943676,-0.3245375,0.01667086,-0.038188167,0.070059605,0.0042683426,-0.0065430175,-0.16716182,-0.018611802,0.13633068,-0.042480737,-0.19050214,-0.25430185,0.11357658,-0.094763026,-0.08289697,-0.40762052,-0.14549313,0.7380871,0.06266319
-0.009175923,0.23912938,0.1996688,0.03611873,-0.06137992,-0.08113398,-0.25028792,-0.0036730391,-0.088507,-0.25042313,0.019396177,0.29257402,-0.13168152,-0.09024324,0.028901044,-0.15878788,-0.16241984,0.42605066,-0.0013289412,-0.11272682,-0.27668256,-0.025961678,-0.28427935,-0.19053444,-0.008740589,0.03195682,-0.07560251,-0.082860835,0.06434361,-0.020382687,0.01090421,-0.17671704,-0.12759595,-0.0847224,0.26240277,0.05436475,0.07943162,0.019523462,0.01492011,0.18755649,-0.58611375,-0.26894385,0.12353673,-0.051774856,0.0098325545,0.065398574,0.11349262,-0.08208668,0.20213482,0.17876488,-0.032600336,-0.08130942,-0.30957204,-0.75001585,0.19974783,-0.028618047,-0.083646506,-0.08897644,-0.104756206,-0.37536326,-0.2958649,-0.23534384,-0.21507633,-0.080139376
0.18049908,-0.11549238,0.39485687,-0.07182884,0.39911458,0.062162906,0.18262948,-0.20098022,-0.16775984,0.16809769,-0.0922743,-0.25374842,-0.2627603,0.098730296,-0.07026688,-0.37055948,-0.14918184,0.19249892,0.0052576647,0.05042048,-0.22421709,-0.17164165,-0.30016747,-0.06298307,-0.031108918,0.022888266,0.0649318,-0.102573335,-0.10218065,-0.30755267,0.09911493,-0.092310324,-0.0027235227,0.016900266,0.43619058,0.074861966,0.25797436,0.011591458,-0.057427146,0.08522888,-0.0745867,0.3810147,-0.07843559,0.46854985,-0.15326613,-0.21538514,0.10875947,0.015035452,0.2571892,0.22131102,0.13213243,-0.13340966,-0.07399183,-0.13807724,0.11714897,0.068895474,0.24794336,0.14219238,0.05471493,-0.0976749,-0.06751669,-0.0941296,0.15762757,-0.023955263
0.25659707,0.18064904,0.030539535,-0.15029077,0.061926242,0.12728138,0.12536614,0.01369014,0.03676083,0.04036459,0.031057186,-0.094754435,-0.17967145,0.45250407,0.046714947,-0.2553109,-0.2265243,0.0072435155,0.14657536,0.007621678,-0.0610001,-0.07241425,-0.09738874,0.56697935,0.09296721,-0.07158634,-0.06562516,-0.06221673,-0.09299839,-0.16387764,-0.2442816,-0.11491316,-0.10998345,0.07545364,-0.13213713,-0.1400461,0.06700269,-0.119113535,-0.032917056,0.078783594,-0.24593315,0.21761476,0.34469542,0.5481846,-0.33507204,-0.18331061,0.116290316,-0.01115069,0.118126035,0.12842749,0.014370601,0.080038175,0.19690758,-0.10481611,0.14909278,-0.12683284,0.13063493,0.1129881,-0.075544715,0.03018232,-0.21295655,-0.13694215,0.12420691,-0.067300886
0.082046285,-0.022924088,0.2778551,-0.12031281,0.42914316,0.07782416,0.20668063,0.103331536,-0.13849793,-0.08304952,0.08073751,0.11332742,-0.19396494,0.3624715,-0.038298164,-0.08261843,-0.21329752,0.18050829,-0.039031833,0.090814285,-0.06989489,-0.14445238,-0.2314132,0.04345892,0.2855397,-0.1605051,-0.060670074,-0.33884928,-0.007484395,-0.06311247,-0.07820044,0.17665994,-0.1579604,-0.12743175,0.35641038,-0.030606296,-0.090030625,0.11144678,-0.006260288,-0.2252884,-0.0033583562,0.22966596,0.1907754,-0.06608311,-0.25512302,0.0014878762,-0.08156773,0.072659165,0.21085763,0.28852838,0.12598209,0.21224636,0.15240306,-0.37620232,0.099376254,-0.042026684,0.38144365,-0.10147758,-0.08323423,-0.06913133,-0.1583449,-0.030080875,-0.061976127,-0.19342926
-0.16603197,0.011123234,-0.052922446,0.011572513,-0.05067248,0.09575011,0.22616993,0.10602392,0.11234537,-0.019419964,0.027893882,-0.15935825,0.09658235,-0.082134366,0.092709996,-0.19409077,0.06840194,0.091792636,-0.07539013,0.19984244,-0.28960368,0.1619701,0.039306674,0.1634707,-0.14828914,-0.024785012,-0.04926203,0.0139658535,-0.16138972,-0.1571531,0.1176943,-0.17923485,-0.08052432,0.025238546,0.04478084,-0.03489376,-0.12051332,0.09754565,-0.10805362,-0.02734158,-0.08490088,0.116866715,-0.18653323,-0.1247677,0.13903137,-0.14880855,0.13108058,0.03398106,-0.11265927,-0.1393318,0.17720108,0.056745574,0.07215034,-0.00216273,-0.10356572,0.04622904,0.269991,0.00266116,0.11265267,0.093362674,-0.10213213,-0.13048956,0.13414961,0.1553145
0.19448249,-0.2871059,0.2879982,-0.043836456,0.0044675656,0.025699096,-0.14625265,0.08252476,-0.017330205,0.08656884,0.029285435,0.699863,0.071831904,-0.2598201,0.051557034,0.02602438,-0.37997556,-0.22242132,0.11508213,-0.030895472,-0.11617106,-0.024306223,0.04321485,-0.009641661,-0.22649881,-0.19231798,0.14644589,0.050387945,0.063261285,-0.13350455,-0.10748149,-0.05411523,0.009843566,-0.1472288,0.051712897,0.12942,0.0666756,0.13599709,-0.050738323,-0.21942247,-0.46926045,-0.32021677,-0.037981506,0.00026608203,0.4837718,0.18915051,0.065502316,-0.3705325,-0.37540188,-0.15653463,-0.03297163,-0.1338964,-0.057755683,0.21873671,-0.008782811,-0.14481649,-0.071957864,-0.114420496,0.034605306,0.5127253,0.05959201,-0.0019782,0.13339879,-0.038443908
0.3327335,0.04707612,0.59498495,0.20021425,-0.024747245,-0.047024652,-0.16969644,-0.10083499,0.23812719,-0.27032712,-0.010928812,0.3566581,0.016259827,0.13967897,-0.032576673,0.13302676,-0.018393934,-0.28077197,0.07963799,-0.06308505,0.21347536,0.06774178,-0.0020744773,0.16439816,0.12800233,-0.14004835,-0.10640497,-0.0780249,0.07072435,0.061753854,-0.3492102,-0.119606026,-0.06010009,-0.032703787,-0.16883434,-0.029427664,-0.03411046,-0.33098337,-0.118387945,0.3728528,0.19703257,-0.32927337,0.6649838,-0.028391793,0.24363306,-0.06565797,-0.05910161,0.024683975,0.70520425,0.14661486,-0.001539483,-0.23928548,-0.12352181,0.6127498,0.21214072,-0.08576723,-0.10836501,-0.3157412,-0.24570492,0.008794695,0.36223575,0.09092001,-0.2633638,-0.2904143
-0.10343779,0.012418043,0.16422679,-0.12387928,0.06844535,-0.16883472,0.15825592,-0.10034726,0.24207865,-0.20975499,0.00085068645,0.064102106,-0.08632256,-0.17018333,0.24766444,-0.41097346,-0.11808199,0.1707983,-0.13227235,-0.23423137,-0.07034457,-0.017338961,0.085125856,0.18007764,0.09153497,-0.14745912,-0.10979932,0.053926777,0.07090211,0.03050905,-0.035013996,0.051322334,-0.032091554,-0.16818456,-0.03372542,-0.122377835,-0.124042176,-0.07312379,0.011224088,0.01888258,0.085584044,0.13478805,0.065942265,-0.21671745,-0.091699004,0.08217916,0.008278643,0.011645982,0.17187548,-0.040063675,0.10992543,-0.12733623,-0.067284875,-0.1375267,0.22961184,-0.12901165,0.10973246,-0.016107587,-0.10541811,0.08058274,-0.19811285,-0.03535044,-0.08277948,0.020473642
0.34595767,0.0391846,-0.09787448,0.030839715,0.30327886,0.023582935,-0.014172651,0.032877687,-0.08882418,0.04993387,0.14924851,-0.009321062,-0.18544568,0.036763474,-0.12634636,0.17978512,-0.27207538,0.291825,-0.082398415,0.12820347,-0.09921352,-0.14754945,-0.268052,-0.15876862,0.44843066,0.019749153,0.14550126,-0.07320592,-0.16035852,-0.0424726,0.108243875,0.17401883,0.08275301,-0.0729012,0.36941522,0.19061442,-0.025186544,0.1351834,-0.03900104,-0.048184194,0.070078485,0.46020317,0.08936672,-0.08968327,-0.30399075,-0.008002248,-0.21169363,-0.12549908,0.044684175,0.2979874,-0.02634396,0.10410032,0.28831032,-0.24976628,-0.016506512,-0.0044264137,0.30595502,0.14655694,0.074657634,-0.14895631,-0.13226944,-0.08940008,0.052674066,-0.2184473
-0.15686394,0.25695625,0.17363475,-0.1411684,-0.15251336,0.09909688,-0.10011189,-0.04692799,-0.21966937,-0.3110313,-0.025918318,0.6223321,-0.024937145,0.07252484,-0.13803364,0.27179205,-0.08529201,-0.39757887,-0.008816317,0.44578636,-0.15079315,0.11233308,-0.06385067,-0.086878434,0.12230529,-0.22865807,-0.03255734,-0.16347577,-0.13671032,0.03932509,0.15070696,0.07425247,-0.047939546,0.102666125,-0.48118553,0.12690088,0.41798174,-0.17584936,-0.014939874,-0.17534074,4.778097e-05,-0.45855775,0.133258,0.25847015,0.34398133,-0.12945735,-0.12397964,-0.051907383,0.019716518,0.45753932,-0.16343223,-0.11542806,0.0076866667,-0.086581826,0.17284456,-0.047796503,-0.3500586,-0.0054698586,-0.06250787,-0.009995153,-0.23912157,-0.08743005,-0.32551908,-0.052394684
0.24954037,0.025264438,0.44294506,0.16429411,0.3405987,-0.1285376,0.0862464,-0.11948842,0.048128106,-0.040153682,0.053065002,-0.017253464,0.13599417,-0.04365995,-0.09297558,-0.10009653,-0.21982718,0.18776666,-0.101116784,0.039891325,-0.17118336,-0.0770466,0.0686534,-0.21935798,-0.010917941,0.030796165,0.10139501,-0.1915016,-0.06552996,0.06888233,0.05485427,-0.044236176,-0.002782697,-0.014796472,0.27488413,-0.10556124,0.17526613,-0.08737963,-0.065733045,0.004218382,0.010992679,0.42778558,-0.068808116,0.13975333,-0.32051182,-0.03886437,0.074785344,-0.17294477,0.083000384,0.12097613,-0.15354961,-0.05680639,0.1391206,-0.25038165,0.12872528,-0.09625369,0.21364859,-0.02345653,-0.009995698,-0.23124291,0.1767378,-0.1549482,0.027314506,0.0736305
-0.08200047,0.20160408,0.5270771,0.00772621,-0.18705554,0.12325753,-0.25401703,-0.08008154,-0.22562782,0.26560846,-0.018393612,0.38213623,-0.17797849,0.3008877,-0.2553968,0.4148549,0.4878685,0.15609789,0.041989427,0.2412142,-0.16210218,-0.14542352,0.16429903,-0.2482442,-0.0063082688,-0.03403924,-0.16730592,-0.0257998,-0.16827129,-0.14694354,0.074410714,0.060250275,0.054963376,0.09030087,0.14386937,-0.17430645,0.23664863,-0.04076035,-0.04612146,0.10799597,-0.21754116,-0.018135112,0.4837827,0.03952754,0.0021543368,0.3057745,-0.056351576,-0.24658419,0.26856387,0.3170843,0.14313368,-0.06794695,-0.06076401,-0.30434763,0.041058287,-0.035327367,0.114399426,0.013423823,-0.1643347,-0.2132786,-0.06261463,-0.030141536,-0.090422735,-0.47108978
0.094560355,-0.09609599,0.50431305,-0.22568296,0.758312,-0.21788244,0.05142425,0.02738201,0.16927166,0.02881485,-0.08492558,0.05372115,-0.07950966,-0.12387113,0.14526945,0.22496814,0.34553272,0.22786784,-0.10028717,-0.46057922,0.32418668,0.16535954,0.6645809,-0.43237793,-0.11717307,0.073442586,-0.102335006,-0.13034901,-0.19369565,-0.07363676,0.035248462,-0.23052727,-0.014399399,0.04272541,0.31809455,0.00735363,0.45931557,-0.12889038,-0.14580548,0.27990997,-0.14967729,-0.0027612878,0.20760435,-0.29422724,0.5869709,-0.23324643,0.1318347,0.29175338,0.028376184,0.07888825,0.15637995,0.00718094,-0.07987574,-0.13330267,-0.085135765,-0.12064319,-0.12141842,-0.05540802,0.034997657,-0.10556251,0.4303753,-0.1500108,-0.23910852,0.07480356
-0.010820597,0.15782566,0.24038072,0.006243066,-0.13295485,0.026328921,0.08218859,-0.010683113,-0.1750958,0.15083416,0.087795965,0.0009226967,0.11865572,-0.17560078,-0.00441211,0.0005327833,-0.058814242,0.029662397,0.15925978,0.01567031,-0.1279656,0.1397537,-0.20229614,-0.19553804,0.15158895,0.06956376,0.1321793,-0.066413455,0.03980296,-0.14414091,0.1379892,-0.1503256,-0.07706963,0.03927795,0.057471395,0.14330108,0.044548973,0.10411301,0.026502846,0.046320483,-0.059202287,-0.02867035,0.19748454,0.20962988,0.012110855,0.15374579,0.21163878,-0.024454203,0.009731001,0.06237403,0.007415746,-0.04821192,-0.06655497,0.07881899,-0.025414813,-0.17220226,0.036478907,-0.097043894,0.0143177,0.018840328,-0.08768635,-0.05703831,-0.028556583,0.004990651
-0.51039016,-0.42329594,-0.117081955,-0.17063838,-0.0578558,-0.17441803,-0.24068502,-0.09801663,-0.13718924,-0.13751887,0.027168967,0.35099414,-0.073001206,-0.2249737,-0.03614916,0.015534811,-0.47006884,0.03593537,-0.13050391,-0.25791153,-0.26756194,0.07601167,-0.4725658,-0.24747314,-0.14279833,-0.19831273,-0.09608008,-0.03192576,-0.06275317,-0.007528289,0.01312342,-0.053192824,-0.020145131,-0.52988124,0.03428062,-0.009143084,-0.33253515,-0.18965228,-0.057766736,-0.15633929,0.17092136,0.054759383,-0.32523987,-0.5903609,0.31830922,-0.020390969,0.15403463,-0.13802508,0.14696772,0.17433573,-0.07577424,-0.08310759,-0.054192342,0.14269304,-0.0013165772,-0.100433156,0.029473757,0.025499135,0.062395234,-0.12608863,-0.10758159,-0.03486274,-0.25345978,0.11242439
0.27082986,-0.017845899,0.17570403,0.013951259,0.35173175,-0.20259333,0.019134616,-0.03211463,-0.11447063,-0.04383323,0.1775123,-0.08411649,-0.036681727,0.325364,0.11509509,-0.045424096,-0.29207486,0.34295714,-0.13360369,-0.039242048,-0.13148801,0.005507132,-0.09183568,-0.21831352,0.21108276,-0.05844142,-0.069767475,-0.09760335,0.049228176,0.028590957,-0.17397484,0.118993506,-0.028308064,0.016004005,0.45162734,0.057846103,0.09576388,0.0266588,0.038146432,0.11540693,-0.012479734,0.26197976,0.16706508,0.061498344,0.09955153,-0.011834172,-0.0948756,-0.114022285,0.45421064,0.0055709993,-0.1322056,-0.0165922,0.12892558,-0.6493599,0.003350585,-0.14620964,0.33974934,-0.013365316,0.09963886,-0.18384978,-0.2160351,0.0033758797,-0.12446614,-0.1595345
0.11935021,-0.012867149,0.19506858,0.12509719,0.54894775,-0.16086465,0.06045598,-0.024445646,0.021119414,0.055968374,-0.07555229,-0.12238941,-0.18802567,0.25751573,-0.079231694,0.0598279,-0.14897339,0.38553667,-0.14595969,-0.12259005,0.0009293895,-0.19362907,-0.19370762,-0.23199293,0.07657798,0.010718156,0.08513172,-0.025357964,-0.10833648,-0.15507571,-0.43145943,-0.1574395,-0.1712734,0.06840719,0.11872885,-0.2534332,0.1919076,0.11748616,-0.018884277,0.06233827,-0.08573019,0.11764946,0.13603653,-0.12778315,-0.44207343,-0.06872835,-0.09713579,-0.18151714,0.1640216,0.10634005,-0.11075266,0.09626727,-0.015414128,-0.15744025,0.097579725,0.11136809,0.3179809,0.029413233,0.114695884,-0.24757901,0.38601118,-0.036489625,-0.23645313,-0.11405524
-0.057041943,0.39175457,-0.04655271,0.048300866,-0.0924815,0.11593969,0.06579623,-0.02052632,-0.11884272,0.007961502,-0.097998716,-0.04774794,0.15517841,-0.08728979,-0.18392234,0.05558099,-0.11459009,-0.52629143,0.16860113,-0.022898076,0.23382269,0.0682843,-0.009864305,0.022720972,-0.021297889,0.07958562,-0.18855649,-0.069286436,-0.017579108,-0.07787088,-0.004648566,0.11697665,-0.059654154,0.19590831,-0.074146025,-0.23108932,-0.15656565,0.1073963,-0.1712631,0.033843603,-0.22323674,-0.09245443,0.23167554,0.16059689,-0.26260132,0.094328105,0.065780446,0.09668898,0.085944556,0.02103743,-0.13899988,-0.05741341,-0.00017598498,-0.10133835,0.2144686,0.098854885,-0.23370478,0.051571563,-0.023626344,-0.1322565,-0.031371582,-0.05206126,0.101301625,-0.042947277
0.27123737,-0.24693944,0.09842427,0.12803401,-0.21654846,0.09616502,-0.02585523,-0.1220322,-0.3067265,0.19092785,-0.090487525,0.013473552,0.5754168,0.22107768,-0.52749,0.052147206,0.093828246,0.35485953,-0.014429272,0.20085852,-0.11738151,-0.11013637,-0.12301233,0.16427056,0.12567444,-0.08757821,-0.038503163,0.28204882,-0.18434493,-0.21280913,-0.17295651,0.060920287,0.14730021,-0.023447253,0.5175247,-0.02254402,0.26067656,-0.07949941,-0.030460438,-0.045709845,-0.30062404,-0.070141934,0.15493213,-0.1193105,-0.33305532,-0.1600601,-0.028622868,-0.28698966,0.26936102,0.25282386,-0.53474337,0.13438605,0.028140228,-0.114184976,-0.22103027,0.046048045,-0.029326629,0.13656557,-0.11911043,-0.024163581,0.1591843,-0.1294383,-0.1485791,-0.37109724
-0.16408849,0.018210633,0.027807316,-0.26001406,0.026324712,-0.16878468,-0.1581437,0.13186152,0.09257424,-0.011801414,0.082809545,0.19889322,-0.007861279,0.32597917,-0.23923305,0.15257019,0.42308578,0.020997832,0.012384092,0.25108972,-0.076936394,-0.15052193,0.3703604,0.08514056,0.11339988,-0.13569327,-0.12506081,-0.048019476,0.060229912,0.059383757,0.11603058,0.13472062,0.023793997,0.09718779,0.10100315,0.018365234,-0.045359258,-0.08754204,0.058787018,-0.07856531,-0.1774021,-0.403337,-0.13148162,-0.14574064,-0.0840545,0.04632329,-0.17867905,0.025356194,0.15851271,0.089055374,0.05131634,0.13163787,-0.025217228,0.036965907,-0.15313382,0.116082236,0.021073934,0.003676042,-0.04863477,0.006061475,-0.091458485,0.009025498,-0.011634862,0.019402381
0.19496599,0.08900824,0.24725819,-0.19119984,0.4610318,-0.04278786,-0.15982112,0.10820794,-0.057107642,-0.05455356,-0.16369721,-0.22137044,0.05490031,0.30172458,0.124702275,-0.05503293,-0.11430639,0.3810125,0.1176473,-0.03208112,0.0076276837,-0.070275344,-0.24075522,-0.20072517,0.076592386,-0.06333083,0.055398554,0.033653617,0.061040267,-0.18882383,-0.06383134,-0.10028377,-0.3377602,0.08098524,0.33506858,-0.0094492985,0.04906837,-0.021043126,-0.22026503,0.0873627,0.04397882,0.24251282,0.3378115,-0.22998802,0.053167775,-0.16612369,-0.0603457,-0.053579133,0.13277423,0.29408374,0.15600303,0.029449562,0.18884502,-0.50748175,-0.042705912,-0.17317292,0.32070684,0.17275484,-0.036311664,-0.10648235,-0.039726365,-0.057334226,-0.13152504,0.04681788
0.32929572,-0.0689704,0.6324455,0.051160514,0.2228072,-0.035738677,0.012160123,-0.167953,-0.04229751,-0.112192154,-0.117137566,0.01970194,-0.13858762,-0.11495652,0.13550116,0.27587768,-0.32351357,-0.23123494,-0.06665903,-0.020662492,-0.0009810088,0.06930104,-0.40161815,-0.13863759,0.4807728,0.10120397,-0.0076845083,-0.13974816,0.11974756,0.0055067777,-0.08859478,0.15028898,-0.10759143,0.12576959,0.38300136,0.061423354,0.27597103,0.066273816,-0.06577993,0.25956464,0.0801238,0.03513194,0.30827028,-0.09047002,0.13055933,-0.08860938,-0.1507691,0.0570133,0.34592956,0.2939672,-0.100798614,0.20578419,-0.17655136,-0.31552997,-0.033004142,-0.030014545,0.22260256,0.13183214,-0.02140208,0.3201631,-0.07349927,-0.15009597,0.05778311,-0.034282487
-0.114866585,-0.29406044,0.025032727,0.2088766,-0.2575667,-0.17036203,-0.014950903,0.16910528,0.06629509,-0.09278594,-0.19526619,0.0022405651,-0.16518086,-0.051692326,-0.017182413,0.40479118,-0.13750434,-0.24865054,-0.12931634,-0.025918288,-0.19941998,-0.19995154,0.015712632,0.039995182,-0.06310913,-0.09319539,-0.030861182,-0.089609146,-0.0855561,-0.47665024,0.039641872,0.046671078,0.042894866,-0.049214426,0.08577118,-0.12017111,-0.31867078,-0.06482461,-0.16478208,0.026480753,-0.023371657,-0.047497757,0.10971542,-0.329196,0.23924457,-0.35893038,-0.023623124,0.1183971,-0.022367608,-0.02567845,-0.0891145,-0.013792188,-0.11039869,0.2818536,-0.10202583,-0.13235384,-0.071525276,-0.18244581,0.11525033,-0.16773938,0.17804205,0.07683273,-0.2121878,-0.11303111
0.09874082,-0.18316853,-0.009905766,0.026325764,0.25746077,-0.08389384,0.11912349,0.0829391,-0.003360686,-0.15235457,-0.32908657,0.006574761,-0.1356049,-0.25766653,0.0032754666,-0.03133464,-0.17047746,0.032507233,-0.01684062,0.002643514,-0.017153148,-0.10093428,0.075786255,-0.11592067,-0.34881577,-0.3528149,0.03834239,0.05387678,-0.19380951,-0.049715858,-0.04620674,-0.25240824,0.06696925,0.12843937,0.13933964,-0.0538749,-0.09754332,-0.14543313,-0.28722817,-0.012633114,-0.37649322,-0.29237065,-0.10597558,-0.076101206,-0.44292685,-0.17799437,-0.13054955,-0.2773882,-0.40789765,0.011056126,0.14200582,-0.24797112,-0.038346987,-0.36900344,-0.11864935,-0.034008328,0.14449543,-0.29206407,-0.013682002,-0.11053408,-0.069641046,0.08687368,0.07684113,-0.5024802
-0.10165449,0.37243953,-0.2137081,-0.13285503,-0.051955204,0.15986519,0.10301385,0.028428601,0.06489678,0.14724138,-0.104763925,-0.084570706,-0.26636386,0.123091325,0.13981508,-0.09022262,0.2592469,-0.09063411,0.039994344,-0.024240961,-0.14360471,-0.00017659167,-0.1256153,0.11203515,-0.000990549,-0.031285264,-0.13594213,-0.12609482,0.095397346,-0.07153824,-0.020855717,0.021022888,0.033450607,0.038383946,0.04041184,0.25543275,0.114342675,-0.12960494,-0.0060210903,0.1297761,0.1487686,0.2540263,0.28749323,0.5055786,0.12647603,0.009004427,0.18506822,-0.006224722,-0.12556963,0.08660639,0.18717028,-0.07773418,0.20837413,-0.16796748,0.03905459,-0.0053196847,0.34099576,-0.069790825,0.07914717,0.05672026,-0.037027255,-0.08026383,0.22326404,-0.34352088
-0.078235485,0.4119011,0.20215,-0.12192551,0.22432499,-0.12406948,0.31526908,-0.1759821,0.057061583,-0.015130726,0.14248897,0.08219603,-0.19600503,-0.26922858,0.29201064,0.08994178,0.052593157,0.28587437,-0.13820909,-0.17641008,0.036874864,-0.041017298,-0.26286846,-0.19199102,0.05043507,-0.020596059,-0.0461091,0.0155491205,0.029333843,-0.246821,0.18249427,-0.03519479,0.08324434,-0.03948387,0.28601503,-0.1231502,0.039735176,-0.021149447,0.026422633,0.06999621,-0.15478313,-0.0009590653,0.10613027,-0.21302897,0.13025819,-0.07108417,0.11700716,0.068209745,0.06811161,0.16593516,0.13507597,0.060679793,0.10354633,-0.2509609,0.16426183,-0.040320124,0.20699112,-0.23025739,-0.084889725,0.21869168,-0.0013332824,-0.15765104,-0.13216153,0.22244433
0.043105636,-0.027282912,0.3292574,-0.10022107,0.4635784,-0.09061749,-0.19074799,-0.11219151,-0.19946499,-0.021287465,0.010418575,-0.23835236,-0.18145163,0.31937286,-0.11284729,-0.03522404,-0.036950964,0.44316894,-0.05092237,-0.12875423,0.07891625,-0.18760486,-0.0674887,-0.070258714,0.14568678,0.024508433,0.10228368,-0.11476942,-0.098111056,0.017779075,-0.30986726,0.08863436,-0.11030561,0.23387252,0.23610342,-0.21401224,-0.008539303,-0.12373671,0.025657134,0.14074405,0.16086727,0.22667718,0.121769466,-0.0015965257,-0.09436303,-0.22209878,0.05558678,-0.19712782,0.09442198,0.20247884,-0.12561946,0.12660661,0.10261089,-0.5478443,-0.020403085,0.13539985,0.35533556,0.11645505,-0.14349593,0.011451546,-0.15508468,-0.078451045,-0.18116277,0.16165602
-0.12215553,0.1824318,0.20782116,0.007872622,0.22723565,-0.11174714,-0.061841797,0.07188538,0.12223616,0.0015138471,-0.18941467,-0.20346013,-0.06783065,0.046214417,0.22751914,-0.21061645,0.15652995,0.024199504,0.06449223,-0.054421183,-0.08337805,-0.162372,0.6342714,-0.11241296,-0.07366203,0.15901463,-0.03842081,-0.14354898,-0.08986412,-0.07505273,0.073841184,0.050251212,-0.08008678,-0.08882599,0.25377318,0.008916966,0.08210893,0.023261912,-0.06894437,-0.08869769,0.052672528,-0.25561813,0.06308943,0.039872788,0.099621184,-0.31187025,0.1197164,0.2507541,-0.0012704438,-0.102905236,-0.22313991,-0.44258082,-0.23932362,0.28763756,0.16297726,0.027636364,0.029232519,-0.16997156,-0.016925834,0.15912475,0.086843714,0.09021335,0.09242605,0.33494732
0.06656373,0.2030593,0.019168397,-0.016537493,-0.012464211,-0.1593231,-0.15139858,-0.0020725655,0.118201666,-0.1801329,-0.022657694,0.0043862504,-0.113279715,0.008571963,0.055799905,0.049326118,-0.043544017,0.03419572,0.1438071,-0.041915327,-0.11612783,-0.19798191,-0.07173737,-0.21156223,0.26368028,0.05748214,0.05806422,-0.2384971,-0.16346996,-0.02066393,0.18260215,-0.09441604,-0.15752868,0.0044191508,0.13586615,0.19202456,-0.13598342,-0.047711857,0.064686105,-0.00666914,0.08839653,-0.11631307,0.043500524,-0.12284247,-0.14533323,-0.052099835,0.087602735,0.054464135,0.046795603,-0.15794894,-0.029446803,-0.11337234,0.09966974,-0.20056325,0.2002963,0.025101723,0.1280015,-0.3839124,0.073173605,0.020082485,-0.17975253,0.01477018,0.06271637,-0.12306692
0.22206391,-0.17295392,0.35215753,0.09929403,0.009733277,-0.16613676,-0.1925684,0.0025714494,0.021797106,0.17681941,0.160654,-0.1805426,-0.22244516,0.240206,-0.22552122,-0.022856768,-0.13862334,0.3527023,-0.11155863,0.13091262,-0.015876304,-0.14429341,-0.040980764,-0.07451293,0.16356125,-0.13606317,0.087562226,-0.10091809,-0.09740737,-0.11606745,-0.2533684,0.016396187,-0.1923018,-0.11535844,0.27806705,0.01809117,0.029650318,-0.007957803,-0.036244508,0.064744,0.17513105,0.35970038,0.109480575,-0.004677888,0.16286777,-0.010761325,-0.20967604,0.05120869,0.04409939,-0.041405294,0.12333377,-0.16374476,-0.14104976,0.08203246,-0.10306227,-0.13749789,0.1582714,0.108650334,-0.12420022,-0.21074954,-0.112554975,-0.19905363,-0.025028924,0.08207934
0.3580569,0.4716203,0.047397964,-0.05725335,-0.20474197,0.09477033,-0.369547,-0.20159689,-0.44977677,-0.017792044,-0.051517863,0.15347305,0.17764802,0.3091908,-0.43359703,-0.54542404,0.56343985,0.8330515,-0.13950354,0.18707767,0.15377064,-0.04443559,0.28666502,0.041405007,0.19466347,-0.038082328,-0.1524114,-0.05495946,-0.17309657,-0.39605677,-0.031845678,0.07747161,-0.21875355,0.43753672,0.46553022,-0.2006262,0.12322,0.12659927,0.10168449,0.19154485,-0.23303734,-0.23395483,-0.032808438,0.1052817,0.045361526,-0.16355248,-0.31154686,-0.48294383,0.16372085,0.29301515,-0.44392118,0.15998282,-0.13791686,0.25316212,0.03437192,-0.053984035,0.026494287,0.22855453,-0.13272952,-0.067740925,-0.15613598,-0.14484832,0.37290746,0.02782914
0.23453736,-0.58179843,-0.32648024,0.05098004,0.5101946,-0.19695707,0.16972485,-0.037497412,-0.19621956,0.16726372,0.1372269,0.13779907,-0.3885,0.1667416,0.08464634,0.068848155,-0.29803076,0.08738521,-0.013608633,0.018457124,-0.060296714,-0.06667341,0.14731658,-0.01811752,0.12484451,0.08714911,-0.29207742,-0.29774338,-0.07662322,-0.19607605,-0.32560626,0.0037458302,-0.058739636,-0.35274616,-0.05477436,-0.15929016,-0.23255336,-0.1494287,-0.09945374,-0.21945684,-0.55175143,0.5052901,0.0154134445,0.3239967,-0.1905037,-0.03937824,-0.18444425,-0.0761092,0.20189464,-0.094662495,-0.019333212,0.15461914,0.040804487,-0.06609643,-0.13377383,-0.15294117,0.15529226,0.22315791,-0.11417864,-0.10478479,-0.0040643923,-0.08915844,-0.6537993,-0.38531706
-0.12592071,0.05804159,0.13527675,0.05627709,0.090221934,-0.17612313,0.06933581,-0.13561052,-0.10227846,0.16361281,-0.06658655,0.043965783,-0.048880618,-0.17608489,-0.19319557,-0.16416074,0.05168592,-0.06292188,0.1357096,-0.0005267835,-0.11526213,-0.1537836,-0.10127674,0.0644612,0.043746598,-0.033510886,0.095665485,0.067430094,0.09100534,0.0708862,0.25635025,-0.1438252,0.11649058,-0.15442133,-0.09679094,0.17780736,-0.088777475,-0.06514388,-0.03543413,0.057180695,-0.26633936,0.15956797,0.13057528,-0.03909514,-0.14837861,-0.08202397,-0.058357228,-0.023779087,-0.12665668,-0.07120249,-0.03307699,0.044687297,-0.0005190266,0.13899702,0.105619326,-0.11782726,0.04414534,-0.033124298,-0.09245314,-0.052245993,-0.042059194,-0.11924977,-0.105031624,0.10201104
0.24078548,0.20593561,0.090689756,-0.030391848,-0.22401844,-0.17160216,0.052331407,0.12897673,-0.21409155,0.044702884,0.057151422,-0.24844614,0.022019692,0.09907983,-0.0886769,-0.3550204,-0.014849178,-0.115546726,-0.012967004,0.036836438,-0.0045113172,-0.1551839,-0.043426394,-0.26917422,0.05177625,-0.02552215,0.12394588,-0.34506175,-0.027488032,-0.3497268,0.22061552,-0.1415127,-0.07398988,0.23345393,-0.13980822,0.074241966,0.07110179,-0.076148234,-0.1517985,-0.040520344,-0.3102544,0.05776096,0.039781414,0.124956414,-0.32833555,-0.25954777,0.048575185,-0.07253293,0.07708882,-0.06511493,-0.07736714,-0.012652438,0.12563954,-1.1738105,-0.13501763,0.027450215,-0.085887656,-0.16635206,-0.16678785,-0.11216594,0.12462262,0.14456773,0.04439011,-0.29285908
0.27253956,0.16669446,0.7136148,-0.18960683,-0.34415188,0.0074641793,-0.082746685,0.16308908,-0.07540647,0.26753774,0.05420081,-0.38091537,1.0698133,0.78114575,-0.64014596,0.2367045,0.14917465,0.44062042,-0.11156695,0.15765609,0.07134688,-0.065768465,-0.005729835,0.66836613,1.6984869,0.0831364,0.10409551,0.06410239,0.09438068,-0.25217637,-0.25471562,0.09844559,-0.10477297,0.5694976,0.43121967,-0.042848345,0.39710945,0.17947549,0.047713336,-0.34783524,-0.18056543,-0.020450847,0.18490602,-0.028961986,0.04500574,-0.25022465,-0.22980823,-0.108028114,0.35650915,0.1352896,-0.3243457,-0.012493485,0.23083262,-0.7560455,-0.037056513,-0.00013904274,-0.23918697,0.10820698,0.09957537,-1.155521,0.13652903,0.009777809,0.9234005,-0.54298455
0.021103462,-0.03407031,0.1330194,0.09301429,-0.18521878,-0.04468485,-0.19038637,-0.1266149,0.050911445,-0.6840567,-0.5240923,-0.051188614,-0.055846654,0.13844131,0.39464638,-0.1574944,-0.021300348,0.45830685,-0.0740357,0.19196475,0.06812699,-0.07671867,-0.36627108,0.32113078,0.17964956,-0.4705453,-0.26022407,-0.36252075,-0.07249037,-0.036545523,-0.37443653,-0.55389345,-0.09046609,-0.010649105,-0.14571276,-0.40927246,0.22717926,-0.18162365,-0.12188371,-0.008845342,-0.23349386,0.08154205,0.026293803,-0.093440264,0.1128845,0.088375926,-0.035111144,0.1839849,0.54079205,0.41024616,-0.24982052,-0.35312393,-0.28391272,0.41353744,-0.0352755,0.14066358,-0.032833736,-0.51936036,0.02577287,-0.1812717,-0.005346161,0.1264237,0.0144475745,-0.118296765
0.14708377,0.09299319,0.5121892,-0.24223725,0.5070526,-0.117786676,-0.14935778,-0.1730892,0.04968536,0.4383417,-0.112443425,-0.67417806,-0.2590194,-0.0068095173,0.05289219,-0.36842993,0.08030636,0.03962014,0.099131204,0.037552964,-0.039572123,-0.16021778,-0.11431821,-0.1181284,-0.16556342,0.008225275,-0.0018834292,1.0873424,-0.01028384,-0.25256798,0.040797405,-0.10821946,-0.15027285,-0.06409041,0.09622316,-0.0686532,0.010706219,-0.06697656,-0.044593215,0.35034245,0.15604569,0.259716,0.5945822,0.01117054,-1.2698091,0.029306453,-0.12640168,-0.1072849,-0.18045217,-0.077408865,-0.074827835,0.13159478,-0.13630125,-0.16683637,-0.05726075,-0.089686416,0.073654614,-0.1260374,-0.073032856,-0.022763748,-0.09388238,-0.07739012,0.21977842,-0.095806256
-0.1610426,-0.12795794,-0.11398525,-0.07656646,0.048206903,-0.12215752,0.14902349,-0.17256525,-0.05396044,-0.08718287,-0.13236865,-0.20276771,-0.104840346,-0.12351071,0.14414954,-0.123671524,-0.11738705,-0.09290484,-0.008083259,-0.084032945,-0.29293746,0.011778536,0.018156221,0.03361641,-0.21488468,-0.11172824,-0.12495067,0.08562368,-0.18719049,0.022502013,0.09859631,-0.14160292,-0.20338815,0.23673743,-0.13164322,0.08245117,-0.2857876,0.037618015,-0.057754915,-0.07596105,-0.31758562,-0.045805056,-0.07247457,0.118308924,-0.076707214,-0.17760684,-0.036355693,-0.028228391,-0.19799812,-0.057057686,-0.017040905,0.002502551,0.07221815,-0.7848959,0.15493846,-0.15185918,0.23882763,0.061773784,-0.11676889,-0.17700198,-0.25720686,0.022298696,0.16189478,-0.20823492
-0.12780881,0.26435688,0.17438895,-0.12657799,0.37548134,0.042738203,0.15713081,-0.11374794,-0.06339308,-0.03178537,0.026979942,0.14064886,-0.13905731,0.10916357,0.17941059,-0.4915343,-0.3290702,0.38441625,-0.08942664,0.2494561,-0.09514828,-0.13577504,-0.39820176,0.031762734,-0.069432795,0.078913994,-0.10756823,-0.23332654,0.059388094,-0.35484144,-0.03345191,-0.026052333,0.02799868,0.055572968,0.59343964,-0.0070066717,0.19734477,-0.17634486,-0.0012478381,0.15036848,0.28674865,0.25593412,0.032497272,-0.14208998,0.7570972,-0.24747911,-0.06630313,-0.37169135,0.43364412,0.35306945,-0.18503812,0.0007319114,0.25967452,0.56337684,-0.10606566,-0.02104485,0.29679596,-0.2492359,0.12969097,-0.08750797,0.12740253,-0.19106431,-0.1963002,-0.11427404
