0,1,2,3,4,5,6,7,8,9,10,11,12,13,14,15,16,17,18,19,20,21,22,23,24,25,26,27,28,29,30,31,32,33,34,35,36,37,38,39,40,41,42,43,44,45,46,47,48,49,50,51,52,53,54,55,56,57,58,59,60,61,62,63,64,65,66,67,68,69,70,71,72,73,74,75,76,77,78,79,80,81,82,83,84,85,86,87,88,89,90,91,92,93,94,95,96,97,98,99,100,101,102,103,104,105,106,107,108,109,110,111,112,113,114,115,116,117,118,119,120,121,122,123,124,125,126,127,128,129,130,131,132,133,134,135,136,137,138,139,140,141,142,143,144,145,146,147,148,149,150,151,152,153,154,155,156,157,158,159,160,161,162,163,164,165,166,167,168,169,170,171,172,173,174,175,176,177,178,179,180,181,182,183,184,185,186,187,188,189,190,191,192,193,194,195,196,197,198,199,200,201,202,203,204,205,206,207,208,209,210,211,212,213,214,215,216,217,218,219,220,221,222,223,224,225,226,227,228,229,230,231,232,233,234,235,236,237,238,239,240,241,242,243,244,245,246,247,248,249,250,251,252,253,254,255,256,257,258,259,260,261,262,263,264,265,266,267,268,269,270,271,272,273,274,275,276,277,278,279,280,281,282,283,284,285,286,287,288,289,290,291,292,293,294,295,296,297,298,299,300,301,302,303,304,305,306,307,308,309,310,311,312,313,314,315,316,317,318,319,320,321,322,323,324,325,326,327,328,329,330,331,332,333,334,335,336,337,338,339,340,341,342,343,344,345,346,347,348,349,350,351,352,353,354,355,356,357,358,359,360,361,362,363,364,365,366,367,368,369,370,371,372,373,374,375,376,377,378,379,380,381,382,383,384,385,386,387,388,389,390,391,392,393,394,395,396,397,398,399
0.0,0.0,-0.0,-0.0,-0.09388172,0.50931346,-0.0,-0.123534516,0.0,0.21451299,-0.1021554,-0.0,0.0,-0.042044416,0.0,2.2953577,0.0971813,0.0,-0.27812698,-0.11598133,0.14802603,-0.3092105,0.186929,0.0,-0.08988544,-0.0,-0.0,-0.15421823,-0.0,-0.0,-0.11467616,-0.15113579,-0.0,-0.0,0.18589893,-0.12612545,0.0,-0.55726403,-0.1278806,0.018181242,0.0,-0.0,0.0,0.0,0.0,-0.3574834,-0.0,-0.0,0.0,-0.0,0.030677635,-0.0,-0.10615066,0.0,0.0,0.0,1.6268611,-0.0,-0.61824614,0.0,0.0,0.0,-0.0,-0.0,-0.0,0.08604371,-0.0,0.0,0.0,0.09552476,-0.0,-0.6111245,0.0,-0.0,-0.0,0.11995254,-0.040158994,-0.0,-0.0,0.024350291,0.10287834,0.0,-0.08910239,0.0,-0.12554438,0.0,-0.0,-0.08643857,0.0,-0.0,-0.0,0.0,-0.12517896,0.030653587,-0.0,-0.11347535,-0.11571569,-0.24112646,0.07898523,-0.09693462,-0.10931721,-0.120847434,0.0,-0.0,0.0,2.473659,-0.0,-0.0,0.11332861,0.0,-0.5387824,0.0,0.0,-0.0,-0.0,0.0,0.0,-0.0,-0.0,-0.0,-0.73777443,0.0,0.0,0.0,0.0,-0.0,0.10389971,0.0,0.0,-0.0,0.0,-0.23732144,-0.0,0.1919185,-0.0,-0.11194822,-0.08852076,-0.0,0.0,-0.0085008815,0.0,-0.0,0.08669118,0.0,-0.0,-0.0,0.0,0.0,0.12346243,-0.0,0.007961579,-1.9511864,0.0,0.0,0.0,0.0,0.0,-0.0,0.0,0.0,0.18361218,0.09005141,-0.0,-0.0,0.037884515,-0.0,0.13714372,-0.015131836,0.0,-0.09725011,0.0,-0.0,-0.0,-0.09539428,-0.10764475,-0.09446813,0.0,0.0,0.16583438,-0.11927743,-0.0,0.0,0.0,0.107716165,0.56328225,0.0,-0.52532274,-0.11110884,0.0,-0.16354154,-0.10866432,0.0,-0.0,0.0,-0.28015298,-0.0,0.12214974,0.0,0.0,0.0,-0.0,0.0,0.0,-0.0,-0.0,-0.0,-0.0,0.0,0.0,-0.0,-0.1072287,-0.0,0.0,-0.0,0.4251371,-0.0,0.0,-0.09011096,-0.09847341,-0.0,-0.0,0.0,0.0,0.088044755,0.0,0.0,-0.0,-0.0,0.11740456,-0.0,0.0,0.0,-0.0,0.38923454,0.0,-0.0,-0.0,-0.0,0.10757049,0.0,-0.102556154,-0.01732175,-0.0,-0.0,0.0,0.0,-0.0,0.0,0.0,-0.0,-0.0,0.0,0.11291413,-0.0,-0.101830505,-0.091547176,-0.11561782,0.10090816,0.11072842,-0.0,0.0,0.0,-0.0,-0.0,-0.08915033,0.0,-0.10094709,0.11966788,-0.049518753,0.08885176,-0.0,0.11901568,0.19445674,-0.0,0.0,-0.0,0.0,-0.0,-0.0,-0.102198854,-0.0,0.0,-0.0,-0.0,-0.0,-0.0,-0.0,0.0,0.0,-0.10816269,-0.0,0.09456733,0.0,-0.0,0.0,-0.0,0.102679305,0.10562743,-0.0,-0.0,-0.0,-0.08971658,0.0,0.033295017,-0.03772909,1.3171375,0.13799605,-0.0,-0.10703342,-0.140026,0.09071027,-0.0,0.3581578,0.0,-0.0,0.1630047,0.0,-0.0,-0.0,-0.0,0.13118501,-1.2412393,-0.0,-0.07701547,-0.0,-0.0,-0.0,0.0,0.0,-0.0,-0.0,-0.0,-0.108313546,0.0,0.013871487,0.16019212,0.017065736,-0.0,0.13666192,-0.022509584,-0.0,-0.50673383,0.0,0.0,0.89440066,0.11349141,0.19557647,0.11663643,-0.0,-0.0,-0.0,0.0,0.0,0.8691479,-0.014803459,0.0,0.0,-0.5653026,0.0,0.33253056,-0.0,0.0,-0.16165332,-0.08916474,-0.0,0.0,-0.0,0.0,-0.06542985,1.4029912,0.0,0.0,-0.1669243,-0.0,0.0,0.0,-0.4474461,0.0,-0.0,0.0,-0.0,0.0,0.0,-0.0,-0.0,0.0,0.0,-0.0,-0.006178262,0.123130105,0.0,-0.0,-0.0,0.0,-0.9704814,0.0,-0.0,1.8881291,0.0,-1.8694782
0.109934404,0.10504643,-0.0,-0.0,0.09479197,0.0,0.0,0.0,0.0,-0.17970675,0.11468299,-0.0,0.0,0.22257324,0.0,-0.0,0.1335679,-0.13592802,0.0,0.0,0.0,0.06639429,0.007298763,0.0,0.087955706,-0.030694425,-0.0,0.15777071,0.04736565,-0.0,-0.14279883,0.0,0.0,-0.0,0.13314953,-0.06575779,-0.0,-0.006241796,0.0,-0.0,0.0,-0.0,0.0,0.0,0.5151009,-0.0,-0.0,-0.0,-0.010098866,-0.17929985,0.0,0.0,0.0,0.0,0.0,0.0,0.16303198,-0.0,-0.16289957,-0.0,0.0,0.19647202,-0.12232095,-0.0,-0.0,0.15232138,0.0,0.0,0.28103724,0.0,-0.0,0.0,0.0,-0.09357526,0.0,0.10352994,0.0,0.11468413,0.15249583,0.1138763,0.08606055,0.0,-0.0,0.0,0.13492447,0.0,-0.08063483,-0.10398903,0.0,0.0,-0.0,0.0,0.114037745,0.0,0.0,-0.066534616,-0.11920066,-0.0,0.031129511,0.12778719,-0.0,0.08562769,0.0,0.016154649,-0.0,-0.0,0.013624237,-0.15149392,0.11807422,0.0,-0.0,-0.0,0.0,-0.0,0.10997657,-0.15670961,-0.0,-0.0,0.10379835,-0.08521638,-0.0,0.0,-0.0,0.0,0.0,0.123294964,-0.0,-0.10759215,0.0,0.11575108,0.0,-0.05020624,0.0,0.0,0.0,0.086163774,-0.110385925,-0.0,-0.093470246,-0.0,-0.24428391,0.0,0.107114576,0.0,0.0,-0.0,0.16532806,0.02623735,-0.06140125,-0.0,0.034350142,0.0,0.0,0.0,-0.13671269,0.0,-0.14901051,-0.0,-0.0,0.08424527,0.0,0.0993354,0.0,-0.0,-0.10279105,-0.0,-0.0,-0.0,-0.0,-0.028763715,0.0,0.0,-0.0,-0.0,-0.12079974,-0.0,0.0,-0.10596988,-0.0,-0.029791635,0.0,0.09665798,0.0,0.0,-0.0,0.0,0.0,0.08920259,0.0,0.055280022,-0.123189434,-0.16560717,-0.0,0.13057923,-0.23062521,-0.024247717,-0.0,0.0,0.0,0.0,-0.0,-0.0,-0.11784383,-0.0,0.0,0.10331876,0.10327161,-0.0,0.0,-0.0,-0.13418345,0.20136392,-0.0,0.123802535,0.0,-0.14287356,0.18572588,-0.0,0.09752587,0.09363151,-0.017815104,0.043961808,0.0,-0.091574,-0.0,0.0,0.0015154874,-0.0,-0.08599199,-0.11921549,0.0,0.0,-0.0,0.0,0.023744136,0.0,-0.010611487,-0.0,0.11968305,-0.0,-0.11703724,-0.009476707,-0.0,-0.030875096,0.3048231,-0.09074147,0.23716682,-0.0,-0.0,0.0,-0.0,0.0,-0.0,-0.0966603,0.0,0.11056593,-0.0,0.0,-0.0,-0.0,0.0,0.0,-0.0,-0.0,-0.1614616,0.015367114,0.10962746,0.06033746,-0.0,0.118472755,-0.0,0.010288364,0.14080293,0.0,0.0,-0.0046257502,0.02801858,-0.0,-0.0,-0.11090902,-0.2379267,0.0,-0.0,0.0,-0.095832266,-0.0,-0.0,-0.10088361,0.14372152,-0.13846798,-0.0,0.11798043,-0.0,-0.0,0.0,0.09780546,-0.100695215,0.0,-0.008785614,-0.0,-0.12270095,-0.06456984,0.031190988,0.0,-0.08776194,0.0,0.17751826,-0.10651597,0.0,0.0,0.10891392,0.22838126,-0.0,0.0,0.16039832,0.13218305,0.0,0.08853316,0.0,-0.051664755,0.0174151,-0.0,0.23238714,0.0,-0.12125725,-0.0,0.0,0.0,0.0,-0.10633783,0.13560128,0.0,-0.08518736,-0.0,-0.0,-0.1373094,0.0,-0.0,0.16196987,0.095008075,-0.0,0.0,0.0,0.016432323,-0.0,-0.091903195,0.0,-0.082199685,0.0,0.0,0.023284245,0.0,0.0,-0.0,0.0,0.28769955,0.0,0.0421674,0.0,0.12847193,-0.0,0.68775195,0.0114421835,-0.0,0.14876983,0.027447477,-0.0,0.0,-0.0,-0.0,0.0,0.12628855,-0.0,-0.11863824,-0.0,0.0,0.0,0.28506732,0.18839332,0.040057823,-0.0,0.0,-0.1776884,0.0,-0.0,0.0,0.0,-0.10524444,0.0,-0.0,0.0,-0.10962355,-0.0500789,0.0,-0.0,-0.0,0.0984804,0.22044906,-0.16993877,0.0
-0.0,0.0,-0.43783143,0.14517052,-0.0,0.0,0.0,0.0,-0.0,-0.0,0.0,-0.0,0.119734645,0.0,0.0,0.2261814,0.0,0.0,0.0,0.0343912,0.0,-0.0,-0.0,-0.021830361,-0.0,-0.08498711,0.2659122,-0.0,-0.0,-0.0,0.0,0.25313705,0.106064744,0.11946986,-0.0,-0.0,-0.0,-0.044919167,0.7201483,0.16284387,0.017566374,0.0,0.015915737,0.104185164,0.2791822,-0.46485773,0.0292597,-0.0,-0.07433283,0.0540386,0.0,0.04282045,-0.0,0.422539,0.0,0.32712707,-0.0,-0.0,0.0,-0.0,0.0,0.10261815,-0.16125827,-0.1582449,-0.0,-0.0,0.0,0.0,0.24750474,0.0,0.18464957,0.0,0.0,0.0,0.09556849,-0.0,0.0,-0.0,-0.0,-0.0,0.10163412,0.16916244,0.13090006,0.0,-0.0,0.24491335,0.0,-0.11584167,0.079380594,-0.0,0.5658861,0.0,-0.0,-0.021585323,0.0,-0.0,0.0,0.06322929,0.0,0.0,0.105747975,0.0,0.0,0.014697436,-0.0,0.04116866,0.19894777,0.0,-0.0,0.0,-0.6217763,-0.0,0.14853477,-0.0,-0.0,-0.0,-0.0,-0.0,0.0,-0.0,0.0,-0.10688613,0.0,0.0,0.0,0.090253025,0.10073549,-0.0,-0.5401123,-0.0,0.13115601,-0.046425477,0.0,0.0,0.0,0.0,-0.0,-0.0,-0.0,0.11562563,-0.0,0.0,0.0,0.0,0.0,-0.0,0.0,0.0,0.0,-0.16328232,-0.0,-0.04518931,-0.0,0.703098,-0.12928352,0.5258405,0.0,0.0,-0.0,0.0,0.15421638,0.11387983,0.0,-0.0,0.0,-0.46364248,0.13811705,-0.24482006,-0.35736656,-0.021267528,0.0,0.0,-0.0,-0.0,-0.0,-0.0,0.0,0.0,0.3024165,-0.09857171,-0.3649508,0.0,0.0,0.0,0.025101911,0.0,0.0,0.0,0.0,0.068532996,-0.0,0.0,-0.0,-0.0,0.08432228,-0.02425157,-0.088170856,-0.0,0.0,0.0,-0.099059045,-0.0,-0.0,0.0,0.1452633,-0.0,-0.0,-0.0,0.12914461,-0.0,0.0,-0.0,-0.0,-0.0,0.0,0.038452253,0.1870065,-0.0,0.0,0.096657,-0.17123412,-0.0,-0.30287406,0.0,-0.0,-0.043242864,-0.0,-0.0,-0.0,-0.09174275,0.085212775,0.0,0.11751359,0.0,0.0,-0.113005586,-0.012094227,-0.0,0.0,-0.0,-0.0,-0.06552556,-0.0,0.0,0.1934718,-0.10735169,-0.0,-0.3090463,-0.0,0.0,-0.0,0.7694158,0.0,-0.0,-0.08986456,0.0,-0.0,0.0,0.1003126,-0.08004295,0.0,0.0,-0.10645281,0.09938688,-0.0,0.0,0.0,-0.0,0.041956346,0.0,-0.0,0.15695824,-0.0,-0.11008709,0.0,0.0,0.2938977,-0.1439954,-0.0,-0.11451847,-0.09739702,0.0902837,-0.0,-0.11126897,-0.113281414,-0.0,-0.0,-0.099045716,0.0,0.0,-0.0,0.09716875,-0.09338404,-0.0,0.0,-0.0,-0.10180649,0.118719496,-0.0,-0.37489456,-0.12216606,0.0,0.0,0.0,-0.0,0.08869248,0.14639516,-0.0,0.15641114,0.0,0.09486561,-0.0,0.067635275,0.15441811,0.0,-0.0,0.0,0.0,-0.012909449,0.0,0.010046226,0.0,0.24425335,0.39352435,-0.0,0.2942647,0.0,0.0,0.0,-0.0,-0.0,0.0,-0.0,-0.0,0.0,-0.0,0.0,-0.0,0.0,0.17677355,-0.0,-0.06704137,0.0,0.0,0.0,-0.0,0.025911996,0.0070246877,0.0,0.0,-0.0,0.0,-0.0,0.26025024,0.0,0.16294281,0.0,-0.0,0.0,-0.0,-0.0,0.0,-0.0,-0.0,-0.0,-0.0,-0.0,0.18622142,-0.42239267,-0.0,-0.0,-0.062082663,-0.0,0.0,-0.0,0.0,-0.0,0.31533608,0.0,-0.0,-0.69103026,0.0,0.0,-0.10271243,0.0,0.0,0.03572891,0.0,-0.22611462,0.15918006,0.0,-0.11854622,-0.04511847,0.0,0.0,-0.0,0.0,-0.07498854,0.014372218,0.0
-0.038313452,0.0,-0.0,1.3654212,-0.0,0.526898,-1.0265892,0.0,0.0,0.0,0.0,-0.0,0.15656324,-1.0019565,0.0,2.2351067,-0.08676674,0.0,-0.31822008,-0.04989911,0.0,-0.37188026,0.0,0.0,-0.0,-0.0,-0.10204823,-0.15210506,-0.0,-0.0,-0.0,0.11629543,-0.0,-0.0,0.12201691,-0.1382125,0.0,-0.0,0.0,0.0,0.0,-0.0,0.0,0.0,0.0,-0.0,-0.0,0.39627182,-0.026693465,0.062000025,0.0,-0.0,0.0,0.0,0.0,0.0,1.865445,1.4957144,-0.60903907,0.0,0.0,0.0,0.28683835,-0.0,0.15398982,-0.00944174,-0.0,0.0,0.0,0.0,-0.0,-0.0,-0.0,-0.0,-0.0,0.0,0.13262287,-0.0,0.12901321,-0.03821612,0.09437489,0.0,0.15386027,0.0,0.0,0.18203981,-0.0,-0.08926052,0.16143937,-0.0,-0.0,0.0,-0.14171652,0.0,-0.0,0.0,-0.18447211,0.0,0.09364384,0.0,-0.09806392,0.0,0.0,-0.0,0.10303532,-0.0,-0.32151186,-0.0,0.0,0.0,-0.0,0.0,-0.0,-0.0,0.0,0.0,0.0,-0.0,0.08511832,-0.095435895,-0.0,0.0,0.0,0.0,0.1079217,0.0,0.1163335,-0.0,-0.1400621,-0.112083636,0.0,-0.0,0.09757483,0.27757296,-0.0,0.0,-0.0,-0.0,0.0,0.0,-0.0026858852,-0.0,-0.11896064,0.0,-0.0,-0.0,0.20980626,0.0,-0.07642906,-0.10038497,-0.0,0.0,0.29933628,0.0,0.0,-0.57056344,0.0,-0.0,0.0,0.0,0.08746887,0.09970349,-0.0,-0.0,0.0,-0.0,-0.0,-0.06889432,0.0,-0.0,0.0,-0.0,-0.0,0.101808794,0.07273726,0.0,0.6580091,0.0,0.17364016,-0.0,-0.0,0.0,0.0,-0.0,0.3375506,0.0,-0.5310343,0.09744314,0.0,-0.0,-0.0,0.0,-0.0,-0.0,-0.0,-0.0,-0.0,0.0,0.0,0.0,0.0,0.0,0.0,-0.0,0.0853939,-0.0,-0.0,-0.11790644,0.0,-0.0,0.09564663,-0.0,1.370191,-0.14300825,0.15439832,-0.30805868,0.0,0.0,0.10839801,-0.0,-0.17294663,0.0,0.0,-0.09503984,-0.0606783,0.0,-0.0,0.0,-0.0,-0.0,0.0,0.0,-0.0,0.0,0.0,0.0,-0.0,-0.0,0.10910229,0.0,-0.0,0.0,0.06737341,-0.49893257,0.30347303,-0.10924127,-0.0,0.0,0.0,-0.0,-0.0,0.0,-0.0,-0.15173686,0.073369704,-0.09936142,-0.0,-0.0,0.0,0.099309154,0.0,0.0,-0.0,-0.0,-0.0,0.20166017,0.1047023,0.0,-0.0,0.12264592,-0.0,0.15965906,0.19380668,-0.0,0.0,-0.0,0.2879128,-0.0,-0.0,0.0,-0.0,-0.0,0.091418274,-0.0,-0.15721533,-0.0,-0.0,0.0,-0.09899612,-0.0,-0.0,0.0,0.0,-0.0,0.0,0.11199014,0.091764204,0.0,-0.11264411,-0.0,-0.0,-0.0,0.0,-0.40693483,0.0,1.4899527,0.0,-0.0,0.15889168,-0.0,0.0,-0.0,-0.0,0.0,-0.0,0.0,0.0,0.09240643,-0.0,-0.0,0.0,-1.1201354,-0.0,0.0,-0.108284146,1.1856831,-0.0,0.0,0.0,0.10728256,-0.0,0.0,-0.10355446,-0.0,-0.0,0.14327364,0.0,-0.0,-0.07553379,0.0,-0.0,-0.50598425,0.0,0.0,0.95570934,0.0,0.0,-0.118474744,-0.0,-0.0,-0.05241212,0.0,-0.0036011038,0.0,-0.0,0.0,-2.9536514,0.0,0.023641245,0.20399946,-0.0,0.0,-0.112159066,0.0867531,-0.0,0.0,-0.0,0.11335565,0.09268347,1.3411038,0.0,0.0,-0.18065308,-0.0,3.1003728,1.0901868,-0.43495375,0.12383385,-0.0,0.2715657,-0.0,0.0,0.0,-0.0,-0.0,0.0,0.0,0.093850546,-0.028604014,0.09016526,-0.331972,0.12394688,0.3144852,0.008195143,-0.48916948,0.11327527,0.09492767,1.9522587,-0.40959534,-1.6793594
0.0,0.0,0.0,-0.0,-0.09906204,0.0,1.3185338,0.0,0.0,0.0,-0.09542602,0.0,0.0,-0.0,-0.0,-0.0,0.0,-0.0,-0.16777189,-0.0891862,-0.0,-0.0,0.0,-0.11258659,0.0,0.0,-0.58017063,0.0,0.0,-0.10164596,0.0,0.0,-0.0,-0.0,-0.0,-0.0,0.28946367,0.0,0.0,0.0,0.0,0.0,0.098354064,0.0,0.12154315,-0.11401377,-0.4836384,0.0,0.0,-0.0,0.0,-0.0,0.0,0.0,-0.0,-0.0,0.114205614,-0.0,-0.11797897,-0.0072993077,0.0,-0.0072035873,-0.0,-0.107968315,0.0,0.082993336,0.0,0.0053493776,0.0,-0.0,0.026853217,0.54734033,0.0,-0.0,0.0,-0.0,0.0,-0.0,-0.0,0.04684307,-0.0,0.0,0.0,-0.0,-0.0,-0.0,0.28977752,-0.08692142,0.02076299,-0.0,0.0,0.07141386,-0.0,0.0,-0.0,0.0,-0.10693605,-0.0,-0.0,0.0,-0.0,-0.0,0.010593673,-0.0,-0.0,-0.0,-0.0,0.0,-0.0,0.0,-0.13559934,-0.0,0.0,-0.0,0.0,0.0,-0.0,0.0,-0.0,0.0,0.0,0.0,0.0,0.0,-0.08952786,0.10007512,-0.0,0.09852948,0.26487398,-0.10895634,0.0,-0.1815587,-0.0,-0.0,0.0,0.0,-0.09280303,-0.1058925,0.084580995,-0.15494962,0.0,0.0,-0.0,-0.0,-0.0,-0.0,0.0,0.0,-0.07789216,-0.0,0.0,0.0,0.09866297,0.14739671,0.0,0.0,-0.083855525,0.0,0.09320734,0.0,0.08401367,0.0,0.0,0.0,0.0,0.0,-0.0,-0.0,-0.050481178,-0.0,0.0,-0.0,-0.0,0.0,0.0,-0.09993549,-0.0,-0.0,0.11318875,0.11196259,-0.15209419,-0.24988523,-0.11436149,-0.0,0.122092314,0.09336452,-0.06330682,-0.11948923,0.15099312,0.0,0.0,0.0,0.0,-0.0,0.0,-0.0,-0.0,0.0,0.0,0.0,0.0,0.0,-0.08647518,-0.0,-0.0,-0.0,-0.0,0.10657077,-0.0,-0.016931282,-0.11564524,0.09519496,-0.0,-0.0,0.0,-0.0,0.0,-0.0,-0.0,-0.0,-0.09166464,0.0,-0.08109793,0.11410958,-0.0,0.0,0.0,-0.0,0.0,-0.0,0.0,-0.0,-0.0982611,0.115077205,0.0,0.08826641,-0.111741185,-0.0,0.0,0.0,-0.0,0.0,-0.0,-0.0,0.0,-0.0,0.0,-0.0,0.0,-0.0,-0.0,-0.0,-0.0,-0.0,-0.08723378,-0.0,0.0,-0.0,0.0,0.0,0.0,0.28582007,-0.0,-0.08978421,-0.0,0.14703842,-0.0,0.0,0.0,-0.0,-0.0,-0.0,-0.0,-0.0,0.0,-0.0,0.0,-0.0,-0.0,0.0,-0.0,0.0,0.0,0.084110804,0.0,-0.0,-0.0,-0.0,0.0,-0.08961137,-0.1180392,-0.1068938,0.0,-0.0,0.09862944,0.0,0.0,0.0,-0.0,-0.11656643,-0.100379616,-0.0,0.0,0.3757044,-0.0,0.1492897,0.0,-0.0,0.09830941,0.0,-0.0,-0.0,0.09897508,0.0,0.0,-0.0,-0.0,-0.0,0.0,-0.0,0.0,0.047799535,0.08394879,0.0,-0.0,-0.0,0.22194047,0.0,0.0,0.08716739,0.09770604,-0.0,-0.11238492,0.099283494,0.12420701,0.0,0.0,-0.0,0.11049924,0.0,-0.0,-0.12181337,0.076684274,0.0,-0.27579108,-0.100787826,0.0,-0.0,0.117614344,-0.0,-0.0,0.0,0.0,0.23797575,-0.0,0.0,0.0,-0.19918588,0.09857755,0.0,-0.0,0.0,-0.0,0.0,0.0,-0.0,-0.0,-0.0,0.0,-0.0,-0.0,-0.0,0.0,0.0,0.0,-0.0,-0.015878392,0.14755666,-0.0,0.10662029,0.72903633,0.0,0.0,-0.0,-0.0,0.0,-0.022859702,-0.09202993,-0.028695209,-0.0,0.0,-0.09544741,-0.0,0.0,1.0057064,0.0,0.0,0.18831173,0.0,0.10449066
-0.0,0.0,-0.21003877,-0.0,-0.0,0.39501423,-0.0,0.0,0.0,0.0,-0.09466574,-0.0,-0.0,0.0,0.0,0.0,0.106538154,0.0,-0.19872978,0.0,0.0,-0.0,0.0,0.0,-0.08935632,-0.0,-0.0,-0.09721308,-0.13194336,-0.0,-0.0,0.0,0.09217388,-0.0,0.13790539,-0.0,0.0,-0.6033322,0.0,0.0,0.0,-0.0,0.0,0.0,0.0,-0.3070927,1.0737884,0.61193496,0.0,-0.0,0.0,-0.0,-0.27001038,1.1239704,0.0,0.0,1.7726337,1.4758011,-0.73755896,0.0,-0.0905526,0.0,-0.0,-0.0,0.106656976,0.0,-0.0,-0.009519956,0.0,0.0,0.22637974,-0.0,0.11910169,-0.0,-0.0,0.0,0.0,0.08155724,0.113537796,0.0,0.0,0.0,-0.0,0.0,0.0,0.0,-0.5381979,-0.09689277,0.0,-0.0,-0.0,-0.07385498,-0.0,0.0,-0.0,0.0,-0.1691411,0.0,0.0,-0.14171746,-0.13115244,0.0,0.0,-0.0,0.0,-0.0,-0.0,-0.0,0.0,-1.0440854,-0.0,-0.5333342,-0.0,0.0,0.0,-0.013158233,0.10479511,-0.0,-0.12089495,-0.08759321,-0.6803673,0.0,0.0,0.41487205,0.09513805,-0.0,-0.0,-0.0,-0.22233468,0.0,0.17755131,-0.0,-0.0,0.28029707,-0.0,0.0,-0.0,-0.0,0.0,0.0,-0.14014521,-0.0,-0.11818557,0.0,0.59426254,-0.0,0.0,0.0,0.0,0.10540201,-0.0,0.0,0.0,0.0,0.0,0.0,0.093829975,-0.0,-0.114310205,0.12081971,0.09307655,0.0,-0.0,-0.0,0.0,-0.0,-0.0,-0.0,0.0,-0.0,0.0,-0.0,-0.0,-0.0,0.0,0.0,0.0,0.0,0.18549868,-0.12495301,-0.0,0.0,0.0,-0.119663805,0.53653127,0.0,0.0,-0.0,0.0,-0.0,-0.0,0.0,0.10734846,0.0,-0.0,0.08738103,-0.0,0.0,-0.84264797,0.0,-0.115653574,-0.20106122,0.09616811,-0.0,0.0,0.11344313,0.09965351,0.0,0.0,0.04484351,-0.0,-0.0,0.0,-0.0,0.0,-0.0,0.0,-0.0,-0.0,-0.0,-0.0,0.0,-0.07885867,-0.09787667,0.0,0.0,-0.0,0.0,-0.105813615,-0.1039975,0.0,0.0,-0.0,0.0,0.0,-0.0,-0.0,-0.0,-0.09478346,0.0,0.0,0.0,-0.10608754,-0.0,0.0,-0.119862445,-0.0,0.0,0.0,-0.0,-0.0,0.0,-0.0,-0.11226507,0.0,-0.0,-0.0,-0.0,-0.0,0.10550492,0.0,0.0,-0.0,-0.0,0.0849964,0.18996428,-0.11917851,-0.11977779,-0.034447514,0.0,-0.0,0.0,0.0,0.08872842,0.0,-0.0,0.31264383,-0.0,-0.0,0.0,-0.0,-0.0,-0.0,0.0,-0.0,-0.0,-0.0,0.0858875,0.0,0.08308649,-0.0,0.0,-0.0,-0.092530034,0.0,0.12863526,0.0,-0.0,-0.0,-0.0,-0.0,-0.0,0.0,0.58247614,0.18315811,-0.0,-0.0,-0.0,0.2096417,0.070848055,0.0,-0.0,0.4106335,0.0,-0.0,0.1682162,0.0,-0.1014627,-0.0,-0.0,0.0,-0.0,-0.0,-0.07371344,-0.0,-0.0,-0.0,0.0,0.0,-0.0,-0.0,-0.0,0.11781331,0.0,-0.09146091,-0.0,0.0,-0.0,0.0,0.0,-0.0,-0.0,0.65227616,0.0,0.9850309,0.0,0.0,0.0,0.0,-0.7091605,-0.0,0.0,0.0,0.0,-0.0,0.0,0.0,0.0,0.14905389,0.15461655,-0.0,-0.23364891,-0.16127965,-0.0,0.0,0.0,-0.0,0.0,0.04380372,-0.0,0.0,0.099122286,-0.0,-0.0,0.0,1.138488,-0.0,-0.07820475,0.13780877,0.11962746,-0.0,0.0,0.0,-0.0,-0.0,0.0,0.0,-0.10751393,-0.0,0.11142832,0.0,-0.0,-0.0,0.0,-0.0,-0.0,-0.0,2.234268,-0.43609267,-0.0
0.0,-0.0,-0.0,-0.0,0.118688084,-0.32646218,-0.0,-0.13767478,0.0,0.20900038,0.0,0.18458922,0.2009079,-0.34629035,0.0,-0.0,0.22164169,-0.18736096,0.0,0.29250878,0.0,-0.0,0.2478363,-0.18374157,0.0,-0.10400558,-0.0,0.0,-0.3524337,-0.1327152,0.0,0.0,0.0,0.18749605,-0.0,0.0,-0.0,0.0,0.8064857,0.2770976,0.0,0.18387839,0.2184721,0.2241914,0.008954459,0.0,-0.0,0.17418224,-0.0,-0.0,0.0,-0.0,0.0,0.0,0.0,0.0,0.23785356,0.38668314,0.0,-0.2187091,-0.2611295,0.23112655,-0.0,-0.21194854,0.2766517,-0.0,0.0,0.29286793,0.0,0.25226068,-0.0,-0.0,0.16314255,-0.0,0.08622679,0.22211409,0.17273292,0.0,-0.0,-0.23849191,-0.0,0.0,0.0,-0.11180283,-0.0,0.0,-0.0,0.0,-0.061781045,-0.0,-0.0,0.0,-0.0,-0.07918615,0.24585006,-0.0,0.0,-0.0,0.19869746,0.06629539,0.117071524,-0.0,0.19329661,0.0,0.19218591,-0.0,0.0,0.0,0.12497687,0.0,-0.0,-0.0,0.15844643,-0.0,0.21739899,0.0,0.17516878,-0.10786601,-0.12657823,-0.12080799,-0.0,-0.10549522,-0.0,0.0,0.16988714,0.16823836,-0.0,-0.094592884,-0.08071839,0.0,0.0,-0.0,0.0,0.0,-0.051960595,-0.11333739,0.0,0.0,0.11082292,0.19564854,-0.0,0.0,0.12430471,-0.250029,0.29594997,0.0,0.14728178,0.0,0.11806884,0.16711232,0.12576228,0.0,0.0,0.0,-0.17275125,0.0,-0.0,-0.0,0.16108581,0.12808943,0.09531526,-0.0,0.08381832,-0.0,-0.0,-0.10228429,-0.0,-0.0,0.0,-0.15182352,0.2585316,0.37724993,-0.0,-0.0,-0.0,0.21880436,0.0,-0.16751377,-0.0,-0.0,-0.18030037,-0.0,0.19121349,0.0,0.20691267,-0.17189756,-0.23014988,-0.17797211,0.0,0.0,0.0,0.0,0.006553673,0.1056004,-0.0,-0.038460057,0.0,0.0,0.0,0.22971542,-0.1078265,-0.0,-0.1051731,0.0,0.12696181,-0.0,0.0,0.0,-0.0,-0.0,0.0,-0.0,0.0,0.10595892,0.0,-0.0,0.0,-0.0,-0.0,0.0,-0.0,0.0,0.0,0.0,-0.0,-0.0,-0.0,-0.0,0.0,0.11922296,0.102670975,0.0,0.0,0.0,0.17235284,0.0,-0.0,-0.0,-0.0,0.18438472,0.0,0.12960048,-0.32839945,-0.0,-0.08766146,0.0,-0.0,0.0,-0.0,0.0,-0.0,0.0,-0.0,0.0,0.0,-0.0,-0.0,0.088363916,0.12718976,-0.0,0.0,-0.13742061,-0.0,-0.0,-0.0,0.10941766,-0.0,-0.1816028,0.0,0.1492449,-0.0,-0.0,0.11404019,-0.0,0.0,-0.17916937,-0.0,-0.0,-0.0,-0.10763389,-0.0,0.118783675,0.0,-0.11661311,-0.0,-0.0,0.069307014,0.0,-0.0,0.0,-0.19568032,0.0,-0.110993594,-0.0,0.0,-0.0,0.0,0.1707403,-0.0,-0.0,-0.0,-0.0,0.25684723,0.6497711,-0.0,0.0,0.0,0.0,0.105830394,0.22181247,0.0,0.0,0.18834259,0.14626457,0.16811843,0.0,0.29896685,0.0,-0.051456995,0.0,-0.0,0.0,-0.0,0.0,0.0,-0.0,-0.18405831,-0.2759014,0.0,0.0,0.0,0.12673739,-0.11726909,0.14805947,-0.16814892,0.0,0.050784852,0.11101025,0.0,0.0,-0.0,0.0,-0.08807452,0.31457177,0.0,0.0,0.2831944,0.1305798,0.15745291,0.0,0.16696909,0.0,0.0,-0.0,-0.20488207,0.0,0.0,0.1794803,0.0,0.2271029,-0.0,-0.0,0.10384319,-0.0,0.10290662,0.21103583,-0.25803176,0.09669277,-0.5489168,-0.0,0.2913704,0.22406821,-0.0,-0.08361383,0.0,0.27146566,0.24283898,-0.03669564,0.0,0.06449671,-0.0,0.013711944,-0.19466089,0.0,0.18673953,0.0,-0.0,0.22214064,-0.19601458,-0.0,0.0,0.0,-0.0,-0.25623947,-0.0,0.110697985,0.0,0.24770431,0.0,-0.29897395
-0.0,0.06652155,0.0,-0.0,-0.0,11.009873,-0.0,0.0,0.0,-0.0,0.0,-0.17643063,-0.0,0.0,4.13104,2.3414426,-0.0,0.0,-1.0306643,-0.0,0.0,-0.0,0.0,0.06370489,-0.0,-0.0,-0.31067374,-0.12083261,-0.0,-0.08938509,-0.0,0.0,-0.0,0.0,0.120093316,-0.11008585,0.0,-0.0,-1.0272145,0.01236079,0.0,-0.0,0.16843407,0.0,-0.0,-0.0,0.41164377,0.0,-0.0,-0.0,0.0,-1.5128278,-0.0,0.54604304,-0.0,-0.0,0.16787998,-0.0,-0.0,-0.0,0.18994787,0.0,0.0,0.0,-0.0,0.0,0.0,0.017247893,0.0,0.08737678,0.0,-0.2965054,0.0,-0.087632716,-0.0,-0.0,0.0,-0.09936022,-0.12160988,-0.015565425,0.10653519,-2.8017058,-0.0,-0.086710416,-0.10587334,0.19523935,-0.0,-0.0,0.19252852,-0.0,0.0,-0.058091145,-0.0,0.09260843,-0.03859131,-0.103969134,-0.0,-3.6087599,0.0,0.08448887,0.0,0.1093077,0.15808755,0.10357138,0.0,0.0,-0.8660882,-0.0,-0.0,-0.0,-0.60250217,0.0,0.0,0.7378842,0.0,-0.20521104,-0.0,0.09707957,-0.0,0.0,-0.0,-0.0,1.1578429,0.0,-0.08407727,0.0,-0.11157418,0.0,0.0,0.0,0.0,-0.123763055,0.0,-0.0,-0.122302786,0.100542955,0.0,-0.0,-0.0,0.0,-0.0,-0.0,0.0,-0.0,0.0,-0.0,0.12997183,0.0,0.12519637,-0.0,0.48347104,0.35943818,-0.0,-0.0,0.085431464,0.0,0.0,-4.6448765,-0.11423213,0.0,0.0,-0.0,-0.0939568,0.09390254,0.0,-0.0,0.09599639,-0.0,0.0,-0.0,-0.25535324,-0.0,-0.0,-0.0,0.0,0.0,-0.0,0.0,0.0,-0.080911234,-0.01965401,0.0,0.0,0.09461006,-0.0,0.092220865,-0.39588156,0.0,-0.0,-0.0,0.10107806,-0.19391823,-0.0,0.0,-0.0,0.11693681,-0.0,0.0,0.0,0.0,-0.0,-0.0,-0.0,0.0,0.0,-0.0,0.10974101,-0.0,0.0,-0.0,0.09786684,0.002138575,-0.0,0.0,-0.0,-0.0,0.0,0.11381348,0.0,-0.14312676,-0.0,-0.0,-0.060414877,0.0,-0.09721965,-0.0,0.0,-0.0,-0.0,-0.0,-0.08382796,-0.0,0.0,0.0,0.2133483,-0.0,-0.11004873,0.0,-0.0,0.0,0.11599801,-0.0,-0.0,-0.0,0.0,0.0,-0.0,-0.0,-0.0,-0.0,-0.0,0.0,0.11582186,0.11696819,0.0,-0.08422811,-0.09331106,0.10530746,-0.0,-0.0,0.0,0.0,-0.0,0.0,0.0,0.0,0.0,0.0,-0.0,0.0,-0.20142971,-0.04899091,0.0,0.106155075,0.0,-0.0,-0.0,-0.41706145,0.50297976,0.0,-0.0,0.0,-0.0,-0.0,-0.0,-0.25265685,-0.098134756,0.0,0.0,-0.0,-0.115074344,-0.0,-0.097357534,-0.10504589,0.11186439,0.0,0.0,-0.0,-0.0,-0.0,0.08894079,-0.0,0.0,0.0,0.0,-0.0,0.0,-0.0,0.0,-0.0,0.0,-0.0,0.0,-0.0,-0.0,-0.0,-0.05945512,-0.0,-0.0,-0.0,-0.0,-0.9090079,-0.0,0.0,-0.0,-0.0,0.0,0.0,0.0,0.0,-0.0,0.10878866,-0.0,0.0,0.10338239,-0.0,0.010683348,-0.0,0.0,0.0,-0.0,-0.0,-0.0,0.5076777,1.7123253,-0.0,-0.0,-0.08414309,0.0,0.0,0.18778367,0.0,-0.0,-1.22822,-0.0,0.0,0.0,0.0,-0.0,0.0,-0.0,0.0,-0.0,0.0,-0.0,0.15082592,-0.0,0.0,0.05588255,-0.0,-0.0,-0.0,-0.11640931,-0.0,-1.2098377,-0.0,-0.0,0.0,0.0,0.0,0.0,0.0,-0.091678984,-0.0,-0.0,0.0,-0.3097015,0.0,-0.028603483,-0.098004125,6.4582305,-0.0,-0.7531042,-0.0,-0.0,-0.0,0.0,0.0,-0.19656253,-0.0
-0.0,0.08843271,-1.7575285,-0.0,0.11831684,0.55091983,-0.0,0.0,0.0,-0.0,-0.1503154,-0.0,0.24535091,-1.4201982,0.0,0.0,-0.10824847,-0.68190145,-0.17015898,-0.31218097,0.0,-0.0,0.11794879,0.043257337,-0.0,0.1663234,0.6281037,-0.14962047,-0.3879841,-0.08721015,0.28111973,0.04779483,0.0,-0.0,0.155851,-0.0,-0.0,-0.5612,0.0,0.0,0.0,-0.0,0.0,0.0,0.28386396,-0.0,1.267257,-0.0,-0.0,-0.0,0.0,-1.1828277,-0.3060379,0.0,0.0,0.0,1.7171583,1.4279592,-0.6838547,0.0,-0.25900725,0.0,0.0,-0.0,-0.0,0.0,-0.0,0.16643248,0.0,0.0,-0.0,-0.0,0.0,-0.091636695,-0.0,-0.0,0.0,0.11874391,-0.0,0.14432651,0.0,0.0,0.103382215,0.0,-0.14132454,0.0,-0.0,-0.10112046,-0.055036806,-0.0,1.2783495,0.0,-0.0,0.0,-0.0,-0.14086133,-0.0,0.0,0.0,0.0,0.07997194,0.0,0.0,-0.0,0.0,-0.0,-0.0,0.09968371,0.0,-0.0,-0.0,0.0,-0.0,0.0,0.0,-0.0,0.06608059,-0.0,-0.0,0.0,-0.0,0.08607966,-1.3342031,0.0,-0.0,0.12061307,-0.0,0.0,0.0,-0.08786452,0.19408652,-0.0,0.0,0.0,-0.0,-0.0,0.0,-0.0,-0.0,0.21887976,-0.0,-0.0,-0.0,-0.6759162,-0.0,-0.33053815,0.0,0.0,0.0,0.1257056,-0.0,-2.085791,0.0,0.0,-0.0,0.0,0.0,0.0,0.105693914,-0.11507437,0.0,-0.110389076,-0.0,-0.0,0.0,-0.0,-0.0,-0.0,-0.41676503,-0.31922355,0.0,-0.0,0.1165889,-0.0,0.0,0.10032291,0.0,-0.14307818,0.0,-0.0,-0.0,0.0,-0.0,-0.0,0.5061716,0.0,0.0,0.1053104,0.08715758,-0.0,-0.0,0.020571014,-0.0,-0.0,-0.0,0.0,0.09451588,0.0,0.0,0.0,0.0,0.0,-0.0,-0.10803135,-0.0,-0.0,0.0,0.11508145,0.0,-0.0,-0.0,-0.0,0.0,0.2174584,-0.056585204,-0.0,0.0,0.10518999,-0.0,-0.12346454,-0.0,0.0,0.0,-0.0,-0.11631815,-2.1104677,-0.2529681,-0.0,0.0,-0.0,-0.1045131,0.0,0.0,0.0,-0.15572666,0.0,-0.0,-0.0,-0.11706922,0.0,-0.0,-0.0,0.04364057,-0.0,0.14178714,0.0,-0.0,-0.0,-0.0,-0.0,-0.0,0.109634265,0.085873656,-0.0,0.0,0.097827606,-0.0,-0.0,-0.0,-0.08829335,-1.8499509,-0.13120544,0.0,-0.0,-0.0,-0.030771717,-0.08718939,0.11998496,-0.0,-0.0,-0.0,0.0,0.22127783,0.0,0.36836994,-0.0,0.0,-0.0,0.80013365,-0.0,-0.0,0.0,0.09285585,0.0,-0.0,-0.104099244,-0.0,-0.11944882,0.17915368,0.092539996,-0.0,-0.0,-0.0,-0.0,-0.0074019483,-0.0,0.0,0.08713257,-0.0,-0.0,-0.0,-0.1712808,0.0,0.0,0.13033581,0.0,0.10795027,-0.15756433,0.20975609,-0.0,0.0,0.15542783,0.2055275,0.0,-0.0,0.0,0.0,-0.0,0.019351391,-0.15089297,0.0,-0.0,-0.0,-0.10705146,-0.103219934,-0.0,-0.0,-0.15995082,0.0,0.0,-0.0,0.0,-0.11996206,0.11670824,-0.0,0.0,0.0,-0.0,0.0,0.0,0.0,-0.0,0.0,0.0,0.0,0.0,0.20001097,0.052879035,0.11289746,-0.6735772,0.17939529,-2.8091733,-0.107484356,2.519725,-0.0,0.17126927,0.0,0.0,-0.0,0.29174995,1.7205971,0.0,-0.0,-0.08970404,0.0,0.0,0.015060866,0.0,-0.03776769,-0.0,-0.016332211,0.10281901,-0.0,-0.0,3.176568,0.44654262,-0.0,0.079884395,0.0,0.0,-0.0,0.0,0.0,-0.107257694,-0.0,0.0,0.0,0.0,-0.021890584,0.16610308,0.0,-0.0,-0.0,-0.21672384,-0.0,-0.0,0.11024308,2.3394923,-0.19358338,-0.0
0.00102723,-0.21842878,-0.0,-0.0,0.11198915,0.0,-0.0,0.0,-0.34642884,0.0,0.0,-0.0,0.18684565,0.0,0.0,-0.0,0.0,-0.088624895,0.0,-0.07437862,0.28786266,-0.0,0.0,-0.16680056,-0.15323246,-0.0,-0.0,0.0,0.0,-0.08713949,-0.19305071,0.0,0.0,-0.0,-0.0,0.0,-0.0,-0.21046233,0.32146758,-0.0,0.36481205,-0.0,0.0,0.0,0.0,0.04384219,-0.0,-0.03141163,0.23102415,-0.0,0.27306837,0.12063256,0.0,0.0,0.0,0.24122737,-0.0,-0.0,0.0,-0.12201634,-0.24356697,-0.0,-0.0,-0.0,-0.0,-0.0,0.0,0.0,0.0,0.0,0.236694,-0.0,0.16168252,-0.11431617,0.12793991,-0.0,0.1602001,0.0,0.2109911,-0.0,-0.0013484457,0.0,0.10867814,-0.1307908,0.2179507,0.0,-0.0,0.21478738,0.0,0.25110754,-0.0,0.24210082,-0.0,-0.1647205,0.0,0.2725201,-0.16891758,-0.0,0.0,0.0,-0.0,0.19522043,0.118441455,0.15139063,0.0,-0.0,0.0,0.0,-0.0,0.0,-0.0,-0.0,0.08943144,-0.0,0.0,-0.18965745,-0.0,0.1226355,-0.0,0.0,-0.0,-0.10977223,-0.0,0.0,-0.0,-0.0,0.15044428,-0.08727711,0.0,-0.12976365,0.1178225,-0.0,0.0,0.19940796,0.0,-0.12886786,0.0,-0.124308944,0.0,-0.0,-0.0,-0.25012928,0.090957716,0.0,-0.10597414,0.12381767,-0.0,0.27309003,-0.0,0.0,0.0,0.0,0.0,0.0,0.0,0.0,-0.17816235,0.22594945,0.0,0.10890498,0.0,0.14983776,0.124692105,-0.0,-0.24699983,-0.0,-0.0,-0.2802528,0.0,-0.0,0.0,0.0,-0.0,-0.0,-0.0,-0.0,0.0,0.0,0.16225916,-0.25487396,0.0,-0.0,0.17253661,0.0,-0.0,0.0,0.0,0.0,0.0,0.0,0.0,0.0,-0.24536188,0.0,-0.0,-0.19354495,0.0,-0.27893788,0.0,0.0,0.0,-0.0,-0.0,-0.15245076,0.0,-0.0,0.19049653,-0.14786512,-0.0,-0.20324792,0.0,-0.10163485,0.0,0.16791196,0.0,-0.0,0.0,-0.0,-0.0,0.0,-0.0,0.0,0.0,0.0,-0.0,-0.0,-0.0,0.13660218,0.0,0.11411189,0.0,0.17944315,0.1193218,0.13145189,0.0,-0.12863071,-0.13212197,-0.13203333,0.12352581,-0.050035972,-0.1246735,-0.0,-0.0,0.12820025,-0.0,-0.14524427,-0.11192388,-0.0,-0.0,0.0,0.13700502,0.0,0.13623483,0.0,0.0,-0.0,-0.14427522,0.12415595,-0.0,-0.0,0.0,0.0,-0.13527982,0.09627632,-0.0,-0.0,0.09341278,-0.0,0.0,-0.0,-0.1670195,-0.12990531,-0.0,0.11308252,0.0,-0.0,-0.0,-0.117593385,-0.0,0.0,-0.0,0.09547255,0.0,0.0,0.1253422,-0.0,-0.24514344,-0.1342697,-0.0,0.0,-0.0,0.0,-0.12988651,-0.10962836,0.17148454,-0.0,0.0,-0.0,-0.1229461,-0.0,-0.0,-0.0,-0.0,0.0,-0.26075175,0.0,0.0,0.085329086,0.14554091,0.0,-0.22263621,0.2467445,-0.0,0.0,0.0,-0.12772141,0.0,0.0,-0.31907892,0.22103848,0.2636007,0.0,-0.01380848,0.0,0.0,-0.0,0.0,0.0,0.28240848,0.0,0.0,0.15298457,-0.11199901,0.13064738,-0.24507864,0.0,0.26231098,-0.106233805,0.0,-0.2075083,0.2763814,-0.23893437,0.0,0.0,-0.3667194,0.15238911,0.0,0.0,0.11308026,0.0,0.21576028,0.0,-0.3555611,-0.0,-0.2070521,0.0,0.0,-0.0,0.19924317,0.0,-0.0,-0.0,0.10954151,-0.0,0.15532982,0.0,-0.0,0.19994375,-0.52255934,-0.0,0.0,0.0,-0.25339365,-0.09213165,0.0,-0.0,0.0,-0.21515259,0.22392417,-0.0,-0.0,0.27159864,0.0,0.0,0.0,-0.25248235,-0.18034413,0.0,-0.18229462,0.25442216,0.0,0.17284723,-0.0,0.0,-0.0,0.11876366,0.0,-0.0,0.0,0.0
