0,1,2,3,4,5,6,7,8,9,10,11,12,13,14,15,16,17,18,19,20,21,22,23,24,25,26,27,28,29,30,31,32,33,34,35,36,37,38,39,40,41,42,43,44,45,46,47,48,49,50,51,52,53,54,55,56,57,58,59,60,61,62,63,64,65,66,67,68,69,70,71,72,73,74,75,76,77,78,79,80,81,82,83,84,85,86,87,88,89,90,91,92,93,94,95,96,97,98,99,100,101,102,103,104,105,106,107,108,109,110,111,112,113,114,115,116,117,118,119,120,121,122,123,124,125,126,127,128,129,130,131,132,133,134,135,136,137,138,139,140,141,142,143,144,145,146,147,148,149,150,151,152,153,154,155,156,157,158,159,160,161,162,163,164,165,166,167,168,169,170,171,172,173,174,175,176,177,178,179,180,181,182,183,184,185,186,187,188,189,190,191,192,193,194,195,196,197,198,199
0.24357316,-0.0,0.0,0.0,-0.0,-0.4691843,0.0,0.0,-0.3646436,-0.6033502,0.3459796,0.011378557,-0.7276473,-1.8637697,0.0,1.1907026,0.06375077,0.21404323,-0.0,-0.0,-0.0,-0.24496242,-0.9553168,-0.0,-0.46731505,0.0,-0.3958585,-0.13607472,0.0,-0.0,-0.0,0.0,0.0,-0.08558762,0.0,0.0,-0.29439434,-0.05459808,-0.34714037,0.0,-0.810785,-0.0,0.0,-0.0,0.8291534,0.0,-0.21701781,-1.2776961,-0.2154261,0.0,-0.0,0.0,-0.0,0.033520285,-0.0,-0.0,-0.0,-0.0,-0.83496433,-0.0,0.44445327,-0.0,0.49154213,-0.030212643,-0.0,0.94886243,0.0,0.0,-0.0,-0.0,0.0,0.0,0.4559558,0.45930776,0.0,-0.0,-0.0,0.0,0.0,-0.0,-0.5624498,0.0,0.0,0.0,0.62106055,0.0,0.0,-0.0,-0.0,-0.0,-0.0,-0.0,-0.20012547,0.0,-0.9692668,-0.0,0.29401693,-0.0,0.0,-0.0,0.6237633,0.0,0.0,0.8174718,0.37006786,-0.0,0.0,0.0,0.0,-0.0,0.0,-0.0,-0.5918375,0.0,-0.19368665,0.0,-0.0,0.0,0.0,0.0,-0.0,-0.0,-0.0,-0.0,-0.0,-0.38309827,-0.0,0.10018338,0.0,0.4354165,0.0,-0.0,0.0,-0.66891044,0.0,-0.0,-0.0,0.0,0.5791244,0.0,-0.0,0.0,-0.0,-0.0,-0.32370588,0.74274683,0.0,0.0,0.0,0.0,0.62922055,-0.0,0.0,-1.0860449,-0.0,-0.7576859,-0.0,-0.7737727,-0.42124528,-0.32882398,-0.1610715,-0.0,-1.1910964,-0.13022491,0.0,0.9791536,-0.0654098,0.05074522,-0.0,0.35967633,-0.0,-0.91929936,0.0,-0.0,-0.0,-0.18594429,0.14941229,0.0,0.0,-0.0,-0.0,0.0,-1.0210091,0.3972212,0.912574,-0.0,-0.0,-0.012183775,-1.0556763,0.0,-0.0,0.1255201,-0.0,0.0,0.11598141,0.0,-0.16527921,0.027536036,-0.0,-0.040401455
0.0,1.0020512,-0.0,1.178482,0.0,-0.0,1.303925,-0.0,0.6884405,0.0,-0.0,0.0,-0.0,0.0,-0.0,-0.0,-0.0,0.0,-0.5343849,1.0096002,0.0,-0.0,-0.0,0.46681568,0.0,1.5180174,-0.6926265,-0.0,0.50414866,0.0,1.333277,-0.0,0.0,-0.0,-0.0,-0.0,0.0,-0.0,0.9467432,0.0,1.1000915,0.0,0.55796593,0.0,-0.0,-0.0,-0.23421441,1.6574466,0.0,-0.0,0.0,0.020100793,0.0,-0.0,0.0,-1.6003419,0.0,0.0,-0.0,0.0,-0.30249393,0.0,0.0,-0.016941974,0.0,-0.0,-0.0,-0.0,0.0,0.0,0.0,-0.0,-0.0,-0.0,-0.0,0.0,0.0,-0.0,-0.0,0.0,0.0,-0.0,-0.0,-0.0,-0.0,-0.0,-0.0,0.0,0.0,1.6699156,0.5525004,-0.692928,-0.6167778,-0.0,-0.0,0.0,0.0,0.0,0.0,0.0,-0.25671422,0.7277792,-0.0,0.55742574,-0.0,0.0,-0.0,0.49778622,0.0,-0.45209298,0.19611381,0.5158305,-0.17849591,-0.0,0.47901806,0.47381127,0.0074467193,0.35600355,0.3885201,0.71880215,0.0,0.0,-0.29872304,0.18007194,0.0,0.0,0.50859416,-0.0,-0.0,0.0,-0.0,0.0,-0.0,0.09217854,-0.0,0.0,0.79551333,-0.0,-0.031166019,-0.0,0.38538137,-0.0,0.0,0.0,-0.072507255,-0.0,0.0,0.04694728,0.9293801,-0.0,-0.0,1.3099157,-1.9367669,1.749393,1.7297132,0.0,0.92725706,0.0,0.0,0.0,-0.0,0.0,-0.0,0.0,-0.0,-0.0,0.0,0.0,-1.8817854,0.43893516,0.0,1.1931136,0.0,1.2227049,0.0,0.2668419,-0.6410362,-1.1362444,-0.0,0.0,0.8586308,-0.0,-0.0,0.4012282,-0.0,0.0,0.0,-0.0,0.0,0.17516029,1.2762651,0.0,-0.44103244,0.5668661,0.0,-0.2716214,0.0,0.27941784,0.0,-0.58305764
-0.0,-0.0,-1.2832764,0.22170094,-0.0,0.7471969,-0.0,0.0,-0.47064388,0.0,0.0,-0.0,0.73592705,-0.0,-0.0,-0.021145584,0.0,-0.032095198,-1.5942767,-0.0,-0.0,-0.0,0.0,-0.0,-0.0,0.3184606,-0.67336357,-0.5684448,-0.679792,-1.2223706,-0.0,-0.0,-0.0,-0.0,-0.23992442,0.81649727,-0.48581955,0.0,-0.0,0.0,-0.0,-0.0,-0.0,-0.0,0.8119439,-0.22970894,1.2933903,0.0,-1.1710665,-0.0,-0.0,0.6008776,-0.0,-0.0,0.0,-0.0,0.6463038,-0.4480661,0.0,0.0,0.0,-0.0,0.618965,-0.0,-0.13934869,0.0,-0.0,0.0,0.0,-0.0,-0.0,-0.0,0.0,0.0,0.0,-0.0,-0.0,0.0,-0.15595475,-0.0,-0.0,-0.0,-0.0,0.2747133,0.7549619,0.70612293,-0.0,-0.0,0.07230032,-0.0,0.0,0.0,0.4054071,0.8404323,0.0,-1.190625,1.466925,0.0,0.0,-0.0,-0.016019568,0.8617622,0.7447691,0.0,-0.3005354,-0.0,-0.1346079,-0.0,0.0,-0.7622604,0.0,0.72553414,0.0,0.0,0.45300537,0.0,-0.0,0.007551906,0.023438662,0.0,0.0,-0.0,0.0,0.0,-0.0,-0.0,0.82152086,0.0,-0.0,-0.0,-0.0,0.0,0.0,0.0,0.114285715,0.0,0.052732185,1.3301275,0.0,-0.0,0.0,-0.25005716,0.32924923,-0.2178929,-0.0,-0.38912174,0.43897676,-0.4786676,0.0,0.0,0.42498007,0.0,0.0,0.49519265,-0.0,0.3464378,-0.0,0.0,-0.5803964,-0.8621777,0.0,0.473424,-0.0,-0.0,0.826532,0.0,-0.0,-0.0,-2.0337348,-0.0,-0.0,-0.0,0.0,-0.0,-0.0,1.1462334,-1.255513,-0.87994355,-0.0,-0.0,-0.0,-0.0,-0.0,-0.0,0.6330074,0.3431157,0.0,-0.08065959,0.9212147,-0.27609673,0.0,-0.32049078,-0.75586116,0.63386,0.0,-1.8377905,2.0609221,-0.0,-0.0,-0.0
-0.0,0.0,-0.0,-0.0,-0.16353148,-0.031504095,-0.0,-0.0,0.0,0.0,-0.0,0.0,-0.0,0.6479529,0.8830558,-0.0,-0.0,0.0,0.0,0.6921761,0.0,-0.0,-0.0,0.0,0.0,1.7818705,0.0,-0.14169858,-0.0,0.0,0.0,-0.0,-0.0,-0.0,0.77039653,-0.0,0.0,-0.22515753,0.0,-0.0,0.0,0.0,0.06915711,1.4813585,-0.0,-0.0,-0.23365137,0.9321234,0.0,-0.0,0.0,-0.0,0.0,-0.0,0.0,-2.2680273,0.0,0.0,-0.0,0.0,-0.0,0.0,0.0,-0.0,-1.2466596,-0.0,-0.0,-0.0,0.0,0.0,-0.0,-0.0,-0.0,0.0,-0.0,0.0,0.0,-0.0,-0.0,0.0033677022,0.0,-0.0,-0.0,-0.0,-0.0,-0.0,-0.0,0.0,0.0,-0.0,0.4166941,0.0,-0.85127795,-0.71488005,-0.0,0.0,0.0,0.0,0.0,-0.0,-0.65898246,-0.0,-0.0,-0.41879296,-0.0,0.0,-0.0,0.72545093,0.0,0.0,0.48301366,0.0,-0.0,-0.0,-0.17761412,-0.33823386,-0.33204785,-0.0,0.63729316,-0.0,0.0,-0.09124248,-0.3070881,0.0,1.0132425,0.0,0.0,0.0,-0.0,0.0,-0.0,0.0,-0.0,0.8852381,-0.7768608,0.122973144,0.0,-0.0,0.49010682,-0.0,0.0,0.0,0.2236416,-0.9803938,0.4465428,-0.16681872,0.10709356,-0.0,-0.0,-0.0,-0.33348912,1.0108668,-0.0,-0.0,0.0,0.0,-0.0,0.0,-0.05468541,-0.9211691,-0.0,0.0,-0.0,0.5711935,-0.9968792,0.0,0.0,0.0,0.0,-0.0,0.0,-0.11883789,-0.0,0.7623877,0.0,0.0,-0.0,-0.0,-0.0,0.0,0.0,-0.9139152,-0.0,0.4449155,-0.0,-0.0,0.0,-0.26162466,0.0,-0.0,0.0,0.0,0.0,-0.0,0.0,0.0,-0.42954656,0.0,-0.6577612,-0.0
0.0,0.59207654,0.0,0.5712433,-0.0,0.0,-0.0,-0.0,-0.0,0.0,-0.9488743,0.0,1.5090052,-0.0,1.5561434,-0.0,0.54563284,-0.43304154,0.0,0.4537387,0.0,0.0,-0.0,-0.0,0.0,-0.0,-0.8852527,0.47597173,-0.0,-0.0,0.0,0.0,0.0,-0.0,-0.0,0.0,-0.11143264,0.0,-0.0,-0.0,0.050342597,-0.0,-0.0,0.0,0.0,0.0,-1.079439,0.0,0.0,-0.96408486,0.0,-0.0,0.9534001,0.68937194,1.1853002,-1.9885297,-0.0,-0.0,-0.97307354,-0.5428473,-0.0,0.0,-0.3394413,1.3607917,0.0,-0.0,0.0,-0.5669389,0.0,0.0,0.0,0.0,-0.0,-0.0,0.0,-0.0,0.0,-0.0,0.0,-0.0,-0.0,0.0,0.0,-0.82175815,-0.0,0.0,0.0,-0.19126193,0.0,-0.0,-0.0,-0.89901835,-0.0,-1.1841182,0.0,0.0,-2.68775,0.0,-0.0,-1.1341423,-0.28570548,0.052788824,-0.0,0.0,-1.3421205,1.1359684,0.0,-0.0,-0.0,0.0,-0.0,-0.0,0.28650695,-0.6887789,0.0,-0.0,0.0,0.3377268,0.30713582,0.4259791,-0.0,-0.42096686,0.0,0.3254696,0.72621274,0.012645662,-0.0,0.01872165,-0.0,-0.9954987,0.0,-0.0,-0.0,-0.0,-0.0,-0.23706988,0.91686743,-0.47395158,0.0,-0.0,-0.15842092,1.1037562,-0.0,-0.20482153,0.86773485,0.0,-0.0,0.88848543,-0.0,0.24526635,-0.6588985,-0.0,0.0,0.7234768,0.0,-0.0,-0.0,-0.0,0.5755644,0.0,-0.0,-0.5686166,-0.0,0.019178063,0.0,-0.0,0.0,-0.0,0.0,-0.0,-0.0,0.0,-0.0,-0.0,0.050893113,-0.87096673,-0.18105662,0.013697357,-0.0,-0.0,-0.0,0.0,0.0,0.0,-0.0,0.0,-0.0,-0.6579735,0.0,-0.0,-0.0,-0.0,-0.0,0.0,-0.0,0.0,-0.9988151,0.0,-0.0,-1.9309505
0.0,-0.036262613,0.56293917,-0.0,-0.0,0.0,-0.23078617,-0.49637413,-0.6417208,-0.49278432,0.0,-0.11195571,-0.19276068,0.0,-0.0,-0.0,-0.40196005,-1.7244463,-0.13026127,-0.38177586,0.0,-1.1140136,0.0,0.0,0.0,-0.1810461,-2.0815833,0.0,-0.704855,0.0,-1.3396068,0.0,0.34705362,0.0,0.17350423,0.0,0.022929521,-0.23944269,0.0,0.0,0.0,1.1236206,-0.5046164,0.0,0.93771917,0.0,-0.0,-0.51328015,-0.09739179,-0.0,-0.0,0.0,-0.0,-0.0,-0.0,0.0,0.0,0.0,0.0,0.0,-1.4993044,-1.2691333,-0.0,-1.4609586,-0.0,-0.0,-0.0,0.0,-0.0,-1.0640299,0.0,0.0,-1.6043931,-1.1213106,-0.0,0.0,0.33589476,-0.20154493,0.035519585,0.15785518,0.0,0.4833579,0.0,0.0,2.8325133,0.0,-0.0,-0.42670912,0.18504612,-0.58573884,-0.0,-0.0,0.0,0.0,-0.0,-0.0,0.0,-0.18087889,-0.0,-0.0,-0.0,-0.0,0.0,-0.0,-2.3098032,0.0,0.38548544,0.0,0.4314149,-0.0,0.0,2.198218,-0.0,0.0,-0.0,-0.0,0.0,0.5320979,-0.0,0.0,-0.0,-0.0,-0.0,0.0,0.8750646,0.0,1.4009776,-0.34327552,0.0,0.514951,-0.0,-0.0,-0.0,0.06365025,3.0248468,-0.6389142,0.0,0.7101374,-0.6509977,0.0,0.35332543,0.7571931,0.0,0.0,0.3999055,-0.0,0.0,-0.0,-0.0,0.020540053,-0.5235784,0.0,0.49351346,0.32846957,0.54968226,-0.0,0.0,0.0,-0.14833832,-0.99149007,0.77752227,0.0,-0.0,-1.1761197,0.45511702,-0.0,-0.0,-1.5825145,-0.0,-0.39796928,0.0,-0.0,0.0,0.0,-0.26368442,-0.0,-0.033765025,0.0,-0.66197574,0.0,-0.0,0.1176071,0.0,0.17114706,0.0,0.99668795,0.0,-0.79003406,0.5156192,0.045178983,-0.0,-0.0,0.0,-2.2211037,0.27476364,0.0,-0.46669275,-0.7009442,0.0,0.90307754
-0.0,-0.0,0.0,-0.23648208,0.0,-1.109761,-0.0,0.0,0.001224206,-0.0,0.0,-0.13809544,0.39277068,-0.0,-0.8862969,0.17449519,0.0,-0.0,-0.3162911,-0.0,-0.0,0.0,0.0,-0.0,-0.0,-0.8560301,0.63731545,1.099087,0.0,1.0497177,-1.3727007,0.0,0.0,0.0,0.0,0.0,0.24392639,-0.83210444,-0.0,-0.4744117,-0.0,-0.0,0.0,-1.0644106,0.0,0.29857033,-0.2997183,-0.0,0.53376174,0.0,-0.0,-1.0011251,1.1875647,0.0,-0.0,-0.0,0.18834111,-0.17918168,0.0,-0.0,0.0,0.13359918,0.48294944,0.0,0.68840593,0.0,0.0,0.29020673,-0.0,-0.0,0.0,-1.319796,0.0,-0.0,-0.5625762,-0.0,-0.0,-0.65305966,0.7504484,-0.0,-0.0,0.0,0.0,-0.94062245,0.0,0.0,0.0,-0.0,-0.18249601,-0.0,-0.0,-0.0,-0.0,-0.2540195,-0.16640992,1.0132293,-0.0,-0.0,-0.93062407,0.0,0.28431326,-0.75503284,0.0,0.0,0.5369676,-0.17194974,0.0,0.0,0.58139545,-0.0,0.0,-0.99581444,0.0,0.0,-0.321446,0.009843658,0.0,0.054472934,0.3548505,0.0,-0.0,-0.0,-0.0,-0.0,-0.1624174,0.6198762,-0.0,-0.0,0.0,-0.0,0.0,-0.0,0.0,0.0,0.84691554,-0.032510277,-0.0,-0.13371092,0.0,0.0,-0.34916043,0.10523235,-0.0,-0.0,-0.20638977,1.1629586,-0.0,0.92158574,-0.0,-0.18806526,0.0,-0.0,0.0,-0.23263545,-0.0,-0.24265921,-0.26227438,-0.4902654,-0.0,-0.0,0.0,-0.0,0.041727286,-0.0,0.110990316,-0.0,0.2659812,-0.0,-0.0,0.0,-0.0,0.0,0.016296927,-0.5941283,-0.0,-0.0,0.0,0.97472745,0.0,1.4298116,-0.0,0.0,0.0,-0.77272975,0.0,0.0,0.24530838,0.0,-1.563173,0.0,-0.0,0.77657235,-0.0,-0.06898395,-0.0,0.0,-0.0,-0.0,-0.0,0.0
-0.0,0.65178794,-1.0540662,-0.0,0.0,1.6928667,1.4369925,-0.0,0.0,0.0,0.0,0.0,-0.4143073,0.0,1.3443948,-0.0,-0.0,0.0,0.0,-0.0,0.0,-0.0,0.0,0.0,0.0,-0.0,-0.7334073,-0.0,-0.15502581,0.0,0.5349791,-0.0,0.0,-0.0,-0.0,-0.0,0.07550607,0.0,0.0,0.10350973,0.0,0.0,0.0,-0.0,-0.0,0.5647194,-0.0,0.0,0.2092286,-0.0,-0.0,-0.14949447,-0.0,-0.0,0.2541888,0.0,-0.09033828,0.0,0.0,0.0,-0.139356,0.0,-0.50611424,0.0,-0.0,-1.0339574,-0.0,-0.497078,0.0,-0.9246863,0.44452298,1.1697106,0.0,0.0,-0.37193727,-0.0,0.0,0.0,-0.5012699,-0.34321004,0.5931608,-0.71766526,-0.0,-0.0,0.31159896,-0.0,-0.0,0.0,0.0,-0.0,0.0,-0.3223461,0.0,-0.0,0.0,0.0,0.0,0.43841672,0.02776704,-0.0,-0.12412252,-0.0,0.0,-0.3445787,-0.09903249,0.0,-0.7193741,-0.0,0.0,0.0,-0.018441824,1.5140754,-0.03651939,0.0,0.0,-0.076931745,-0.0,-0.0,-0.0,1.307306,0.0,0.02641781,-0.0,0.0,0.0,0.0,-0.0,0.0,-0.0,-0.8416881,-0.23375113,0.0,-0.0,0.0,0.0,-0.308457,0.0,-0.0,0.0,-0.0,0.0,0.0,0.0,0.0,0.85037035,-0.0,0.0,-0.0,1.1730733,-0.0,0.19526996,0.926087,-0.0,-0.0,-0.30782086,-0.31344607,0.84358555,0.06268539,0.0,0.0,0.0,0.0,-0.26591176,0.0,-0.024977254,-0.0,-0.0,0.0,0.0,-0.0,0.0,-0.0,-0.31538838,-0.014645406,0.0,-0.0,-0.45717502,-0.0,0.33070377,0.0,0.96379393,-0.0,-0.0,0.01660516,0.0,0.2574924,0.0,0.0,1.0948359,-0.0440501,0.0,-0.0,0.0,-0.0,0.0,0.0,-0.1653827,0.0,-0.39085093,-0.0
0.0,0.0,-0.0,-0.0,0.0,0.0,-0.0,-0.0,0.37918806,0.0,0.7754622,0.0,-0.0,0.0,-0.0,-0.0,0.17538638,-0.6634707,0.0,0.5828282,0.0,-0.0,-0.0,0.0,0.0,-0.0,0.630509,-0.0,0.2360902,0.0,0.0,-0.0,-0.0,0.40235254,0.6227225,0.0,-0.21429451,0.2888293,0.0,-0.0,0.0,0.0,0.0,0.0,-0.0,0.42843744,-0.0,0.0,-0.0,-0.0,0.0,-0.0,0.0,0.19994125,0.0,0.0,-0.15528296,0.0,-0.0,0.0,-0.0,-0.07414119,-0.06362065,-0.0,-0.0,-0.0,0.3764975,-0.0,0.0,0.0,0.0,-0.0,-0.0,-0.0,-0.0,0.0,0.55884945,-0.0,-0.0,0.0,0.0,0.0,-0.0,-0.0,-0.0,0.0,-0.0,0.39749253,0.0,0.0,0.6588614,0.0,0.0,0.08136958,0.54719514,0.0,0.0,-0.70934933,0.045044836,0.0,-0.0,-0.053928904,-0.0,0.16569819,-0.0,-0.44709405,-0.0,-0.0,-0.0,0.0,0.3248607,0.5159417,-0.0,-0.0,0.0,-0.25160697,0.0,-0.0,-0.0,0.8301157,-0.22668126,0.0,-0.35977152,0.46908364,2.261002,0.0,0.16179878,0.0,-0.0,0.0,-0.0,-0.0,-0.0,1.0045419,-0.0,-0.0,0.0,0.37866595,-0.20682089,-0.0,-0.0,-0.0,0.0,0.0,0.0,-0.0,-0.3403173,0.36423856,-0.0,-0.0,-0.0,-0.0,-0.26096708,-0.0,-0.6692434,0.0,0.33706543,0.0,0.0,0.0,0.70176166,0.14764652,-0.0,0.46610662,-0.7475456,-0.0,0.0,-0.90622795,0.0,-0.0,0.0,-0.0,0.0,0.0,-0.018676292,-0.0,-0.30368623,0.3628703,-0.0,0.0,0.0,-0.09949332,0.09444306,0.13005027,-0.0,-0.0,-0.7023521,0.20881055,0.0,-0.0,0.0,-0.6926892,0.0,-0.0,0.0,0.8143689,0.0,-0.07156992,0.0,0.6865791
-0.0,-0.0,-0.0,0.0,0.7027162,0.0,-0.24902311,-0.0,-0.0,-0.0,-0.51799446,-0.0,0.0,-0.15448564,-1.0101148,0.49044442,0.0,0.0,0.12095611,-0.0,-0.0,0.0,-0.17648019,0.10971346,0.0,-0.0,0.98528266,-0.0,-0.0,0.76207674,-0.0,-0.0,-0.0,-0.0,-0.0,0.0,-0.0,-0.4790318,-0.0,0.0,-0.0,0.0,-0.045432545,0.0,0.0,-0.0,0.0,-0.0,-0.0,0.3585345,-1.1511505,-0.6155635,0.0,0.0,-0.0,0.79315436,-0.0,-0.0,-0.42505914,-0.0,0.0,-0.0,0.0,0.0,0.0,-0.10513261,0.0,-0.0,0.0,0.0,0.0,0.0,0.0,0.6569903,0.9118108,0.0,-0.0,-0.0,0.847679,0.0,-0.0,0.0,0.0,-0.0,0.20315951,0.0,0.0,0.28228945,0.0,-0.0,-0.18098871,-0.5200619,-0.0,0.86213106,0.0,-0.0,0.0,-0.78202534,-0.0,0.0,-0.19973412,-0.0,-0.0,0.0,0.0,-0.0,-0.0,-0.0,-0.0,-0.0,0.0,-0.23823823,-0.15877816,0.0,-0.16866465,0.0,0.0,-0.0,0.5892501,-1.3702885,0.7089787,0.0,-0.037795756,0.19088988,0.69318056,0.20179254,-0.0,-0.0,-0.0,-0.20447096,0.0,-0.0,-0.0,-0.0,-0.3177286,0.39174163,-0.0,-1.4685178,0.27645248,0.0,-0.42649803,0.00023603273,-0.31595862,-0.0,-0.6918727,0.0,-0.0,0.29245478,-0.0785665,-0.79975986,0.0,-1.2769195,-0.0,-0.47687262,-0.0,-0.0,-0.0,0.5735265,-0.0,-0.0,0.0,-0.0,0.0,-0.0,-0.28163975,0.0,-1.3011575,0.24014422,0.059204787,0.52816975,-0.0,0.0,-0.0,-0.0,0.0,0.0,-0.0,0.0,-0.0,0.87606555,-0.0,0.0,0.0,0.34728503,0.38621023,0.0,-0.0,-0.0,-0.88344216,0.0,-0.0,0.0,0.668712,1.593024,-0.0,-0.68988013,-0.0,-0.0,-0.0,-0.2635197
0.17959517,-0.74569434,0.019646501,-0.56022465,0.0,0.0,1.6904417,-0.018325444,-0.5894044,0.0,1.4784335,0.0,-0.0,0.0,-0.0,-0.08110792,-0.29587883,0.22471073,0.0,-0.40736824,0.0,-1.6590278,0.0,0.0,-0.0,-0.0,-0.7382661,-1.1413553,-0.47695884,0.0,-0.6824724,-1.0133923,0.27362302,0.0,0.0,-0.0,0.36232194,0.0,0.0,-0.0,-0.8813735,-0.0,0.0,0.0,-0.0,0.0,0.0,-0.94598454,0.0,-0.0,0.0,-0.6545759,-0.0,-0.7216324,0.0,0.0,0.0,-0.5443097,-0.9165093,0.0,-0.0,-0.62069094,-0.0,-0.0,-0.0,-0.0,-0.0,0.0,0.0,-0.0,0.0,0.0,0.11585999,0.0,-0.9075644,0.0,-0.0,0.0,-0.0,-0.49956387,0.0,0.0,-0.0,0.0,-0.0,-0.0,0.07878673,-0.0,-0.0,0.0,-0.7732217,-0.0,0.0,0.0,-0.0,-1.9827164,0.0,-0.0,0.33012855,-0.3566048,-0.0,-0.0,0.0,-0.41559345,-0.0,0.118778065,0.053571947,0.0,-0.38486004,0.70521796,-0.0,-1.2933743,-0.0,1.339736,0.7141836,-0.2474332,0.0,0.0,-0.31922114,0.0,0.0,0.0,-0.0,-0.46266055,-0.27358237,0.1442441,0.08269528,-0.21282707,1.1811422,0.0,-0.0,-0.0,-0.33382693,0.06593431,-0.0,0.0,0.8627258,-0.17865165,0.0,-0.0,-0.0,0.0,0.0,0.0,0.0,-0.0,-0.034626666,0.0,-0.0,-0.0,-0.0,-0.0,-0.32871407,-0.0,0.0,0.39375466,-0.0,-0.72535,-0.6484448,-0.0,-0.0,0.0,-0.0,-0.11761947,-1.3703376,0.0,-0.03454486,-0.0,0.0,0.0,0.0,-0.48048466,0.32228687,0.0,-0.46133333,-0.77445453,-0.03774565,-0.45114744,0.0,0.0,0.0,-0.0,-0.0,0.0,-0.0,-0.0,0.9990023,-0.41462776,0.0,0.0,0.0,-1.2196941,0.0,-3.0851367,0.698283,0.0,0.0,-0.1276366,0.0,-0.19658773
0.0,-0.0,-0.0,-0.45813075,-0.19518493,0.0,0.0,-0.38278988,-0.99601483,-0.0,0.0,1.0734284,0.0,0.0,0.0,-0.0,-0.3201595,-0.23689418,0.4442652,0.0,0.0,-0.0,0.0,0.0,0.0,-0.0,-0.0,0.0,0.0,0.0,0.0,0.0,0.0,0.0,0.0,0.0,-0.086676225,-0.0,0.0,-0.0,-0.50573206,-0.0,0.33215654,0.0,-0.0,0.0,0.30706912,0.0,-1.527749,-0.0,-0.0,0.0,0.0,-0.97084886,-0.0,0.0,0.14409134,0.0,-0.37920815,0.0,-0.0,-0.0,-0.0,0.0,-0.3988421,-0.0,-0.0,0.17999932,-0.0,-0.0,0.45334566,0.0,1.2244191,-0.0,-0.7200468,0.0,-0.0,0.22290337,0.37614238,0.0,-1.0168096,0.0,0.23358677,0.95245016,-0.0,0.0,0.0,-0.0,1.1358706,1.048086,-0.0,1.5946883,-1.0514314,0.0,-0.0,-0.07390063,0.6938159,-0.0,-0.5948564,0.78857535,0.45610937,0.035832707,-0.0,-0.0,-0.0,0.0,0.0,-0.0,-0.99444634,-0.0,-0.20365433,1.4969046,-0.0,0.0,0.7868154,-0.0,0.0,0.0,-0.0,-0.0,-0.0,-0.0,0.18593715,0.0,0.0,0.0,-0.0,0.0,-0.0,0.0,0.34264478,-0.0,0.17102356,0.0,0.0,-0.0,0.0,0.0,0.0,1.3186244,-0.0,0.1033374,0.0,0.0,-1.4944679,-0.0,0.3431309,0.0,0.0,-0.0,-0.0,-0.2610027,-0.029855816,-0.79755867,-0.0,-0.0,-0.0,0.0,0.0,-0.0,0.0,-0.0,-0.0,0.0,0.0,-0.0,-0.0,-0.1277125,0.0,-1.4557331,0.0,-0.0,0.0,0.0,0.10138168,0.0,-1.519003,0.52742547,0.0,0.0,-1.3061994,0.0,0.0,0.0,0.8467335,-0.44980973,0.4561043,0.0,0.0,0.0,0.0,-0.0,0.0,-0.25144428,0.0,0.0,-0.3279772,0.0,-1.7630187,-0.0
-0.0,0.0,-0.0,-0.0,-0.020388078,-0.0,-0.0,-0.0,0.0,0.0,-0.0,0.0,-0.0,0.0,-0.0,-0.0,1.0575752,0.0,0.0,0.0,0.0,-0.27515447,-0.0,0.0,0.0,-0.0,0.0,-0.0,0.4934671,-0.0,0.0,-0.0,-0.0,-0.0,0.13978997,-0.0,0.33403283,0.0,0.0,-0.0,0.0,-0.43737334,0.12242029,0.0,-0.0,-0.0,-0.0,1.6091824,0.0,-0.0,0.0,-0.0,0.0,-0.0,0.0,-0.0,0.0,0.0,-0.0,-1.6241457,-0.0,0.0,0.0,-0.0,-0.0,-0.0,0.0,-0.0,-0.6275035,0.0,-0.0,-0.0,-0.5095334,0.0,-0.0,0.0,0.0,-0.0,-0.74121386,-0.029332368,0.0,-0.0,-0.0,-0.37368327,-0.037621167,-0.0,-0.0,0.0,0.0,0.0,0.0,-0.39694625,-0.26107243,-0.0,-0.0,0.0,-1.2569691,-0.4753934,0.0,-0.96019846,-0.0,0.0,-0.0,0.6488066,-0.6755482,0.0,-0.0,-0.0,0.5713561,0.0,0.4711514,0.0,-0.0,-0.0,-0.07306409,0.17569311,-0.0,-0.0,-0.0,-0.0,0.21062937,0.0,-0.29307917,0.0,0.0,0.0,0.0,0.0,-0.0,0.0,-0.021170754,0.0,0.0,-0.0,-0.0,-0.24600933,0.08720833,-0.0,0.80792797,-0.0,0.0,-0.22178422,-0.0,0.0,0.24024244,0.0,0.80157304,-0.0,-0.0,0.0,-0.46617502,0.9613821,0.0,0.7975142,0.13815068,0.0,-0.0,0.8387666,-0.0,-0.29823112,-0.2156676,0.0,-0.0,0.3701738,0.20202228,-0.0,0.0,0.0,0.0,0.0,0.0,-0.0,0.20978844,0.85103196,0.0,-0.35180655,-0.20504448,-0.0,-8.778887e-05,-0.61653674,0.0,-0.0,-0.0,-0.0,-0.0,-0.33023,0.0,0.0,-0.0,-0.2191939,0.0,-0.49910957,-0.24052961,0.040568545,0.0,-0.010242907,-0.5137295,0.252403,0.0,-0.8801938
0.0,0.110983804,-0.0,-0.0,-0.0,0.0,-0.6532062,0.0,0.8136525,0.848914,0.0,0.32311466,-0.0,0.0,-0.011307602,-0.0,-0.0,-0.0,0.0,0.0,0.0,-0.0,0.0,0.0,0.0,-0.0,-0.44517285,-0.22150669,0.0,0.49401516,-0.0,0.0,-0.37659723,0.5638787,0.053067606,0.0,-0.0,-0.0,-0.0,0.888354,0.63248146,-0.0,0.0,-2.1162944,2.05551,0.0,0.0,-0.0,0.0,-0.0,-0.31401545,0.39422724,0.0,-0.0,-0.0,0.0,0.0,-1.6936572,-0.029696207,0.9379659,-0.0,0.24791227,-0.0,-2.21595,-0.0,0.0,-0.0,0.3012445,-0.38848767,-0.76010066,-1.0192462,0.0,0.0,0.0,-0.0,0.0,-0.15770786,-0.9832303,-0.0,0.0,-0.0,0.0,0.0,0.0,-1.1812263,-0.016638458,0.0,-0.0,-0.0,-0.11131906,0.7351766,-0.0,-0.18177642,-0.3009592,1.0168817,0.0,0.0,-0.0,-0.21030557,0.0070469365,0.0,-0.0,-0.0,-0.48596948,-0.0,0.0,-0.0,0.0,-0.27989942,-0.0,-1.2989982,0.0,0.27289662,-0.0,0.0,0.0,0.0,0.7129023,-0.0,0.0,0.07033365,-0.0,0.52695966,-0.0,0.0,0.0,-0.0,-0.0,0.0,0.0,0.0,-0.0,-0.0,0.0,1.5271777,-0.0,-0.0,0.0,0.0,0.2355815,-0.0,-0.0,-0.5005613,-0.0,-0.0,-0.0,-0.28246278,-0.14044338,-0.0,0.70713633,0.96895057,-0.0,-0.0,-0.0,-0.0,0.0,0.0,0.0,0.0,1.7145293,-0.0,-0.37837517,-0.23790307,0.0,-0.039234996,0.9810239,-0.0,-0.0,-0.26597726,-0.36620387,0.0,-0.16070706,0.076467745,0.0,-0.0,0.0,-0.65081936,0.34752578,0.0,0.24834158,0.0,-0.048701216,0.0,0.0,-0.25674012,0.0,-0.1243395,-0.0,0.12184117,0.0,0.46879655,0.47565788,0.80306756,-0.0,1.0731529,-0.3777313,1.6725894,-0.8605281,-0.13783048,1.9926604
0.0,-0.52293265,-0.0,-0.2145595,0.20900992,0.0,-0.6103931,0.17403392,-0.2799881,-0.851846,-0.0,0.0,0.10587168,0.0,0.0,-0.0,0.0,0.08699272,0.0,0.0,0.0,0.0,0.0,-0.0,0.0,-0.0,0.0,0.0,-0.0,0.0,-0.5331165,0.017886449,0.0,0.0,-0.0,0.0,-0.0,-0.0,-0.5032678,0.0,-0.6237443,0.0,0.0,0.0,0.7983499,-0.0,-0.0,-1.0056605,-0.7283473,0.0,0.0,-0.0,0.0,0.0,-0.63698834,0.0,0.0,-0.0,-0.55561924,-0.0,-0.0,0.0,0.19651109,-0.06988526,-0.0,-0.02623675,0.0,0.5065534,0.8083688,0.0,0.0,0.0,-0.0,-0.0,-0.0,-0.27209717,0.0,0.0,-0.057319928,0.0,-0.0,0.39786986,0.12615585,-0.0,-0.0,0.0,0.0,0.0,0.0,-0.0,-0.9528031,-0.0,0.0,-0.0,-0.6333855,-0.0,0.0,0.0,-0.0,0.0,0.0,-0.0,-0.0,-0.0,0.19274957,0.0,-0.0,-1.2426033,-0.5348233,0.0,-0.0,0.041339647,0.038523745,-0.0,0.7273592,-0.0,-0.015566981,-0.0,-0.0,-0.0,-0.0,0.0,0.0,-0.0,0.0,0.0,0.0,-0.0,-0.0,0.0,0.0,0.62030965,-0.0,-0.0,-0.0,-0.0,-0.094106555,-0.0,-0.031162396,-0.0,-0.0,-0.8313406,-0.0,0.0,0.089118324,-0.0,0.23287672,-0.14943366,0.0,0.0,-0.33211342,-0.0,0.37178493,0.0,-0.18317279,0.0,0.0,-0.0,-0.0,0.0,-0.6657547,-0.0,-0.24803668,0.0,0.0,-0.0,0.0,0.0,-0.25401852,0.0,0.0,0.0,-0.0,-0.05005641,0.0,-0.0,-0.0,-0.0,0.0,0.0,0.0,0.0,0.0,0.0,-0.0,0.0,-0.0,0.0,0.0,-0.4114083,-0.0,0.0,0.0,-0.53493816,-0.0,0.0,-0.0,0.05712128,0.0,0.4377599
-0.31029662,0.6752013,0.0,1.2306653,0.0,-0.79723716,-0.0,0.0,-0.9915221,0.72268987,0.3866612,0.0,-0.082926586,-0.0,-0.0,0.17555295,-0.8499178,0.0,0.0,0.0,0.0,-0.0,0.39779368,0.37329516,0.0,-0.0,1.32202,0.63964117,1.3635392,-0.0,0.7579495,-0.0,-0.0,-1.3204591,0.038160447,0.0,0.0,0.021094548,0.0,0.23233558,0.9064287,0.0,1.1973548,-0.0,-0.0,-0.0,-0.0,0.28918058,0.36124206,0.0,0.0,0.62276524,0.8575422,1.1191051,0.0,0.0,1.6877759,-0.09536708,-0.0,0.43619287,-0.0,0.0,0.0,-0.7949756,-0.0,-0.0,-0.0,-0.0,0.0,0.0,0.0,-0.0,-0.6157538,-0.0,-0.0,-0.0,0.5792186,-0.0,4.2245307,0.0,0.39379734,-0.0,-0.0,0.0,-0.0,0.0,-0.0,0.0,0.0,0.0,1.0832146,0.3631561,0.63403183,-0.0,-0.027261307,-0.68817174,0.0,-0.086801976,-0.0,0.0,0.021179946,0.0,-0.0,1.0642582,-0.0,0.0,-0.44820613,0.83513933,0.39061835,-0.0,-0.0,-0.0,-0.3562008,-0.0,-0.0042791716,0.63872313,0.0,-0.0,1.3199703,-0.0,-0.0,-0.18189672,0.17583846,1.0995934,0.0,0.0,0.0,-0.0,-0.0,0.0,-0.81440336,-0.0,0.0,-0.0,0.12792921,-0.0,0.2042571,-0.523257,0.09113306,-0.241278,0.26278037,-0.0,0.33693442,0.0,0.0,-0.0,1.9323444,-0.0,-0.27105156,-0.0,-0.5683842,1.1333082,0.0,-0.0,-0.0,0.8898369,0.0,0.85024846,-0.0,0.0,-0.0,0.0,0.93559843,0.0,-0.0,0.26352412,0.20872514,0.0,0.0,0.0,0.0,-0.8944852,-0.0,0.0,0.11259789,-0.53375083,-0.0,0.5030673,0.0,-0.0,0.59090894,-0.48627284,-0.0,0.0,-0.204039,0.0,0.0,-0.120914206,0.18745056,0.4568884,1.7866986,-0.31248352,-0.0,0.67074597,-1.243713,-0.15059592,1.1078881,0.0,-0.0,1.244675
0.0,0.0,0.0,0.0,-0.0,0.0,-1.1100512,0.0,0.120094284,1.1783332,0.9721832,-0.4602923,-0.11843187,-1.6866786,0.0,-0.0,0.6762879,-0.0,-0.0,-0.0,0.73057795,-0.5431843,0.0,0.0,-1.3275367,0.11268182,-0.85744065,0.7518664,0.854358,-0.0,0.0,0.0,0.0,0.0,-0.25885096,0.0,-0.18026297,-0.0,-0.0,-0.0,-0.041099127,0.38893327,-0.29386774,-0.0,0.83266795,0.0,-0.0,0.0,0.4339879,-0.0,-0.0,0.0,0.4796315,0.0,-0.0,0.0,0.0,-0.8092777,0.036300033,-0.0,-0.0,-0.05707161,0.43667826,-1.5958018,-0.0,-0.27357316,0.0,-0.0,-0.0,-0.0,0.17849998,0.0,0.09510332,-0.0,0.0,-0.0,-0.54687303,0.0,0.0,-0.6281344,-0.0,0.0,-0.043832228,-0.44759154,1.3767487,0.0,-0.954497,-0.0,-0.0,0.12974527,-0.08975208,0.05992146,0.15194173,0.0,0.0,-0.73350734,-0.0,0.83749527,-0.61140794,-0.0,0.0,0.0,-0.24233644,-1.2249706,0.0,0.0,0.0,0.0,0.0,-0.0,-0.6026079,-0.17520803,0.0,0.0,-0.0,-0.0,0.0,0.0,-0.0,0.0,-0.0,0.30766982,-0.0,-0.0,-0.0,-0.0,0.11488445,-0.0,0.0,-0.0,0.0,-0.678181,-0.0,0.0,0.58446443,-0.0,-0.0,0.0,-0.19300818,0.0,-0.0,0.0,0.0,1.1348015,0.0,0.0,-0.0,-0.498876,0.0,-0.0,-0.0,-0.9866841,0.15382852,0.0,0.23178141,-0.0,0.0,-0.0,0.0,1.2227815,0.0,-0.49082232,0.0767622,-1.1422932,0.0,0.0,-0.0,0.06763802,-0.0,-0.87203443,0.8764436,0.0,0.6290986,-0.31715155,-0.0,-0.15606494,-0.5666111,0.0,0.0,-0.80633014,-0.0,1.1956265,0.0,0.0,0.78948194,0.0,0.0,-0.0,-0.0,0.0,-0.0,-0.0,0.0,-0.0,-0.0,-0.3740249,0.0,-0.0,-0.0,-0.8718425
0.26859155,0.4964493,0.91522795,-0.0,0.0,-0.123279795,-0.0,-0.0,-1.0439694,0.72785115,-0.0,-0.0,0.0,0.0,0.0,-0.0,-0.25173575,0.8217835,0.918532,-0.8970382,0.0,-1.1117451,-0.0,0.0,0.0,-0.0,0.6581629,-0.61357516,1.3266865,0.72947484,0.0,0.0,0.6963494,-0.0,-0.0,0.0,0.0,0.2691444,0.0,0.0,-0.20861176,0.15347077,0.68243104,0.28767705,0.28143135,-1.0658141,-0.119225815,-0.07270517,0.42532116,0.0,0.0,0.0,0.0,-0.0,-0.82569456,0.0,0.43951678,0.0,-1.5443654,1.2190403,0.0,0.7130209,0.0,-0.0,1.2133437,0.5666598,-0.0,0.34748155,0.0,0.08339666,0.71443486,0.31482583,0.35405996,-0.0,0.6143787,0.0,-0.0,0.6542714,2.0306396,0.0,0.0,-0.25692406,0.0,-1.1359178,-0.0,0.0,0.58108157,0.0,-0.029396378,-0.19095665,0.0,-0.0,-0.0,0.48149022,-0.57984155,-0.0,0.03897192,0.40462652,-0.0,0.0,0.0,-0.22748698,-0.0,0.55230147,-0.23907696,-0.0,0.0,-0.0,-0.0,0.0,-0.27381825,-0.44085997,-0.0,0.22081973,0.0,-0.46994853,0.0,-0.20001654,0.69949967,-0.80721027,-0.0,0.0,1.2819184,-0.6353532,0.0,0.0,-0.0,-0.0,0.077218704,0.3986871,0.0,0.17804228,0.26014492,-0.0,1.9015352,-0.0,0.0,-0.0,0.0,-0.22785118,-0.0,-1.0462067,-0.0,0.0,0.2056851,0.36217034,0.0,1.2012058,-0.07687563,-0.0,0.0,0.12882274,0.62034667,-0.5190834,0.0,-0.0,-0.0,-0.0,-1.5250813,-0.0,0.0,0.0,-0.0030341144,1.2188413,0.46836427,0.4796751,0.0,1.2223157,2.4010596,-0.32616037,0.323013,-0.33369035,0.0,0.0,0.14425832,-0.12961842,0.031695325,-0.652439,2.7550774,0.0,-0.0,0.0,0.50746053,-0.2843311,0.20380524,0.0,0.0,-0.5455624,0.18210779,0.4166021,-0.9147513,-0.6401004,0.9818327,-0.8123837,-0.47784275,-0.52822,0.0,0.2684744,-0.0,-0.012982478
0.0,-0.0,0.0,-0.3357111,1.143789,-1.8090148,0.0,-0.4773662,-1.6547304,-0.0,-0.0,0.84923315,0.0,0.8835066,-0.060072746,-0.124234535,-0.023226773,-0.955639,0.0,-0.0,-0.40150654,0.0,-0.22476092,-0.0,0.0,0.25574833,0.18455788,-0.0,-0.0,0.0,0.0,0.0,0.0,0.0,-0.0,0.0,-0.33650824,-0.0,-0.0,-1.1432071,-0.28868392,-0.0,0.6225868,-0.0,0.0,0.0,0.0,-0.033456888,0.59098613,0.0,-0.012765146,0.0,-0.0,0.0,0.0,0.0,0.0902431,-0.0,-1.9422618,0.09815102,-0.0,-0.5634236,1.0019829,0.0,0.0,-0.0,0.0,-0.0,0.49051315,0.4347586,0.0,0.0,-0.0,-0.0,0.0,0.0,-0.017464455,-0.0,-0.0,0.0,-0.0,0.0,0.0,-0.0,0.6744111,0.0,-0.55700153,-0.44469684,0.0,-0.0,-0.0,-0.0,0.0,-0.060302876,-1.0797311,-0.0,-0.0,0.0,-0.0,0.0,0.09343838,1.2375343,1.5550268,-0.8286655,0.0,-0.0,-0.50667244,-0.04429397,0.0,0.0,-0.0,-1.4332253,0.0,0.0,-0.5367099,-0.0,0.056354623,0.0,0.0,-0.22424032,-0.04760837,0.0,0.0,-0.0,-0.0,-0.0,-0.6080302,-0.0,-3.2369199,0.7182971,0.12540993,-0.0,-0.0,-0.0,-0.8871697,0.17819387,0.0,0.0,0.37334806,-0.20601334,-0.0,0.6530948,-0.0,-0.0,-0.42061254,1.0153656,-0.13396077,0.17742041,-0.44413602,0.0,0.0,-0.6131211,0.0,0.0,0.77433014,-1.0403377,1.0122296,-0.0,-0.0,0.0,0.3056607,-0.0,1.0802288,1.0899919,0.577426,0.0,0.0,-0.20593195,-1.2312281,0.3928093,0.0,0.0,-0.0,-0.0,0.0,-0.46122447,0.0,0.23592019,0.0,0.0,0.0,0.0,0.0,0.0,-0.21638222,0.0,-1.4743487,-0.0,-0.0,-0.0,-0.0,0.0,0.0,0.05242126,-0.0,-0.0,0.0,-0.0,-0.0,-0.0
0.3747664,0.0,-0.0,0.7483212,-0.0,-0.0,0.0,0.0,0.5643502,-0.19044176,-0.0034250342,-0.0,-1.1772293,0.0,-0.0,0.03369848,1.0429486,0.7933805,-1.473573,-0.0,-0.6223458,0.0,0.015827091,0.0,-0.0,0.0,-0.07240271,-1.0557344,0.7571674,-0.21893692,0.0,-0.1873362,0.0,0.0,0.6212849,0.0,-0.5454046,-0.0,1.8045608,-0.0,-0.0,-0.51936543,-0.0,-0.0,-0.0,-0.0,-0.0,-0.0,-0.5136309,-0.86301535,0.0,0.0,-0.0,-0.0,0.0,-0.35829282,0.0,0.0,0.51551217,-0.90485007,-0.0,-0.11418416,-0.99393314,0.028963009,0.0,0.9168866,1.18475,0.08731833,-1.7668655,1.2529913,0.0,0.20084085,-0.17140771,0.0,-0.64527357,0.0,0.0,0.0,-0.5175629,-0.0,0.0,-0.0,-0.7239043,0.0,-0.0,-0.0,0.7971527,-1.7614895,0.0,0.0,-0.0,0.0,-0.0,-0.0,-0.0,0.0,-0.0,-0.0,0.0,-0.0,-0.0,0.0,0.27303773,0.5151098,-0.0,0.0,0.0,0.7119383,0.0,-0.0,-0.0,0.20376134,0.4399376,-0.0,-0.4094198,0.0,-0.39739534,0.12621164,-0.0,0.38817656,0.0,-0.0,0.0,0.0,-0.0,-0.25961515,0.0,0.0,0.035288956,-0.0,-0.0,-0.0,0.0,-0.0,-0.56970483,0.0,0.91609293,0.022795694,-0.0,0.0,0.45646545,0.5740567,-0.34669012,0.0,-0.11840088,0.0,-0.0,0.0,0.0,0.07505992,0.3536478,0.0,-0.51991457,-0.5410256,0.0,0.24606305,0.0,0.033931423,-0.090598226,0.0,-0.0,-0.0,-0.0,-0.4166062,-0.0,0.0,-0.49265215,0.07123747,-0.0,-0.0,0.5045221,-0.0,1.1402502,0.0,-1.7200874,0.0,-0.004056955,-1.0757043,-0.0,-0.0,0.0,-0.0,-0.55280584,0.0,-0.0,-1.0558271,-0.86293185,-1.0833371,-0.0,-0.5128366,-0.0,-0.018572215,-0.0,-0.8779532,0.5005454,-0.0,-0.7280637,0.0,0.07312382,0.0
-0.0,-0.0,-0.0,-0.0,-0.0982469,-0.0,-0.0,0.0,0.9495299,0.0,0.0,0.0,-0.53114766,0.0,-0.0,0.17927301,-0.0,0.0,0.0,0.0,-0.0,-1.6301079,0.43293497,0.0,-0.0,-0.0,-0.029606322,0.06303198,0.0,0.0,0.0,-1.3592107,-0.0,-0.0,0.0,-0.0,0.0,0.0,0.0,0.0,-0.12138397,0.0,-0.0,0.66342556,-0.7437537,0.0,-0.0,-0.1982046,0.0,-0.0,0.26530313,0.974727,0.0,0.014102885,0.0,-0.0,-0.40020573,0.34325102,0.86652774,0.0,0.0,0.0,-0.72486883,0.0,-0.0,0.39853132,-0.0,-0.2400165,0.0,0.0,0.8712679,0.37379643,0.0,0.0,-0.0,0.0,0.53241825,1.5249203,0.0,-0.0,0.43663532,-0.0,-0.0,-0.0,0.0,-0.0,-0.0,0.032474488,0.0,0.0,-0.50630474,0.0,-0.0,0.1789325,-0.0,0.0,0.0,-0.0,0.02828339,-0.0,-0.0,-0.0,-0.52795416,0.0,-0.015174333,0.0,-0.0,-0.0,0.097979665,0.0,0.0,-0.0,-0.0,0.0,-0.0,0.0,-0.0,-0.0,-1.1426743,-0.0,0.0,-0.0,-0.0,0.0,0.10596413,0.0,-0.1781354,0.0,-0.0,-2.0790808,-0.0,0.0,0.0766512,0.0,0.0,0.0,0.24711506,0.083671026,0.0,-0.0,0.0,-0.0,0.0,0.0,0.41921318,-0.0,0.30541825,-0.0,-0.0,-0.0,-0.0,0.0,-0.0,-0.0,-1.5771661,0.0,-0.11558499,0.0,0.0,0.0,0.0,-0.3130925,-0.0,0.0,-0.0,-0.0,-0.0,0.0,0.9543691,-0.0,-0.0,-1.1180835,0.0,0.13736537,-0.8561368,-0.48465553,0.09138647,0.8313421,1.4519519,1.2319553,0.20582564,-1.3294662,-0.0,-0.0,-0.32427728,-0.0,0.4921821,-0.71120375,0.0,0.3972025,0.0,0.0,0.0,-0.0,0.0,0.0,-0.0,0.0,-0.22423029,-0.7559098
-0.0,-0.40001485,-0.0,-0.0,0.0,0.0,-0.0,-0.0,0.34890446,-0.0,0.0,-0.0,-0.12360859,0.8615562,0.0,0.0,-0.0,-0.0,-0.0,-0.0,-0.0,0.0,0.0,-0.0,0.0,-0.0,-0.0,0.16190487,0.21608827,1.0233958,-0.028885031,0.0,-0.0,-0.0,0.0,0.0,-0.0,0.0,-0.0,0.0,-0.0,-0.0,0.0,-0.7365022,0.0,0.0,0.0,-0.0,0.5866118,-0.0,-0.0,-0.0,0.0,-0.0,-0.0,1.382612,0.0,-0.30955562,0.52787733,1.17371,0.0,-0.0,-0.0,0.0,0.0,0.0,-0.0,0.0,-0.0,-0.0,0.0,-0.8615344,0.0,0.051010113,-0.0,0.0,-0.57996064,-1.027785,-0.25929013,0.0,-0.0,0.0,0.0,-0.36536133,-0.8645854,0.0,0.0,0.0,-0.23539312,-0.0,-0.0,0.5731975,0.0,0.0,0.0,-0.21499379,0.38987756,-0.80736405,0.122726984,0.70518476,-0.41744903,1.0205301,-0.0,-0.0,-0.0,-0.0,-0.0,-0.0,-0.14910933,-0.0,0.13692302,-0.0,-1.1759882,0.0,0.95250666,0.0,0.0,0.0,0.0,-1.2510043,-0.0,0.0,-0.0,-0.0,0.0,0.0,-0.0,-0.0,0.0,-0.13197485,0.0,-0.0,0.80622804,0.0,0.0,-0.0,-0.0,-0.0,0.0,0.0,-0.0676536,-0.0,0.0,-0.12402939,-0.0,-0.0,0.39160392,0.0,0.0,-0.0,0.0,-0.0,-0.0,0.0,0.10705802,0.0,-0.73290735,-0.0,-0.0,0.33423388,0.0,-0.0,-0.35183877,-0.0,0.0,0.0,0.9810542,-0.0,-0.69928837,-0.0,-0.0,0.0,0.0,-0.0,-0.0,-0.0,0.0,0.3433851,0.0,0.0,-0.0,0.0,0.0,0.0,0.0,0.834691,-0.0,0.0,0.0,0.0,-0.0,-0.0,0.0,0.0,-0.0,0.0,-0.0,-0.0,0.0,0.94662315
-0.45801294,0.45794165,-0.0,0.0,-0.0,0.0,-0.0,-0.0,-0.20287071,-0.0,0.0,-0.23277664,0.6089539,-0.0,0.0,0.0,-1.6274655,-0.6260371,0.092278674,-0.0,-0.0,-0.0,0.0,-0.0,0.0,-0.0,1.1165583,0.10111918,-0.0,0.0,-0.0,1.1208599,-0.0,-0.0,-0.0,-0.0,0.80085856,0.0,-0.0,-0.0,-0.0,1.5314758,0.01018611,0.0,0.9906062,2.2511005,0.11601687,-0.0,0.08823324,0.0,-0.0,-0.0,0.4907424,0.0,-0.0,-0.0,-0.0,-0.17405608,-0.0,1.9154053,0.0,2.222107,0.36678788,0.44183,-0.0,-0.7072144,-0.0,-0.5176284,0.64136016,1.4332987,-0.0,-0.3515932,-0.018239008,0.49329084,0.0,0.0,-0.70080876,-0.0,-0.0,-0.83044225,-0.0,0.0,0.0,-0.0,0.0,0.0,-0.4302085,0.0,0.0,-0.0,-0.0,1.7470084,0.58761597,-0.022135347,0.83854914,0.86808044,0.21256751,0.0,0.0,1.2924159,0.0,0.4375572,1.2941799,-0.0,-0.0,-0.0,-0.0,-0.0,-0.0,-0.0,-0.17405552,1.3339025,0.6314002,-1.1985883,0.7227104,0.0,0.10410505,-2.0839293,0.59776145,-0.0,-0.0,0.0,0.0,-0.0,0.0,0.0,0.8686187,0.0,-1.3808937,0.0,0.0,0.0,-0.0,-0.0,0.4784757,-0.0,-0.39870125,0.60692877,0.04608131,-0.51893264,-0.0,-0.0,-0.0,-0.8743083,-0.0,0.0,1.3037567,-0.0,0.0,0.0,0.33298334,-0.0,-0.0,0.4719929,0.21505459,-0.0,-0.37402287,-0.0,0.41876328,0.0,-0.3949986,-0.0,0.47846577,0.52143633,-0.0,-0.0,0.88460374,0.5725903,-0.0,-0.32810152,-0.0,0.0,-1.1760969,-0.0,2.1945891,1.0423489,-0.2541312,0.5596213,-0.0,0.71140677,-0.0,0.691149,0.45487854,0.00061509665,0.0,-0.0,-0.38608655,2.7960541,-0.0,0.0,-0.0,1.6847034,-0.16551599,-0.0,0.5450398,0.06686137,1.4685377,-0.0,0.0,1.3682065
0.30813155,0.0,-0.0,-0.0,-0.0,-0.0,0.0,0.0,0.0,0.0,-0.0,0.0,-0.44530866,0.0,0.0,-0.0,-0.0,0.37034822,0.0,0.0,0.0,-0.0,0.83485657,0.52709055,0.0,-0.0,-1.265362,-0.19875968,0.0,0.0,0.0,-0.0,0.0,0.29856417,0.30413276,-0.0,0.0,-0.0,0.0,0.0,-0.27000436,0.0,-0.0,-0.0,-0.0,-0.0,-0.0,0.0,0.0019293588,-0.0,0.0,0.0,0.0,-0.0,0.16278747,-0.6147931,0.0,0.0,-0.0,0.0,-0.0,0.0,0.0,0.86509216,0.0,0.16087976,-0.0,0.5264267,0.0,0.0,0.0,2.0239677,0.24215128,-0.0,-0.0,-0.0,0.0,0.0,-0.0,0.0,0.0,-0.0,-0.0,1.2129973,-0.0,-0.0,-0.0,0.0,0.0,0.0,0.0,0.0,0.0,-0.0,-0.0,0.16774599,0.0,0.0,-0.0,-0.0,-0.0,-0.0,0.0,1.3862535,-0.0,0.0,0.0,-0.0,-0.16867311,0.0,-0.0,0.0,-0.0,-0.0,0.0,0.0,0.0,0.46917817,0.6172389,-0.0,0.0,0.0,0.0,-0.0,0.0,-0.55862176,0.0,-0.0,-0.0,0.0,-0.0,0.0,-0.0,-0.0,-0.24089332,-0.0,0.0,0.101926826,-0.38389897,0.0,0.6763564,0.0,0.0,0.0,0.010767249,-0.0,-0.26248556,-0.10917576,-0.0,-0.0,-0.0,0.0,-0.0,0.22095634,0.0,0.0,0.0,0.0,0.0,0.0,-0.72652924,0.20103279,-0.38998488,0.0,-0.0,0.0,0.2574923,-0.19392121,0.00063400064,0.4726031,0.0,-0.0,0.346966,0.95416284,-0.8440312,-0.0,0.0,-0.4403202,0.0,0.8407098,0.0,-0.0,-0.21153525,0.75477177,-0.0,-0.0,0.0,-0.7412677,0.0,-0.0,0.0,-1.2955337,0.0,-0.9639195,0.0,0.0,-0.3707873,-0.0008324901,0.0,0.085373394
-0.0,-0.0,0.0,0.0,2.1854634,0.0,-0.0,-0.0,-0.31740353,0.0,-0.0,0.0,-0.0,-0.0,0.0,0.0,0.0,0.0,0.0,0.18537633,-0.0,-0.0,-0.0,-0.0,0.32978243,0.0,-0.38693446,-0.0,-1.0962878,-0.7116149,-0.0,0.0,-0.0,-0.0,-0.0,0.0,-0.0,0.0,0.0,0.0,0.0,0.0,0.59659463,2.1399448,-1.3719115,0.0,0.57653874,0.0,-0.07858271,-0.0,0.0,-0.11684817,-0.27438962,0.0,2.2093933,0.0,-0.7060156,0.2152648,-0.9038839,0.41590962,0.0,-0.27846268,0.46075913,0.0,0.0,0.0,0.0,-0.0,0.0,-0.6999719,-0.0,-0.0,0.0,-0.0,0.0,-0.0,-0.0,-0.0,-0.81865436,0.0,-0.0,0.0,-0.0,-0.0,-0.0,-0.0,-0.0,0.839916,0.0,-0.0,-0.085771374,-0.0,-0.0,0.0,-0.74657124,0.0,0.0,0.0,-0.0,-0.0,0.0,-0.0,0.0,0.32476532,1.1351544,-0.0,0.5283822,-0.0,-0.0,1.4356974,-0.0,-0.0,-0.117702685,0.0,0.0,0.0,-0.0,0.0,0.0,0.049533825,-0.0,0.0,-0.116515175,-0.0,-0.0,-0.31094036,-0.0,-0.0,-0.0,0.0,0.0,0.0,-0.0,-0.0,-0.54169154,-0.0,-0.0,0.16221912,0.4479229,-1.7161965,0.0,0.0,-0.0,-1.0669458,0.15851866,-0.0,-0.8352869,0.6527655,-0.34392846,0.0,0.0,-0.0,0.0,0.0,0.0,0.0,-0.0,0.31619024,-0.54888064,0.0,-0.0,-0.30172727,0.0,1.1153303,-0.0,0.0,-0.05504175,0.0,0.0,1.5169228,-0.0,-0.0,-0.0,0.6230127,0.0,0.6563347,-0.067165,-0.0,0.0,-0.10054642,-0.0,0.0,-0.0,-0.16537243,-0.0,0.0,0.0,0.6227218,0.0,0.0,-0.21791506,0.0,-0.4025881,1.4912294,0.0709581,0.0,0.0,-0.0,-0.0,-1.2266544
-0.0,-0.0,-0.0,0.0,-0.0,0.0,0.0,0.0,-0.37854972,0.0,-0.0,-0.0,0.0,0.0,-0.0,0.41232085,-2.1800086,0.0,-0.11487726,-0.5896145,0.0,0.0,0.0,0.0,-0.0,-0.0,0.32055518,0.46184906,-0.0,0.0,-0.0,-0.0,0.0,0.0,-0.41955665,0.0,-0.0,0.24469279,-0.0,0.12187505,-0.0,-0.0,0.0,0.0,1.2647132,-1.3154258,-0.18560466,0.0,-0.73679143,0.17277825,-0.0,0.0,0.0,0.0,-0.0,0.0,0.0,-0.0,-0.50360376,0.0,0.7307838,0.0,0.08714517,-0.0,-0.0,0.53872293,-1.507743,0.16662459,-0.0,0.3866839,0.89024526,0.74718124,1.3030304,0.0,-0.0,-0.0,-0.0,0.6202306,0.7957757,0.0,-0.0,0.0,0.0,0.67421067,1.2187215,0.0,0.0,-0.29389167,-0.0,0.0,-0.0,-0.0,0.0,0.76270634,0.0,-0.0,0.0,-0.0,0.0,-0.0,0.46977434,-0.0,0.0,-1.3152393,-0.0,0.21765326,0.0,0.0,0.0,-0.0,-0.0,-0.29421902,0.0,-0.0,0.0,0.042111117,0.0,0.3301467,-0.13343504,0.0,-0.0,0.066042505,0.20108521,0.0,0.0,0.0,-0.6928872,0.0,0.0,0.0,0.74257326,-0.0,-0.0,0.0,1.2783551,-0.0,-0.0,0.0,-0.0,0.0,-0.012200881,-0.0,-0.0,-0.0,-0.35568485,0.0,1.0161024,-0.9978569,0.0,0.0,-0.0,-0.0,-0.0,-0.0,0.3164511,0.0,0.0,-0.0,0.0,-0.0,-0.0,0.0,0.0,-0.0,0.0,1.4863563,-0.67962974,0.0,-0.0,0.0,0.0,0.0,0.5120038,0.0,-0.9218119,-0.6339606,-0.0,0.0,0.0,0.0,-0.0,0.54739773,0.0,0.0,0.0,-0.0,0.0,-0.0,-1.0089184,-0.0,0.0,-0.24319594,-0.0,0.44386274,0.0,-0.0,0.0,0.6302372,0.0,-0.0
0.0,0.2610998,-0.0,0.0,-1.3038303,0.0,0.0,-0.0,0.21632607,0.41145685,0.4301497,1.1602812,-0.0,1.6838071,0.0,-0.0,0.65557414,0.0,0.0,-0.19771686,0.0,-0.08843157,-0.0,0.5578274,-0.0,1.5093635,-0.88156134,0.6918107,-0.0,0.18630931,0.9196579,0.124138944,0.0,0.6883092,-0.0,0.0,0.0,-0.0,0.0,0.0,0.29796243,0.0,0.32530516,0.78091884,0.30159515,0.7748179,-0.0,0.0,0.35641146,0.16239469,0.0,0.15907505,-1.3339148,-0.0,0.0,0.0,-0.09549733,0.0,0.8340315,-0.0,-0.0,0.0,-0.0,-0.0,0.0,-0.34747854,0.105977796,-1.2836949,-0.0,-1.4563518,0.26383394,0.0739535,-0.0,-0.65677404,0.0,-0.0,0.0,0.38867024,-0.0,0.0,0.0,0.0,0.0,0.0,-0.0,0.0,-0.0,0.0,0.0,0.0,0.0,0.0,0.0,0.14994182,-0.0,0.0,-0.0,-0.0,-0.0,-0.0,0.41501516,0.0,0.029055255,0.19151509,-0.0,-0.53933966,0.0,0.41263908,-0.0,-0.0,-0.0,0.0,-0.0,-0.0,0.30774707,-0.0,0.0,-0.0,-0.0,1.9269322,-0.0,-0.0,0.0,-0.0,-0.0,-0.0,-1.2448447,-0.0,-0.033199873,-0.0,0.0,-0.0,-0.0,-0.0,-0.0,-0.0,-0.26568958,1.1060619,-0.3147989,0.0,-0.0,0.0,0.0,0.0,0.0,-0.0,0.0,-0.42329633,0.6159704,-0.0,-0.0,-0.074985735,-0.0,-0.0,-0.0,-0.31217447,0.0,0.0,-0.0,0.0279598,-0.3397766,0.0,0.0,0.0,0.0,-0.0,-0.0,0.0,-0.0,0.0,0.0,0.55467373,0.0,0.0,-2.0273454,-0.2518861,-0.0,1.0482345,-0.882721,0.0,0.0,0.15674616,0.0,0.72600996,-0.0,0.0,-0.39927876,-0.7147553,-0.0,-0.0,0.061903007,0.04409513,0.0,-0.11005223,0.0,2.706932,-0.0,0.0,-0.67616874,0.73895305
-0.0,0.0,-0.0,-0.2401246,0.0,0.7472645,-0.111159325,-0.5677621,1.2835739,0.0,-0.0,0.0,-2.764571,-0.0,0.26132855,0.23013835,0.41402742,0.4695803,0.0,-0.29463193,0.0,-1.8474983,-0.0,-0.0,0.0,0.21477182,0.0,-0.927647,-0.0,-0.0,0.0,-0.0,-0.0,-0.0,-0.0,0.16106318,-0.515779,0.0,0.0,-0.0,0.0,0.0,0.0,0.0,-0.642256,-0.0,-0.0,0.0,-0.0,0.0,0.0,-0.0,0.0,-0.0,0.0,-0.0,-0.1693854,0.0,1.4589679,0.0,0.0,-1.3157476,-1.0477204,-0.0,-0.0,-0.0,-0.0,0.2119481,-0.5525979,0.081612095,1.4535005,1.1391252,1.2279001,0.0,0.8692681,-0.47090435,0.43365857,-0.0,0.0,0.0,0.8199124,-0.85817415,-0.0,0.0,0.51508707,-0.0,0.43905392,-0.23602892,0.0,0.0,0.0,0.0,-0.43233684,0.8043465,-0.0,-0.30103213,0.6210256,0.0,-0.0,-0.0,1.1054707,-0.0,-0.0,0.9068833,-0.0,0.0,-0.7519119,-0.0,-0.0,-0.078685716,-0.0,-0.0,0.0,-0.64452165,-0.0,-0.0,-0.0,0.13807502,-0.95805883,-0.0,0.0,0.0,-0.0,0.0,-0.6693761,-0.9558805,-0.0,0.0,0.34800065,-0.43212613,-0.0,0.0,0.0,0.005927112,0.41823605,0.24152917,0.0,0.5005617,0.0,-0.0,0.0,-1.1015813,-0.0,0.0,0.0142581975,0.07474961,0.32104674,-0.0,0.23227166,0.0,0.0,0.7607095,-0.6452512,-0.5994926,-1.0125611,-0.0,-0.0,-0.0,-0.0,0.0,-0.0,-0.3821564,-0.0,0.0,-0.0,-0.0,-0.61655504,-0.02800175,0.0,0.0,0.0,-0.0,-0.0,0.0,0.0,-0.0,-0.0,-0.6864944,-0.0,-0.0,-0.0,0.060186565,-0.0,0.0,0.25026038,-0.0,0.0,0.0,-0.0,-0.0,0.0,-0.65990573,-0.0,0.0,0.0,0.0,-0.0,0.0,-0.0,-0.16428933
-0.0,-0.0,-0.0,-0.0,-0.0,-0.0,-0.61406535,0.0,0.7127988,0.16047941,0.09327228,-0.0,-3.4149935,-0.1233877,-0.0,0.0,0.0,-0.28999114,1.3840282,0.0,-0.0,-0.0,0.0,0.0,-0.0,0.0,0.31638676,0.8025346,-1.3929914,-0.0,0.0,-0.0,-0.0,-1.2792373,0.0,-0.0,-0.46841317,0.4147488,-0.119122386,0.0,0.0,0.0,-0.0,0.48264804,-0.0,-0.0,0.52286756,-0.0,0.0,-0.0,-0.0,0.0,0.0,0.06254088,0.0,-0.0,-0.0,1.5253333,0.0,0.0,-0.0,0.22330737,-0.0,-0.0,0.0,0.0,-0.1165571,0.12735777,0.0,-0.0,0.53707,-0.0,0.0,0.0,0.0,-0.0,0.45810378,0.9049743,0.0,-0.0,0.73188317,-0.0,-0.0,0.35879275,0.0,-0.0,-0.0,-0.0,0.34796822,0.0,-0.33408493,0.5347137,-0.0,-0.0,-0.0,-0.5748795,-0.0,0.0,0.0,-0.09083821,-0.0,0.6905584,-0.0,0.23875871,0.0,0.0,-0.0,-0.0,-0.35150665,-1.128575,0.0,1.2403264,-0.0,-0.0,0.0,-0.13009086,-0.0,-0.0,0.067607015,0.0,0.0,-0.0,-0.0,0.5225832,-0.0,-0.0,-0.0,0.0,-0.0,-0.17595932,-0.0,0.0,0.0,0.0,0.84792405,0.0,-0.0,0.0,0.0,-0.0,0.030237066,0.0,0.0,-0.0,-0.0,0.0,-0.0,0.0,-0.0,0.0,0.1993591,0.0,-0.0,-0.6647101,0.0,-0.0,-0.0,0.0,0.0,-0.0,0.0,-0.0,-0.74829155,0.6659715,-0.0,0.0,-0.0,0.18052357,0.58594894,0.017846437,-0.0,0.09716046,0.0,-0.91248137,-0.0,-0.0,-0.0,0.6573706,-0.0,-0.0,0.0,-0.0,0.23995171,-0.0,-0.5211053,-0.33375686,0.7360128,-0.0651321,0.0,0.9738111,0.92687345,0.20805542,-0.0,-0.0,0.0,-0.0,0.99327093,-0.0,-0.2981303,-0.0
0.25887972,0.19585116,0.0,0.18393743,0.0,0.0,1.2518942,-0.0,-1.4272844,-0.0,-0.0,0.0,2.8329685,0.0,0.0,0.48802415,0.43644282,-0.0,0.0,-0.037739947,0.0,0.0,-0.0,-0.0,0.0,-0.0,0.0,0.908435,-0.5537121,1.5699515,0.0,0.0,0.0,0.8013409,0.2500505,0.0,0.1408519,-0.0,0.0,-1.4754384,0.7033787,0.0,0.0,-0.9310305,-0.0,-0.0,-0.459547,-0.0,0.0,-0.0,0.0,-0.0,0.0,-0.3100358,-0.0,0.0,0.0,-0.0,-2.4499247,0.0,-0.5244122,0.0,0.0,0.0,-0.0,-0.0,0.528155,-0.0,0.103693716,0.0,0.0,0.0,-0.0,-0.0,-0.0,0.0,-0.2787187,-0.0,-0.0,0.0,-0.0,0.0,0.0,0.6277135,-0.4425062,0.0,-0.36328477,-0.09096737,0.0,-1.3283836,0.45555228,-0.0,1.2973063,-0.0,-0.0,-0.14313935,0.0,-0.0,-0.0,-0.0,-0.38195452,-0.0,-0.014690212,-0.41472524,-0.0,-0.13898067,0.6891484,0.0,-0.0,-0.0,0.9979719,0.0,-0.0,0.0,-1.1768551,-0.0,0.0,-0.27517924,-0.0,-0.0,-0.0,0.0,0.0,-0.0,0.53643894,0.7711883,-0.5652586,-0.0,0.0,0.21898097,0.0,-0.0,-0.0,-0.0,0.15057962,-0.0,0.0,-0.049223468,-0.0,-0.0,-0.29592466,-0.13715306,0.0,-0.0,0.06723008,-0.0018094266,0.0,-0.0,-1.2743919,-0.22217397,0.0,0.0,-0.0,1.0561924,0.0,-0.23551615,0.3667242,-0.0,-0.0,-0.0,-0.0,0.0,0.0,0.0,0.0,-0.0,1.6525276,1.0342009,0.0,0.47757256,0.0,0.8937774,-0.0,0.7990816,0.0,-0.0,-0.0,-0.0,0.0,0.0,0.0,0.0,0.0,0.0,-0.52020806,0.0,0.0,0.0,0.0,-0.0,-0.34531334,-0.0,0.0,-1.3319436,-0.0,0.0,-0.23542397,0.0,0.4877067,0.0
-0.6207185,-0.29117656,0.0,0.0,0.0,-1.0276289,-1.1389054,0.21287127,0.0,-0.07469008,0.0,-0.0,0.2141227,-0.0,0.0,0.0,0.0,-0.08617661,-0.0,0.0,-0.0,0.48420206,0.0,-0.0,-0.0,0.0,-0.0,0.24329469,0.0,-0.0,-0.0,0.0,0.0,0.0,0.0,-0.0,-0.0,0.0,-0.0,0.0,-0.0,-0.0,-0.0,0.0,0.0,0.0,0.0,-0.0,-0.0,0.0,-0.5030117,0.0793928,0.0,0.0,0.06935885,-0.0,-0.06846606,-0.70342106,0.3826168,-0.0,0.0,-0.0,0.46792307,0.0,-0.0,0.0,0.0,0.32288828,-0.0,0.15053825,-0.3370349,-0.73138934,0.0,0.018078716,0.0,-0.0,-0.0,-0.34767637,0.0,-0.0,-0.7370841,-0.0,0.0,-0.0359801,-0.08199845,-0.89451677,0.0,-0.0,-0.93368685,0.0,-0.2469054,-0.0,-0.0,0.24753876,0.0,-0.0,-0.0,-0.5847695,0.59701383,0.0,0.0,0.0,-0.0,0.0,0.0,-0.0,0.0,0.0,-0.0,0.39179358,0.0,-0.6973453,-0.11559694,0.0,-0.21357176,-0.0,-0.0,0.0,0.0,0.0,-0.0,-0.0,-0.0,-0.0,-0.0,0.23786402,-0.0,-0.0,0.0,-0.0,0.0,0.0,0.0,0.0,-0.0,-0.0,-0.0,0.0,-0.029878339,0.0,-0.0,-0.0,-0.0,-0.0,-0.24375924,0.0,0.0,0.0,0.0,0.0,0.0,-0.0,0.0,0.0,-0.0,-0.0,-0.84444964,-0.5884891,-0.0,-0.0,0.0,-0.0,0.0,-0.0,-0.021746207,1.604055,-0.0,-0.0,-0.0,-0.32434824,-0.24576423,0.0,0.0,-0.9597612,-0.0,-0.0,-0.0,0.41723877,-0.5799212,-0.0,-0.75810885,0.0,0.0,0.0,0.0,-0.0,-0.0,0.0,-1.5614222,0.0,-0.0,-0.0,-0.0,0.0,-0.0,-0.0,-0.0,-0.0,-0.0,0.66576034
-0.6695739,-0.0,-0.0,-0.0,0.0,0.5386564,-0.0,0.044096764,1.3980072,0.0,-0.35117516,0.0,-0.0,-0.4708856,-0.0,0.0,0.0,-0.2405137,-0.0,-1.1681336,-0.0,-0.0,0.0,-1.8075022,-0.0,-0.0,0.64439553,-0.0,-0.6991674,-0.0,-1.4397681,-1.059552,-0.0,-0.0,0.0,-0.6906293,-0.31420022,0.0,0.0,-0.16350073,0.0,-0.44991347,-0.0,0.0,-0.0,-0.0,1.0110556,-0.0,-0.083047934,0.0,-0.47132975,-0.0,0.0,-0.0,0.0,-0.0,-0.0,0.0,-0.0,0.0,-0.24086355,-0.0,-0.0,-0.0,-0.0,-0.0,-0.0,0.03200047,0.0,0.0,-1.1419137,-0.0,0.0,0.0,-0.0,0.0,0.09002646,-0.0,0.1563368,-0.0,0.0,-0.0,-0.0,-0.0,-2.0042257,-0.0,-0.0,0.0,0.0,-0.3356424,0.0,0.0,0.61367214,-0.0,-0.23507342,-1.7121202,0.0,-0.93064547,0.0,0.0,-1.2522824,1.0133712,-0.0,0.28192067,0.38855025,-0.3652607,0.40231568,-0.0,-0.209036,0.0,-0.5130662,-0.0,-0.0,-0.0,-0.3150794,0.333793,-0.0,0.0,0.0,-0.0,0.0,-0.0,-0.0,0.0,0.0,-0.53640753,0.0,2.263536,0.0,0.0,-1.562655,0.0,0.9512377,2.1669111,0.30404723,0.0,-0.3557082,0.9645469,-0.0,-0.29018435,0.0,-1.4045081,0.0,0.0,0.26197627,-0.98634046,-0.0,-0.28068012,0.81255335,-0.0,-0.6935699,0.27019295,0.0,-0.0,0.0,-0.0,-0.0,0.0,-0.0714888,-0.4550155,0.8144712,-0.0,-0.0,-0.0,-0.0,-0.48713076,-0.0,0.48703825,0.0,-1.6138955,-2.0248225,-0.0,0.0,-1.4722047,-0.022213655,0.0,0.0,-0.0,-0.0,-0.0,-0.69768125,-0.0,-0.0,-0.0,0.0,-1.9602493,0.0,0.0,0.052182395,0.11836877,0.0,0.557612,0.0,0.0,0.39716405,0.0,0.7902552,-0.0,0.0,-0.0
-0.0,-0.0,-0.0,-0.0,0.0,-0.42895535,-0.0,0.0,0.0,-1.2095085,0.0,-0.0,0.63932705,-0.12728114,-0.0,0.27648392,-0.0,0.0,-0.0,0.13467367,0.040715605,-0.0,0.0,0.0,0.563044,-0.0,-0.3294518,0.0,0.46206975,0.0,-0.0,-0.0,-0.0,-0.0,-0.7541186,-0.0,0.0,0.72918636,-0.0,0.0,0.0,0.622564,-0.0,-0.0,0.0,-0.15682729,0.0,-0.0,0.0,0.0,0.5078179,0.0,0.0,0.63657343,-0.0,-0.0,-0.0,0.0,-0.5115203,0.0,0.17244662,-0.0,0.122784734,-0.0,-0.0,0.0,0.30385646,0.953864,0.0,0.0,0.05111121,0.11111718,0.762253,0.0,-0.0,-0.0,0.5436593,-0.0,0.54169005,-0.0,0.0,-0.0,0.654912,0.7500612,0.0,-0.0,-0.0,0.04908388,0.9415655,0.0,0.0,1.0447031,-0.0,0.0,0.0,-0.0,0.0,-0.0,0.0,0.018652547,-0.7976557,-0.0,0.0,0.2206928,0.21573232,0.030910274,-0.0,-0.0058968654,-0.2668941,0.0,0.0,-0.0,0.0,-0.0,-0.0,0.0,-0.0,0.0,0.9448896,0.0,0.0,-1.1303477,-0.0,0.39347756,0.0,-0.012147124,-0.0,0.0,0.4216176,-0.0,-0.0,0.0,0.0,0.0,-0.0,0.0,-0.0,-0.0,0.0,0.0,-0.2599996,0.0,0.0,-0.0,-0.42001048,0.43344295,-0.33202568,0.0,-0.6875144,0.0,-0.0,-0.2337113,0.0,-0.0,0.0,-0.0,-0.0,0.0,-0.0,0.0,0.0,0.27149126,-0.0,-0.0,-0.0,0.0,-0.0,0.44364563,-0.0,0.0,-0.14391665,-0.0,0.0,0.0,-0.0,-0.0,0.0,0.0,0.6010302,0.76874006,0.56503266,-0.0,-0.0,-0.0,0.0,-0.0,0.0,0.0,-0.0,0.0,-0.17629142,0.0,-0.5698856,1.0549246,0.0,-0.0,0.0,-0.0,0.0,1.0290419
0.47721565,0.43790644,-0.0,-0.0,-0.0,0.17904097,0.0,-0.0,-0.94146097,0.0,-0.0,0.0,-0.24649735,0.12289941,-0.0,-0.0,-0.0,0.2344327,-0.21578208,0.73865277,0.0,-0.0,0.5687542,0.41548315,0.0,-0.0,0.0,-1.3293046,-0.25542948,0.0,0.0,-0.0,0.0,-0.0,0.3973986,0.0,0.0,-0.0,0.0,-0.78076005,0.0,0.0,0.4116888,0.46891177,-0.0,-0.0,-0.0,0.6250453,-0.45816836,-0.052232705,0.0,0.0,0.0,-0.0,0.0,0.0,0.0,0.0,0.09452535,-1.0600346,-0.0,0.0,-0.60554916,-0.0,-0.0,-0.0,-0.0,0.20812792,0.0,0.0,0.0,-0.0,-0.05643969,0.0,-0.46980742,0.0,0.0,0.0,-0.0,0.0,0.0,0.0,-0.0,-0.0,-0.48653194,-0.0,-0.0,0.0,0.0,0.0,0.0,0.0,0.0,-1.5637941,-0.0,0.0,0.0,0.0,-0.0,-0.3428689,-0.0,-0.0,0.0,-0.11073601,-0.0,0.0,0.0,-0.0,0.0,0.0,-0.0,0.0,0.1896093,-0.0,0.26409933,0.0,0.0,-0.0,-0.0,-0.0,0.0,0.81722474,0.0,0.0,0.0,0.009372978,-0.19813135,-0.61939925,-0.0,0.0,-0.0,-0.0,-0.0,-0.0,0.0,0.0,0.0,-0.0,-0.3419103,-0.0,0.03490567,0.0,-0.1254121,0.0,0.12572262,-0.0,-0.0,-0.0,-0.0070730415,-0.0,-0.0,1.1310846,-0.0,-0.0,0.0,-0.76008785,0.2704555,0.8365147,0.0,-0.6002797,-0.0,0.0,-0.0,0.0,-0.6279456,0.0,-0.47478437,-0.3011196,0.0,0.3385257,0.0,-0.0,0.12724163,0.0,-1.4932177,0.0,0.0,-1.2606745,-0.0,0.0,0.0,-0.0,-0.0,1.1474844,-0.0,0.0,0.0,-0.39385578,0.0,-0.0,0.0,-0.96646816,-0.6791791,-1.044522,0.73239106,-0.0,-0.38559046,0.0,-0.620159,-0.44815618
0.0,0.0,-0.0,0.8892906,1.1435543,0.33815405,0.0,0.0,0.34804723,0.0,1.7172526,0.0,-0.48734143,0.0,0.0,-1.4113909,0.15851189,0.0,0.0,0.0,0.0,-0.4607082,0.6280496,0.0,-0.0019122388,-0.0,1.7361779,0.5677801,-0.23228131,0.0,0.16819742,0.4377355,-0.0,-0.7273585,-0.45306623,0.0,0.51644224,-0.0,0.0,0.0,0.72276807,0.0,0.0,0.0,-0.0,-0.0,-0.29614335,0.78945994,0.0,0.11980029,0.0,0.009353903,0.060929663,0.15706205,-0.12284045,0.0,0.6675647,0.0,-0.5834819,0.0,0.1450245,-0.41762838,-0.0,-2.2112124,-0.29229543,-0.0,-0.0,-0.0,-0.0,0.0,0.0358147,0.0,0.0,-0.26673406,-0.80554783,0.0,0.0,0.0,-0.0,0.0,0.0,0.0,0.0,0.0,-1.4045366,0.0,-0.0,0.0,-0.0,0.0,1.1093073,0.0,0.0,-0.0,1.8486935,-1.2007334,0.0,0.0,-0.0,0.0,0.30128253,-0.3959885,-0.0,0.08546944,-0.104623385,-0.0,-0.0,-0.0,0.33608493,-0.0,-0.18576588,-1.1336205,-0.0,0.0,-0.0,0.4522718,0.14460109,-0.0,0.20555213,0.0,0.47692513,-0.5136798,-0.0,0.5612085,0.0,0.0,-0.0,-0.0,0.0,0.0,0.0,-0.0,-0.0,-0.0,0.7311788,-0.0,-1.0577489,-0.23258829,-0.0,0.3697053,-0.21635157,-0.7522456,0.0,0.0,-0.028848968,-0.0,0.0,0.5516955,-0.0,-0.0,-0.0,0.2960517,-0.0,-0.0,0.0,2.222697,0.0,0.5935543,-0.7290139,1.3600676,0.0,0.0,-0.19595145,-0.0,-0.0,-0.0,-0.1856561,0.0,-0.409507,0.0,0.0,0.6731712,-0.31406087,0.0,0.670998,0.65972835,0.85063934,1.2673875,0.0,0.0,0.0,0.0,0.0,0.0,0.0,-0.0,0.0,1.0286527,0.0,1.0809287,0.15690945,0.15794076,0.0,1.1504264,-0.0,-0.0,1.2759764,0.0,0.0,1.4311996
-0.0,-0.070848815,-0.05561211,-0.9094943,0.0,-0.0,-0.0,-0.55375767,0.7298607,-0.9149135,0.0,-0.0,-0.0,-0.0,-0.0,0.55364364,-0.57237357,0.6203664,-0.0,-0.29798666,-0.0,-0.15550707,0.0,0.0,-0.0,0.0,-1.1917223,-0.8913985,0.0,-0.85013556,-0.0,-0.0,-0.0,-0.0,0.0,0.8563843,0.0,0.0,0.05136276,0.0,-0.8317483,0.0,-0.0,-0.0,0.0,-0.0,0.007902724,-1.3494624,-0.128109,-0.0,-0.0,0.1045516,0.0,-0.3340641,-0.013481453,0.7223456,0.10406685,-0.3477503,0.5937976,0.0,0.0,-0.0,0.03243231,-0.0,0.0,0.0,-0.0,0.0,0.0,-0.0,-0.0,0.38443944,0.4737194,0.0,0.76367646,-0.0,-0.0,-0.0,0.0,-0.0,0.5269106,-0.0,-0.0,-0.0,0.0,0.5719684,-0.0,-0.0,-0.0,-0.41320252,-0.733816,0.0,-0.0,0.0,-0.48197278,-0.716564,-0.49450845,-0.6804902,0.0,-0.0,-0.0,0.0,0.0,0.43644258,0.0,-0.0,0.5758285,-0.0,0.0,0.0,-0.26199248,-0.0,0.0,-0.0,-0.0,0.0,-0.0,0.0,-0.16567631,0.5124239,0.0,-0.49226978,0.0,0.0,-0.0,-0.0,-0.0,0.0,-0.0,-0.0,-0.0,0.0,0.0,0.0,-1.0216544,0.0,0.096182235,0.56260663,0.0,-0.0,0.24340616,0.0,-0.0,-0.25465778,-0.0,0.0,0.11541862,0.0,-0.0,-0.100172654,-0.0,0.0,0.0,-0.99214756,-0.0,-0.0,-0.0,0.0,-0.0,0.0,0.0,-0.0,-0.0,-1.3049614,-0.24770983,0.0,-0.0,-0.0,-0.0,-0.2376576,-0.0,-0.30123356,0.76734746,-1.3350253,-0.0,0.0,-0.3162598,-1.4263014,-0.0,-0.0,-0.0,-0.0,-0.0,-0.0,0.0,-0.0,0.2385443,0.0,-0.0,-0.55448985,0.0,-0.09039159,-0.0,0.7516939,0.0,-0.0,0.0,-0.0,-0.0,-0.0
-0.0,-0.0625808,0.0,0.0,0.33228558,-0.0,-0.0,-0.0,-1.1703268,0.0,-2.032551,-0.019692583,1.3413591,-0.5863077,-0.0,-0.048033793,0.0,0.0,0.0,-0.0,-0.0,0.0,-0.0,-0.0,-0.0,-0.24335958,-0.0,0.0,-0.0,-0.0,-0.0,0.0,0.0,-0.0,-0.28327012,-0.0,-0.18850514,0.0,-0.04928857,-0.0,-0.0,0.0,0.33779863,-0.0,0.0,-0.23820797,0.0,0.0,0.6270625,-0.19058435,-0.0,-0.0,0.57123846,0.0,0.0,-0.0,-0.0,-0.0,-0.77716494,-0.0,-0.0,-0.45565858,0.0,-0.0,-0.0,0.48234516,-0.19688304,0.0,-0.0,0.0,-0.0,-0.0,-0.0,0.632376,0.0,-0.0,-0.0,-0.0,0.0,-0.0,-0.0,-0.0,-0.714915,-0.0,-0.0,-0.0,0.0,-1.1449811,0.0,-0.8053361,-0.0,0.0,-0.0,0.67321527,0.0,0.0,-0.0,0.0,0.0,-0.0,-0.47552228,-0.14175157,0.0,-0.67410654,0.73687476,0.69211674,-0.7861128,0.0,0.5427264,-0.43906343,-0.0,0.0,0.0,-0.0,-0.12129513,0.0,-0.0,-0.0,0.19843961,-0.0,0.0,-0.0,0.0,0.0,-0.0,-0.0,-0.0,0.0,-0.0,-0.0,-0.0,-0.6854451,0.0,0.0,-1.4211828,0.0,0.557285,-0.4721076,0.0,0.12208391,0.0,0.72727334,0.27962038,-0.0,-0.0,0.0,0.39259544,0.5211114,-0.50868917,0.0,-0.0,-0.0,0.0,-0.20445538,0.0,-0.35568568,-0.0,-0.4689715,0.0,-0.5162707,-1.8798766,-0.42564002,0.69841707,0.0,-0.0,0.0013514898,-0.8458997,0.21403377,0.0,1.4017199,-0.0,0.0,-0.0,-0.0,0.0,0.0,-0.0,0.55599207,-0.0,-0.0,-0.14009355,-0.0,-0.43263015,0.0,-0.0,0.0,-0.23281428,-1.4285768,0.0,-0.012009701,0.0,0.0,0.6041976,0.26802516,0.0,-0.0,0.0,0.32223603,-0.0,-1.2969445
-0.0,-0.20101392,0.9840118,0.0,-1.1303173,-0.0,0.0,0.0,1.0849551,-1.3164324,0.0,-0.0,1.8798621,0.0,-0.0,-0.0,0.180774,0.0,0.0,-0.0,0.0,0.0,-0.67023563,0.0,-0.33528775,0.0,-0.28228325,0.0,0.0,-0.17258264,0.0,-0.0,0.0,0.0,0.0,-0.0,-0.15238553,-0.0,-0.0,-0.0,-0.0,-0.0,0.0,-0.6427846,0.0,0.88662606,-0.38269794,-0.0,0.09835908,-0.0,-0.0,0.0,-0.0,0.9678413,-1.1503408,0.0,-0.23162477,-0.0,1.1546388,-0.0,-0.0,0.86376363,-0.0,-0.0,-0.5910674,-0.0,-0.0,0.0,-0.0,-0.0,-0.0,-0.0,-0.0,0.0,0.0,-0.0,-0.0,0.0,0.0,-0.0,0.0,-0.0,-0.0,0.0,-0.4439089,-0.0,0.0,-0.0,-0.0,0.0,-0.0,0.41469386,0.0,-0.0,-0.0,-0.0,-0.0,-0.0,0.0,0.30588752,-0.0,0.0,0.0,0.12835878,0.29875973,-0.45430356,0.0,0.0,0.0,-1.0179594,0.30514807,-0.0980514,-0.0,-0.0,0.0,0.65520906,-0.0,-0.2552366,0.0,0.0,0.0,-0.0,-0.0,0.0,-0.0,0.48085698,-0.22724092,-0.24692483,-0.0,-0.0,-0.0,0.0,-0.37686136,0.0,-0.0,0.0,-1.3188825,0.0,-1.0034161,0.0,0.0,-0.35850424,0.0,0.045479164,-0.5091801,-0.0,0.0,0.0,0.0,1.1221625,-0.0,-0.13256344,0.34450212,-0.16268505,-0.38469926,-0.0,-0.19245698,-0.0,0.8772094,-0.0,0.0,-0.19405141,0.0,0.7149992,0.0,-0.0,-0.0,-0.0,-0.0,-1.121405,0.0,-0.0,0.0,0.0,-0.6498704,0.0,-1.8551732,0.0,0.0,-0.6047396,0.0,-0.0,-0.0,0.0,0.0,-0.0,0.0,-0.0,-0.0,-0.7668523,0.0,1.1800836,-0.0,-1.5837506,0.0,-0.0,-0.15428671,-0.22651687,-0.0,0.65020853
0.35962814,-0.2684695,0.73041654,0.0,-0.24359508,-0.6549721,-0.0,-0.0,-0.053576022,-0.70341426,0.0,-0.0,0.27029747,-0.0,0.0,-1.0791124,0.0,-0.0,-0.0,0.5488657,0.55688363,-0.089717254,-0.0,-0.0,-0.0,0.0,-0.02564733,0.22522405,-0.0,0.41019806,0.031983826,0.0,-0.0,-0.29660007,0.0,-0.338988,-0.05756687,0.0,-0.0,-1.1582966,0.14653674,-0.0,-0.0,0.41625527,-0.2710684,0.6615759,0.0,0.90936553,0.8541951,0.0,-0.0,-0.0,-0.0,0.0,0.08255157,-1.033789,-0.0,-0.39208066,0.5612797,-0.0,0.0,-0.0,0.0,-0.46812212,-0.0,-0.0,0.08523027,-0.63270205,0.0,0.0008788333,-0.0,-0.4452167,-0.92407966,-0.0,0.023777356,-0.0,-0.0,-0.0,-0.08144448,-0.0,-0.046388213,0.0,0.0,-0.18278022,0.0,-0.38449994,0.0,0.0,-0.0,-0.776664,0.3540755,-0.0,-0.7701285,0.29414082,0.0,-0.0,0.0863372,-0.0,-0.0,0.0,-0.43011457,-0.2165652,-0.0,0.0,0.032230757,-0.0,0.28071266,-0.21255653,1.3273555,-0.06276747,0.0,-0.0,-0.17672439,0.0,0.1714131,0.28889903,-0.0,0.04178397,0.0,0.0,-0.0,-0.0,-0.0,-0.0,0.0,0.41102052,0.07532733,-0.0,0.16693231,0.12471613,0.0,0.0,0.0,0.0,-0.0,0.0,-0.0,-0.0,0.0,-0.0,-0.24208996,-0.0,-0.0,-0.0,-0.0,0.0,0.35911435,0.8251914,-0.0,0.0,0.0,-0.0,0.35984907,0.0,0.0,-0.0,0.031360727,-0.021909058,-0.0,-0.6509294,0.0,-0.0,0.0,-0.0,-0.7678953,-0.0,0.06648789,-0.0,-0.0,0.0,-0.0,0.0,-0.0,-0.0,0.0,-0.22525668,-0.0,0.23627533,0.0,0.97113204,-0.08436621,0.0,-0.0,-0.22511709,-0.057134792,-0.0,-0.0,0.0,0.2612592,0.0,0.0,0.017093303,-0.0,0.0,0.7260603,0.0,0.0,0.6159141,-0.0,0.3160784
0.0,-0.5297336,-0.0,0.60968775,-0.0,0.0,0.0,0.0,-0.8129564,-0.027691387,-0.0,0.88221335,-0.3266234,0.0,0.0,-0.0,0.10994876,0.0,0.0,0.0,0.0,-1.3137109,0.9274707,0.0,0.0,-0.0,-0.044324435,0.37605277,-0.0,0.0,0.0,-0.0,-0.0,-0.0,0.86878455,0.0,0.0,0.74437827,-0.5312326,0.0,0.0,0.6349877,0.5420096,-0.46922058,0.14053525,0.59216005,0.2480351,0.11841075,-0.0,0.011474351,0.0,0.0,0.0,-0.0,-0.0,0.0,0.0,0.0,0.0,0.0,-0.0,-0.0,-0.0,-0.0,-0.0,-0.0,-0.4120734,-1.2045903,-0.0,0.06880062,-0.5975054,-0.01817924,-0.74105537,-0.8888403,-0.0,-0.6668802,0.0,-0.5351201,-0.18459754,0.052342672,0.0,0.0,0.0,0.0,-0.0,0.0,-0.0,0.0,0.0,0.82226425,0.0,0.0,0.0,1.2648274,-0.0,0.0,-0.12023857,0.0,-0.0,0.0,0.6236062,-0.0,-0.0,-0.0,-0.0,0.0,-0.0,-0.16924578,0.16073087,-0.0,-0.61467886,0.0,-0.0,0.11141327,0.4363928,-0.0,0.0,0.01834479,-0.0,-0.36615735,-0.0,0.0,-0.0,0.11798988,0.0,0.33676893,0.0,-0.56734824,-0.0,0.0,0.33556,-0.0,-0.0,-0.11540422,1.0346322,-0.0,0.0,-0.0,-0.21271212,-0.8728315,-0.0,-0.015941707,0.0,0.0,0.0,-0.0,-0.5772808,-0.23332818,0.7386899,0.46942964,0.14350593,-0.7235896,-0.0,-0.0,-0.0,0.0,0.0,-0.3616206,-0.28062445,-0.9158763,-0.0,0.0,0.077890165,0.0,-0.3664105,-0.0,0.4305499,0.0384855,0.53209955,-0.30941436,0.0,0.0,0.0,0.91912943,-0.119611114,0.0,-0.11970083,-0.0,-0.0,0.0,0.14036594,0.0,0.0,0.0,-0.0,0.0,-0.94144344,-0.0,-0.0,-0.0,-0.0,0.8054788,0.0,0.4007098,0.0,1.0189698,-0.0,-0.168857,0.0,0.5738499
0.21062207,0.59918505,-0.0,-0.0,0.0,0.0,-0.0,-0.0,-0.0,0.0,-0.0,0.0,-0.0,0.0,0.0,-0.0,-0.0,0.0,0.0,0.0,0.0,-0.36656237,-0.0,0.0,0.2349573,-0.0,0.0,-0.0,-0.0,0.044736743,0.0,-0.0,-0.0,-0.0,-0.05856976,-0.22173715,0.0,0.80008733,0.0,-0.0,0.6886774,0.0,0.0,0.0,-0.0,-0.0,-0.0,0.0,0.0,-0.0,0.2645319,-0.02678137,0.0,-0.0,0.0,0.0,0.029382488,0.0,-0.0,0.0,-0.0,0.0,0.0,-0.0,-0.48435578,-0.0,-0.0,-0.24739052,0.0,0.0,0.0,-0.0,-0.0,-0.0,-0.0,0.0,1.0348837,-0.2286059,-0.0,0.30832264,0.0,0.0,0.61293167,-0.0,-0.14762682,0.0,1.2140177,0.0,0.0,0.30508378,0.69267404,0.0,0.0,-0.0,-0.0,0.0,0.0,0.01481962,-0.0,0.0,0.513708,-0.0,-0.20354849,0.20881946,-0.0,0.11856657,-0.0,-0.0,-0.0,-0.3594076,-0.43388817,0.0160761,0.6174037,-0.0,0.15002452,0.5257822,0.0,-0.0,-0.0,-0.0,-0.38048083,0.0,-0.07954156,-0.0,0.0,0.0,0.0,-0.0,-0.0,0.0,0.0,-0.0,-0.68972737,0.53349245,0.034000997,-0.99031174,0.0,-0.0,0.19144326,0.108254574,-0.0,-0.0,-0.28477538,0.0,0.0,-0.0,0.0,-0.0,-0.0,-0.0,-0.0,0.71572864,-0.0,-0.0,0.4355639,0.0,0.95426536,0.0,0.37446907,0.0,-0.0,0.37241518,0.22307304,0.0,-0.0,-0.0,0.0,0.3115016,0.0,-0.0,0.0,0.0,0.0,0.0,-0.7505148,-0.0,-0.0,-0.0,-0.0,0.0,0.0,-0.0,0.0,-0.0,-0.0,0.0,0.0,-0.0,0.0,-0.043140776,0.57832927,0.0,0.0,-0.0,0.0,0.72616357,0.0,0.0,0.0,-0.0
-0.87521404,-0.0,-0.0,0.5824628,-0.69340706,0.0,0.0,0.0,-0.14303176,-0.0,0.0,0.0,1.9392557,0.0,0.0,0.0,0.01675816,-0.7417199,0.69311285,-0.15222944,0.0,0.18978491,0.95467347,0.0,0.0,-0.409804,-0.86241215,0.75237566,0.0,1.3497893,-0.0,-0.0,0.0,0.0,0.25521645,0.0,-0.0,-0.0,-0.0,-0.0,-0.0,-0.0,0.0,0.0,0.0,0.67113715,-0.073996045,-0.0,0.40321052,0.0,0.0,0.0,0.0,0.0,-0.48597756,0.0,-0.6187721,-0.0,0.13923842,0.70328814,-0.0,1.2376459,-0.0,0.01804526,0.0,0.0,0.0,0.45123503,-0.0,-0.0,0.0,0.68853974,-0.0,-0.0,-0.0,0.0,0.0,0.0,0.24676725,0.0,-0.0,0.0,0.0,0.013487392,-0.22898036,0.0,-0.30517414,-0.0,-0.0,-0.0,-0.0,-0.0,-0.41713926,-1.0428433,0.0,0.0,0.0,0.6933748,-0.0,0.0,-0.19535384,-0.0,-0.0,-0.0,-0.0,-0.18482065,-1.021586,0.05766282,0.0005665782,-0.0,-0.0,1.1715403,0.0,0.41190743,0.16946296,-0.20041424,0.0,0.43425712,-0.0,1.0308284,-0.018438648,-0.0,-0.0,0.8700389,0.0,0.78630817,-0.0,-0.0,0.0,-0.16544752,0.0,-0.0,-0.0,-0.0,0.0,-0.0,-0.79993886,0.6737444,0.0,0.8685744,-0.0,0.6929652,-0.15875648,0.08603598,1.3197873,-0.0,0.23432407,-0.4408114,0.0,-0.17917553,0.0,-0.70974964,-0.220223,0.48565832,0.0,-0.73095524,-0.013302726,1.2785165,0.10554286,-0.0,-0.0,0.20281482,1.3689394,0.11863717,0.0,0.0,0.0,0.47720498,0.0,-0.0,0.0,0.0,-0.0,0.9693535,-0.8529349,0.0,0.0,0.4138295,0.0,0.0,0.0,0.0,0.0,0.0,0.0,0.34725872,0.21395044,-0.0,-0.0,0.0,-0.0,0.8098034,-0.118892595,-0.0,-0.0,-0.0,0.10117741,-0.0,-0.0,0.0
-0.0,-0.0,-0.0,-0.0,-0.0,-0.0,-0.0,-0.21637891,0.33186594,0.0,0.0,0.0,0.0,0.0,0.20836842,0.0,-0.0,-1.7606165,0.0,0.0,-0.0,-0.0,0.0,1.6422354,0.0,-0.0,-0.12533,-0.0,-1.2518697,0.0,-0.0,-0.0,0.15538475,0.50645113,0.78939444,-0.0,0.78413326,0.0,-0.449813,-0.0,0.0,0.054823354,-0.3140901,0.0,-0.0,-0.0,-0.0,-0.0,-0.0,-1.0120142,0.0,-0.0,-1.3055897,-0.0,0.0,0.22732195,-0.26990622,0.15000466,0.7940986,0.24410065,0.0,0.0,-0.0,0.0,-2.462495,-0.0,-0.0,0.0,0.0,0.0,-1.965249,-0.0,0.51762927,0.0,-0.0,0.0,0.55153525,0.39724246,-0.5773488,0.0,0.13764313,-0.0,-0.0,-0.0,-0.0,-0.0,0.0,0.5889467,-0.99882776,0.06684293,0.43161651,0.0,-1.9011488,-0.0,-0.0,0.0,0.0,-0.0,0.0,-0.0,-0.0,-0.13876522,0.63020927,-0.0,0.022548528,-0.10555062,-1.0265315,-0.0,-0.0,0.0,0.49173358,-0.0,0.5920396,-0.060407523,0.56440735,0.0,-0.0,-0.0,0.11358244,-0.0,0.0,-0.0,-0.0,0.0,0.0,0.0,0.0,0.0,0.0,0.15988193,0.15708081,0.0,0.0,0.46294174,0.0,0.0,0.0,0.6329519,-0.0,0.48166224,0.41971853,-0.35548586,-0.62558526,0.0,0.0,-0.0,0.006199858,-0.0,1.7519544,-0.0,-0.0,0.0,-0.0,0.0,0.0,-0.86412066,-0.0,-0.659503,0.0,0.0,0.0,0.023209315,0.0,0.0,-1.2113477,-0.76616526,-0.0,-2.823111,0.0,0.0,-0.0,-0.0,0.0,0.0,-0.17867583,-0.0,-0.46296415,-0.0,-0.87016535,0.0,-0.0,-0.0,-0.0,-0.0,0.728765,-0.09572205,-1.2041628,0.19157836,0.0,-0.9366848,0.0,0.0,-0.7290646,0.09980413,0.0,0.04514461,0.07713171,0.100840576,-0.9017117,-0.0
-0.0,0.0,-0.0,-0.6312704,0.015011135,-1.2885311,0.016145602,0.0,0.7972908,0.44298235,0.7785237,-0.0,0.49568033,0.0,0.010212481,-0.0,-1.1881872,0.76329666,0.0,0.0,0.24396272,-0.45899993,0.0,0.0,-0.0,-0.0,0.3120504,0.0,-0.16671875,0.0,-1.0935527,-0.57330906,0.0,0.0,0.0,0.16959317,-0.0,-0.0,0.0,0.0,-0.48316166,0.29317197,-0.32159346,-0.10807389,0.8146358,-0.0,0.0,-1.3645687,-0.43580574,-0.0,-0.0,0.0,0.7916926,-0.0,-0.62117285,0.58459914,0.5119577,-0.0,0.33980185,-0.0,1.4820778,0.35842383,-1.0275158,-0.0,-0.1496341,-0.0,-0.90698314,0.0,-0.0,0.28308406,0.0,0.0,0.0,0.0,-0.0,-0.0,0.17125395,0.0,0.0,0.0,0.0,-0.0,0.0,0.0,0.0,0.0,0.0,-0.0,0.600496,0.0,-0.0,1.0324454,-0.9104716,-0.0,0.5443389,-0.0,0.0,-0.0,-0.0,-0.2823503,0.0,-0.0,-1.4016702,-0.73881954,-0.24265137,-0.16369791,-0.8365469,0.0,-0.09916185,-0.0,0.77935755,-0.10637635,-0.4105084,1.158417,-0.6981411,0.3215358,-0.38080302,-0.95763785,-0.0,0.0,0.0,-0.0,-0.19675776,0.0,0.0,-0.36642596,0.19513169,0.0,0.0,0.15053827,-0.0,-0.0,0.0,0.0,2.006732,-0.0,-0.42270723,-0.58677,-0.32331702,0.97705364,-0.46584007,0.0,-0.0,-0.5078935,-0.27292666,0.0,0.8391912,-0.30933425,0.0,0.22398645,0.0,0.0,1.0221534,-0.0,-0.6145001,-1.0458361,-0.0,-0.0,-0.94775313,1.2669706,0.0,0.0,-0.6275702,-0.63248813,0.109444164,2.4999032,-0.0,1.112655,-0.0,-2.081917,0.5583796,0.0,0.2536121,0.0,-0.0,-0.053555537,-0.31444857,0.0,0.0,0.0,0.0,-0.0,0.0,0.026396526,-0.3206229,0.0,0.0,-0.20742232,-0.0,-0.54766417,-1.0805453,0.33330864,0.14465535,0.7305414,-0.0,-0.0,0.0,0.0,-0.0,0.0
-0.52480775,-0.0,-0.0,-0.0,0.0,-0.08666718,1.0083611,2.051989,0.021084582,0.71065575,0.0,-0.2097164,0.48381674,0.9635632,0.34558633,-1.236233,0.07898471,-0.0,0.93691576,-0.0,0.41963974,-0.0,0.0,-0.1959127,0.0,-0.6630321,1.7283945,0.5953609,0.32566687,0.0,-0.43182886,0.7252088,0.0,-0.18516633,-0.9506693,0.0,-0.0,1.1322266,0.95626056,-0.0,0.7138485,2.165786,-0.11688319,0.0,0.0,1.7147067,-0.0,1.1481252,1.1467912,-0.0,-0.0,-0.0,0.41639966,-0.0,0.0,0.0,0.0,1.561473,0.3757117,0.0,-0.09651553,0.3147816,0.5697857,0.0,-0.0,-1.3209975,-0.0,0.0,0.0,-0.6434374,0.0,0.54249287,0.0,-0.0,-0.0,0.0,-0.0,0.0,-0.0,0.0,-0.07797352,0.0,0.0,0.0,0.0,0.0,0.0,0.0,0.5197253,-0.0,-0.0,-0.0,-0.49456447,-0.43409193,0.0,0.6080397,0.9575669,-0.0,0.0,0.0,-0.253799,-0.0,-0.0,-0.47553474,0.08221995,0.05649473,-0.0,0.264312,0.10344189,-0.23643935,-0.44128966,1.6051736,-0.0,-0.24875374,0.25550067,-0.09294846,0.0,0.19988024,-0.0,-0.0,-0.0,0.0,0.1427086,-0.0,0.0,0.0,0.22486049,0.43480656,-0.51017106,0.0,0.0,-0.0,-0.0,0.0,0.06793082,-0.0,-1.7527024,1.868898,0.0,0.43857616,-0.0,0.69622004,0.0,-0.14156094,1.6374762,-0.0,0.0,0.0,-0.09119298,-0.0,-0.8311117,-0.16414326,-0.0040788963,-0.19933893,0.0,-0.37303504,-0.0,1.076121,0.0,0.53024304,0.786439,0.0,0.4605258,0.816238,0.0,-1.5812584,0.0,0.123164155,0.0,-1.47587,0.113457814,0.0,0.0,-0.0,0.0,1.7308387,0.07457059,0.0,0.0,0.0,0.8508059,0.0,0.0,-0.0684156,-0.9908704,-0.0,0.0,1.3200008,0.12843075,0.0,0.649402,1.3963053,0.369593,-0.15702611,-0.0,0.0,0.35363936,-0.0,-0.0,0.43181425
0.0,0.043688178,1.3714182,0.0,0.47371998,0.0,0.0,0.0,-0.064023174,-0.0,-0.0,-0.0,0.0,-0.0,0.0,0.0,-0.28268406,-0.4227003,-0.0,0.091920346,-0.0,0.0,-0.0,0.7021505,-0.13920237,0.0,-0.0,1.514201,0.5893998,-0.0,-0.47463408,0.0,-0.0,0.0,0.0,-0.4482221,-0.4200281,-0.31779397,-0.0,0.0,-0.0,-0.0,0.0,0.0,0.0,-0.0,-0.17153259,-0.0,0.90258056,0.0,0.0,0.0,0.0,-0.44211054,-0.5856229,-0.0,-0.0,-0.0,-0.0,0.5053062,-0.0,0.0,0.0,-1.2778084,-0.0,-0.40211397,0.0,-0.43995443,-0.0,0.0,0.0,0.0,-0.0,-0.0,-0.0,-0.51244265,-0.0,-0.055443957,0.0,-0.0,-0.0,0.0,0.0,-1.6192935,0.0,0.0,0.0,-0.813311,-0.0,-0.0,-0.0,-0.1960724,-0.0,0.0,-0.0,-0.0,-0.0,-0.0,-0.0,0.008893168,-0.61292106,0.054504167,0.0,0.0,0.0,-0.0,0.19169928,0.0,0.18861167,0.6312562,-0.12273297,-0.8041827,0.3892314,-0.0,0.0,0.0,0.0,0.0,0.12252039,0.0,-0.0,-0.0,0.0,-0.0,-0.0,-0.0,0.89856,0.5755414,0.0,-0.0,0.0,-0.0,-0.0,-0.0,0.32627258,-0.0,0.0,-0.86755705,0.0,0.0,-0.0,-0.0,-0.0,-0.0,-0.0,0.0,-0.00726837,0.0,-0.13207181,0.0,0.0,-0.0,0.0,-0.24641532,-1.3716779,0.0,0.021040635,1.0321952,-0.34963694,-0.0,-0.0,-0.0,-0.5275024,-0.5911806,0.0,-0.13666058,0.0,-0.49799967,-0.0,0.0,-0.0,0.0,-0.0,0.0,-0.0,-0.0,-0.0,2.2329805,0.0,-0.0,-0.0,0.0,0.0,-0.04753881,0.0,-0.0,-0.0,-0.72258973,-0.0,0.0,-0.8703047,0.0,-0.0,0.0,-0.0,-0.0,0.027652957,-0.0,-0.0,0.77387434
-0.39504862,-0.10460798,2.1106005,-0.0,0.0,0.0,0.19313884,0.0,-0.32166967,-0.0,1.399769,-0.0,0.0,0.0,-0.5170489,-0.0,-1.2050788,-0.0,-0.0,0.0,0.0,-0.0,0.0,0.0,-0.17599568,-0.0,-0.39416862,0.0,0.0,2.1166031,-0.0,0.0,0.0,0.0,0.0,0.0,-0.0,-0.0,-0.0,0.08683789,-0.0,0.62415445,0.48189834,0.0,0.0,0.0,0.0,-0.0,-0.14404118,0.654507,-0.0,0.0,0.0,-2.8973732,-0.0,0.0,0.0,-0.0,0.0,1.592834,-0.0,0.0,-0.0,0.0,0.23321967,-0.0,0.0,0.0,-0.0,-0.6397274,0.0,0.0,-0.0,0.039368797,-0.99741083,0.0,-0.0,0.0,0.0,0.0,-0.0,0.0,0.0,0.0,0.0,0.0,0.0,0.083270095,-0.0,-0.0,-0.0,-0.0,0.0,0.0,0.0,0.0,0.0,-0.01657759,0.0,0.62384516,-0.0,-0.0,-0.0,-1.1444732,0.0,0.0,0.0,-0.5356761,0.0,-0.0,0.0,0.16733536,-1.4937012,0.0,2.0526702,-0.0,0.49444163,0.0,-0.0,0.10504594,-0.0,1.005943,0.20639138,0.0,0.0,1.8978769,-0.0,0.0,0.0,0.0,0.80458266,-0.0,-0.0,0.0,1.9917175,-0.0,-0.0,-0.40170154,-1.3317304,0.75941575,-0.0,-0.0,-0.55563885,1.6975099,-0.0,0.4014838,0.0,-0.24986626,0.0,-1.3413231,-0.0,-0.0,-0.0,0.0,0.9195183,0.0,-0.0,-0.0,0.0,0.82165605,-0.0,0.0,0.0,0.0,0.45901278,0.49009207,0.0,-0.6291097,-0.0,-1.6084678,0.660921,-0.28870314,0.0,-0.06522787,-0.0,-0.0,-0.037743296,0.0,0.0,2.3151073,-0.0,-0.22563839,0.0,-0.69263417,0.0,-0.0,0.0,-0.448999,0.0,0.0,0.0,-0.0,0.0,-2.2900763,-0.0,0.0,0.2445678,0.3155301,-0.0,2.0728629
-0.4801015,-0.56134635,1.94347,0.0,-0.0,-0.46339917,0.0,0.0,-0.09864677,0.0,0.59013003,0.0,-0.0,-0.0,0.0,0.2616184,0.0,0.034465913,1.5654958,-0.0,-0.0,0.0,0.0,0.0,-0.0,0.0,-0.0,0.5989338,0.23154216,0.16793478,-0.0,0.0,-0.0,0.0,-0.0,0.0,-0.0,-0.0,-0.4318426,0.0,-0.0,-0.0,0.0,-0.0,0.0,-0.2814205,0.0,0.25640124,0.4875706,-0.0,-1.1511081,0.0,0.50190884,0.0,-0.0,-0.0,0.0,-0.0,0.00039586684,-0.0,0.0,-0.0,0.0,-1.686726,0.0,-0.07644206,0.0,-0.14268793,0.0,0.0,0.0,-0.82734007,-0.46147975,0.07105291,0.0,-0.34816304,-0.0,-0.114910156,0.21315654,-0.0,-0.0,0.0,0.0,-1.3439931,-1.7217451,0.0,0.0,-0.0,-0.0,-1.3751565,-0.24489723,-0.0,-0.0,0.0,-0.0,1.224884,-0.0,-0.0,-0.0,-0.0,0.0,-0.81055075,0.0,0.23400065,0.0,-0.5949901,-0.7407906,-0.008617327,-0.11074484,0.0,0.0,-0.0,-0.014729188,0.0,-0.16647749,-0.0,0.0,0.0,-0.25470805,0.0,-0.0,-0.0,0.23170328,-0.0,-0.0,-0.18232405,-0.0,-0.0,1.149164,-0.0,0.0,-0.0,0.0,-0.0,-0.0,-0.0,-0.0,0.0,0.37645084,0.0,-0.16455942,0.0,-0.0,-0.0,-0.3237157,0.0,-0.0,-0.7367975,-0.0,0.0,0.41375136,-0.0,0.0,0.0,-0.0,0.0,0.0,0.0,-0.8985797,0.0,-0.3465231,0.0,-0.0,-1.3670586,0.0,0.0,-0.02648235,0.13709731,0.0,-0.9758851,-0.0,-0.40186512,0.5721336,-1.0740598,0.0,-0.0,0.0,1.1092532,0.0,-0.0,-0.83886606,0.0,0.0,0.0,0.0,0.0,-0.6808261,0.0,-1.1213688,0.0,-0.0,-0.0,0.0,-0.0,-0.0,-0.0,-0.0,0.81067425,0.0,0.35283038
0.44848543,0.36374262,-0.42693576,-0.0,-0.17238407,1.2291527,-0.0,-0.0,-0.48728853,0.0,-0.0,-0.37735456,-0.93853575,0.0,1.0151957,0.0,-0.28515637,0.0,0.23426764,-0.38348547,-0.6534762,-1.0822887,0.103111506,-0.0,0.0,0.86205196,-1.4370834,-0.8482046,-1.3639845,0.11922402,0.0,-0.0,-0.09526995,0.058323026,-0.27634355,-0.0,-0.43591097,-0.0,0.0,-0.0,0.0,0.0,0.0,0.35916656,-0.0,0.0,-0.0,0.16095428,-0.67351925,0.0,0.0,-0.0,0.0,-0.0,0.31213287,0.54576695,0.5844001,0.0,-0.63471186,0.0,0.0,-0.7684231,-0.0,0.0,-0.35748044,-0.0,-0.0,-0.49920526,-1.2674965,0.0,-0.0,1.4357469,-0.21696308,0.0,0.023219574,0.0,0.0,0.4214784,-0.0,0.0,1.0102578,-0.0,-0.0,0.4014236,1.3754563,-0.0,0.0,0.0,0.07054758,-0.0,0.0,0.0,0.0,-0.16447164,0.30554235,0.0,0.0,-0.0,0.0,0.0,0.2532411,-0.0,0.0,0.13899082,-0.5074316,0.0,0.0,-0.0,0.0,0.0,0.033319946,1.4947871,0.3914143,-0.3359968,0.65950936,0.17360099,0.4808965,-0.0,-0.0,-0.0,0.0,0.0,-0.0,0.0,0.0,-0.009677167,-0.0,0.0,-0.0,0.0741597,-0.0,0.0,-0.0,0.0,0.0,-0.057357945,-0.17022164,0.47160095,0.0,-0.0,0.41657305,-0.017901495,0.0,-0.20894778,0.79958457,-0.0,0.0,-0.45945674,-0.0,-0.0,-0.0,0.397835,-0.0,-0.0,0.0,-0.21877618,0.12553027,0.010202307,0.0,-0.43218365,0.07474632,0.0,0.0,0.0,-0.33249158,-0.0,0.0,-1.0022306,0.0,-0.0,0.0,0.22963673,-0.0,0.0,0.0,-0.0,0.12654494,-0.70694923,-0.0,0.0,0.0,-0.0,-0.0,-0.0,1.2608494,-0.0,0.0,0.0,0.0,-0.0,0.0,-0.72681415,0.0,0.0,0.0,0.0,0.0,0.15397763,-0.0,0.4309977
0.117458865,0.13540731,0.0,-0.3073473,0.0,-0.0,-0.18964913,0.0,0.6882215,-0.0,-0.0,-0.0,-0.0,-0.0,-0.0,0.0,0.0,0.03799291,-0.23670112,0.0,-0.0,-0.0,0.0,0.0,-0.0,0.0,-0.0,0.0,-0.0,-0.0,1.1457999,-0.0,-0.0,0.0,0.0,-0.0,0.0,0.0,-0.0,1.263077,0.0,-0.0,-0.32418695,0.3459666,-0.0,-1.5080234,-0.0,0.0,-0.77407694,-0.0,-0.0,1.005397,-0.0,0.0,-0.0,-0.21503204,0.1990289,0.0,-0.0,-0.0,0.7808192,-0.0,-0.0,-0.0,-0.0,0.5768768,0.0,0.0,0.0,-0.0,-0.0,-0.92897284,-0.06609963,0.0,0.5171699,-0.0,-0.10976315,0.24464588,0.0,-0.06479975,0.5973792,-0.0,0.45449144,0.050075267,0.0,-0.0,0.0,0.43402618,-0.0,0.73243886,0.0,1.2894733,0.29843965,0.49724108,-0.6222251,-0.0,-0.8623646,0.35013956,0.3834754,-0.0,-0.0,0.0,-0.0,0.58845437,-0.92448187,-0.0,-0.4634091,-0.0,-0.031510763,-0.06797635,-0.0,-0.0,-0.0,0.0,-0.0,0.0,-0.0,-0.76897603,-0.61220324,0.0,0.0,-0.0,0.0,0.0,-0.0,-0.0,-0.03628683,0.0,-0.0,-0.0,-0.0,0.0,-0.08332777,0.0,0.0,-0.105027586,-0.0,0.0,0.11667088,0.42742005,-0.059987694,0.7004382,-0.0,-1.1046594,0.0,0.0,-0.0,-0.7096283,0.6602854,0.0,-0.0,0.42840245,0.0,0.0,-0.0,-0.0,-0.0,-0.0,0.0,-0.0,-0.0,-0.73721194,-0.0,-0.33776954,1.1195474,-0.22796848,0.0,-0.0,0.48147953,-0.28900337,-0.0,-0.0,-0.0,-0.48204598,-0.0,-0.0,-0.0,0.0,0.94333935,-0.0,-0.0,-0.0,0.6340248,-0.0,0.0,-0.0,-0.0,-0.4581313,-0.0,-0.0,0.85115826,0.41328457,-0.1337339,-0.0,0.0,-0.41922677,-0.0,0.12953742,-0.7764491,-0.0
