0,1,2,3,4,5,6,7,8,9,10,11,12,13,14,15,16,17,18,19,20,21,22,23,24,25,26,27,28,29,30,31,32,33,34,35,36,37,38,39,40,41,42,43,44,45,46,47,48,49,50,51,52,53,54,55,56,57,58,59,60,61,62,63,64,65,66,67,68,69,70,71,72,73,74,75,76,77,78,79,80,81,82,83,84,85,86,87,88,89,90,91,92,93,94,95,96,97,98,99,100,101,102,103,104,105,106,107,108,109,110,111,112,113,114,115,116,117,118,119,120,121,122,123,124,125,126,127,128,129,130,131,132,133,134,135,136,137,138,139,140,141,142,143,144,145,146,147,148,149,150,151,152,153,154,155,156,157,158,159,160,161,162,163,164,165,166,167,168,169,170,171,172,173,174,175,176,177,178,179,180,181,182,183,184,185,186,187,188,189,190,191,192,193,194,195,196,197,198,199
0.0,0.0,0.0,0.0,0.0,-0.0,-0.0,0.0,0.0,-0.0,-0.0,0.0,-0.0,-0.0,0.0,0.0,0.0,-0.0,-0.0,0.0,-0.0,0.0,-0.0,0.0,0.0,0.0,0.0,-0.0,-0.0,0.0,-0.0,0.0,-0.0,0.0,0.0,-0.0,0.0,0.0,-0.0,0.0,0.0,-0.0,-0.0,-0.0,-0.0,0.0,-0.0,-0.0,-0.0,0.0,0.0,0.0,0.0,0.0,-0.0,-0.0,-0.0,0.0,0.0,0.0,-0.0,0.0,-0.0,0.0,0.0,0.0,0.0,-0.0,-0.0,0.0,-0.0,-0.0,-0.0,0.0,-0.0,0.0,0.0,-0.0,0.0,-0.0,-0.0,0.0,-0.0,0.0,-0.0,-0.0,0.0,-0.0,-0.0,0.0,0.0,0.0,0.0,-0.0,-0.0,0.0,-0.0,-0.0,0.0,0.0,-0.0,-0.0,-0.0,0.0,0.0,0.0,0.0,0.3817722,0.0,-0.0,-0.0,-0.0,0.0,-0.0,0.0,0.0,-0.0,0.0,-0.0,-0.0,0.0,-0.0075967642,-0.0,-0.24553771,0.0,-0.0,-0.0,0.0,0.0,0.0,-0.0,0.0,0.0,0.0,0.0,0.0,-0.0,-0.0,-0.0,-0.0,-0.0,-0.0,0.0,-0.0,0.0,0.0,-0.0,-0.0,0.0,-0.0,0.0,0.0,0.0,0.0,0.0,-0.0,-0.0,0.0,0.0,-0.0,0.0,0.0,-0.0,-0.0,-0.0,0.0,0.0,-0.0,0.0,0.0,-0.0,-0.0,-0.0,0.0,-0.0,0.0,0.0,-0.0,0.0,0.0,-0.0,0.0,-0.0,0.0,0.0,-0.0,0.0,-0.0,-0.0,0.0,0.0,-0.0,0.0,-0.0,-0.0,0.0,-0.0,-0.0,-0.0,0.0
-0.16740532,-0.24614193,-0.0,-0.5299553,-0.0,-0.14302967,-0.75525904,-0.0,-0.31014198,-0.48600513,0.15071505,-0.0,-0.5937866,-0.47623423,0.30051252,-0.0,-0.0,0.0,0.0,-0.35194543,0.0,-0.0,-0.6833656,-0.0,-0.32281095,-0.0,-0.0,0.0,0.0,-0.3603789,-0.52756834,-0.0,0.0,-0.0,-0.0,-0.0,-0.0,-0.11145421,0.0,0.05023364,-0.4922744,-0.5964731,-0.80337554,-0.40761974,-0.63227946,-0.0,-0.5037821,-0.47603214,0.0,-0.0,0.0,-0.050982427,-0.0,-0.0,0.0,0.0,-0.0,-0.0,-0.18786111,-0.3374903,0.0,-0.0,-0.08175225,-0.2022161,0.32401288,-0.0,-0.0,0.0,0.0,-0.2962884,0.0,0.0,-0.0,-0.43971446,0.0,-0.0,-0.0,0.0,-0.0,0.0,0.0,-0.0,0.0,0.0,0.0,-0.0,0.3141397,0.0,0.1250356,0.4638324,-0.42044708,-0.35690758,-0.6285581,0.0,0.0,-0.0,0.0,0.0,0.0,-0.0,0.0,0.27341262,0.42391294,0.17228028,-0.0,-0.0,-0.907567,-0.0,-0.38744706,0.06230279,0.71466804,0.0,0.4002248,-0.59276074,-0.15396075,-0.5412681,0.0,0.3367443,0.0,0.0,-0.0,-0.0,-1.1585108,-0.0,0.22196895,0.4342865,-0.3283258,-0.0,-0.0,-0.8558678,-0.29538652,-0.0,-0.0,-0.0,-0.0,0.35574687,0.0,-0.4755871,0.0,-0.049952537,0.46487403,-0.29848474,-0.10641743,0.0,-0.28866342,-0.0,0.0,0.08421212,-0.0,0.0,0.072939746,0.1293398,-0.0,-0.20969582,-0.35085005,0.0,-0.46353143,-0.0,-0.06991948,-0.3515568,-0.0,-0.0,-0.21173038,-0.7530423,0.37977514,-0.0,-0.0,0.21781445,0.0,-0.28006938,0.0,-0.0,-0.0,-0.8280592,-0.29417157,-0.0,0.09699675,0.0,-0.0,-0.42678413,-0.2799493,-0.0,0.0,-0.22191788,-0.32988286,-0.0,-0.0,-0.18406199,0.0,0.25083673,-0.39662606,-0.45668614,-0.6857061,-0.41161206,-0.3066103,-0.0,-0.72234935,-0.45440513,0.0,-0.0
-0.0,-0.656785,0.0,-0.0,0.24146064,-0.006452993,-0.0,-0.0,-0.02111449,-0.0803718,-0.5456413,-0.0,1.5567211,0.26854748,-0.5656442,-0.0,-0.0,-0.0,-0.0,0.0,-0.0,-0.0,0.0,-0.0,-0.0,-0.0,-0.5911891,-0.0,-0.0,-0.0,-0.040684212,-0.521204,0.0,-0.23477405,0.6093734,-0.0,-0.76855,-0.087878786,-0.1147328,0.032089192,-0.37227944,-0.0,0.0,-0.0,0.47681543,-0.0,-0.0,-0.0,-0.3449496,-1.1796829,0.6238296,1.3050616,0.0,-0.0,-0.3013439,-0.0,-0.0,-0.5783551,1.0792975,-1.1233873,0.0,-0.714749,0.16793,-0.0,-0.0,0.0,-0.88188773,0.0,-0.0,-0.0,0.5272144,-0.0,-1.0620848,0.029297156,0.0,0.0,-0.0,-0.25644255,-0.0,0.42683765,-0.124268934,0.0,0.0,-0.0,0.0,0.10685709,0.0,-0.9066896,-0.19226101,-0.0,-0.6467065,-0.63618726,0.0,0.0,-0.8043351,-0.0,-0.51637,-0.0,-0.0,-0.8462199,0.30694228,-0.0,-0.0,-0.0,0.0,0.39596853,0.0,-0.0,-0.0,-0.0,-0.43900186,0.7369796,0.4375447,0.0,-0.121987455,-0.0,0.95626265,0.0,0.0,1.9983993,-0.0,-1.4945381,-0.83580697,-0.26254168,-0.0,-0.027436296,0.48962218,-0.0,0.0,0.22258084,-0.3519802,0.10990271,0.4331456,0.6314972,-0.88146585,0.48507592,0.5220151,0.0,-0.33369827,1.8169751,-0.4427199,1.3791246,0.1929311,0.35984647,-0.0,0.0,0.0,-1.5871493,0.0,-0.0,-0.0,-0.57558274,0.0,-0.0,-0.0,-2.1463764,-0.0,-0.0,-0.2477344,-1.6170614,0.0,-0.0,0.30704468,0.58362573,-0.31199726,-0.0,-0.0,-0.0,-0.0,-0.0,-0.0,-0.0,-0.21453674,0.0,-0.0,0.0,-0.17658603,0.20892139,-0.0,-0.42887712,-0.0,-1.1442934,0.0,-0.0,0.7892058,-0.0,-2.1071577,-1.0712069,-1.1644447,-0.0,-0.6085248,-0.17114791,-0.4013428,0.89909637,-0.45462564,-0.0,-1.3107444,0.358536,0.5431781,-1.2709765
-0.0,0.0,-0.0,0.0,-0.0,-0.5738169,0.0,0.0,0.0,-0.0,-0.29004186,-1.0270774,-0.9512041,-0.0,-0.4095819,-2.626602,0.70288926,-0.0,-0.06025286,-0.17081782,-0.0,0.0,-0.0,-0.0,0.19443807,0.2166621,-0.0,-0.0,0.0,-0.0,-0.0,-0.9488691,0.0,0.0,0.6700605,0.80648303,-0.4868568,-0.0,-0.0,-0.29978618,0.0,0.0982188,-0.0,0.0,0.3292587,-0.6584605,0.0,-0.0,-0.72705954,0.0,-0.0,0.0,-0.0,0.0,0.7807425,-0.0,-0.0,-0.0,0.16609389,-1.7981973,0.0,1.02656,-0.0,0.09892161,0.3961301,0.0,0.0,-0.35571772,-0.0,-0.0,-0.0,-0.0,0.0,0.0,0.0,-0.0,-0.89375895,-0.7718542,0.0,1.1027365,-0.7738994,0.093587585,-0.0,1.2771165,0.0,-0.2260136,0.0,-0.0,-0.0,-0.0,-0.0,0.37224174,0.27155158,0.0,0.0,-0.41229898,0.090765126,-0.0,-1.0616049,-0.0,0.22661684,0.58503544,0.0,0.0,0.0,-0.0,0.0,0.0,-1.054583,0.1536952,0.0,-0.0,1.3893796,0.0,-0.0,-0.0,0.13403668,-0.05247468,0.0,-0.0,0.27964368,-0.0,-0.0,0.2659819,-0.0,-0.0,0.12808311,-0.1541916,0.0,-0.0,-0.51666516,0.0,0.53596,0.0,-0.0,0.6893573,-0.0,0.5560539,0.0,0.0,-0.717171,0.0,-0.0,-0.5732685,-0.0,0.12307597,-0.5107366,0.0,0.0,0.93622506,0.0,0.8455874,-0.0,1.7605362,0.43943062,-0.0,0.0,-0.0,-0.0,-0.030567685,-0.075265236,-0.2741273,-1.8206968,2.0098996,-0.13522805,-0.0,-0.0,-0.0,0.5156102,0.1400559,-0.0,-0.0,-0.0,0.0,-0.34423053,0.8116267,-0.25751516,-0.0,0.0,0.44204926,-0.0,-0.0,-0.0,-0.0,0.0,-0.0,-0.0,0.022062033,-0.0,0.0,-0.0,0.10557489,-0.0,-0.0,-0.3443812,-0.68937075,-0.18588325,0.13353913,-0.30380744,0.29137173
-0.0,-0.0,-0.4676079,-0.0,-0.7073671,0.0,-0.39762777,-0.6328187,-0.0,-0.0,-0.0,-0.56264603,0.0,-0.0,0.09100291,-0.0,-0.0,0.0,-0.66184413,-0.0,-0.9149771,-0.5742241,0.0,-0.0,-0.0,-0.0,-0.0939207,0.0,-1.2747072,-0.32144523,-0.96153986,-0.75264484,0.0,0.4194927,0.5882592,-0.3807573,0.073003635,0.0,-0.30665976,-0.89063555,-0.0,0.0,-0.293338,0.0,0.0,-0.3278528,-0.7304979,0.0,0.0072701434,-0.0,-0.15830588,-0.0,-0.0,-0.0,0.0,0.0,0.0,-0.0,-0.0,-0.0,0.0,-0.6844795,-0.5942965,-0.0,-1.0798265,-0.0,-0.0,-0.3152532,0.0,-0.0,0.0,-0.17835313,0.20253935,-0.0,0.0,-0.0,-0.0,-0.75419515,-0.0,0.0,-0.6208254,-1.0751382,-0.36498088,-0.0,0.0,-0.66691726,0.60458,0.0,0.0,-0.17146638,-0.0,-0.5684371,-0.0,0.0,0.40902767,-0.0,0.0,0.0,0.0,-0.0,0.0,0.0,0.0,-0.0,-0.0,-0.0,-0.0,-0.0,-0.0,0.0,0.0,0.0,-0.0,-0.44488814,-0.73328257,-0.0,-0.30499002,-0.0,0.0,0.0,-0.0,-0.0,0.0,0.86655265,-0.0,0.0,0.0,0.69454813,-0.0,-0.0,0.0,-0.0,-0.0,-0.0,0.0,-0.0,0.0,0.0,0.0,0.0,0.5390326,0.0,-0.0,0.0,-0.52704495,-0.0,0.0,0.0,-0.0,0.3182512,-0.0,-0.0,-0.0,-0.0,-0.0,-0.60212773,-0.0,-0.0,-0.0,-0.0,-0.106239006,-0.66546905,0.0,-0.0,-0.30426624,-0.0,-0.0,-0.14970396,-0.33757988,0.16475376,0.0,0.0,0.95482266,-0.0,-0.3479725,-0.0025315983,-0.74911475,-0.56068003,-0.92718685,-0.33705896,0.0,-0.9078387,-0.4572427,0.4363782,-0.0,-0.8628515,-0.6110262,-0.80687803,-0.017433157,-0.5993593,-0.0,0.0,-0.88412917,-0.86186963,0.06403604,-0.0,-0.605242,0.0,0.0,-0.8423719
0.5088783,0.69626135,-0.0,-0.6561364,3.2040496,0.0,1.9504231,-0.0,1.0963482,0.7909959,0.12634273,-0.22268242,1.9651428,2.0367324,0.0,-0.0,-0.0,-0.10881926,0.0,-0.0,0.0,0.0,0.0,0.92965966,0.0,0.0,0.0,-0.0,0.0,1.7718738,-0.49567267,0.0,0.0,0.05020102,0.6354619,0.0,-0.0,-0.05837223,0.0,-0.88017327,1.0112882,0.765093,1.148906,-0.42191783,0.38446355,-0.0,1.3382506,-0.43851784,-0.0,0.0,0.0,-0.633939,0.0,0.0,0.42091292,0.0,0.0,-0.0,0.0,1.4014808,-0.0,0.0,-0.118957534,0.0,-0.9087773,0.0,-0.0,-0.0,-0.0,0.0,0.0,0.4907477,0.0,0.79144156,0.0,-0.36081663,0.0,-0.0,0.0,0.81538725,-0.0,0.0,0.0,-0.07037759,0.2903596,0.0,-0.13053603,0.0,-2.382851,-0.0,0.58671474,-0.7101795,0.78493345,0.0,-2.4882565,0.0,0.0,-0.0,-0.0,0.03435845,-0.027977293,-2.7007031,-0.899971,-0.41069844,-0.0,2.4305387,0.32965127,0.0,2.2685637,-1.6527944,1.3034484,2.0853915,-1.7653192,0.4070702,1.8959441,1.0737425,0.0,0.2923123,-0.0,-1.3297436,0.28238803,0.0,-0.4065234,0.5776513,0.3001187,2.054963,1.3971386,-0.0,0.0,0.60467994,0.2732895,-0.0,-0.0,-0.0,-0.0,-0.0,0.0,1.6020539,0.0,1.8403,-0.52067554,0.3888398,0.05816115,-0.0,0.27586132,0.6341737,2.8181493,-0.0,-0.0,-0.0,0.0,0.08114144,-0.0,-0.0,0.6053397,-0.1361968,0.0,-0.0,1.7384719,0.38108993,-0.0,0.0,0.0,0.0,0.15030299,0.98887104,0.0,-0.090236425,0.0,0.37256,0.0,0.0,-0.0,0.98676497,-1.2816058,-0.62982076,5.364375,-0.0,0.0,1.9759039,0.8685744,0.0,0.0,0.5952843,0.17469695,0.29546568,0.55227864,0.0,-1.1152179,0.0,-0.0,1.0169867,2.6950836,-0.51072246,-0.0,0.0,0.24643664,0.36543417,1.5019546,-0.44235876
0.0,-0.0,0.0,0.0,-1.0660447,-0.0,-0.0,-0.0,-0.18863294,-0.46857902,-0.0,0.0,0.7659746,0.9152681,0.05709617,0.0,0.0,0.0,0.0,0.0,0.0,-0.0,0.0,-0.0,0.0,-0.0,-0.59273785,0.0,-0.0,-0.0,0.0,-0.0,-0.10404059,-0.0,-0.9768152,0.0,-0.0,0.0,0.0,0.0,0.17424072,0.0,-0.0,0.6716455,-0.0,-0.0,0.52604836,0.0,-0.0,-0.7793739,0.0,-0.0,0.0,0.7838581,0.0,0.0,-0.0,0.0,0.038513042,0.0,-0.0,0.1272488,0.0,-0.0,0.0,-0.0,0.0,-0.0,0.0,0.0,0.0,-0.0,-0.8619007,0.0,-0.0,0.0,0.0,-0.58500844,-0.0,0.0,0.0,0.0,0.0,-0.0,-1.1782181,0.0,-0.0,0.0,0.0,-0.14896286,0.4296811,0.0,-0.0,-0.0,-0.0,0.68360734,0.0,0.0,-1.0052814,-0.0,0.16197757,-1.1421291,-0.0,-0.4037512,0.0,-0.31850082,0.0,-0.094293766,-0.5597758,0.0,-0.7215409,-0.6249362,-0.0,-0.0,-1.8836242,0.89571494,-0.34029102,-0.0,-0.0,0.0,-0.0,0.0,0.0,-0.06250477,0.0,0.0,-0.0,-0.0,-0.0,0.0,0.0,0.0,-0.0,-0.0,0.0138781965,-0.9738136,0.0,-0.0,-0.0,-0.0,0.57189476,-0.47979397,-0.0,0.0,-1.7721765,-0.0,-0.0,-0.0,-0.0,1.0654042,0.08299315,-0.0,0.0,-0.0,-1.0786477,-0.0,0.14995554,-0.0,-0.0,0.0,-0.0,0.0,-0.0,0.0,-0.0,0.0,0.6139973,0.0,0.0,-0.5970745,0.7512472,0.0,-0.0,-0.0,0.68660843,0.38473356,-1.1361821,-0.0,-0.0,-0.0,0.0,0.0,0.0,0.0,-0.90999377,-0.51472706,0.0,0.0,0.0,-0.0,0.0,0.46878442,-0.0,-0.32265243,0.0,0.6290129,0.27510563,0.0,-1.2129517,-0.0
0.2238469,-0.2891875,0.20595565,0.0,0.0,-0.0,-0.0,0.23257367,0.0,-0.36394724,-0.0,0.0,-0.5879328,-0.24791509,0.3689203,0.0,0.0,0.21076727,0.19068861,0.0,0.27142248,-0.0,-0.0,0.0,0.18574229,0.0,0.0,-0.0,0.20662719,-0.34785235,-0.20139326,0.0,-0.0,0.0,-0.28815237,-0.0,0.0,-0.3276237,-0.0,0.19150668,0.0,-0.0,-0.42982328,-0.31941506,-0.24647017,0.0,-0.30889645,-0.0,0.17959104,0.29698628,0.40778065,-0.22331415,0.0,0.0,-0.0,-0.0,-0.0,0.0,-0.30940196,-0.31021875,-0.0,0.0,-0.0,0.0,0.29444912,0.0,0.0,-0.0,-0.0,-0.23294091,-0.0,-0.0,-0.0,0.0,-0.0,0.3473609,0.0,-0.0,0.201536,-0.21146306,-0.20858756,0.0,0.19984432,0.0,-0.0,-0.0,0.18144625,-0.0,0.1928327,0.0,0.0,0.0,-0.28231135,-0.22393754,0.32687527,0.0,-0.0,-0.0,0.0,0.39467213,0.25265375,0.26321277,-0.0,0.0,-0.33311242,0.0,0.0,0.0,0.0,0.30404657,-0.0,-0.0,0.36714932,-0.40188572,0.0,-0.19453155,-0.0,0.21840344,-0.0,-0.0,0.0,0.0,-0.47181165,0.0,0.43656814,0.18836005,-0.27084532,0.0,0.0,-0.2854192,-0.0,0.0,0.0,0.0,0.24258631,0.15351263,-0.0,-0.23398481,-0.0,-0.0,-0.0,-0.2350167,-0.28021106,-0.26063767,-0.47230732,-0.20903191,-0.40821782,-0.0,0.0,-0.0,0.0,-0.2442162,0.0,0.0,0.0,-0.0,-0.18690188,0.0,0.0,-0.47050273,-0.36829332,0.0,-0.4539565,-0.0,0.23686923,-0.3969577,0.0,0.17762697,0.0,-0.33499035,0.20289141,-0.0,0.32706794,0.0,-0.0,0.0,0.0,-0.24345173,0.0,0.0,-0.0,0.0,-0.0,-0.36731556,-0.19780241,-0.20945042,-0.20656045,-0.39752156,-0.17810847,0.0,0.0,-0.3010071,-0.27247196,-0.33615345,-0.0,0.0,-0.25535047,-0.0,-0.0,0.0
0.2593033,0.50080025,0.14133126,0.2108838,-0.0,-0.0,-0.0,-0.0,0.5169966,0.6968176,-0.24490684,0.0,0.4342344,0.53011996,-0.37854433,-0.0,-0.0,0.0,0.1364763,0.0,0.0,-0.0,0.0,0.0,0.39848945,-0.0,0.25458634,0.0,-0.0,0.0,0.2973238,-0.0,-0.0,0.21743676,-0.0,0.0,-0.0,0.18920216,0.0,-0.15362386,0.43241826,0.43901306,0.4408601,-0.0,0.3477902,-0.0,0.38633996,0.0,-0.0,-0.0,0.0,0.58071136,0.0,-0.0,0.0,0.0,0.0,0.0,0.48373407,0.5233345,0.2116601,0.0,0.6680541,0.5654677,-0.16525057,-0.0,-0.0,-0.0,0.0,0.16952212,0.0,-0.0,-0.0,-0.0,0.23311281,0.0,0.21479261,0.0,-0.0,0.0,0.30163836,0.0,-0.0,-0.0,-0.0,0.0,-0.0,0.0,0.0,-0.1919637,0.34088117,0.22638826,0.45681468,0.21754293,-0.0,0.0,0.0,0.0,-0.0,-0.0,-0.3933187,-0.38455418,-0.0,-0.4072351,-0.0,0.0,0.31721663,-0.0,0.57582325,-0.48742035,-0.21709841,0.19341722,-0.49336833,0.5387065,0.0,0.34704584,0.0,-0.25566524,-0.0,-0.0,0.0,0.0,0.503107,0.27876407,-0.3184232,0.0,0.57232904,0.0,0.1791944,0.4438666,-0.3097964,-0.0,-0.0,0.2700614,0.0,-0.2800532,0.0,0.38396597,-0.0,0.16104603,-0.7020747,0.4060704,0.5743274,0.0,0.43243,-0.0,0.0,-0.17651191,-0.0,-0.0,0.49794132,0.5380046,-0.0,-0.0,0.0,-0.2041912,0.19189076,0.0,0.74951667,0.6563772,0.18468389,0.0,0.8868781,0.72359926,-0.25004536,0.31420413,0.0,-0.36985558,0.0,0.28821015,0.0,-0.0,0.0,0.52682406,0.44630754,0.0,0.0,-0.0,-0.0,0.3662016,0.37756565,-0.0,-0.0,0.396916,0.21645075,0.0,0.0,0.24475148,0.0,-0.2445589,0.4310043,0.45939374,0.7311629,-0.0,0.18004249,-0.0,0.49987724,0.16067542,0.0,-0.0
-0.0,0.0,-1.4492128,0.0,-0.0,0.0,-1.0252696,0.5755271,0.0,-0.34656525,-0.0,-1.8835081,-1.0677668,0.5686881,0.99658406,-0.0,-0.0,-1.5283467,-0.0,-0.0,-1.3846076,-0.0,0.08191529,-0.0,0.0,-0.0,0.64111584,0.6337316,-3.2012465,-0.0,-0.0,0.028128408,-0.16289912,-0.0,0.0,-0.33263946,-0.37959948,-0.0,-0.52593875,-0.5213785,0.0,0.0,-1.2726676,-0.0,-0.1727829,-1.6386604,-0.0,-0.34047508,-0.9452785,0.0,-0.0,0.0,-0.0,0.0,-0.0,0.0,1.8042097,0.0,0.0,-2.2205842,-0.0,-2.072572,0.0,1.445512,-0.70421505,-0.0,-0.0,-1.8039691,-0.0,-0.0,-0.0,-0.703763,0.0,-0.0,0.0,-0.0,-0.0,-0.0,-0.0,-0.46728796,-0.25062588,0.048434537,0.09984137,-0.0,-0.0,0.14395295,-0.31047297,-0.0,0.12742452,-0.0,-0.0,0.0,0.28375727,-0.0,0.0,0.0,-0.0,0.0,1.1885315,-0.34288305,0.0,0.9596885,1.6148249,0.0,-0.0,0.0,-1.9887906,0.5042232,0.056292303,-1.3567452,1.1347383,0.0,0.64161843,0.0,0.0,-0.44780764,0.0,-0.0,-0.0,0.2159031,0.02412637,-0.27777967,-0.37941435,-0.504363,-0.0,0.0,0.99150306,0.32788473,2.781643,-1.2355086,-0.85456717,0.38243753,0.26389593,-0.14828357,-1.0261304,0.66281044,-0.65575093,0.013418901,-0.95187896,1.580226,-0.0,0.0,0.6705219,0.0,0.7757771,0.0,-0.81263906,-0.21603559,1.687502,0.5963293,-0.0,0.18033709,-1.3491572,-0.01936317,-0.0,0.0,-0.9076324,1.034594,0.0,-1.1030668,-0.0,-2.6314356,-1.1089555,-0.0,0.0,-1.063454,-2.2272518,-2.3720696,-0.0,-1.009186,-0.73670334,-0.5505165,0.0,-0.0,-0.6764981,-0.9593944,0.0,0.0,-2.3608282,-0.0,-0.5691496,-0.0,-0.13316333,0.4224375,0.0,-1.0217696,0.4108569,-0.0,-0.3167291,-0.030107899,-0.0,-0.0,-3.8411777,-0.0,-0.6488321,-1.1352417,-0.0,-0.8848344,0.4318275,0.0
-0.0,-0.18586628,0.5432452,0.29899797,0.7921287,0.0,0.34957975,0.64856374,0.96870106,0.56350666,0.0,0.09307875,0.0,-0.0,0.0,-0.0,-0.26131827,-0.0,0.7713868,-0.0,0.79817456,0.0,-0.0,-0.0,0.0,0.0,-0.0,-0.0,1.6086731,0.5223109,0.5497469,0.91410047,1.7070296,-0.553458,0.0,0.89973325,0.05425843,-0.0,0.6020385,0.21154772,0.0,0.21439594,0.08408193,-0.025681943,0.0,0.79244393,0.64857835,-0.0,0.09912286,0.0,-0.27830604,0.0,-0.0,0.0,0.04588348,-0.0,-0.0,-0.0,-0.08380621,-0.0,0.3584536,0.51382613,0.59904045,0.0,1.5225459,0.0,0.0,0.0,-0.0,-0.0,-0.0,0.0,-0.307722,0.0,0.0,-0.0,-0.0,0.0,0.0,-0.0,-0.0,1.5379236,1.2674773,0.0,0.43781498,1.7955317,0.0,-0.0,-0.0,0.25563613,-0.0,-0.0,-0.0,0.0,0.0,-0.0,0.43975002,-0.0,0.0,-0.0,0.0,0.0,0.0,0.0,0.0,-0.0,0.0,0.0,0.0,-0.0,0.0,-0.0,-0.79376227,0.4000478,0.05782628,-0.0,0.6751368,-0.66047883,0.0,-0.0,-0.0,-0.0,0.3801896,-1.3077009,-0.0,-0.0,-0.0,-0.0,0.0,-0.0,1.1943704,0.0,0.0,0.0,-0.0,0.0,-0.0,0.0,0.0,0.0,0.0,0.52717024,-0.0,-0.0,-0.0,-0.0,0.47163904,0.0,-0.23476672,0.0,0.0,0.0,-0.0,-0.08523737,-0.17707059,0.5372357,0.0,-0.0,-0.0,0.6664552,0.20635095,0.37579048,-0.12013236,-0.0,1.1496155,-0.0,0.44583634,0.151054,1.0853288,-0.5127251,0.37480518,-0.48215365,-0.0,-0.23748732,0.6522636,0.6080991,0.0,-0.0,0.9417738,0.2453789,-0.0,1.1679661,2.2681682,-1.2120289,0.02085235,1.4198613,0.4277319,0.6737811,0.7095444,0.0,-0.0,-0.0,0.77538234,0.7415852,-0.0,0.5604702,0.56159335,-0.0,-0.0,0.6576488
0.0,0.70153093,0.0,-0.0,0.0,1.4868093,-0.0,-0.0,-0.0,0.0,-0.0,0.0,0.41291398,0.0,-0.0,0.0,1.0733179,-0.38221642,-0.7978522,0.700834,0.0,-0.0,1.2852631,0.0,-0.0,-0.0,0.22311664,0.0,-0.0,-1.0837041,0.0,-0.0,-0.0,-0.0,-0.0,0.0,-0.0,0.8225591,0.0,0.69040847,0.68405825,0.0,0.0,0.6313699,-0.0,-0.07914323,-0.005950001,0.0,-0.0,-0.0,0.5340801,0.46812692,0.0,-0.052494198,0.0,0.0,0.0,0.0,0.38541305,0.0,-0.0,-0.039530683,-0.055740576,-0.0,-0.027758373,-0.0,-0.0,-0.0,-1.2256294,0.0,0.0,0.0,-0.0,-0.0,-0.0,0.44678593,1.0096282,-0.0,-0.0,0.0,0.0,0.0,0.0,-0.0,-0.0,0.0,-0.0,0.0,0.0,0.44144037,0.0,0.0,0.0,-0.0,-0.0,-0.12285597,0.0,0.0,-0.0,0.0,-0.0,-0.0,-0.0,-0.2697105,-0.0,0.0,-0.0,0.6210243,-0.0,0.0,-0.0,0.0,-0.0,-0.0,0.03324322,0.0,0.54710305,-0.0,-0.0,0.0,-0.0,-0.1413101,-0.2500293,-0.0,0.0,0.0,0.0,0.19952533,-0.0,0.0,-0.8755197,-0.0,-1.3156723,-0.0,0.0,-0.0,0.0,-0.0,-0.021519901,-0.23960762,-0.0,-0.0,0.0,-0.9845244,0.0,0.0,0.0,-0.3631105,-0.0,0.36750066,0.2692097,0.47720844,0.0,-0.0,0.0,0.46081543,-0.0,0.0,0.48396143,0.4195996,0.13838594,0.0,1.2015138,0.0,0.16468298,0.0,0.0,0.0,0.0,0.0,-0.22495274,0.0,0.6190254,-0.0,0.0,0.08796376,-0.036836892,0.0,-0.5853402,0.0,0.0,0.10801072,0.0,0.29240763,-0.0,0.0,0.0,0.32766685,0.0,1.0951903,0.0,0.0,0.0,0.0,-0.0,-0.0,0.2619849,0.0,0.0,-0.0
0.23202096,0.7084546,0.0,-0.9044371,-0.72370136,0.0,-0.0,0.0,-0.0,-0.39630044,0.12341858,-1.3692377,-0.6560411,0.0,-0.0,0.78290045,-0.20572634,-0.0,0.0,0.0,0.0,0.3510402,0.0,1.0288013,-0.0,-0.0,0.0,0.0,0.0,0.0,0.0,0.0,0.0,0.0,1.6103652,0.0,0.44889665,0.0,-0.47919858,0.0,0.0,-0.0,0.0,-0.0,3.6153533,0.0,-0.0,0.0,-0.0,-0.0,-0.0,0.0,-0.034751266,-0.0,-0.0,-0.008458535,-0.8394901,0.0,-0.6121084,-0.04585051,-0.5104759,-0.7595174,-0.0,0.0,-0.0,-0.0,-0.0,0.0,-0.0,-0.0,0.0,0.0,0.0,0.36160123,-0.0,-0.0,0.23974292,0.0,-0.0,0.0,-0.0,0.0,0.0,0.0,-0.0,0.0,0.5073848,0.94799966,-0.0,-0.9690128,0.0,-0.0,0.0,0.6075615,-0.03775682,0.0,0.0,0.8864035,-0.0,0.0,-0.0,-0.0,-0.0,-0.0,-0.2800933,1.5004199,-0.0,0.0,0.0,-1.0480554,0.0,1.8276039,-0.0,-0.27999958,0.048907008,0.0,0.0,0.9884683,-0.0,0.0,-0.0,0.0,-0.0,-0.0,-2.378675,0.0,1.7831933,-0.0,-0.0,0.0,0.0,-0.0,0.62939996,1.2373289,0.0,-0.0,-2.1006792,0.0,0.0,0.6042814,-0.0,0.98452526,0.0,-0.0,2.2825334,-0.0,0.0,-0.07872244,-0.0,0.29419965,-0.0,-0.0,0.58994263,-0.0,-0.13109304,-1.2616262,-0.0,0.0,-0.76775765,-0.8238209,0.0,0.0,-0.72041065,-0.73853207,-0.2079912,0.0,-1.0854391,-0.0,0.0,-0.0,0.0,0.0,-0.4950181,0.0,-1.4758477,-0.0,-2.342351,0.61040753,0.0,0.0,-0.0,0.0,0.0,0.0,0.0,0.0,0.0,-0.25518695,-0.68354213,0.0,0.0,-0.08851629,-1.0049579,-0.4911662,0.0,0.0,-0.6038068,0.0,0.43779823,-0.0
0.0,0.97857517,0.0,-0.0,-0.6797901,1.3043379,0.13274655,1.2242922,2.6770318,2.009341,-0.0,0.0,0.74291676,-2.7160287,-0.0,0.7638288,-3.5157406,0.0,0.062513255,1.1895286,-0.5337157,-0.0,0.0,0.0,-0.0,0.06908649,1.0954305,0.0,2.6747656,0.0,0.0,0.38920668,-0.0,-0.0,1.1171594,-0.20912498,1.0338981,0.0,0.27851978,1.4312245,-0.0,0.0,4.1957574,1.8286797,-0.0,0.0025174674,1.2468759,0.0,-0.0,-0.0,0.0,-0.0,0.0,-0.0,0.0,-0.028179308,0.0,0.0,-0.0,0.40312108,0.021977184,0.0,-6.0024137,-2.9480112,-2.6026418,-0.0,-0.0,-0.0,0.0,0.0,-0.70641124,-0.0,-0.0,0.03755246,-0.0,0.0,0.35801813,-0.93770325,-0.20170665,0.0,0.58059645,-0.0,-0.0,0.18716928,-0.38276738,-0.10195477,-0.0,0.0,0.0,0.04035107,0.0,0.0,0.90887874,-0.0,-0.0,-0.5676929,-1.4714339,-0.22454308,-0.0,0.0,-0.0,-0.0,-0.0,-0.0,-0.006485482,0.48262122,-0.3492231,0.5736299,2.007252,0.0,1.4836216,2.5067573,-2.9070144,-0.0,2.7882934,0.0,0.0,-0.0,-0.34757072,0.0,0.0,0.0,0.5499197,0.0,0.0,0.0,0.0,0.0,2.0461662,0.0,-0.0,-0.0,-0.0,-0.3181053,0.0,-0.0,0.09655473,-1.7281281,-0.30773646,2.7179248,0.8515951,-0.0,1.0769799,4.2657523,0.0,-1.0270311,1.3863791,-0.14879636,-0.0,-0.0,1.7372762,-0.0,0.0,-4.69669,0.0,0.82578856,1.2020336,0.0,1.9121342,1.5256552,-0.0,0.0,-0.2971333,-2.4143195,-1.1952423,5.149316,0.0,-0.78966093,0.0,0.60757035,0.0,-0.0,-0.17298731,-0.23370893,-1.6479806,-4.9894943,1.6004653,0.0,2.479159,-1.4006276,0.0,0.5343213,-0.0041455044,0.0,1.1424071,-0.1766642,-1.7264608,0.0,0.58370954,1.9106596,2.0009801,-0.15859228,3.4930046,3.344493,1.8208714,-1.0376414,0.0,0.0,0.78044,-0.35918567
-0.0,0.5812266,1.1448603,-0.0,0.9261265,-0.0417256,0.0,1.7395775,-0.0,0.16159727,0.0,0.4204168,-1.1988175,0.5155515,0.8519221,-0.19891112,-0.058371134,-0.0,1.4286267,-0.43836883,0.0,0.0,0.0,0.0,-1.457624,-0.0,0.8485403,-0.05845757,0.80361664,0.7568418,-0.21352379,0.0,0.63696086,-0.49963728,-0.74397564,0.0,0.0,0.0,0.3166286,0.25791728,0.0,-0.450079,0.0,0.0,0.37817246,0.9535025,-0.0,-0.0,0.22757226,-0.0,-0.0,-0.0,0.0,-0.0,-0.0,0.4205871,0.0,-0.0,0.0,0.24232197,0.0,0.24354947,-0.0,-0.012082772,0.76928556,0.0,-0.71706337,-0.0,-0.0,-0.2045458,0.0,1.0010093,0.0,-0.0,-0.0,0.0,0.26833996,0.0,1.3038011,0.0,-0.0,0.0,0.9807741,-0.10937448,0.65709513,0.0,0.14366941,0.53723645,-0.0,-0.37549934,-0.0,-0.0,-0.2525957,0.0,0.0,0.5568331,0.0,-0.0,-0.0,0.0,-0.0,-2.2701871,-0.0,0.39609763,-0.2116137,-0.0,0.089283906,0.0,0.0,-0.0,0.0,-0.0,-1.8184869,-0.14441775,-0.0,-0.0,0.0,0.0,-0.60319877,-0.0,-0.0,0.0,-0.0,-0.0,-0.0,0.0,-0.0,-0.0,-0.00292907,0.0,0.0,-0.0,-0.0,0.60906917,0.0,-0.0,-0.0,-0.0,0.0,-0.2237243,0.19143918,0.6187231,0.0,-0.0,0.77445996,-0.0,0.0,0.14944257,0.0,-1.3531622,-1.9806721,-0.0,1.5328041,-0.0,-0.13540031,0.6042918,0.0,1.3285817,0.0,-0.0,0.0,0.5119683,0.0,1.4352427,0.0,-0.5737251,-0.0,1.6997277,2.1753798,-1.4430691,0.0,0.0,0.0,0.0,-0.0,0.0,1.7027465,0.0,0.54988045,0.9173698,-0.0,0.463825,0.48268113,-0.43448174,-0.12875676,0.0,0.62949497,0.27472603,-0.42133263,0.0,-0.6130963,-1.2546939,0.0,-0.0,-0.5749337,0.0,-0.071618326,-0.0,1.9361238,1.0639807
-0.0,-0.7334286,-0.0,0.0,-0.20553784,-0.0,0.0,0.0,-0.6532184,-0.0,0.0,-0.40668902,0.07881245,-0.5542384,-0.81608963,0.3273932,0.0,-0.0,-0.47659022,-0.0,-0.0,0.5690921,-0.0,0.0,0.0,0.0,-0.0,-0.0,0.23837689,-0.0,-0.0,-0.32460412,-0.40833032,0.0,0.0,-0.20150124,-0.9921109,-0.0,-0.0,-0.0,0.0,-0.0,-0.60901535,0.33631736,0.38842204,0.0,0.0,-0.0,0.0,0.0,-0.0,0.0,0.6728153,0.06301429,-0.0,-0.0,-0.0,-0.20558368,-0.290949,-0.0,0.0,0.12272103,-0.0,0.014460384,0.0,0.0,0.0,0.0,-0.09820522,-0.0,-0.0,-0.0,0.03412917,0.0,0.0,-0.0,-0.9824684,0.0,0.0,-0.0,-0.0,-0.0,-0.0,0.0,0.0,-0.0,0.0,-0.0,-0.0,-0.237355,-0.0,-0.0,0.7132023,0.04758058,-0.32798323,-0.0,-0.0,-0.0,0.06886717,-0.0,0.0,0.0,0.0,0.0,0.0,-0.0,0.0,0.0,0.0,-0.07877268,0.0,-0.0,-0.14093131,-0.19758596,-0.28439346,-0.0,0.70567256,0.0,-0.013129597,-0.0,0.0,-0.0,-0.2757416,0.0,-0.0,-0.0,-0.0,0.0,0.0,-0.0,0.0,0.12550208,-0.028512603,0.0,-0.0,0.0,-0.0,0.0,0.0,0.0,0.0,0.062284283,-0.0,-0.0,-0.0,-0.0,-0.0,0.0,0.0,0.62324476,0.0,0.0,-0.0,-0.34180814,-0.0,0.10460982,0.0,-0.0,-0.66784155,-0.0,-0.7775588,-0.0,-0.0,-0.0,0.0,-0.0,-0.0,-0.0,-0.4711848,-0.0,-0.0,-0.0,0.24520811,0.0,-0.031024348,0.0,0.0,-0.0,0.0,-0.46216705,-0.0,-0.042076774,-0.575596,-0.0,0.0,-0.0,0.04022171,-0.13474597,-0.0,0.0,-0.0,-0.0,-0.0,0.22341047,0.22559197,-0.0,-0.22966926,-0.0,-0.0,-0.45805657
0.9567656,1.2398164,0.0,0.010354113,0.0,0.0,0.12636317,-0.0,0.47560972,0.8334723,-0.0,0.0,0.6880264,1.0353578,0.9333831,0.0,1.1004101,0.15696917,0.0,0.0,0.0,-0.0,0.5987512,0.0,-0.0,0.25027844,0.20519267,0.0,-0.0,0.0,0.0,-0.0,-0.0,-0.0,-0.0,0.0,-0.0,0.77582544,0.0,0.43107715,0.7623165,0.33759373,0.8056746,0.5584761,0.0017496931,-0.0,0.05645662,0.0,-0.0,-0.16810921,0.0,0.5691994,0.0,-0.0,0.0,0.0,0.0,0.0,0.72259563,-0.49262866,-0.0,0.0,0.058431458,0.27743372,-0.0,-0.0,-0.0,-0.0,0.0,0.0,0.0,0.0,-0.06499164,-0.0,-0.0,0.39219546,1.0372317,-0.0,-0.0,0.0,0.0,0.0,0.0,0.32987747,-0.0,0.0,1.0696284,0.0,0.2192801,0.0,0.0,0.0,-0.43566394,-0.0,0.77788126,0.0,0.0,-0.041149646,-0.0,0.0,-0.0,-0.0,-0.0,-0.0,-0.0,0.0,-0.0,-0.0,-0.0,0.0,-0.0,0.0,0.41419855,0.21398799,-0.3570618,0.80163395,0.0,-0.0,0.2141629,0.0,-0.0,0.0,0.0,-0.0,0.0,0.033365294,0.35676023,-0.0,-0.0,0.0,0.0,-0.0,-0.0,-0.0,0.26829445,-0.0,0.0,-0.0,0.008649949,-0.0,-0.0,-0.0,0.0,0.0,0.0,-0.0,-0.09457419,-0.32458705,-0.0,-0.0,0.1431368,1.0580502,0.0,0.76073295,0.0,0.5176174,1.1240185,0.0,0.56319845,0.89396757,0.56658435,0.0,1.0747945,0.868723,0.2932636,0.0,-0.07444409,0.0,0.0,0.0,0.0,0.2853825,0.0,-0.0,0.10211828,0.005877148,0.035396215,0.0,-0.0,0.0,1.1003724,0.06348052,0.0,0.50036633,0.5106785,0.0,0.35275677,0.44720227,0.24318422,1.1729238,0.644494,0.19916254,0.30747947,0.0,0.68335295,0.0,0.6498201,0.0,0.0,0.021274524
0.0,0.0,-1.020339,0.4102357,0.31843826,-0.85889655,-1.0315785,-1.0455359,0.0,-0.0,0.22246745,-0.0,0.56098914,-0.0,-0.5045766,0.0,-0.2118795,0.24678592,-1.0522548,0.0,-0.8308948,-0.0,-0.26713094,0.0,0.0,0.0,0.69134116,-0.35065883,-0.4938835,-0.6412251,-1.0172579,0.0,-0.5104259,0.2572136,0.0,-0.9597709,0.57586396,0.20909344,-0.5209513,0.0,0.0,-0.0,-0.0,-0.0,-0.60157424,-0.2910834,-0.0,-0.0,-0.754997,0.20821857,0.0,0.0,-0.830917,0.50123185,0.32345036,-0.84180933,-0.8860035,-1.0668308,0.34803918,0.0,-0.0,0.0,0.66750205,0.66227514,-0.49503317,0.0,0.0,0.24198562,-0.52359533,0.0,-0.83729434,-0.0,0.3335596,-0.21637347,-0.0,0.0,1.0639206,-0.0,-0.36837006,-0.0,-0.9996637,0.0,-0.3187151,0.0,-0.0,-0.7380385,0.26055133,0.18311644,-0.5050675,0.17648524,0.0,0.0,0.3578502,-0.0,-0.0,0.0,-0.0,-0.0,-0.5428893,0.0,0.0,-0.0,-0.9289135,0.19825922,0.8837738,-0.34311825,0.84519583,-0.8915265,0.0,0.23396888,-0.0,-0.5248738,0.0,-0.0,-0.4737773,0.0,-0.3315834,0.0,0.8858765,-0.0,-0.24956794,-0.0,0.35953078,0.0,0.0,-0.0,-0.0,-0.41145456,-0.72224486,0.39152506,0.4031899,-0.41051948,-0.43851632,0.0,0.0,-0.350777,0.6335872,-0.0,0.9389673,-0.3573528,-0.0,-0.0,0.0,0.19951846,0.0,0.35560533,-0.0,-0.0,-0.8656108,-0.0,-0.21807046,-0.673917,-0.82143545,0.5625269,0.5336799,-1.0758332,-0.9867903,-0.9808362,0.0,0.20534086,0.0,0.2603601,0.5453651,1.1618316,-0.93989635,0.0,-0.36821738,-0.0,-1.1354394,0.0,-0.9507387,-0.0,0.35540065,-0.26723748,0.27974743,0.0,0.61076367,-0.33174852,-0.19686227,-0.592154,-0.80109596,-0.18452898,-0.3928119,0.0,0.0,-0.9744694,0.31844535,0.34090796,-0.8081484,0.0,0.0,-0.0,0.55090195,-0.0,0.0,-0.19992116,0.38794345,-0.0,-0.7165463,0.25489837
0.0,-0.7389218,0.0,0.30789176,-0.31451285,-0.20496853,-0.49245885,-0.5473126,-1.0132687,-0.73680854,-0.13264407,-0.29656875,-0.13465682,0.14579114,-0.2479427,-0.06932511,0.29948896,0.0,0.0,0.4094094,-0.60009307,0.041686457,-0.0,0.099148534,0.0,-0.0,0.0,0.0,-0.47172147,0.0,-0.0,-0.7439755,-0.55454534,0.32343224,0.0,-0.45727712,-0.69920814,-0.41718388,0.0,0.0,-0.0,-0.74675167,-1.3465712,0.0,-0.0,-0.6270847,0.24002193,-0.0,-0.0,-0.0,0.0,-0.0,0.0,0.0,-0.0,0.0,-0.0,-0.0,-0.30805895,0.0,-0.48744208,0.0,0.26055372,-0.4624125,-0.22914663,0.0,0.0,-0.14532131,0.0,0.22757591,-0.59172505,-0.17668597,-0.0,-0.0,-0.0,-0.12847197,-0.33616412,-0.393093,-0.5224462,-0.07280866,-0.16920918,0.0,-0.0,-0.15427941,0.0,0.0,-0.1840777,0.0,-0.0,-0.0,-0.0,-0.3782211,-0.63195574,-0.10198986,-0.34700206,-0.0,0.0,-0.0,-0.0,-0.9617352,-0.69634104,-0.53305304,-0.0,0.8726421,0.0,0.048183575,0.0,-0.0,0.0,0.0,-0.008475982,-0.0,-0.0,-0.8782158,0.20475179,-0.43155158,-0.0,0.0,-0.0,-0.0,-0.24270275,-0.0,0.021164726,0.0,-0.0,-0.54263663,0.13568655,0.0,-0.0,0.0,0.0,-0.24396396,-0.0,0.0,-0.02398444,-0.0,-0.13641694,-0.0,-0.12501988,-0.0,-0.321204,-0.0,0.0,-0.0,0.0,0.0,0.0,-0.11385594,-0.0,-0.0,0.29140076,-0.0,0.0,0.16861042,0.0,-0.18812722,-0.0,-0.26017419,-0.6595893,-0.3387532,-0.37786683,-0.21442065,-0.16833968,-0.12101387,-0.0,-0.18829125,0.0,-0.5887015,-0.38236842,0.38771,-0.58908355,-0.20739242,0.32349974,0.2391655,-0.15737024,-0.17752144,-0.0,-0.036848154,-0.4621216,-0.4085531,-0.12057112,-0.7728818,-0.44310036,0.432821,-0.0,0.0,-0.49791473,-0.62876904,-0.0,-0.31856,-0.0,-0.49830267,-0.9963399,-0.3564544,0.026439963,-0.0,-0.39368206,-0.0,-0.0,-1.1943761
-0.0,0.46647692,0.6209424,0.39279747,0.043462876,0.107157506,-0.026648607,-0.0,-0.0,0.090297736,0.0,0.43309358,0.1389204,0.63560766,-0.23311226,-0.0,-0.043181762,0.0,0.20546864,-0.0,0.0,-0.042652402,0.0,-0.38472793,-0.0,-0.0,0.17102027,0.0,0.0,-0.0,0.0,-0.5535575,0.0,-0.0,0.114176735,0.0,0.91964227,-0.0,0.0,0.7384699,0.22461338,0.14375548,0.0,-0.50340027,0.0,-0.0,0.0,-0.30418265,0.0,0.563668,-0.0,0.27130356,-0.0,0.02420185,0.15580402,0.0,0.101156585,-0.0,-0.08858845,-0.0,-0.84983516,0.19556576,0.13935037,0.10101863,-0.0,-0.07355934,-0.0,-0.0054849894,0.0,0.035740722,0.0,0.0,0.0,-0.7032826,0.0,-0.0,-0.0,-0.32616964,-0.0,-0.46155015,0.0,-0.38083646,-0.40470874,-0.0,-0.018291956,-0.14905201,-0.0,0.0,0.0,-0.0,0.35297933,-0.0,0.82932955,-0.14000854,-0.14401484,-0.0,0.1031985,0.0,0.0,0.58631146,0.6647935,0.1369999,0.0,-0.018910931,-0.0,-0.0,-0.0,-0.0,-0.44035852,1.0516839,-0.87383664,-1.0726671,0.26413307,0.47425935,-0.08573342,0.27440378,-0.5425685,-0.0,0.0,-0.4221446,-0.0,-0.31193376,0.0,-0.39651737,0.03705048,-0.27853695,-0.77350247,-0.0,-0.0,-0.0,0.0,-0.0,-0.4358059,-1.0199554,0.51066333,-0.0,0.55889374,0.03330968,-0.25415477,-0.44294545,0.0,0.0,-0.34052083,0.0,-0.22757712,-0.0,0.0,0.6500233,-0.0,0.0,-0.3935641,0.5073756,-0.0,0.61975235,-0.10599228,0.27850842,0.0,0.1524612,0.4889408,0.0,0.1267933,0.7103398,0.0,0.810206,-0.18993251,-0.0,0.73657167,0.0,-0.5781327,-0.5888767,0.0,0.0,0.0,-0.31470284,0.12569082,0.4645657,0.054123264,-1.2116055,-0.0,-0.0,0.0,-0.42978004,0.0,-0.0,-0.015967716,0.0,0.42760468,0.0,0.0,-0.0,0.4973055,0.4879155,0.7128518,0.0,0.23028882,-0.0,0.7817905,0.5670676,0.0,0.7990732
-0.0,0.8369411,-0.0,0.76864827,-0.0,-0.0,0.0,0.0,-0.050087,-0.0,0.0,-0.0,0.0,-0.0,-0.15534209,-0.0,0.0,-0.0,-0.0,-0.0,-0.0,0.5704273,-0.0,-0.0,-0.46328712,0.0,-0.0,-0.0,0.0,0.61041814,1.0049474,0.22755496,0.07915077,0.76155037,0.4097322,-0.0,-0.22937392,-0.0,0.51703084,-0.0,0.7586415,-0.0,0.19115174,0.0,0.0,-0.35619316,0.0,0.8471472,0.0,0.0,-0.0,0.9699556,-0.0,0.2540996,-0.0,-0.0,0.761571,-0.0,0.0,-0.0,0.0,-0.0,0.5475892,0.0,0.57178855,0.0,0.0,0.0,-0.0,-0.0,-0.0,-0.0,-0.10139291,0.1703991,0.0,-0.0,-0.0,0.0,0.0,-0.0,-0.0,-0.0,-0.58984566,0.0,-0.31266746,-0.0,0.0,-0.0,0.5071942,-0.0,0.06154703,-0.0,-0.0,0.0,0.0,-0.0,0.49956518,-0.0,0.0,-0.0,-0.006035761,0.15832384,0.0,0.0,0.0,-0.0,-0.3981678,0.0,0.0,0.13550499,-0.45956773,-0.0,0.0,0.0,-0.0,0.31067264,-0.0,0.0,0.0,-0.0,0.0,-0.0,-0.0,0.0,-0.0,-0.23086987,-0.0,-0.6360191,0.0,0.4975569,0.0,0.0,0.0,0.0,0.53714025,-0.025409615,-0.0,0.0,0.0,0.0,0.0,0.0,-0.0,-0.0,-0.014610609,-0.0,-0.0,-0.24339135,0.0,0.0,0.38225216,0.8590096,0.54637074,0.0,-0.0,-0.0,0.08534267,-0.0,-0.0,-0.0,0.0,-0.0,-0.0,-0.46998832,0.5074436,0.878845,-0.0,-0.0,-0.0,-0.5930362,-0.0,0.43607968,-0.0,0.82056284,-0.0,0.7001885,0.0,0.16696528,0.0,-0.0,0.07163909,-0.0,-0.28034428,0.540065,0.45228872,-0.0,0.40089425,-0.0,0.79629254,0.0,0.88261247,0.32254896,1.1854725,0.49607965,0.52272415,-0.0,-0.0,0.95431066,0.9041604,0.0
0.0,-0.0,0.0,-0.0,0.0,0.0,-0.0,-0.0,-0.0,0.0,-0.0,0.0,1.7296227,0.32272583,-0.0,-0.0,-0.0,0.0,0.0,0.0,0.0,-0.0,0.0,0.0,0.0,-0.0,0.21680668,-0.0,-1.574679,-1.3945738,0.0,-1.152328,-0.0,-0.0,-0.0,0.0,0.21719162,0.0,0.7554765,0.24415591,-0.0,0.0,-0.5248974,-0.0,-0.0,-0.5615996,-0.0,0.0,-0.0,-0.0,0.0,-0.0,0.0,0.35298178,-0.22915067,0.0,0.0,0.0,-0.0,0.0,-0.0,0.56643176,0.0,-0.6305625,0.0,-0.0,-0.0,-0.0,0.0,0.0,0.0,-0.0,-0.0,-0.0,-0.0,0.0,0.40049452,-0.0,-0.8485373,0.0,0.0,-0.0,-0.0,0.22345564,-0.0,0.0,-0.0,0.0,0.0,0.3340566,0.0,0.0,-0.0,-0.0,-0.0,0.0,-0.0,0.0,-0.0,0.16817372,-0.0,0.0,-0.0,0.016142584,-0.0,0.0,0.0,-0.6851716,-0.0,0.0,-0.0,-0.806214,-0.5123581,-0.0,-0.1381925,0.0,0.0,-0.3940018,-0.0,-0.0,0.0,0.0,0.0,0.0,0.0,-1.1492467,0.0,0.0,-0.17013,0.0,-0.0,-0.0,-0.0,-0.0,-0.0,-0.0,0.0,-0.0,0.059216514,-0.0,-0.0,-0.0,-0.0,0.0,0.0,-0.7350518,-1.0506941,-0.31680396,-0.0,-0.0,-0.0,-0.0,0.0,-0.0,0.0,0.0,-0.0,0.0,0.0,-1.0160052,-0.0,0.0,-0.0,0.0,-0.0,-0.0,0.0,0.0,0.0,0.0,-1.0134674,-0.0,3.238949,0.0,0.0,-0.0,-0.0,-0.0,-1.9478042,-0.59706783,0.0,-0.0,-0.0,0.0,-0.0,0.0,0.0,0.0,0.0,-0.0,0.0,0.40002432,-2.5606253,-0.0,0.0,-0.0,0.0,-1.9194893,0.0,-0.0
-0.0,0.0,-0.0,0.6852235,0.39102542,-0.0,0.0,0.0,-0.87289125,-0.0,0.0,-0.0,0.0,-0.0,0.599777,-0.0,-0.118471816,-0.0,-0.0,-0.0,-0.0,0.0,-0.0,-0.0,-1.2998037,0.0,-0.0,0.6297054,0.0,-0.0,-0.0,0.0,0.0,0.0,0.78930414,-0.0,0.0,-0.0,-0.0,-0.0,0.0,-0.0,-3.1454673,0.0,0.0,0.0,-0.8159808,-0.0,0.0,0.0,-0.0,0.0,-0.0,0.44504014,-0.0,-0.0,-0.0,-0.0,0.0,-1.4652889,0.0,-0.0,-0.0,0.0,0.0,0.0,-0.45216182,0.0,-0.0,-0.0,-0.19704643,-0.0,0.0,0.025254808,0.0,-0.359296,-0.0,0.0,0.0,-0.4429284,-0.0,0.42542702,-0.0,0.0,0.0,-0.34375617,0.0,-0.0,-0.51971376,-0.0,-0.30180153,-0.972528,-2.022851,0.0,-0.5731116,-0.0,-0.8594964,-0.0,0.0,-0.7941576,0.0,0.0,0.22246175,-0.37121078,0.7915634,-0.0,0.0,0.0,0.087140664,0.10915933,0.0,-0.0,0.0,0.0,-0.0,-0.0,0.5681965,0.0,0.0,-0.3937824,0.0,-0.0,-0.0,-0.32285511,-0.0,-0.0,-0.0,-0.047350388,0.0,-0.02002566,-0.0,-0.13580248,0.0,0.0,-0.0,0.0,-0.2057046,-0.058449414,0.2622903,0.0,-0.24723849,0.0,-0.0,-0.0,0.98270375,0.7657653,-0.0,0.0,0.0,-0.003232442,0.0,0.0,-0.0,0.0,-0.0,1.0673094,0.0,-0.0,-0.0,0.6841213,0.0,-0.0,-0.46505585,0.154599,1.4892029,-0.0,-0.0,-0.0,-0.0,-0.0,-0.0,-0.0,-0.0,0.0,-0.0,0.0,1.0323477,-0.0,0.0,-0.0,0.9847068,-0.0,-0.0,-0.0,0.0,0.7270258,-0.0,-0.0,-0.0,0.0,0.0,-0.81765187,-1.8686783,0.08638383,0.0,0.0,-0.77362615,0.36151266,0.36348066,-0.6831377
0.0,0.0,0.0,-0.38477919,-0.0,0.0,0.0,-0.0,0.19840309,0.0,0.0,-0.0,0.0,-0.0,-0.0,-0.0,0.0,-0.0,-0.0,-0.0,-0.0,-0.0,0.0,-0.0,-0.0,0.4824122,-0.0,-0.0,-0.0,-0.0,0.0,-0.25046068,-0.0,-0.0,0.0,0.15178765,-0.0,-0.0,-0.0,-0.0,0.0,-0.0,-0.0,0.0,0.0,-0.0,-0.0,0.0,-0.0,-0.0,0.0,0.0,-0.48728222,0.0,-0.7457516,-0.0,-0.0,-0.0,0.0,-0.0,-0.0,-0.0,0.16989799,-0.0,-0.0,-0.0,-0.32259727,-0.0,-0.0,-0.0,-0.0,-0.0,0.0,0.0,0.0,0.0,-0.0,-0.0,-0.0,-0.0,-0.0,0.0,-0.0,-0.0,-0.0,-0.0,0.0,0.0,-0.0,-0.0,-0.0,-0.0,-0.0,0.0,0.0,-0.0,-0.0,0.0,-0.0,-0.0,0.0,0.0,0.398738,-0.3686903,0.0,-0.0,-0.08195114,-0.0,-0.0,-0.2989429,0.0,0.0,0.0,0.0,-0.0,-0.0,-0.0,0.0,0.0,0.0,-0.21146387,-0.0,-0.0,-0.0,0.0,-0.0,0.0,-0.0,-0.0,-0.0,-0.0,0.0,0.0,-0.0,0.0,0.0,0.0,0.0,0.0,0.0,0.0,-0.31995046,-0.0,-0.0,-0.0,0.0,-0.0,-0.04889682,0.22272922,0.0,-0.0,0.47768494,-0.78638154,0.0,-0.6954792,-0.0,0.0,-0.0,-0.0,0.0,0.0,-0.24221763,-0.0,-0.58956486,-0.1806879,-0.0,0.0,-0.0,-0.0,-0.0,-0.0,-0.0,-0.0,0.0,-0.0,0.0,-0.0,-0.0,-0.16516499,-0.0063461596,0.0,-0.0,-0.0,-0.0,0.0,-0.0,-0.0,0.0,0.0,0.0,-0.0,-0.0,-0.0,-0.0,0.035443593,-0.0,-0.0,-0.0,-0.023577563,-0.0
0.0,-0.0,-0.0,-0.0,0.0,0.0,-0.0,-0.0,0.29148692,0.0,-0.0,-0.0,0.0,-0.0,0.0,0.0,0.0,-0.0,0.0,-0.0,-0.0,-0.0,-0.0,0.0,0.0,-0.0,-0.0,0.0,0.0,-0.0,-0.47211292,-0.0,-0.0,0.0,-0.0,-0.0,-0.0,0.0,0.0,0.0,-0.0,0.0,-0.0,-0.0,0.0,-0.0,0.0,0.0,0.0,-0.0,0.32448304,0.0,-0.0,0.0,0.0,0.0,-0.0,0.0,0.0,-0.0,-0.0,-0.0,-0.068090916,-0.0,0.0,-0.0,0.0,-0.0,0.0,0.16289045,-0.0,-0.0,-0.0,0.0,-0.0,-0.0,0.0,-0.0,0.0,0.0,-0.0,0.0,-0.0,0.0,0.0,-0.0,-0.0,-0.0,0.06364196,0.0,0.0,0.0,-0.28663537,-0.0,0.0,0.0,-0.0,-0.0,0.0,-0.0,-0.0,0.0,0.29616284,-0.1921163,0.0,-0.0,-0.12228873,-0.0,0.0,0.0,-0.0,0.0,-0.0,-0.3790747,-0.0,-0.0,-0.0,0.0,0.0,0.4276815,0.0,-0.0,-0.0,0.0,0.0,-0.0,0.0,0.0,-0.0,-0.0,0.0,0.0,0.0,0.0,-0.0,0.0,0.0,0.0,0.0,0.0,0.0,-0.0,0.0,0.0,-0.0,-0.0,-0.0,0.0,0.4256442,0.0,0.0,-0.0,0.0,-0.0,0.0,0.0,-0.0,-0.0,-0.0,0.0,0.0,-0.0,-0.0,-0.0,0.0,-0.0,-0.0,-0.0,0.0,-0.0,-0.0,-0.0,-0.0,0.0,0.0,-0.0,0.0,0.0,0.0,-0.0,-0.0,0.0,-0.0,0.0,-0.0,-0.0,-0.0,-0.0,0.0,0.0,0.0,0.0,-0.0,-0.0,0.0,0.0,-0.0,-0.0,0.0,-0.0
0.3403925,-0.0,-0.0,-0.0,0.3084011,-0.8897068,0.0,-0.0,-0.22660848,-0.39528432,0.0,-0.0,0.64865226,-0.19428629,-0.5297487,-0.0,-0.23760365,0.0,-0.04045075,-0.0,0.0,0.0,-0.21022785,-0.0,-0.6237537,-0.0,-0.0,0.29034957,0.019178597,-0.0,0.0,-0.0,0.0,-0.0,-0.0,0.0,-0.0,-0.85322905,0.0,-0.0,-0.0,0.0,-0.13399272,0.0,0.03214984,-0.0,0.11503192,0.0,-0.04592552,-0.0,-0.0,-0.0,-0.0,-0.0,-0.038616464,0.0,0.0,-0.0,-0.9545049,-0.0,0.0,-0.0,0.38536894,0.09425261,-0.0,-0.13010822,-0.0,0.0,0.0,-0.0,0.0,0.0,0.15457475,-0.0,-0.039899673,-0.0,-0.0,0.0,-0.0,0.0,0.0,-0.0,0.0,-0.0,0.0,0.0,-0.0,0.0,0.0,-0.0,-0.0,-0.0,0.0,0.0,0.0,-0.0,0.0,0.0,0.11637538,-0.0,-0.21748105,-0.39968494,-0.03997116,0.045139726,-0.0,-0.0,-0.0,0.08715519,-0.0,-0.3180286,0.0,0.0,-0.0,0.0,-0.0,-0.0,0.0,-0.0,0.0,0.0,-0.0,-0.0,0.0,-0.0,-0.0,-0.14982118,0.0,-0.0,-0.0,-0.0,0.261514,-0.0,-0.0,-0.26515913,-0.015988922,-0.0,-0.18401612,0.0,0.0,0.0,-0.6729766,-0.2957541,-0.0,0.54012954,0.25665778,-0.0,0.0,0.0,-0.0,0.0,-0.0,-0.0,-0.025958566,-0.0,-0.0,0.0,-0.2646933,-0.0,-0.0,0.0,-0.0,-0.0,0.57893384,0.0,0.0,-0.0,-0.0,0.21810809,-0.0,-0.0,0.0,0.0,0.0,-0.0,-0.5714441,-0.0,0.46512482,0.0,-0.0,0.2051154,0.0,-0.0,0.0,-0.0,-0.0,0.32533365,-0.0,0.0,0.43597153,-0.36446622,-0.0,-0.18474142,-0.0,0.0,0.0,-0.0,-0.06448115,0.49472162,0.5104936,-0.115832
-0.0,-0.64050823,0.0,-0.0,-0.17095886,-0.0,0.2578646,-0.368947,-0.3602942,1.266468,0.0,0.0,-0.0,-0.0,0.0,0.0,1.441977,0.0,0.0,0.0,-0.0,-0.0,0.0,-0.0,0.97586256,0.97442174,-0.5000897,0.0,0.2757518,1.0201463,-0.0,-0.0,-0.0,-0.0,-0.0,-0.0,0.24387966,0.07218777,0.0,-0.0,0.0,0.0,0.0,0.0,0.0,0.0,-0.10563328,-0.0,-0.0,-0.26604018,-0.0,0.0,0.0,-0.0,-0.0,-0.0,0.14315952,0.0,-0.0,0.0,0.0,0.9580938,0.704011,0.29604405,0.48383108,0.0,-0.0,-0.43375692,0.0,0.47114503,0.07446269,-0.2739489,0.0,-0.0,0.35903814,-0.0,-0.0,0.0,-0.0,-0.0,-0.0,-0.0,-0.0,-0.0,-1.2916688,-0.0,0.7054925,0.0,-0.0,1.0064961,0.0,0.0,-0.07347224,0.0,0.0,-0.36337453,-0.2832681,-0.0,0.0,0.0,-0.0,-0.0016076522,-0.39759523,0.0,0.0,-0.3629703,0.067000486,-0.0,0.0,-0.0,-0.0,-0.65332246,0.0,-0.0,-1.004327,0.0,0.59993213,0.0,0.0,0.31969023,0.0,-0.16663334,-0.5155656,0.0,-0.3410153,-0.28460047,-0.2162171,0.0,-0.0,-0.0,-0.0,0.0,0.0,0.0,0.22045238,0.0,0.5385969,0.0,0.15257077,-0.90809387,0.2933137,0.18010217,-0.7275935,0.0,-0.050471384,0.0,-0.5436211,0.0,0.0,-0.0,-0.0,0.48999068,-0.25710526,0.5919186,-0.0,-0.0,-0.0,-0.0,0.0,1.547621,0.0,0.0,-0.0,0.83496594,-0.0,0.0,-0.33316997,0.0,0.0,0.0,-0.0,-0.0,0.0,-0.0,0.69836813,-0.0,-0.0,0.0,-0.0,0.53309417,-0.0,-0.0,0.04160015,-0.0,-0.0,-0.0,0.7329401,0.0,0.0,0.7291527,0.0,0.19462954,0.30045432,-0.42495295,0.46494582,0.0,0.0,0.12157596,-0.0,0.0
-0.22115688,0.26412752,-0.0,0.25671813,0.5902673,0.2946397,0.54384667,0.30182993,0.5378222,0.6556968,-0.0,0.5622553,0.4898705,0.35486707,0.3540893,-0.34012827,0.5118777,-0.0,0.19277115,-0.28639373,0.50177777,0.0,-0.0,-0.2520158,0.0,-0.0,0.410593,0.0,0.5108869,0.4435218,0.18616363,0.26357,0.5201466,-0.23223901,-0.22898863,0.53568155,0.5343927,0.0,0.4285594,0.6349729,-0.0,-0.0,1.0295014,-0.0,0.0,0.29981044,0.0,0.2966836,0.2834425,-0.0,-0.3961498,-0.0,-0.0,-0.0,0.23186782,0.20535617,0.0,0.0,0.24953939,0.19135383,0.0,0.4314354,0.2057897,0.19799215,0.5184168,0.0,0.0,0.2546842,0.0,0.0,0.20074306,0.26047143,-0.0,-0.0,0.0,-0.0,0.42434224,0.0,0.0,0.0,-0.0,0.33087927,0.2758024,0.0,-0.0,0.35291195,0.40345776,0.0,0.0,0.21968311,-0.0,0.20205715,0.18025757,-0.0,-0.0,0.19666414,0.2793608,0.2502283,0.30213097,0.21686009,0.0,-0.0,-0.0,-0.0,-0.0,0.0,0.0,0.0,-0.0,0.18240654,-0.0,0.0,0.0,0.32943675,-0.25955513,0.0,0.0,-0.22104864,-0.25576591,-0.26637232,0.0,0.0,0.0,-0.26069507,0.0,0.0,-0.0,-0.0,0.0,0.0,0.22245677,-0.0,-0.0,0.0,-0.0,-0.0,-0.0,-0.0,0.0,-0.0,-0.0,0.30853638,-0.0,0.0,0.0,-0.0,0.0,-0.0,0.0,-0.0,-0.26225471,0.0,-0.0,0.2373751,0.44746816,0.25771305,0.41646022,0.0,0.38114053,0.46311527,0.2842695,0.3216235,0.28938332,0.34664723,0.36810827,-0.3669396,-0.0,0.27973536,0.35568255,-0.24303898,0.25299183,0.42262825,-0.31250292,-0.0,0.4337114,0.35875615,0.42091238,0.0,0.27818075,0.40276024,-0.0,0.24303222,0.4848623,-0.19447559,-0.21813111,0.6082304,0.6824444,0.3735126,0.36719266,0.6085092,0.0,-0.0,0.3256964,0.329565,0.0,0.0,0.37297854,-0.0,0.3780669,0.5493589
-0.0,0.0,-0.0,-0.11930417,-0.0,0.0,0.0,0.0,0.33679023,-0.0,0.0,-0.46430725,0.0,-0.0,0.0,-0.0,-0.63607967,-0.21049522,0.17445989,-0.0,-0.0,-0.85815644,-1.8239996,-0.28956228,0.0,-0.25507894,-0.0,-0.0,0.0,-0.0,-0.0,0.0,0.0,0.0,0.0,-0.0,0.0,-0.0,-0.0,-0.0,-0.36132026,-0.0,-0.0,0.0,0.0,0.0,0.0,0.18256328,0.0,0.0,-0.0,0.0,-0.0,0.0,-0.0,0.83952886,-0.0,-0.0,0.04192727,-0.0,-0.11302068,-0.102512226,-0.0,0.018748654,-0.0,0.0,0.0,0.0,1.5530304,-0.0,-0.0,0.0,0.0,0.0,0.0,-0.5012966,-0.0,0.0,0.0,-0.0,-0.0,0.0,0.0,0.0,0.37689447,0.13132146,0.0,-0.0,0.051389586,-0.0,-0.0,-0.0,-0.0,0.0,-0.7874868,-0.0,0.59020436,0.087518826,0.0,-0.0,0.0,0.0,0.0,-0.8398689,0.0,-0.0,0.0,0.0,0.0,-0.0,0.0,-0.0,0.0,0.0,0.1078496,-0.0,0.6590252,0.0,0.0,0.21702933,0.32233024,-0.7658173,-0.360562,-0.0,-0.0,-0.0,-0.25147137,0.077016145,0.0,-0.7247659,0.5933529,0.0,0.0,0.0,-0.10201997,0.0,-0.0,-0.34710824,0.0,0.0,-0.34026968,0.0,-0.64086777,-0.0,-0.0,-0.0,-0.0,0.0,0.028228382,0.0,0.0,0.0,-0.0,0.0,-0.0,-0.0,-0.9587193,-0.0,-0.0,0.12611562,0.0,-0.0,0.0,-0.0,0.0,-0.0,-0.0,-0.0,-0.0,-0.0,-0.0,0.0,-0.0,0.0038441455,-0.0,-0.01752759,0.0,-0.0,0.73136437,-0.0,-1.1237413,0.0,0.0,-0.0,0.0,0.37128192,-0.0,-0.07471115,-0.0,0.0,-0.0,-0.0,-0.0,0.70079005,-0.0,-0.0,-0.0,-0.0,-0.0,0.0
-0.0,-0.2888757,-0.0,-0.0,-0.0,0.23555288,-0.0,0.0,-0.50402206,-0.53865564,0.0,-0.0,-0.5241722,-0.5099767,0.0,-0.0,-0.0,0.26128381,-0.26468387,-0.0,0.4052574,0.19507985,0.0,-0.0,-0.26643056,0.19683841,-0.23392485,0.0,0.19153088,-0.0,0.0,-0.0,0.28989875,-0.0,-0.1919934,0.0,-0.0,-0.328986,0.22867693,-0.0,-0.4046633,-0.31569952,-0.31814763,-0.28605652,0.0,-0.0,-0.366789,0.0,0.29772702,-0.0,0.41087687,-0.20048223,-0.0,-0.0,0.0,0.0,0.0,-0.0,-0.0,-0.4811427,0.0,-0.0,-0.36891085,-0.48918623,-0.0,-0.0,0.21346785,0.0,-0.1786072,-0.0,0.0,0.0,0.18135004,-0.0,0.0,-0.0,-0.0,0.0,-0.0,0.0,-0.2716374,-0.0,0.17648612,-0.0,-0.23057783,0.0,-0.0,0.0,0.40242222,-0.0,-0.0,-0.0,-0.30398023,-0.36473283,0.23554093,-0.0,0.0,0.0,0.0,0.39973253,0.29932135,0.18593733,0.0,-0.0,-0.26435608,-0.0,-0.0,-0.0,-0.0,0.0,0.0,0.0,0.18968524,0.0,-0.0,-0.0,0.30491522,-0.0,-0.18160604,0.0,-0.0,-0.0,-0.28068343,-0.24300955,0.24861293,0.0,0.0,-0.0,-0.0,-0.0,0.3516188,-0.0,-0.0,-0.0,-0.0,-0.0,0.0,-0.2697328,0.0,0.0,0.0,-0.3268979,-0.25292593,0.0,-0.31575432,-0.19977893,-0.38843605,0.0,-0.0,0.0,-0.0,-0.35591948,-0.0,-0.37910438,-0.0,0.0,-0.0,-0.0,-0.321073,-0.44045913,-0.36150888,0.23434421,-0.35195494,-0.29323032,0.2698044,-0.29214755,-0.0,0.3302985,-0.0,-0.17889136,0.0,0.19040388,0.3551102,-0.0,0.0,0.18095826,-0.26666665,0.0,0.24477208,-0.0,0.0,0.23590475,0.0,-0.0,-0.17898615,-0.0,-0.0,-0.24588259,0.18503445,-0.0,-0.0,-0.45750216,-0.22086218,-0.43347505,0.0,0.2255519,-0.23224814,0.0,0.0,-0.0
-0.0,0.2742049,-0.82954687,-0.0,-0.0,0.23301362,0.0,0.07084489,-0.0,0.0,0.0,-0.0,0.0,0.0,-0.0,0.017888088,-0.0,0.0,0.0,-0.0,0.0,0.0,0.0,-0.24860355,-0.0,0.15828657,-0.0,0.0,0.0,-0.0,0.0,-0.0,0.0,-0.28558445,-0.0,0.0,-0.0,-0.0,0.0,-0.0,0.10922252,0.0,0.0,0.0,0.0,-0.0,0.0,0.0,0.0,-0.0,-0.0,-0.0,-0.0,0.021919115,0.0,0.0,0.0,-0.0,-0.0,-0.098221794,0.0,-0.0,0.21462828,-0.0,-0.0,-0.0,-0.0,0.0,0.0,-0.0,-0.14296658,0.0,0.0,-0.3974497,0.0,0.01698328,-0.0,0.0,-0.0,0.0,0.0,-0.21951832,-0.19466709,-0.0,0.0,0.0,-0.0,0.0,0.0,-0.0,-0.0,-0.0,0.0,-0.43103045,0.28669694,-0.0,0.0,0.0,0.18176748,-0.0,-0.43434563,0.0,0.0,-0.0,-0.13073781,-0.0,-0.0,-0.0,0.26048347,0.0,-0.027535971,0.43224278,-0.0,0.491432,-0.0,-0.0,0.99397945,-0.0,-0.93192875,0.0,-0.0,-0.0,0.0,-0.0,-0.0,0.0,0.0,-0.03288719,-0.0,-0.0,0.0,-0.0,-0.2875054,-0.0,-0.0,-0.01983182,0.5841412,0.0,0.0,0.0,-0.30234295,0.0,-0.0,0.0,0.57363236,-0.38193497,0.0,0.0,-0.0,0.0,-0.0,-0.0,-0.0,-0.0,-0.0,0.0,0.0,-0.0,-0.0,0.2498852,-0.0077300803,-0.0,0.39471456,0.20352349,0.0,-0.0,-0.9322367,0.0,-0.0,0.66628075,0.024192505,0.0,0.0,-0.0,0.0,-0.0053165755,-0.0,0.0,0.5922028,-0.0,0.0,-0.0,-0.39336073,-0.0,-0.0,0.0,-0.0,0.0,0.0,-0.0,0.047693923,0.0,-0.0,-0.43334094,-0.011449277,-0.0,0.0,0.0,0.0,-0.0
0.122013554,0.3483992,0.0,-0.0,-0.1958334,0.56867677,0.02299864,-0.0,-0.0,0.0,-0.25337642,0.0,-0.110540085,-0.0,-0.0,0.0,-0.0,-0.06614476,0.0,0.14505544,-0.70557755,-0.0,0.8123272,-0.046544515,-0.0,-0.0,0.26530528,0.0,-0.0,0.0,0.0,-0.0,-0.0,-0.0,-0.0,0.0,0.3717971,0.0,0.30519816,0.46813604,-0.37685612,0.0,0.20823908,-0.012424033,0.23598164,-0.4967938,-0.0,-0.6462745,-0.0,-0.0,-0.16218686,-0.0,0.0,-0.0,0.0,-0.71441954,0.19389895,0.0,-0.0,0.0,-0.062484697,0.23537137,0.0,-0.0,-0.3186594,-0.17275986,-0.40345183,-0.0,0.0,-0.2595097,0.0,-0.0,-0.0,-0.0,0.20255613,0.0,0.0,-0.0,-0.8439783,0.0,0.8486191,-0.0,-0.0,-0.0,-0.5426203,-0.0,-0.04738478,-0.31961757,0.0,0.0,0.0,0.0,0.0,-0.20264147,-0.51690125,0.0,0.30107397,0.0,-0.0,0.0,-0.78127944,-0.0,0.36184737,-0.0,-0.5309732,0.0,-0.61931676,-0.0,-0.0,0.46618664,-0.26114586,0.0,-0.23808,0.14442831,0.72121364,0.0,0.0,-0.39529887,-0.0,0.0,-0.95694035,0.0,0.32619917,0.8755601,0.0,-0.81946474,0.0,0.0,-0.14335844,0.2440281,-0.0,-0.0,-0.15648,-0.0,0.2599664,-0.0,0.0,-0.0,-0.07979906,-0.0,-0.0,-0.0,0.3514833,0.5589167,0.5150725,0.17968549,0.0,0.08501033,-0.0,-0.017962048,-0.0,-0.0,0.0,0.18621421,0.4356867,0.42228672,0.4443722,0.0,-0.26969823,0.0,-0.0,0.36460355,-0.0,-0.37556618,-0.0,0.0,0.0,0.0,0.0,0.0,0.0,1.0958052,0.0,0.74621,0.28350928,-0.0,-0.0,0.0,-0.24185175,0.0,0.0,-0.0,-0.0,0.0,-0.093271695,0.0,0.37387165,0.0,-0.000509138,0.045662217,0.265923,0.0,0.0,-0.015144927,0.0,0.0,0.0,-0.18677257,0.0,-0.1742776
-0.0,-0.0,-0.0,-0.0,-0.0,0.0,0.0,-0.0,-0.0,0.0,0.0,-0.0,0.0,0.0,-0.0,-0.0,-0.0,0.0,0.0,-0.0,0.0,-0.0,0.0,-0.0,-0.0,-0.0,-0.0,0.0,0.0,-0.0,0.0,-0.0,0.0,-0.0,-0.0,0.0,-0.0,-0.0,0.0,-0.0,-0.0,0.0,0.0,0.0,0.0,-0.0,0.0,0.0,0.0,-0.0,-0.0,-0.0,-0.0,-0.0,0.0,0.0,0.0,-0.0,-0.0,-0.0,0.0,-0.0,0.0,-0.0,-0.0,-0.0,-0.0,0.0,0.0,-0.0,0.0,0.0,0.0,-0.0,0.0,-0.0,-0.0,0.0,-0.0,0.0,0.0,-0.0,0.0,-0.0,0.0,0.0,-0.0,0.0,0.0,-0.0,-0.0,-0.0,-0.0,0.0,0.0,-0.0,0.0,0.0,0.0,-0.0,0.0,0.0,0.0,-0.0,-0.0,-0.0,-0.0,-0.0,-0.0,0.0,0.0,0.0,-0.0,0.0,-0.0,-0.0,0.0,-0.0,0.0,0.0,-0.0,-0.0,0.0,-0.0,-0.0,0.0,0.0,-0.0,-0.0,-0.0,0.0,-0.0,-0.0,-0.0,-0.0,-0.0,0.0,0.0,0.0,0.0,0.0,0.0,-0.0,0.0,-0.0,-0.0,0.0,0.0,-0.0,0.0,-0.0,-0.0,-0.0,-0.0,-0.0,0.0,0.0,-0.0,-0.0,0.0,-0.0,-0.0,0.0,0.0,0.0,-0.0,-0.0,0.0,-0.0,-0.0,0.0,0.0,0.0,-0.0,0.0,-0.0,-0.0,0.0,-0.0,-0.0,0.0,-0.0,0.0,-0.0,-0.0,0.0,-0.0,0.0,0.0,-0.0,-0.0,0.0,-0.0,0.0,0.0,-0.0,0.0,0.0,0.0,-0.0
0.0,0.92862993,-0.054091934,0.54205185,0.04260793,0.0,-0.0,-0.0,-0.0,0.0,-0.0,0.0,0.36385655,0.9809118,0.48825857,0.0,-0.0,-0.62489545,0.0,0.40671685,0.0,-0.0,0.0,0.0,-0.0,-0.0,0.344321,0.0,-0.0,0.0,-0.33471754,-0.35617274,-0.0,-0.0,-0.0,0.0,-0.0,0.0,0.2388916,0.0,0.76229066,0.0,0.0,-0.0,-0.59637696,-0.0,-0.0,0.13355772,0.14017418,-0.0,0.0,0.048127353,-0.29967147,0.44767356,0.0,0.0,0.0,0.0,-0.0,0.0,-0.0,0.0,0.0,-0.0,-0.0,-0.0,-0.0,-0.0,0.0,-0.7002328,0.0,0.0,-0.0,-0.5894022,-0.0,0.0,0.0,-0.0,-0.07800477,0.0,0.0,-0.4596728,0.0,-0.0,-0.0,0.0,-0.0,0.0,0.0,0.0,0.0,0.0,0.0,-0.0,0.1420609,0.0,0.0,0.0,-0.0,-0.18481852,-0.0,0.6122489,-0.0,-0.0,-0.0,0.0,-0.0,-0.0,-0.0,0.0,-0.18945968,0.0,1.1767553,-0.39621973,0.0,0.9107928,0.0,-0.0,-0.0,0.0,-0.0,0.0,0.0,-0.0,0.46690205,0.0,-0.19538371,-0.0,-0.0,0.0,-0.36861724,-0.0,-0.0,-0.0,0.0,-0.0,0.0,-0.0,-0.0,-0.0,0.650688,-0.5609364,0.0,-0.45097238,0.046820235,-0.0,0.0,-0.0,-0.0,-0.0,-0.6475811,-0.0,0.0,-0.0,0.0,0.0,-0.0,1.1586665,0.0,0.0,-0.0,-0.18271144,0.7827117,0.0,-0.0,-1.3047904,0.0,0.0,0.0,-0.46990702,-0.24055193,0.14596537,-0.1282449,-0.0,0.0,-0.0,0.17629908,0.0,-0.0,0.0,0.0,0.0,0.0,0.0,-0.50280404,0.0,0.0,0.0,0.0,-0.0,0.15808286,0.0,-0.84946275,0.0,-0.4098294,0.0,0.019248879,0.0,0.0,-0.0
0.0,0.5124946,-0.0,1.1231859,1.832095,0.0,0.0,-0.0,-0.0,-0.0,-0.0,-1.2436893,0.0,0.22469668,0.8734931,0.11516352,2.094209,-0.0,2.4704425,-0.16999331,0.629888,0.0,0.0,0.0,-1.3542485,-0.0,-0.0,-0.0,-0.0,2.6215582,0.0,0.0,1.2335638,-0.30364114,-0.0,0.0,0.36500546,-0.0,0.0,0.0,0.0,0.0,0.0,-0.0,0.0,-0.18826345,-0.0,1.4178863,-0.93180484,-0.2828492,0.0,0.0,0.23240311,0.0,-0.0,0.0,0.0,-0.0,-0.0,-0.0,0.001142025,0.0,0.0,0.35205513,-0.0,0.20179376,0.0,-0.0,-0.0,0.68972236,1.673334,0.0,-0.0,-0.0,0.0,0.0,0.0,-0.0,-0.0,0.0,-0.5523289,0.0,0.0,-0.63994443,-0.0,0.0,0.0,0.0,-0.10179847,-0.0,-0.0,-0.0,0.0,0.0,-0.53350204,-0.0,-0.90819615,0.0,-0.80766785,0.0,-0.0,-0.5286406,0.0,0.27235448,-0.0,0.0,1.6469977,0.0,-0.0,-0.0,0.800968,0.0,-0.0,0.0,-0.0,0.009935921,0.0,0.33621606,0.7759281,-1.5214903,-0.0,0.0,-0.027828252,-0.0,0.0,0.4814571,0.0,-0.0,-0.0,0.03128159,0.0,-0.8074648,-0.0,-1.054667,-0.0,-0.0,0.0,-0.6913423,-0.0,0.0,-0.0,0.0,-0.0,-0.0,-0.6884209,-0.0,0.0,0.0,-0.0,0.6601177,-0.7985937,-0.0,1.3264313,1.1591535,-0.051303692,0.0,0.0,-0.0,0.23870894,-0.0,-0.0,-0.9282916,0.0,0.0,1.1964356,0.12841131,0.0,0.0,4.187255,-0.21863812,0.0,0.0,-0.0,1.6509957,-0.0,-0.0,1.0247937,-0.0,1.6238804,2.6863437,0.0,0.0,0.0,0.09094976,0.55723864,0.0,-0.0,-0.040584505,0.0,0.0,0.0,-0.0,0.0,0.023284521,-0.0,-0.0,-0.009167946,0.0,-0.5293715,0.0
0.0,0.0,0.050144777,0.0,0.057916228,0.04426321,-0.0,0.0,0.0,0.13764288,-0.0,0.0,0.54144466,-0.089408346,-0.0,0.0,0.0,-0.6347878,-0.0,0.0,-0.0,0.0,-0.16890587,0.0,0.0,0.0,0.5454945,0.7864286,-0.0,0.0,-0.0,0.0,-0.2488459,-0.33532482,0.0,-0.6204319,0.40649018,0.0,-0.0,0.20220868,0.0,-0.0,-0.0,-0.47996098,-0.4037652,0.0,-0.0,-0.26704276,-0.0,0.0,0.0,-0.09088403,0.0,0.0,-0.0,0.66072994,-0.0,0.0,0.0,0.0,-0.0,-0.18714695,-0.0,0.0,0.36925313,-0.37030417,0.0,-0.0,-0.0,-0.20383266,-0.0,-0.0,0.09116286,-0.3725417,-0.0,0.0,0.0,-0.0,0.0,-0.26672852,-0.94633573,-0.09465695,-0.15332188,0.0,-0.0,-0.0,0.0,-0.0,-0.0,0.0,0.0,0.0,0.0,-0.42647067,-0.0,0.0,-0.0,-0.5205726,-0.16794857,0.0,0.24458735,0.4261991,-0.0,0.0,0.0,-0.019425813,-0.37032035,0.68970555,0.0,-0.066766895,-0.0,0.4038106,0.2569252,-0.53451174,-0.31155485,0.0,-0.0,0.0,-1.0425061,0.017182324,0.7252722,0.0,-0.57217884,-0.0015945961,0.3498787,0.40688843,-0.06764656,0.0,0.0,0.0,-0.0,0.096522614,0.47772107,0.0,0.0,0.0,0.40765092,-0.0,-0.0,-0.049456984,-0.0,-0.0,0.0,-0.0,0.045918368,0.0,0.056627534,-0.0,0.0,-0.0,0.0,0.0,0.0,0.0,0.0,-0.0,-0.7226951,0.0,0.30369464,-0.0,0.0,0.0,-0.0,-0.0,0.6749634,0.0,0.0,-0.0,0.0,-0.25485164,-0.0,-0.0,-0.0,-0.5485087,-0.0,0.19246642,0.0,-0.0,0.0,-0.5083151,-0.0,0.0,-0.2899507,0.0,0.0,-0.6993573,0.0,0.37233967,-0.65657634,0.0,-0.12153513,-0.0,0.0,-0.4449731,-0.54757994,0.0,-0.0,-0.0,-0.19039138,0.0
-0.0,0.0,-0.0,0.0,-0.0,-0.0,0.0,0.0,0.0,-0.0,0.0,-0.0,0.0,-0.0,0.0,-0.0,0.0,-0.0,-0.0,-0.0,0.3344496,0.0,-0.0,-0.0,0.0,0.0,-0.0,-0.0,0.0,0.14400059,-0.0,0.0,0.0,0.0,0.0,-0.0,0.0,-0.0,-0.0,-0.0,0.0,-0.0,-0.0,0.0,0.0,0.0,0.0,-0.0,0.0,0.0,-0.0,0.0,-0.0,0.0,-0.0,-0.0,-0.0,-0.0,0.0,-0.0,0.0,-0.0,-0.0,0.0,0.0,0.0,0.0,0.0,-0.0,-0.0,-0.0,-0.0,0.0,0.0,0.0,-0.0,-0.0,0.0,0.0,-0.0,-0.0,-0.0,-0.0,0.0,0.0,-0.0,0.0,-0.0,-0.0,-0.0,-0.0,-0.0,-0.0,0.0,0.0,-0.0,-0.0,-0.0,0.0,-0.0,0.0,0.0,0.0,0.0,0.0,-0.0,0.0,0.0,0.0,-0.0,0.0,-0.0,0.0,0.0,-0.0,-0.0,-0.0,0.0,0.0,0.0,0.0,-0.0,-0.0,0.0,-0.0,-0.0,-0.0,0.0,0.0,-0.0,-0.0,0.0,0.0,0.0,0.0,0.0,-0.0,0.0,-0.060619257,0.0,0.0,0.0,-0.0,-0.0,0.37596634,0.0,-0.0,0.0,0.0,0.0,0.0,0.0,0.0,0.0,-0.0,-0.0,0.0,-0.0,-0.0,-0.0,0.0,-0.0,0.0,-0.0,0.0,-0.0,-0.0,-0.0,-0.0,-0.0,-0.0,-0.0,-0.0,0.0,-0.0,0.0,0.0,0.0,0.0,-0.0,-0.0,-0.0,-0.0,-0.0,0.0,-0.0,-0.0,-0.0,-0.0,0.0,0.0,0.43299624,-0.0,-0.0,-0.0,-0.0,-0.0,-0.0,-0.0,0.0
0.0,0.0,0.0,0.0,0.0,-0.4397382,0.0,-0.0,-0.24786903,-0.0,-0.0,0.0,-0.40218836,-0.38874474,-0.5477812,0.0,0.0,-0.0,0.31960633,0.0,-0.0,0.0,-0.0,0.23196365,0.0,0.0,0.0,-0.28119484,-0.0,0.29259014,-0.13224305,-0.1715487,-0.0,0.0,0.0,-0.0,0.0,0.0,-0.0,-0.45150223,-0.17878239,-0.0,-0.0,-0.0,-0.0,0.0,-0.0,-0.0,-0.0,-0.1257306,0.0,0.0,0.0,0.0,-0.0,-0.0,-0.0,0.0,0.0,0.0,-0.0,0.27361035,-0.5774965,0.0,0.0,0.0,0.0,-0.0,0.2892895,0.15626003,-0.0,-0.0,-0.0,0.24690299,-0.0,0.0,0.0,-0.0,0.0,-0.0,-0.0,0.17002872,-0.0,0.0,-0.0,0.15774642,0.0,-0.12466249,-0.0,-0.2715738,0.0,0.0,0.0,0.123458676,-0.0,0.0,-0.0,-0.0,-0.0,0.0,-0.0,-0.0,-0.0,0.0,0.0,0.0,0.0,0.0,0.25149742,-0.0,-0.0,0.3397545,0.0,-0.0,0.43722776,0.0,-0.0,-0.13838957,-0.0,-0.0,0.0,0.0,-0.0,0.1818217,0.0,-0.0,-0.0,-0.08194391,0.0,0.0,-0.0,-0.1958313,0.31673542,0.10999367,-0.2616681,0.5112263,-0.24719153,-0.0,-0.0,-0.0,-0.0,-0.0,0.30674642,0.33640206,0.0,0.0,-0.0,-0.0,0.0,-0.0,-0.30750835,0.0,0.0,-0.39335316,0.0,-0.0,0.0,-0.20776336,-0.2969611,0.0,0.0,0.0,-0.48897266,-0.6058953,-0.5979483,0.0,0.0,-0.0,0.4331702,0.0,-0.2781569,-0.0,-0.0,0.23546502,-0.4917856,-0.3194916,0.0,-0.0,0.0,0.3122105,-0.0,0.0,-0.0,0.0,0.0,0.18321957,0.0,-0.0,-0.30619267,-0.5770825,-0.1332582,-0.20085861,0.0,-0.0,-0.18396877,0.0,-0.24173991,-0.0,-0.0,0.0
0.0,-0.0,0.0,-0.0,0.0,-0.0,-0.0,-0.23863713,1.1157876,0.3255731,-0.0,0.0,-0.0,0.0,-0.0,0.0,1.0936642,0.0,0.0,0.0,0.0,0.0049761655,0.0,0.0,1.9293638,-0.0,0.0,0.0,-0.27927405,0.0,0.3075974,-0.3083875,-0.0,-0.0,-0.061463945,0.11207573,0.44635877,0.661044,-0.45909822,0.0,0.15418634,0.0,0.59876984,0.31077877,0.03601053,-0.0,0.28049785,0.17781754,0.49300656,-0.0,0.0,-0.0,0.0,-0.0,0.0,0.0,0.12805016,0.0,-0.0,0.0,-0.42740318,0.0,-0.3502902,-0.0,-0.0,-0.0,-0.0,-0.0,0.0,-0.2906779,0.0,0.54492956,-0.0,-0.68533885,-0.0,0.0,0.0,-0.0,-0.7341193,0.0,0.38540757,-0.0,-0.0,-0.0,-0.4334641,-0.26203147,0.57927763,0.0,0.0,0.0,0.0,0.0,-0.7022065,-0.0,-0.0,0.0,0.2587234,0.121262364,1.1448363,0.0,-0.0,0.6424597,0.35132763,-0.0,-0.0,0.0,-0.8614924,0.6034986,-0.0,0.0,0.22626635,0.0,-0.0,-0.0,-0.5526615,0.0,-1.0421361,-0.0,-0.0,0.0,0.0,0.0,0.0,0.0,-0.022532187,0.0,0.0,0.0,0.119074605,0.0,-0.0,-0.0,-0.0,-0.0,0.0,-0.7285841,0.0,-0.0,-0.063905574,-0.4556299,-0.0,-0.0,0.0,-0.9926928,0.0,0.0,0.0,-0.988704,-0.0,0.3983069,0.47793767,-0.0,0.0,-0.0,-0.39812666,1.0913727,0.5166668,0.6901307,0.0,1.0532758,-0.0,0.45263362,-0.0,0.8974212,-0.0,0.0,-0.13629077,0.0,0.0,0.0,-0.32766366,0.5055029,1.1783433,-0.84709257,0.63615286,0.48487788,-0.0,0.0,-0.0,0.0,0.9742448,-0.4763134,-0.008385446,0.0,-0.0,-0.19248952,0.104556024,0.18075638,0.26441947,-0.0,0.07094681,0.31578934,0.36016396,0.0,1.0628453,0.0,0.43708813,0.11540969,0.0,-0.027269516
0.0,0.4262345,0.0,-0.0,0.0,0.8373612,0.1764715,0.031368658,0.17567244,0.0,-0.0,0.0,0.2986767,1.1358868,-0.0,-0.6961016,-0.0,0.0,0.0,0.43548632,-0.027099917,-0.0,1.27748,-0.5034934,-0.0,0.42596883,0.30225536,0.0,-0.0,-0.6947691,-0.019232368,-0.0,-0.0,-0.0,-0.0,0.0,0.7785634,0.7497796,-0.019826254,0.6470718,-0.0,0.0,0.0,-0.1927243,-0.84127736,-0.0,-0.096905746,0.0,-0.0,-0.0,0.0,-0.0,0.0,-0.0,0.0,0.0,0.0,0.3500776,0.4544776,0.0,-0.43775687,0.0,-0.38534763,0.34786388,-0.0,-0.54191315,-0.0,-0.0,0.0,-0.6439436,0.0,-0.0,-0.0,-0.0,-0.0,0.0,1.0617383,-0.0,-0.53260267,0.0,0.0,-0.0,-0.0,-0.0,-0.0,-0.0,1.1617858,0.0,0.0,0.0,0.0,0.0,0.0,-0.0,-0.0,0.0,-0.04084941,-0.16591462,0.49377367,0.0,-0.0,-0.0,-0.0,-0.0,-0.0,0.0,-0.0,-0.0,-0.0,0.0,-0.0,0.0,-0.0,-0.0,-0.030389681,0.0,0.0,-0.0,-0.0,-0.16070454,0.8412403,0.0,0.0,0.0,0.0,0.0,0.0,0.0,-0.0,0.0,-0.0,-0.0,-0.0,-0.0,0.0,-0.0,0.0,-0.0,-0.03506947,0.21737587,1.0032814,-0.0,0.42578098,-0.9832453,0.0,-0.0,0.0,-0.0,-0.0,-0.0,-0.15231994,-0.0,0.0,0.7693828,0.0,0.29381326,-0.0,0.96671367,0.47094947,0.013708497,-0.0,0.0,0.75347936,0.0,-0.0,-0.9421078,-0.11131842,0.0,0.0,-0.3910664,0.0,0.79750603,0.0,-0.4151395,0.22143713,0.049542725,0.33784145,0.0,-0.0,-0.36525658,0.0,-0.0,-0.0,0.0,-0.72671884,0.0,0.0,0.0,0.0,0.4012427,0.0,0.0,-0.32987925,0.0,0.07810198,0.0,0.2153638,0.0,0.0,0.1815487
-0.0,-0.785768,-0.0,0.0,-0.0,-0.0,0.0,0.0,-0.3306282,-0.0,0.0,-0.0,0.0,-0.0,0.0,-0.0,0.0,-0.0,-0.39472103,-0.49681616,0.045707528,0.0,-0.0,0.03447917,0.0,0.0,-0.0,-0.0,0.0,-0.004284802,-0.0,0.26629785,0.0,-0.3397254,0.0,-0.0,0.0,-0.0,-0.0,0.55996954,0.0,0.23896433,-0.0,0.0,0.0,-0.3960895,0.0,-0.0,-0.48059604,0.0,0.47324103,0.0,-0.0,0.0,-0.0,-0.0,-0.0,0.48589945,0.0,0.8572881,0.0,-0.0,-0.0,0.0,0.0,0.0,0.2334927,0.0,-0.0,-0.0,0.71111006,-0.0,0.0,0.5465855,0.0,0.78798026,-0.0,0.0,0.0,-0.0,-0.0,-0.0,-0.0,0.05513303,0.0,-0.0,0.0,-0.0,-0.0,-0.0,-0.10266184,-0.0,-0.0,0.0,0.030713981,-0.0,-0.0,-0.0,0.0,-0.0,0.09095855,0.0,0.0,-0.3886525,0.0,-0.0,0.0,0.0,-0.9547089,-0.0,0.0,-0.0,0.0,-0.10692003,-0.0,-0.43589196,0.4458994,0.0,0.0,-0.0,0.0,-0.0,-0.0,-0.47266623,-0.0,-0.0,-0.0,0.0,0.0,-0.0,0.0,0.0,0.0,-0.51389813,-0.0,0.0,-0.0,0.0,0.0,0.0,0.0,0.0,-0.0,-0.0,-0.6393528,-0.0,-0.0,0.0,0.0,0.6929701,0.18254098,0.0,-0.0,0.0,-0.0,-0.0,0.0,-0.0,-0.0,-0.0,0.0,-0.0,-0.0,-0.0,0.0,-0.0,0.6180797,-0.0,-0.10551937,-0.0,-0.0,-0.0,-0.0,0.0,-0.0,0.0,0.0,-0.0,0.0,-0.0,-0.976669,0.67503375,0.30309287,-0.0,0.0,-0.0,-0.0,-0.0,-0.0,-0.07949535,-0.0,-0.0,-0.0,0.4694817,0.0,-0.0,0.51450944,-0.0,-0.0,0.0
-0.0,1.6968738,0.44064382,0.16223718,0.6693057,0.0,0.47338185,0.33536997,0.49178344,0.43709636,0.0,0.51501304,0.62944424,0.12680721,0.39459005,-0.0,0.10973963,-0.0,0.6500258,0.0,0.77773356,-0.0,0.0,0.26037517,-0.0,0.0,0.09565224,0.5431048,0.99357194,0.86498535,0.3327361,0.114191465,0.51389134,0.0,-0.0,0.47709084,0.5505498,0.0,0.16298603,0.3353536,1.1116948,0.5864317,0.779474,-0.0,0.0,0.81094885,0.15151887,0.1316473,0.28917015,0.25470725,-0.36571664,0.10645425,-0.0,-0.0,0.0,-0.0,0.0,0.0,0.062483713,0.52012396,-0.0,0.38081497,0.33334723,0.22161505,0.31395024,-0.42152947,-0.0,0.13281955,-0.0,-0.17451032,0.0,0.1018981,0.0,-0.24357499,0.0,0.18160269,0.05362719,0.5496951,0.72572976,-0.0,0.08195282,-0.0,0.19263563,0.0,-0.30478752,-0.0,0.38181922,-0.0,0.0,0.0,-0.0,-0.0,0.43292877,0.0,-0.25149682,0.0,-0.0,0.0,0.0,-0.0,0.0,0.3018698,0.0,-0.0,-0.0,0.0,0.050052498,-0.0,-0.0,0.1821005,0.057062507,0.0,0.0,0.14782824,-0.22116122,-0.0,0.0,-0.0,-0.0,-0.0,-0.0,0.0,-0.0,-0.0,0.0,0.0,0.0,-0.0,0.0,-0.0,-0.0,0.1795691,0.115122095,-0.099140696,0.29884022,-0.15720588,-0.0,0.33728576,-0.0,0.0,-0.0,0.0,0.0,0.0,-0.0,-0.0,0.0,0.09375764,0.0,0.0,-0.0,0.25924176,0.4814693,0.115344234,-0.0,0.0,0.0,0.0,0.37072092,-0.0,0.57267714,0.40493068,0.2915848,0.15800747,0.5836847,-0.0,-0.0,0.6302376,0.41207314,-0.557544,0.36327937,0.19952627,-0.5905741,0.0,0.44559893,0.3570149,0.11982724,0.671334,1.0246619,0.85343003,0.10111607,0.5770986,0.7108192,-0.477741,0.0,0.652139,0.49439797,0.72014326,0.0,0.038856868,0.24616313,0.6392204,0.6035905,0.44642973,0.0,0.47097722,0.49667293,0.0,0.3541501,0.51488775
-0.0,0.0,0.0,-0.1082445,-0.0,-0.0,-0.0,0.0,0.33940881,0.0,0.0,-0.0,-0.79114944,-0.0,-0.0,0.0,0.0,0.0,-0.0,-0.68497217,-0.0,-0.0,-0.0,0.2655808,-0.018414747,-0.0,-0.0,0.0,0.0,0.0,-0.0,-0.0,-0.0,0.017205857,0.29834774,-0.4633908,0.0,-0.0,0.18035467,-0.0,-0.4327435,0.0,-0.0,0.0,-0.0,0.0,-0.0,0.0,0.0,-0.0,-0.0,-0.0,-0.0,-0.0,0.0,-0.0,-0.0,0.0,0.0,0.0,0.7650861,-0.0,-0.0,-0.0,0.0,0.0,0.0,0.0,0.0,-0.0,-0.0,-0.0,0.60472846,0.0,-0.0,-0.0,-0.82264817,0.0,0.0,-0.0,0.0,-0.0,-0.0,-0.0,0.0,-0.0,-0.0,-0.0,-0.0,0.0,0.0,0.0,-0.0,-0.0,0.0,-0.15349643,-0.0,0.0,0.0,-0.0,-0.0040428964,0.0,0.0,0.0,0.42024148,-0.0,0.0,-0.0,0.0,-0.0150513025,0.0,-0.0,0.0,-0.23622794,0.0,0.0,-0.04910679,-0.0,0.0,0.0,0.17621961,-0.0,-0.0,0.0,-0.0,0.18606894,-0.0,0.0,0.0,-0.4640615,-0.0,0.0,0.0,0.0,0.0,0.0,-0.0,-0.0,0.041300613,0.0,0.0,0.0,0.0,0.0,0.054694265,0.0,-0.0,0.12801686,0.0,0.0,-0.0,0.0,0.0,-0.56749296,-0.0,-0.0,-0.0,-0.649998,0.0,0.022385858,0.0,-0.0,-0.0,-0.0,-0.28812087,0.0,-0.0,-0.36083838,-0.0,0.6647677,-0.0,-0.0,0.0,0.0,0.0,-0.1359966,-0.0,-0.06699938,-0.0,-0.0,-0.0,0.16149513,-0.0,-0.0,0.0,-0.0,0.0,-0.32779017,-0.5173402,-0.0,0.0,0.0,-0.0,-0.0,0.0,0.0,-0.0,0.0,-0.0,-0.19751859
-0.0,0.0,-0.0,0.0,-0.0,-0.0,0.0,0.0,0.7506232,-0.7335524,0.0,-0.0,0.430404,-0.0,-0.53776217,-0.5754943,-0.46670982,0.37501195,-0.0,-0.8255969,-0.3539726,0.0,-0.0,-0.0,0.0,0.0,0.05694147,-0.0,0.0,0.47185874,-0.0,0.0,0.0,-0.053958327,0.0,-0.32639134,0.0,-0.0,-0.0,-0.0,0.0,-0.45175195,-1.1783042,0.0,-0.18942451,0.0,0.0,-0.0,0.0,0.0,-0.4332587,0.0,-0.0,0.0,-0.5483005,-0.0,-0.0,-0.0,0.39697388,-0.0,-0.5609254,-0.0,-0.0,0.0,-0.1894941,-0.06236116,0.0,0.14050591,-0.0,-0.0,-0.0,-0.0,0.460252,0.0,0.0,-0.0,-0.0,0.0,-0.21016154,-0.0,0.4282829,-0.0,-0.0,0.0,-0.14831969,-0.0,-0.17624897,-0.0,-0.0,-0.26279235,-0.0,0.174096,-0.0,-0.6430404,0.0,-0.0,-0.0,-0.0,0.0,0.013118294,-0.4289423,0.0,0.0,0.09787123,-0.50238365,-0.0,0.06255782,0.0,0.04068484,-0.61482507,0.0,-0.0,0.0,0.0,0.6452583,-0.42069522,-0.0,0.0,0.0,0.94983083,0.0023418313,-0.0,-0.0,0.0,-0.0,-0.0,-0.0,-0.26491424,0.808501,-0.0,0.0,0.0,0.01868267,0.0,-0.27620527,0.0,-0.44493055,0.0,0.1913369,0.0,0.0,0.0,-0.0,0.8655349,-0.0,-0.0,-0.0,0.0,0.0,0.17000613,-1.0093949,0.0,-0.2681831,0.0,-0.18909702,-0.0,0.0,-0.4137828,-0.0,-0.0,-0.68948466,-0.0,-0.0,-0.0,-0.21244022,-0.5313985,0.22262214,0.14722542,-0.0,-0.2663116,-0.0,-0.0,-0.0,0.0,-0.0,0.0,0.0,-0.0,0.0,0.10771757,-0.0,-0.0,-0.0,-0.38980263,-1.0724665,-0.0,-0.0,0.17960402,-0.0,-0.6401896,-0.5590375,-0.0,0.4722925,0.036758237,-1.1245772,-0.0,-0.0,0.055845194,-0.0,0.0
0.6561026,0.21544532,0.0,-0.0,2.917276,-1.2058775,-0.0,-0.0,0.2010545,0.0,-0.0,-0.0,-0.01568255,-0.0,0.0,0.0,-0.0,1.1598825,0.56130487,0.11689002,0.0,0.0,0.0,0.6293966,-0.0,0.077903874,-1.9325198,-0.0,-0.0,0.7690124,-0.0,-0.29124534,0.0,-0.0,0.0,0.0,1.2208285,0.0,0.0,0.0,0.0,-0.0,0.0,0.0,-0.46155888,0.0,-1.2134356,0.0,-0.722258,0.0,-0.45475358,-0.0,0.63105196,-0.0,3.19997,0.0,-0.61270195,-0.0,-0.0,1.1507608,0.61435574,0.0,0.7216381,1.2836577,-0.0,-0.0,-0.0,1.3943316,-0.0,0.0,0.24145441,0.0,-0.0,-0.0,-0.0,0.0,0.0,-0.22903614,0.7580753,0.0,-0.0,0.0,0.3655645,0.05041055,1.4948006,-0.046412393,0.0,1.4531012,0.04452095,0.0,-0.09870728,-0.0,0.0,-0.9058151,-1.8454252,0.0,1.3168929,0.50954103,-0.0,-0.0,-0.19251913,-0.3184597,-0.0,0.15337507,-0.0,1.0560856,1.4623402,0.0,1.3316439,1.8279028,-0.0,0.0,0.4347312,-0.0,1.2166532,0.0,0.37450665,-0.0,-0.0,-0.0,-0.0,0.0,0.0,-0.0,0.0,1.0224415,-2.9166505,-0.0,-0.0,0.0,0.0,-0.0,-0.0,0.054205798,1.5450411,-0.0,0.54155034,-0.0,0.0,-0.0,-0.0,-0.0,0.0,-0.0,1.5972142,1.1953269,0.0,-0.0,-0.0,-2.3291528,0.0,-0.0,1.7143826,-0.0,1.6487108,0.0,1.4540459,-0.0,2.450086,0.0,0.738966,0.0,-0.32326204,2.4629307,0.0,-0.38767487,-0.0,0.0,0.0,-0.0,0.8360573,0.0,-0.42319036,-0.0,-0.0,-0.0,2.0139503,0.3484728,0.7817917,0.0,1.0626023,0.0,0.56686157,0.0,0.0,0.6628149,1.3550642,-1.0594819,0.47106257,-0.0,-0.0,-1.3062319,0.0,-0.1827362,-1.6837178,0.0,1.5929074,1.9548565,1.7589197,-0.0
0.0,0.0,0.0,0.0,0.0,-0.0,-0.30312452,0.0,0.0,-0.0,-0.44621477,0.0,-0.0,-0.0,-0.0,-0.42349926,-0.38296667,-0.0,-0.0,0.0,-0.92230487,-0.5314031,-0.0,-0.53762215,0.0,0.0,0.0,-0.0,-0.0,0.0,-0.0,0.0,-0.0,0.0,0.0,-0.0,-0.16607815,0.0,-0.0,0.0,0.0,-0.0,-0.0,-0.0,-0.0,0.0,-0.0,-0.0,-0.3383828,0.0,0.0,0.0,0.0,0.0,-0.0,-0.0,-0.0,0.0,0.0,0.0,0.013443832,0.0,-0.0,0.5370531,0.0,0.0,0.0,-0.0,-0.0,0.0,-0.43627325,-0.0,-0.0,0.0,0.3521025,0.0,0.0,-0.0,0.0,-0.0,-0.0,0.0,-0.0,0.0,-0.0,-0.0,0.0,-0.0,-0.0,0.0,0.0,0.0,0.0,-0.0,-0.10641412,0.0,-0.0,-0.0,-0.0,0.0,-0.0,-0.0,-0.0,0.0,0.0,0.0,0.0,0.0,-0.39301077,-0.0,-0.0,-0.0,0.15860878,-0.0,0.0,0.0,-0.0,0.09598723,-0.42332992,0.34099597,0.37374356,0.0,-0.25036982,0.32612172,0.5824041,0.29366118,-0.071718365,0.554541,0.0,-0.3150849,-0.0,0.0,0.0,0.28073707,0.0,0.11202394,-0.0,-0.0,-0.0,-0.0,-0.0,-0.0,-0.0658306,-0.0,0.0,0.0,-0.15492158,-0.0,0.46261412,-0.0,0.0,0.0,0.0,-0.21631463,0.0,-0.0,-0.0,0.0,-0.13912587,-0.0,0.0,0.0,-0.0,-0.19173117,-0.0,0.0,0.0,-0.0,0.0,0.12123003,-0.0,-0.0,-0.0,0.0,0.33284822,0.0,0.0,-0.0,0.0,-0.26491693,-0.614714,0.0,-0.0,0.5735704,0.0,-0.0,0.0,-0.0,-0.0,0.3001391,0.0,-0.0,0.0,-0.1256292,-0.0,0.0,-0.0,-0.0,-0.0,0.0
0.06044159,0.002657796,0.7293661,-0.0,0.0,0.0,-0.77871644,0.20219144,-0.29490674,0.8132701,-0.02515181,0.62619567,-0.5508492,0.26618916,1.2113415,-0.38631308,0.5733143,0.0,0.0,0.0,0.0,-0.0,0.8366342,0.0,0.78161573,-0.4100128,0.38768137,0.0,-0.0,0.0,0.0,-0.0,-0.0,-0.0,-0.0,0.0,-0.0,0.99718267,-0.98160225,0.5781922,0.77042204,0.028012939,0.0,-0.0,-0.18520695,-0.0,-1.0422896,0.0,1.0396683,-0.0,0.16535772,-0.0,0.0,-0.0,-0.46501544,0.0,0.0,0.0,-0.0,-0.5797792,0.5856623,0.0,0.0,-0.0,-0.0,0.082424656,-0.0,-0.0,0.0,0.25768983,0.0,0.0,-0.10618737,-0.0,0.13146767,-0.30689487,1.0326381,-0.0,0.13726021,0.0,1.1901783,0.0,0.0,0.32797763,0.65909725,0.0,-0.0,0.55155385,0.0,0.108363174,0.0,-0.35463694,-0.17634209,0.1103222,0.2921455,0.0,-0.46496162,0.0,-0.0,0.0275005,0.8527634,0.15261686,-0.0,-0.0,-0.0,0.0,-1.1158208,0.1690099,0.2581563,-0.26889747,-0.4592076,0.048765738,-0.0,0.27255702,0.15174621,0.018608227,-0.24238148,-0.0,-0.0,-0.358705,-0.0,0.25260586,0.0,-0.62685394,0.08609154,-0.4275641,0.0,0.14233455,-0.0,0.0,0.0,-0.0,-0.0,-0.30285376,0.0,-0.0,0.19328211,-0.24251726,0.2269672,0.92272663,0.25124007,-0.58084536,0.0,0.0,0.19118108,-0.0,0.0,-0.0,0.7078678,-0.2379736,-0.0,-0.0,0.0,-0.0,0.0,-0.0186304,0.06215659,0.062054913,0.0,0.0917993,0.7011246,-0.19485182,0.15919203,0.0,-0.51056373,-0.68600804,0.0,0.3270745,0.0,0.0,0.47634834,1.4305105,0.0,-1.1091528,-0.19981009,-0.7102267,-0.0,0.0,0.63380224,0.0,0.0,0.0,-0.044091605,0.0,1.0111096,-0.5847308,0.0,0.17520763,0.0,0.41704553,0.27153832,0.0,0.41729057,0.19237879,0.0,0.0,-0.2605597,0.8902276,0.0,-0.39031127
-0.0,0.0,-1.0760703,-0.0,-0.40709546,-0.63373506,-0.0,0.0,1.6598692,-1.0261937,0.0,0.0,-1.4922262,-0.0,-0.35247266,0.0,-0.0,0.0,0.0,0.0,-0.0,-0.0,-0.0,-0.0,-0.0,0.0,0.0,-0.0,0.0,0.21148829,-0.0,-0.0,-0.0,-0.0,0.0,-0.0,-1.1223506,0.0,-1.0111727,0.19638039,-0.0,-0.0,-0.0,0.0,-0.0,-0.3733658,0.0,-0.0,-0.0,-0.0,-0.0,0.2638738,0.0,0.13723138,0.7995833,-0.0,-0.0,0.0,-0.0,0.27863374,0.0,-0.3008297,-1.0996765,-0.0,0.0,0.3658361,-0.0,-0.09315877,0.0,-0.890967,0.17677975,-0.0,0.4924023,-0.0007915102,-0.0,0.11615457,-0.0,-0.0,-0.0,-0.0,0.0,-1.3540981,-0.0,-0.0,0.0,-0.16113853,-0.0,-0.0,0.0,0.0,0.0,0.99845433,0.93593687,0.40494075,0.0,0.0,0.0,-0.0,0.0,-0.0,0.0,0.1549545,0.6692379,0.23674275,-1.6115793,2.1662068,-1.6143717,-0.0,0.3443763,-2.088523,0.0,-0.0,0.0,-0.0,1.8111757,0.0,-0.92876637,-0.0,-1.2842073,0.5171365,0.0,-0.0,-0.0,1.1998881,0.0,0.0,-0.0,0.0,-0.0,0.0,-0.7601805,0.0,0.931755,0.0,0.0,0.0,-2.5822108,0.37317288,-0.0,0.0,0.0,-0.0,1.0973523,0.0,-0.0,-1.4134884,-0.0,-0.40734518,1.342071,-0.16600177,-0.8350172,-0.07924383,0.0,0.26251167,-0.0,0.4129969,-1.0899599,0.0,0.0022247536,0.0,0.0,-0.0,-0.02276058,-0.30139405,-1.3558408,0.24219668,-0.0,-0.13351199,0.0,0.0,-0.0,-0.0,0.0,0.0,-0.0,0.0,-0.0,-0.98218995,-0.0,0.70788443,-0.0,-0.0,-0.0,-0.0,0.0,-0.0,0.32911032,0.0,-0.0,-0.6109515,-0.68060434,0.0,-0.98114455,-0.014459113,-0.13136788,0.0,0.0,-0.0,0.0,-0.0
-0.0,-0.0,1.0571508,-0.0,-0.0,0.0,0.22813661,0.6024914,-0.0,0.0,0.0,-0.0,-0.30169076,0.5692831,-0.0,-0.0,0.35060596,0.0,0.7911504,-0.26768428,0.0,-0.0,0.0,-0.0,-0.0,-0.0,-0.0,0.0,0.8165891,-0.0,0.16276948,-0.26998943,0.11576867,-0.06728519,-0.0,0.0,0.7012864,-0.0,-0.00078295084,0.47077394,-0.3984938,0.0,-0.10725033,0.0,0.0,-0.0,0.0,0.0,0.0,-0.0,-0.8333959,-0.0,1.0797478,0.022782568,0.0,-0.2831852,0.0,-0.0,-0.0,-0.0,0.0,-0.0,0.0,0.5601656,-0.36628547,0.18325262,-0.0,0.0,-0.023301082,-0.8302824,0.0,0.0,0.0,0.04120757,0.0,-0.6652263,-0.0,-0.10734991,-0.0,0.0,-0.1734159,-0.40365118,0.0,-0.38485637,-0.12968913,0.0,-0.0,0.29567096,0.0,-0.0,-0.07734561,0.02697517,-0.0,-0.14316846,-0.6574552,-0.0,-0.3069128,-0.17116453,-0.0,-0.0,0.0,0.0,-0.79907095,-0.0,-0.0,-0.0,-0.0,-1.1701096,-0.0,0.7707374,0.0,0.0,0.4494849,0.0,-0.0,0.57154566,-1.104835,-0.0,0.0,-0.2612061,-0.0,0.021181086,0.0,-0.0,-0.0,-0.33851454,0.0,-0.0,-0.9659753,0.8975661,0.0,-0.0,-0.24449964,-0.022528548,-0.0,-0.0,0.26274008,0.28998488,0.4335259,0.0,0.43327302,0.0,-0.0,0.0,-0.0,0.038836863,-0.2566793,0.2658064,-0.9633748,-0.21101364,-0.0,-0.42762816,-0.0,-0.0,-0.0,0.0,0.0,0.16469616,-0.0,0.0,-0.0,-0.0,0.0,0.18999378,0.0,0.037035823,-0.0011024317,0.34074897,-0.0,-0.5653442,0.0,0.0,0.0,0.09040712,0.0,-0.53437567,0.16794997,0.0,-0.0,-0.0,0.0,-0.23240194,0.60894907,-0.37322262,-0.16646951,0.0,-0.0,0.0,0.0,0.035383042,-0.40256733,0.22638024,-0.0,-0.31471112,-0.16191998,-0.2891093,-0.59238935,0.0,0.3400326,-0.0
0.0,0.0,0.0,0.0,0.20878482,-0.0,-0.0,0.5362383,0.16800886,0.0,0.0,0.48982754,0.48853397,0.02947578,-0.0,-0.0,-0.0,0.0,0.0,0.0,0.0,-0.0,0.0,-0.0,-0.0,0.0,0.0,0.0,0.0,0.0,0.0,0.0,0.0,0.0,-0.0,-0.0,0.0,-0.0,0.0,-0.0,0.0,0.0,0.98209935,0.0,-0.0,0.0,0.0,0.0,0.118137665,-0.0,0.0,-0.0,-0.0,-0.0,0.1546661,-0.4423667,0.0,0.0,0.0,0.0,-0.0,-0.09881076,0.0,0.0,-0.0,-0.0,0.0,-0.0,0.0,0.0,0.0,0.0,0.0,-0.0,0.0,0.0,0.0,0.0,0.0,0.0,0.0,0.0,0.0,0.0,0.09676781,0.0,0.0,0.0,-0.0,0.0,0.0,0.0,0.0,0.0,-0.0,0.0,0.0,0.0,0.0,0.0,-0.0,-0.0,-0.0,-0.17346288,0.0,0.0,-0.0,0.0,0.0,-0.0,0.0,0.21174283,-1.1811118,1.0548383,1.084235,-0.0,0.0,-0.0,-0.0,-0.0,0.0,-0.0,-0.0,-0.0,-0.42574304,-0.0,-0.0,0.0,0.0,0.0,0.0,-0.071209475,-0.0,-0.0,0.09110997,-0.0,-0.30195335,0.19472228,-0.0,-0.0,0.0,0.0,0.0,1.2579616,0.0,-0.0,0.87532425,0.0,0.0,-0.0,0.0,0.0,0.0,0.0,0.06515322,0.08078895,0.0,-0.0,0.0,0.0,0.0,0.9748425,0.3129429,0.0,-0.0,-0.0,-0.25750342,0.0,0.0,0.0,0.0,0.0,0.0,-0.0,-0.0,0.0,0.0,0.0,0.0,0.0,0.0,0.0,0.0,0.0,0.26200828,0.33378756,-0.031603776,-0.40730345,-0.0,-0.0,0.0,0.0,1.429679,0.25035268,-0.0,0.0,-0.077328056,0.0,0.6531538,-0.0
0.0,-0.108296126,0.0,-0.0,0.0,0.0,0.23339532,-0.63494176,-0.5419416,-0.2868074,-0.0,0.54471856,-0.22082585,0.0,-0.0,0.0,0.9434718,0.0,0.0,0.0,0.0,-0.0,0.0,0.0,-0.0,-0.43973875,-0.4259215,0.0,-0.0,0.0,0.0,0.2619511,-0.0,-0.0,0.31769118,0.0,-0.0,0.0,0.0,-0.13427642,-0.0,0.0,-0.6055846,0.05425919,-0.0,0.5626042,-0.0,0.0,-0.0,-0.0,0.0,-0.0,0.0,-0.0,-0.043775864,0.0,0.0,0.0,-0.0,-1.6892046,-0.0,0.0,-0.19733964,-0.0,-0.0,-0.0,-0.0,0.07068379,0.0,0.0,0.0,0.0,-0.0,-0.0771662,-0.0,0.0,1.0841953,-0.0,-0.0,0.0,0.0,0.0,0.0,0.07284103,-0.0,0.16996703,0.46335247,0.0,0.0,0.0,0.0,0.0,0.0,-0.0,-0.0,0.0,0.0,0.0,0.0058732936,-0.21093112,-0.13046148,0.5869823,-0.0,-0.0,-0.0,0.0,-0.0,-0.33424845,-0.0,-0.29502854,-0.0,0.0,-0.0,0.06295563,0.0,0.0,0.0,-0.0,-0.0,0.0,-0.24975745,0.3611269,0.23612128,-0.0,0.0,-0.3425318,0.33541974,-0.2547905,-0.0,0.6144135,0.20974286,-0.0,-0.0,-0.0,0.0,-1.2264694,0.0,-0.0,0.349791,0.24956843,-0.0,-0.0,0.0,0.0,0.0,0.11674495,0.0,-0.0,-0.1295666,-0.0,-0.0,0.068406776,0.0,-0.0,0.0,-0.48021966,1.4799076,0.0,-0.00080410077,-1.0148478,-0.0,0.40738568,-0.0,0.0,-0.0,0.0,-0.543034,0.0,0.0,0.0,0.0,0.7373134,0.0,0.29610634,0.0,-0.0,-0.0,0.0,0.065908425,0.0,0.0,0.0,0.0,0.0,-0.0,0.0,0.0,-0.4064959,0.2960729,-0.0,-0.49412176,-0.28048557,0.0,-0.74240845,-0.0,0.56720656,0.0,0.0,0.0,-0.0
-0.0,0.16247307,-0.020482913,-0.087303564,0.0,-0.1768338,-0.0,-1.0685239,-0.0,-0.56818503,0.0,2.1728885,-0.48846394,-0.0,0.0,0.0,-0.0,0.0,0.055176537,1.2261027,-1.1632876,-0.7676443,0.0,0.0,0.0,1.310533,-1.5704908,0.0,-1.0187073,0.0,0.0,-0.40842006,0.07580431,-1.0055279,-1.1250509,0.0,0.6211632,0.0,0.5020984,-0.13598506,0.48497155,0.0,-0.0,-0.032197032,-0.0,-0.0,1.5606029,0.0,-0.3233623,-0.0,0.0,-0.0,0.60256165,-0.0,0.058050282,-0.0,-0.0,0.0,-0.38492066,-0.24272023,-1.6788076,1.1263319,0.105915636,-1.4289103,-0.0,-0.0,-0.0,-0.0,0.0,0.26485273,-1.2232448,-0.0,0.0,-1.0871896,0.69944096,0.0,0.0064757112,0.0,0.7482373,0.0,0.0,0.31629765,-0.0,-0.0,-0.94933087,0.0,0.7068756,-0.16309658,0.0,0.0,-0.0,0.521861,-0.0,-0.0,1.1550431,-0.72594374,-0.56022984,0.0,-0.0,-0.0,-0.15315151,-0.09742655,-0.0,0.0,0.93559635,-1.8607979,0.6931223,-0.9943707,-0.105453305,0.22013082,-1.7283345,-1.1519191,-0.0,-0.0,-0.998671,0.6964168,-0.0,0.5413363,0.30603626,-0.9677176,-0.0,0.0,1.1191504,0.0,0.0,-0.6286715,-0.0,0.0,-0.0,0.0,-0.09167922,-0.0,0.0,-0.41960743,1.5023985,-0.42589617,0.0,-0.0,-0.0,0.0,0.47112212,-0.0,-0.0,-0.82195497,-1.5346714,0.60984236,-0.50415796,0.0,-0.0,0.0,0.0,-0.0,0.0,-0.0,1.0270578,-0.0,-0.0,-0.0,-0.025111746,0.096237555,1.0423286,1.1013402,0.0,-0.0,0.25825712,0.0,0.0,0.0,0.47774604,0.24857412,-0.0,0.80928963,0.0,-0.0,1.3987154,1.0919036,1.0546169,0.0,-0.5695631,0.0,0.0,-0.0,-0.0,-0.7818834,-1.4841249,-0.3290135,1.146298,-0.0,0.0,-0.0,0.6065541,0.7640713,-0.60601383,-0.07554854,0.5172113,-0.60014164,1.0203811,-0.5600759,-1.4870898,-0.0
0.0,-0.29098564,0.03125352,-0.0,0.48382622,-0.0,0.4107485,-1.0509311,-1.525109,-1.1613016,-0.0,0.58916855,-0.0,0.0,-0.0,0.0,-0.0,0.0,0.41283163,0.0,0.0,-0.0,0.0,-0.55178416,0.0,-0.0,-0.8773678,0.0,0.6785132,0.0,-0.3708409,-0.0,-0.0,-0.0,-0.0,0.0,-0.22453244,-0.353566,0.0,0.0,-0.28577983,0.0,-0.0,-0.0,-0.75570405,0.049273647,0.28391337,0.0,-0.0,-0.0,0.0,-0.36000273,0.0,-0.0,0.0,0.0,0.0,0.0,-1.4825214,-0.57419103,-0.0,0.7331774,-0.24592803,-0.0,0.13570394,-0.0,-0.0,-0.0,0.0,0.0,0.0,-0.0,-0.10172058,-0.0,-0.0,0.0,0.0,-0.0,1.1230563,0.0,0.0,-0.0,-0.0,-0.0,-0.0,0.0,-0.0,-0.24702159,0.0,0.0,-0.2830183,0.0,-0.18815516,-0.0,-0.5883329,0.5093251,0.6132697,0.0,-0.0,-0.0,0.27625558,0.2650774,-0.0,0.0,0.53765106,-0.3843684,0.97839326,-0.0,-0.84590477,0.0,-0.0,0.0,-0.0,-0.2479714,0.012298549,0.0,0.0,-0.0,0.46909222,0.46403944,0.0,0.0,-0.4271821,-0.024552606,0.022574123,0.0,-0.17866054,0.0,-1.0534866,-0.27387482,-0.0,0.16948222,-0.0,0.26547956,-0.0,0.22082826,0.08622443,-0.0,-0.0,-0.0,-0.0,-0.0,0.0,0.0,-0.40099707,-0.0,-0.6544942,0.2087243,-0.0,-0.0,-1.0316273,-0.56602347,-0.28018987,-0.0,0.7166308,-1.5625359,-0.30025023,-0.9176407,-1.2642155,-1.3719205,-0.5975963,0.0,0.40864214,0.1764847,-0.0,0.0,0.0,0.0,0.80082494,-0.38495824,0.0,-0.2716553,0.0,-0.0,0.0,-0.7864668,-0.0,-0.2587993,-0.0,0.0,-0.4792232,-0.0,-0.0,0.0,-0.5360876,0.0,0.03586362,-0.7995257,-0.4848827,0.2663364,-0.24377657,-0.48125887,-0.2778278,-0.37938643,-0.89378,0.53954256,0.17427266,-0.39034456,0.0,-0.42837924
-0.0,0.0,-0.0,0.0,0.28716314,-0.2578943,0.0,0.0,-0.38465405,-0.0,0.0,-0.0,1.2209073,-0.45564005,0.0,-0.0,0.0,-0.0,-0.0,-0.0,-0.0,0.0,-0.0,-0.0,0.0,0.0,-0.41614747,-0.0,0.0,-1.0424111,-0.0,0.0,0.0,0.0,0.0,-0.0,-0.40683582,-0.0,-0.0,0.39729992,0.0,-0.0,-0.0,0.0,0.0,0.0,1.1644005,-0.0,-0.07862795,0.0,-0.0,0.0,-0.0,0.0,0.051886525,-0.0,-0.0,-0.0,0.18875487,-0.0,0.0,-0.0,-0.0,0.0,0.0,0.0,0.0,0.0,-0.0,-0.64466715,-0.0,-0.0,0.0,0.0,0.0,-0.0,-0.0,0.0,0.0,-0.0,-0.0,-0.0,-0.0,-0.53638136,-0.20277445,-0.0,-0.27468696,-0.0,-0.0,-0.0,-0.0,-0.0,-0.0,0.0,0.0,-0.0,0.12007675,-0.0,0.0,-0.0,0.0,0.0,0.0,0.0,0.0,-0.03947669,0.0,0.0,-0.53822684,-0.08256943,0.0,-0.0,0.0,0.0,-1.0474874,-0.0,-0.0,0.0,0.0,-0.0,0.0,-0.0,-0.0,0.0,-0.0,-0.0,-0.0,0.0,0.0,-0.0,0.22042921,0.57468593,0.0,0.0,-0.0,0.0,-0.0,0.0,0.0,0.0,0.0,0.0,-0.0,-0.0,-0.0,0.0,-0.0,0.0,0.0,0.0,0.0,0.0,-0.0,0.0,-0.0,-0.0,-0.5813807,-0.0,-0.0,-0.0,-0.51250327,-0.0,0.0,-0.0,0.0,-0.0,-0.0,-0.0,-0.5431313,0.15533426,-0.0,-0.0,-0.0,-0.4175626,-0.0,0.0,0.0,-0.0,0.0,-0.0,-0.0,-0.0,-0.0,-0.8215056,0.0,-0.0,-0.0,-0.0,-0.0,0.0,-0.0,-0.0,-0.0,0.944003,0.0,-0.0,-0.0,-0.0,-0.0,0.0
-0.50810987,0.0,-0.71609324,-0.633166,-0.9196422,-0.0,0.0,-0.0,0.27464652,0.0,-0.7937896,-0.0,0.0,0.0,-0.0,-0.0,-0.4681804,-0.0,-0.0,-0.0,-0.0,-0.0,-0.3479795,0.0,0.094874814,0.0,-0.0,-0.0,-0.0,-0.5258106,0.0,0.0,-0.0,-1.0524751,-0.0,-0.5571796,0.0,-0.0,-0.0,0.6513606,0.0,-0.0,0.72326297,-0.4348909,-0.34156692,-0.0,0.20284772,0.0,-0.0,0.0,-0.18132459,-0.34299538,-0.3880041,-0.08544466,-0.75671244,-0.0,-0.24610138,-0.0,0.0,0.5854549,-1.033795,0.0,-0.665422,0.0,-0.0,-0.0,-0.15451632,-0.4992313,-0.0,-0.0,-0.0,-0.4020101,-0.15488246,-0.56281245,-0.1375484,-0.22725648,0.0,-0.0,0.20322368,-0.48235306,-0.0,0.0,-0.40566817,-0.73052824,-0.66533905,-0.6532657,0.0,-0.0,-0.5230224,0.0,-0.068941556,-0.0,-0.0,0.0,0.0,-0.33270556,-0.0,0.0,0.13686395,-0.0,0.26846027,0.0,0.8246165,-0.4179705,-0.47272888,-0.0,-0.0,-0.0,0.0,-0.0,0.0,0.011661225,-0.7595919,0.0,0.6008847,-0.0,-0.0,0.0,0.0,0.0,0.558914,-0.3429384,-0.46349472,0.19883282,-0.0,0.56076944,0.0,0.36078462,0.0,-0.8984628,-0.0,0.0,0.0,-0.0,-0.3174404,0.0,0.0,0.0,-0.77166665,0.0,-0.132626,0.0,0.25772434,-0.0,-0.48282647,0.0,-0.0,0.0,0.686224,0.4890687,0.2550655,-0.0,-0.8879301,-0.93232894,-1.0146676,-0.0,-0.62178046,-0.6202117,-0.0,0.8653171,-0.52974844,-0.0,-1.0407834,-0.0,-0.8359439,-0.28430536,0.0,-0.0,-0.2885591,-0.0,-0.29657426,-0.31420913,-0.368698,-1.0457367,-0.0,0.0,0.069047235,-0.0,0.26001096,-0.688097,-0.35267645,0.0,-0.0,-0.9614577,0.0,-0.84407085,0.20860587,-0.0,-0.6653091,0.0,-0.0,0.0,0.0,-0.36179048,-0.44866943,-0.0,-0.0,-0.0,-0.45879266,0.0
0.0,0.78430974,-0.330947,-0.0,-0.6121435,-0.0,-0.0,-0.0,-0.16655077,0.4805979,-0.0,0.004632559,0.80669564,0.7985395,-0.0,0.0,-0.0,0.0,-1.0341686,0.9422669,0.0,0.71371126,0.0,0.0,-0.0,0.7018658,0.014802349,0.0,-0.0,0.0,0.0,-0.0,-1.5868765,0.65659297,-0.0,-1.1169513,-0.0,0.0,0.0,0.0,0.42996687,0.0,-0.0,-0.0,-0.0,-0.9458229,-0.0,0.0,-0.0,-0.0,0.0,0.79666185,0.0,-0.0,0.0,0.0,0.0,0.0,0.60301536,0.0,-0.0,0.026828162,0.466087,0.67515916,0.0,-0.0,-0.0,-0.0,0.0,0.0,-0.0,-0.0,-0.0,0.0,-0.0,0.0,0.0,-0.0,-1.458005,0.0,0.0,-0.0,-0.0,1.4272035,-0.0,-1.049692,-0.0,0.0,0.0,0.0,0.0,0.0,0.1825102,-0.0,-0.0,-0.37878007,0.0,0.0,-0.0,-0.44643968,-1.0252504,-0.0,0.37015352,-0.0,-0.0,0.0,-0.70024335,0.74158895,-0.0,0.0,-0.0,0.0,-0.0,-0.0,-0.45950562,0.0,-1.6853375,-0.0,-0.0,0.0,1.0097593,0.0,0.0,0.0,0.0,0.0,0.0,0.0,0.37676254,0.0,-1.2516608,0.0,0.0,-0.0,0.0,0.0,0.0,-0.0,-0.5902304,-0.0,0.37274042,-0.0,0.0,0.0,0.0,-0.0,0.0,-0.0,-0.0,0.43737584,-0.0,1.1419079,-0.62475336,-0.0,0.0,0.0,-0.0,0.46396592,0.6771749,0.45263276,-0.0,-0.3657276,0.8000578,0.98672426,-0.0,0.0,0.0,0.20481077,-1.6463704,0.7169241,0.0,0.95107394,0.0,-0.0,0.0,-0.0,0.15995397,0.0,-0.7989424,-0.055944197,0.0,-0.0,-1.5761608,0.8690258,0.08176398,-2.0604343,0.0,0.29318807,0.0,-0.12426728,0.9977618,0.2535671,0.2770933,0.0,0.72522026,-0.74208564,0.60308015,0.0,0.0,-0.0
-0.0,0.054088347,-0.0,-1.1926566,-0.66729504,-0.0,0.0,2.424093,0.87846863,-0.0,0.0,-0.0,-0.5922921,-3.2292202,-0.0,1.256686,-2.584187,-0.0,-1.3326763,-0.0,0.29866326,2.4249485,-0.0,1.0604973,-0.0,0.0,0.5917789,0.0,0.0,-0.0,-0.0,0.19745018,0.0,0.0,1.0285571,0.48111698,-1.2576325,-0.0,-1.4487274,-1.7583786,0.31925353,-0.0,0.4321257,-0.8276782,0.0,0.33196193,-2.7056353,-0.0,0.0,-0.25978357,-0.0,0.0,-0.0,-0.6839752,0.60172635,-0.0,0.0,-0.0,0.0,-0.0,0.6284714,-1.2815969,-0.30917096,1.99654,-0.0,0.5859173,0.0,0.0,-0.0,0.30845717,-0.0,0.0,0.0,1.9884815,0.0,0.1302833,-0.13264239,0.0,0.0,-0.0,-0.0,-0.0,0.0,0.0,1.2486253,-0.0,-1.059406,-0.0,-0.0,-1.0301726,0.042882513,-0.729079,0.74810433,0.0,-1.8598561,-0.0,0.3672824,0.0,0.0,1.8976588,0.0,0.11484936,0.0,-0.4030844,-0.43073228,3.571109,-0.0,1.1751862,0.0,-1.2141273,1.9218397,0.62875557,-0.39699265,3.6872272,-0.038506676,-0.0,-0.0,0.0,0.0,0.0,-1.1775767,-0.0,-0.0,0.38588932,-0.0,-0.0,1.0709424,-0.0,0.0,-0.25558317,0.17990379,-1.7586004,-0.0,0.0,0.0,0.0,-0.0,0.71268636,0.018002367,1.648785,0.0,0.90785265,0.0,-0.0,2.0754104,0.0,1.0561384,-0.0,0.0,-1.1494045,-0.0,0.0,-0.0,0.0,-1.7050554,-1.92697,0.0,-0.0,-0.0,-0.30079207,-2.377745,-2.82615,-0.7614072,-1.1872305,0.0,1.6005344,-0.0,-0.0,-0.0,0.026755318,0.0,-0.523245,0.0,0.9125515,-1.0849804,-1.394641,0.0,0.48593587,1.3475485,-0.0,-0.0,-0.030538216,0.0,0.8464968,2.755334,-0.0,-0.20017521,-1.6307964,-0.0,-0.78738326,0.0,-0.7395498,2.2679029,0.0,-2.364017,0.0,-1.1068791,-0.0,-0.0,0.9892017
0.0,0.21398705,-1.0986183,-0.0,0.0,-0.0,-0.0,-0.0,-0.0,0.0,-0.15345162,0.0,0.41002965,0.0,-0.0,0.0,-0.0,-0.42637038,0.0,0.0,0.0,-0.0,0.0,0.0,-0.0,-0.0,0.0,0.0,-0.0,0.0,0.0,-0.0,-0.0,-0.0,-0.0,0.0,0.8287693,0.0,-0.4779371,1.858241,-0.0,0.0,0.0,-0.0,-0.0,-0.0,-0.0,0.19374098,0.17223896,-0.0,0.0,-0.0,-0.8219528,0.68890125,0.0,0.0,0.0,0.0,-0.0,0.0,-0.0,0.0,0.04448867,-0.0,-0.0,-0.0,-0.0,-0.0,-0.7944033,0.0,0.0,-0.0,-0.0,-1.3556985,-0.0,0.0,0.0,-0.0,-0.60484797,0.0,0.0,-1.5435076,-0.15916464,-0.0,-0.0,-1.2560291,-0.0,0.0,0.0,0.0,0.0,0.0,0.0,-0.34607774,-0.0,0.0,0.0,0.0,-0.0,-0.13909501,-1.959343,-0.0,0.45548278,-0.176544,-0.0,-0.3948294,-0.85860145,-0.0,-0.0,0.0,-0.0,-0.2596512,-0.0,-0.0,-0.43862987,0.0,0.0,-0.0,-0.0,0.0,0.0,0.0,0.0,0.0,0.0,0.0,-0.06051347,0.0,0.7358336,0.0,-0.0,-0.0,-0.0,-0.0,-0.37034363,-0.0,0.0,-0.0,-0.21011066,-0.5306251,-0.37621063,-0.11873866,0.0,0.0,0.16823672,-0.0,-0.4208047,-0.20959604,-0.0,-0.14748316,-0.0,0.8958147,0.0,1.2767925,0.31204802,0.0,-0.0,0.74118364,0.0,1.0201017,0.14805153,0.0,0.93857294,0.87757486,-0.0,-1.4292948,0.0,0.0,0.0,0.0,0.0,1.2355899,0.0,-0.0,0.0,-0.0,-0.025123078,0.0,-0.0,-0.54023,0.99760056,-0.0,-1.1098427,0.0,-0.281918,0.0,0.0,0.087034136,-0.24472672,-0.0,0.0,0.0,0.0,0.0,0.0,0.0,0.11133175,0.0,0.0,-0.0
-0.0,-0.49187848,-0.0,-0.0,-0.0,0.0,0.0,-0.0,0.3029677,0.0,-0.39892057,-0.0,0.10034906,0.78125834,0.0,0.09368925,-0.0,0.0,0.0,-0.41118744,0.0,-0.0,1.0135179,0.13257791,-0.0,0.23640488,-0.0,0.0,0.29915625,-0.0,0.0,-0.11127697,0.0,-0.0,-0.27063152,0.0,0.3921872,-0.0,0.0,-0.0,-0.0,0.0,0.56318337,0.14300872,0.0,-0.0,0.0,-0.32286844,0.0,-0.0,-0.0,-0.0,-0.0,-0.0,0.0,-0.62612474,-0.118700854,-0.0,0.20687535,-0.0,-0.35522878,-0.0,0.3019554,-0.0,-0.0,-0.0,-0.0,0.0,0.0,-0.520712,0.0,0.0,0.0,-0.44048288,0.0,-0.0,-0.0,0.0,0.32378587,0.0,0.0,-0.0,-0.4120302,0.23598024,-0.21513,0.122939035,-0.0,0.0,0.20770933,-0.0,-0.0,-0.0,-0.0,-0.16026583,0.0,-0.0,0.0,-0.23373076,0.14381884,-0.0,0.0,0.0,0.0,0.7134935,-0.0,-0.0,-0.0,-0.0,-0.0,0.9617012,0.0,-1.2124133,-0.0,0.0,-0.34241846,-0.0,0.0,-0.0,0.0,-0.19307637,-0.0,-0.0,0.0,0.054771256,-0.0,0.0,-0.70255846,-0.0,-0.0,-0.0,0.0,-0.0,-0.0,0.32472914,-0.0,-0.0,0.0,0.06987285,0.0,0.0,0.44191757,-0.5375209,-0.840284,0.18852882,-0.0,-0.0,0.0,0.0,-0.0,0.0,-0.0,-0.0,-0.0,-0.0,-0.0,0.0,0.0,-0.0,-0.0,0.0,-0.24512136,-0.0,0.71170354,0.99817103,0.0,-0.019052723,-0.0,0.9222565,-0.20234302,-0.0,0.0,0.0,0.68069226,-0.08435792,0.4990798,-0.0,-0.0,0.0,0.61412776,-0.0,0.096119896,-0.0,0.0,-0.2157888,-0.09170195,-0.042336263,-0.0,0.2706928,0.51675904,0.094633445,-0.22429633,0.0,0.65297496,0.0,0.24615532,-0.0,0.24660411,0.0,0.0,-0.0
0.0,0.79083437,1.5750922,1.1974877,-0.0,-0.0,0.0,-0.0,0.0,0.0,0.0,0.04611982,0.34602585,0.56380427,-0.0,-0.0,1.2455095,-0.0,-0.0,-0.2923619,0.7114359,-0.0,0.0,0.0,-0.0,0.0,-0.2638516,0.720212,-0.0,-0.0,0.0,0.0,-0.0,-0.0,0.0,-0.0,-0.0,-0.0,-0.0,0.0,0.5700287,-0.0,-0.0,0.0,0.0,0.9797274,-0.0,0.4324173,1.2314011,0.0,0.0,0.3765301,0.7675671,0.5710037,-0.0,-0.0,-0.0,-0.0,0.0,-0.0,-0.0,-0.2752038,-0.0,0.24724387,-0.0,-0.6519429,0.0,0.0,-0.0,-0.0,0.43997633,0.0,0.0,0.0,-0.0,0.0,0.0,-0.0,0.43390417,-0.0,-0.4673509,-0.0,-0.0,-0.0,0.0,-0.24932136,0.0,-0.0,-0.78839684,-0.0,0.096921794,-0.45510238,-0.0,0.073646605,0.0,-0.0,-0.0,-0.23316841,0.018319344,-0.0,-0.0,0.0,0.0,-0.10050945,0.0,-0.0,-0.0,-0.0,0.0,-0.0,0.0,0.15265496,0.0,-0.4467151,-0.016931279,0.3486924,-0.0,0.0,0.0,0.0,0.2202766,-0.5077026,-0.3156388,0.30472308,-0.0,0.29719242,0.0,-0.0,0.004261787,-0.0,-0.0,0.0,0.101791315,0.38690773,0.0,0.0,0.3867751,0.0,0.0,0.0,0.45071563,0.0,-0.0,-0.0,-0.0,0.0,-0.0,0.0,-0.525919,-0.006227789,-0.86548454,-0.0,0.5004287,1.2066164,-0.0,-0.0,-0.0,0.5488892,-0.0,-0.0,0.0,-0.0,0.553227,0.77281207,-0.0,-0.8752873,-0.0,-0.0,0.7268735,-0.0,-0.0,-0.0,-0.4400781,0.0,0.9765175,0.0,0.57255054,0.926404,-0.0,-0.0,0.0,0.0,-0.16856769,-0.0,0.0,-0.0,-0.7683358,-0.0,-0.0,0.0,-0.1596052,0.21723619,0.0,1.2249243,-0.86782444,-0.0,1.0691112,0.0,0.20538083,0.6651947
-0.12598987,0.6612327,1.015173,0.0,-0.0,-0.0,2.101338,0.0,-3.183322,0.0,-0.0,1.0429301,-0.0,-0.0,-0.0,0.17739595,0.44552815,-0.12432007,1.3862655,-0.0,-1.4452802,-0.0,-0.0,0.42122802,-0.0,0.0,-4.7041874,0.0,-0.0,-0.0,-0.0,1.7098368,-0.0,1.01746,-0.31539997,1.7917314,0.3023233,-0.0,2.6502898,-0.87215966,-0.0,-0.0,0.008578165,0.0,0.33640438,0.64918643,-0.0,-0.0,0.0,-0.0,0.0,0.0,1.5197158,0.0,0.9852705,-0.0,3.6349604,0.0,-0.0,0.0,-0.0,0.25862154,2.67876,-0.0,0.0,-0.0,-0.0,-0.0,0.86019313,0.0,0.0,0.0,-0.0,-0.0,-0.0,-0.06196981,-0.0,1.9576086,-0.0,0.0,-0.52336836,1.0882211,-0.0,-0.0,0.0,1.6872631,0.032856107,0.030016445,2.6691837,-2.0200098,-0.0,-0.1600995,0.0,1.0748904,-0.0,0.6777847,-0.4076387,0.029869227,-0.78368324,-0.0,0.0,0.0,-0.0,-0.0,1.5323428,-0.0,0.0,-3.2365415,-1.4783872,0.0,-0.08674855,-0.0,-0.0,-1.9106785,-0.0,-0.03328461,-0.3508718,0.14592113,0.0,-1.8276554,-1.0771748,-1.5355883,2.3654912,-0.0,0.0,-1.4096019,-0.0,-2.932052,-0.0,1.4564524,0.6041257,0.0,-0.0,0.0,0.0,-0.0,0.0,-0.0,0.6495461,-0.99161494,0.0,-0.0,-0.0,-0.0,-0.0,-0.0,-0.0,-0.0,-0.9149476,0.0,0.0,-0.0,0.0,0.0,3.022424,-0.0,1.5128636,-0.0,-0.0,0.0,0.0,0.6661294,-0.0,-0.0,0.03694813,0.6053458,-0.0,0.53027683,-0.0,-0.0,-1.7004138,2.1430478,-2.0123377,-0.0,2.5881495,1.2330413,-0.0,0.0,-0.0,-0.0,0.26965106,1.1623204,-0.0,0.0,0.0,1.0068471,-0.0,0.33601075,4.02798,-0.0,-0.0,-0.0,0.0,2.057463,-0.0,0.5878627,0.7534376,0.0,-0.0,0.7263305
-0.0,-1.2082223,0.30708504,0.0,-0.0,-1.9524148,0.0,-0.7298414,-3.7218246,-1.9243934,0.17631328,-0.0,0.0,1.4109205,-1.645041,-0.0,1.9280264,-0.0,-0.0,-0.0,-0.0,0.0,-0.0,-0.0,0.0,1.6729274,-1.6098942,-0.0,0.0,-0.0,-0.0,0.0,0.0,0.2169454,0.2223518,-0.0,-1.4607852,-0.0,-0.0,-3.4569361,0.0,-0.0,-0.0,0.0,-0.53132063,0.0,-0.99867254,-0.0,0.0,0.0,-0.0,0.0,-0.0,0.0,-0.0,0.61269224,-1.1582191,-0.0,-1.1208384,-0.0,0.0,-0.0,-0.0,0.0,1.0357627,0.0,3.015783,0.0,-0.0,0.868156,-0.0,-0.0,0.0,0.0,0.0,-0.0,-0.0,0.0,0.0,-0.0,-0.0,-0.0,-0.0,0.0,0.0,-0.0,0.1213365,-0.0,-0.0,-1.1755161,-0.44296986,-0.0,-0.0,0.0,0.0,-0.0,0.69885623,-0.035438016,-0.0,-0.0,0.0,0.0,0.0,0.0,0.28457305,-0.0912475,0.0,0.0,-0.6525937,-0.0,0.0,-0.0,0.0,0.0,-1.1412572,-0.0,-0.0,0.0,0.0,-0.0,0.0,-0.0,-0.0,0.0,-0.0,-0.44111246,-0.0,0.0,0.0,-0.0,0.0,0.0,0.0,0.0,-0.0,0.0,0.7042836,0.0,0.0,-1.0667393,0.0,-0.15169537,-0.0,-0.66114414,-0.0,0.0,-0.0,0.0,-0.0,0.0,-0.46662518,0.0,-0.0,0.11028739,-0.0,-1.9620061,0.0,-1.8141273,-1.4506873,-1.9553792,0.0,-0.0,0.0,-0.0,-2.0717192,0.31240156,-0.0,-0.0,-0.0,-0.0,-0.0,0.0,-0.0,0.25022322,0.6372999,0.0,-1.7702156,-0.0,0.0,-0.0,-0.0,-0.0,-0.5416052,0.23666075,-0.49819952,-0.0,-0.23738179,-0.2707205,-0.0,-2.5196273,-1.6124974,-0.0,-2.1185415,-0.7398493,-1.169471,-0.0,-1.6992537,-0.74147075,-0.0,-0.03659661
0.0,0.0,0.0,0.0,0.18894751,-0.0,-1.6174378,-0.6715472,0.0,-0.30254963,-0.0,0.0,1.0978688,-0.14256382,0.9068758,0.0,0.0,-0.0,-0.0,0.0,-0.0,0.0,-0.0,0.360648,0.12425928,0.115706764,0.03250876,-0.0,-0.0,0.0,-1.3686488,0.0,-0.0,0.0,0.0,-0.7291878,0.35225216,0.0,-0.0,0.31846607,0.0,-0.0,-0.09908186,-0.0,-0.0,-0.14308102,0.62708366,-0.5463176,-0.77584684,-0.2129278,0.0,0.0,0.0,0.0,0.64746475,-0.0,0.405722,0.0,0.0,0.0,-0.038186718,0.0,0.64323694,0.0,0.0,0.0,0.0,-0.0,-0.22499046,0.0,-0.0,-0.0,-0.0,-0.3036459,-0.0,0.0,0.0,-0.0,-0.14680117,0.05027465,-0.0,0.014687963,-0.35456848,0.0,-0.0,-0.8358998,0.0,0.0029307718,0.35446516,0.0,0.0,0.0,0.0,-0.0,0.9616862,0.034983866,-0.0,-0.0,-0.0,0.3778833,-0.0,0.06819634,-0.0,-0.35411257,0.7009212,0.0,0.75035995,0.12919718,0.0,-0.0,0.25665662,-0.81407976,0.0,-0.84913856,0.0,0.0,-0.0,0.0,0.37866428,-0.0,0.32015595,0.0,-0.0,-0.16068798,0.076184124,-0.1464923,-0.40897045,-0.3339419,0.0,0.036050856,-0.0,0.03750996,0.0,0.0,0.0496091,0.32768184,-0.0,-0.11430343,-0.04808094,-0.0,0.3709313,-0.0,-0.61924875,-0.48776326,-0.071674645,0.0,-0.90247154,0.5434649,-0.60596436,-0.18151875,0.0,0.44940302,-0.26937348,0.0,0.30787,-0.0,-0.9226374,0.0,0.0,-0.0,0.0,-0.7470817,-0.0,-0.0,0.650884,0.2222007,0.0,-0.0,0.3433618,0.0,-0.0,-0.35330495,-0.0,-0.2891465,-0.0,0.53011763,0.0,-0.0,0.0,0.27559665,-0.50176895,0.0,-0.9325909,0.0,-0.09097887,-0.44401515,0.0,-0.086305216,0.021052137,0.0,0.0,-0.0,-0.0,0.15435629,0.4213252,-0.45560628,1.0564573,-0.77122974,-0.42076692,0.0
0.0,0.0,-0.18240777,0.0,0.0,-0.0,0.0,0.0,0.0,-0.0,-0.0,0.19379388,-0.0,0.0,-0.0,0.0,-0.0,0.0,0.0,0.0,0.0,0.0,0.0,0.0,-0.0,0.0,0.0,0.0,0.0,-0.22536439,0.0,-0.0,0.0,0.0,0.0,0.0,-0.0,-0.0,0.0,0.0,0.0,0.0,0.0,0.0,-0.0,-0.2229934,0.0,-0.22397417,-0.2410198,0.0,0.20917,0.0,-0.0,0.0,0.0,0.0,0.0,0.0,-0.22351635,0.0,-0.0,0.2094338,0.0,0.0,-0.25074956,-0.0,-0.0,0.21509288,0.0,0.18241704,0.0,0.0,-0.0,-0.0,-0.0,-0.0,0.0,0.0,0.0,0.0,0.0,0.18436414,0.0,0.0,-0.0,0.0,-0.0,-0.0,0.0,0.0,-0.21359907,0.0,0.0,-0.0,-0.0,0.0,-0.0,0.0,0.0,0.0,-0.0,0.0,-0.0,0.0,-0.0,0.0,-0.0,0.0,0.0,0.0,-0.0,0.0,-0.0,-0.0,0.0,0.0,-0.0,-0.0,-0.0,0.0,0.0,-0.0,0.0,0.0,0.0,0.18139139,0.0,0.0,0.0,0.0,0.0,0.0,-0.0,0.0,-0.0,-0.0,0.0,0.0,-0.0,0.0,0.0,-0.0,0.0,0.0,0.0,-0.0,0.0,-0.0,-0.0,-0.0,0.0,-0.26443833,-0.0,0.0,0.0,-0.0,0.0,-0.0,-0.18208568,-0.0,-0.0,0.0,0.0,0.0,-0.0,0.17736444,-0.0,0.0,0.0,0.0,0.0,-0.19734216,-0.0,-0.0,-0.0,-0.0,-0.0,0.0,0.0,0.0,0.0,-0.0,0.0,0.0,0.0,0.0,-0.0,-0.0,-0.0,-0.0,0.0,0.0,0.0,0.0,0.27813512,0.0,0.0,-0.1841409,0.0,0.0
-0.0,0.0,-0.0,0.0,-0.0,-1.1319733,-0.48945445,0.22183006,0.0,-0.0,0.0,-0.4817143,0.0,-0.0,-0.80704963,-0.0,-1.4176216,-0.0,-0.0,-1.0755464,0.010649306,0.0,-0.9053835,-0.0,0.0,-0.038876478,-0.0,-0.0,0.0,-0.16902623,0.1723817,-0.3917638,-0.2123248,0.0,-0.30802888,-0.5152844,-0.2611584,-0.9326839,-0.10992927,-0.0,-0.65774286,-0.5854606,-0.0,0.0,-0.3519466,0.0,0.0,-0.06060765,-0.35257065,-0.08894539,-0.0,0.0,-0.0,0.10925108,-0.0,-0.0,-0.0,-0.28487277,-0.25730434,-0.0,0.0,-0.0,0.44447735,0.0,0.005174453,-0.20869121,-0.5672026,0.2448115,-0.0,-0.13745752,-0.0,-0.0,0.0,-0.17713398,-0.44948465,-0.0,-0.0,0.0,0.0,-0.0,-0.0,-0.33864748,-0.0,-0.42915988,-0.15547357,-0.26999062,0.0,0.58497626,-0.0,-0.0,-0.0,-0.09123837,-0.0,0.0,0.0,-0.0,-0.0,-0.0,-0.34054172,-0.0,0.0,0.0,-0.06607,0.0,0.0,-0.111658655,0.23860809,-0.4983528,0.14465281,-0.0,0.0,-0.0,0.0,0.0,-0.0,-0.0,0.38542864,0.0,-0.0015086741,-0.0,0.0,0.17340456,-0.0,0.0,-0.0,-0.20705332,-0.36174035,0.0,-0.10212818,-0.0,0.5912098,0.0,-0.5306391,0.0,-0.0,0.0,-0.0,0.0,0.24676087,0.0,0.0,0.0,-0.0,-0.0,-0.0,-0.0,-0.0,0.0,-0.71772194,0.0,0.0,-0.8309662,0.18744597,0.0,-0.0,-0.6823065,-0.9269015,-0.0,-0.6174896,0.20246474,0.0,-0.0,-0.6578036,-0.0,-0.27738643,0.27058473,-0.12463526,0.51369333,-0.06741614,-0.33616328,-0.5684809,-0.0,-0.0,-0.013675705,-0.0,0.120743684,-0.20449567,-0.0,0.0,-0.47572353,-0.96256864,-0.36391634,-0.0,-0.38602638,-0.8238694,-0.4316156,-0.0,-0.0,-0.10284501,0.0,-0.21247286,-0.0,-0.0,-0.0,0.0,-0.0,-0.0,-0.0,-0.0,0.0
0.32441494,0.6224086,0.0,-0.0,0.0,0.0,-0.0,-0.0,0.5914527,0.4237993,-0.0,0.0,0.13505638,1.0934821,-0.2010679,0.0,-0.0,-0.4769726,0.0,0.0,0.0,-0.0,0.0,0.0,-0.0,-0.0,0.0,0.0,-0.0,-0.054303173,-0.18174617,-0.0,-0.0,-0.0,-0.0,-0.044204168,-0.0,0.5488284,0.0,-0.35147148,0.3315495,0.4964933,0.24998242,0.86717737,0.06966577,-0.0,0.1703935,0.0,-0.0,-0.0,-0.5931349,-0.032258347,0.0,-0.0,0.2342748,0.0,0.0,0.0,-0.0,-0.7230386,-0.0,0.0,0.0023774344,0.5642947,-0.66457605,-0.0,-0.0,-0.0,0.0,0.0,0.0,0.0,-0.0,0.1688622,-0.0,0.0,0.0,-0.0,-0.36115694,-0.120523766,0.27124232,0.0,0.0,-0.0,0.13991567,0.0,-0.0,-0.06172567,0.0,-0.06910624,0.7198151,-0.08452631,-0.72585195,0.30061623,-0.0,0.0,0.0,0.0,-0.0,0.0,-0.6741568,-0.017023848,-0.0,0.034350123,-0.0,-0.10789969,-0.0,-0.0,0.6716593,-0.49277014,-0.0,0.0,-0.5474317,0.58306825,0.0,0.477951,0.0,0.012996457,-0.0,0.0,-0.0,0.0,0.6915755,0.36040604,-0.37365067,-0.37769455,0.4023797,-0.0,-0.5568274,0.07402261,-0.1532415,-0.0,-0.0,0.20875993,-0.23112224,-0.33322087,0.05124974,0.4040647,-0.0,0.2237491,-0.44456187,0.09402739,0.1796709,0.0,0.20816946,0.0891228,-0.15397274,-0.0,-0.0,-0.0,-0.0,0.78086656,0.0,0.87869865,0.0,0.0,-0.0,0.0,0.79310036,0.09804003,-0.0,0.0,0.60708404,0.6022303,-0.0,0.0,0.0,-0.23531237,0.0,0.34470436,0.0,0.0,-0.36784023,-0.2749284,0.3866253,-0.0,0.06016189,0.0,-0.0,0.38114607,0.5736682,0.0,0.0,0.0,0.27611387,0.19393265,0.0,0.021823801,-0.271176,-0.0,0.0,0.50426126,-0.52562827,0.11349279,0.6938451,0.0,0.2971928,0.0,-0.51366746,-0.0
0.44933847,0.0,-0.5829661,-0.0,-0.5809712,-0.24829985,-0.39988452,-0.2629323,-0.70214903,-0.6266199,-0.0,-1.033894,-0.6614604,-0.30492446,-0.297784,0.14230762,-0.38685882,-0.27968052,-0.21092792,0.0,0.0,0.0,-0.0,-0.0,0.0,0.012602399,-0.53086364,0.036459114,-0.25961697,-0.6849628,-0.31360272,-0.20872019,-0.33862174,0.0,0.13276882,0.0,-0.63836354,-0.25445315,-0.080232896,-0.41173533,-0.0,-0.79490453,-0.18635815,-0.0,0.0,-0.61277074,0.0,-0.36935872,-0.49911746,-0.0,0.36275834,0.4938048,-0.0,-0.0,-0.7574085,0.0,-0.61327195,-0.32393947,-0.0,0.0,0.0,-0.70231384,-0.517734,-0.0,-0.0,0.0,-0.121688835,-0.0,-0.30577832,0.0,0.0,-0.15598483,-0.0,0.7128049,0.0,0.12092417,-0.0,-0.023842588,0.0,-0.40533015,-0.0,-0.39154875,0.0,0.3891578,-0.0,0.0,-0.25282726,0.0,-0.15417808,-0.0,-0.0,-0.4500151,0.0,-0.0,0.4748792,-0.2963897,0.0,-0.5029107,0.0,0.0,0.0,-0.0,-0.0,-0.0,0.28514686,0.0,0.0,-0.38514897,-0.0,0.0,-0.0,0.0,-0.0,-0.19997452,0.0,0.0,0.0,-0.1948786,-0.0,-0.0,0.6849424,0.0,0.0,-0.0,0.0,0.0,-0.0,-0.0,0.0,0.0,0.0,-0.0,-0.0,0.0,-0.0,-0.0,-0.0,-0.0,0.0,-0.0,-0.0,-0.0,0.0,0.0,0.0,-0.19562538,0.0,-0.0,0.0,-0.0,-0.0,0.0,-0.6058273,-0.20694779,0.0,-0.45144716,-0.6914561,-0.23025426,-0.6791999,0.0,0.0,-0.84851724,0.0,-0.3952129,-0.07325479,-0.031115403,-0.41058078,-0.31487092,0.0,0.4623751,0.0,-0.60049677,0.15243888,-0.0,-0.5757051,-0.13318563,0.0,-0.12136501,0.0,-0.4159731,-0.0,-0.35412508,-0.3470198,0.44798794,0.0,0.0,-0.6480172,-0.41276932,-0.10578311,-0.5024576,0.0,-0.754572,-0.5190943,-0.5226095,0.0,-0.43737084,-0.36790168,-0.24399707,-0.56445193,-0.49617988
1.5675685,-0.0,0.0,-0.0,-0.5651672,0.0,-0.0,-0.6435729,-0.47798425,-0.028902302,0.7635847,0.0,-0.60294557,0.06957519,0.412546,0.0017158991,-0.0,0.0,0.0,0.74182534,0.0,-0.6077092,0.25705972,0.47919858,-0.0,-0.0,0.0,0.0,-0.0,0.0,0.0,-0.0,-0.0,0.53564954,0.7516757,0.0,0.13848318,0.0,0.0,-0.46123,-0.0,0.0,-0.9511396,-0.0,0.100116715,0.016499233,-0.0,-0.49324223,-0.0,-0.0,0.0,-0.0,0.0,-0.0,0.0,-0.65158314,0.0,0.0,-0.0,-1.028904,0.5614779,0.0,-1.3372415,-0.068280526,-1.01812,0.4693111,0.9610062,-0.0,0.0,0.15170696,0.0,0.0,-0.0,0.9606717,-0.0,0.13635825,0.0,-0.0,-0.0,0.48760116,0.0,0.0,0.0,0.84986424,-0.0,0.0,-0.0,0.0,0.3192946,-0.0295788,0.64140695,0.0,0.0,-0.0,-0.0,0.0,-0.6944288,0.0,-0.0,0.0,-0.0,-0.0,-0.38075837,-0.0,0.3448643,0.3721758,-0.0,-0.4286181,-0.0,-0.5352074,-0.0,-0.13521424,-0.0,0.37488103,-0.017324282,0.60367715,0.66930777,-0.0,-0.21623483,0.0,-0.6846737,0.85450155,0.0,-0.0,0.0,0.0,0.45706746,-0.25388077,-0.0,0.0,0.15048438,-0.0,-0.0,-0.0,0.0,-0.0,0.0,0.43917355,0.04602273,-0.0,-0.0,-0.0,1.0531737,0.0,-0.45780852,0.0,0.0,-0.0,-0.0,-0.0,-0.0,-0.0,0.0,-0.0,0.0,-0.3353987,-0.0,0.0,0.0,-1.1770389,-0.0,0.19990028,-0.106195465,0.0,-0.73155105,0.0,-0.18439594,-1.1366079,0.0,0.5490806,0.0,0.0,-0.36918935,0.8283482,-0.36428362,-0.0,-0.5486531,0.0,-0.0,0.4490562,0.0,0.0,0.92222995,1.3655477,0.48477212,0.0,-0.23304078,-0.5071833,0.0,0.10387577,0.0,0.0,-1.2933437,-0.64847946,0.3840717,0.0,-0.3670586,0.0,0.0,-0.72812986
-0.038794983,-0.74317694,0.0,-1.2386501,-0.0,0.37142947,0.0,0.0,1.7939838,0.0,-0.10846362,-0.0,-0.0,0.4800326,-0.0,-0.5877917,-0.0,-0.0,-0.0,-0.0,0.0,-0.0,-0.07581577,-0.87616783,0.44800267,0.0,-0.0,0.0,-0.0,-0.0,-0.0,-0.0,-0.0,0.0,-0.86656845,0.5082272,-0.0,-0.0,-0.41009343,1.1269175,-0.58895653,-0.0,1.0404983,0.0,-0.25598478,-0.0,-0.0,-1.5596699,0.0,-0.0,0.0,-0.39826846,0.0,-0.5001058,-0.0,-0.0,0.0,0.0,-0.0,0.0,-0.5950467,-0.0,-1.1975819,0.0,-1.4848187,-0.37087685,-0.0,-0.11993019,-0.0,0.41778636,0.0,0.0,-0.62460434,-0.0,-0.0,0.0,0.0,-0.75223345,-0.8292485,0.0,-0.0,-0.0,-0.0,-0.0,0.26293612,-0.0,-0.0,-0.0,-0.44525257,0.11080399,-0.0,-0.0,-0.0,0.0,-0.0,0.0,0.35135782,0.0,0.0,-0.0,0.0,-0.19911058,-0.0,-0.012957935,-0.47133723,-0.0,0.0,0.0,-0.0,-0.21144268,0.064591475,-0.0,-0.0,-0.0,-0.0,-0.44764042,-0.0,-0.0,0.0,0.0,0.0,-0.0,-0.0,-1.072927,0.0,0.0,-0.0,0.0,-1.3547716,-0.98807406,0.0,0.67317283,-1.2750198,0.0,-0.7614686,-0.0,0.012703406,-0.0,0.0,0.54272884,0.0,-0.0,-0.0,-0.0,-0.0,-1.0621053,-0.0,-0.0,0.0,0.0,0.0,-0.59805435,0.0,-1.0696865,-0.0,0.0,0.0,-1.3659458,-0.0,0.0,0.0,-0.0,0.121740706,0.5512842,-0.0,-0.82453847,0.0,0.09028587,-0.0,-0.0,-0.0,-0.0,-0.0,-1.0539789,0.364657,0.0,0.0,-0.7746283,-0.0,-0.0,0.0,-0.0,-0.7343503,-1.1045339,-0.8116414,-0.21364693,-0.0,-0.0,-0.0,-0.0,-0.0,-0.0,0.6787901,0.0,-0.23688042,-0.0,-0.0,-1.3464298,0.0,0.60733503
0.0,0.0,0.38193166,-0.0,0.0,0.0,0.43439442,0.0,-0.0,-0.0,-1.4743365,0.0,-0.0,0.0,0.88925916,0.0,-0.44016528,0.0,0.0,0.0,0.0,1.1083926,0.017377693,-0.0,-0.0,0.0,0.6337295,0.0,0.0,0.0,0.0,0.0,0.0,0.037749987,0.0,0.0,-0.0,-0.17686665,0.0,0.0,-0.0,0.0,0.0,-0.0,-0.0,0.0,-1.5162606,0.0,0.7251942,-0.0,0.0,-0.0,-0.09891962,-0.0,1.3018212,0.0,0.0,0.0,0.0,-0.28002587,0.0,-2.858043,0.0,0.0,-0.0,-0.0,-0.0,0.4958528,0.0,0.0,0.0,0.0,0.0,-0.06144878,-0.0,0.0,-0.0,-0.0,-0.0,0.0,0.0,0.0,0.0,-0.36626655,-0.61818546,-0.44862503,0.0,-0.2774634,0.0,-0.0,0.0,-0.0,0.0,-0.23065107,-0.0,0.0,0.0,0.28148067,-0.29054368,0.0,-0.15421952,-0.0,-0.0,-0.0,-0.0,0.0,-0.0,0.0,0.0,-1.1888372,1.52445,0.0,1.0488162,-0.0,0.5124498,0.0,-0.28918815,0.0,-0.0,0.0,0.1768825,0.0,-0.74993515,-0.0,0.0,0.0,-0.0,0.1454078,-0.0,0.0,0.0,-0.0,-0.0,-0.0,0.0,-0.85142887,0.0,-0.0,-0.0,0.6167381,-0.0,-0.0,0.0,0.1658111,0.0,0.0,0.0,-0.0,-0.0,-0.0,-1.4574028,0.7601674,0.24914649,-0.0,0.0,0.0,-0.0,1.1945999,1.7062142,-0.6922608,-0.6379007,0.0,0.0,0.0,-0.0,0.0,-0.0,0.7721063,0.0,0.0,0.0,0.0,-0.15061527,-0.0,0.0,-0.0,-0.35066998,0.5581164,0.0,0.0,0.0,0.0,-0.20522548,0.0,0.0,0.0,0.0,-1.0562179,0.0,0.77194047,0.648901,0.0,0.0,0.0,-0.0,0.0,-1.0400027,0.0,1.4288188,-0.17065814
-0.62045497,-0.10896845,-0.0,-0.29768974,-0.0,-0.0,0.0,0.0,0.27366838,-0.0,-0.4998643,-0.6052176,0.5606967,-0.0,0.11490662,-0.0,0.0,-0.0,-0.0,-0.0,-0.0,0.0,-0.0,-0.22655088,0.0,0.0,0.43774334,-0.0,-0.22688751,-0.0,-0.0,-0.075378396,0.0,0.0,0.0,-0.24842134,-0.41708097,-0.0,-0.0,0.58713984,0.10173969,-0.0,0.44028896,0.0,-0.035795894,-0.7058265,0.0,-0.0,0.0,0.0,-0.0,0.0,-0.0,0.0,-0.0,-0.0,-0.0,-0.0,0.053445574,1.2421033,0.0,-0.28996792,0.8567476,0.27590513,0.7318019,0.0,0.0,0.0,0.704518,0.21783233,-0.0,-0.0,0.0,0.16402577,0.0,-0.0,-0.0,0.0,0.08331168,-0.12899569,-0.0,0.030306319,-0.07137389,0.0,0.0,0.031120641,0.0,-0.0,-0.0,-0.0,-0.0,-0.0,-0.0,0.0,0.0049267095,-0.48063192,0.56543183,-0.082271986,-0.29893032,-0.0,0.7099189,-0.1208271,0.0,0.0,0.0,-0.23104277,-0.37296447,0.0,-0.5022599,0.42674083,0.0,-0.0,0.0,-0.19076961,-0.0,-0.0,-0.0,0.10316852,0.36590505,-0.0,0.014067505,-0.23588377,-0.34979317,0.0,0.19643648,0.27616158,-0.4519579,0.052584253,0.716187,-0.11692305,-0.14455573,-0.07420992,0.0,0.0,-0.0,0.0,-0.0,-0.35823503,-0.3874541,-0.20022735,0.034575876,0.17346035,-0.20977336,-0.0,-0.040509477,0.0,-0.0,0.0,0.03276644,0.0,0.0,0.047257666,-0.0,0.0,-0.0,-0.0,0.0,-0.0,-0.08185649,-0.0,0.0,-0.4608016,0.14059107,0.25206855,0.7317214,-0.0,-0.0,-0.0,-0.0,0.109162204,-0.0,-0.20646605,-0.0,-0.28360537,0.7981657,0.0,0.0,-0.0,0.019769844,-0.3781569,-1.1297183,-0.0,-0.50625414,-0.0,0.0,-0.28458467,-0.0,0.4922646,-0.0,-0.046742428,0.44963402,0.5179987,0.7894247,-0.0,0.0,-0.6422818,0.5268848,0.45360366,-0.0,0.6821794
0.85834444,0.67826355,0.0,0.58956057,0.0,-0.0,0.13208248,-0.0,-0.086480364,0.0,-0.0,0.0,2.4032483,1.23548,-0.0,0.0,2.2142072,0.62276304,0.0,0.73228,0.4429316,0.7433908,1.4617189,-0.48887822,1.4515146,1.8231694,0.0,0.0,-0.0,-0.0,0.0,0.5335986,-0.0036737386,-0.0,-0.0,-0.5805563,-0.0,0.95048726,0.82842034,0.3951663,0.70476043,-0.080026016,-0.17975596,-0.023531817,-0.0,-0.0,1.3107384,0.8209156,-0.0,-0.0,0.600936,0.30506796,0.0,1.0771247,0.0,0.0,0.0,0.0,0.4951646,0.0,-0.0,0.0,0.4991272,0.67260396,0.26943853,0.50645286,1.4092225,-0.4197678,0.0,0.12265614,0.0,-0.48619896,-0.17031965,-0.0,-0.0,1.4991695,0.5627652,-0.0,-0.0,0.0,0.0,0.9619183,-0.0,-0.0,-1.4942058,-0.08734647,-0.0,0.0,0.0,0.6078779,1.0793855,-0.19836226,-1.5643306,-0.0,-0.0,0.0,-0.067310706,0.0,-0.48351055,-0.0,-0.0,0.17692575,-0.0,0.0,1.6941177,-0.25452584,0.0,-0.0,-1.0229654,0.46957955,-0.91011935,-1.1743907,1.4988666,-1.3188404,-1.3494648,0.66676825,-0.60327536,0.23129518,-0.32129803,0.0,0.8596545,-0.7994586,0.12643886,0.0,0.9390575,0.0,-0.43562642,0.0,-0.0,-0.16422553,-0.19523357,0.2702985,-0.0,-0.45382795,-0.06733114,-0.91643745,0.52812546,-0.6497478,-0.3363884,-1.2616253,1.2192315,-1.1937612,-0.21901676,0.0,-1.240756,-0.5407889,-0.94582075,-0.0,-0.0,1.9966857,0.6940624,1.235627,0.0,1.6581777,0.0,-0.0,-0.0,0.14062777,0.0,0.0,-0.32890236,0.0,3.0531065,0.94216543,-0.0,0.0,0.27129143,0.5537258,0.0,0.14624663,0.56621987,0.5438861,1.5514599,-0.0,1.2159921,0.9976468,-0.0,0.0,-0.0,-0.5309122,0.0,0.78150356,-0.42328045,-0.28503942,-0.0,-0.7844697,-0.77854383,0.5948824,0.09508425,0.9090325,0.6060107,0.7561202,-1.7044897,-0.278752,0.0,0.0,0.8705766,0.0,-0.0,-0.831767
