0,1,2,3,4,5,6,7,8,9,10,11,12,13,14,15,16,17,18,19,20,21,22,23,24,25,26,27,28,29,30,31,32,33,34,35,36,37,38,39,40,41,42,43,44,45,46,47,48,49,50,51,52,53,54,55,56,57,58,59,60,61,62,63,64,65,66,67,68,69,70,71,72,73,74,75,76,77,78,79,80,81,82,83,84,85,86,87,88,89,90,91,92,93,94,95,96,97,98,99,100,101,102,103,104,105,106,107,108,109,110,111,112,113,114,115,116,117,118,119,120,121,122,123,124,125,126,127,128,129,130,131,132,133,134,135,136,137,138,139,140,141,142,143,144,145,146,147,148,149,150,151,152,153,154,155,156,157,158,159,160,161,162,163,164,165,166,167,168,169,170,171,172,173,174,175,176,177,178,179,180,181,182,183,184,185,186,187,188,189,190,191,192,193,194,195,196,197,198,199
-0.007595456,0.10729606,0.044193618,-0.03531027,-0.04191782,-0.11721138,0.090662204,0.0049646273,0.04542342,0.050758705,0.008170674,0.1148577,0.09549099,-0.070504315,0.10954224,0.002027732,-0.07592278,-0.12906791,0.12623456,-0.022629982,0.06557615,-0.14038476,-0.11024789,-0.03037133,0.120049745,-0.07177675,0.14391513,-0.06121606,0.04416163,-0.05234238,0.060979124,0.030891709,0.02987992,0.0067037833,0.04400679,0.019011658,-0.08290317,-0.008035482,-0.08119877,0.10163791,-0.00895947,-0.01602204,-0.015293628,0.038651157,0.073369615,-0.14276531,0.06698192,-0.08677629,0.068467215,-0.108104415,-0.0070282635,-0.14619559,-0.056972604,0.11392595,0.12566577,0.1106856,0.07661384,0.019482367,-0.11613937,0.0565752,0.11570782,0.12958527,-0.027708387,0.10393467,-0.13790713,0.084563844,0.10055721,-0.09259854,-0.11088372,-0.09056278,0.0012295736,-0.037708897,-0.021016505,0.034048837,-0.011736599,-0.028428692,0.053920753,0.12105349,-0.1150106,-0.117031604,-0.0884071,0.13183762,-0.0046701985,0.094846435,0.11497849,-0.0105820075,0.042807005,0.015073726,0.058517616,-0.11044689,-0.0397357,-0.017445223,-0.12890583,-0.018787084,0.08231473,-0.13175406,0.046324175,0.12863377,0.14139839,0.06887008,0.082257636,-0.043331955,0.009564339,0.06318491,-0.11699661,0.005776,-0.1474177,-0.06799279,-0.13805503,-0.13476367,0.09773129,0.09561456,-0.11629854,-0.10794571,-0.04473264,-0.014741926,-0.10141517,0.018612675,-0.05148369,-0.12007835,0.06501407,-0.13790749,-0.12798184,-0.10038454,-0.034147616,-0.03137285,-0.05721022,0.028057655,0.059703942,-0.033606846,0.07104691,-0.1346599,0.103866845,0.12353726,-0.07297514,0.117853336,-0.014138852,0.06724428,0.09174612,0.02246139,-0.0779182,0.06805394,-0.066883035,0.08402247,0.0052569164,0.029306695,-0.09803717,0.11654557,0.114341244,-0.01278309,-0.10876314,0.13069685,0.034974787,0.04738624,-0.14575839,0.04230781,-0.09456424,-0.04715147,0.015286151,0.013206626,-0.026788728,0.049285587,0.087947786,0.010347821,-0.021772396,0.051220197,0.038879257,0.10201283,-0.0285315,0.11814378,0.0033290396,0.12757583,0.020914808,-0.14644445,-0.033893794,0.07895601,-0.019771527,0.07137261,-0.11539545,-0.09304267,-0.053530328,-0.020526681,-0.10719587,0.0019638413,0.14065664,-0.041299623,0.08208415,0.024612939,0.07336281,0.031682614,-0.116047814,-0.032443937,-0.0307231,-0.063705064,0.08463478,-0.05797515,0.009941374,0.079911806,0.1024817,0.11411813
-0.3962948,-0.38158217,-0.1264896,-0.25846568,-0.10218548,0.21788408,-0.2494848,-0.099452175,-0.4977311,-0.40741405,0.30336726,0.06015535,-0.5427778,-0.3977303,0.21279001,0.034689713,-0.020395683,0.05355667,0.028475821,-0.18724404,0.13342442,-0.050314043,-0.2847817,-0.1745351,-0.270348,-0.13152112,-0.15949392,0.10157449,-0.025763368,-0.28473452,-0.21885207,0.06397775,0.118952885,0.008335772,-0.06201359,-0.16762021,-0.1354594,-0.18887176,0.10607502,0.23604211,-0.535156,-0.48353937,-0.46807548,-0.1783845,-0.41204605,-0.012038005,-0.46517986,-0.2578836,0.14414865,0.050119564,0.1466331,-0.26522228,0.12140513,-0.046326406,-0.16326536,0.054599438,-0.01959559,0.034367952,-0.43408525,-0.25761855,0.05024843,0.048888482,-0.21333699,-0.18836753,0.23756638,-0.099930935,0.05077977,0.003628202,0.01143445,-0.31192926,-0.013674906,0.0025857138,0.051651638,-0.2664322,-0.06693462,-0.0035109292,-0.08012371,0.04986927,0.12776613,-0.15488291,-0.15810709,0.13756977,0.041073322,-0.12793845,-0.010653363,-0.10612818,0.19483866,-0.068606995,0.22286864,0.17967726,-0.49539563,-0.2758823,-0.4981035,-0.0053458265,0.0033910978,-0.014832245,-0.004951021,-0.092905186,-0.06362694,-0.08189802,0.1722491,0.20287141,0.17658512,0.46333733,-0.11119324,0.055790078,-0.3238339,-0.10945812,-0.45130232,0.35806078,0.24355076,0.10461699,0.41533434,-0.34828067,-0.24341929,-0.49759609,0.15158647,0.3186662,-0.16240552,0.13497591,0.12913497,0.11841576,-0.5639623,-0.043934744,0.3620177,0.18220136,-0.42156333,0.08058108,0.009259364,-0.40408558,0.21018879,-0.037845727,0.078801475,0.039897624,0.07542979,0.2005718,-0.105093084,-0.37715092,-0.015133373,-0.18748757,0.48030975,-0.2974742,-0.36015686,-0.084471844,-0.34548306,-0.06309762,-0.14133438,0.21430734,0.17062111,-0.05408041,-0.2330349,-0.35271135,-0.03632754,-0.19762044,-0.2548897,-0.00066359696,-0.20916702,0.07527365,-0.48328874,-0.41136047,0.066869676,-0.13730733,-0.44765228,-0.5374121,0.29726326,-0.06250281,-0.13641746,0.40505743,-0.049633183,-0.18847474,0.17554434,0.07869188,-0.06037058,-0.4344673,-0.27838993,0.14153334,-0.28941274,-0.003663455,0.13927571,-0.3845198,-0.21701612,0.08794089,0.121971205,-0.22939791,-0.21474573,-0.051783614,-0.072807394,-0.3194691,-0.04150348,0.35511982,-0.3432728,-0.45393297,-0.46079132,-0.1994411,-0.2598861,-0.0132541,-0.5290741,-0.19148095,0.11411459,0.035240326
-0.04328721,-0.4245116,0.025929121,0.036323097,-0.21230826,-0.21882035,-0.092972815,-0.0759806,-0.6120073,-0.1846495,0.35091728,-0.0032425823,-0.60527116,-0.19252205,-0.40518382,0.07734771,0.1493135,-0.013763706,-0.01601943,0.11194848,-0.118347734,-0.04874227,-0.028434828,0.20748557,-0.018002214,-0.26456574,-0.335539,-0.05543216,0.15971322,0.025796823,-0.19570845,0.30887467,-0.15846111,-0.24415109,0.17588365,0.17589599,-0.36968505,-0.099705994,-0.21293841,-0.48101094,-0.18811983,0.10458664,-0.12250351,0.1283231,0.07724521,0.00909386,-0.042730648,-0.05600825,-0.09323703,-0.45079017,-0.049358536,-0.3022408,-0.097122855,-0.18161643,-0.085676044,-0.42637175,0.029154839,-0.17589472,-0.2954507,-0.13505213,0.16550162,0.24824597,-0.29487404,-0.15128559,-0.1971909,0.14363043,-0.10449885,-0.059308235,0.09249849,0.40926197,0.21944994,0.035703596,0.0103209475,0.51192546,-0.1844673,-0.008954655,0.014967126,-0.21503238,0.028610988,0.39785823,-0.039193306,0.17249723,0.16997908,0.011359318,0.15314141,0.1941073,-0.059228595,-0.26962844,-0.10156368,-0.42488506,-0.303885,-0.047183137,-0.31804246,0.16515186,-0.33450738,-0.035561837,0.009775422,0.031627603,0.12284046,-0.28836775,-0.13346829,-0.1757288,0.124815956,-0.015228187,-0.16248743,0.53768224,-0.01994548,0.056736913,0.03522011,-0.20134245,0.25040457,0.12253626,-0.28832605,0.07077505,0.5036371,0.009671602,0.2512915,-0.002414801,-0.1523966,0.26870278,-0.015168193,0.03169218,-0.014861128,0.3168386,-0.16562146,-0.12370841,0.40455067,-0.16779979,-0.17987284,0.23671731,0.1446934,-0.2871632,0.18230854,0.47005588,-0.38071182,0.3784017,-0.15424272,0.08918818,0.23011847,0.35007754,-0.19983494,0.089405894,0.39786148,0.74115753,0.113937974,-0.09525608,0.11680413,-0.27922866,0.061300997,0.042514868,-0.44220012,-0.57121813,-0.05585056,-0.16222893,-0.110419564,-0.55755067,-0.044846922,-0.14928983,-0.45611462,-0.17851645,-0.02873118,0.13086136,-0.121151395,-0.32851332,-0.602912,0.012205806,-0.08117324,-0.11546067,0.17708452,-0.14397731,-0.042578984,-0.011791006,-0.13010482,0.19812405,-0.26700535,-0.20979041,-0.14789543,-0.2546649,0.082154244,0.25766632,-0.15376236,0.20634978,0.0783807,-0.0070703486,0.4384053,-0.05031551,-0.28438926,-0.43502542,-0.33245784,-0.6879804,-0.40601155,-0.5003454,-0.6160608,0.22306022,-0.3767648,0.099858895,-0.48858997,0.0029180436,-0.052867882,-0.50136393
0.07812127,-0.15032612,-0.027396727,-0.20593382,-0.029160531,0.28389174,-0.13813281,0.08783673,0.081705086,0.16225705,0.164226,-0.29616326,-0.15133841,0.041544944,-0.25055996,-0.27679136,0.004503732,-0.00987801,0.15686454,0.16329859,0.12847905,0.041864797,0.12168833,-0.0125365695,0.1946622,0.20364079,-0.03772067,0.1382478,-0.121961035,0.12333511,0.040947955,-0.29679352,-0.13866696,0.031159095,-0.05153941,0.18275046,0.14378613,-0.05113777,0.10250882,0.17115614,0.24679197,0.08215883,0.06306867,0.1384953,0.11740919,-0.33262032,0.09645273,-0.13146085,0.046349183,0.0993694,0.05130451,-0.1214841,-0.18418479,-0.20448445,-0.06759221,-0.06782932,-0.16691771,-0.06771559,-0.016274676,0.22350019,-0.08513628,-0.06956399,0.09894031,-0.22001538,0.2604968,-0.102779575,0.12585178,-0.32203713,-0.14761344,0.009474005,-0.1058332,-0.089223824,-0.15730032,0.2621741,-0.08764837,-0.089122824,-0.21158087,-0.290993,0.030201081,-0.22267668,-0.24502428,0.19322924,0.029086698,0.29606035,-0.03925912,-0.41145134,0.1768514,0.055991296,-0.17903112,0.18363275,0.1660231,0.088536166,-0.24405,0.13466826,0.07145663,-0.20229657,0.275643,-0.014556029,-0.18791713,0.06670621,0.20139292,-0.14091879,-0.048301723,-0.067621715,-0.14225216,-0.061849587,-0.08221545,-0.012300115,0.11767139,0.07735199,0.17051148,0.3119452,-0.20728666,0.07259474,0.05771181,-0.06763591,0.101428516,-0.08569598,0.011658359,-0.10460115,0.25689447,0.0056856866,-0.10029834,0.18204993,0.117630154,0.18894911,0.04740116,0.19534348,0.16991383,-0.08841571,-0.23795097,-0.09206103,0.17703834,-0.046829432,-0.011242625,0.23701629,0.018526321,0.14529334,0.09459501,-0.10470732,-0.21069442,0.14733472,-0.12305237,-0.16433159,-0.100027815,-0.14147322,0.058103517,0.16842042,-0.052544806,-0.038847182,0.086080745,0.1846331,-0.14086094,0.052780256,0.27996805,0.28385192,-0.045172576,-0.022239128,0.047248743,0.5302182,0.03172764,0.08737725,0.121605754,-0.034600884,0.15820047,-0.14577106,-0.053387124,-0.26626137,-0.27475768,0.049245488,-0.10483105,-0.081786044,-0.12270295,0.027171385,0.06772632,0.19256799,0.08746272,0.0627553,0.010612828,0.03844591,-0.15166272,0.23848043,-0.07015682,0.2063101,0.044605624,0.3624801,0.058564283,0.01838169,-0.16282518,0.3085518,0.23569667,-0.0719084,0.15077455,0.33581132,0.062117357,-0.22651878,0.100166626,-0.23159298,-0.29688597,0.23003861
0.16175397,-0.06392203,-0.20498325,-0.2554579,-0.4658816,-0.18369915,-0.5657783,-0.2552638,-0.15324368,-0.13932218,-0.06254251,-0.5655148,-0.18589693,-0.2385787,-0.4376078,0.25992268,-0.5021306,0.08453592,-0.5230109,0.4088481,-0.5004548,-0.18868552,0.012219688,0.0021061637,-0.054311026,-0.0064222612,-0.3525835,-0.062772445,-0.3983045,-0.32064444,-0.42476067,-0.33912793,-0.046490688,0.45928922,0.36949056,-0.41307294,-0.25313732,-0.03002929,-0.2694535,-0.5451281,-0.09034193,-0.074845076,-0.3253732,0.1953306,0.25371346,-0.26358688,-0.28815627,-0.2354692,-0.19490722,0.14011382,0.3142253,0.07960588,-0.02354607,-0.1127412,-0.17748982,-0.12503429,-0.095272824,-0.040272918,-0.09255427,-0.06928361,-0.049507774,-0.33090132,-0.19477542,-0.1101044,-0.4139216,0.28854275,-0.12785885,-0.17606674,0.13689314,0.24697043,-0.044279344,-0.19882007,0.21793115,0.04152169,0.15862994,-0.14205053,-0.23036195,-0.18121505,0.007217336,0.07950112,-0.27374506,-0.28645572,-0.19217229,-0.05253295,0.041956037,-0.30653608,-0.19097745,-0.05207125,-0.15996706,-0.23552182,-0.023318103,-0.2509636,0.043480974,-0.0393264,0.5492378,-0.12363854,-0.16433436,-0.21655929,-0.2428638,-0.053919572,0.063052036,-0.0076080007,0.045768704,-0.0011272151,0.123148896,0.022812877,-0.031714942,0.035561096,-0.058814134,0.035719052,-0.069683775,-0.08584028,0.066823855,-0.28180155,-0.17650953,0.14084905,-0.12250987,-0.0031380185,0.021994283,0.15522867,-0.054146152,0.07549356,-0.0133528095,0.24702078,-0.074673876,0.03864591,-0.1712101,0.19055477,-0.097939834,0.093697876,-0.056337785,0.09465166,-0.08257938,0.1596564,-0.0325588,0.068415895,0.15712374,0.105184756,-0.043451663,-0.053695805,0.20922656,-0.0064750505,0.12756348,0.39146307,-0.3055187,0.077729575,0.0008651267,-0.064822115,-0.066762835,0.19508357,0.25189224,-0.025831483,-0.019647218,-0.14386413,-0.18389066,-0.20920728,-0.36447254,-0.1683286,-0.15184216,-0.04817296,-0.3266681,-0.47386158,-0.1081009,-0.19809511,-0.40212232,0.41982216,-0.087674774,-0.22710276,-0.18774776,0.42659482,-0.122360736,-0.35580465,0.3033686,0.17323917,-0.31075495,-0.19373676,-0.37299636,-0.20919523,-0.3524716,-0.40720886,-0.34200647,-0.2775769,-0.4834398,0.29312116,0.28163883,-0.61380666,-0.26145568,-0.4887942,-0.3865407,-0.43523538,-0.08065744,-0.14548728,-0.26265052,-0.29137835,0.28089666,-0.12996083,-0.25374582,-0.11499257,-0.15049168,-0.46538532
0.2722882,0.69660735,-0.07009976,0.1797205,0.1853648,-0.14296998,0.18821521,-0.04216329,0.41580203,0.63164634,-0.31030545,0.00902898,0.6487766,0.58743143,-0.37624836,-0.05016361,0.090977855,-0.2753005,-0.15046464,-0.026081305,-0.20137966,-0.18427788,0.049955186,0.1829151,0.2074329,-0.140985,0.2138256,-0.09432882,-0.17311105,0.27495542,0.49195603,-0.049175117,-0.10131868,0.18709409,0.21127005,0.24835025,-0.17081827,0.3618072,-0.08718223,-0.35802844,0.4802341,0.6463098,0.5773706,0.23473537,0.43916816,-0.1342909,0.449844,0.21238422,-0.10325812,-0.09176884,-0.18673138,0.29708877,0.0051375045,-0.03330872,0.011125616,-0.00058985694,0.12266639,-0.1830112,0.2184068,0.2829502,0.20287581,0.06309944,0.41839075,0.38020194,-0.340204,-0.034084138,-0.09479137,-0.11051744,-0.05423586,0.3560957,-0.096546486,-0.18903202,-0.046537172,0.384231,-0.07139863,-0.27095538,0.17129914,0.021529978,-0.1484036,0.22715269,0.36705378,0.026348652,0.02279136,0.23091426,0.19238283,0.09627371,-0.1817245,-0.05298607,-0.2858536,-0.09092974,0.48035532,0.21916738,0.47680536,0.24110962,-0.18396066,-0.1349737,0.09531838,0.12183067,-0.094875224,-0.32168767,-0.48130363,-0.4924542,-0.29694003,-0.40983483,0.057986427,0.26485777,0.391459,-0.10600219,0.7694115,-0.5355239,-0.120618075,0.080618374,-0.7663334,0.56623745,0.17821895,0.50467664,-0.055034343,-0.49604255,-0.13618626,-0.051828377,-0.077209815,0.18090439,0.5630656,0.20268324,-0.34329703,-0.30046177,0.58532304,0.1492848,0.03824974,0.2773739,-0.4021164,0.06425999,0.03122501,-0.05519186,-0.20418094,-0.00802285,0.17413215,0.34138536,0.1760837,0.5070209,-0.53249687,0.58408284,0.546345,0.07802184,0.5281887,0.38481507,0.49948156,-0.16778573,0.051970426,-0.2354491,0.2139434,0.50587493,0.08148556,0.17021948,0.1792067,-0.22229333,-0.02821248,0.08951132,0.50926036,0.4682105,0.08179167,-0.010148248,0.6744618,0.5239971,-0.27609688,0.38319737,0.045433063,-0.29331008,0.015516794,0.536107,-0.36164054,-0.08385581,-0.19833286,0.5056304,0.0850509,-0.35925645,0.21287055,0.051033005,-0.062794834,0.43065774,0.34696597,-0.040192217,-0.11235712,0.32188743,0.50603586,0.20658167,-0.065490045,0.39329135,-0.21218288,-0.2589734,0.29956865,0.5284481,0.46960983,0.24834156,0.1293661,0.008222893,0.42308414,-0.018332634,-0.14042729,-0.24247071
-0.18652175,0.015423956,-0.0054729567,0.0385778,-0.38727638,-0.018301696,-0.036616437,-0.11222964,0.1199455,-0.20009421,-0.07082706,-0.04886677,-0.21327133,0.18197392,-0.2151585,-0.14185645,0.0039950972,0.024250444,-0.06796988,-0.20251858,0.09076371,-0.17352036,-0.12858744,-0.23922338,0.12546021,-0.0072558755,-0.2803267,-0.1427126,-0.04436818,0.016262596,-0.1129284,0.16132043,-0.19508414,0.073609896,-0.27897802,-0.119948514,-0.08006638,-0.019897372,-0.24854177,-0.12516037,0.31052396,-0.038663574,0.11816387,-0.23564266,0.14953783,0.07608578,0.40533122,-0.14098178,-0.10054196,-0.17865735,-0.08728798,0.14417471,-0.058185212,0.20321913,0.08650866,0.17308062,0.03397147,-0.046903666,0.005906775,0.025984703,-0.1098517,0.28958616,0.25973815,0.19272347,0.047315255,0.00036248867,0.062440984,0.02779531,-0.11740685,-0.033747688,-0.07813514,-0.13100031,-0.2656767,-0.051307056,0.07203007,0.0029835561,0.04428731,-0.21077552,0.10702074,0.061283547,-0.01857256,0.054615926,0.009981333,0.08053468,-0.38067338,-0.0016528021,-0.21858896,0.06387531,-0.068269946,0.20074454,0.17623408,-0.06333041,0.31554434,-0.046047885,0.07101501,0.30666345,0.2942231,0.1722823,-0.29291984,0.079901285,0.4412465,0.19374683,-0.13651432,-0.26026204,0.012227644,-0.3331119,-0.01636294,0.011725234,-0.2119923,-0.075382575,-0.46965942,-0.026580228,-0.06255993,0.080660336,-0.028445145,0.66063154,-0.32896262,0.0713223,-0.17242733,-0.035002716,0.026471104,0.106780194,-0.0013848015,-0.22642405,0.06820195,-0.054517858,-0.09808395,-0.13607335,-0.110266104,0.0484919,0.04311642,0.1599968,-0.12210897,-0.16672328,0.5077015,-0.54052824,0.06650147,-0.19062096,-0.022866312,-0.0052629174,0.5066728,-0.052930526,-0.0087600695,0.037838914,-0.7241049,-0.010179771,0.10184322,-0.03274636,0.22704408,0.18796398,0.20846494,0.21280478,-0.122531995,0.123406865,-0.30102533,-0.16363631,-0.36581475,-0.16605969,-0.015848568,-0.15123662,-0.05583636,-0.23668538,-0.04618793,0.08964696,-0.04908538,-0.017269865,0.2655298,0.07002443,0.07363019,-0.3372609,0.22325212,-0.13314709,-0.13253094,-0.07821052,0.34955278,0.29189944,-0.20451444,-0.31959176,-0.0655881,-0.11378057,-0.289835,-0.13151757,0.035945173,-0.23215389,-0.24887662,-0.2900381,-0.078670196,0.059185125,-0.011225687,-0.067404225,0.048560314,0.2393046,0.03461132,-0.28821903,0.076292515,0.2383026,0.27045423,-0.034250405,-0.47065023,0.5666712
0.22169091,-0.28912005,0.20567301,-0.11465784,-0.026901491,0.12945795,-0.11302585,0.23092072,-0.14295758,-0.36566553,0.059566893,0.06740832,-0.58455205,-0.24593525,0.369005,0.035498712,0.116134696,0.21223907,0.19167161,0.004313115,0.27188557,0.050083328,0.05447093,-0.13534309,0.1862729,0.15693973,0.010317151,-0.049986172,0.2077123,-0.34689817,-0.20202234,-0.14262092,-0.030438652,0.0790371,-0.27812836,0.12177595,-0.029952317,-0.32785046,0.12022028,0.19072935,-0.07274441,-0.124980286,-0.43061405,-0.32067448,-0.24641782,-0.05780869,-0.30933458,-0.009848801,0.17975348,0.29889768,0.40750942,-0.22320205,-0.1355477,-0.013426313,-0.08987175,0.073496446,0.08785555,0.12646537,-0.3085156,-0.3094882,-0.037268203,-0.011818342,-0.16691022,-0.06794228,0.29434896,0.06308097,0.13102952,0.14400735,0.045073256,-0.23016362,0.13351497,0.065183476,0.03432632,0.07355532,0.14831196,0.34760082,-0.09712783,-0.050648004,0.20380619,-0.21280272,-0.21265446,0.006130219,0.19671896,-0.1647496,-0.057984564,0.10093675,0.18156947,-0.07510298,0.18860868,0.064208366,-0.051891834,-0.0011302141,-0.28422543,-0.22476323,0.32701224,0.16644767,-0.04403547,-0.13398723,0.16325532,0.3951218,0.25265777,0.26266283,0.055708487,-0.039642062,-0.3189302,-0.08855027,-0.06613046,0.05501745,-0.120935984,0.3124837,0.024858655,0.030634504,0.38370743,-0.4221525,-0.17011046,-0.19455934,0.09521226,0.21446219,0.09853212,0.04811398,0.0035368553,0.015029447,-0.47024137,-0.113445505,0.4387458,0.1891426,-0.2779033,0.064446636,0.12620191,-0.28738952,0.10867348,0.17030035,-0.018662516,-0.076356344,0.2393665,0.17749849,-0.13412152,-0.23317164,0.023673078,-0.1317274,0.12435816,-0.23581952,-0.27420238,-0.25987294,-0.47219357,-0.2093405,-0.40868056,0.15809877,-0.101424575,0.14147398,0.08468035,-0.24451993,-0.13624762,-0.01987252,-0.17296802,0.074618824,-0.18756124,-0.10603659,0.051933065,-0.4702395,-0.36863428,0.045719054,-0.44577032,-0.13485274,0.23470609,-0.39904737,0.16574155,0.17823645,0.026882477,-0.34126037,0.20781618,-0.12408254,0.32942072,-0.14060013,-0.14210753,0.025075814,0.028510995,-0.24090467,0.029193683,-0.05570341,-0.050127592,-0.02746241,-0.0087970635,-0.3737682,-0.19952975,-0.20967329,-0.20717484,-0.39751253,-0.18159485,0.02461075,-0.0035360323,-0.29842633,-0.2713515,-0.33761576,0.14216933,-0.15186974,-0.25540188,-0.019327594,0.14220619,0.09758709
0.24199274,0.5147843,0.20532589,0.18862857,-0.0138260545,-0.1363617,0.04289416,0.09806312,0.55719995,0.6183094,-0.24701485,-0.0660256,0.36110497,0.45960993,-0.38603348,-0.03925724,-0.056309592,0.014183458,0.17676069,0.03912144,-0.041966166,-0.03878279,0.16960964,0.022549944,0.3769786,-0.016587973,0.22912155,-0.05675609,-0.10566889,0.12816967,0.3206093,-0.020959692,0.029892173,0.20023078,-0.06753004,0.059913438,-0.11982174,0.20414847,-0.008228615,-0.2259639,0.47072983,0.46538702,0.4269584,0.14382586,0.34875152,-0.06682366,0.34183204,0.039861508,-0.13000531,-0.1072669,-0.1540288,0.58064014,0.048419323,0.08057112,-0.00983663,-0.05849619,0.0756405,0.047624312,0.52188593,0.54170626,0.21438985,0.07437945,0.6203616,0.5197964,-0.21150427,-0.108685374,-0.026877359,0.08534088,0.018295143,0.1789639,0.13469888,0.12816921,-0.0051673865,0.09367763,0.22295196,-0.0027900296,0.24558267,0.09806061,0.11124047,0.09788414,0.32464454,-0.15448827,0.00849563,0.10261494,0.14779966,0.13808917,0.005600052,0.095479965,0.025196042,-0.23572505,0.35084432,0.22856496,0.4481195,0.20309602,-0.09293978,-0.118511945,-0.0030379205,0.14970592,-0.06261926,-0.043298192,-0.3631923,-0.38034165,-0.00944202,-0.4354298,0.023723729,0.09370241,0.29516655,0.08891923,0.61048985,-0.59576076,-0.21769527,0.21379922,-0.53951675,0.6083927,0.061868545,0.3813957,-0.10437798,-0.22516361,0.09760397,0.10927899,-0.019417588,-0.09372524,0.5037359,0.24993025,-0.35862654,0.00761387,0.59561896,0.14895064,0.20919268,0.42747897,-0.3391976,-0.091776,-0.03621347,0.22808415,-0.029865822,-0.24372768,-0.10583494,0.3780374,0.08900174,0.22937278,-0.64300907,0.39866477,0.6055409,-0.10363674,0.39909184,0.08893248,0.15318906,-0.19180153,-0.04259406,0.10865528,0.46028858,0.5500835,0.10433566,0.15020818,-9.386908e-05,-0.2064041,0.21888788,0.14466853,0.8041389,0.59028,0.19073199,0.06369021,0.82005906,0.6465557,-0.26737732,0.37419462,0.0028347808,-0.28981528,0.052852258,0.28324825,0.021999959,0.02744866,0.013312881,0.5178651,0.37336913,-0.13778442,0.1596914,0.14128947,-0.031086907,0.3506348,0.40161264,0.021768056,-0.11155214,0.3819462,0.28147954,0.083846375,-0.15280297,0.2728918,-0.09072391,-0.29006687,0.46516505,0.4730033,0.71673304,-0.018624142,0.1903887,-0.05948943,0.4335659,0.22015397,0.026140122,0.043237362
-0.046181392,0.16018781,-0.28264815,-0.009337371,-0.04607847,0.09576603,-0.18699984,0.19870865,0.11919041,0.2561498,-0.065820895,-0.4443361,0.24419652,0.39322862,0.435924,0.05993112,-0.07525386,-0.22857934,0.09406487,-0.1668122,-0.22186682,-0.10611148,0.18448251,-0.10834817,0.1133977,0.07398016,0.26780143,-0.21268381,-0.2605175,-0.022648213,0.04453274,-0.44799682,-0.40718263,-0.45842385,-0.12058319,-0.28982085,-0.1500896,0.105974235,-0.3682506,0.36379734,-0.11060311,-0.12179906,0.38745517,0.12505546,-0.2748899,-0.34791213,-0.012468524,-0.2050184,0.0039822725,-0.1625109,0.017531525,0.12622078,-0.13589396,-0.08322726,-0.07717561,-0.05752093,-0.12086196,0.05232341,-0.06334906,0.08476788,-0.08249766,-0.42660064,0.024875447,0.23780134,0.35025662,-0.045861732,-0.04380668,-0.3165264,0.11837369,-0.10125245,0.036093432,-0.34275043,-0.27043298,-0.22430104,0.055460423,-0.107629724,0.017104695,-0.15022571,-0.16916093,-0.3779593,-0.18778883,-0.49997523,-0.33574083,-0.2933518,-0.09730411,-0.3731175,0.032563467,-0.09988182,-0.3135626,0.15646788,0.013517645,0.0011661191,0.023364848,-0.15744741,-0.089783095,-0.13818413,0.04887661,-0.39845,-0.44160378,-0.099291496,0.09099465,-0.3243069,0.22487256,-0.07622029,0.11233652,-0.12945886,-0.34761906,0.22429588,0.03672378,0.1357191,0.42523304,0.17053892,0.28487626,-0.38112944,0.091112114,-0.52780735,-0.29554427,0.24802783,0.043794226,0.29734278,0.52293533,-0.6068394,-0.47858584,0.2855407,0.39862984,0.25072464,-0.5283247,0.6229265,0.47300094,-0.45538488,-0.40662995,0.25719514,0.23278293,0.23308605,-0.57441884,0.30859905,0.056487627,-0.006290337,-0.43220896,-0.43238127,-0.120203055,-0.12352107,-0.3324576,0.10636057,0.17966035,-0.1582772,0.1224375,-0.51459944,0.39183867,0.13792582,-0.1182117,0.0067753606,-0.196624,0.08793741,0.028155126,0.10284125,-0.22247908,0.33533338,0.0037121996,0.3444393,-0.08822047,-0.5721076,0.3554787,0.051330596,0.017380258,-0.31789804,-0.20714827,-0.20596938,-0.031361643,-0.25952536,-0.30892855,-0.23690349,-0.13979422,-0.14705862,0.3076037,-0.33622634,0.024565168,-0.15693967,-0.40153125,-0.10092922,-0.36083767,-0.12804906,-0.43109977,-0.367151,-0.071604885,-0.44304448,-0.18491308,0.013172907,-0.40991086,0.2248107,-0.14127693,-0.05766491,0.23722,0.0006515274,-0.35723066,-0.28474852,0.15806188,-0.37525174,-0.29343215,0.016513513
-0.14636256,0.21022576,0.38446262,0.19967625,0.51150197,0.079905994,0.3021307,0.19419718,0.45398563,0.6240229,0.047611568,0.43339118,0.2955736,0.15225519,0.17286764,-0.21310902,0.38746342,-0.06553914,0.2985909,-0.3064647,0.5167398,-0.040931012,-0.015530318,-0.0065129423,-0.09675829,0.036068268,0.072499,-0.02362663,0.2729161,0.27961707,0.24041629,0.22060676,0.3684183,-0.36172333,-0.01292778,0.37946895,0.48575258,0.11575296,0.24724792,0.38798591,-0.06633476,0.23628508,0.47533363,-0.20461635,-0.07513826,0.55469316,0.31312522,0.083386935,0.18186702,-0.040264513,-0.17718038,0.023324965,-0.024710251,0.23468839,0.30196995,0.11140107,-0.052678857,-0.157848,0.1204063,0.06036549,0.23530409,0.34327075,0.23317038,0.13105233,0.31639534,-0.3585932,-0.117585674,0.17292397,-0.13162023,-0.21605417,0.028197898,-0.021998895,-0.2475739,-0.12915178,0.032381345,0.12626803,0.076167315,0.023242714,-0.10758618,0.07114726,0.1228028,0.24935186,0.2732579,-0.0990298,-0.03640784,0.1982579,0.25703046,0.04361202,0.17434865,0.23669994,-0.13020423,0.05548421,0.08525887,0.15058205,-0.038455524,0.00082133245,0.21151116,0.14272042,0.045938224,0.038452454,0.061756924,-0.1454751,-0.17358588,0.12007018,-0.111744024,-0.16712536,0.0771034,-0.039579216,0.12007635,0.095763914,0.055875868,-0.03264128,-0.25851607,0.33152267,-0.12082864,0.11470961,0.09508778,-0.27463013,-0.041619927,-0.063341685,0.10853724,0.07318054,0.30395088,-0.26359066,-0.028878137,-0.11959373,0.018486837,-0.086223245,-0.05441833,0.03599445,0.21888652,-0.0030304086,-0.08917389,-0.1608468,-0.049943596,-0.15796942,-0.13627271,0.10336064,0.046228487,-0.004228552,-0.16361134,0.18920982,0.030107064,-0.09859509,0.096466064,0.093771115,0.19944832,0.02862751,-0.21181488,-0.08687463,-0.03718571,-0.1589562,0.045267627,0.3059558,0.5349299,0.24901243,0.26425695,0.005120301,0.09893395,0.34026954,0.27909878,0.4250503,0.33985236,0.26725915,0.21090771,-0.25020373,0.21445061,0.41105133,0.24844508,-0.30173817,0.25105703,0.5175336,-0.12372746,-0.19496617,0.5167654,0.3417511,0.089092426,0.061427902,0.18364042,0.3774417,0.03470032,0.3981872,0.40272698,-0.47581235,-0.36883673,0.34422478,0.44559094,0.52604437,0.3717217,0.32008904,-0.07959551,0.07792833,0.35269764,0.24571489,-0.43246955,0.38225266,0.4124651,0.058478415,0.117464826,0.4506896
0.15558152,0.20445055,0.14910974,0.13727167,-0.1338083,0.22740647,0.15433855,0.05989498,0.16295347,0.12220251,-0.025771698,0.1744556,0.21676755,0.11982275,0.11855432,0.020490006,0.33171543,0.21860087,-0.3395014,0.24285701,-0.06993271,-0.12445036,0.22366582,-0.24956787,0.0965981,0.052931003,0.30234265,-0.055959806,-0.12323019,-0.27057478,-0.0708671,0.21902741,-0.09969001,-0.0621642,-0.054675516,-0.024465214,0.119280085,0.17814524,0.04218334,0.32139274,0.23413005,0.04192696,0.074551836,0.58762354,0.20164984,-0.18690346,0.24842322,-0.049408533,-0.040524334,0.051943794,0.2536645,0.2642885,0.0008513051,-0.29307556,-0.13069639,0.27571493,-0.15528987,0.13176484,0.2886089,0.2658581,0.1723173,-0.002133395,0.22228682,0.08740282,0.31857273,0.19067846,0.09935521,0.02394443,-0.26499337,0.18180254,0.08003925,0.121432796,0.095134936,-0.103922695,-0.10766798,0.18775961,0.29429096,0.18683738,-0.07697875,-0.050045576,-0.16347645,0.16040267,-0.04288566,0.15544914,0.20219706,-0.0018166497,0.16975893,0.034561414,-0.09517871,0.44682437,0.07798062,0.031186914,-0.01866822,0.17191283,0.082144,-0.242959,0.29094365,-0.0044122306,-0.19408101,0.050991274,-0.1325877,0.09981516,0.08222573,-0.1766367,-0.10044402,-0.014239213,-0.04753836,0.28408244,0.055998124,0.10709113,-0.060409952,0.05416469,0.056530837,-0.08956404,-0.14632562,-0.31096765,-0.1661012,0.13896886,-0.103228934,-0.10544932,0.08163152,-0.2808325,-0.31703308,0.021051124,0.16620581,-0.04926224,0.052333884,0.22347195,0.1549903,-0.10368313,-0.32579726,0.07597093,0.2825899,-0.0813202,0.04725415,-0.1523375,-0.037357856,-0.14577633,0.029644812,-0.21587503,-0.032640506,0.06721639,-0.031539634,-0.21399258,-0.008034859,0.030642856,-0.13263218,-0.24511966,0.16587718,0.20401171,0.26865205,0.20651968,0.093667515,-0.043384995,-0.060048673,0.40636256,0.015959002,0.10001549,0.360115,0.46414515,-0.19234847,0.013651581,0.54491425,0.07281092,0.2330451,-0.030821374,0.0738706,0.31460616,-0.15728231,0.25002113,-0.173138,-0.28863636,0.17862235,-0.11903741,0.16657308,0.3223745,0.2696879,0.032998465,-0.29905623,-0.16199969,0.085032195,0.43631563,-0.14432839,0.24529874,0.16316947,-0.035707664,0.092109635,0.456068,-0.14120634,0.58615375,0.083340116,0.13296188,0.118906654,0.24084213,0.17249721,-0.12181266,0.41006306,-0.17612648,-0.10094614,0.07537955
0.42831993,-0.19800045,-0.21002656,-0.3314501,-0.33063242,-0.06832196,-0.38839495,-0.19525497,-0.26087478,-0.3974855,0.31851614,-0.057466645,-0.5385278,-0.028532904,-0.20220442,0.21721463,-0.10458764,0.07650178,-0.16256595,-0.15621693,-0.29283696,-0.052478008,0.1353757,0.32691404,-0.15223049,-0.030277412,-0.16097961,-0.09007896,-0.033633247,-0.19843645,-0.07525775,-0.1274113,0.10876637,0.041011475,0.30449668,-0.014121663,-0.040824067,0.17409264,-0.25262308,0.06575597,-0.12620711,0.046472564,0.013792775,0.091255136,-0.1391794,-0.32083163,0.03734531,-0.36353862,0.10409478,-0.106235676,0.38710317,0.16319664,-0.29930344,-0.094820425,-0.06335995,-0.29141077,-0.18544489,-0.046504345,-0.08834134,-0.19981493,0.36798126,0.26955473,-0.20602323,-0.10109592,-0.01051764,0.090223685,-0.098756574,0.016001467,0.075004295,-0.16529928,0.02261948,-0.08952771,0.29650298,0.21792768,-0.110525884,-0.0056207217,0.09668762,-0.087002486,-0.032761283,0.022126898,-0.1912633,0.03699424,-0.17420156,0.18024558,-0.05663509,0.15523505,0.2995613,-0.07294908,0.002375867,-0.19845657,0.10911566,-0.085947536,-0.14719036,0.10861106,0.10006373,-0.21868418,0.014708885,-0.18313633,0.027513202,0.0026592645,0.029150086,-0.077670515,0.11341357,-0.14633745,-0.19432804,0.18203649,0.05816254,-0.076327,-0.008381099,-0.34365362,0.116338074,-0.011298532,-0.23344254,0.17575377,0.10749089,0.0127840405,0.15922156,-0.10099421,-0.13323775,0.07399704,0.06397899,0.01061887,0.037263162,0.14820932,-0.2000594,0.015972221,0.22285609,-0.06301707,0.13460965,-0.062490787,-0.092681,0.19279094,0.23578459,0.33711466,0.11551152,0.012086608,-0.19533572,0.09039931,0.021830538,0.24176477,0.0283774,0.18833192,0.16988716,0.07987344,0.012107737,-0.13909893,0.16964023,-0.13541195,-0.044934545,0.07157053,0.08387519,-0.14196719,-0.2367021,-0.25922096,-0.22423263,-0.43614087,-0.23142293,-0.30952212,0.048252102,-0.32075185,-0.15874922,-0.08977738,-0.49031928,-0.31870246,-0.33563793,0.17352052,-0.34211832,-0.11711003,0.0031800172,0.15084565,-0.049970977,-0.35222533,0.2540713,-0.008983138,-0.37124875,-0.12653244,-0.22210334,-0.37097323,-0.06393061,-0.19157974,-0.2596106,0.059282407,0.13734828,0.17063238,0.11514431,-0.12860422,-0.09604635,-0.29532492,-0.28313243,-0.12369458,-0.016770534,-0.345511,-0.18942368,-0.44208172,0.07368226,0.012132198,-0.25281683,-0.47188455,-0.22147036,-0.27198455
0.11274876,-0.21015203,-0.30020657,0.056588855,-0.37103412,-0.26827914,-0.14049883,-0.24548505,-0.18157014,-0.3919103,-0.118668914,-0.26980528,-0.27141613,-0.29011303,-0.17222475,0.21403691,-0.48349681,-0.09136321,-0.21873985,0.35359338,-0.6049255,-0.10214523,-0.13639666,0.14274459,-0.11126597,-0.11535775,-0.44207296,-0.04779558,-0.22589375,-0.15945292,-0.22126041,-0.2199577,-0.18191364,0.14867544,0.41826573,-0.3789047,-0.15260167,0.069891244,-0.41753003,-0.6281274,0.010230919,-0.1302241,-0.5350283,-0.028144728,0.08938486,-0.159673,-0.1719485,-0.047971196,-0.3139018,-0.019770967,-0.043116733,-0.21229576,0.079799935,-0.012887377,-0.034180626,0.120883904,-0.043500673,0.13579611,0.05103647,-0.1662314,0.07704868,-0.15792727,-0.18365702,-0.22198793,-0.011283486,0.06409779,0.13346711,0.020774571,-0.06072524,0.22645517,-0.29048792,-0.061490495,0.061840646,0.32954612,0.017489795,-0.09636974,-0.21012203,-0.22917585,0.08694452,-0.115980886,-0.17780124,0.030878551,0.028885461,0.2632598,-0.08602551,-0.18454857,-0.17247516,0.06976488,-0.16953175,-0.29131567,0.10935583,-0.035846356,-0.15626821,0.01171647,0.006486659,-0.3083695,-0.10421816,-0.28101274,-0.1465718,0.1068786,0.035636082,0.016938992,-0.06127603,-0.10579958,0.19084238,-0.041635685,-0.039709475,-0.09417214,0.22167917,-0.10517263,-0.21674795,0.05375144,-0.114656806,0.050510846,0.1458238,0.17355168,-0.09349427,0.0664683,0.023419619,0.064105056,-0.013019612,0.096099086,-0.08496393,0.06851425,-0.0070705097,0.116440244,0.20105398,0.038642883,-0.07454003,0.15366408,-0.13683525,0.05323257,-0.07818108,0.22565804,0.03434774,0.04106193,0.023587296,-0.023004916,0.045768023,0.18876298,0.3044329,0.1898888,0.06765582,0.40459302,-0.093687065,0.16626588,-0.013488875,-0.13512543,0.011312391,0.02946235,0.27212945,-0.055395685,-0.06945774,-0.07706662,-0.034222327,-0.08626862,-0.24650626,0.091685325,-0.47704235,-0.63765585,-0.081231445,-0.32065958,-0.22870868,-0.2577427,-0.28843483,0.39764765,-0.15405636,-0.40142316,0.033124622,0.32871723,-0.035492204,-0.333584,0.1777663,0.16600129,-0.4580226,-0.34678856,-0.53387916,0.03222534,-0.31545636,-0.39343995,-0.13770808,-0.23122954,-0.27866393,0.20664038,0.29271448,-0.19859068,-0.28251317,-0.48350713,-0.36562496,-0.27904364,0.21600951,-0.02482983,-0.513977,-0.20227142,0.32615674,-0.47448382,-0.41583744,-0.03777451,-0.33861443,-0.45716923
0.020658584,0.2332093,0.2890639,0.27361545,0.536547,0.27491787,0.01892586,0.2089962,0.10168965,0.23638694,-0.088387184,0.29643175,0.18723273,0.21731097,0.24125862,-0.34813273,0.35788876,0.12988485,0.45345965,-0.35135102,0.12551546,0.1008284,-0.038568996,-0.16219658,-0.3581517,-0.017296568,0.3799582,0.19757691,0.3635857,0.2877312,0.25666618,0.10851424,0.35652936,-0.48541337,-0.5739612,0.10834823,0.28631142,0.0965617,0.34768134,0.499163,-0.014830556,-0.27255318,0.17414673,-0.1299608,-0.2981146,0.37068555,0.01728095,0.12590598,0.2945127,-0.061192397,-0.08446628,-0.18625772,0.051995195,0.027499024,0.0027463639,0.24601647,-0.12294568,0.042144597,0.0062777027,0.13504463,0.102358565,0.26498044,-0.012709998,0.31196102,0.3135046,-0.18244849,0.25337088,0.15741606,0.07708724,-0.19338538,0.017176883,0.25345182,-0.15524529,-0.13237177,-0.16467829,0.062922776,0.17635891,0.07437716,0.2092002,-0.044746704,0.14185984,0.11028186,0.27130944,-0.3544394,0.1369832,0.15503581,0.17544849,0.18091464,-0.14123315,0.23035708,-0.039042257,0.09214445,-0.07187921,0.07822637,-0.13724871,-0.095276475,0.019518806,0.12500156,0.14270575,0.08390512,0.02237227,-0.52039987,-0.10035259,0.4110682,0.001964726,0.060980614,0.2285328,-0.057089046,-0.054911643,0.054156106,0.08789046,-0.015024516,0.106514685,-0.010096124,0.10590852,-0.07012839,0.011659289,-0.107851,-0.17876543,-0.22933322,0.097752064,-0.022934616,0.10715896,-0.070544876,-0.15090437,0.17251481,-0.20598504,-0.1715669,-0.23121457,0.07308448,0.027515555,-0.0007022598,-0.06115232,-0.4378857,-0.10277782,-0.06116834,0.12640125,-0.053189088,0.070542976,-0.2233528,-0.29858583,0.23611954,-0.116589665,-0.074189074,0.183337,0.22150147,0.01323494,0.17940886,-0.03851492,-0.30065215,-0.42732936,-0.06698598,0.46221533,0.089401454,0.26532668,0.4055416,-0.038697265,0.25271502,-0.03325761,0.05405519,0.0845759,0.45124698,0.18848069,0.27205318,0.1143525,-0.49980468,0.2232574,0.2674832,0.5896772,-0.43027362,0.015521614,0.09374843,-0.16349682,-0.33449423,0.3753669,0.08705848,0.38917518,0.06010185,0.24856314,0.23223153,0.0068160696,0.19934845,0.30648163,-0.54292434,-0.20255911,0.300302,0.3998413,0.20084637,0.18598083,0.20102775,-0.21543398,-0.2085689,-0.06281353,-0.12888038,-0.2869298,0.012687297,0.2960854,-0.13760409,0.21301083,0.24082641
0.022034924,-0.22293977,0.057830837,-0.18292277,-0.17894726,-0.17303266,0.063167214,0.025672965,-0.55578595,-0.065859444,-0.16269027,-0.19891882,-0.36688983,-0.25624168,-0.21111359,0.3156124,-0.041883312,0.09744573,-0.3054134,0.14865498,-0.14810142,0.28393647,0.3880758,0.24806242,-0.1349068,0.118074,0.037253823,-0.057189643,-0.18505305,-0.06763513,-0.021493604,-0.24355575,-0.22404142,0.21698822,0.30158594,-0.26377198,-0.31216583,0.20984255,-0.029250998,-0.20657834,-0.053753015,0.055588387,-0.5026522,0.19294047,0.21602957,-0.12229148,-0.28467885,0.0006741807,0.12987004,-0.13009368,-0.06715039,0.04581539,-0.09521137,-0.19872467,-0.034211084,-0.2890044,-0.11070783,-0.21802486,-0.35059753,-0.18037441,0.039971936,-0.27274963,-0.2552165,-0.005418256,0.035470523,0.11110324,0.036571417,0.09765843,-0.31221697,0.107510425,-0.06800543,0.09486012,0.1757556,-0.07845019,-0.065560676,-0.1136275,-0.28461653,-0.13960402,-0.0038041165,-0.17090145,-0.09773962,-0.052185338,-0.017694848,-0.12020544,0.13782185,-0.08554726,0.05134257,-0.21145321,0.09765251,-0.27291396,-0.10316372,-0.17375822,-0.31632152,-0.18106928,-0.32966852,-0.0034744379,-0.25421026,-0.16465384,0.05470247,-0.18484047,0.10028116,0.059629414,0.013101089,0.1962371,0.09071616,0.045241166,0.073390685,0.010313881,0.12738675,-0.051330537,0.03283193,-0.16058967,0.18245064,-0.18577594,-0.14704959,-0.073066235,0.4919545,0.13279808,0.23664398,0.10576454,-0.04613017,0.045377076,-0.32451487,0.1971145,0.11319419,0.30583715,0.12797056,0.13036335,-0.073924735,0.03861564,-0.17022279,0.19570167,0.30211982,-0.04693917,0.033343304,0.033607528,0.046187878,-0.137063,-0.05394629,-0.04733899,-0.1546756,-0.18018717,-0.043390434,-0.14008695,0.023514442,-0.14976874,-0.048128042,0.14674267,0.035809465,0.20966215,0.104764335,0.045486685,-0.086428955,-0.30911526,-0.169145,-0.17528836,0.046214134,0.10688569,-0.23507139,-0.35465646,-0.2171525,-0.03934191,-0.042360347,-0.01914131,0.06402915,-0.060378775,-0.1382475,-0.14481375,-0.48194152,0.29924247,-0.04222399,0.020912008,0.6042623,0.14853619,-0.3294718,-0.08253835,0.011990948,0.09187406,-0.059187274,-0.2615854,0.028308105,-0.17877373,-0.23187168,0.085749954,0.17403127,-0.13078062,-0.36321077,-0.22753799,0.0051864297,-0.09642515,-0.08506143,-0.20609444,-0.3435473,-0.24745074,0.316072,-0.06662623,-0.42290607,-0.11130069,-0.020007951,-0.34612313
0.18350683,0.5633438,0.038880873,0.32594162,0.07933026,-0.08694196,0.24041146,0.09351121,0.5753749,0.58445084,0.10004239,0.15301506,0.65202105,0.45499566,0.2587746,0.24323936,0.28523374,0.41341534,0.123184666,0.1673133,0.3014607,0.080512546,0.35132393,0.038081247,0.14227489,0.28513345,0.3359954,0.19239865,0.0048169885,0.12508827,0.21721327,0.12358874,-0.008342041,0.17006652,0.121142246,-0.05817398,0.004550066,0.28007403,0.08258246,0.28258547,0.46092093,0.38161564,0.5670301,0.31951305,0.3077812,-0.034126196,0.3774775,0.051005665,0.051041935,0.19165851,0.054570433,0.4398195,-0.020749992,0.15216063,0.08872003,0.07989196,0.05583355,0.14577568,0.5524039,0.47548583,0.18335283,-0.047683325,0.46198028,0.3571073,0.107797176,0.15161312,0.14478526,0.056567337,-0.058448162,0.36126482,0.059345584,-0.022771528,0.33530495,0.019224476,0.047506765,0.2688239,0.28371856,0.1715804,-0.080093466,0.10436487,0.13526496,0.019427005,-0.14105305,0.27504617,0.16606936,0.11928892,0.3116395,0.35712838,0.27771097,0.16122803,0.16065103,0.22139637,0.42664468,0.19481009,0.32233956,-0.090808295,0.2642125,0.28691718,-0.10196437,0.17067954,0.03152876,-0.08552534,0.0009625793,0.08580579,0.15545344,-0.13998014,-0.12835102,0.14730409,-0.14279607,0.0075806603,-0.123294085,0.05529667,-0.17666069,0.20640805,-0.18378259,0.24537279,-0.2768001,0.024116995,0.28243145,-0.16785225,-0.04734245,-0.10220809,0.004829487,0.09415215,-0.14068972,0.196934,0.18350036,0.029965712,0.025209215,0.101493925,-0.14561893,0.11649824,0.038333517,0.07829769,0.33961555,-0.048723888,-0.11812755,0.15715496,-0.037382483,0.0588733,-0.07654842,0.071546696,-0.080418184,0.025263216,0.1357916,-0.005664581,0.19855334,-0.2699352,0.16308439,0.13852747,0.21485719,0.49066395,0.26241753,0.4065648,0.038047314,0.42979884,0.3660047,0.16517766,0.49637043,0.82646006,0.19378938,0.0051976973,0.55619687,0.49132782,0.3744274,0.1698779,0.38393104,0.06538448,0.028606288,0.2919701,0.3606533,0.2363685,0.17449342,-0.16844326,0.3664947,0.31564432,0.26986268,-0.00825857,-0.034275178,0.14769602,0.36880875,0.43619975,-0.119234055,0.18682505,0.40364543,0.0055039097,0.4318162,0.5344036,0.3616666,0.45138562,0.4563822,0.5312354,0.637999,0.23812133,0.27206796,-0.04627735,0.8134693,0.12830815,0.10486165,0.3919163
0.03612448,-0.12308434,-1.0201883,0.41023943,0.3185901,-0.8578033,-1.0311545,-1.0452981,-0.10621822,0.11135367,0.22245891,0.109608926,0.56080455,0.0009716791,-0.5045574,0.06589536,-0.21095474,0.24676017,-1.0520647,0.15241003,-0.83074164,0.08623479,-0.2671274,-0.09883975,0.1637499,-0.012453827,0.68931633,-0.3506595,-0.49340662,-0.6412105,-1.0159855,-0.021117495,-0.51023346,0.25692388,0.08003271,-0.95911396,0.57552093,0.20909305,-0.51860636,0.15476482,0.062321413,-0.06752278,-0.10363723,0.15661131,-0.6006499,-0.29103726,-0.030190144,0.13205515,-0.7549404,0.20821206,0.08219476,0.02827833,-0.8308996,0.50122744,0.32371682,-0.8412349,-0.88585675,-1.0667374,0.3480389,0.13948742,0.08980152,0.01284297,0.6674331,0.66227204,-0.49502075,-0.12399328,-0.15887298,0.24198523,-0.52345395,0.00082098687,-0.83728844,0.080991,0.33355933,-0.21629767,0.0036473116,0.054997705,1.0624557,-0.06870784,-0.36829472,-0.12516329,-0.99909645,-0.12317229,-0.31862274,0.078620754,-0.026422605,-0.73760575,0.26031873,0.18311954,-0.5043581,0.17647427,0.13704628,0.15638961,0.35785264,-0.10796944,0.08752902,0.028714003,0.0215335,0.16974479,-0.542873,-0.046190705,-0.05037648,0.01594524,-0.92786,0.19826084,0.88381505,-0.34299937,0.8445664,-0.8878728,-0.16542226,0.23396213,-0.05241283,-0.5248728,0.0030141945,0.0636193,-0.4737773,-0.07603802,-0.33133903,0.08687665,0.8848428,-0.029255029,-0.24955374,-0.048980772,0.35953867,-0.050285924,0.09426191,0.0070499713,0.017624836,-0.41143692,-0.7214108,0.39151928,0.4027402,-0.41052088,-0.4384822,0.1347876,0.02485552,-0.34889147,0.63350403,-0.055491738,0.936474,-0.3563978,-0.09533567,-0.007846126,-0.17333704,0.19950734,-0.14477445,0.35560477,-0.13901378,-0.04262978,-0.86524403,-0.12305314,-0.21743186,-0.6721991,-0.8211917,0.56253296,0.5352426,-1.0728697,-0.98623306,-0.9806988,0.16101071,0.20549087,-0.027173014,0.26059386,0.5452338,1.1592942,-0.9382846,0.016742492,-0.36664706,0.14979419,-1.1349977,0.022206852,-0.95044714,-0.14297009,0.35537836,-0.2663592,0.2797499,-0.110811725,0.61067224,-0.33174744,-0.19429411,-0.592148,-0.80020595,-0.18454072,-0.39029354,0.047224414,-0.09535736,-0.97404873,0.3182772,0.34094718,-0.8054498,0.15474096,0.12261427,-0.0009816255,0.5509153,-0.017026978,0.01675618,-0.19988309,0.38797796,-0.04474276,-0.71639115,0.25489014
-0.011896392,-0.28329283,-0.030607976,-0.18523698,-0.23455624,-0.23642108,-0.36587957,-0.28872648,-0.4879823,-0.71935236,0.05857472,-0.3763422,-0.47550425,-0.3263576,-0.2593181,0.2919164,-0.26714304,-0.038438074,-0.15914294,0.23853609,-0.2511071,-0.134198,-0.06732226,0.20615801,-0.015670625,0.020987634,-0.057984482,-0.018603085,-0.21312413,-0.15145063,-0.10157062,-0.3211605,-0.39299953,0.30038798,0.27075922,-0.24079885,-0.6228443,-0.1880485,-0.11593497,-0.4984434,-0.14863868,-0.62977326,-0.8554549,-0.054367535,0.18802154,-0.33828056,-0.30972686,-0.010464744,-0.13539451,-0.116060466,0.15679874,-0.087477274,-0.092842065,-0.06516692,-0.13722295,-0.0721301,-0.12029586,-0.0694237,-0.20833947,-0.15189216,-0.2885285,-0.079530515,-0.18468119,-0.21855412,-0.34995148,0.05043885,-0.025829438,-0.22283818,-0.096306644,0.1778247,-0.23371339,-0.33125725,-0.026028007,0.010783363,-0.12595725,-0.31274313,-0.28768605,-0.3545445,-0.24160771,0.17993486,-0.21913615,-0.028441641,-0.052241035,-0.21644285,-0.14219639,-0.06593632,-0.34281155,-0.101356044,-0.016719986,-0.381902,-0.05650441,-0.3357988,-0.35156542,-0.24453273,-0.23301342,0.06715572,-0.12890662,-0.031487655,-0.17034195,-0.3814459,-0.21379805,-0.19438241,-0.16943622,0.47794667,-0.017806191,0.17674622,-0.112818345,0.010255919,0.18988693,-0.138099,0.013270685,0.1184694,-0.21984656,-0.24870773,0.28729686,-0.20496431,0.12626658,-0.058988757,-0.16799255,0.14129168,-0.2627744,-0.043295536,-0.12656407,0.018802356,0.123437375,-0.2871851,0.18012142,-0.11170269,-0.06782882,0.13758272,0.10013263,-0.2955762,-0.16133004,0.019576594,0.038841855,-0.0044438685,-0.20093627,-0.07600761,-0.0011680558,0.078031674,-0.18906283,0.17574288,-0.013255967,-0.08864111,-0.06484235,0.10481144,-0.16993456,-0.0070634866,-0.0068301465,-0.13475297,0.2438166,-0.041795604,-0.10750755,-0.2787197,-0.173979,-0.19355632,-0.0926907,-0.23977351,-0.39892077,-0.36528495,-0.21851553,-0.30317646,-0.3572611,-0.28901696,-0.15564668,0.28491467,-0.061155275,-0.319521,-0.1722752,0.23007478,-0.19497794,-0.41291803,0.22117525,0.26777825,-0.28529963,-0.39557517,-0.16906431,0.042613145,-0.22828628,-0.19273312,-0.18233556,-0.36918733,-0.2667652,0.20318368,0.092087515,-0.12690128,-0.4584375,-0.33832255,-0.07658168,-0.7419064,-0.04010906,-0.4963168,-0.4227637,-0.4870736,0.21569803,-0.14593518,-0.49654415,0.17056206,-0.13791458,-0.7371757
-0.052373935,0.5166637,-0.2864026,0.22026359,0.025744336,-0.014534347,-0.26544362,0.08295219,0.35993052,0.06860821,-0.18241797,-0.21054733,0.5160706,0.2223061,0.521845,0.09123085,-0.19025277,0.0040167198,0.20682168,0.036958456,0.00031636865,0.035312098,-0.0043251486,-0.2654706,0.06558437,0.01693955,0.42261317,-0.07550094,-0.062368136,-0.07550014,-0.07474815,-0.36076078,-0.11787569,0.10977306,-0.17943305,-0.16527279,0.46486947,-0.018269055,-0.1079341,0.27409858,0.36749864,-0.06716829,0.10272772,-0.35519475,-0.13963461,-0.11635651,-0.13165337,-0.2065574,-0.047137216,0.20787111,0.11550987,0.41897774,0.06683116,0.21706237,-0.19094376,0.17270814,-0.018398257,0.04000515,0.32289955,0.06120312,-0.28679112,-0.3192765,0.2106323,0.08748014,0.1227762,-0.22946306,0.07322849,-0.09136098,-0.06473682,-0.17187913,0.1034363,-0.06384714,-0.004085136,-0.29844308,0.17354827,-0.06493428,-6.515968e-05,-0.1491486,-0.10444415,-0.30243468,-0.016479792,-0.18770905,-0.3255806,-0.0060877223,-0.41805732,-0.37144953,0.16445798,0.017732821,-0.08567367,-0.0120427795,0.2963241,0.15834938,0.25112757,-0.17674227,0.41626114,-0.08004142,0.13862216,-0.14650641,-0.13704854,0.27747142,0.2177461,0.28588793,-0.15977019,-0.2703712,0.13579358,-0.15449326,-0.11496308,-0.08395789,-0.2880723,0.42818746,-0.22178216,-0.32131448,0.4321945,-0.17048521,-0.4938297,0.25072762,-0.21560197,0.044941522,0.15720084,-0.3070441,0.11604132,-0.27426448,-0.1022794,-0.3955817,0.30802333,-0.019892816,-0.28814298,-0.062440254,-0.11577463,-0.11337716,0.11018262,0.11388759,-0.3929363,-0.84101135,0.28170404,-0.07881564,0.2960491,0.05983965,-0.20722513,-0.27927783,0.14674436,-0.012125091,-0.19954422,-0.3907038,-0.09466361,0.09001269,-0.08582868,0.19425346,0.15485564,-0.074008584,0.19673039,0.6535624,0.011716419,0.27795902,-0.0841605,0.15599288,0.011905729,0.37397677,0.59401417,0.010643375,-0.29240426,-0.40284586,-0.04892189,0.5846914,0.2685563,-0.16723877,0.23272865,0.05065051,-0.007586135,-0.21943964,0.16356577,-0.15927137,0.0440934,-0.33075315,0.19469354,0.25212422,0.19449727,-0.21670604,-0.07633433,-0.12375111,-0.12779664,-0.3194445,-0.09503484,-0.029406078,-0.3475033,-0.07275947,0.18082847,0.14017114,0.16005017,0.16441314,0.80056494,0.49024534,0.20205818,-0.15450385,0.21960397,-0.21842916,0.21265419,-0.23221402,-0.13661133,0.50925034
-0.08790107,0.9510576,0.02778961,0.41170812,0.28929824,-0.023211388,0.24261324,-0.36383095,0.20357226,0.13263294,0.17048375,0.12186688,0.13041607,-0.18163492,0.41423404,0.0045985095,0.099042654,-0.12640679,0.029541228,0.08869802,0.09384975,0.26555756,0.023981297,-0.07448383,-0.20766167,0.16973726,-0.04492422,0.17443258,0.008759048,0.5522946,0.19618326,0.21505584,0.15830919,0.26275676,0.20187232,0.070692375,0.4295007,-0.16244446,0.43035302,-0.28785577,1.0185882,0.09914249,0.24746305,0.036570296,0.08212088,0.28891134,-0.034589224,0.37331015,0.025756378,0.016820341,0.044128902,0.659935,0.04614839,0.24405107,0.1659082,-0.0017937946,0.29173777,0.07641471,0.13471767,-0.092017464,-0.13872278,-0.09423872,0.22895002,0.0022155254,0.39737144,-0.091363475,-0.090437695,0.044957507,-0.0039120344,0.0108534815,-0.15279387,-0.1223811,-0.2346843,-0.24227841,0.10280659,-0.109320365,-0.15142487,0.013813902,0.08141782,0.10546269,0.14611644,-0.02073992,-0.2416696,-0.009064521,-0.6158662,0.10817604,0.0019215938,-0.088340506,0.18352158,-0.14472651,0.42027202,0.06498039,0.073881626,0.09305735,-0.056062683,0.3804001,-0.10149288,0.09155188,0.110015996,-0.121362805,0.17680696,0.21921055,-0.1988145,-0.085949585,0.3568047,-0.1816816,0.2668491,-0.082774796,0.15939797,0.4235593,-0.38241756,-0.20276928,-0.029803038,-0.007708038,-0.046546333,0.4437962,-0.051738042,-0.14440875,0.059051547,0.17819366,-0.069962114,-0.18139932,0.02288298,-0.1689729,-0.11326767,-0.21756297,0.05345525,-0.24167687,-0.150574,0.36862093,0.14175741,-0.039482716,-0.04017816,0.13151209,0.62161607,-0.32688174,0.09564595,-0.2976352,0.16931842,-0.042784985,0.039940733,-0.033093754,-0.031117747,0.04820025,-0.04721698,0.09529859,-0.015132762,0.15200071,0.08097974,-0.0687822,0.17712039,0.86154944,0.39261234,0.42395315,0.34878933,0.1613034,0.4815404,0.032239765,0.12294533,0.07509388,0.0700747,-0.02876263,0.019387579,-0.2979318,0.4133711,0.26786193,0.14708777,0.117136754,0.25799674,-0.6909149,0.17072357,0.33929136,-0.19285229,0.44593865,0.074188165,0.33807322,-0.11888642,0.3252254,-0.16200928,0.34761494,0.39174402,-0.16127901,-0.22969109,0.42942703,0.33959293,-0.1841647,0.23375198,0.076547354,0.5205267,0.07435083,0.7019314,0.28457955,0.41246763,0.48848563,0.63190234,0.06655786,0.11939965,0.5144886,0.34235948,0.17167205
0.06426217,0.06653229,0.14185397,0.079815134,-0.0628986,0.03627814,0.117299125,-0.13564354,-0.058248054,0.08403716,0.023470305,0.020440292,-0.005829482,0.059333082,0.04749813,-0.117737345,0.06665895,0.1278251,-0.008102398,0.09894474,0.14656752,-0.018018821,-0.011362047,0.06316561,-0.1211524,0.009169397,0.085519455,-0.081586845,-0.048668902,0.031638928,0.1592855,0.120296314,0.0007305637,0.052850485,0.083489925,-0.13279983,0.07747839,-0.06281454,0.0054399506,-0.046502825,0.04116496,-0.06837387,-0.13200104,0.0850583,-0.0011730348,0.020867668,0.039306894,-0.08303933,0.0037641972,-0.02685987,-0.10327778,0.10425125,-0.07981371,0.118822984,0.11688214,-0.049645856,-0.043351747,0.012285512,-0.15910284,3.2171785e-05,-0.14453845,-0.08563938,-0.09860503,-0.1456958,-0.05191273,0.08741387,-0.05533242,0.070382014,0.04466688,-0.08941988,0.08955885,0.0910551,0.055508055,-0.075078934,-0.014435796,-0.11328348,0.10315915,-0.03741234,-0.120958775,0.010122012,-0.08735626,0.05830757,0.100232415,-0.05974185,0.00196601,0.003916899,0.0473464,-0.083009936,-0.0096213855,-0.10760785,-0.14387931,-0.08253641,-0.06482062,0.03815555,0.08836929,-0.097876236,-0.047278848,-0.06546858,-0.059235647,0.07710797,0.050005894,0.103597894,0.049522858,0.09914201,-0.13620412,0.05674021,0.09327491,-0.08154371,-0.082713656,0.115502015,0.08769696,0.02717111,0.15101025,-0.04203714,-0.03670384,-0.13532023,-0.09020178,0.029172469,0.0038072334,-0.13872208,-0.08993321,0.13384876,-0.11107486,-0.009562379,0.1297236,0.057357922,0.032494474,-0.027449809,-0.14872266,-0.015276534,-0.114981875,0.1096193,0.08679617,-0.11015092,-0.041592404,-0.121850744,0.12336691,-0.015381889,-0.029644283,0.040387623,0.039164204,-0.05902378,0.0088501405,-0.102598175,-0.008922249,-0.100654684,-0.14524506,-0.08612819,-0.12056206,0.0011797084,0.101447545,-0.0038699424,-0.06799595,-0.12309244,0.07895897,0.11644489,-0.08327599,0.062979996,-0.084647916,-0.11349105,0.09204637,-0.09105384,0.0747723,-0.07718315,0.016220955,0.013787341,-0.049046986,0.14204846,-0.133119,0.03003894,0.00079704606,0.13265938,-0.08316441,-0.13638188,0.031596214,0.045055814,-0.0052805888,-0.09425213,0.09945129,-0.012319744,-0.10419141,-0.004512202,0.10315491,0.07946234,-0.055501,0.12744896,0.09579706,-0.05188993,-0.078369886,0.14680669,-0.12877867,-0.111789346,-0.17026076,-0.07620636,-0.042257115,0.12251979,-0.03576081,-0.092488065,0.06807572,-0.067037135
-0.09376159,-0.012941549,0.0004992128,0.20570247,0.3283335,-0.050601438,0.04834142,-0.114698984,-0.5331675,-0.22916597,-0.07144715,0.023451924,-0.053177044,-0.1577564,0.340376,-0.07266627,-0.22537263,-0.021445015,0.10009297,-0.11275641,-0.13682015,0.07925553,-0.08623333,0.14520387,-0.29825523,0.13745095,0.1209415,-0.18557048,-0.023982922,0.12705551,0.030722685,-0.00086467504,0.09244536,-0.06432628,0.3071648,-0.018632753,0.10658968,-0.11394294,0.06173734,0.15068254,-0.11035031,-0.07085936,-0.36904824,-0.17275688,-0.117024496,-0.12776597,-0.39914012,0.038173508,0.014589312,-0.16464412,-0.0255995,0.07634485,0.2501587,0.2403002,0.17258866,-0.07809578,0.024962908,-0.14519735,-0.34052587,-0.33784395,0.023001922,0.007967798,0.07281184,0.046349548,0.15901555,-0.12349929,-0.21417749,-0.12111449,-0.099013016,-0.13302825,-0.17780174,0.061356615,-0.12198333,-0.3401489,-0.039811097,-0.37777075,-0.01251244,0.054726675,-0.17469028,-0.2351409,-0.0010538612,-0.17930533,-0.05561858,-0.2876199,-0.061087545,-0.19029453,-0.11185092,-0.08156736,-0.20526832,-0.06140936,-0.3162217,-0.4068309,-0.2257162,-0.13467523,-0.36328545,-0.0667802,-0.38017464,0.02386122,-0.097769454,-0.18504098,-0.16238815,-0.088708535,-0.23622999,0.1757788,0.31110424,0.14626849,-0.0013459217,0.059829254,0.35085654,0.018005531,0.008579111,0.07283061,0.24825664,-0.0033731814,0.13751478,-0.12126986,0.25963068,-0.065861486,-0.1353175,0.23495115,0.15350507,-0.13969971,0.046450276,-0.036344763,0.064021066,-0.069414735,-0.12570533,-0.19106032,-0.051373918,-0.068285085,0.13598886,-0.15385011,0.07037385,0.07905601,-0.17380814,-0.043226283,0.1859356,0.11488,0.22746854,-0.07504199,-0.342336,0.09217014,-0.034947235,-0.029818501,0.24286379,0.22427326,-0.037636224,0.083747394,0.0293667,-0.39739552,-0.21332678,0.11366252,0.21679294,0.09993472,0.20708525,0.20532332,0.09256919,0.007926615,-0.15443902,-0.1875093,0.091484606,0.15601932,0.17497046,0.24813993,0.24004261,-0.084143326,-0.013897896,0.10602041,0.1437965,0.019847857,0.15009296,0.2294819,0.23295453,-0.039815135,0.0890814,0.13784394,0.4606251,-0.14027056,0.09038795,0.21329547,0.33675832,-0.1553092,0.06630705,0.13147514,-0.11473838,0.32988432,0.04695644,-0.13814558,-0.0036751397,0.037287023,-0.0027179283,-0.41650006,-0.27415952,-0.23740074,0.01929308,-0.071278915,-0.30441433,0.23387717,0.3515275,-0.31486186
-0.010535791,-0.004601579,-0.097308755,-0.18236266,-0.116436034,-0.0798277,0.0014949337,-0.07146861,0.09267497,-0.12158366,0.15613405,-0.1104882,0.019039882,0.058629554,-0.063978545,0.10752281,-0.08731814,0.066323325,-0.14633586,-0.10105088,0.088129625,0.0036999998,-0.014545368,-0.14303336,-0.050280854,0.2016075,-0.025053645,0.11614463,0.07335687,0.029905763,0.16892813,-0.18792264,0.0860624,0.16171177,-0.14929475,0.18548921,-0.12536567,-0.040809184,0.17561886,0.013653431,-0.05662472,-0.06874816,-0.022591934,-0.008989888,-0.078364246,-0.09961438,-0.14268652,-0.111725844,-0.00031543727,0.08655274,-0.11744212,0.16628964,-0.18752962,-0.08610822,-0.2029363,-0.08002091,0.02898345,-0.12925152,0.010859462,-0.11213437,0.015530083,-0.010668867,0.09271034,-0.15175852,0.11787448,0.16729799,-0.18554787,-0.113976106,-0.04460197,-0.022426043,-0.08368624,-0.057072133,-0.03491452,0.047808092,-0.06944693,-0.14463824,-0.11531999,-0.0197475,0.022436675,-0.04490274,0.063477635,-0.07021809,0.017402561,-0.01051263,-0.015586625,0.005608744,0.072419785,-0.09961626,0.10368742,-0.17301035,0.0017548035,0.01914887,-0.09356552,0.04052024,-0.11909091,0.053482946,-0.035767674,0.004811414,-0.14170964,-0.13302317,0.064511195,-0.11929948,0.19273388,-0.17619208,0.07692471,-0.11352026,0.024268549,-0.1432906,0.117798425,0.114839815,-0.11053567,-0.03893165,0.062232926,-0.07565918,-0.119290866,0.10502081,-0.035113644,-0.11119831,-0.10904409,0.10203056,0.1983855,-0.15810804,-0.121713094,-0.11918582,0.07707586,-0.054476485,0.1231546,0.14872962,0.015809111,-0.04371753,-0.07873892,0.08382261,0.1099897,0.16142067,0.1334158,0.08603328,-0.04033125,0.04857718,-0.16087294,-0.02719986,-0.07831153,-0.20508018,-0.10412764,-0.11866107,0.004953098,0.097693086,-0.015504081,-0.17610638,0.09214381,0.056901958,0.056892056,0.2547176,-0.21625346,0.026868153,-0.14815974,-0.06633764,-0.07854627,-0.13239728,0.06244872,-0.09033373,0.075316876,0.04755075,0.06405191,-0.21709953,0.0752735,0.1111994,-0.033945095,-0.10580173,0.020194622,0.06844425,-0.065435186,0.07087571,-0.025915248,0.037649997,-0.017032988,0.08348313,-0.12659691,-0.1205799,-0.040971853,0.12013921,-0.061658457,-0.14434622,0.0065489574,0.011685044,0.106163934,0.15813282,-0.025193492,-0.114149764,0.010253908,0.0021213668,0.07696203,0.038701452,-0.10228433,0.08300448,-0.18885422,-0.12801455,-0.028462166,-0.06198456,0.073277675,-0.048619285
0.10339405,-0.0552859,-0.03709202,0.019804645,-0.07081955,-0.0147974305,0.04840824,0.14979248,0.18005082,-0.029576408,-0.102010176,-0.022378443,0.022663338,-0.07066929,-0.043356977,-0.06517918,-0.022100884,0.06380079,-0.12786266,0.005623801,-0.062308725,0.08516257,-0.088967524,-0.09209773,-0.088655174,0.019588152,0.07698525,-0.0755689,0.08799797,0.1402215,-0.240957,0.024718186,-0.024992764,0.06645985,0.16334608,0.062300812,0.020680802,0.14500843,0.07230519,-0.110719986,-0.06358742,-0.0122369975,-0.021926427,0.15498918,0.1331938,-0.12638919,0.0765156,-0.106232546,0.102005094,-0.08225431,0.19486181,0.053427424,0.0034030627,-0.122258455,0.044922095,0.11401588,0.08209041,-0.0070313434,0.0081329495,-0.026360486,-0.12260857,-0.07230819,-0.19632113,0.0012334412,0.021823736,-0.014595492,0.11910134,-0.04504027,0.027769564,0.20444398,-0.08178854,-0.012644373,0.112564944,0.15792754,0.067315824,-0.009939777,-0.020247929,0.032828134,0.0065603447,-0.041000493,-0.10856749,-0.07894997,0.0033280996,-0.042288493,0.048035987,-0.028564785,0.101089045,-0.006312509,0.22994879,0.08643519,-0.069102645,0.0053704446,-0.19470438,0.0649268,-0.026147915,0.10158636,0.011871876,-0.0026800612,-0.010930731,0.1396697,0.12162163,0.012833824,0.17728461,-0.23199451,-0.03909918,0.1315679,0.05400775,-0.011814221,-0.115309715,-0.13838501,0.14159928,0.003410803,-0.1313198,0.07292234,0.015538922,0.056854174,-0.07200488,-0.0193634,0.014822005,0.18417984,-0.023156947,-0.04564758,-0.0033039039,0.019174261,-0.111508414,-0.13339075,-0.11549389,0.060149856,-0.0766266,0.11857072,-0.0364002,-0.0209234,-0.08169123,-0.0113713415,-0.14885534,0.014456705,-0.033736516,0.07178483,-0.016199093,-0.12515797,-0.090574905,-0.0246509,-0.12777796,-0.028891534,-0.11383047,-0.06781168,-0.089487635,0.11719241,0.20026562,0.17207402,0.0022981104,-0.11579806,-0.097087935,0.085204385,0.058401186,-0.027527096,-0.08925665,0.15069687,-0.045366164,-0.022641407,0.12591687,0.1575694,-0.007945282,-0.1012618,0.00553514,0.1153279,0.009883282,0.019262036,0.11887249,-0.0598717,-0.10527964,0.14656097,-0.04358668,0.07554352,-0.078756385,0.13977605,-0.040051956,-0.061865762,0.107816435,-0.045228146,0.1367636,0.07430649,0.1400537,0.0716764,0.09728858,-0.14935364,-0.12033555,0.00029866258,0.13274144,0.12537265,-0.15491033,0.10174206,-0.026725935,0.10341566,0.0655312,-0.035227906,-0.026856618,0.115855336,-0.1270612,0.060143802
0.21784124,0.079022914,0.14500542,0.16011626,0.39682913,-0.38191918,0.16783392,-0.058838584,-0.16963471,-0.27822307,0.096831545,0.0050273365,0.27602294,-0.039230615,0.1684236,-0.049203906,0.18102999,-0.09738937,0.20233491,-0.053742617,0.08494075,0.080112755,0.30539152,0.077482335,-0.3007318,-0.014293354,0.026934322,-0.26434934,0.23015273,-0.08641213,-0.16506264,-0.21563987,0.07370202,-0.026714448,0.02672735,-0.0064238315,-0.04557323,-0.017985348,-0.05038279,-0.049344383,-0.106327474,0.13864562,-0.27521086,0.07630206,-0.06586187,-0.036718752,-0.3725049,0.13532957,0.30365488,-0.11032305,0.016171532,0.06798023,0.1173077,0.09777026,0.0690235,-0.09213996,0.17347759,-0.090364225,-0.26865664,-0.12512466,0.1203114,-0.22936727,0.23563473,0.16638322,0.042750496,0.21874404,-0.1316306,0.14815973,0.10092544,-0.0995027,0.14484985,0.09482995,0.20978075,-0.13382684,-0.20494857,-0.17958947,-0.030786494,-0.00029833658,0.21734023,0.05714697,0.060474467,-0.09382776,-0.10072364,-0.16660929,0.070696786,0.13209596,-0.08096526,-0.12369495,0.08496391,-0.17280464,-0.002580091,-0.094759494,-0.29571944,-0.22977774,-0.34031776,0.13867158,-0.38952762,-0.21233082,0.27133712,-0.16615948,-0.28946176,-0.1894782,-0.30859455,0.37303218,-0.07061487,-0.010981017,-0.00845736,-0.28604642,0.121904284,0.08406642,-0.0062028086,-0.073875815,0.27290487,-0.026268093,0.02170334,0.0027696616,0.019248568,-0.16220534,-0.08036804,0.13672239,-0.1058244,0.11355753,-0.027804313,-0.11848737,-0.015468364,-0.2630333,-0.043631468,-0.13839035,-0.11485674,0.014340849,0.022759203,0.07265701,0.06527762,-0.20695505,0.024342477,-0.16122128,-0.062704585,-0.11334292,0.111991584,0.057623737,-0.2602692,-0.057565436,-0.04307994,-0.21810983,0.35755646,-0.029255487,0.00346805,-0.06484748,-0.12595147,-0.09496046,-0.26503715,-0.03710203,0.29335898,0.37079537,0.2352175,-0.07642857,0.23799983,0.04018769,0.015314859,-0.21587446,0.118147016,0.17251849,0.39401272,0.005699583,0.13750269,-0.18708195,0.13825886,-0.09742801,0.12573755,-5.641332e-05,0.060094025,-0.08031538,0.124767534,-0.035110034,-0.30258533,-0.14702894,0.29578125,0.11902313,-0.07521759,0.27255943,0.0432996,-0.11342703,-0.09560511,0.041599073,-0.074321166,-0.019729,0.07342926,-0.09075574,0.19177362,-0.026301075,-0.03531892,-0.2698365,-0.1803882,0.13768542,-0.24485153,0.1951356,-0.32226855,0.20156273,0.31960738,-0.36221927
-0.06479104,0.2501684,0.10067868,0.16397214,-0.06737504,-0.08604184,0.21436384,-0.20535645,0.32497352,0.46103796,0.046371672,0.2670769,-0.0033202241,0.0071237744,0.29133704,-0.0314587,0.22837049,-0.085145235,0.07627409,0.12695761,-0.05263694,0.05062557,-0.020729795,-0.1750964,0.42654988,0.2729638,0.119773604,-0.031986926,0.25422466,0.008931562,0.17331639,0.27911615,0.107480325,0.13694936,0.0631303,0.116243176,0.40146765,-0.18010318,0.07632907,0.010968584,0.2558866,0.10403089,0.43642926,-0.038725495,0.20630962,0.049619816,0.34088573,0.08697864,-0.050344747,0.43888092,-0.008560116,0.047984958,-0.16276532,0.11706922,-0.013969926,0.05751104,0.317604,-0.14492753,0.106274806,0.09047336,0.02138457,-0.023045627,0.2513906,-0.14884262,0.21089539,-0.082175516,0.11072453,-0.19704516,0.13056698,0.05675737,-0.22706795,-0.13662654,-0.14688803,-0.40453807,0.38425153,-0.25856337,-0.18096188,-0.086681694,-0.0059865373,0.08685476,-0.047172654,0.10249252,-0.069914244,-0.09694767,-0.4084113,0.0911571,0.26573578,-0.15604362,-0.121476635,0.22988668,-0.03228185,-0.046022095,0.0056574983,0.018717676,0.033243302,0.3181608,0.21879521,0.09231245,-0.030637557,0.28477946,0.17146498,0.42285666,-0.2005866,-0.012947788,0.16763566,-0.25678483,0.19293113,-0.16775225,0.14477266,0.16354366,-0.14198719,-0.18070713,0.03727611,0.02912296,-0.38070962,0.34039325,0.30476496,-0.14802891,-0.09440909,0.2881662,-0.23186636,0.09377417,0.21526302,-0.31608593,-0.026619237,-0.068536945,0.3027828,0.002388439,-0.089390926,-0.116469,0.015953753,-0.17503718,-0.15597735,-0.15990074,0.31094307,0.01697114,0.346337,-0.11251821,0.15729356,0.11962282,0.29349828,0.21576884,-0.22373785,-0.10164372,-0.11433765,0.25752378,-0.08376304,0.2730096,-0.042355806,-0.15742555,0.03795098,0.32352513,-0.26615375,0.2633293,0.14556739,0.05619124,-0.05511179,-0.29125443,0.1661425,0.4887519,-0.16920173,0.09452651,0.034220323,-0.06576396,0.056814414,0.006242328,0.2197648,-0.169971,-0.016511234,-0.29170945,-0.10398312,0.064053275,-0.0834427,0.00011753638,0.062167842,-0.05487802,0.036135916,-0.039605867,-0.06881536,0.042466313,0.061254017,-0.14336805,0.24668469,-0.09099929,0.2675206,-0.091959395,0.37138885,0.1249614,0.1409221,0.23105331,0.07872864,0.11606624,0.27932885,-0.14974165,0.059000324,-0.09852745,0.17225978,0.12703846,0.14895345,0.09217977
-0.21908697,0.2578992,-0.008209392,0.25675192,0.58988947,0.29472497,0.54326963,0.2953918,0.5335352,0.65675884,0.1087285,0.56129223,0.49012652,0.35032436,0.3529795,-0.3388722,0.50927657,-0.04843986,0.18426985,-0.2840931,0.49881586,-0.0556389,0.0020367773,-0.25085765,-0.12955052,0.003927102,0.41188118,-0.050720267,0.50937027,0.44423056,0.18572716,0.26355246,0.5201572,-0.2309745,-0.2263515,0.5356964,0.5334721,0.078630686,0.42940962,0.6349341,0.09034648,0.10370088,1.0269892,-0.09534494,-0.06738758,0.2999668,0.17309988,0.29628953,0.28237042,-0.026657645,-0.3942419,0.0011072592,0.09555563,-0.027761541,0.23180734,0.20555568,0.13157842,0.1161093,0.24767147,0.19171023,0.10699447,0.43139562,0.20591953,0.19462729,0.5183159,-0.09231191,0.114142075,0.25326264,-0.11029567,-0.12124921,0.19910641,0.26066673,-0.14653705,-0.12547399,-0.13974808,0.110304415,0.42450297,0.15571971,0.04180658,0.17051685,0.011895062,0.33087865,0.2758157,-0.095621645,-0.07207709,0.353077,0.40339223,0.06759243,0.116633065,0.21971974,-0.060858674,0.20216672,0.17859662,0.045333225,-0.09546336,0.19669046,0.2790967,0.25035045,0.30241716,0.21687269,0.010396009,0.0012013867,-0.03940147,0.124172345,-0.0030904787,0.074000075,-0.019671477,0.07087118,-0.05942816,0.18953495,0.15515448,0.14607057,0.14952303,0.33159694,-0.25880364,-0.09555661,-0.07921373,-0.22138046,-0.2564192,-0.26380345,-0.008191379,0.052426253,0.013539915,-0.2596644,-0.09179615,-0.039394252,0.15056251,-0.13894008,0.06812755,-0.11691562,0.22148538,0.041315295,0.02456717,-0.14473437,0.047235385,0.013209007,0.0776253,-0.024192585,-0.058751363,0.04094504,-0.02681972,0.30779475,0.08748752,-0.14099206,0.13820918,-0.16554953,0.16894485,0.088596046,-0.16665742,-0.043967247,-0.2598102,0.041683137,0.0023654967,0.2374343,0.4471002,0.2577753,0.4159186,0.03203444,0.37690026,0.46413732,0.28240046,0.32065758,0.28950483,0.3421375,0.36700988,-0.3638106,0.06952464,0.27629486,0.34734753,-0.23990768,0.2505799,0.42330983,-0.3136549,-0.00080262823,0.4313797,0.35916352,0.4221451,0.0729706,0.2766664,0.4034712,0.13898756,0.24300401,0.4848756,-0.19137374,-0.21447708,0.60824436,0.681507,0.37240097,0.36803985,0.60836786,0.010345468,-0.028866531,0.3231201,0.33041212,-0.13589856,0.14478667,0.3711656,0.13194013,0.37697932,0.5493561
-0.14584614,0.04794524,-0.10920006,-0.2598142,-0.11396361,-0.004169165,-0.038852982,0.02955676,-0.2074368,-0.044301864,-0.2502989,-0.18547346,0.25717634,-0.13380957,0.034108903,-0.14065507,-0.25546142,-0.25124913,-0.2089885,0.051259674,-0.27699777,-0.31316996,-0.4439642,-0.39123687,0.095714934,-0.28259066,-0.030274378,-0.1299582,-0.19206406,-0.36373565,-0.17578648,-0.058535974,-0.10124538,-0.013629429,-0.08648558,-0.15894294,-0.010329036,-0.16955179,-0.026163273,-0.12658814,-0.32210293,-0.087578215,-0.29114607,0.08711696,-0.34442377,-0.048452124,-0.15017547,-0.19785753,-0.24370024,0.0057987166,-0.17545786,0.006088725,0.10984675,-0.002295256,-0.06765976,0.26900968,-0.14515513,0.069750205,-0.21941747,0.0531716,-0.2505084,-0.2995793,0.16480352,0.2768189,0.14677487,-0.13618168,-0.15404496,0.08217611,0.26737356,0.041600052,0.011273572,0.06296001,-0.15293963,0.002436245,0.12093303,-0.2237825,-0.081979744,-0.088381395,-0.091827914,-0.25295714,0.061595064,-0.2045204,-0.09566222,-0.084385484,0.019169379,-0.22389178,-0.14184615,0.064408936,-0.2249228,-0.046941034,-0.11135583,-0.121373974,0.115347445,0.1105014,-0.52982867,-0.030860089,0.19048089,-0.17874935,-0.1669334,0.14453715,0.10091947,-0.07238868,0.16634053,-0.19652174,0.017147325,-0.0022128928,-0.08062538,0.0933981,-0.13466163,-0.02929382,0.13973127,0.028056305,0.2524962,-0.13894756,0.033008557,-0.096337624,-0.075173885,0.1750493,-0.12882215,0.32155687,0.32079825,-0.19537713,-0.20438915,0.13624555,0.16004425,0.055581562,-0.1844361,0.23174721,0.03730325,-0.24728,-0.35837176,0.03120223,0.06411898,0.17849317,-0.34869796,0.055822015,-0.11167261,-0.18717545,-0.09892432,-0.09509002,0.18079887,-0.051448703,-0.19727625,0.08402178,0.06991512,-0.10421921,-0.12724632,-0.13299327,0.18556644,0.13336794,-0.23427856,0.20846456,-0.07099532,-0.049197003,-0.016162995,-0.022305498,-0.30726734,0.13418952,-0.0851212,-0.12015063,-0.18834393,-0.031215683,0.07217205,-0.124941416,0.029550873,-0.036140896,-0.16689181,0.030342266,-0.06349251,0.009969588,0.020969275,-0.0120432675,-0.0507939,-0.19431019,0.10793199,-0.3422117,0.11199673,0.101685025,-0.22678721,-0.34493488,-0.35976008,-0.28408405,-0.020776888,0.091815546,0.06479474,-0.22501527,-0.17020626,-0.055585068,-0.08806544,-0.03529988,0.09821593,-0.05522117,-0.11398999,0.21507059,-0.25115675,-0.12035201,-0.012656164,-0.1415564,-0.18263072,-0.107903026
0.06929279,-0.28889975,0.08291946,-0.10850531,-0.04736427,0.23550123,-0.043260247,0.08577192,-0.50399363,-0.5386315,0.1693057,-0.039669685,-0.5241749,-0.5100007,0.1408415,-0.05311582,0.058774237,0.26127073,-0.2646991,-0.031096216,0.4053256,0.19505075,0.16411774,0.06200759,-0.26643223,0.19683325,-0.23386553,0.012257113,0.19149294,0.062006388,0.007958524,-0.11724506,0.28990203,0.051730372,-0.19199704,-0.060555704,0.061735027,-0.32896784,0.22870015,0.036920693,-0.4043378,-0.31568137,-0.31805736,-0.2860616,-0.044103112,0.05559118,-0.36677647,-0.10181919,0.2977903,0.13508646,0.41088706,-0.20048212,0.17118923,0.079519644,0.06798728,0.032089803,-0.038212217,0.02361066,-0.12609906,-0.4811744,0.028477103,-0.038992357,-0.3689043,-0.48917595,0.14751151,-0.05545552,0.21345335,0.11649531,-0.17863114,-0.17154883,-0.018059736,0.15140198,0.18137404,-0.071739614,-0.012263321,0.14320171,0.019388098,0.048079118,0.017687624,0.11672788,-0.271578,0.005046975,0.17650801,0.02314262,-0.23056637,0.11772703,0.04911077,-0.090410754,0.402477,0.05385612,0.14295954,0.06026171,-0.3039597,-0.36471796,0.23555139,0.16881323,-0.041044034,0.09256963,0.06506303,0.3997289,0.2993198,0.18608214,0.13703321,0.055146884,-0.264289,0.013716074,-0.1334898,-0.0048802295,-0.07812387,0.15276843,0.053728674,-0.08510234,0.18968336,-0.17032647,0.0333878,0.09703528,0.30494678,-0.018139403,-0.18174002,-0.026884647,-0.10691306,0.11296642,-0.28099304,-0.2428331,0.24861796,-0.043497663,0.12939306,-0.16193794,-0.009375074,-0.02121286,0.35139215,0.16068773,-0.1683738,-0.02476814,0.1522753,0.015491664,-0.11261737,-0.26976043,0.13953061,-0.028449696,0.008797588,-0.32689047,-0.2528805,-0.029118758,-0.31572855,-0.19978748,-0.3884517,0.15544076,-0.12409099,0.13307743,-0.08109883,-0.35590994,-0.13631193,-0.37911564,-0.046406012,0.071321964,0.10510015,-0.020006642,-0.3211124,-0.44048038,-0.3613241,0.23436047,-0.35185802,-0.29319036,0.26985198,-0.29209095,0.1601105,0.3303162,-0.16745463,-0.1788018,0.13878685,0.1904092,0.3550306,-0.03509633,-0.14104524,0.18094608,-0.266621,0.032530088,0.24480043,-0.016576726,-0.10722258,0.23593843,0.15272224,-0.0097793145,-0.17889194,-0.011599656,-0.009410893,-0.2458706,0.18509433,-0.095621206,-0.11406743,-0.45748737,-0.22084542,-0.43345568,-0.16502431,0.2255141,-0.23221733,0.11358742,0.08473958,-0.037612636
-0.051446665,0.2300263,-0.19342054,-0.04721218,0.12734939,-0.23414095,-0.1330793,-0.20904148,0.019785449,-0.08030704,-0.15549688,-0.11593287,0.12764709,-0.14141056,-0.037962057,0.21940261,0.023844287,-0.030236831,-0.05182797,-0.11612995,0.05399352,-0.056117915,0.13460357,-0.21710977,-0.10439621,-0.18902232,-0.020060927,-0.16008335,0.04966145,-0.11662023,-0.12290187,-0.015279162,-0.18860875,-0.21026632,-0.0138844885,-0.029140452,-0.10683473,0.004581954,0.09513996,-0.0395887,0.1862034,-0.10468785,0.07433409,-0.103603944,-0.14861381,-0.13029754,0.13727021,0.06011274,0.12901907,-0.035005942,-0.16101082,0.075235724,0.09353904,0.18129371,0.1079189,-0.10738454,0.0052564824,-0.24965642,0.017744869,-0.23521596,0.05912616,-0.13693714,0.34117308,0.14137083,-0.0042519476,-0.03098263,-0.06252752,-0.13236126,0.14865845,-0.032474052,-0.20731612,0.0032591156,-0.10546097,-0.34176585,0.09714366,-0.18604091,0.026481984,-0.109860316,0.048437532,-0.06737098,-0.11888243,-0.23136133,-0.33487046,-0.10905056,-0.020563388,-0.05020126,-0.14322755,0.052794646,-0.055377133,0.06814016,-0.0024556813,0.06410988,-0.1722333,-0.26376215,-0.19451723,-0.044746675,-0.086675026,-0.040169954,0.25058797,0.077110834,-0.25950524,-0.1748139,-0.14633976,0.0024264895,0.15034167,0.10924218,-0.005191964,-0.09574379,0.20133121,-0.024442984,-0.18126626,-0.2583229,0.015047504,0.19505091,-0.020505704,0.058709577,0.2656082,-0.024790518,0.19081764,-0.03686016,0.13343586,0.0064229756,-0.004791593,0.03043104,0.08220256,-0.17206779,-0.0950073,-0.24216476,-0.20111282,0.017663635,0.07309422,-0.015228538,-0.19749533,0.012272811,-0.007869537,-0.23594761,0.31048414,0.08532465,0.23256728,0.06766159,-0.20114191,-0.072673045,0.15039024,-0.1485342,0.4262451,-0.18297525,-0.043505013,0.064877674,-0.10668976,-0.04208146,-0.08789784,0.08571485,0.13549213,0.15739489,-0.10135872,0.021793384,-0.11537835,-0.10767551,0.07992564,-0.21282314,0.25535834,-0.1523439,0.3171216,0.1808101,-0.027964279,-0.12226371,-0.26553467,-0.12757678,0.046420295,0.34340268,-0.3053834,-0.084880315,-0.13823394,-0.0640956,-0.119284436,-0.2025795,0.10715811,-0.110733114,0.26818705,-0.08697693,0.05472873,-0.16686028,-0.51429653,0.09366718,-0.09354583,0.118551195,0.02051742,-0.05575861,-0.14432818,-0.16191654,0.1833092,-0.03293256,0.13460214,-0.28623185,-0.26929078,-0.07753696,-0.07127405,-0.12200375,0.09915268,-0.07133952
0.012835388,-0.06646433,0.23003703,-0.010724756,-0.14076333,-0.068979114,0.20271115,0.031344738,-0.28098822,-0.14217654,0.12411809,0.13418694,-0.34513322,-0.15259026,-0.026323456,0.053382628,-0.23139207,-0.18901548,0.08134508,-0.2894662,-0.20158473,-0.12286716,-0.10874433,0.04879824,-0.052150615,0.17097618,-0.25894567,0.18460992,0.051295586,-0.1414079,0.15926994,-0.011021181,-0.020733632,-0.019170115,-0.008830242,-0.10554561,-0.09485135,0.042376723,0.2526224,-0.31197038,-0.22492895,-0.1275961,-0.30834624,-0.2292165,0.22734332,0.22780606,-0.17575802,-0.1795464,0.20543325,-0.018987138,-0.21673454,0.11390127,-0.00877273,-0.07996767,-0.03953183,-0.19446404,-0.031464018,-0.12673913,-0.17170043,-0.104661725,0.019119939,0.038731847,-0.15413706,-0.025957534,0.030314403,0.068560995,-0.35097083,0.13309062,-0.11710613,-0.07860913,-0.060879577,0.0084798485,-0.011582925,0.16785803,0.036327217,-0.16399084,0.12744783,0.12123337,-0.21075213,0.08998778,0.16487749,-0.0521388,-0.06466555,-0.16070367,-0.19448762,0.18534943,-0.2786713,-0.06334233,0.02076889,-0.10676777,0.02255953,-0.014145725,0.03358872,-0.30293816,-0.4925198,0.2136254,-0.223544,-0.036537748,0.013005041,-0.07392737,-0.27139294,0.012186846,-0.06779798,-0.0043766187,-0.012184287,0.00041695495,0.24591506,-0.21746631,0.16229148,-0.25196216,-0.19792604,0.02896063,-0.24997275,0.2598469,-0.0040855203,0.036272433,0.046694715,-0.27868447,-0.07714118,0.077421,-0.24773826,0.12437337,0.18959881,-0.0023408819,-0.069136284,-0.22075939,0.023260094,-0.18834996,-0.2096006,0.1277407,0.025000388,-0.066608965,-0.27764127,-0.021711675,-0.015891792,0.018064462,-0.008150476,0.057260506,0.3829421,0.080053665,0.14592995,-0.16742119,0.17880589,0.8042152,0.19112897,0.29429004,0.12907033,-0.1595862,-0.08184706,-0.11698278,-0.4159824,-0.09382019,0.3187745,-0.19280717,0.17937626,-0.04232878,0.28551358,0.13733102,-0.3951504,-0.26149213,-0.06353703,0.36255476,-0.13549879,-0.32061973,-0.04987327,0.117203504,-0.1272867,0.031081833,0.1757804,0.0021635403,-0.0043436694,0.24542397,-0.064949095,0.18904603,0.08962138,-0.044352256,-0.051436022,0.012574497,0.15883656,-0.11861865,0.11105329,-0.010441023,0.06506632,-0.09032929,-0.005539004,0.10401568,0.09966838,-0.033593185,0.1964143,-0.24566305,-0.12771167,-0.094258934,-0.10021527,-0.1655561,-0.29556644,0.2137963,-0.04445839,0.053687464,0.31565598,-0.25186956
0.12333346,0.06553217,0.095966674,0.0062406724,-0.031810846,-0.060487125,0.09209444,0.12650408,-0.07046839,0.11041185,0.13404523,0.0889495,-0.091866836,-0.01086202,0.13881369,-0.13232361,0.09887325,0.07132876,-0.08944599,0.052912816,0.12642933,-0.08402037,-0.10903673,-0.03892294,0.07456699,0.14045027,0.056718905,0.029909493,0.10664145,-0.026378097,0.12800425,0.07499228,-0.032381568,0.054690626,-0.048271164,0.08335533,-0.07397081,-0.12581258,-0.03508009,0.108482376,-0.047084995,0.12637177,0.071899794,-0.052872855,-0.12986922,0.119056195,-0.060637027,0.13507098,-0.05275264,0.03517585,-0.094408356,0.060146634,0.11861594,0.11204961,0.00018553814,0.119811125,0.024438366,-0.0685479,-0.12891889,-0.014777097,0.03423709,-0.013882053,0.041215118,-0.08578701,-0.08263915,-0.1091432,-0.11757142,0.006302807,-0.07416827,-0.04130791,-0.1066677,-0.02649018,-0.08844826,0.0055335406,0.043436166,-0.07898381,0.10797402,-0.06704476,-0.13359989,0.07405476,-0.094430335,-0.027638515,-0.013146598,0.039309338,0.031329934,-0.12729347,0.11302544,-0.12313818,0.11773266,0.030595524,0.08342856,-0.0707007,0.073659904,0.036310922,-0.11297507,-0.14053406,0.009788055,0.03913133,-0.1088712,-0.049606737,0.011367387,0.11514426,0.13601816,0.057000536,-0.07170452,0.048622306,-0.061753366,0.1047421,0.08560866,-0.134613,0.0447699,0.021500848,-0.04711591,0.10268153,-0.0072876485,0.0001687878,0.12177953,0.06685735,0.12908189,-0.07300463,0.05721356,0.12040399,0.062036037,-0.099689774,0.02274324,0.13803896,0.11284307,0.07134105,-0.024603467,-0.058141958,0.06827228,0.08350526,0.08354369,-0.0027975095,0.09524929,-0.045736652,0.11698221,-0.08133341,-0.10193562,-0.030432625,0.06628565,-0.085249804,-0.05752934,-0.08707578,-0.064382724,0.12441088,0.01776105,-0.03928314,0.13809071,0.014082149,-0.05692189,-0.11417763,-0.0043147313,-0.13897653,0.023188377,0.052685592,-0.10089945,0.08419803,-0.10304988,-0.0012313683,-0.10492135,-0.046941556,-0.12592272,0.026294053,-0.09686367,0.105091214,-0.11686866,-0.04678003,-0.072234884,0.014005109,-0.11984436,-0.022635309,0.013648719,-0.06603088,-0.09002431,-0.060507774,-0.13812281,-0.14097321,-0.022901826,0.10836501,-0.0836272,-0.13197172,0.12465948,-0.10357405,-0.029621508,0.12548034,0.09090853,0.03123041,0.13127339,-0.07572927,-0.0068578236,-0.1191087,0.07750643,-0.06174648,0.08987527,-0.110346094,0.029834224,-0.056640867,0.10972841,0.02820065
-0.032477178,0.59536725,0.20713973,0.45800906,0.3896661,-0.11904736,0.11799789,0.32025367,0.02985002,-0.034349255,-0.10302057,-0.04432316,0.21730366,0.25284895,0.22449507,-0.06974767,-0.021310793,-0.24025647,0.2890677,-0.2968067,0.0402311,0.012339424,-0.054742504,-0.14660616,-0.1499257,-0.03311022,0.3958586,0.018688586,0.16999981,-0.18553267,0.26729882,-0.18337509,-0.113014005,-0.20033248,-0.03449634,-0.15316062,-0.07424251,-0.15411079,0.28072074,0.12178549,0.48225302,-0.09082867,-0.01861204,0.17914645,-0.22980796,-0.033326693,-0.12288419,0.24639446,0.20305863,-0.08874608,-0.13057122,0.25565237,0.29896158,0.19016081,0.16225576,0.1077106,-0.04271346,0.01367421,-0.051276736,-0.15205123,-0.1709105,-0.09460894,0.15513383,0.2175757,0.0024974572,-0.17377186,-0.1400564,-0.018704146,0.1541611,-0.31822145,0.049808696,-0.07272486,-0.07459007,-0.2168029,-0.169231,-0.0985501,-0.08873361,0.09527792,0.22165246,0.007937698,0.069134414,-0.26045766,0.13328819,-0.062341,0.23592551,-0.06525706,0.024693893,0.01586272,-0.055333257,0.034480006,0.13657457,-0.13858657,-0.1591348,0.039141722,-0.2310326,0.11075144,-0.10559331,-0.090481825,0.07023294,-0.1797832,0.022511752,0.19793445,0.0067762393,-0.10102179,0.11856461,0.0932254,-0.08422234,0.006903151,0.06640217,0.062152393,-0.21761787,0.110170476,0.31168723,-0.2232097,0.08100273,0.23901062,0.10919147,0.10108697,0.14562526,0.04351976,0.09431043,-0.10014271,-0.053613003,0.021697804,0.23615141,0.040652253,-0.35384104,0.010466267,-0.008641276,0.09257517,-0.22002646,0.15832213,-0.024305612,0.09556008,0.14581922,0.042862333,0.11133351,0.0017887983,-0.033516772,-0.103257485,0.17564386,-0.31848535,-0.05203211,0.1957797,0.2695359,0.0019525426,-0.05646108,0.085412666,0.0953988,-0.011670376,-0.49380383,0.05465367,0.20498411,0.14585748,0.10233711,0.13373667,0.0230362,0.3321356,-0.018461227,0.035193004,0.03876289,-0.28943563,0.32388374,0.08862425,0.16525726,-0.5316519,0.026649006,0.13595165,-0.11923678,-0.2613336,-0.21170443,0.2258797,-0.27704015,-0.16251193,0.14830966,0.080338255,0.37914324,0.16809328,-0.028214628,-0.06701459,0.14405371,-0.13155046,-0.114046834,-0.31050983,-0.42674085,0.08434815,0.05881446,0.24871361,0.05478473,0.021528846,0.2356365,0.052647848,-0.18628739,-0.010422135,-0.6267144,-0.119084716,0.18871757,0.113402985,0.3100086,0.042104203
0.15981573,0.27919984,0.29866087,0.30868897,0.58463526,0.046646718,0.18730438,0.16782805,0.016242987,0.16031715,-0.14267452,0.24747342,0.37897196,0.2306394,0.3912507,-0.3204522,0.3895595,0.07293517,0.20221396,-0.45704615,0.18827529,-0.13437375,0.049617127,-0.24478875,-0.4083418,-0.14845249,0.12925129,-0.038824536,0.16323856,0.22132221,-0.08776737,-0.05419269,0.1913211,-0.29961923,-0.21195327,0.1285036,0.20373176,-0.11910672,0.15077546,0.0945704,-0.0889539,-0.101435505,0.073690936,0.06466873,-0.12256246,-0.057471056,-0.07140066,0.19483012,0.09693991,-0.22610761,-0.1525477,0.020897571,0.20101807,0.08160879,0.22872679,0.07772076,0.3184583,0.117121495,0.14432421,-0.12343366,0.21318217,-0.01893842,0.2883282,0.1909416,0.2639204,-0.25022835,-0.007307291,0.3276123,0.062382746,-0.186181,0.3528879,0.2880984,0.13122031,-0.045268066,-0.112060875,0.029314581,0.0910644,0.09172704,0.12081295,0.08220858,0.025789607,-0.13149567,0.10292553,-0.1758705,0.1416953,0.12477029,0.040674146,0.07135023,0.26725626,-0.15255001,-0.101570606,0.015350386,-0.122349925,0.17720556,-0.4089005,0.018534414,-0.108367056,0.10586475,0.3558784,-0.0734402,-0.17980912,-0.2482593,-0.1592414,0.38736835,0.16251549,-0.15122354,0.0939402,0.05703407,0.15707164,0.1380109,-0.192377,-0.03342983,0.15170649,-0.041033182,0.13324907,-0.24379744,0.03585769,-0.06198497,0.20113063,-0.26004893,-0.0038864245,0.07967455,0.1729532,-0.095212564,-0.12214115,-0.07463563,-0.048548795,-0.2632533,-0.08116018,0.29429814,0.12214094,-0.3866917,-0.05551391,-0.2471954,-0.12537327,0.08344142,0.075270034,0.016091114,-0.07943521,0.11096936,-0.17337687,0.05840512,0.07812793,-0.11032256,0.19856797,-0.024225364,0.1263485,-0.0079951715,0.10098051,-0.14959992,-0.3378678,-0.04250334,0.35793635,0.26269895,0.2591458,0.05918745,0.3465228,0.07467957,0.33024424,0.22507708,0.053249884,0.26643997,0.19719177,0.113063134,0.24227375,-0.3968334,0.08435558,0.08296118,0.18670885,-0.3765062,-0.03071194,0.122566305,-0.03757015,-0.31053382,0.11091268,0.13051304,0.43985456,0.046543967,0.23831521,0.21474883,-0.03465214,-0.039161686,0.14972402,-0.44286242,-0.17345586,0.107784584,0.25010967,0.3677908,0.409877,-0.06909149,-0.060613107,-0.14223997,0.13835911,0.3228926,-0.3124798,0.023829304,0.19093513,0.23257916,0.26996475,0.1367535
-0.042185463,0.11242294,0.20153332,-0.004358144,0.18561515,0.2036236,-0.061806664,0.11226296,0.05001693,0.2672786,-0.15124391,0.07644092,0.3870943,0.27565983,0.095444,0.16179782,-0.0261732,0.270002,0.14994767,-0.15297388,0.08503442,0.14536388,0.2899105,-0.15008955,-0.008934237,0.14453374,0.34881443,0.268966,-0.0513552,0.089390315,-0.11074101,-0.115841806,-0.21280934,-0.31740937,-0.16833882,-0.18866122,0.36077932,-0.022341823,-0.0696078,0.39644128,-0.080695234,-0.070800826,0.1143487,-0.24835068,-0.18440634,0.16151051,-0.050535623,-0.27560616,-0.08969872,0.051049877,0.033238802,-0.28975156,-0.015828473,0.007537384,0.15850937,0.17916639,-0.046752222,0.036576055,0.13606007,0.10787521,-0.049651243,-0.34067935,0.027733197,-0.0010260439,0.2089913,-0.31219548,-0.005291643,0.030038565,-0.06765893,-0.38109222,-0.10507555,0.0548882,0.24916503,-0.23165648,-0.04073604,-0.05175567,0.08752003,-0.14718026,0.032156892,-0.39473286,-0.19790164,-0.18985057,-0.2089321,-0.16053395,-0.066461906,-0.092654385,0.09023374,-0.13789782,-0.08325734,0.07991699,-0.14155994,-0.08245288,0.021949101,-0.27710164,-0.06982837,-0.0067665367,-0.07868817,-0.23668872,-0.19326992,0.105287015,0.3307419,0.3408344,0.038754124,0.10430202,0.010900232,-0.18977934,0.19916652,-0.021427166,-0.16420482,0.2565273,0.04571789,-0.29540178,0.2850891,-0.18579985,-0.32400635,-0.043712933,-0.10563549,0.039783224,0.021564757,0.15049344,0.31846678,-0.05557121,-0.19478817,-0.14141524,0.20828044,0.1981819,-0.2800442,0.11297734,0.028020669,-0.090613276,0.009675656,-0.18075953,-0.20471142,-0.0866111,0.082110524,0.029980822,0.26516777,-0.16059794,-0.012606545,-0.21244538,0.15675177,-0.15684764,-0.05644904,0.047533505,-0.28816652,0.01527474,-0.18175477,-0.120614894,0.0069996635,0.15282863,-0.11171501,-0.0033468027,0.15842277,-0.02995514,0.11356001,0.072462805,-0.20829383,0.113029554,0.17743134,0.08399324,0.017052682,0.012180523,0.1608489,0.115336716,0.45298845,-0.036641005,-0.13895044,0.07597795,-0.0024772936,-0.18957897,-0.056156673,-0.120166354,0.010053059,-0.43144688,0.006307979,0.19685405,0.065445624,0.116403796,0.01901566,-0.1868444,-0.16980603,-0.05825162,-0.2346268,-0.19094536,-0.053405926,-0.20513743,0.028438026,0.29578823,-0.26702678,0.17434043,-0.279552,0.030619632,0.0718513,-0.23424055,-0.2141151,-0.031235369,-0.024809118,-0.17018725,-0.18202277,-0.08319028
-0.05712556,-0.057905115,-0.06523917,0.10039244,0.13361345,0.051937092,-0.03530599,0.1234803,0.090011634,0.067435,-0.04220553,0.03936094,0.061418734,0.051542055,0.015257469,-0.03776734,-0.091849655,0.0439948,-0.06191737,0.004504398,0.064017534,0.042287663,-0.007639214,-0.07330257,-0.100629635,0.03671455,-0.0017501549,0.07222714,0.028516414,0.04183651,0.08207567,0.10999348,-0.04476017,0.11976403,-0.14020035,0.04591731,0.06650724,-0.14095245,-5.0123483e-05,-0.028857792,-0.010395942,-0.084172755,-0.047485974,0.11717202,-0.13739462,-0.027874175,0.06772183,-0.026101185,0.025457293,0.0070714364,-0.076841,-0.11924822,-0.12747712,-0.028535001,0.12820272,0.09679183,-0.049410965,-0.106697306,0.034753338,-0.049555846,0.0461706,0.105462365,0.11177724,-0.044633906,-0.022571282,-0.019948944,0.122205935,0.13701856,-0.08858478,-0.10838142,-0.06210199,0.13432331,-0.0073857107,0.064614356,-0.06382258,0.072527915,0.052040443,0.026363185,-0.007373381,0.046458665,0.111735374,-0.023401136,-0.08872554,-0.1260842,0.0077767973,0.00810176,-0.03628367,0.12669641,0.1308091,-0.040105686,0.07900673,0.13911845,-0.105250336,-0.14011438,0.05665214,0.045332924,0.01860966,0.12168161,-0.015422361,-0.039711908,0.086836815,0.0075585046,-0.017302416,-0.12946407,-0.04943451,0.059263982,-0.111291096,0.10867061,0.008946239,0.09983918,0.0076201274,0.105974115,0.011031362,0.020879237,-0.016872834,-0.10500092,-0.08289667,0.012509329,-0.12699631,0.050786395,-0.04714116,0.07768386,0.07707011,0.025065469,0.041729055,0.089238174,0.06908848,0.0975846,-0.009623071,-0.009014227,-0.049572363,0.032618247,0.06752066,-0.056351017,-0.14086895,0.09784401,0.053778656,-0.017671198,0.039266985,-0.08866365,0.055725828,-0.046938393,-0.04426262,-0.029428434,-0.12294017,-0.07061707,-0.05552288,-0.07491981,0.044323023,0.11172779,-0.028920963,-0.12419164,-0.057948224,-0.083614275,0.0820731,-0.08776224,-0.09658303,-0.12967774,-0.046029758,0.048795853,0.1359924,-0.097908676,0.059043348,-0.005776909,-0.066459104,-0.08628615,-0.06444857,-0.12073005,0.13016628,-0.047169358,0.11454732,-0.11939306,-0.12091248,-0.06501399,-0.0959109,0.103541166,-0.04336471,-0.08891757,0.11363456,-0.081796624,0.13529533,0.057238813,0.048605334,-0.020477049,-0.014497952,0.029552264,0.015816413,-0.036808874,-0.12825035,-0.033756867,-0.08897483,0.13143697,-0.12772907,-0.0335283,-0.08040048,-0.1280439,-0.12574336,-0.10040128,-0.13232796,0.13103236
0.0476842,-0.060330145,-0.030464167,0.10057554,-0.09042303,-0.2507378,0.0021574267,-0.005087197,-0.30753058,-0.005355715,0.00696741,0.019322654,-0.22491266,-0.20603459,-0.4011679,-0.044990003,-0.051297504,0.044450127,0.18640457,0.16257076,0.1293009,-0.04502714,0.048439104,0.27170277,-0.11834652,0.0033136706,-0.0958136,-0.22582264,0.11388312,0.28363815,-0.19187723,-0.1951239,0.10074292,-0.17168017,-0.110616885,-0.032178774,-0.17533894,-0.11087228,0.04680446,-0.27254838,-0.26387286,0.12232164,-0.087337926,0.12287178,-0.00457936,0.1702737,-0.06286916,-0.10085325,-0.06834162,-0.19315344,0.017928328,-0.038889013,-0.04222682,-0.04505224,0.17481011,0.02544404,0.019591412,-0.118656605,-0.17449588,0.030939864,0.1347516,0.24886963,-0.44311565,-0.1479519,-0.15259817,0.16039847,0.16234118,-0.10413561,0.1814325,0.23055859,0.087793514,-0.14764003,0.07582635,0.3809838,0.047183193,0.16036618,-0.10316438,0.024149977,0.070031375,0.14186937,-0.07057231,0.19003886,0.10457625,0.09583817,0.05550646,0.2103459,0.013801643,-0.18746184,-0.08532396,-0.17716204,-0.008337906,0.052675616,-0.16845416,0.23402047,-0.17600422,0.15040296,-0.10143285,-0.015527014,-0.05573238,-0.007190584,0.024329413,0.031089721,-0.1147224,0.040443502,-0.08434597,0.12568273,-0.04646008,-0.17407605,0.20396908,-0.08960579,0.14246254,0.2904673,-0.16968416,0.022143744,0.27665594,0.10315125,0.12300972,-0.20932674,0.16375999,-0.012059282,-0.1650577,0.16291514,0.06682587,0.21690561,-0.14726993,-0.04778754,0.027359147,-0.19866692,-0.008108307,0.0010145474,-0.13795245,-0.23968858,0.30457065,0.1771259,-0.2524384,0.42863327,-0.259772,-0.023022946,0.08451523,0.17373548,-0.17185326,-0.024686377,0.22024368,0.19623609,0.095761105,-0.10518724,-0.0033573192,-0.062260143,-0.080497906,-0.07899325,-0.24044953,-0.04800405,-0.055574495,-0.21836317,-0.01249261,-0.08957656,-0.090822555,-0.21934666,-0.3526367,0.07503475,0.1316025,0.094345585,-0.44164175,-0.50417364,-0.5505326,0.14992994,-0.116756864,-0.08058271,0.3096959,-0.07748106,-0.19681457,-0.10187124,-0.16530211,0.30442446,-0.3613892,-0.17682774,-0.14835072,-0.15698998,0.0728655,0.3108983,0.004724613,-0.12311544,0.04112304,0.107017525,0.085696936,0.23760182,-0.16896324,-0.17695683,-0.3607822,-0.3879614,-0.21201934,-0.19623236,-0.17558941,-0.12999529,-0.20541961,-0.0743862,-0.18301682,-0.09287859,-0.089251384,-0.10374206
-0.014709049,0.1403803,-0.07135154,0.118932515,0.07273955,-0.048495963,0.06610875,0.2415846,0.3752609,0.07732578,0.060505778,0.05701836,0.027504873,0.018816477,-0.07927783,0.17024,0.18059723,0.050339047,-0.15754984,0.15491451,0.24554297,0.18045622,0.06884587,0.08995011,0.3179357,0.021236552,0.0055769067,0.1707448,-0.21543296,-0.061850525,0.5249223,-0.022344973,0.09402073,0.1463546,0.2851326,0.29338074,-0.27488345,0.31033474,0.12009976,-0.07995807,0.21749465,0.10542548,0.27794722,0.4370953,0.41447672,0.10998861,0.34934995,0.4541192,0.18757296,0.088951804,0.11854407,0.049086668,0.08683896,0.004599429,0.0098923445,0.15427978,0.1988296,-0.04790372,0.13743606,0.14503044,0.21915957,-0.025799273,0.053042002,0.16441776,0.035549622,0.18895887,0.048203852,0.17583822,0.0034265858,0.22606453,-0.120737866,0.32484496,0.0641864,0.39528155,0.15686427,0.029562218,-0.094051085,0.022449479,0.2365237,0.25332615,0.5619803,0.03601559,0.056653816,0.13798015,0.08277327,0.42240968,-0.25555724,0.28924736,-0.060416088,-0.06131672,0.14425704,0.19872482,0.06300812,0.4986389,0.0520059,-0.08272919,0.25409493,0.29158407,0.19802086,0.14774391,-0.06267284,0.25486827,-0.10194928,-0.009603102,0.060321234,-0.1436578,-0.12731025,0.2524458,0.13475092,-0.07097221,-0.21459588,-0.12259672,-0.1208352,0.120793104,-0.35087508,0.10606377,-0.41032177,-0.028512921,-0.33260554,0.05194263,-0.061905563,-0.12031322,-0.029243615,0.043033093,0.14566074,-0.09459182,0.0018672406,0.041306477,-0.17896892,0.022328414,-0.14025411,-0.08902781,0.043598972,-0.14668435,-0.03619965,-0.23548573,0.08560931,-0.018998517,-0.022431456,-0.19050758,-0.04980133,-0.12852567,0.08984146,-0.41179782,-0.097049646,0.21530056,-0.042183142,-0.5246473,0.104145154,0.3771349,0.40510496,-0.24420036,0.2625263,0.15377352,-0.34664357,0.18910621,0.21662734,0.30998242,0.10356466,0.2018054,0.19025195,0.19034602,-0.060768683,0.2904792,0.11925556,0.1868052,0.29194176,0.31793508,-0.042504147,0.10104938,0.23398834,0.28373012,0.34428293,-0.06740079,0.69595855,0.5493967,0.07168087,0.2724223,0.049208775,0.18612398,0.35611144,0.2982969,-0.063792855,0.117725156,0.09853735,0.36111587,-0.116584405,0.32392785,0.45882475,-0.06344985,0.31528944,0.44997844,0.3329067,0.35100433,0.48282662,-0.113754004,0.54455256,0.54367095,0.083123915,0.42277026
-0.11352589,0.17597419,0.23700577,-0.13569832,0.06671862,0.5400647,0.24676518,0.47231096,-0.11992604,-0.09361773,0.17163952,0.07035021,0.20738196,0.6040211,0.04879372,-0.5079377,0.16889226,0.04520827,0.1457045,-0.21336879,0.23809808,-0.13844632,0.18192485,-0.44572526,0.1200403,0.3201851,0.30206296,0.17986804,-0.14924604,-0.362658,0.47856757,-0.13036765,0.025682908,-0.47834045,-0.10940987,-0.137554,0.3718554,0.20361444,0.29351273,0.6050544,0.045396667,-0.17538075,0.14924577,-0.3516552,-0.44108915,0.10444387,0.26523313,-0.055296984,0.15021195,0.091108546,-0.030966012,-0.038038712,0.11563447,0.13918413,0.035877347,0.36409107,0.04126867,0.26672855,0.19113885,0.30099377,-0.21995081,0.119753815,0.31903294,0.42409316,0.18169874,-0.24281095,0.15449478,0.04887617,-0.15776634,-0.20357633,-0.11567639,-0.08554296,-0.13725515,0.113921195,-0.06783857,0.11794301,0.20265964,0.099513434,-0.23771445,-0.07756723,0.1164583,0.08045907,0.022340905,-0.15666877,0.0033142788,-0.07239209,0.30189523,0.057461873,-0.018438391,0.12407556,0.1143956,-0.03835554,0.25558528,0.07916447,-0.08525384,0.0033074194,0.2513117,0.21321972,0.32403615,0.045469053,0.16055098,-0.09114063,0.099861234,0.16287798,-0.16067562,0.017183384,-0.037979368,0.09025746,0.025971793,0.08372157,0.07684094,-0.0066224807,-0.07197273,0.08154866,0.005594648,0.11862685,-0.022787409,-0.012802698,-0.171751,-0.3341269,0.21156122,0.045589454,-0.009029289,-0.22918664,-0.1930584,-0.042315118,-0.07108127,-0.026979716,0.1396468,-0.1288487,0.048371587,0.16175582,-0.105210096,-0.32832125,0.11914796,-0.13629523,-0.048903845,0.11300667,0.028205473,0.27022716,0.22550364,-0.10748432,0.24831049,-0.22838971,-0.029844204,-0.10761961,0.04549687,0.08340772,-0.028745024,0.14392424,-0.286656,-0.06516859,0.12066941,0.25942633,-0.020580031,0.45476934,0.13240199,0.25182125,0.23352599,0.40190476,0.018410837,-0.1517654,0.42317694,0.12417489,-0.0010088744,-0.28112832,0.17693505,0.2811035,0.14211652,-0.23478341,-0.0051027313,0.20642063,-0.11448694,-0.24068531,0.45334053,0.27357563,0.61073995,0.065778136,-0.08119209,-0.26483363,0.0300298,0.16292076,0.23178962,-0.3268449,-0.42097995,0.05473314,0.2693099,0.12203586,0.030844899,0.33514947,-0.02112639,0.13992761,0.25053036,-0.02931827,-0.27424663,0.10525795,0.38013843,0.0019740267,0.15406401,0.49129748
0.15583628,0.25440544,0.092842616,-0.13572383,0.17532928,0.27993548,-0.11427609,0.02447263,0.27323827,-0.07725213,-0.036177125,-0.047733445,0.08360518,-0.092173465,-0.020719243,0.06718109,0.15066157,0.09033885,-0.22360367,0.28069922,-0.23095508,-0.249053,-0.027752101,0.0016023222,-0.016227372,-0.12582725,0.04468478,-0.063414246,0.08373046,-0.2569225,-0.11078267,0.17807637,0.004797613,-0.24123572,0.10875446,-0.11276257,-0.14051664,0.061779443,0.025284844,0.19585371,0.20485291,0.23194462,0.14985143,0.078201294,-0.1193136,-0.20751067,-0.045950405,0.028053954,-0.2158754,0.06712594,0.25626403,-0.07800479,-0.09472626,0.055742003,0.09511713,0.07949315,-0.06669327,0.203578,0.1982438,-0.04017489,0.06557829,0.033233397,-0.15189046,0.12188752,-0.1325885,0.15586835,0.3030112,-0.12827502,-0.21257526,0.14998014,0.1961961,0.13413703,0.009766905,0.29279056,-0.12328975,0.35665828,0.0060194307,0.08910186,-0.055657625,0.05922887,0.06021457,0.16092323,0.00033837033,0.22333047,-0.1194887,0.17187166,-0.13370162,-0.009818451,-0.0144294165,0.09615191,0.40972462,0.11277902,-0.040502716,0.1670879,0.29349163,0.03639977,0.1275537,0.08811444,-0.1369685,0.112104885,0.2696664,0.23911397,0.0778608,-0.1151762,-0.12951063,0.13470519,0.09566619,-0.12086404,0.049203858,-0.024046363,-0.10045391,0.097786345,-0.110261224,0.1959043,-0.15810435,0.1839183,0.192133,0.07884918,0.0063448963,-0.1658621,-0.007283579,0.14840895,-0.12585765,-0.1884197,-0.08973277,-0.11344899,-0.100761615,-0.088802144,-0.054426827,-0.059728667,0.029478557,-0.012666042,-0.019072838,-0.21163926,0.22425908,-0.01939981,0.003370033,-0.04748876,0.03661973,0.10722977,0.002789442,-0.0798881,0.08615064,-0.008205163,-0.4658275,-0.1286363,0.24975696,0.0075666383,-0.11172224,0.19662239,-0.0936406,0.083435394,-0.1606753,0.012582616,0.09446192,0.066266075,-0.10349204,-0.16288358,0.14886086,0.07952495,0.22408435,0.11074001,0.026382715,0.022444483,0.117737554,-0.032105695,0.18144496,0.06128322,-0.3141325,0.05941214,-0.02641249,0.1377102,0.028786277,0.08072318,0.15350194,0.056062937,-0.03424086,-0.1032531,0.14613892,-0.12691243,-0.24518164,0.33776417,0.4117157,0.03693457,0.13340224,0.14089298,-0.03353965,0.1255852,-0.12278936,-0.14485231,0.23357102,0.16792203,0.03924207,0.16505846,0.05296263,-0.04914153,0.31429636,0.21840027,-0.16921344,0.14994442
0.041884277,1.6036246,0.23953204,0.35847923,0.5381745,0.16478074,0.42423636,0.30840936,0.49021867,0.618462,0.1573664,0.4739064,0.78717417,0.30333084,0.5700067,-0.07823774,0.31780073,0.13884811,0.37672228,0.05538876,0.538526,0.16484906,-0.13660651,0.24361335,0.019312443,0.09565942,0.3143649,0.34517133,0.49323237,0.5137754,0.422417,-0.02697293,0.3922224,-0.081249475,-0.052667502,0.35841554,0.59664065,-0.02677379,0.23549825,0.45115733,1.1747453,0.35155863,0.4655906,0.07191873,-0.04343477,0.38220078,0.18695629,0.29705882,0.31263262,0.20504513,-0.3748711,0.3482821,0.084694594,0.07134182,0.089238845,0.14354137,0.05466004,-0.05215203,0.31146917,0.23293935,0.11704057,0.18565537,0.46645057,0.25904822,0.3921417,-0.3374407,-0.114591375,0.23650353,-0.07251851,-0.22010289,0.030479979,0.31777203,0.007963728,-0.24778214,-0.0226734,0.2871883,0.27318883,0.3622591,0.19045565,0.05743839,0.18739142,0.15565401,0.25212085,0.061826877,-0.50927687,-0.0053360555,0.63326246,0.16285737,-0.05273865,0.17464767,0.101433426,0.07977885,0.26931608,0.13126247,-0.38643876,0.15123117,-0.065960154,0.06726583,0.25177065,0.14340706,0.11242874,0.23291147,0.16802438,-0.010608317,-0.017146831,-0.0645542,0.041355435,0.06421112,0.13252907,0.18982439,0.09926575,0.053356938,0.012422472,0.23498875,-0.2615119,0.0829297,-0.097978555,0.00560885,-0.14376591,-0.14295393,-0.0051280865,-0.005943234,0.1088331,-0.12690444,-0.050801665,-0.03922765,0.06046713,0.055832613,-0.030502638,0.045685302,-0.007672212,0.2200994,0.18939349,-0.3028305,0.39589503,-0.21843712,0.16394399,0.30657107,-0.05942153,-0.12975822,0.16526005,0.11216173,0.08768517,-0.17227978,-0.02225565,0.009400722,0.09021189,0.1552369,0.14809304,0.14579669,-0.089214966,0.34544647,0.34702915,0.28458995,0.13034531,0.1059094,0.04739962,0.20563664,0.46424168,0.2705685,0.4420156,0.3440321,0.33231175,0.28602386,0.64344126,-0.13912076,0.07287244,0.40142635,0.22190195,-0.36792067,0.22051087,0.5162697,-0.27528873,-0.09515489,0.38810995,0.46536693,0.19274293,0.44227138,0.5076433,0.51075727,0.31744024,0.22792454,0.5777012,-0.23876548,-0.16210099,0.42821187,0.61385185,0.39872053,0.16370988,0.35114074,0.34899923,0.4758066,0.4299319,0.45057368,-0.15212381,0.21001072,0.49273157,0.042180553,0.2815268,0.41603488
