0,1,2,3,4,5,6,7,8,9,10,11,12,13,14,15,16,17,18,19,20,21,22,23,24,25,26,27,28,29,30,31,32,33,34,35,36,37,38,39,40,41,42,43,44,45,46,47,48,49,50,51,52,53,54,55,56,57,58,59,60,61,62,63,64,65,66,67,68,69,70,71,72,73,74,75,76,77,78,79,80,81,82,83,84,85,86,87,88,89,90,91,92,93,94,95,96,97,98,99,100,101,102,103,104,105,106,107,108,109,110,111,112,113,114,115,116,117,118,119,120,121,122,123,124,125,126,127,128,129,130,131,132,133,134,135,136,137,138,139,140,141,142,143,144,145,146,147,148,149,150,151,152,153,154,155,156,157,158,159,160,161,162,163,164,165,166,167,168,169,170,171,172,173,174,175,176,177,178,179,180,181,182,183,184,185,186,187,188,189,190,191,192,193,194,195,196,197,198,199
0.44396442,0.13525616,-0.14270394,-0.024830604,-0.07461041,-0.36924818,0.06517557,-0.017407311,-0.34178385,-0.22250237,0.39048392,-0.04103668,-0.409236,-0.33825874,-0.041735753,0.2885084,-0.38086823,0.36142865,-0.26709345,-0.0089999065,-0.24592279,-0.13054596,0.38622582,0.32776487,-0.1645662,0.14529039,-0.42304596,-0.23702271,-0.25462246,-0.0693977,-0.09734933,-0.11814549,-0.058112085,0.22848554,0.020464838,0.08297853,0.033915736,0.19236258,-0.23010032,-0.049720418,-0.3071639,-0.15987921,-0.1042398,0.12039725,0.38490945,-0.049013384,-0.32166812,-0.19908196,-0.22979301,-0.039762683,0.016587017,0.039066657,0.01868867,-0.19377759,-0.045314476,-0.13608985,0.13556737,-0.030614667,-0.515893,-0.42086038,0.3994043,0.1002689,-0.36137632,-0.23767264,0.14274845,0.24509874,-0.22510768,0.026434988,-0.12610574,0.0878018,0.067554586,0.06789251,0.29668787,0.16107292,-0.018480092,0.2316874,-0.12426208,-0.01690026,-0.07426681,-0.012724357,-0.20458096,0.02285572,-0.037203804,0.14225912,0.13404123,0.06839289,0.14248776,0.034230463,-0.012452832,0.09183073,0.0116948625,-0.08016285,-0.3666277,-0.022153351,-0.16357124,-0.31885028,-0.19431731,-0.018415159,0.14613606,0.059613105,0.48208928,0.012427422,-0.044521973,0.56816393,0.17508255,0.105230816,0.11908358,0.070079215,-0.047193628,0.09032257,-0.1371823,-0.14656758,0.07216365,0.03164514,0.031152379,0.23273794,-0.009134036,0.061164442,-0.13630253,0.031907897,-0.1643341,-0.03813758,-0.13103202,-0.12955324,-0.07318043,-0.30106688,0.100105934,-0.33140582,0.072790824,0.26058313,0.11757285,0.07353266,-0.09542296,-0.17944728,0.13208947,-0.13772704,0.05406791,-0.10569447,0.22086996,-0.069987185,-0.012149109,0.0023256505,-0.057741173,0.08536578,-0.24322377,0.2048923,0.068617724,0.038364496,-0.14393826,0.07850472,0.4816804,0.322542,-0.10903258,-0.26719716,-0.042203285,-0.353456,-0.057914227,-0.16713768,-0.35491538,-0.47248232,-0.16994205,-0.12545487,-0.44295055,-0.3050858,0.14659734,0.22547327,-0.39093006,-0.07829332,-0.0464409,0.3274531,0.13891919,-0.30394888,0.23799255,0.31184536,-0.39064348,-0.33754265,-0.32239386,-0.13169129,0.11023247,-0.14646131,0.08003769,-0.17153089,-0.2655828,0.31796107,0.20141324,-0.20330822,0.13361403,-0.24340567,-0.29338053,-0.07169479,-0.002702695,-0.41716728,-0.1528092,-0.018783508,0.2928359,-0.020239681,-0.46083343,-0.21015204,-0.11587749,-0.3495601
0.07795083,0.4207239,0.03973278,0.22201277,-0.024102474,-0.011452369,0.17754953,-0.0784081,0.2857814,0.07426582,0.03883535,0.004129943,0.07889801,-0.28549927,0.12526242,0.077566095,-0.09448434,-0.14311577,-0.21572277,0.23123664,0.22893515,0.11501366,-0.031843483,0.16992664,0.048943795,0.23801272,-0.06326628,0.14267664,0.1840054,0.11233897,0.3614974,0.10601312,0.017248146,0.0102281375,0.13808161,0.103609614,0.14601067,-0.072140895,0.21040028,0.011615754,0.70173883,-0.021009397,-0.19329928,-0.11219408,0.31412777,-0.12754576,-0.31627798,0.44815567,0.06966061,-0.08869715,0.00528321,0.33032116,0.090352334,-0.038870122,0.022927938,-0.24915597,0.12571752,-0.07133473,0.024010902,-0.09321547,-0.19085146,0.10511991,-0.15444446,-0.40126714,-0.06055581,0.110724285,-0.007746044,-0.013551837,-0.13726895,0.06313067,-0.0010394116,0.056882102,0.10477859,-0.051887285,0.03793759,0.012456778,-0.20679198,-0.022370452,-0.06529177,0.034061443,0.050439425,0.1429784,0.016097872,-0.06351879,-0.011761055,0.09372992,-0.041967813,-0.1269512,0.12590234,0.15249339,0.38947633,-0.20354137,-0.31782266,-0.049876608,0.11196342,-0.11582381,-0.09535663,-0.33595127,0.0469277,-0.0066838786,0.31741717,0.2603296,-0.11141914,0.33461887,0.07746688,0.007283608,-0.0049979785,0.29762414,0.21354058,-0.2512554,-0.15518275,-0.23061146,0.01836542,0.06473309,-0.009971235,0.18363746,0.23128739,0.19677244,0.17361096,0.26733482,0.019201992,-0.12712702,-0.16932234,0.042442698,0.059944477,0.08877968,0.21131183,0.058662493,-0.0510511,0.012981277,-0.118442565,-0.088476226,0.03840308,0.2826006,0.301086,-0.09205638,-0.21144502,0.0062417625,-0.15067111,-0.038988315,0.13751622,0.08880578,0.08515104,0.09860729,0.047138587,0.075799,0.011546845,-0.20771302,-0.011128844,-0.13784033,0.122044235,0.36238045,-0.26233053,0.20925888,0.15918787,0.045902215,0.21899843,0.11770079,0.103830114,-0.15056473,0.050071694,-0.054230176,0.07853487,-0.119979605,-0.08561484,0.24872532,0.064217076,0.06574336,-0.290114,0.20274,0.012161892,0.19471832,0.046666678,0.39918864,0.094147965,0.22483307,-0.21787009,0.23722428,-0.10668851,0.033927057,0.22548333,0.16259718,-0.1248469,0.10812768,0.12471783,-0.11714489,-0.048271615,0.13074541,0.12912124,0.28146198,0.60508114,0.07527886,-0.16068782,0.5275138,0.08496667,-0.16929588,-0.0029866176,0.26895815,0.072913855,-0.1985468
0.07987933,-0.015692646,-0.2289765,-0.42646778,0.044507563,0.42559576,0.14032385,-0.073756844,-0.5141113,0.100679986,-0.042393103,-0.04342198,-0.42338946,0.11592445,0.0013909396,0.18474792,0.14490737,0.03990059,-0.2646091,-0.14627995,-0.011138869,-0.09732141,0.09163419,-0.052486703,-0.087612465,-0.2716411,-0.22827071,-0.19819097,-0.34960327,-0.26994932,0.13913614,-0.04848957,-0.09601529,-0.10710715,-0.19622159,0.16298608,-0.5941907,0.14915393,-0.06799878,0.119533144,0.008062453,-0.15414156,0.045035187,0.094631895,0.003077635,-0.17470945,0.25244984,0.050964408,-0.26844817,0.0075331256,0.11870684,0.22982366,-0.06956136,-0.31997594,-0.1385707,0.27227998,0.4486129,0.24943441,-0.08887283,0.079487815,0.20476744,0.097659774,-0.23381314,0.050713476,0.26997036,0.14890192,-0.06589777,0.12776734,0.043948583,0.06685177,0.11868553,0.08060827,0.11788635,-0.0010604042,0.097029254,0.082239345,-0.28386974,0.11905076,0.1969367,0.14634304,0.068505324,0.01243341,-0.026468242,0.36750695,0.2372836,0.23032737,-0.13994634,0.10579911,0.2740572,-0.043568123,-0.18403158,-0.0218242,0.11660979,0.33235398,-0.22952618,-0.17843564,0.21946226,0.14120893,0.06802626,-0.013010602,0.4792693,-0.23153059,0.26073155,-0.1126145,-0.3029638,0.09236092,-0.2022289,0.11273634,-0.12401314,-0.25149208,-0.031744495,0.26054016,-0.24164073,0.14533265,0.31893733,0.087362416,0.11078574,0.15859152,-0.39101452,0.04447622,0.09840384,0.020735128,-0.18524052,0.15432361,-0.0388627,0.08761418,-0.12602656,0.018288402,0.36738423,-0.06366011,-0.10899789,0.048440624,0.061656002,0.15963782,-0.0003372522,0.12240828,-0.11214659,-0.28684902,-0.13297766,0.074811056,0.10273045,-0.29821166,0.24481258,-0.09005348,-0.3737054,-0.29741976,0.0006919314,0.047967374,0.22739819,0.06814435,0.20269245,0.14177924,-0.05832237,-0.35611373,-0.2401167,0.32344207,0.028251303,0.12071223,0.08123607,0.28419477,-0.16665235,0.23075789,-0.29658073,-0.26580623,0.4648521,0.3387373,-0.079248846,-0.1465924,-0.14656796,0.03983054,0.12523468,-0.05695184,-0.1348419,0.1765631,-0.07100558,-0.15584132,-0.05031583,-0.20930566,-0.07548626,-0.09858801,0.0795504,0.055120606,0.17979534,-0.0069007766,0.24226585,0.22777385,0.021429997,-0.12564847,0.15723601,-0.34232324,0.05869312,-0.2066561,0.25069457,0.08489864,0.023598464,-0.18730924,0.18531619,-0.075218745,-0.076024614,0.03813583
-0.040112734,0.0710969,0.074923694,0.0671767,0.21053459,-0.30511537,-0.031208722,-0.13757323,0.013767786,-0.15391771,-0.117922276,-0.14705798,0.060501162,-0.16281995,0.24604487,0.04432801,-0.16580017,-0.09117677,0.16560498,0.3939956,0.06451359,0.20025419,-0.07478115,0.111033715,0.09803074,0.22367862,-0.019772366,0.21297894,0.3297859,0.18352978,-0.12990813,0.08860082,-0.055800073,0.09620057,0.25488,0.05554481,0.3175522,-0.3130384,0.058468767,-0.10739748,-0.22775708,0.17493276,-0.2304279,0.18608242,0.052158207,0.060402464,-0.18919297,0.2774597,0.017368266,0.1304018,-0.025786273,-0.19362713,0.10292662,0.104696326,0.12763935,-0.26373893,-0.051436797,-0.037499312,0.05984064,-0.06459405,-0.06904079,-0.09989256,0.061996773,-0.05214938,-0.27289125,-0.118043676,0.061312098,-0.029930098,-0.007241925,0.06382573,0.043400563,-0.015686842,-0.08055639,-0.04533179,-0.081411004,0.0024660176,-0.31827885,-0.069099545,-0.09161231,-0.24627937,0.045354586,-0.006225863,0.12147261,-0.36508065,-0.13956209,-0.19000216,0.009995074,-0.023060782,-0.10752907,-0.13418,-0.15818644,-0.1022729,-0.26295972,-0.20377883,0.047046028,-0.03783246,-0.061759736,-0.0075679957,-0.09711025,0.035029143,-0.19265889,0.010128059,0.0058663217,0.15541463,-0.082307644,-0.12285218,-0.0610212,0.06939761,0.14220876,0.016991626,0.19180746,-0.11162814,0.08799725,0.03697914,-0.14795533,-0.46564096,-0.212086,0.0019340891,0.22629716,0.11343486,0.18520276,-0.30585712,-0.18069112,0.05081155,0.27515063,0.13931459,-0.032643747,0.028300289,-0.028189668,-0.04822677,-0.054722823,-0.043902468,0.14620529,0.25318092,-0.31701177,0.41848373,-0.119708955,-0.17324589,-0.1429406,-0.090470545,-0.07964405,-0.052848134,-0.20921768,0.24331392,0.19366372,0.28364915,-0.21246679,0.11619877,0.029314756,-0.03718547,-0.20340948,-0.112294465,-0.0029125912,0.10437695,0.052801747,-0.07972272,-0.14225706,-0.06495409,-0.22519857,-0.16621265,2.2685206e-05,-0.21895549,-0.1173517,0.1836571,-0.28751504,0.04337448,0.033198312,-0.14791457,0.06737294,0.026011096,-0.054325074,0.22723463,-0.0100237345,0.23967417,0.02178147,-0.040003516,0.023109678,0.004176166,-0.06150945,-0.045637522,-0.037395913,-0.31314415,-0.12605633,0.17553452,-0.15698868,0.0175299,-0.008521098,-0.19607227,-0.083571516,-0.0527555,-0.08294376,0.035057332,-0.12080172,-0.087552525,-0.06959596,0.00413989,-0.2695739,-0.029924184,-0.21871573,-0.10364453
-0.25005424,0.40364468,-0.0009919883,0.202897,0.08031733,-0.04671322,0.05420197,0.09256956,-0.12361074,0.043870874,-0.14447823,-0.27827632,0.04886644,-0.061735462,0.3831683,-0.06728977,-0.0734731,-0.24159928,-0.08160116,0.32759857,-0.012987316,0.067126006,-0.20462222,-0.020446952,-0.050991766,-0.13286331,0.14740875,0.1845967,0.045110267,-0.043784972,-0.11633095,-0.030020256,-0.12734504,-0.020806307,0.08145403,-0.04022804,0.09429629,-0.21926804,-0.010856367,-0.059127014,0.23394948,0.021566927,-0.19875704,0.004896112,-0.11811147,-0.09037727,-0.2568676,0.13062206,0.1489611,-0.1495191,-0.1574697,-0.07456307,0.038594596,0.22289692,0.2381075,-0.1525095,-0.08218266,-0.06372648,-0.2263533,-0.021782452,-0.33682463,0.02378606,-0.15243348,0.2726175,0.06649619,-0.03236722,0.0064697587,-0.23175204,-0.24432261,-0.062107433,-0.06911984,-0.062085617,-0.1378641,0.10309967,-0.19705358,-0.11355622,-0.19176638,-0.144389,-0.046293177,-0.17737949,-0.021766048,-0.110989735,-0.0859877,-0.50255483,0.00010082217,-0.14318885,-0.1158368,-0.15660168,-0.20105167,-0.1133743,0.087737575,-0.17198467,0.09949055,-0.14505322,-0.00317163,-0.050797157,-0.23099512,-0.09446606,-0.028785862,-0.433305,-0.4677088,0.059741072,0.005181657,0.16991769,0.0504725,0.052900527,0.0023799038,0.14130875,0.22849815,0.1168985,0.103644826,0.11405258,0.16933332,-0.16656935,-0.14654098,-0.010705028,-0.096901365,0.02330506,0.27819565,0.13916814,0.011687503,-0.21240251,-0.034502234,0.29867336,0.27541757,0.18709809,0.059901435,0.1498229,0.061433565,-0.15318842,-0.11107873,-0.12371601,0.09109894,0.117528975,-0.1491206,0.28603438,0.10232407,-0.10194636,-0.13697462,-0.08815267,-0.18798128,0.2108874,-0.05431315,0.17051677,0.41025016,0.11239714,-0.024129106,-0.06614027,0.025006114,-0.14081588,-0.28733885,0.11862627,-0.19655685,0.39010674,-0.15563346,-0.047862273,-0.11376815,0.14748484,-0.26144853,0.13066202,-0.08914687,-0.18990569,0.13688225,0.14895444,-0.08059936,0.026369015,0.04202402,-0.21433304,-0.15178877,0.035084177,-0.09490568,0.006962675,-0.0749929,0.020273447,0.017404523,-0.16113509,0.090715975,0.17160437,-0.21081878,-0.18717523,-0.07113449,0.05158543,-0.041589063,-0.14442563,0.0898404,-0.03384449,-0.11068756,-0.16697754,-0.12548557,-0.07572742,0.20704591,-0.005445809,-0.084826015,-0.09944827,-0.08261655,-0.20382315,-0.2168155,0.024085533,0.0020025466,-0.26399875
0.053597644,-0.14999281,0.17117427,0.028321521,0.037139665,0.08807162,-0.13821802,-0.078413196,-0.14270824,-0.2911357,0.050794985,0.34157068,-0.16136192,-0.08778969,-0.03467377,0.076794624,0.20391025,-0.1944591,0.16642429,0.033751175,-0.060142543,-0.11220055,0.11048646,0.09623406,-0.07005465,0.06458827,-0.59359103,-0.07368224,0.14883734,0.17254299,0.037098143,-0.008630038,0.18708302,0.08232277,0.077565946,0.1385942,-0.19568546,-0.15632223,-0.0653092,0.04914226,-0.08820925,0.1345635,-0.15180989,0.100788124,0.011112832,-0.10719073,-0.06711589,-0.23911494,0.18439047,0.04756494,0.06658816,0.041240595,-0.14803302,-0.02891044,-0.06792412,-0.09260644,-0.14501223,-0.08889503,-0.15477802,0.06528819,0.024731392,0.15430358,-0.14115001,-0.24985375,-0.0844336,0.07205409,-0.11124291,-0.022428995,-0.09314953,0.08180706,-0.0939739,-0.12446328,-0.05429342,-0.29744345,-0.12638174,-0.04020903,-0.4745793,-0.33147898,0.03181944,0.013540164,-0.07709376,0.26340514,0.040163387,0.003720687,-0.030368645,0.16831322,-0.10136541,-0.046050556,-0.19340579,-0.32717386,0.07212655,0.071315475,-0.058096133,0.034609873,0.055531688,-0.054207157,-0.1346154,-0.26222444,0.12600867,-0.09291714,0.08709307,-0.08585739,0.031785596,-0.1878194,-0.32030553,0.01106247,0.07608375,-0.022103732,0.17436813,-0.0049702707,-0.11616382,0.16157407,-0.07775757,0.07409615,0.00866228,0.11112601,0.104407616,-0.08439053,-0.102199316,-0.0014108701,0.07296906,0.004877786,0.09599745,-0.084608585,0.0949648,-0.06365959,0.19550237,0.081959814,0.0898103,0.04778961,0.010286916,-0.029705217,0.1079195,0.078030914,0.13933307,-0.26354682,0.07305704,-0.022507114,0.012299332,0.114710934,0.06501263,-0.10788214,-0.028568313,-0.1188134,0.14769287,-0.028010173,0.0781634,0.12980554,0.09413286,0.13303328,0.16932105,0.26537076,0.18004596,-0.20315632,-0.077741824,-0.049836166,0.028113214,0.08766752,-0.1550568,-0.26556334,-0.07881075,0.13788731,-0.053480595,-0.44484895,0.10442536,-0.13179223,-0.11129458,-0.17803878,0.11030155,-0.18201919,0.14600709,-0.047408614,0.024008248,0.1421555,-0.26439303,0.06629743,-0.27609837,-0.09054121,0.24207403,-0.060926333,0.047676995,0.16215299,0.024700144,-0.1264157,0.049481336,0.18939734,0.1043516,-0.26547182,0.05346285,-0.28911507,0.0057250196,0.08423199,-0.18797489,-0.29480717,0.14194831,-0.05334726,-0.2625259,-0.15732895,-0.025394646,0.092435926
-0.074650325,0.032208722,-0.039990816,0.20625648,-0.02300558,-0.35330236,0.07726531,-0.10241752,0.41333774,-0.11632187,-0.040861648,0.19005114,0.31237656,-0.11541016,-0.29316726,-0.27624458,-0.13068335,-0.12208136,-0.085253,0.098172285,0.13101725,0.083558165,-0.037473805,0.14023729,-0.020043073,0.2118937,0.02502672,0.44690087,0.0020312427,0.25920668,-0.2020041,-0.073573925,0.039731767,-0.102523774,0.118918575,-0.10271604,0.1623034,-0.36883995,0.024514062,-0.24155171,0.20889503,-0.13387437,0.018934878,-0.24753991,0.09269137,0.25931156,-0.22841893,0.0693558,0.21236119,-0.01988202,-0.12399738,-0.17287283,-0.22607411,0.23746736,0.0827357,-0.13677108,-0.32229954,-0.24829084,0.0333628,-0.13561673,-0.31127685,0.23149054,0.3319662,-0.06284264,-0.4513125,-0.09826331,0.2583827,-0.3392205,-0.2665936,-0.13836108,-0.16821645,-0.3338888,-0.13056602,-0.040070638,-0.29139492,-0.08420406,-0.13187067,-0.26195106,-0.24352027,-0.10317219,-0.08970668,0.13910908,-0.01499565,-0.46634254,-0.115931384,-0.09382177,-0.07111355,-0.26589972,-0.31428486,-0.1411626,0.2777744,-0.0698001,-0.1264379,-0.37608957,0.25799966,0.19451778,-0.14839765,-0.10138887,-0.16844109,-0.073869005,-0.24492998,0.23610456,-0.093704335,-0.087751016,0.17399405,-0.22102654,0.08208895,-0.009566636,0.27107623,0.070197046,-0.10588092,-0.31765231,-0.06408101,0.03856292,-0.29903734,0.18489762,-0.102733664,-0.08776242,0.26825196,0.020451482,-0.03665295,0.024847995,0.19162738,-0.15927905,0.15169983,0.025864983,0.10941287,0.019232705,-0.03675251,-0.056979705,0.023738407,-0.04935668,0.017862225,-0.040793736,0.24809657,-0.28649053,-0.017369399,0.118900634,0.13450997,-0.082686804,-0.009364214,0.11516383,-0.0061010183,0.12090118,0.033998005,0.15711245,-0.0459734,0.21294115,-0.07466748,0.15354961,-0.0587145,-0.044038773,-0.30180842,0.24525248,0.18178126,-0.26534456,-0.25087678,-0.4504874,-0.105125576,-0.12774265,0.06106049,-0.013896107,0.3166608,0.21831617,-0.19690695,-0.057481997,0.23995377,-0.13402222,-0.14716257,-0.067708075,-0.32440636,-0.13274683,-0.21094263,-0.15548436,-0.050670765,0.23844752,0.06122437,0.16433139,-0.11475798,0.2423602,-0.14534454,0.12640558,-0.13350289,-0.21315432,0.0806985,-0.1881069,-0.14977163,0.0031898455,-0.21266554,0.1979474,0.21261363,0.30425906,-0.024038529,-0.15329137,0.0017971165,-0.047583852,-0.13186294,0.020786049,-0.048914857,0.04029371
0.11615909,0.4394206,-0.19012475,-0.20809779,-0.03822209,0.3405594,0.37750676,0.03118884,-0.122497015,0.00457708,-0.004144803,0.09688551,-0.38892913,0.11418298,0.28331065,0.030097364,0.04465307,-0.03458946,0.15034223,0.02401393,0.04881384,0.06811295,0.05623482,0.003439617,0.1320482,0.02805576,-0.30390367,-0.047212746,0.24821964,-0.113740824,0.38223645,-0.14203408,0.18359162,0.11223967,-0.13765995,0.0782313,-0.13944128,0.09707465,0.13502093,-0.27587992,0.13195014,0.051455017,-0.055428836,0.14416945,0.29612935,-0.26941866,0.05691716,-0.14424127,0.21374153,-0.04808657,0.08324439,0.48331898,0.086102135,-0.116312854,-0.4070222,0.1708718,0.33999473,0.06632838,-0.049421635,0.0042412966,0.21658373,0.09220329,-0.32896093,0.029756198,0.078095175,0.18948582,-0.058553435,0.2537513,-0.022532148,0.27971575,0.16127698,0.26677915,0.07906887,0.18964191,0.1698062,0.120571956,-0.19974796,0.2721158,0.24967478,0.119185686,0.24976912,-0.17653143,0.14098763,0.11955381,0.180586,0.03405984,-0.09301188,0.18166956,0.33891666,-0.24634358,0.10669419,0.17820409,-0.13238886,-0.014551504,0.11131604,-0.05778658,0.024467621,0.2546829,0.2241242,0.038273018,-0.2602879,-0.25088826,0.07494225,0.24349703,-0.2514438,0.1283056,-0.20734131,0.022128,0.08537748,-0.03945059,0.23214585,0.27303246,-0.16529697,-0.045878194,0.17707294,-0.23526715,0.052233722,0.0809874,-0.17309457,0.16096772,0.02131217,-0.25220582,0.07141848,-0.108995475,-0.01364488,-0.11363991,0.0059505654,-0.04618859,0.22665977,0.0048690564,-0.25848538,-0.034415524,0.18142739,-0.14218804,-0.07447336,0.16091546,0.077602595,-0.08774945,-0.06600181,-0.071654,-0.060873132,0.10795943,-0.07073789,-0.12436774,0.33018878,-0.0007250755,0.13327931,-0.12335863,0.16047186,-0.09047339,0.2955748,0.22367235,0.12111905,-0.15801762,-0.36580744,0.34473896,0.5550474,0.27734035,-0.036094487,0.09106516,-0.18129854,0.11149514,-0.35459024,-0.16751313,0.45628414,0.063644275,-0.028963463,-0.061550133,0.15564993,0.25997564,0.15266241,-0.06610587,0.20047599,0.2999063,0.0949417,0.097417705,-0.24383678,-0.1289994,0.23738284,0.0053601405,0.50852615,0.06803623,0.052368592,0.2215114,0.21100427,0.24663574,0.044062965,-0.01582265,0.3354527,-0.45726776,-0.13157469,-0.02246708,-0.036423855,-0.077380985,0.020837333,-0.1855393,-0.16252802,-0.09362834,0.49861237,-0.1291694
0.10877934,-0.08273956,0.116961114,-0.008849724,-0.0838554,-0.14854445,-0.16718984,-0.11203519,0.24741584,0.08644107,0.24750975,0.08832579,0.00033304174,0.041806616,-0.1529242,-0.024097204,-0.23969421,-0.2157218,0.00078932603,0.42801175,0.08746304,0.118497476,0.1443681,0.13375266,0.057388153,0.024137424,0.15490606,0.10485832,0.1696116,-0.004759218,-0.00085964205,-0.08775357,0.041640237,0.27501458,0.45603654,0.037845284,-0.25502875,-0.25889173,0.057627212,-0.015346188,-0.04050162,-0.062459823,-0.06183898,0.04976633,-0.17321761,0.0866241,-0.045961145,0.03969268,0.008409165,-0.09028705,0.07533446,0.09047183,0.013123432,0.2188225,-0.036745008,-0.08043714,-0.20775108,-0.14390287,0.08181564,0.10327801,0.014237288,0.1795945,0.31447816,0.10211162,-0.11778565,-0.03251049,0.21736261,-0.11259052,-0.06891982,-0.008830747,-0.06313078,-0.047088288,0.107864834,0.10760475,0.06305429,0.054971915,-0.1726114,-0.076395,0.1106568,-0.10394578,0.020725744,-0.13190424,-0.09224753,-0.11642888,-0.07314663,0.088570766,-0.3836806,-0.036713324,-0.09921796,0.04654304,0.15297869,-0.08013688,0.03150166,-0.18895185,0.18558508,-0.0056167864,0.064709485,-0.24556169,-0.11963526,-0.0577057,-0.013527795,0.19291285,0.12091074,0.17070127,0.059773993,-0.17484263,-0.14415966,0.10357274,-0.087024406,0.08672174,0.29774335,0.2905296,0.054176386,-0.038261916,0.059487794,-0.2646693,-0.063814566,-0.06239094,-0.054946866,0.22761986,0.16587283,-0.0586539,-0.05920177,0.16741179,0.17310783,-0.0054714507,0.019817922,0.05199971,-0.1071724,-0.05705976,0.071245514,0.13487972,-0.010797612,0.22105195,-0.10926435,0.108398154,-0.10907577,-0.068592906,-0.05162621,-0.11002807,-0.014200607,-0.026033454,0.07432455,0.16396877,0.13280803,0.14294867,-0.12935832,0.10988324,0.14076278,0.0007715779,0.09521675,0.13188174,-0.19261293,-0.04376617,-0.2915025,-0.13897935,-0.2520461,-0.21347706,0.021194372,0.17659944,0.22260521,-0.18626885,0.03413539,0.17982373,-0.19481939,0.28980958,0.11011291,-0.18448175,-0.065949395,0.017105982,0.03864019,0.11826889,-0.014561106,0.0062996373,0.24566612,0.035832677,0.0943822,0.1624581,-0.0092648445,-0.08151161,-0.037883125,-0.33884877,-0.22785364,0.16527349,0.17288958,0.059327975,-0.2601882,0.008094236,0.07797314,-0.011789831,0.060489602,0.1594943,0.100188635,0.02792805,-0.13054901,0.16432644,0.04846837,-0.06944546,-0.052389473,-0.16602063
0.0777701,-0.06224004,0.007118079,0.15818608,0.13571583,0.10146693,0.17981446,0.14102319,-0.14452428,-0.0010524102,-0.08689265,-0.10467808,0.10802087,-0.054526865,0.106332295,-0.23592295,0.043147616,-0.13100192,0.1773824,0.0068755653,-0.040790256,0.046081513,0.0028190985,0.12657464,-0.08999896,-0.10844891,-0.055700794,0.10235903,-0.035033204,0.05267009,-0.025119515,0.011709308,-0.12116158,-0.15040448,-0.026557162,-0.003327244,0.11088454,-0.14872041,0.09146191,0.003686055,-0.058998298,0.018871874,-0.12510623,-0.19921947,0.14959885,-0.06633584,-0.04662503,0.04727572,0.027762897,-0.23397325,-0.20670429,-0.2735284,0.23645562,-0.016493825,0.06674822,0.19753388,0.19577359,0.36169973,-0.2203062,-0.15173744,-0.03872328,-0.100113645,-0.042434953,-0.056384787,0.03947704,-0.21185105,-0.12062927,-0.055905763,-0.06668184,-0.15154152,0.106766455,0.09223589,0.10550383,0.17468856,-0.23760973,-0.054603696,-0.085254714,0.12878624,-0.17370883,-0.15295108,0.0595259,-0.09442585,-0.14399318,-0.02584753,0.040877726,-0.15388307,-0.07680083,-0.15902159,0.058638383,-1.9930242e-06,-0.22296724,-0.26679724,-0.14035405,-0.032869343,0.031129444,0.056253094,-0.07841642,-0.15208694,-0.08955995,-0.10430875,0.036294572,-0.08563277,0.017741691,0.1901111,0.121827535,-0.19360736,-0.055691857,0.037291806,-0.033968218,0.030757723,0.11967305,-0.042705756,0.2587262,0.04563957,0.10808893,-0.10837735,0.08315685,-0.13702974,0.34374532,-0.1552319,0.2447149,-0.10650516,-0.23536089,0.107738145,0.21045987,0.07230827,-0.015587693,-0.05230124,0.15504262,0.087979324,-0.21312371,-0.077584766,0.030667372,-0.009148176,-0.23715876,0.24505149,-0.0632456,-0.24281706,0.03918937,-0.016112655,-0.1948503,-0.062265854,-0.2015147,0.084260896,-0.0060704853,-0.038035747,-0.15104145,-0.16293128,-0.0057945233,-0.29892135,-0.0032903955,-0.4128005,-0.096111625,0.13015884,-0.023051754,0.14790395,0.017909,0.32150918,-0.12817079,0.039032515,0.061363377,-0.014628925,-0.014675792,0.083993606,0.039492935,0.1412038,-0.23473594,0.05878357,-0.13779768,0.27793178,-0.025578782,0.022429757,0.061026946,0.11730049,-0.047383144,0.16252331,-0.10897603,0.096001185,-0.08655947,-0.13102949,-0.14268084,0.107096426,0.0008256851,0.16617218,0.16600578,-0.045621607,-0.05293097,0.13531995,-0.024455989,0.050069004,-0.21395679,-0.1795937,-0.018644445,0.20261392,-0.0030972576,-0.15562966,-0.12830345,0.09288094,-0.06132202,-0.30783194
0.44498426,-0.24311748,0.25187472,-0.21519978,0.08772525,0.00029886802,0.20280032,-0.07022233,-0.09863868,-0.26846322,-0.014791615,0.20895192,-0.04765535,0.02172857,0.1123777,0.26438934,-0.0448052,0.2566776,0.19544272,-0.2371978,-0.09563556,-0.3403719,0.2551042,0.33351642,0.053455193,0.069615364,-0.23116645,-0.2836313,0.030609105,0.012408086,-0.16108769,-0.23360306,0.21715656,0.10829441,0.01771936,0.0837324,0.34293517,0.23895232,0.11028525,-0.09162807,-0.60926247,0.13115406,-0.05698652,-0.08892274,0.10191668,0.014158594,0.14317419,-0.35423905,0.05079702,0.08879488,-0.019725002,-0.6518847,-0.08729984,-0.32071015,0.05923658,0.02597249,0.010975856,-0.1805395,0.029440016,-0.15697506,0.100704506,-0.006820111,-0.027854335,-0.03859593,0.035224896,0.011548368,-0.06829516,0.12275676,0.03951902,-0.090861015,-0.020055352,0.021636596,0.33700764,0.09029322,0.2148542,0.072204866,0.08980192,0.033428434,-0.06907792,0.15868416,0.012702404,-0.019752907,0.057229236,-0.099751,-0.20629975,-0.037506502,0.29832447,0.04290195,0.0141970655,0.043884255,-0.85628575,0.096240096,0.011720922,0.020834433,-0.03038786,-0.1546809,-0.06438374,0.08130357,0.20609777,0.28290525,-0.19215703,0.0061099483,-0.13268796,-0.34713668,0.033937566,0.18984929,0.15869159,-0.07526953,-0.29916942,-0.121117756,0.10659602,-0.18023825,0.07925578,-0.038804486,-0.21179016,-0.2023942,0.08201028,0.06473241,-0.15443987,-0.06960762,-0.114987664,0.064376086,-0.035098784,-0.29717454,-0.29149228,-0.17453265,-0.057818566,-0.19219577,-0.22606046,0.008574282,0.1743118,0.060195923,-0.15322092,-0.18499467,-0.2756416,-0.06957102,0.33190507,-0.14256138,0.11734875,0.11581957,-0.121418536,0.026095957,-0.028134983,-0.16462067,-0.012812352,0.048003215,0.037513766,0.30609545,-0.25451666,0.016917031,0.024413751,-0.24321294,0.26620132,-0.14907916,-0.09673001,-0.16773112,0.066443264,-0.24266036,0.17431983,-0.16258188,-0.082163565,0.031957787,0.11629195,-0.2114661,-0.16446358,0.024559824,0.09741658,-0.20873883,0.1501543,0.068676524,0.08167378,-0.42877758,0.28306022,-0.046170842,-0.4235287,-0.18911365,-0.1151194,-0.49137452,0.11169614,-0.0138479015,-0.1142128,-0.100708045,0.110410616,0.011678828,0.045200597,-0.017001385,0.4279167,-0.20282945,0.042496383,-0.0016165129,-0.5420485,-0.10993369,-0.20407921,-0.5991419,0.37369272,0.019920284,-0.22729146,-0.22442085,0.16801855,-0.16198815
0.037433524,-0.14968063,0.002611107,-0.17879024,-0.019182194,0.00804296,-0.17532092,0.13869634,-0.15657075,0.0067702816,0.05975238,0.182861,-0.18892866,0.08210505,-0.077370755,0.21929829,0.01786771,0.21763569,-0.19383387,-0.0962715,0.13873917,0.1256462,0.16328095,-0.0104031805,-0.0018556954,-0.06232393,-0.1163526,-0.043217596,-0.12753692,-0.053081065,0.096227325,-0.08718595,0.03846485,0.2641462,-0.039597534,0.13255824,-0.17346163,0.22409062,0.06786819,0.095272034,-0.20101736,0.008965652,0.21966445,0.065905385,-0.016088473,-0.011557138,0.33536437,0.0010500933,-0.2695753,0.13227457,0.15016302,0.10181321,-0.123341694,-0.18859151,-0.16717926,-0.034438394,-0.19018514,0.13679118,0.13373764,0.021726424,0.2238313,0.07861672,-0.08155914,0.090382904,0.1597881,0.019427141,-0.06302813,0.21596205,0.039431624,0.2411564,0.2047172,0.1343702,0.23980789,0.07771366,0.24593957,0.04790468,0.08268705,0.15313023,-0.09925892,0.17474774,-0.23793489,0.0066197226,-0.17124867,0.29206446,0.060960326,0.15109585,-0.039280042,0.30173245,0.17472154,0.20106296,-0.101094544,0.16585888,0.167013,0.3240825,-0.1448416,-0.19039467,0.24378572,0.14299935,-0.15078661,0.19488321,0.16945338,0.19411409,-0.07677952,-0.2355929,-0.10557219,-0.12906797,0.0021999918,-0.14460297,-0.25339526,-0.16761239,-0.03900611,0.05176568,-0.058344986,0.13705674,-0.039857864,-0.09870173,0.0041914675,-0.096095465,-0.24320883,0.035485134,-0.030794475,0.025369987,0.08171227,-0.023099728,-0.12949622,-0.09941411,-0.06465131,-0.0951012,0.06612106,0.056239944,0.21599574,0.07243648,-0.09079755,0.061117735,-0.12950602,0.055268433,-0.060659494,-0.04488319,0.062489793,0.083227314,0.16209674,-0.13343292,0.08307822,-0.24416417,-0.40241235,0.033886876,0.04354526,-0.04281581,-0.0019563946,0.10144522,0.051141977,0.05199697,0.15700026,-0.15745907,-0.034448974,0.071734555,0.044697847,0.061743,0.12680486,-0.060913693,0.047881436,-0.056687612,-0.014573575,-0.0049334047,0.1251341,0.008117014,-0.08532085,0.18350361,0.14195156,-0.26441196,0.07048889,-0.022020891,0.07742848,-0.052158397,0.15818614,-0.017599741,-0.18508597,-0.14986676,0.07073683,0.06411101,0.1773756,0.05534253,0.054466676,0.15636532,-0.1678282,-0.26878026,0.088305175,0.28736952,0.048654694,0.13835678,-0.020367254,-0.34688485,0.12360732,-0.05077955,-0.12712432,0.09596917,0.18076,0.075772665,-0.20080635,0.14461428
-0.034343183,-0.022615459,0.11111077,-0.004997836,0.39126867,-0.10673245,0.08223868,0.15461849,-0.08292345,0.064051986,-0.0898484,0.009305009,-0.044816133,-0.060758416,-0.029393189,0.06764362,-0.22052,-0.10822349,0.18841767,0.045416858,0.0210911,0.20131183,-0.05296376,-0.04718616,-0.05107522,0.0990259,-0.079710856,0.008940821,0.23535553,-0.08355944,0.013399972,0.16367286,-0.010467703,-0.00986229,-0.20976372,-0.14717562,0.32334104,-0.24532734,0.15464188,-0.1447657,-0.011126452,-0.03471722,-0.30998582,-0.043505404,-0.02215301,-0.063312724,-0.14641899,0.16188842,-0.059320748,-0.04821388,-0.16091146,-0.26542306,0.20044601,0.058746506,0.06317343,-0.04050935,0.032741938,0.018108917,-0.21487556,-0.17530641,-0.061135184,0.04769812,-0.044688866,0.0034899411,-0.14414069,-0.080182046,0.012364574,-0.115368396,-0.17209195,-0.014416069,0.051261712,-0.076193504,-0.2078972,0.035648476,-0.057580367,-0.20499521,-0.21132565,0.038766164,-0.18897389,-0.19004565,0.040250167,-0.0113777835,0.08408695,-0.31197277,-0.109236926,-0.016969986,-0.14863056,-0.112070166,-0.18989585,-0.009861053,-0.029732952,-0.17336877,-0.32343906,-0.065478064,0.132767,0.034002192,-0.26708654,-0.18731405,-0.047855668,-0.27252093,0.0796899,-0.13845894,0.12504683,0.18617578,0.1943678,-0.0012082509,-0.05649631,0.08444211,0.16861413,0.037329637,0.25014523,-0.12875338,0.09504824,-0.23944399,0.0664665,-0.10038772,0.06270908,0.11755233,0.15526421,0.21357125,0.14830118,-0.21351033,-0.2710468,0.15788262,0.18778919,0.032428697,-0.0469182,-0.0036011338,-0.018129306,-0.09893476,-0.19271436,-0.0057359296,0.16829969,0.22524185,0.06953687,0.1731038,-0.19278094,-0.13454819,-0.15302639,-0.059724722,-0.20011877,0.013040348,-0.13118926,0.13530512,0.17474939,0.033240676,-0.1782364,-0.0099360375,0.06436124,-0.018123964,-0.22475968,-0.32094753,-0.09937123,0.18148264,0.2120301,-0.108602084,0.11986577,0.2810558,-0.15241508,-0.107493125,-0.1605167,-0.21067177,-0.007283077,0.1581279,-0.22596881,0.23376176,0.014563288,-0.008167387,-0.13398172,0.077585354,-0.049419563,0.058165018,0.168916,0.17071046,-0.07251777,-0.1678587,-0.049020037,0.11479042,-0.33826318,-0.23990186,-0.076174185,0.048150767,-0.17857938,-0.01885786,0.08855151,-0.1648696,-0.2054968,-0.085664205,0.068123005,0.16034429,-0.08599562,-0.15410322,-0.3509909,0.33382493,-0.08518458,-0.22959824,-0.21816203,0.24634421,0.0138748335,-0.23221505
-0.060149424,0.28016296,0.0730063,0.024364945,-0.15434214,-0.039211288,-0.02505667,0.01114917,0.24999255,0.15629949,0.024782041,0.01400331,-0.1461713,-0.024759773,0.057554517,0.045797136,0.27516407,-0.13631387,-0.12156831,0.35422596,0.06790331,0.19850186,0.041220397,0.10949612,-0.076265655,0.10695627,-0.020083351,0.16459925,-0.10209727,0.2717894,0.06968186,0.004905781,0.16397007,0.35081854,0.21418038,0.07993222,-0.25980568,-0.015855735,0.049808566,-0.19756298,0.549734,-0.04857449,0.14627947,-0.15418157,0.49852133,0.12477361,0.00037214393,0.2142771,-0.19574018,0.04265076,0.0611806,0.19386059,-0.29424816,-0.07151796,-0.046183582,-0.0006760738,-0.14318657,-0.16180998,0.23169672,0.20599912,0.058062732,-0.009311797,0.006161541,-0.15325853,0.057682317,-0.058177073,0.015475261,-0.20851755,-0.23184644,0.058893356,-0.18600202,-0.10382738,-0.00037491717,0.09538403,-0.033238187,-0.06420361,-0.35450542,-0.32900757,-0.04321045,0.08781107,-0.10257634,0.04347356,0.12638916,0.065771505,0.0035970488,0.27570614,-0.05968215,-0.09900952,-0.011300568,-0.1940429,0.4851332,0.051959246,0.15462342,-0.22363034,0.34390154,0.17389494,0.17545891,-0.057480473,-0.20141093,0.12999581,-0.09988573,-0.0066716736,-0.06291702,0.026011646,0.107628874,-0.13711905,0.13117021,0.006032238,0.10072552,-0.1264493,-0.35592115,-0.03850869,-0.36815554,0.05630496,0.051057387,0.06846782,-0.069506824,-0.2151827,-0.07923406,0.19266753,-0.25154933,0.01665634,0.2393941,0.0014540206,-0.21156755,-0.07725527,0.05829279,-0.09460123,-0.10313962,-0.17163901,0.04620057,-0.028066719,0.0144925555,0.0447912,0.19484617,-0.1001708,-0.036843546,0.04415172,0.041031886,0.29319125,0.10571453,0.15038252,0.15794778,-0.011367046,0.12780395,0.14961399,0.2578269,-0.038434245,0.10148408,0.092598386,0.3086923,0.17692146,-0.21087001,-0.22396712,0.086404055,-0.04641292,-0.08146244,-0.12546012,0.21955529,0.3274338,-0.14349402,0.1017395,-0.16798112,-0.0794384,0.17739765,0.36717984,0.09967993,-0.14784789,-0.15776329,0.0979278,0.03957241,0.19651382,-0.32613096,0.013427601,0.11855558,0.14988367,-0.40120965,0.1833929,-0.05592523,0.2252735,-0.11697334,-0.054344106,0.12329412,0.2500874,0.18593116,0.058407832,-0.36511528,-0.0882762,-0.1633628,-0.08449379,0.66594654,0.2675294,0.21330766,0.07665079,0.18478237,0.17727125,0.34552285,-0.16453348,-0.43313485,0.20746271
-0.045325097,-0.20811135,0.0355709,-0.20848754,-0.17438325,-0.042443976,-0.30494976,-0.07530882,-0.19493513,-0.26138732,-0.021885755,-0.17911634,-0.26524225,0.34639037,-0.07866385,0.04157974,-0.10878427,0.2504917,-0.20744905,-0.046615217,-0.31339684,-0.12553313,0.06821578,-0.11816583,-0.21914577,-0.09234511,-0.023186803,-0.20397872,0.031439032,-0.1382713,-0.20064865,0.07245993,-0.08703173,-0.12672596,0.05376313,0.079914816,-0.2498186,0.096177466,-0.2166096,0.05240838,-0.39606565,-0.10350724,-0.06434036,0.08387702,-0.14241952,-0.085888,-0.03848146,-0.6036601,-0.21219315,-0.09414788,0.09171125,-0.0008932549,-0.020966854,-0.026005572,-0.36838648,-0.021758657,0.03571033,0.16651104,-0.25456783,0.12009905,0.035605565,-0.013824698,-0.0378841,0.3089423,-0.054187987,-0.1076961,-0.062115654,0.16918254,0.23998705,0.15721235,0.033024434,-0.0026659495,0.098236986,-0.018751178,-0.04038461,-0.0022340927,-0.029425586,-0.088088825,0.23232134,0.074121,-0.14238715,0.17804438,-0.18424596,0.03661724,0.103402145,0.041526668,-0.14632483,0.018857894,0.11572905,-0.14857006,-0.3761093,-0.25903997,0.044774223,-0.07454981,-0.21699873,-0.11452503,-0.0044413777,0.08639963,0.16282983,-0.0004285922,0.032295294,-0.0640714,-0.0046160086,-0.0044903606,-0.20544048,0.06032338,-0.028457668,0.0925464,-0.21544357,-0.023491416,0.05333435,0.30965176,-0.21995807,-0.1259038,-0.05788739,0.04031669,-0.18883292,0.08706275,-0.16327082,-0.10847475,0.11870863,0.013449611,0.15026905,0.05577227,-0.055223726,0.015993368,0.04333477,-0.11655976,-0.109992385,-0.026242226,0.14922507,0.13794537,0.07579634,-0.017840685,0.06578459,0.12375951,0.16258112,0.11552264,0.20649284,0.065141276,0.15241899,-0.30046088,0.10856855,-0.04642516,-0.037845705,-0.06786941,0.16910924,-0.015153855,-0.04058797,0.03564812,0.011103548,-0.1807768,0.17213437,-0.140875,-0.28028283,-0.0075767008,-0.047215354,-0.036250263,-0.07982821,-0.07892144,-0.196845,-0.05417705,-0.1963119,0.052540235,-0.120129004,-0.19859654,0.050332237,0.025127692,0.16872406,-0.107436895,-0.1293549,-0.006872422,0.093812875,-0.29597944,0.029773837,-0.12733439,-0.052520454,-0.3115397,0.14116849,-0.077626735,-0.012413749,0.01782191,0.00061616884,-0.12204497,-0.08843706,0.101938106,-0.059376884,-0.23051797,-0.010264942,-0.512249,-0.09914552,-0.18458356,-0.17273392,-0.45160085,-0.23160593,0.044839732,-0.0781949,-0.40635243,-0.07730873,-0.0653036
-0.586489,0.33663267,0.1960496,0.37445992,0.07475025,0.26963276,0.034379788,0.26968423,0.20619911,0.15233594,0.1501274,-0.19602263,0.20969921,0.0640723,-0.15038669,-0.2547474,-0.072729416,0.019661635,0.07282854,0.1366045,0.12617894,0.0061635803,-0.3313385,-0.31935015,-0.057425033,-0.016159488,0.18189289,0.53204906,0.2120291,-0.039356384,0.45303598,0.17878087,-0.007135203,-0.20681046,-0.46778736,0.017469656,0.13663583,-0.13988453,0.14516258,0.25445783,0.7528336,-0.09854746,0.22344908,0.14267619,-0.017548874,0.1252091,-0.09800489,0.3289881,0.214177,-0.0072822245,0.12791555,0.8195589,0.35332304,0.36493972,-0.119872965,0.04856918,0.17087296,0.17627528,-0.12992893,0.05014701,0.15379661,0.015010886,0.11157125,-0.23423848,-0.11862351,-0.035271034,-0.07317136,0.013814764,0.19942576,0.07071039,0.047219336,0.062353563,-0.17986687,0.030048842,-0.14384273,0.0969359,-0.07147689,0.07407355,0.2057923,-0.010533076,0.23570949,-0.0144810015,0.08840769,-0.099181384,0.2291291,0.072883464,-0.007783463,-0.08953471,-0.155784,0.10224463,0.9769364,0.1537043,0.049985167,0.10533529,0.098260835,0.26125628,-0.043055955,0.1887674,0.12942968,0.05035909,0.18544392,0.086619094,0.03202247,0.29698488,-0.088381745,0.04725272,-0.004498876,-0.15621276,0.121564165,-0.079513185,-0.21854486,0.077644534,-0.040732753,0.05503459,0.17601968,0.46226603,0.12711108,0.0512166,0.21513355,0.121748805,0.14541322,-0.21667047,0.016132424,0.3120849,0.0074315486,0.17995626,-0.075026974,0.20456721,0.14833005,-0.14069843,-0.36088422,-0.033483952,0.21451879,-0.037629284,0.51739633,0.012724814,-0.23425895,0.23545192,-0.0906943,0.14026012,0.22767074,-0.0810109,0.055424023,-0.010891034,-0.034667477,-0.10410057,0.19192383,-0.23142429,0.17103481,0.094881035,-0.17451529,0.5885801,0.12430372,0.078031115,-0.086026646,0.3610683,0.052670322,0.2389053,-0.0035540778,-0.013851207,0.16175628,-0.13670939,0.22673933,-0.17029472,-0.18241638,-0.22150837,-0.16959813,0.28244317,-0.11722316,-0.024135137,0.11281097,0.40262955,-0.2954905,-0.19213782,0.32811293,0.18435842,0.10345246,0.560119,0.06132347,-0.14994855,0.25425023,0.21205343,0.037810843,-0.05750005,-0.24832442,0.06291158,-0.02445191,0.43044347,0.116612814,0.18902877,0.8136596,0.22494325,0.07422258,0.43897447,-0.40436727,0.27879727,0.28726426,0.109905586,0.15670377,0.30149677
-0.043285284,-0.091571726,0.053354856,-0.03528436,-0.11603722,-0.050798953,0.23734242,0.045660872,0.23199895,-0.2697954,0.30983692,-0.19624616,-0.01651733,-0.3020269,-0.106257595,0.14299016,-0.16299726,-0.055614285,0.11208231,-0.17543569,0.50213027,0.13136645,0.13524605,0.15052392,-0.15823391,0.26147968,0.0989302,0.20595327,0.17357281,0.1396045,0.12068564,-0.0035990307,0.047333736,0.023325602,0.25744924,0.13093467,-0.058074266,-0.038248304,0.31325987,-0.13593063,0.29956475,0.17295566,-0.215175,-0.010876045,-0.3294377,-0.0076271035,-0.039305747,0.00797937,0.3288041,-0.11943341,-0.040453624,-0.071459234,-0.17840746,0.16965923,-0.1941013,-0.22509018,-0.09892049,-0.32385904,0.24178018,-0.3006654,0.17140329,-0.065976575,-0.20494115,-0.34218034,-0.10354116,-0.15219264,-0.0036246695,-0.057680156,-0.13916838,-0.12656218,0.33967188,0.078365944,0.27695873,0.12691419,-0.0011006155,0.14248411,-0.25299534,0.063914716,-0.19420959,0.16113782,0.05204948,0.014758597,-0.15425333,-0.1653715,0.4214767,0.14138998,-0.22142057,-0.18786635,0.35069486,-0.20894681,0.25126204,0.06021797,-0.21610396,-0.17268772,0.37350842,-0.17274196,-0.19032925,-0.41267613,-0.15930276,-0.13389601,0.12242916,0.027915893,0.31810465,-0.19606112,-0.057084456,0.08060871,-0.0648101,0.07251866,0.015500484,-0.14571996,-0.44221812,-0.14205183,0.11315991,0.12184039,0.039586876,0.0069217193,-0.031044953,-0.11529387,0.14639808,0.049707886,0.050572325,0.47497723,0.057781436,-0.10942911,0.13207455,0.07107244,0.39021808,0.056156293,0.13790758,0.092035405,0.04608398,-0.17822102,0.05904644,0.036794033,0.28391162,-0.17900333,-0.18283339,0.048987422,-0.07773979,-0.12301246,-0.0354274,0.12791236,0.028719457,-0.044397056,0.0803566,-0.04020116,-0.1269206,-0.032925792,0.15006888,0.072741516,0.090923086,-0.37217435,-0.2830785,-0.10804392,-0.20409869,0.07944773,0.13493423,0.015987765,0.049739752,-0.5339058,0.27984908,-0.25418162,-0.16520813,-0.32923838,-0.22588669,-0.04582051,0.13592029,-0.0954367,-0.0409954,-0.20312053,0.751982,0.115346,0.505591,0.19679011,0.005816492,0.15373428,-0.18878144,0.13730814,0.01676559,0.2886876,0.027541323,0.23532774,-0.09522092,0.008020798,0.5591707,-0.096047334,-0.09027265,-0.047664713,0.13542387,0.035336494,0.036242403,-0.020985954,-0.1764642,0.013192155,-0.16210829,-0.16944487,0.043348555,-0.04910168,0.10784107,-0.18225831
0.19921385,0.32762462,-0.14026052,-0.038470812,0.0803078,0.025133876,-0.08984935,0.029181758,-0.35458168,-0.11912456,0.07512758,0.041430894,-0.08881752,-0.07606377,-0.019484278,0.07099264,-0.24053323,0.08429211,-0.19098184,-0.2243364,-0.13713491,-0.40550387,-0.13171037,-0.042118657,-0.13096453,-0.33268812,-0.0049659796,-0.43651685,-0.20187108,-0.29851615,-0.014787887,-0.009559726,0.20368113,-0.09155837,-0.115365975,-0.008078875,0.053784557,0.2380901,-0.25320932,-0.0095437765,-0.31319395,-0.07333534,-0.143862,0.1739682,-0.23150712,-0.24191712,-0.0066438885,-0.3152249,-0.023810757,0.003240734,0.026386881,-0.124336645,-0.09133095,-0.033713955,-0.07201232,-0.07871011,0.23121157,0.17892884,-0.16326551,-0.068108134,0.008978682,-0.19608706,-0.20539927,-0.08680859,0.0686847,0.21892825,-0.12192362,0.19846421,0.20493151,-0.09856951,0.1623133,0.1676506,0.12689236,-0.10034139,0.16453342,-0.12879667,0.14967117,0.18114926,0.22781925,0.014845677,0.107093684,-0.17344822,-0.04958126,-0.19377582,0.016614644,-0.053717643,0.27079758,0.11091478,0.060013346,-0.09576347,-0.121023744,0.053358257,-0.16644491,0.15237446,-0.19910659,-0.13847212,0.055090643,0.20837036,0.15113461,-0.092908464,-0.086863354,-0.16545421,-0.054981768,0.25754663,-0.14419049,0.2785792,0.014648723,0.03189493,0.015791845,-0.049389083,0.023317425,0.12110401,-0.022526894,-0.013199396,-0.06927051,-0.16386679,0.17634861,-0.030000193,-0.22596891,0.12456106,-0.022759719,-0.112867765,0.08982746,-0.18186958,0.06871701,-0.12306023,-0.1415693,0.013335832,-0.14742897,-0.09839348,-0.029748484,0.16920571,0.16733725,0.003712677,0.11161492,0.20509315,0.12018127,-0.14302476,0.09261043,-0.18406332,-0.11154397,0.04424721,-0.0077887303,-0.026500024,0.09556663,0.039016843,-0.12499638,0.15860382,-0.13031857,-0.010561463,-0.2635124,-0.22359508,0.05873238,-0.19254607,-0.115751386,-0.013878853,0.05513746,0.0055467985,-0.27640942,-0.068030745,0.1890172,-0.10959247,-0.04772507,-0.17477664,-0.1325002,-0.22486612,0.058076393,-0.08169818,0.32403162,0.13453616,0.18831705,-0.453413,0.14015168,0.10750846,-0.38616487,-0.5334094,0.034706116,-0.5657086,0.15336747,-0.14663497,0.044693522,-0.048168924,-0.12355256,0.0383725,0.054554965,-0.06625975,0.1899371,-0.36163148,-0.12433044,-0.21714036,-0.23028922,-0.3392943,0.04509363,-0.29482228,-0.3226153,-0.20541137,-0.25432867,-0.09627136,0.1133368,-0.35347113
-0.08717489,-0.09642221,-0.09262933,-0.049505804,-0.23316725,-0.26254186,0.091655985,-0.24562782,-0.15352951,-0.07266658,-0.06186928,-0.19289586,0.10957752,0.22551669,-0.17951486,-0.21526517,-0.4064931,-0.24314162,0.11728379,0.05269532,-0.19593188,-0.27018732,-0.24659531,-0.14060728,0.008804288,-0.2133718,0.4501631,-0.09516936,-0.07860245,-0.10999475,-0.1681215,0.0034970355,-0.04203367,-0.11527057,-0.256859,-0.1534109,0.1918993,-0.12451553,-0.17717169,0.11131594,-0.28994253,0.028812025,0.16411406,-0.015703471,-0.1533739,0.048927885,-0.039013196,-0.31178373,-0.22348464,0.07394037,0.16504182,-0.13788703,0.20819257,-0.08681495,0.14007162,-0.100095294,0.17608686,0.020111915,0.019586986,0.1978803,0.040517744,-0.20430881,0.20154443,0.14937145,-0.234477,0.047704622,0.036743894,0.053207565,0.031171082,0.20978247,0.011680592,-0.07438833,0.041109122,0.14895454,0.024132838,0.0052297967,0.3738839,0.08180216,0.21699335,-0.11442285,0.06535066,-0.017948225,0.06993115,-0.0420326,0.20123415,0.067159496,0.30575836,0.15904927,-0.021895288,0.21288876,-0.2150362,0.1043894,-0.105747424,0.25383,-0.06613641,0.12100703,-0.005707894,0.06403727,0.0120735895,0.1467296,0.23960002,0.10134727,-0.0014776121,-0.026367346,0.0035939072,-0.24062985,0.00702323,-0.16931532,-0.09807132,0.31424987,0.0952692,-0.030177195,0.046830334,-0.05965446,-0.18360434,-0.09855318,-0.17392845,-0.043877788,-0.2420186,-0.16572416,0.03146354,0.014790314,0.14115827,0.03147454,0.03677531,0.105286136,-0.021467812,0.1223985,-0.4302316,-0.07586532,0.22568794,-0.08788544,-0.102870904,0.054768946,-0.03381708,0.1761362,0.070350856,-0.20630834,0.24899668,-0.18868156,0.04379389,0.0023645163,0.027213683,0.09261122,-0.45533133,0.11009827,0.18305689,0.20282382,-0.08292212,-0.06625103,-0.010182512,-0.30772534,0.112530455,-0.092553526,0.20240945,-0.33605155,-0.18216434,-0.3501005,-0.10613739,0.09451605,0.36862037,-0.014928981,0.18763295,0.43629453,-0.4695396,-0.11341718,-0.014471864,0.30180803,0.24119568,0.025166374,0.08620598,-0.080971844,-0.05742517,-0.08490058,0.032447986,-0.25471336,0.2555789,-0.12607764,-0.050446514,-0.09633639,-0.18751936,-0.08679014,-0.0032972791,-0.002993672,-0.23765872,-0.035557512,0.16759838,-0.08813582,-0.19522902,0.27590802,-0.0038204698,-0.14603576,-0.1141832,0.25003406,0.15374278,0.008730648,-0.08701677,-0.018646909,-0.3022856,0.12885253
0.2483911,-0.15882035,-0.10880734,-0.16955863,-0.11924477,-0.4513561,-0.1220859,-0.13686538,-0.28021747,-0.15719509,-0.0965891,0.10209519,-0.3331798,-0.24812385,-0.1145503,0.25909185,-0.33092663,0.17814127,-0.25194702,0.06413463,-0.25798652,-0.053681932,0.23420419,0.102939256,0.07179027,-0.022227334,-0.20293489,-0.25781214,-0.16355678,-0.027425814,-0.33750042,-0.20309892,-0.05110358,0.1902222,0.16062893,-0.048159372,-0.23557507,0.020819841,-0.10996839,-0.35270756,-0.06387443,-0.2314619,-0.21319622,-0.10021829,0.2673238,-0.09092886,-0.09408966,-0.008308582,-0.25438473,0.1699078,0.03445131,0.041990705,-0.21009214,-0.21518038,-0.110744394,-0.08131099,0.0201713,-0.11738838,0.06434284,-0.22315888,0.116845116,-0.3002308,-0.038836587,0.02899897,-0.062006876,0.28539836,-0.20478925,0.19800335,0.015910499,0.17660153,0.06829316,0.14872763,0.16325991,-0.003308802,0.27083847,-0.042541973,0.034350414,-0.06371724,-0.13492219,-0.11946755,-0.14681461,0.041824095,-0.26181874,0.00031087105,-0.05282876,-0.12137385,0.24374557,-0.20444097,0.082034856,0.009959751,-0.053068697,-0.12182958,-0.14533411,0.05620836,0.0013643224,-0.1486298,0.00891748,-0.108304195,-0.013990456,-0.131409,-0.035037704,-0.051662248,-0.19876331,0.26785326,0.074223764,0.07460936,0.07341059,-0.08340548,-0.09082602,0.050393913,-0.14455582,-0.07358071,0.27221653,-0.051166177,-0.022439776,0.034955848,-0.18157777,0.095732495,-0.13118516,-0.056312095,0.10445106,0.10739802,-0.029738013,-0.11160741,0.09729876,-0.20599394,0.054639347,0.0773979,-0.13039783,0.087351955,0.25069088,-0.035902612,-0.32472515,-0.07311983,0.1642691,-0.0016464386,0.26818535,0.06777153,-0.0012603817,-0.11668498,0.38940853,-0.028983466,-0.2280671,0.14048582,-0.091433056,0.23648286,0.03036132,-0.0023717973,-0.048495498,-0.06660284,0.39844695,0.00024815445,-0.11823336,-0.24682266,-0.17484744,-0.31881106,-0.05497147,-0.20832667,-0.09772938,-0.10132354,-0.100649975,-0.07450918,-0.036256265,0.031672116,-0.08267036,0.119511925,-0.457022,-0.096925825,0.07331219,-0.076824784,0.24187958,-0.333782,0.23271477,0.06210336,-0.2947055,-0.2932804,-0.15588903,-0.47800228,-0.2489381,-0.02954331,-0.21997324,-0.112060085,-0.18317224,0.18934321,0.07909784,-0.17537798,0.11221355,-0.4111498,-0.17184171,-0.12549861,0.021413228,-0.2139652,-0.13957085,-0.36151138,0.57079715,-0.05255719,-0.3007928,-0.077127196,-0.1495124,-0.1172392
0.1259226,0.08008572,-0.0048653027,-0.023506261,-0.08181021,0.07687467,0.06803355,0.08280372,-0.4152759,-0.10510365,0.15465105,-0.060396377,-0.31874713,0.032886807,0.09366806,0.16263357,-0.09520748,0.14762485,0.1575398,-0.12873948,0.020152139,-0.20763658,0.1564616,0.07675518,0.050472394,-0.07782172,-0.30124107,-0.37904078,-0.10938283,-0.09434314,0.09675711,-0.19944637,-0.010650883,0.14623097,0.0021915971,0.16559118,-0.12758102,0.29103997,0.10169613,0.13125835,-0.22303401,-0.106754705,-0.15540844,0.3011324,-0.2513469,-0.22599965,0.052787043,-0.28884816,0.07324879,0.05577714,0.24357665,0.16398987,0.111195356,-0.20680323,-0.29111093,0.046518955,0.3019769,0.20015723,-0.16296573,-0.04472505,0.12134242,-0.1523875,-0.26854956,0.12252082,0.15290585,0.19254145,-0.14314313,0.2739936,0.13813718,0.13732481,0.1514075,0.29412398,0.07071466,-0.012705344,0.031746518,-0.055203643,0.201139,0.2500182,0.09186572,-0.123109326,0.17787032,-0.07300346,0.00041141792,0.21676308,0.13065444,0.06967202,0.036943167,0.15694158,0.20331831,-0.018888209,-0.24175395,-0.04239956,-0.022347499,0.3249147,-0.03274049,-0.2764874,0.014252674,0.025243843,0.14761779,-0.04283045,0.04180449,0.021641046,0.17467965,0.09807423,-0.2074564,0.05650678,-0.07298255,0.08767202,-0.060845133,-0.12014252,0.0070840283,0.09407123,0.04371492,-0.0675848,0.023443675,-0.1193753,0.06965773,0.2465142,-0.20260607,-0.0018640464,0.009202184,0.015963066,0.0025422964,-0.020550141,-0.20582502,0.022668317,-0.31415924,-0.097475946,0.029953066,-0.23126327,-0.099460125,0.08021506,-0.029279768,-0.040022824,0.09705179,0.17040129,0.1925013,-0.12645307,0.08210744,-0.1401359,0.14254864,-0.09174571,0.077880904,-0.012698667,-0.2405825,-0.083977215,0.069899365,-0.06782578,0.01920962,0.04079548,-0.17839694,0.09079958,0.09813539,-0.20429313,-0.24557866,0.089761145,0.24407901,0.07916784,-0.25199208,0.003479653,0.14271896,-0.23985714,-0.033567153,-0.10482625,0.09634846,0.10272937,-0.18770917,0.09195776,0.27984068,0.12578607,0.032149393,-0.16100948,0.17970963,0.21240157,-0.28592405,-0.3261143,-0.001193083,-0.33082086,0.14529383,-0.17016427,0.35907385,-0.3089416,-0.10736972,0.105686136,0.16002353,0.13247828,0.15177582,-0.2609254,-0.039466612,-0.19031104,-0.063895725,-0.3398183,0.21297097,-0.33128864,-0.055126768,-0.07249893,-0.021650888,-0.2655342,0.35233265,-0.18716204
0.0957069,-0.35524392,0.18530202,-0.045654193,0.17008041,0.13672744,0.013343273,0.01901572,0.22370248,0.04403884,-0.09194132,0.09469738,0.19293241,-0.007895803,-0.112324126,-0.19947699,0.17619027,-0.123780325,0.11274342,0.140291,-0.14454369,0.098300815,-0.110559195,-0.05088692,0.03727665,0.051287767,0.07098523,0.32780367,0.1543737,0.42754453,0.22079307,-0.0604539,-0.14899369,0.0046456163,0.07171667,0.05327614,-0.063815415,-0.21244414,0.07121734,-0.0405701,0.07417019,-0.08617861,0.010053205,-0.1849979,0.015424391,0.14135852,-0.07633502,0.05192757,0.29093087,-0.0417403,-0.083280824,0.026154986,-0.014889072,-0.042177957,0.12544721,0.027682299,-0.041498154,-0.21529926,0.059959047,0.0024988195,-0.13200364,0.11624815,0.06222228,0.15907148,-0.053907543,-0.21161489,0.07761198,-0.14541544,-0.056079123,-0.08282409,-0.17034033,-0.3666911,-0.06382248,-0.21578011,-0.137097,-0.0087930225,-0.19791612,-0.24090393,-0.16242851,-0.07024105,-0.019279728,0.084232084,-0.17458938,-0.41040164,-0.35581192,0.085244,-0.10144527,-0.1721371,-0.22606155,-0.0005243003,-0.08858453,-0.14655375,-0.10750519,-0.15159075,-0.08410236,0.3769519,-0.30828524,-0.20546533,-0.17427075,-0.085200965,-0.2083592,0.2167791,-0.15189607,0.010762725,-0.015029624,-0.13483043,0.13715492,0.008125367,0.07944019,0.13375203,0.0023720474,-0.08188382,-0.069981344,-0.1379767,0.104893886,-0.075638615,0.07464258,-0.15779476,0.080355816,0.0129092485,-0.14784813,0.112251446,-0.057452593,0.10738756,0.049589165,0.1332242,-0.056360293,-0.02142863,0.114181094,-0.15971309,0.09328297,-0.05886001,0.23142034,-0.06559365,-0.22145511,-0.13456716,-0.07238894,-0.0339964,-0.08397853,0.055707734,-0.02728834,0.104336046,-0.11529856,0.0072344495,0.07869671,0.02162691,0.11720301,0.09616033,0.071666405,-0.09444798,0.08444378,0.21479759,-0.07814524,0.09727276,0.29912812,0.08132226,-0.3111625,-0.04619721,0.09696374,0.19518197,0.07901993,0.075931035,0.21889539,0.092737116,-0.10796003,0.11203766,0.27219838,-0.03998148,-0.08040339,-0.053912666,-0.1033139,0.11548981,-0.09016511,0.0009802008,0.09625207,0.1012438,-0.054946188,0.17411074,-7.113317e-05,0.13809375,-0.0021198709,0.11911786,-0.018265478,-0.092134334,0.10239674,0.31939924,-0.22203174,0.037172988,0.08967981,0.064868376,0.029988438,-0.07711577,-0.09662071,0.02090034,-0.23532385,0.051991295,-0.07345738,0.01126565,0.048849646,0.23691745
-0.4378207,0.11188876,0.121081695,0.18171342,0.08156501,-0.10821201,0.06723645,0.00985789,0.28258744,-0.0053316904,0.032024764,0.13090068,0.3436305,-0.080570176,0.09218621,-0.11961082,0.27070734,-0.33840847,0.12726273,0.2799384,0.019810934,0.12437,-0.1112323,-0.071420856,-0.06672488,0.2695972,0.057637103,0.3531015,0.027111402,0.24617212,-0.031647667,0.259636,0.08173826,-0.10336547,0.03126485,0.079360165,0.16594751,-0.21229628,0.011025466,0.15508957,0.14686827,0.27846587,0.22256124,-0.12917387,0.095707014,0.5290484,0.16856098,0.20238076,0.060021557,-0.11238,-0.036818948,-0.020406583,-0.07522402,0.19811018,-0.053262837,0.11806913,-0.14066741,-0.17336829,0.26375428,0.3989759,-0.24445614,0.15553395,0.29769817,0.04982302,-0.06845304,-0.1539958,0.34641418,-0.174096,-0.204797,-0.053926323,0.047629282,-0.15598035,-0.24156532,-0.08108142,0.089910656,0.00077081023,-0.077080406,-0.056914855,-0.1093558,0.19544083,-0.06474476,0.1483248,0.06903904,0.11295489,0.062483538,0.035070665,-0.17458518,0.13166943,0.10412558,0.08651314,0.15845975,0.18613462,0.2338593,-0.16465902,-0.18451345,0.32605416,0.2411757,0.070981,-0.08601813,0.040935475,0.02687735,0.03481936,-0.051427286,-0.17089473,0.04765012,-0.0848649,0.032395132,-0.18389493,0.05875407,-0.075640835,-0.054411422,0.17245394,0.079221934,-0.0063902927,0.035941858,-0.0588436,-0.011675963,-0.37237367,0.11076545,-0.15154083,0.033346444,-0.04760063,0.020130236,0.066256024,0.048870333,0.116896234,0.061224464,-0.10182721,0.019954342,0.10978715,0.063677736,0.03635509,-0.078367166,0.14865842,-0.06765407,0.022349594,-0.2508089,0.06855479,0.019774849,0.13298966,0.03639529,-0.05007839,0.043835767,-0.12546165,0.11915238,-0.043163594,0.033411898,0.0033895883,-0.03593046,0.049344324,-0.100079894,0.084654905,0.0021023073,0.3183815,0.28578612,0.19231783,-0.15627304,-0.14110503,0.39478895,0.26319024,0.18553627,0.023262676,0.3845277,0.15165737,-0.09041599,0.008015076,0.43983468,0.21833201,-0.25244826,-0.14690542,0.039353184,0.20924164,-0.23405997,-0.058214117,0.45406315,0.24482197,0.14543697,0.4231024,0.11798081,0.3010628,-0.048377525,0.32204092,0.25998524,-0.16238898,-0.056315593,0.09169069,-0.14772959,0.37635106,0.1953002,0.17057422,0.08204056,0.4474051,0.21854618,0.46245804,-0.28845626,0.21236563,0.47752172,0.094857045,0.015093345,0.37739715
0.35229227,-0.096201286,-0.14279671,-0.013374041,-0.18066384,-0.23024806,-0.1761375,0.052809373,-0.19326152,-0.13427189,-0.008141196,-0.03338205,-0.35310075,-0.03694161,-0.0894677,0.26412758,-0.18098994,0.38914436,-0.10910353,-0.13028403,-0.13140902,0.105847746,0.43114388,0.23155892,-0.008787768,0.08356127,-0.0607799,-0.15305649,0.13341422,0.03611021,-0.07063251,-0.10048287,-0.069368415,0.21646808,0.16252695,0.013113661,-0.01296107,0.2777712,-0.037272982,-0.1349778,-0.3383648,-0.1147851,0.13593543,0.09483575,0.05448276,-0.17383459,-0.04446942,-0.1321626,-0.06138879,0.094765775,0.14146253,0.0045447405,-0.12660152,-0.11635203,-0.19147047,0.23520353,-0.034802366,0.032922447,-0.17765976,0.08139922,0.24575695,-0.12770548,-0.008381035,0.16568771,-0.056578636,0.28628692,-0.24921355,0.33332318,-0.09427958,0.2735532,0.016170615,0.22996701,0.3495167,0.08235533,0.13070038,-0.0127982525,0.010860078,0.05751509,0.12863068,0.13951668,-0.061812613,0.07351795,-0.07803709,0.16718431,-0.060119405,0.03203683,-0.011688506,0.08927152,0.008709001,-0.010960929,-0.10882906,-0.04307028,0.13033293,0.12446588,-0.09710429,-0.17921992,-0.10143974,0.050242502,0.0012258266,0.017386563,-0.08521633,0.09040737,-0.06772948,0.36025196,0.051899288,0.063009836,0.076373704,0.10343656,-0.253753,0.03575209,-0.08050542,-0.006219379,0.115452185,-0.031741966,-0.033186905,0.04913218,0.09560627,0.21258885,-0.15340868,0.071579196,0.0056671617,0.15888509,-0.036719065,-0.0948977,0.08561618,-0.15540741,0.048596237,-0.026739534,-0.08720029,-0.07970157,0.07248519,0.050232004,-0.10321996,-0.06575713,0.17674674,0.035844043,0.100715265,-0.22760296,0.059144534,0.04399932,0.26613888,-0.102284886,-0.016418343,0.09411297,0.028423084,0.022433592,0.11547331,-0.05713071,-0.016999574,0.041399065,0.20104276,0.14441866,-0.027333347,-0.38000637,-0.16753873,-0.15277836,0.044079874,-0.31394473,0.019351808,-0.035325017,-0.15264964,-0.2080307,-0.23545113,-0.25949717,0.076031044,0.12355985,-0.24034657,-0.20125744,0.32156274,0.17092344,0.12250979,-0.18417549,0.38784692,0.26164988,-0.28497955,-0.07742818,0.0004744987,-0.17944475,0.08945387,0.20230979,0.052865475,-0.07414762,-0.15626302,0.33700073,0.087210454,-0.012494617,-0.079888426,-0.412184,0.02639192,-0.22326674,0.08210172,-0.38358697,0.078489706,-0.5176218,0.25379795,0.11499172,-0.2974964,-0.18435498,-0.00040953304,-0.21566078
-0.062281337,0.09590464,-0.07261704,-0.06824334,0.24005227,-0.15054476,0.24904546,0.036500838,-0.29766518,0.10015284,-0.09331633,0.009567345,-0.14655592,-0.085628025,0.05148457,0.03429029,-0.15909114,-0.063590035,0.013779723,0.0038729066,-0.077841304,-0.04150423,-0.08904273,-0.019911295,-0.25725842,0.0024593174,-0.07287087,-0.13897441,-0.1648571,-0.26734787,0.07410315,0.07336516,0.044644237,0.061496735,0.012624404,0.032268587,0.03324058,-0.10737433,0.017861161,-0.11513041,-0.2681321,-0.044806827,-0.13733193,0.25935215,-0.023598595,-0.04328763,-0.010338209,0.04550234,-0.16926867,-0.12769383,-0.100590736,-0.18226092,0.2003231,-0.0029878528,0.21958886,0.19501056,0.25344917,0.23327342,-0.4006234,0.050216645,-0.04043778,-0.17825006,0.056124926,-0.102395356,0.12953787,0.14304803,-0.119910285,-0.057287503,-0.1087028,0.14561872,0.102668956,0.13001448,0.05513053,0.014262881,0.0073911096,-0.116883256,-0.012093744,0.20706853,-0.013481996,-0.018510692,0.006675211,-0.096607834,0.04695198,-0.010764897,-0.016982323,-0.08134659,0.025659697,0.15405364,0.11932079,-0.030639334,-0.38827533,-0.117257744,-0.076348744,0.059141267,-0.18756099,-0.09270168,-0.11686539,0.14569424,-0.20420621,-0.0051443256,0.15650676,-0.039652225,-0.13061714,0.24678034,0.14051305,0.047666103,-0.07333338,0.11742698,-0.042523578,0.17335588,0.10068326,-0.073316604,0.020843586,-0.070471816,-0.15030591,-0.030283164,0.0064830757,0.014037582,0.052565966,-0.04422713,-0.13074237,0.025015943,-0.31743875,0.067122445,-0.05243743,-0.20161827,0.007529133,-0.10460545,0.037281897,0.04782844,0.019837135,-0.10733795,-6.900778e-05,0.024320599,0.079357974,0.17732914,0.04989132,-0.11238797,-0.036766388,-0.17182651,-0.09289649,0.0982095,-0.035166513,0.082398474,-0.14871643,-0.016752062,-0.086290255,-0.07957551,-0.1628423,-0.040744416,-0.04725699,-0.31065005,-0.0058619725,-0.11319306,0.019116182,0.077758566,0.12898016,0.27703062,-0.3103194,0.1314118,-0.048556946,0.016359808,0.049724884,-0.31291756,-0.011185566,0.03265259,-0.18562669,-0.105286896,-0.12057189,0.36034226,-0.033856753,0.102951735,0.02681216,0.37550548,-0.13376918,-0.22468127,0.045801226,-0.064936906,0.01058326,-0.24246201,0.08278949,0.118536144,-0.078804344,0.16563933,0.09293616,-0.08812001,0.13408652,-0.13492653,-0.13773684,-0.11247733,-0.3541096,-0.11277189,-0.20130071,0.20412676,0.07970091,-0.089096904,-0.10342737,0.11295977,-0.09867558,-0.46510926
0.099461585,0.36930245,-0.19332758,-0.061103243,0.03664088,-0.0001904578,-0.0645607,0.07382932,-0.28718728,0.12940715,0.03767215,0.07753969,-0.11243416,0.06652533,0.03699748,0.24648157,-0.287256,0.081308715,-0.3900155,-0.28569135,-0.09809543,-0.0123602515,-0.0222526,0.08556201,-0.02329413,-0.026730612,0.011800462,-0.32129577,-0.27648854,-0.12524286,-0.020297416,0.0014800241,0.052189607,0.14813934,-0.1657443,-0.019654326,0.07751228,0.352226,0.03109202,0.1621094,-0.12140481,0.0065657357,0.08128515,0.2078082,0.0008984254,-0.25155646,0.2485301,-0.11806619,-0.16489032,0.04730877,0.10524439,0.24097313,0.02261383,0.0045003877,0.06577683,0.12142918,0.03901431,0.16417976,-0.2335645,0.095364235,0.26186296,-0.16042453,-0.2834869,0.13535413,0.17229839,0.23684056,-0.21968909,0.29255915,-0.11192692,0.23007578,0.16125043,0.19567938,0.19814861,0.095382236,0.015906207,0.101493016,0.05297119,0.16383852,0.3127044,0.088184685,0.019975757,0.027187891,0.15127747,0.38696182,0.29912987,0.10671574,0.36098346,0.26517344,0.26091215,0.102032475,-0.10417942,0.043974325,0.14045703,0.27148134,-0.12619376,-0.2673181,0.06494987,0.31737292,0.12287109,0.026413675,0.1890163,-0.044600364,0.14876212,0.09300846,-0.027186293,0.19714619,-0.047590803,-0.01942775,-0.027661184,-0.09663555,-0.03426562,0.042528894,-0.14890395,-0.050037637,-0.12474463,0.17142598,0.08610263,0.28174457,-0.18536764,0.014275036,0.22213474,-0.03463816,-0.2771851,-0.0026609267,-0.058405086,-0.098035455,0.07581145,0.035962865,-0.09658708,0.009400688,-0.1888117,-0.048573274,-0.035001345,0.11016138,0.18882081,0.0045150975,0.029798055,-0.046891935,-0.01485767,0.012239939,0.038965028,-0.009176623,-0.09632588,-0.075027995,-0.05513369,0.020915419,0.058667734,-0.2429711,-0.07725551,0.029439455,-0.13488746,-0.040832277,-0.012728994,-0.1027349,-0.00053079,-0.17693177,-0.042720642,-0.13697863,0.02891842,0.06947023,0.09716863,0.14180505,-0.063637316,0.09397228,0.10196481,0.2598121,-0.4037413,0.0045884023,-0.049319178,-0.010899989,0.027893918,-0.030386291,0.15539141,-0.06983415,-0.18869004,-0.20536278,-0.043752402,-0.046965256,-0.047459915,-0.057375252,0.022317322,-0.040998343,0.13041915,0.19211507,-0.12487043,0.0013496644,0.041261878,0.09513781,-0.2288118,0.09042614,0.074661754,-0.24254735,0.12096695,-0.07556827,-0.061696284,-0.0517836,-0.07041784,-0.20907383,-0.1853837,-0.06665547
0.02221027,-0.18268725,0.26244545,0.011723865,-0.029315192,-0.10089508,-0.04359788,0.096729256,0.4038797,0.3042511,0.29406777,0.24624787,-0.07713396,-0.03501351,0.00248058,0.32059476,0.27794755,-0.10967699,-0.10311452,0.2809139,0.060110316,0.2941519,0.111623324,0.23928596,0.1791503,0.17911634,0.089051925,0.5666462,0.10693173,0.5422763,0.1570493,-0.1738163,0.10070793,0.42998916,0.21371166,0.025168452,-0.13309802,-0.13000408,0.14670718,0.024207775,0.20981148,0.10434184,0.08773534,-0.21616568,0.4606216,0.27551305,0.041204173,0.123655155,0.24998578,0.2039452,-0.025120841,0.15321903,0.002204408,0.04960555,0.08440235,-0.10733119,-0.23336175,-0.16400804,0.2604211,0.41944417,-0.14728165,0.323589,0.10405641,-0.10570285,-0.16604652,-0.06185454,0.17728192,-0.16712978,-0.11719048,-0.2514322,-0.3907083,-0.32359776,-0.060095135,-0.2498654,0.08302311,-0.19728701,-0.099919826,-0.19001773,-0.106131114,-0.02905933,-0.2206585,-0.03516567,-0.106477566,0.04599293,-0.044657636,-0.0799418,-0.119134285,-0.09438172,-0.032062367,-0.13878489,0.09095885,0.021935122,-0.051206503,-0.16707003,0.10577097,0.07430706,0.03389819,-0.23760633,-0.13380502,-0.03742284,0.2879788,0.16867416,-0.19868875,0.20358557,-0.08520979,-0.27870297,0.044141807,0.11029719,-0.008530352,0.10297715,-0.13273466,-0.07353872,-0.053119827,-0.035968,0.042165164,0.058471043,-0.025727384,-0.109467596,-0.023975903,0.24508052,-0.14531639,-0.063631475,0.020193273,0.009497291,-0.0054962803,0.06463034,-0.2699993,-0.07858528,0.22129819,-0.052292567,0.052091897,0.14217551,0.12792237,-0.018705767,0.12402266,-0.13693853,-0.1681447,0.15594101,-0.07602168,-0.15102734,-0.0645749,0.057877935,-0.0407685,0.0886761,-0.15580742,-0.11699628,0.052475493,0.17372943,-0.035359453,0.10068463,0.25520822,0.20314385,-0.03730765,-0.20958225,-0.01202741,-0.24914676,-0.11694364,-0.2545893,0.13927488,0.3022733,-0.19383904,0.070571564,-0.13906048,0.05051654,0.061516233,0.019619888,0.2323475,-0.114593096,-0.07318707,0.09797222,-0.17107162,0.16342439,-0.1007944,0.029457454,0.30922067,0.34117046,-0.08168518,0.4344922,-0.2249968,0.15014626,0.023541315,-0.2460235,0.019383905,0.2704275,0.11537015,0.02603654,-0.14388135,0.15323062,0.1014656,-0.090526596,0.16692127,0.263648,0.04573954,0.06433869,0.16868812,0.36570272,0.053658646,-0.12403619,-0.19522944,0.17978969
-0.011032069,0.059594344,-0.13414052,-0.054945998,-0.104313366,-0.0765239,0.15117759,-0.22143917,-0.29281718,0.08108501,0.08758536,0.0037222754,-0.15571803,-0.012936647,0.1908203,0.22740246,-0.15576886,0.19862276,-0.049808826,-0.26330042,-0.06851365,-0.20161507,-0.08136837,-0.14936148,0.03973608,-0.2648792,0.119809486,-0.43971774,-0.083209276,-0.17351945,-0.03478795,-0.06000438,0.12519008,0.05527167,-0.04264091,-0.288605,0.042875096,0.31971684,0.13466689,0.07752406,0.003733589,-0.005776837,-0.014621211,0.13915727,-0.18743256,0.054437846,0.036633343,0.030650511,-0.0980767,0.13384129,0.26472056,0.10345443,0.17410824,-0.11944774,-0.21908015,-0.04253136,0.27693635,0.16417298,-0.39586815,-0.06873961,0.14951551,-0.21231987,-0.1798592,0.095129475,0.037533056,0.13238297,-0.14273198,0.21917228,0.19078335,0.24929877,0.19939983,0.35836947,0.393226,0.22827776,0.3412433,0.16011307,0.31376806,0.13581754,0.12643936,0.03576037,0.17393054,-0.18510173,-0.03164167,0.1495051,0.35320115,-0.027879424,0.2792153,0.33437443,0.3298036,0.10584591,0.20266584,0.03208732,0.19898866,0.40206465,-0.0012445793,-0.22461313,0.16203924,-0.08327043,0.07116294,0.024002654,0.15357848,-0.012574702,-0.015683295,0.2529379,-0.045427375,0.05968293,0.10258092,0.09355201,0.029691318,-0.1818489,0.07408478,0.06425697,0.012215545,0.09069473,-0.2748099,0.050378576,-0.030135594,0.26775256,-0.21079661,0.12527664,0.078477405,-0.06395778,-0.08850417,-0.043002125,-0.17221022,-0.15150413,-0.12431606,0.038962048,0.024054999,-0.13085717,-0.10272723,0.061895233,-0.0751026,0.20533681,0.19804001,0.23285799,0.13217491,-0.12437842,-0.07577028,-0.008386736,0.025647057,-0.22284628,0.041177116,0.050416425,-0.010948706,-0.012016548,-0.122978285,-0.07278477,0.23543686,-0.011438486,-0.016264822,0.026443858,0.014227018,-0.20974194,-0.17625771,-0.06251589,0.3970301,-0.12877646,-0.07873399,0.09325057,-0.018019402,-0.16543347,-0.08989267,0.16807105,0.02435723,0.028873783,-0.32469973,0.18075524,0.12613007,-0.036017638,0.020932766,-0.028896758,0.035028968,-0.08602938,-0.02208747,-0.13838911,0.011469945,-0.3134847,0.05050935,-0.016112272,0.10417855,0.012765092,-0.16537137,0.111077234,-0.22870775,-0.15244868,0.07888508,0.061639357,-0.080826245,0.034977604,-0.012933883,-0.27386189,-0.06338712,-0.15235299,-0.015919238,0.07326372,-0.10647671,0.021133078,-0.15208688,-0.19252667
-0.09713961,0.13677026,-0.066283606,0.08697939,0.049433466,-0.036806405,-0.18876944,0.091507405,-0.45490703,0.040369008,0.17551133,-0.032795828,-0.19219024,0.14500031,0.12381738,-0.018845571,-0.115534164,0.13279212,-0.23395474,-0.23528314,-0.06200194,-0.049211677,-0.09978989,0.111459866,-0.024616608,-0.08620156,-0.062862396,-0.22918834,-0.2646881,-0.21863613,0.031978495,-0.015650364,-0.025873933,-0.028034236,-0.016535874,-0.09045512,-0.24446242,0.27702352,-0.19293289,0.11934234,-0.083499245,0.14068918,0.059746724,0.23600683,-0.0071161073,-0.1330996,0.15717807,0.0761727,-0.1684221,0.110573284,0.03206506,0.06693568,-0.12463311,-0.23446536,-0.006653005,-0.084132545,0.112824224,0.30365613,-0.33567256,0.023629054,0.159375,-0.052905932,-0.13810955,0.1341306,0.10491905,0.0061743045,-0.1638949,0.24117993,-0.24739045,0.021598535,0.29815865,0.11926156,0.12770236,-0.021008426,0.1302717,0.082710944,0.29850316,0.21225303,0.14869244,0.13752612,-0.1641498,-0.061643086,0.12513047,0.30125698,0.14626202,0.037011977,0.07582239,0.14989932,0.18035033,0.037017424,-0.21196666,0.117054306,-0.09642245,0.3639803,-0.019170796,-0.20766786,-0.02842104,0.102855414,0.17483953,0.1935632,0.14900795,-0.14045705,0.039359666,0.017725162,-0.12545857,-0.025616672,0.11181272,-0.14581661,-0.100252256,-0.30861044,-0.0987399,0.29311606,-0.12586856,0.077995665,0.07580987,-0.2029669,0.034214832,-0.025807591,-0.23508619,0.027276997,-0.19615737,0.018607356,0.13869315,0.24142513,-0.15649992,-0.10660488,-0.11574274,0.064583704,-0.008216702,-0.010433498,0.017201517,-0.023130981,0.031465843,0.09050229,0.00063500856,0.117736965,-0.033361144,0.006235309,0.0979443,0.14077537,-0.19857879,-0.23010679,-0.116277635,0.11913574,0.022933552,-0.019410342,0.07126595,-0.14195865,-0.10072628,0.13959783,0.03980478,-0.044901136,0.045388144,-0.21632719,0.08384024,0.054728765,0.07644656,0.20185302,0.07520336,0.063563496,-0.012412832,-0.14618234,-0.1984443,-0.029740538,0.013104706,-0.07233429,-0.03471583,0.034199774,0.20042463,-0.24182487,0.116627775,-0.19522536,0.11540707,-0.28490967,-0.0048997523,-0.00013764686,0.067756526,-0.31376934,0.061224863,-0.016399756,-0.11581542,0.07876961,0.15220237,0.15878958,-0.15794282,-0.17452732,0.17367879,0.18103349,-0.030808883,-0.28319913,-0.11930016,-0.28861168,-0.13280562,-0.01586979,-0.13492344,-0.0014401226,0.16978934,-0.0967725,-0.12656365,0.06977378
0.18014684,0.044221934,-0.12858164,0.2737713,-0.08294603,-0.016018974,-0.17942631,-0.13679804,0.3235495,0.013035732,0.057838697,-0.060855202,0.26570886,0.020591754,-0.100959316,-0.15547365,0.18466042,-0.15003015,-0.04473792,0.2631815,0.00888559,0.104586534,-0.12796523,0.11786611,0.12548696,0.17432699,0.1535954,0.31301072,0.26474345,0.23750377,-0.16516046,-0.12919815,-0.0098182615,-0.22429165,0.17962612,0.20469327,0.07912468,-0.1120735,-0.021586273,-0.16437767,0.4104847,-0.044010494,0.13146874,-0.30255046,0.40608698,0.034001283,-0.28592494,0.09186429,0.10329944,-0.04198931,-0.022285296,0.0283768,-0.08537424,0.24252993,0.06361212,-0.016815959,-0.241582,-0.1361621,0.23582396,0.05333648,-0.27545846,0.1110598,0.10653963,-0.04875281,-0.1207857,0.03523815,0.21001622,-0.1298482,-0.18759912,-0.011168526,-0.10611719,0.00490717,-0.1042505,0.004808289,-0.10507478,-0.067782946,0.06754777,-0.08097975,0.06742051,-0.1218372,0.07846995,0.058312338,0.069909506,-0.2875323,-0.287887,0.0049785078,-0.15701745,-0.20176663,-0.12670597,-0.31948966,0.30280352,0.046087064,0.31622633,-0.082661435,0.20867243,0.24009258,-0.03582577,-0.08870249,-0.10102694,-0.038197335,-0.42192027,-0.031040683,-0.06462828,0.17335117,0.07197971,0.050283022,-0.14782678,-8.403734e-05,0.22400959,0.059386507,-0.15827528,-0.058333144,-0.076711506,-0.106286,-0.1535464,-0.013770459,-0.013878368,-0.20844026,0.08976408,-0.076397434,-0.08223126,-0.025483461,-0.034589943,-0.08625736,0.27574006,-0.009577568,0.10166743,-0.06492923,-0.055684455,-0.1678325,0.029735327,-0.042432386,0.105558775,-0.07949183,0.16584216,0.029661836,-0.10395608,0.21960974,-0.07251137,-0.1434396,-0.23871759,0.44592175,-0.01231025,-0.026140384,0.7170008,0.2189238,0.098151736,0.058942072,-0.17611812,-0.28605425,0.13120177,0.0019993088,0.0288455,0.3076078,-0.021440398,0.1874756,-0.19942655,-0.020237876,0.18624541,0.14317665,-0.047348946,0.045119338,-0.009697646,0.11323403,-0.11210902,0.15682982,0.20386086,-0.07970048,-0.10759159,0.29427567,-0.14073452,0.19353095,-0.13555044,0.2658818,-0.11865114,0.056396954,0.2047642,0.2847039,-0.015060976,0.1347618,-0.04078109,-0.14357172,-0.15040433,0.03905055,0.29903132,0.16219841,-0.069194354,-0.1401452,0.0993527,0.060901634,0.17983472,0.10308492,0.016441492,-0.15244585,0.059248835,0.17461357,-0.22718208,0.023050794,0.16026804,0.09562232
-0.17119113,-0.15124139,-0.04038594,-0.004003513,-0.014724485,-0.25620383,-0.16480982,-0.17340048,0.020285336,0.07655351,0.053884167,-0.041072845,0.17806688,-0.06382169,-0.08008452,-0.2787485,-0.072951384,-0.25073183,-0.13093129,0.13959803,-0.25908154,0.17150809,-0.14096403,-0.007880739,-0.11117592,0.014858439,-0.04093902,0.3345283,0.124190286,0.096704446,0.17769204,0.0065019513,-0.026178716,0.0652691,0.09220932,-0.096236795,0.018417157,-0.12747316,-0.1106584,0.10116531,-0.00090884574,0.09536398,0.06693855,-0.08324822,-0.07762975,0.2176884,-0.037962426,-0.0269747,-0.013307402,0.08433619,-0.31351462,-0.29167402,-0.14748992,0.11156989,0.25251457,-0.025359415,-0.24580422,-0.28260377,0.20410809,0.08986994,-0.33934203,0.041164704,0.17791477,-0.0494027,-0.10457614,-0.2904084,0.09244567,-0.403058,-0.23098019,-0.041554533,-0.46297607,-0.35369486,-0.16328783,-0.2641445,0.041630875,-0.0792296,-0.010696989,-0.24674337,-0.17335631,0.007225259,-0.22480889,0.115445845,-0.01008973,-0.21328598,-0.24732976,-0.25381392,0.041347217,-0.13559917,-0.23104878,0.117864765,-0.20319815,-0.19150098,-0.20961507,-0.09565463,-0.095438525,0.06028393,-0.19703005,-0.25066584,-0.15754326,0.063584216,-0.13321657,0.21151778,-0.15155376,-0.07721609,0.14076196,-0.09378532,0.16052048,-0.044921994,0.09496252,0.28652412,-0.00714226,-0.28231493,0.12435205,-0.017761359,-0.11675089,-0.06033794,-0.10239716,0.013616715,0.102849945,-0.053501032,-0.10683669,0.049422245,-0.07686797,-0.11794055,0.11300006,0.15965699,0.08456379,-0.010764954,-0.0076576797,-0.11029127,-0.053392354,-0.0051885666,0.0727261,-0.036420204,-0.025257876,-0.10893548,-0.016466664,0.082696915,0.08489418,-0.012908053,0.11378579,0.12873738,-0.026022652,0.14301121,-0.20344383,0.07933922,-0.0420412,-0.081631534,-0.0004385046,-0.085890055,-0.1344203,0.026369108,-0.188212,0.11704072,0.181066,-0.21537107,-0.3080827,-0.29699194,0.0068350188,0.030223278,-0.13797274,0.1352827,0.09528484,-0.032296654,-0.18310574,0.15984142,-0.03775214,0.06370952,-0.22704291,-0.18169829,-0.28286153,0.02956343,-0.05789864,-0.24123469,-0.091630414,0.15617722,-0.12462089,0.25060657,-0.27333996,0.04419903,-0.2667773,0.049531255,0.017283859,-0.15414809,-0.06704905,-0.09295215,-0.20163295,-0.099111885,-0.24793419,0.18476981,0.002628375,0.119257,-0.045967553,0.12081612,-0.22791545,0.019749226,-0.050095133,0.006813362,-0.115403175,0.17591576
-0.27585244,-0.04429101,0.057100248,-0.0054940297,0.034479182,0.2318205,0.08554336,0.37999988,-0.352549,0.14544615,-0.28813586,-0.046124972,0.014045303,0.18677908,0.068323165,-0.14960626,-0.07619256,-0.3673039,0.03629098,-0.35994348,-0.06568674,-0.14577873,-0.099699154,-0.37704948,0.06700064,-0.037183724,0.20010543,-0.0076281424,-0.29795057,0.16617131,-0.27220032,0.17717536,-0.0063267085,0.0096522225,-0.029341133,-0.18389755,-0.1889143,0.13991898,-0.17573844,0.30362698,0.14989792,-0.25466526,0.17215514,-0.041828305,-0.22735597,-0.021272201,0.2682002,0.07828114,-0.066953614,-0.17229958,-0.24195868,0.14442688,-0.03458969,-0.099134885,-0.043196496,-0.02669876,0.017141495,-0.043779355,-0.09760985,0.15214297,-0.21759385,-0.042807292,0.046746586,-0.0101056,0.10826511,-0.050561596,-0.03200402,-0.22219081,-0.05589858,0.05428494,-0.26886597,-0.17909154,-0.3351699,-0.025520781,-0.12788717,-0.08579064,0.24340051,-0.0137841515,-0.17012432,0.012169726,-0.106992766,0.1506001,-0.111437544,0.038464718,0.0005861557,-0.009998945,0.14434788,0.051769625,-0.120184414,0.19228527,-0.010160026,-0.07527211,0.315486,0.047032304,-0.46819663,-0.2854106,0.12571639,0.19943298,0.03032438,-0.09291084,0.16976209,-0.099061444,0.032545906,-0.18851443,0.016409166,0.0007481818,0.034122895,0.07717354,-0.2906147,-0.092786565,-0.06932242,0.07440664,-0.0768686,0.17830294,0.3630092,0.28325328,0.033205796,0.047713187,0.08216283,-0.009982303,-0.0363453,-0.12928489,0.012184342,-0.0024293475,-0.051049244,0.12983344,-0.08589254,0.30575463,0.14474414,-0.07227934,-0.24607238,-0.21573426,0.3069013,0.13492931,0.28918338,-0.11486162,0.0022739775,0.038746376,-0.017473387,0.06213767,-0.046651978,-0.26457036,0.051486626,0.05721073,-0.28540093,-0.278008,0.1277968,-0.18244633,0.42377797,0.12075858,-0.30386108,0.21647327,-0.13744059,0.06684269,0.067094356,-0.0016363771,-0.0702308,0.21758677,0.20512529,0.19427978,-0.1597859,-0.015428747,-0.0456498,-0.14508247,0.1019949,-0.20542374,-0.090971455,-0.21815483,0.072179876,-0.20144928,-0.27738062,0.01445958,-0.32544258,-0.27423328,-0.1597324,-0.10930067,0.13097529,0.09780201,-0.1441789,-0.096261464,-0.19719088,0.14187194,0.14608736,-0.052501082,-0.059831385,-0.19692606,-0.12022337,0.058923148,-0.24613318,0.36787406,0.108852684,0.15740381,0.24512789,0.07334575,-0.28374994,-0.040819567,0.18086472,-0.0037774027,-0.03716516,-0.29652154
0.08609411,0.104468234,0.0630307,-0.057570543,0.029549351,-0.10181251,0.12778638,0.1094101,-0.009353975,-0.16656248,0.06296946,-0.006743076,-0.20955497,0.2720437,-0.012423867,0.18634117,-0.073151946,0.22851223,-0.20537598,-0.1854411,0.26251194,0.014409696,0.06505488,0.19002844,0.22561242,0.028884543,-0.07841274,-0.14427873,-0.046649512,0.06026681,0.023358092,-0.052002877,0.02576241,0.24632864,0.19458796,0.114744686,0.06469066,0.20960319,-0.029084174,0.07757828,-0.09657836,0.22286646,0.13323238,0.16524173,0.08869343,-0.1589042,0.13721555,-0.11248541,-0.18885016,0.14299229,0.209367,0.0058820345,-0.1265865,-0.16140631,-0.005144299,-0.05561493,0.04896019,-0.0015307694,0.08650479,0.01728496,0.30733025,0.05074502,-0.23669015,0.038648635,0.11267141,0.026684161,0.15728542,0.25062826,0.13417822,0.07510209,0.19246729,0.031297117,0.29006797,0.005114264,0.14968145,0.21843512,0.3254061,0.075155415,-0.006066883,0.13872114,0.034360737,-0.052266713,0.18002938,0.43017682,0.021016626,0.11177911,0.091475084,0.2543131,0.32045263,-0.041594062,0.08859048,0.15398371,-0.06493437,0.2544957,0.0023605223,0.0008740464,0.044297405,0.0059990822,-0.026530543,0.22154069,0.19519608,-0.09390417,0.055445302,-0.008328922,0.038246952,0.31814238,0.10001281,0.07210154,-0.10243442,-0.29577833,0.06326524,0.13996883,0.0515723,0.03643321,0.03900822,0.03624817,0.15698588,0.07102872,-0.24852301,-0.005015241,0.080374345,-0.14003265,0.0101152705,-0.0032052821,-0.029062457,-0.13526775,-0.06295007,-0.009380558,0.10079354,0.2269492,0.14007668,0.084151015,-0.026137156,0.11846428,0.096866824,-0.111743785,-0.11824931,0.018895028,0.03906582,0.040465355,-0.2361153,-0.06910829,0.1207056,-0.06472516,-0.18345538,0.0064099715,0.07760897,0.13179438,-0.07429084,0.06456053,0.2739731,-0.0030996352,-0.05624311,-0.21692593,0.04461054,-0.03687482,0.042345773,-0.013422869,-0.032999583,-0.06310974,0.03293397,0.15493788,-0.09759813,0.045812584,0.05706595,0.015665283,0.11447387,0.26368654,0.14783448,-0.1449085,0.31825337,0.09859193,0.20716526,0.03785511,0.00039335963,0.11808971,-0.08629152,-0.10988745,0.30048385,0.028212465,0.30508125,-0.1374282,0.011754076,0.10769118,0.072569296,0.12032641,0.20725538,-0.07866614,0.035582054,-0.101336114,0.085206345,-0.05141791,0.011414357,0.036781825,0.30839333,0.11175287,0.030190572,-0.17475688,-0.07542833,0.1743771
0.3630023,0.058641057,-0.11517554,-0.16115709,-0.11411781,-0.38890904,-0.12236234,-0.08707262,-0.2357597,-0.29377374,-0.018339768,0.034789126,-0.15316568,-0.25466275,-0.028687615,0.29547653,-0.21879804,0.21848045,-0.17803462,0.24881509,-0.10900276,0.054862294,0.32705796,0.37196472,0.12886629,-0.11040537,-0.011350107,-0.17881687,-0.18420939,-0.020045627,-0.09867871,-0.22321618,0.022011809,0.14582922,0.28870782,0.06612016,0.112894714,-0.07119852,-0.09440507,-0.22296333,-0.24256288,-0.095709756,-0.025583582,-0.15495585,0.24723765,0.062460408,-0.092615046,-0.17714822,-0.28477478,0.15290064,0.06487986,0.0668135,-0.061590213,-0.15613522,0.1305465,-0.045974772,0.099278964,-0.052878354,0.18995456,-0.21290141,0.055573735,0.0034344464,-0.17602476,0.11775879,-0.021880629,0.21768615,0.03574941,0.19134249,0.033216983,0.23287432,-0.046456456,0.10015517,0.28336725,0.12815203,0.16761465,-0.0078270035,0.10251777,-0.069792196,0.05284131,-0.109731734,-0.04907059,-0.050275628,0.04030634,0.054519165,-0.054683898,0.017068304,0.095200986,-0.10131637,0.14071943,-0.013890903,0.05366658,0.015206394,0.03582694,-0.19412266,0.17937608,-0.046303548,-0.0606335,-0.07562413,0.010111465,-0.23148052,0.032328077,0.14289306,-0.10755414,0.18164319,-0.03684059,-0.025033753,-0.07588063,-0.030233994,-0.14450312,0.005918396,-0.11841552,0.0060187094,0.031903632,-0.07859754,0.055552598,-0.02658826,0.023148406,0.14064598,-0.10174864,0.08071902,0.07333426,0.27256444,0.04309629,-0.012378649,0.06668515,-0.2319514,0.074315116,-0.16395071,-0.15097754,-0.03826069,0.08307179,-0.01977904,-0.09658012,-0.06046485,0.30179626,-0.07182691,0.13415186,0.015029539,0.07434253,-0.10182403,0.16147679,0.11631253,-0.19118331,0.029516354,-0.08931802,0.19428785,-0.0568776,0.22990532,-0.24994378,-0.13339134,0.21674736,0.16817148,0.046406,-0.3470947,-0.08558444,-0.3540043,-0.02810037,-0.15090299,0.04062585,-0.23596306,-0.23896399,-0.038118135,-0.03675656,0.023311708,-0.17339796,0.10084943,-0.3759138,-0.23311237,0.07649463,0.23963642,0.20300631,-0.10574278,0.286701,0.12587893,-0.4435682,-0.14506732,-0.047326647,-0.29508233,0.15199973,-0.009013116,0.10271601,-0.13631037,-0.0725364,0.300666,-0.059857998,-0.028575974,0.04113882,-0.47743407,-0.120765604,-0.084453195,0.039052844,-0.1515213,-0.17765827,-0.47329482,0.47446546,-0.056794032,-0.26326275,-0.008971498,-0.16653615,-0.3847205
-0.2036299,0.10850466,0.05798759,0.2289105,0.09536193,0.14808783,-0.15157217,0.061925236,0.2714636,0.053176925,0.24086644,-0.057751168,0.27550003,-0.09730405,-0.17644432,-0.31342384,0.04444864,-0.08425536,-0.07075812,0.18972349,0.1965423,0.14637959,-0.2973284,-0.090714626,-0.19215536,0.14567256,0.14575996,0.17821945,0.0925792,-0.1024989,0.16079395,0.30743313,0.048968516,-0.241043,-0.21890542,-0.07486739,-0.13012142,-0.24828191,-0.19342789,0.050344855,0.53488916,-0.016867558,0.15218829,-0.07028326,-0.015056321,0.021634942,-0.15801664,0.211984,0.09990531,-0.2062689,0.06553591,0.832014,0.2877285,0.3083888,0.047115747,0.024221763,0.20212758,0.031943657,-0.12322072,0.027618667,0.050751768,0.024627535,0.11671306,-0.33517998,-0.26206183,-0.08922552,0.1529903,0.04108557,0.005121758,-0.1324739,0.18256103,0.03440852,-0.05484174,0.24721693,-0.21277398,0.07232168,-0.022920735,0.0066604675,0.08681812,0.13397762,0.14073864,-0.12578632,0.107309625,0.033199195,0.13411422,0.06633325,-0.19140734,-0.13354674,0.086496934,-0.06813356,0.9921331,0.06420557,-0.019227434,0.008418588,0.22595839,0.26209414,-0.14258368,0.045669544,-0.028997902,-0.019511683,0.41909394,0.23136519,-0.01670481,0.19728507,-0.079916075,0.04741145,-0.08127266,0.11254863,0.32915998,0.059116244,-0.22427522,0.040198423,0.031095924,0.0028254155,0.07340251,0.3386571,0.15898366,-0.073572025,0.20224643,0.023182338,0.23490834,-0.19598086,-0.13432263,0.17093799,0.14183737,0.06593721,-0.04396622,0.10766339,0.021821305,-0.06902738,-0.25170535,-0.10759507,0.1255499,0.04602354,0.32382196,0.024952196,-0.23460785,0.38324973,-0.12569846,-0.0411471,0.079129785,-0.07569027,0.09438453,-0.04375887,-0.10005365,-0.1467313,0.1178794,-0.1592094,0.041197717,-0.022515886,-0.07460147,0.6755461,0.034416653,0.14179227,0.09944187,0.28872392,-0.0119674355,0.27020773,-0.054729495,-0.20133702,0.095258676,-0.14911214,0.13326015,-0.009874639,-0.100825116,0.025349932,0.37805444,0.2001846,-0.30116647,-0.02559814,-0.11196766,0.34405828,-0.3965697,0.060226433,0.4348017,0.23973633,0.13008082,0.5075174,0.13548413,-0.044957474,-0.0005106715,0.03620238,0.08865695,-0.040819556,-0.027276412,0.063448064,-0.22574946,0.32694122,-0.11140846,0.27792445,0.81620353,0.4300604,-0.027121052,0.6859203,-0.2866005,0.025280403,0.17010011,0.037487853,0.092559,0.18925516
-0.04809592,-0.13171013,0.26053312,-0.31375518,-0.0038732458,0.08030336,0.049351234,0.15197654,-0.039681993,-0.15860428,0.12541294,0.06530564,-0.23472023,-0.1083289,0.1080895,0.17890204,-0.033309035,0.24863666,0.05241631,-0.39492908,0.05096572,-0.30877542,-0.023139514,0.0073722107,0.063915454,-0.17306937,-0.25358176,-0.37990713,0.11835333,-0.10265571,0.09723981,0.021410985,0.053262264,0.18986595,-0.13685748,0.18277131,-0.10191412,0.12301649,0.08859003,0.031406872,-0.5784182,0.030820256,-0.09677167,0.10544999,0.13295053,-0.100878805,0.29900277,-0.20274982,0.055933896,0.21094266,-0.124350205,-0.27789205,-0.01818036,-0.27513474,-0.08533865,0.24786495,0.0027557858,0.16103382,-0.026003929,-0.027789054,0.14533624,0.009686032,-0.1921614,-0.046213206,0.07877615,0.002812474,-0.04065503,0.13624345,0.0593315,0.10716393,0.10930316,0.22728026,0.24924074,0.1061191,0.17642215,0.099776216,-0.018668529,0.03576406,0.10567038,-0.07917159,0.10512029,0.026981913,-0.053128704,0.26622638,0.09454718,0.29525045,0.08073548,0.04810685,0.09334589,0.04781341,-0.4276715,0.11548915,-0.02792923,0.08171424,0.0035913694,-0.22939368,0.25060683,0.21936351,0.008247247,0.14556934,0.020357214,-0.029867152,-0.016595848,-0.249936,-0.1130261,0.06730477,0.07145375,-0.06351942,-0.104734756,-0.17937253,0.027550235,0.14067894,0.14213407,0.14102705,-0.18880689,-0.11236735,-0.047256738,0.08809796,-0.21886136,-0.16550069,-0.04739766,0.16641115,-0.1197666,-0.019612037,-0.039998632,-0.11967952,0.07386722,-0.08454633,-0.01680793,0.024765156,-0.0069548944,0.00963389,-0.01528493,0.107076764,-0.18743056,-0.0836366,0.16272283,0.045421015,0.082765184,0.14020905,0.23582636,-0.07591704,0.14214441,-0.19673729,0.07558102,-0.060796898,0.0025234977,0.13369238,0.020596141,0.05800683,0.07149862,-0.066451885,0.041943684,-0.2887399,0.012031693,0.23669049,0.1389515,0.13032386,0.032409243,-0.15193644,-0.048925083,-0.15252689,-0.19633147,-0.27928978,0.3009838,-0.078787394,-0.06284435,-0.03763345,0.25685984,-0.18780006,0.15203874,-0.30506474,0.26476175,-0.17040315,-0.033091575,-0.004168468,-0.3240607,-0.3295855,0.09446726,0.12543117,0.11516658,-0.15203194,0.071364544,0.17947948,0.08105651,0.0441007,0.27248564,-0.07415159,0.036807545,-0.25954518,-0.020666577,-0.2875492,-0.16051476,-0.22468074,0.11836425,0.11528321,0.11601737,-0.13840494,0.024514036,-0.085947484
0.073174074,0.1932688,0.09206966,0.19288802,0.31432232,0.14019163,0.07738659,-0.051158316,0.19846621,0.08365085,-0.31826967,0.03916942,0.3867085,-0.22444507,0.0006122451,-0.38517636,0.2125923,-0.08283962,0.2875398,-0.11213016,0.0591133,-0.21053725,-0.17481646,-0.016768698,0.08847829,-0.22492558,-0.0512049,0.1523039,0.083545,0.017007018,0.012826035,-0.038444564,-0.1487101,0.018098539,-0.23422186,-0.1544515,0.36789405,-0.0034560119,0.12757489,-0.034450583,0.11073236,-0.024373867,-0.04051905,-0.13157973,0.15784687,0.010772886,-0.26720262,0.020221205,0.11912448,0.014284484,0.033424873,-0.121271126,0.20296568,0.16750081,0.11100639,0.11641723,0.10985488,0.09293238,0.1619074,-0.12614013,-0.26110402,-0.17683345,0.18537363,-0.08247557,0.04397464,0.012265161,0.18853478,-0.11956697,0.20647913,-0.108022,-0.025301214,0.06729031,0.012120026,-0.18945512,-0.20264356,0.01008725,0.067133464,0.08665544,0.009849694,0.001829059,0.1731242,-0.035143685,-0.20000722,-0.13400778,-0.10691662,0.0021644088,0.023607885,-0.03961216,-0.048270248,-0.1292947,0.002429268,-0.05257865,0.04341521,0.24369343,0.054689642,0.10594581,-0.059143648,0.046216775,0.13867916,-0.07640971,-0.20360813,-0.17001215,-0.03648218,0.24235035,0.09016552,0.06539338,0.05206653,-0.03224042,0.3912595,0.17282943,-0.04524563,-0.09317996,0.14510886,0.09896338,-0.035544164,0.02518217,-0.013395719,0.017132724,0.41709432,0.003093833,0.046087537,0.04521386,0.12060226,0.20122324,-0.14272974,-0.030026637,0.011855811,-0.016120253,0.06531466,-0.06627958,0.009324843,-0.17605226,-0.076215915,0.04960491,0.040636897,-0.22902189,-0.18178923,-0.0017400875,0.056601733,0.23174833,-0.043633945,0.18511501,-0.09394878,-0.11864349,0.07502161,0.09198213,0.014157828,-0.08190729,0.093104735,-0.12086355,-0.18030246,0.05057755,0.16317508,0.21192445,0.06065567,0.08502498,0.067250654,0.31400365,-0.037101336,-0.0062122582,-0.19996576,-0.10325331,0.010181678,0.024443746,0.09193695,-0.22642544,0.16131452,-0.045037635,0.01624866,-0.19391021,-0.12293812,-0.1304023,0.05025098,0.08762955,-0.013073237,0.10070919,0.11744213,0.38346472,-0.082744636,0.14411934,-0.19551437,-0.058649037,-0.17219372,-0.040929075,-0.061395753,-0.21476668,0.24896193,0.11723809,-0.06216025,0.2279147,0.005495244,0.1931609,0.3094648,-0.19026016,-0.16003537,0.01812803,-0.044197176,0.08530793,-0.057780396,0.19377407
-0.08932259,-0.39676234,0.17638943,0.08767855,-0.17498,-0.031011336,-0.11720781,-0.075914875,0.18824741,-0.12903069,0.056610465,-0.009106796,0.06262978,0.12520817,-0.20737304,-0.06617594,0.16213715,-0.097339034,0.119325854,0.09387635,0.003488134,0.015474883,0.20130825,-0.051765136,0.24084783,-0.09600837,-0.12584119,-0.045630444,0.14931248,0.2159802,-0.039073855,-0.12741674,-0.07220401,-0.09252794,-0.08398757,-0.0053104986,0.015999002,-0.10626859,-0.12606302,-0.06806338,0.12432307,-0.07894097,0.031740863,-0.18288389,-0.22185227,0.32535675,-0.17068622,-0.14979525,0.19073656,-0.1331356,-0.024632655,-0.014280703,-0.0016331775,0.23726733,-0.13474075,-0.15961768,-0.1586545,-0.06816219,0.2505398,0.0900594,-0.026391411,0.164349,0.35335988,0.02269176,-0.16936584,-0.011083059,0.14390153,-0.13518964,-0.009694256,0.04540899,-0.11013284,0.037565093,-0.0680237,0.06669291,0.0518698,-0.08193469,-0.028114222,-0.024771249,-0.014812108,0.014571668,-0.08317684,0.0781454,-0.13634047,0.1259046,0.010069587,0.05944853,-0.08355971,-0.08880805,-0.11132261,-0.0048448886,0.12222503,0.052672368,-0.013096938,-0.106555305,-0.037472185,0.109564066,0.012602191,-0.13187149,0.09258315,-0.1545501,0.06296439,0.0025385965,-0.09560291,-0.2023059,-0.21990736,-0.20629396,0.18099701,0.04009027,0.033218313,-0.20797415,0.054394726,0.05438669,-0.00418604,0.12616298,-0.12721926,0.26172948,-0.093422,-0.21610713,0.009582973,-0.11167042,0.107036635,0.07971173,0.1570816,-0.008008613,0.07521786,0.17287904,-0.05564393,0.042883802,-0.10430593,0.08384042,0.10676786,0.016470192,0.079705946,-0.105114706,-0.009564794,-0.078829,0.011130136,-0.0010296656,-0.009668244,0.06675915,-0.081617065,-0.11028401,-0.0028086547,-0.030698413,0.011512703,-0.14443052,0.17356163,-0.15617557,0.09511927,0.23267321,0.009591897,-0.014545231,0.15188803,0.06754686,-0.059087757,-0.2130148,-0.15630709,-0.10219719,0.21907225,-0.09773583,-0.07035409,-0.08899859,0.01872887,0.19589274,-0.07772048,-0.039016586,0.06711223,0.013651495,0.05584901,-0.20554157,-0.035636593,-0.10173757,-0.0665163,-0.1104817,0.304158,-0.072664656,0.05692239,0.064826034,0.055071883,0.044332664,-0.16344115,-0.029042024,0.036995646,-0.07276002,-0.10433242,0.11390653,-0.0053010164,0.0739532,0.1906048,0.23591112,0.2188098,0.29651394,-0.07256806,-0.10186802,-0.18754712,0.052995957,0.03960721,-0.18014838,-0.02723127,0.21505412
0.2081022,-0.27421147,0.23630922,0.37123013,0.16266724,-0.26470742,-0.06338477,0.037592847,0.41098046,-0.22910766,0.110345736,0.09061807,0.40474603,-0.15434839,0.020333204,-0.33178094,0.079633646,0.005588672,0.072492905,0.2253582,0.22953251,0.24176402,0.12658368,0.12627013,0.015813472,0.27226356,0.10546981,0.3829185,0.10680148,0.34348008,-0.047774814,0.026295872,0.06750072,-0.31502688,-0.054259047,-0.28389037,0.124259986,-0.16011013,0.2579711,-0.32474387,0.30539498,-0.03795972,-0.13593563,-0.29893762,0.17757234,0.1706565,-0.12514885,0.19222325,0.3916254,-0.03586011,-0.14610259,-0.14720519,-0.101763494,0.15371993,0.23384526,-0.17446825,-0.19071245,-0.41710585,0.23172247,-0.04780306,-0.3591034,0.12558025,0.19657227,-0.28529313,0.017789766,-0.30283856,0.31947973,-0.2069373,-0.25714138,-0.10089952,-0.19031863,-0.29809424,-0.41463175,0.059320506,-0.2825866,0.11811787,-0.101146474,-0.081956856,-0.19781125,-0.0049760286,-0.03219766,0.06446372,0.027991217,-0.33332387,-0.13576443,-0.25397632,0.021881191,-0.261341,-0.109142154,-0.451221,0.330503,0.033649523,-0.24585119,-0.3135948,0.07653914,0.12248254,-0.1713503,-0.13191809,-0.010540521,-0.026186803,-0.4082751,0.0059379535,-0.1137914,0.007422098,0.29431564,-0.12357405,0.011495187,0.14477497,0.3109153,0.21043713,-0.2162557,-0.15180393,-0.19894476,0.063695304,-0.18885955,0.18524048,0.030855594,-0.17608657,0.08491156,-0.118365206,-0.3148305,0.09063252,0.16358554,-0.15642616,-0.01946474,-0.03690751,0.24848427,-0.045613438,-0.23299438,0.07394699,0.117724895,-0.14201844,-0.012854215,-0.0147076035,0.011394793,-0.14244248,-0.014133009,0.031717137,0.014503791,-0.0032201156,-0.18002811,0.1955699,-0.011904366,0.022872634,0.48465317,0.025225658,0.20068575,0.13813938,-0.12397516,-0.10934273,0.13582468,-0.117225416,-0.24357,0.18127416,0.18432339,-0.088105135,-0.2687773,-0.3377965,0.09624493,-0.21046962,-0.010927833,0.090059854,0.12271551,0.1879661,-0.22634475,-0.3519747,0.3312288,0.08460817,-0.15535267,-0.031761073,0.10158887,0.19548796,-0.04659707,-0.10676717,0.08449701,0.37649128,-0.14331856,0.25026459,0.06348041,0.31177333,-0.22056967,0.016719306,0.080259405,-0.20418231,-0.33005142,0.0396504,-0.06752814,-0.15918498,0.19831027,-0.025943844,0.08443254,0.39628702,-0.042141978,-0.15296015,0.17171142,0.06949527,0.114537016,0.28477868,0.10651981,0.1718319
-0.11564276,-0.24171184,0.086719714,0.17063026,-0.0037252544,-0.0015254455,-0.11696136,-0.16461298,0.46883214,0.019828022,0.092686936,0.18310036,0.12958828,0.05800801,-0.17004292,-0.03343085,0.1995816,-0.05097869,-0.034203574,-0.007339847,0.07525899,-0.33681726,0.10730149,-0.051550373,0.044676088,0.08384149,0.06660041,0.23715864,0.08482106,0.115066,-0.08075331,-0.16607326,-0.07045536,0.117723264,0.032777693,0.08717001,-0.009960777,0.24656424,-0.16183022,0.096915014,0.11161743,-0.09683345,0.15065196,-0.19167829,0.2212378,0.20006832,0.2139197,-0.24163394,0.07084485,0.200312,0.04112669,0.015246379,-0.14515333,0.06371025,-0.07094573,-0.017486159,-0.1591275,-0.094553955,0.03166738,-0.032607023,0.099089295,0.08989268,0.12771162,-0.04049563,0.01022598,-0.025021285,0.21358497,-0.16152671,0.13899298,-0.1556748,-0.22989544,-0.3818349,-0.17905505,-0.29128963,0.04498172,-0.22746886,-0.08661255,-0.25112736,0.20626633,0.17916904,-0.09829491,0.09700522,0.074824944,-0.05092448,-0.0272263,0.005898318,-0.05487434,-0.07141712,-0.08099245,0.20780703,0.24290633,0.13869013,-0.010341521,-0.19132544,0.026005866,0.04731956,0.22654073,-0.07074569,-0.12694359,0.117232725,0.17957507,-0.010002003,0.043429613,0.006044107,-0.022356167,-0.04736111,0.06299742,-0.11648343,-0.083024725,0.030983647,-0.30601966,-0.040288728,-0.07320335,0.20959607,-0.15108736,0.09898083,0.14207992,-0.15799548,-0.058067422,0.017130079,-0.16785811,0.10165921,0.16513017,-0.17315091,0.08660614,-0.011173567,0.12865806,0.13135228,-0.06826774,-0.03746348,0.22784333,0.08567898,0.08717141,-0.27390778,0.40202236,-0.059747662,-0.023500616,-0.035884287,0.082603686,-0.0849043,0.100699335,0.044332236,0.043989297,-0.2463718,-0.059347477,-0.03469355,-0.024148855,-0.04247017,0.091513224,0.2120868,0.21411414,0.1595565,0.011419214,-0.011242564,0.03969637,-0.06399907,-0.033498295,-0.1791286,0.019911615,-0.21120775,-0.11771616,-0.014282574,-0.18614356,-0.06592151,-0.3655247,-0.25363657,0.22529374,0.08819768,0.1980165,-0.18982437,-0.013598091,-0.018673917,-0.037331127,-0.3038103,-0.0070984787,0.1882835,-0.122637145,-0.014041421,7.5011594e-05,0.10864282,-0.18315595,-0.16455135,0.048812333,-0.12123477,-0.19611023,-0.14378305,-0.1851148,-0.038727142,-0.019725267,0.0154502,0.12192423,0.21445645,-0.30019078,-0.22383627,-0.13533945,0.2899032,-0.052785113,-0.28603825,-0.07280115,0.28037092
0.16774186,0.3029477,0.04492041,0.022106407,-0.029527642,0.15050425,-0.03433955,0.069791816,0.10307013,-0.009079905,-0.0039299303,0.03463421,-0.044109195,-0.053821295,-0.08299936,0.06558596,0.03966512,0.06825837,0.10209521,-0.14009231,0.15910065,-0.04025019,-0.023771275,-0.012641346,-0.20796447,-0.2832641,-0.027699132,-0.10266073,-0.018110171,-0.19755983,0.14029413,0.06954131,-0.09734987,0.006743508,-0.29608938,-0.20683132,0.110659495,0.2833225,-0.21957012,0.11529187,0.583782,0.24015135,-0.018755117,-0.10002992,0.048675954,-0.11075147,-0.081791304,-0.08574851,-0.11936186,-0.097459376,0.24582897,0.30468717,-0.03869565,-0.062672384,0.107626386,-0.01859422,0.3157624,0.02503234,-0.02850719,-0.09416449,0.23679703,0.10960502,-0.07322419,-0.027933074,0.16441217,0.0857417,-0.035966657,0.1750378,-0.0048850146,0.092792295,0.16800946,0.09710715,0.19916672,-0.0629666,0.029615201,0.07508474,0.24140541,0.19975086,0.10075671,0.1643909,0.20741497,0.030271921,0.15478848,0.099379994,0.25241366,0.03750866,0.39175507,0.09057804,0.051913675,0.1548671,0.2744204,0.3631115,0.017583385,0.0084578395,-0.14341982,-0.0029964405,-0.048683967,0.29154313,0.06470682,-0.014238141,0.5640732,-0.048324082,-0.20674862,0.26810685,0.046285417,0.24591444,0.010161566,-0.122838296,-0.009763492,-0.23893958,-0.51602393,-0.21774349,-0.18613967,0.0889686,-0.011459207,0.5462146,0.01397694,-0.009740678,-0.0038939505,-0.21610825,-0.17209128,0.092954226,0.17324577,-0.23993325,-0.26042795,-0.028523508,0.14407627,-0.071986176,-0.13407704,-0.038640536,0.07017687,-0.039213788,-0.25033394,-0.1852871,0.5551478,-0.4584366,0.13624164,0.13682595,0.16001996,0.21411943,-0.017628368,0.12787876,0.16148822,-0.14720073,-0.24276434,-0.111608714,0.33250266,0.019788262,-0.06536373,-0.08485074,0.29697114,0.3860546,0.3021216,-0.02905141,0.19883496,0.093795665,0.14954145,0.0943609,0.20884313,0.18926507,-0.12946917,0.27480912,-0.21854025,-0.36611515,0.06096128,-0.13293484,-0.1389296,0.41827878,0.123290956,-0.07343463,-0.04837702,-0.024939163,0.049387448,0.015537819,-0.16878174,0.09024931,-0.05096141,0.17886464,0.22509107,0.10945287,0.022080021,0.23213266,0.07231226,0.087448515,-0.09007072,-0.042772915,0.23827265,0.2659081,-0.06294292,0.26466584,0.2895806,0.035056166,0.0016882815,0.015026014,0.15332219,0.26345026,0.0630942,0.061765816,0.041162033,0.21267422
-0.22495484,-0.03728187,0.12532364,0.2545652,-0.017610513,0.037661493,0.04969551,-0.08154175,0.4065219,0.1147304,0.14621046,0.061260223,0.51733714,0.10593775,-0.15214846,-0.0057018404,-0.06437282,-0.19437057,0.29861754,0.38445777,0.0930548,0.1878943,0.327785,0.11281762,0.15955767,0.24653599,0.22191592,0.3419329,0.17773496,0.15948337,0.11381867,-0.21971637,0.070783,0.022459518,0.46917054,0.27367154,-0.046229567,-0.14355226,0.01152245,-0.06633064,-0.021025484,0.03538795,-0.07729399,0.083836436,-0.20626393,0.23137109,-0.12275011,0.090312846,0.212789,-0.13151515,0.0990116,0.12719154,-0.043305796,0.16691704,-0.09015555,-0.029666524,-0.24621229,0.0075188014,0.507985,0.21788697,-0.069570355,0.048551615,0.23913772,0.06252968,-0.030982945,-0.0902858,0.15901595,0.040691208,-0.15228054,-0.17681861,-0.14408126,-0.19777627,-0.09806323,0.046498876,0.03979688,-0.0507228,0.111092016,-0.08911557,-0.19420625,-0.1113757,0.043888748,-0.07116481,0.013671296,-0.22143482,-0.22911893,0.08474908,-0.3109795,-0.13935603,0.0069926274,0.029971307,0.054711666,0.1019208,0.101782486,-0.2500397,0.08254431,0.046522945,0.0054777265,-0.15801072,-0.21002659,-0.16025124,-0.28859577,0.03408556,0.08346863,-0.13044451,-0.09445553,-0.12241693,0.023197792,0.05755365,0.084923945,0.007871211,0.1695069,0.19430913,-0.14058447,-0.12296566,0.07322585,-0.19674455,-0.045356315,-0.15625937,0.09231474,0.17803195,0.18326648,0.008560926,0.08051977,0.2293017,0.0072388034,0.06745827,0.16223446,-0.046298753,0.054923434,-0.18443732,-0.03663281,0.14648014,0.08357166,0.14044766,-0.43765247,0.06938035,-0.029878087,0.21548644,-0.089070074,-0.1159814,-0.030447634,-0.13481951,0.11091518,-0.11690001,0.32068673,0.0907011,-0.07254374,0.08324264,-0.054790452,-0.05847751,0.046745084,0.046783462,-0.10831913,0.18877773,0.047698855,-0.07893685,-0.12949444,0.16280058,0.33417314,-0.047137383,-0.06697571,-0.04240158,0.33610895,0.2458259,-0.03557374,0.44151577,0.1089847,-0.005537126,-0.19156446,0.07292685,0.08645697,0.14599085,-0.10519388,0.19490825,0.28215188,-0.031033838,0.3212999,0.12258305,0.031091344,-0.047861956,-0.016885338,-0.182063,-0.054583367,-0.09495956,0.15562366,0.3570074,-0.06480638,0.090896465,0.087077394,0.11789813,0.033851035,0.4465081,0.3076262,-0.009450638,0.067930885,0.094910264,0.09464956,0.06543895,-0.01339359,-0.054553695
